~o
<STREAMINFO> 1 39
<VECSIZE> 39<NULLD><MFCC_D_A_0><DIAGC>
~h "k"
<BEGINHMM>
<NUMSTATES> 5
<STATE> 2
<MEAN> 39
 -1.518524e+01 3.694521e+00 -4.980351e+00 9.359480e+00 -4.652696e+00 1.238053e+01 -3.369089e+00 7.490674e+00 -3.170471e+00 7.110013e-01 -1.496899e+00 -2.415342e+00 4.656869e+01 -9.303331e-02 6.426923e-02 -7.434717e-02 2.210282e-02 -5.033549e-02 -6.878000e-02 1.481498e-02 1.378857e-01 1.089132e-01 1.731753e-02 4.977141e-02 1.641239e-02 -1.315912e-01 1.435205e-02 -1.285325e-01 1.684068e-02 -3.221698e-02 2.037345e-02 -3.410373e-02 -2.980112e-03 -1.217434e-01 -5.175037e-02 6.008148e-05 -8.930800e-03 -5.735524e-03 1.165306e-01
<VARIANCE> 39
 4.638523e+00 4.327103e+00 4.775410e+00 4.402187e+00 8.891286e+00 1.464175e+01 1.993636e+01 2.102762e+01 1.620362e+01 1.221222e+01 1.136100e+01 1.155724e+01 4.700891e+00 9.559850e-02 2.964692e-01 3.338121e-01 3.508139e-01 5.244969e-01 6.605808e-01 7.499621e-01 8.427249e-01 8.311042e-01 8.705537e-01 8.038496e-01 7.042146e-01 9.558169e-02 1.997707e-02 1.549647e-01 6.697250e-02 1.021961e-01 1.277666e-01 1.747379e-01 1.643420e-01 2.155717e-01 1.787305e-01 1.879957e-01 1.621105e-01 1.411385e-01 1.082838e-01
<GCONST> 6.257697e+01
<STATE> 3
<MEAN> 39
 -1.554401e+01 -1.832275e+01 -2.444031e+00 -2.000473e+00 2.404331e+00 3.713951e-01 -1.724475e+00 -1.082583e+01 -2.629834e+00 3.795279e-01 -2.919407e+00 -3.218644e+00 7.104460e+01 2.607038e-01 -1.604785e+00 4.974525e-02 -5.819791e-01 2.302581e-01 -4.985291e-01 -2.756616e-01 -1.358454e+00 -1.179184e-01 1.678020e-01 -3.008680e-01 -9.297906e-02 1.378909e+00 8.984596e-02 2.360141e-01 -8.656877e-02 2.139580e-01 -1.363485e-01 2.329943e-01 -1.226898e-01 2.215484e-01 -1.407775e-02 2.210578e-02 -3.079269e-02 2.227155e-03 -3.154097e-01
<VARIANCE> 39
 1.580464e+01 1.695420e+02 1.929669e+01 8.194770e+01 4.051710e+01 1.063167e+02 3.457454e+01 1.665562e+02 3.624845e+01 2.588799e+01 2.693357e+01 2.360427e+01 2.441139e+02 1.417085e+00 1.771852e+01 1.965720e+00 9.298476e+00 5.116863e+00 1.356271e+01 3.796381e+00 1.642643e+01 3.478690e+00 2.789236e+00 2.131202e+00 1.870116e+00 3.126262e+01 1.913104e-01 2.929248e+00 3.824195e-01 1.371112e+00 8.114901e-01 2.072402e+00 6.099861e-01 2.610886e+00 6.892923e-01 5.384625e-01 4.177606e-01 3.819249e-01 4.771495e+00
<GCONST> 1.428557e+02
<STATE> 4
<MEAN> 39
 -1.032714e+01 -1.101172e+01 -6.771132e+00 9.528014e+00 -2.954145e+00 1.114050e+01 -8.417612e+00 -5.995722e+00 -6.437030e+00 4.403615e+00 -4.840164e+00 -4.883691e+00 5.734981e+01 -1.232318e-01 1.667895e+00 -3.407256e-01 9.632735e-01 -3.678787e-02 8.124651e-01 1.908982e-01 1.266205e+00 -3.832971e-02 1.077565e-01 3.713381e-01 -1.790400e-02 -1.559362e+00 -1.796448e-01 -8.555564e-02 1.743065e-01 -2.934861e-01 1.535761e-01 -2.530415e-01 2.069843e-01 -6.193946e-02 1.028152e-01 -8.903964e-02 7.571869e-02 2.080049e-02 2.554219e-01
<VARIANCE> 39
 8.464152e+00 4.381533e+01 1.295790e+01 2.533674e+01 1.567080e+01 2.839636e+01 3.735729e+01 4.461017e+01 3.943788e+01 2.204914e+01 2.852411e+01 2.422410e+01 2.533057e+01 9.912063e-01 9.647419e-01 1.239123e+00 2.873663e+00 2.180247e+00 2.387144e+00 2.840583e+00 3.159181e+00 4.400034e+00 2.000962e+00 1.748760e+00 1.479020e+00 9.367768e-01 1.333235e-01 1.874148e-01 1.772104e-01 3.109170e-01 3.830694e-01 3.637225e-01 5.293807e-01 6.514166e-01 8.115401e-01 3.956503e-01 3.598670e-01 2.854860e-01 1.472894e-01
<GCONST> 1.066204e+02
<TRANSP> 5
 0.000000e+00 1.000000e+00 0.000000e+00 0.000000e+00 0.000000e+00
 0.000000e+00 9.161052e-01 8.389482e-02 0.000000e+00 0.000000e+00
 0.000000e+00 0.000000e+00 9.186055e-01 8.139446e-02 0.000000e+00
 0.000000e+00 0.000000e+00 0.000000e+00 8.803771e-01 1.196229e-01
 0.000000e+00 0.000000e+00 0.000000e+00 0.000000e+00 0.000000e+00
<ENDHMM>
~h "p"
<BEGINHMM>
<NUMSTATES> 5
<STATE> 2
<MEAN> 39
 -1.463588e+01 4.260241e+00 -4.709336e+00 9.500944e+00 -5.293478e+00 1.137341e+01 -4.371698e+00 6.729887e+00 -3.915612e+00 -3.239283e-01 -2.643338e+00 -3.404394e+00 4.675292e+01 -1.288355e-01 1.819416e-02 -1.191411e-01 -4.736283e-02 -8.833680e-02 -4.697453e-02 -1.674518e-03 1.019085e-01 9.282364e-02 5.164117e-02 8.744030e-02 6.098150e-02 -1.478605e-01 3.607547e-02 -8.082926e-02 4.688895e-02 -2.849285e-02 9.112186e-03 -6.316887e-02 1.047713e-02 -8.187468e-02 -5.175855e-02 -4.238096e-02 -4.208913e-03 -2.184431e-03 1.204161e-01
<VARIANCE> 39
 5.903778e+00 4.354599e+00 4.897812e+00 4.787349e+00 8.295814e+00 1.337928e+01 1.932264e+01 1.931820e+01 1.569154e+01 1.115712e+01 9.720870e+00 9.284984e+00 5.770904e+00 1.028185e-01 2.827264e-01 3.232507e-01 4.499628e-01 5.478191e-01 6.117576e-01 7.332025e-01 8.328303e-01 8.487971e-01 8.068144e-01 7.309152e-01 6.860970e-01 9.558169e-02 3.082058e-02 1.119627e-01 7.876986e-02 1.202071e-01 1.361790e-01 1.639251e-01 1.713135e-01 2.138013e-01 1.790406e-01 1.774016e-01 1.588297e-01 1.396594e-01 1.465513e-01
<GCONST> 6.304591e+01
<STATE> 3
<MEAN> 39
 -9.230131e+00 -5.204109e+00 2.098820e+00 3.654283e+00 8.167455e-01 3.849590e+00 -3.817839e-01 -1.283174e+00 -4.152314e+00 -5.974449e+00 -3.151229e+00 -3.125185e+00 6.598396e+01 1.424649e+00 -1.089435e+00 8.709862e-01 -2.343941e-01 5.842568e-01 -4.674165e-01 3.984957e-01 -7.611102e-01 -1.294062e-01 -8.979963e-01 -5.649187e-01 -1.546161e-01 2.415398e+00 6.522705e-02 3.497927e-01 -1.949891e-01 3.488524e-01 -3.151948e-01 4.064869e-01 -2.061619e-01 3.319623e-01 -3.280622e-02 1.868410e-01 -1.044874e-01 -5.932303e-02 -6.093267e-01
<VARIANCE> 39
 3.980804e+01 6.009706e+01 3.931229e+01 4.780955e+01 5.092408e+01 7.140340e+01 3.347466e+01 8.132875e+01 2.748283e+01 4.157030e+01 2.333935e+01 1.795471e+01 2.482648e+02 2.016026e+00 7.767821e+00 4.436451e+00 7.439240e+00 7.579395e+00 1.235721e+01 4.285374e+00 1.284114e+01 2.552196e+00 4.616917e+00 2.343976e+00 1.602226e+00 3.553340e+01 4.327611e-01 1.540833e+00 9.496982e-01 1.278136e+00 1.496191e+00 2.236556e+00 8.535118e-01 2.488389e+00 5.114452e-01 9.799814e-01 4.524384e-01 3.156798e-01 7.404499e+00
<GCONST> 1.449680e+02
<STATE> 4
<MEAN> 39
 -3.274404e+00 4.318182e+00 1.315129e+00 1.309542e+01 -3.545335e+00 1.060363e+01 -4.281253e+00 2.768731e+00 -8.191151e+00 -4.752988e+00 -7.785272e+00 -6.636871e+00 5.727712e+01 -5.302223e-01 1.125437e+00 -3.898875e-01 4.912807e-01 -3.152314e-01 3.890336e-01 -3.169026e-01 4.232275e-01 -3.048880e-01 4.298058e-01 1.157725e-01 -1.149102e-01 -1.543835e+00 -1.811809e-01 -2.041968e-01 8.890804e-02 -2.963735e-01 2.404837e-01 -2.576445e-01 1.400279e-01 -2.099553e-01 5.051985e-02 -8.986965e-02 1.333230e-01 7.818159e-02 3.011013e-01
<VARIANCE> 39
 1.857451e+01 3.383335e+01 1.798137e+01 1.924387e+01 1.884801e+01 1.739260e+01 1.786734e+01 1.633631e+01 2.259155e+01 1.889709e+01 1.488249e+01 1.484401e+01 2.855243e+01 7.477394e-01 1.576416e+00 1.410354e+00 2.144254e+00 2.655468e+00 2.258918e+00 1.719486e+00 1.704489e+00 1.825511e+00 1.707245e+00 1.254602e+00 1.238907e+00 1.325392e+00 7.961973e-02 1.352738e-01 2.330458e-01 3.103001e-01 4.382642e-01 5.307587e-01 3.140814e-01 3.685471e-01 3.295786e-01 3.067496e-01 2.735817e-01 2.265503e-01 1.170909e-01
<GCONST> 9.824953e+01
<TRANSP> 5
 0.000000e+00 1.000000e+00 0.000000e+00 0.000000e+00 0.000000e+00
 0.000000e+00 9.154769e-01 8.452314e-02 0.000000e+00 0.000000e+00
 0.000000e+00 0.000000e+00 8.606936e-01 1.393064e-01 0.000000e+00
 0.000000e+00 0.000000e+00 0.000000e+00 8.778023e-01 1.221977e-01
 0.000000e+00 0.000000e+00 0.000000e+00 0.000000e+00 0.000000e+00
<ENDHMM>
~h "s"
<BEGINHMM>
<NUMSTATES> 5
<STATE> 2
<MEAN> 39
 -1.425332e+01 3.298015e+00 -4.704933e+00 8.850443e+00 -5.387444e+00 1.068804e+01 -5.238826e+00 5.688777e+00 -4.558123e+00 -3.331809e-01 -2.756656e+00 -3.247581e+00 4.769262e+01 -9.547930e-02 1.216835e-01 -7.655987e-02 2.941936e-03 -1.371514e-01 -2.435007e-02 6.295229e-02 1.532402e-01 1.064697e-01 1.342325e-03 3.652104e-02 2.869321e-02 -1.775452e-01 -5.577163e-02 -2.281306e-01 7.276616e-02 -3.991045e-02 6.220464e-02 -9.930073e-02 9.067468e-02 -2.268973e-01 -4.540665e-02 -4.029474e-02 -2.952588e-02 4.660033e-02 1.802646e-01
<VARIANCE> 39
 6.006185e+00 8.317587e+00 6.879464e+00 6.609170e+00 1.022355e+01 1.476512e+01 2.064580e+01 1.826275e+01 1.447861e+01 1.242478e+01 1.183005e+01 1.043929e+01 8.402042e+00 1.617417e-01 3.804784e-01 5.039511e-01 5.205547e-01 6.254571e-01 7.934639e-01 8.893264e-01 1.047741e+00 9.336420e-01 9.486244e-01 8.190242e-01 7.613289e-01 1.451538e-01 6.082259e-02 2.543594e-01 1.290269e-01 1.533446e-01 1.871695e-01 2.573116e-01 2.485392e-01 3.211312e-01 2.304841e-01 2.033359e-01 1.822826e-01 1.888038e-01 1.707033e-01
<GCONST> 7.322015e+01
<STATE> 3
<MEAN> 39
 -2.600285e+01 -1.517337e+01 6.674753e+00 -7.577341e+00 7.137220e+00 1.853505e+00 3.390888e+00 -6.501247e+00 -2.507300e+00 -4.044846e+00 -7.473590e-01 8.548980e-01 6.948019e+01 -2.870250e-01 -6.209665e-01 6.716425e-01 -6.728208e-01 3.151521e-01 -3.980154e-02 1.733203e-01 -2.357446e-01 -1.384307e-01 -1.569263e-01 -8.757187e-02 1.592075e-01 6.086402e-01 1.131922e-01 1.958180e-01 -6.860692e-02 1.245083e-01 -1.215444e-01 1.251163e-01 -1.369998e-01 1.536795e-01 -2.910420e-02 4.633646e-02 -1.718851e-02 -6.135517e-02 -1.918503e-01
<VARIANCE> 39
 5.071898e+01 7.355391e+01 5.950345e+01 9.710263e+01 6.974219e+01 7.658054e+01 4.250953e+01 6.154993e+01 2.857327e+01 2.579085e+01 2.999094e+01 1.996481e+01 1.209882e+02 4.402769e+00 7.979030e+00 2.705899e+00 7.129098e+00 6.420118e+00 7.466547e+00 4.621591e+00 7.274967e+00 2.447503e+00 2.296358e+00 2.156579e+00 1.874042e+00 1.124242e+01 4.633749e-01 1.096703e+00 4.709650e-01 8.904915e-01 8.819566e-01 1.051908e+00 7.125435e-01 1.072943e+00 4.350715e-01 4.285014e-01 3.802058e-01 3.636177e-01 1.120063e+00
<GCONST> 1.368212e+02
<STATE> 4
<MEAN> 39
 -1.650987e+01 -4.835778e+00 6.138072e+00 1.128016e+00 -4.557984e+00 1.365722e+01 -5.061392e+00 3.135991e+00 -6.748881e+00 -1.693782e+00 -4.490163e+00 -2.229314e+00 5.515948e+01 8.805574e-01 1.634705e+00 -1.511896e+00 1.667264e+00 -1.305701e+00 5.869225e-01 -6.393300e-01 7.172853e-01 4.402733e-01 4.413528e-01 3.098429e-01 -4.359683e-01 -1.624180e+00 -2.277791e-01 -2.630596e-01 -8.742806e-02 -1.820085e-01 3.453560e-01 -3.902835e-01 3.121971e-01 -3.043185e-01 1.336213e-01 -6.418823e-02 1.068842e-01 1.120575e-01 3.290217e-01
<VARIANCE> 39
 1.526090e+01 2.732938e+01 3.717611e+01 3.364260e+01 3.876217e+01 3.339934e+01 3.061475e+01 2.409932e+01 2.473850e+01 2.261093e+01 2.080292e+01 1.630882e+01 1.842117e+01 7.427247e-01 1.352174e+00 1.408560e+00 1.552516e+00 2.942566e+00 3.287477e+00 2.200721e+00 2.043364e+00 2.144766e+00 1.934814e+00 1.660212e+00 1.325312e+00 8.052948e-01 8.493812e-02 2.023707e-01 2.177040e-01 2.182631e-01 4.173814e-01 4.454933e-01 3.428605e-01 4.283130e-01 4.679474e-01 4.026686e-01 3.607449e-01 2.602708e-01 8.881303e-02
<GCONST> 1.030666e+02
<TRANSP> 5
 0.000000e+00 1.000000e+00 0.000000e+00 0.000000e+00 0.000000e+00
 0.000000e+00 8.235769e-01 1.764232e-01 0.000000e+00 0.000000e+00
 0.000000e+00 0.000000e+00 9.359826e-01 6.401735e-02 0.000000e+00
 0.000000e+00 0.000000e+00 0.000000e+00 7.722439e-01 2.277561e-01
 0.000000e+00 0.000000e+00 0.000000e+00 0.000000e+00 0.000000e+00
<ENDHMM>
~h "sil"
<BEGINHMM>
<NUMSTATES> 5
<STATE> 2
<MEAN> 39
 -1.761091e+01 4.420384e+00 -5.059219e+00 7.427273e+00 -4.584047e+00 1.187097e+01 -6.003765e+00 5.623871e+00 -3.676111e+00 1.360081e-01 -2.514525e+00 -2.817019e+00 4.475583e+01 -1.298063e-01 1.855439e-01 -1.458088e-01 6.438003e-02 -6.763214e-02 -7.257172e-02 3.617588e-02 1.228711e-01 -1.307813e-03 -7.981874e-03 9.694126e-02 7.446897e-02 -2.659124e-01 4.071449e-02 -1.463219e-01 6.793188e-02 -6.965426e-03 -1.727121e-02 -6.028353e-02 3.128924e-02 -8.439952e-02 -8.727778e-02 -4.514921e-02 -1.284561e-02 -5.457984e-03 1.453947e-01
<VARIANCE> 39
 8.007217e+01 2.892439e+01 1.290498e+01 1.952907e+01 9.993582e+00 1.439472e+01 3.109138e+01 1.792080e+01 1.807448e+01 1.170958e+01 1.003100e+01 9.318838e+00 8.207474e+01 3.513083e-01 5.717076e-01 5.912322e-01 6.518078e-01 7.806873e-01 9.082149e-01 9.011124e-01 1.105590e+00 1.132947e+00 9.577498e-01 8.541850e-01 7.150777e-01 3.394784e-01 8.460037e-02 1.200362e-01 9.650161e-02 1.391400e-01 1.515666e-01 1.996596e-01 2.032239e-01 2.258594e-01 2.225864e-01 1.763345e-01 1.670596e-01 1.437309e-01 9.572044e-02
<GCONST> 8.135550e+01
<STATE> 3
<MEAN> 39
 -1.774734e+01 -6.135730e+00 -5.077654e-01 1.959626e+00 -3.025770e-02 6.433613e+00 -1.479041e+00 -6.918085e-01 -4.686650e+00 -1.813230e+00 -1.929147e+00 -1.359017e+00 5.831610e+01 4.217420e-01 -5.524018e-01 2.254857e-01 3.689060e-02 3.189597e-02 -3.195145e-01 2.538385e-01 -1.776466e-01 -2.165965e-01 -1.583598e-01 -7.897452e-03 5.883125e-02 7.797006e-01 3.610022e-02 1.283078e-01 -7.450692e-03 4.853482e-02 -2.778122e-02 1.424602e-01 -5.286409e-02 1.047629e-01 6.751680e-02 4.538786e-02 -6.406385e-02 -3.541183e-02 -1.191566e-01
<VARIANCE> 39
 7.367311e+01 1.355436e+02 6.116419e+01 1.063815e+02 7.102049e+01 1.029515e+02 5.497639e+01 9.805320e+01 3.966018e+01 3.178515e+01 3.285739e+01 2.634443e+01 2.399366e+02 4.671230e+00 7.875148e+00 2.735979e+00 6.502403e+00 4.657646e+00 8.230841e+00 3.763320e+00 7.432144e+00 3.392830e+00 2.673982e+00 2.342771e+00 1.775569e+00 1.366051e+01 5.374458e-01 1.297973e+00 4.992386e-01 9.782844e-01 8.118702e-01 1.379018e+00 6.888120e-01 1.306795e+00 7.051467e-01 5.192904e-01 4.648188e-01 3.664582e-01 2.087888e+00
<GCONST> 1.431386e+02
<STATE> 4
<MEAN> 39
 -1.171049e+01 5.716862e-01 -2.094177e+00 9.505935e+00 -4.231651e+00 1.148947e+01 -4.347832e+00 3.270710e+00 -6.565287e+00 -7.232049e-01 -4.118544e+00 -3.909203e+00 5.193987e+01 -2.076007e-01 8.439755e-01 -4.170568e-01 3.385701e-01 -5.349657e-02 3.690127e-01 2.289782e-02 7.276978e-01 4.973197e-01 3.203136e-01 1.392203e-01 -5.838475e-02 -9.414550e-01 -1.060300e-01 -1.226426e-01 2.073279e-02 -1.729746e-01 1.277693e-01 -1.198398e-01 7.921583e-02 -2.131985e-02 1.362467e-01 9.287111e-03 5.727287e-02 5.423560e-02 1.384175e-01
<VARIANCE> 39
 3.179850e+01 4.126344e+01 2.725976e+01 2.419086e+01 1.903434e+01 2.458282e+01 2.996107e+01 3.358957e+01 2.491069e+01 2.803544e+01 2.438868e+01 2.110921e+01 3.427911e+01 8.594726e-01 1.564385e+00 1.321213e+00 2.000790e+00 2.116604e+00 2.430074e+00 2.154581e+00 2.426985e+00 2.661474e+00 1.797502e+00 1.574424e+00 1.351123e+00 1.157547e+00 1.439076e-01 2.109755e-01 1.875842e-01 2.605398e-01 3.361335e-01 4.070939e-01 3.868447e-01 4.125011e-01 4.468892e-01 3.330869e-01 3.051906e-01 2.579982e-01 1.816374e-01
<GCONST> 1.052746e+02
<TRANSP> 5
 0.000000e+00 1.000000e+00 0.000000e+00 0.000000e+00 0.000000e+00
 0.000000e+00 7.000808e-01 2.999192e-01 0.000000e+00 0.000000e+00
 0.000000e+00 0.000000e+00 6.740615e-01 3.259385e-01 0.000000e+00
 0.000000e+00 0.000000e+00 0.000000e+00 4.639989e-01 5.360011e-01
 0.000000e+00 0.000000e+00 0.000000e+00 0.000000e+00 0.000000e+00
<ENDHMM>
