~o
<STREAMINFO> 1 39
<VECSIZE> 39<NULLD><MFCC_D_A_0><DIAGC>
~h "k"
<BEGINHMM>
<NUMSTATES> 5
<STATE> 2
<MEAN> 39
 -1.379234e+01 -4.382086e+00 -5.483423e+00 5.038060e+00 -2.885803e+00 6.725216e+00 -3.459363e+00 1.750955e+00 -2.969332e+00 8.575776e-01 -1.512180e+00 -3.065328e+00 5.599775e+01 -3.554968e-01 -3.513163e+00 4.176292e-01 -1.428124e+00 1.656936e+00 -2.308957e+00 4.805200e-01 -2.798460e+00 1.558776e-01 -1.180757e-01 2.897536e-02 -1.335998e-01 3.934248e+00 -9.288295e-02 -1.057086e+00 1.601936e-01 -6.123053e-01 4.849668e-01 -6.891492e-01 6.582271e-02 -9.849875e-01 7.114817e-02 -1.606130e-01 -5.231967e-02 -7.022798e-02 1.336177e+00
<VARIANCE> 39
 1.589977e+01 1.539802e+02 2.155124e+01 5.498992e+01 5.918237e+01 9.224165e+01 3.632568e+01 1.244114e+02 2.558447e+01 2.314057e+01 2.097926e+01 1.811182e+01 2.028025e+02 1.297679e+00 1.676291e+01 2.156534e+00 6.197498e+00 6.622820e+00 1.037260e+01 3.391273e+00 1.295598e+01 2.917361e+00 2.946436e+00 2.250927e+00 1.948881e+00 2.315347e+01 1.961263e-01 3.684840e+00 3.638101e-01 1.172075e+00 1.359921e+00 2.266534e+00 6.563881e-01 2.630089e+00 5.668907e-01 5.922513e-01 4.467004e-01 3.975383e-01 5.094124e+00
<GCONST> 1.409748e+02
<STATE> 3
<MEAN> 39
 -1.519452e+01 -1.994703e+01 -3.167812e+00 -2.834063e+00 3.833014e+00 -2.902710e+00 -2.499501e+00 -1.253302e+01 -1.789114e+00 -4.150239e-02 -2.356061e+00 -4.126622e+00 7.421678e+01 -6.705041e-02 -2.544618e+00 3.890553e-01 -1.241526e+00 7.958050e-01 -1.322330e+00 -5.556050e-02 -2.438164e+00 1.695378e-01 -6.935360e-02 -2.822191e-01 -2.450803e-01 2.826241e+00 1.548704e-01 7.757818e-01 -1.070262e-01 4.192689e-01 -4.644459e-01 6.582582e-01 -1.786912e-01 6.484361e-01 -5.885385e-02 1.243660e-01 -6.396177e-02 2.163960e-02 -1.021848e+00
<VARIANCE> 39
 1.453932e+01 1.483313e+02 2.251479e+01 6.967294e+01 5.716880e+01 1.121035e+02 3.542984e+01 1.508893e+02 3.522778e+01 3.148030e+01 2.520925e+01 2.776430e+01 2.337396e+02 1.558689e+00 2.130805e+01 2.442791e+00 9.013926e+00 8.047925e+00 1.578371e+01 3.501669e+00 1.852414e+01 3.241927e+00 3.668342e+00 2.158215e+00 2.398995e+00 3.727792e+01 2.239919e-01 3.137860e+00 4.314041e-01 1.308699e+00 1.208300e+00 2.301833e+00 6.027316e-01 2.775636e+00 6.206803e-01 7.454867e-01 4.184094e-01 4.836313e-01 5.400758e+00
<GCONST> 1.463590e+02
<STATE> 4
<MEAN> 39
 -1.216432e+01 -1.760238e+01 -4.415094e+00 2.266484e+00 -5.035914e-01 3.954518e+00 -6.755043e+00 -1.148075e+01 -3.954609e+00 3.070739e+00 -4.587774e+00 -4.619237e+00 6.692031e+01 4.811875e-01 1.391794e+00 -5.008990e-01 1.242378e+00 -7.735497e-01 1.361198e+00 -4.772243e-01 1.221013e+00 -3.368746e-01 4.217985e-01 -4.444098e-02 5.220655e-02 -2.053665e+00 -3.787784e-02 2.052372e-01 -5.523505e-02 5.958888e-02 2.022878e-02 2.619529e-02 5.963729e-02 2.014332e-01 4.566691e-02 -4.262452e-02 6.912147e-02 2.805713e-02 -1.335989e-01
<VARIANCE> 39
 1.632806e+01 6.905722e+01 2.267243e+01 7.248695e+01 3.407423e+01 7.641634e+01 3.955788e+01 7.607168e+01 4.624065e+01 2.537770e+01 2.596068e+01 2.521068e+01 1.269893e+02 1.242338e+00 3.492322e+00 1.847076e+00 3.486406e+00 2.775373e+00 3.937436e+00 3.233679e+00 6.668118e+00 4.399841e+00 2.367994e+00 1.970536e+00 1.900464e+00 6.492083e+00 1.975976e-01 6.907387e-01 3.384102e-01 5.892089e-01 5.004618e-01 7.748489e-01 5.923431e-01 1.332702e+00 9.189394e-01 5.160908e-01 3.738813e-01 3.812665e-01 1.369249e+00
<GCONST> 1.275388e+02
<TRANSP> 5
 0.000000e+00 1.000000e+00 0.000000e+00 0.000000e+00 0.000000e+00
 0.000000e+00 6.724207e-01 3.275792e-01 0.000000e+00 0.000000e+00
 0.000000e+00 0.000000e+00 8.211055e-01 1.788945e-01 0.000000e+00
 0.000000e+00 0.000000e+00 0.000000e+00 8.931526e-01 1.068474e-01
 0.000000e+00 0.000000e+00 0.000000e+00 0.000000e+00 0.000000e+00
<ENDHMM>
~h "p"
<BEGINHMM>
<NUMSTATES> 5
<STATE> 2
<MEAN> 39
 -1.098093e+01 -1.464645e+00 -2.753742e+00 5.177538e+00 -3.493508e+00 6.312204e+00 -3.557770e+00 1.954721e+00 -4.020904e+00 -2.667226e+00 -2.252458e+00 -3.093415e+00 5.733783e+01 1.118044e+00 -1.596643e+00 1.218576e+00 -8.425053e-01 1.203183e+00 -1.553524e+00 6.656173e-01 -1.702063e+00 -2.535728e-01 -1.247919e+00 -9.713249e-02 -7.780305e-02 3.560101e+00 2.556090e-01 -2.186742e-01 2.545887e-01 -3.776984e-02 2.119604e-01 -1.136115e-01 1.031867e-01 -1.915614e-01 -2.280009e-02 -2.009748e-01 -8.418125e-02 -4.208335e-02 5.556753e-01
<VARIANCE> 39
 2.516856e+01 5.233770e+01 4.288245e+01 3.316412e+01 4.513264e+01 6.086884e+01 3.233304e+01 7.260104e+01 2.233097e+01 3.830903e+01 1.758837e+01 1.479098e+01 2.063819e+02 1.873650e+00 5.781124e+00 4.464091e+00 4.463419e+00 5.523051e+00 8.027615e+00 3.114841e+00 9.352942e+00 2.603420e+00 4.338050e+00 1.930080e+00 1.596133e+00 2.478344e+01 3.058751e-01 1.353545e+00 9.793107e-01 1.005291e+00 1.338930e+00 1.968477e+00 6.624576e-01 2.208314e+00 4.872630e-01 9.615551e-01 3.717798e-01 3.150117e-01 6.176640e+00
<GCONST> 1.381103e+02
<STATE> 3
<MEAN> 39
 -5.600988e+00 -5.970665e+00 1.684918e+00 4.012096e+00 2.853208e-01 2.837567e+00 -1.518896e+00 -2.387480e+00 -4.810495e+00 -7.014058e+00 -3.732165e+00 -3.813400e+00 6.875752e+01 1.123692e+00 -9.728500e-02 2.959013e-01 5.855460e-01 -3.235180e-02 3.377781e-01 6.646413e-02 7.347567e-02 -1.896116e-01 -3.475294e-01 -5.454341e-01 -2.268350e-01 6.373295e-01 -1.729661e-01 5.565579e-01 -4.291527e-01 3.729343e-01 -4.768644e-01 5.100566e-01 -2.595361e-01 5.278809e-01 -1.696768e-02 3.901726e-01 -4.314853e-02 -1.190782e-02 -1.117824e+00
<VARIANCE> 39
 2.202425e+01 4.201027e+01 3.762611e+01 4.264721e+01 5.409144e+01 6.805446e+01 3.324948e+01 6.628169e+01 2.867242e+01 3.791107e+01 2.665208e+01 1.943030e+01 1.660312e+02 1.614097e+00 7.051763e+00 5.830679e+00 5.722317e+00 8.876134e+00 1.124265e+01 3.840651e+00 1.119914e+01 2.661610e+00 5.458771e+00 2.217403e+00 1.688707e+00 3.277992e+01 2.469043e-01 1.047175e+00 9.803239e-01 1.028943e+00 1.643417e+00 2.205462e+00 7.253851e-01 2.131596e+00 5.578262e-01 9.653507e-01 4.761977e-01 3.555485e-01 5.447599e+00
<GCONST> 1.416200e+02
<STATE> 4
<MEAN> 39
 -5.767403e+00 3.656506e+00 -1.416483e+00 1.089926e+01 -4.444746e+00 9.194682e+00 -5.184005e+00 2.858371e+00 -7.604677e+00 -4.026600e+00 -6.074885e+00 -5.744654e+00 5.540527e+01 -4.720677e-01 6.343934e-01 -4.039663e-01 1.483201e-01 -2.846814e-01 3.200023e-01 -2.032554e-01 3.703325e-01 -7.525659e-02 3.306260e-01 8.909117e-02 -1.040522e-02 -1.131471e+00 -8.938850e-02 -9.651666e-02 5.732704e-02 -1.296302e-01 1.084720e-01 -9.797554e-02 5.436271e-02 -7.574996e-02 6.249831e-02 -2.281396e-02 7.097679e-02 4.013618e-02 1.345928e-01
<VARIANCE> 39
 2.176524e+01 3.234506e+01 2.707023e+01 2.228687e+01 2.049334e+01 2.251827e+01 2.045533e+01 2.032884e+01 2.008108e+01 1.779516e+01 1.703959e+01 1.394279e+01 4.548637e+01 6.640100e-01 1.809379e+00 1.459385e+00 2.023932e+00 2.309513e+00 2.465268e+00 1.664574e+00 2.302898e+00 2.067429e+00 1.739325e+00 1.454245e+00 1.187541e+00 2.644594e+00 7.581927e-02 2.455266e-01 2.711960e-01 3.380877e-01 4.595254e-01 5.313992e-01 3.326266e-01 4.849342e-01 3.932003e-01 3.594628e-01 2.976934e-01 2.368373e-01 4.654000e-01
<GCONST> 1.041352e+02
<TRANSP> 5
 0.000000e+00 1.000000e+00 0.000000e+00 0.000000e+00 0.000000e+00
 0.000000e+00 7.412460e-01 2.587540e-01 0.000000e+00 0.000000e+00
 0.000000e+00 0.000000e+00 8.006207e-01 1.993793e-01 0.000000e+00
 0.000000e+00 0.000000e+00 0.000000e+00 9.212601e-01 7.873993e-02
 0.000000e+00 0.000000e+00 0.000000e+00 0.000000e+00 0.000000e+00
<ENDHMM>
~h "s"
<BEGINHMM>
<NUMSTATES> 5
<STATE> 2
<MEAN> 39
 -1.839360e+01 -7.379320e+00 -1.573971e+00 3.511885e+00 -8.983935e-01 4.442962e+00 6.042886e-01 -1.600569e+00 -3.110320e+00 -1.366405e+00 -2.103808e+00 -4.101975e-01 5.821038e+01 -2.380704e+00 -3.733976e+00 1.701355e+00 -2.566864e+00 2.511274e+00 -2.808982e+00 2.205299e+00 -3.026596e+00 3.708958e-01 -8.764927e-01 3.677926e-01 1.004598e+00 4.217141e+00 -4.139434e-01 -1.646679e-01 2.962799e-01 -7.162713e-01 5.910184e-01 -2.730100e-01 5.841510e-02 -1.139497e-01 2.815862e-02 -1.255597e-01 1.210729e-01 -5.406149e-02 6.060306e-01
<VARIANCE> 39
 4.946256e+01 1.133378e+02 4.957345e+01 8.603411e+01 7.826915e+01 8.993840e+01 6.485912e+01 9.569696e+01 3.349461e+01 3.378751e+01 3.312966e+01 2.998005e+01 1.273105e+02 3.466087e+00 9.089932e+00 4.719397e+00 7.477612e+00 7.036796e+00 8.256872e+00 5.582125e+00 8.959675e+00 3.334056e+00 3.294964e+00 2.862787e+00 2.913859e+00 7.831919e+00 7.105693e-01 2.296722e+00 9.218696e-01 1.410650e+00 1.501911e+00 1.873343e+00 1.210693e+00 2.082016e+00 5.578884e-01 6.135120e-01 5.266636e-01 5.932033e-01 2.019858e+00
<GCONST> 1.477821e+02
<STATE> 3
<MEAN> 39
 -2.698993e+01 -1.665534e+01 5.260996e+00 -8.347466e+00 9.170877e+00 -3.018200e+00 5.398370e+00 -8.399771e+00 -2.275236e+00 -4.541279e+00 -2.861600e-01 1.176514e+00 7.212519e+01 -1.354477e+00 -1.177566e+00 1.268131e+00 -2.173369e+00 1.556421e+00 -6.813646e-01 3.568545e-01 -6.220662e-01 1.722920e-02 -5.367252e-01 3.865206e-01 1.434972e-02 2.180209e+00 4.688365e-01 6.246057e-01 -2.356337e-01 4.466080e-01 -5.339553e-01 6.366951e-01 -4.430989e-01 5.655936e-01 -7.771563e-02 1.460369e-01 -7.412834e-02 -1.627959e-01 -7.491152e-01
<VARIANCE> 39
 4.085809e+01 4.417959e+01 5.305173e+01 8.250800e+01 7.207618e+01 6.968938e+01 4.148548e+01 4.728468e+01 3.471691e+01 2.834402e+01 3.478827e+01 2.253453e+01 7.383798e+01 5.610314e+00 7.645996e+00 4.557580e+00 8.292634e+00 8.962776e+00 9.156609e+00 5.201062e+00 7.261322e+00 2.740806e+00 2.703352e+00 2.719405e+00 2.160893e+00 1.053741e+01 5.940896e-01 1.069773e+00 7.960616e-01 1.173694e+00 1.213392e+00 1.215955e+00 8.432399e-01 1.140080e+00 5.495219e-01 5.326383e-01 5.243714e-01 4.577244e-01 9.295913e-01
<GCONST> 1.401791e+02
<STATE> 4
<MEAN> 39
 -2.640151e+01 -1.618808e+01 9.944584e+00 -1.069616e+01 7.065450e+00 3.306334e+00 1.791629e+00 -5.735866e+00 -3.137820e+00 -4.289083e+00 -6.425195e-01 8.058807e-01 7.070385e+01 1.032486e+00 9.871697e-01 -1.048440e-01 9.089590e-01 -1.186684e+00 1.297036e+00 -7.648631e-01 1.038558e+00 -3.581251e-01 3.489535e-01 -3.599723e-01 -1.636317e-01 -1.578118e+00 1.412882e-01 1.949171e-01 -2.128662e-01 2.607825e-01 -1.931783e-01 5.103635e-02 -6.441803e-02 8.727507e-02 4.163030e-02 8.126688e-02 7.351737e-03 -3.372537e-02 -2.513159e-01
<VARIANCE> 39
 4.035896e+01 3.679832e+01 3.264792e+01 4.369237e+01 6.724234e+01 7.606084e+01 3.629231e+01 4.829647e+01 3.277472e+01 2.310756e+01 3.002680e+01 1.659402e+01 7.457640e+01 1.941985e+00 2.792168e+00 2.288530e+00 2.894176e+00 3.123757e+00 2.747892e+00 2.426195e+00 3.027534e+00 2.336092e+00 1.924167e+00 1.882887e+00 1.265810e+00 3.313766e+00 2.756761e-01 3.828063e-01 2.929687e-01 3.463684e-01 4.673224e-01 5.175412e-01 4.517900e-01 5.600340e-01 4.709246e-01 3.684300e-01 3.881288e-01 2.622635e-01 3.679520e-01
<GCONST> 1.183331e+02
<TRANSP> 5
 0.000000e+00 1.000000e+00 0.000000e+00 0.000000e+00 0.000000e+00
 0.000000e+00 6.952949e-01 3.047051e-01 0.000000e+00 0.000000e+00
 0.000000e+00 0.000000e+00 7.974631e-01 2.025369e-01 0.000000e+00
 0.000000e+00 0.000000e+00 0.000000e+00 9.074017e-01 9.259826e-02
 0.000000e+00 0.000000e+00 0.000000e+00 0.000000e+00 0.000000e+00
<ENDHMM>
~h "sil"
<BEGINHMM>
<NUMSTATES> 5
<STATE> 2
<MEAN> 39
 -1.796998e+01 2.034943e+00 -5.116426e+00 4.673717e+00 -4.655620e+00 1.148023e+01 -7.427054e+00 4.021891e+00 -3.419160e+00 6.977203e-01 -2.491163e+00 -2.517915e+00 4.630662e+01 9.817171e-02 6.365072e-01 -4.909303e-01 4.773150e-01 -3.666679e-01 2.136941e-01 -7.422741e-02 5.029432e-01 2.379002e-01 1.862550e-01 2.347165e-01 -8.530750e-03 -6.981797e-01 -1.834674e-02 -1.701364e-01 3.935083e-02 -4.980296e-02 9.352716e-02 -1.677825e-01 1.212306e-01 -1.211052e-01 -2.400653e-02 -5.294967e-02 7.113553e-03 7.632540e-03 2.132871e-01
<VARIANCE> 39
 1.120194e+02 7.394441e+01 4.046524e+01 3.242232e+01 1.895277e+01 2.415868e+01 3.477765e+01 2.845468e+01 2.284969e+01 1.655713e+01 1.371199e+01 1.199700e+01 1.402919e+02 1.130705e+00 1.649909e+00 1.229286e+00 1.750254e+00 1.850502e+00 1.914304e+00 1.548215e+00 1.817786e+00 1.875080e+00 1.349748e+00 1.183323e+00 1.034209e+00 1.389623e+00 2.068458e-01 2.037863e-01 1.472517e-01 2.182750e-01 2.857720e-01 3.182957e-01 3.001596e-01 3.295462e-01 3.453553e-01 2.517177e-01 2.361080e-01 1.966510e-01 1.869615e-01
<GCONST> 1.035295e+02
<STATE> 3
<MEAN> 39
 -1.571097e+01 1.540482e+00 -6.048757e+00 6.116677e+00 -5.729937e+00 1.081919e+01 -6.625127e+00 4.657988e+00 -3.715884e+00 9.274552e-01 -1.849828e+00 -2.500242e+00 4.751572e+01 3.221397e-01 2.957315e-01 -3.627367e-01 4.987492e-01 -2.197770e-01 -4.676291e-03 1.736165e-01 3.623216e-01 9.505716e-02 9.241468e-02 1.719140e-01 -7.662209e-03 -1.957270e-01 -3.478275e-02 -9.142596e-02 8.454198e-02 -9.324392e-02 1.181732e-01 -9.262776e-02 6.374986e-02 -9.120163e-02 -1.546887e-02 -5.406638e-02 -6.207378e-02 3.832529e-04 1.432017e-01
<VARIANCE> 39
 7.134769e+01 5.254902e+01 3.429995e+01 2.814302e+01 2.019875e+01 2.659074e+01 3.389437e+01 2.900334e+01 2.334929e+01 1.718916e+01 1.725785e+01 1.309714e+01 8.371398e+01 5.669029e+00 3.081311e+00 1.404873e+00 2.101454e+00 1.956790e+00 2.190243e+00 2.044971e+00 1.785264e+00 2.134760e+00 1.409241e+00 1.419519e+00 1.103385e+00 5.462750e+00 6.509767e-01 4.646620e-01 1.927803e-01 3.421097e-01 3.622850e-01 4.534108e-01 3.899740e-01 3.645153e-01 4.236146e-01 2.838816e-01 2.917674e-01 2.249788e-01 6.398924e-01
<GCONST> 1.127802e+02
<STATE> 4
<MEAN> 39
 -1.347019e+01 2.535140e+00 -7.326923e+00 7.396622e+00 -6.624071e+00 1.013328e+01 -5.854525e+00 5.919358e+00 -3.470200e+00 7.978771e-01 -1.645891e+00 -2.678745e+00 4.795420e+01 -6.322663e-02 1.536972e-01 -8.509681e-02 3.335140e-02 -3.543886e-02 -5.587824e-02 5.996534e-02 1.182259e-01 7.872266e-02 -2.218306e-02 2.288412e-02 2.210457e-02 -1.485724e-01 -3.668033e-02 -1.473032e-01 6.324773e-02 -6.373299e-02 5.334933e-02 -7.673576e-02 4.162603e-02 -1.174875e-01 -1.585923e-02 -2.607670e-02 -2.696968e-03 2.391758e-02 1.412229e-01
<VARIANCE> 39
 1.573816e+01 1.344715e+01 1.611627e+01 1.171178e+01 1.285439e+01 1.693638e+01 2.105153e+01 1.905311e+01 1.547460e+01 1.233109e+01 1.146762e+01 1.029695e+01 1.250174e+01 2.534111e-01 8.324370e-01 5.923161e-01 7.300651e-01 8.002481e-01 9.416749e-01 1.016081e+00 1.196880e+00 1.146473e+00 1.001341e+00 9.568515e-01 8.421422e-01 3.489403e-01 8.177456e-02 2.514413e-01 1.242393e-01 1.770247e-01 2.112572e-01 2.603188e-01 2.394191e-01 3.164508e-01 2.437180e-01 2.163828e-01 2.009532e-01 1.804193e-01 2.199344e-01
<GCONST> 8.162990e+01
<TRANSP> 5
 0.000000e+00 1.000000e+00 0.000000e+00 0.000000e+00 0.000000e+00
 0.000000e+00 5.388919e-01 4.611081e-01 0.000000e+00 0.000000e+00
 0.000000e+00 0.000000e+00 5.238810e-01 4.761190e-01 0.000000e+00
 0.000000e+00 0.000000e+00 0.000000e+00 8.975516e-01 1.024484e-01
 0.000000e+00 0.000000e+00 0.000000e+00 0.000000e+00 0.000000e+00
<ENDHMM>
