~o
<STREAMINFO> 1 39
<VECSIZE> 39<NULLD><MFCC_D_A_0><DIAGC>
~h "k"
<BEGINHMM>
<NUMSTATES> 5
<STATE> 2
<MEAN> 39
 -1.539631e+01 -8.961716e+00 -3.713337e+00 3.681623e+00 6.568867e-02 5.834769e+00 -1.379381e+00 -1.261687e+00 -2.799567e+00 4.444097e-01 -1.931209e+00 -2.655287e+00 6.041871e+01 -1.961495e-01 -3.892220e+00 1.378576e-01 -1.968079e+00 1.422871e+00 -2.531064e+00 4.393411e-01 -3.219692e+00 2.249943e-01 -8.761263e-02 -4.536041e-02 -2.590341e-02 4.428399e+00 -1.619121e-02 -6.117397e-01 6.905623e-02 -4.318694e-01 1.703312e-01 -3.900325e-01 1.715227e-03 -6.437278e-01 2.957225e-02 -8.976347e-02 -6.395610e-02 -3.628572e-02 7.903061e-01
<VARIANCE> 39
 1.216209e+01 2.103452e+02 1.498001e+01 8.248632e+01 4.863633e+01 1.288026e+02 3.417883e+01 1.784991e+02 3.268047e+01 2.947785e+01 2.197263e+01 1.915231e+01 2.874538e+02 1.095200e+00 1.866804e+01 1.735795e+00 7.737083e+00 5.098818e+00 1.268612e+01 3.532568e+00 1.439513e+01 3.538926e+00 3.197173e+00 2.276005e+00 1.716078e+00 2.664244e+01 1.610903e-01 4.440949e+00 3.129444e-01 1.625551e+00 1.104630e+00 2.827120e+00 6.480436e-01 3.204962e+00 6.454583e-01 6.046795e-01 4.355572e-01 3.332402e-01 6.325631e+00
<GCONST> 1.432935e+02
<STATE> 3
<MEAN> 39
 -1.577711e+01 -2.252909e+01 -2.746810e+00 -4.066730e+00 3.930876e+00 -2.436049e+00 -1.180734e+00 -1.440903e+01 -1.921784e+00 2.055351e-01 -2.979850e+00 -3.186977e+00 7.606918e+01 1.690076e-01 -1.708156e+00 1.469363e-01 -8.272151e-01 1.934623e-01 -6.682811e-01 -3.067303e-01 -1.791351e+00 -8.571245e-03 5.431057e-02 -3.669716e-01 -2.362931e-01 1.713363e+00 1.254549e-01 8.039694e-01 -5.739851e-02 5.360348e-01 -3.657098e-01 6.891518e-01 -1.841737e-01 7.116364e-01 -9.688027e-02 1.070539e-01 -4.157003e-02 -1.576076e-02 -1.081071e+00
<VARIANCE> 39
 1.171815e+01 1.153598e+02 1.713475e+01 7.066467e+01 3.434064e+01 1.051917e+02 3.033074e+01 1.360611e+02 3.717179e+01 2.630267e+01 2.662836e+01 2.427754e+01 1.957706e+02 1.136827e+00 1.862770e+01 1.775929e+00 9.517355e+00 4.807944e+00 1.460718e+01 3.368830e+00 1.749243e+01 3.393806e+00 2.857437e+00 2.015769e+00 1.917489e+00 3.301485e+01 1.676224e-01 2.520890e+00 3.503301e-01 1.199125e+00 6.975693e-01 1.959111e+00 5.759497e-01 2.350011e+00 6.600358e-01 5.485922e-01 3.961494e-01 3.970541e-01 4.166038e+00
<GCONST> 1.399136e+02
<STATE> 4
<MEAN> 39
 -1.215292e+01 -1.649687e+01 -4.626449e+00 3.930333e+00 -9.284357e-01 6.662947e+00 -6.425483e+00 -1.043499e+01 -4.898609e+00 3.674962e+00 -4.743994e+00 -4.305711e+00 6.454662e+01 3.679442e-01 1.556052e+00 -3.873619e-01 1.337785e+00 -5.617976e-01 1.328400e+00 -4.032235e-01 1.313479e+00 -3.682541e-01 3.663167e-01 7.128936e-02 5.497541e-03 -2.092839e+00 -6.094211e-02 1.088077e-01 -1.822912e-03 -2.476630e-02 6.476308e-02 -8.012012e-02 8.567966e-02 9.512988e-02 5.969307e-02 -6.071161e-02 6.686743e-02 3.517375e-02 1.585921e-02
<VARIANCE> 39
 1.293180e+01 6.895367e+01 1.935774e+01 7.208882e+01 2.386861e+01 7.228342e+01 3.967524e+01 7.861458e+01 4.792430e+01 2.344543e+01 2.907214e+01 2.505169e+01 1.174576e+02 1.114403e+00 1.684309e+00 1.446121e+00 3.024081e+00 2.131013e+00 3.133105e+00 3.410861e+00 5.104691e+00 4.948379e+00 2.129853e+00 1.956089e+00 1.690559e+00 3.270608e+00 1.605989e-01 3.772572e-01 2.767841e-01 5.022488e-01 3.767774e-01 5.737903e-01 5.904922e-01 1.086943e+00 1.006105e+00 4.329994e-01 3.606904e-01 3.385724e-01 7.152410e-01
<GCONST> 1.211672e+02
<TRANSP> 5
 0.000000e+00 1.000000e+00 0.000000e+00 0.000000e+00 0.000000e+00
 0.000000e+00 7.567782e-01 2.432218e-01 0.000000e+00 0.000000e+00
 0.000000e+00 0.000000e+00 8.271973e-01 1.728027e-01 0.000000e+00
 0.000000e+00 0.000000e+00 0.000000e+00 8.936222e-01 1.063779e-01
 0.000000e+00 0.000000e+00 0.000000e+00 0.000000e+00 0.000000e+00
<ENDHMM>
~h "p"
<BEGINHMM>
<NUMSTATES> 5
<STATE> 2
<MEAN> 39
 -1.294342e+01 -5.608884e-01 -2.142213e+00 7.390560e+00 -3.650005e+00 1.016125e+01 -2.743226e+00 4.337958e+00 -3.691509e+00 -1.342268e+00 -2.497550e+00 -2.860118e+00 5.348102e+01 9.537159e-01 -7.236280e-01 4.274938e-01 -5.207262e-01 5.764604e-01 -1.123218e+00 3.373435e-01 -9.959191e-01 -1.759692e-01 -7.856526e-01 -1.366147e-01 -1.387069e-01 2.129601e+00 1.652126e-01 -2.453967e-01 2.349026e-01 -2.249273e-01 2.200126e-01 -2.627131e-01 6.410887e-02 -2.975159e-01 -6.843971e-02 -1.949893e-01 -4.229145e-02 -6.806565e-03 6.015961e-01
<VARIANCE> 39
 2.695382e+01 4.061949e+01 2.769807e+01 2.867437e+01 2.765925e+01 4.769342e+01 2.872782e+01 6.068953e+01 2.142841e+01 3.334052e+01 1.752227e+01 1.441006e+01 1.473793e+02 2.168093e+00 5.226722e+00 3.169087e+00 4.198416e+00 3.621704e+00 6.335320e+00 2.446028e+00 7.863993e+00 2.107103e+00 3.509683e+00 1.520758e+00 1.293650e+00 2.008867e+01 4.139235e-01 9.410505e-01 5.146273e-01 8.143544e-01 7.603596e-01 1.377320e+00 4.948711e-01 1.565856e+00 4.000137e-01 6.788781e-01 3.024280e-01 2.581596e-01 4.049694e+00
<GCONST> 1.294042e+02
<STATE> 3
<MEAN> 39
 -7.675974e+00 -4.900883e+00 1.568894e+00 4.308289e+00 6.656647e-03 4.805541e+00 -7.691184e-01 -9.436686e-01 -4.310364e+00 -5.714258e+00 -3.607626e+00 -3.322712e+00 6.586299e+01 1.212740e+00 -2.857883e-01 3.610890e-01 9.294718e-02 1.928707e-01 -2.232183e-01 1.303167e-01 -2.836796e-01 -1.664419e-01 -5.628397e-01 -5.145875e-01 -2.271692e-01 1.295897e+00 -1.474809e-01 3.941220e-01 -2.566825e-01 3.547592e-01 -3.430972e-01 4.771171e-01 -1.763034e-01 4.609753e-01 -1.042633e-02 2.901350e-01 -4.408014e-02 -8.945663e-03 -8.819664e-01
<VARIANCE> 39
 3.453942e+01 4.487215e+01 3.345156e+01 4.750535e+01 4.690133e+01 7.563083e+01 3.198643e+01 7.534993e+01 2.382996e+01 4.240177e+01 2.419959e+01 1.826329e+01 2.208303e+02 1.993245e+00 6.130440e+00 4.176805e+00 6.404653e+00 6.540316e+00 1.142949e+01 3.368323e+00 1.192173e+01 2.261898e+00 4.771036e+00 1.966237e+00 1.427980e+00 3.185266e+01 3.229299e-01 9.997765e-01 7.392922e-01 1.160457e+00 1.257219e+00 2.218023e+00 6.844840e-01 2.315714e+00 4.547070e-01 8.563753e-01 3.931514e-01 2.925758e-01 5.778248e+00
<GCONST> 1.402817e+02
<STATE> 4
<MEAN> 39
 -9.222937e+00 3.822891e+00 -1.385350e+00 1.052025e+01 -4.229007e+00 9.884817e+00 -4.466096e+00 3.783254e+00 -6.524714e+00 -3.129361e+00 -5.227633e+00 -5.173087e+00 5.286831e+01 -2.711377e-01 2.725708e-01 -1.499573e-01 1.041984e-01 -8.789366e-02 1.625980e-01 -4.226276e-02 2.050014e-01 1.390791e-02 1.511353e-01 7.717660e-02 1.840999e-02 -5.286641e-01 -2.625312e-02 -6.131079e-02 2.866313e-02 -5.299433e-02 4.342273e-02 -5.017205e-02 2.491112e-02 -5.042967e-02 1.497141e-02 -1.425374e-02 3.094148e-02 1.653949e-02 8.306674e-02
<VARIANCE> 39
 3.194287e+01 2.690564e+01 2.141256e+01 1.925296e+01 1.959821e+01 2.383071e+01 2.052799e+01 2.464614e+01 2.037218e+01 1.941714e+01 1.675309e+01 1.327557e+01 6.932098e+01 7.454804e-01 1.886583e+00 1.297609e+00 1.737946e+00 2.111732e+00 2.352089e+00 1.600311e+00 2.112736e+00 1.615389e+00 1.586453e+00 1.219264e+00 1.024829e+00 4.545933e+00 7.575179e-02 2.676171e-01 2.359555e-01 3.068869e-01 4.111363e-01 4.796458e-01 3.229418e-01 4.224165e-01 3.041133e-01 3.047260e-01 2.404133e-01 2.002950e-01 7.547975e-01
<GCONST> 1.032721e+02
<TRANSP> 5
 0.000000e+00 1.000000e+00 0.000000e+00 0.000000e+00 0.000000e+00
 0.000000e+00 6.820755e-01 3.179245e-01 0.000000e+00 0.000000e+00
 0.000000e+00 0.000000e+00 7.804335e-01 2.195665e-01 0.000000e+00
 0.000000e+00 0.000000e+00 0.000000e+00 9.618781e-01 3.812185e-02
 0.000000e+00 0.000000e+00 0.000000e+00 0.000000e+00 0.000000e+00
<ENDHMM>
~h "s"
<BEGINHMM>
<NUMSTATES> 5
<STATE> 2
<MEAN> 39
 -1.864143e+01 -7.782512e+00 -7.022408e-01 4.099707e+00 -1.097571e-01 4.981930e+00 1.557580e+00 -1.801181e+00 -3.759979e+00 -1.564628e+00 -2.535481e+00 -1.126639e-01 5.827697e+01 -2.241785e+00 -3.805335e+00 1.409919e+00 -2.878892e+00 2.474672e+00 -2.900188e+00 2.186062e+00 -3.019255e+00 3.529174e-01 -8.608879e-01 4.011362e-01 1.052763e+00 4.341334e+00 -3.956052e-01 -1.020278e-01 2.683917e-01 -7.196929e-01 5.462209e-01 -2.624990e-01 2.221079e-02 -6.961942e-02 2.382659e-02 -1.367934e-01 1.384707e-01 -9.224179e-02 5.709992e-01
<VARIANCE> 39
 4.573579e+01 1.177480e+02 4.594648e+01 8.848486e+01 7.279213e+01 9.871157e+01 6.480226e+01 9.734640e+01 3.289968e+01 3.352248e+01 3.565824e+01 3.219082e+01 1.329428e+02 3.809007e+00 9.853027e+00 4.462997e+00 7.968777e+00 6.888684e+00 9.310612e+00 5.754223e+00 9.010685e+00 3.342018e+00 3.127123e+00 2.937644e+00 3.059102e+00 8.978128e+00 7.161634e-01 2.526965e+00 8.823602e-01 1.574306e+00 1.480057e+00 2.068733e+00 1.247762e+00 2.083861e+00 5.600876e-01 6.115041e-01 5.459471e-01 6.356696e-01 2.258826e+00
<GCONST> 1.488742e+02
<STATE> 3
<MEAN> 39
 -2.668886e+01 -1.679511e+01 5.169738e+00 -8.216803e+00 9.509138e+00 -3.032300e+00 6.212144e+00 -8.682531e+00 -2.921102e+00 -4.710432e+00 -8.240542e-01 1.442053e+00 7.210545e+01 -1.431100e+00 -1.092041e+00 1.159110e+00 -2.415927e+00 1.602841e+00 -8.342718e-01 3.342207e-01 -6.510413e-01 4.388123e-02 -5.629892e-01 4.527909e-01 -9.224455e-02 2.382861e+00 4.665977e-01 6.986188e-01 -2.110899e-01 5.602533e-01 -5.619057e-01 7.302136e-01 -4.826326e-01 6.250935e-01 -7.039553e-02 1.655426e-01 -7.882082e-02 -1.939148e-01 -8.207167e-01
<VARIANCE> 39
 3.986159e+01 4.395850e+01 5.407110e+01 7.918090e+01 6.782903e+01 7.321211e+01 4.076046e+01 4.676462e+01 3.533592e+01 2.692254e+01 3.891434e+01 2.439586e+01 7.148187e+01 5.145877e+00 7.935330e+00 4.449575e+00 8.874081e+00 8.186226e+00 9.314876e+00 5.106847e+00 7.040852e+00 2.704090e+00 2.750252e+00 2.883396e+00 2.342780e+00 1.033319e+01 5.860809e-01 1.184620e+00 7.965830e-01 1.205016e+00 1.159659e+00 1.271193e+00 8.609446e-01 1.151991e+00 5.347242e-01 5.532777e-01 5.396422e-01 5.047028e-01 1.017370e+00
<GCONST> 1.405809e+02
<STATE> 4
<MEAN> 39
 -2.752783e+01 -1.704263e+01 1.035101e+01 -1.138301e+01 8.238701e+00 2.900218e+00 2.826835e+00 -6.877887e+00 -2.939716e+00 -4.621708e+00 -4.647505e-01 1.134030e+00 7.208623e+01 8.771056e-01 8.222518e-01 1.052341e-01 8.194228e-01 -9.902841e-01 1.291558e+00 -6.726624e-01 9.441392e-01 -3.658055e-01 2.551129e-01 -3.930580e-01 -1.213465e-01 -1.437966e+00 1.676735e-01 1.930992e-01 -1.792554e-01 2.839620e-01 -2.103237e-01 8.649755e-02 -7.977036e-02 1.140267e-01 6.422203e-03 8.107778e-02 -1.865699e-02 -2.484175e-02 -2.897885e-01
<VARIANCE> 39
 3.265921e+01 3.081161e+01 3.217486e+01 3.801590e+01 5.636424e+01 7.622052e+01 3.394202e+01 4.281635e+01 2.990092e+01 2.172453e+01 3.023310e+01 1.606016e+01 6.703844e+01 1.627541e+00 2.484731e+00 1.758711e+00 2.689140e+00 2.688962e+00 2.651350e+00 2.349486e+00 2.908850e+00 2.131551e+00 1.791930e+00 1.692068e+00 1.150985e+00 3.141199e+00 2.226309e-01 3.333559e-01 2.395485e-01 3.250080e-01 4.007264e-01 4.876378e-01 4.250096e-01 5.179843e-01 4.221283e-01 3.474272e-01 3.464591e-01 2.348145e-01 3.154628e-01
<GCONST> 1.143208e+02
<TRANSP> 5
 0.000000e+00 1.000000e+00 0.000000e+00 0.000000e+00 0.000000e+00
 0.000000e+00 7.224640e-01 2.775360e-01 0.000000e+00 0.000000e+00
 0.000000e+00 0.000000e+00 7.580868e-01 2.419132e-01 0.000000e+00
 0.000000e+00 0.000000e+00 0.000000e+00 9.119688e-01 8.803115e-02
 0.000000e+00 0.000000e+00 0.000000e+00 0.000000e+00 0.000000e+00
<ENDHMM>
~h "sil"
<BEGINHMM>
<NUMSTATES> 5
<STATE> 2
<MEAN> 39
 -2.088166e+01 1.635110e+00 -3.103160e+00 3.824028e+00 -2.900740e+00 1.245160e+01 -6.878711e+00 3.507788e+00 -3.680576e+00 2.794964e-01 -2.879719e+00 -2.171381e+00 4.556593e+01 3.171327e-01 7.163516e-01 -4.237672e-01 6.786742e-01 -5.116404e-01 3.166552e-01 -1.719077e-01 5.444520e-01 1.556343e-01 1.880743e-01 2.305106e-01 -5.612569e-02 -6.972042e-01 -1.201283e-02 -1.730232e-01 -9.970814e-03 -2.975183e-02 7.315153e-02 -1.749175e-01 1.557950e-01 -1.393866e-01 4.584469e-02 -4.354246e-02 3.527851e-02 4.845955e-03 2.291008e-01
<VARIANCE> 39
 1.175026e+02 1.021900e+02 5.374997e+01 3.966768e+01 2.125482e+01 2.934346e+01 4.683234e+01 3.853366e+01 3.023189e+01 1.955825e+01 1.640828e+01 1.380598e+01 2.011571e+02 1.177771e+00 2.317944e+00 1.316806e+00 2.061681e+00 2.271912e+00 2.669663e+00 1.980339e+00 2.541219e+00 2.030454e+00 1.501544e+00 1.284512e+00 1.033413e+00 3.243621e+00 2.132947e-01 2.542781e-01 1.564460e-01 2.376748e-01 3.133571e-01 3.943080e-01 3.436410e-01 4.240554e-01 3.987435e-01 2.722482e-01 2.725255e-01 2.016345e-01 3.531126e-01
<GCONST> 1.113885e+02
<STATE> 3
<MEAN> 39
 -1.634397e+01 -3.549819e-01 -2.928563e+00 6.344038e+00 -4.045217e+00 1.211812e+01 -5.053395e+00 3.864534e+00 -4.522110e+00 4.240530e-01 -2.310034e+00 -2.297871e+00 4.940546e+01 7.529802e-01 3.358586e-01 -4.011902e-01 9.168281e-01 -4.349896e-01 8.533591e-02 2.656842e-01 5.122427e-01 9.715875e-02 1.115320e-01 2.338777e-01 -8.100044e-02 -8.408117e-02 -8.747826e-02 -1.367974e-01 4.486350e-02 -1.069991e-01 1.663059e-01 -1.540727e-01 1.304525e-01 -1.095834e-01 2.449112e-02 -6.044916e-02 -7.069790e-02 7.477401e-03 1.587231e-01
<VARIANCE> 39
 6.125628e+01 6.362495e+01 4.442311e+01 3.531689e+01 2.408073e+01 3.450731e+01 4.242000e+01 4.592098e+01 3.243717e+01 2.266950e+01 2.238596e+01 1.624690e+01 1.135283e+02 3.736590e+00 4.008908e+00 1.708419e+00 2.515083e+00 2.401028e+00 2.995307e+00 2.707824e+00 2.615202e+00 2.756237e+00 1.689394e+00 1.679831e+00 1.264356e+00 6.315913e+00 4.948813e-01 6.102158e-01 2.289110e-01 4.336859e-01 4.531855e-01 6.353663e-01 5.224753e-01 5.814626e-01 5.516264e-01 3.403996e-01 3.543458e-01 2.572637e-01 9.327407e-01
<GCONST> 1.209779e+02
<STATE> 4
<MEAN> 39
 -1.480809e+01 1.959103e+00 -4.577044e+00 8.823563e+00 -4.986528e+00 1.188643e+01 -4.294301e+00 6.032069e+00 -4.049185e+00 5.101932e-01 -1.996002e+00 -2.660169e+00 4.794088e+01 -3.162527e-02 2.267343e-01 -1.468127e-01 1.425994e-01 -4.888233e-02 -8.749022e-02 9.254404e-02 1.756721e-01 1.183576e-01 -2.148932e-02 2.107337e-02 1.316546e-02 -2.067701e-01 -5.634992e-02 -2.000507e-01 6.533333e-02 -1.105145e-01 7.764415e-02 -1.029233e-01 5.880628e-02 -1.585895e-01 -1.573725e-02 -2.624620e-02 -1.218498e-02 4.140090e-02 1.855930e-01
<VARIANCE> 39
 7.283157e+00 1.596491e+01 1.210192e+01 1.001521e+01 1.223670e+01 1.851829e+01 2.561856e+01 2.840090e+01 1.969383e+01 1.480461e+01 1.384490e+01 1.266156e+01 1.556544e+01 3.437737e-01 1.074972e+00 7.568668e-01 8.625650e-01 9.230025e-01 1.132956e+00 1.132710e+00 1.444088e+00 1.249473e+00 1.087216e+00 1.025676e+00 8.889954e-01 6.653918e-01 7.853092e-02 3.214188e-01 1.317760e-01 2.019942e-01 2.362445e-01 3.200987e-01 2.705614e-01 3.731998e-01 2.575971e-01 2.315612e-01 2.145866e-01 1.889250e-01 2.938741e-01
<GCONST> 8.632225e+01
<TRANSP> 5
 0.000000e+00 1.000000e+00 0.000000e+00 0.000000e+00 0.000000e+00
 0.000000e+00 4.848564e-01 5.151436e-01 0.000000e+00 0.000000e+00
 0.000000e+00 0.000000e+00 4.341318e-01 5.658682e-01 0.000000e+00
 0.000000e+00 0.000000e+00 0.000000e+00 8.742681e-01 1.257319e-01
 0.000000e+00 0.000000e+00 0.000000e+00 0.000000e+00 0.000000e+00
<ENDHMM>
