~o
<STREAMINFO> 1 39
<VECSIZE> 39<NULLD><MFCC_D_A_0><DIAGC>
~h "k"
<BEGINHMM>
<NUMSTATES> 5
<STATE> 2
<MEAN> 39
 -1.548198e+01 -8.785394e+00 -2.840780e+00 3.085464e+00 -4.613545e-01 7.369281e+00 -1.647230e+00 -1.102388e+00 -2.936942e+00 2.767796e-01 -1.928167e+00 -2.203759e+00 6.000070e+01 -2.810916e-02 -2.256960e+00 -1.590278e-01 -1.067633e+00 8.436019e-01 -1.871342e+00 1.420067e-01 -1.983768e+00 3.210054e-01 1.224656e-02 -6.555185e-03 -9.731186e-02 2.675228e+00 -2.068224e-02 -2.600526e-01 8.698377e-02 -2.144154e-01 6.517521e-02 -1.369374e-01 6.439507e-03 -2.682257e-01 -1.217301e-02 -5.649396e-02 -5.312121e-02 -6.904793e-03 3.187637e-01
<VARIANCE> 39
 8.388804e+00 1.916626e+02 1.740687e+01 7.600890e+01 4.513848e+01 1.466497e+02 3.103491e+01 1.699289e+02 3.280214e+01 2.569481e+01 1.999862e+01 1.908071e+01 2.643306e+02 8.799302e-01 1.934111e+01 1.843374e+00 8.461380e+00 4.523042e+00 1.199894e+01 2.904138e+00 1.489531e+01 3.226817e+00 2.662265e+00 1.953811e+00 1.576613e+00 2.669898e+01 1.311221e-01 3.282043e+00 2.817497e-01 1.320750e+00 8.370980e-01 2.406044e+00 5.263058e-01 2.552799e+00 6.156949e-01 5.107564e-01 3.780849e-01 3.125305e-01 4.753863e+00
<GCONST> 1.392073e+02
<STATE> 3
<MEAN> 39
 -1.507323e+01 -1.918574e+01 -2.762878e+00 -2.074600e+00 2.295607e+00 4.284563e-01 -2.109658e+00 -1.147941e+01 -2.492778e+00 5.908022e-01 -2.981487e+00 -2.816861e+00 7.169063e+01 2.721676e-01 -8.821586e-01 -4.403206e-02 -2.246660e-01 -1.357551e-02 -2.087682e-01 -3.571326e-01 -1.032692e+00 -1.280611e-01 1.754995e-01 -2.953604e-01 -1.537006e-01 7.065483e-01 7.439978e-02 4.789893e-01 -4.323690e-02 3.473204e-01 -2.075311e-01 4.361584e-01 -1.000268e-01 4.410838e-01 -7.893379e-02 6.643351e-02 -1.586826e-02 4.462577e-03 -6.573015e-01
<VARIANCE> 39
 1.290427e+01 1.510054e+02 1.716985e+01 7.708109e+01 3.712202e+01 1.181205e+02 3.323762e+01 1.613326e+02 4.000309e+01 2.388697e+01 2.435174e+01 2.331914e+01 2.331568e+02 1.161241e+00 1.540070e+01 1.736175e+00 8.394362e+00 4.021473e+00 1.222040e+01 3.300378e+00 1.523185e+01 3.793379e+00 2.484188e+00 1.811104e+00 1.943638e+00 2.648722e+01 1.890160e-01 2.280155e+00 3.300958e-01 1.132283e+00 6.539395e-01 1.817391e+00 5.998666e-01 2.274132e+00 7.648639e-01 4.942513e-01 3.538195e-01 4.027599e-01 3.750285e+00
<GCONST> 1.392808e+02
<STATE> 4
<MEAN> 39
 -1.278985e+01 -7.638115e+00 -5.159853e+00 7.189228e+00 -2.371827e+00 9.854666e+00 -5.645069e+00 -2.552453e+00 -4.809296e+00 2.800035e+00 -3.284575e+00 -3.729092e+00 5.636531e+01 -2.742732e-02 8.234608e-01 -1.211708e-01 5.096855e-01 -2.280292e-01 4.346800e-01 4.307404e-02 7.792190e-01 4.375944e-03 3.938105e-02 1.008336e-01 8.616729e-02 -9.501159e-01 -6.957444e-02 -1.419744e-01 4.310732e-02 -1.215902e-01 7.381330e-02 -1.473341e-01 8.773720e-02 -1.257618e-01 2.049051e-02 -5.518447e-02 2.267476e-02 4.247085e-02 2.000574e-01
<VARIANCE> 39
 1.127210e+01 1.060070e+02 1.340331e+01 4.281230e+01 1.970403e+01 4.990488e+01 3.693780e+01 1.045500e+02 3.375815e+01 2.084570e+01 2.400367e+01 2.054820e+01 1.085867e+02 8.374050e-01 3.472925e+00 1.107465e+00 2.794791e+00 1.833425e+00 3.167682e+00 2.499468e+00 4.772133e+00 3.114581e+00 1.799706e+00 1.627202e+00 1.396316e+00 4.491131e+00 1.287286e-01 5.292566e-01 2.059663e-01 3.993342e-01 3.493600e-01 4.912756e-01 4.598681e-01 8.358100e-01 6.032664e-01 3.490024e-01 3.196149e-01 2.788211e-01 6.451936e-01
<GCONST> 1.158751e+02
<TRANSP> 5
 0.000000e+00 1.000000e+00 0.000000e+00 0.000000e+00 0.000000e+00
 0.000000e+00 8.209130e-01 1.790870e-01 0.000000e+00 0.000000e+00
 0.000000e+00 0.000000e+00 8.480515e-01 1.519485e-01 0.000000e+00
 0.000000e+00 0.000000e+00 0.000000e+00 9.462372e-01 5.376274e-02
 0.000000e+00 0.000000e+00 0.000000e+00 0.000000e+00 0.000000e+00
<ENDHMM>
~h "p"
<BEGINHMM>
<NUMSTATES> 5
<STATE> 2
<MEAN> 39
 -1.305169e+01 -1.663781e+00 -1.027312e+00 6.715594e+00 -3.579988e+00 1.053274e+01 -2.556359e+00 3.816849e+00 -4.236217e+00 -1.259286e+00 -2.381313e+00 -2.691154e+00 5.450533e+01 8.112765e-01 -4.835774e-01 1.845540e-01 -2.916070e-01 5.396482e-01 -9.349730e-01 3.631801e-01 -6.827499e-01 1.103547e-01 -5.695717e-01 -1.475550e-02 -7.527347e-02 1.706759e+00 1.335565e-01 -2.150798e-01 1.578621e-01 -1.560626e-01 2.110910e-01 -2.017514e-01 7.398839e-02 -2.040109e-01 -3.713949e-02 -1.563419e-01 -7.088405e-02 1.125802e-02 4.638442e-01
<VARIANCE> 39
 2.221686e+01 4.300334e+01 3.645358e+01 3.155762e+01 3.169729e+01 5.864126e+01 2.996736e+01 5.872147e+01 2.641602e+01 3.456956e+01 2.016272e+01 1.660257e+01 1.372384e+02 1.871859e+00 5.962471e+00 3.845286e+00 4.514115e+00 4.437534e+00 6.749206e+00 2.534168e+00 7.560337e+00 2.553532e+00 3.634698e+00 1.742778e+00 1.473316e+00 2.063059e+01 3.041792e-01 9.520751e-01 5.278040e-01 7.963449e-01 8.724400e-01 1.418363e+00 5.038373e-01 1.401142e+00 4.806471e-01 6.606201e-01 3.372673e-01 2.924840e-01 3.734514e+00
<GCONST> 1.315694e+02
<STATE> 3
<MEAN> 39
 -7.127295e+00 -5.194870e+00 1.842429e+00 4.619972e+00 -1.276456e-01 5.156124e+00 -7.997447e-01 -4.238635e-01 -4.435263e+00 -5.786810e+00 -4.143809e+00 -3.569401e+00 6.612121e+01 1.077398e+00 -2.137220e-02 9.736475e-02 3.860773e-01 -5.102630e-02 7.671243e-02 2.379791e-02 3.863948e-02 -1.432826e-01 -3.532785e-01 -4.966893e-01 -2.494376e-01 6.422156e-01 -1.511990e-01 3.757583e-01 -2.331671e-01 2.934216e-01 -3.014888e-01 3.742379e-01 -1.705087e-01 3.472138e-01 -5.590904e-02 2.609768e-01 -1.961195e-02 -6.576017e-03 -7.871503e-01
<VARIANCE> 39
 3.337309e+01 4.172571e+01 3.232233e+01 4.558100e+01 4.814335e+01 7.950383e+01 3.252348e+01 6.748933e+01 2.661906e+01 4.439356e+01 2.817375e+01 2.091453e+01 1.939599e+02 1.919892e+00 6.175506e+00 3.956352e+00 6.102069e+00 6.865233e+00 1.093310e+01 3.462957e+00 9.943522e+00 2.632222e+00 4.702605e+00 2.169724e+00 1.624611e+00 2.925439e+01 2.763629e-01 1.016308e+00 6.926787e-01 1.109260e+00 1.311185e+00 2.179679e+00 6.901786e-01 1.985421e+00 5.213327e-01 8.356273e-01 4.362122e-01 3.408623e-01 5.224708e+00
<GCONST> 1.402908e+02
<STATE> 4
<MEAN> 39
 -9.817802e+00 3.487868e+00 -1.430818e+00 1.036838e+01 -3.906422e+00 1.045100e+01 -4.117332e+00 4.142933e+00 -6.252741e+00 -2.620952e+00 -5.019715e+00 -5.013274e+00 5.258738e+01 -3.272348e-01 2.624368e-01 -1.537137e-01 9.324354e-02 -6.193459e-02 1.235072e-01 -3.894918e-02 1.709910e-01 3.565278e-02 1.751007e-01 1.078525e-01 4.699899e-02 -5.411971e-01 -3.048028e-02 -1.375822e-01 5.106369e-02 -8.772627e-02 7.552055e-02 -9.594811e-02 5.112505e-02 -9.961958e-02 1.849333e-02 -3.015932e-02 1.758005e-02 2.250404e-02 1.655531e-01
<VARIANCE> 39
 3.583195e+01 3.211706e+01 2.058625e+01 2.384932e+01 1.905924e+01 2.276343e+01 2.323296e+01 3.105246e+01 2.288590e+01 2.031557e+01 1.913259e+01 1.466439e+01 6.133229e+01 7.256278e-01 2.109308e+00 1.215838e+00 1.639101e+00 1.856850e+00 1.994692e+00 1.599910e+00 2.096428e+00 1.637284e+00 1.482746e+00 1.206156e+00 1.025624e+00 3.506854e+00 8.722240e-02 3.681618e-01 2.304041e-01 3.070020e-01 3.782597e-01 4.462790e-01 3.362019e-01 4.548185e-01 3.124290e-01 2.883435e-01 2.426562e-01 2.029682e-01 6.481975e-01
<GCONST> 1.038644e+02
<TRANSP> 5
 0.000000e+00 1.000000e+00 0.000000e+00 0.000000e+00 0.000000e+00
 0.000000e+00 7.805674e-01 2.194326e-01 0.000000e+00 0.000000e+00
 0.000000e+00 0.000000e+00 8.248214e-01 1.751785e-01 0.000000e+00
 0.000000e+00 0.000000e+00 0.000000e+00 9.594742e-01 4.052581e-02
 0.000000e+00 0.000000e+00 0.000000e+00 0.000000e+00 0.000000e+00
<ENDHMM>
~h "s"
<BEGINHMM>
<NUMSTATES> 5
<STATE> 2
<MEAN> 39
 -2.100604e+01 -1.034417e+01 9.889627e-01 3.686167e-01 2.661459e+00 2.738011e+00 2.555722e+00 -3.675641e+00 -3.492388e+00 -2.458072e+00 -2.006185e+00 4.169052e-01 6.224675e+01 -1.900544e+00 -2.728671e+00 1.253257e+00 -2.505656e+00 2.030624e+00 -2.053565e+00 1.512890e+00 -2.034875e+00 2.867249e-01 -6.879783e-01 3.910232e-01 6.629419e-01 3.361116e+00 -1.594055e-01 8.496311e-02 1.541616e-01 -3.416019e-01 2.502364e-01 6.752015e-03 -7.959418e-02 9.855426e-02 9.642614e-03 -5.383786e-02 6.071856e-02 -1.189084e-01 1.890894e-01
<VARIANCE> 39
 5.493657e+01 1.148412e+02 5.419925e+01 1.167007e+02 8.935235e+01 1.003207e+02 6.456553e+01 9.017963e+01 3.357398e+01 3.207371e+01 3.610084e+01 2.962104e+01 1.506660e+02 4.328503e+00 1.094233e+01 4.429343e+00 8.796234e+00 7.605328e+00 1.006096e+01 6.221709e+00 9.301764e+00 3.005934e+00 2.984087e+00 2.730219e+00 2.953527e+00 1.080721e+01 7.829340e-01 2.218566e+00 8.561617e-01 1.670724e+00 1.544130e+00 1.900564e+00 1.178287e+00 1.832974e+00 5.358436e-01 5.880551e-01 5.284094e-01 5.889528e-01 2.053589e+00
<GCONST> 1.496532e+02
<STATE> 3
<MEAN> 39
 -2.726846e+01 -1.676331e+01 6.901980e+00 -1.012470e+01 9.698727e+00 -1.232280e+00 5.131488e+00 -7.583883e+00 -2.895255e+00 -5.013546e+00 -6.105547e-01 1.143451e+00 7.270181e+01 -2.635129e-01 -1.790296e-01 7.113733e-01 -8.159167e-01 2.632291e-01 3.299444e-01 -1.998058e-01 1.195605e-01 -1.544341e-01 -1.970778e-01 2.478611e-02 -1.234068e-01 5.332633e-01 3.608564e-01 4.161943e-01 -1.844999e-01 4.877465e-01 -4.202555e-01 4.331564e-01 -2.618834e-01 3.510287e-01 -5.275499e-02 1.353707e-01 -8.237337e-02 -7.326053e-02 -6.225272e-01
<VARIANCE> 39
 4.016442e+01 4.150663e+01 4.868752e+01 6.500670e+01 6.373730e+01 7.654291e+01 3.949514e+01 4.588319e+01 3.511352e+01 2.550268e+01 3.537994e+01 1.965185e+01 7.281705e+01 4.757587e+00 5.968736e+00 3.320908e+00 8.045065e+00 7.003895e+00 7.256000e+00 4.082240e+00 5.607815e+00 2.656986e+00 2.616210e+00 2.651553e+00 1.785529e+00 9.977917e+00 4.855737e-01 8.563654e-01 5.553333e-01 8.281864e-01 8.583546e-01 1.045537e+00 7.305021e-01 9.447544e-01 5.203208e-01 5.024043e-01 4.878677e-01 3.863035e-01 7.988145e-01
<GCONST> 1.348969e+02
<STATE> 4
<MEAN> 39
 -2.259635e+01 -1.120862e+01 7.408525e+00 -5.327166e+00 2.644047e+00 7.045693e+00 -7.861741e-01 -2.411795e+00 -4.065592e+00 -3.093214e+00 -1.563129e+00 -7.113039e-02 6.408975e+01 8.374233e-01 9.684516e-01 -4.104838e-01 1.064446e+00 -1.002640e+00 9.642446e-01 -5.701522e-01 8.063667e-01 -1.491482e-01 2.882840e-01 -1.933592e-01 -1.601645e-01 -1.439694e+00 -3.581706e-03 6.797768e-03 -1.010007e-01 5.722219e-02 8.576435e-03 -9.079903e-02 5.588844e-02 -5.134068e-02 4.860739e-02 3.767667e-03 1.933998e-02 2.725737e-03 7.282679e-03
<VARIANCE> 39
 5.246590e+01 8.744779e+01 5.317116e+01 8.488946e+01 7.401626e+01 6.727191e+01 4.189495e+01 6.757610e+01 2.747842e+01 2.253029e+01 2.574623e+01 1.727088e+01 1.331577e+02 1.124870e+00 2.149072e+00 1.737563e+00 1.901670e+00 2.414285e+00 2.794593e+00 2.097920e+00 2.659674e+00 1.970315e+00 1.599690e+00 1.567208e+00 1.056107e+00 2.153321e+00 1.631710e-01 3.466612e-01 2.167424e-01 2.751979e-01 3.913661e-01 4.649287e-01 3.807083e-01 5.070455e-01 3.746735e-01 3.232815e-01 3.081056e-01 2.121215e-01 2.969310e-01
<GCONST> 1.154333e+02
<TRANSP> 5
 0.000000e+00 1.000000e+00 0.000000e+00 0.000000e+00 0.000000e+00
 0.000000e+00 7.957063e-01 2.042937e-01 0.000000e+00 0.000000e+00
 0.000000e+00 0.000000e+00 8.383443e-01 1.616557e-01 0.000000e+00
 0.000000e+00 0.000000e+00 0.000000e+00 9.149888e-01 8.501120e-02
 0.000000e+00 0.000000e+00 0.000000e+00 0.000000e+00 0.000000e+00
<ENDHMM>
~h "sil"
<BEGINHMM>
<NUMSTATES> 5
<STATE> 2
<MEAN> 39
 -2.104895e+01 6.098427e+00 -6.253317e+00 6.630837e+00 -4.429626e+00 1.241482e+01 -6.775939e+00 6.489486e+00 -2.052212e+00 6.464667e-01 -1.628998e+00 -2.103646e+00 4.101055e+01 1.258366e-01 3.641155e-02 -9.606788e-02 1.241486e-01 -6.091099e-02 -2.670472e-02 1.104146e-01 6.311114e-02 -2.244355e-02 1.519351e-02 4.365122e-02 2.535407e-02 1.278047e-02 5.495340e-02 -6.544193e-02 1.476264e-02 1.661963e-02 -1.144837e-02 -2.573425e-02 3.815781e-02 -2.008211e-03 -2.543105e-02 -4.055385e-03 3.483611e-03 -1.212817e-03 8.010992e-02
<VARIANCE> 39
 9.277538e+01 3.007434e+01 1.163646e+01 2.410409e+01 8.505903e+00 1.158031e+01 3.275476e+01 1.772919e+01 1.579233e+01 9.213666e+00 7.956681e+00 7.544742e+00 9.387946e+01 7.608744e-01 4.682873e-01 3.601964e-01 5.708573e-01 4.984815e-01 6.447933e-01 7.465453e-01 6.729910e-01 6.756019e-01 6.522276e-01 6.096978e-01 5.648310e-01 6.898046e-01 1.776922e-01 8.697152e-02 5.632092e-02 1.066407e-01 1.065862e-01 1.333009e-01 1.558089e-01 1.435158e-01 1.444094e-01 1.304284e-01 1.265176e-01 1.164572e-01 1.538981e-01
<GCONST> 7.572477e+01
<STATE> 3
<MEAN> 39
 -1.996438e+01 5.033288e+00 -7.259653e+00 7.089629e+00 -5.339386e+00 1.171862e+01 -6.171136e+00 6.514934e+00 -2.665061e+00 9.137883e-01 -7.924838e-01 -1.485540e+00 4.189514e+01 1.704011e+00 -8.482065e-01 2.143012e-01 9.666930e-01 -3.309389e-01 -2.223173e-01 8.806036e-01 1.429201e-01 -5.390498e-01 -6.946804e-02 1.101988e-01 -3.246944e-02 1.558937e+00 -2.128496e-01 4.154137e-02 8.531322e-02 -9.034053e-02 7.563299e-02 2.249265e-02 -3.843148e-02 -3.117289e-02 1.314170e-02 -5.867042e-02 -8.084174e-02 -3.504496e-02 -1.199959e-01
<VARIANCE> 39
 7.127797e+01 3.381429e+01 1.811464e+01 2.202547e+01 1.064868e+01 1.746445e+01 3.200105e+01 1.825344e+01 1.785369e+01 1.205045e+01 1.231529e+01 9.309691e+00 7.697447e+01 7.219560e+00 3.123502e+00 9.623284e-01 2.225589e+00 1.201736e+00 1.820842e+00 2.245388e+00 1.150918e+00 2.053107e+00 1.171539e+00 1.400529e+00 9.645822e-01 6.964504e+00 1.066229e+00 4.960834e-01 1.652096e-01 3.742525e-01 2.157141e-01 3.231725e-01 3.682094e-01 2.029838e-01 3.572142e-01 2.382697e-01 2.593796e-01 1.883947e-01 1.027012e+00
<GCONST> 1.061020e+02
<STATE> 4
<MEAN> 39
 -1.483545e+01 1.157531e+00 -3.776769e+00 8.237260e+00 -4.641130e+00 1.001325e+01 -3.869949e+00 3.887396e+00 -4.751694e+00 -6.536726e-01 -2.693997e+00 -3.113426e+00 5.008040e+01 -3.003427e-02 4.408096e-02 -1.739512e-02 1.944310e-02 -7.731851e-03 -1.096133e-02 2.109423e-02 4.229326e-02 1.679109e-02 9.757042e-03 1.207474e-02 -2.792499e-02 -5.497204e-02 -4.905060e-03 -2.293626e-02 9.006790e-03 -1.999652e-02 8.816332e-03 -1.475360e-02 -2.944185e-03 -1.800960e-02 7.004520e-03 5.726038e-03 4.355374e-03 5.382016e-03 2.428675e-02
<VARIANCE> 39
 2.956316e+01 5.552114e+01 2.803728e+01 3.758075e+01 3.242733e+01 3.198705e+01 3.036300e+01 5.511140e+01 2.138319e+01 1.797193e+01 1.714990e+01 1.438158e+01 8.699416e+01 5.944538e-01 1.841462e+00 9.191630e-01 1.596678e+00 1.605740e+00 2.007880e+00 1.656632e+00 2.667860e+00 1.653798e+00 1.354228e+00 1.248477e+00 9.754655e-01 3.385265e+00 8.193070e-02 3.141764e-01 1.596412e-01 2.938849e-01 3.022389e-01 3.845511e-01 3.375165e-01 5.069234e-01 3.421210e-01 2.720236e-01 2.522620e-01 1.970769e-01 5.671387e-01
<GCONST> 1.051064e+02
<TRANSP> 5
 0.000000e+00 1.000000e+00 0.000000e+00 0.000000e+00 0.000000e+00
 0.000000e+00 9.335788e-01 6.642118e-02 0.000000e+00 0.000000e+00
 0.000000e+00 0.000000e+00 7.211736e-01 2.788264e-01 0.000000e+00
 0.000000e+00 0.000000e+00 0.000000e+00 9.650018e-01 3.499818e-02
 0.000000e+00 0.000000e+00 0.000000e+00 0.000000e+00 0.000000e+00
<ENDHMM>
