~o
<STREAMINFO> 1 39
<VECSIZE> 39<NULLD><MFCC_D_A_0><DIAGC>
~h "k"
<BEGINHMM>
<NUMSTATES> 5
<STATE> 2
<MEAN> 39
 -1.541445e+01 -7.784989e+00 -3.858674e+00 4.264877e+00 -3.861476e-01 6.497175e+00 -1.671113e+00 -3.508013e-01 -2.773674e+00 5.618936e-01 -2.003784e+00 -2.521938e+00 5.900426e+01 -1.909792e-01 -3.862285e+00 1.239626e-01 -1.927570e+00 1.437606e+00 -2.539871e+00 3.671107e-01 -3.234710e+00 2.070484e-01 -5.235900e-02 -5.988394e-02 -3.005408e-02 4.367560e+00 -2.738058e-02 -7.898088e-01 8.025446e-02 -5.240820e-01 2.357436e-01 -5.027844e-01 3.337773e-02 -7.675279e-01 4.038929e-02 -1.002015e-01 -5.319464e-02 -3.025621e-02 9.943129e-01
<VARIANCE> 39
 8.863335e+00 2.039670e+02 1.321595e+01 7.774807e+01 4.418574e+01 1.223166e+02 3.150700e+01 1.747494e+02 2.902020e+01 2.495030e+01 2.043367e+01 1.816854e+01 2.744320e+02 8.856155e-01 1.842243e+01 1.510350e+00 7.216415e+00 4.648053e+00 1.214305e+01 3.304297e+00 1.442200e+01 3.131291e+00 2.906621e+00 2.102998e+00 1.620267e+00 2.565972e+01 1.305681e-01 4.361062e+00 2.633400e-01 1.517900e+00 1.019487e+00 2.718776e+00 6.012545e-01 3.198860e+00 5.842168e-01 5.517299e-01 4.008204e-01 3.179637e-01 6.079241e+00
<GCONST> 1.400004e+02
<STATE> 3
<MEAN> 39
 -1.584899e+01 -2.256569e+01 -2.747108e+00 -4.155890e+00 4.009203e+00 -2.529821e+00 -1.264050e+00 -1.446113e+01 -1.829315e+00 2.142589e-01 -2.988042e+00 -3.241688e+00 7.615149e+01 1.226759e-01 -1.903585e+00 1.557009e-01 -9.470255e-01 2.827181e-01 -7.918142e-01 -2.384538e-01 -1.901132e+00 5.532935e-02 3.367875e-02 -3.366872e-01 -2.151006e-01 1.938779e+00 1.275097e-01 8.104261e-01 -5.427223e-02 5.372643e-01 -3.748625e-01 6.841942e-01 -1.825166e-01 7.023962e-01 -9.929920e-02 9.987262e-02 -4.158971e-02 -1.170421e-02 -1.077853e+00
<VARIANCE> 39
 1.127197e+01 1.158129e+02 1.752482e+01 6.926987e+01 3.487019e+01 1.062514e+02 3.007771e+01 1.318087e+02 3.758420e+01 2.783531e+01 2.679082e+01 2.410429e+01 1.958951e+02 1.157749e+00 1.925927e+01 1.844231e+00 9.766080e+00 5.053413e+00 1.511299e+01 3.449259e+00 1.753403e+01 3.487613e+00 2.932172e+00 2.063531e+00 1.946185e+00 3.399778e+01 1.667251e-01 2.584218e+00 3.667071e-01 1.226443e+00 7.233090e-01 2.024947e+00 5.817287e-01 2.351227e+00 6.709545e-01 5.646326e-01 4.023774e-01 3.979769e-01 4.283639e+00
<GCONST> 1.405378e+02
<STATE> 4
<MEAN> 39
 -1.202061e+01 -1.705240e+01 -4.424874e+00 3.747733e+00 -8.946304e-01 6.244933e+00 -6.689174e+00 -1.105072e+01 -5.162878e+00 3.532889e+00 -5.003091e+00 -4.456243e+00 6.511193e+01 4.285495e-01 1.611477e+00 -4.305032e-01 1.441402e+00 -6.261171e-01 1.406383e+00 -4.532790e-01 1.343753e+00 -4.238858e-01 3.925228e-01 6.253421e-02 7.536154e-03 -2.191224e+00 -7.108379e-02 1.174127e-01 -1.156445e-02 -2.384342e-02 7.332112e-02 -7.564934e-02 1.039934e-01 1.092825e-01 7.883917e-02 -5.882168e-02 7.627793e-02 3.490488e-02 1.323814e-02
<VARIANCE> 39
 1.404125e+01 6.307113e+01 1.962668e+01 7.301782e+01 2.510179e+01 6.846616e+01 4.017254e+01 6.954640e+01 5.013782e+01 2.405043e+01 2.940728e+01 2.625432e+01 1.086848e+02 1.208975e+00 1.446748e+00 1.490182e+00 2.936430e+00 2.128054e+00 2.936214e+00 3.561032e+00 4.909188e+00 5.103570e+00 2.200731e+00 2.027243e+00 1.777040e+00 2.772607e+00 1.817888e-01 3.579466e-01 2.894072e-01 5.145961e-01 3.847110e-01 5.582507e-01 6.223657e-01 1.076311e+00 1.037130e+00 4.526432e-01 3.750132e-01 3.582794e-01 6.730397e-01
<GCONST> 1.212619e+02
<TRANSP> 5
 0.000000e+00 1.000000e+00 0.000000e+00 0.000000e+00 0.000000e+00
 0.000000e+00 7.310434e-01 2.689566e-01 0.000000e+00 0.000000e+00
 0.000000e+00 0.000000e+00 8.378834e-01 1.621166e-01 0.000000e+00
 0.000000e+00 0.000000e+00 0.000000e+00 8.882768e-01 1.117232e-01
 0.000000e+00 0.000000e+00 0.000000e+00 0.000000e+00 0.000000e+00
<ENDHMM>
~h "p"
<BEGINHMM>
<NUMSTATES> 5
<STATE> 2
<MEAN> 39
 -1.207284e+01 -1.383157e+00 -1.027491e+00 6.084204e+00 -2.651217e+00 7.748038e+00 -2.344124e+00 2.448915e+00 -4.034484e+00 -2.695527e+00 -2.512066e+00 -3.014374e+00 5.683852e+01 1.186391e+00 -1.355105e+00 8.762575e-01 -9.196476e-01 9.774091e-01 -1.486418e+00 5.597317e-01 -1.499656e+00 -1.577177e-01 -1.097790e+00 -1.824051e-01 -1.000769e-01 3.263051e+00 2.606970e-01 -1.952680e-01 1.994658e-01 -8.526865e-02 1.798997e-01 -1.277144e-01 7.607400e-02 -1.814823e-01 -3.545032e-02 -1.706970e-01 -9.375754e-02 -2.876230e-02 5.225388e-01
<VARIANCE> 39
 2.554252e+01 5.067382e+01 3.223001e+01 3.679421e+01 3.999491e+01 6.438877e+01 3.150144e+01 7.399169e+01 2.246072e+01 3.840432e+01 1.812722e+01 1.489383e+01 2.164006e+02 1.962092e+00 5.810250e+00 3.840336e+00 4.920885e+00 4.914693e+00 8.213440e+00 3.109179e+00 9.553074e+00 2.471920e+00 4.047987e+00 1.785400e+00 1.426400e+00 2.562935e+01 3.344189e-01 1.255756e+00 7.613982e-01 1.122640e+00 1.157463e+00 1.958410e+00 6.520517e-01 2.163023e+00 4.561590e-01 8.637718e-01 3.428031e-01 2.787704e-01 6.079025e+00
<GCONST> 1.368711e+02
<STATE> 3
<MEAN> 39
 -5.932884e+00 -5.704814e+00 2.672780e+00 4.197229e+00 6.100483e-01 3.884758e+00 -4.971547e-01 -1.665733e+00 -4.620059e+00 -6.943987e+00 -4.477370e+00 -3.808808e+00 6.857796e+01 1.223166e+00 5.680058e-03 1.656488e-01 5.325111e-01 -1.304753e-01 3.006834e-01 -6.029082e-03 1.490309e-01 -1.852573e-01 -3.077482e-01 -6.183922e-01 -2.767702e-01 5.736468e-01 -1.952775e-01 5.057896e-01 -3.219437e-01 3.938595e-01 -4.028442e-01 4.801793e-01 -2.241517e-01 4.649929e-01 -4.847103e-02 3.411807e-01 -1.295515e-02 -1.769150e-02 -1.029310e+00
<VARIANCE> 39
 2.782935e+01 4.137229e+01 3.016095e+01 4.662788e+01 4.853728e+01 7.072746e+01 3.218214e+01 6.374013e+01 2.863607e+01 3.720126e+01 2.657098e+01 2.059302e+01 1.769628e+02 1.811971e+00 6.635303e+00 4.339207e+00 6.579071e+00 7.580168e+00 1.136809e+01 3.962310e+00 1.065995e+01 2.621947e+00 4.842258e+00 2.121371e+00 1.619682e+00 3.242310e+01 2.731416e-01 9.698753e-01 7.269399e-01 1.157095e+00 1.385693e+00 2.195581e+00 7.714640e-01 2.028889e+00 5.279463e-01 8.226035e-01 4.492708e-01 3.331037e-01 5.405664e+00
<GCONST> 1.404996e+02
<STATE> 4
<MEAN> 39
 -7.961665e+00 4.425535e+00 -8.109248e-01 1.126909e+01 -4.159398e+00 1.004208e+01 -4.759173e+00 3.410876e+00 -7.276916e+00 -3.573217e+00 -5.999045e+00 -5.694047e+00 5.338107e+01 -4.229605e-01 3.987526e-01 -2.256783e-01 1.187030e-01 -1.305090e-01 2.176593e-01 -8.258480e-02 2.541671e-01 -1.372680e-02 2.185237e-01 1.211967e-01 2.194431e-02 -7.813133e-01 -4.836133e-02 -8.505745e-02 3.831771e-02 -8.009920e-02 6.859433e-02 -6.564224e-02 4.107492e-02 -5.222407e-02 3.842501e-02 -1.875805e-02 4.448356e-02 2.664139e-02 1.063580e-01
<VARIANCE> 39
 3.022993e+01 2.574987e+01 1.968727e+01 1.798657e+01 1.694426e+01 1.898186e+01 1.868435e+01 1.999651e+01 1.790498e+01 1.664626e+01 1.558350e+01 1.302913e+01 5.118398e+01 6.600814e-01 1.695107e+00 1.143677e+00 1.572886e+00 1.823806e+00 1.990396e+00 1.507463e+00 1.908982e+00 1.625979e+00 1.430739e+00 1.204039e+00 1.027265e+00 2.693444e+00 6.979972e-02 2.187823e-01 2.076036e-01 2.691744e-01 3.526476e-01 4.161085e-01 3.014325e-01 3.872910e-01 3.035935e-01 2.764963e-01 2.413591e-01 1.988458e-01 4.061558e-01
<GCONST> 9.839176e+01
<TRANSP> 5
 0.000000e+00 1.000000e+00 0.000000e+00 0.000000e+00 0.000000e+00
 0.000000e+00 7.519743e-01 2.480257e-01 0.000000e+00 0.000000e+00
 0.000000e+00 0.000000e+00 8.069503e-01 1.930497e-01 0.000000e+00
 0.000000e+00 0.000000e+00 0.000000e+00 9.477872e-01 5.221274e-02
 0.000000e+00 0.000000e+00 0.000000e+00 0.000000e+00 0.000000e+00
<ENDHMM>
~h "s"
<BEGINHMM>
<NUMSTATES> 5
<STATE> 2
<MEAN> 39
 -1.966274e+01 -8.711893e+00 -1.362499e-01 2.800058e+00 9.194524e-01 4.102906e+00 2.063878e+00 -2.605920e+00 -3.583426e+00 -1.850778e+00 -2.381512e+00 8.760393e-02 5.967376e+01 -2.272385e+00 -3.618990e+00 1.454467e+00 -2.939245e+00 2.483399e+00 -2.757419e+00 2.046338e+00 -2.843548e+00 3.527557e-01 -8.292975e-01 4.363278e-01 9.725149e-01 4.232887e+00 -3.135305e-01 -3.775191e-02 2.331201e-01 -6.072283e-01 4.504670e-01 -1.692850e-01 -2.736419e-02 -1.067094e-02 2.070847e-02 -1.118021e-01 1.256562e-01 -1.062164e-01 4.566142e-01
<VARIANCE> 39
 4.978306e+01 1.172781e+02 4.921677e+01 1.023189e+02 8.174345e+01 9.921484e+01 6.494524e+01 9.664403e+01 3.296684e+01 3.268427e+01 3.647358e+01 3.196328e+01 1.428011e+02 3.518950e+00 9.866524e+00 4.423641e+00 7.575729e+00 6.719987e+00 9.132893e+00 5.909811e+00 9.033998e+00 3.251016e+00 3.012294e+00 2.862830e+00 3.112444e+00 8.498180e+00 7.483978e-01 2.420213e+00 8.897259e-01 1.645980e+00 1.544003e+00 2.027806e+00 1.233959e+00 2.016099e+00 5.506282e-01 5.907234e-01 5.370799e-01 6.304755e-01 2.223533e+00
<GCONST> 1.490081e+02
<STATE> 3
<MEAN> 39
 -2.742023e+01 -1.712028e+01 5.790517e+00 -9.341563e+00 9.965730e+00 -2.656445e+00 6.061975e+00 -8.638877e+00 -2.766273e+00 -4.865201e+00 -4.427862e-01 1.336563e+00 7.291061e+01 -1.029196e+00 -8.421502e-01 1.029349e+00 -1.879472e+00 1.137970e+00 -4.078185e-01 1.747047e-01 -4.168529e-01 -1.760698e-02 -4.688075e-01 3.134442e-01 -7.219001e-02 1.786348e+00 4.517496e-01 5.998367e-01 -1.973682e-01 5.558771e-01 -5.265929e-01 6.265101e-01 -3.934122e-01 5.257395e-01 -7.560253e-02 1.486339e-01 -1.088159e-01 -1.391112e-01 -7.777017e-01
<VARIANCE> 39
 3.743005e+01 3.926122e+01 5.155497e+01 7.508324e+01 6.429867e+01 7.435638e+01 3.833405e+01 4.284784e+01 3.456272e+01 2.568649e+01 3.648132e+01 2.228227e+01 6.869650e+01 5.075823e+00 7.286826e+00 3.899818e+00 8.727973e+00 7.836618e+00 8.920238e+00 4.688469e+00 6.518107e+00 2.659338e+00 2.636805e+00 2.762996e+00 2.092941e+00 1.052210e+01 5.281117e-01 1.063699e+00 7.010102e-01 1.052380e+00 1.026424e+00 1.179118e+00 8.041469e-01 1.051693e+00 5.226560e-01 5.259935e-01 5.036576e-01 4.565606e-01 8.718997e-01
<GCONST> 1.379316e+02
<STATE> 4
<MEAN> 39
 -2.702895e+01 -1.673116e+01 1.054229e+01 -1.092340e+01 7.627815e+00 3.606357e+00 2.440230e+00 -6.536595e+00 -3.173149e+00 -4.514944e+00 -7.108793e-01 1.097706e+00 7.137899e+01 9.528958e-01 9.150290e-01 1.756640e-02 9.463008e-01 -1.070644e+00 1.302525e+00 -7.015644e-01 9.950901e-01 -3.766802e-01 2.976802e-01 -4.085592e-01 -1.330771e-01 -1.567900e+00 1.286240e-01 1.838957e-01 -1.814292e-01 2.438079e-01 -1.758891e-01 5.328233e-02 -7.357668e-02 9.954576e-02 2.787111e-02 8.149958e-02 8.139685e-03 -3.259136e-02 -2.417888e-01
<VARIANCE> 39
 3.484105e+01 3.376997e+01 3.147315e+01 4.054350e+01 5.832698e+01 7.695665e+01 3.363642e+01 4.493095e+01 3.119101e+01 2.221072e+01 3.087148e+01 1.634986e+01 7.058046e+01 1.551659e+00 2.531132e+00 1.746725e+00 2.521121e+00 2.637757e+00 2.723590e+00 2.384611e+00 2.989039e+00 2.161239e+00 1.803691e+00 1.693359e+00 1.155326e+00 2.937694e+00 2.200415e-01 3.382857e-01 2.276987e-01 3.127231e-01 3.931426e-01 4.881422e-01 4.226910e-01 5.290372e-01 4.293307e-01 3.505513e-01 3.507425e-01 2.341078e-01 3.109452e-01
<GCONST> 1.145961e+02
<TRANSP> 5
 0.000000e+00 1.000000e+00 0.000000e+00 0.000000e+00 0.000000e+00
 0.000000e+00 7.384455e-01 2.615545e-01 0.000000e+00 0.000000e+00
 0.000000e+00 0.000000e+00 7.975548e-01 2.024452e-01 0.000000e+00
 0.000000e+00 0.000000e+00 0.000000e+00 9.037700e-01 9.622999e-02
 0.000000e+00 0.000000e+00 0.000000e+00 0.000000e+00 0.000000e+00
<ENDHMM>
~h "sil"
<BEGINHMM>
<NUMSTATES> 5
<STATE> 2
<MEAN> 39
 -2.007163e+01 1.895034e+00 -3.564034e+00 4.715590e+00 -3.414131e+00 1.255964e+01 -6.679796e+00 3.917909e+00 -3.786283e+00 3.904358e-01 -2.745993e+00 -2.262014e+00 4.545076e+01 2.729808e-01 6.508852e-01 -4.298483e-01 6.732825e-01 -4.643799e-01 2.968162e-01 -7.604188e-02 5.781449e-01 1.905468e-01 2.257607e-01 2.544368e-01 -3.861991e-02 -6.745231e-01 9.832880e-03 -1.761245e-01 1.400378e-02 -4.003626e-02 7.543448e-02 -1.753288e-01 1.443733e-01 -1.354752e-01 1.454465e-02 -5.162228e-02 2.247729e-02 2.802934e-03 2.475416e-01
<VARIANCE> 39
 1.092949e+02 8.968651e+01 4.763694e+01 3.867725e+01 1.965786e+01 2.404315e+01 4.407726e+01 3.515848e+01 2.809561e+01 1.816966e+01 1.568053e+01 1.336984e+01 1.648405e+02 1.547826e+00 2.058762e+00 1.150045e+00 1.895533e+00 1.949285e+00 2.284088e+00 1.868370e+00 2.050984e+00 2.000013e+00 1.382130e+00 1.248967e+00 1.023624e+00 2.251041e+00 2.498682e-01 2.185253e-01 1.433860e-01 2.314840e-01 2.859621e-01 3.412867e-01 3.334223e-01 3.570305e-01 3.783318e-01 2.550061e-01 2.565238e-01 1.959485e-01 2.203829e-01
<GCONST> 1.078156e+02
<STATE> 3
<MEAN> 39
 -1.593932e+01 2.423410e-01 -3.406018e+00 7.258352e+00 -4.505854e+00 1.239202e+01 -4.855371e+00 4.533603e+00 -4.534528e+00 6.325012e-01 -2.202240e+00 -2.448122e+00 4.872177e+01 5.029528e-01 3.877367e-01 -3.611148e-01 7.592649e-01 -3.307882e-01 6.908229e-02 2.399573e-01 5.003772e-01 1.307964e-01 1.154997e-01 2.037941e-01 -7.537453e-02 -2.118785e-01 -1.161459e-01 -1.207817e-01 6.015285e-02 -1.539934e-01 1.648997e-01 -1.537421e-01 8.376709e-02 -1.298346e-01 8.412777e-03 -7.315592e-02 -7.035463e-02 1.171727e-02 1.459207e-01
<VARIANCE> 39
 4.498506e+01 5.132814e+01 3.699795e+01 3.056207e+01 1.993342e+01 2.727663e+01 3.776172e+01 3.871669e+01 2.864337e+01 1.987746e+01 2.018761e+01 1.519566e+01 6.840455e+01 3.114185e+00 2.994905e+00 1.489607e+00 2.159060e+00 1.971820e+00 2.383018e+00 2.223886e+00 2.069888e+00 2.421303e+00 1.508359e+00 1.495462e+00 1.166462e+00 4.132121e+00 3.821961e-01 4.499124e-01 1.880280e-01 3.337293e-01 3.556316e-01 4.981349e-01 4.352171e-01 4.338208e-01 4.834896e-01 2.975857e-01 3.134706e-01 2.341945e-01 5.018961e-01
<GCONST> 1.129134e+02
<STATE> 4
<MEAN> 39
 -1.490983e+01 2.284554e+00 -4.692489e+00 8.928117e+00 -5.039884e+00 1.189672e+01 -4.269655e+00 6.202625e+00 -3.960271e+00 5.231715e-01 -2.003175e+00 -2.741229e+00 4.761744e+01 -5.529208e-02 2.072267e-01 -1.272103e-01 9.916673e-02 -4.261897e-02 -9.220803e-02 7.741436e-02 1.586495e-01 1.083402e-01 -2.469003e-02 2.866447e-02 2.427625e-02 -1.932299e-01 -4.207145e-02 -1.934797e-01 6.405275e-02 -1.018755e-01 6.851162e-02 -1.002438e-01 5.498088e-02 -1.550547e-01 -1.914098e-02 -2.923687e-02 -9.739675e-03 3.764481e-02 1.864494e-01
<VARIANCE> 39
 7.309393e+00 1.450819e+01 1.069057e+01 9.270174e+00 1.174636e+01 1.772898e+01 2.513559e+01 2.708711e+01 1.906068e+01 1.411827e+01 1.295047e+01 1.193087e+01 1.259671e+01 2.492618e-01 9.411272e-01 6.808538e-01 7.651994e-01 8.539708e-01 1.015978e+00 1.067546e+00 1.333940e+00 1.188042e+00 1.043424e+00 9.783057e-01 8.449093e-01 4.403101e-01 7.325916e-02 2.916286e-01 1.234316e-01 1.902224e-01 2.201719e-01 2.955491e-01 2.579227e-01 3.537340e-01 2.481932e-01 2.244887e-01 2.047926e-01 1.814661e-01 2.631983e-01
<GCONST> 8.304275e+01
<TRANSP> 5
 0.000000e+00 1.000000e+00 0.000000e+00 0.000000e+00 0.000000e+00
 0.000000e+00 4.862670e-01 5.137329e-01 0.000000e+00 0.000000e+00
 0.000000e+00 0.000000e+00 4.307971e-01 5.692029e-01 0.000000e+00
 0.000000e+00 0.000000e+00 0.000000e+00 8.706951e-01 1.293049e-01
 0.000000e+00 0.000000e+00 0.000000e+00 0.000000e+00 0.000000e+00
<ENDHMM>
