~o
<STREAMINFO> 1 39
<VECSIZE> 39<NULLD><MFCC_D_A_0><DIAGC>
~h "k"
<BEGINHMM>
<NUMSTATES> 5
<STATE> 2
<MEAN> 39
 -1.369959e+01 -5.035067e+00 -5.172642e+00 4.777605e+00 -2.340186e+00 6.281766e+00 -3.243661e+00 1.058454e+00 -3.015766e+00 7.061652e-01 -1.612433e+00 -3.086061e+00 5.708710e+01 -3.968419e-01 -3.614811e+00 4.069800e-01 -1.497546e+00 1.678427e+00 -2.358633e+00 5.005760e-01 -2.893439e+00 1.540026e-01 -1.436249e-01 1.884358e-02 -1.292583e-01 4.025361e+00 -8.947258e-02 -9.633909e-01 1.449329e-01 -5.678827e-01 4.191071e-01 -6.221094e-01 5.552586e-02 -9.155866e-01 5.716841e-02 -1.505969e-01 -4.142369e-02 -5.506453e-02 1.210668e+00
<VARIANCE> 39
 1.623084e+01 1.671113e+02 2.076389e+01 5.769236e+01 6.086035e+01 1.003787e+02 3.723127e+01 1.360500e+02 2.607110e+01 2.393131e+01 2.057692e+01 1.856501e+01 2.190578e+02 1.352340e+00 1.721588e+01 2.144958e+00 6.219267e+00 6.614708e+00 1.087477e+01 3.475121e+00 1.340538e+01 2.996164e+00 2.985690e+00 2.164713e+00 1.901174e+00 2.365911e+01 2.057355e-01 3.880942e+00 3.630875e-01 1.207926e+00 1.387645e+00 2.414537e+00 6.683614e-01 2.798392e+00 5.732471e-01 6.040607e-01 4.279774e-01 3.789690e-01 5.368430e+00
<GCONST> 1.419017e+02
<STATE> 3
<MEAN> 39
 -1.517108e+01 -2.025808e+01 -3.010074e+00 -2.967271e+00 3.982378e+00 -3.023252e+00 -2.357280e+00 -1.300900e+01 -1.923813e+00 -1.227752e-01 -2.379377e+00 -4.050315e+00 7.468824e+01 -5.430716e-02 -2.319169e+00 3.475688e-01 -1.107660e+00 6.586836e-01 -1.145621e+00 -8.951505e-02 -2.248494e+00 1.430601e-01 -3.781560e-02 -2.728518e-01 -2.176433e-01 2.501239e+00 1.687955e-01 8.075957e-01 -1.102513e-01 4.502794e-01 -4.646254e-01 6.769098e-01 -1.839341e-01 6.827633e-01 -6.015672e-02 1.305456e-01 -6.522509e-02 2.082114e-02 -1.056431e+00
<VARIANCE> 39
 1.503007e+01 1.405885e+02 2.207942e+01 6.820096e+01 5.385480e+01 1.112550e+02 3.585085e+01 1.456488e+02 3.567383e+01 3.111086e+01 2.527502e+01 2.712299e+01 2.203515e+02 1.611180e+00 2.097867e+01 2.458982e+00 9.031898e+00 7.705278e+00 1.580262e+01 3.561675e+00 1.850026e+01 3.280216e+00 3.637146e+00 2.123154e+00 2.305924e+00 3.641763e+01 2.295105e-01 2.987532e+00 4.388842e-01 1.265874e+00 1.140980e+00 2.263635e+00 6.151943e-01 2.691432e+00 6.325760e-01 7.350842e-01 4.122752e-01 4.675938e-01 5.104309e+00
<GCONST> 1.458260e+02
<STATE> 4
<MEAN> 39
 -1.199768e+01 -1.715870e+01 -4.291067e+00 2.673168e+00 -4.636430e-01 4.349961e+00 -6.670855e+00 -1.138436e+01 -4.147367e+00 3.100376e+00 -4.643892e+00 -4.511374e+00 6.655946e+01 5.109460e-01 1.479795e+00 -5.112270e-01 1.296026e+00 -7.800418e-01 1.405723e+00 -4.907602e-01 1.308177e+00 -3.348803e-01 4.227788e-01 -4.762005e-02 4.599338e-02 -2.126359e+00 -4.385143e-02 1.733931e-01 -4.884220e-02 3.778401e-02 3.452219e-02 -5.625044e-03 6.786520e-02 1.736245e-01 4.756804e-02 -5.234183e-02 7.275985e-02 2.631404e-02 -8.422080e-02
<VARIANCE> 39
 1.656801e+01 6.707252e+01 2.236584e+01 7.072925e+01 3.165506e+01 7.554798e+01 3.944835e+01 7.546049e+01 4.693322e+01 2.500419e+01 2.690254e+01 2.515921e+01 1.207639e+02 1.256834e+00 2.920445e+00 1.859282e+00 3.240990e+00 2.626313e+00 3.671931e+00 3.253019e+00 6.199562e+00 4.418469e+00 2.340372e+00 2.006776e+00 1.884211e+00 5.422512e+00 1.970845e-01 6.185824e-01 3.457521e-01 5.628174e-01 4.714169e-01 7.257875e-01 5.942020e-01 1.279362e+00 9.141415e-01 5.070164e-01 3.793239e-01 3.763668e-01 1.201436e+00
<GCONST> 1.263177e+02
<TRANSP> 5
 0.000000e+00 1.000000e+00 0.000000e+00 0.000000e+00 0.000000e+00
 0.000000e+00 6.927864e-01 3.072136e-01 0.000000e+00 0.000000e+00
 0.000000e+00 0.000000e+00 8.268136e-01 1.731864e-01 0.000000e+00
 0.000000e+00 0.000000e+00 0.000000e+00 8.879593e-01 1.120407e-01
 0.000000e+00 0.000000e+00 0.000000e+00 0.000000e+00 0.000000e+00
<ENDHMM>
~h "p"
<BEGINHMM>
<NUMSTATES> 5
<STATE> 2
<MEAN> 39
 -1.085332e+01 -1.018466e+00 -2.612957e+00 5.393482e+00 -3.527059e+00 6.470929e+00 -3.631689e+00 2.183003e+00 -4.159821e+00 -2.626089e+00 -2.397212e+00 -3.089838e+00 5.706787e+01 1.036107e+00 -1.527380e+00 1.124204e+00 -8.325506e-01 1.163282e+00 -1.556252e+00 6.377520e-01 -1.622693e+00 -2.846132e-01 -1.210436e+00 -9.757063e-02 -4.821886e-02 3.385407e+00 2.442414e-01 -2.230823e-01 2.619116e-01 -4.566537e-02 2.264454e-01 -1.279107e-01 1.107823e-01 -1.994291e-01 -2.780200e-02 -2.038044e-01 -8.145551e-02 -3.877380e-02 5.627320e-01
<VARIANCE> 39
 2.373410e+01 5.086196e+01 4.219332e+01 3.359662e+01 4.569407e+01 6.207891e+01 3.371865e+01 6.984180e+01 2.281116e+01 3.778778e+01 1.781273e+01 1.457560e+01 1.979664e+02 1.768008e+00 5.849617e+00 4.363685e+00 4.538834e+00 5.503824e+00 8.048874e+00 3.120062e+00 8.983620e+00 2.653409e+00 4.258686e+00 1.956860e+00 1.506157e+00 2.399330e+01 2.763585e-01 1.339126e+00 9.349471e-01 1.015928e+00 1.315102e+00 1.958667e+00 6.607280e-01 2.090798e+00 4.978593e-01 9.343983e-01 3.786815e-01 2.932693e-01 5.874774e+00
<GCONST> 1.375126e+02
<STATE> 3
<MEAN> 39
 -5.648290e+00 -5.558786e+00 1.798907e+00 4.096104e+00 4.429104e-01 2.693723e+00 -1.515887e+00 -2.241376e+00 -5.055210e+00 -7.065000e+00 -3.887296e+00 -3.773756e+00 6.854587e+01 1.118775e+00 -1.014646e-01 3.211048e-01 5.686631e-01 2.638349e-02 2.836816e-01 9.227711e-02 2.957948e-02 -1.931980e-01 -3.823285e-01 -5.586550e-01 -2.449284e-01 6.920025e-01 -1.504597e-01 5.538551e-01 -4.144676e-01 3.740842e-01 -4.773386e-01 5.173817e-01 -2.603390e-01 5.135838e-01 -6.388211e-03 3.851768e-01 -4.546203e-02 -2.245981e-02 -1.091919e+00
<VARIANCE> 39
 2.233174e+01 4.205923e+01 3.868786e+01 4.303259e+01 5.557121e+01 6.957082e+01 3.471058e+01 6.479041e+01 2.902220e+01 3.836444e+01 2.738828e+01 1.957743e+01 1.696785e+02 1.511208e+00 7.247464e+00 5.841116e+00 5.873281e+00 9.064215e+00 1.142168e+01 3.959805e+00 1.071672e+01 2.733253e+00 5.440579e+00 2.307303e+00 1.605014e+00 3.248221e+01 2.365922e-01 1.099265e+00 1.004935e+00 1.058152e+00 1.683249e+00 2.221334e+00 7.502140e-01 2.028240e+00 5.719934e-01 9.637166e-01 4.951070e-01 3.312448e-01 5.475653e+00
<GCONST> 1.419077e+02
<STATE> 4
<MEAN> 39
 -6.068094e+00 4.073651e+00 -1.363917e+00 1.091890e+01 -4.361753e+00 9.200254e+00 -5.262914e+00 2.965334e+00 -7.567798e+00 -3.971681e+00 -6.066662e+00 -5.740148e+00 5.497786e+01 -4.334837e-01 5.630088e-01 -3.561565e-01 1.288847e-01 -2.617711e-01 3.035966e-01 -1.756309e-01 3.480310e-01 -3.327767e-02 3.078701e-01 1.024557e-01 7.202430e-04 -1.016981e+00 -7.536083e-02 -9.430658e-02 5.251043e-02 -1.128803e-01 9.694010e-02 -8.858048e-02 5.148516e-02 -6.735940e-02 5.281242e-02 -2.118248e-02 6.355664e-02 3.686146e-02 1.279431e-01
<VARIANCE> 39
 2.321888e+01 2.860580e+01 2.629264e+01 2.140543e+01 1.978508e+01 2.244926e+01 2.044165e+01 1.944589e+01 1.915560e+01 1.744940e+01 1.696304e+01 1.341171e+01 4.577766e+01 6.325760e-01 1.814547e+00 1.404881e+00 1.897458e+00 2.237549e+00 2.369455e+00 1.654940e+00 2.089176e+00 1.928990e+00 1.686272e+00 1.424757e+00 1.101528e+00 2.642021e+00 7.194287e-02 2.444479e-01 2.639965e-01 3.161779e-01 4.445880e-01 5.055878e-01 3.298729e-01 4.333458e-01 3.679009e-01 3.444788e-01 2.922567e-01 2.168557e-01 4.539407e-01
<GCONST> 1.027058e+02
<TRANSP> 5
 0.000000e+00 1.000000e+00 0.000000e+00 0.000000e+00 0.000000e+00
 0.000000e+00 7.410506e-01 2.589493e-01 0.000000e+00 0.000000e+00
 0.000000e+00 0.000000e+00 8.025352e-01 1.974649e-01 0.000000e+00
 0.000000e+00 0.000000e+00 0.000000e+00 9.301291e-01 6.987089e-02
 0.000000e+00 0.000000e+00 0.000000e+00 0.000000e+00 0.000000e+00
<ENDHMM>
~h "s"
<BEGINHMM>
<NUMSTATES> 5
<STATE> 2
<MEAN> 39
 -1.838966e+01 -7.424591e+00 -1.168048e+00 3.542503e+00 -6.574023e-01 4.312004e+00 9.358363e-01 -1.721317e+00 -3.222042e+00 -1.530462e+00 -2.055043e+00 -2.773647e-01 5.852157e+01 -2.469567e+00 -3.745052e+00 1.689367e+00 -2.625412e+00 2.554187e+00 -2.815744e+00 2.244548e+00 -2.994981e+00 3.805459e-01 -8.954892e-01 4.299070e-01 1.031808e+00 4.190939e+00 -4.052574e-01 -1.309808e-01 2.822974e-01 -7.072107e-01 5.832053e-01 -2.392727e-01 3.259347e-02 -9.712772e-02 3.200703e-02 -1.238970e-01 1.221641e-01 -6.646158e-02 5.737332e-01
<VARIANCE> 39
 5.012304e+01 1.134080e+02 4.931128e+01 8.771155e+01 8.126988e+01 9.220086e+01 6.605341e+01 9.553031e+01 3.439581e+01 3.429783e+01 3.442870e+01 3.109111e+01 1.249937e+02 3.551091e+00 9.266804e+00 4.763071e+00 7.631958e+00 7.193932e+00 8.442202e+00 5.646555e+00 8.848354e+00 3.409546e+00 3.254288e+00 2.877511e+00 2.977718e+00 7.572922e+00 7.432638e-01 2.315046e+00 9.255282e-01 1.459350e+00 1.544765e+00 1.903552e+00 1.213094e+00 2.037596e+00 5.686221e-01 6.157356e-01 5.367187e-01 6.114607e-01 1.968036e+00
<GCONST> 1.482678e+02
<STATE> 3
<MEAN> 39
 -2.713361e+01 -1.659125e+01 5.551117e+00 -8.369406e+00 9.393904e+00 -3.000512e+00 5.728679e+00 -8.473612e+00 -2.302134e+00 -4.762188e+00 -1.006777e-01 1.323955e+00 7.226908e+01 -1.361804e+00 -1.139126e+00 1.251911e+00 -2.150471e+00 1.534963e+00 -6.225923e-01 3.475515e-01 -6.135989e-01 2.060376e-02 -5.373605e-01 3.822698e-01 1.025783e-02 2.131225e+00 4.969379e-01 6.391611e-01 -2.421956e-01 4.728822e-01 -5.566267e-01 6.483082e-01 -4.554157e-01 5.680996e-01 -8.234514e-02 1.592812e-01 -9.110075e-02 -1.639170e-01 -7.620275e-01
<VARIANCE> 39
 3.965168e+01 4.205018e+01 5.292444e+01 7.978949e+01 7.194156e+01 7.032703e+01 4.026107e+01 4.660287e+01 3.533530e+01 2.761427e+01 3.449547e+01 2.234665e+01 7.079526e+01 5.772571e+00 7.529427e+00 4.505348e+00 8.315971e+00 9.045219e+00 9.072127e+00 5.167265e+00 7.074881e+00 2.724948e+00 2.707351e+00 2.723861e+00 2.139323e+00 1.021141e+01 5.979334e-01 1.042004e+00 7.814291e-01 1.155632e+00 1.197009e+00 1.199821e+00 8.301322e-01 1.105952e+00 5.471691e-01 5.279762e-01 5.161057e-01 4.524879e-01 8.618729e-01
<GCONST> 1.396438e+02
<STATE> 4
<MEAN> 39
 -2.657081e+01 -1.613884e+01 1.029483e+01 -1.064594e+01 7.273458e+00 3.287126e+00 2.155613e+00 -6.031914e+00 -3.005094e+00 -4.405807e+00 -5.812155e-01 9.767848e-01 7.096359e+01 1.045631e+00 9.801294e-01 -9.193717e-02 8.863363e-01 -1.178265e+00 1.276301e+00 -7.597115e-01 1.030489e+00 -3.540057e-01 3.530582e-01 -3.772609e-01 -1.509400e-01 -1.552749e+00 1.464753e-01 1.947696e-01 -2.082869e-01 2.573820e-01 -1.923416e-01 5.256216e-02 -7.129519e-02 9.138659e-02 3.342516e-02 7.952040e-02 4.878715e-03 -3.617280e-02 -2.507418e-01
<VARIANCE> 39
 3.977930e+01 3.597773e+01 3.257272e+01 4.100798e+01 6.708298e+01 7.596686e+01 3.507406e+01 4.765132e+01 3.210109e+01 2.276834e+01 3.009770e+01 1.615066e+01 7.234862e+01 1.949548e+00 2.768690e+00 2.301201e+00 2.762575e+00 3.089739e+00 2.696673e+00 2.404581e+00 3.036930e+00 2.205946e+00 1.904966e+00 1.792725e+00 1.185826e+00 3.190078e+00 2.722396e-01 3.751979e-01 2.925291e-01 3.359609e-01 4.578157e-01 5.049440e-01 4.381148e-01 5.547949e-01 4.397489e-01 3.670261e-01 3.698535e-01 2.431575e-01 3.499905e-01
<GCONST> 1.173914e+02
<TRANSP> 5
 0.000000e+00 1.000000e+00 0.000000e+00 0.000000e+00 0.000000e+00
 0.000000e+00 6.998153e-01 3.001847e-01 0.000000e+00 0.000000e+00
 0.000000e+00 0.000000e+00 7.939359e-01 2.060640e-01 0.000000e+00
 0.000000e+00 0.000000e+00 0.000000e+00 9.068995e-01 9.310054e-02
 0.000000e+00 0.000000e+00 0.000000e+00 0.000000e+00 0.000000e+00
<ENDHMM>
~h "sil"
<BEGINHMM>
<NUMSTATES> 5
<STATE> 2
<MEAN> 39
 -1.790379e+01 2.192840e+00 -4.828990e+00 4.661616e+00 -4.479486e+00 1.150829e+01 -7.340567e+00 4.005163e+00 -3.399854e+00 6.320688e-01 -2.546669e+00 -2.444323e+00 4.643399e+01 1.464536e-01 6.420827e-01 -4.830275e-01 5.080542e-01 -3.860533e-01 2.387207e-01 -9.428620e-02 5.147167e-01 2.108618e-01 1.921687e-01 2.342927e-01 -2.270188e-02 -6.889329e-01 -2.658177e-02 -1.723922e-01 4.122336e-02 -4.960066e-02 9.471039e-02 -1.703239e-01 1.235361e-01 -1.281859e-01 -1.927995e-02 -5.253359e-02 1.360990e-02 4.709228e-03 2.160150e-01
<VARIANCE> 39
 1.143624e+02 7.449708e+01 4.177773e+01 3.355078e+01 1.965910e+01 2.576377e+01 3.658254e+01 2.955437e+01 2.354501e+01 1.643442e+01 1.403580e+01 1.209404e+01 1.450139e+02 1.107463e+00 1.652433e+00 1.219713e+00 1.729884e+00 1.852467e+00 1.985503e+00 1.599222e+00 1.829634e+00 1.844619e+00 1.346692e+00 1.199160e+00 1.027137e+00 1.414561e+00 2.142491e-01 2.058909e-01 1.471146e-01 2.179699e-01 2.815528e-01 3.228437e-01 3.059286e-01 3.287347e-01 3.399994e-01 2.524950e-01 2.438072e-01 1.956587e-01 1.937186e-01
<GCONST> 1.040525e+02
<STATE> 3
<MEAN> 39
 -1.540564e+01 1.683586e+00 -5.700923e+00 6.177783e+00 -5.567854e+00 1.087717e+01 -6.560506e+00 4.657159e+00 -3.748482e+00 8.620531e-01 -1.892256e+00 -2.457860e+00 4.781722e+01 3.675566e-01 3.016509e-01 -3.601271e-01 5.400309e-01 -2.412273e-01 7.880165e-03 1.595303e-01 3.728207e-01 8.447456e-02 9.884937e-02 1.773560e-01 -2.770935e-02 -1.835588e-01 -4.800977e-02 -9.798968e-02 8.184947e-02 -1.006514e-01 1.246241e-01 -1.073179e-01 7.036401e-02 -1.018320e-01 -8.551893e-03 -5.676103e-02 -6.487507e-02 8.897097e-04 1.471417e-01
<VARIANCE> 39
 7.102232e+01 5.141779e+01 3.575835e+01 2.936295e+01 2.060484e+01 2.828587e+01 3.507603e+01 2.973187e+01 2.399807e+01 1.720333e+01 1.785518e+01 1.326908e+01 8.410463e+01 5.821634e+00 3.008388e+00 1.415535e+00 2.093221e+00 1.990373e+00 2.262069e+00 2.070615e+00 1.736911e+00 2.123097e+00 1.417020e+00 1.459929e+00 1.096748e+00 5.565882e+00 6.727740e-01 4.670501e-01 1.959808e-01 3.438156e-01 3.653880e-01 4.697070e-01 4.004001e-01 3.590363e-01 4.205993e-01 2.855679e-01 3.006516e-01 2.240503e-01 6.566700e-01
<GCONST> 1.133050e+02
<STATE> 4
<MEAN> 39
 -1.286705e+01 2.889298e+00 -6.909311e+00 7.536775e+00 -6.504730e+00 1.016986e+01 -5.877439e+00 5.845339e+00 -3.566771e+00 7.048262e-01 -1.746252e+00 -2.716480e+00 4.837593e+01 -5.773456e-02 1.655039e-01 -9.157409e-02 4.049814e-02 -4.025064e-02 -6.352935e-02 6.699628e-02 1.242601e-01 7.994843e-02 -2.663377e-02 2.067286e-02 1.862330e-02 -1.521195e-01 -4.422430e-02 -1.595449e-01 6.552248e-02 -7.091315e-02 5.869268e-02 -8.424243e-02 4.843818e-02 -1.235322e-01 -1.565029e-02 -2.785408e-02 -2.086579e-03 2.837199e-02 1.493716e-01
<VARIANCE> 39
 1.454877e+01 1.316752e+01 1.662175e+01 1.244969e+01 1.383005e+01 1.871118e+01 2.320192e+01 2.061807e+01 1.618849e+01 1.273173e+01 1.199425e+01 1.081894e+01 1.226561e+01 2.588319e-01 8.843120e-01 6.232817e-01 7.471741e-01 8.216175e-01 9.847863e-01 1.048129e+00 1.214815e+00 1.147978e+00 1.022251e+00 9.893543e-01 8.592910e-01 3.679924e-01 8.590794e-02 2.651893e-01 1.275318e-01 1.823784e-01 2.190212e-01 2.744163e-01 2.486053e-01 3.208300e-01 2.432300e-01 2.204476e-01 2.082531e-01 1.843785e-01 2.283960e-01
<GCONST> 8.293565e+01
<TRANSP> 5
 0.000000e+00 1.000000e+00 0.000000e+00 0.000000e+00 0.000000e+00
 0.000000e+00 5.295445e-01 4.704555e-01 0.000000e+00 0.000000e+00
 0.000000e+00 0.000000e+00 5.137196e-01 4.862804e-01 0.000000e+00
 0.000000e+00 0.000000e+00 0.000000e+00 8.906354e-01 1.093645e-01
 0.000000e+00 0.000000e+00 0.000000e+00 0.000000e+00 0.000000e+00
<ENDHMM>
