~o
<STREAMINFO> 1 39
<VECSIZE> 39<NULLD><MFCC_D_A_0><DIAGC>
~s "silst"
<MEAN> 39
 -1.594534e+01 1.267515e+00 -6.354499e+00 6.864052e+00 -6.401910e+00 1.007097e+01 -6.305535e+00 4.782083e+00 -4.578352e+00 9.875662e-01 -1.032472e+00 -2.527512e+00 4.715471e+01 3.449457e-01 2.579211e-01 -3.816731e-01 4.472120e-01 -9.551634e-02 -1.260182e-01 2.773202e-01 4.409007e-01 1.904256e-01 1.457268e-01 2.071625e-01 3.640943e-02 -9.439038e-02 -2.869930e-02 3.131340e-02 8.193264e-02 -1.693427e-01 1.470678e-01 -5.740523e-03 -2.586024e-02 -6.694929e-02 4.945182e-02 -7.261063e-02 -1.440067e-01 2.794159e-02 7.765659e-02
<VARIANCE> 39
 8.106864e+01 5.888105e+01 3.547819e+01 3.531495e+01 2.788046e+01 3.752100e+01 4.169382e+01 2.988669e+01 3.233231e+01 2.207487e+01 2.352138e+01 1.686670e+01 9.127444e+01 6.695636e+00 4.631004e+00 1.919856e+00 3.129378e+00 2.523970e+00 3.064038e+00 2.878117e+00 2.688993e+00 3.412831e+00 1.839574e+00 2.114065e+00 1.399324e+00 6.508217e+00 8.544596e-01 7.161613e-01 2.582757e-01 5.281003e-01 4.869052e-01 6.009348e-01 5.301586e-01 4.922929e-01 6.453166e-01 3.658838e-01 3.991650e-01 2.835000e-01 8.480689e-01
<GCONST> 1.237007e+02
~h "k"
<BEGINHMM>
<NUMSTATES> 5
<STATE> 2
<MEAN> 39
 -1.323635e+01 9.470701e-01 -6.611230e+00 8.042434e+00 -5.722778e+00 1.042280e+01 -4.087471e+00 6.760774e+00 -3.393218e+00 1.353035e+00 -1.274129e+00 -2.697651e+00 4.924539e+01 -4.428375e-01 -4.116239e+00 4.847480e-01 -1.749297e+00 2.073365e+00 -2.799623e+00 5.265366e-01 -3.267549e+00 1.449161e-01 -8.196467e-02 6.463577e-02 -1.200483e-02 4.629909e+00 -1.979772e-01 -1.787421e+00 2.338765e-01 -1.022473e+00 8.597078e-01 -1.243475e+00 1.594312e-01 -1.620387e+00 1.328955e-01 -2.757494e-01 -5.085854e-02 -1.155113e-01 2.296098e+00
<VARIANCE> 39
 1.397674e+01 3.955967e+01 1.777223e+01 2.211010e+01 2.465908e+01 2.974594e+01 3.549289e+01 2.530915e+01 2.326534e+01 1.830619e+01 1.992187e+01 1.474833e+01 2.002962e+01 1.239388e+00 1.793557e+01 2.088367e+00 6.508206e+00 6.214643e+00 1.028789e+01 3.697728e+00 1.358875e+01 3.375393e+00 3.067390e+00 2.481274e+00 2.037573e+00 2.252402e+01 1.475593e-01 1.817439e+00 2.816663e-01 6.348038e-01 6.812284e-01 1.021121e+00 6.188539e-01 1.181965e+00 5.733055e-01 4.944629e-01 4.457784e-01 3.775310e-01 1.759615e+00
<GCONST> 1.267662e+02
<STATE> 3
<MEAN> 39
 -1.670517e+01 -2.719733e+01 -2.479047e+00 -7.351697e+00 8.457282e+00 -8.876669e+00 -1.188993e+00 -1.901355e+01 -8.003435e-01 -1.534388e+00 -2.204622e+00 -4.437441e+00 8.436260e+01 -3.568374e-01 -3.062512e+00 7.556909e-01 -1.922422e+00 9.557266e-01 -1.806308e+00 1.975086e-01 -3.372880e+00 4.556218e-01 -4.298933e-01 -3.173011e-01 -6.081867e-01 3.912339e+00 3.058631e-01 1.945118e+00 -7.704693e-02 1.053820e+00 -1.121037e+00 1.591524e+00 -3.341630e-01 1.638111e+00 -1.674770e-01 4.079769e-01 -1.013135e-01 5.221056e-02 -2.651721e+00
<VARIANCE> 39
 7.953056e+00 2.019354e+01 1.658984e+01 2.572176e+01 2.146029e+01 5.619202e+01 2.921706e+01 4.292639e+01 3.670382e+01 3.507787e+01 2.462802e+01 3.145431e+01 3.930611e+01 1.155682e+00 1.863915e+01 1.887783e+00 6.904702e+00 7.285434e+00 1.398908e+01 2.755428e+00 1.373828e+01 2.662289e+00 3.651711e+00 1.907980e+00 2.107524e+00 3.210323e+01 2.009705e-01 1.041728e+00 3.968306e-01 6.432353e-01 6.682861e-01 1.188090e+00 5.373770e-01 1.121909e+00 5.879090e-01 7.675967e-01 4.009054e-01 5.046796e-01 1.761942e+00
<GCONST> 1.300631e+02
<STATE> 4
<MEAN> 39
 -1.172441e+01 -1.801008e+01 -4.049913e+00 2.279365e+00 -9.019610e-01 4.009153e+00 -7.453643e+00 -1.210560e+01 -4.265081e+00 3.011601e+00 -5.136202e+00 -4.589132e+00 6.687675e+01 6.779667e-01 1.733690e+00 -6.997857e-01 1.691826e+00 -1.037094e+00 1.746900e+00 -6.312063e-01 1.620780e+00 -5.020624e-01 5.751483e-01 -9.721189e-02 1.283709e-01 -2.683711e+00 -8.134905e-02 6.785178e-02 -1.089664e-01 -9.463497e-03 1.317835e-01 -8.721938e-02 1.247722e-01 1.300716e-01 9.494095e-02 -7.427379e-02 1.039957e-01 8.596545e-03 7.858683e-02
<VARIANCE> 39
 1.671759e+01 5.024476e+01 2.309310e+01 6.750613e+01 2.914284e+01 6.307891e+01 3.794402e+01 5.847264e+01 4.610724e+01 2.254437e+01 2.488615e+01 2.587621e+01 9.089774e+01 1.239579e+00 1.274194e+00 1.728397e+00 2.257174e+00 2.260716e+00 2.747796e+00 3.237296e+00 4.756039e+00 4.106608e+00 2.246352e+00 1.932273e+00 1.925281e+00 2.663322e+00 2.166445e-01 2.798205e-01 3.704937e-01 4.724512e-01 3.576267e-01 4.959286e-01 5.959202e-01 1.072585e+00 9.010870e-01 4.932922e-01 3.730283e-01 3.968143e-01 5.255852e-01
<GCONST> 1.197142e+02
<TRANSP> 5
 0.000000e+00 1.000000e+00 0.000000e+00 0.000000e+00 0.000000e+00
 0.000000e+00 7.258781e-01 2.741219e-01 0.000000e+00 0.000000e+00
 0.000000e+00 0.000000e+00 7.753361e-01 2.246639e-01 0.000000e+00
 0.000000e+00 0.000000e+00 0.000000e+00 8.986814e-01 1.013186e-01
 0.000000e+00 0.000000e+00 0.000000e+00 0.000000e+00 0.000000e+00
<ENDHMM>
~h "p"
<BEGINHMM>
<NUMSTATES> 5
<STATE> 2
<MEAN> 39
 -1.330720e+01 1.794567e+00 -5.525300e+00 6.892106e+00 -6.237404e+00 9.200773e+00 -4.924343e+00 5.685671e+00 -3.634929e+00 1.431937e-01 -2.095798e+00 -2.754827e+00 4.964255e+01 1.150082e+00 -2.732680e+00 1.908822e+00 -1.712220e+00 2.027881e+00 -2.852024e+00 9.438884e-01 -2.948356e+00 -4.208122e-01 -1.828912e+00 1.812616e-01 4.966428e-02 5.609377e+00 6.123306e-01 -8.318343e-01 8.265506e-01 -4.694856e-01 8.668169e-01 -7.702223e-01 4.190680e-01 -9.493378e-01 -3.053963e-02 -7.354077e-01 -3.619425e-02 -1.023521e-01 2.129714e+00
<VARIANCE> 39
 1.564857e+01 2.633087e+01 2.429473e+01 1.750579e+01 1.974089e+01 3.031994e+01 2.531057e+01 2.995115e+01 1.844476e+01 1.585400e+01 1.295849e+01 1.151302e+01 4.186483e+01 1.720596e+00 4.681397e+00 4.143297e+00 3.378779e+00 4.664489e+00 6.078195e+00 3.217442e+00 7.187694e+00 2.843897e+00 4.139599e+00 1.913946e+00 1.720567e+00 1.902848e+01 1.372027e-01 6.275731e-01 3.802258e-01 5.383123e-01 5.206577e-01 9.144974e-01 4.613379e-01 8.670533e-01 4.350207e-01 4.329003e-01 3.054091e-01 2.750882e-01 1.554638e+00
<GCONST> 1.196068e+02
<STATE> 3
<MEAN> 39
 -4.551549e+00 -9.796625e+00 4.894028e+00 1.057231e+00 4.235430e+00 -6.707065e-01 5.490404e-01 -6.449048e+00 -4.564127e+00 -9.715340e+00 -3.468685e+00 -3.720403e+00 7.695033e+01 1.523642e+00 8.001834e-02 2.434822e-01 1.053559e+00 -3.438124e-01 1.207532e+00 4.102641e-02 6.976046e-01 3.821005e-02 -2.724034e-01 -9.364740e-01 -2.805560e-01 1.180464e-01 -3.194485e-01 1.095043e+00 -9.226766e-01 8.519588e-01 -1.141088e+00 1.124531e+00 -5.735513e-01 1.197195e+00 -5.530694e-03 8.332373e-01 -1.177424e-01 4.738141e-03 -2.397048e+00
<VARIANCE> 39
 9.586590e+00 1.671357e+01 1.661164e+01 3.224703e+01 3.124549e+01 5.596165e+01 2.889306e+01 4.822453e+01 2.949405e+01 2.311462e+01 3.034963e+01 2.211773e+01 5.502608e+01 1.321762e+00 6.346558e+00 5.811771e+00 5.377338e+00 9.606123e+00 1.075638e+01 4.144128e+00 1.162205e+01 2.338491e+00 5.149890e+00 2.025944e+00 1.671550e+00 3.534304e+01 1.613345e-01 5.853490e-01 5.774076e-01 7.346020e-01 9.513785e-01 1.844888e+00 6.191539e-01 1.726031e+00 5.691940e-01 5.850981e-01 5.298876e-01 3.851097e-01 3.166753e+00
<GCONST> 1.320152e+02
<STATE> 4
<MEAN> 39
 -3.602920e+00 3.558264e+00 -8.169517e-01 1.215868e+01 -4.634826e+00 9.708633e+00 -5.050937e+00 2.783040e+00 -8.189248e+00 -4.477197e+00 -6.827108e+00 -5.981802e+00 5.672116e+01 -6.011411e-01 1.041561e+00 -5.074319e-01 2.912629e-01 -3.370198e-01 3.030140e-01 -3.059129e-01 3.266974e-01 -3.638186e-01 3.879845e-01 1.154476e-01 -1.241459e-01 -1.508256e+00 -1.754771e-01 -2.030865e-01 1.348020e-01 -3.068568e-01 2.753285e-01 -2.183523e-01 1.434255e-01 -1.758898e-01 1.081333e-01 -8.689848e-02 1.159999e-01 5.605436e-02 3.186411e-01
<VARIANCE> 39
 1.357803e+01 3.252549e+01 2.648698e+01 1.897318e+01 1.838807e+01 2.080901e+01 2.082335e+01 1.771111e+01 2.226625e+01 1.686762e+01 1.690054e+01 1.582066e+01 2.099123e+01 6.491427e-01 1.524194e+00 1.580885e+00 2.199855e+00 2.417043e+00 2.182939e+00 1.694488e+00 2.027347e+00 2.095813e+00 1.820058e+00 1.364980e+00 1.303496e+00 1.264644e+00 7.038629e-02 1.607525e-01 2.456484e-01 3.407559e-01 4.546740e-01 5.881083e-01 3.192077e-01 5.006573e-01 4.313487e-01 3.575836e-01 3.066582e-01 2.684256e-01 1.535865e-01
<GCONST> 1.003340e+02
<TRANSP> 5
 0.000000e+00 1.000000e+00 0.000000e+00 0.000000e+00 0.000000e+00
 0.000000e+00 6.840320e-01 3.159680e-01 0.000000e+00 0.000000e+00
 0.000000e+00 0.000000e+00 8.005308e-01 1.994692e-01 0.000000e+00
 0.000000e+00 0.000000e+00 0.000000e+00 8.935463e-01 1.064537e-01
 0.000000e+00 0.000000e+00 0.000000e+00 0.000000e+00 0.000000e+00
<ENDHMM>
~h "s"
<BEGINHMM>
<NUMSTATES> 5
<STATE> 2
<MEAN> 39
 -1.551898e+01 -3.752768e+00 -3.239694e+00 7.186669e+00 -4.441474e+00 7.487495e+00 -1.486469e+00 1.383757e+00 -3.435032e+00 -2.593868e-01 -2.828855e+00 -8.736535e-01 5.320397e+01 -2.299632e+00 -4.186380e+00 1.661659e+00 -2.050193e+00 2.325487e+00 -2.983569e+00 2.504583e+00 -3.427521e+00 4.525243e-01 -8.585066e-01 2.354251e-01 1.314292e+00 4.091371e+00 -7.489292e-01 -6.293501e-01 4.792280e-01 -1.095333e+00 1.018783e+00 -6.950618e-01 3.232821e-01 -5.178546e-01 8.173847e-02 -2.595339e-01 1.978527e-01 1.053692e-02 1.176884e+00
<VARIANCE> 39
 2.459286e+01 8.785889e+01 3.991340e+01 3.870044e+01 3.793484e+01 6.543739e+01 5.693726e+01 8.080394e+01 3.248500e+01 3.041880e+01 2.997786e+01 3.104259e+01 5.350880e+01 3.492292e+00 8.117311e+00 5.121771e+00 7.560190e+00 7.397735e+00 8.132279e+00 4.982389e+00 8.103320e+00 3.410577e+00 3.384638e+00 2.869011e+00 2.504163e+00 7.771266e+00 3.214508e-01 1.945092e+00 8.532404e-01 8.719096e-01 8.162528e-01 1.375660e+00 1.025712e+00 1.838424e+00 5.521345e-01 5.849107e-01 5.185460e-01 6.090094e-01 9.952174e-01
<GCONST> 1.396222e+02
<STATE> 3
<MEAN> 39
 -2.885465e+01 -1.838406e+01 5.016763e+00 -1.001217e+01 1.151118e+01 -6.088938e+00 6.800779e+00 -1.029435e+01 -1.658565e+00 -4.845945e+00 4.675639e-01 1.438510e+00 7.467846e+01 -2.025742e+00 -1.127368e+00 1.395014e+00 -3.295791e+00 2.262678e+00 -9.972559e-01 2.249962e-01 -5.227556e-01 7.854422e-03 -6.423489e-01 8.347509e-01 -3.035606e-01 3.121961e+00 8.111362e-01 9.663785e-01 -3.573888e-01 8.376900e-01 -1.009951e+00 1.115403e+00 -7.124794e-01 8.789696e-01 -1.255942e-01 2.200231e-01 -1.432547e-01 -2.245495e-01 -1.220193e+00
<VARIANCE> 39
 1.658375e+01 2.395955e+01 5.003457e+01 4.351953e+01 3.824018e+01 3.753644e+01 3.283017e+01 3.186901e+01 3.039147e+01 2.395048e+01 2.996036e+01 1.954586e+01 2.612552e+01 3.611600e+00 5.057103e+00 4.350005e+00 5.571375e+00 7.042298e+00 7.093772e+00 4.172677e+00 5.291692e+00 2.383333e+00 2.498605e+00 2.184546e+00 1.757895e+00 5.771514e+00 3.236730e-01 9.581538e-01 8.092616e-01 7.676412e-01 7.763216e-01 8.382002e-01 7.400795e-01 1.040866e+00 4.978142e-01 4.943173e-01 4.720690e-01 4.412434e-01 4.103383e-01
<GCONST> 1.275780e+02
<STATE> 4
<MEAN> 39
 -2.705360e+01 -1.680900e+01 1.016169e+01 -1.153576e+01 7.945118e+00 2.832529e+00 2.199536e+00 -6.168118e+00 -3.122159e+00 -4.639917e+00 -5.457779e-01 9.451954e-01 7.161085e+01 1.158882e+00 1.006219e+00 -2.221271e-03 1.006420e+00 -1.305137e+00 1.472399e+00 -8.110482e-01 1.102862e+00 -4.432712e-01 3.453683e-01 -4.807882e-01 -1.347027e-01 -1.755186e+00 1.519388e-01 2.070553e-01 -2.158456e-01 2.775357e-01 -2.113693e-01 4.477661e-02 -6.063741e-02 8.815775e-02 4.394088e-02 1.000740e-01 8.082311e-03 -4.056990e-02 -2.708973e-01
<VARIANCE> 39
 3.418587e+01 2.937931e+01 3.015225e+01 3.404498e+01 5.788460e+01 6.962952e+01 3.369967e+01 4.384155e+01 3.350941e+01 2.237425e+01 3.002807e+01 1.536458e+01 6.483983e+01 1.721661e+00 2.655851e+00 2.036763e+00 2.227473e+00 2.613733e+00 2.293845e+00 2.323430e+00 2.878321e+00 2.232146e+00 1.869345e+00 1.734410e+00 1.223844e+00 2.549688e+00 2.546259e-01 3.354843e-01 2.643195e-01 2.729897e-01 3.770394e-01 4.251888e-01 4.208780e-01 5.161602e-01 4.864505e-01 3.653193e-01 3.927331e-01 2.497350e-01 2.898147e-01
<GCONST> 1.141550e+02
<TRANSP> 5
 0.000000e+00 1.000000e+00 0.000000e+00 0.000000e+00 0.000000e+00
 0.000000e+00 7.376789e-01 2.623211e-01 0.000000e+00 0.000000e+00
 0.000000e+00 0.000000e+00 7.574596e-01 2.425404e-01 0.000000e+00
 0.000000e+00 0.000000e+00 0.000000e+00 9.104110e-01 8.958899e-02
 0.000000e+00 0.000000e+00 0.000000e+00 0.000000e+00 0.000000e+00
<ENDHMM>
~h "sil"
<BEGINHMM>
<NUMSTATES> 5
<STATE> 2
<MEAN> 39
 -1.778651e+01 6.700242e-01 -3.818487e+00 4.138847e+00 -4.665443e+00 1.230453e+01 -7.902842e+00 3.026030e+00 -3.896544e+00 8.410309e-01 -2.920573e+00 -2.888452e+00 4.749397e+01 8.683193e-02 8.724106e-01 -7.305877e-01 6.397170e-01 -4.577900e-01 3.018752e-01 -6.317463e-02 6.294153e-01 4.302103e-01 3.223041e-01 3.900171e-01 -1.177348e-01 -9.550558e-01 -5.683590e-02 -1.812041e-01 1.287563e-02 -8.081347e-02 1.860734e-01 -2.998909e-01 1.461693e-01 -1.073300e-01 1.849068e-02 -5.347808e-02 1.779710e-02 6.903351e-02 2.301685e-01
<VARIANCE> 39
 1.134611e+02 7.816214e+01 5.434542e+01 3.643900e+01 1.964296e+01 2.405786e+01 3.290788e+01 2.540509e+01 2.340423e+01 1.966592e+01 1.382790e+01 1.308563e+01 1.449511e+02 9.520490e-01 1.482021e+00 1.499501e+00 1.967424e+00 2.327666e+00 2.101243e+00 1.601069e+00 1.900723e+00 2.204116e+00 1.513976e+00 1.285932e+00 1.132047e+00 8.784690e-01 1.412804e-01 1.615011e-01 1.533386e-01 2.106966e-01 3.222477e-01 3.249820e-01 3.070075e-01 3.147565e-01 3.434613e-01 2.704749e-01 2.436288e-01 1.996039e-01 1.080047e-01
<GCONST> 1.036978e+02
<STATE> 3
~s "silst"
<STATE> 4
<MEAN> 39
 -1.334461e+01 3.089808e+00 -7.146806e+00 7.475955e+00 -6.498693e+00 1.015858e+01 -5.786399e+00 6.061183e+00 -3.443151e+00 6.017399e-01 -1.864069e+00 -2.828426e+00 4.784855e+01 -7.932319e-02 1.442292e-01 -8.735099e-02 -1.249160e-02 -5.587232e-02 -4.707367e-02 1.931598e-02 1.319651e-01 8.196729e-02 -2.653377e-02 2.039265e-02 3.864891e-02 -1.614692e-01 -6.297017e-03 -1.373354e-01 5.834858e-02 -2.442286e-02 2.037835e-02 -5.627900e-02 3.242634e-02 -1.081419e-01 -5.021800e-02 -2.502399e-02 1.352150e-03 1.067148e-02 1.248791e-01
<VARIANCE> 39
 1.399074e+01 8.586173e+00 1.461061e+01 9.792214e+00 1.143145e+01 1.491999e+01 1.934510e+01 1.617297e+01 1.390395e+01 1.179711e+01 1.063560e+01 9.874228e+00 9.090096e+00 1.136744e-01 4.093161e-01 4.258343e-01 5.056667e-01 6.372524e-01 7.265254e-01 8.540685e-01 9.498920e-01 9.481430e-01 9.227115e-01 8.517954e-01 7.654909e-01 9.232665e-02 4.073938e-02 1.633307e-01 1.035111e-01 1.313864e-01 1.646261e-01 2.057060e-01 2.064256e-01 2.580317e-01 2.099476e-01 1.991955e-01 1.836475e-01 1.668156e-01 1.240392e-01
<GCONST> 7.137382e+01
<TRANSP> 5
 0.000000e+00 1.000000e+00 0.000000e+00 0.000000e+00 0.000000e+00
 0.000000e+00 4.194534e-01 3.805466e-01 2.000000e-01 0.000000e+00
 0.000000e+00 0.000000e+00 5.004597e-01 4.995403e-01 0.000000e+00
 0.000000e+00 2.000000e-01 0.000000e+00 7.263219e-01 7.367817e-02
 0.000000e+00 0.000000e+00 0.000000e+00 0.000000e+00 0.000000e+00
<ENDHMM>
