~o
<STREAMINFO> 1 39
<VECSIZE> 39<NULLD><MFCC_D_A_0><DIAGC>
~s "silst"
<MEAN> 39
 -1.542963e+01 1.365581e+00 -5.943349e+00 6.986123e+00 -6.262079e+00 1.012588e+01 -6.224786e+00 4.872891e+00 -4.607864e+00 7.833865e-01 -1.159909e+00 -2.470616e+00 4.763451e+01 3.893826e-01 2.520547e-01 -3.848482e-01 4.973413e-01 -1.105079e-01 -1.160019e-01 2.795199e-01 4.547910e-01 1.793611e-01 1.636831e-01 2.239473e-01 1.998564e-03 -7.794922e-02 -3.714273e-02 3.307325e-02 7.700481e-02 -1.763548e-01 1.531121e-01 -2.096648e-02 -2.624246e-02 -8.385925e-02 4.988547e-02 -6.750032e-02 -1.492417e-01 2.573425e-02 7.735951e-02
<VARIANCE> 39
 7.981089e+01 5.674249e+01 3.793612e+01 3.658211e+01 2.794687e+01 4.055893e+01 4.299074e+01 3.013669e+01 3.195895e+01 2.264592e+01 2.457291e+01 1.687410e+01 8.988889e+01 6.790720e+00 4.571761e+00 1.972559e+00 3.116776e+00 2.537762e+00 3.153509e+00 2.949646e+00 2.549495e+00 3.281577e+00 1.867776e+00 2.232851e+00 1.363211e+00 6.531867e+00 8.660039e-01 7.196053e-01 2.639246e-01 5.249994e-01 4.835503e-01 6.214917e-01 5.526303e-01 4.651121e-01 6.144023e-01 3.732538e-01 4.187405e-01 2.753670e-01 8.470699e-01
<GCONST> 1.239841e+02
~h "k"
<BEGINHMM>
<NUMSTATES> 5
<STATE> 2
<MEAN> 39
 -1.278933e+01 8.357921e-01 -6.258700e+00 8.088909e+00 -5.344813e+00 1.033284e+01 -3.914734e+00 6.432123e+00 -3.615191e+00 1.308820e+00 -1.323929e+00 -2.740582e+00 4.991849e+01 -4.856390e-01 -4.229456e+00 4.485790e-01 -1.829434e+00 2.087466e+00 -2.891794e+00 5.698751e-01 -3.336739e+00 9.830133e-02 -8.452249e-02 9.694484e-02 -4.383408e-03 4.719404e+00 -2.202762e-01 -1.771434e+00 2.260305e-01 -1.030267e+00 8.325912e-01 -1.248955e+00 1.670939e-01 -1.627370e+00 1.210821e-01 -2.845765e-01 -3.051426e-02 -1.001405e-01 2.272774e+00
<VARIANCE> 39
 1.526466e+01 4.351608e+01 1.810309e+01 2.097457e+01 2.698150e+01 3.371687e+01 3.685213e+01 2.744341e+01 2.354210e+01 1.839721e+01 1.904558e+01 1.525740e+01 2.909979e+01 1.352239e+00 1.790746e+01 2.157716e+00 6.506955e+00 6.233929e+00 1.080266e+01 3.785870e+00 1.395743e+01 3.475913e+00 3.011286e+00 2.340854e+00 1.979823e+00 2.261083e+01 1.516101e-01 1.834890e+00 3.035583e-01 6.068450e-01 7.287823e-01 1.084371e+00 6.313578e-01 1.218075e+00 5.830221e-01 4.848950e-01 4.249305e-01 3.540927e-01 1.818610e+00
<GCONST> 1.279388e+02
<STATE> 3
<MEAN> 39
 -1.686327e+01 -2.711832e+01 -2.292214e+00 -7.511415e+00 8.343140e+00 -8.882990e+00 -9.493520e-01 -1.910845e+01 -1.005383e+00 -1.666708e+00 -2.078037e+00 -4.357630e+00 8.435686e+01 -3.531797e-01 -2.801831e+00 7.465280e-01 -1.712820e+00 8.104330e-01 -1.571287e+00 1.468038e-01 -3.128278e+00 4.082675e-01 -3.711201e-01 -3.121254e-01 -5.576017e-01 3.460596e+00 3.332086e-01 1.866519e+00 -8.219548e-02 1.050240e+00 -1.050396e+00 1.550150e+00 -3.452442e-01 1.603975e+00 -1.630338e-01 4.050897e-01 -1.185254e-01 4.699503e-02 -2.557174e+00
<VARIANCE> 39
 7.986395e+00 1.843257e+01 1.619824e+01 2.407519e+01 2.089715e+01 5.537240e+01 2.975623e+01 4.309681e+01 3.728978e+01 3.342313e+01 2.493001e+01 2.988486e+01 3.537189e+01 1.176888e+00 1.807521e+01 1.870891e+00 7.131909e+00 6.928055e+00 1.409796e+01 2.845146e+00 1.377879e+01 2.684315e+00 3.718054e+00 1.884174e+00 2.020580e+00 3.185633e+01 1.979940e-01 1.095835e+00 4.048333e-01 6.318858e-01 6.649263e-01 1.241933e+00 5.454583e-01 1.118562e+00 5.846462e-01 7.537775e-01 3.963756e-01 4.821565e-01 1.757510e+00
<GCONST> 1.296629e+02
<STATE> 4
<MEAN> 39
 -1.148915e+01 -1.748966e+01 -4.047135e+00 2.817434e+00 -9.007534e-01 4.505071e+00 -7.417791e+00 -1.186166e+01 -4.486917e+00 3.053137e+00 -5.213367e+00 -4.491643e+00 6.637083e+01 6.974432e-01 1.763835e+00 -7.226022e-01 1.692060e+00 -9.957340e-01 1.739353e+00 -6.246048e-01 1.650646e+00 -4.780475e-01 5.615534e-01 -9.901670e-02 1.176510e-01 -2.650322e+00 -9.219979e-02 5.477376e-02 -9.574501e-02 -3.252918e-02 1.358076e-01 -1.146143e-01 1.336994e-01 1.053892e-01 1.006077e-01 -8.410981e-02 1.119045e-01 4.067004e-03 1.141010e-01
<VARIANCE> 39
 1.648026e+01 4.877106e+01 2.283140e+01 6.555589e+01 2.701040e+01 6.158736e+01 3.729823e+01 5.833570e+01 4.631580e+01 2.208658e+01 2.560684e+01 2.576225e+01 8.503400e+01 1.273761e+00 1.268509e+00 1.724237e+00 2.274073e+00 2.280617e+00 2.756986e+00 3.254906e+00 4.731740e+00 4.114063e+00 2.223550e+00 1.974054e+00 1.917711e+00 2.698904e+00 2.124599e-01 2.765424e-01 3.770937e-01 4.592786e-01 3.561073e-01 4.766434e-01 5.928184e-01 1.047789e+00 8.892969e-01 4.846830e-01 3.788921e-01 3.954594e-01 4.824348e-01
<GCONST> 1.192953e+02
<TRANSP> 5
 0.000000e+00 1.000000e+00 0.000000e+00 0.000000e+00 0.000000e+00
 0.000000e+00 7.258722e-01 2.741279e-01 0.000000e+00 0.000000e+00
 0.000000e+00 0.000000e+00 7.880170e-01 2.119830e-01 0.000000e+00
 0.000000e+00 0.000000e+00 0.000000e+00 8.977786e-01 1.022214e-01
 0.000000e+00 0.000000e+00 0.000000e+00 0.000000e+00 0.000000e+00
<ENDHMM>
~h "p"
<BEGINHMM>
<NUMSTATES> 5
<STATE> 2
<MEAN> 39
 -1.302738e+01 2.257927e+00 -5.283734e+00 7.167975e+00 -6.304150e+00 9.397962e+00 -4.898416e+00 5.859523e+00 -3.704671e+00 1.145563e-01 -2.238058e+00 -2.899462e+00 4.956826e+01 1.064945e+00 -2.755654e+00 1.833003e+00 -1.717973e+00 1.993210e+00 -2.882070e+00 9.296522e-01 -2.893996e+00 -4.876173e-01 -1.796098e+00 2.005716e-01 9.244417e-02 5.501583e+00 5.927626e-01 -8.460447e-01 8.354290e-01 -4.875352e-01 8.994815e-01 -7.999505e-01 4.204099e-01 -9.534020e-01 -4.620505e-02 -7.415296e-01 -2.799555e-02 -7.720282e-02 2.143834e+00
<VARIANCE> 39
 1.525585e+01 2.414574e+01 2.355528e+01 1.719604e+01 1.952319e+01 2.939679e+01 2.704862e+01 2.816211e+01 1.908155e+01 1.555648e+01 1.334418e+01 1.130909e+01 3.584821e+01 1.578645e+00 4.762921e+00 4.110958e+00 3.561998e+00 4.907990e+00 6.272835e+00 3.312006e+00 7.095010e+00 3.037238e+00 4.205680e+00 2.005455e+00 1.681085e+00 1.858703e+01 1.303073e-01 6.048881e-01 3.643708e-01 5.386518e-01 5.150512e-01 8.944682e-01 4.799767e-01 8.203731e-01 4.569484e-01 4.292246e-01 3.095272e-01 2.632633e-01 1.421000e+00
<GCONST> 1.191774e+02
<STATE> 3
<MEAN> 39
 -4.528435e+00 -9.355820e+00 5.042165e+00 1.356809e+00 4.322639e+00 -6.851301e-01 4.935699e-01 -6.091314e+00 -4.893568e+00 -9.718702e+00 -3.664652e+00 -3.529104e+00 7.656320e+01 1.510676e+00 1.420106e-01 2.338246e-01 1.084696e+00 -3.219568e-01 1.150694e+00 3.319573e-02 6.421635e-01 2.828747e-03 -2.866696e-01 -9.760371e-01 -3.216805e-01 9.702659e-02 -2.880630e-01 1.092288e+00 -8.947355e-01 8.248658e-01 -1.113043e+00 1.095231e+00 -5.583609e-01 1.131843e+00 5.930450e-03 8.067645e-01 -1.213197e-01 -3.622888e-02 -2.312869e+00
<VARIANCE> 39
 1.027373e+01 1.767978e+01 1.681280e+01 3.490850e+01 3.295573e+01 5.847559e+01 3.019637e+01 4.793428e+01 3.111172e+01 2.393567e+01 3.192587e+01 2.236082e+01 5.885417e+01 1.237752e+00 6.633473e+00 5.896810e+00 5.571323e+00 9.898369e+00 1.105387e+01 4.279522e+00 1.109208e+01 2.487546e+00 5.167617e+00 2.082198e+00 1.530612e+00 3.522580e+01 1.566938e-01 6.256291e-01 5.964755e-01 8.029519e-01 1.016899e+00 1.929600e+00 6.498504e-01 1.681416e+00 6.017893e-01 5.942137e-01 5.582733e-01 3.553299e-01 3.254154e+00
<GCONST> 1.330195e+02
<STATE> 4
<MEAN> 39
 -3.499174e+00 4.252881e+00 -4.411422e-01 1.244275e+01 -4.318973e+00 9.728738e+00 -5.105432e+00 2.738413e+00 -8.378938e+00 -4.586078e+00 -7.027882e+00 -6.161421e+00 5.656507e+01 -5.848866e-01 9.938207e-01 -4.476272e-01 2.700955e-01 -2.995184e-01 3.079521e-01 -2.811380e-01 3.367005e-01 -3.018470e-01 3.719835e-01 1.520233e-01 -9.576413e-02 -1.422596e+00 -1.670674e-01 -2.145090e-01 1.310952e-01 -2.921595e-01 2.618167e-01 -2.066828e-01 1.446877e-01 -1.539685e-01 1.066295e-01 -8.601215e-02 1.120044e-01 6.526682e-02 3.123213e-01
<VARIANCE> 39
 1.402479e+01 2.833035e+01 2.514546e+01 1.824372e+01 1.728855e+01 2.078765e+01 2.069570e+01 1.662504e+01 2.093250e+01 1.641626e+01 1.645782e+01 1.512671e+01 2.052085e+01 6.268747e-01 1.556352e+00 1.553766e+00 2.035924e+00 2.360072e+00 2.077884e+00 1.678463e+00 1.794398e+00 1.985444e+00 1.783060e+00 1.324974e+00 1.227593e+00 1.156237e+00 7.075607e-02 1.565574e-01 2.495520e-01 3.270492e-01 4.556603e-01 5.587245e-01 3.181080e-01 4.425790e-01 4.031966e-01 3.497963e-01 3.018780e-01 2.423271e-01 1.531216e-01
<GCONST> 9.882169e+01
<TRANSP> 5
 0.000000e+00 1.000000e+00 0.000000e+00 0.000000e+00 0.000000e+00
 0.000000e+00 6.778449e-01 3.221551e-01 0.000000e+00 0.000000e+00
 0.000000e+00 0.000000e+00 8.051649e-01 1.948351e-01 0.000000e+00
 0.000000e+00 0.000000e+00 0.000000e+00 8.945699e-01 1.054301e-01
 0.000000e+00 0.000000e+00 0.000000e+00 0.000000e+00 0.000000e+00
<ENDHMM>
~h "s"
<BEGINHMM>
<NUMSTATES> 5
<STATE> 2
<MEAN> 39
 -1.533695e+01 -3.708969e+00 -2.890708e+00 7.280321e+00 -4.265217e+00 7.377315e+00 -1.271759e+00 1.233931e+00 -3.569668e+00 -4.106272e-01 -2.905770e+00 -8.096279e-01 5.353267e+01 -2.375226e+00 -4.201832e+00 1.664271e+00 -2.088941e+00 2.370492e+00 -2.993653e+00 2.557075e+00 -3.382387e+00 4.661881e-01 -8.826919e-01 2.902269e-01 1.350521e+00 4.076864e+00 -7.517169e-01 -5.974662e-01 4.704629e-01 -1.086443e+00 1.012742e+00 -6.626396e-01 3.037606e-01 -4.884055e-01 8.906834e-02 -2.604250e-01 2.116606e-01 -3.285855e-04 1.137829e+00
<VARIANCE> 39
 2.548706e+01 9.062395e+01 3.908271e+01 3.951723e+01 4.042484e+01 6.842863e+01 5.850972e+01 8.181060e+01 3.360743e+01 3.080701e+01 3.111542e+01 3.260848e+01 5.507084e+01 3.655535e+00 8.264753e+00 5.141359e+00 7.821808e+00 7.650835e+00 8.321749e+00 5.010992e+00 8.102005e+00 3.506780e+00 3.347568e+00 2.901087e+00 2.535236e+00 7.696581e+00 3.378237e-01 2.003023e+00 8.501724e-01 9.014212e-01 8.560730e-01 1.440960e+00 1.045015e+00 1.840058e+00 5.684322e-01 5.835528e-01 5.262693e-01 6.275577e-01 1.030656e+00
<GCONST> 1.405216e+02
<STATE> 3
<MEAN> 39
 -2.896429e+01 -1.814304e+01 5.356539e+00 -9.916554e+00 1.169776e+01 -5.987045e+00 7.115305e+00 -1.029649e+01 -1.634554e+00 -5.161500e+00 6.295372e-01 1.520875e+00 7.469830e+01 -2.038881e+00 -1.091540e+00 1.371426e+00 -3.243216e+00 2.230911e+00 -9.038283e-01 2.318790e-01 -5.421262e-01 1.165654e-02 -6.367905e-01 8.175017e-01 -3.077253e-01 3.029377e+00 8.419856e-01 9.680896e-01 -3.579876e-01 8.644452e-01 -1.023290e+00 1.114579e+00 -7.229832e-01 8.635666e-01 -1.373053e-01 2.422907e-01 -1.725339e-01 -2.168552e-01 -1.218717e+00
<VARIANCE> 39
 1.573626e+01 2.353627e+01 4.987769e+01 4.244594e+01 3.821786e+01 3.857202e+01 3.132317e+01 3.164753e+01 3.057242e+01 2.311765e+01 3.017393e+01 1.957114e+01 2.555076e+01 3.699879e+00 4.970943e+00 4.253252e+00 5.616072e+00 7.045082e+00 6.975775e+00 4.085464e+00 5.100450e+00 2.361182e+00 2.465611e+00 2.176849e+00 1.741098e+00 5.591888e+00 3.200895e-01 9.510147e-01 7.995856e-01 7.456794e-01 7.743559e-01 8.166572e-01 7.214417e-01 1.001752e+00 4.938028e-01 4.816984e-01 4.498075e-01 4.403988e-01 3.640255e-01
<GCONST> 1.269037e+02
<STATE> 4
<MEAN> 39
 -2.721388e+01 -1.675703e+01 1.049431e+01 -1.144593e+01 8.144825e+00 2.822100e+00 2.575550e+00 -6.460059e+00 -2.994924e+00 -4.743902e+00 -4.882459e-01 1.104444e+00 7.184893e+01 1.162722e+00 9.955987e-01 1.505359e-02 9.732032e-01 -1.289861e+00 1.430471e+00 -7.969601e-01 1.093096e+00 -4.383305e-01 3.470671e-01 -4.959370e-01 -1.197321e-01 -1.712481e+00 1.574336e-01 2.106018e-01 -2.156619e-01 2.717233e-01 -2.111698e-01 4.662185e-02 -6.925205e-02 9.654858e-02 3.498297e-02 9.667046e-02 6.036871e-03 -4.236284e-02 -2.725419e-01
<VARIANCE> 39
 3.385982e+01 2.840025e+01 3.000139e+01 3.214248e+01 5.788685e+01 6.959270e+01 3.230681e+01 4.314378e+01 3.286182e+01 2.230684e+01 3.028384e+01 1.524220e+01 6.250469e+01 1.769411e+00 2.673310e+00 2.071328e+00 2.192850e+00 2.636225e+00 2.302886e+00 2.334734e+00 2.923799e+00 2.134203e+00 1.869035e+00 1.669281e+00 1.156518e+00 2.548668e+00 2.518894e-01 3.301018e-01 2.676845e-01 2.703742e-01 3.737285e-01 4.211056e-01 4.128746e-01 5.120873e-01 4.572919e-01 3.651836e-01 3.764278e-01 2.346203e-01 2.717486e-01
<GCONST> 1.135584e+02
<TRANSP> 5
 0.000000e+00 1.000000e+00 0.000000e+00 0.000000e+00 0.000000e+00
 0.000000e+00 7.393146e-01 2.606855e-01 0.000000e+00 0.000000e+00
 0.000000e+00 0.000000e+00 7.549022e-01 2.450978e-01 0.000000e+00
 0.000000e+00 0.000000e+00 0.000000e+00 9.099354e-01 9.006463e-02
 0.000000e+00 0.000000e+00 0.000000e+00 0.000000e+00 0.000000e+00
<ENDHMM>
~h "sil"
<BEGINHMM>
<NUMSTATES> 5
<STATE> 2
<MEAN> 39
 -1.787158e+01 1.042695e+00 -3.374304e+00 3.964417e+00 -4.534850e+00 1.224648e+01 -7.825616e+00 3.134177e+00 -3.908352e+00 6.017407e-01 -3.010584e+00 -2.733355e+00 4.748954e+01 1.389730e-01 8.665489e-01 -7.332244e-01 6.640998e-01 -5.200264e-01 3.364709e-01 -1.054259e-01 6.307602e-01 4.011458e-01 3.176753e-01 3.880999e-01 -1.353013e-01 -9.502484e-01 -6.241190e-02 -1.877569e-01 1.416770e-02 -7.316995e-02 1.874390e-01 -2.943684e-01 1.535694e-01 -1.210463e-01 2.234644e-02 -5.529677e-02 2.736461e-02 5.737679e-02 2.373497e-01
<VARIANCE> 39
 1.170382e+02 7.667688e+01 5.686139e+01 3.724382e+01 2.055170e+01 2.549070e+01 3.427238e+01 2.439633e+01 2.403296e+01 1.918116e+01 1.388128e+01 1.291283e+01 1.508785e+02 9.306578e-01 1.500865e+00 1.466559e+00 1.934158e+00 2.330423e+00 2.187701e+00 1.662458e+00 1.888805e+00 2.145679e+00 1.522523e+00 1.270914e+00 1.109647e+00 8.894466e-01 1.491898e-01 1.636013e-01 1.500363e-01 2.043850e-01 3.175045e-01 3.261975e-01 3.040156e-01 3.194577e-01 3.331882e-01 2.717855e-01 2.459098e-01 1.963904e-01 1.118994e-01
<GCONST> 1.039072e+02
<STATE> 3
~s "silst"
<STATE> 4
<MEAN> 39
 -1.276718e+01 3.486897e+00 -6.711995e+00 7.654996e+00 -6.373487e+00 1.019733e+01 -5.798957e+00 5.971327e+00 -3.586372e+00 4.689020e-01 -2.007013e+00 -2.920477e+00 4.822633e+01 -7.891144e-02 1.591943e-01 -9.610174e-02 -1.586089e-02 -5.956794e-02 -5.136838e-02 1.748484e-02 1.380347e-01 8.637765e-02 -2.606030e-02 1.987401e-02 3.682859e-02 -1.703203e-01 -1.023663e-02 -1.468117e-01 6.068031e-02 -2.834051e-02 2.290104e-02 -6.086342e-02 3.789104e-02 -1.106042e-01 -4.912794e-02 -2.710705e-02 1.662618e-03 1.545778e-02 1.312661e-01
<VARIANCE> 39
 1.281845e+01 7.748103e+00 1.469010e+01 1.022739e+01 1.221675e+01 1.633546e+01 2.120483e+01 1.751154e+01 1.461713e+01 1.220010e+01 1.101128e+01 1.038010e+01 8.674045e+00 1.143720e-01 4.258676e-01 4.435266e-01 5.094807e-01 6.452503e-01 7.490541e-01 8.678001e-01 9.587640e-01 9.598126e-01 9.367273e-01 8.702483e-01 7.777867e-01 9.265386e-02 4.198297e-02 1.720022e-01 1.053651e-01 1.336075e-01 1.691408e-01 2.147448e-01 2.119260e-01 2.626604e-01 2.126422e-01 2.021061e-01 1.885400e-01 1.704255e-01 1.306115e-01
<GCONST> 7.226983e+01
<TRANSP> 5
 0.000000e+00 1.000000e+00 0.000000e+00 0.000000e+00 0.000000e+00
 0.000000e+00 4.079503e-01 3.920497e-01 2.000000e-01 0.000000e+00
 0.000000e+00 0.000000e+00 4.917583e-01 5.082417e-01 0.000000e+00
 0.000000e+00 2.000000e-01 0.000000e+00 7.241465e-01 7.585345e-02
 0.000000e+00 0.000000e+00 0.000000e+00 0.000000e+00 0.000000e+00
<ENDHMM>
