~o
<STREAMINFO> 1 39
<VECSIZE> 39<NULLD><MFCC_D_A_0><DIAGC>
~s "silst"
<MEAN> 39
 -2.272301e+01 6.245913e+00 -8.388550e+00 5.870469e+00 -5.195585e+00 1.145147e+01 -7.574216e+00 6.165408e+00 -2.283629e+00 7.706265e-01 -6.429103e-01 -1.372609e+00 3.915176e+01 2.060124e+00 -1.301912e+00 3.929177e-01 1.094598e+00 -3.768727e-01 -4.091605e-01 1.041538e+00 1.419567e-01 -6.063687e-01 -1.146470e-01 2.365329e-01 4.086454e-02 2.167346e+00 -1.232720e-01 -4.505351e-03 1.175714e-01 -5.224766e-02 7.418735e-02 1.294558e-02 2.473305e-02 -2.740894e-02 1.187792e-02 -4.181118e-02 -6.765912e-02 -2.657695e-02 -4.656829e-03
<VARIANCE> 39
 9.138126e+01 4.409890e+01 1.265771e+01 2.770771e+01 1.209497e+01 2.084458e+01 3.401358e+01 1.458177e+01 2.065989e+01 1.059781e+01 1.386932e+01 9.510626e+00 9.591978e+01 8.593730e+00 5.110561e+00 1.139914e+00 3.152440e+00 1.710347e+00 2.477979e+00 2.741253e+00 1.391991e+00 2.492975e+00 1.263503e+00 1.537522e+00 9.671136e-01 8.973517e+00 1.617061e+00 1.025593e+00 2.023264e-01 5.901660e-01 3.013849e-01 4.683641e-01 5.011824e-01 2.435339e-01 4.881122e-01 2.340909e-01 2.997147e-01 1.759397e-01 1.800929e+00
<GCONST> 1.137887e+02
~h "k"
<BEGINHMM>
<NUMSTATES> 5
<STATE> 2
<MEAN> 39
 -1.503491e+01 -2.379481e+00 -3.865586e+00 7.885826e+00 -2.615353e+00 1.198645e+01 -1.639467e+00 5.535248e+00 -3.145799e+00 1.375715e+00 -1.574011e+00 -1.643908e+00 5.155685e+01 -1.578888e-01 -3.898077e+00 -7.017163e-02 -1.897466e+00 1.595168e+00 -2.972619e+00 3.066937e-01 -3.255421e+00 1.736121e-01 3.992307e-02 5.446960e-02 5.527442e-02 4.470545e+00 -8.108991e-02 -1.322961e+00 7.045338e-02 -9.239466e-01 4.743840e-01 -9.893676e-01 1.050439e-01 -1.271272e+00 7.856538e-02 -2.145815e-01 -5.289686e-02 -2.585052e-02 1.757190e+00
<VARIANCE> 39
 7.201628e+00 9.597593e+01 1.618752e+01 3.314793e+01 3.088029e+01 6.630900e+01 3.224287e+01 6.825779e+01 2.711477e+01 2.528316e+01 1.871131e+01 1.787997e+01 8.016304e+01 8.492420e-01 2.089458e+01 1.959489e+00 8.448725e+00 4.481054e+00 1.231550e+01 3.499003e+00 1.696385e+01 3.382492e+00 3.092792e+00 2.157038e+00 1.568528e+00 2.645025e+01 1.135973e-01 2.549608e+00 2.871450e-01 7.411571e-01 6.619602e-01 1.593956e+00 5.464239e-01 1.797905e+00 5.593410e-01 5.114619e-01 3.917809e-01 2.874244e-01 2.615394e+00
<GCONST> 1.319434e+02
<STATE> 3
<MEAN> 39
 -1.629099e+01 -2.685184e+01 -1.888509e+00 -7.597222e+00 5.450062e+00 -5.676826e+00 -1.211575e+00 -1.918273e+01 -1.510983e+00 -4.123886e-01 -3.401990e+00 -3.734139e+00 8.170862e+01 3.278680e-01 -6.112859e-01 1.046170e-01 -1.169176e-01 -4.044050e-01 4.164710e-01 -5.366730e-01 -6.578977e-01 -8.226716e-02 2.962885e-01 -4.892430e-01 -2.501219e-01 -2.156818e-02 2.323123e-01 1.175833e+00 -1.637880e-01 9.020755e-01 -5.274944e-01 1.023955e+00 -2.910975e-01 1.179533e+00 -1.009241e-01 2.120305e-01 -4.277549e-02 7.315014e-02 -1.647591e+00
<VARIANCE> 39
 8.233461e+00 2.473738e+01 1.501043e+01 2.418349e+01 2.099387e+01 4.869109e+01 2.549961e+01 4.237489e+01 3.585452e+01 2.155905e+01 2.543918e+01 2.255489e+01 5.248700e+01 1.090104e+00 1.212373e+01 1.636805e+00 7.505108e+00 3.424904e+00 1.062306e+01 2.919029e+00 1.388132e+01 2.801913e+00 2.504680e+00 1.596943e+00 1.800810e+00 2.576439e+01 1.327378e-01 1.247546e+00 3.808382e-01 5.415953e-01 4.817236e-01 1.169469e+00 4.977983e-01 1.120656e+00 6.013734e-01 4.646173e-01 3.532337e-01 4.068361e-01 1.970920e+00
<GCONST> 1.253348e+02
<STATE> 4
<MEAN> 39
 -1.216559e+01 -5.874892e+00 -5.839895e+00 8.817574e+00 -3.067461e+00 1.136375e+01 -6.166327e+00 -9.022161e-01 -5.250974e+00 3.167167e+00 -3.274780e+00 -3.506257e+00 5.392665e+01 -6.591848e-02 1.145677e+00 -1.287343e-01 5.764161e-01 -2.288637e-01 4.732022e-01 1.004362e-01 9.990441e-01 1.926021e-02 -5.053461e-02 1.787435e-01 8.185011e-02 -1.077839e+00 -1.015651e-01 -1.885328e-01 9.049095e-02 -1.827508e-01 1.066489e-01 -1.958846e-01 1.419417e-01 -2.047012e-01 1.384417e-02 -6.997209e-02 2.447226e-02 1.481400e-02 2.824309e-01
<VARIANCE> 39
 1.039335e+01 6.922198e+01 1.104623e+01 2.132998e+01 1.432647e+01 2.742440e+01 3.521921e+01 7.563490e+01 3.455696e+01 2.062722e+01 2.403159e+01 1.873339e+01 4.254024e+01 8.196278e-01 1.405701e+00 1.041312e+00 2.410399e+00 1.658909e+00 2.265831e+00 2.400550e+00 3.041605e+00 3.426520e+00 1.700405e+00 1.564443e+00 1.339365e+00 1.387532e+00 1.249609e-01 2.976735e-01 1.675523e-01 2.958927e-01 3.297336e-01 3.736790e-01 4.671924e-01 6.415390e-01 6.717499e-01 3.461729e-01 3.242632e-01 2.797233e-01 2.335052e-01
<GCONST> 1.063042e+02
<TRANSP> 5
 0.000000e+00 1.000000e+00 0.000000e+00 0.000000e+00 0.000000e+00
 0.000000e+00 7.659850e-01 2.340150e-01 0.000000e+00 0.000000e+00
 0.000000e+00 0.000000e+00 8.576453e-01 1.423547e-01 0.000000e+00
 0.000000e+00 0.000000e+00 0.000000e+00 9.441236e-01 5.587636e-02
 0.000000e+00 0.000000e+00 0.000000e+00 0.000000e+00 0.000000e+00
<ENDHMM>
~h "p"
<BEGINHMM>
<NUMSTATES> 5
<STATE> 2
<MEAN> 39
 -1.429784e+01 1.834002e+00 -2.505048e+00 8.401503e+00 -5.454979e+00 1.221431e+01 -3.468768e+00 6.294472e+00 -4.144604e+00 -2.118255e-01 -2.515856e+00 -2.774343e+00 4.913430e+01 7.163984e-01 -1.151540e+00 3.734275e-01 -7.900126e-01 9.098805e-01 -1.640495e+00 5.299746e-01 -1.316502e+00 -9.911571e-02 -7.753983e-01 8.237050e-02 3.335790e-02 2.599560e+00 3.492150e-01 -6.197693e-01 5.035861e-01 -4.975573e-01 5.452094e-01 -5.937833e-01 2.314833e-01 -6.543642e-01 -7.447875e-02 -4.765560e-01 -6.315040e-02 -9.730200e-03 1.422545e+00
<VARIANCE> 39
 1.150429e+01 1.885050e+01 2.018881e+01 1.077742e+01 1.316709e+01 2.131894e+01 2.502926e+01 2.250692e+01 2.167852e+01 1.876240e+01 1.559836e+01 1.279973e+01 1.960274e+01 1.588088e+00 6.345433e+00 3.862314e+00 4.040843e+00 3.522218e+00 6.224151e+00 2.941152e+00 7.283923e+00 2.765931e+00 3.754580e+00 1.618363e+00 1.507717e+00 1.929601e+01 2.639180e-01 5.001656e-01 3.100494e-01 4.078223e-01 5.275354e-01 7.655218e-01 4.643566e-01 7.532310e-01 4.171770e-01 4.186211e-01 2.584132e-01 2.632961e-01 1.768330e+00
<GCONST> 1.161802e+02
<STATE> 3
<MEAN> 39
 -6.263856e+00 -9.329173e+00 5.017907e+00 1.302695e+00 2.948811e+00 1.475066e+00 8.112009e-01 -4.509715e+00 -4.867752e+00 -8.491893e+00 -4.527341e+00 -3.457769e+00 7.407096e+01 1.416225e+00 1.774856e-01 8.335703e-02 8.512713e-01 -3.980989e-01 8.732247e-01 -1.215050e-01 5.527314e-01 -7.786601e-02 -2.253358e-01 -8.036805e-01 -3.436431e-01 1.544393e-01 -2.936991e-01 8.560504e-01 -5.740027e-01 6.969080e-01 -7.204219e-01 8.039702e-01 -3.838595e-01 8.149941e-01 -3.663349e-02 5.803201e-01 -1.776987e-02 -4.319163e-02 -1.743114e+00
<VARIANCE> 39
 5.166336e+01 3.002840e+01 2.279501e+01 4.972174e+01 4.479947e+01 6.999835e+01 3.380319e+01 5.403690e+01 3.174044e+01 2.927705e+01 3.522842e+01 2.516434e+01 8.816087e+01 1.860464e+00 6.327311e+00 4.316760e+00 6.726762e+00 8.150010e+00 1.076661e+01 4.263094e+00 1.031752e+01 2.581342e+00 4.392512e+00 2.115704e+00 1.665042e+00 3.217173e+01 1.858048e-01 7.257791e-01 5.214707e-01 9.669790e-01 1.068862e+00 2.069011e+00 7.330163e-01 1.820370e+00 5.716547e-01 5.983993e-01 5.191357e-01 3.881691e-01 3.676975e+00
<GCONST> 1.379913e+02
<STATE> 4
<MEAN> 39
 -9.491102e+00 4.445556e+00 -1.813894e+00 1.128334e+01 -4.289037e+00 1.141472e+01 -3.877216e+00 5.188174e+00 -6.340313e+00 -2.446558e+00 -4.977727e+00 -4.836840e+00 5.141404e+01 -5.151732e-01 3.720265e-01 -2.203186e-01 6.946039e-02 -5.214961e-02 1.132953e-01 -4.655518e-02 1.908121e-01 4.549267e-02 2.597539e-01 1.911041e-01 4.521763e-02 -7.378614e-01 -4.017708e-02 -1.791344e-01 7.760686e-02 -1.253340e-01 1.196624e-01 -1.217353e-01 7.406406e-02 -1.207129e-01 2.799203e-02 -5.320198e-02 2.107152e-02 3.635281e-02 2.183877e-01
<VARIANCE> 39
 3.421302e+01 1.663578e+01 1.628246e+01 1.348084e+01 1.253632e+01 1.620528e+01 2.074874e+01 2.261518e+01 2.369361e+01 1.767647e+01 1.888757e+01 1.428777e+01 2.916041e+01 4.372908e-01 1.280641e+00 8.692314e-01 1.136541e+00 1.256799e+00 1.222732e+00 1.232259e+00 1.319378e+00 1.659424e+00 1.275572e+00 1.054456e+00 9.556615e-01 7.422040e-01 6.885163e-02 2.130073e-01 1.698531e-01 2.467487e-01 2.892758e-01 3.372779e-01 2.859819e-01 3.495894e-01 3.225676e-01 2.527655e-01 2.226310e-01 1.919042e-01 1.594104e-01
<GCONST> 9.114861e+01
<TRANSP> 5
 0.000000e+00 1.000000e+00 0.000000e+00 0.000000e+00 0.000000e+00
 0.000000e+00 7.928662e-01 2.071338e-01 0.000000e+00 0.000000e+00
 0.000000e+00 0.000000e+00 8.286782e-01 1.713218e-01 0.000000e+00
 0.000000e+00 0.000000e+00 0.000000e+00 9.480110e-01 5.198900e-02
 0.000000e+00 0.000000e+00 0.000000e+00 0.000000e+00 0.000000e+00
<ENDHMM>
~h "s"
<BEGINHMM>
<NUMSTATES> 5
<STATE> 2
<MEAN> 39
 -1.800819e+01 -7.667430e+00 -9.440754e-01 5.148427e+00 -6.467879e-01 5.615232e+00 1.368068e+00 -1.450981e+00 -3.628450e+00 -1.128229e+00 -2.793606e+00 4.460798e-01 5.733088e+01 -2.433449e+00 -4.164048e+00 1.455580e+00 -3.059267e+00 2.771279e+00 -3.321667e+00 2.354672e+00 -3.428506e+00 4.106421e-01 -9.601709e-01 3.770977e-01 1.228294e+00 4.646949e+00 -5.078313e-01 -1.237106e-01 3.243681e-01 -8.896827e-01 6.728090e-01 -3.536441e-01 4.307088e-02 -1.107825e-01 3.761230e-02 -1.931828e-01 1.942537e-01 -1.761641e-01 7.282338e-01
<VARIANCE> 39
 3.515682e+01 1.223369e+02 4.218543e+01 6.881512e+01 5.862888e+01 9.366354e+01 6.098805e+01 1.033640e+02 3.599555e+01 3.163600e+01 3.602116e+01 3.495283e+01 1.054036e+02 3.646772e+00 8.193163e+00 4.885918e+00 8.729964e+00 6.919839e+00 8.350043e+00 4.977760e+00 7.912041e+00 3.376605e+00 2.790572e+00 2.814271e+00 2.522641e+00 8.663368e+00 5.005104e-01 2.773016e+00 8.561388e-01 1.171030e+00 1.191752e+00 2.022497e+00 1.242502e+00 2.357687e+00 5.789660e-01 5.777531e-01 5.495570e-01 6.975493e-01 1.913073e+00
<GCONST> 1.463330e+02
<STATE> 3
<MEAN> 39
 -2.975221e+01 -1.839930e+01 7.254723e+00 -1.315612e+01 1.214013e+01 -3.593646e+00 6.163079e+00 -9.540890e+00 -2.102225e+00 -5.707897e+00 6.220242e-01 1.143128e+00 7.642529e+01 -1.847178e-01 8.633487e-02 8.233634e-01 -8.533414e-01 1.170678e-01 7.495563e-01 -4.228135e-01 4.277319e-01 -1.555942e-01 -2.524663e-01 3.203683e-02 -2.887222e-01 3.032162e-01 5.945547e-01 4.800499e-01 -2.155539e-01 7.928573e-01 -6.354896e-01 6.209532e-01 -3.225970e-01 4.678089e-01 -1.230727e-01 2.015815e-01 -2.348400e-01 -2.235776e-02 -9.295609e-01
<VARIANCE> 39
 1.874598e+01 1.637969e+01 4.411809e+01 2.979301e+01 3.702710e+01 4.557683e+01 2.990215e+01 2.516806e+01 2.788832e+01 1.949487e+01 2.832760e+01 1.671693e+01 2.392010e+01 3.538753e+00 2.445596e+00 2.554412e+00 5.846407e+00 4.619138e+00 3.987939e+00 2.423037e+00 2.816925e+00 2.216377e+00 2.079810e+00 2.457740e+00 1.459523e+00 5.468454e+00 3.216993e-01 5.893210e-01 5.025502e-01 4.670899e-01 6.245270e-01 7.635732e-01 6.311176e-01 7.093708e-01 4.238399e-01 4.033704e-01 3.490695e-01 3.077382e-01 3.579925e-01
<GCONST> 1.187927e+02
<STATE> 4
<MEAN> 39
 -2.048940e+01 -8.699846e+00 6.329084e+00 -2.748684e+00 6.663922e-01 9.459293e+00 -1.628985e+00 -2.812629e-01 -4.562098e+00 -2.462625e+00 -2.355303e+00 -3.533014e-01 6.049139e+01 8.655437e-01 1.164874e+00 -6.589819e-01 1.249388e+00 -1.044090e+00 8.549769e-01 -6.052873e-01 9.075837e-01 -8.820073e-02 3.879069e-01 -1.303056e-01 -1.913235e-01 -1.570556e+00 -7.594503e-02 -5.054058e-02 -9.432647e-02 -2.974174e-02 6.210790e-02 -1.456598e-01 8.228553e-02 -1.107825e-01 7.364371e-02 -1.279385e-02 6.795736e-02 9.644046e-03 1.174105e-01
<VARIANCE> 39
 4.354774e+01 8.318964e+01 5.491891e+01 7.818607e+01 6.666447e+01 5.934390e+01 3.833535e+01 6.442834e+01 2.737413e+01 2.415042e+01 2.381239e+01 1.715225e+01 1.111929e+02 1.009480e+00 1.878131e+00 1.526833e+00 1.647074e+00 2.495461e+00 3.086554e+00 2.044852e+00 2.606163e+00 2.139273e+00 1.683582e+00 1.616265e+00 1.086463e+00 1.805160e+00 1.280118e-01 2.897942e-01 2.092297e-01 2.144961e-01 3.708783e-01 4.595969e-01 3.605019e-01 4.676303e-01 4.128661e-01 3.315853e-01 3.299036e-01 2.132867e-01 1.828038e-01
<GCONST> 1.129718e+02
<TRANSP> 5
 0.000000e+00 1.000000e+00 0.000000e+00 0.000000e+00 0.000000e+00
 0.000000e+00 7.635150e-01 2.364850e-01 0.000000e+00 0.000000e+00
 0.000000e+00 0.000000e+00 8.537139e-01 1.462861e-01 0.000000e+00
 0.000000e+00 0.000000e+00 0.000000e+00 9.187075e-01 8.129245e-02
 0.000000e+00 0.000000e+00 0.000000e+00 0.000000e+00 0.000000e+00
<ENDHMM>
~h "sp"
<BEGINHMM>
<NUMSTATES> 3
<STATE> 2
~s "silst"
<TRANSP> 3
 0.000000e+00 7.000000e-01 3.000000e-01
 0.000000e+00 6.000000e-01 4.000000e-01
 0.000000e+00 0.000000e+00 0.000000e+00
<ENDHMM>
~h "sil"
<BEGINHMM>
<NUMSTATES> 5
<STATE> 2
<MEAN> 39
 -1.955705e+01 5.600533e+00 -6.161554e+00 7.267612e+00 -4.925877e+00 1.189793e+01 -6.220557e+00 6.398105e+00 -2.880610e+00 2.816372e-01 -1.844708e+00 -2.499629e+00 4.228083e+01 3.674220e-02 3.199485e-02 -6.733727e-02 5.004095e-02 -4.037097e-02 -2.978260e-02 6.220636e-02 3.724030e-02 -1.233948e-02 7.331884e-04 1.638996e-02 2.605052e-02 -2.229102e-02 2.426847e-02 -3.842677e-02 1.165462e-02 9.160861e-03 -2.127506e-02 -9.716237e-03 9.732455e-03 -9.294157e-05 -1.440901e-02 -1.893929e-03 9.193964e-03 -3.764824e-03 3.656073e-02
<VARIANCE> 39
 7.721720e+01 2.188819e+01 7.239563e+00 1.896988e+01 8.563043e+00 1.160561e+01 2.983196e+01 1.619601e+01 1.667987e+01 9.525393e+00 8.199968e+00 8.014585e+00 7.533952e+01 3.795035e-01 2.587375e-01 2.774550e-01 3.783625e-01 4.351022e-01 5.319640e-01 7.006282e-01 6.750880e-01 6.916972e-01 6.915265e-01 6.362578e-01 6.126552e-01 3.081782e-01 9.229591e-02 5.742860e-02 5.337835e-02 8.549689e-02 9.388654e-02 1.124186e-01 1.454210e-01 1.447806e-01 1.441619e-01 1.408497e-01 1.308527e-01 1.289449e-01 7.332577e-02
<GCONST> 6.911029e+01
<STATE> 3
~s "silst"
<STATE> 4
<MEAN> 39
 -1.481422e+01 -7.970020e-01 -2.206675e+00 6.861241e+00 -3.402285e+00 8.553433e+00 -3.884881e+00 2.142187e+00 -4.644680e+00 -1.066935e+00 -2.913511e+00 -3.569418e+00 5.325168e+01 -1.135692e-03 1.938009e-02 3.606260e-03 9.823916e-03 -3.658941e-03 1.522229e-02 1.932669e-03 1.411949e-02 1.019634e-02 1.987697e-02 -2.873573e-03 -2.676735e-02 -2.032456e-02 -1.872961e-03 -1.011329e-02 -1.279391e-03 -7.100089e-03 4.465295e-03 -9.361264e-03 2.629100e-05 -1.201548e-02 3.515449e-03 4.655242e-03 7.996657e-04 3.683020e-03 8.324252e-03
<VARIANCE> 39
 4.495538e+01 9.884319e+01 4.090185e+01 6.557954e+01 4.388028e+01 4.626035e+01 3.565707e+01 6.971186e+01 2.354877e+01 2.139833e+01 2.073852e+01 1.907287e+01 1.436624e+02 8.660212e-01 3.146329e+00 1.279747e+00 2.342538e+00 2.293462e+00 2.867239e+00 1.982480e+00 3.237103e+00 1.697266e+00 1.634352e+00 1.385744e+00 1.091037e+00 5.875040e+00 1.006587e-01 4.940375e-01 2.161330e-01 3.639795e-01 4.002132e-01 5.183407e-01 3.736500e-01 5.811182e-01 3.369618e-01 3.276713e-01 2.706529e-01 2.171928e-01 9.099247e-01
<GCONST> 1.158465e+02
<TRANSP> 5
 0.000000e+00 1.000000e+00 0.000000e+00 0.000000e+00 0.000000e+00
 0.000000e+00 7.556662e-01 4.433384e-02 2.000000e-01 0.000000e+00
 0.000000e+00 0.000000e+00 7.062548e-01 2.937452e-01 0.000000e+00
 0.000000e+00 2.000000e-01 0.000000e+00 7.774349e-01 2.256508e-02
 0.000000e+00 0.000000e+00 0.000000e+00 0.000000e+00 0.000000e+00
<ENDHMM>
