~o
<STREAMINFO> 1 39
<VECSIZE> 39<NULLD><MFCC_D_A_0><DIAGC>
~h "k"
<BEGINHMM>
<NUMSTATES> 5
<STATE> 2
<MEAN> 39
 -1.522504e+01 -6.769666e+00 -1.928663e+00 3.849900e+00 -9.546011e-01 8.104814e+00 -2.664011e+00 -1.302087e+00 -4.108241e+00 -2.003900e-01 -2.617845e+00 -2.409223e+00 5.855448e+01 4.013928e-02 -7.759088e-02 -3.050298e-02 1.481081e-02 1.742867e-03 -1.726018e-02 -1.726382e-02 -5.897803e-02 -3.795955e-03 3.039633e-02 -8.894767e-03 -1.044554e-02 5.633150e-02 -4.148812e-03 5.644121e-03 5.461358e-04 -2.376132e-04 -2.228731e-04 1.373345e-03 -2.754876e-03 1.516497e-03 4.961371e-04 -8.506965e-04 -8.682584e-04 -4.807028e-04 -7.012549e-03
<VARIANCE> 39
 4.544838e+01 1.473769e+02 4.009980e+01 8.878503e+01 4.510379e+01 8.092067e+01 4.171328e+01 1.220944e+02 3.098350e+01 2.982042e+01 2.515984e+01 2.225473e+01 1.922969e+02 1.512743e+00 7.270382e+00 1.748255e+00 4.669097e+00 3.193936e+00 6.051209e+00 2.634182e+00 7.428271e+00 2.568817e+00 2.059706e+00 1.692823e+00 1.424749e+00 1.174637e+01 1.845102e-01 1.044492e+00 2.878827e-01 6.516138e-01 5.362917e-01 9.802603e-01 4.705404e-01 1.171865e+00 4.961364e-01 3.928957e-01 3.284723e-01 2.828000e-01 1.688138e+00
<GCONST> 1.312144e+02
<STATE> 3
<MEAN> 39
 -1.509931e+01 -7.046549e+00 -2.055612e+00 3.905130e+00 -9.457111e-01 8.027432e+00 -2.757764e+00 -1.541085e+00 -4.120686e+00 -8.191109e-02 -2.658510e+00 -2.466978e+00 5.873819e+01 2.533977e-02 -5.920757e-02 -2.760608e-02 1.339004e-02 2.029562e-03 -1.428563e-02 -2.324220e-02 -5.291850e-02 -2.476111e-03 2.754985e-02 -9.293885e-03 -1.172649e-02 3.511856e-02 -2.902966e-03 5.637978e-03 1.251740e-03 6.630837e-04 -6.610904e-04 1.454671e-03 -1.034426e-03 2.718206e-03 1.043090e-04 -1.242001e-03 -1.505295e-04 -4.240195e-04 -5.725811e-03
<VARIANCE> 39
 4.246593e+01 1.474877e+02 3.871759e+01 8.820242e+01 4.389524e+01 8.128292e+01 4.194198e+01 1.235092e+02 3.102526e+01 2.981463e+01 2.513130e+01 2.228126e+01 1.906823e+02 1.416872e+00 7.322164e+00 1.725370e+00 4.693095e+00 3.137957e+00 6.034018e+00 2.650620e+00 7.548785e+00 2.588021e+00 2.064470e+00 1.697510e+00 1.438374e+00 1.179506e+01 1.724223e-01 1.048387e+00 2.843325e-01 6.534203e-01 5.267056e-01 9.705569e-01 4.738800e-01 1.185511e+00 5.016011e-01 3.927427e-01 3.294064e-01 2.854083e-01 1.690138e+00
<GCONST> 1.309950e+02
<STATE> 4
<MEAN> 39
 -1.496404e+01 -6.882531e+00 -2.281086e+00 4.300733e+00 -1.221963e+00 7.881055e+00 -3.203705e+00 -1.828843e+00 -4.186709e+00 5.711067e-02 -2.806267e+00 -2.765205e+00 5.848272e+01 1.242093e-02 -3.427425e-02 -1.689726e-02 9.703265e-03 3.261944e-03 -8.880084e-03 -1.640291e-02 -3.675441e-02 -2.975712e-03 1.784597e-02 -4.538413e-03 -1.123408e-02 1.954490e-02 -1.609858e-03 4.866125e-03 1.945916e-03 4.525317e-04 -4.311946e-04 1.773282e-03 1.183143e-03 3.724737e-03 -1.421528e-04 -1.682363e-03 5.176773e-04 3.510466e-04 -3.651530e-03
<VARIANCE> 39
 3.898241e+01 1.464109e+02 3.658179e+01 8.564484e+01 4.154977e+01 7.823637e+01 4.209884e+01 1.226276e+02 3.097765e+01 2.920894e+01 2.461758e+01 2.196181e+01 1.894541e+02 1.267598e+00 7.081830e+00 1.614550e+00 4.510422e+00 2.967663e+00 5.641615e+00 2.620053e+00 7.367133e+00 2.588101e+00 1.997231e+00 1.662860e+00 1.408165e+00 1.147492e+01 1.532632e-01 1.008229e+00 2.674613e-01 6.258513e-01 5.004236e-01 8.996053e-01 4.695898e-01 1.147036e+00 5.034833e-01 3.786156e-01 3.214183e-01 2.786799e-01 1.630626e+00
<GCONST> 1.295961e+02
<TRANSP> 5
 0.000000e+00 1.000000e+00 0.000000e+00 0.000000e+00 0.000000e+00
 0.000000e+00 7.591882e-01 2.408118e-01 0.000000e+00 0.000000e+00
 0.000000e+00 0.000000e+00 7.591873e-01 2.408127e-01 0.000000e+00
 0.000000e+00 0.000000e+00 0.000000e+00 8.941429e-01 1.058571e-01
 0.000000e+00 0.000000e+00 0.000000e+00 0.000000e+00 0.000000e+00
<ENDHMM>
~h "p"
<BEGINHMM>
<NUMSTATES> 5
<STATE> 2
<MEAN> 39
 -1.330487e+01 -1.467271e+00 -9.387472e-01 6.496184e+00 -2.181934e+00 8.815959e+00 -2.921625e+00 2.019710e+00 -4.692309e+00 -2.012398e+00 -3.448207e+00 -3.354589e+00 5.557536e+01 1.545235e-01 -1.883236e-02 2.902686e-02 6.894122e-02 -1.816057e-02 -2.227528e-04 6.080522e-02 2.419874e-02 -3.480906e-02 -2.576611e-02 -9.264611e-03 -2.264694e-02 1.159332e-01 -1.123269e-02 4.991290e-03 2.862536e-06 -7.055610e-03 3.570262e-03 -1.044782e-03 -4.431280e-03 -3.993056e-03 1.668032e-03 -1.131902e-05 -1.745235e-03 -1.713117e-04 -7.860927e-03
<VARIANCE> 39
 6.360968e+01 9.822400e+01 4.434618e+01 6.910158e+01 4.195324e+01 5.655553e+01 3.408724e+01 7.015498e+01 2.827226e+01 2.833699e+01 2.298903e+01 1.960442e+01 1.656474e+02 2.094993e+00 4.493983e+00 2.015028e+00 3.647597e+00 3.303519e+00 4.732803e+00 2.359106e+00 4.761807e+00 2.109502e+00 2.182781e+00 1.559540e+00 1.251161e+00 1.066135e+01 2.560072e-01 6.894857e-01 3.435618e-01 5.808994e-01 6.011553e-01 8.741681e-01 4.440391e-01 8.689098e-01 4.058582e-01 4.141110e-01 3.007650e-01 2.465663e-01 1.754328e+00
<GCONST> 1.271060e+02
<STATE> 3
<MEAN> 39
 -1.284944e+01 -1.449368e+00 -8.334821e-01 6.686458e+00 -2.209350e+00 8.806866e+00 -2.763066e+00 2.076784e+00 -4.795746e+00 -2.113715e+00 -3.504565e+00 -3.435628e+00 5.589599e+01 1.122588e-01 -2.655933e-03 2.471507e-02 4.354466e-02 -6.678465e-03 -6.100021e-03 4.124422e-02 9.742638e-03 -2.717822e-02 -2.500402e-02 -1.383830e-02 -1.986347e-02 8.527141e-02 -1.097448e-02 3.485551e-03 -9.678446e-04 -6.602219e-03 3.150924e-03 -1.820106e-03 -4.980508e-03 -4.002725e-03 2.096892e-03 5.464543e-04 -1.260201e-03 7.329599e-04 -7.465669e-03
<VARIANCE> 39
 5.890948e+01 9.493405e+01 4.276828e+01 6.771183e+01 4.176083e+01 5.710820e+01 3.321185e+01 6.958046e+01 2.827555e+01 2.855868e+01 2.303244e+01 1.941769e+01 1.587937e+02 1.908201e+00 4.451234e+00 2.037249e+00 3.653001e+00 3.375001e+00 4.866396e+00 2.339040e+00 4.857992e+00 2.122172e+00 2.226213e+00 1.563913e+00 1.243867e+00 1.084898e+01 2.286846e-01 6.841283e-01 3.484346e-01 5.886051e-01 6.173858e-01 9.018463e-01 4.444978e-01 8.924025e-01 4.079468e-01 4.221887e-01 3.017717e-01 2.452653e-01 1.801554e+00
<GCONST> 1.269189e+02
<STATE> 4
<MEAN> 39
 -1.226512e+01 -9.217932e-01 -7.359180e-01 7.167461e+00 -2.404108e+00 8.698843e+00 -2.978223e+00 1.979076e+00 -4.956645e+00 -2.221415e+00 -3.705461e+00 -3.704623e+00 5.592002e+01 5.736231e-02 9.223638e-03 1.264116e-02 2.210863e-02 2.148350e-03 -6.708541e-03 1.811455e-02 1.885968e-03 -1.574170e-02 -1.615364e-02 -1.298343e-02 -1.085329e-02 3.962170e-02 -6.093432e-03 -3.917686e-04 -1.344813e-03 -2.812139e-03 1.248601e-03 -9.067143e-04 -2.161983e-03 -1.696493e-03 1.119608e-03 1.197142e-03 -9.498472e-05 7.772490e-04 -3.633353e-03
<VARIANCE> 39
 5.506898e+01 9.231527e+01 4.020553e+01 6.460974e+01 4.008931e+01 5.511173e+01 3.235666e+01 6.701800e+01 2.746435e+01 2.743698e+01 2.223909e+01 1.891288e+01 1.511073e+02 1.639986e+00 4.261395e+00 1.985447e+00 3.454181e+00 3.309702e+00 4.705785e+00 2.270746e+00 4.774300e+00 2.053986e+00 2.169579e+00 1.525613e+00 1.212778e+00 1.062615e+01 1.859480e-01 6.507373e-01 3.403175e-01 5.595096e-01 6.086456e-01 8.735960e-01 4.361719e-01 8.819656e-01 3.939034e-01 4.126160e-01 2.940649e-01 2.383412e-01 1.769351e+00
<GCONST> 1.253500e+02
<TRANSP> 5
 0.000000e+00 1.000000e+00 0.000000e+00 0.000000e+00 0.000000e+00
 0.000000e+00 7.573501e-01 2.426499e-01 0.000000e+00 0.000000e+00
 0.000000e+00 0.000000e+00 7.573511e-01 2.426489e-01 0.000000e+00
 0.000000e+00 0.000000e+00 0.000000e+00 8.930944e-01 1.069056e-01
 0.000000e+00 0.000000e+00 0.000000e+00 0.000000e+00 0.000000e+00
<ENDHMM>
~h "s"
<BEGINHMM>
<NUMSTATES> 5
<STATE> 2
<MEAN> 39
 -1.772558e+01 -6.547922e+00 6.653807e-01 1.620472e+00 5.833052e-01 6.653699e+00 -1.502717e+00 -1.003212e+00 -4.337749e+00 -1.931059e+00 -2.769144e+00 -1.879874e+00 5.941034e+01 -4.355692e-02 -5.915940e-02 7.036346e-02 -6.531086e-02 4.607463e-02 -1.765449e-02 4.104179e-02 -1.504828e-02 8.667280e-03 -1.931214e-02 1.177547e-02 2.329329e-02 8.265407e-02 -5.306568e-03 3.300683e-03 -1.289190e-03 -2.931810e-03 3.716392e-04 2.279668e-03 -2.928805e-03 2.318971e-04 1.993050e-03 9.440793e-04 1.140007e-04 -4.325016e-04 -5.869243e-03
<VARIANCE> 39
 7.588753e+01 1.253811e+02 5.811691e+01 1.059793e+02 7.239098e+01 7.847942e+01 5.199620e+01 8.447278e+01 2.919396e+01 2.880397e+01 2.660267e+01 2.287812e+01 1.788353e+02 2.509093e+00 6.151255e+00 2.351187e+00 5.043581e+00 4.315668e+00 5.645097e+00 3.201837e+00 5.654843e+00 2.303745e+00 2.152746e+00 1.757097e+00 1.528618e+00 9.378024e+00 2.873216e-01 8.978640e-01 3.646818e-01 6.751374e-01 6.547186e-01 9.159741e-01 5.587157e-01 9.365116e-01 4.386073e-01 4.097346e-01 3.388746e-01 3.066153e-01 1.253519e+00
<GCONST> 1.333845e+02
<STATE> 3
<MEAN> 39
 -1.795952e+01 -6.772493e+00 9.415194e-01 1.321638e+00 7.674687e-01 6.600736e+00 -1.366919e+00 -1.064453e+00 -4.281387e+00 -1.999993e+00 -2.714141e+00 -1.785331e+00 5.969526e+01 -5.392774e-02 -4.923563e-02 6.395335e-02 -7.003842e-02 4.109574e-02 -1.058728e-02 2.899702e-02 -1.220437e-02 1.285464e-02 -1.511751e-02 1.293310e-02 2.114885e-02 6.321597e-02 -1.751500e-03 2.586375e-03 -2.089665e-03 -4.652592e-04 -1.968146e-03 2.379016e-03 -3.163907e-03 1.208184e-03 7.526931e-04 1.533907e-03 3.845314e-04 -6.720177e-04 -5.331277e-03
<VARIANCE> 39
 7.583241e+01 1.239008e+02 5.882602e+01 1.074687e+02 7.382369e+01 7.890049e+01 5.166175e+01 8.419371e+01 2.911543e+01 2.865024e+01 2.674254e+01 2.292980e+01 1.759158e+02 2.474820e+00 6.110914e+00 2.386614e+00 5.040037e+00 4.364072e+00 5.645633e+00 3.173552e+00 5.618244e+00 2.278307e+00 2.137810e+00 1.757208e+00 1.525234e+00 9.187314e+00 2.829164e-01 8.887587e-01 3.670702e-01 6.671927e-01 6.585165e-01 9.127081e-01 5.543050e-01 9.289154e-01 4.338310e-01 4.058926e-01 3.381831e-01 3.057146e-01 1.211401e+00
<GCONST> 1.332408e+02
<STATE> 4
<MEAN> 39
 -1.837268e+01 -6.842279e+00 1.310596e+00 1.046974e+00 6.060141e-01 6.671762e+00 -1.618733e+00 -1.170203e+00 -4.159316e+00 -1.991741e+00 -2.570164e+00 -1.773585e+00 5.973341e+01 -3.615949e-02 -3.879243e-02 4.589301e-02 -5.340748e-02 1.892896e-02 -1.459767e-03 1.077289e-02 -4.002683e-03 9.769258e-03 -7.003450e-03 1.000587e-02 1.462329e-02 4.046379e-02 3.378703e-03 2.667937e-03 -3.301201e-03 3.332323e-03 -3.779990e-03 2.092874e-03 -2.761376e-03 1.749711e-03 -7.816456e-04 1.549655e-03 -4.817900e-04 -1.184242e-03 -4.491406e-03
<VARIANCE> 39
 7.470300e+01 1.241886e+02 6.040674e+01 1.088808e+02 7.373377e+01 7.618462e+01 5.020983e+01 8.306256e+01 2.835348e+01 2.752418e+01 2.610185e+01 2.231362e+01 1.766007e+02 2.287168e+00 5.855803e+00 2.268487e+00 4.697413e+00 4.106524e+00 5.203336e+00 2.962264e+00 5.309950e+00 2.164142e+00 2.016866e+00 1.696362e+00 1.449321e+00 8.542019e+00 2.565967e-01 8.459477e-01 3.403915e-01 6.054950e-01 6.155240e-01 8.319386e-01 5.163403e-01 8.758267e-01 4.125782e-01 3.839437e-01 3.227348e-01 2.875057e-01 1.090387e+00
<GCONST> 1.313674e+02
<TRANSP> 5
 0.000000e+00 1.000000e+00 0.000000e+00 0.000000e+00 0.000000e+00
 0.000000e+00 7.460156e-01 2.539845e-01 0.000000e+00 0.000000e+00
 0.000000e+00 0.000000e+00 7.460139e-01 2.539861e-01 0.000000e+00
 0.000000e+00 0.000000e+00 0.000000e+00 8.819928e-01 1.180072e-01
 0.000000e+00 0.000000e+00 0.000000e+00 0.000000e+00 0.000000e+00
<ENDHMM>
~h "sil"
<BEGINHMM>
<NUMSTATES> 5
<STATE> 2
<MEAN> 39
 -1.682030e+01 -3.557943e+00 -1.191136e+00 3.740942e+00 -1.099591e+00 8.288804e+00 -3.078730e+00 5.221279e-01 -4.086483e+00 -1.276080e+00 -2.779063e+00 -2.446256e+00 5.560897e+01 6.005335e-02 -1.125196e-02 -6.492278e-04 3.450981e-02 -2.587006e-02 -2.465405e-03 2.181632e-02 1.498380e-02 -2.182578e-02 8.527497e-03 5.691207e-03 1.201669e-03 3.025670e-02 1.013332e-02 -6.541997e-03 -5.781931e-04 6.753464e-03 -1.787460e-03 -2.223717e-03 4.180348e-03 2.352906e-03 4.590067e-04 -4.949907e-04 7.583477e-04 -1.316474e-03 9.350694e-03
<VARIANCE> 39
 8.536814e+01 1.360522e+02 5.018299e+01 8.756194e+01 5.203201e+01 6.744040e+01 4.771733e+01 8.521313e+01 2.879767e+01 2.756268e+01 2.334367e+01 2.016321e+01 2.224339e+02 1.916442e+00 5.150632e+00 1.842089e+00 4.005544e+00 3.292587e+00 4.882694e+00 2.514411e+00 5.217813e+00 2.164500e+00 1.964555e+00 1.573518e+00 1.291175e+00 9.157658e+00 2.314421e-01 7.509146e-01 2.960062e-01 5.687006e-01 5.421137e-01 8.218169e-01 4.555722e-01 8.752908e-01 4.177518e-01 3.717350e-01 3.040680e-01 2.565329e-01 1.337962e+00
<GCONST> 1.287630e+02
<STATE> 3
<MEAN> 39
 -1.638260e+01 -3.715185e+00 -1.177330e+00 3.991993e+00 -1.234644e+00 8.262437e+00 -2.897018e+00 6.142042e-01 -4.208277e+00 -1.260461e+00 -2.743677e+00 -2.455140e+00 5.591521e+01 1.027531e-01 -3.785894e-02 2.852031e-03 6.036390e-02 -2.976305e-02 -5.212851e-03 4.359876e-02 2.295339e-02 -2.486267e-02 3.665328e-03 8.850411e-03 -1.213701e-03 7.276374e-02 9.742373e-03 -6.640299e-03 8.780595e-04 5.407404e-03 -5.975789e-04 -8.884757e-04 5.016576e-03 1.323110e-03 -6.035741e-04 -9.557610e-04 8.345052e-04 -1.893382e-05 1.033191e-02
<VARIANCE> 39
 7.634357e+01 1.304187e+02 4.934820e+01 8.743515e+01 5.238898e+01 6.700060e+01 4.565755e+01 8.583781e+01 2.860214e+01 2.770045e+01 2.363217e+01 2.033241e+01 2.048009e+02 2.156482e+00 5.250474e+00 1.848437e+00 4.059734e+00 3.296187e+00 4.893752e+00 2.586966e+00 5.218889e+00 2.210736e+00 1.976349e+00 1.602426e+00 1.312670e+00 9.336128e+00 2.634003e-01 7.683246e-01 2.981753e-01 5.785015e-01 5.444001e-01 8.269174e-01 4.668415e-01 8.777115e-01 4.275477e-01 3.768099e-01 3.116099e-01 2.619374e-01 1.363127e+00
<GCONST> 1.290727e+02
<STATE> 4
<MEAN> 39
 -1.566552e+01 -3.530488e+00 -1.199374e+00 4.651796e+00 -1.691374e+00 8.258396e+00 -2.957052e+00 7.009779e-01 -4.402943e+00 -1.260622e+00 -2.780190e+00 -2.666755e+00 5.603467e+01 5.911694e-02 -1.706296e-02 3.456821e-03 3.625508e-02 -1.331781e-02 4.927944e-04 2.792868e-02 1.682510e-02 -1.055911e-02 1.148103e-03 2.781458e-03 -1.879522e-03 3.963543e-02 -4.079716e-03 1.098283e-03 -4.761832e-04 -3.361032e-03 1.655626e-03 -6.382709e-04 -1.900992e-03 -1.223264e-03 1.746482e-03 2.643548e-04 -1.173854e-03 -7.058185e-04 -2.384221e-03
<VARIANCE> 39
 6.194291e+01 1.215301e+02 4.711802e+01 8.529457e+01 5.104182e+01 6.329709e+01 4.142859e+01 8.547228e+01 2.770838e+01 2.659022e+01 2.310881e+01 2.003874e+01 1.773871e+02 1.851847e+00 4.965312e+00 1.747614e+00 3.766211e+00 3.093587e+00 4.509653e+00 2.484985e+00 5.004503e+00 2.153784e+00 1.895338e+00 1.557742e+00 1.282869e+00 8.769671e+00 2.196300e-01 7.271299e-01 2.813006e-01 5.361469e-01 5.128067e-01 7.618023e-01 4.491336e-01 8.421273e-01 4.160303e-01 3.622175e-01 3.012296e-01 2.540165e-01 1.275931e+00
<GCONST> 1.267455e+02
<TRANSP> 5
 0.000000e+00 1.000000e+00 0.000000e+00 0.000000e+00 0.000000e+00
 0.000000e+00 7.552139e-01 2.447861e-01 0.000000e+00 0.000000e+00
 0.000000e+00 0.000000e+00 7.552140e-01 2.447860e-01 0.000000e+00
 0.000000e+00 0.000000e+00 0.000000e+00 8.914872e-01 1.085128e-01
 0.000000e+00 0.000000e+00 0.000000e+00 0.000000e+00 0.000000e+00
<ENDHMM>
