~o
<STREAMINFO> 1 39
<VECSIZE> 39<NULLD><MFCC_D_A_0><DIAGC>
~h "k"
<BEGINHMM>
<NUMSTATES> 5
<STATE> 2
<MEAN> 39
 -1.522510e+01 -6.858221e+00 -1.558463e+00 3.683307e+00 -7.305604e-01 8.045999e+00 -2.448511e+00 -1.293411e+00 -4.179972e+00 -4.182417e-01 -2.652537e+00 -2.377088e+00 5.889795e+01 1.784946e-02 -3.812423e-02 -1.165415e-02 4.044147e-03 1.523059e-03 -5.995951e-03 -1.014826e-02 -3.084931e-02 -2.686678e-03 1.719673e-02 -5.478351e-03 -6.898661e-03 2.776021e-02 -2.089700e-03 3.234209e-03 1.954187e-04 4.363121e-05 -4.409398e-04 6.505964e-04 -4.154496e-04 1.713391e-03 3.018463e-04 -5.131701e-04 3.500041e-05 4.087263e-05 -3.695501e-03
<VARIANCE> 39
 4.852534e+01 1.396659e+02 4.222311e+01 9.210624e+01 4.618693e+01 8.106536e+01 4.234703e+01 1.189627e+02 3.120087e+01 3.114063e+01 2.522273e+01 2.281554e+01 1.855602e+02 1.580617e+00 7.014491e+00 1.873349e+00 4.801796e+00 3.309358e+00 6.079289e+00 2.702888e+00 7.389905e+00 2.575765e+00 2.148222e+00 1.707575e+00 1.455762e+00 1.168025e+01 1.894228e-01 1.007086e+00 3.064670e-01 6.716086e-01 5.532005e-01 9.865872e-01 4.846224e-01 1.171922e+00 4.983570e-01 4.080610e-01 3.309922e-01 2.891078e-01 1.679853e+00
<GCONST> 1.318231e+02
<STATE> 3
<MEAN> 39
 -1.515798e+01 -7.029903e+00 -1.621850e+00 3.697218e+00 -7.230425e-01 8.010098e+00 -2.506600e+00 -1.445332e+00 -4.190691e+00 -3.338435e-01 -2.678832e+00 -2.415292e+00 5.901339e+01 9.573378e-03 -2.406471e-02 -9.300960e-03 4.112075e-03 -6.319070e-05 -3.217697e-03 -8.834256e-03 -2.156458e-02 -1.946002e-03 1.344569e-02 -3.820004e-03 -5.628406e-03 1.394997e-02 -1.350017e-03 2.985633e-03 6.357078e-04 1.731997e-04 -4.903159e-04 6.100821e-04 4.243234e-04 2.088376e-03 1.052652e-04 -9.731923e-04 3.152853e-04 2.418491e-04 -2.619609e-03
<VARIANCE> 39
 4.702840e+01 1.391138e+02 4.151688e+01 9.181670e+01 4.533973e+01 8.108809e+01 4.260484e+01 1.194526e+02 3.123444e+01 3.123395e+01 2.520435e+01 2.277952e+01 1.841921e+02 1.543931e+00 7.028396e+00 1.857389e+00 4.824271e+00 3.271524e+00 6.054521e+00 2.720045e+00 7.454823e+00 2.589410e+00 2.150154e+00 1.712408e+00 1.464656e+00 1.168696e+01 1.848398e-01 1.006485e+00 3.038441e-01 6.738516e-01 5.464211e-01 9.782323e-01 4.872884e-01 1.178043e+00 5.020262e-01 4.074082e-01 3.317169e-01 2.910343e-01 1.676029e+00
<GCONST> 1.317157e+02
<STATE> 4
<MEAN> 39
 -1.507002e+01 -6.659704e+00 -1.720264e+00 4.000643e+00 -1.044719e+00 7.928581e+00 -2.934859e+00 -1.666053e+00 -4.297968e+00 -2.561314e-01 -2.820077e+00 -2.688928e+00 5.868324e+01 3.768727e-04 4.672620e-03 -4.905807e-04 3.074326e-03 -2.653133e-03 2.747201e-03 -6.475300e-05 2.226366e-03 -2.526585e-03 2.129317e-03 2.350422e-03 7.131043e-04 -5.499121e-03 -6.725589e-04 2.474494e-03 7.736060e-04 1.554133e-04 -4.148396e-04 6.182198e-04 7.769163e-04 2.164526e-03 -2.375350e-05 -9.577526e-04 4.086013e-04 4.780036e-04 -1.793557e-03
<VARIANCE> 39
 4.524253e+01 1.368608e+02 4.046752e+01 8.977700e+01 4.354045e+01 7.664078e+01 4.236783e+01 1.163820e+02 3.103248e+01 3.035971e+01 2.457657e+01 2.224616e+01 1.807834e+02 1.410440e+00 6.639585e+00 1.730754e+00 4.530131e+00 3.081749e+00 5.542942e+00 2.656102e+00 7.155903e+00 2.551966e+00 2.064286e+00 1.668644e+00 1.406120e+00 1.110924e+01 1.670155e-01 9.463425e-01 2.839188e-01 6.278221e-01 5.161830e-01 8.896856e-01 4.776953e-01 1.124668e+00 4.965435e-01 3.913920e-01 3.213944e-01 2.787835e-01 1.579888e+00
<GCONST> 1.300108e+02
<TRANSP> 5
 0.000000e+00 1.000000e+00 0.000000e+00 0.000000e+00 0.000000e+00
 0.000000e+00 8.153116e-01 1.846884e-01 0.000000e+00 0.000000e+00
 0.000000e+00 0.000000e+00 8.153120e-01 1.846881e-01 0.000000e+00
 0.000000e+00 0.000000e+00 0.000000e+00 9.537947e-01 4.620537e-02
 0.000000e+00 0.000000e+00 0.000000e+00 0.000000e+00 0.000000e+00
<ENDHMM>
~h "p"
<BEGINHMM>
<NUMSTATES> 5
<STATE> 2
<MEAN> 39
 -1.315263e+01 -2.382018e+00 -6.598570e-01 6.123270e+00 -1.750013e+00 8.453202e+00 -2.490900e+00 1.530126e+00 -4.754466e+00 -2.070885e+00 -3.504103e+00 -3.310084e+00 5.675233e+01 6.672524e-02 -1.790615e-02 2.466562e-02 1.951483e-02 5.272983e-03 -1.184548e-02 2.670901e-02 -3.555503e-03 -1.677215e-02 -1.663034e-02 -1.163783e-02 -1.204881e-02 7.065529e-02 -7.023198e-03 2.106483e-03 -1.086321e-03 -3.773784e-03 1.756119e-03 -3.893749e-04 -2.880434e-03 -1.571780e-03 1.322009e-03 4.250378e-04 -3.816952e-04 4.704936e-04 -5.293499e-03
<VARIANCE> 39
 6.114603e+01 1.067682e+02 4.375100e+01 7.484467e+01 4.642067e+01 6.350714e+01 3.559716e+01 7.581743e+01 2.884982e+01 2.932810e+01 2.374734e+01 2.040701e+01 1.631667e+02 1.946523e+00 4.959393e+00 2.106743e+00 3.957148e+00 3.573411e+00 5.285419e+00 2.452767e+00 5.182462e+00 2.223554e+00 2.272065e+00 1.624607e+00 1.318691e+00 1.107712e+01 2.291251e-01 7.514728e-01 3.568266e-01 6.197353e-01 6.370246e-01 9.551119e-01 4.614177e-01 9.295973e-01 4.273390e-01 4.310696e-01 3.143322e-01 2.603455e-01 1.794715e+00
<GCONST> 1.288975e+02
<STATE> 3
<MEAN> 39
 -1.292211e+01 -2.426513e+00 -5.605161e-01 6.178801e+00 -1.704122e+00 8.401707e+00 -2.405380e+00 1.501697e+00 -4.817173e+00 -2.143717e+00 -3.562011e+00 -3.357500e+00 5.700634e+01 3.940715e-02 -1.355621e-02 1.785260e-02 6.759971e-03 1.063340e-02 -1.210817e-02 1.690245e-02 -7.937057e-03 -1.156210e-02 -1.270763e-02 -1.073126e-02 -8.408925e-03 4.993087e-02 -5.324436e-03 6.157396e-04 -1.345248e-03 -2.376218e-03 1.098088e-03 -2.657507e-05 -1.818263e-03 -8.381722e-04 1.011260e-03 9.145404e-04 2.033092e-04 6.926745e-04 -3.948863e-03
<VARIANCE> 39
 6.007681e+01 1.066204e+02 4.308061e+01 7.510838e+01 4.651753e+01 6.422559e+01 3.557492e+01 7.562426e+01 2.896843e+01 2.951901e+01 2.392734e+01 2.048615e+01 1.602759e+02 1.882973e+00 4.987905e+00 2.122169e+00 3.989996e+00 3.618907e+00 5.385990e+00 2.458033e+00 5.240320e+00 2.243130e+00 2.297331e+00 1.636037e+00 1.329515e+00 1.117948e+01 2.181052e-01 7.546846e-01 3.601281e-01 6.256325e-01 6.449646e-01 9.736206e-01 4.644446e-01 9.420522e-01 4.307574e-01 4.358432e-01 3.165580e-01 2.623429e-01 1.815345e+00
<GCONST> 1.290281e+02
<STATE> 4
<MEAN> 39
 -1.272821e+01 -1.986180e+00 -5.243505e-01 6.531788e+00 -1.905866e+00 8.360007e+00 -2.772205e+00 1.287545e+00 -4.923354e+00 -2.116348e+00 -3.683887e+00 -3.595865e+00 5.679888e+01 -1.789603e-03 -1.440929e-02 3.295610e-03 -6.877989e-03 9.476637e-03 -5.367145e-03 6.906150e-03 -7.684037e-03 -2.779108e-03 7.211156e-04 2.187591e-04 3.976360e-04 1.583343e-02 -2.615534e-03 -7.546795e-04 -7.738833e-04 -1.090376e-03 2.394883e-04 1.602678e-04 -3.325331e-04 -3.069882e-04 4.658258e-04 9.116086e-04 6.406743e-04 4.848671e-04 -1.441103e-03
<VARIANCE> 39
 5.829729e+01 1.080506e+02 4.161047e+01 7.425089e+01 4.456002e+01 6.057162e+01 3.562397e+01 7.417298e+01 2.806163e+01 2.788396e+01 2.285185e+01 2.010140e+01 1.540938e+02 1.674318e+00 4.824336e+00 1.990993e+00 3.702193e+00 3.375612e+00 4.931551e+00 2.404741e+00 5.044040e+00 2.134690e+00 2.142206e+00 1.572451e+00 1.275136e+00 1.049841e+01 1.863453e-01 7.270746e-01 3.363025e-01 5.730074e-01 5.988244e-01 8.876242e-01 4.547310e-01 9.049338e-01 4.094058e-01 4.065240e-01 3.039230e-01 2.491685e-01 1.693004e+00
<GCONST> 1.270200e+02
<TRANSP> 5
 0.000000e+00 1.000000e+00 0.000000e+00 0.000000e+00 0.000000e+00
 0.000000e+00 8.146057e-01 1.853943e-01 0.000000e+00 0.000000e+00
 0.000000e+00 0.000000e+00 8.146056e-01 1.853944e-01 0.000000e+00
 0.000000e+00 0.000000e+00 0.000000e+00 9.539151e-01 4.608491e-02
 0.000000e+00 0.000000e+00 0.000000e+00 0.000000e+00 0.000000e+00
<ENDHMM>
~h "s"
<BEGINHMM>
<NUMSTATES> 5
<STATE> 2
<MEAN> 39
 -1.736685e+01 -6.901185e+00 8.291764e-01 1.547982e+00 7.446604e-01 6.628127e+00 -1.419254e+00 -1.130233e+00 -4.385799e+00 -1.990227e+00 -2.939052e+00 -1.930232e+00 5.994964e+01 -2.758391e-02 -3.977272e-02 3.994796e-02 -4.478901e-02 2.536337e-02 -8.781805e-03 1.716299e-02 -1.333299e-02 5.173135e-03 -8.118808e-03 6.136145e-03 1.302675e-02 4.812683e-02 -5.879367e-04 2.599166e-03 -1.635240e-03 7.965887e-04 -1.810139e-03 1.701982e-03 -2.228766e-03 1.169055e-03 3.787973e-04 8.059380e-04 5.730015e-05 -4.360462e-04 -4.375347e-03
<VARIANCE> 39
 7.601147e+01 1.250528e+02 5.724553e+01 1.056947e+02 7.176299e+01 7.948895e+01 5.100150e+01 8.633969e+01 3.000014e+01 2.960244e+01 2.748374e+01 2.284833e+01 1.729304e+02 2.463414e+00 6.355252e+00 2.400527e+00 5.109818e+00 4.397694e+00 5.848002e+00 3.203639e+00 5.861501e+00 2.361120e+00 2.181088e+00 1.783429e+00 1.518748e+00 9.837052e+00 2.841126e-01 9.254053e-01 3.742945e-01 6.898770e-01 6.764498e-01 9.575524e-01 5.615566e-01 9.748225e-01 4.492299e-01 4.132186e-01 3.441710e-01 3.048602e-01 1.350241e+00
<GCONST> 1.339625e+02
<STATE> 3
<MEAN> 39
 -1.750762e+01 -7.081380e+00 1.012330e+00 1.333255e+00 8.436956e-01 6.600574e+00 -1.358480e+00 -1.181229e+00 -4.355539e+00 -2.019088e+00 -2.905591e+00 -1.867267e+00 6.014677e+01 -2.192964e-02 -2.800213e-02 3.038253e-02 -3.512314e-02 1.311775e-02 -1.262969e-03 7.348081e-03 -5.975892e-03 4.753991e-03 -3.849136e-03 5.839303e-03 1.012595e-02 2.935784e-02 1.404063e-03 2.395531e-03 -2.121665e-03 2.248422e-03 -2.553777e-03 1.559543e-03 -1.914424e-03 1.586261e-03 -1.065476e-04 9.569910e-04 -4.942926e-05 -6.100673e-04 -3.826535e-03
<VARIANCE> 39
 7.562514e+01 1.239022e+02 5.739395e+01 1.063195e+02 7.226610e+01 7.964566e+01 5.083837e+01 8.607384e+01 2.994367e+01 2.957358e+01 2.752793e+01 2.281308e+01 1.704647e+02 2.452524e+00 6.342522e+00 2.408588e+00 5.097494e+00 4.420802e+00 5.846576e+00 3.181315e+00 5.849032e+00 2.345554e+00 2.175495e+00 1.783317e+00 1.511986e+00 9.727983e+00 2.825690e-01 9.205301e-01 3.730163e-01 6.825784e-01 6.788830e-01 9.551509e-01 5.571852e-01 9.717789e-01 4.460743e-01 4.113712e-01 3.440470e-01 3.031815e-01 1.324761e+00
<GCONST> 1.338365e+02
<STATE> 4
<MEAN> 39
 -1.747686e+01 -6.869495e+00 1.109147e+00 1.511508e+00 3.214248e-01 6.785021e+00 -1.835886e+00 -1.250633e+00 -4.328871e+00 -1.886630e+00 -2.842826e+00 -1.999395e+00 5.989372e+01 7.573519e-03 -1.121860e-03 4.038449e-03 -1.624975e-03 -1.050071e-02 8.538317e-03 -7.370137e-03 7.664638e-03 -9.986265e-04 2.471799e-03 -1.664634e-04 8.333153e-04 -2.012264e-03 2.135680e-03 2.327321e-03 -2.121693e-03 2.760084e-03 -1.923144e-03 1.012733e-03 -1.198454e-03 1.265469e-03 -3.638397e-04 5.738937e-04 -3.764702e-04 -7.136712e-04 -2.848416e-03
<VARIANCE> 39
 7.219069e+01 1.238130e+02 5.684007e+01 1.052340e+02 6.883009e+01 7.529014e+01 4.900443e+01 8.521203e+01 2.868527e+01 2.822630e+01 2.651388e+01 2.201968e+01 1.678122e+02 2.202147e+00 6.050128e+00 2.210761e+00 4.630947e+00 4.016659e+00 5.293425e+00 2.937548e+00 5.572040e+00 2.208671e+00 2.043773e+00 1.704056e+00 1.416708e+00 9.150583e+00 2.485249e-01 8.727603e-01 3.346729e-01 6.041861e-01 6.160368e-01 8.563191e-01 5.130222e-01 9.230343e-01 4.205828e-01 3.882221e-01 3.241773e-01 2.805782e-01 1.222518e+00
<GCONST> 1.313985e+02
<TRANSP> 5
 0.000000e+00 1.000000e+00 0.000000e+00 0.000000e+00 0.000000e+00
 0.000000e+00 8.096363e-01 1.903637e-01 0.000000e+00 0.000000e+00
 0.000000e+00 0.000000e+00 8.096365e-01 1.903635e-01 0.000000e+00
 0.000000e+00 0.000000e+00 0.000000e+00 9.492384e-01 5.076164e-02
 0.000000e+00 0.000000e+00 0.000000e+00 0.000000e+00 0.000000e+00
<ENDHMM>
~h "sil"
<BEGINHMM>
<NUMSTATES> 5
<STATE> 2
<MEAN> 39
 -2.366540e+01 3.830896e+00 -5.186133e+00 3.412328e+00 -2.969656e+00 1.074002e+01 -7.228147e+00 3.673870e+00 -2.298050e+00 -5.973530e-02 -1.743633e+00 -1.855755e+00 4.296712e+01 3.851740e-01 -1.028397e-01 -1.088005e-02 2.242867e-01 -1.490332e-01 -2.332949e-02 1.551040e-01 8.827161e-02 -1.170003e-01 3.782046e-02 5.266818e-02 1.561345e-02 2.306741e-01 6.373906e-02 -4.400565e-02 3.467147e-03 3.695599e-02 -6.932613e-03 -1.242883e-02 3.015254e-02 1.044063e-02 -1.646910e-03 -5.599367e-03 3.886894e-03 -7.667453e-03 6.726512e-02
<VARIANCE> 39
 1.230283e+02 1.197187e+02 3.832082e+01 5.588849e+01 2.836118e+01 3.536327e+01 4.786432e+01 4.241509e+01 2.183112e+01 1.583844e+01 1.370019e+01 1.205304e+01 2.640749e+02 2.303443e+00 2.446478e+00 8.468594e-01 2.164054e+00 1.597734e+00 2.353027e+00 1.641020e+00 2.340496e+00 1.445613e+00 1.202728e+00 1.127190e+00 8.505896e-01 4.616662e+00 3.423462e-01 3.617043e-01 1.343807e-01 3.202486e-01 2.676395e-01 4.040307e-01 2.969304e-01 3.987609e-01 2.858123e-01 2.255159e-01 2.197744e-01 1.689648e-01 6.475258e-01
<GCONST> 1.109827e+02
<STATE> 3
<MEAN> 39
 -2.055119e+01 2.569815e+00 -4.979357e+00 5.127452e+00 -3.758030e+00 1.053317e+01 -5.802914e+00 4.241079e+00 -3.069692e+00 -6.788135e-02 -1.465225e+00 -1.901852e+00 4.544268e+01 5.763543e-01 -2.366240e-01 3.570538e-02 3.209864e-01 -1.338225e-01 -4.094305e-02 2.693553e-01 1.037841e-01 -1.317877e-01 -4.733983e-03 5.083010e-02 -7.884094e-03 4.672427e-01 3.037260e-02 -2.347839e-02 1.010189e-02 1.247364e-02 5.628010e-03 -3.663435e-03 1.920221e-02 -9.145786e-04 -2.001001e-03 -7.410394e-03 -1.204166e-03 -2.836715e-03 4.244611e-02
<VARIANCE> 39
 9.476153e+01 9.742297e+01 3.449818e+01 5.500660e+01 2.957714e+01 3.553333e+01 4.301278e+01 4.503779e+01 2.286632e+01 1.684885e+01 1.520066e+01 1.360225e+01 1.994896e+02 3.254371e+00 2.987569e+00 9.838215e-01 2.519366e+00 1.751265e+00 2.552566e+00 2.038921e+00 2.504363e+00 1.722656e+00 1.325748e+00 1.297851e+00 9.868715e-01 5.705068e+00 4.841981e-01 4.670008e-01 1.638316e-01 3.945917e-01 3.004035e-01 4.570559e-01 3.673895e-01 4.392105e-01 3.440765e-01 2.637063e-01 2.619674e-01 2.017544e-01 8.304545e-01
<GCONST> 1.150275e+02
<STATE> 4
<MEAN> 39
 -1.674243e+01 2.722812e-01 -3.427002e+00 6.518597e+00 -3.685203e+00 9.727693e+00 -3.820975e+00 3.729101e+00 -3.996706e+00 -7.166682e-01 -1.776400e+00 -2.438539e+00 5.038318e+01 1.497863e-01 -5.906571e-02 3.667236e-02 7.703216e-02 -2.842602e-03 -1.716240e-02 8.368803e-02 1.547652e-02 -2.026084e-02 -1.301734e-02 -4.729134e-03 -1.389301e-02 1.495337e-01 -1.794880e-02 4.566315e-03 -9.439569e-04 -1.420622e-02 5.931600e-03 -2.545207e-03 -1.008264e-02 -6.320043e-03 6.498726e-03 1.662544e-03 -4.043991e-03 -1.639266e-03 -1.096391e-02
<VARIANCE> 39
 5.286829e+01 8.518927e+01 3.725133e+01 5.890047e+01 3.972616e+01 4.309368e+01 3.502848e+01 5.987133e+01 2.364700e+01 1.996057e+01 1.744040e+01 1.604556e+01 1.508892e+02 1.715762e+00 2.917708e+00 1.220705e+00 2.564438e+00 2.183118e+00 2.888816e+00 1.959768e+00 3.121113e+00 1.822139e+00 1.495571e+00 1.324086e+00 1.103646e+00 5.737872e+00 2.230365e-01 4.412665e-01 2.006930e-01 3.955978e-01 3.752263e-01 5.122449e-01 3.628325e-01 5.501537e-01 3.586379e-01 2.924263e-01 2.612722e-01 2.226257e-01 8.355909e-01
<GCONST> 1.158269e+02
<TRANSP> 5
 0.000000e+00 1.000000e+00 0.000000e+00 0.000000e+00 0.000000e+00
 0.000000e+00 8.162255e-01 1.837745e-01 0.000000e+00 0.000000e+00
 0.000000e+00 0.000000e+00 8.162256e-01 1.837744e-01 0.000000e+00
 0.000000e+00 0.000000e+00 0.000000e+00 9.546580e-01 4.534198e-02
 0.000000e+00 0.000000e+00 0.000000e+00 0.000000e+00 0.000000e+00
<ENDHMM>
