~o
<STREAMINFO> 1 39
<VECSIZE> 39<NULLD><MFCC_D_A_0><DIAGC>
~h "k"
<BEGINHMM>
<NUMSTATES> 5
<STATE> 2
<MEAN> 39
 -1.362888e+01 -5.932681e+00 -3.323677e+00 3.562551e+00 -1.978675e+00 6.894465e+00 -4.027439e+00 -1.196491e+00 -3.847032e+00 -6.368613e-02 -2.369592e+00 -2.758246e+00 5.866769e+01 1.368368e-02 -6.380249e-02 -2.436531e-02 3.290463e-03 9.670618e-03 -2.016049e-02 -2.453964e-02 -5.620528e-02 7.400963e-03 2.893373e-02 -1.011556e-02 -1.456404e-02 4.031391e-02 -1.473146e-03 1.489401e-03 1.155214e-03 -4.398489e-04 1.658990e-04 -6.312112e-05 4.969666e-04 1.090626e-03 4.218173e-04 -1.127433e-03 1.714089e-04 3.974908e-04 -1.055973e-03
<VARIANCE> 39
 4.697567e+01 1.355617e+02 4.776630e+01 7.461346e+01 5.383812e+01 7.502254e+01 4.230733e+01 1.115480e+02 2.880741e+01 2.926939e+01 2.329407e+01 2.115991e+01 1.702657e+02 1.532719e+00 7.225364e+00 2.102338e+00 4.164288e+00 3.895375e+00 5.832078e+00 2.602896e+00 7.264577e+00 2.440154e+00 2.199884e+00 1.690281e+00 1.472491e+00 1.153636e+01 1.863959e-01 1.071991e+00 3.409615e-01 6.074693e-01 6.549570e-01 9.793865e-01 4.714994e-01 1.177865e+00 4.783673e-01 4.314576e-01 3.334340e-01 2.966813e-01 1.740531e+00
<GCONST> 1.315736e+02
<STATE> 3
<MEAN> 39
 -1.358208e+01 -6.168917e+00 -3.406858e+00 3.569439e+00 -1.940587e+00 6.819845e+00 -4.116231e+00 -1.401361e+00 -3.819285e+00 3.512955e-02 -2.405011e+00 -2.814561e+00 5.882208e+01 9.705745e-03 -5.736544e-02 -2.040272e-02 1.567749e-03 9.946738e-03 -1.943811e-02 -2.282305e-02 -5.067108e-02 8.756520e-03 2.481189e-02 -9.007662e-03 -1.271747e-02 3.623892e-02 -1.361929e-03 2.147546e-03 1.686824e-03 -5.491015e-04 1.645723e-04 6.238948e-04 9.348503e-04 2.054373e-03 9.430051e-05 -1.480865e-03 3.215439e-04 5.452494e-04 -1.369945e-03
<VARIANCE> 39
 4.571239e+01 1.363276e+02 4.667600e+01 7.441589e+01 5.303772e+01 7.529417e+01 4.232973e+01 1.126664e+02 2.906428e+01 2.931862e+01 2.336809e+01 2.109889e+01 1.711588e+02 1.518108e+00 7.332052e+00 2.090699e+00 4.211659e+00 3.885830e+00 5.843127e+00 2.621348e+00 7.389130e+00 2.472668e+00 2.206141e+00 1.700371e+00 1.483180e+00 1.171442e+01 1.849600e-01 1.084135e+00 3.387480e-01 6.140701e-01 6.529487e-01 9.775732e-01 4.743212e-01 1.193377e+00 4.858097e-01 4.326668e-01 3.349952e-01 2.987565e-01 1.765417e+00
<GCONST> 1.316865e+02
<STATE> 4
<MEAN> 39
 -1.358247e+01 -6.187494e+00 -3.470203e+00 3.736037e+00 -2.027611e+00 6.739879e+00 -4.373453e+00 -1.655814e+00 -3.837945e+00 1.127512e-01 -2.532377e+00 -2.989309e+00 5.875529e+01 5.219115e-03 -3.892478e-02 -1.329714e-02 -1.325098e-03 7.635825e-03 -1.391654e-02 -1.757554e-02 -3.478731e-02 7.758697e-03 1.674890e-02 -5.761450e-03 -9.075712e-03 2.493440e-02 -1.058873e-03 2.975789e-03 1.500525e-03 -3.013327e-04 -1.823171e-04 1.231914e-03 1.056535e-03 2.733387e-03 -1.730318e-04 -1.248915e-03 4.099814e-04 6.646226e-04 -2.137946e-03
<VARIANCE> 39
 4.427901e+01 1.358164e+02 4.521222e+01 7.382175e+01 5.123575e+01 7.314912e+01 4.200732e+01 1.119757e+02 2.910802e+01 2.896430e+01 2.315774e+01 2.073326e+01 1.712336e+02 1.459079e+00 7.204535e+00 2.014292e+00 4.102550e+00 3.785833e+00 5.587071e+00 2.600294e+00 7.295195e+00 2.469888e+00 2.168853e+00 1.683881e+00 1.457344e+00 1.156341e+01 1.773204e-01 1.058912e+00 3.261079e-01 5.951126e-01 6.357694e-01 9.306200e-01 4.704207e-01 1.172571e+00 4.869310e-01 4.260083e-01 3.306340e-01 2.927191e-01 1.735031e+00
<GCONST> 1.309251e+02
<TRANSP> 5
 0.000000e+00 1.000000e+00 0.000000e+00 0.000000e+00 0.000000e+00
 0.000000e+00 7.487225e-01 2.512775e-01 0.000000e+00 0.000000e+00
 0.000000e+00 0.000000e+00 7.487228e-01 2.512772e-01 0.000000e+00
 0.000000e+00 0.000000e+00 0.000000e+00 8.792217e-01 1.207783e-01
 0.000000e+00 0.000000e+00 0.000000e+00 0.000000e+00 0.000000e+00
<ENDHMM>
~h "p"
<BEGINHMM>
<NUMSTATES> 5
<STATE> 2
<MEAN> 39
 -1.161788e+01 -1.798787e+00 -2.197048e+00 5.827398e+00 -2.955056e+00 7.436973e+00 -3.907066e+00 1.534539e+00 -4.535642e+00 -1.915504e+00 -3.189159e+00 -3.393293e+00 5.680495e+01 6.974730e-02 2.516394e-02 1.217686e-02 3.016238e-02 -1.261172e-03 2.033908e-03 1.263557e-02 6.661681e-03 -1.920500e-02 -2.510212e-02 -1.895521e-02 -1.803098e-02 3.267318e-02 -3.753823e-03 4.564804e-04 -1.215843e-03 -1.803603e-03 1.620430e-03 -8.704348e-04 -1.027143e-03 -7.920802e-04 8.058231e-04 5.161440e-04 -1.653704e-05 4.906175e-04 -2.313027e-03
<VARIANCE> 39
 5.360617e+01 9.277869e+01 5.178982e+01 6.254346e+01 4.873249e+01 5.871138e+01 3.631453e+01 6.898840e+01 2.730583e+01 2.945059e+01 2.221134e+01 1.863095e+01 1.433678e+02 1.702314e+00 4.766700e+00 2.510499e+00 3.463263e+00 3.963613e+00 5.003722e+00 2.352118e+00 5.091030e+00 2.160516e+00 2.470592e+00 1.622929e+00 1.315328e+00 1.080764e+01 2.015258e-01 7.417501e-01 4.285514e-01 5.645581e-01 7.216167e-01 9.320707e-01 4.475527e-01 9.240688e-01 4.216256e-01 4.819619e-01 3.202353e-01 2.609313e-01 1.821269e+00
<GCONST> 1.282025e+02
<STATE> 3
<MEAN> 39
 -1.139177e+01 -1.687595e+00 -2.160569e+00 5.939315e+00 -2.949999e+00 7.455658e+00 -3.871066e+00 1.562490e+00 -4.600400e+00 -2.000266e+00 -3.257220e+00 -3.455047e+00 5.688656e+01 5.772182e-02 2.431370e-02 8.205778e-03 2.629062e-02 2.559609e-03 1.089113e-03 1.184410e-02 5.658110e-03 -1.664712e-02 -2.172116e-02 -1.779921e-02 -1.641788e-02 2.542261e-02 -3.743071e-03 -7.836738e-04 -9.307637e-04 -1.486133e-03 1.432573e-03 -5.490763e-04 -2.744827e-04 -5.887706e-04 7.513677e-04 1.027393e-03 2.457678e-04 5.351006e-04 -1.687383e-03
<VARIANCE> 39
 5.285358e+01 9.169022e+01 5.084122e+01 6.157498e+01 4.798100e+01 5.871799e+01 3.628413e+01 6.830743e+01 2.729001e+01 2.962680e+01 2.222514e+01 1.859766e+01 1.420797e+02 1.680508e+00 4.763405e+00 2.520207e+00 3.460644e+00 3.979846e+00 5.056611e+00 2.351135e+00 5.099370e+00 2.163956e+00 2.494518e+00 1.623880e+00 1.321990e+00 1.093133e+01 1.968924e-01 7.422645e-01 4.329210e-01 5.658154e-01 7.272508e-01 9.444892e-01 4.486610e-01 9.280435e-01 4.219078e-01 4.864143e-01 3.205970e-01 2.622248e-01 1.850049e+00
<GCONST> 1.281942e+02
<STATE> 4
<MEAN> 39
 -1.114990e+01 -1.214498e+00 -2.145175e+00 6.289167e+00 -3.074978e+00 7.489924e+00 -4.052351e+00 1.534055e+00 -4.715726e+00 -2.059987e+00 -3.403360e+00 -3.646149e+00 5.666417e+01 3.215884e-02 1.884726e-02 4.012689e-03 1.914299e-02 5.839240e-03 4.072703e-03 1.086219e-02 4.276072e-03 -1.116543e-02 -1.242295e-02 -1.186944e-02 -1.145017e-02 1.079634e-02 -3.692665e-03 -1.625017e-03 -5.931429e-04 -1.524855e-03 8.380985e-04 -1.883644e-04 1.618403e-04 -5.541243e-04 7.596511e-04 1.354345e-03 6.693100e-04 6.988965e-04 -1.182200e-03
<VARIANCE> 39
 5.147389e+01 9.077818e+01 4.892202e+01 5.975033e+01 4.610466e+01 5.616158e+01 3.546012e+01 6.648422e+01 2.660698e+01 2.871280e+01 2.153388e+01 1.827064e+01 1.386972e+02 1.559255e+00 4.625853e+00 2.455393e+00 3.288130e+00 3.859945e+00 4.802548e+00 2.314202e+00 4.945241e+00 2.089751e+00 2.410429e+00 1.582314e+00 1.293987e+00 1.061314e+01 1.784211e-01 7.213606e-01 4.244297e-01 5.369806e-01 7.087266e-01 9.004603e-01 4.423297e-01 9.024918e-01 4.069730e-01 4.703245e-01 3.125890e-01 2.556446e-01 1.801425e+00
<GCONST> 1.269066e+02
<TRANSP> 5
 0.000000e+00 1.000000e+00 0.000000e+00 0.000000e+00 0.000000e+00
 0.000000e+00 7.491366e-01 2.508634e-01 0.000000e+00 0.000000e+00
 0.000000e+00 0.000000e+00 7.491363e-01 2.508638e-01 0.000000e+00
 0.000000e+00 0.000000e+00 0.000000e+00 8.808151e-01 1.191849e-01
 0.000000e+00 0.000000e+00 0.000000e+00 0.000000e+00 0.000000e+00
<ENDHMM>
~h "s"
<BEGINHMM>
<NUMSTATES> 5
<STATE> 2
<MEAN> 39
 -1.668040e+01 -6.136487e+00 -2.809360e-01 1.309708e+00 -1.408272e-01 6.030469e+00 -2.238039e+00 -8.176575e-01 -4.012607e+00 -1.711669e+00 -2.461414e+00 -1.912371e+00 5.956650e+01 -7.090865e-02 -5.279239e-02 6.828469e-02 -7.516093e-02 4.094626e-02 -1.041413e-02 2.830822e-02 -1.325084e-02 1.242930e-02 -1.072138e-02 1.639346e-02 2.706823e-02 5.229671e-02 2.051859e-03 1.431501e-03 -1.684553e-03 1.770636e-03 -3.095686e-03 1.192027e-03 -1.863695e-03 1.512060e-03 -1.572603e-04 5.787410e-04 1.551732e-04 -5.491952e-04 -2.519862e-03
<VARIANCE> 39
 7.946020e+01 1.209615e+02 6.871913e+01 9.714854e+01 7.921087e+01 7.325674e+01 5.211914e+01 8.133404e+01 2.855901e+01 2.864296e+01 2.553570e+01 2.178792e+01 1.621798e+02 2.519374e+00 6.022899e+00 2.612203e+00 4.632501e+00 4.595415e+00 5.345983e+00 3.100118e+00 5.590265e+00 2.257262e+00 2.155085e+00 1.752112e+00 1.504176e+00 8.942230e+00 2.875658e-01 8.723184e-01 3.991283e-01 6.250678e-01 6.985433e-01 8.785552e-01 5.419803e-01 9.355378e-01 4.349540e-01 4.099003e-01 3.408403e-01 3.004899e-01 1.213656e+00
<GCONST> 1.330499e+02
<STATE> 3
<MEAN> 39
 -1.692377e+01 -6.335920e+00 -3.059196e-02 1.036334e+00 -4.926443e-03 5.989428e+00 -2.140043e+00 -8.607531e-01 -3.964022e+00 -1.746086e+00 -2.403268e+00 -1.816405e+00 5.976464e+01 -6.029539e-02 -4.803585e-02 6.188552e-02 -6.753023e-02 3.071104e-02 -7.320037e-03 2.275792e-02 -8.179542e-03 1.107434e-02 -8.904079e-03 1.536239e-02 2.388506e-02 4.573727e-02 3.682334e-03 1.709089e-03 -2.520907e-03 2.548384e-03 -3.109365e-03 5.652283e-04 -1.892041e-03 1.131530e-03 -3.794175e-04 6.122057e-04 -3.659976e-04 -1.167746e-03 -1.874935e-03
<VARIANCE> 39
 7.956596e+01 1.200488e+02 6.948818e+01 9.803680e+01 8.027299e+01 7.387172e+01 5.210034e+01 8.097867e+01 2.850332e+01 2.854640e+01 2.553675e+01 2.174566e+01 1.610497e+02 2.572025e+00 6.024609e+00 2.640447e+00 4.650616e+00 4.655418e+00 5.376161e+00 3.099832e+00 5.582577e+00 2.239029e+00 2.152836e+00 1.750269e+00 1.496784e+00 8.850690e+00 2.927240e-01 8.695048e-01 3.992446e-01 6.217549e-01 7.036190e-01 8.809924e-01 5.403659e-01 9.335204e-01 4.308750e-01 4.086424e-01 3.403852e-01 2.987531e-01 1.186739e+00
<GCONST> 1.330663e+02
<STATE> 4
<MEAN> 39
 -1.714268e+01 -6.347818e+00 2.274699e-01 8.772860e-01 -2.099683e-01 6.033530e+00 -2.334427e+00 -9.188079e-01 -3.898587e+00 -1.704374e+00 -2.316609e+00 -1.814793e+00 5.975974e+01 -3.537336e-02 -3.879255e-02 4.724708e-02 -4.913297e-02 1.729691e-02 -5.367343e-03 1.355291e-02 -3.983825e-03 8.669760e-03 -5.544567e-03 9.449393e-03 1.532910e-02 3.894895e-02 4.355753e-03 2.133690e-03 -2.972173e-03 3.229384e-03 -2.751774e-03 6.026935e-04 -1.901431e-03 7.513564e-04 -5.449655e-04 5.855298e-04 -8.808153e-04 -1.507673e-03 -1.804339e-03
<VARIANCE> 39
 7.851469e+01 1.196807e+02 7.041679e+01 9.812221e+01 7.933554e+01 7.227365e+01 5.037281e+01 8.024682e+01 2.759489e+01 2.760147e+01 2.500814e+01 2.117626e+01 1.606636e+02 2.498893e+00 5.878852e+00 2.585761e+00 4.426901e+00 4.506300e+00 5.101620e+00 2.977546e+00 5.404709e+00 2.143694e+00 2.086156e+00 1.708742e+00 1.437612e+00 8.495101e+00 2.802537e-01 8.452394e-01 3.830866e-01 5.829963e-01 6.760253e-01 8.309239e-01 5.170673e-01 9.026228e-01 4.129658e-01 3.968108e-01 3.296951e-01 2.849654e-01 1.115738e+00
<GCONST> 1.318438e+02
<TRANSP> 5
 0.000000e+00 1.000000e+00 0.000000e+00 0.000000e+00 0.000000e+00
 0.000000e+00 7.386703e-01 2.613297e-01 0.000000e+00 0.000000e+00
 0.000000e+00 0.000000e+00 7.386686e-01 2.613313e-01 0.000000e+00
 0.000000e+00 0.000000e+00 0.000000e+00 8.711029e-01 1.288971e-01
 0.000000e+00 0.000000e+00 0.000000e+00 0.000000e+00 0.000000e+00
<ENDHMM>
~h "sil"
<BEGINHMM>
<NUMSTATES> 5
<STATE> 2
<MEAN> 39
 -1.560184e+01 -2.366926e+00 -3.056577e+00 3.620438e+00 -2.472642e+00 7.587742e+00 -4.413674e+00 1.089696e+00 -3.669921e+00 -8.679393e-01 -2.330021e+00 -2.480482e+00 5.474991e+01 8.695257e-02 -2.097379e-02 -4.170788e-03 3.687786e-02 -2.977609e-02 -8.830034e-03 2.938874e-02 1.608826e-02 -2.251494e-02 4.099092e-03 8.127796e-03 -5.677561e-04 5.746669e-02 -1.155975e-03 -1.468072e-03 3.248930e-04 1.731290e-03 6.333723e-04 -6.523106e-04 1.318652e-03 1.245656e-03 1.026921e-03 -4.214447e-04 -7.780046e-05 -5.216212e-04 -7.013904e-05
<VARIANCE> 39
 8.799648e+01 1.245304e+02 5.660161e+01 7.257516e+01 5.613354e+01 6.075924e+01 4.581116e+01 7.730460e+01 2.640038e+01 2.617289e+01 2.120263e+01 1.827610e+01 2.049016e+02 2.159008e+00 4.887092e+00 1.991339e+00 3.486439e+00 3.475082e+00 4.439718e+00 2.384703e+00 4.848871e+00 2.041504e+00 1.975805e+00 1.549980e+00 1.274300e+00 8.567616e+00 2.685931e-01 7.310523e-01 3.200673e-01 5.131683e-01 5.770884e-01 7.682363e-01 4.333203e-01 8.255494e-01 3.998443e-01 3.823344e-01 3.056512e-01 2.552865e-01 1.288810e+00
<GCONST> 1.276776e+02
<STATE> 3
<MEAN> 39
 -1.515464e+01 -2.515366e+00 -3.066829e+00 3.813136e+00 -2.608199e+00 7.529063e+00 -4.254996e+00 1.160048e+00 -3.772956e+00 -8.606040e-01 -2.292997e+00 -2.492154e+00 5.508500e+01 9.344720e-02 -3.077091e-02 -5.009901e-04 4.666644e-02 -2.735534e-02 -8.845913e-03 3.622832e-02 1.782954e-02 -2.155200e-02 1.667255e-03 8.873169e-03 -1.205859e-03 6.803349e-02 3.063127e-03 -3.101842e-03 1.334708e-03 2.745687e-03 4.941070e-04 3.098711e-05 1.669536e-03 1.438771e-04 3.901621e-04 -2.675630e-04 2.612926e-04 1.557919e-04 4.081848e-03
<VARIANCE> 39
 7.872917e+01 1.197410e+02 5.645982e+01 7.250772e+01 5.668966e+01 6.024954e+01 4.450168e+01 7.772856e+01 2.621665e+01 2.627531e+01 2.146365e+01 1.841350e+01 1.887891e+02 2.486681e+00 4.960235e+00 2.002102e+00 3.523633e+00 3.497797e+00 4.464890e+00 2.429636e+00 4.850182e+00 2.075578e+00 1.987105e+00 1.577575e+00 1.290887e+00 8.815252e+00 3.091699e-01 7.435992e-01 3.230154e-01 5.209780e-01 5.820419e-01 7.742915e-01 4.418253e-01 8.284941e-01 4.074244e-01 3.863977e-01 3.125771e-01 2.594800e-01 1.321114e+00
<GCONST> 1.280350e+02
<STATE> 4
<MEAN> 39
 -1.454778e+01 -2.450048e+00 -3.051613e+00 4.237594e+00 -2.924110e+00 7.477806e+00 -4.250102e+00 1.192164e+00 -3.946192e+00 -8.875691e-01 -2.325345e+00 -2.632234e+00 5.533098e+01 3.203304e-02 -5.509517e-03 4.502960e-03 2.602158e-02 -6.938564e-03 3.744119e-03 1.636706e-02 1.153637e-02 -8.171991e-03 -5.613150e-04 1.703731e-03 -8.711136e-04 1.756391e-02 -1.328270e-03 7.758338e-04 -3.215421e-04 -2.092315e-03 4.153481e-04 -8.403776e-04 -1.655030e-03 -7.907532e-04 7.333542e-04 3.258306e-04 -8.591833e-04 -6.406783e-04 -8.260575e-04
<VARIANCE> 39
 6.681186e+01 1.130527e+02 5.574300e+01 7.168353e+01 5.584080e+01 5.759402e+01 4.152544e+01 7.717424e+01 2.565643e+01 2.566986e+01 2.125563e+01 1.829587e+01 1.673371e+02 2.229033e+00 4.752160e+00 1.943274e+00 3.336469e+00 3.371768e+00 4.227154e+00 2.365239e+00 4.700358e+00 2.043135e+00 1.939481e+00 1.552347e+00 1.269431e+00 8.406936e+00 2.757923e-01 7.119954e-01 3.136027e-01 4.939833e-01 5.638745e-01 7.345880e-01 4.311631e-01 8.032419e-01 4.009819e-01 3.774016e-01 3.063538e-01 2.536925e-01 1.259759e+00
<GCONST> 1.264545e+02
<TRANSP> 5
 0.000000e+00 1.000000e+00 0.000000e+00 0.000000e+00 0.000000e+00
 0.000000e+00 7.475101e-01 2.524899e-01 0.000000e+00 0.000000e+00
 0.000000e+00 0.000000e+00 7.475120e-01 2.524880e-01 0.000000e+00
 0.000000e+00 0.000000e+00 0.000000e+00 8.792647e-01 1.207353e-01
 0.000000e+00 0.000000e+00 0.000000e+00 0.000000e+00 0.000000e+00
<ENDHMM>
