~o
<STREAMINFO> 1 39
<VECSIZE> 39<NULLD><MFCC_D_A_0><DIAGC>
~h "k"
<BEGINHMM>
<NUMSTATES> 5
<STATE> 2
<MEAN> 39
 -1.501534e+01 -7.157156e+00 -1.842039e+00 3.835477e+00 -8.498678e-01 8.006647e+00 -2.673997e+00 -1.634122e+00 -4.184334e+00 -1.651486e-01 -2.762333e+00 -2.565362e+00 5.901978e+01 1.996840e-02 -6.416319e-02 -3.510080e-02 9.689662e-03 3.680022e-03 -2.401427e-02 -3.129448e-02 -6.258302e-02 3.038552e-03 3.284737e-02 -1.040137e-02 -1.222041e-02 3.660160e-02 -1.881014e-03 2.092607e-03 1.844668e-03 -8.807696e-04 4.562402e-04 6.308338e-05 9.093465e-04 1.316332e-03 -3.961049e-05 -1.824452e-03 3.849995e-04 6.747301e-04 -1.080106e-03
<VARIANCE> 39
 4.315638e+01 1.461614e+02 3.930490e+01 8.884831e+01 4.366702e+01 8.289757e+01 4.164214e+01 1.240866e+02 3.130007e+01 3.026333e+01 2.510349e+01 2.277607e+01 1.887263e+02 1.393437e+00 7.498784e+00 1.755168e+00 4.745466e+00 3.169550e+00 6.210347e+00 2.681472e+00 7.629218e+00 2.601017e+00 2.092606e+00 1.688801e+00 1.434676e+00 1.206579e+01 1.664391e-01 1.078289e+00 2.881404e-01 6.624977e-01 5.317552e-01 1.002359e+00 4.795139e-01 1.199186e+00 5.017516e-01 3.989438e-01 3.267995e-01 2.847356e-01 1.733811e+00
<GCONST> 1.313167e+02
<STATE> 3
<MEAN> 39
 -1.494833e+01 -7.385949e+00 -1.958730e+00 3.861900e+00 -8.329180e-01 7.920775e+00 -2.781849e+00 -1.857912e+00 -4.179243e+00 -6.041491e-02 -2.796289e+00 -2.611928e+00 5.915905e+01 1.377505e-02 -5.501991e-02 -2.818342e-02 5.912416e-03 4.882251e-03 -2.204865e-02 -2.775499e-02 -5.561712e-02 2.817747e-03 2.580773e-02 -8.434680e-03 -9.370362e-03 3.171346e-02 -1.993587e-03 3.142278e-03 2.622647e-03 -1.081508e-03 3.208527e-04 1.142430e-03 1.524130e-03 2.759181e-03 -3.585502e-04 -2.363364e-03 5.672368e-04 7.792056e-04 -1.814435e-03
<VARIANCE> 39
 4.192135e+01 1.464671e+02 3.841028e+01 8.870820e+01 4.285132e+01 8.290780e+01 4.201702e+01 1.247535e+02 3.157522e+01 3.024759e+01 2.526097e+01 2.275926e+01 1.891872e+02 1.386017e+00 7.581478e+00 1.755088e+00 4.813083e+00 3.150239e+00 6.192520e+00 2.714509e+00 7.729092e+00 2.641818e+00 2.097206e+00 1.705305e+00 1.456132e+00 1.219324e+01 1.663429e-01 1.088089e+00 2.886168e-01 6.721722e-01 5.290906e-01 9.951510e-01 4.844692e-01 1.209342e+00 5.111113e-01 3.992653e-01 3.297109e-01 2.889760e-01 1.748642e+00
<GCONST> 1.314483e+02
<STATE> 4
<MEAN> 39
 -1.488836e+01 -7.192214e+00 -2.111504e+00 4.123093e+00 -1.063242e+00 7.792539e+00 -3.188097e+00 -2.105881e+00 -4.256221e+00 -3.245115e-03 -2.926451e+00 -2.833432e+00 5.891685e+01 5.967278e-03 -3.135519e-02 -1.491865e-02 -3.486685e-04 3.510810e-03 -1.348700e-02 -1.833970e-02 -3.510679e-02 1.094528e-04 1.271695e-02 -3.336970e-03 -4.899651e-03 1.920493e-02 -1.574062e-03 3.859091e-03 2.334334e-03 -6.699164e-04 -1.372045e-04 1.799381e-03 1.606702e-03 3.532441e-03 -4.181433e-04 -1.903281e-03 7.258855e-04 8.123161e-04 -2.603119e-03
<VARIANCE> 39
 4.054983e+01 1.453116e+02 3.742642e+01 8.733751e+01 4.173074e+01 7.900707e+01 4.259722e+01 1.220012e+02 3.155360e+01 2.964238e+01 2.501930e+01 2.235196e+01 1.876852e+02 1.320409e+00 7.298386e+00 1.677995e+00 4.634805e+00 3.034597e+00 5.777122e+00 2.692860e+00 7.494077e+00 2.635261e+00 2.042577e+00 1.691257e+00 1.429994e+00 1.179915e+01 1.582867e-01 1.042881e+00 2.769549e-01 6.438326e-01 5.108020e-01 9.235555e-01 4.808995e-01 1.167603e+00 5.113131e-01 3.889242e-01 3.257337e-01 2.831532e-01 1.682149e+00
<GCONST> 1.303969e+02
<TRANSP> 5
 0.000000e+00 1.000000e+00 0.000000e+00 0.000000e+00 0.000000e+00
 0.000000e+00 7.471805e-01 2.528195e-01 0.000000e+00 0.000000e+00
 0.000000e+00 0.000000e+00 7.471817e-01 2.528183e-01 0.000000e+00
 0.000000e+00 0.000000e+00 0.000000e+00 8.799258e-01 1.200742e-01
 0.000000e+00 0.000000e+00 0.000000e+00 0.000000e+00 0.000000e+00
<ENDHMM>
~h "p"
<BEGINHMM>
<NUMSTATES> 5
<STATE> 2
<MEAN> 39
 -1.256243e+01 -1.844579e+00 -5.763794e-01 6.607729e+00 -2.063637e+00 8.611546e+00 -2.669281e+00 1.757730e+00 -4.900297e+00 -2.224221e+00 -3.644567e+00 -3.489383e+00 5.657946e+01 7.730688e-02 2.361678e-02 1.414089e-02 3.003580e-02 -5.187575e-03 -2.593990e-03 1.732033e-02 9.294432e-03 -1.930624e-02 -2.388624e-02 -1.771672e-02 -1.859833e-02 4.081045e-02 -5.100340e-03 7.072923e-05 -1.502178e-03 -2.599073e-03 2.417792e-03 -1.492899e-03 -1.433643e-03 -1.236099e-03 1.228104e-03 7.670445e-04 -3.289603e-05 7.192906e-04 -2.652172e-03
<VARIANCE> 39
 5.702177e+01 9.765748e+01 4.198365e+01 7.007819e+01 4.280635e+01 5.937819e+01 3.351693e+01 7.162991e+01 2.836654e+01 2.934315e+01 2.333057e+01 1.968638e+01 1.549237e+02 1.796285e+00 4.593992e+00 2.113232e+00 3.771737e+00 3.535794e+00 5.113107e+00 2.363694e+00 5.069927e+00 2.178688e+00 2.311625e+00 1.599850e+00 1.270653e+00 1.114167e+01 2.088314e-01 6.991007e-01 3.619057e-01 6.033164e-01 6.459339e-01 9.408893e-01 4.523976e-01 9.253888e-01 4.189644e-01 4.375288e-01 3.080513e-01 2.490958e-01 1.839535e+00
<GCONST> 1.276423e+02
<STATE> 3
<MEAN> 39
 -1.233018e+01 -1.740189e+00 -5.376162e-01 6.713820e+00 -2.070763e+00 8.614255e+00 -2.619596e+00 1.798103e+00 -4.958205e+00 -2.295077e+00 -3.702837e+00 -3.546942e+00 5.667438e+01 6.099609e-02 2.099647e-02 9.330054e-03 2.419346e-02 1.012591e-03 -4.487568e-03 1.590819e-02 7.418291e-03 -1.497864e-02 -1.944586e-02 -1.634170e-02 -1.608387e-02 3.246225e-02 -4.954631e-03 -1.387890e-03 -1.090941e-03 -2.073394e-03 2.273582e-03 -8.791677e-04 -4.909012e-04 -1.013944e-03 1.183330e-03 1.260079e-03 2.176920e-04 7.710292e-04 -1.844618e-03
<VARIANCE> 39
 5.644709e+01 9.672458e+01 4.120823e+01 6.919713e+01 4.214715e+01 5.967587e+01 3.353722e+01 7.083794e+01 2.841177e+01 2.950447e+01 2.344330e+01 1.967285e+01 1.533876e+02 1.783821e+00 4.603491e+00 2.114181e+00 3.780907e+00 3.548999e+00 5.182271e+00 2.369027e+00 5.079202e+00 2.186470e+00 2.332034e+00 1.603537e+00 1.280604e+00 1.124584e+01 2.043745e-01 7.001399e-01 3.636461e-01 6.066857e-01 6.491783e-01 9.551122e-01 4.550038e-01 9.286944e-01 4.196230e-01 4.416433e-01 3.088476e-01 2.511077e-01 1.862490e+00
<GCONST> 1.276761e+02
<STATE> 4
<MEAN> 39
 -1.208996e+01 -1.197541e+00 -5.681565e-01 7.101306e+00 -2.265738e+00 8.594821e+00 -2.906572e+00 1.733027e+00 -5.051587e+00 -2.303998e+00 -3.837545e+00 -3.764513e+00 5.637759e+01 2.850719e-02 1.308594e-02 4.393202e-03 1.501902e-02 7.079575e-03 -7.211103e-04 1.330599e-02 4.435158e-03 -6.892037e-03 -8.596811e-03 -9.113174e-03 -8.872411e-03 1.484056e-02 -4.423372e-03 -2.325807e-03 -5.166451e-04 -1.867735e-03 1.507999e-03 -3.061218e-04 3.031993e-05 -1.146376e-03 9.883278e-04 1.399490e-03 6.527745e-04 9.039122e-04 -9.565278e-04
<VARIANCE> 39
 5.488377e+01 9.620210e+01 3.975963e+01 6.677883e+01 4.022556e+01 5.667186e+01 3.331350e+01 6.883447e+01 2.756065e+01 2.813254e+01 2.259236e+01 1.928802e+01 1.488067e+02 1.643477e+00 4.460967e+00 2.017947e+00 3.553772e+00 3.365298e+00 4.842299e+00 2.322530e+00 4.887236e+00 2.090910e+00 2.211009e+00 1.550068e+00 1.249570e+00 1.073971e+01 1.824779e-01 6.774736e-01 3.471493e-01 5.681124e-01 6.159621e-01 8.934726e-01 4.464664e-01 8.938263e-01 4.005536e-01 4.201622e-01 2.987095e-01 2.439637e-01 1.778431e+00
<GCONST> 1.260291e+02
<TRANSP> 5
 0.000000e+00 1.000000e+00 0.000000e+00 0.000000e+00 0.000000e+00
 0.000000e+00 7.463602e-01 2.536398e-01 0.000000e+00 0.000000e+00
 0.000000e+00 0.000000e+00 7.463596e-01 2.536404e-01 0.000000e+00
 0.000000e+00 0.000000e+00 0.000000e+00 8.804079e-01 1.195921e-01
 0.000000e+00 0.000000e+00 0.000000e+00 0.000000e+00 0.000000e+00
<ENDHMM>
~h "s"
<BEGINHMM>
<NUMSTATES> 5
<STATE> 2
<MEAN> 39
 -1.784139e+01 -7.048779e+00 1.056452e+00 1.250150e+00 9.493315e-01 6.470155e+00 -1.291899e+00 -1.351343e+00 -4.298822e+00 -2.000195e+00 -2.834899e+00 -1.840713e+00 6.011089e+01 -6.941241e-02 -5.222302e-02 6.415603e-02 -7.456341e-02 3.972262e-02 -7.931056e-03 2.519888e-02 -1.097126e-02 1.191542e-02 -9.422713e-03 1.732157e-02 2.720129e-02 4.977354e-02 2.773857e-03 1.527580e-03 -2.315432e-03 2.360712e-03 -3.795616e-03 1.350394e-03 -2.398272e-03 1.704771e-03 -3.793075e-04 6.226836e-04 2.552141e-04 -6.675199e-04 -2.853825e-03
<VARIANCE> 39
 7.758478e+01 1.250649e+02 5.884701e+01 1.082653e+02 7.376765e+01 7.954875e+01 5.196081e+01 8.553838e+01 3.012728e+01 2.909287e+01 2.701656e+01 2.313042e+01 1.729231e+02 2.477597e+00 6.278498e+00 2.414426e+00 5.083332e+00 4.401141e+00 5.669439e+00 3.217848e+00 5.791377e+00 2.347038e+00 2.126492e+00 1.764618e+00 1.540379e+00 9.400543e+00 2.828808e-01 9.088708e-01 3.721787e-01 6.735445e-01 6.660298e-01 9.142557e-01 5.608302e-01 9.575829e-01 4.467516e-01 4.031103e-01 3.392796e-01 3.085557e-01 1.250707e+00
<GCONST> 1.336953e+02
<STATE> 3
<MEAN> 39
 -1.806392e+01 -7.242530e+00 1.277491e+00 9.906356e-01 1.070998e+00 6.438449e+00 -1.213258e+00 -1.384650e+00 -4.256530e+00 -2.029069e+00 -2.773864e+00 -1.745798e+00 6.029457e+01 -5.626059e-02 -4.715261e-02 5.524549e-02 -6.492392e-02 2.727064e-02 -4.394140e-03 1.771224e-02 -5.697250e-03 9.516857e-03 -7.614056e-03 1.637672e-02 2.384373e-02 4.204272e-02 4.402494e-03 1.849846e-03 -3.256010e-03 3.039344e-03 -3.724414e-03 5.752638e-04 -2.419294e-03 1.106809e-03 -5.973266e-04 6.206770e-04 -3.306589e-04 -1.247144e-03 -2.144148e-03
<VARIANCE> 39
 7.701259e+01 1.238373e+02 5.930160e+01 1.089121e+02 7.459183e+01 8.015520e+01 5.182456e+01 8.506590e+01 3.009463e+01 2.903154e+01 2.702933e+01 2.308614e+01 1.713257e+02 2.500441e+00 6.277325e+00 2.422506e+00 5.089073e+00 4.448709e+00 5.706631e+00 3.200762e+00 5.781091e+00 2.331865e+00 2.123047e+00 1.762733e+00 1.531627e+00 9.306541e+00 2.852891e-01 9.062815e-01 3.702885e-01 6.680285e-01 6.712843e-01 9.185534e-01 5.565599e-01 9.562454e-01 4.433594e-01 4.016933e-01 3.388852e-01 3.064421e-01 1.225523e+00
<GCONST> 1.336433e+02
<STATE> 4
<MEAN> 39
 -1.824201e+01 -7.204520e+00 1.493907e+00 9.181387e-01 7.711011e-01 6.528274e+00 -1.511830e+00 -1.455758e+00 -4.212228e+00 -1.972878e+00 -2.690423e+00 -1.783098e+00 6.020885e+01 -2.660213e-02 -3.595058e-02 3.545138e-02 -4.266196e-02 9.967290e-03 -1.674386e-03 6.104587e-03 -1.082356e-03 5.562401e-03 -3.917323e-03 9.828238e-03 1.469164e-02 3.235151e-02 4.866009e-03 2.382196e-03 -3.532769e-03 3.597492e-03 -3.224332e-03 6.375693e-04 -2.178857e-03 7.548578e-04 -6.955425e-04 6.488730e-04 -9.417608e-04 -1.628985e-03 -2.116204e-03
<VARIANCE> 39
 7.490528e+01 1.238510e+02 5.983910e+01 1.088054e+02 7.340001e+01 7.786015e+01 5.042167e+01 8.395632e+01 2.905469e+01 2.797072e+01 2.639760e+01 2.249692e+01 1.711218e+02 2.346460e+00 6.098220e+00 2.300913e+00 4.792790e+00 4.203593e+00 5.351187e+00 3.030826e+00 5.553750e+00 2.217853e+00 2.036593e+00 1.706275e+00 1.464069e+00 8.900150e+00 2.640033e-01 8.781493e-01 3.448289e-01 6.171929e-01 6.318656e-01 8.548864e-01 5.253718e-01 9.184540e-01 4.216914e-01 3.866389e-01 3.244101e-01 2.904570e-01 1.149441e+00
<GCONST> 1.320419e+02
<TRANSP> 5
 0.000000e+00 1.000000e+00 0.000000e+00 0.000000e+00 0.000000e+00
 0.000000e+00 7.342215e-01 2.657785e-01 0.000000e+00 0.000000e+00
 0.000000e+00 0.000000e+00 7.342200e-01 2.657800e-01 0.000000e+00
 0.000000e+00 0.000000e+00 0.000000e+00 8.681192e-01 1.318809e-01
 0.000000e+00 0.000000e+00 0.000000e+00 0.000000e+00 0.000000e+00
<ENDHMM>
~h "sil"
<BEGINHMM>
<NUMSTATES> 5
<STATE> 2
<MEAN> 39
 -1.684493e+01 -3.333260e+00 -1.376641e+00 3.910645e+00 -1.281273e+00 8.375985e+00 -3.147184e+00 7.377434e-01 -4.055732e+00 -1.211832e+00 -2.679392e+00 -2.413126e+00 5.524772e+01 8.562309e-02 -2.611504e-02 7.111192e-03 4.394984e-02 -2.379811e-02 -2.905134e-03 3.901869e-02 1.612539e-02 -2.596968e-02 2.879275e-03 5.139294e-03 -8.661890e-04 6.170145e-02 3.379862e-03 -2.541724e-03 -2.057936e-04 2.795548e-03 3.582019e-05 -1.149812e-03 1.503422e-03 9.604563e-04 1.636611e-03 -2.211544e-04 -1.368780e-04 -1.546113e-03 3.629500e-03
<VARIANCE> 39
 8.241222e+01 1.338815e+02 4.980949e+01 8.629076e+01 5.146408e+01 6.608172e+01 4.687352e+01 8.442956e+01 2.841889e+01 2.709210e+01 2.314185e+01 1.995066e+01 2.193498e+02 1.999488e+00 5.060342e+00 1.801768e+00 3.953440e+00 3.217333e+00 4.761769e+00 2.503103e+00 5.091601e+00 2.142803e+00 1.938056e+00 1.565066e+00 1.286122e+00 9.006738e+00 2.440317e-01 7.411855e-01 2.899771e-01 5.625870e-01 5.295746e-01 8.033413e-01 4.520229e-01 8.543276e-01 4.139580e-01 3.678597e-01 3.031296e-01 2.559371e-01 1.313160e+00
<GCONST> 1.283169e+02
<STATE> 3
<MEAN> 39
 -1.642274e+01 -3.496526e+00 -1.337277e+00 4.132285e+00 -1.382624e+00 8.348380e+00 -2.952641e+00 8.075398e-01 -4.168042e+00 -1.214648e+00 -2.654132e+00 -2.429238e+00 5.558644e+01 1.061665e-01 -4.070168e-02 9.710271e-03 5.742337e-02 -2.420323e-02 -5.207393e-03 4.915105e-02 1.934179e-02 -2.502868e-02 3.440060e-04 7.328129e-03 -3.303248e-03 8.452170e-02 5.157676e-03 -3.998784e-03 7.170881e-04 3.159049e-03 -1.225727e-04 -5.014719e-04 2.410425e-03 5.795114e-04 3.078644e-04 -3.137040e-04 6.651506e-04 -1.122361e-04 5.871427e-03
<VARIANCE> 39
 7.415131e+01 1.285780e+02 4.894857e+01 8.621503e+01 5.196046e+01 6.577204e+01 4.494398e+01 8.515591e+01 2.819411e+01 2.720725e+01 2.335166e+01 2.007885e+01 2.031207e+02 2.127301e+00 5.111477e+00 1.814692e+00 3.984352e+00 3.225908e+00 4.773240e+00 2.549371e+00 5.107231e+00 2.174823e+00 1.949881e+00 1.588246e+00 1.299993e+00 9.126754e+00 2.617384e-01 7.509683e-01 2.928711e-01 5.692820e-01 5.325796e-01 8.077813e-01 4.605302e-01 8.599278e-01 4.212990e-01 3.721613e-01 3.091766e-01 2.597930e-01 1.332564e+00
<GCONST> 1.284516e+02
<STATE> 4
<MEAN> 39
 -1.575614e+01 -3.400097e+00 -1.263886e+00 4.666406e+00 -1.735157e+00 8.301832e+00 -2.977215e+00 8.048167e-01 -4.365399e+00 -1.256407e+00 -2.721180e+00 -2.637310e+00 5.584745e+01 6.497303e-02 -2.187652e-02 8.982695e-03 3.585624e-02 -1.161725e-02 -1.002624e-03 3.056882e-02 1.357930e-02 -1.232078e-02 -5.455114e-04 1.762571e-03 -3.599985e-03 5.085901e-02 -4.217153e-03 1.605674e-03 -6.678550e-04 -2.999904e-03 1.157601e-03 -3.346291e-04 -2.353084e-03 -8.913168e-04 1.568960e-03 3.746990e-04 -1.290116e-03 -6.994229e-04 -3.426526e-03
<VARIANCE> 39
 6.228359e+01 1.210062e+02 4.726694e+01 8.492290e+01 5.123434e+01 6.264820e+01 4.123038e+01 8.475909e+01 2.738953e+01 2.638247e+01 2.293667e+01 1.995161e+01 1.790606e+02 1.843358e+00 4.877292e+00 1.739376e+00 3.733861e+00 3.078281e+00 4.459064e+00 2.458068e+00 4.937382e+00 2.123049e+00 1.884843e+00 1.550527e+00 1.271785e+00 8.694265e+00 2.195597e-01 7.150639e-01 2.798527e-01 5.325465e-01 5.102743e-01 7.539706e-01 4.448687e-01 8.318359e-01 4.104169e-01 3.600486e-01 2.999041e-01 2.521165e-01 1.265038e+00
<GCONST> 1.264793e+02
<TRANSP> 5
 0.000000e+00 1.000000e+00 0.000000e+00 0.000000e+00 0.000000e+00
 0.000000e+00 7.436984e-01 2.563016e-01 0.000000e+00 0.000000e+00
 0.000000e+00 0.000000e+00 7.436985e-01 2.563015e-01 0.000000e+00
 0.000000e+00 0.000000e+00 0.000000e+00 8.775568e-01 1.224433e-01
 0.000000e+00 0.000000e+00 0.000000e+00 0.000000e+00 0.000000e+00
<ENDHMM>
