~o
<STREAMINFO> 1 39
<VECSIZE> 39<NULLD><MFCC_D_A_0><DIAGC>
~h "k"
<BEGINHMM>
<NUMSTATES> 5
<STATE> 2
<MEAN> 39
 -1.381817e+01 -5.980855e+00 -3.609004e+00 3.557641e+00 -2.171806e+00 6.935457e+00 -4.136684e+00 -9.882006e-01 -3.769930e+00 1.374888e-02 -2.314299e+00 -2.788524e+00 5.831831e+01 1.443024e-02 -6.262279e-02 -2.449416e-02 3.067212e-03 9.980253e-03 -1.948019e-02 -2.341708e-02 -5.550355e-02 8.212568e-03 2.874203e-02 -1.034085e-02 -1.560966e-02 4.062423e-02 -1.424470e-03 1.258737e-03 1.065072e-03 -4.828271e-04 1.527687e-04 -1.572792e-04 4.657063e-04 7.845528e-04 3.635806e-04 -9.968703e-04 9.236493e-05 3.170091e-04 -8.939606e-04
<VARIANCE> 39
 4.609165e+01 1.329833e+02 4.814634e+01 7.314120e+01 5.363215e+01 7.270010e+01 4.078487e+01 1.096435e+02 2.835665e+01 2.892527e+01 2.276339e+01 2.075950e+01 1.720152e+02 1.498082e+00 7.058433e+00 2.080769e+00 4.093813e+00 3.872814e+00 5.679705e+00 2.542533e+00 7.147740e+00 2.445009e+00 2.174228e+00 1.671672e+00 1.476888e+00 1.149083e+01 1.831511e-01 1.048511e+00 3.365578e-01 5.981137e-01 6.533649e-01 9.562664e-01 4.619442e-01 1.165173e+00 4.816058e-01 4.265469e-01 3.300578e-01 2.984655e-01 1.735712e+00
<GCONST> 1.310699e+02
<STATE> 3
<MEAN> 39
 -1.376764e+01 -6.216777e+00 -3.694801e+00 3.563286e+00 -2.132795e+00 6.861515e+00 -4.222084e+00 -1.195969e+00 -3.738840e+00 1.148019e-01 -2.351862e+00 -2.850443e+00 5.847663e+01 1.053049e-02 -5.721376e-02 -2.079181e-02 1.164189e-03 1.019334e-02 -1.929637e-02 -2.183388e-02 -5.130225e-02 9.332728e-03 2.515278e-02 -9.522193e-03 -1.402683e-02 3.727469e-02 -1.323040e-03 1.879594e-03 1.589699e-03 -5.888766e-04 1.485694e-04 4.795425e-04 8.701885e-04 1.717687e-03 5.122961e-05 -1.335661e-03 2.659543e-04 4.967958e-04 -1.181317e-03
<VARIANCE> 39
 4.482380e+01 1.338851e+02 4.701573e+01 7.290588e+01 5.282905e+01 7.301749e+01 4.082935e+01 1.109356e+02 2.859924e+01 2.898910e+01 2.282854e+01 2.072204e+01 1.730818e+02 1.482696e+00 7.171907e+00 2.066810e+00 4.141733e+00 3.867342e+00 5.694061e+00 2.560563e+00 7.276982e+00 2.474678e+00 2.181054e+00 1.680593e+00 1.488277e+00 1.168887e+01 1.816087e-01 1.061928e+00 3.338987e-01 6.046853e-01 6.520886e-01 9.549042e-01 4.645779e-01 1.181132e+00 4.884380e-01 4.278785e-01 3.314360e-01 3.007129e-01 1.763995e+00
<GCONST> 1.311919e+02
<STATE> 4
<MEAN> 39
 -1.376968e+01 -6.283588e+00 -3.778702e+00 3.703976e+00 -2.211951e+00 6.774109e+00 -4.471253e+00 -1.467259e+00 -3.742982e+00 2.090816e-01 -2.475960e+00 -3.029629e+00 5.844001e+01 5.831631e-03 -4.094387e-02 -1.390623e-02 -2.097802e-03 8.145116e-03 -1.483752e-02 -1.682006e-02 -3.768766e-02 8.251296e-03 1.790136e-02 -6.536857e-03 -1.036110e-02 2.750227e-02 -1.075643e-03 2.716992e-03 1.482593e-03 -3.631282e-04 -1.359992e-04 1.087550e-03 1.017607e-03 2.477018e-03 -1.964529e-04 -1.189902e-03 3.990618e-04 6.929116e-04 -1.927666e-03
<VARIANCE> 39
 4.331955e+01 1.338052e+02 4.552354e+01 7.227880e+01 5.107261e+01 7.107726e+01 4.052455e+01 1.105980e+02 2.865381e+01 2.870531e+01 2.260889e+01 2.041308e+01 1.734016e+02 1.424893e+00 7.078621e+00 1.991037e+00 4.047414e+00 3.783636e+00 5.461259e+00 2.542033e+00 7.216080e+00 2.472857e+00 2.148351e+00 1.664776e+00 1.469273e+00 1.161418e+01 1.742962e-01 1.042083e+00 3.210805e-01 5.876981e-01 6.374280e-01 9.113515e-01 4.609644e-01 1.165014e+00 4.897356e-01 4.221523e-01 3.273417e-01 2.961750e-01 1.745603e+00
<GCONST> 1.305096e+02
<TRANSP> 5
 0.000000e+00 1.000000e+00 0.000000e+00 0.000000e+00 0.000000e+00
 0.000000e+00 7.501401e-01 2.498598e-01 0.000000e+00 0.000000e+00
 0.000000e+00 0.000000e+00 7.501400e-01 2.498600e-01 0.000000e+00
 0.000000e+00 0.000000e+00 0.000000e+00 8.804269e-01 1.195731e-01
 0.000000e+00 0.000000e+00 0.000000e+00 0.000000e+00 0.000000e+00
<ENDHMM>
~h "p"
<BEGINHMM>
<NUMSTATES> 5
<STATE> 2
<MEAN> 39
 -1.200823e+01 -2.174446e+00 -2.653989e+00 5.587950e+00 -3.180364e+00 7.422532e+00 -3.991215e+00 1.589894e+00 -4.401529e+00 -1.685278e+00 -3.035202e+00 -3.332443e+00 5.651950e+01 6.734912e-02 2.582220e-02 1.126015e-02 2.924695e-02 -2.074331e-03 3.160313e-03 1.209486e-02 7.550489e-03 -1.788348e-02 -2.496805e-02 -1.682436e-02 -1.538434e-02 3.009474e-02 -3.467243e-03 5.799018e-04 -1.134181e-03 -1.605630e-03 1.525829e-03 -7.264171e-04 -1.016632e-03 -6.208328e-04 7.846674e-04 4.589822e-04 -4.913629e-06 3.885145e-04 -2.250835e-03
<VARIANCE> 39
 5.345003e+01 9.193922e+01 5.237144e+01 6.213857e+01 4.853407e+01 5.694260e+01 3.497990e+01 6.862917e+01 2.680415e+01 2.942431e+01 2.155338e+01 1.825851e+01 1.454358e+02 1.679589e+00 4.684249e+00 2.481664e+00 3.435940e+00 3.898481e+00 4.887830e+00 2.304502e+00 5.179890e+00 2.173867e+00 2.440926e+00 1.596740e+00 1.348537e+00 1.084476e+01 1.997419e-01 7.271111e-01 4.200745e-01 5.574490e-01 7.086484e-01 9.106645e-01 4.389195e-01 9.455409e-01 4.259626e-01 4.769507e-01 3.151505e-01 2.704284e-01 1.818534e+00
<GCONST> 1.278937e+02
<STATE> 3
<MEAN> 39
 -1.178386e+01 -2.059397e+00 -2.618762e+00 5.698398e+00 -3.178537e+00 7.445072e+00 -3.956436e+00 1.622098e+00 -4.461417e+00 -1.772356e+00 -3.096030e+00 -3.385944e+00 5.659689e+01 5.612484e-02 2.556503e-02 7.631596e-03 2.594194e-02 1.689729e-03 2.489349e-03 1.115289e-02 7.083385e-03 -1.534708e-02 -2.184788e-02 -1.575228e-02 -1.425345e-02 2.298423e-02 -3.501435e-03 -5.893272e-04 -8.541373e-04 -1.317334e-03 1.364926e-03 -4.565857e-04 -3.111227e-04 -4.257681e-04 7.427658e-04 9.620856e-04 2.317573e-04 4.052939e-04 -1.679149e-03
<VARIANCE> 39
 5.285940e+01 9.069524e+01 5.147364e+01 6.113665e+01 4.775837e+01 5.689700e+01 3.490324e+01 6.788759e+01 2.679522e+01 2.956570e+01 2.158559e+01 1.820152e+01 1.442573e+02 1.662869e+00 4.668573e+00 2.492751e+00 3.427240e+00 3.909535e+00 4.936150e+00 2.301321e+00 5.187500e+00 2.174032e+00 2.463401e+00 1.596343e+00 1.351398e+00 1.097349e+01 1.956732e-01 7.255853e-01 4.244542e-01 5.580252e-01 7.135127e-01 9.227232e-01 4.396147e-01 9.498380e-01 4.253762e-01 4.811897e-01 3.151703e-01 2.709420e-01 1.848249e+00
<GCONST> 1.278649e+02
<STATE> 4
<MEAN> 39
 -1.155236e+01 -1.624632e+00 -2.627953e+00 6.019802e+00 -3.307236e+00 7.487485e+00 -4.119739e+00 1.616948e+00 -4.554359e+00 -1.833632e+00 -3.217807e+00 -3.555977e+00 5.638461e+01 3.185387e-02 2.066406e-02 3.884891e-03 1.930822e-02 5.307990e-03 5.302686e-03 1.001101e-02 6.259437e-03 -9.994673e-03 -1.311175e-02 -1.034808e-02 -1.031670e-02 9.110576e-03 -3.592579e-03 -1.441334e-03 -5.779759e-04 -1.434781e-03 8.252455e-04 -1.491639e-04 8.743364e-05 -4.254061e-04 7.503849e-04 1.316138e-03 6.268782e-04 5.755525e-04 -1.267890e-03
<VARIANCE> 39
 5.169730e+01 8.944124e+01 4.964832e+01 5.931367e+01 4.578083e+01 5.436038e+01 3.392514e+01 6.604684e+01 2.616195e+01 2.870836e+01 2.096487e+01 1.786673e+01 1.412093e+02 1.560232e+00 4.517522e+00 2.437992e+00 3.260745e+00 3.790304e+00 4.699220e+00 2.261351e+00 5.055490e+00 2.103921e+00 2.391290e+00 1.554299e+00 1.324987e+00 1.072253e+01 1.793236e-01 7.025595e-01 4.173554e-01 5.310928e-01 6.954039e-01 8.830032e-01 4.329542e-01 9.297248e-01 4.109099e-01 4.674586e-01 3.069795e-01 2.648789e-01 1.811142e+00
<GCONST> 1.266469e+02
<TRANSP> 5
 0.000000e+00 1.000000e+00 0.000000e+00 0.000000e+00 0.000000e+00
 0.000000e+00 7.513403e-01 2.486597e-01 0.000000e+00 0.000000e+00
 0.000000e+00 0.000000e+00 7.513404e-01 2.486596e-01 0.000000e+00
 0.000000e+00 0.000000e+00 0.000000e+00 8.826385e-01 1.173615e-01
 0.000000e+00 0.000000e+00 0.000000e+00 0.000000e+00 0.000000e+00
<ENDHMM>
~h "s"
<BEGINHMM>
<NUMSTATES> 5
<STATE> 2
<MEAN> 39
 -1.681576e+01 -6.294201e+00 -6.639035e-01 1.227327e+00 -3.812253e-01 6.059870e+00 -2.420706e+00 -6.647317e-01 -3.906983e+00 -1.564582e+00 -2.389171e+00 -1.961532e+00 5.928878e+01 -6.795000e-02 -5.235175e-02 6.668101e-02 -7.286780e-02 4.023416e-02 -1.084937e-02 2.652066e-02 -1.350262e-02 1.116117e-02 -9.823508e-03 1.511169e-02 2.518677e-02 5.184609e-02 1.952069e-03 1.457276e-03 -1.588598e-03 1.758318e-03 -2.934376e-03 1.183937e-03 -1.715719e-03 1.506368e-03 -1.736016e-04 5.525629e-04 1.542206e-04 -4.683232e-04 -2.484246e-03
<VARIANCE> 39
 7.673095e+01 1.189415e+02 6.885333e+01 9.673598e+01 7.835616e+01 7.166446e+01 5.018407e+01 8.086681e+01 2.790891e+01 2.869397e+01 2.468670e+01 2.124756e+01 1.641954e+02 2.443952e+00 5.921533e+00 2.607206e+00 4.604754e+00 4.529560e+00 5.274406e+00 3.033191e+00 5.614825e+00 2.251094e+00 2.161203e+00 1.740009e+00 1.512239e+00 9.070472e+00 2.796250e-01 8.581331e-01 3.974497e-01 6.172941e-01 6.894032e-01 8.652751e-01 5.340900e-01 9.456970e-01 4.350331e-01 4.118798e-01 3.389227e-01 3.032697e-01 1.228717e+00
<GCONST> 1.326912e+02
<STATE> 3
<MEAN> 39
 -1.705161e+01 -6.492764e+00 -4.166627e-01 9.601200e-01 -2.455013e-01 6.017657e+00 -2.328302e+00 -7.084327e-01 -3.864055e+00 -1.596249e+00 -2.335141e+00 -1.871274e+00 5.948565e+01 -5.785481e-02 -4.730587e-02 6.056659e-02 -6.524813e-02 3.039263e-02 -7.584986e-03 2.141589e-02 -8.247633e-03 9.773327e-03 -8.087385e-03 1.421917e-02 2.243364e-02 4.502938e-02 3.462579e-03 1.725256e-03 -2.374924e-03 2.479476e-03 -2.951135e-03 6.131761e-04 -1.733610e-03 1.177664e-03 -3.741852e-04 5.773837e-04 -3.268326e-04 -1.031068e-03 -1.899687e-03
<VARIANCE> 39
 7.683356e+01 1.181144e+02 6.966965e+01 9.766932e+01 7.941801e+01 7.229223e+01 5.023639e+01 8.051767e+01 2.786645e+01 2.862426e+01 2.470587e+01 2.122922e+01 1.630675e+02 2.494670e+00 5.925494e+00 2.638443e+00 4.627997e+00 4.589587e+00 5.306085e+00 3.037904e+00 5.606166e+00 2.237788e+00 2.159823e+00 1.741601e+00 1.507047e+00 8.977228e+00 2.847077e-01 8.555982e-01 3.982593e-01 6.147674e-01 6.945959e-01 8.678545e-01 5.335682e-01 9.435053e-01 4.320351e-01 4.108590e-01 3.392365e-01 3.020335e-01 1.201438e+00
<GCONST> 1.327379e+02
<STATE> 4
<MEAN> 39
 -1.728406e+01 -6.541797e+00 -1.791553e-01 7.783153e-01 -4.300883e-01 6.053393e+00 -2.513379e+00 -7.506418e-01 -3.801091e+00 -1.547555e+00 -2.249349e+00 -1.867160e+00 5.948384e+01 -3.423630e-02 -3.755498e-02 4.648061e-02 -4.725184e-02 1.734600e-02 -5.078893e-03 1.291811e-02 -3.171540e-03 7.300919e-03 -4.879925e-03 8.891569e-03 1.479862e-02 3.734795e-02 4.109417e-03 2.124088e-03 -2.834970e-03 3.123656e-03 -2.632857e-03 6.407335e-04 -1.741220e-03 8.331831e-04 -4.955644e-04 5.590790e-04 -7.947491e-04 -1.350023e-03 -1.837076e-03
<VARIANCE> 39
 7.573416e+01 1.176510e+02 7.060858e+01 9.795815e+01 7.852285e+01 7.080911e+01 4.848075e+01 7.972278e+01 2.701325e+01 2.775938e+01 2.418730e+01 2.067268e+01 1.625059e+02 2.426616e+00 5.786079e+00 2.599197e+00 4.433214e+00 4.458980e+00 5.056496e+00 2.929103e+00 5.438919e+00 2.157625e+00 2.099382e+00 1.708663e+00 1.456279e+00 8.642849e+00 2.733653e-01 8.321350e-01 3.849507e-01 5.797390e-01 6.697931e-01 8.218532e-01 5.132630e-01 9.147673e-01 4.172844e-01 4.001581e-01 3.306636e-01 2.903331e-01 1.132913e+00
<GCONST> 1.316293e+02
<TRANSP> 5
 0.000000e+00 1.000000e+00 0.000000e+00 0.000000e+00 0.000000e+00
 0.000000e+00 7.413687e-01 2.586313e-01 0.000000e+00 0.000000e+00
 0.000000e+00 0.000000e+00 7.413668e-01 2.586332e-01 0.000000e+00
 0.000000e+00 0.000000e+00 0.000000e+00 8.734438e-01 1.265562e-01
 0.000000e+00 0.000000e+00 0.000000e+00 0.000000e+00 0.000000e+00
<ENDHMM>
~h "sil"
<BEGINHMM>
<NUMSTATES> 5
<STATE> 2
<MEAN> 39
 -1.587002e+01 -2.481659e+00 -3.457015e+00 3.578064e+00 -2.698457e+00 7.648582e+00 -4.524002e+00 1.264400e+00 -3.577018e+00 -7.199186e-01 -2.232630e+00 -2.479291e+00 5.433040e+01 8.376434e-02 -2.109352e-02 -5.408692e-03 3.593442e-02 -3.069326e-02 -1.079136e-02 2.766366e-02 1.631536e-02 -2.177789e-02 2.942288e-03 7.502783e-03 -1.281105e-03 5.518787e-02 -1.518398e-03 -1.392907e-03 -1.691504e-04 1.419960e-03 1.188611e-03 -3.061041e-04 5.289363e-04 8.308083e-04 9.499306e-04 -2.555290e-04 7.255633e-05 -3.934954e-04 -4.008243e-04
<VARIANCE> 39
 8.570956e+01 1.219104e+02 5.623228e+01 7.087695e+01 5.499160e+01 5.862633e+01 4.382676e+01 7.561913e+01 2.570991e+01 2.579544e+01 2.047275e+01 1.774287e+01 2.047073e+02 2.095915e+00 4.755575e+00 1.966022e+00 3.413608e+00 3.401728e+00 4.308639e+00 2.320626e+00 4.802949e+00 2.038375e+00 1.952435e+00 1.519589e+00 1.279407e+00 8.507413e+00 2.615012e-01 7.114992e-01 3.152288e-01 5.019213e-01 5.661941e-01 7.467189e-01 4.231717e-01 8.243426e-01 4.013408e-01 3.785450e-01 2.996247e-01 2.573377e-01 1.278353e+00
<GCONST> 1.269651e+02
<STATE> 3
<MEAN> 39
 -1.543444e+01 -2.636207e+00 -3.476610e+00 3.767108e+00 -2.836639e+00 7.585160e+00 -4.371861e+00 1.334738e+00 -3.678387e+00 -7.135332e-01 -2.195549e+00 -2.492545e+00 5.465794e+01 8.874165e-02 -3.044723e-02 -2.424209e-03 4.432124e-02 -2.707984e-02 -9.346818e-03 3.356633e-02 1.699162e-02 -2.078419e-02 1.369411e-03 8.560248e-03 -1.198012e-03 6.444247e-02 2.799508e-03 -2.984288e-03 1.266036e-03 2.419156e-03 7.825657e-04 4.923918e-04 1.651987e-03 -1.194447e-04 3.648597e-04 -1.038000e-04 3.080033e-04 3.157058e-04 3.837279e-03
<VARIANCE> 39
 7.666779e+01 1.170270e+02 5.622087e+01 7.080385e+01 5.553404e+01 5.808358e+01 4.257692e+01 7.601348e+01 2.554248e+01 2.588075e+01 2.072025e+01 1.786458e+01 1.890275e+02 2.422684e+00 4.840669e+00 1.977121e+00 3.453452e+00 3.426005e+00 4.334237e+00 2.368218e+00 4.804603e+00 2.072334e+00 1.962301e+00 1.545975e+00 1.294752e+00 8.754867e+00 3.018960e-01 7.254451e-01 3.183027e-01 5.100075e-01 5.715379e-01 7.527459e-01 4.319366e-01 8.271854e-01 4.087455e-01 3.822659e-01 3.064772e-01 2.614840e-01 1.310114e+00
<GCONST> 1.273385e+02
<STATE> 4
<MEAN> 39
 -1.487851e+01 -2.602776e+00 -3.501343e+00 4.163278e+00 -3.150601e+00 7.539983e+00 -4.362452e+00 1.383681e+00 -3.834419e+00 -7.267185e-01 -2.214195e+00 -2.617788e+00 5.486859e+01 2.589784e-02 -1.932600e-03 3.854410e-03 2.271959e-02 -5.192866e-03 5.082595e-03 1.361630e-02 9.989111e-03 -7.142342e-03 -8.023127e-04 1.539838e-03 2.192701e-04 1.181222e-02 -9.912906e-04 5.766424e-04 -3.847355e-04 -1.823748e-03 5.619873e-04 -6.699818e-04 -1.400273e-03 -7.898411e-04 5.149440e-04 3.698521e-04 -4.353033e-04 -5.299103e-04 -5.717129e-04
<VARIANCE> 39
 6.533778e+01 1.103229e+02 5.562766e+01 6.993680e+01 5.462746e+01 5.546359e+01 3.959882e+01 7.539999e+01 2.500930e+01 2.532044e+01 2.048663e+01 1.773823e+01 1.686404e+02 2.175628e+00 4.638512e+00 1.920297e+00 3.278300e+00 3.305457e+00 4.109111e+00 2.303932e+00 4.665725e+00 2.044264e+00 1.917860e+00 1.520918e+00 1.277314e+00 8.365386e+00 2.702218e-01 6.951109e-01 3.092009e-01 4.849186e-01 5.540032e-01 7.152787e-01 4.213679e-01 8.040274e-01 4.032030e-01 3.739759e-01 3.004943e-01 2.566635e-01 1.252094e+00
<GCONST> 1.258009e+02
<TRANSP> 5
 0.000000e+00 1.000000e+00 0.000000e+00 0.000000e+00 0.000000e+00
 0.000000e+00 7.498310e-01 2.501690e-01 0.000000e+00 0.000000e+00
 0.000000e+00 0.000000e+00 7.498335e-01 2.501665e-01 0.000000e+00
 0.000000e+00 0.000000e+00 0.000000e+00 8.812659e-01 1.187340e-01
 0.000000e+00 0.000000e+00 0.000000e+00 0.000000e+00 0.000000e+00
<ENDHMM>
