~o
<STREAMINFO> 1 39
<VECSIZE> 39<NULLD><MFCC_D_A_0><DIAGC>
~s "silst"
<NUMMIXES> 16
<MIXTURE> 1 2.363551e-05
<MEAN> 39
 -1.437978e+01 5.856252e-01 -2.601534e+00 7.884089e+00 -6.145887e+00 1.308361e+01 -2.582160e+00 3.728268e+00 -7.884513e+00 -2.071611e+00 -2.504412e+00 -1.747197e+00 4.963133e+01 1.756272e-01 4.804765e-01 -3.855598e-02 2.021240e+00 1.203066e+00 1.727056e+00 2.652829e+00 2.776065e+00 2.681648e+00 1.723446e+00 5.869688e-01 1.423587e-01 -5.446104e-01 -3.171598e-01 4.574013e-02 5.575687e-02 -1.444198e-01 4.912792e-01 1.560337e-01 2.483874e-01 4.506299e-01 6.503193e-01 4.898449e-01 2.811235e-01 1.547719e-01 -8.359140e-02
<VARIANCE> 39
 2.152470e+01 2.468354e+01 6.233912e+01 1.875000e+01 1.869887e+01 3.385145e+01 3.400885e+01 3.264389e+01 3.838771e+01 2.933896e+01 2.268362e+01 1.854580e+01 4.194430e+01 7.616282e+00 7.015093e+00 2.208768e+00 2.469535e+00 3.262635e+00 4.380596e+00 2.356916e+00 3.997402e+00 4.795899e+00 2.486384e+00 1.937016e+00 2.873472e+00 7.729660e+00 1.833187e-01 4.611806e-01 2.933245e-01 3.675190e-01 3.594628e-01 5.672008e-01 4.294701e-01 5.075588e-01 9.146381e-01 6.690505e-01 4.839273e-01 3.647367e-01 2.460697e-01
<GCONST> 1.206626e+02
<MIXTURE> 2 1.902858e-02
<MEAN> 39
 -1.493057e+01 -9.901068e-01 -2.671247e+00 8.239616e+00 -5.892360e+00 1.353358e+01 -1.467034e+00 5.092105e+00 -6.721485e+00 -3.476014e-01 -1.490911e+00 -1.665208e+00 4.986919e+01 5.785789e-01 1.908092e-01 -2.022899e-01 1.488873e+00 3.683925e-01 7.859601e-01 1.485354e+00 1.555969e+00 1.207959e+00 9.453120e-01 6.280239e-01 1.415854e-01 -8.080357e-02 -2.781708e-01 9.678882e-02 7.266171e-02 -2.067932e-01 3.879712e-01 2.214938e-02 2.180587e-02 1.629385e-01 4.072784e-01 1.582099e-01 3.337291e-02 1.250049e-01 -7.234736e-02
<VARIANCE> 39
 2.786983e+01 3.968980e+01 5.830179e+01 3.590911e+01 2.870563e+01 5.213940e+01 4.053136e+01 4.111928e+01 4.391224e+01 3.540424e+01 3.511794e+01 2.513718e+01 4.724250e+01 6.001456e+00 6.887778e+00 2.672981e+00 3.761496e+00 3.232894e+00 5.895389e+00 4.239632e+00 4.330717e+00 5.678447e+00 3.276493e+00 2.477706e+00 2.000849e+00 7.604979e+00 2.968720e-01 8.667392e-01 3.650698e-01 5.141171e-01 5.469357e-01 9.065076e-01 6.905726e-01 7.639324e-01 9.657368e-01 6.603640e-01 6.051988e-01 3.871769e-01 4.289027e-01
<GCONST> 1.303712e+02
<MIXTURE> 3 1.902858e-02
<MEAN> 39
 -1.493057e+01 -9.901072e-01 -2.671248e+00 8.239615e+00 -5.892360e+00 1.353358e+01 -1.467034e+00 5.092105e+00 -6.721484e+00 -3.476014e-01 -1.490912e+00 -1.665207e+00 4.986919e+01 5.785789e-01 1.908091e-01 -2.022900e-01 1.488873e+00 3.683923e-01 7.859600e-01 1.485354e+00 1.555969e+00 1.207959e+00 9.453121e-01 6.280239e-01 1.415854e-01 -8.080363e-02 -2.781708e-01 9.678882e-02 7.266172e-02 -2.067933e-01 3.879712e-01 2.214935e-02 2.180585e-02 1.629385e-01 4.072784e-01 1.582099e-01 3.337288e-02 1.250050e-01 -7.234736e-02
<VARIANCE> 39
 2.786983e+01 3.968980e+01 5.830180e+01 3.590911e+01 2.870563e+01 5.213941e+01 4.053137e+01 4.111929e+01 4.391224e+01 3.540424e+01 3.511795e+01 2.513718e+01 4.724250e+01 6.001456e+00 6.887778e+00 2.672982e+00 3.761496e+00 3.232894e+00 5.895389e+00 4.239633e+00 4.330717e+00 5.678448e+00 3.276493e+00 2.477706e+00 2.000849e+00 7.604979e+00 2.968720e-01 8.667393e-01 3.650698e-01 5.141172e-01 5.469358e-01 9.065076e-01 6.905727e-01 7.639325e-01 9.657369e-01 6.603641e-01 6.051989e-01 3.871770e-01 4.289028e-01
<GCONST> 1.303712e+02
<MIXTURE> 4 1.401488e-01
<MEAN> 39
 -1.476671e+01 -2.315242e+00 -1.350277e+00 8.059497e+00 -6.291017e+00 1.230868e+01 -1.972457e+00 4.043298e+00 -7.749179e+00 -8.027873e-01 -1.932811e+00 -2.136548e+00 5.128099e+01 6.144717e-01 4.252706e-01 -3.071620e-01 8.616555e-01 -1.903893e-01 8.964281e-02 2.953772e-01 4.526277e-01 1.432913e-01 1.640266e-01 1.513419e-01 -1.399502e-01 -1.224796e-01 -2.909466e-01 1.762082e-01 -6.526766e-02 -2.823285e-01 3.178244e-01 -1.094051e-02 -1.490547e-01 1.992168e-02 3.597417e-01 5.707674e-02 -8.233483e-02 5.686582e-02 -1.587292e-01
<VARIANCE> 39
 2.823180e+01 5.405074e+01 5.874454e+01 5.404313e+01 3.438710e+01 6.879250e+01 4.480276e+01 5.387033e+01 5.063321e+01 4.021750e+01 4.141896e+01 3.119453e+01 5.361885e+01 3.859167e+00 6.473326e+00 2.758834e+00 4.309790e+00 3.578527e+00 5.486001e+00 4.283531e+00 4.449393e+00 5.699781e+00 3.367579e+00 2.964279e+00 2.145948e+00 5.752370e+00 4.663684e-01 1.050571e+00 3.980580e-01 6.670404e-01 6.242908e-01 1.117493e+00 8.187580e-01 9.288290e-01 1.038724e+00 6.813406e-01 6.711928e-01 4.289425e-01 6.726866e-01
<GCONST> 1.349053e+02
<MIXTURE> 5 1.902858e-02
<MEAN> 39
 -1.493057e+01 -9.901072e-01 -2.671248e+00 8.239615e+00 -5.892360e+00 1.353358e+01 -1.467034e+00 5.092105e+00 -6.721484e+00 -3.476014e-01 -1.490912e+00 -1.665207e+00 4.986919e+01 5.785789e-01 1.908091e-01 -2.022900e-01 1.488873e+00 3.683923e-01 7.859600e-01 1.485354e+00 1.555969e+00 1.207959e+00 9.453121e-01 6.280239e-01 1.415854e-01 -8.080363e-02 -2.781708e-01 9.678882e-02 7.266172e-02 -2.067933e-01 3.879712e-01 2.214935e-02 2.180585e-02 1.629385e-01 4.072784e-01 1.582099e-01 3.337288e-02 1.250050e-01 -7.234736e-02
<VARIANCE> 39
 2.786983e+01 3.968980e+01 5.830180e+01 3.590911e+01 2.870563e+01 5.213941e+01 4.053137e+01 4.111929e+01 4.391224e+01 3.540424e+01 3.511795e+01 2.513718e+01 4.724250e+01 6.001456e+00 6.887778e+00 2.672982e+00 3.761496e+00 3.232894e+00 5.895389e+00 4.239633e+00 4.330717e+00 5.678448e+00 3.276493e+00 2.477706e+00 2.000849e+00 7.604979e+00 2.968720e-01 8.667393e-01 3.650698e-01 5.141172e-01 5.469358e-01 9.065076e-01 6.905727e-01 7.639325e-01 9.657369e-01 6.603641e-01 6.051989e-01 3.871770e-01 4.289028e-01
<GCONST> 1.303712e+02
<MIXTURE> 6 1.401488e-01
<MEAN> 39
 -1.476671e+01 -2.315242e+00 -1.350277e+00 8.059497e+00 -6.291017e+00 1.230868e+01 -1.972457e+00 4.043298e+00 -7.749179e+00 -8.027872e-01 -1.932811e+00 -2.136548e+00 5.128099e+01 6.144718e-01 4.252706e-01 -3.071620e-01 8.616555e-01 -1.903893e-01 8.964281e-02 2.953773e-01 4.526278e-01 1.432913e-01 1.640266e-01 1.513419e-01 -1.399502e-01 -1.224796e-01 -2.909466e-01 1.762082e-01 -6.526766e-02 -2.823285e-01 3.178243e-01 -1.094052e-02 -1.490547e-01 1.992168e-02 3.597417e-01 5.707674e-02 -8.233484e-02 5.686582e-02 -1.587292e-01
<VARIANCE> 39
 2.823180e+01 5.405074e+01 5.874454e+01 5.404313e+01 3.438710e+01 6.879250e+01 4.480276e+01 5.387033e+01 5.063321e+01 4.021750e+01 4.141896e+01 3.119453e+01 5.361885e+01 3.859167e+00 6.473326e+00 2.758834e+00 4.309790e+00 3.578527e+00 5.486001e+00 4.283531e+00 4.449393e+00 5.699781e+00 3.367579e+00 2.964279e+00 2.145948e+00 5.752370e+00 4.663684e-01 1.050571e+00 3.980580e-01 6.670404e-01 6.242908e-01 1.117493e+00 8.187580e-01 9.288290e-01 1.038724e+00 6.813406e-01 6.711928e-01 4.289425e-01 6.726866e-01
<GCONST> 1.349053e+02
<MIXTURE> 7 1.401488e-01
<MEAN> 39
 -1.476671e+01 -2.315242e+00 -1.350276e+00 8.059497e+00 -6.291017e+00 1.230868e+01 -1.972457e+00 4.043298e+00 -7.749180e+00 -8.027872e-01 -1.932811e+00 -2.136548e+00 5.128099e+01 6.144718e-01 4.252705e-01 -3.071620e-01 8.616555e-01 -1.903893e-01 8.964279e-02 2.953773e-01 4.526279e-01 1.432912e-01 1.640266e-01 1.513419e-01 -1.399502e-01 -1.224796e-01 -2.909466e-01 1.762082e-01 -6.526767e-02 -2.823285e-01 3.178243e-01 -1.094052e-02 -1.490547e-01 1.992169e-02 3.597417e-01 5.707674e-02 -8.233482e-02 5.686583e-02 -1.587292e-01
<VARIANCE> 39
 2.823180e+01 5.405075e+01 5.874454e+01 5.404313e+01 3.438710e+01 6.879249e+01 4.480276e+01 5.387033e+01 5.063321e+01 4.021750e+01 4.141896e+01 3.119453e+01 5.361885e+01 3.859167e+00 6.473326e+00 2.758834e+00 4.309789e+00 3.578526e+00 5.486001e+00 4.283531e+00 4.449393e+00 5.699781e+00 3.367579e+00 2.964279e+00 2.145948e+00 5.752370e+00 4.663684e-01 1.050571e+00 3.980580e-01 6.670404e-01 6.242907e-01 1.117493e+00 8.187580e-01 9.288291e-01 1.038724e+00 6.813406e-01 6.711928e-01 4.289425e-01 6.726866e-01
<GCONST> 1.349053e+02
<MIXTURE> 8 2.073340e-02
<MEAN> 39
 -1.507046e+01 -2.535892e+00 -7.125778e-01 7.169761e+00 -7.186272e+00 1.010403e+01 -4.207432e+00 1.829471e+00 -8.703573e+00 -2.107574e+00 -2.903143e+00 -2.661329e+00 5.183318e+01 6.515265e-01 5.260419e-01 -2.799824e-01 3.673385e-01 -8.483935e-01 -2.024969e-01 -5.111063e-01 -4.333717e-01 -8.171808e-01 -4.966589e-01 -4.565826e-01 -6.876378e-01 -1.632580e-01 -4.165998e-01 2.919998e-01 -2.052452e-01 -3.929125e-01 2.872981e-01 -1.791388e-02 -2.249153e-01 -5.143672e-03 3.188142e-01 4.086989e-02 -1.501660e-01 3.725424e-03 -3.458261e-01
<VARIANCE> 39
 2.833681e+01 6.718825e+01 6.226939e+01 6.223496e+01 3.780460e+01 5.823393e+01 3.522756e+01 5.194436e+01 5.207944e+01 3.332421e+01 3.662180e+01 2.697967e+01 6.723153e+01 3.752080e+00 5.207662e+00 3.049213e+00 4.273330e+00 3.219570e+00 4.684549e+00 3.575153e+00 4.199613e+00 5.858442e+00 3.581649e+00 2.704434e+00 2.347448e+00 4.732687e+00 6.890393e-01 8.511283e-01 3.853858e-01 6.335580e-01 5.853761e-01 9.847171e-01 7.575449e-01 8.602039e-01 1.031362e+00 5.906461e-01 6.012846e-01 4.397390e-01 8.354186e-01
<GCONST> 1.337433e+02
<MIXTURE> 9 1.902858e-02
<MEAN> 39
 -1.493057e+01 -9.901072e-01 -2.671247e+00 8.239616e+00 -5.892360e+00 1.353358e+01 -1.467034e+00 5.092105e+00 -6.721484e+00 -3.476019e-01 -1.490912e+00 -1.665208e+00 4.986919e+01 5.785788e-01 1.908092e-01 -2.022899e-01 1.488873e+00 3.683925e-01 7.859600e-01 1.485354e+00 1.555969e+00 1.207959e+00 9.453120e-01 6.280237e-01 1.415854e-01 -8.080357e-02 -2.781708e-01 9.678882e-02 7.266167e-02 -2.067933e-01 3.879713e-01 2.214947e-02 2.180591e-02 1.629385e-01 4.072784e-01 1.582100e-01 3.337298e-02 1.250050e-01 -7.234739e-02
<VARIANCE> 39
 2.786983e+01 3.968980e+01 5.830179e+01 3.590912e+01 2.870563e+01 5.213940e+01 4.053136e+01 4.111929e+01 4.391224e+01 3.540424e+01 3.511795e+01 2.513718e+01 4.724250e+01 6.001456e+00 6.887778e+00 2.672981e+00 3.761496e+00 3.232894e+00 5.895390e+00 4.239632e+00 4.330716e+00 5.678449e+00 3.276493e+00 2.477706e+00 2.000849e+00 7.604979e+00 2.968721e-01 8.667392e-01 3.650698e-01 5.141171e-01 5.469357e-01 9.065076e-01 6.905727e-01 7.639325e-01 9.657369e-01 6.603640e-01 6.051990e-01 3.871770e-01 4.289027e-01
<GCONST> 1.303712e+02
<MIXTURE> 10 1.401488e-01
<MEAN> 39
 -1.476671e+01 -2.315242e+00 -1.350276e+00 8.059497e+00 -6.291017e+00 1.230868e+01 -1.972457e+00 4.043298e+00 -7.749180e+00 -8.027872e-01 -1.932811e+00 -2.136548e+00 5.128099e+01 6.144718e-01 4.252705e-01 -3.071620e-01 8.616555e-01 -1.903893e-01 8.964279e-02 2.953773e-01 4.526279e-01 1.432912e-01 1.640266e-01 1.513419e-01 -1.399502e-01 -1.224796e-01 -2.909466e-01 1.762082e-01 -6.526767e-02 -2.823285e-01 3.178243e-01 -1.094052e-02 -1.490547e-01 1.992169e-02 3.597417e-01 5.707674e-02 -8.233482e-02 5.686583e-02 -1.587292e-01
<VARIANCE> 39
 2.823180e+01 5.405075e+01 5.874454e+01 5.404313e+01 3.438710e+01 6.879249e+01 4.480276e+01 5.387033e+01 5.063321e+01 4.021750e+01 4.141896e+01 3.119453e+01 5.361885e+01 3.859167e+00 6.473326e+00 2.758834e+00 4.309789e+00 3.578526e+00 5.486001e+00 4.283531e+00 4.449393e+00 5.699781e+00 3.367579e+00 2.964279e+00 2.145948e+00 5.752370e+00 4.663684e-01 1.050571e+00 3.980580e-01 6.670404e-01 6.242907e-01 1.117493e+00 8.187580e-01 9.288291e-01 1.038724e+00 6.813406e-01 6.711928e-01 4.289425e-01 6.726866e-01
<GCONST> 1.349053e+02
<MIXTURE> 11 1.401488e-01
<MEAN> 39
 -1.476671e+01 -2.315242e+00 -1.350276e+00 8.059497e+00 -6.291017e+00 1.230868e+01 -1.972457e+00 4.043298e+00 -7.749180e+00 -8.027873e-01 -1.932811e+00 -2.136548e+00 5.128099e+01 6.144718e-01 4.252705e-01 -3.071620e-01 8.616555e-01 -1.903893e-01 8.964279e-02 2.953773e-01 4.526279e-01 1.432912e-01 1.640266e-01 1.513419e-01 -1.399502e-01 -1.224796e-01 -2.909466e-01 1.762082e-01 -6.526767e-02 -2.823285e-01 3.178243e-01 -1.094052e-02 -1.490547e-01 1.992169e-02 3.597417e-01 5.707674e-02 -8.233482e-02 5.686583e-02 -1.587292e-01
<VARIANCE> 39
 2.823180e+01 5.405075e+01 5.874454e+01 5.404313e+01 3.438710e+01 6.879249e+01 4.480276e+01 5.387033e+01 5.063321e+01 4.021750e+01 4.141896e+01 3.119453e+01 5.361885e+01 3.859167e+00 6.473326e+00 2.758834e+00 4.309789e+00 3.578526e+00 5.486001e+00 4.283531e+00 4.449393e+00 5.699781e+00 3.367579e+00 2.964279e+00 2.145948e+00 5.752370e+00 4.663684e-01 1.050571e+00 3.980580e-01 6.670404e-01 6.242907e-01 1.117493e+00 8.187580e-01 9.288291e-01 1.038724e+00 6.813406e-01 6.711928e-01 4.289425e-01 6.726866e-01
<GCONST> 1.349053e+02
<MIXTURE> 12 2.073339e-02
<MEAN> 39
 -1.507046e+01 -2.535892e+00 -7.125771e-01 7.169762e+00 -7.186272e+00 1.010403e+01 -4.207432e+00 1.829472e+00 -8.703573e+00 -2.107574e+00 -2.903143e+00 -2.661329e+00 5.183318e+01 6.515265e-01 5.260419e-01 -2.799824e-01 3.673386e-01 -8.483934e-01 -2.024968e-01 -5.111063e-01 -4.333717e-01 -8.171808e-01 -4.966589e-01 -4.565827e-01 -6.876379e-01 -1.632578e-01 -4.165998e-01 2.919998e-01 -2.052452e-01 -3.929125e-01 2.872981e-01 -1.791385e-02 -2.249153e-01 -5.143762e-03 3.188142e-01 4.086995e-02 -1.501660e-01 3.725454e-03 -3.458261e-01
<VARIANCE> 39
 2.833682e+01 6.718826e+01 6.226940e+01 6.223497e+01 3.780459e+01 5.823395e+01 3.522756e+01 5.194436e+01 5.207943e+01 3.332422e+01 3.662180e+01 2.697967e+01 6.723151e+01 3.752079e+00 5.207662e+00 3.049213e+00 4.273330e+00 3.219570e+00 4.684550e+00 3.575153e+00 4.199613e+00 5.858442e+00 3.581650e+00 2.704434e+00 2.347448e+00 4.732687e+00 6.890393e-01 8.511281e-01 3.853858e-01 6.335581e-01 5.853761e-01 9.847172e-01 7.575449e-01 8.602039e-01 1.031362e+00 5.906461e-01 6.012846e-01 4.397390e-01 8.354186e-01
<GCONST> 1.337433e+02
<MIXTURE> 13 1.401488e-01
<MEAN> 39
 -1.476671e+01 -2.315242e+00 -1.350276e+00 8.059496e+00 -6.291017e+00 1.230868e+01 -1.972457e+00 4.043298e+00 -7.749179e+00 -8.027874e-01 -1.932811e+00 -2.136548e+00 5.128099e+01 6.144719e-01 4.252706e-01 -3.071621e-01 8.616555e-01 -1.903894e-01 8.964282e-02 2.953772e-01 4.526278e-01 1.432912e-01 1.640265e-01 1.513419e-01 -1.399502e-01 -1.224795e-01 -2.909466e-01 1.762082e-01 -6.526768e-02 -2.823285e-01 3.178243e-01 -1.094051e-02 -1.490546e-01 1.992168e-02 3.597417e-01 5.707673e-02 -8.233482e-02 5.686583e-02 -1.587292e-01
<VARIANCE> 39
 2.823181e+01 5.405075e+01 5.874454e+01 5.404313e+01 3.438710e+01 6.879249e+01 4.480276e+01 5.387033e+01 5.063322e+01 4.021750e+01 4.141897e+01 3.119453e+01 5.361886e+01 3.859167e+00 6.473327e+00 2.758834e+00 4.309790e+00 3.578527e+00 5.486001e+00 4.283531e+00 4.449393e+00 5.699781e+00 3.367579e+00 2.964279e+00 2.145948e+00 5.752371e+00 4.663685e-01 1.050571e+00 3.980580e-01 6.670405e-01 6.242908e-01 1.117493e+00 8.187580e-01 9.288291e-01 1.038724e+00 6.813405e-01 6.711928e-01 4.289425e-01 6.726866e-01
<GCONST> 1.349053e+02
<MIXTURE> 14 2.073339e-02
<MEAN> 39
 -1.507046e+01 -2.535892e+00 -7.125771e-01 7.169762e+00 -7.186272e+00 1.010403e+01 -4.207432e+00 1.829472e+00 -8.703573e+00 -2.107574e+00 -2.903143e+00 -2.661329e+00 5.183318e+01 6.515265e-01 5.260419e-01 -2.799824e-01 3.673386e-01 -8.483934e-01 -2.024968e-01 -5.111063e-01 -4.333717e-01 -8.171808e-01 -4.966589e-01 -4.565827e-01 -6.876379e-01 -1.632578e-01 -4.165998e-01 2.919998e-01 -2.052452e-01 -3.929125e-01 2.872981e-01 -1.791385e-02 -2.249153e-01 -5.143762e-03 3.188142e-01 4.086995e-02 -1.501660e-01 3.725454e-03 -3.458261e-01
<VARIANCE> 39
 2.833682e+01 6.718826e+01 6.226940e+01 6.223497e+01 3.780459e+01 5.823395e+01 3.522756e+01 5.194436e+01 5.207943e+01 3.332422e+01 3.662180e+01 2.697967e+01 6.723151e+01 3.752079e+00 5.207662e+00 3.049213e+00 4.273330e+00 3.219570e+00 4.684550e+00 3.575153e+00 4.199613e+00 5.858442e+00 3.581650e+00 2.704434e+00 2.347448e+00 4.732687e+00 6.890393e-01 8.511281e-01 3.853858e-01 6.335581e-01 5.853761e-01 9.847172e-01 7.575449e-01 8.602039e-01 1.031362e+00 5.906461e-01 6.012846e-01 4.397390e-01 8.354186e-01
<GCONST> 1.337433e+02
<MIXTURE> 15 2.073339e-02
<MEAN> 39
 -1.507046e+01 -2.535893e+00 -7.125750e-01 7.169760e+00 -7.186272e+00 1.010404e+01 -4.207431e+00 1.829471e+00 -8.703572e+00 -2.107574e+00 -2.903144e+00 -2.661329e+00 5.183318e+01 6.515268e-01 5.260419e-01 -2.799825e-01 3.673389e-01 -8.483938e-01 -2.024969e-01 -5.111063e-01 -4.333716e-01 -8.171811e-01 -4.966589e-01 -4.565825e-01 -6.876381e-01 -1.632579e-01 -4.165997e-01 2.919996e-01 -2.052452e-01 -3.929124e-01 2.872982e-01 -1.791400e-02 -2.249153e-01 -5.143672e-03 3.188142e-01 4.086986e-02 -1.501660e-01 3.725469e-03 -3.458260e-01
<VARIANCE> 39
 2.833681e+01 6.718826e+01 6.226939e+01 6.223497e+01 3.780460e+01 5.823396e+01 3.522756e+01 5.194437e+01 5.207944e+01 3.332423e+01 3.662180e+01 2.697968e+01 6.723152e+01 3.752077e+00 5.207662e+00 3.049213e+00 4.273330e+00 3.219570e+00 4.684550e+00 3.575152e+00 4.199613e+00 5.858441e+00 3.581650e+00 2.704435e+00 2.347448e+00 4.732687e+00 6.890395e-01 8.511282e-01 3.853857e-01 6.335580e-01 5.853762e-01 9.847174e-01 7.575448e-01 8.602040e-01 1.031362e+00 5.906463e-01 6.012847e-01 4.397390e-01 8.354185e-01
<GCONST> 1.337433e+02
<MIXTURE> 16 3.429511e-05
<MEAN> 39
 -1.554779e+01 -1.310958e+00 -2.221601e+00 7.100879e+00 -8.709454e+00 1.041036e+01 -5.534063e+00 1.372606e+00 -8.070719e+00 -2.494282e+00 -3.534766e+00 -2.799696e+00 5.007284e+01 5.609587e-01 4.753187e-01 -1.059246e-02 -1.533629e-01 -1.265069e+00 -4.272767e-01 -7.533183e-01 -8.602127e-01 -1.537322e+00 -1.304129e+00 -9.392902e-01 -1.047144e+00 -7.345152e-02 -6.241783e-01 4.102975e-01 -1.995114e-01 -5.435659e-01 2.859212e-01 -1.054524e-01 -2.550362e-01 -2.492684e-02 1.553286e-01 -2.283329e-02 -1.833896e-01 -1.955417e-02 -5.439082e-01
<VARIANCE> 39
 2.905005e+01 7.038631e+01 4.376215e+01 4.492154e+01 3.004751e+01 3.480038e+01 2.471584e+01 3.786291e+01 4.328279e+01 2.008626e+01 3.129572e+01 1.667400e+01 6.699817e+01 4.216298e+00 5.227945e+00 3.022318e+00 3.006067e+00 3.055369e+00 4.408123e+00 2.175762e+00 3.901307e+00 5.372936e+00 3.580463e+00 1.797913e+00 1.963771e+00 3.814351e+00 8.962568e-01 6.157624e-01 5.459305e-01 4.741917e-01 4.259311e-01 6.671344e-01 5.938357e-01 4.930055e-01 8.761666e-01 4.169497e-01 4.189404e-01 3.999508e-01 9.114985e-01
<GCONST> 1.261848e+02
~h "k"
<BEGINHMM>
<NUMSTATES> 5
<STATE> 2
<NUMMIXES> 16
<MIXTURE> 1 2.999758e-05
<MEAN> 39
 -1.520560e+01 -2.088971e-01 -4.507834e+00 1.071105e+01 -2.709231e+00 1.417079e+01 -1.480653e+00 9.149009e+00 -6.992270e-01 2.468052e+00 -5.343183e-01 -3.875785e-01 4.858072e+01 -1.294377e-01 -1.564122e+00 -9.078854e-01 7.368766e-01 1.176271e+00 -5.879066e-01 6.243715e-01 9.785106e-01 7.411563e-01 1.090652e+00 1.106811e+00 7.463893e-01 5.185699e-01 3.017709e-03 -1.227811e+00 2.917416e-01 -5.861194e-01 3.882985e-01 -5.382469e-01 8.156270e-02 -8.653820e-01 -5.534762e-02 1.401493e-01 -1.538992e-02 1.210004e-02 1.278426e+00
<VARIANCE> 39
 4.262658e+00 5.704260e+01 1.492116e+01 1.228264e+01 1.301651e+01 1.524410e+01 1.441316e+01 1.461260e+01 1.348853e+01 1.374700e+01 1.024035e+01 1.641251e+01 1.260175e+01 5.470015e-01 1.233496e+01 2.016232e+00 1.374310e+00 2.784250e+00 4.011292e+00 7.427362e+00 6.084819e+00 2.635871e+00 2.771276e+00 1.715019e+00 1.682426e+00 4.536537e+00 1.036098e-01 2.361915e+00 2.845756e-01 5.396265e-01 5.377159e-01 8.950796e-01 4.891158e-01 7.135455e-01 4.069122e-01 3.677297e-01 3.148887e-01 3.341311e-01 1.581203e+00
<GCONST> 1.108576e+02
<MIXTURE> 2 1.979205e-02
<MEAN> 39
 -1.497470e+01 -4.093099e-02 -4.595207e+00 1.016267e+01 -3.255852e+00 1.357364e+01 -1.834366e+00 8.209895e+00 -1.791963e+00 2.152413e+00 -7.983329e-01 -1.539760e+00 4.870868e+01 -1.408914e-01 -2.040372e+00 -1.020498e-01 -3.699535e-01 1.010939e+00 -1.005359e+00 3.517642e-01 -9.864273e-01 4.130394e-01 5.996920e-01 4.317672e-01 4.044912e-01 1.769414e+00 -4.736767e-02 -1.565392e+00 2.160258e-01 -9.334136e-01 5.751197e-01 -1.033817e+00 1.195497e-01 -1.359949e+00 -6.645709e-03 -1.274245e-02 -6.195650e-03 4.743491e-02 1.888358e+00
<VARIANCE> 39
 6.840869e+00 6.847851e+01 1.485514e+01 1.400564e+01 1.454538e+01 2.054452e+01 2.070908e+01 2.479131e+01 1.873063e+01 2.076180e+01 1.495713e+01 1.557425e+01 2.108613e+01 6.678233e-01 1.546548e+01 1.857613e+00 4.408736e+00 3.422041e+00 6.910081e+00 3.352626e+00 8.598987e+00 2.410565e+00 2.470176e+00 2.048156e+00 1.841499e+00 1.345819e+01 1.111424e-01 2.523875e+00 3.071813e-01 5.906262e-01 5.837521e-01 1.149381e+00 5.210118e-01 1.108600e+00 5.478038e-01 4.504598e-01 3.788440e-01 3.212341e-01 1.901635e+00
<GCONST> 1.194529e+02
<MIXTURE> 3 1.979208e-02
<MEAN> 39
 -1.497470e+01 -4.094005e-02 -4.595212e+00 1.016268e+01 -3.255848e+00 1.357363e+01 -1.834371e+00 8.209895e+00 -1.791962e+00 2.152416e+00 -7.983320e-01 -1.539761e+00 4.870869e+01 -1.408913e-01 -2.040375e+00 -1.020494e-01 -3.699538e-01 1.010939e+00 -1.005359e+00 3.517643e-01 -9.864280e-01 4.130400e-01 5.996927e-01 4.317672e-01 4.044911e-01 1.769416e+00 -4.736809e-02 -1.565390e+00 2.160265e-01 -9.334136e-01 5.751189e-01 -1.033815e+00 1.195500e-01 -1.359949e+00 -6.645143e-03 -1.274264e-02 -6.196067e-03 4.743478e-02 1.888357e+00
<VARIANCE> 39
 6.840872e+00 6.847866e+01 1.485517e+01 1.400567e+01 1.454542e+01 2.054453e+01 2.070911e+01 2.479132e+01 1.873064e+01 2.076185e+01 1.495713e+01 1.557424e+01 2.108616e+01 6.678233e-01 1.546549e+01 1.857614e+00 4.408736e+00 3.422040e+00 6.910085e+00 3.352628e+00 8.598985e+00 2.410565e+00 2.470179e+00 2.048156e+00 1.841501e+00 1.345818e+01 1.111425e-01 2.523883e+00 3.071820e-01 5.906261e-01 5.837529e-01 1.149383e+00 5.210124e-01 1.108601e+00 5.478039e-01 4.504602e-01 3.788440e-01 3.212344e-01 1.901639e+00
<GCONST> 1.194529e+02
<MIXTURE> 4 1.410367e-01
<MEAN> 39
 -1.479566e+01 8.873512e-01 -4.242852e+00 9.206892e+00 -3.722147e+00 1.239202e+01 -2.864943e+00 6.873743e+00 -3.411030e+00 1.138321e+00 -1.810903e+00 -2.570768e+00 4.878628e+01 -1.920257e-01 -4.177574e+00 1.461802e-01 -2.063735e+00 1.668788e+00 -3.010593e+00 3.485664e-01 -3.456160e+00 1.268381e-01 1.014460e-01 8.267011e-02 1.333241e-01 4.729644e+00 -1.026496e-01 -1.991848e+00 8.120322e-02 -1.242299e+00 7.392459e-01 -1.415463e+00 1.794822e-01 -1.772178e+00 1.124965e-01 -2.066242e-01 -2.155690e-02 -1.119214e-02 2.510648e+00
<VARIANCE> 39
 7.735870e+00 4.379802e+01 1.135667e+01 1.686286e+01 1.741590e+01 2.898101e+01 2.937036e+01 2.932051e+01 2.194683e+01 2.102120e+01 1.648358e+01 1.378378e+01 2.186358e+01 7.708452e-01 1.752347e+01 1.583093e+00 7.178229e+00 4.174901e+00 1.124109e+01 3.148169e+00 1.397232e+01 2.907048e+00 2.568768e+00 2.010847e+00 1.570371e+00 2.307676e+01 1.051509e-01 1.346951e+00 2.408585e-01 4.467333e-01 4.507817e-01 8.791310e-01 5.312432e-01 9.604153e-01 5.010647e-01 4.228458e-01 3.669474e-01 2.768450e-01 1.188240e+00
<GCONST> 1.199017e+02
<MIXTURE> 5 1.979208e-02
<MEAN> 39
 -1.497470e+01 -4.094005e-02 -4.595212e+00 1.016268e+01 -3.255848e+00 1.357363e+01 -1.834371e+00 8.209895e+00 -1.791962e+00 2.152416e+00 -7.983320e-01 -1.539761e+00 4.870869e+01 -1.408913e-01 -2.040375e+00 -1.020494e-01 -3.699538e-01 1.010939e+00 -1.005359e+00 3.517643e-01 -9.864280e-01 4.130400e-01 5.996927e-01 4.317672e-01 4.044911e-01 1.769416e+00 -4.736809e-02 -1.565390e+00 2.160265e-01 -9.334136e-01 5.751189e-01 -1.033815e+00 1.195500e-01 -1.359949e+00 -6.645143e-03 -1.274264e-02 -6.196067e-03 4.743478e-02 1.888357e+00
<VARIANCE> 39
 6.840872e+00 6.847866e+01 1.485517e+01 1.400567e+01 1.454542e+01 2.054453e+01 2.070911e+01 2.479132e+01 1.873064e+01 2.076185e+01 1.495713e+01 1.557424e+01 2.108616e+01 6.678233e-01 1.546549e+01 1.857614e+00 4.408736e+00 3.422040e+00 6.910085e+00 3.352628e+00 8.598985e+00 2.410565e+00 2.470179e+00 2.048156e+00 1.841501e+00 1.345818e+01 1.111425e-01 2.523883e+00 3.071820e-01 5.906261e-01 5.837529e-01 1.149383e+00 5.210124e-01 1.108601e+00 5.478039e-01 4.504602e-01 3.788440e-01 3.212344e-01 1.901639e+00
<GCONST> 1.194529e+02
<MIXTURE> 6 1.410367e-01
<MEAN> 39
 -1.479566e+01 8.873513e-01 -4.242852e+00 9.206892e+00 -3.722147e+00 1.239202e+01 -2.864943e+00 6.873743e+00 -3.411030e+00 1.138321e+00 -1.810903e+00 -2.570768e+00 4.878628e+01 -1.920257e-01 -4.177574e+00 1.461802e-01 -2.063735e+00 1.668788e+00 -3.010593e+00 3.485664e-01 -3.456160e+00 1.268380e-01 1.014461e-01 8.267013e-02 1.333241e-01 4.729644e+00 -1.026496e-01 -1.991848e+00 8.120322e-02 -1.242299e+00 7.392459e-01 -1.415463e+00 1.794822e-01 -1.772178e+00 1.124965e-01 -2.066242e-01 -2.155690e-02 -1.119215e-02 2.510648e+00
<VARIANCE> 39
 7.735870e+00 4.379802e+01 1.135667e+01 1.686286e+01 1.741590e+01 2.898101e+01 2.937036e+01 2.932051e+01 2.194683e+01 2.102120e+01 1.648358e+01 1.378378e+01 2.186358e+01 7.708452e-01 1.752347e+01 1.583093e+00 7.178229e+00 4.174901e+00 1.124109e+01 3.148169e+00 1.397232e+01 2.907048e+00 2.568768e+00 2.010847e+00 1.570371e+00 2.307676e+01 1.051509e-01 1.346951e+00 2.408585e-01 4.467333e-01 4.507817e-01 8.791311e-01 5.312432e-01 9.604153e-01 5.010647e-01 4.228458e-01 3.669474e-01 2.768450e-01 1.188240e+00
<GCONST> 1.199018e+02
<MIXTURE> 7 1.410367e-01
<MEAN> 39
 -1.479566e+01 8.873520e-01 -4.242853e+00 9.206893e+00 -3.722146e+00 1.239202e+01 -2.864941e+00 6.873745e+00 -3.411030e+00 1.138320e+00 -1.810903e+00 -2.570767e+00 4.878628e+01 -1.920256e-01 -4.177575e+00 1.461802e-01 -2.063735e+00 1.668788e+00 -3.010593e+00 3.485662e-01 -3.456161e+00 1.268380e-01 1.014458e-01 8.267026e-02 1.333240e-01 4.729646e+00 -1.026496e-01 -1.991849e+00 8.120336e-02 -1.242299e+00 7.392457e-01 -1.415463e+00 1.794820e-01 -1.772178e+00 1.124966e-01 -2.066240e-01 -2.155700e-02 -1.119221e-02 2.510648e+00
<VARIANCE> 39
 7.735864e+00 4.379799e+01 1.135665e+01 1.686286e+01 1.741590e+01 2.898098e+01 2.937036e+01 2.932047e+01 2.194682e+01 2.102116e+01 1.648358e+01 1.378378e+01 2.186358e+01 7.708447e-01 1.752346e+01 1.583091e+00 7.178229e+00 4.174899e+00 1.124109e+01 3.148167e+00 1.397232e+01 2.907048e+00 2.568768e+00 2.010847e+00 1.570371e+00 2.307676e+01 1.051508e-01 1.346950e+00 2.408583e-01 4.467333e-01 4.507818e-01 8.791305e-01 5.312431e-01 9.604141e-01 5.010645e-01 4.228450e-01 3.669473e-01 2.768449e-01 1.188239e+00
<GCONST> 1.199017e+02
<MIXTURE> 8 1.864005e-02
<MEAN> 39
 -1.484395e+01 5.307590e-01 -4.486268e+00 8.641201e+00 -3.691267e+00 1.129910e+01 -3.283787e+00 5.857651e+00 -3.679015e+00 1.316169e+00 -1.826817e+00 -2.840695e+00 4.926840e+01 -3.386281e-01 -6.696785e+00 1.029172e-01 -3.658384e+00 2.520478e+00 -5.219302e+00 3.316238e-01 -6.094904e+00 -5.711825e-01 -8.340407e-01 -4.025325e-01 -3.196580e-01 7.924746e+00 -1.419890e-01 -1.876019e+00 8.872002e-04 -1.262380e+00 6.248305e-01 -1.368645e+00 2.152180e-01 -1.767057e+00 4.164727e-02 -3.985449e-01 -1.634479e-01 -1.602859e-01 2.492891e+00
<VARIANCE> 39
 8.129989e+00 3.775368e+01 9.302686e+00 2.292947e+01 2.519065e+01 3.656396e+01 3.040467e+01 3.345539e+01 2.465971e+01 1.972764e+01 1.925224e+01 1.210970e+01 3.302464e+01 9.860568e-01 1.214597e+01 1.732656e+00 6.253961e+00 4.628531e+00 1.062787e+01 3.826787e+00 1.273970e+01 3.310213e+00 3.449954e+00 2.249325e+00 1.672179e+00 1.774995e+01 1.108739e-01 8.584964e-01 2.254589e-01 3.969626e-01 5.007321e-01 8.724248e-01 4.956210e-01 8.427275e-01 4.816638e-01 3.272924e-01 3.835865e-01 2.597428e-01 9.567099e-01
<GCONST> 1.202732e+02
<MIXTURE> 9 1.979208e-02
<MEAN> 39
 -1.497470e+01 -4.094005e-02 -4.595212e+00 1.016268e+01 -3.255848e+00 1.357363e+01 -1.834371e+00 8.209895e+00 -1.791962e+00 2.152416e+00 -7.983321e-01 -1.539761e+00 4.870869e+01 -1.408913e-01 -2.040375e+00 -1.020495e-01 -3.699538e-01 1.010939e+00 -1.005359e+00 3.517643e-01 -9.864280e-01 4.130401e-01 5.996928e-01 4.317672e-01 4.044911e-01 1.769416e+00 -4.736809e-02 -1.565390e+00 2.160265e-01 -9.334137e-01 5.751189e-01 -1.033815e+00 1.195500e-01 -1.359949e+00 -6.645143e-03 -1.274262e-02 -6.196067e-03 4.743481e-02 1.888357e+00
<VARIANCE> 39
 6.840873e+00 6.847865e+01 1.485517e+01 1.400567e+01 1.454542e+01 2.054453e+01 2.070911e+01 2.479132e+01 1.873064e+01 2.076185e+01 1.495714e+01 1.557424e+01 2.108615e+01 6.678233e-01 1.546549e+01 1.857614e+00 4.408736e+00 3.422040e+00 6.910085e+00 3.352628e+00 8.598985e+00 2.410565e+00 2.470179e+00 2.048156e+00 1.841501e+00 1.345817e+01 1.111425e-01 2.523883e+00 3.071820e-01 5.906261e-01 5.837528e-01 1.149383e+00 5.210125e-01 1.108601e+00 5.478040e-01 4.504601e-01 3.788441e-01 3.212344e-01 1.901639e+00
<GCONST> 1.194529e+02
<MIXTURE> 10 1.410367e-01
<MEAN> 39
 -1.479566e+01 8.873515e-01 -4.242852e+00 9.206893e+00 -3.722147e+00 1.239203e+01 -2.864943e+00 6.873743e+00 -3.411030e+00 1.138321e+00 -1.810903e+00 -2.570768e+00 4.878628e+01 -1.920258e-01 -4.177574e+00 1.461804e-01 -2.063735e+00 1.668788e+00 -3.010593e+00 3.485666e-01 -3.456160e+00 1.268381e-01 1.014460e-01 8.267007e-02 1.333240e-01 4.729645e+00 -1.026496e-01 -1.991848e+00 8.120325e-02 -1.242299e+00 7.392458e-01 -1.415463e+00 1.794822e-01 -1.772178e+00 1.124965e-01 -2.066242e-01 -2.155697e-02 -1.119218e-02 2.510648e+00
<VARIANCE> 39
 7.735868e+00 4.379801e+01 1.135667e+01 1.686286e+01 1.741590e+01 2.898101e+01 2.937036e+01 2.932051e+01 2.194683e+01 2.102120e+01 1.648358e+01 1.378378e+01 2.186357e+01 7.708451e-01 1.752346e+01 1.583093e+00 7.178231e+00 4.174901e+00 1.124109e+01 3.148169e+00 1.397232e+01 2.907048e+00 2.568768e+00 2.010848e+00 1.570371e+00 2.307676e+01 1.051508e-01 1.346950e+00 2.408585e-01 4.467333e-01 4.507816e-01 8.791310e-01 5.312432e-01 9.604152e-01 5.010646e-01 4.228458e-01 3.669474e-01 2.768449e-01 1.188240e+00
<GCONST> 1.199017e+02
<MIXTURE> 11 1.410367e-01
<MEAN> 39
 -1.479566e+01 8.873520e-01 -4.242853e+00 9.206893e+00 -3.722146e+00 1.239202e+01 -2.864941e+00 6.873745e+00 -3.411030e+00 1.138320e+00 -1.810903e+00 -2.570767e+00 4.878628e+01 -1.920256e-01 -4.177575e+00 1.461802e-01 -2.063735e+00 1.668788e+00 -3.010593e+00 3.485662e-01 -3.456161e+00 1.268380e-01 1.014458e-01 8.267026e-02 1.333240e-01 4.729646e+00 -1.026496e-01 -1.991849e+00 8.120336e-02 -1.242299e+00 7.392457e-01 -1.415463e+00 1.794820e-01 -1.772178e+00 1.124966e-01 -2.066240e-01 -2.155700e-02 -1.119221e-02 2.510648e+00
<VARIANCE> 39
 7.735864e+00 4.379799e+01 1.135665e+01 1.686286e+01 1.741590e+01 2.898098e+01 2.937036e+01 2.932047e+01 2.194682e+01 2.102116e+01 1.648358e+01 1.378378e+01 2.186358e+01 7.708447e-01 1.752346e+01 1.583091e+00 7.178229e+00 4.174899e+00 1.124109e+01 3.148167e+00 1.397232e+01 2.907048e+00 2.568768e+00 2.010847e+00 1.570371e+00 2.307676e+01 1.051508e-01 1.346950e+00 2.408583e-01 4.467333e-01 4.507818e-01 8.791305e-01 5.312431e-01 9.604141e-01 5.010645e-01 4.228450e-01 3.669473e-01 2.768449e-01 1.188239e+00
<GCONST> 1.199017e+02
<MIXTURE> 12 1.864005e-02
<MEAN> 39
 -1.484395e+01 5.307587e-01 -4.486268e+00 8.641201e+00 -3.691267e+00 1.129910e+01 -3.283787e+00 5.857651e+00 -3.679015e+00 1.316169e+00 -1.826817e+00 -2.840695e+00 4.926840e+01 -3.386281e-01 -6.696785e+00 1.029171e-01 -3.658384e+00 2.520478e+00 -5.219302e+00 3.316237e-01 -6.094904e+00 -5.711825e-01 -8.340406e-01 -4.025325e-01 -3.196580e-01 7.924746e+00 -1.419890e-01 -1.876019e+00 8.872151e-04 -1.262380e+00 6.248305e-01 -1.368645e+00 2.152180e-01 -1.767058e+00 4.164724e-02 -3.985449e-01 -1.634479e-01 -1.602859e-01 2.492891e+00
<VARIANCE> 39
 8.129988e+00 3.775367e+01 9.302685e+00 2.292947e+01 2.519065e+01 3.656396e+01 3.040467e+01 3.345539e+01 2.465971e+01 1.972763e+01 1.925224e+01 1.210970e+01 3.302464e+01 9.860567e-01 1.214597e+01 1.732656e+00 6.253960e+00 4.628532e+00 1.062787e+01 3.826786e+00 1.273970e+01 3.310212e+00 3.449954e+00 2.249325e+00 1.672179e+00 1.774995e+01 1.108739e-01 8.584965e-01 2.254589e-01 3.969625e-01 5.007321e-01 8.724247e-01 4.956209e-01 8.427275e-01 4.816638e-01 3.272924e-01 3.835865e-01 2.597427e-01 9.567099e-01
<GCONST> 1.202732e+02
<MIXTURE> 13 1.410367e-01
<MEAN> 39
 -1.479566e+01 8.873517e-01 -4.242853e+00 9.206893e+00 -3.722146e+00 1.239202e+01 -2.864942e+00 6.873745e+00 -3.411030e+00 1.138320e+00 -1.810903e+00 -2.570767e+00 4.878628e+01 -1.920257e-01 -4.177575e+00 1.461803e-01 -2.063735e+00 1.668788e+00 -3.010594e+00 3.485663e-01 -3.456161e+00 1.268381e-01 1.014458e-01 8.267025e-02 1.333241e-01 4.729646e+00 -1.026496e-01 -1.991849e+00 8.120339e-02 -1.242299e+00 7.392457e-01 -1.415463e+00 1.794820e-01 -1.772178e+00 1.124966e-01 -2.066240e-01 -2.155698e-02 -1.119219e-02 2.510648e+00
<VARIANCE> 39
 7.735864e+00 4.379799e+01 1.135665e+01 1.686286e+01 1.741590e+01 2.898098e+01 2.937036e+01 2.932047e+01 2.194682e+01 2.102116e+01 1.648358e+01 1.378378e+01 2.186358e+01 7.708448e-01 1.752346e+01 1.583091e+00 7.178230e+00 4.174899e+00 1.124109e+01 3.148168e+00 1.397232e+01 2.907048e+00 2.568768e+00 2.010847e+00 1.570371e+00 2.307677e+01 1.051508e-01 1.346950e+00 2.408583e-01 4.467333e-01 4.507818e-01 8.791304e-01 5.312431e-01 9.604139e-01 5.010645e-01 4.228449e-01 3.669473e-01 2.768449e-01 1.188239e+00
<GCONST> 1.199017e+02
<MIXTURE> 14 1.864005e-02
<MEAN> 39
 -1.484395e+01 5.307587e-01 -4.486268e+00 8.641201e+00 -3.691267e+00 1.129910e+01 -3.283787e+00 5.857651e+00 -3.679015e+00 1.316169e+00 -1.826817e+00 -2.840695e+00 4.926840e+01 -3.386281e-01 -6.696785e+00 1.029171e-01 -3.658384e+00 2.520478e+00 -5.219302e+00 3.316237e-01 -6.094904e+00 -5.711825e-01 -8.340406e-01 -4.025325e-01 -3.196580e-01 7.924746e+00 -1.419890e-01 -1.876019e+00 8.872151e-04 -1.262380e+00 6.248305e-01 -1.368645e+00 2.152180e-01 -1.767058e+00 4.164724e-02 -3.985449e-01 -1.634479e-01 -1.602859e-01 2.492891e+00
<VARIANCE> 39
 8.129988e+00 3.775367e+01 9.302685e+00 2.292947e+01 2.519065e+01 3.656396e+01 3.040467e+01 3.345539e+01 2.465971e+01 1.972763e+01 1.925224e+01 1.210970e+01 3.302464e+01 9.860567e-01 1.214597e+01 1.732656e+00 6.253960e+00 4.628532e+00 1.062787e+01 3.826786e+00 1.273970e+01 3.310212e+00 3.449954e+00 2.249325e+00 1.672179e+00 1.774995e+01 1.108739e-01 8.584965e-01 2.254589e-01 3.969625e-01 5.007321e-01 8.724247e-01 4.956209e-01 8.427275e-01 4.816638e-01 3.272924e-01 3.835865e-01 2.597427e-01 9.567099e-01
<GCONST> 1.202732e+02
<MIXTURE> 15 1.864006e-02
<MEAN> 39
 -1.484395e+01 5.307542e-01 -4.486270e+00 8.641201e+00 -3.691269e+00 1.129908e+01 -3.283791e+00 5.857647e+00 -3.679018e+00 1.316163e+00 -1.826817e+00 -2.840695e+00 4.926841e+01 -3.386295e-01 -6.696787e+00 1.029173e-01 -3.658385e+00 2.520480e+00 -5.219303e+00 3.316244e-01 -6.094905e+00 -5.711810e-01 -8.340412e-01 -4.025328e-01 -3.196578e-01 7.924746e+00 -1.419894e-01 -1.876019e+00 8.876249e-04 -1.262379e+00 6.248304e-01 -1.368643e+00 2.152182e-01 -1.767057e+00 4.164745e-02 -3.985447e-01 -1.634482e-01 -1.602860e-01 2.492889e+00
<VARIANCE> 39
 8.129993e+00 3.775368e+01 9.302677e+00 2.292949e+01 2.519069e+01 3.656400e+01 3.040469e+01 3.345536e+01 2.465972e+01 1.972758e+01 1.925225e+01 1.210971e+01 3.302472e+01 9.860570e-01 1.214596e+01 1.732654e+00 6.253961e+00 4.628531e+00 1.062786e+01 3.826789e+00 1.273970e+01 3.310209e+00 3.449948e+00 2.249324e+00 1.672180e+00 1.774995e+01 1.108740e-01 8.584977e-01 2.254578e-01 3.969627e-01 5.007320e-01 8.724266e-01 4.956211e-01 8.427284e-01 4.816639e-01 3.272922e-01 3.835858e-01 2.597430e-01 9.567116e-01
<GCONST> 1.202732e+02
<MIXTURE> 16 2.176452e-05
<MEAN> 39
 -1.403719e+01 -7.061672e-02 -4.232120e+00 8.054586e+00 -2.701455e+00 1.099898e+01 -3.716141e+00 4.750116e+00 -2.447107e+00 1.186632e+00 -2.281023e+00 -2.545148e+00 5.105970e+01 -6.852495e-01 -8.445858e+00 -6.954461e-02 -4.688550e+00 2.884018e+00 -6.618832e+00 2.271248e-01 -7.861041e+00 -1.114289e+00 -1.650374e+00 -8.470145e-01 -7.377808e-01 9.963617e+00 -1.817702e-01 -1.543938e+00 -9.089287e-02 -1.100454e+00 3.757354e-01 -1.155493e+00 3.127894e-01 -1.586282e+00 -2.249096e-01 -4.541152e-01 -3.237661e-01 -3.753183e-01 2.119461e+00
<VARIANCE> 39
 1.229129e+01 4.033894e+01 8.520214e+00 3.582959e+01 2.836640e+01 3.403233e+01 2.625948e+01 3.898012e+01 2.500077e+01 1.439193e+01 1.824547e+01 7.101784e+00 5.995664e+01 1.156821e+00 6.200288e+00 1.096105e+00 4.345328e+00 4.903372e+00 7.188997e+00 4.156342e+00 8.199681e+00 2.447124e+00 2.701233e+00 1.864770e+00 1.912306e+00 7.666107e+00 1.284384e-01 6.514053e-01 2.171950e-01 4.471961e-01 4.388539e-01 8.356116e-01 5.020644e-01 8.902454e-01 4.502974e-01 2.412860e-01 2.928778e-01 2.300122e-01 1.022361e+00
<GCONST> 1.165547e+02
<STATE> 3
<NUMMIXES> 16
<MIXTURE> 1 2.606627e-05
<MEAN> 39
 -1.598942e+01 -2.142589e+01 -3.127017e+00 -5.339303e+00 4.486425e+00 -1.721780e+00 6.502433e-01 -1.298714e+01 -1.713089e+00 5.942280e-01 -1.265881e+00 -4.216414e+00 7.716982e+01 9.454048e-02 -1.809835e-03 1.430333e-02 3.137865e-01 -6.175510e-01 1.625578e+00 8.206276e-01 1.132117e+00 1.705801e+00 1.530792e+00 5.509501e-01 5.913821e-01 -9.913006e-01 2.268117e-01 1.308742e+00 3.102738e-02 1.034168e+00 -4.651179e-01 1.161265e+00 -1.270518e-01 1.358002e+00 -1.517582e-02 4.544545e-01 6.934544e-02 2.609512e-01 -2.026828e+00
<VARIANCE> 39
 7.295533e+00 1.437060e+02 7.818529e+00 6.560082e+01 2.138163e+01 7.172144e+01 1.624410e+01 1.660650e+02 2.597699e+01 1.309479e+01 1.785256e+01 1.382027e+01 2.181970e+02 4.717191e-01 4.184598e+00 1.503931e+00 3.256453e+00 2.643594e+00 4.449555e+00 1.938851e+00 4.822387e+00 1.873790e+00 2.069067e+00 1.966499e+00 1.690603e+00 8.570000e+00 1.783924e-01 1.023095e+00 3.194968e-01 5.743263e-01 2.026794e-01 1.214336e+00 4.511454e-01 1.900536e+00 3.844721e-01 3.882065e-01 2.117420e-01 2.149816e-01 2.715983e+00
<GCONST> 1.195598e+02
<MIXTURE> 2 1.808924e-02
<MEAN> 39
 -1.631945e+01 -2.678063e+01 -1.874195e+00 -7.952836e+00 5.984316e+00 -5.439376e+00 5.563927e-02 -1.902036e+01 -9.784430e-01 -2.175442e-01 -2.881366e+00 -3.795508e+00 8.279168e+01 2.615885e-01 -1.695431e-01 3.717503e-01 3.041896e-01 -3.578014e-01 1.194864e+00 1.175458e-01 2.604842e-01 5.736842e-01 8.624797e-01 -3.563304e-02 1.173991e-01 -7.368922e-01 2.681699e-01 1.294295e+00 -1.350271e-01 1.056892e+00 -5.447746e-01 1.187159e+00 -2.833685e-01 1.414597e+00 -7.505548e-02 3.764356e-01 3.539325e-02 2.093216e-01 -1.960664e+00
<VARIANCE> 39
 7.755806e+00 1.925188e+01 1.349896e+01 1.887060e+01 1.631587e+01 4.106929e+01 2.077140e+01 3.743149e+01 3.032669e+01 1.791208e+01 2.318991e+01 2.147791e+01 3.776103e+01 8.477339e-01 9.298131e+00 1.467435e+00 5.130010e+00 3.102475e+00 7.727398e+00 2.836979e+00 9.265461e+00 2.384401e+00 2.351474e+00 1.844602e+00 1.823105e+00 1.866688e+01 1.397889e-01 1.057572e+00 3.683563e-01 4.590304e-01 3.587981e-01 1.055490e+00 4.396296e-01 9.392429e-01 4.540941e-01 4.010513e-01 2.986981e-01 3.459903e-01 1.922872e+00
<GCONST> 1.190558e+02
<MIXTURE> 3 1.808924e-02
<MEAN> 39
 -1.631945e+01 -2.678063e+01 -1.874195e+00 -7.952837e+00 5.984316e+00 -5.439375e+00 5.563939e-02 -1.902036e+01 -9.784418e-01 -2.175442e-01 -2.881366e+00 -3.795509e+00 8.279168e+01 2.615885e-01 -1.695427e-01 3.717504e-01 3.041897e-01 -3.578014e-01 1.194864e+00 1.175458e-01 2.604844e-01 5.736842e-01 8.624797e-01 -3.563289e-02 1.173990e-01 -7.368917e-01 2.681699e-01 1.294295e+00 -1.350270e-01 1.056892e+00 -5.447745e-01 1.187159e+00 -2.833685e-01 1.414597e+00 -7.505552e-02 3.764357e-01 3.539331e-02 2.093217e-01 -1.960664e+00
<VARIANCE> 39
 7.755804e+00 1.925188e+01 1.349896e+01 1.887060e+01 1.631588e+01 4.106928e+01 2.077140e+01 3.743148e+01 3.032668e+01 1.791208e+01 2.318991e+01 2.147791e+01 3.776102e+01 8.477337e-01 9.298126e+00 1.467435e+00 5.130009e+00 3.102473e+00 7.727395e+00 2.836978e+00 9.265457e+00 2.384400e+00 2.351474e+00 1.844602e+00 1.823105e+00 1.866688e+01 1.397889e-01 1.057572e+00 3.683563e-01 4.590303e-01 3.587980e-01 1.055490e+00 4.396295e-01 9.392430e-01 4.540942e-01 4.010513e-01 2.986981e-01 3.459902e-01 1.922872e+00
<GCONST> 1.190558e+02
<MIXTURE> 4 1.424070e-01
<MEAN> 39
 -1.674369e+01 -2.759837e+01 -1.657341e+00 -8.018992e+00 6.188491e+00 -6.767435e+00 -4.510931e-01 -1.996701e+01 -1.062727e+00 -7.336379e-01 -3.184452e+00 -3.843601e+00 8.321462e+01 1.771376e-01 -1.319324e+00 2.762367e-01 -6.220715e-01 -7.119946e-02 -1.177368e-01 -3.185050e-01 -1.325723e+00 -3.381971e-02 2.010173e-01 -4.601615e-01 -3.248448e-01 8.879089e-01 2.478457e-01 1.266607e+00 -1.722350e-01 9.284000e-01 -5.993651e-01 1.114855e+00 -3.488131e-01 1.269566e+00 -1.306941e-01 2.439921e-01 -8.509912e-02 5.972132e-02 -1.812982e+00
<VARIANCE> 39
 7.826271e+00 1.091507e+01 1.505989e+01 1.835736e+01 1.744265e+01 4.086339e+01 2.295634e+01 3.160694e+01 3.178306e+01 2.177682e+01 2.699386e+01 2.481270e+01 2.468362e+01 1.037235e+00 1.538870e+01 1.409177e+00 7.916414e+00 4.157713e+00 1.234819e+01 2.947623e+00 1.457107e+01 2.543771e+00 2.526649e+00 1.644239e+00 1.641265e+00 3.108401e+01 1.276630e-01 1.209916e+00 3.772170e-01 5.086441e-01 4.537376e-01 1.087481e+00 4.624778e-01 9.011509e-01 4.963072e-01 4.641906e-01 3.550893e-01 3.919832e-01 1.661319e+00
<GCONST> 1.222938e+02
<MIXTURE> 5 1.808924e-02
<MEAN> 39
 -1.631945e+01 -2.678063e+01 -1.874195e+00 -7.952837e+00 5.984316e+00 -5.439375e+00 5.563939e-02 -1.902036e+01 -9.784418e-01 -2.175442e-01 -2.881366e+00 -3.795509e+00 8.279168e+01 2.615885e-01 -1.695427e-01 3.717504e-01 3.041897e-01 -3.578014e-01 1.194864e+00 1.175458e-01 2.604844e-01 5.736842e-01 8.624797e-01 -3.563289e-02 1.173990e-01 -7.368917e-01 2.681699e-01 1.294295e+00 -1.350270e-01 1.056892e+00 -5.447745e-01 1.187159e+00 -2.833685e-01 1.414597e+00 -7.505552e-02 3.764357e-01 3.539331e-02 2.093217e-01 -1.960664e+00
<VARIANCE> 39
 7.755804e+00 1.925188e+01 1.349896e+01 1.887060e+01 1.631588e+01 4.106928e+01 2.077140e+01 3.743148e+01 3.032668e+01 1.791208e+01 2.318991e+01 2.147791e+01 3.776102e+01 8.477337e-01 9.298126e+00 1.467435e+00 5.130009e+00 3.102473e+00 7.727395e+00 2.836978e+00 9.265457e+00 2.384400e+00 2.351474e+00 1.844602e+00 1.823105e+00 1.866688e+01 1.397889e-01 1.057572e+00 3.683563e-01 4.590303e-01 3.587980e-01 1.055490e+00 4.396295e-01 9.392430e-01 4.540942e-01 4.010513e-01 2.986981e-01 3.459902e-01 1.922872e+00
<GCONST> 1.190558e+02
<MIXTURE> 6 1.424070e-01
<MEAN> 39
 -1.674369e+01 -2.759837e+01 -1.657341e+00 -8.018992e+00 6.188491e+00 -6.767436e+00 -4.510930e-01 -1.996701e+01 -1.062727e+00 -7.336378e-01 -3.184452e+00 -3.843601e+00 8.321462e+01 1.771376e-01 -1.319324e+00 2.762366e-01 -6.220715e-01 -7.119946e-02 -1.177368e-01 -3.185051e-01 -1.325723e+00 -3.381973e-02 2.010173e-01 -4.601615e-01 -3.248448e-01 8.879089e-01 2.478458e-01 1.266607e+00 -1.722350e-01 9.284000e-01 -5.993651e-01 1.114855e+00 -3.488131e-01 1.269566e+00 -1.306941e-01 2.439921e-01 -8.509911e-02 5.972131e-02 -1.812982e+00
<VARIANCE> 39
 7.826271e+00 1.091507e+01 1.505989e+01 1.835736e+01 1.744265e+01 4.086339e+01 2.295634e+01 3.160694e+01 3.178306e+01 2.177682e+01 2.699386e+01 2.481270e+01 2.468362e+01 1.037235e+00 1.538870e+01 1.409177e+00 7.916415e+00 4.157713e+00 1.234819e+01 2.947624e+00 1.457107e+01 2.543771e+00 2.526649e+00 1.644239e+00 1.641265e+00 3.108401e+01 1.276630e-01 1.209916e+00 3.772170e-01 5.086441e-01 4.537376e-01 1.087481e+00 4.624778e-01 9.011509e-01 4.963072e-01 4.641906e-01 3.550892e-01 3.919833e-01 1.661319e+00
<GCONST> 1.222938e+02
<MIXTURE> 7 1.424070e-01
<MEAN> 39
 -1.674369e+01 -2.759837e+01 -1.657340e+00 -8.018992e+00 6.188490e+00 -6.767435e+00 -4.510939e-01 -1.996701e+01 -1.062727e+00 -7.336375e-01 -3.184452e+00 -3.843601e+00 8.321462e+01 1.771377e-01 -1.319323e+00 2.762366e-01 -6.220711e-01 -7.119972e-02 -1.177362e-01 -3.185052e-01 -1.325722e+00 -3.381983e-02 2.010174e-01 -4.601615e-01 -3.248447e-01 8.879080e-01 2.478458e-01 1.266607e+00 -1.722350e-01 9.284000e-01 -5.993650e-01 1.114855e+00 -3.488130e-01 1.269566e+00 -1.306940e-01 2.439920e-01 -8.509912e-02 5.972136e-02 -1.812982e+00
<VARIANCE> 39
 7.826269e+00 1.091507e+01 1.505989e+01 1.835736e+01 1.744265e+01 4.086338e+01 2.295634e+01 3.160694e+01 3.178306e+01 2.177681e+01 2.699385e+01 2.481270e+01 2.468362e+01 1.037235e+00 1.538870e+01 1.409177e+00 7.916413e+00 4.157712e+00 1.234818e+01 2.947623e+00 1.457107e+01 2.543771e+00 2.526649e+00 1.644238e+00 1.641266e+00 3.108400e+01 1.276630e-01 1.209916e+00 3.772169e-01 5.086440e-01 4.537375e-01 1.087481e+00 4.624777e-01 9.011509e-01 4.963072e-01 4.641906e-01 3.550892e-01 3.919833e-01 1.661319e+00
<GCONST> 1.222938e+02
<MIXTURE> 8 1.828430e-02
<MEAN> 39
 -1.708749e+01 -2.844254e+01 -2.560657e+00 -8.033416e+00 6.438907e+00 -7.993083e+00 -1.108713e+00 -1.972369e+01 -2.014372e+00 -7.658064e-01 -3.075367e+00 -3.798693e+00 8.308737e+01 1.901507e-03 -3.131090e+00 -5.091617e-02 -2.051681e+00 4.605048e-01 -2.014383e+00 -5.560272e-01 -3.510341e+00 -4.801028e-01 -7.908130e-01 -8.724164e-01 -7.845522e-01 3.599571e+00 2.084093e-01 1.470102e+00 -6.656203e-02 8.036877e-01 -7.037120e-01 1.164426e+00 -3.381409e-01 1.181519e+00 -1.432800e-01 3.314841e-02 -2.086150e-01 -1.076553e-01 -1.822953e+00
<VARIANCE> 39
 7.116719e+00 1.099411e+01 1.721955e+01 1.831383e+01 1.965874e+01 5.127246e+01 2.478245e+01 3.416920e+01 3.526871e+01 2.930310e+01 2.710309e+01 2.491290e+01 2.609344e+01 1.192644e+00 1.948469e+01 1.604239e+00 9.260497e+00 4.699938e+00 1.631906e+01 3.160199e+00 1.674971e+01 2.518012e+00 2.911295e+00 1.764860e+00 1.527208e+00 3.843063e+01 1.338151e-01 1.390036e+00 4.284854e-01 5.378588e-01 4.891843e-01 1.295879e+00 6.173574e-01 9.656837e-01 6.150438e-01 6.311187e-01 3.865338e-01 3.926775e-01 1.602058e+00
<GCONST> 1.264678e+02
<MIXTURE> 9 1.808924e-02
<MEAN> 39
 -1.631945e+01 -2.678063e+01 -1.874195e+00 -7.952836e+00 5.984316e+00 -5.439375e+00 5.563939e-02 -1.902036e+01 -9.784418e-01 -2.175443e-01 -2.881366e+00 -3.795508e+00 8.279168e+01 2.615885e-01 -1.695427e-01 3.717504e-01 3.041897e-01 -3.578014e-01 1.194864e+00 1.175459e-01 2.604844e-01 5.736842e-01 8.624797e-01 -3.563288e-02 1.173990e-01 -7.368917e-01 2.681699e-01 1.294295e+00 -1.350271e-01 1.056892e+00 -5.447745e-01 1.187159e+00 -2.833685e-01 1.414597e+00 -7.505552e-02 3.764357e-01 3.539328e-02 2.093217e-01 -1.960664e+00
<VARIANCE> 39
 7.755803e+00 1.925188e+01 1.349896e+01 1.887060e+01 1.631588e+01 4.106928e+01 2.077140e+01 3.743148e+01 3.032668e+01 1.791208e+01 2.318991e+01 2.147791e+01 3.776102e+01 8.477337e-01 9.298126e+00 1.467435e+00 5.130009e+00 3.102473e+00 7.727395e+00 2.836978e+00 9.265457e+00 2.384400e+00 2.351474e+00 1.844602e+00 1.823105e+00 1.866688e+01 1.397889e-01 1.057572e+00 3.683563e-01 4.590303e-01 3.587980e-01 1.055490e+00 4.396295e-01 9.392430e-01 4.540942e-01 4.010513e-01 2.986981e-01 3.459902e-01 1.922872e+00
<GCONST> 1.190558e+02
<MIXTURE> 10 1.424070e-01
<MEAN> 39
 -1.674369e+01 -2.759837e+01 -1.657341e+00 -8.018992e+00 6.188491e+00 -6.767436e+00 -4.510930e-01 -1.996701e+01 -1.062727e+00 -7.336378e-01 -3.184452e+00 -3.843601e+00 8.321462e+01 1.771376e-01 -1.319324e+00 2.762366e-01 -6.220715e-01 -7.119946e-02 -1.177368e-01 -3.185051e-01 -1.325723e+00 -3.381973e-02 2.010173e-01 -4.601615e-01 -3.248448e-01 8.879089e-01 2.478458e-01 1.266607e+00 -1.722350e-01 9.284000e-01 -5.993651e-01 1.114855e+00 -3.488131e-01 1.269566e+00 -1.306941e-01 2.439921e-01 -8.509911e-02 5.972131e-02 -1.812982e+00
<VARIANCE> 39
 7.826271e+00 1.091507e+01 1.505989e+01 1.835736e+01 1.744265e+01 4.086339e+01 2.295634e+01 3.160694e+01 3.178306e+01 2.177682e+01 2.699386e+01 2.481270e+01 2.468362e+01 1.037235e+00 1.538870e+01 1.409177e+00 7.916415e+00 4.157713e+00 1.234819e+01 2.947624e+00 1.457107e+01 2.543771e+00 2.526649e+00 1.644239e+00 1.641265e+00 3.108401e+01 1.276630e-01 1.209916e+00 3.772170e-01 5.086441e-01 4.537376e-01 1.087481e+00 4.624778e-01 9.011509e-01 4.963072e-01 4.641906e-01 3.550892e-01 3.919833e-01 1.661319e+00
<GCONST> 1.222938e+02
<MIXTURE> 11 1.424070e-01
<MEAN> 39
 -1.674369e+01 -2.759837e+01 -1.657340e+00 -8.018992e+00 6.188490e+00 -6.767436e+00 -4.510938e-01 -1.996701e+01 -1.062727e+00 -7.336374e-01 -3.184452e+00 -3.843601e+00 8.321462e+01 1.771377e-01 -1.319323e+00 2.762366e-01 -6.220711e-01 -7.119970e-02 -1.177363e-01 -3.185052e-01 -1.325722e+00 -3.381983e-02 2.010174e-01 -4.601615e-01 -3.248448e-01 8.879081e-01 2.478458e-01 1.266607e+00 -1.722350e-01 9.284000e-01 -5.993650e-01 1.114855e+00 -3.488130e-01 1.269566e+00 -1.306940e-01 2.439920e-01 -8.509912e-02 5.972135e-02 -1.812982e+00
<VARIANCE> 39
 7.826269e+00 1.091507e+01 1.505989e+01 1.835736e+01 1.744265e+01 4.086338e+01 2.295634e+01 3.160694e+01 3.178306e+01 2.177681e+01 2.699385e+01 2.481270e+01 2.468362e+01 1.037235e+00 1.538870e+01 1.409177e+00 7.916413e+00 4.157712e+00 1.234818e+01 2.947623e+00 1.457107e+01 2.543771e+00 2.526649e+00 1.644238e+00 1.641266e+00 3.108400e+01 1.276630e-01 1.209916e+00 3.772169e-01 5.086440e-01 4.537376e-01 1.087481e+00 4.624777e-01 9.011509e-01 4.963072e-01 4.641906e-01 3.550892e-01 3.919833e-01 1.661319e+00
<GCONST> 1.222938e+02
<MIXTURE> 12 1.828430e-02
<MEAN> 39
 -1.708749e+01 -2.844254e+01 -2.560657e+00 -8.033415e+00 6.438907e+00 -7.993084e+00 -1.108714e+00 -1.972369e+01 -2.014372e+00 -7.658073e-01 -3.075368e+00 -3.798694e+00 8.308737e+01 1.901627e-03 -3.131089e+00 -5.091639e-02 -2.051680e+00 4.605049e-01 -2.014382e+00 -5.560269e-01 -3.510341e+00 -4.801030e-01 -7.908127e-01 -8.724164e-01 -7.845523e-01 3.599570e+00 2.084093e-01 1.470102e+00 -6.656194e-02 8.036876e-01 -7.037120e-01 1.164426e+00 -3.381409e-01 1.181519e+00 -1.432800e-01 3.314855e-02 -2.086150e-01 -1.076551e-01 -1.822953e+00
<VARIANCE> 39
 7.116718e+00 1.099411e+01 1.721955e+01 1.831382e+01 1.965875e+01 5.127248e+01 2.478244e+01 3.416920e+01 3.526871e+01 2.930311e+01 2.710309e+01 2.491289e+01 2.609344e+01 1.192644e+00 1.948469e+01 1.604239e+00 9.260495e+00 4.699938e+00 1.631906e+01 3.160200e+00 1.674971e+01 2.518012e+00 2.911295e+00 1.764859e+00 1.527208e+00 3.843063e+01 1.338151e-01 1.390037e+00 4.284853e-01 5.378587e-01 4.891844e-01 1.295879e+00 6.173574e-01 9.656835e-01 6.150437e-01 6.311188e-01 3.865339e-01 3.926775e-01 1.602058e+00
<GCONST> 1.264678e+02
<MIXTURE> 13 1.424071e-01
<MEAN> 39
 -1.674369e+01 -2.759837e+01 -1.657340e+00 -8.018992e+00 6.188490e+00 -6.767436e+00 -4.510939e-01 -1.996701e+01 -1.062727e+00 -7.336376e-01 -3.184452e+00 -3.843601e+00 8.321462e+01 1.771377e-01 -1.319323e+00 2.762367e-01 -6.220711e-01 -7.119966e-02 -1.177362e-01 -3.185051e-01 -1.325722e+00 -3.381979e-02 2.010174e-01 -4.601615e-01 -3.248447e-01 8.879081e-01 2.478458e-01 1.266607e+00 -1.722350e-01 9.284000e-01 -5.993650e-01 1.114855e+00 -3.488130e-01 1.269566e+00 -1.306940e-01 2.439921e-01 -8.509912e-02 5.972137e-02 -1.812982e+00
<VARIANCE> 39
 7.826268e+00 1.091507e+01 1.505989e+01 1.835736e+01 1.744265e+01 4.086338e+01 2.295634e+01 3.160694e+01 3.178305e+01 2.177681e+01 2.699385e+01 2.481270e+01 2.468361e+01 1.037235e+00 1.538870e+01 1.409177e+00 7.916412e+00 4.157712e+00 1.234818e+01 2.947623e+00 1.457107e+01 2.543771e+00 2.526649e+00 1.644238e+00 1.641266e+00 3.108401e+01 1.276630e-01 1.209916e+00 3.772169e-01 5.086440e-01 4.537376e-01 1.087481e+00 4.624777e-01 9.011508e-01 4.963072e-01 4.641905e-01 3.550892e-01 3.919832e-01 1.661319e+00
<GCONST> 1.222938e+02
<MIXTURE> 14 1.828430e-02
<MEAN> 39
 -1.708749e+01 -2.844254e+01 -2.560657e+00 -8.033415e+00 6.438907e+00 -7.993084e+00 -1.108714e+00 -1.972369e+01 -2.014372e+00 -7.658073e-01 -3.075368e+00 -3.798694e+00 8.308737e+01 1.901627e-03 -3.131089e+00 -5.091639e-02 -2.051680e+00 4.605049e-01 -2.014382e+00 -5.560269e-01 -3.510341e+00 -4.801030e-01 -7.908127e-01 -8.724164e-01 -7.845523e-01 3.599570e+00 2.084093e-01 1.470102e+00 -6.656194e-02 8.036876e-01 -7.037120e-01 1.164426e+00 -3.381409e-01 1.181519e+00 -1.432800e-01 3.314855e-02 -2.086150e-01 -1.076551e-01 -1.822953e+00
<VARIANCE> 39
 7.116718e+00 1.099411e+01 1.721955e+01 1.831382e+01 1.965875e+01 5.127248e+01 2.478244e+01 3.416920e+01 3.526871e+01 2.930311e+01 2.710309e+01 2.491289e+01 2.609344e+01 1.192644e+00 1.948469e+01 1.604239e+00 9.260495e+00 4.699938e+00 1.631906e+01 3.160200e+00 1.674971e+01 2.518012e+00 2.911295e+00 1.764859e+00 1.527208e+00 3.843063e+01 1.338151e-01 1.390037e+00 4.284853e-01 5.378587e-01 4.891844e-01 1.295879e+00 6.173574e-01 9.656835e-01 6.150437e-01 6.311188e-01 3.865339e-01 3.926775e-01 1.602058e+00
<GCONST> 1.264678e+02
<MIXTURE> 15 1.828429e-02
<MEAN> 39
 -1.708749e+01 -2.844254e+01 -2.560655e+00 -8.033415e+00 6.438905e+00 -7.993081e+00 -1.108714e+00 -1.972369e+01 -2.014371e+00 -7.658066e-01 -3.075368e+00 -3.798693e+00 8.308737e+01 1.901716e-03 -3.131089e+00 -5.091627e-02 -2.051679e+00 4.605048e-01 -2.014382e+00 -5.560272e-01 -3.510341e+00 -4.801029e-01 -7.908127e-01 -8.724164e-01 -7.845523e-01 3.599571e+00 2.084094e-01 1.470102e+00 -6.656206e-02 8.036876e-01 -7.037116e-01 1.164426e+00 -3.381410e-01 1.181519e+00 -1.432800e-01 3.314853e-02 -2.086149e-01 -1.076551e-01 -1.822953e+00
<VARIANCE> 39
 7.116720e+00 1.099411e+01 1.721955e+01 1.831382e+01 1.965875e+01 5.127246e+01 2.478245e+01 3.416920e+01 3.526871e+01 2.930312e+01 2.710309e+01 2.491290e+01 2.609345e+01 1.192644e+00 1.948470e+01 1.604239e+00 9.260495e+00 4.699940e+00 1.631906e+01 3.160200e+00 1.674971e+01 2.518013e+00 2.911296e+00 1.764860e+00 1.527209e+00 3.843063e+01 1.338151e-01 1.390037e+00 4.284852e-01 5.378589e-01 4.891843e-01 1.295878e+00 6.173573e-01 9.656838e-01 6.150439e-01 6.311189e-01 3.865339e-01 3.926777e-01 1.602059e+00
<GCONST> 1.264678e+02
<MIXTURE> 16 3.416593e-05
<MEAN> 39
 -1.752391e+01 -3.057003e+01 -4.664420e+00 -8.428838e+00 5.093294e+00 -1.004877e+01 -1.104727e+00 -2.013983e+01 -1.799849e+00 6.021957e-01 -3.948771e+00 -3.650678e+00 8.330375e+01 -3.612032e-01 -4.760324e+00 -6.053385e-01 -3.264396e+00 1.030784e+00 -3.144389e+00 -3.012847e-01 -4.780416e+00 -7.644567e-01 -2.082514e+00 -1.070125e+00 -9.920007e-01 5.872990e+00 1.912270e-01 2.205196e+00 1.490563e-01 7.907847e-01 -7.186782e-01 1.466808e+00 -4.458422e-01 1.237411e+00 -4.874561e-01 -5.559897e-01 -2.975584e-01 -2.677233e-01 -2.234327e+00
<VARIANCE> 39
 4.040697e+00 1.250404e+01 1.575558e+01 1.590011e+01 2.328792e+01 4.455222e+01 2.685716e+01 3.605261e+01 3.516502e+01 4.099090e+01 3.079023e+01 1.430822e+01 2.465925e+01 1.165513e+00 1.377875e+01 1.575064e+00 6.343440e+00 3.278822e+00 1.178724e+01 3.531360e+00 1.056785e+01 1.460510e+00 2.391242e+00 2.132149e+00 1.519674e+00 2.425780e+01 1.091356e-01 1.688403e+00 3.793700e-01 4.847031e-01 3.364013e-01 1.110447e+00 6.345080e-01 1.341505e+00 8.488148e-01 1.032360e+00 3.420492e-01 2.794296e-01 1.727390e+00
<GCONST> 1.230130e+02
<STATE> 4
<NUMMIXES> 16
<MIXTURE> 1 6.083626e-05
<MEAN> 39
 -1.138577e+01 -8.196670e+00 -7.029317e+00 9.949985e+00 -2.311322e+00 1.334162e+01 -4.980515e+00 -3.995977e+00 -7.590536e+00 6.962194e+00 -2.541927e+00 -3.597692e+00 5.487324e+01 -1.046605e+00 2.131732e+00 -4.166132e-02 5.992613e-01 1.084298e+00 1.984343e+00 2.077453e+00 3.370328e+00 2.221010e+00 1.137322e+00 1.329206e+00 3.574579e-01 -2.110143e+00 -1.064945e-01 5.735451e-02 1.591231e-01 -2.413047e-01 9.159100e-02 1.135265e-01 1.404841e-01 2.854708e-01 6.398495e-01 -1.414003e-01 1.828014e-01 3.668226e-01 8.655071e-02
<VARIANCE> 39
 5.300540e+00 2.289497e+01 1.236271e+01 1.743444e+01 1.896283e+01 3.433173e+01 3.252246e+01 3.099468e+01 4.228043e+01 2.337965e+01 2.105020e+01 1.551031e+01 1.499787e+01 6.833649e-01 5.722246e-01 8.920320e-01 1.883572e+00 2.356145e+00 1.797706e+00 2.907386e+00 2.786622e+00 3.193723e+00 1.386162e+00 1.538534e+00 1.211964e+00 6.000983e-01 1.082169e-01 1.726330e-01 1.948588e-01 2.358142e-01 3.250864e-01 4.634134e-01 5.544481e-01 4.569619e-01 7.237390e-01 3.658202e-01 2.678932e-01 2.680214e-01 1.201988e-01
<GCONST> 9.894408e+01
<MIXTURE> 2 2.377085e-02
<MEAN> 39
 -1.095140e+01 -1.133706e+01 -6.713038e+00 8.079690e+00 -2.533366e+00 1.158053e+01 -6.268501e+00 -5.844975e+00 -6.885561e+00 5.464743e+00 -3.624577e+00 -3.487107e+00 5.769509e+01 -4.095003e-01 2.023205e+00 -3.645960e-01 1.117126e+00 4.595490e-01 1.839138e+00 1.039489e+00 2.604107e+00 1.166770e+00 8.807861e-01 9.073468e-01 2.671514e-01 -2.171749e+00 -1.542904e-01 1.693672e-02 1.550439e-01 -2.087058e-01 1.713439e-01 -8.208357e-02 2.003168e-01 1.053963e-01 4.036529e-01 -7.525855e-02 2.049648e-01 1.703617e-01 2.112344e-01
<VARIANCE> 39
 6.872471e+00 3.992769e+01 1.435555e+01 3.539973e+01 1.755443e+01 3.630754e+01 3.266240e+01 3.547667e+01 4.475601e+01 2.302392e+01 2.343155e+01 2.031917e+01 3.129054e+01 1.408152e+00 7.183424e-01 1.097252e+00 2.946593e+00 2.638959e+00 2.338674e+00 3.407511e+00 3.444159e+00 4.420154e+00 1.741279e+00 1.695650e+00 1.624338e+00 1.253723e+00 1.439166e-01 1.861237e-01 1.947565e-01 3.148347e-01 3.715698e-01 4.167548e-01 5.622320e-01 6.957930e-01 9.371722e-01 4.196638e-01 3.223994e-01 3.211926e-01 1.777193e-01
<GCONST> 1.081856e+02
<MIXTURE> 3 2.377084e-02
<MEAN> 39
 -1.095140e+01 -1.133706e+01 -6.713039e+00 8.079690e+00 -2.533366e+00 1.158053e+01 -6.268500e+00 -5.844975e+00 -6.885562e+00 5.464744e+00 -3.624577e+00 -3.487107e+00 5.769509e+01 -4.095003e-01 2.023205e+00 -3.645960e-01 1.117126e+00 4.595491e-01 1.839138e+00 1.039489e+00 2.604107e+00 1.166770e+00 8.807860e-01 9.073468e-01 2.671513e-01 -2.171749e+00 -1.542904e-01 1.693672e-02 1.550440e-01 -2.087059e-01 1.713438e-01 -8.208364e-02 2.003167e-01 1.053961e-01 4.036528e-01 -7.525861e-02 2.049648e-01 1.703617e-01 2.112344e-01
<VARIANCE> 39
 6.872469e+00 3.992768e+01 1.435555e+01 3.539973e+01 1.755444e+01 3.630754e+01 3.266240e+01 3.547668e+01 4.475600e+01 2.302392e+01 2.343156e+01 2.031917e+01 3.129054e+01 1.408153e+00 7.183425e-01 1.097252e+00 2.946593e+00 2.638959e+00 2.338674e+00 3.407511e+00 3.444159e+00 4.420155e+00 1.741279e+00 1.695650e+00 1.624338e+00 1.253723e+00 1.439166e-01 1.861237e-01 1.947566e-01 3.148348e-01 3.715697e-01 4.167549e-01 5.622321e-01 6.957930e-01 9.371724e-01 4.196637e-01 3.223993e-01 3.211925e-01 1.777193e-01
<GCONST> 1.081856e+02
<MIXTURE> 4 1.360036e-01
<MEAN> 39
 -1.022297e+01 -1.424319e+01 -6.175303e+00 7.381727e+00 -2.555835e+00 9.265236e+00 -8.876805e+00 -8.433972e+00 -6.359929e+00 4.327421e+00 -5.612894e+00 -4.396245e+00 6.037910e+01 2.912743e-01 1.849091e+00 -5.909503e-01 1.518949e+00 -3.797115e-01 1.248972e+00 -2.632527e-01 1.376471e+00 -3.319046e-01 2.670096e-01 2.535269e-01 2.321035e-02 -2.024074e+00 -2.100140e-01 -3.035144e-02 1.303562e-01 -2.571361e-01 1.950114e-01 -2.494085e-01 2.768140e-01 -8.874234e-02 1.257555e-01 -1.323210e-01 1.348843e-01 -3.539497e-02 3.048042e-01
<VARIANCE> 39
 8.472409e+00 3.703135e+01 1.550064e+01 4.357516e+01 1.596631e+01 3.291276e+01 2.955881e+01 3.642836e+01 4.279091e+01 2.016720e+01 2.563952e+01 2.704609e+01 3.083025e+01 1.380328e+00 9.300546e-01 1.280505e+00 3.026303e+00 2.303751e+00 2.808834e+00 3.308557e+00 4.115993e+00 4.646729e+00 1.989044e+00 1.807651e+00 1.699898e+00 1.781208e+00 1.591101e-01 1.925875e-01 2.077208e-01 3.713253e-01 3.612501e-01 3.834742e-01 5.177150e-01 8.401113e-01 9.979975e-01 4.188429e-01 3.639308e-01 3.436327e-01 2.018560e-01
<GCONST> 1.105163e+02
<MIXTURE> 5 2.377084e-02
<MEAN> 39
 -1.095140e+01 -1.133706e+01 -6.713039e+00 8.079690e+00 -2.533366e+00 1.158053e+01 -6.268500e+00 -5.844975e+00 -6.885562e+00 5.464744e+00 -3.624577e+00 -3.487107e+00 5.769509e+01 -4.095003e-01 2.023205e+00 -3.645960e-01 1.117126e+00 4.595491e-01 1.839138e+00 1.039489e+00 2.604107e+00 1.166770e+00 8.807860e-01 9.073468e-01 2.671513e-01 -2.171749e+00 -1.542904e-01 1.693672e-02 1.550440e-01 -2.087059e-01 1.713438e-01 -8.208364e-02 2.003167e-01 1.053961e-01 4.036528e-01 -7.525861e-02 2.049648e-01 1.703617e-01 2.112344e-01
<VARIANCE> 39
 6.872469e+00 3.992768e+01 1.435555e+01 3.539973e+01 1.755444e+01 3.630754e+01 3.266240e+01 3.547668e+01 4.475600e+01 2.302392e+01 2.343156e+01 2.031917e+01 3.129054e+01 1.408153e+00 7.183425e-01 1.097252e+00 2.946593e+00 2.638959e+00 2.338674e+00 3.407511e+00 3.444159e+00 4.420155e+00 1.741279e+00 1.695650e+00 1.624338e+00 1.253723e+00 1.439166e-01 1.861237e-01 1.947566e-01 3.148348e-01 3.715697e-01 4.167549e-01 5.622321e-01 6.957930e-01 9.371724e-01 4.196637e-01 3.223993e-01 3.211925e-01 1.777193e-01
<GCONST> 1.081856e+02
<MIXTURE> 6 1.360036e-01
<MEAN> 39
 -1.022298e+01 -1.424319e+01 -6.175303e+00 7.381727e+00 -2.555835e+00 9.265236e+00 -8.876805e+00 -8.433972e+00 -6.359928e+00 4.327421e+00 -5.612895e+00 -4.396245e+00 6.037910e+01 2.912744e-01 1.849091e+00 -5.909504e-01 1.518950e+00 -3.797117e-01 1.248972e+00 -2.632528e-01 1.376471e+00 -3.319044e-01 2.670096e-01 2.535269e-01 2.321048e-02 -2.024074e+00 -2.100139e-01 -3.035143e-02 1.303562e-01 -2.571361e-01 1.950114e-01 -2.494086e-01 2.768140e-01 -8.874243e-02 1.257554e-01 -1.323210e-01 1.348843e-01 -3.539495e-02 3.048043e-01
<VARIANCE> 39
 8.472409e+00 3.703135e+01 1.550064e+01 4.357517e+01 1.596631e+01 3.291277e+01 2.955882e+01 3.642836e+01 4.279090e+01 2.016720e+01 2.563952e+01 2.704609e+01 3.083025e+01 1.380328e+00 9.300547e-01 1.280506e+00 3.026303e+00 2.303751e+00 2.808834e+00 3.308557e+00 4.115993e+00 4.646728e+00 1.989044e+00 1.807651e+00 1.699898e+00 1.781208e+00 1.591101e-01 1.925875e-01 2.077208e-01 3.713253e-01 3.612500e-01 3.834742e-01 5.177150e-01 8.401113e-01 9.979977e-01 4.188429e-01 3.639308e-01 3.436327e-01 2.018560e-01
<GCONST> 1.105163e+02
<MIXTURE> 7 1.360036e-01
<MEAN> 39
 -1.022298e+01 -1.424319e+01 -6.175303e+00 7.381727e+00 -2.555835e+00 9.265236e+00 -8.876805e+00 -8.433972e+00 -6.359928e+00 4.327421e+00 -5.612895e+00 -4.396245e+00 6.037910e+01 2.912744e-01 1.849091e+00 -5.909504e-01 1.518950e+00 -3.797117e-01 1.248972e+00 -2.632528e-01 1.376471e+00 -3.319044e-01 2.670096e-01 2.535269e-01 2.321048e-02 -2.024074e+00 -2.100139e-01 -3.035143e-02 1.303562e-01 -2.571361e-01 1.950114e-01 -2.494086e-01 2.768140e-01 -8.874243e-02 1.257554e-01 -1.323210e-01 1.348843e-01 -3.539495e-02 3.048043e-01
<VARIANCE> 39
 8.472409e+00 3.703135e+01 1.550064e+01 4.357517e+01 1.596631e+01 3.291277e+01 2.955882e+01 3.642836e+01 4.279090e+01 2.016720e+01 2.563952e+01 2.704609e+01 3.083025e+01 1.380328e+00 9.300547e-01 1.280506e+00 3.026303e+00 2.303751e+00 2.808834e+00 3.308557e+00 4.115993e+00 4.646728e+00 1.989044e+00 1.807651e+00 1.699898e+00 1.781208e+00 1.591101e-01 1.925875e-01 2.077208e-01 3.713253e-01 3.612500e-01 3.834742e-01 5.177150e-01 8.401113e-01 9.979977e-01 4.188429e-01 3.639308e-01 3.436327e-01 2.018560e-01
<GCONST> 1.105163e+02
<MIXTURE> 8 2.219452e-02
<MEAN> 39
 -9.829220e+00 -1.535866e+01 -5.440547e+00 7.698237e+00 -2.545588e+00 7.740914e+00 -1.040727e+01 -1.013119e+01 -6.178861e+00 3.608785e+00 -7.462568e+00 -5.372445e+00 6.164370e+01 4.942255e-01 1.611521e+00 -8.297346e-01 1.291215e+00 -7.899636e-01 7.055354e-01 -1.178269e+00 5.694259e-01 -1.303067e+00 -2.886792e-01 -5.128886e-01 -4.991274e-01 -1.907916e+00 -2.427332e-01 -6.652293e-02 6.862427e-02 -3.364893e-01 1.456439e-01 -3.154932e-01 2.034908e-01 -1.591594e-01 -1.382996e-02 -2.523808e-01 1.610334e-02 -1.734665e-01 3.053768e-01
<VARIANCE> 39
 9.523267e+00 3.403444e+01 1.670291e+01 4.612794e+01 1.443596e+01 3.100899e+01 2.540115e+01 3.618001e+01 3.978724e+01 1.770389e+01 2.428285e+01 2.917313e+01 3.039934e+01 1.529847e+00 1.052962e+00 1.560459e+00 3.488487e+00 2.267713e+00 2.395305e+00 3.055362e+00 4.188674e+00 5.174047e+00 1.859784e+00 2.067024e+00 1.887891e+00 2.052500e+00 1.544476e-01 1.940108e-01 2.445146e-01 4.146922e-01 3.370718e-01 3.117830e-01 5.120994e-01 7.239493e-01 9.095439e-01 4.093641e-01 3.626360e-01 3.518618e-01 1.922006e-01
<GCONST> 1.105873e+02
<MIXTURE> 9 2.377084e-02
<MEAN> 39
 -1.095140e+01 -1.133706e+01 -6.713038e+00 8.079690e+00 -2.533366e+00 1.158053e+01 -6.268500e+00 -5.844975e+00 -6.885562e+00 5.464744e+00 -3.624577e+00 -3.487107e+00 5.769509e+01 -4.095004e-01 2.023205e+00 -3.645960e-01 1.117126e+00 4.595491e-01 1.839138e+00 1.039489e+00 2.604107e+00 1.166770e+00 8.807860e-01 9.073468e-01 2.671513e-01 -2.171749e+00 -1.542904e-01 1.693672e-02 1.550440e-01 -2.087059e-01 1.713438e-01 -8.208364e-02 2.003168e-01 1.053961e-01 4.036528e-01 -7.525860e-02 2.049648e-01 1.703617e-01 2.112344e-01
<VARIANCE> 39
 6.872470e+00 3.992768e+01 1.435555e+01 3.539973e+01 1.755444e+01 3.630754e+01 3.266240e+01 3.547668e+01 4.475600e+01 2.302392e+01 2.343156e+01 2.031917e+01 3.129054e+01 1.408152e+00 7.183425e-01 1.097252e+00 2.946593e+00 2.638959e+00 2.338674e+00 3.407511e+00 3.444159e+00 4.420154e+00 1.741279e+00 1.695650e+00 1.624338e+00 1.253723e+00 1.439166e-01 1.861237e-01 1.947566e-01 3.148348e-01 3.715697e-01 4.167549e-01 5.622322e-01 6.957930e-01 9.371724e-01 4.196637e-01 3.223993e-01 3.211926e-01 1.777193e-01
<GCONST> 1.081856e+02
<MIXTURE> 10 1.360036e-01
<MEAN> 39
 -1.022298e+01 -1.424319e+01 -6.175303e+00 7.381727e+00 -2.555835e+00 9.265236e+00 -8.876805e+00 -8.433972e+00 -6.359928e+00 4.327421e+00 -5.612895e+00 -4.396245e+00 6.037910e+01 2.912744e-01 1.849091e+00 -5.909504e-01 1.518950e+00 -3.797117e-01 1.248972e+00 -2.632528e-01 1.376471e+00 -3.319044e-01 2.670096e-01 2.535269e-01 2.321048e-02 -2.024074e+00 -2.100139e-01 -3.035143e-02 1.303562e-01 -2.571361e-01 1.950114e-01 -2.494086e-01 2.768140e-01 -8.874243e-02 1.257554e-01 -1.323210e-01 1.348843e-01 -3.539495e-02 3.048043e-01
<VARIANCE> 39
 8.472409e+00 3.703135e+01 1.550064e+01 4.357517e+01 1.596631e+01 3.291277e+01 2.955882e+01 3.642836e+01 4.279090e+01 2.016720e+01 2.563952e+01 2.704609e+01 3.083025e+01 1.380328e+00 9.300547e-01 1.280506e+00 3.026303e+00 2.303751e+00 2.808834e+00 3.308557e+00 4.115993e+00 4.646728e+00 1.989044e+00 1.807651e+00 1.699898e+00 1.781208e+00 1.591101e-01 1.925875e-01 2.077208e-01 3.713253e-01 3.612500e-01 3.834742e-01 5.177150e-01 8.401113e-01 9.979977e-01 4.188429e-01 3.639308e-01 3.436327e-01 2.018560e-01
<GCONST> 1.105163e+02
<MIXTURE> 11 1.360036e-01
<MEAN> 39
 -1.022298e+01 -1.424319e+01 -6.175303e+00 7.381727e+00 -2.555835e+00 9.265236e+00 -8.876805e+00 -8.433971e+00 -6.359927e+00 4.327421e+00 -5.612894e+00 -4.396245e+00 6.037910e+01 2.912744e-01 1.849091e+00 -5.909504e-01 1.518950e+00 -3.797117e-01 1.248972e+00 -2.632529e-01 1.376471e+00 -3.319044e-01 2.670096e-01 2.535269e-01 2.321055e-02 -2.024074e+00 -2.100139e-01 -3.035144e-02 1.303562e-01 -2.571361e-01 1.950114e-01 -2.494086e-01 2.768140e-01 -8.874255e-02 1.257552e-01 -1.323210e-01 1.348843e-01 -3.539493e-02 3.048043e-01
<VARIANCE> 39
 8.472408e+00 3.703135e+01 1.550064e+01 4.357517e+01 1.596631e+01 3.291277e+01 2.955882e+01 3.642836e+01 4.279092e+01 2.016720e+01 2.563952e+01 2.704609e+01 3.083025e+01 1.380328e+00 9.300547e-01 1.280506e+00 3.026304e+00 2.303751e+00 2.808834e+00 3.308557e+00 4.115993e+00 4.646728e+00 1.989044e+00 1.807651e+00 1.699898e+00 1.781208e+00 1.591101e-01 1.925875e-01 2.077208e-01 3.713253e-01 3.612500e-01 3.834742e-01 5.177150e-01 8.401114e-01 9.979978e-01 4.188429e-01 3.639308e-01 3.436327e-01 2.018560e-01
<GCONST> 1.105163e+02
<MIXTURE> 12 2.219452e-02
<MEAN> 39
 -9.829220e+00 -1.535866e+01 -5.440547e+00 7.698237e+00 -2.545588e+00 7.740914e+00 -1.040727e+01 -1.013119e+01 -6.178861e+00 3.608785e+00 -7.462568e+00 -5.372445e+00 6.164370e+01 4.942255e-01 1.611521e+00 -8.297346e-01 1.291215e+00 -7.899636e-01 7.055354e-01 -1.178269e+00 5.694259e-01 -1.303067e+00 -2.886792e-01 -5.128886e-01 -4.991274e-01 -1.907916e+00 -2.427332e-01 -6.652293e-02 6.862427e-02 -3.364893e-01 1.456439e-01 -3.154932e-01 2.034908e-01 -1.591594e-01 -1.382996e-02 -2.523808e-01 1.610334e-02 -1.734665e-01 3.053768e-01
<VARIANCE> 39
 9.523267e+00 3.403444e+01 1.670291e+01 4.612794e+01 1.443596e+01 3.100899e+01 2.540115e+01 3.618001e+01 3.978724e+01 1.770389e+01 2.428285e+01 2.917313e+01 3.039934e+01 1.529847e+00 1.052962e+00 1.560459e+00 3.488487e+00 2.267713e+00 2.395305e+00 3.055362e+00 4.188674e+00 5.174047e+00 1.859784e+00 2.067024e+00 1.887891e+00 2.052500e+00 1.544476e-01 1.940108e-01 2.445146e-01 4.146922e-01 3.370718e-01 3.117830e-01 5.120994e-01 7.239493e-01 9.095439e-01 4.093641e-01 3.626360e-01 3.518618e-01 1.922006e-01
<GCONST> 1.105873e+02
<MIXTURE> 13 1.360036e-01
<MEAN> 39
 -1.022298e+01 -1.424319e+01 -6.175303e+00 7.381727e+00 -2.555835e+00 9.265236e+00 -8.876805e+00 -8.433971e+00 -6.359928e+00 4.327421e+00 -5.612895e+00 -4.396245e+00 6.037910e+01 2.912744e-01 1.849091e+00 -5.909504e-01 1.518950e+00 -3.797116e-01 1.248972e+00 -2.632529e-01 1.376471e+00 -3.319044e-01 2.670096e-01 2.535269e-01 2.321049e-02 -2.024074e+00 -2.100139e-01 -3.035144e-02 1.303562e-01 -2.571361e-01 1.950114e-01 -2.494086e-01 2.768140e-01 -8.874254e-02 1.257553e-01 -1.323210e-01 1.348843e-01 -3.539494e-02 3.048043e-01
<VARIANCE> 39
 8.472408e+00 3.703135e+01 1.550064e+01 4.357517e+01 1.596631e+01 3.291277e+01 2.955881e+01 3.642836e+01 4.279092e+01 2.016720e+01 2.563952e+01 2.704609e+01 3.083025e+01 1.380328e+00 9.300547e-01 1.280506e+00 3.026304e+00 2.303751e+00 2.808834e+00 3.308557e+00 4.115993e+00 4.646728e+00 1.989044e+00 1.807651e+00 1.699898e+00 1.781208e+00 1.591101e-01 1.925875e-01 2.077208e-01 3.713253e-01 3.612500e-01 3.834742e-01 5.177150e-01 8.401114e-01 9.979978e-01 4.188429e-01 3.639308e-01 3.436327e-01 2.018560e-01
<GCONST> 1.105163e+02
<MIXTURE> 14 2.219452e-02
<MEAN> 39
 -9.829220e+00 -1.535866e+01 -5.440547e+00 7.698237e+00 -2.545588e+00 7.740914e+00 -1.040727e+01 -1.013119e+01 -6.178861e+00 3.608785e+00 -7.462568e+00 -5.372445e+00 6.164370e+01 4.942255e-01 1.611521e+00 -8.297346e-01 1.291215e+00 -7.899636e-01 7.055354e-01 -1.178269e+00 5.694259e-01 -1.303067e+00 -2.886792e-01 -5.128886e-01 -4.991274e-01 -1.907916e+00 -2.427332e-01 -6.652293e-02 6.862427e-02 -3.364893e-01 1.456439e-01 -3.154932e-01 2.034908e-01 -1.591594e-01 -1.382996e-02 -2.523808e-01 1.610334e-02 -1.734665e-01 3.053768e-01
<VARIANCE> 39
 9.523267e+00 3.403444e+01 1.670291e+01 4.612794e+01 1.443596e+01 3.100899e+01 2.540115e+01 3.618001e+01 3.978724e+01 1.770389e+01 2.428285e+01 2.917313e+01 3.039934e+01 1.529847e+00 1.052962e+00 1.560459e+00 3.488487e+00 2.267713e+00 2.395305e+00 3.055362e+00 4.188674e+00 5.174047e+00 1.859784e+00 2.067024e+00 1.887891e+00 2.052500e+00 1.544476e-01 1.940108e-01 2.445146e-01 4.146922e-01 3.370718e-01 3.117830e-01 5.120994e-01 7.239493e-01 9.095439e-01 4.093641e-01 3.626360e-01 3.518618e-01 1.922006e-01
<GCONST> 1.105873e+02
<MIXTURE> 15 2.219452e-02
<MEAN> 39
 -9.829220e+00 -1.535866e+01 -5.440547e+00 7.698237e+00 -2.545588e+00 7.740914e+00 -1.040727e+01 -1.013119e+01 -6.178862e+00 3.608785e+00 -7.462568e+00 -5.372445e+00 6.164370e+01 4.942255e-01 1.611522e+00 -8.297346e-01 1.291215e+00 -7.899636e-01 7.055354e-01 -1.178269e+00 5.694259e-01 -1.303067e+00 -2.886793e-01 -5.128886e-01 -4.991274e-01 -1.907916e+00 -2.427332e-01 -6.652293e-02 6.862427e-02 -3.364893e-01 1.456439e-01 -3.154931e-01 2.034908e-01 -1.591594e-01 -1.382993e-02 -2.523808e-01 1.610334e-02 -1.734665e-01 3.053768e-01
<VARIANCE> 39
 9.523267e+00 3.403444e+01 1.670291e+01 4.612794e+01 1.443596e+01 3.100899e+01 2.540115e+01 3.618001e+01 3.978724e+01 1.770389e+01 2.428285e+01 2.917313e+01 3.039934e+01 1.529847e+00 1.052962e+00 1.560459e+00 3.488487e+00 2.267713e+00 2.395305e+00 3.055362e+00 4.188674e+00 5.174047e+00 1.859784e+00 2.067024e+00 1.887891e+00 2.052500e+00 1.544476e-01 1.940108e-01 2.445146e-01 4.146922e-01 3.370718e-01 3.117830e-01 5.120995e-01 7.239493e-01 9.095438e-01 4.093641e-01 3.626360e-01 3.518618e-01 1.922006e-01
<GCONST> 1.105873e+02
<MIXTURE> 16 5.018710e-05
<MEAN> 39
 -9.604767e+00 -1.518410e+01 -5.456192e+00 7.757785e+00 -3.218055e+00 7.343456e+00 -1.085967e+01 -1.098674e+01 -6.335341e+00 3.907639e+00 -8.358582e+00 -5.480451e+00 6.168930e+01 3.330517e-01 1.346422e+00 -1.099051e+00 5.100312e-01 -1.000968e+00 3.346524e-01 -1.254392e+00 3.777021e-01 -1.619164e+00 -6.503768e-01 -1.077448e+00 -9.930494e-01 -1.753235e+00 -2.019765e-01 1.289049e-02 -4.628360e-03 -3.336551e-01 7.952514e-02 -3.752384e-01 3.862610e-02 -3.904355e-02 -5.238324e-02 -4.225059e-01 -1.134722e-01 -2.927445e-01 1.887128e-01
<VARIANCE> 39
 1.050978e+01 3.573415e+01 1.616825e+01 4.953809e+01 1.346334e+01 3.246954e+01 2.771503e+01 4.060931e+01 3.551232e+01 1.368915e+01 1.596823e+01 3.237529e+01 3.510191e+01 1.705169e+00 9.146328e-01 1.772662e+00 5.365963e+00 2.454180e+00 1.789079e+00 2.974440e+00 3.973127e+00 5.623132e+00 1.824730e+00 2.205743e+00 2.087331e+00 2.177020e+00 1.221983e-01 1.859799e-01 2.647763e-01 4.200480e-01 3.401274e-01 2.350294e-01 5.284081e-01 6.505796e-01 8.376220e-01 2.900414e-01 3.054764e-01 3.587386e-01 1.926222e-01
<GCONST> 1.098220e+02
<TRANSP> 5
 0.000000e+00 1.000000e+00 0.000000e+00 0.000000e+00 0.000000e+00
 0.000000e+00 7.328002e-01 2.671999e-01 0.000000e+00 0.000000e+00
 0.000000e+00 0.000000e+00 8.669857e-01 1.330143e-01 0.000000e+00
 0.000000e+00 0.000000e+00 0.000000e+00 9.009086e-01 9.909141e-02
 0.000000e+00 0.000000e+00 0.000000e+00 0.000000e+00 0.000000e+00
<ENDHMM>
~h "p"
<BEGINHMM>
<NUMSTATES> 5
<STATE> 2
<NUMMIXES> 16
<MIXTURE> 1 1.234606e-05
<MEAN> 39
 -1.388814e+01 4.125588e+00 -4.489509e+00 9.673577e+00 -6.352349e+00 9.681513e+00 -5.252571e+00 5.495592e+00 -4.010726e+00 1.607453e+00 -2.126430e+00 -3.490352e+00 4.733415e+01 1.511157e+00 -3.647760e+00 3.380770e+00 -2.760034e+00 3.409492e+00 -3.955172e+00 1.845670e+00 -3.205390e+00 1.363329e+00 -2.322484e+00 1.263010e+00 1.237446e+00 8.905317e+00 6.940342e-01 -6.516343e-01 1.059653e+00 -3.174266e-01 1.075499e+00 -5.618231e-01 6.266801e-01 -5.596849e-01 2.742858e-01 -7.090764e-01 1.550072e-01 -9.271869e-02 2.214152e+00
<VARIANCE> 39
 9.516378e+00 1.045507e+01 4.307383e+00 4.697726e+00 9.535969e+00 9.598669e+00 2.023719e+01 1.708141e+01 8.594136e+00 1.015518e+01 1.054934e+01 4.383936e+00 6.905707e+00 8.899000e-01 2.318240e+00 2.798957e+00 2.907321e+00 3.678612e+00 8.866702e+00 3.515383e+00 6.640219e+00 2.679337e+00 3.368892e+00 2.524873e+00 8.780724e-01 1.401804e+01 4.859520e-02 5.734176e-01 1.281222e-01 2.349923e-01 4.145409e-01 2.290663e-01 4.023234e-01 2.853445e-01 2.113962e-01 1.429172e-01 1.649733e-01 1.348454e-01 3.680100e-01
<GCONST> 9.506779e+01
<MIXTURE> 2 1.640301e-02
<MEAN> 39
 -1.504430e+01 3.621870e+00 -4.471289e+00 9.660173e+00 -5.306171e+00 1.168388e+01 -2.971726e+00 7.962694e+00 -3.069938e+00 1.076092e+00 -1.521976e+00 -2.752664e+00 4.677117e+01 1.323580e+00 -2.918375e+00 2.033624e+00 -2.199521e+00 2.284387e+00 -3.087543e+00 1.165722e+00 -3.045499e+00 2.237407e-01 -1.678424e+00 5.357107e-01 5.351375e-01 6.442067e+00 7.288436e-01 -8.670153e-01 8.945703e-01 -6.356252e-01 9.398340e-01 -8.710826e-01 4.461060e-01 -1.051688e+00 7.182129e-02 -7.209011e-01 4.846789e-02 -6.026193e-03 2.421669e+00
<VARIANCE> 39
 7.305548e+00 8.117151e+00 5.388423e+00 5.866345e+00 1.003225e+01 1.429093e+01 2.235745e+01 1.844147e+01 1.478008e+01 1.088036e+01 1.100928e+01 8.037310e+00 6.577329e+00 1.572438e+00 4.299397e+00 3.411325e+00 3.934575e+00 4.290455e+00 8.068102e+00 3.579346e+00 8.697088e+00 3.118402e+00 4.162024e+00 1.806215e+00 1.387364e+00 2.162099e+01 7.833237e-02 3.665063e-01 1.825618e-01 3.546679e-01 3.653081e-01 4.914050e-01 4.121718e-01 5.451826e-01 3.636020e-01 2.647025e-01 2.251944e-01 2.040594e-01 5.666310e-01
<GCONST> 1.042061e+02
<MIXTURE> 3 1.640301e-02
<MEAN> 39
 -1.504430e+01 3.621870e+00 -4.471289e+00 9.660173e+00 -5.306171e+00 1.168388e+01 -2.971727e+00 7.962693e+00 -3.069939e+00 1.076092e+00 -1.521977e+00 -2.752665e+00 4.677117e+01 1.323580e+00 -2.918375e+00 2.033624e+00 -2.199521e+00 2.284387e+00 -3.087543e+00 1.165723e+00 -3.045499e+00 2.237409e-01 -1.678424e+00 5.357107e-01 5.351375e-01 6.442067e+00 7.288436e-01 -8.670152e-01 8.945704e-01 -6.356253e-01 9.398341e-01 -8.710827e-01 4.461061e-01 -1.051688e+00 7.182135e-02 -7.209011e-01 4.846792e-02 -6.026119e-03 2.421669e+00
<VARIANCE> 39
 7.305548e+00 8.117152e+00 5.388423e+00 5.866345e+00 1.003226e+01 1.429093e+01 2.235746e+01 1.844147e+01 1.478008e+01 1.088036e+01 1.100928e+01 8.037310e+00 6.577329e+00 1.572437e+00 4.299396e+00 3.411325e+00 3.934574e+00 4.290455e+00 8.068102e+00 3.579346e+00 8.697089e+00 3.118402e+00 4.162023e+00 1.806215e+00 1.387365e+00 2.162098e+01 7.833236e-02 3.665063e-01 1.825618e-01 3.546679e-01 3.653080e-01 4.914051e-01 4.121718e-01 5.451826e-01 3.636020e-01 2.647025e-01 2.251944e-01 2.040594e-01 5.666310e-01
<GCONST> 1.042061e+02
<MIXTURE> 4 1.427543e-01
<MEAN> 39
 -1.503707e+01 3.180678e+00 -4.057864e+00 9.040602e+00 -5.621921e+00 1.167072e+01 -3.394417e+00 7.394432e+00 -3.490476e+00 3.111699e-01 -2.069892e+00 -2.937307e+00 4.721133e+01 1.103683e+00 -2.388821e+00 1.260980e+00 -1.726678e+00 1.468591e+00 -2.533975e+00 7.532436e-01 -2.516415e+00 -3.198832e-01 -1.435368e+00 7.096030e-02 6.473044e-02 4.798549e+00 7.040728e-01 -1.024019e+00 8.249100e-01 -7.467996e-01 8.911765e-01 -1.008087e+00 3.891825e-01 -1.170780e+00 -3.097343e-02 -7.697638e-01 -5.012228e-02 -2.534870e-02 2.492742e+00
<VARIANCE> 39
 5.357796e+00 9.426755e+00 9.997114e+00 6.802423e+00 1.169930e+01 1.554751e+01 2.350177e+01 1.903951e+01 1.771983e+01 1.320191e+01 1.152902e+01 9.735164e+00 7.857351e+00 1.575289e+00 4.952873e+00 3.253386e+00 3.687925e+00 3.915215e+00 6.517507e+00 3.214955e+00 7.587217e+00 2.633736e+00 4.010455e+00 1.588995e+00 1.552646e+00 1.988476e+01 1.001023e-01 2.802823e-01 2.006398e-01 3.373418e-01 3.675319e-01 5.345351e-01 4.457400e-01 5.649204e-01 4.102104e-01 3.265930e-01 2.574141e-01 2.561625e-01 5.828093e-01
<GCONST> 1.060443e+02
<MIXTURE> 5 1.640301e-02
<MEAN> 39
 -1.504430e+01 3.621870e+00 -4.471289e+00 9.660173e+00 -5.306171e+00 1.168388e+01 -2.971727e+00 7.962693e+00 -3.069939e+00 1.076092e+00 -1.521977e+00 -2.752665e+00 4.677117e+01 1.323580e+00 -2.918375e+00 2.033624e+00 -2.199521e+00 2.284387e+00 -3.087543e+00 1.165723e+00 -3.045499e+00 2.237409e-01 -1.678424e+00 5.357107e-01 5.351375e-01 6.442067e+00 7.288436e-01 -8.670152e-01 8.945704e-01 -6.356253e-01 9.398341e-01 -8.710827e-01 4.461061e-01 -1.051688e+00 7.182135e-02 -7.209011e-01 4.846792e-02 -6.026119e-03 2.421669e+00
<VARIANCE> 39
 7.305548e+00 8.117152e+00 5.388423e+00 5.866345e+00 1.003226e+01 1.429093e+01 2.235746e+01 1.844147e+01 1.478008e+01 1.088036e+01 1.100928e+01 8.037310e+00 6.577329e+00 1.572437e+00 4.299396e+00 3.411325e+00 3.934574e+00 4.290455e+00 8.068102e+00 3.579346e+00 8.697089e+00 3.118402e+00 4.162023e+00 1.806215e+00 1.387365e+00 2.162098e+01 7.833236e-02 3.665063e-01 1.825618e-01 3.546679e-01 3.653080e-01 4.914051e-01 4.121718e-01 5.451826e-01 3.636020e-01 2.647025e-01 2.251944e-01 2.040594e-01 5.666310e-01
<GCONST> 1.042061e+02
<MIXTURE> 6 1.427543e-01
<MEAN> 39
 -1.503707e+01 3.180678e+00 -4.057864e+00 9.040602e+00 -5.621921e+00 1.167072e+01 -3.394417e+00 7.394432e+00 -3.490476e+00 3.111699e-01 -2.069892e+00 -2.937307e+00 4.721133e+01 1.103683e+00 -2.388821e+00 1.260980e+00 -1.726678e+00 1.468591e+00 -2.533975e+00 7.532436e-01 -2.516415e+00 -3.198832e-01 -1.435368e+00 7.096030e-02 6.473044e-02 4.798549e+00 7.040728e-01 -1.024019e+00 8.249100e-01 -7.467996e-01 8.911765e-01 -1.008087e+00 3.891825e-01 -1.170780e+00 -3.097343e-02 -7.697638e-01 -5.012228e-02 -2.534870e-02 2.492742e+00
<VARIANCE> 39
 5.357796e+00 9.426755e+00 9.997114e+00 6.802423e+00 1.169930e+01 1.554751e+01 2.350177e+01 1.903951e+01 1.771983e+01 1.320191e+01 1.152902e+01 9.735164e+00 7.857351e+00 1.575289e+00 4.952873e+00 3.253386e+00 3.687925e+00 3.915215e+00 6.517507e+00 3.214955e+00 7.587217e+00 2.633736e+00 4.010455e+00 1.588995e+00 1.552646e+00 1.988476e+01 1.001023e-01 2.802823e-01 2.006398e-01 3.373418e-01 3.675319e-01 5.345351e-01 4.457400e-01 5.649204e-01 4.102104e-01 3.265930e-01 2.574141e-01 2.561625e-01 5.828093e-01
<GCONST> 1.060443e+02
<MIXTURE> 7 1.427543e-01
<MEAN> 39
 -1.503707e+01 3.180678e+00 -4.057864e+00 9.040602e+00 -5.621921e+00 1.167073e+01 -3.394417e+00 7.394432e+00 -3.490476e+00 3.111699e-01 -2.069892e+00 -2.937307e+00 4.721133e+01 1.103683e+00 -2.388821e+00 1.260980e+00 -1.726678e+00 1.468591e+00 -2.533975e+00 7.532436e-01 -2.516415e+00 -3.198833e-01 -1.435368e+00 7.096031e-02 6.473042e-02 4.798549e+00 7.040729e-01 -1.024019e+00 8.249100e-01 -7.467996e-01 8.911765e-01 -1.008087e+00 3.891825e-01 -1.170780e+00 -3.097343e-02 -7.697638e-01 -5.012227e-02 -2.534873e-02 2.492742e+00
<VARIANCE> 39
 5.357795e+00 9.426755e+00 9.997114e+00 6.802423e+00 1.169930e+01 1.554751e+01 2.350177e+01 1.903951e+01 1.771983e+01 1.320191e+01 1.152902e+01 9.735164e+00 7.857351e+00 1.575289e+00 4.952873e+00 3.253386e+00 3.687925e+00 3.915215e+00 6.517507e+00 3.214955e+00 7.587217e+00 2.633736e+00 4.010455e+00 1.588995e+00 1.552646e+00 1.988476e+01 1.001023e-01 2.802823e-01 2.006398e-01 3.373418e-01 3.675319e-01 5.345351e-01 4.457400e-01 5.649204e-01 4.102104e-01 3.265930e-01 2.574141e-01 2.561625e-01 5.828093e-01
<GCONST> 1.060443e+02
<MIXTURE> 8 1.943377e-02
<MEAN> 39
 -1.519518e+01 3.231254e+00 -4.160474e+00 7.355996e+00 -6.768735e+00 1.015771e+01 -6.683859e+00 4.878805e+00 -4.914593e+00 -1.309361e+00 -3.381117e+00 -3.800860e+00 4.722221e+01 7.542581e-01 -1.656478e+00 4.139515e-01 -1.254229e+00 5.400215e-01 -1.907012e+00 3.964115e-01 -1.863444e+00 -6.576622e-01 -1.191255e+00 -4.101476e-01 -3.552548e-01 2.937489e+00 5.712311e-01 -1.102551e+00 7.414379e-01 -7.460268e-01 9.117792e-01 -9.247409e-01 6.038308e-01 -1.063407e+00 -1.287248e-01 -6.903954e-01 -1.169058e-01 -1.167492e-01 2.376588e+00
<VARIANCE> 39
 2.190915e+01 1.417581e+01 1.502315e+01 9.393597e+00 1.127579e+01 1.579272e+01 2.289227e+01 1.714357e+01 1.928289e+01 1.435678e+01 1.192859e+01 9.824253e+00 2.685672e+01 1.055729e+00 5.303411e+00 2.831678e+00 2.852430e+00 3.244150e+00 4.332863e+00 2.659200e+00 4.921103e+00 2.131108e+00 3.028790e+00 1.670348e+00 1.491243e+00 1.454082e+01 1.028820e-01 3.010028e-01 2.262588e-01 2.560029e-01 3.903319e-01 5.722745e-01 5.291743e-01 4.967607e-01 4.585567e-01 4.128674e-01 2.757942e-01 2.681401e-01 7.424271e-01
<GCONST> 1.079534e+02
<MIXTURE> 9 1.640301e-02
<MEAN> 39
 -1.504430e+01 3.621870e+00 -4.471289e+00 9.660173e+00 -5.306171e+00 1.168388e+01 -2.971726e+00 7.962693e+00 -3.069939e+00 1.076092e+00 -1.521977e+00 -2.752665e+00 4.677117e+01 1.323580e+00 -2.918375e+00 2.033624e+00 -2.199521e+00 2.284387e+00 -3.087543e+00 1.165723e+00 -3.045498e+00 2.237408e-01 -1.678424e+00 5.357106e-01 5.351377e-01 6.442068e+00 7.288436e-01 -8.670152e-01 8.945704e-01 -6.356252e-01 9.398341e-01 -8.710827e-01 4.461060e-01 -1.051688e+00 7.182135e-02 -7.209011e-01 4.846790e-02 -6.026044e-03 2.421669e+00
<VARIANCE> 39
 7.305547e+00 8.117150e+00 5.388421e+00 5.866346e+00 1.003225e+01 1.429093e+01 2.235745e+01 1.844147e+01 1.478008e+01 1.088036e+01 1.100928e+01 8.037311e+00 6.577328e+00 1.572437e+00 4.299395e+00 3.411325e+00 3.934575e+00 4.290456e+00 8.068102e+00 3.579346e+00 8.697088e+00 3.118401e+00 4.162021e+00 1.806215e+00 1.387364e+00 2.162098e+01 7.833236e-02 3.665063e-01 1.825617e-01 3.546679e-01 3.653080e-01 4.914049e-01 4.121718e-01 5.451826e-01 3.636020e-01 2.647024e-01 2.251943e-01 2.040593e-01 5.666310e-01
<GCONST> 1.042061e+02
<MIXTURE> 10 1.427543e-01
<MEAN> 39
 -1.503707e+01 3.180678e+00 -4.057864e+00 9.040602e+00 -5.621921e+00 1.167072e+01 -3.394417e+00 7.394432e+00 -3.490476e+00 3.111699e-01 -2.069892e+00 -2.937307e+00 4.721133e+01 1.103683e+00 -2.388821e+00 1.260980e+00 -1.726678e+00 1.468591e+00 -2.533975e+00 7.532436e-01 -2.516415e+00 -3.198832e-01 -1.435368e+00 7.096030e-02 6.473044e-02 4.798549e+00 7.040728e-01 -1.024019e+00 8.249100e-01 -7.467996e-01 8.911765e-01 -1.008087e+00 3.891825e-01 -1.170780e+00 -3.097343e-02 -7.697638e-01 -5.012228e-02 -2.534870e-02 2.492742e+00
<VARIANCE> 39
 5.357796e+00 9.426755e+00 9.997114e+00 6.802423e+00 1.169930e+01 1.554751e+01 2.350177e+01 1.903951e+01 1.771983e+01 1.320191e+01 1.152902e+01 9.735164e+00 7.857351e+00 1.575289e+00 4.952873e+00 3.253386e+00 3.687925e+00 3.915215e+00 6.517507e+00 3.214955e+00 7.587217e+00 2.633736e+00 4.010455e+00 1.588995e+00 1.552646e+00 1.988476e+01 1.001023e-01 2.802823e-01 2.006398e-01 3.373418e-01 3.675319e-01 5.345351e-01 4.457400e-01 5.649204e-01 4.102104e-01 3.265930e-01 2.574141e-01 2.561625e-01 5.828093e-01
<GCONST> 1.060443e+02
<MIXTURE> 11 1.427543e-01
<MEAN> 39
 -1.503707e+01 3.180678e+00 -4.057864e+00 9.040602e+00 -5.621921e+00 1.167072e+01 -3.394417e+00 7.394432e+00 -3.490476e+00 3.111699e-01 -2.069892e+00 -2.937307e+00 4.721133e+01 1.103683e+00 -2.388821e+00 1.260980e+00 -1.726678e+00 1.468591e+00 -2.533975e+00 7.532436e-01 -2.516415e+00 -3.198832e-01 -1.435368e+00 7.096030e-02 6.473044e-02 4.798549e+00 7.040728e-01 -1.024019e+00 8.249100e-01 -7.467996e-01 8.911765e-01 -1.008087e+00 3.891825e-01 -1.170780e+00 -3.097343e-02 -7.697638e-01 -5.012228e-02 -2.534871e-02 2.492742e+00
<VARIANCE> 39
 5.357796e+00 9.426755e+00 9.997114e+00 6.802423e+00 1.169930e+01 1.554751e+01 2.350177e+01 1.903951e+01 1.771983e+01 1.320191e+01 1.152902e+01 9.735164e+00 7.857351e+00 1.575289e+00 4.952873e+00 3.253386e+00 3.687925e+00 3.915215e+00 6.517507e+00 3.214955e+00 7.587217e+00 2.633736e+00 4.010455e+00 1.588995e+00 1.552646e+00 1.988476e+01 1.001023e-01 2.802823e-01 2.006398e-01 3.373418e-01 3.675319e-01 5.345351e-01 4.457400e-01 5.649204e-01 4.102104e-01 3.265930e-01 2.574141e-01 2.561625e-01 5.828093e-01
<GCONST> 1.060443e+02
<MIXTURE> 12 1.943377e-02
<MEAN> 39
 -1.519517e+01 3.231255e+00 -4.160474e+00 7.355995e+00 -6.768736e+00 1.015771e+01 -6.683860e+00 4.878805e+00 -4.914593e+00 -1.309361e+00 -3.381118e+00 -3.800861e+00 4.722221e+01 7.542579e-01 -1.656477e+00 4.139515e-01 -1.254229e+00 5.400214e-01 -1.907011e+00 3.964111e-01 -1.863443e+00 -6.576622e-01 -1.191255e+00 -4.101477e-01 -3.552548e-01 2.937488e+00 5.712310e-01 -1.102551e+00 7.414379e-01 -7.460269e-01 9.117793e-01 -9.247409e-01 6.038308e-01 -1.063407e+00 -1.287248e-01 -6.903952e-01 -1.169056e-01 -1.167491e-01 2.376588e+00
<VARIANCE> 39
 2.190915e+01 1.417581e+01 1.502315e+01 9.393597e+00 1.127579e+01 1.579272e+01 2.289227e+01 1.714357e+01 1.928288e+01 1.435678e+01 1.192859e+01 9.824253e+00 2.685671e+01 1.055728e+00 5.303411e+00 2.831677e+00 2.852429e+00 3.244150e+00 4.332861e+00 2.659201e+00 4.921100e+00 2.131108e+00 3.028790e+00 1.670348e+00 1.491243e+00 1.454083e+01 1.028820e-01 3.010027e-01 2.262588e-01 2.560029e-01 3.903319e-01 5.722746e-01 5.291742e-01 4.967608e-01 4.585568e-01 4.128674e-01 2.757942e-01 2.681401e-01 7.424272e-01
<GCONST> 1.079534e+02
<MIXTURE> 13 1.427543e-01
<MEAN> 39
 -1.503707e+01 3.180678e+00 -4.057864e+00 9.040602e+00 -5.621921e+00 1.167072e+01 -3.394417e+00 7.394432e+00 -3.490476e+00 3.111699e-01 -2.069892e+00 -2.937307e+00 4.721133e+01 1.103683e+00 -2.388821e+00 1.260980e+00 -1.726678e+00 1.468591e+00 -2.533975e+00 7.532436e-01 -2.516415e+00 -3.198833e-01 -1.435368e+00 7.096029e-02 6.473044e-02 4.798549e+00 7.040728e-01 -1.024019e+00 8.249100e-01 -7.467996e-01 8.911765e-01 -1.008087e+00 3.891825e-01 -1.170780e+00 -3.097343e-02 -7.697638e-01 -5.012228e-02 -2.534869e-02 2.492742e+00
<VARIANCE> 39
 5.357796e+00 9.426755e+00 9.997114e+00 6.802423e+00 1.169930e+01 1.554751e+01 2.350177e+01 1.903951e+01 1.771983e+01 1.320191e+01 1.152902e+01 9.735166e+00 7.857351e+00 1.575289e+00 4.952873e+00 3.253386e+00 3.687925e+00 3.915215e+00 6.517507e+00 3.214955e+00 7.587218e+00 2.633736e+00 4.010455e+00 1.588995e+00 1.552646e+00 1.988476e+01 1.001023e-01 2.802823e-01 2.006398e-01 3.373418e-01 3.675319e-01 5.345351e-01 4.457400e-01 5.649204e-01 4.102104e-01 3.265930e-01 2.574141e-01 2.561625e-01 5.828093e-01
<GCONST> 1.060443e+02
<MIXTURE> 14 1.943377e-02
<MEAN> 39
 -1.519517e+01 3.231255e+00 -4.160474e+00 7.355995e+00 -6.768736e+00 1.015771e+01 -6.683860e+00 4.878805e+00 -4.914593e+00 -1.309361e+00 -3.381118e+00 -3.800861e+00 4.722221e+01 7.542579e-01 -1.656477e+00 4.139515e-01 -1.254229e+00 5.400214e-01 -1.907011e+00 3.964111e-01 -1.863443e+00 -6.576622e-01 -1.191255e+00 -4.101477e-01 -3.552548e-01 2.937488e+00 5.712310e-01 -1.102551e+00 7.414379e-01 -7.460269e-01 9.117793e-01 -9.247409e-01 6.038308e-01 -1.063407e+00 -1.287248e-01 -6.903952e-01 -1.169056e-01 -1.167491e-01 2.376588e+00
<VARIANCE> 39
 2.190915e+01 1.417581e+01 1.502315e+01 9.393597e+00 1.127579e+01 1.579272e+01 2.289227e+01 1.714357e+01 1.928288e+01 1.435678e+01 1.192859e+01 9.824253e+00 2.685671e+01 1.055728e+00 5.303411e+00 2.831677e+00 2.852429e+00 3.244150e+00 4.332861e+00 2.659201e+00 4.921100e+00 2.131108e+00 3.028790e+00 1.670348e+00 1.491243e+00 1.454083e+01 1.028820e-01 3.010027e-01 2.262588e-01 2.560029e-01 3.903319e-01 5.722746e-01 5.291742e-01 4.967608e-01 4.585568e-01 4.128674e-01 2.757942e-01 2.681401e-01 7.424272e-01
<GCONST> 1.079534e+02
<MIXTURE> 15 1.943376e-02
<MEAN> 39
 -1.519517e+01 3.231255e+00 -4.160473e+00 7.355996e+00 -6.768735e+00 1.015771e+01 -6.683859e+00 4.878806e+00 -4.914593e+00 -1.309361e+00 -3.381117e+00 -3.800860e+00 4.722221e+01 7.542579e-01 -1.656477e+00 4.139516e-01 -1.254229e+00 5.400218e-01 -1.907012e+00 3.964115e-01 -1.863443e+00 -6.576619e-01 -1.191255e+00 -4.101478e-01 -3.552549e-01 2.937489e+00 5.712311e-01 -1.102551e+00 7.414380e-01 -7.460270e-01 9.117794e-01 -9.247410e-01 6.038308e-01 -1.063407e+00 -1.287249e-01 -6.903955e-01 -1.169057e-01 -1.167491e-01 2.376588e+00
<VARIANCE> 39
 2.190915e+01 1.417581e+01 1.502315e+01 9.393598e+00 1.127579e+01 1.579272e+01 2.289227e+01 1.714357e+01 1.928288e+01 1.435678e+01 1.192859e+01 9.824253e+00 2.685671e+01 1.055728e+00 5.303412e+00 2.831678e+00 2.852430e+00 3.244150e+00 4.332864e+00 2.659201e+00 4.921100e+00 2.131108e+00 3.028791e+00 1.670348e+00 1.491243e+00 1.454083e+01 1.028820e-01 3.010027e-01 2.262588e-01 2.560029e-01 3.903320e-01 5.722747e-01 5.291742e-01 4.967608e-01 4.585569e-01 4.128673e-01 2.757942e-01 2.681401e-01 7.424272e-01
<GCONST> 1.079534e+02
<MIXTURE> 16 1.141767e-04
<MEAN> 39
 -3.025959e+01 1.017568e+01 -7.863421e+00 2.137583e+00 -3.545359e+00 1.234855e+01 -1.256231e+01 4.373509e+00 4.348416e-01 -1.100590e+00 -3.595815e+00 -2.491659e+00 3.204112e+01 5.078889e-01 -3.762393e-01 1.267951e-01 -7.202168e-01 -5.473953e-01 -8.418627e-01 -2.608524e-01 -5.475454e-01 -5.412771e-01 -4.592187e-01 3.649377e-01 3.241839e-01 8.894176e-01 3.105429e-01 -3.035008e-01 2.828019e-01 -3.131265e-01 4.530430e-02 -3.247319e-01 2.979102e-01 -4.163009e-01 -5.374483e-01 1.196289e-02 5.667210e-03 -2.192966e-01 8.213053e-01
<VARIANCE> 39
 1.175144e+02 2.479121e+01 6.990778e+00 1.376121e+01 9.231998e+00 9.801589e+00 1.015209e+01 5.800453e+00 2.210431e+01 6.300631e+00 5.796772e+00 6.562411e+00 1.146331e+02 1.609678e-01 2.601930e+00 8.209945e-01 8.477883e-01 8.409216e-01 1.124649e+00 7.409171e-01 1.463976e+00 5.073447e-01 8.533993e-01 9.118396e-01 5.473758e-01 3.631582e+00 4.098283e-02 5.225307e-01 1.579203e-01 1.716299e-01 4.257260e-01 3.178108e-01 2.750988e-01 3.237529e-01 1.448064e-01 4.548044e-01 8.347291e-02 9.033113e-02 1.266296e+00
<GCONST> 8.542680e+01
<STATE> 3
<NUMMIXES> 16
<MIXTURE> 1 1.720220e-05
<MEAN> 39
 -5.581741e+00 -1.045115e+01 6.981011e+00 -2.343078e-01 8.301324e+00 -1.946453e+00 6.483855e+00 -7.865728e+00 -4.828224e+00 -8.845061e+00 -2.062765e+00 -1.946293e+00 8.225130e+01 1.896454e+00 6.509659e-01 8.502730e-01 9.541299e-01 5.793643e-01 1.975637e+00 8.188844e-01 1.419463e+00 1.929407e+00 7.223938e-01 7.175971e-01 1.078309e+00 3.095574e-01 -4.630845e-01 1.424067e+00 -1.068416e+00 1.323667e+00 -1.410326e+00 1.926914e+00 -8.224739e-01 2.062846e+00 4.112732e-01 1.089877e+00 -8.009639e-02 8.802930e-02 -3.619286e+00
<VARIANCE> 39
 4.223282e+00 8.041981e+00 1.257424e+01 2.397017e+01 2.527963e+01 3.037933e+01 2.400691e+01 4.019270e+01 2.596282e+01 1.808175e+01 2.375186e+01 1.480647e+01 3.814332e+01 8.323916e-01 3.799639e+00 4.097111e+00 2.600530e+00 4.127066e+00 6.642274e+00 2.873141e+00 5.695019e+00 2.127850e+00 3.731817e+00 1.597606e+00 1.208388e+00 1.774688e+01 1.744058e-01 3.835579e-01 2.565064e-01 5.906253e-01 3.165898e-01 1.107383e+00 5.554694e-01 1.045901e+00 3.437338e-01 5.384721e-01 5.265123e-01 2.310954e-01 1.484651e+00
<GCONST> 1.157307e+02
<MIXTURE> 2 1.573750e-02
<MEAN> 39
 -5.418831e+00 -1.011277e+01 6.569277e+00 -8.244439e-01 6.316571e+00 -2.200604e+00 3.375641e+00 -7.380685e+00 -2.995384e+00 -9.170690e+00 -2.245518e+00 -2.185049e+00 8.050613e+01 1.904132e+00 -3.127805e-01 9.277483e-01 6.011657e-01 6.941139e-01 8.557746e-01 7.787112e-01 4.556544e-01 8.752435e-01 -4.180291e-01 -4.596947e-01 2.395487e-01 1.629228e+00 -4.167633e-01 1.260189e+00 -9.532995e-01 1.304240e+00 -1.217341e+00 1.673071e+00 -5.459065e-01 1.731000e+00 5.646311e-02 9.335247e-01 -1.688303e-01 -3.778264e-02 -3.113514e+00
<VARIANCE> 39
 9.446877e+00 1.034372e+01 1.306967e+01 2.453184e+01 2.288538e+01 4.491038e+01 2.543498e+01 4.302592e+01 2.336767e+01 2.089028e+01 2.520540e+01 1.994450e+01 4.312715e+01 1.069832e+00 5.329148e+00 5.030729e+00 5.171413e+00 7.744259e+00 1.088499e+01 3.506727e+00 1.095854e+01 2.142692e+00 4.087794e+00 2.105667e+00 1.435827e+00 3.424931e+01 2.035943e-01 4.607780e-01 3.669466e-01 5.792780e-01 5.449923e-01 1.480319e+00 5.542629e-01 1.521923e+00 5.207028e-01 5.343617e-01 5.127777e-01 3.245751e-01 2.680958e+00
<GCONST> 1.256440e+02
<MIXTURE> 3 1.573751e-02
<MEAN> 39
 -5.418831e+00 -1.011277e+01 6.569278e+00 -8.244439e-01 6.316571e+00 -2.200604e+00 3.375642e+00 -7.380685e+00 -2.995384e+00 -9.170690e+00 -2.245518e+00 -2.185050e+00 8.050613e+01 1.904132e+00 -3.127803e-01 9.277484e-01 6.011658e-01 6.941139e-01 8.557750e-01 7.787113e-01 4.556549e-01 8.752439e-01 -4.180290e-01 -4.596946e-01 2.395487e-01 1.629228e+00 -4.167633e-01 1.260189e+00 -9.532996e-01 1.304240e+00 -1.217341e+00 1.673071e+00 -5.459066e-01 1.731000e+00 5.646318e-02 9.335248e-01 -1.688304e-01 -3.778255e-02 -3.113514e+00
<VARIANCE> 39
 9.446874e+00 1.034371e+01 1.306967e+01 2.453183e+01 2.288538e+01 4.491037e+01 2.543499e+01 4.302592e+01 2.336769e+01 2.089028e+01 2.520540e+01 1.994450e+01 4.312714e+01 1.069832e+00 5.329149e+00 5.030728e+00 5.171413e+00 7.744257e+00 1.088499e+01 3.506727e+00 1.095854e+01 2.142693e+00 4.087795e+00 2.105666e+00 1.435827e+00 3.424931e+01 2.035943e-01 4.607779e-01 3.669465e-01 5.792779e-01 5.449922e-01 1.480319e+00 5.542629e-01 1.521923e+00 5.207030e-01 5.343616e-01 5.127777e-01 3.245751e-01 2.680956e+00
<GCONST> 1.256440e+02
<MIXTURE> 4 1.460097e-01
<MEAN> 39
 -5.486082e+00 -1.050508e+01 5.795069e+00 -3.894435e-01 5.197168e+00 -1.586730e+00 1.779692e+00 -7.044283e+00 -4.034775e+00 -9.645819e+00 -3.430726e+00 -3.181682e+00 7.853122e+01 1.845984e+00 -4.415946e-01 6.247342e-01 5.293450e-01 2.752280e-01 5.883625e-01 2.549337e-01 1.419183e-01 6.438967e-02 -7.071474e-01 -1.046481e+00 -3.545200e-01 1.380123e+00 -3.086123e-01 1.199331e+00 -8.275440e-01 1.107895e+00 -1.157485e+00 1.385906e+00 -5.981209e-01 1.354578e+00 -4.866292e-02 7.920901e-01 -1.673425e-01 -4.541153e-02 -2.643480e+00
<VARIANCE> 39
 1.492649e+01 1.261665e+01 1.548780e+01 2.959796e+01 2.431455e+01 4.625113e+01 2.758275e+01 4.020768e+01 2.689607e+01 2.373179e+01 2.844210e+01 2.302618e+01 4.426813e+01 1.362102e+00 6.680935e+00 4.850167e+00 7.015575e+00 8.539155e+00 1.274556e+01 4.411064e+00 1.310864e+01 2.307748e+00 4.305894e+00 2.008512e+00 1.406859e+00 4.098214e+01 1.910216e-01 4.582918e-01 4.122688e-01 5.463317e-01 6.581756e-01 1.265924e+00 7.299849e-01 1.334938e+00 5.766995e-01 4.773819e-01 5.013711e-01 3.572402e-01 2.496795e+00
<GCONST> 1.291147e+02
<MIXTURE> 5 1.573751e-02
<MEAN> 39
 -5.418831e+00 -1.011277e+01 6.569278e+00 -8.244439e-01 6.316571e+00 -2.200604e+00 3.375642e+00 -7.380685e+00 -2.995384e+00 -9.170690e+00 -2.245518e+00 -2.185050e+00 8.050613e+01 1.904132e+00 -3.127803e-01 9.277484e-01 6.011658e-01 6.941139e-01 8.557750e-01 7.787113e-01 4.556549e-01 8.752439e-01 -4.180290e-01 -4.596946e-01 2.395487e-01 1.629228e+00 -4.167633e-01 1.260189e+00 -9.532996e-01 1.304240e+00 -1.217341e+00 1.673071e+00 -5.459066e-01 1.731000e+00 5.646318e-02 9.335248e-01 -1.688304e-01 -3.778255e-02 -3.113514e+00
<VARIANCE> 39
 9.446874e+00 1.034371e+01 1.306967e+01 2.453183e+01 2.288538e+01 4.491037e+01 2.543499e+01 4.302592e+01 2.336769e+01 2.089028e+01 2.520540e+01 1.994450e+01 4.312714e+01 1.069832e+00 5.329149e+00 5.030728e+00 5.171413e+00 7.744257e+00 1.088499e+01 3.506727e+00 1.095854e+01 2.142693e+00 4.087795e+00 2.105666e+00 1.435827e+00 3.424931e+01 2.035943e-01 4.607779e-01 3.669465e-01 5.792779e-01 5.449922e-01 1.480319e+00 5.542629e-01 1.521923e+00 5.207030e-01 5.343616e-01 5.127777e-01 3.245751e-01 2.680956e+00
<GCONST> 1.256440e+02
<MIXTURE> 6 1.460097e-01
<MEAN> 39
 -5.486082e+00 -1.050508e+01 5.795069e+00 -3.894435e-01 5.197168e+00 -1.586730e+00 1.779693e+00 -7.044283e+00 -4.034775e+00 -9.645819e+00 -3.430726e+00 -3.181682e+00 7.853122e+01 1.845984e+00 -4.415945e-01 6.247341e-01 5.293452e-01 2.752279e-01 5.883627e-01 2.549337e-01 1.419185e-01 6.438971e-02 -7.071474e-01 -1.046481e+00 -3.545200e-01 1.380123e+00 -3.086123e-01 1.199331e+00 -8.275440e-01 1.107895e+00 -1.157485e+00 1.385906e+00 -5.981210e-01 1.354578e+00 -4.866292e-02 7.920901e-01 -1.673425e-01 -4.541151e-02 -2.643480e+00
<VARIANCE> 39
 1.492649e+01 1.261665e+01 1.548780e+01 2.959796e+01 2.431455e+01 4.625113e+01 2.758274e+01 4.020768e+01 2.689607e+01 2.373179e+01 2.844210e+01 2.302617e+01 4.426813e+01 1.362101e+00 6.680935e+00 4.850167e+00 7.015574e+00 8.539155e+00 1.274556e+01 4.411064e+00 1.310863e+01 2.307748e+00 4.305894e+00 2.008512e+00 1.406859e+00 4.098213e+01 1.910216e-01 4.582918e-01 4.122688e-01 5.463317e-01 6.581756e-01 1.265924e+00 7.299849e-01 1.334938e+00 5.766994e-01 4.773819e-01 5.013711e-01 3.572402e-01 2.496795e+00
<GCONST> 1.291147e+02
<MIXTURE> 7 1.460097e-01
<MEAN> 39
 -5.486082e+00 -1.050508e+01 5.795069e+00 -3.894433e-01 5.197168e+00 -1.586730e+00 1.779693e+00 -7.044284e+00 -4.034775e+00 -9.645819e+00 -3.430726e+00 -3.181682e+00 7.853122e+01 1.845984e+00 -4.415948e-01 6.247342e-01 5.293450e-01 2.752281e-01 5.883625e-01 2.549338e-01 1.419182e-01 6.438974e-02 -7.071475e-01 -1.046481e+00 -3.545199e-01 1.380124e+00 -3.086123e-01 1.199332e+00 -8.275441e-01 1.107895e+00 -1.157485e+00 1.385906e+00 -5.981210e-01 1.354578e+00 -4.866291e-02 7.920901e-01 -1.673425e-01 -4.541152e-02 -2.643480e+00
<VARIANCE> 39
 1.492649e+01 1.261665e+01 1.548780e+01 2.959796e+01 2.431455e+01 4.625113e+01 2.758274e+01 4.020767e+01 2.689607e+01 2.373179e+01 2.844210e+01 2.302617e+01 4.426813e+01 1.362101e+00 6.680935e+00 4.850166e+00 7.015575e+00 8.539156e+00 1.274556e+01 4.411064e+00 1.310863e+01 2.307748e+00 4.305894e+00 2.008512e+00 1.406859e+00 4.098212e+01 1.910216e-01 4.582919e-01 4.122688e-01 5.463317e-01 6.581756e-01 1.265923e+00 7.299849e-01 1.334938e+00 5.766994e-01 4.773819e-01 5.013713e-01 3.572402e-01 2.496796e+00
<GCONST> 1.291147e+02
<MIXTURE> 8 1.524019e-02
<MEAN> 39
 -7.264840e+00 -1.132860e+01 3.992237e+00 -4.626898e-01 3.318707e+00 -7.173259e-01 1.054947e-01 -6.775228e+00 -5.020462e+00 -9.344009e+00 -4.096371e+00 -3.050593e+00 7.516454e+01 1.766193e+00 -9.911013e-01 6.187170e-01 -1.250165e-01 3.124577e-01 -2.016849e-01 -1.123076e-01 -6.254458e-01 -5.049708e-01 -1.300416e+00 -1.143965e+00 -6.810102e-01 2.175994e+00 -1.994687e-01 1.146792e+00 -6.175212e-01 8.867341e-01 -9.244437e-01 1.123409e+00 -5.182123e-01 1.128305e+00 -7.622233e-02 6.267303e-01 -1.857069e-01 -1.276522e-01 -2.120186e+00
<VARIANCE> 39
 5.231159e+01 3.649988e+01 2.466600e+01 4.123095e+01 3.372994e+01 5.804855e+01 3.443850e+01 4.437051e+01 3.633144e+01 3.181826e+01 3.953236e+01 3.295800e+01 1.057448e+02 2.573465e+00 9.332552e+00 4.506424e+00 9.657668e+00 8.233875e+00 1.556822e+01 4.772726e+00 1.432055e+01 2.516593e+00 4.909610e+00 2.167803e+00 1.641646e+00 4.402912e+01 1.956812e-01 5.247805e-01 4.706864e-01 6.410782e-01 8.294103e-01 1.181132e+00 8.482185e-01 1.119046e+00 5.861044e-01 4.839073e-01 5.024321e-01 3.843543e-01 2.028900e+00
<GCONST> 1.378083e+02
<MIXTURE> 9 1.573751e-02
<MEAN> 39
 -5.418831e+00 -1.011277e+01 6.569278e+00 -8.244439e-01 6.316571e+00 -2.200604e+00 3.375642e+00 -7.380685e+00 -2.995384e+00 -9.170690e+00 -2.245518e+00 -2.185050e+00 8.050613e+01 1.904132e+00 -3.127803e-01 9.277484e-01 6.011658e-01 6.941139e-01 8.557750e-01 7.787113e-01 4.556549e-01 8.752439e-01 -4.180290e-01 -4.596946e-01 2.395487e-01 1.629228e+00 -4.167633e-01 1.260189e+00 -9.532996e-01 1.304240e+00 -1.217341e+00 1.673071e+00 -5.459066e-01 1.731000e+00 5.646318e-02 9.335248e-01 -1.688304e-01 -3.778255e-02 -3.113514e+00
<VARIANCE> 39
 9.446874e+00 1.034371e+01 1.306967e+01 2.453183e+01 2.288538e+01 4.491037e+01 2.543499e+01 4.302592e+01 2.336769e+01 2.089028e+01 2.520540e+01 1.994450e+01 4.312714e+01 1.069832e+00 5.329149e+00 5.030728e+00 5.171413e+00 7.744257e+00 1.088499e+01 3.506727e+00 1.095854e+01 2.142693e+00 4.087795e+00 2.105666e+00 1.435827e+00 3.424931e+01 2.035943e-01 4.607779e-01 3.669465e-01 5.792779e-01 5.449922e-01 1.480319e+00 5.542629e-01 1.521923e+00 5.207030e-01 5.343616e-01 5.127777e-01 3.245751e-01 2.680956e+00
<GCONST> 1.256440e+02
<MIXTURE> 10 1.460097e-01
<MEAN> 39
 -5.486082e+00 -1.050508e+01 5.795069e+00 -3.894434e-01 5.197168e+00 -1.586730e+00 1.779693e+00 -7.044283e+00 -4.034775e+00 -9.645819e+00 -3.430726e+00 -3.181683e+00 7.853122e+01 1.845984e+00 -4.415945e-01 6.247342e-01 5.293452e-01 2.752279e-01 5.883627e-01 2.549337e-01 1.419185e-01 6.438971e-02 -7.071474e-01 -1.046481e+00 -3.545200e-01 1.380123e+00 -3.086124e-01 1.199331e+00 -8.275440e-01 1.107895e+00 -1.157485e+00 1.385906e+00 -5.981210e-01 1.354578e+00 -4.866293e-02 7.920901e-01 -1.673425e-01 -4.541151e-02 -2.643480e+00
<VARIANCE> 39
