~o
<STREAMINFO> 1 39
<VECSIZE> 39<NULLD><MFCC_D_A_0><DIAGC>
~s "silst"
<NUMMIXES> 4
<MIXTURE> 1 6.130543e-02
<MEAN> 39
 -1.492022e+01 -9.232503e-01 -2.679920e+00 8.221396e+00 -5.890879e+00 1.351641e+01 -1.509889e+00 5.051765e+00 -6.737218e+00 -3.880756e-01 -1.522802e+00 -1.670857e+00 4.984871e+01 5.687147e-01 1.944001e-01 -1.977088e-01 1.510442e+00 3.942491e-01 8.194880e-01 1.527779e+00 1.599592e+00 1.256807e+00 9.747683e-01 6.330889e-01 1.436124e-01 -9.208643e-02 -2.793311e-01 9.246233e-02 7.380700e-02 -2.037416e-01 3.903872e-01 2.636689e-02 3.170830e-02 1.730254e-01 4.127438e-01 1.674911e-01 4.203248e-02 1.271389e-01 -7.115327e-02
<VARIANCE> 39
 2.768281e+01 3.910291e+01 5.848203e+01 3.523333e+01 2.833536e+01 5.131490e+01 4.021431e+01 4.079310e+01 4.368817e+01 3.523077e+01 3.464595e+01 2.487768e+01 4.709947e+01 6.077138e+00 6.866928e+00 2.657437e+00 3.720706e+00 3.240617e+00 5.874585e+00 4.213832e+00 4.340011e+00 5.692870e+00 3.263981e+00 2.452826e+00 2.028109e+00 7.631634e+00 2.919116e-01 8.491485e-01 3.620508e-01 5.081809e-01 5.402340e-01 8.933146e-01 6.818188e-01 7.546492e-01 9.630247e-01 6.612372e-01 6.016563e-01 3.865287e-01 4.200256e-01
<GCONST> 1.301060e+02
<MIXTURE> 2 4.356451e-01
<MEAN> 39
 -1.477569e+01 -2.301418e+00 -1.347741e+00 8.044132e+00 -6.293945e+00 1.229758e+01 -1.998308e+00 4.026166e+00 -7.744341e+00 -8.115045e-01 -1.942830e+00 -2.137591e+00 5.127325e+01 6.148700e-01 4.244317e-01 -3.076970e-01 8.642707e-01 -1.934457e-01 9.450860e-02 2.980678e-01 4.552430e-01 1.444588e-01 1.664039e-01 1.509761e-01 -1.435837e-01 -1.241571e-01 -2.918854e-01 1.754110e-01 -6.503364e-02 -2.824366e-01 3.177572e-01 -1.131905e-02 -1.470734e-01 2.089892e-02 3.589877e-01 5.778925e-02 -8.142971e-02 5.713565e-02 -1.588264e-01
<VARIANCE> 39
 2.820869e+01 5.402506e+01 5.900130e+01 5.390102e+01 3.436386e+01 6.846904e+01 4.464432e+01 5.374518e+01 5.056170e+01 4.006408e+01 4.127567e+01 3.101723e+01 5.373996e+01 3.883101e+00 6.455472e+00 2.762927e+00 4.304533e+00 3.572228e+00 5.484976e+00 4.299732e+00 4.463016e+00 5.716972e+00 3.376438e+00 2.961818e+00 2.149352e+00 5.758051e+00 4.666078e-01 1.044493e+00 3.975890e-01 6.639495e-01 6.225224e-01 1.112560e+00 8.166565e-01 9.252186e-01 1.036538e+00 6.787429e-01 6.692168e-01 4.281121e-01 6.711114e-01
<GCONST> 1.348603e+02
<MIXTURE> 3 4.356451e-01
<MEAN> 39
 -1.477569e+01 -2.301418e+00 -1.347741e+00 8.044132e+00 -6.293945e+00 1.229758e+01 -1.998308e+00 4.026166e+00 -7.744341e+00 -8.115045e-01 -1.942831e+00 -2.137590e+00 5.127325e+01 6.148700e-01 4.244317e-01 -3.076970e-01 8.642707e-01 -1.934458e-01 9.450859e-02 2.980678e-01 4.552431e-01 1.444588e-01 1.664039e-01 1.509761e-01 -1.435837e-01 -1.241571e-01 -2.918854e-01 1.754110e-01 -6.503365e-02 -2.824366e-01 3.177572e-01 -1.131904e-02 -1.470734e-01 2.089894e-02 3.589877e-01 5.778925e-02 -8.142968e-02 5.713565e-02 -1.588265e-01
<VARIANCE> 39
 2.820869e+01 5.402506e+01 5.900130e+01 5.390102e+01 3.436386e+01 6.846904e+01 4.464432e+01 5.374518e+01 5.056170e+01 4.006407e+01 4.127567e+01 3.101723e+01 5.373997e+01 3.883101e+00 6.455472e+00 2.762927e+00 4.304533e+00 3.572228e+00 5.484976e+00 4.299731e+00 4.463015e+00 5.716972e+00 3.376437e+00 2.961818e+00 2.149352e+00 5.758051e+00 4.666078e-01 1.044493e+00 3.975890e-01 6.639495e-01 6.225224e-01 1.112560e+00 8.166565e-01 9.252186e-01 1.036538e+00 6.787429e-01 6.692168e-01 4.281121e-01 6.711114e-01
<GCONST> 1.348603e+02
<MIXTURE> 4 6.740116e-02
<MEAN> 39
 -1.509456e+01 -2.487071e+00 -7.378049e-01 7.161385e+00 -7.238818e+00 1.010204e+01 -4.265512e+00 1.801002e+00 -8.688074e+00 -2.126618e+00 -2.926495e+00 -2.669163e+00 5.177636e+01 6.413393e-01 5.230534e-01 -2.716077e-01 3.435867e-01 -8.665925e-01 -2.080967e-01 -5.246670e-01 -4.560816e-01 -8.468930e-01 -5.229694e-01 -4.742588e-01 -7.062483e-01 -1.648390e-01 -4.228031e-01 2.961444e-01 -2.077825e-01 -3.977616e-01 2.866657e-01 -2.284479e-02 -2.269364e-01 -5.101651e-03 3.131573e-01 3.867480e-02 -1.521724e-01 2.863348e-03 -3.529967e-01
<VARIANCE> 39
 2.841933e+01 6.733798e+01 6.212821e+01 6.164555e+01 3.765808e+01 5.726913e+01 3.486252e+01 5.134389e+01 5.184359e+01 3.275657e+01 3.630347e+01 2.652053e+01 6.746082e+01 3.764242e+00 5.175222e+00 3.063567e+00 4.231850e+00 3.206839e+00 4.660544e+00 3.523032e+00 4.178612e+00 5.858651e+00 3.599221e+00 2.676399e+00 2.333593e+00 4.688303e+00 6.980456e-01 8.421325e-01 3.863369e-01 6.271986e-01 5.799397e-01 9.737273e-01 7.511002e-01 8.467473e-01 1.026022e+00 5.837114e-01 5.941095e-01 4.378834e-01 8.394540e-01
<GCONST> 1.335135e+02
~h "k"
<BEGINHMM>
<NUMSTATES> 5
<STATE> 2
<NUMMIXES> 4
<MIXTURE> 1 6.398091e-02
<MEAN> 39
 -1.498178e+01 -6.568146e-02 -4.607862e+00 1.019412e+01 -3.235668e+00 1.358434e+01 -1.812211e+00 8.253448e+00 -1.738703e+00 2.190763e+00 -7.636772e-01 -1.503275e+00 4.870624e+01 -1.379724e-01 -2.016163e+00 -1.275560e-01 -3.241664e-01 1.010733e+00 -9.794812e-01 3.507215e-01 -9.185897e-01 4.198033e-01 6.132770e-01 4.558188e-01 4.177666e-01 1.714871e+00 -4.572413e-02 -1.549156e+00 2.205956e-01 -9.191055e-01 5.660310e-01 -1.012457e+00 1.179318e-01 -1.340854e+00 -9.254664e-03 -6.160017e-03 -7.278860e-03 4.701184e-02 1.862300e+00
<VARIANCE> 39
 6.762025e+00 6.865082e+01 1.489125e+01 1.394576e+01 1.449281e+01 2.032302e+01 2.043282e+01 2.445181e+01 1.856052e+01 2.054596e+01 1.480051e+01 1.562527e+01 2.089369e+01 6.630227e-01 1.536287e+01 1.883389e+00 4.319508e+00 3.405779e+00 6.786116e+00 3.464007e+00 8.524340e+00 2.418682e+00 2.489965e+00 2.057870e+00 1.848578e+00 1.311431e+01 1.114164e-01 2.539190e+00 3.087238e-01 5.949298e-01 5.856575e-01 1.153054e+00 5.199472e-01 1.102382e+00 5.441711e-01 4.509189e-01 3.783417e-01 3.226133e-01 1.908833e+00
<GCONST> 1.193596e+02
<MIXTURE> 2 4.380105e-01
<MEAN> 39
 -1.480000e+01 8.690627e-01 -4.252167e+00 9.212803e+00 -3.718257e+00 1.239315e+01 -2.855435e+00 6.878643e+00 -3.395516e+00 1.154925e+00 -1.795375e+00 -2.560839e+00 4.878954e+01 -1.929844e-01 -4.180141e+00 1.434550e-01 -2.062037e+00 1.670697e+00 -3.011035e+00 3.485699e-01 -3.457784e+00 1.213066e-01 9.572387e-02 8.020680e-02 1.308482e-01 4.730688e+00 -1.024419e-01 -1.984871e+00 8.204025e-02 -1.238834e+00 7.359734e-01 -1.410205e+00 1.789466e-01 -1.767022e+00 1.102160e-01 -2.066855e-01 -2.319727e-02 -1.211596e-02 2.502666e+00
<VARIANCE> 39
 7.724552e+00 4.412068e+01 1.138726e+01 1.690437e+01 1.748694e+01 2.901644e+01 2.928371e+01 2.935082e+01 2.197416e+01 2.103023e+01 1.652654e+01 1.380779e+01 2.198738e+01 7.724332e-01 1.757127e+01 1.589919e+00 7.196439e+00 4.186415e+00 1.129396e+01 3.153628e+00 1.404099e+01 2.912852e+00 2.593515e+00 2.018629e+00 1.578838e+00 2.312761e+01 1.053330e-01 1.360076e+00 2.420020e-01 4.488266e-01 4.538517e-01 8.847584e-01 5.305023e-01 9.626087e-01 5.018282e-01 4.229047e-01 3.677653e-01 2.775265e-01 1.199551e+00
<GCONST> 1.200272e+02
<MIXTURE> 3 4.380106e-01
<MEAN> 39
 -1.480000e+01 8.690633e-01 -4.252169e+00 9.212804e+00 -3.718256e+00 1.239315e+01 -2.855434e+00 6.878645e+00 -3.395515e+00 1.154924e+00 -1.795374e+00 -2.560838e+00 4.878954e+01 -1.929843e-01 -4.180142e+00 1.434551e-01 -2.062037e+00 1.670697e+00 -3.011036e+00 3.485697e-01 -3.457785e+00 1.213066e-01 9.572368e-02 8.020693e-02 1.308482e-01 4.730690e+00 -1.024419e-01 -1.984871e+00 8.204037e-02 -1.238834e+00 7.359732e-01 -1.410205e+00 1.789465e-01 -1.767023e+00 1.102161e-01 -2.066853e-01 -2.319736e-02 -1.211600e-02 2.502666e+00
<VARIANCE> 39
 7.724546e+00 4.412066e+01 1.138725e+01 1.690437e+01 1.748694e+01 2.901640e+01 2.928370e+01 2.935078e+01 2.197416e+01 2.103019e+01 1.652655e+01 1.380779e+01 2.198738e+01 7.724330e-01 1.757127e+01 1.589917e+00 7.196441e+00 4.186412e+00 1.129396e+01 3.153627e+00 1.404099e+01 2.912852e+00 2.593515e+00 2.018628e+00 1.578838e+00 2.312761e+01 1.053330e-01 1.360075e+00 2.420018e-01 4.488267e-01 4.538517e-01 8.847580e-01 5.305021e-01 9.626076e-01 5.018281e-01 4.229039e-01 3.677652e-01 2.775265e-01 1.199550e+00
<GCONST> 1.200272e+02
<MIXTURE> 4 5.999856e-02
<MEAN> 39
 -1.482352e+01 5.003146e-01 -4.487659e+00 8.619311e+00 -3.656458e+00 1.128350e+01 -3.292682e+00 5.815951e+00 -3.641360e+00 1.318096e+00 -1.833211e+00 -2.830357e+00 4.932821e+01 -3.507326e-01 -6.765903e+00 9.648153e-02 -3.697386e+00 2.537981e+00 -5.278240e+00 3.304021e-01 -6.166610e+00 -5.946868e-01 -8.678560e-01 -4.203566e-01 -3.362009e-01 8.007312e+00 -1.434194e-01 -1.863063e+00 -1.949199e-03 -1.257086e+00 6.154435e-01 -1.361012e+00 2.179557e-01 -1.760256e+00 3.260259e-02 -4.012094e-01 -1.699709e-01 -1.677065e-01 2.479468e+00
<VARIANCE> 39
 8.265015e+00 3.793030e+01 9.275453e+00 2.337996e+01 2.547402e+01 3.659903e+01 3.026271e+01 3.374249e+01 2.477855e+01 1.953058e+01 1.926395e+01 1.195163e+01 3.406567e+01 9.973174e-01 1.198753e+01 1.716027e+00 6.208086e+00 4.657259e+00 1.057261e+01 3.843300e+00 1.265257e+01 3.292449e+00 3.449359e+00 2.246393e+00 1.684131e+00 1.747064e+01 1.114674e-01 8.546121e-01 2.251456e-01 3.992556e-01 5.017350e-01 8.732768e-01 4.955063e-01 8.448666e-01 4.833964e-01 3.233924e-01 3.817674e-01 2.599102e-01 9.633695e-01
<GCONST> 1.203091e+02
<STATE> 3
<NUMMIXES> 4
<MIXTURE> 1 5.811973e-02
<MEAN> 39
 -1.631448e+01 -2.671626e+01 -1.913606e+00 -7.932812e+00 5.971038e+00 -5.389426e+00 8.272374e-02 -1.891503e+01 -9.971706e-01 -1.991718e-01 -2.842090e+00 -3.804918e+00 8.273752e+01 2.588855e-01 -1.563778e-01 3.676809e-01 3.153541e-01 -3.616141e-01 1.218994e+00 1.419111e-01 2.880130e-01 6.060529e-01 8.813222e-01 -1.827390e-02 1.319195e-01 -7.531085e-01 2.679890e-01 1.299332e+00 -1.293866e-01 1.060302e+00 -5.438230e-01 1.192600e+00 -2.787374e-01 1.419163e+00 -7.202399e-02 3.819751e-01 3.856628e-02 2.122281e-01 -1.970515e+00
<VARIANCE> 39
 7.780211e+00 2.111004e+01 1.341103e+01 1.944126e+01 1.630608e+01 4.159182e+01 2.070860e+01 3.930671e+01 3.032367e+01 1.780079e+01 2.307549e+01 2.132207e+01 4.039698e+01 8.365712e-01 9.145601e+00 1.473378e+00 5.062392e+00 3.089361e+00 7.631704e+00 2.834410e+00 9.148387e+00 2.394628e+00 2.358278e+00 1.862823e+00 1.832031e+00 1.836029e+01 1.412028e-01 1.056644e+00 3.691483e-01 4.608195e-01 3.548363e-01 1.060878e+00 4.418489e-01 9.501220e-01 4.534513e-01 4.014669e-01 2.963148e-01 3.430920e-01 1.939505e+00
<GCONST> 1.192347e+02
<MIXTURE> 2 4.413624e-01
<MEAN> 39
 -1.674213e+01 -2.759966e+01 -1.667879e+00 -8.018402e+00 6.190972e+00 -6.765137e+00 -4.540425e-01 -1.995502e+01 -1.072576e+00 -7.286728e-01 -3.180203e+00 -3.841854e+00 8.320999e+01 1.765915e-01 -1.326403e+00 2.738665e-01 -6.273416e-01 -6.862007e-02 -1.245411e-01 -3.169143e-01 -1.332613e+00 -3.253461e-02 1.978459e-01 -4.601602e-01 -3.250208e-01 8.997458e-01 2.476628e-01 1.268853e+00 -1.708325e-01 9.284713e-01 -6.001187e-01 1.116042e+00 -3.479203e-01 1.270260e+00 -1.298404e-01 2.432956e-01 -8.510440e-02 5.960148e-02 -1.814474e+00
<VARIANCE> 39
 7.822553e+00 1.093790e+01 1.506802e+01 1.833203e+01 1.745082e+01 4.101366e+01 2.295640e+01 3.162127e+01 3.181983e+01 2.181825e+01 2.694660e+01 2.478675e+01 2.474752e+01 1.037472e+00 1.542548e+01 1.413500e+00 7.934228e+00 4.155785e+00 1.240765e+01 2.951717e+00 1.462623e+01 2.547080e+00 2.541544e+00 1.651086e+00 1.646059e+00 3.115448e+01 1.279053e-01 1.209580e+00 3.776981e-01 5.086015e-01 4.534197e-01 1.089646e+00 4.639569e-01 9.017019e-01 4.969947e-01 4.653942e-01 3.551840e-01 3.921446e-01 1.663252e+00
<GCONST> 1.223497e+02
<MIXTURE> 3 4.413624e-01
<MEAN> 39
 -1.674213e+01 -2.759966e+01 -1.667878e+00 -8.018402e+00 6.190970e+00 -6.765137e+00 -4.540433e-01 -1.995502e+01 -1.072576e+00 -7.286725e-01 -3.180204e+00 -3.841854e+00 8.320999e+01 1.765916e-01 -1.326403e+00 2.738665e-01 -6.273412e-01 -6.862031e-02 -1.245406e-01 -3.169143e-01 -1.332612e+00 -3.253471e-02 1.978460e-01 -4.601602e-01 -3.250208e-01 8.997450e-01 2.476628e-01 1.268853e+00 -1.708326e-01 9.284713e-01 -6.001186e-01 1.116042e+00 -3.479202e-01 1.270260e+00 -1.298403e-01 2.432956e-01 -8.510441e-02 5.960152e-02 -1.814474e+00
<VARIANCE> 39
 7.822552e+00 1.093790e+01 1.506802e+01 1.833203e+01 1.745082e+01 4.101366e+01 2.295640e+01 3.162127e+01 3.181983e+01 2.181824e+01 2.694660e+01 2.478675e+01 2.474753e+01 1.037472e+00 1.542548e+01 1.413500e+00 7.934226e+00 4.155785e+00 1.240765e+01 2.951716e+00 1.462623e+01 2.547080e+00 2.541544e+00 1.651085e+00 1.646059e+00 3.115448e+01 1.279053e-01 1.209580e+00 3.776981e-01 5.086014e-01 4.534198e-01 1.089646e+00 4.639569e-01 9.017020e-01 4.969947e-01 4.653943e-01 3.551839e-01 3.921446e-01 1.663252e+00
<GCONST> 1.223497e+02
<MIXTURE> 4 5.915131e-02
<MEAN> 39
 -1.709432e+01 -2.848951e+01 -2.630845e+00 -8.047255e+00 6.417605e+00 -8.044298e+00 -1.130031e+00 -1.971906e+01 -2.050862e+00 -7.383666e-01 -3.085333e+00 -3.800024e+00 8.307141e+01 -6.893069e-03 -3.188758e+00 -6.893742e-02 -2.098720e+00 4.805307e-01 -2.069917e+00 -5.577941e-01 -3.568835e+00 -4.926668e-01 -8.397223e-01 -8.877003e-01 -7.998262e-01 3.687424e+00 2.070072e-01 1.486568e+00 -5.888945e-02 8.003924e-01 -7.045281e-01 1.170005e+00 -3.380726e-01 1.180095e+00 -1.487900e-01 1.905140e-02 -2.123422e-01 -1.126356e-01 -1.828245e+00
<VARIANCE> 39
 7.017398e+00 1.106564e+01 1.737546e+01 1.824025e+01 1.985318e+01 5.155989e+01 2.487019e+01 3.414800e+01 3.530671e+01 2.967833e+01 2.706587e+01 2.467671e+01 2.613538e+01 1.200335e+00 1.942994e+01 1.618100e+00 9.239546e+00 4.678493e+00 1.632638e+01 3.166921e+00 1.666107e+01 2.497297e+00 2.945899e+00 1.784069e+00 1.530178e+00 3.825495e+01 1.334772e-01 1.404838e+00 4.311602e-01 5.375757e-01 4.861038e-01 1.300586e+00 6.243001e-01 9.776189e-01 6.234668e-01 6.448029e-01 3.862918e-01 3.914225e-01 1.609462e+00
<GCONST> 1.265728e+02
<STATE> 4
<NUMMIXES> 4
<MIXTURE> 1 7.861695e-02
<MEAN> 39
 -1.097896e+01 -1.116362e+01 -6.738758e+00 8.168577e+00 -2.533234e+00 1.169329e+01 -6.176399e+00 -5.735351e+00 -6.922318e+00 5.529980e+00 -3.555261e+00 -3.478992e+00 5.753653e+01 -4.459243e-01 2.029767e+00 -3.478355e-01 1.086956e+00 5.000483e-01 1.850417e+00 1.093250e+00 2.645319e+00 1.227837e+00 8.982731e-01 9.285873e-01 2.703635e-01 -2.169609e+00 -1.519707e-01 1.811031e-02 1.564316e-01 -2.092056e-01 1.684527e-01 -7.316072e-02 1.946689e-01 1.150155e-01 4.159142e-01 -7.576916e-02 2.042946e-01 1.797144e-01 2.049842e-01
<VARIANCE> 39
 6.801701e+00 3.951077e+01 1.427233e+01 3.460287e+01 1.752889e+01 3.634331e+01 3.262975e+01 3.535271e+01 4.468864e+01 2.315632e+01 2.338488e+01 2.004549e+01 3.085089e+01 1.391214e+00 7.092651e-01 1.093185e+00 2.911419e+00 2.639003e+00 2.311261e+00 3.413080e+00 3.410414e+00 4.399320e+00 1.725747e+00 1.693977e+00 1.607839e+00 1.219921e+00 1.422465e-01 1.860857e-01 1.947720e-01 3.112308e-01 3.686612e-01 4.187355e-01 5.613194e-01 6.824423e-01 9.286681e-01 4.184523e-01 3.205000e-01 3.194657e-01 1.752643e-01
<GCONST> 1.079084e+02
<MIXTURE> 2 4.242389e-01
<MEAN> 39
 -1.022835e+01 -1.421908e+01 -6.172385e+00 7.393152e+00 -2.552756e+00 9.273573e+00 -8.863482e+00 -8.420905e+00 -6.363170e+00 4.329117e+00 -5.610475e+00 -4.398688e+00 6.036089e+01 2.851682e-01 1.848595e+00 -5.913157e-01 1.511061e+00 -3.740934e-01 1.250006e+00 -2.588766e-01 1.382732e+00 -3.243484e-01 2.676404e-01 2.520576e-01 2.025207e-02 -2.024935e+00 -2.097691e-01 -3.050978e-02 1.298020e-01 -2.573766e-01 1.939301e-01 -2.478919e-01 2.751571e-01 -8.728617e-02 1.275728e-01 -1.326727e-01 1.344162e-01 -3.424635e-02 3.038248e-01
<VARIANCE> 39
 8.471655e+00 3.717917e+01 1.551214e+01 4.352715e+01 1.596998e+01 3.300691e+01 2.964141e+01 3.651114e+01 4.278116e+01 2.019069e+01 2.569513e+01 2.700449e+01 3.095490e+01 1.389351e+00 9.293405e-01 1.281956e+00 3.033536e+00 2.317744e+00 2.807053e+00 3.337270e+00 4.135992e+00 4.688975e+00 1.993655e+00 1.821890e+00 1.705534e+00 1.779077e+00 1.589838e-01 1.925035e-01 2.080938e-01 3.713788e-01 3.612750e-01 3.831356e-01 5.182529e-01 8.372592e-01 9.971012e-01 4.190846e-01 3.636781e-01 3.439707e-01 2.014686e-01
<GCONST> 1.105787e+02
<MIXTURE> 3 4.242389e-01
<MEAN> 39
 -1.022835e+01 -1.421908e+01 -6.172385e+00 7.393152e+00 -2.552756e+00 9.273573e+00 -8.863481e+00 -8.420904e+00 -6.363169e+00 4.329117e+00 -5.610474e+00 -4.398688e+00 6.036089e+01 2.851682e-01 1.848595e+00 -5.913158e-01 1.511061e+00 -3.740934e-01 1.250005e+00 -2.588766e-01 1.382732e+00 -3.243484e-01 2.676404e-01 2.520576e-01 2.025213e-02 -2.024935e+00 -2.097690e-01 -3.050979e-02 1.298020e-01 -2.573767e-01 1.939301e-01 -2.478919e-01 2.751571e-01 -8.728629e-02 1.275727e-01 -1.326727e-01 1.344162e-01 -3.424633e-02 3.038248e-01
<VARIANCE> 39
 8.471653e+00 3.717917e+01 1.551214e+01 4.352715e+01 1.596997e+01 3.300692e+01 2.964141e+01 3.651115e+01 4.278117e+01 2.019069e+01 2.569513e+01 2.700449e+01 3.095490e+01 1.389351e+00 9.293405e-01 1.281956e+00 3.033536e+00 2.317744e+00 2.807053e+00 3.337270e+00 4.135992e+00 4.688974e+00 1.993655e+00 1.821890e+00 1.705534e+00 1.779077e+00 1.589838e-01 1.925034e-01 2.080938e-01 3.713788e-01 3.612750e-01 3.831356e-01 5.182530e-01 8.372592e-01 9.971012e-01 4.190846e-01 3.636781e-01 3.439707e-01 2.014687e-01
<GCONST> 1.105787e+02
<MIXTURE> 4 7.289913e-02
<MEAN> 39
 -9.818712e+00 -1.536276e+01 -5.414980e+00 7.718629e+00 -2.562289e+00 7.707612e+00 -1.043544e+01 -1.016642e+01 -6.181676e+00 3.612692e+00 -7.513790e+00 -5.382005e+00 6.165922e+01 4.878723e-01 1.596001e+00 -8.409479e-01 1.265027e+00 -8.005098e-01 6.885272e-01 -1.191649e+00 5.562199e-01 -1.324003e+00 -3.051350e-01 -5.393850e-01 -5.241895e-01 -1.902465e+00 -2.421835e-01 -6.490326e-02 6.491389e-02 -3.383956e-01 1.431611e-01 -3.171780e-01 1.977668e-01 -1.574450e-01 -1.735112e-02 -2.603390e-01 1.105440e-02 -1.798351e-01 3.017611e-01
<VARIANCE> 39
 9.557399e+00 3.413208e+01 1.673835e+01 4.620067e+01 1.443053e+01 3.106403e+01 2.541995e+01 3.647472e+01 3.960751e+01 1.756995e+01 2.402189e+01 2.930298e+01 3.051472e+01 1.542310e+00 1.054031e+00 1.575629e+00 3.553831e+00 2.278936e+00 2.371334e+00 3.058365e+00 4.205150e+00 5.237339e+00 1.859689e+00 2.080804e+00 1.908634e+00 2.061773e+00 1.535829e-01 1.939197e-01 2.460143e-01 4.164134e-01 3.377813e-01 3.084802e-01 5.138478e-01 7.178009e-01 9.075938e-01 4.061321e-01 3.607139e-01 3.533835e-01 1.916764e-01
<GCONST> 1.106410e+02
<TRANSP> 5
 0.000000e+00 1.000000e+00 0.000000e+00 0.000000e+00 0.000000e+00
 0.000000e+00 7.327569e-01 2.672430e-01 0.000000e+00 0.000000e+00
 0.000000e+00 0.000000e+00 8.669898e-01 1.330102e-01 0.000000e+00
 0.000000e+00 0.000000e+00 0.000000e+00 9.009249e-01 9.907509e-02
 0.000000e+00 0.000000e+00 0.000000e+00 0.000000e+00 0.000000e+00
<ENDHMM>
~h "p"
<BEGINHMM>
<NUMSTATES> 5
<STATE> 2
<NUMMIXES> 4
<MIXTURE> 1 5.201761e-02
<MEAN> 39
 -1.501447e+01 3.635587e+00 -4.474720e+00 9.664220e+00 -5.329009e+00 1.163673e+01 -3.025235e+00 7.911687e+00 -3.091970e+00 1.086877e+00 -1.532524e+00 -2.766633e+00 4.678403e+01 1.328198e+00 -2.937030e+00 2.065884e+00 -2.215441e+00 2.314703e+00 -3.108934e+00 1.183047e+00 -3.050725e+00 2.528229e-01 -1.692227e+00 5.536972e-01 5.531021e-01 6.504050e+00 7.275115e-01 -8.613912e-01 8.982878e-01 -6.278694e-01 9.431592e-01 -8.624105e-01 4.519345e-01 -1.039361e+00 7.736203e-02 -7.195914e-01 5.128781e-02 -7.839203e-03 2.415793e+00
<VARIANCE> 39
 7.417832e+00 8.189322e+00 5.351882e+00 5.830194e+00 1.004864e+01 1.427163e+01 2.243075e+01 1.851776e+01 1.465071e+01 1.087518e+01 1.102436e+01 7.953535e+00 6.602038e+00 1.556707e+00 4.264005e+00 3.428088e+00 3.920035e+00 4.311042e+00 8.121891e+00 3.588884e+00 8.666315e+00 3.137327e+00 4.150885e+00 1.836567e+00 1.385639e+00 2.158219e+01 7.764292e-02 3.734529e-01 1.820675e-01 3.534507e-01 3.672964e-01 4.868751e-01 4.130517e-01 5.435624e-01 3.606551e-01 2.616188e-01 2.240152e-01 2.021407e-01 5.633370e-01
<GCONST> 1.041794e+02
<MIXTURE> 2 4.420329e-01
<MEAN> 39
 -1.503036e+01 3.181385e+00 -4.060713e+00 9.030573e+00 -5.632967e+00 1.165280e+01 -3.424350e+00 7.373511e+00 -3.505730e+00 2.994048e-01 -2.078732e+00 -2.945394e+00 4.721609e+01 1.102011e+00 -2.385968e+00 1.259296e+00 -1.726102e+00 1.466986e+00 -2.532543e+00 7.543196e-01 -2.515063e+00 -3.177901e-01 -1.435028e+00 6.984981e-02 6.405709e-02 4.794873e+00 7.028596e-01 -1.023632e+00 8.247545e-01 -7.457796e-01 8.925660e-01 -1.005849e+00 3.927771e-01 -1.168719e+00 -3.035722e-02 -7.684591e-01 -4.987427e-02 -2.616246e-02 2.491472e+00
<VARIANCE> 39
 5.378907e+00 9.440508e+00 1.001828e+01 6.823111e+00 1.168882e+01 1.556681e+01 2.356627e+01 1.908208e+01 1.771993e+01 1.323438e+01 1.153711e+01 9.727293e+00 7.889977e+00 1.571843e+00 4.959839e+00 3.263852e+00 3.687919e+00 3.928472e+00 6.518945e+00 3.216133e+00 7.580129e+00 2.639536e+00 4.002443e+00 1.597034e+00 1.555463e+00 1.991356e+01 1.000995e-01 2.811866e-01 2.008826e-01 3.364405e-01 3.674483e-01 5.343285e-01 4.470147e-01 5.636821e-01 4.104690e-01 3.266638e-01 2.574601e-01 2.557630e-01 5.826651e-01
<GCONST> 1.060816e+02
<MIXTURE> 3 4.420329e-01
<MEAN> 39
 -1.503036e+01 3.181385e+00 -4.060713e+00 9.030573e+00 -5.632967e+00 1.165280e+01 -3.424350e+00 7.373511e+00 -3.505730e+00 2.994048e-01 -2.078732e+00 -2.945394e+00 4.721609e+01 1.102011e+00 -2.385968e+00 1.259296e+00 -1.726102e+00 1.466986e+00 -2.532543e+00 7.543196e-01 -2.515063e+00 -3.177901e-01 -1.435028e+00 6.984981e-02 6.405709e-02 4.794873e+00 7.028596e-01 -1.023632e+00 8.247545e-01 -7.457796e-01 8.925660e-01 -1.005849e+00 3.927771e-01 -1.168719e+00 -3.035722e-02 -7.684591e-01 -4.987427e-02 -2.616246e-02 2.491472e+00
<VARIANCE> 39
 5.378907e+00 9.440508e+00 1.001828e+01 6.823111e+00 1.168882e+01 1.556681e+01 2.356627e+01 1.908208e+01 1.771993e+01 1.323438e+01 1.153711e+01 9.727293e+00 7.889977e+00 1.571843e+00 4.959839e+00 3.263852e+00 3.687919e+00 3.928472e+00 6.518945e+00 3.216133e+00 7.580129e+00 2.639536e+00 4.002443e+00 1.597034e+00 1.555463e+00 1.991356e+01 1.000995e-01 2.811866e-01 2.008826e-01 3.364405e-01 3.674483e-01 5.343285e-01 4.470147e-01 5.636821e-01 4.104690e-01 3.266638e-01 2.574601e-01 2.557630e-01 5.826651e-01
<GCONST> 1.060816e+02
<MIXTURE> 4 6.391704e-02
<MEAN> 39
 -1.537739e+01 3.327195e+00 -4.233695e+00 7.238737e+00 -6.762661e+00 1.014155e+01 -6.861968e+00 4.780828e+00 -4.881080e+00 -1.345947e+00 -3.434955e+00 -3.811772e+00 4.702785e+01 7.407335e-01 -1.623005e+00 3.872428e-01 -1.238016e+00 5.019400e-01 -1.880719e+00 3.759331e-01 -1.833668e+00 -6.631211e-01 -1.175437e+00 -4.110170e-01 -3.510873e-01 2.862803e+00 5.636488e-01 -1.094619e+00 7.350629e-01 -7.401578e-01 9.017376e-01 -9.154496e-01 6.085363e-01 -1.050312e+00 -1.421709e-01 -6.794820e-01 -1.130394e-01 -1.209755e-01 2.353098e+00
<VARIANCE> 39
 2.603552e+01 1.483006e+01 1.496834e+01 9.836895e+00 1.121621e+01 1.559291e+01 2.284619e+01 1.691179e+01 1.956382e+01 1.424037e+01 1.187645e+01 9.805265e+00 3.088479e+01 1.024624e+00 5.291952e+00 2.802955e+00 2.807308e+00 3.190668e+00 4.221686e+00 2.616073e+00 4.820609e+00 2.081452e+00 2.976271e+00 1.673173e+00 1.474884e+00 1.427151e+01 1.017964e-01 3.120659e-01 2.266024e-01 2.560512e-01 3.967110e-01 5.742821e-01 5.277876e-01 4.963124e-01 4.580217e-01 4.203586e-01 2.723178e-01 2.667177e-01 7.810819e-01
<GCONST> 1.082057e+02
<STATE> 3
<NUMMIXES> 4
<MIXTURE> 1 5.021787e-02
<MEAN> 39
 -5.422847e+00 -1.011790e+01 6.580017e+00 -8.174020e-01 6.352162e+00 -2.198102e+00 3.449048e+00 -7.386588e+00 -3.013838e+00 -9.155892e+00 -2.244444e+00 -2.161323e+00 8.054729e+01 1.906164e+00 -2.922403e-01 9.254013e-01 6.096625e-01 6.931564e-01 8.820148e-01 7.842289e-01 4.786650e-01 9.043432e-01 -3.891240e-01 -4.274995e-01 2.638472e-01 1.605987e+00 -4.200033e-01 1.263955e+00 -9.570578e-01 1.307305e+00 -1.219828e+00 1.683218e+00 -5.484428e-01 1.743693e+00 6.504932e-02 9.382646e-01 -1.639467e-01 -3.544895e-02 -3.128211e+00
<VARIANCE> 39
 9.307297e+00 1.030674e+01 1.307854e+01 2.453709e+01 2.300531e+01 4.464860e+01 2.543222e+01 4.316438e+01 2.337684e+01 2.088144e+01 2.519975e+01 1.987135e+01 4.311615e+01 1.063484e+00 5.299618e+00 5.015040e+00 5.103905e+00 7.658383e+00 1.079002e+01 3.491676e+00 1.083340e+01 2.160612e+00 4.112409e+00 2.118931e+00 1.442401e+00 3.383163e+01 2.028720e-01 4.604393e-01 3.654362e-01 5.806244e-01 5.397718e-01 1.479152e+00 5.511551e-01 1.517398e+00 5.178865e-01 5.388390e-01 5.138646e-01 3.228035e-01 2.664414e+00
<GCONST> 1.255424e+02
<MIXTURE> 2 4.507007e-01
<MEAN> 39
 -5.499513e+00 -1.050951e+01 5.786532e+00 -3.959677e-01 5.189813e+00 -1.584517e+00 1.780770e+00 -7.044235e+00 -4.034214e+00 -9.638470e+00 -3.427475e+00 -3.170535e+00 7.852154e+01 1.846512e+00 -4.452026e-01 6.277891e-01 5.242360e-01 2.795055e-01 5.837126e-01 2.562704e-01 1.376114e-01 6.608026e-02 -7.108979e-01 -1.042187e+00 -3.516524e-01 1.390379e+00 -3.085628e-01 1.198964e+00 -8.266678e-01 1.107860e+00 -1.155607e+00 1.385845e+00 -5.966297e-01 1.355772e+00 -4.802056e-02 7.917590e-01 -1.672835e-01 -4.619414e-02 -2.642581e+00
<VARIANCE> 39
 1.518062e+01 1.276539e+01 1.555494e+01 2.967644e+01 2.443188e+01 4.636908e+01 2.765212e+01 4.027414e+01 2.697782e+01 2.378124e+01 2.854911e+01 2.310542e+01 4.472966e+01 1.369156e+00 6.695125e+00 4.851942e+00 7.027785e+00 8.534058e+00 1.276201e+01 4.410901e+00 1.310638e+01 2.317772e+00 4.312808e+00 2.013291e+00 1.413675e+00 4.096724e+01 1.914054e-01 4.589240e-01 4.127922e-01 5.481199e-01 6.591443e-01 1.269723e+00 7.293887e-01 1.337366e+00 5.764017e-01 4.785922e-01 5.016001e-01 3.573128e-01 2.499694e+00
<GCONST> 1.292244e+02
<MIXTURE> 3 4.507007e-01
<MEAN> 39
 -5.499513e+00 -1.050951e+01 5.786532e+00 -3.959674e-01 5.189813e+00 -1.584517e+00 1.780770e+00 -7.044237e+00 -4.034214e+00 -9.638470e+00 -3.427475e+00 -3.170535e+00 7.852154e+01 1.846513e+00 -4.452027e-01 6.277891e-01 5.242360e-01 2.795057e-01 5.837125e-01 2.562705e-01 1.376113e-01 6.608029e-02 -7.108980e-01 -1.042187e+00 -3.516524e-01 1.390379e+00 -3.085628e-01 1.198964e+00 -8.266678e-01 1.107860e+00 -1.155607e+00 1.385845e+00 -5.966298e-01 1.355772e+00 -4.802054e-02 7.917590e-01 -1.672835e-01 -4.619412e-02 -2.642581e+00
<VARIANCE> 39
 1.518062e+01 1.276539e+01 1.555495e+01 2.967644e+01 2.443189e+01 4.636909e+01 2.765212e+01 4.027414e+01 2.697782e+01 2.378124e+01 2.854911e+01 2.310542e+01 4.472967e+01 1.369156e+00 6.695126e+00 4.851943e+00 7.027786e+00 8.534060e+00 1.276201e+01 4.410901e+00 1.310638e+01 2.317773e+00 4.312809e+00 2.013292e+00 1.413676e+00 4.096725e+01 1.914055e-01 4.589240e-01 4.127922e-01 5.481201e-01 6.591445e-01 1.269723e+00 7.293887e-01 1.337367e+00 5.764018e-01 4.785922e-01 5.016001e-01 3.573128e-01 2.499694e+00
<GCONST> 1.292244e+02
<MIXTURE> 4 4.838146e-02
<MEAN> 39
 -7.446126e+00 -1.133376e+01 3.864294e+00 -4.582106e-01 3.215653e+00 -6.640162e-01 -1.191816e-02 -6.756920e+00 -4.991028e+00 -9.286730e+00 -4.037405e+00 -2.990778e+00 7.490715e+01 1.745482e+00 -1.040964e+00 6.349288e-01 -1.797521e-01 3.373508e-01 -2.637830e-01 -1.091438e-01 -6.726965e-01 -5.019045e-01 -1.330279e+00 -1.126681e+00 -6.843811e-01 2.254632e+00 -1.967087e-01 1.148255e+00 -6.048554e-01 8.739377e-01 -9.076969e-01 1.114793e+00 -5.062200e-01 1.125298e+00 -7.632047e-02 6.206182e-01 -1.931068e-01 -1.346277e-01 -2.097122e+00
<VARIANCE> 39
 5.620187e+01 3.968225e+01 2.566234e+01 4.157854e+01 3.422172e+01 5.914500e+01 3.507153e+01 4.498079e+01 3.687968e+01 3.228130e+01 4.019642e+01 3.351922e+01 1.151585e+02 2.684355e+00 9.465734e+00 4.465896e+00 9.733791e+00 8.203040e+00 1.565506e+01 4.754114e+00 1.431750e+01 2.530863e+00 4.914989e+00 2.184961e+00 1.663432e+00 4.380085e+01 1.979158e-01 5.345986e-01 4.769645e-01 6.585314e-01 8.403293e-01 1.180729e+00 8.466675e-01 1.120694e+00 5.827294e-01 4.829004e-01 5.027629e-01 3.840498e-01 2.034071e+00
<GCONST> 1.383773e+02
<STATE> 4
<NUMMIXES> 4
<MIXTURE> 1 8.025064e-02
<MEAN> 39
 -2.527556e+00 3.846986e+00 1.302456e+00 1.278735e+01 -2.482507e+00 1.104684e+01 -2.945172e+00 3.690606e+00 -6.961720e+00 -4.221877e+00 -6.894429e+00 -5.628385e+00 5.843232e+01 -4.252584e-01 1.450964e+00 -9.698957e-02 1.074288e+00 -3.124928e-02 1.198027e+00 2.329216e-01 1.083897e+00 1.111579e-01 6.985337e-01 4.556103e-01 1.700627e-01 -1.776455e+00 -1.808250e-01 -1.409285e-01 1.985167e-01 -1.524111e-01 2.273371e-01 -2.580503e-01 1.190594e-01 -1.867436e-01 1.526587e-01 1.915410e-03 2.245026e-01 9.644645e-02 3.111098e-01
<VARIANCE> 39
 1.462191e+01 3.323692e+01 1.735332e+01 2.360246e+01 1.766277e+01 1.843995e+01 2.165277e+01 1.630112e+01 2.286996e+01 1.655371e+01 1.341469e+01 1.652788e+01 2.913363e+01 8.858952e-01 1.232075e+00 1.740184e+00 2.284926e+00 3.431969e+00 2.444070e+00 1.806468e+00 1.850506e+00 1.793805e+00 1.757498e+00 1.197317e+00 1.101243e+00 1.626105e+00 6.264286e-02 1.229714e-01 2.055735e-01 2.983670e-01 3.795998e-01 5.276996e-01 2.753936e-01 4.040157e-01 3.411462e-01 2.932867e-01 2.994628e-01 2.478767e-01 1.019970e-01
<GCONST> 9.830637e+01
<MIXTURE> 2 4.195130e-01
<MEAN> 39
 -3.300651e+00 3.941654e+00 1.150130e+00 1.271091e+01 -3.585642e+00 1.054181e+01 -4.103473e+00 2.890315e+00 -7.991863e+00 -4.811440e+00 -7.634476e+00 -6.301927e+00 5.751294e+01 -5.592723e-01 1.094857e+00 -4.281394e-01 5.237594e-01 -4.062553e-01 4.850313e-01 -2.913547e-01 4.577049e-01 -3.227553e-01 4.439188e-01 9.362137e-02 -1.185208e-01 -1.633425e+00 -1.840417e-01 -1.942129e-01 8.277155e-02 -2.847302e-01 2.369820e-01 -2.603076e-01 1.316055e-01 -1.890021e-01 6.991577e-02 -7.142249e-02 1.242412e-01 5.915327e-02 2.930490e-01
<VARIANCE> 39
 1.423409e+01 3.608033e+01 1.786315e+01 1.937617e+01 1.766059e+01 1.720314e+01 1.918513e+01 1.715584e+01 2.249788e+01 1.823459e+01 1.511696e+01 1.619419e+01 2.788323e+01 7.991634e-01 1.563867e+00 1.375302e+00 2.158136e+00 2.676784e+00 2.214128e+00 1.690504e+00 1.799497e+00 1.774410e+00 1.671068e+00 1.207313e+00 1.183240e+00 1.467382e+00 7.203348e-02 1.317639e-01 2.256748e-01 2.987175e-01 4.159659e-01 5.292664e-01 3.195290e-01 3.970366e-01 3.508555e-01 3.029615e-01 2.648437e-01 2.355940e-01 1.154499e-01
<GCONST> 9.804643e+01
<MIXTURE> 3 4.195129e-01
<MEAN> 39
 -3.300651e+00 3.941655e+00 1.150131e+00 1.271091e+01 -3.585641e+00 1.054181e+01 -4.103473e+00 2.890314e+00 -7.991864e+00 -4.811440e+00 -7.634477e+00 -6.301928e+00 5.751294e+01 -5.592723e-01 1.094857e+00 -4.281395e-01 5.237594e-01 -4.062553e-01 4.850313e-01 -2.913547e-01 4.577049e-01 -3.227553e-01 4.439189e-01 9.362136e-02 -1.185208e-01 -1.633425e+00 -1.840416e-01 -1.942129e-01 8.277154e-02 -2.847302e-01 2.369820e-01 -2.603075e-01 1.316055e-01 -1.890021e-01 6.991579e-02 -7.142248e-02 1.242412e-01 5.915333e-02 2.930490e-01
<VARIANCE> 39
 1.423409e+01 3.608034e+01 1.786315e+01 1.937617e+01 1.766059e+01 1.720314e+01 1.918513e+01 1.715584e+01 2.249789e+01 1.823460e+01 1.511697e+01 1.619419e+01 2.788324e+01 7.991635e-01 1.563868e+00 1.375302e+00 2.158137e+00 2.676784e+00 2.214129e+00 1.690505e+00 1.799497e+00 1.774410e+00 1.671068e+00 1.207314e+00 1.183240e+00 1.467382e+00 7.203351e-02 1.317639e-01 2.256749e-01 2.987176e-01 4.159660e-01 5.292665e-01 3.195291e-01 3.970367e-01 3.508556e-01 3.029616e-01 2.648438e-01 2.355940e-01 1.154499e-01
<GCONST> 9.804645e+01
<MIXTURE> 4 8.071360e-02
<MEAN> 39
 -4.137419e+00 4.081414e+00 2.012237e-01 1.222192e+01 -4.854223e+00 9.603765e+00 -5.170282e+00 1.907420e+00 -8.634576e+00 -5.038659e+00 -8.498967e+00 -6.431725e+00 5.637399e+01 -7.300305e-01 9.182412e-01 -5.273646e-01 7.236999e-02 -7.362332e-01 -2.232744e-01 -8.365051e-01 -2.352649e-01 -8.097003e-01 9.695671e-03 -3.613226e-01 -4.895017e-01 -1.533941e+00 -2.081535e-01 -2.939686e-01 4.349197e-02 -3.960103e-01 1.728227e-01 -1.863208e-01 1.624795e-01 -2.191138e-01 -5.598506e-02 -1.347253e-01 1.163237e-02 -9.102167e-02 2.818491e-01
<VARIANCE> 39
 2.029379e+01 3.505276e+01 1.849036e+01 1.647074e+01 1.861814e+01 2.166407e+01 1.933037e+01 1.807148e+01 2.426066e+01 1.925952e+01 1.682077e+01 1.705042e+01 3.094212e+01 7.160583e-01 1.702526e+00 1.196953e+00 2.274968e+00 2.422428e+00 2.257056e+00 1.818329e+00 1.714105e+00 1.797323e+00 1.979582e+00 1.393179e+00 1.525740e+00 1.314366e+00 7.572399e-02 1.422621e-01 2.377382e-01 2.831032e-01 4.552254e-01 5.240217e-01 4.093633e-01 3.829004e-01 3.569030e-01 3.949305e-01 2.567478e-01 2.504935e-01 1.075769e-01
<GCONST> 9.994044e+01
<TRANSP> 5
 0.000000e+00 1.000000e+00 0.000000e+00 0.000000e+00 0.000000e+00
 0.000000e+00 6.900104e-01 3.099895e-01 0.000000e+00 0.000000e+00
 0.000000e+00 0.000000e+00 7.915707e-01 2.084293e-01 0.000000e+00
 0.000000e+00 0.000000e+00 0.000000e+00 9.066805e-01 9.331954e-02
 0.000000e+00 0.000000e+00 0.000000e+00 0.000000e+00 0.000000e+00
<ENDHMM>
~h "s"
<BEGINHMM>
<NUMSTATES> 5
<STATE> 2
<NUMMIXES> 4
<MIXTURE> 1 4.382426e-02
<MEAN> 39
 -1.463884e+01 -1.839648e-01 -2.183264e+00 1.020404e+01 -3.818831e+00 1.133924e+01 -9.754840e-01 5.467302e+00 -4.217593e+00 6.491479e-01 -2.562103e+00 -2.000580e+00 5.029140e+01 -1.391219e+00 -2.559611e+00 1.158340e+00 -7.100405e-01 1.161703e+00 -1.725341e+00 1.898407e+00 -1.361569e+00 6.306332e-01 6.483801e-02 4.800597e-01 1.414114e+00 1.995233e+00 -7.034165e-01 -1.176822e+00 4.510225e-01 -1.009181e+00 9.470155e-01 -9.251438e-01 5.787053e-01 -9.718403e-01 1.789254e-01 -2.308154e-01 2.022980e-01 3.638514e-01 1.369320e+00
<VARIANCE> 39
 1.526615e+01 5.359267e+01 2.742640e+01 2.052672e+01 1.877739e+01 3.543808e+01 3.723919e+01 5.139467e+01 3.072609e+01 2.156599e+01 2.857859e+01 2.014877e+01 2.238116e+01 2.579792e+00 8.138124e+00 4.124324e+00 5.837336e+00 6.096839e+00 6.714983e+00 4.873672e+00 7.585399e+00 3.802578e+00 2.112312e+00 2.422677e+00 2.469202e+00 6.079145e+00 2.354816e-01 1.229405e+00 6.907087e-01 7.190225e-01 7.185131e-01 9.975228e-01 7.849556e-01 1.079627e+00 5.287480e-01 3.797254e-01 5.632802e-01 5.096670e-01 5.545341e-01
<GCONST> 1.280786e+02
<MIXTURE> 2 4.556513e-01
<MEAN> 39
 -1.485396e+01 -8.489671e-01 -2.782572e+00 9.251384e+00 -4.590403e+00 1.016916e+01 -2.220882e+00 3.644651e+00 -4.336952e+00 -6.253166e-02 -3.484565e+00 -1.825481e+00 5.057967e+01 -1.675047e+00 -3.603920e+00 1.023393e+00 -1.598315e+00 1.633655e+00 -2.400038e+00 2.059230e+00 -2.852647e+00 3.412426e-01 -5.947731e-01 1.384809e-01 1.348568e+00 3.189486e+00 -8.273054e-01 -1.128946e+00 5.265846e-01 -1.216626e+00 1.091636e+00 -1.016340e+00 5.954025e-01 -9.403579e-01 1.228301e-01 -3.407767e-01 1.914201e-01 2.050435e-01 1.531696e+00
<VARIANCE> 39
 1.372361e+01 5.825468e+01 2.512359e+01 1.921653e+01 1.992652e+01 3.489274e+01 4.411961e+01 5.374692e+01 2.765165e+01 2.195444e+01 2.545761e+01 2.391892e+01 2.566407e+01 2.702353e+00 9.282365e+00 4.004928e+00 5.947786e+00 5.972989e+00 7.799523e+00 5.131480e+00 8.279425e+00 3.151848e+00 2.643328e+00 2.591754e+00 2.468202e+00 8.037264e+00 1.932586e-01 1.216683e+00 6.193240e-01 6.328219e-01 6.000893e-01 9.041350e-01 7.970623e-01 1.181291e+00 4.703122e-01 4.102732e-01 4.563976e-01 5.126657e-01 4.994530e-01
<GCONST> 1.281169e+02
<MIXTURE> 3 4.556513e-01
<MEAN> 39
 -1.485396e+01 -8.489673e-01 -2.782572e+00 9.251384e+00 -4.590403e+00 1.016916e+01 -2.220882e+00 3.644650e+00 -4.336952e+00 -6.253155e-02 -3.484565e+00 -1.825481e+00 5.057967e+01 -1.675047e+00 -3.603920e+00 1.023393e+00 -1.598315e+00 1.633655e+00 -2.400038e+00 2.059230e+00 -2.852647e+00 3.412426e-01 -5.947731e-01 1.384809e-01 1.348568e+00 3.189486e+00 -8.273054e-01 -1.128946e+00 5.265846e-01 -1.216626e+00 1.091636e+00 -1.016340e+00 5.954025e-01 -9.403578e-01 1.228301e-01 -3.407768e-01 1.914201e-01 2.050435e-01 1.531696e+00
<VARIANCE> 39
 1.372361e+01 5.825468e+01 2.512359e+01 1.921653e+01 1.992651e+01 3.489274e+01 4.411961e+01 5.374693e+01 2.765165e+01 2.195444e+01 2.545762e+01 2.391892e+01 2.566408e+01 2.702353e+00 9.282365e+00 4.004927e+00 5.947786e+00 5.972989e+00 7.799522e+00 5.131479e+00 8.279425e+00 3.151848e+00 2.643327e+00 2.591754e+00 2.468202e+00 8.037264e+00 1.932586e-01 1.216683e+00 6.193240e-01 6.328220e-01 6.000893e-01 9.041352e-01 7.970623e-01 1.181291e+00 4.703122e-01 4.102731e-01 4.563976e-01 5.126656e-01 4.994530e-01
<GCONST> 1.281169e+02
<MIXTURE> 4 4.487471e-02
<MEAN> 39
 -1.521423e+01 -1.697300e+00 -3.402689e+00 7.950836e+00 -5.027545e+00 9.390152e+00 -3.229339e+00 1.932958e+00 -4.353468e+00 -8.462591e-01 -3.973171e+00 -1.593596e+00 5.108947e+01 -1.824987e+00 -4.379775e+00 7.392038e-01 -2.583428e+00 1.942173e+00 -3.051786e+00 2.126544e+00 -3.823413e+00 -1.168432e-01 -1.437528e+00 -3.163659e-01 1.087651e+00 4.328267e+00 -8.611888e-01 -1.008759e+00 5.286569e-01 -1.347919e+00 1.040677e+00 -1.000079e+00 5.568717e-01 -8.434299e-01 1.550248e-02 -3.965185e-01 1.616191e-01 7.869363e-03 1.571234e+00
<VARIANCE> 39
 1.362294e+01 6.431437e+01 2.002606e+01 1.702926e+01 2.251576e+01 3.142449e+01 4.463579e+01 5.529926e+01 2.318510e+01 2.146006e+01 2.574949e+01 2.573229e+01 3.666598e+01 2.419208e+00 8.776163e+00 3.268255e+00 6.752487e+00 5.734257e+00 8.601490e+00 5.399689e+00 8.086324e+00 2.855667e+00 2.925890e+00 2.885324e+00 2.396346e+00 9.124548e+00 1.772658e-01 1.355119e+00 5.259546e-01 5.487477e-01 5.257652e-01 8.180100e-01 6.935359e-01 1.079598e+00 4.019150e-01 3.993614e-01 4.370822e-01 4.982646e-01 5.366155e-01
<GCONST> 1.272794e+02
<STATE> 3
<NUMMIXES> 4
<MIXTURE> 1 4.060780e-02
<MEAN> 39
 -2.764175e+01 -1.703778e+01 5.269344e+00 -8.694986e+00 1.126201e+01 -5.441903e+00 7.826683e+00 -9.252473e+00 -2.315833e+00 -3.801529e+00 -5.618267e-01 2.148293e+00 7.258940e+01 -2.628173e+00 -1.280443e+00 2.072354e+00 -3.468232e+00 2.774342e+00 -1.102335e+00 8.212961e-01 -2.139053e-01 7.453091e-01 -1.692541e-01 1.163209e+00 -3.840852e-02 3.175526e+00 6.624490e-01 9.015107e-01 -2.928677e-01 9.430062e-01 -8.519341e-01 1.296274e+00 -6.925148e-01 9.915527e-01 8.429885e-03 2.131066e-01 -1.034707e-03 -2.351837e-01 -1.145016e+00
<VARIANCE> 39
 2.108712e+01 2.869867e+01 5.494339e+01 5.400138e+01 4.138320e+01 4.511304e+01 3.600641e+01 4.247234e+01 3.252662e+01 2.635634e+01 3.498980e+01 2.532980e+01 4.224099e+01 3.249620e+00 7.455328e+00 5.073426e+00 5.335379e+00 5.876863e+00 7.271419e+00 4.809247e+00 5.537105e+00 2.197391e+00 2.504842e+00 2.226622e+00 2.169605e+00 5.944866e+00 3.838722e-01 9.351829e-01 8.132761e-01 8.829794e-01 8.479624e-01 8.510770e-01 6.754878e-01 9.698028e-01 5.243939e-01 4.960323e-01 5.186241e-01 5.349553e-01 5.973044e-01
<GCONST> 1.315639e+02
<MIXTURE> 2 4.574120e-01
<MEAN> 39
 -2.753698e+01 -1.847369e+01 4.389077e+00 -8.130280e+00 1.043788e+01 -5.248983e+00 7.570171e+00 -1.046294e+01 -2.233814e+00 -4.757727e+00 -4.574182e-01 2.109343e+00 7.303351e+01 -2.510835e+00 -1.748950e+00 1.487482e+00 -3.989278e+00 2.763986e+00 -1.906364e+00 7.734113e-01 -1.188503e+00 2.478383e-01 -7.492875e-01 9.324740e-01 -2.174985e-01 3.988556e+00 6.612601e-01 1.162249e+00 -2.803652e-01 7.430366e-01 -8.497825e-01 1.156476e+00 -7.960867e-01 1.037940e+00 -1.369179e-01 2.487974e-01 -7.779057e-02 -3.579634e-01 -1.161488e+00
<VARIANCE> 39
 2.037079e+01 2.842006e+01 5.376372e+01 5.730117e+01 4.646711e+01 4.514381e+01 3.494067e+01 3.700723e+01 3.261013e+01 2.584277e+01 3.641027e+01 2.428200e+01 3.582205e+01 3.152550e+00 7.758614e+00 4.492620e+00 5.141834e+00 6.380084e+00 8.137456e+00 5.270046e+00 7.072001e+00 2.329829e+00 2.632920e+00 2.188304e+00 2.143332e+00 6.641469e+00 4.074375e-01 9.816067e-01 8.563008e-01 1.040595e+00 9.030802e-01 8.852791e-01 7.266858e-01 9.845436e-01 5.076990e-01 5.376099e-01 5.164846e-01 5.253478e-01 5.438926e-01
<GCONST> 1.323396e+02
<MIXTURE> 3 4.574120e-01
<MEAN> 39
 -2.753698e+01 -1.847369e+01 4.389077e+00 -8.130281e+00 1.043788e+01 -5.248983e+00 7.570169e+00 -1.046294e+01 -2.233814e+00 -4.757727e+00 -4.574178e-01 2.109344e+00 7.303350e+01 -2.510835e+00 -1.748950e+00 1.487482e+00 -3.989278e+00 2.763986e+00 -1.906364e+00 7.734113e-01 -1.188503e+00 2.478384e-01 -7.492876e-01 9.324740e-01 -2.174986e-01 3.988556e+00 6.612601e-01 1.162249e+00 -2.803652e-01 7.430367e-01 -8.497825e-01 1.156476e+00 -7.960866e-01 1.037940e+00 -1.369179e-01 2.487973e-01 -7.779058e-02 -3.579634e-01 -1.161488e+00
<VARIANCE> 39
 2.037080e+01 2.842006e+01 5.376372e+01 5.730117e+01 4.646711e+01 4.514380e+01 3.494068e+01 3.700723e+01 3.261013e+01 2.584277e+01 3.641028e+01 2.428200e+01 3.582205e+01 3.152550e+00 7.758615e+00 4.492620e+00 5.141834e+00 6.380084e+00 8.137456e+00 5.270046e+00 7.072001e+00 2.329829e+00 2.632920e+00 2.188304e+00 2.143332e+00 6.641469e+00 4.074376e-01 9.816067e-01 8.563010e-01 1.040595e+00 9.030801e-01 8.852791e-01 7.266858e-01 9.845434e-01 5.076990e-01 5.376099e-01 5.164847e-01 5.253478e-01 5.438927e-01
<GCONST> 1.323396e+02
<MIXTURE> 4 4.457037e-02
<MEAN> 39
 -2.657744e+01 -2.021820e+01 2.379290e+00 -7.597741e+00 8.616083e+00 -5.011185e+00 7.373312e+00 -1.223087e+01 -2.653467e+00 -5.269948e+00 1.676869e-02 2.304834e+00 7.365803e+01 -2.417093e+00 -2.659801e+00 9.458553e-01 -4.680816e+00 2.489183e+00 -3.053968e+00 8.905787e-01 -2.733238e+00 -4.224264e-01 -1.638382e+00 5.841544e-01 -2.980660e-01 5.266212e+00 6.090400e-01 1.517728e+00 -2.477861e-01 5.473778e-01 -7.904121e-01 1.020271e+00 -9.121168e-01 1.150547e+00 -2.501454e-01 2.345371e-01 -2.119073e-01 -5.040026e-01 -1.225460e+00
<VARIANCE> 39
 1.865728e+01 2.626624e+01 4.406003e+01 5.248146e+01 4.664255e+01 4.343676e+01 3.009821e+01 3.508924e+01 3.559600e+01 2.717922e+01 3.533447e+01 2.612274e+01 2.964829e+01 2.793133e+00 8.985151e+00 3.359006e+00 5.242682e+00 6.109192e+00 8.842826e+00 6.121014e+00 9.640872e+00 2.512573e+00 2.876013e+00 2.117379e+00 2.248679e+00 8.110755e+00 4.312592e-01 9.664822e-01 7.244852e-01 1.055108e+00 9.281346e-01 9.004710e-01 6.608678e-01 9.010472e-01 5.210361e-01 6.081545e-01 5.530512e-01 5.089589e-01 5.522167e-01
<GCONST> 1.322231e+02
<STATE> 4
<NUMMIXES> 4
<MIXTURE> 1 6.662773e-02
<MEAN> 39
 -2.763539e+01 -1.697114e+01 8.842055e+00 -1.232966e+01 1.010899e+01 1.421561e+00 5.214632e+00 -6.973712e+00 -1.943682e+00 -4.279783e+00 7.849418e-01 2.262784e+00 7.207329e+01 1.077196e+00 1.216738e+00 3.579113e-01 1.565791e+00 -7.174813e-01 2.132200e+00 -2.414095e-01 2.124043e+00 -1.071105e-01 1.031630e+00 -4.027343e-01 2.672672e-01 -2.422475e+00 1.933776e-01 3.410459e-01 -1.377272e-01 4.472008e-01 -2.510919e-01 3.275142e-01 -1.844993e-01 4.257226e-01 -5.443066e-03 2.859744e-01 9.129316e-03 1.882057e-02 -4.261747e-01
<VARIANCE> 39
 2.064505e+01 2.171135e+01 3.261603e+01 2.693488e+01 3.514102e+01 5.819931e+01 2.725361e+01 3.213646e+01 2.705404e+01 2.163960e+01 2.733282e+01 1.509107e+01 4.140786e+01 1.668236e+00 2.023883e+00 1.435997e+00 2.145805e+00 2.524074e+00 2.753252e+00 1.914223e+00 3.726604e+00 1.665820e+00 1.812246e+00 1.493218e+00 8.946561e-01 2.943638e+00 2.035425e-01 2.566227e-01 2.416910e-01 2.878613e-01 3.614057e-01 4.669637e-01 4.267801e-01 4.392628e-01 3.839296e-01 3.484985e-01 3.105493e-01 2.351981e-01 2.252525e-01
<GCONST> 1.086075e+02
<MIXTURE> 2 4.340612e-01
<MEAN> 39
 -2.976564e+01 -1.887929e+01 1.039929e+01 -1.345321e+01 1.059007e+01 4.200014e-01 4.182851e+00 -8.844089e+00 -1.775988e+00 -5.190369e+00 7.528481e-01 1.302770e+00 7.529287e+01 7.749759e-01 4.714141e-01 4.485313e-01 5.850512e-01 -8.028654e-01 1.275573e+00 -5.081473e-01 7.616460e-01 -3.890632e-01 1.449209e-01 -4.818709e-01 1.188789e-02 -1.244243e+00 2.964214e-01 2.621789e-01 -1.515838e-01 3.745244e-01 -2.771156e-01 1.499964e-01 -1.389230e-01 2.177241e-01 -1.152320e-01 1.002127e-01 -1.437376e-01 -7.096497e-03 -4.423959e-01
<VARIANCE> 39
 1.431196e+01 1.343973e+01 3.227781e+01 2.085390e+01 3.333226e+01 5.021548e+01 2.559822e+01 2.640433e+01 2.327866e+01 1.914561e+01 2.488187e+01 1.483259e+01 3.233800e+01 1.522055e+00 1.778607e+00 1.355151e+00 1.991515e+00 2.167537e+00 2.027442e+00 1.921533e+00 2.377148e+00 1.889211e+00 1.556843e+00 1.536140e+00 9.449576e-01 2.614437e+00 1.653553e-01 2.672469e-01 2.319912e-01 2.656746e-01 3.270565e-01 3.533877e-01 3.736660e-01 3.953445e-01 3.331361e-01 3.154149e-01 2.728249e-01 2.149576e-01 1.798983e-01
<GCONST> 1.034941e+02
<MIXTURE> 3 4.340613e-01
<MEAN> 39
 -2.976564e+01 -1.887929e+01 1.039929e+01 -1.345321e+01 1.059007e+01 4.200015e-01 4.182851e+00 -8.844089e+00 -1.775988e+00 -5.190370e+00 7.528476e-01 1.302770e+00 7.529287e+01 7.749760e-01 4.714141e-01 4.485312e-01 5.850513e-01 -8.028655e-01 1.275573e+00 -5.081474e-01 7.616458e-01 -3.890632e-01 1.449209e-01 -4.818710e-01 1.188793e-02 -1.244243e+00 2.964214e-01 2.621789e-01 -1.515838e-01 3.745244e-01 -2.771156e-01 1.499964e-01 -1.389230e-01 2.177241e-01 -1.152320e-01 1.002128e-01 -1.437376e-01 -7.096499e-03 -4.423959e-01
<VARIANCE> 39
 1.431196e+01 1.343973e+01 3.227779e+01 2.085390e+01 3.333225e+01 5.021547e+01 2.559822e+01 2.640432e+01 2.327866e+01 1.914561e+01 2.488186e+01 1.483259e+01 3.233798e+01 1.522054e+00 1.778607e+00 1.355151e+00 1.991515e+00 2.167537e+00 2.027441e+00 1.921533e+00 2.377148e+00 1.889210e+00 1.556842e+00 1.536139e+00 9.449576e-01 2.614436e+00 1.653553e-01 2.672468e-01 2.319911e-01 2.656745e-01 3.270564e-01 3.533876e-01 3.736660e-01 3.953445e-01 3.331360e-01 3.154147e-01 2.728249e-01 2.149576e-01 1.798982e-01
<GCONST> 1.034941e+02
<MIXTURE> 4 6.523659e-02
<MEAN> 39
 -2.984512e+01 -1.944752e+01 9.332069e+00 -1.364215e+01 1.070604e+01 -1.973523e-01 3.861456e+00 -9.674475e+00 -2.602736e+00 -6.067540e+00 1.462973e-01 4.112280e-01 7.659789e+01 7.753710e-01 2.538521e-01 1.758654e-01 1.506248e-01 -1.052291e+00 8.631234e-01 -8.996817e-01 1.672406e-01 -8.802675e-01 -5.171250e-01 -8.649955e-01 -3.522852e-01 -9.472024e-01 3.493150e-01 2.512268e-01 -1.850419e-01 3.116664e-01 -3.415296e-01 2.708525e-02 -1.832527e-01 7.369164e-02 -1.916854e-01 -1.444507e-02 -2.779587e-01 -7.546158e-02 -4.662495e-01
<VARIANCE> 39
 1.441026e+01 1.255033e+01 3.476025e+01 1.754722e+01 3.504130e+01 5.477199e+01 2.607743e+01 2.622320e+01 2.259375e+01 1.692199e+01 1.942759e+01 1.459509e+01 3.225296e+01 1.521160e+00 1.724983e+00 1.331723e+00 1.939297e+00 1.945475e+00 1.982424e+00 2.027058e+00 2.069264e+00 2.010655e+00 1.492799e+00 1.672701e+00 9.815121e-01 2.553236e+00 1.701366e-01 3.056503e-01 2.519554e-01 2.455861e-01 3.122008e-01 3.758449e-01 3.959792e-01 3.820386e-01 3.526943e-01 2.897547e-01 2.494348e-01 2.105616e-01 1.785529e-01
<GCONST> 1.029517e+02
<TRANSP> 5
 0.000000e+00 1.000000e+00 0.000000e+00 0.000000e+00 0.000000e+00
 0.000000e+00 7.250795e-01 2.749205e-01 0.000000e+00 0.000000e+00
 0.000000e+00 0.000000e+00 7.504323e-01 2.495677e-01 0.000000e+00
 0.000000e+00 0.000000e+00 0.000000e+00 8.979998e-01 1.020002e-01
 0.000000e+00 0.000000e+00 0.000000e+00 0.000000e+00 0.000000e+00
<ENDHMM>
~h "sil"
<BEGINHMM>
<NUMSTATES> 5
<STATE> 2
<NUMMIXES> 4
<MIXTURE> 1 1.006511e-01
<MEAN> 39
 -2.020016e+01 6.198123e-01 -2.778065e+00 3.578594e+00 -1.553177e+00 1.479228e+01 -3.523695e+00 5.785668e+00 -3.143719e+00 1.181906e+00 -1.818235e+00 -1.188640e+00 4.676159e+01 7.596141e-01 5.490937e-01 -4.059979e-01 1.346236e+00 -5.155411e-01 7.636116e-01 5.777841e-01 1.571673e+00 7.290695e-01 8.344770e-01 8.647757e-01 2.438211e-01 -5.459385e-01 2.784869e-01 -2.984952e-01 9.110025e-02 2.031733e-01 2.338749e-02 -2.353006e-01 2.753523e-01 -1.093006e-01 4.268277e-02 8.290708e-04 1.503481e-01 1.003524e-01 5.270471e-01
<VARIANCE> 39
 8.052712e+01 7.310770e+01 5.061459e+01 3.871729e+01 2.120998e+01 2.991211e+01 4.772364e+01 1.918392e+01 2.252958e+01 1.893742e+01 1.210949e+01 1.265689e+01 1.327641e+02 4.511201e+00 3.879916e+00 1.425064e+00 2.260697e+00 2.541714e+00 3.289415e+00 2.576727e+00 2.434529e+00 2.328233e+00 1.685302e+00 1.410609e+00 1.021751e+00 6.096931e+00 4.329312e-01 1.719647e-01 1.612222e-01 2.760022e-01 3.302890e-01 3.683415e-01 3.759520e-01 3.967941e-01 3.924851e-01 2.550025e-01 2.756724e-01 1.919186e-01 2.457968e-01
<GCONST> 1.123564e+02
<MIXTURE> 2 4.072198e-01
<MEAN> 39
 -2.035439e+01 -5.866268e-02 5.356732e-01 2.166101e+00 -2.548082e+00 1.288321e+01 -6.041086e+00 3.868969e+00 -4.528807e+00 -4.637098e-01 -3.365082e+00 -1.859727e+00 4.841614e+01 5.490280e-01 1.049040e+00 -7.321207e-01 9.782807e-01 -8.933464e-01 4.930947e-01 -4.112043e-01 7.853453e-01 1.505392e-01 2.630965e-01 1.859586e-01 -1.859229e-01 -1.108056e+00 -1.498720e-02 -2.197250e-01 -4.242520e-02 -1.192804e-02 7.655573e-02 -2.635294e-01 1.976852e-01 -2.190537e-01 5.563220e-02 -7.864808e-02 1.002539e-01 1.978700e-02 3.207044e-01
<VARIANCE> 39
 8.510776e+01 8.765395e+01 7.339514e+01 4.251856e+01 2.940814e+01 2.870795e+01 4.222345e+01 2.206633e+01 2.639402e+01 1.957972e+01 1.609050e+01 1.414338e+01 1.614167e+02 1.655821e+00 2.171002e+00 1.505073e+00 2.034981e+00 2.487437e+00 2.736846e+00 2.149011e+00 2.253715e+00 1.910892e+00 1.451514e+00 1.420841e+00 1.084957e+00 1.972418e+00 2.190216e-01 1.671096e-01 1.625671e-01 2.072390e-01 3.282427e-01 3.536317e-01 2.873223e-01 3.294034e-01 3.572473e-01 2.868722e-01 2.887291e-01 1.871993e-01 1.434156e-01
<GCONST> 1.086543e+02
<MIXTURE> 3 4.072198e-01
<MEAN> 39
 -2.035439e+01 -5.866286e-02 5.356732e-01 2.166101e+00 -2.548082e+00 1.288321e+01 -6.041086e+00 3.868969e+00 -4.528807e+00 -4.637098e-01 -3.365082e+00 -1.859727e+00 4.841614e+01 5.490280e-01 1.049040e+00 -7.321207e-01 9.782807e-01 -8.933464e-01 4.930947e-01 -4.112043e-01 7.853453e-01 1.505392e-01 2.630965e-01 1.859586e-01 -1.859229e-01 -1.108056e+00 -1.498721e-02 -2.197250e-01 -4.242521e-02 -1.192804e-02 7.655575e-02 -2.635294e-01 1.976852e-01 -2.190537e-01 5.563219e-02 -7.864808e-02 1.002539e-01 1.978701e-02 3.207044e-01
<VARIANCE> 39
 8.510776e+01 8.765395e+01 7.339514e+01 4.251856e+01 2.940814e+01 2.870795e+01 4.222345e+01 2.206633e+01 2.639402e+01 1.957972e+01 1.609051e+01 1.414338e+01 1.614167e+02 1.655821e+00 2.171003e+00 1.505073e+00 2.034981e+00 2.487437e+00 2.736846e+00 2.149011e+00 2.253715e+00 1.910892e+00 1.451514e+00 1.420841e+00 1.084957e+00 1.972418e+00 2.190216e-01 1.671096e-01 1.625671e-01 2.072390e-01 3.282427e-01 3.536317e-01 2.873223e-01 3.294034e-01 3.572473e-01 2.868722e-01 2.887291e-01 1.871993e-01 1.434156e-01
<GCONST> 1.086543e+02
<MIXTURE> 4 8.490422e-02
<MEAN> 39
 -1.875579e+01 -1.101378e+00 3.227918e+00 1.882523e+00 -3.002129e+00 1.165630e+01 -7.196727e+00 2.286907e+00 -6.351956e+00 -1.962936e+00 -5.004547e+00 -2.875318e+00 5.112196e+01 6.278988e-01 1.186399e+00 -1.004905e+00 8.229767e-01 -1.407617e+00 2.627262e-01 -1.027928e+00 3.081031e-01 -3.994252e-01 -1.824868e-01 -3.124757e-01 -5.197217e-01 -1.354481e+00 -2.327214e-01 -2.615978e-01 -1.632384e-01 -1.820213e-01 9.784023e-02 -2.901018e-01 1.668525e-01 -3.090413e-01 1.006960e-01 -1.127211e-01 6.373567e-02 -2.734852e-02 2.241338e-01
<VARIANCE> 39
 7.488175e+01 8.195384e+01 7.913780e+01 4.365242e+01 3.376830e+01 2.700121e+01 3.088844e+01 2.111731e+01 2.669557e+01 2.078258e+01 1.927044e+01 1.457444e+01 1.437880e+02 1.736291e+00 2.102489e+00 1.610296e+00 1.818143e+00 2.512930e+00 2.540627e+00 2.422950e+00 2.340790e+00 2.120455e+00 1.588964e+00 1.689056e+00 1.194484e+00 1.664732e+00 1.773872e-01 2.253093e-01 1.779689e-01 1.885571e-01 3.113088e-01 3.523622e-01 3.225310e-01 3.492540e-01 3.626425e-01 2.863583e-01 3.323567e-01 2.110616e-01 1.353592e-01
<GCONST> 1.092225e+02
<STATE> 3
~s "silst"
<STATE> 4
<NUMMIXES> 4
<MIXTURE> 1 1.230858e-01
<MEAN> 39
 -1.537216e+01 3.086822e+00 -4.358555e+00 9.740166e+00 -3.767309e+00 1.343459e+01 -2.002618e+00 8.573129e+00 -2.312321e+00 1.373760e+00 -1.329393e+00 -2.104229e+00 4.693165e+01 -7.903196e-02 2.012159e-01 3.257979e-02 2.079047e-01 2.022058e-01 2.204181e-01 3.685572e-01 5.694785e-01 5.057629e-01 3.819578e-01 3.878102e-01 2.829951e-01 -1.786545e-01 3.336654e-02 -1.028848e-01 6.470272e-02 1.780436e-02 4.041328e-02 4.807346e-02 8.972572e-02 -2.559283e-02 -7.537171e-03 3.625287e-02 5.781969e-02 4.852850e-02 1.058871e-01
<VARIANCE> 39
 4.827580e+00 5.777357e+00 5.488063e+00 4.684386e+00 8.198771e+00 1.370652e+01 1.820664e+01 2.009504e+01 1.589725e+01 1.203633e+01 1.153648e+01 1.013471e+01 5.377094e+00 1.277176e-01 3.605881e-01 4.030280e-01 4.553504e-01 6.289724e-01 7.777538e-01 8.133337e-01 1.011504e+00 9.622802e-01 8.685187e-01 8.021213e-01 7.163807e-01 9.558169e-02 2.589326e-02 1.189823e-01 8.525870e-02 1.034631e-01 1.281166e-01 1.774121e-01 1.792206e-01 2.120509e-01 1.921138e-01 1.771859e-01 1.822860e-01 1.444321e-01 5.801503e-02
<GCONST> 6.437759e+01
<MIXTURE> 2 3.688437e-01
<MEAN> 39
 -1.461940e+01 3.438726e+00 -4.582217e+00 9.233334e+00 -5.028053e+00 1.157414e+01 -4.347047e+00 6.422070e+00 -4.037690e+00 5.439008e-02 -2.327327e+00 -3.068659e+00 4.728764e+01 -8.208175e-02 1.362747e-01 -1.064880e-01 2.385879e-02 -6.370056e-02 -4.992485e-02 3.914981e-02 1.833026e-01 1.311925e-01 2.357475e-02 6.878496e-02 8.266824e-02 -1.761893e-01 1.311843e-02 -1.034703e-01 4.762783e-02 -1.788475e-02 3.923251e-03 -2.714713e-02 2.290681e-02 -9.083929e-02 -5.186663e-02 -1.317113e-02 -1.005320e-02 3.067147e-03 1.000619e-01
<VARIANCE> 39
 4.898754e+00 6.736828e+00 6.615033e+00 5.783467e+00 9.318470e+00 1.464459e+01 2.087336e+01 2.083887e+01 1.667905e+01 1.277138e+01 1.146079e+01 1.082224e+01 6.249824e+00 1.092421e-01 3.406827e-01 4.107507e-01 4.342900e-01 5.802832e-01 6.650458e-01 7.694033e-01 8.898463e-01 8.674520e-01 8.668943e-01 7.787411e-01 7.078950e-01 9.558169e-02 2.507094e-02 1.090334e-01 8.614106e-02 1.096705e-01 1.370116e-01 1.821894e-01 1.806383e-01 2.267796e-01 1.978607e-01 1.838688e-01 1.707586e-01 1.490321e-01 6.831221e-02
<GCONST> 6.513171e+01
<MIXTURE> 3 3.688437e-01
<MEAN> 39
 -1.461940e+01 3.438726e+00 -4.582217e+00 9.233334e+00 -5.028053e+00 1.157414e+01 -4.347047e+00 6.422070e+00 -4.037690e+00 5.439008e-02 -2.327327e+00 -3.068659e+00 4.728764e+01 -8.208175e-02 1.362747e-01 -1.064880e-01 2.385879e-02 -6.370056e-02 -4.992485e-02 3.914981e-02 1.833026e-01 1.311925e-01 2.357475e-02 6.878496e-02 8.266824e-02 -1.761893e-01 1.311843e-02 -1.034703e-01 4.762783e-02 -1.788475e-02 3.923251e-03 -2.714713e-02 2.290681e-02 -9.083929e-02 -5.186663e-02 -1.317113e-02 -1.005320e-02 3.067147e-03 1.000619e-01
<VARIANCE> 39
 4.898754e+00 6.736828e+00 6.615033e+00 5.783467e+00 9.318470e+00 1.464459e+01 2.087336e+01 2.083887e+01 1.667905e+01 1.277138e+01 1.146079e+01 1.082224e+01 6.249824e+00 1.092421e-01 3.406827e-01 4.107507e-01 4.342900e-01 5.802832e-01 6.650458e-01 7.694033e-01 8.898463e-01 8.674520e-01 8.668943e-01 7.787411e-01 7.078950e-01 9.558169e-02 2.507094e-02 1.090334e-01 8.614106e-02 1.096705e-01 1.370116e-01 1.821894e-01 1.806383e-01 2.267796e-01 1.978607e-01 1.838688e-01 1.707586e-01 1.490321e-01 6.831221e-02
<GCONST> 6.513171e+01
<MIXTURE> 4 1.392057e-01
<MEAN> 39
 -1.391329e+01 3.840245e+00 -5.044594e+00 8.461350e+00 -6.633220e+00 9.216377e+00 -7.384081e+00 3.779737e+00 -6.030256e+00 -1.491613e+00 -3.689887e+00 -4.360227e+00 4.752833e+01 -1.661170e-01 -9.635590e-03 -3.684806e-01 -3.060951e-01 -4.297011e-01 -4.491537e-01 -4.387901e-01 -3.388582e-01 -3.705735e-01 -4.763560e-01 -3.588660e-01 -2.769110e-01 -2.137623e-01 -3.426053e-02 -1.174136e-01 7.582098e-03 -6.503886e-02 -4.743281e-02 -1.095943e-01 -5.793711e-02 -1.755161e-01 -1.362746e-01 -9.047557e-02 -6.776793e-02 -5.175828e-02 6.797940e-02
<VARIANCE> 39
 7.256558e+00 8.702667e+00 7.263719e+00 6.499781e+00 7.479539e+00 7.870446e+00 1.059598e+01 1.048522e+01 9.281407e+00 9.094551e+00 8.595657e+00 8.099398e+00 1.027145e+01 1.018359e-01 3.059792e-01 3.958544e-01 4.566599e-01 5.513825e-01 6.334396e-01 7.935062e-01 8.128763e-01 8.492836e-01 8.393127e-01 7.393770e-01 6.872842e-01 9.558169e-02 2.956387e-02 1.142237e-01 8.821463e-02 1.178013e-01 1.478249e-01 1.780457e-01 1.956108e-01 2.092515e-01 1.957664e-01 1.915115e-01 1.679307e-01 1.596533e-01 6.972520e-02
<GCONST> 6.278181e+01
<TRANSP> 5
 0.000000e+00 1.000000e+00 0.000000e+00 0.000000e+00 0.000000e+00
 0.000000e+00 6.550215e-01 9.066986e-02 2.543085e-01 0.000000e+00
 0.000000e+00 0.000000e+00 8.052593e-01 1.947406e-01 0.000000e+00
 0.000000e+00 3.333983e-03 0.000000e+00 8.896217e-01 1.070443e-01
 0.000000e+00 0.000000e+00 0.000000e+00 0.000000e+00 0.000000e+00
<ENDHMM>
