~o
<STREAMINFO> 1 39
<VECSIZE> 39<NULLD><MFCC_D_A_0><DIAGC>
~s "silst"
<MEAN> 39
 -1.748314e+01 2.011926e+00 -7.481725e+00 6.599367e+00 -7.170007e+00 8.521291e+00 -6.229603e+00 5.389574e+00 -4.944334e+00 3.877825e-01 -4.709882e-02 -1.604352e+00 4.550276e+01 6.458030e-01 -1.882269e-01 3.881187e-03 4.624828e-01 -1.246038e-01 -5.832227e-02 3.211015e-01 1.272447e-01 -1.990834e-01 4.455961e-03 1.031037e-01 -1.161604e-02 4.702397e-01 -3.017277e-02 1.910843e-01 -1.620506e-02 -1.482729e-01 1.228931e-01 1.259587e-01 -1.033600e-01 -1.914335e-02 2.117554e-01 2.694062e-02 -1.340249e-01 -1.719700e-03 -7.382021e-02
<VARIANCE> 39
 1.121135e+02 8.347993e+01 3.758227e+01 5.483838e+01 3.873893e+01 6.147151e+01 5.365891e+01 4.144201e+01 4.792218e+01 2.584251e+01 2.955300e+01 2.101818e+01 1.370126e+02 9.403196e+00 6.903286e+00 2.106505e+00 4.744305e+00 3.545162e+00 5.005336e+00 4.281132e+00 3.809843e+00 4.834539e+00 2.645959e+00 3.082872e+00 1.832774e+00 9.029954e+00 1.331435e+00 1.166744e+00 3.798026e-01 8.419376e-01 6.532398e-01 9.266413e-01 7.649083e-01 7.360738e-01 8.838508e-01 5.241339e-01 6.023405e-01 3.716803e-01 1.305612e+00
<GCONST> 1.372563e+02
~h "k"
<BEGINHMM>
<NUMSTATES> 5
<STATE> 2
<MEAN> 39
 -1.302962e+01 1.338778e+00 -5.978507e+00 7.868155e+00 -4.985930e+00 1.083007e+01 -4.306727e+00 6.284075e+00 -3.162309e+00 1.432941e+00 -1.722323e+00 -2.748761e+00 4.958849e+01 -4.859919e-01 -3.970374e+00 4.022578e-01 -1.720938e+00 1.946090e+00 -2.786123e+00 5.276316e-01 -3.166724e+00 1.244070e-01 -7.734389e-02 1.052215e-01 -1.587936e-02 4.431083e+00 -2.179817e-01 -1.907480e+00 2.307609e-01 -1.050329e+00 8.711910e-01 -1.332082e+00 1.962337e-01 -1.695207e+00 8.118837e-02 -2.772176e-01 -2.139890e-02 -1.019742e-01 2.380766e+00
<VARIANCE> 39
 1.391340e+01 3.780724e+01 1.829688e+01 1.856183e+01 2.143177e+01 3.153218e+01 3.299488e+01 2.673367e+01 2.022838e+01 1.797710e+01 1.470832e+01 1.351373e+01 2.050120e+01 1.198049e+00 1.725106e+01 2.012953e+00 6.162650e+00 5.870388e+00 1.070708e+01 3.279194e+00 1.335077e+01 2.777087e+00 2.631104e+00 1.922627e+00 1.752511e+00 2.230118e+01 1.391626e-01 1.229019e+00 2.970177e-01 4.571786e-01 5.791400e-01 8.557251e-01 5.317345e-01 8.578439e-01 4.925325e-01 4.262998e-01 3.428783e-01 3.073530e-01 1.145070e+00
<GCONST> 1.221272e+02
<STATE> 3
<MEAN> 39
 -1.678791e+01 -2.693824e+01 -1.419135e+00 -7.466278e+00 7.256134e+00 -7.893400e+00 -1.214415e+00 -1.984238e+01 -1.026604e+00 -1.290208e+00 -2.534153e+00 -4.816782e+00 8.351527e+01 3.187851e-02 -1.527934e+00 5.330145e-01 -6.999346e-01 1.205338e-01 -3.133934e-01 -2.615397e-01 -1.641252e+00 3.787028e-02 2.025815e-01 -3.826196e-01 -3.665152e-01 1.221161e+00 3.523570e-01 1.435522e+00 -2.629125e-01 9.123211e-01 -8.066286e-01 1.225091e+00 -3.757155e-01 1.410730e+00 -1.235408e-01 3.419207e-01 -1.169921e-01 1.400200e-01 -2.040634e+00
<VARIANCE> 39
 7.199100e+00 1.363169e+01 1.586986e+01 1.991817e+01 1.991391e+01 4.102641e+01 2.685191e+01 3.563728e+01 3.066014e+01 2.539911e+01 2.501967e+01 2.691198e+01 2.471227e+01 1.316489e+00 1.637034e+01 1.669960e+00 7.429796e+00 6.054957e+00 1.316415e+01 2.810814e+00 1.519235e+01 2.385377e+00 3.565487e+00 1.661391e+00 1.906775e+00 3.354695e+01 1.622756e-01 1.215272e+00 4.190535e-01 5.361717e-01 6.350114e-01 1.128964e+00 4.596987e-01 9.618908e-01 4.788492e-01 6.092228e-01 3.491515e-01 4.322568e-01 1.846151e+00
<GCONST> 1.257190e+02
<STATE> 4
<MEAN> 39
 -9.910028e+00 -1.545735e+01 -5.529887e+00 5.208677e+00 -2.577121e+00 6.886412e+00 -9.318480e+00 -9.395848e+00 -4.948857e+00 3.829323e+00 -5.844254e+00 -3.934125e+00 6.264690e+01 7.056192e-01 1.902115e+00 -1.022833e+00 1.894342e+00 -9.591290e-01 1.645159e+00 -4.814707e-01 1.658436e+00 -4.743425e-01 3.443072e-01 7.519666e-04 1.459289e-01 -2.438297e+00 -2.474317e-01 -5.933564e-02 7.987785e-02 -2.001624e-01 2.798579e-01 -2.740730e-01 3.253949e-01 -1.514504e-01 9.947687e-02 -1.355658e-01 1.866997e-01 -1.256221e-01 3.866779e-01
<VARIANCE> 39
 9.925756e+00 2.993877e+01 1.790662e+01 4.264048e+01 1.911565e+01 3.727671e+01 2.742763e+01 3.672666e+01 4.685268e+01 1.912180e+01 2.350691e+01 2.524044e+01 2.692782e+01 1.334076e+00 1.156902e+00 1.458506e+00 2.199552e+00 2.407720e+00 2.721626e+00 3.423908e+00 5.017617e+00 4.422205e+00 2.056429e+00 1.975548e+00 1.962219e+00 2.395035e+00 1.599078e-01 2.399432e-01 2.763384e-01 3.822165e-01 3.292287e-01 4.079161e-01 5.065764e-01 9.525146e-01 1.008552e+00 4.869609e-01 3.633406e-01 3.630743e-01 2.646148e-01
<GCONST> 1.124184e+02
<TRANSP> 5
 0.000000e+00 1.000000e+00 0.000000e+00 0.000000e+00 0.000000e+00
 0.000000e+00 7.433172e-01 2.566827e-01 0.000000e+00 0.000000e+00
 0.000000e+00 0.000000e+00 8.522215e-01 1.477785e-01 0.000000e+00
 0.000000e+00 0.000000e+00 0.000000e+00 8.666621e-01 1.333379e-01
 0.000000e+00 0.000000e+00 0.000000e+00 0.000000e+00 0.000000e+00
<ENDHMM>
~h "p"
<BEGINHMM>
<NUMSTATES> 5
<STATE> 2
<MEAN> 39
 -1.331514e+01 3.406527e+00 -5.674723e+00 7.750216e+00 -6.519000e+00 1.052928e+01 -4.918149e+00 6.713190e+00 -3.374674e+00 3.297541e-01 -2.282959e+00 -3.077508e+00 4.811535e+01 7.870427e-01 -2.162411e+00 1.325822e+00 -1.393169e+00 1.499114e+00 -2.298817e+00 6.993384e-01 -2.244761e+00 -3.845535e-01 -1.393646e+00 1.656350e-01 1.027781e-01 4.203041e+00 5.633335e-01 -1.009586e+00 8.777903e-01 -5.831540e-01 9.232360e-01 -9.465317e-01 4.185825e-01 -1.082619e+00 -1.046429e-01 -7.607518e-01 9.882480e-04 -4.230826e-02 2.292042e+00
<VARIANCE> 39
 1.373260e+01 8.681588e+00 1.689482e+01 1.106035e+01 1.240639e+01 1.632870e+01 2.391499e+01 1.713180e+01 1.550047e+01 1.210023e+01 1.085011e+01 9.195706e+00 1.002484e+01 1.349609e+00 5.106147e+00 3.847993e+00 3.268591e+00 4.318186e+00 6.211696e+00 2.800303e+00 6.968859e+00 2.448211e+00 3.915272e+00 1.616733e+00 1.455056e+00 1.885381e+01 1.199570e-01 2.664092e-01 2.297912e-01 3.599368e-01 3.730895e-01 5.164318e-01 3.960184e-01 5.002522e-01 3.877032e-01 3.255560e-01 2.632286e-01 2.400938e-01 6.256316e-01
<GCONST> 1.074306e+02
<STATE> 3
<MEAN> 39
 -5.336596e+00 -1.037284e+01 5.377819e+00 -3.023057e-02 5.408898e+00 -2.475890e+00 7.622850e-01 -7.537340e+00 -4.932774e+00 -9.980330e+00 -2.696713e+00 -3.212404e+00 7.826504e+01 1.720954e+00 -5.212129e-01 8.244004e-01 5.891337e-01 5.029554e-01 5.390975e-01 4.437652e-01 -1.804151e-02 2.551048e-02 -8.235922e-01 -9.374879e-01 -3.064927e-01 1.542130e+00 -2.529231e-01 1.295930e+00 -1.025978e+00 1.054614e+00 -1.334126e+00 1.487625e+00 -6.290418e-01 1.474113e+00 7.143555e-02 9.129241e-01 -2.511836e-01 -4.585177e-02 -2.799978e+00
<VARIANCE> 39
 1.100931e+01 1.307003e+01 1.622368e+01 2.741586e+01 2.508455e+01 4.567501e+01 3.186554e+01 3.895995e+01 2.857253e+01 2.448130e+01 2.790087e+01 2.166756e+01 4.682886e+01 1.194715e+00 7.189956e+00 6.110515e+00 6.250784e+00 9.717844e+00 1.305523e+01 4.081376e+00 1.304128e+01 2.464264e+00 5.111759e+00 2.199961e+00 1.429023e+00 4.026780e+01 1.888312e-01 4.455023e-01 5.243156e-01 5.506886e-01 7.465905e-01 1.200736e+00 6.604387e-01 1.154230e+00 5.879436e-01 5.441462e-01 4.988435e-01 3.469113e-01 2.123596e+00
<GCONST> 1.294594e+02
<STATE> 4
<MEAN> 39
 -2.523961e+00 3.018059e+00 -1.216267e-01 1.203985e+01 -4.073718e+00 9.486170e+00 -4.823665e+00 2.409165e+00 -7.759978e+00 -4.848001e+00 -7.256004e+00 -5.927920e+00 5.836055e+01 -4.074924e-01 1.310846e+00 -6.166945e-01 5.813072e-01 -6.388111e-01 5.655511e-01 -4.564491e-01 5.359802e-01 -4.246183e-01 5.434520e-01 5.415120e-02 -1.649545e-01 -1.843633e+00 -2.191688e-01 -2.065552e-01 1.361587e-01 -3.473424e-01 2.919305e-01 -3.108453e-01 1.451847e-01 -2.549726e-01 3.039347e-02 -1.084927e-01 1.637560e-01 5.111948e-02 3.598334e-01
<VARIANCE> 39
 9.738526e+00 3.510083e+01 2.510802e+01 1.995154e+01 1.939062e+01 2.020069e+01 2.172182e+01 1.673905e+01 2.327983e+01 1.763939e+01 1.716240e+01 1.588131e+01 2.494036e+01 7.792572e-01 1.327981e+00 1.767146e+00 2.383339e+00 3.251957e+00 2.619699e+00 1.854576e+00 2.201019e+00 1.835056e+00 1.858983e+00 1.426474e+00 1.215611e+00 1.885264e+00 6.358019e-02 1.398202e-01 2.616732e-01 2.950329e-01 4.806854e-01 5.852307e-01 3.272577e-01 4.169211e-01 3.967542e-01 3.410377e-01 3.117198e-01 2.455972e-01 1.658745e-01
<GCONST> 1.009585e+02
<TRANSP> 5
 0.000000e+00 1.000000e+00 0.000000e+00 0.000000e+00 0.000000e+00
 0.000000e+00 7.110979e-01 2.889021e-01 0.000000e+00 0.000000e+00
 0.000000e+00 0.000000e+00 7.743908e-01 2.256092e-01 0.000000e+00
 0.000000e+00 0.000000e+00 0.000000e+00 8.890465e-01 1.109534e-01
 0.000000e+00 0.000000e+00 0.000000e+00 0.000000e+00 0.000000e+00
<ENDHMM>
~h "s"
<BEGINHMM>
<NUMSTATES> 5
<STATE> 2
<MEAN> 39
 -1.385454e+01 -5.076749e-01 -3.679374e+00 8.302302e+00 -5.484587e+00 9.553883e+00 -3.072758e+00 3.838604e+00 -3.942306e+00 1.012306e-01 -3.066520e+00 -2.024123e+00 5.100184e+01 -1.727406e+00 -3.264029e+00 1.189659e+00 -1.258492e+00 1.530138e+00 -2.239540e+00 2.017543e+00 -2.618626e+00 3.662135e-01 -6.217411e-01 1.496723e-01 1.148639e+00 2.881474e+00 -8.345495e-01 -1.071134e+00 5.581483e-01 -1.037710e+00 1.067264e+00 -9.322506e-01 5.842367e-01 -9.069635e-01 1.304742e-01 -3.231738e-01 1.689824e-01 2.085493e-01 1.412992e+00
<VARIANCE> 39
 1.697140e+01 5.349431e+01 3.013603e+01 2.435892e+01 2.457169e+01 4.086503e+01 4.249543e+01 4.992091e+01 2.748229e+01 2.321400e+01 2.573197e+01 2.306985e+01 2.428332e+01 2.996387e+00 9.335750e+00 4.466662e+00 5.766200e+00 6.361054e+00 7.583771e+00 5.053582e+00 8.564428e+00 3.223160e+00 2.986394e+00 2.657179e+00 2.509573e+00 7.744552e+00 2.315405e-01 1.216733e+00 6.900717e-01 7.948796e-01 6.980488e-01 9.090770e-01 7.589696e-01 1.169587e+00 4.969437e-01 4.710793e-01 4.798849e-01 4.808943e-01 5.271004e-01
<GCONST> 1.301257e+02
<STATE> 3
<MEAN> 39
 -2.782005e+01 -1.788907e+01 4.713648e+00 -7.865819e+00 1.041286e+01 -5.605805e+00 7.150326e+00 -1.037020e+01 -1.552882e+00 -4.832576e+00 -1.689447e-02 1.924920e+00 7.306853e+01 -2.587632e+00 -1.793011e+00 1.639272e+00 -3.784979e+00 2.882990e+00 -1.642668e+00 7.464647e-01 -1.144730e+00 1.350826e-01 -7.953111e-01 9.034744e-01 -1.400331e-01 3.838877e+00 7.198884e-01 1.060567e+00 -3.346508e-01 6.404324e-01 -8.868013e-01 1.120710e+00 -7.908739e-01 9.751709e-01 -1.538853e-01 2.273275e-01 -7.580691e-02 -3.205248e-01 -1.103951e+00
<VARIANCE> 39
 2.106767e+01 2.860388e+01 5.179939e+01 5.657069e+01 4.766666e+01 4.144429e+01 3.414044e+01 3.579563e+01 3.309179e+01 2.591963e+01 3.388042e+01 2.307829e+01 3.311627e+01 3.310081e+00 7.142528e+00 4.715437e+00 4.841530e+00 6.756896e+00 8.040574e+00 5.248397e+00 6.991371e+00 2.411259e+00 2.554032e+00 2.063751e+00 2.037073e+00 6.190690e+00 4.165498e-01 9.501751e-01 8.520334e-01 1.087548e+00 9.746368e-01 8.627574e-01 7.234808e-01 1.028771e+00 5.298518e-01 5.072799e-01 5.029112e-01 4.936399e-01 4.838352e-01
<GCONST> 1.317351e+02
<STATE> 4
<MEAN> 39
 -2.870600e+01 -1.803282e+01 1.051087e+01 -1.270607e+01 9.841456e+00 1.075117e+00 3.491681e+00 -7.802153e+00 -2.177390e+00 -5.161657e+00 3.439834e-01 1.250809e+00 7.399774e+01 1.069685e+00 7.786444e-01 2.493094e-01 7.616309e-01 -1.115858e+00 1.381200e+00 -7.110269e-01 1.027476e+00 -4.613551e-01 2.852136e-01 -5.756772e-01 -3.524482e-02 -1.553252e+00 2.604627e-01 2.845908e-01 -2.071411e-01 3.474869e-01 -2.843657e-01 1.128319e-01 -1.280496e-01 1.888853e-01 -5.076677e-02 1.158616e-01 -8.207838e-02 -3.165496e-02 -3.960553e-01
<VARIANCE> 39
 2.214853e+01 1.817756e+01 3.067172e+01 2.347260e+01 3.868653e+01 5.375522e+01 2.813453e+01 3.362770e+01 2.753955e+01 2.007919e+01 2.688886e+01 1.476611e+01 4.281824e+01 1.900513e+00 2.422331e+00 1.725768e+00 2.163932e+00 2.546512e+00 2.162508e+00 2.187654e+00 2.945897e+00 2.027099e+00 1.807377e+00 1.606082e+00 1.030031e+00 2.861345e+00 2.272986e-01 2.910164e-01 2.744687e-01 2.715574e-01 3.459250e-01 3.715478e-01 3.843748e-01 4.358407e-01 3.918633e-01 3.436874e-01 3.343304e-01 2.225902e-01 2.401689e-01
<GCONST> 1.088899e+02
<TRANSP> 5
 0.000000e+00 1.000000e+00 0.000000e+00 0.000000e+00 0.000000e+00
 0.000000e+00 7.451736e-01 2.548264e-01 0.000000e+00 0.000000e+00
 0.000000e+00 0.000000e+00 7.635103e-01 2.364897e-01 0.000000e+00
 0.000000e+00 0.000000e+00 0.000000e+00 9.005303e-01 9.946972e-02
 0.000000e+00 0.000000e+00 0.000000e+00 0.000000e+00 0.000000e+00
<ENDHMM>
~h "sil"
<BEGINHMM>
<NUMSTATES> 5
<STATE> 2
<MEAN> 39
 -1.556014e+01 -4.591497e-01 -2.402328e+00 4.942774e+00 -4.348202e+00 1.228576e+01 -6.086524e+00 3.312724e+00 -4.928493e+00 7.611019e-01 -2.891958e+00 -2.885521e+00 5.019893e+01 1.280526e-01 1.032034e+00 -6.929260e-01 5.986185e-01 -4.361050e-01 2.682199e-01 -1.539190e-01 7.687820e-01 4.349363e-01 2.407982e-01 3.025099e-01 -1.323087e-01 -1.015077e+00 -8.168343e-02 -1.846446e-01 3.518115e-02 -1.029579e-01 1.244341e-01 -2.317963e-01 1.085350e-01 -1.189965e-01 7.782568e-02 -8.092321e-02 1.822526e-02 7.201724e-02 2.233477e-01
<VARIANCE> 39
 7.173444e+01 5.451385e+01 6.058324e+01 4.112327e+01 2.491070e+01 2.869092e+01 3.708408e+01 2.643661e+01 2.732496e+01 2.494569e+01 1.772671e+01 1.717412e+01 8.906466e+01 1.166469e+00 1.666556e+00 1.774075e+00 2.034321e+00 2.565609e+00 2.394605e+00 1.996421e+00 2.073691e+00 2.260015e+00 1.710573e+00 1.454125e+00 1.289360e+00 8.420315e-01 1.094920e-01 1.977699e-01 1.959374e-01 2.361759e-01 3.611709e-01 3.706958e-01 3.555636e-01 3.890061e-01 4.341563e-01 3.243392e-01 3.104570e-01 2.343050e-01 8.034109e-02
<GCONST> 1.069572e+02
<STATE> 3
~s "silst"
<STATE> 4
<MEAN> 39
 -1.268600e+01 3.839856e+00 -6.656956e+00 7.682688e+00 -6.439164e+00 1.004426e+01 -5.930697e+00 5.974169e+00 -3.669388e+00 2.184642e-01 -2.165523e+00 -3.005784e+00 4.813303e+01 -8.509357e-02 9.952732e-02 -1.044614e-01 -2.708366e-02 -7.989731e-02 -3.418886e-02 1.607620e-02 1.162278e-01 8.388810e-02 -5.537638e-03 2.799569e-02 4.372791e-02 -1.532966e-01 4.519213e-03 -8.726300e-02 3.632342e-02 3.105398e-03 1.266908e-03 -2.128534e-02 2.214906e-02 -6.596496e-02 -5.168313e-02 -1.000937e-02 4.721788e-03 -1.640736e-04 6.945204e-02
<VARIANCE> 39
 1.306119e+01 6.582678e+00 1.478457e+01 1.038360e+01 1.175545e+01 1.529485e+01 1.993588e+01 1.648103e+01 1.440347e+01 1.172764e+01 1.098281e+01 9.984505e+00 8.512608e+00 1.019776e-01 3.240819e-01 3.723309e-01 4.529677e-01 5.960664e-01 6.849815e-01 8.043826e-01 8.652903e-01 8.897547e-01 9.056153e-01 8.293780e-01 7.532637e-01 9.236430e-02 2.487807e-02 9.025820e-02 8.144073e-02 1.050394e-01 1.338461e-01 1.696027e-01 1.795334e-01 1.982200e-01 1.889096e-01 1.872709e-01 1.767689e-01 1.569777e-01 4.014777e-02
<GCONST> 6.648108e+01
<TRANSP> 5
 0.000000e+00 1.000000e+00 0.000000e+00 0.000000e+00 0.000000e+00
 0.000000e+00 7.301490e-01 5.141453e-02 2.184365e-01 0.000000e+00
 0.000000e+00 0.000000e+00 8.555598e-01 1.444402e-01 0.000000e+00
 0.000000e+00 4.166739e-03 0.000000e+00 8.930749e-01 1.027583e-01
 0.000000e+00 0.000000e+00 0.000000e+00 0.000000e+00 0.000000e+00
<ENDHMM>
