~o
<STREAMINFO> 1 39
<VECSIZE> 39<NULLD><MFCC_D_A_0><DIAGC>
~s "silst"
<NUMMIXES> 4
<MIXTURE> 1 6.075587e-02
<MEAN> 39
 -1.814918e+01 1.506101e+00 -4.798894e+00 7.443608e+00 -5.612595e+00 1.315434e+01 -3.314908e+00 5.445055e+00 -5.468533e+00 1.534772e-02 -9.147837e-01 -1.177481e+00 4.565980e+01 1.348788e+00 -5.413314e-01 1.808411e-02 1.678086e+00 2.442165e-01 6.035970e-01 1.889641e+00 1.493048e+00 8.024204e-01 8.202223e-01 6.922594e-01 2.208349e-01 9.363817e-01 -1.352621e-01 6.371182e-02 1.325594e-01 -8.656424e-02 3.119241e-01 1.106525e-01 1.101293e-01 2.324487e-01 3.735275e-01 1.600662e-01 2.157542e-02 8.015198e-02 -5.541146e-04
<VARIANCE> 39
 7.369511e+01 5.777981e+01 5.458315e+01 3.780585e+01 2.617317e+01 4.378934e+01 5.043645e+01 3.686674e+01 4.585508e+01 3.209009e+01 2.962823e+01 2.046530e+01 1.005092e+02 8.281375e+00 7.459411e+00 2.332851e+00 3.499427e+00 3.154016e+00 5.609597e+00 3.735139e+00 4.202761e+00 5.556643e+00 3.096706e+00 2.240280e+00 1.767627e+00 9.622753e+00 6.311916e-01 9.573867e-01 3.448195e-01 6.058894e-01 5.020069e-01 8.065653e-01 7.121164e-01 6.608974e-01 9.051251e-01 6.142282e-01 5.307885e-01 3.387598e-01 6.876761e-01
<GCONST> 1.324808e+02
<MIXTURE> 2 4.345515e-01
<MEAN> 39
 -1.761442e+01 6.227143e-01 -3.875277e+00 7.773869e+00 -5.837629e+00 1.212944e+01 -3.497565e+00 4.899918e+00 -6.409649e+00 -4.512523e-01 -1.468569e+00 -1.829447e+00 4.683630e+01 9.456887e-01 -1.073982e-01 -6.332912e-02 8.262802e-01 -1.864295e-01 -3.663792e-02 5.687670e-01 3.810933e-01 -9.658644e-02 1.115132e-01 1.856522e-01 -5.400094e-02 5.333169e-01 -9.019314e-02 1.246466e-01 -2.409495e-02 -1.592987e-01 1.950081e-01 3.281436e-02 -1.009397e-01 4.225164e-02 2.875604e-01 5.997378e-02 -8.009917e-02 2.738094e-02 -4.965981e-02
<VARIANCE> 39
 8.310088e+01 7.637658e+01 5.064207e+01 5.454240e+01 3.050442e+01 6.082476e+01 5.716415e+01 4.765559e+01 5.547058e+01 3.556471e+01 3.709302e+01 2.693999e+01 1.170847e+02 5.345724e+00 6.738955e+00 2.308158e+00 4.180162e+00 3.101329e+00 5.089826e+00 4.165278e+00 4.165068e+00 5.459146e+00 3.131611e+00 2.854111e+00 1.867809e+00 6.803489e+00 8.739027e-01 1.177919e+00 3.770109e-01 7.930387e-01 6.005662e-01 1.041400e+00 8.438793e-01 8.705604e-01 1.027583e+00 6.331307e-01 6.063968e-01 3.884657e-01 1.022320e+00
<GCONST> 1.371334e+02
<MIXTURE> 3 4.345515e-01
<MEAN> 39
 -1.761442e+01 6.227144e-01 -3.875278e+00 7.773869e+00 -5.837629e+00 1.212944e+01 -3.497564e+00 4.899918e+00 -6.409649e+00 -4.512523e-01 -1.468569e+00 -1.829447e+00 4.683630e+01 9.456887e-01 -1.073982e-01 -6.332912e-02 8.262802e-01 -1.864295e-01 -3.663793e-02 5.687671e-01 3.810934e-01 -9.658647e-02 1.115132e-01 1.856523e-01 -5.400094e-02 5.333169e-01 -9.019313e-02 1.246466e-01 -2.409494e-02 -1.592987e-01 1.950081e-01 3.281435e-02 -1.009397e-01 4.225165e-02 2.875604e-01 5.997380e-02 -8.009914e-02 2.738095e-02 -4.965980e-02
<VARIANCE> 39
 8.310088e+01 7.637658e+01 5.064207e+01 5.454240e+01 3.050442e+01 6.082476e+01 5.716415e+01 4.765559e+01 5.547058e+01 3.556471e+01 3.709302e+01 2.693999e+01 1.170848e+02 5.345724e+00 6.738955e+00 2.308158e+00 4.180161e+00 3.101329e+00 5.089826e+00 4.165278e+00 4.165068e+00 5.459146e+00 3.131611e+00 2.854111e+00 1.867809e+00 6.803489e+00 8.739026e-01 1.177919e+00 3.770109e-01 7.930387e-01 6.005662e-01 1.041400e+00 8.438793e-01 8.705604e-01 1.027583e+00 6.331307e-01 6.063968e-01 3.884657e-01 1.022320e+00
<GCONST> 1.371334e+02
<MIXTURE> 4 7.014173e-02
<MEAN> 39
 -1.619817e+01 -3.829541e-01 -2.889832e+00 7.613833e+00 -6.792106e+00 9.935218e+00 -4.914914e+00 2.535049e+00 -7.915178e+00 -1.937986e+00 -2.578680e+00 -2.361428e+00 4.896843e+01 5.984958e-01 3.403735e-01 -1.053386e-01 1.531653e-01 -7.289264e-01 -3.153703e-01 -4.588412e-01 -5.753832e-01 -1.018217e+00 -5.698401e-01 -5.307103e-01 -6.376392e-01 4.252744e-02 -3.135262e-01 2.597841e-01 -1.782887e-01 -3.375072e-01 1.883303e-01 4.611558e-02 -2.192482e-01 3.557840e-02 2.764879e-01 4.105052e-02 -1.589690e-01 -5.519225e-02 -2.989139e-01
<VARIANCE> 39
 6.479623e+01 8.217099e+01 5.206463e+01 5.556243e+01 3.457571e+01 5.210061e+01 4.283726e+01 5.238097e+01 6.242698e+01 3.209914e+01 3.641765e+01 2.377129e+01 1.099883e+02 4.784891e+00 5.499519e+00 2.538310e+00 4.240202e+00 2.914404e+00 4.431365e+00 3.817815e+00 4.192783e+00 6.295701e+00 3.704804e+00 2.616414e+00 2.310273e+00 5.743437e+00 9.356598e-01 9.681659e-01 3.963699e-01 7.334417e-01 5.772440e-01 9.223054e-01 8.578838e-01 8.918942e-01 1.133923e+00 5.591275e-01 5.802819e-01 4.277006e-01 1.137306e+00
<GCONST> 1.362277e+02
~h "k"
<BEGINHMM>
<NUMSTATES> 5
<STATE> 2
<NUMMIXES> 4
<MIXTURE> 1 6.493705e-02
<MEAN> 39
 -1.503342e+01 -1.170006e-01 -4.522565e+00 1.025379e+01 -3.147511e+00 1.374704e+01 -1.887137e+00 8.224960e+00 -1.581756e+00 2.414216e+00 -8.861382e-01 -1.681327e+00 4.870451e+01 -1.391338e-01 -1.979998e+00 -1.106580e-01 -2.705090e-01 9.860847e-01 -9.652542e-01 3.239381e-01 -9.091167e-01 4.237767e-01 6.081523e-01 4.199898e-01 3.760025e-01 1.665257e+00 -3.248730e-02 -1.512768e+00 2.189981e-01 -8.947779e-01 5.420046e-01 -1.006857e+00 1.491263e-01 -1.291532e+00 -3.160486e-02 -3.718914e-02 1.022567e-02 6.081437e-02 1.826775e+00
<VARIANCE> 39
 6.615270e+00 6.634870e+01 1.432341e+01 1.377699e+01 1.446594e+01 2.015869e+01 2.084161e+01 2.504114e+01 1.878204e+01 2.155886e+01 1.539877e+01 1.653451e+01 2.020683e+01 6.473888e-01 1.493086e+01 1.815132e+00 4.212456e+00 3.330998e+00 6.605919e+00 3.511791e+00 8.367903e+00 2.422957e+00 2.571639e+00 2.037855e+00 1.820361e+00 1.273956e+01 1.122376e-01 2.490372e+00 2.988369e-01 5.951173e-01 6.013309e-01 1.111835e+00 5.532994e-01 1.176686e+00 5.538077e-01 4.791804e-01 3.833093e-01 3.228670e-01 1.877156e+00
<GCONST> 1.193689e+02
<MIXTURE> 2 4.374253e-01
<MEAN> 39
 -1.482120e+01 8.595950e-01 -4.246529e+00 9.240222e+00 -3.714292e+00 1.242326e+01 -2.828819e+00 6.924130e+00 -3.335613e+00 1.204978e+00 -1.792331e+00 -2.562516e+00 4.877133e+01 -1.940546e-01 -4.168207e+00 1.488919e-01 -2.033834e+00 1.662366e+00 -2.996834e+00 3.358065e-01 -3.441502e+00 1.287366e-01 9.181602e-02 6.910211e-02 1.268159e-01 4.700157e+00 -1.009246e-01 -1.977547e+00 8.214304e-02 -1.232740e+00 7.352614e-01 -1.409325e+00 1.798564e-01 -1.761451e+00 1.072758e-01 -2.100607e-01 -1.936706e-02 -8.278172e-03 2.492966e+00
<VARIANCE> 39
 7.691942e+00 4.402079e+01 1.127876e+01 1.683978e+01 1.744419e+01 2.895769e+01 2.920184e+01 2.954338e+01 2.204967e+01 2.109042e+01 1.651044e+01 1.384739e+01 2.193465e+01 7.644143e-01 1.752213e+01 1.581306e+00 7.192380e+00 4.154012e+00 1.129716e+01 3.147990e+00 1.400086e+01 2.895931e+00 2.613820e+00 2.009309e+00 1.572144e+00 2.306222e+01 1.049903e-01 1.370297e+00 2.408286e-01 4.524176e-01 4.536047e-01 8.850752e-01 5.323561e-01 9.774253e-01 5.022031e-01 4.233364e-01 3.676539e-01 2.779383e-01 1.208312e+00
<GCONST> 1.200074e+02
<MIXTURE> 3 4.374253e-01
<MEAN> 39
 -1.482120e+01 8.595949e-01 -4.246529e+00 9.240222e+00 -3.714292e+00 1.242326e+01 -2.828819e+00 6.924130e+00 -3.335613e+00 1.204978e+00 -1.792331e+00 -2.562516e+00 4.877133e+01 -1.940546e-01 -4.168207e+00 1.488919e-01 -2.033834e+00 1.662366e+00 -2.996834e+00 3.358065e-01 -3.441502e+00 1.287366e-01 9.181599e-02 6.910209e-02 1.268159e-01 4.700157e+00 -1.009246e-01 -1.977547e+00 8.214302e-02 -1.232740e+00 7.352614e-01 -1.409326e+00 1.798564e-01 -1.761451e+00 1.072758e-01 -2.100607e-01 -1.936704e-02 -8.278165e-03 2.492966e+00
<VARIANCE> 39
 7.691941e+00 4.402079e+01 1.127876e+01 1.683978e+01 1.744419e+01 2.895768e+01 2.920184e+01 2.954338e+01 2.204967e+01 2.109042e+01 1.651044e+01 1.384739e+01 2.193465e+01 7.644143e-01 1.752213e+01 1.581306e+00 7.192380e+00 4.154012e+00 1.129716e+01 3.147990e+00 1.400086e+01 2.895931e+00 2.613820e+00 2.009309e+00 1.572144e+00 2.306222e+01 1.049903e-01 1.370297e+00 2.408286e-01 4.524176e-01 4.536047e-01 8.850752e-01 5.323561e-01 9.774253e-01 5.022031e-01 4.233364e-01 3.676538e-01 2.779383e-01 1.208312e+00
<GCONST> 1.200074e+02
<MIXTURE> 4 6.021230e-02
<MEAN> 39
 -1.482352e+01 4.833683e-01 -4.489048e+00 8.618845e+00 -3.647615e+00 1.127578e+01 -3.282533e+00 5.821041e+00 -3.633929e+00 1.324955e+00 -1.824519e+00 -2.822747e+00 4.934121e+01 -3.502481e-01 -6.761439e+00 9.787628e-02 -3.692742e+00 2.534140e+00 -5.276443e+00 3.277781e-01 -6.165677e+00 -5.953618e-01 -8.664822e-01 -4.213439e-01 -3.363674e-01 8.001181e+00 -1.435037e-01 -1.860919e+00 -2.015986e-03 -1.256126e+00 6.146285e-01 -1.359500e+00 2.175414e-01 -1.758774e+00 3.279163e-02 -4.007421e-01 -1.698298e-01 -1.668763e-01 2.476226e+00
<VARIANCE> 39
 8.268720e+00 3.813025e+01 9.271846e+00 2.341678e+01 2.550170e+01 3.672155e+01 3.025067e+01 3.385281e+01 2.481321e+01 1.947346e+01 1.926244e+01 1.196635e+01 3.427802e+01 9.942542e-01 1.200054e+01 1.715468e+00 6.225698e+00 4.652884e+00 1.059595e+01 3.838810e+00 1.268117e+01 3.293193e+00 3.442893e+00 2.240791e+00 1.681519e+00 1.751382e+01 1.114197e-01 8.593408e-01 2.243699e-01 3.999169e-01 5.013834e-01 8.763594e-01 4.951355e-01 8.481195e-01 4.830224e-01 3.232488e-01 3.810633e-01 2.601136e-01 9.686811e-01
<GCONST> 1.203412e+02
<STATE> 3
<NUMMIXES> 4
<MIXTURE> 1 5.776942e-02
<MEAN> 39
 -1.632666e+01 -2.707327e+01 -1.884209e+00 -8.132435e+00 6.103715e+00 -5.647355e+00 5.915439e-02 -1.928280e+01 -9.901913e-01 -2.508746e-01 -2.860009e+00 -3.787100e+00 8.316295e+01 2.687773e-01 -1.484049e-01 3.821084e-01 3.229946e-01 -3.639990e-01 1.210265e+00 1.241145e-01 2.610379e-01 5.771186e-01 8.754520e-01 -3.947416e-02 1.123333e-01 -7.520556e-01 2.664822e-01 1.312766e+00 -1.305282e-01 1.073416e+00 -5.498821e-01 1.210598e+00 -2.739918e-01 1.448500e+00 -6.722230e-02 3.906544e-01 4.242086e-02 2.131170e-01 -1.993994e+00
<VARIANCE> 39
 7.811282e+00 1.042373e+01 1.361219e+01 1.559500e+01 1.562443e+01 3.850959e+01 2.087134e+01 2.768118e+01 3.075620e+01 1.790895e+01 2.319974e+01 2.162346e+01 2.561061e+01 8.359791e-01 9.252455e+00 1.462660e+00 5.107921e+00 3.150768e+00 7.748122e+00 2.843358e+00 9.258559e+00 2.389002e+00 2.376359e+00 1.846359e+00 1.835518e+00 1.863508e+01 1.417092e-01 1.061891e+00 3.733982e-01 4.500190e-01 3.610803e-01 1.050021e+00 4.449930e-01 8.981000e-01 4.565243e-01 3.999342e-01 2.979471e-01 3.493099e-01 1.911306e+00
<GCONST> 1.174905e+02
<MIXTURE> 2 4.415310e-01
<MEAN> 39
 -1.675199e+01 -2.761085e+01 -1.643304e+00 -7.974853e+00 6.209393e+00 -6.822825e+00 -4.747578e-01 -1.993660e+01 -1.043699e+00 -7.564450e-01 -3.176872e+00 -3.834896e+00 8.320941e+01 1.776993e-01 -1.321845e+00 2.738256e-01 -6.288457e-01 -6.829154e-02 -1.320349e-01 -3.191124e-01 -1.331610e+00 -3.990323e-02 1.984010e-01 -4.611754e-01 -3.305596e-01 9.012786e-01 2.470842e-01 1.266930e+00 -1.709949e-01 9.257439e-01 -5.997601e-01 1.115446e+00 -3.454329e-01 1.268769e+00 -1.303203e-01 2.448477e-01 -8.423904e-02 5.908174e-02 -1.810578e+00
<VARIANCE> 39
 7.780607e+00 1.086392e+01 1.511174e+01 1.854923e+01 1.746672e+01 4.110554e+01 2.286933e+01 3.134295e+01 3.178328e+01 2.175950e+01 2.679149e+01 2.485134e+01 2.464385e+01 1.032019e+00 1.545092e+01 1.412915e+00 7.911072e+00 4.185165e+00 1.241569e+01 2.935425e+00 1.463239e+01 2.543477e+00 2.536578e+00 1.644425e+00 1.650088e+00 3.113782e+01 1.270249e-01 1.214845e+00 3.772498e-01 5.070637e-01 4.538795e-01 1.084540e+00 4.622943e-01 9.013852e-01 4.945647e-01 4.648671e-01 3.538348e-01 3.935219e-01 1.656931e+00
<GCONST> 1.222971e+02
<MIXTURE> 3 4.415310e-01
<MEAN> 39
 -1.675199e+01 -2.761085e+01 -1.643304e+00 -7.974854e+00 6.209393e+00 -6.822825e+00 -4.747576e-01 -1.993660e+01 -1.043699e+00 -7.564449e-01 -3.176872e+00 -3.834896e+00 8.320941e+01 1.776994e-01 -1.321844e+00 2.738255e-01 -6.288455e-01 -6.829184e-02 -1.320346e-01 -3.191126e-01 -1.331609e+00 -3.990326e-02 1.984010e-01 -4.611755e-01 -3.305595e-01 9.012780e-01 2.470842e-01 1.266930e+00 -1.709949e-01 9.257440e-01 -5.997599e-01 1.115446e+00 -3.454329e-01 1.268769e+00 -1.303203e-01 2.448477e-01 -8.423907e-02 5.908177e-02 -1.810578e+00
<VARIANCE> 39
 7.780607e+00 1.086392e+01 1.511173e+01 1.854924e+01 1.746672e+01 4.110554e+01 2.286933e+01 3.134295e+01 3.178328e+01 2.175950e+01 2.679149e+01 2.485133e+01 2.464384e+01 1.032019e+00 1.545091e+01 1.412915e+00 7.911071e+00 4.185164e+00 1.241569e+01 2.935425e+00 1.463239e+01 2.543477e+00 2.536578e+00 1.644425e+00 1.650088e+00 3.113782e+01 1.270249e-01 1.214845e+00 3.772497e-01 5.070635e-01 4.538796e-01 1.084540e+00 4.622942e-01 9.013852e-01 4.945647e-01 4.648670e-01 3.538347e-01 3.935218e-01 1.656931e+00
<GCONST> 1.222971e+02
<MIXTURE> 4 5.916191e-02
<MEAN> 39
 -1.710635e+01 -2.851374e+01 -2.612189e+00 -8.017534e+00 6.425858e+00 -8.087910e+00 -1.142110e+00 -1.971576e+01 -2.011866e+00 -7.502916e-01 -3.096736e+00 -3.803243e+00 8.308508e+01 -5.136251e-03 -3.154673e+00 -6.153591e-02 -2.081516e+00 4.681783e-01 -2.051722e+00 -5.615636e-01 -3.535733e+00 -4.957312e-01 -8.373263e-01 -8.903910e-01 -8.060569e-01 3.653449e+00 2.070637e-01 1.481371e+00 -5.824107e-02 7.974942e-01 -7.024196e-01 1.165586e+00 -3.383011e-01 1.175043e+00 -1.502296e-01 1.757148e-02 -2.116157e-01 -1.122140e-01 -1.823344e+00
<VARIANCE> 39
 6.972157e+00 1.098880e+01 1.736770e+01 1.826042e+01 1.979401e+01 5.167323e+01 2.478344e+01 3.389578e+01 3.519622e+01 2.953929e+01 2.689366e+01 2.462218e+01 2.610167e+01 1.197246e+00 1.947775e+01 1.627691e+00 9.206722e+00 4.684838e+00 1.624360e+01 3.152735e+00 1.666444e+01 2.490756e+00 2.930684e+00 1.779448e+00 1.537438e+00 3.813571e+01 1.327030e-01 1.410113e+00 4.296814e-01 5.349442e-01 4.836375e-01 1.297603e+00 6.210353e-01 9.794739e-01 6.201057e-01 6.426147e-01 3.845147e-01 3.911062e-01 1.604464e+00
<GCONST> 1.264776e+02
<STATE> 4
<NUMMIXES> 4
<MIXTURE> 1 7.652494e-02
<MEAN> 39
 -1.098377e+01 -1.115305e+01 -6.619412e+00 8.213088e+00 -2.595715e+00 1.153464e+01 -6.180232e+00 -5.741804e+00 -7.092446e+00 5.498749e+00 -3.479486e+00 -3.565016e+00 5.756785e+01 -4.344620e-01 2.016197e+00 -3.470918e-01 1.087596e+00 4.721688e-01 1.840323e+00 1.099969e+00 2.640416e+00 1.219264e+00 8.989288e-01 9.473059e-01 2.790235e-01 -2.162639e+00 -1.474176e-01 2.235998e-02 1.540169e-01 -2.035651e-01 1.834168e-01 -7.146046e-02 1.902312e-01 1.150593e-01 4.261791e-01 -7.981992e-02 1.888353e-01 1.852112e-01 2.072026e-01
<VARIANCE> 39
 6.754160e+00 3.972192e+01 1.473086e+01 3.428673e+01 1.762057e+01 3.769073e+01 3.273396e+01 3.439889e+01 4.509518e+01 2.282819e+01 2.471970e+01 2.001191e+01 3.089580e+01 1.406652e+00 7.304733e-01 1.073788e+00 2.939144e+00 2.659414e+00 2.335704e+00 3.459545e+00 3.416373e+00 4.417668e+00 1.789129e+00 1.749921e+00 1.627262e+00 1.250542e+00 1.443321e-01 1.912325e-01 1.936097e-01 3.136631e-01 3.817786e-01 4.208233e-01 5.597031e-01 6.885181e-01 9.311693e-01 4.252845e-01 3.439108e-01 3.275666e-01 1.870101e-01
<GCONST> 1.084406e+02
<MIXTURE> 2 4.252186e-01
<MEAN> 39
 -1.025948e+01 -1.410067e+01 -6.089427e+00 7.492190e+00 -2.623064e+00 9.285173e+00 -8.731112e+00 -8.346185e+00 -6.490211e+00 4.350585e+00 -5.505199e+00 -4.454110e+00 6.027002e+01 2.729608e-01 1.831669e+00 -5.764673e-01 1.479452e+00 -3.797380e-01 1.233385e+00 -2.225309e-01 1.380514e+00 -3.232419e-01 2.500875e-01 2.615614e-01 1.828997e-02 -2.000494e+00 -2.042066e-01 -2.499814e-02 1.235188e-01 -2.555094e-01 1.979965e-01 -2.446052e-01 2.605259e-01 -8.266382e-02 1.356386e-01 -1.351107e-01 1.240380e-01 -2.970219e-02 2.975807e-01
<VARIANCE> 39
 8.447065e+00 3.765271e+01 1.574843e+01 4.347452e+01 1.616382e+01 3.301971e+01 3.071522e+01 3.625123e+01 4.320468e+01 2.051254e+01 2.641966e+01 2.710061e+01 3.094816e+01 1.393241e+00 9.643426e-01 1.286945e+00 3.078413e+00 2.331186e+00 2.793829e+00 3.406710e+00 4.109544e+00 4.687556e+00 2.053046e+00 1.867349e+00 1.746172e+00 1.787065e+00 1.608342e-01 1.963746e-01 2.101249e-01 3.692391e-01 3.642564e-01 3.815733e-01 5.284743e-01 8.323592e-01 9.969493e-01 4.270680e-01 3.769139e-01 3.494504e-01 2.041377e-01
<GCONST> 1.109920e+02
<MIXTURE> 3 4.252186e-01
<MEAN> 39
 -1.025948e+01 -1.410067e+01 -6.089427e+00 7.492190e+00 -2.623064e+00 9.285173e+00 -8.731112e+00 -8.346185e+00 -6.490211e+00 4.350585e+00 -5.505199e+00 -4.454110e+00 6.027002e+01 2.729608e-01 1.831669e+00 -5.764673e-01 1.479452e+00 -3.797380e-01 1.233385e+00 -2.225309e-01 1.380514e+00 -3.232419e-01 2.500875e-01 2.615614e-01 1.828997e-02 -2.000494e+00 -2.042066e-01 -2.499814e-02 1.235188e-01 -2.555094e-01 1.979965e-01 -2.446052e-01 2.605259e-01 -8.266383e-02 1.356386e-01 -1.351107e-01 1.240380e-01 -2.970219e-02 2.975807e-01
<VARIANCE> 39
 8.447065e+00 3.765271e+01 1.574843e+01 4.347452e+01 1.616382e+01 3.301971e+01 3.071522e+01 3.625123e+01 4.320468e+01 2.051254e+01 2.641966e+01 2.710061e+01 3.094816e+01 1.393241e+00 9.643426e-01 1.286945e+00 3.078413e+00 2.331186e+00 2.793829e+00 3.406710e+00 4.109544e+00 4.687556e+00 2.053046e+00 1.867349e+00 1.746172e+00 1.787065e+00 1.608342e-01 1.963746e-01 2.101249e-01 3.692391e-01 3.642564e-01 3.815733e-01 5.284743e-01 8.323592e-01 9.969493e-01 4.270680e-01 3.769139e-01 3.494504e-01 2.041377e-01
<GCONST> 1.109920e+02
<MIXTURE> 4 7.303374e-02
<MEAN> 39
 -9.886027e+00 -1.524911e+01 -5.350212e+00 7.759522e+00 -2.601654e+00 7.780499e+00 -1.028503e+01 -1.004850e+01 -6.270697e+00 3.602799e+00 -7.425847e+00 -5.429365e+00 6.154603e+01 4.794435e-01 1.589783e+00 -8.274790e-01 1.230377e+00 -8.117321e-01 6.820793e-01 -1.163048e+00 5.593510e-01 -1.323007e+00 -3.235722e-01 -5.335367e-01 -5.137597e-01 -1.885291e+00 -2.349349e-01 -6.277940e-02 5.808881e-02 -3.350228e-01 1.434506e-01 -3.179362e-01 1.901273e-01 -1.623398e-01 -1.565968e-02 -2.585283e-01 8.313306e-03 -1.685593e-01 3.000397e-01
<VARIANCE> 39
 9.544188e+00 3.474030e+01 1.697937e+01 4.576892e+01 1.448778e+01 3.091885e+01 2.629940e+01 3.676083e+01 4.046944e+01 1.812093e+01 2.415441e+01 2.937672e+01 3.075136e+01 1.539696e+00 1.072162e+00 1.582174e+00 3.634807e+00 2.278534e+00 2.355320e+00 3.143024e+00 4.156932e+00 5.195885e+00 1.908909e+00 2.076325e+00 1.936012e+00 2.058129e+00 1.546757e-01 1.936585e-01 2.487369e-01 4.130789e-01 3.409844e-01 3.087657e-01 5.188707e-01 7.131774e-01 9.143808e-01 4.199534e-01 3.637630e-01 3.628937e-01 1.924205e-01
<GCONST> 1.109529e+02
<TRANSP> 5
 0.000000e+00 1.000000e+00 0.000000e+00 0.000000e+00 0.000000e+00
 0.000000e+00 7.362003e-01 2.637997e-01 0.000000e+00 0.000000e+00
 0.000000e+00 0.000000e+00 8.679566e-01 1.320433e-01 0.000000e+00
 0.000000e+00 0.000000e+00 0.000000e+00 9.027787e-01 9.722132e-02
 0.000000e+00 0.000000e+00 0.000000e+00 0.000000e+00 0.000000e+00
<ENDHMM>
~h "p"
<BEGINHMM>
<NUMSTATES> 5
<STATE> 2
<NUMMIXES> 4
<MIXTURE> 1 5.211804e-02
<MEAN> 39
 -1.503840e+01 3.637015e+00 -4.495861e+00 9.656805e+00 -5.330506e+00 1.165689e+01 -3.009939e+00 7.931474e+00 -3.082589e+00 1.079288e+00 -1.522442e+00 -2.744378e+00 4.675864e+01 1.316895e+00 -2.908354e+00 2.046816e+00 -2.193520e+00 2.295644e+00 -3.077020e+00 1.176888e+00 -3.022090e+00 2.536466e-01 -1.669489e+00 5.481301e-01 5.487332e-01 6.444113e+00 7.239601e-01 -8.584380e-01 8.931217e-01 -6.250607e-01 9.382308e-01 -8.601384e-01 4.510950e-01 -1.036483e+00 7.531163e-02 -7.149403e-01 5.190095e-02 -8.452773e-03 2.404024e+00
<VARIANCE> 39
 7.266925e+00 8.137821e+00 5.309745e+00 5.797048e+00 9.978799e+00 1.429390e+01 2.234756e+01 1.850619e+01 1.466707e+01 1.081105e+01 1.094150e+01 7.963251e+00 6.539938e+00 1.563883e+00 4.313328e+00 3.446492e+00 3.949616e+00 4.329785e+00 8.129311e+00 3.578037e+00 8.701628e+00 3.112772e+00 4.157755e+00 1.823909e+00 1.379686e+00 2.184947e+01 7.834908e-02 3.677955e-01 1.836376e-01 3.499440e-01 3.649063e-01 4.839737e-01 4.103926e-01 5.400921e-01 3.606974e-01 2.610120e-01 2.245152e-01 2.010907e-01 5.676279e-01
<GCONST> 1.041082e+02
<MIXTURE> 2 4.419311e-01
<MEAN> 39
 -1.502600e+01 3.173675e+00 -4.035610e+00 9.024708e+00 -5.659009e+00 1.165740e+01 -3.431928e+00 7.361609e+00 -3.541378e+00 2.658444e-01 -2.075316e+00 -2.943269e+00 4.722839e+01 1.082710e+00 -2.343359e+00 1.227016e+00 -1.695032e+00 1.439923e+00 -2.488718e+00 7.417889e-01 -2.470460e+00 -3.032133e-01 -1.408691e+00 6.556141e-02 5.833616e-02 4.707642e+00 6.965246e-01 -1.017855e+00 8.150886e-01 -7.431855e-01 8.884455e-01 -1.001174e+00 3.905962e-01 -1.160765e+00 -2.957460e-02 -7.615204e-01 -5.193236e-02 -2.407904e-02 2.472203e+00
<VARIANCE> 39
 5.367265e+00 9.683176e+00 1.027780e+01 6.934284e+00 1.178396e+01 1.565672e+01 2.343092e+01 1.907381e+01 1.796107e+01 1.338791e+01 1.159402e+01 9.716951e+00 8.043915e+00 1.567968e+00 4.989165e+00 3.273183e+00 3.708885e+00 3.908581e+00 6.532620e+00 3.183990e+00 7.588841e+00 2.629790e+00 3.986079e+00 1.585790e+00 1.550424e+00 1.999749e+01 1.010998e-01 2.807791e-01 2.040545e-01 3.341023e-01 3.677927e-01 5.328447e-01 4.436648e-01 5.621021e-01 4.093514e-01 3.273492e-01 2.585248e-01 2.557915e-01 5.949557e-01
<GCONST> 1.062181e+02
<MIXTURE> 3 4.419311e-01
<MEAN> 39
 -1.502600e+01 3.173676e+00 -4.035611e+00 9.024708e+00 -5.659009e+00 1.165740e+01 -3.431927e+00 7.361610e+00 -3.541377e+00 2.658454e-01 -2.075315e+00 -2.943269e+00 4.722839e+01 1.082710e+00 -2.343359e+00 1.227017e+00 -1.695032e+00 1.439923e+00 -2.488718e+00 7.417884e-01 -2.470460e+00 -3.032135e-01 -1.408691e+00 6.556141e-02 5.833611e-02 4.707643e+00 6.965248e-01 -1.017855e+00 8.150886e-01 -7.431856e-01 8.884454e-01 -1.001174e+00 3.905961e-01 -1.160766e+00 -2.957474e-02 -7.615206e-01 -5.193236e-02 -2.407899e-02 2.472204e+00
<VARIANCE> 39
 5.367267e+00 9.683167e+00 1.027779e+01 6.934281e+00 1.178396e+01 1.565671e+01 2.343091e+01 1.907381e+01 1.796106e+01 1.338791e+01 1.159402e+01 9.716949e+00 8.043914e+00 1.567967e+00 4.989164e+00 3.273181e+00 3.708884e+00 3.908580e+00 6.532621e+00 3.183989e+00 7.588841e+00 2.629788e+00 3.986077e+00 1.585789e+00 1.550424e+00 1.999748e+01 1.010997e-01 2.807789e-01 2.040544e-01 3.341023e-01 3.677926e-01 5.328445e-01 4.436645e-01 5.621021e-01 4.093513e-01 3.273490e-01 2.585249e-01 2.557915e-01 5.949557e-01
<GCONST> 1.062181e+02
<MIXTURE> 4 6.402013e-02
<MEAN> 39
 -1.536668e+01 3.336184e+00 -4.159238e+00 7.333643e+00 -6.798986e+00 1.011819e+01 -6.760756e+00 4.854530e+00 -5.025454e+00 -1.387425e+00 -3.477944e+00 -3.906541e+00 4.706506e+01 6.915060e-01 -1.584440e+00 3.211882e-01 -1.190028e+00 5.368673e-01 -1.823140e+00 3.383805e-01 -1.786539e+00 -5.615023e-01 -1.147272e+00 -4.534638e-01 -3.661962e-01 2.750259e+00 5.510849e-01 -1.085921e+00 7.156140e-01 -7.482941e-01 9.047753e-01 -9.005613e-01 5.825889e-01 -1.038892e+00 -1.053815e-01 -6.822867e-01 -1.185095e-01 -9.642193e-02 2.316195e+00
<VARIANCE> 39
 2.646936e+01 1.534814e+01 1.550778e+01 9.551160e+00 1.152860e+01 1.590082e+01 2.184544e+01 1.686809e+01 1.936777e+01 1.432912e+01 1.258470e+01 9.493862e+00 3.090370e+01 1.048582e+00 5.183300e+00 2.800208e+00 2.836710e+00 3.045817e+00 4.259283e+00 2.587315e+00 4.809385e+00 2.225954e+00 2.950772e+00 1.587804e+00 1.466998e+00 1.418045e+01 1.052839e-01 3.029730e-01 2.343299e-01 2.452270e-01 3.757738e-01 5.882120e-01 5.384532e-01 5.002569e-01 4.522564e-01 3.954384e-01 2.876305e-01 2.725081e-01 8.114899e-01
<GCONST> 1.082724e+02
<STATE> 3
<NUMMIXES> 4
<MIXTURE> 1 5.033071e-02
<MEAN> 39
 -5.472273e+00 -1.020128e+01 6.622677e+00 -9.582675e-01 6.418021e+00 -2.385434e+00 3.477957e+00 -7.601435e+00 -2.995505e+00 -9.209212e+00 -2.142040e+00 -2.136317e+00 8.079857e+01 1.929377e+00 -3.522082e-01 9.831144e-01 5.555136e-01 7.922575e-01 8.129156e-01 8.416753e-01 4.038275e-01 9.127328e-01 -4.352534e-01 -4.210179e-01 2.576135e-01 1.766133e+00 -4.282820e-01 1.291548e+00 -9.775796e-01 1.340845e+00 -1.243129e+00 1.737813e+00 -5.586101e-01 1.805645e+00 6.568456e-02 9.584135e-01 -1.831069e-01 -3.632645e-02 -3.217949e+00
<VARIANCE> 39
 9.142675e+00 1.008999e+01 1.305662e+01 2.419078e+01 2.289765e+01 4.400160e+01 2.551957e+01 4.216478e+01 2.364022e+01 2.085942e+01 2.500647e+01 1.995234e+01 4.158426e+01 1.063971e+00 5.248035e+00 4.977902e+00 5.089265e+00 7.389840e+00 1.081161e+01 3.417442e+00 1.082400e+01 2.175670e+00 4.122417e+00 2.128295e+00 1.454188e+00 3.352072e+01 2.052532e-01 4.441004e-01 3.543782e-01 5.570191e-01 5.237882e-01 1.414022e+00 5.540775e-01 1.422049e+00 5.234458e-01 5.298592e-01 5.056890e-01 3.240175e-01 2.444375e+00
<GCONST> 1.250195e+02
<MIXTURE> 2 4.504943e-01
<MEAN> 39
 -5.554275e+00 -1.057160e+01 5.816773e+00 -5.116308e-01 5.263149e+00 -1.759568e+00 1.807969e+00 -7.208006e+00 -4.035782e+00 -9.666866e+00 -3.356590e+00 -3.160745e+00 7.869765e+01 1.861802e+00 -4.973513e-01 6.711521e-01 4.789892e-01 3.538583e-01 5.293474e-01 2.930976e-01 7.816454e-02 6.688616e-02 -7.479545e-01 -1.041594e+00 -3.564145e-01 1.507162e+00 -3.098779e-01 1.217962e+00 -8.400883e-01 1.129377e+00 -1.175658e+00 1.424528e+00 -6.071432e-01 1.395120e+00 -4.502470e-02 8.017673e-01 -1.804989e-01 -4.522203e-02 -2.699584e+00
<VARIANCE> 39
 1.521949e+01 1.264952e+01 1.560789e+01 2.926570e+01 2.430280e+01 4.529793e+01 2.778751e+01 3.938352e+01 2.712117e+01 2.397067e+01 2.853519e+01 2.321950e+01 4.404574e+01 1.376473e+00 6.665016e+00 4.844600e+00 7.036880e+00 8.402067e+00 1.281538e+01 4.402091e+00 1.311689e+01 2.324887e+00 4.315701e+00 2.025397e+00 1.412921e+00 4.102542e+01 1.939034e-01 4.467709e-01 4.092607e-01 5.323411e-01 6.462384e-01 1.213715e+00 7.336463e-01 1.281035e+00 5.774907e-01 4.764735e-01 4.978847e-01 3.598118e-01 2.381062e+00
<GCONST> 1.289566e+02
<MIXTURE> 3 4.504943e-01
<MEAN> 39
 -5.554275e+00 -1.057160e+01 5.816773e+00 -5.116308e-01 5.263149e+00 -1.759568e+00 1.807969e+00 -7.208006e+00 -4.035782e+00 -9.666866e+00 -3.356590e+00 -3.160745e+00 7.869765e+01 1.861802e+00 -4.973513e-01 6.711521e-01 4.789893e-01 3.538583e-01 5.293474e-01 2.930976e-01 7.816458e-02 6.688617e-02 -7.479545e-01 -1.041594e+00 -3.564144e-01 1.507162e+00 -3.098779e-01 1.217962e+00 -8.400883e-01 1.129377e+00 -1.175658e+00 1.424528e+00 -6.071432e-01 1.395120e+00 -4.502472e-02 8.017673e-01 -1.804989e-01 -4.522204e-02 -2.699584e+00
<VARIANCE> 39
 1.521949e+01 1.264952e+01 1.560789e+01 2.926570e+01 2.430280e+01 4.529793e+01 2.778751e+01 3.938352e+01 2.712117e+01 2.397067e+01 2.853519e+01 2.321950e+01 4.404574e+01 1.376473e+00 6.665016e+00 4.844600e+00 7.036880e+00 8.402067e+00 1.281538e+01 4.402091e+00 1.311689e+01 2.324887e+00 4.315701e+00 2.025397e+00 1.412921e+00 4.102542e+01 1.939034e-01 4.467709e-01 4.092607e-01 5.323411e-01 6.462384e-01 1.213715e+00 7.336463e-01 1.281035e+00 5.774907e-01 4.764735e-01 4.978847e-01 3.598118e-01 2.381062e+00
<GCONST> 1.289566e+02
<MIXTURE> 4 4.867959e-02
<MEAN> 39
 -7.506569e+00 -1.147436e+01 3.874329e+00 -5.600595e-01 3.323835e+00 -9.194820e-01 5.166334e-02 -6.934815e+00 -4.994522e+00 -9.227509e+00 -3.932694e+00 -2.964573e+00 7.513958e+01 1.740346e+00 -1.105840e+00 6.641325e-01 -2.381478e-01 4.224165e-01 -2.889955e-01 -7.037845e-02 -7.165889e-01 -4.797174e-01 -1.370798e+00 -1.137679e+00 -6.591423e-01 2.347090e+00 -1.899701e-01 1.167643e+00 -6.084037e-01 8.829650e-01 -9.341657e-01 1.151572e+00 -5.184102e-01 1.154971e+00 -6.967562e-02 6.118170e-01 -1.932879e-01 -1.223604e-01 -2.134198e+00
<VARIANCE> 39
 5.613872e+01 3.852283e+01 2.653030e+01 4.208139e+01 3.400769e+01 5.741691e+01 3.443384e+01 4.329929e+01 3.644905e+01 3.395044e+01 3.984074e+01 3.331645e+01 1.107939e+02 2.776642e+00 9.397699e+00 4.461972e+00 9.704018e+00 8.059008e+00 1.577004e+01 4.714673e+00 1.433945e+01 2.555061e+00 4.916561e+00 2.173028e+00 1.697601e+00 4.386804e+01 2.031640e-01 5.143615e-01 4.860273e-01 6.613075e-01 8.172604e-01 1.106215e+00 8.515403e-01 1.073593e+00 5.731310e-01 4.936954e-01 5.080620e-01 3.860340e-01 1.950648e+00
<GCONST> 1.381759e+02
<STATE> 4
<NUMMIXES> 4
<MIXTURE> 1 7.876042e-02
<MEAN> 39
 -2.637168e+00 3.673080e+00 1.275701e+00 1.262683e+01 -2.475245e+00 1.095793e+01 -2.864735e+00 3.661288e+00 -6.947057e+00 -4.254633e+00 -6.877918e+00 -5.611011e+00 5.850627e+01 -4.193785e-01 1.445904e+00 -1.139367e-01 1.093086e+00 -7.296100e-02 1.225810e+00 2.157987e-01 1.122485e+00 1.422486e-01 7.213819e-01 4.423382e-01 1.745690e-01 -1.814903e+00 -1.777426e-01 -1.337319e-01 1.950031e-01 -1.436030e-01 2.249063e-01 -2.511349e-01 1.212282e-01 -1.820352e-01 1.607327e-01 1.153764e-02 2.312759e-01 1.004647e-01 3.096443e-01
<VARIANCE> 39
 1.527289e+01 3.405580e+01 1.739448e+01 2.428323e+01 1.818552e+01 1.867879e+01 2.196814e+01 1.625089e+01 2.295289e+01 1.691208e+01 1.333319e+01 1.654580e+01 3.126791e+01 9.243019e-01 1.268712e+00 1.732098e+00 2.302041e+00 3.557070e+00 2.511606e+00 1.837023e+00 1.952475e+00 1.865226e+00 1.754387e+00 1.221291e+00 1.109313e+00 1.721203e+00 6.259059e-02 1.245764e-01 2.051758e-01 2.974662e-01 3.775905e-01 5.225912e-01 2.755233e-01 4.170085e-01 3.494366e-01 3.000955e-01 3.001947e-01 2.499713e-01 1.014009e-01
<GCONST> 9.895468e+01
<MIXTURE> 2 4.204237e-01
<MEAN> 39
 -3.333121e+00 3.841404e+00 1.152472e+00 1.262357e+01 -3.584846e+00 1.048931e+01 -4.065178e+00 2.863443e+00 -7.948812e+00 -4.796135e+00 -7.617988e+00 -6.262648e+00 5.758160e+01 -5.513644e-01 1.097039e+00 -4.304461e-01 5.415424e-01 -4.280612e-01 5.115349e-01 -2.942318e-01 4.755227e-01 -3.277166e-01 4.477132e-01 8.592979e-02 -1.202289e-01 -1.654472e+00 -1.831237e-01 -1.900960e-01 7.970257e-02 -2.777882e-01 2.361318e-01 -2.572562e-01 1.309135e-01 -1.852370e-01 7.196808e-02 -6.958101e-02 1.285315e-01 5.853891e-02 2.907224e-01
<VARIANCE> 39
 1.453198e+01 3.659324e+01 1.797138e+01 1.972842e+01 1.815820e+01 1.752411e+01 1.940427e+01 1.717973e+01 2.283316e+01 1.874128e+01 1.510701e+01 1.631560e+01 2.915822e+01 8.214508e-01 1.569852e+00 1.378009e+00 2.191900e+00 2.747208e+00 2.285609e+00 1.713585e+00 1.880577e+00 1.777417e+00 1.678617e+00 1.231393e+00 1.184229e+00 1.529966e+00 7.242664e-02 1.347366e-01 2.251719e-01 3.002968e-01 4.176232e-01 5.321186e-01 3.206144e-01 4.045347e-01 3.580581e-01 3.092906e-01 2.669948e-01 2.362664e-01 1.167979e-01
<GCONST> 9.861657e+01
<MIXTURE> 3 4.204237e-01
<MEAN> 39
 -3.333121e+00 3.841404e+00 1.152472e+00 1.262357e+01 -3.584846e+00 1.048931e+01 -4.065178e+00 2.863443e+00 -7.948812e+00 -4.796135e+00 -7.617988e+00 -6.262648e+00 5.758160e+01 -5.513644e-01 1.097039e+00 -4.304461e-01 5.415424e-01 -4.280612e-01 5.115349e-01 -2.942318e-01 4.755227e-01 -3.277166e-01 4.477132e-01 8.592979e-02 -1.202289e-01 -1.654472e+00 -1.831237e-01 -1.900960e-01 7.970257e-02 -2.777882e-01 2.361318e-01 -2.572562e-01 1.309135e-01 -1.852370e-01 7.196807e-02 -6.958099e-02 1.285315e-01 5.853891e-02 2.907224e-01
<VARIANCE> 39
 1.453198e+01 3.659324e+01 1.797138e+01 1.972842e+01 1.815820e+01 1.752411e+01 1.940427e+01 1.717973e+01 2.283316e+01 1.874128e+01 1.510701e+01 1.631560e+01 2.915822e+01 8.214508e-01 1.569852e+00 1.378009e+00 2.191900e+00 2.747208e+00 2.285609e+00 1.713585e+00 1.880577e+00 1.777417e+00 1.678617e+00 1.231393e+00 1.184229e+00 1.529966e+00 7.242664e-02 1.347366e-01 2.251719e-01 3.002968e-01 4.176232e-01 5.321186e-01 3.206144e-01 4.045348e-01 3.580581e-01 3.092906e-01 2.669948e-01 2.362664e-01 1.167979e-01
<GCONST> 9.861657e+01
<MIXTURE> 4 8.038347e-02
<MEAN> 39
 -4.135222e+00 3.981056e+00 2.222905e-01 1.218826e+01 -4.822422e+00 9.584632e+00 -5.128559e+00 1.880770e+00 -8.569108e+00 -5.000702e+00 -8.527702e+00 -6.433086e+00 5.645840e+01 -7.222255e-01 9.124177e-01 -5.240302e-01 8.129081e-02 -7.599162e-01 -2.025799e-01 -8.327785e-01 -2.242021e-01 -8.121580e-01 7.322080e-03 -3.749509e-01 -4.775950e-01 -1.544702e+00 -2.042857e-01 -2.856315e-01 4.215338e-02 -3.932703e-01 1.649984e-01 -1.866930e-01 1.600561e-01 -2.168253e-01 -6.223635e-02 -1.392905e-01 1.663230e-02 -9.431036e-02 2.793905e-01
<VARIANCE> 39
 1.995887e+01 3.513689e+01 1.845724e+01 1.633623e+01 1.902355e+01 2.216518e+01 1.935477e+01 1.829821e+01 2.498921e+01 1.989948e+01 1.679416e+01 1.703839e+01 3.110555e+01 7.282760e-01 1.730457e+00 1.202756e+00 2.339832e+00 2.470462e+00 2.348684e+00 1.882666e+00 1.790143e+00 1.799924e+00 1.995790e+00 1.432631e+00 1.533960e+00 1.374115e+00 7.803122e-02 1.464980e-01 2.374432e-01 2.820602e-01 4.570282e-01 5.295178e-01 4.079980e-01 3.856216e-01 3.612497e-01 4.032011e-01 2.595926e-01 2.500102e-01 1.085378e-01
<GCONST> 1.004541e+02
<TRANSP> 5
 0.000000e+00 1.000000e+00 0.000000e+00 0.000000e+00 0.000000e+00
 0.000000e+00 6.956930e-01 3.043070e-01 0.000000e+00 0.000000e+00
 0.000000e+00 0.000000e+00 7.873300e-01 2.126701e-01 0.000000e+00
 0.000000e+00 0.000000e+00 0.000000e+00 9.081103e-01 9.188976e-02
 0.000000e+00 0.000000e+00 0.000000e+00 0.000000e+00 0.000000e+00
<ENDHMM>
~h "s"
<BEGINHMM>
<NUMSTATES> 5
<STATE> 2
<NUMMIXES> 4
<MIXTURE> 1 4.687190e-02
<MEAN> 39
 -1.450063e+01 1.576896e-01 -2.133784e+00 1.047432e+01 -3.793614e+00 1.172740e+01 -1.122856e+00 5.785616e+00 -4.191844e+00 7.189983e-01 -2.549707e+00 -2.250882e+00 5.006260e+01 -1.286760e+00 -2.372905e+00 1.039837e+00 -5.842969e-01 1.033128e+00 -1.574768e+00 1.774193e+00 -1.200032e+00 6.451435e-01 1.113777e-01 4.743004e-01 1.348662e+00 1.788688e+00 -6.855985e-01 -1.204344e+00 4.443257e-01 -9.931481e-01 9.116488e-01 -9.388741e-01 5.992802e-01 -1.007558e+00 1.607460e-01 -2.134461e-01 1.957100e-01 3.960607e-01 1.370628e+00
<VARIANCE> 39
 1.503214e+01 4.914528e+01 2.657317e+01 2.022409e+01 1.720231e+01 3.206587e+01 3.502853e+01 4.719532e+01 2.962546e+01 2.066692e+01 2.819672e+01 1.874873e+01 1.966652e+01 2.333216e+00 7.955531e+00 3.832967e+00 5.293820e+00 5.655314e+00 6.721541e+00 4.743591e+00 7.495857e+00 3.815899e+00 2.037939e+00 2.387493e+00 2.435972e+00 5.833794e+00 2.370832e-01 1.138400e+00 6.733153e-01 7.254595e-01 7.283840e-01 9.574975e-01 7.402106e-01 1.013183e+00 5.120188e-01 3.724354e-01 5.530595e-01 4.696749e-01 5.243108e-01
<GCONST> 1.263493e+02
<MIXTURE> 2 4.540710e-01
<MEAN> 39
 -1.469535e+01 -3.537163e-01 -2.908810e+00 9.335784e+00 -4.727085e+00 1.034976e+01 -2.494936e+00 4.034221e+00 -4.384482e+00 5.332878e-02 -3.424385e+00 -2.035403e+00 5.023266e+01 -1.593424e+00 -3.484122e+00 9.698494e-01 -1.484025e+00 1.527043e+00 -2.322083e+00 2.001956e+00 -2.766803e+00 3.241771e-01 -5.401847e-01 1.244205e-01 1.324885e+00 3.052204e+00 -8.355295e-01 -1.187749e+00 5.338461e-01 -1.205847e+00 1.092235e+00 -1.034152e+00 6.294323e-01 -9.891582e-01 1.240431e-01 -3.498014e-01 1.805601e-01 2.358014e-01 1.559132e+00
<VARIANCE> 39
 1.297772e+01 5.025147e+01 2.367052e+01 1.839821e+01 1.876356e+01 3.284890e+01 4.126530e+01 4.785028e+01 2.719211e+01 2.004211e+01 2.431030e+01 2.190041e+01 2.162644e+01 2.584094e+00 9.159923e+00 3.865217e+00 5.648416e+00 5.805693e+00 7.785425e+00 5.079461e+00 8.265059e+00 3.138770e+00 2.614578e+00 2.600161e+00 2.507024e+00 7.880614e+00 1.902232e-01 1.071700e+00 6.134359e-01 6.448783e-01 6.010280e-01 8.824164e-01 7.508875e-01 1.070700e+00 4.644005e-01 3.945264e-01 4.505523e-01 4.830209e-01 4.544237e-01
<GCONST> 1.263571e+02
<MIXTURE> 3 4.540710e-01
<MEAN> 39
 -1.469535e+01 -3.537163e-01 -2.908810e+00 9.335784e+00 -4.727085e+00 1.034976e+01 -2.494936e+00 4.034221e+00 -4.384482e+00 5.332878e-02 -3.424385e+00 -2.035403e+00 5.023266e+01 -1.593424e+00 -3.484122e+00 9.698494e-01 -1.484025e+00 1.527043e+00 -2.322083e+00 2.001956e+00 -2.766803e+00 3.241771e-01 -5.401847e-01 1.244205e-01 1.324885e+00 3.052204e+00 -8.355295e-01 -1.187749e+00 5.338461e-01 -1.205847e+00 1.092235e+00 -1.034152e+00 6.294323e-01 -9.891582e-01 1.240431e-01 -3.498014e-01 1.805601e-01 2.358014e-01 1.559132e+00
<VARIANCE> 39
 1.297772e+01 5.025147e+01 2.367052e+01 1.839821e+01 1.876356e+01 3.284890e+01 4.126530e+01 4.785028e+01 2.719211e+01 2.004211e+01 2.431030e+01 2.190041e+01 2.162644e+01 2.584094e+00 9.159923e+00 3.865217e+00 5.648416e+00 5.805693e+00 7.785425e+00 5.079461e+00 8.265059e+00 3.138770e+00 2.614578e+00 2.600161e+00 2.507024e+00 7.880614e+00 1.902232e-01 1.071700e+00 6.134359e-01 6.448783e-01 6.010280e-01 8.824164e-01 7.508875e-01 1.070700e+00 4.644005e-01 3.945264e-01 4.505523e-01 4.830209e-01 4.544237e-01
<GCONST> 1.263571e+02
<MIXTURE> 4 4.498646e-02
<MEAN> 39
 -1.504050e+01 -7.647035e-01 -3.703257e+00 8.056592e+00 -5.384350e+00 9.590819e+00 -3.869168e+00 2.549366e+00 -4.476625e+00 -6.455737e-01 -3.846968e+00 -1.945792e+00 5.030107e+01 -1.758791e+00 -4.312006e+00 7.258859e-01 -2.419382e+00 1.879598e+00 -2.929397e+00 2.076740e+00 -3.697757e+00 -1.177344e-01 -1.350632e+00 -3.370630e-01 1.101059e+00 4.165541e+00 -8.859837e-01 -1.108189e+00 5.395380e-01 -1.322624e+00 1.052950e+00 -1.003809e+00 6.120555e-01 -9.209210e-01 2.556755e-02 -4.083954e-01 1.482099e-01 5.155969e-02 1.607090e+00
<VARIANCE> 39
 1.467492e+01 5.381608e+01 1.830084e+01 1.635314e+01 1.869554e+01 2.732068e+01 4.074971e+01 4.552999e+01 2.287065e+01 1.943818e+01 2.155465e+01 2.406276e+01 3.255577e+01 2.374075e+00 8.786084e+00 3.148909e+00 6.619522e+00 5.806634e+00 8.600775e+00 5.494636e+00 8.098245e+00 2.890470e+00 2.964980e+00 2.906597e+00 2.344348e+00 9.197451e+00 1.692524e-01 1.166245e+00 5.341305e-01 5.649416e-01 5.197074e-01 8.134297e-01 6.325786e-01 9.002982e-01 4.064156e-01 3.722079e-01 4.062838e-01 4.735925e-01 5.036043e-01
<GCONST> 1.252432e+02
<STATE> 3
<NUMMIXES> 4
<MIXTURE> 1 3.999653e-02
<MEAN> 39
 -2.712007e+01 -1.686360e+01 4.903255e+00 -7.558288e+00 1.064037e+01 -5.114488e+00 7.685398e+00 -9.192777e+00 -2.365356e+00 -3.765742e+00 -8.649070e-01 2.243278e+00 7.174700e+01 -2.802250e+00 -1.469636e+00 2.143832e+00 -3.685220e+00 2.976624e+00 -1.294610e+00 9.726007e-01 -3.524962e-01 7.903244e-01 -2.335742e-01 1.223443e+00 1.817471e-02 3.389497e+00 6.281043e-01 9.679356e-01 -2.699875e-01 8.321581e-01 -8.250946e-01 1.299293e+00 -7.101266e-01 1.048049e+00 4.913211e-04 2.334986e-01 4.146783e-02 -2.742461e-01 -1.110545e+00
<VARIANCE> 39
 2.482540e+01 3.215019e+01 5.588706e+01 6.349935e+01 4.462292e+01 4.875764e+01 3.834147e+01 4.548991e+01 3.329193e+01 2.793595e+01 3.562569e+01 2.884935e+01 4.730943e+01 2.937867e+00 8.210517e+00 5.223711e+00 4.872404e+00 5.757170e+00 7.590663e+00 5.123933e+00 6.247550e+00 2.335375e+00 2.536345e+00 2.214037e+00 2.428847e+00 6.224817e+00 4.200097e-01 9.279092e-01 8.272135e-01 1.026413e+00 9.040862e-01 9.102676e-01 6.774406e-01 9.675595e-01 5.454481e-01 4.860380e-01 5.201542e-01 5.393227e-01 6.889421e-01
<GCONST> 1.335687e+02
<MIXTURE> 2 4.581881e-01
<MEAN> 39
 -2.713683e+01 -1.837598e+01 4.269074e+00 -7.366055e+00 9.897207e+00 -4.942749e+00 7.590452e+00 -1.043247e+01 -2.300881e+00 -4.726870e+00 -7.588798e-01 2.322235e+00 7.234777e+01 -2.704964e+00 -1.976423e+00 1.591643e+00 -4.197040e+00 2.986638e+00 -2.134843e+00 9.440899e-01 -1.395146e+00 2.739884e-01 -8.294110e-01 9.621003e-01 -1.770064e-01 4.245342e+00 6.262546e-01 1.221556e+00 -2.805244e-01 6.600327e-01 -8.071655e-01 1.151199e+00 -8.315192e-01 1.088720e+00 -1.298103e-01 2.598062e-01 -4.067558e-02 -4.084925e-01 -1.126838e+00
<VARIANCE> 39
 2.139398e+01 2.960350e+01 5.473540e+01 6.116778e+01 4.941399e+01 4.772965e+01 3.598803e+01 3.870908e+01 3.319898e+01 2.742221e+01 3.853349e+01 2.613997e+01 3.633749e+01 2.912633e+00 8.304772e+00 4.658226e+00 4.808292e+00 6.144581e+00 8.037959e+00 5.514273e+00 7.403060e+00 2.404088e+00 2.661759e+00 2.199917e+00 2.321480e+00 6.358742e+00 4.489610e-01 9.405696e-01 8.706940e-01 1.167840e+00 9.924805e-01 9.471728e-01 7.236940e-01 9.661807e-01 5.278983e-01 5.445341e-01 5.447299e-01 5.262268e-01 5.989979e-01
<GCONST> 1.335379e+02
<MIXTURE> 3 4.581882e-01
<MEAN> 39
 -2.713683e+01 -1.837598e+01 4.269073e+00 -7.366054e+00 9.897207e+00 -4.942749e+00 7.590453e+00 -1.043247e+01 -2.300881e+00 -4.726871e+00 -7.588803e-01 2.322236e+00 7.234777e+01 -2.704964e+00 -1.976424e+00 1.591643e+00 -4.197040e+00 2.986639e+00 -2.134843e+00 9.440902e-01 -1.395146e+00 2.739884e-01 -8.294111e-01 9.621003e-01 -1.770063e-01 4.245343e+00 6.262545e-01 1.221557e+00 -2.805243e-01 6.600325e-01 -8.071654e-01 1.151199e+00 -8.315192e-01 1.088720e+00 -1.298103e-01 2.598062e-01 -4.067550e-02 -4.084925e-01 -1.126837e+00
<VARIANCE> 39
 2.139398e+01 2.960350e+01 5.473540e+01 6.116781e+01 4.941399e+01 4.772965e+01 3.598803e+01 3.870907e+01 3.319898e+01 2.742220e+01 3.853350e+01 2.613997e+01 3.633749e+01 2.912633e+00 8.304773e+00 4.658226e+00 4.808291e+00 6.144581e+00 8.037959e+00 5.514273e+00 7.403060e+00 2.404088e+00 2.661758e+00 2.199916e+00 2.321480e+00 6.358741e+00 4.489610e-01 9.405696e-01 8.706940e-01 1.167840e+00 9.924806e-01 9.471729e-01 7.236940e-01 9.661804e-01 5.278983e-01 5.445341e-01 5.447299e-01 5.262268e-01 5.989978e-01
<GCONST> 1.335379e+02
<MIXTURE> 4 4.362844e-02
<MEAN> 39
 -2.620448e+01 -1.995574e+01 2.353488e+00 -6.937423e+00 8.190641e+00 -4.669489e+00 7.393385e+00 -1.212050e+01 -2.716169e+00 -5.246615e+00 -3.780937e-01 2.439939e+00 7.291543e+01 -2.559566e+00 -2.814421e+00 1.037737e+00 -4.846311e+00 2.644129e+00 -3.237903e+00 1.051664e+00 -2.881164e+00 -3.864748e-01 -1.715997e+00 5.873990e-01 -2.591285e-01 5.441610e+00 5.669351e-01 1.523308e+00 -2.403107e-01 4.596730e-01 -7.335430e-01 9.930533e-01 -9.268319e-01 1.161009e+00 -2.393454e-01 2.297119e-01 -1.719221e-01 -5.406871e-01 -1.152570e+00
<VARIANCE> 39
 1.918953e+01 2.882939e+01 4.458666e+01 5.496314e+01 5.031757e+01 4.588194e+01 3.104959e+01 3.663591e+01 3.567235e+01 2.792807e+01 4.008128e+01 2.686555e+01 3.279488e+01 2.618204e+00 9.016968e+00 3.523410e+00 4.925584e+00 5.853299e+00 8.512692e+00 6.114630e+00 9.549575e+00 2.544642e+00 2.852654e+00 2.161885e+00 2.396943e+00 7.521101e+00 4.746332e-01 9.538229e-01 7.384269e-01 1.209782e+00 1.030179e+00 9.651864e-01 6.613646e-01 9.006518e-01 5.331072e-01 6.211794e-01 5.964594e-01 5.058748e-01 6.588450e-01
<GCONST> 1.334408e+02
<STATE> 4
<NUMMIXES> 4
<MIXTURE> 1 6.717555e-02
<MEAN> 39
 -2.777615e+01 -1.715391e+01 8.797464e+00 -1.251012e+01 1.032318e+01 1.212309e+00 5.362726e+00 -7.179558e+00 -1.898007e+00 -4.299290e+00 9.616014e-01 2.232938e+00 7.247805e+01 1.021646e+00 1.182708e+00 3.911635e-01 1.476432e+00 -6.307806e-01 2.083942e+00 -1.718137e-01 2.040546e+00 -9.123074e-02 9.919074e-01 -3.934208e-01 2.821835e-01 -2.328731e+00 2.168576e-01 3.479362e-01 -1.361795e-01 4.711103e-01 -2.725589e-01 3.362454e-01 -1.993973e-01 4.384026e-01 -1.851296e-02 2.867281e-01 -1.414705e-02 2.620783e-02 -4.590860e-01
<VARIANCE> 39
 1.978218e+01 1.988927e+01 3.298338e+01 2.734016e+01 3.464639e+01 5.912930e+01 2.693789e+01 3.079769e+01 2.693819e+01 2.206430e+01 2.669082e+01 1.532873e+01 3.854144e+01 1.806033e+00 1.963390e+00 1.430720e+00 2.336286e+00 2.502132e+00 2.751618e+00 1.852708e+00 3.558987e+00 1.709742e+00 1.786244e+00 1.555760e+00 9.094187e-01 3.055991e+00 1.980591e-01 2.616260e-01 2.538458e-01 3.001134e-01 3.686440e-01 4.600221e-01 4.314512e-01 4.401172e-01 3.769576e-01 3.547377e-01 3.019737e-01 2.393457e-01 2.297225e-01
<GCONST> 1.086438e+02
<MIXTURE> 2 4.341033e-01
<MEAN> 39
 -2.991945e+01 -1.897771e+01 1.026321e+01 -1.359910e+01 1.073235e+01 1.360397e-01 4.302427e+00 -9.038696e+00 -1.690487e+00 -5.225802e+00 9.075817e-01 1.329280e+00 7.560048e+01 7.070893e-01 4.053897e-01 4.720083e-01 4.899801e-01 -7.347755e-01 1.239452e+00 -4.704922e-01 7.040195e-01 -3.590118e-01 1.162041e-01 -4.438055e-01 2.004728e-02 -1.126019e+00 3.117045e-01 2.572340e-01 -1.457341e-01 3.973427e-01 -2.906725e-01 1.663465e-01 -1.367853e-01 2.196594e-01 -1.237276e-01 1.000984e-01 -1.607832e-01 3.592550e-03 -4.679192e-01
<VARIANCE> 39
 1.321957e+01 1.275185e+01 3.291925e+01 2.006681e+01 3.319894e+01 4.918893e+01 2.569141e+01 2.514217e+01 2.291572e+01 1.901613e+01 2.411526e+01 1.471688e+01 2.970158e+01 1.555405e+00 1.679531e+00 1.352502e+00 2.076643e+00 2.154073e+00 2.053017e+00 1.849144e+00 2.268606e+00 1.895758e+00 1.556617e+00 1.577305e+00 9.418693e-01 2.651661e+00 1.711517e-01 2.702066e-01 2.423003e-01 2.795456e-01 3.438621e-01 3.574846e-01 3.737282e-01 3.966596e-01 3.269871e-01 3.176827e-01 2.642428e-01 2.143190e-01 1.828412e-01
<GCONST> 1.032675e+02
<MIXTURE> 3 4.341033e-01
<MEAN> 39
 -2.991945e+01 -1.897771e+01 1.026321e+01 -1.359910e+01 1.073235e+01 1.360395e-01 4.302427e+00 -9.038696e+00 -1.690487e+00 -5.225801e+00 9.075818e-01 1.329280e+00 7.560048e+01 7.070893e-01 4.053897e-01 4.720084e-01 4.899801e-01 -7.347755e-01 1.239452e+00 -4.704922e-01 7.040195e-01 -3.590117e-01 1.162041e-01 -4.438055e-01 2.004729e-02 -1.126019e+00 3.117045e-01 2.572340e-01 -1.457341e-01 3.973427e-01 -2.906725e-01 1.663465e-01 -1.367853e-01 2.196594e-01 -1.237276e-01 1.000983e-01 -1.607832e-01 3.592555e-03 -4.679192e-01
<VARIANCE> 39
 1.321957e+01 1.275185e+01 3.291924e+01 2.006681e+01 3.319893e+01 4.918893e+01 2.569141e+01 2.514217e+01 2.291572e+01 1.901613e+01 2.411526e+01 1.471688e+01 2.970158e+01 1.555404e+00 1.679530e+00 1.352502e+00 2.076643e+00 2.154073e+00 2.053017e+00 1.849144e+00 2.268606e+00 1.895758e+00 1.556617e+00 1.577305e+00 9.418690e-01 2.651661e+00 1.711517e-01 2.702066e-01 2.423003e-01 2.795455e-01 3.438621e-01 3.574846e-01 3.737282e-01 3.966595e-01 3.269870e-01 3.176827e-01 2.642428e-01 2.143190e-01 1.828412e-01
<GCONST> 1.032675e+02
<MIXTURE> 4 6.460598e-02
<MEAN> 39
 -3.012033e+01 -1.944811e+01 9.267785e+00 -1.381295e+01 1.076349e+01 -2.443585e-01 3.984091e+00 -9.741469e+00 -2.587990e+00 -6.130118e+00 3.374341e-01 5.982662e-01 7.664480e+01 7.446947e-01 1.772787e-01 1.794473e-01 6.317198e-02 -1.025376e+00 8.222176e-01 -9.011176e-01 8.358796e-02 -8.672924e-01 -5.685865e-01 -8.107831e-01 -3.275904e-01 -8.041312e-01 3.704172e-01 2.605061e-01 -1.756379e-01 3.379544e-01 -3.467938e-01 3.784706e-02 -1.784271e-01 7.039671e-02 -2.020520e-01 -1.290932e-02 -2.999985e-01 -7.236630e-02 -4.807260e-01
<VARIANCE> 39
 1.208837e+01 1.138437e+01 3.547606e+01 1.666638e+01 3.549775e+01 5.217352e+01 2.638036e+01 2.465480e+01 2.209930e+01 1.686783e+01 1.921616e+01 1.421056e+01 2.961123e+01 1.568239e+00 1.654137e+00 1.298294e+00 2.120217e+00 1.982566e+00 2.054441e+00 2.011529e+00 2.092189e+00 2.067513e+00 1.557108e+00 1.790681e+00 9.396945e-01 2.663787e+00 1.819291e-01 3.098553e-01 2.647756e-01 2.607363e-01 3.354995e-01 3.890962e-01 4.014816e-01 3.864784e-01 3.509294e-01 2.886689e-01 2.495357e-01 2.097309e-01 1.791555e-01
<GCONST> 1.029736e+02
<TRANSP> 5
 0.000000e+00 1.000000e+00 0.000000e+00 0.000000e+00 0.000000e+00
 0.000000e+00 7.206525e-01 2.793474e-01 0.000000e+00 0.000000e+00
 0.000000e+00 0.000000e+00 7.399188e-01 2.600812e-01 0.000000e+00
 0.000000e+00 0.000000e+00 0.000000e+00 8.994367e-01 1.005633e-01
 0.000000e+00 0.000000e+00 0.000000e+00 0.000000e+00 0.000000e+00
<ENDHMM>
~h "sil"
<BEGINHMM>
<NUMSTATES> 5
<STATE> 2
<NUMMIXES> 4
<MIXTURE> 1 9.153405e-02
<MEAN> 39
 -1.643947e+01 -2.862191e+00 -4.602971e-01 4.372169e+00 -1.593405e+00 1.527040e+01 -1.186454e+00 5.700585e+00 -4.363663e+00 9.969214e-01 -1.860109e+00 -1.168031e+00 5.198986e+01 3.449929e-02 1.408684e+00 -5.523760e-01 1.318399e+00 -4.156615e-01 1.067206e+00 2.151242e-01 1.813465e+00 1.173912e+00 9.558636e-01 7.436889e-01 1.312691e-01 -1.657612e+00 -6.245650e-03 -2.050092e-01 3.084941e-02 2.069362e-02 1.106128e-01 -3.339617e-01 1.521390e-01 -2.097345e-01 9.560160e-02 -1.799706e-02 1.309972e-01 1.254725e-01 3.479229e-01
<VARIANCE> 39
 2.084930e+01 3.685738e+01 4.927292e+01 4.272770e+01 2.799964e+01 3.669017e+01 3.027493e+01 2.287470e+01 2.199519e+01 2.414403e+01 1.502634e+01 1.562361e+01 3.234573e+01 1.580359e+00 1.916981e+00 1.827388e+00 2.463406e+00 3.002988e+00 3.451135e+00 2.461009e+00 2.539001e+00 2.319315e+00 1.866626e+00 1.607005e+00 1.180160e+00 1.278381e+00 1.128697e-01 1.641683e-01 1.874418e-01 2.562478e-01 4.181853e-01 4.352609e-01 3.758454e-01 4.434870e-01 4.665579e-01 3.093354e-01 3.407069e-01 2.337817e-01 6.624970e-02
<GCONST> 1.060936e+02
<MIXTURE> 2 4.152803e-01
<MEAN> 39
 -1.944038e+01 -1.224892e+00 1.659472e+00 2.091509e+00 -2.718793e+00 1.304754e+01 -5.443841e+00 3.582318e+00 -5.128136e+00 -7.234065e-01 -3.636631e+00 -1.910871e+00 5.000517e+01 5.632293e-01 1.285718e+00 -8.628628e-01 1.089998e+00 -9.372191e-01 5.463848e-01 -5.418437e-01 8.790649e-01 2.191296e-01 3.007219e-01 1.481552e-01 -2.279327e-01 -1.348507e+00 -9.935496e-02 -1.952047e-01 -5.628781e-02 -6.713508e-02 1.246272e-01 -2.732950e-01 1.734926e-01 -2.223483e-01 9.459809e-02 -7.372641e-02 1.061403e-01 2.471223e-02 2.803989e-01
<VARIANCE> 39
 7.338361e+01 7.995612e+01 7.219862e+01 4.295491e+01 3.378085e+01 3.225752e+01 4.231744e+01 2.237041e+01 2.766937e+01 2.146209e+01 1.794250e+01 1.546285e+01 1.373864e+02 1.350192e+00 2.008483e+00 1.586237e+00 2.109430e+00 2.756155e+00 3.015012e+00 2.239796e+00 2.452795e+00 2.113118e+00 1.594366e+00 1.524604e+00 1.182859e+00 1.460484e+00 1.284069e-01 1.824035e-01 1.870884e-01 2.056563e-01 3.615440e-01 4.109542e-01 3.237642e-01 3.654249e-01 4.067590e-01 3.111488e-01 3.268877e-01 2.077999e-01 8.740377e-02
<GCONST> 1.091387e+02
<MIXTURE> 3 4.152803e-01
<MEAN> 39
 -1.944038e+01 -1.224892e+00 1.659473e+00 2.091509e+00 -2.718793e+00 1.304754e+01 -5.443840e+00 3.582318e+00 -5.128136e+00 -7.234065e-01 -3.636631e+00 -1.910871e+00 5.000517e+01 5.632293e-01 1.285718e+00 -8.628628e-01 1.089998e+00 -9.372191e-01 5.463848e-01 -5.418437e-01 8.790649e-01 2.191296e-01 3.007219e-01 1.481552e-01 -2.279327e-01 -1.348507e+00 -9.935495e-02 -1.952046e-01 -5.628782e-02 -6.713508e-02 1.246272e-01 -2.732950e-01 1.734926e-01 -2.223483e-01 9.459809e-02 -7.372642e-02 1.061403e-01 2.471223e-02 2.803989e-01
<VARIANCE> 39
 7.338361e+01 7.995612e+01 7.219863e+01 4.295491e+01 3.378085e+01 3.225753e+01 4.231744e+01 2.237042e+01 2.766937e+01 2.146210e+01 1.794250e+01 1.546285e+01 1.373865e+02 1.350192e+00 2.008483e+00 1.586237e+00 2.109431e+00 2.756155e+00 3.015012e+00 2.239797e+00 2.452796e+00 2.113118e+00 1.594366e+00 1.524604e+00 1.182859e+00 1.460484e+00 1.284069e-01 1.824035e-01 1.870884e-01 2.056563e-01 3.615440e-01 4.109542e-01 3.237642e-01 3.654249e-01 4.067590e-01 3.111489e-01 3.268878e-01 2.077999e-01 8.740378e-02
<GCONST> 1.091387e+02
<MIXTURE> 4 7.789975e-02
<MEAN> 39
 -1.880432e+01 -1.430397e+00 3.905131e+00 1.575557e+00 -3.052193e+00 1.179403e+01 -6.969750e+00 1.955595e+00 -6.705275e+00 -2.234738e+00 -5.390554e+00 -2.905684e+00 5.152734e+01 7.217303e-01 1.231596e+00 -1.117896e+00 9.122050e-01 -1.412081e+00 3.203812e-01 -1.063772e+00 4.221758e-01 -3.543079e-01 -1.105278e-01 -2.816907e-01 -5.475491e-01 -1.413168e+00 -2.640603e-01 -2.696471e-01 -1.661965e-01 -1.998638e-01 9.948625e-02 -3.084427e-01 1.405064e-01 -2.920448e-01 1.268201e-01 -8.061002e-02 1.070850e-01 -2.489930e-02 2.175293e-01
<VARIANCE> 39
 7.407651e+01 8.234566e+01 7.882139e+01 4.315034e+01 3.686618e+01 2.886269e+01 3.118292e+01 2.100051e+01 2.875789e+01 2.170957e+01 1.973751e+01 1.507258e+01 1.460550e+02 1.341553e+00 2.099962e+00 1.691957e+00 1.798002e+00 2.629172e+00 2.781489e+00 2.333900e+00 2.518579e+00 2.155468e+00 1.568128e+00 1.680519e+00 1.235197e+00 1.571707e+00 1.568457e-01 2.392190e-01 1.976689e-01 1.949315e-01 3.296394e-01 4.109336e-01 3.321080e-01 3.767053e-01 3.945080e-01 3.091078e-01 3.586785e-01 2.214336e-01 9.681416e-02
<GCONST> 1.098161e+02
<STATE> 3
~s "silst"
<STATE> 4
<NUMMIXES> 4
<MIXTURE> 1 1.219445e-01
<MEAN> 39
 -1.535038e+01 3.096308e+00 -4.357199e+00 9.733038e+00 -3.763933e+00 1.341858e+01 -2.004523e+00 8.567508e+00 -2.341738e+00 1.344465e+00 -1.342903e+00 -2.104354e+00 4.694744e+01 -8.354168e-02 1.968802e-01 3.228407e-02 2.050575e-01 2.059783e-01 2.287543e-01 3.710201e-01 5.700734e-01 5.173751e-01 3.945519e-01 3.919209e-01 2.917193e-01 -1.796877e-01 3.500709e-02 -9.735329e-02 6.298556e-02 2.208176e-02 4.057252e-02 5.152452e-02 8.635584e-02 -2.639306e-02 -6.659426e-03 3.897175e-02 5.749933e-02 4.532319e-02 1.014992e-01
<VARIANCE> 39
 4.876600e+00 5.704353e+00 5.497859e+00 4.699043e+00 8.176439e+00 1.383797e+01 1.849344e+01 2.010831e+01 1.593408e+01 1.191462e+01 1.145895e+01 1.017993e+01 5.355011e+00 1.296446e-01 3.549595e-01 4.071936e-01 4.591093e-01 6.405357e-01 7.789340e-01 8.266715e-01 1.010549e+00 9.787605e-01 8.705516e-01 8.038734e-01 7.236474e-01 9.558169e-02 2.557234e-02 1.152892e-01 8.392272e-02 1.006084e-01 1.263861e-01 1.749072e-01 1.768975e-01 2.089508e-01 1.891018e-01 1.758697e-01 1.814437e-01 1.431077e-01 5.306058e-02
<GCONST> 6.420342e+01
<MIXTURE> 2 3.696119e-01
<MEAN> 39
 -1.463175e+01 3.449798e+00 -4.598426e+00 9.243259e+00 -5.019280e+00 1.158184e+01 -4.333117e+00 6.444513e+00 -4.031178e+00 5.846569e-02 -2.316591e+00 -3.064326e+00 4.726520e+01 -8.379933e-02 1.291139e-01 -1.030670e-01 2.184493e-02 -6.652577e-02 -4.724758e-02 3.911568e-02 1.791665e-01 1.282441e-01 2.567962e-02 7.147682e-02 8.324504e-02 -1.733141e-01 1.465631e-02 -9.767080e-02 4.505308e-02 -1.436903e-02 3.070085e-03 -2.461054e-02 2.275043e-02 -8.721170e-02 -5.076186e-02 -1.126909e-02 -9.469179e-03 2.481364e-03 9.502827e-02
<VARIANCE> 39
 4.912709e+00 6.698977e+00 6.563629e+00 5.776810e+00 9.343055e+00 1.465415e+01 2.094928e+01 2.080058e+01 1.668799e+01 1.275051e+01 1.138636e+01 1.084002e+01 6.166282e+00 1.100989e-01 3.389586e-01 4.086855e-01 4.337897e-01 5.818511e-01 6.692566e-01 7.683408e-01 8.930231e-01 8.676937e-01 8.651798e-01 7.786629e-01 7.118418e-01 9.558169e-02 2.413866e-02 1.044662e-01 8.511807e-02 1.083637e-01 1.351324e-01 1.783341e-01 1.793071e-01 2.236188e-01 1.960479e-01 1.844142e-01 1.697807e-01 1.487460e-01 6.240313e-02
<GCONST> 6.485149e+01
<MIXTURE> 3 3.696119e-01
<MEAN> 39
 -1.463175e+01 3.449798e+00 -4.598426e+00 9.243259e+00 -5.019280e+00 1.158184e+01 -4.333117e+00 6.444513e+00 -4.031178e+00 5.846568e-02 -2.316591e+00 -3.064326e+00 4.726520e+01 -8.379933e-02 1.291139e-01 -1.030670e-01 2.184494e-02 -6.652577e-02 -4.724758e-02 3.911568e-02 1.791665e-01 1.282441e-01 2.567963e-02 7.147682e-02 8.324505e-02 -1.733141e-01 1.465631e-02 -9.767080e-02 4.505307e-02 -1.436903e-02 3.070079e-03 -2.461054e-02 2.275042e-02 -8.721170e-02 -5.076185e-02 -1.126909e-02 -9.469179e-03 2.481362e-03 9.502826e-02
<VARIANCE> 39
 4.912709e+00 6.698978e+00 6.563629e+00 5.776811e+00 9.343056e+00 1.465415e+01 2.094928e+01 2.080058e+01 1.668799e+01 1.275051e+01 1.138636e+01 1.084002e+01 6.166282e+00 1.100989e-01 3.389586e-01 4.086856e-01 4.337898e-01 5.818511e-01 6.692567e-01 7.683409e-01 8.930232e-01 8.676938e-01 8.651798e-01 7.786629e-01 7.118418e-01 9.558169e-02 2.413866e-02 1.044662e-01 8.511808e-02 1.083637e-01 1.351325e-01 1.783341e-01 1.793072e-01 2.236189e-01 1.960479e-01 1.844142e-01 1.697807e-01 1.487460e-01 6.240314e-02
<GCONST> 6.485149e+01
<MIXTURE> 4 1.388114e-01
<MEAN> 39
 -1.383368e+01 3.819803e+00 -5.052514e+00 8.505985e+00 -6.660573e+00 9.185558e+00 -7.353562e+00 3.804480e+00 -6.060589e+00 -1.507990e+00 -3.669631e+00 -4.375784e+00 4.758305e+01 -1.650257e-01 -1.354093e-02 -3.611368e-01 -3.010449e-01 -4.356350e-01 -4.503341e-01 -4.375646e-01 -3.410276e-01 -3.765166e-01 -4.696531e-01 -3.503448e-01 -2.802804e-01 -2.101909e-01 -3.344874e-02 -1.154527e-01 3.462084e-03 -6.419313e-02 -4.733287e-02 -1.078400e-01 -5.742431e-02 -1.758354e-01 -1.361052e-01 -8.947608e-02 -7.045269e-02 -5.135050e-02 6.544150e-02
<VARIANCE> 39
 5.266038e+00 8.112436e+00 6.999872e+00 6.117583e+00 7.487229e+00 7.897588e+00 1.051992e+01 1.041007e+01 9.033505e+00 9.139654e+00 8.652712e+00 8.083937e+00 8.166770e+00 1.016725e-01 3.086910e-01 3.887260e-01 4.603138e-01 5.532913e-01 6.331233e-01 7.939107e-01 8.171127e-01 8.540529e-01 8.447935e-01 7.541187e-01 6.952317e-01 9.558169e-02 2.747143e-02 1.114959e-01 8.734678e-02 1.178634e-01 1.467745e-01 1.775013e-01 1.952243e-01 2.087538e-01 1.956018e-01 1.917574e-01 1.684657e-01 1.607913e-01 6.452318e-02
<GCONST> 6.189747e+01
<TRANSP> 5
 0.000000e+00 1.000000e+00 0.000000e+00 0.000000e+00 0.000000e+00
 0.000000e+00 7.015071e-01 6.729560e-02 2.311973e-01 0.000000e+00
 0.000000e+00 0.000000e+00 8.345259e-01 1.654740e-01 0.000000e+00
 0.000000e+00 4.762634e-03 0.000000e+00 9.033335e-01 9.190381e-02
 0.000000e+00 0.000000e+00 0.000000e+00 0.000000e+00 0.000000e+00
<ENDHMM>
