~o
<STREAMINFO> 1 39
<VECSIZE> 39<NULLD><MFCC_D_A_0><DIAGC>
~s "silst"
<MEAN> 39
 -1.803859e+01 1.752310e+00 -7.752377e+00 6.407208e+00 -7.340905e+00 8.709052e+00 -6.322241e+00 5.283143e+00 -4.863063e+00 5.948831e-01 9.577134e-03 -1.663293e+00 4.507624e+01 5.802289e-01 -1.373080e-01 -2.406642e-02 4.203711e-01 -1.131803e-01 -5.010665e-02 3.069993e-01 1.289776e-01 -1.617815e-01 1.238622e-02 9.982537e-02 -8.830242e-03 3.996248e-01 -3.052791e-02 1.847895e-01 -1.492977e-02 -1.482845e-01 1.292213e-01 1.234617e-01 -9.387399e-02 -6.381983e-03 2.061802e-01 1.425644e-02 -1.316875e-01 4.881478e-03 -7.076697e-02
<VARIANCE> 39
 1.096697e+02 8.645846e+01 3.600816e+01 5.307640e+01 3.772749e+01 5.688000e+01 5.233565e+01 4.147173e+01 4.782769e+01 2.464612e+01 2.818722e+01 2.087580e+01 1.351974e+02 9.088611e+00 6.988730e+00 2.077514e+00 4.782332e+00 3.505369e+00 4.735925e+00 4.161807e+00 3.906929e+00 4.881574e+00 2.559433e+00 2.950513e+00 1.898615e+00 8.925284e+00 1.279727e+00 1.158885e+00 3.689230e-01 8.412185e-01 6.399760e-01 8.819710e-01 7.469122e-01 7.586660e-01 9.019737e-01 5.059346e-01 5.721217e-01 3.797245e-01 1.281224e+00
<GCONST> 1.366038e+02
~h "k"
<BEGINHMM>
<NUMSTATES> 5
<STATE> 2
<MEAN> 39
 -1.331082e+01 1.241196e+00 -6.235204e+00 7.804822e+00 -5.176912e+00 1.075481e+01 -4.350311e+00 6.359133e+00 -3.098938e+00 1.498484e+00 -1.617977e+00 -2.742774e+00 4.930275e+01 -4.387517e-01 -3.887004e+00 4.361255e-01 -1.676866e+00 1.936755e+00 -2.717294e+00 4.961565e-01 -3.132037e+00 1.315477e-01 -8.754520e-02 9.065794e-02 -2.707328e-02 4.385711e+00 -1.942214e-01 -1.901510e+00 2.409026e-01 -1.043786e+00 8.869710e-01 -1.316052e+00 1.826957e-01 -1.683002e+00 9.577640e-02 -2.707649e-01 -3.872872e-02 -1.182687e-01 2.389517e+00
<VARIANCE> 39
 1.409497e+01 3.579345e+01 1.824707e+01 1.793011e+01 2.060709e+01 2.972426e+01 3.133144e+01 2.469447e+01 1.956071e+01 1.730401e+01 1.456983e+01 1.291581e+01 1.984704e+01 1.149178e+00 1.708553e+01 1.997546e+00 6.067341e+00 5.918469e+00 1.037634e+01 3.131337e+00 1.308335e+01 2.741080e+00 2.622723e+00 1.953606e+00 1.802535e+00 2.253395e+01 1.392659e-01 1.203651e+00 2.862478e-01 4.541940e-01 5.650300e-01 8.337826e-01 5.129022e-01 8.407388e-01 4.837375e-01 4.201659e-01 3.486728e-01 3.268546e-01 1.161170e+00
<GCONST> 1.214233e+02
<STATE> 3
<MEAN> 39
 -1.674350e+01 -2.707069e+01 -1.529032e+00 -7.564023e+00 7.355140e+00 -8.005280e+00 -1.330558e+00 -1.977513e+01 -8.160813e-01 -1.269333e+00 -2.609881e+00 -5.001081e+00 8.373601e+01 1.266420e-02 -1.655344e+00 5.732957e-01 -8.245481e-01 1.770198e-01 -4.371031e-01 -2.263396e-01 -1.783606e+00 5.085229e-02 1.753474e-01 -3.811276e-01 -4.049562e-01 1.436549e+00 3.327711e-01 1.456456e+00 -2.594956e-01 9.164167e-01 -8.394642e-01 1.243002e+00 -3.748549e-01 1.432379e+00 -1.449345e-01 3.553202e-01 -1.031116e-01 1.551034e-01 -2.106020e+00
<VARIANCE> 39
 7.229209e+00 1.418478e+01 1.566654e+01 2.015869e+01 2.011272e+01 4.009794e+01 2.683417e+01 3.615060e+01 3.072567e+01 2.625253e+01 2.489670e+01 2.811314e+01 2.447411e+01 1.228103e+00 1.655514e+01 1.613334e+00 7.302501e+00 6.291946e+00 1.311842e+01 2.712624e+00 1.497425e+01 2.393569e+00 3.589952e+00 1.662900e+00 1.972187e+00 3.419068e+01 1.654687e-01 1.236937e+00 4.040294e-01 5.361753e-01 6.517461e-01 1.116284e+00 4.486685e-01 9.606139e-01 4.709770e-01 6.172947e-01 3.560534e-01 4.445308e-01 1.863677e+00
<GCONST> 1.258091e+02
<STATE> 4
<MEAN> 39
 -1.021355e+01 -1.630543e+01 -5.376645e+00 4.335201e+00 -2.564597e+00 6.283497e+00 -9.364034e+00 -9.764595e+00 -4.694594e+00 3.789622e+00 -5.716697e+00 -3.866441e+00 6.333705e+01 7.697619e-01 1.910496e+00 -1.071115e+00 2.008721e+00 -1.079493e+00 1.761773e+00 -5.597174e-01 1.708777e+00 -5.188648e-01 3.706937e-01 -4.015389e-02 1.979131e-01 -2.578204e+00 -2.355355e-01 -3.979217e-02 4.986034e-02 -1.637518e-01 2.809213e-01 -2.578461e-01 3.394418e-01 -1.457915e-01 9.921552e-02 -1.376397e-01 1.751161e-01 -1.337874e-01 3.811981e-01
<VARIANCE> 39
 1.079995e+01 3.187849e+01 1.860324e+01 4.464496e+01 2.099115e+01 3.909177e+01 2.837016e+01 3.845529e+01 4.654605e+01 1.916027e+01 2.324262e+01 2.470237e+01 2.995840e+01 1.266792e+00 1.168244e+00 1.394054e+00 2.040858e+00 2.326886e+00 2.680019e+00 3.454719e+00 5.127212e+00 4.394331e+00 2.096917e+00 1.948819e+00 1.947004e+00 2.497675e+00 1.741986e-01 2.498245e-01 2.893004e-01 4.027500e-01 3.311735e-01 4.312128e-01 5.090862e-01 9.996598e-01 1.036831e+00 4.965261e-01 3.629420e-01 3.625620e-01 2.721838e-01
<GCONST> 1.132041e+02
<TRANSP> 5
 0.000000e+00 1.000000e+00 0.000000e+00 0.000000e+00 0.000000e+00
 0.000000e+00 7.457825e-01 2.542175e-01 0.000000e+00 0.000000e+00
 0.000000e+00 0.000000e+00 8.478848e-01 1.521152e-01 0.000000e+00
 0.000000e+00 0.000000e+00 0.000000e+00 8.624429e-01 1.375571e-01
 0.000000e+00 0.000000e+00 0.000000e+00 0.000000e+00 0.000000e+00
<ENDHMM>
~h "p"
<BEGINHMM>
<NUMSTATES> 5
<STATE> 2
<MEAN> 39
 -1.367709e+01 3.073194e+00 -6.030024e+00 7.570391e+00 -6.603285e+00 1.045810e+01 -4.979027e+00 6.704336e+00 -3.310442e+00 4.485680e-01 -2.116971e+00 -2.983590e+00 4.790634e+01 8.260850e-01 -2.102243e+00 1.357263e+00 -1.346489e+00 1.492632e+00 -2.222327e+00 7.011640e-01 -2.242075e+00 -3.361573e-01 -1.388417e+00 1.590952e-01 7.711686e-02 4.185600e+00 5.831388e-01 -1.003616e+00 8.787261e-01 -5.735776e-01 9.032801e-01 -9.351498e-01 4.148854e-01 -1.091464e+00 -8.997503e-02 -7.599719e-01 -3.618041e-03 -5.882725e-02 2.296674e+00
<VARIANCE> 39
 1.387983e+01 9.150649e+00 1.720666e+01 1.070759e+01 1.197684e+01 1.537817e+01 2.233946e+01 1.608076e+01 1.475666e+01 1.186784e+01 1.073523e+01 9.109012e+00 9.880663e+00 1.436345e+00 5.058939e+00 3.862608e+00 3.165460e+00 4.202875e+00 6.065310e+00 2.714291e+00 7.002647e+00 2.358802e+00 3.910813e+00 1.578376e+00 1.449431e+00 1.917369e+01 1.249748e-01 2.593932e-01 2.264982e-01 3.478661e-01 3.649107e-01 4.934593e-01 3.845927e-01 4.902004e-01 3.759836e-01 3.217758e-01 2.591585e-01 2.486590e-01 6.356065e-01
<GCONST> 1.068894e+02
<STATE> 3
<MEAN> 39
 -5.380690e+00 -1.067006e+01 5.213277e+00 -1.830736e-01 5.218455e+00 -2.450044e+00 7.270205e-01 -7.889859e+00 -4.681267e+00 -9.951109e+00 -2.558730e+00 -3.418323e+00 7.843879e+01 1.763457e+00 -5.991467e-01 8.615423e-01 5.124440e-01 5.068412e-01 5.134823e-01 4.670117e-01 -6.325664e-02 5.345317e-02 -8.276519e-01 -8.957524e-01 -3.133845e-01 1.682881e+00 -2.828091e-01 1.286891e+00 -1.046248e+00 1.056653e+00 -1.342339e+00 1.510714e+00 -6.300840e-01 1.541824e+00 6.464128e-02 9.338163e-01 -2.398223e-01 6.759700e-04 -2.857529e+00
<VARIANCE> 39
 1.065442e+01 1.299959e+01 1.596546e+01 2.632943e+01 2.463268e+01 4.328310e+01 3.112232e+01 3.866496e+01 2.805260e+01 2.432182e+01 2.676733e+01 2.196001e+01 4.517974e+01 1.264434e+00 6.964606e+00 6.117670e+00 6.053458e+00 9.503488e+00 1.285291e+01 3.972256e+00 1.361642e+01 2.374778e+00 5.190832e+00 2.138638e+00 1.541859e+00 4.051025e+01 1.968145e-01 4.197060e-01 5.040181e-01 5.202037e-01 7.137975e-01 1.124879e+00 6.455011e-01 1.138522e+00 5.682625e-01 5.402884e-01 4.803639e-01 3.788452e-01 2.047569e+00
<GCONST> 1.288882e+02
<STATE> 4
<MEAN> 39
 -2.624771e+00 2.294356e+00 -3.910196e-01 1.179009e+01 -4.287979e+00 9.476099e+00 -4.765903e+00 2.463971e+00 -7.514691e+00 -4.755962e+00 -7.046227e+00 -5.755538e+00 5.858942e+01 -4.148265e-01 1.343672e+00 -6.863593e-01 6.150243e-01 -6.807267e-01 5.675476e-01 -4.909754e-01 5.510835e-01 -4.853955e-01 5.560009e-01 1.672393e-02 -1.737678e-01 -1.935573e+00 -2.286473e-01 -1.888151e-01 1.354102e-01 -3.615780e-01 3.003486e-01 -3.230510e-01 1.381294e-01 -2.880470e-01 2.336164e-02 -1.131099e-01 1.614140e-01 3.613923e-02 3.604519e-01
<VARIANCE> 39
 9.417447e+00 3.940865e+01 2.592962e+01 2.111909e+01 2.016224e+01 1.993932e+01 2.130904e+01 1.737691e+01 2.438664e+01 1.758893e+01 1.766521e+01 1.625178e+01 2.582791e+01 7.729092e-01 1.264266e+00 1.735244e+00 2.531500e+00 3.256872e+00 2.795791e+00 1.811241e+00 2.538644e+00 1.894475e+00 1.862537e+00 1.418770e+00 1.298956e+00 1.983456e+00 6.313030e-02 1.454007e-01 2.537371e-01 3.052768e-01 4.773451e-01 6.052750e-01 3.221986e-01 4.616602e-01 4.165275e-01 3.446801e-01 3.098471e-01 2.709369e-01 1.673799e-01
<GCONST> 1.019292e+02
<TRANSP> 5
 0.000000e+00 1.000000e+00 0.000000e+00 0.000000e+00 0.000000e+00
 0.000000e+00 7.151092e-01 2.848908e-01 0.000000e+00 0.000000e+00
 0.000000e+00 0.000000e+00 7.713734e-01 2.286266e-01 0.000000e+00
 0.000000e+00 0.000000e+00 0.000000e+00 8.864352e-01 1.135649e-01
 0.000000e+00 0.000000e+00 0.000000e+00 0.000000e+00 0.000000e+00
<ENDHMM>
~h "s"
<BEGINHMM>
<NUMSTATES> 5
<STATE> 2
<MEAN> 39
 -1.415891e+01 -7.158052e-01 -3.990974e+00 8.061640e+00 -5.555638e+00 9.549117e+00 -3.212712e+00 3.915245e+00 -3.800163e+00 2.495666e-01 -2.992445e+00 -1.985097e+00 5.077987e+01 -1.684230e+00 -3.249476e+00 1.207881e+00 -1.247241e+00 1.523965e+00 -2.222358e+00 1.969958e+00 -2.645087e+00 3.600387e-01 -6.117299e-01 1.048443e-01 1.113035e+00 2.902375e+00 -8.176771e-01 -1.074207e+00 5.574131e-01 -1.025151e+00 1.053265e+00 -9.430456e-01 5.835783e-01 -9.214206e-01 1.270325e-01 -3.202070e-01 1.525055e-01 2.020888e-01 1.426054e+00
<VARIANCE> 39
 1.733186e+01 5.244359e+01 3.131243e+01 2.488191e+01 2.375552e+01 3.893052e+01 4.085912e+01 4.889947e+01 2.669214e+01 2.262486e+01 2.480077e+01 2.222424e+01 2.401283e+01 2.889385e+00 9.218972e+00 4.511515e+00 5.625936e+00 6.168164e+00 7.418458e+00 5.021895e+00 8.685439e+00 3.124695e+00 3.022362e+00 2.590971e+00 2.475602e+00 7.851855e+00 2.265055e-01 1.182441e+00 6.922225e-01 7.825457e-01 6.864251e-01 8.732663e-01 7.410516e-01 1.163487e+00 4.837035e-01 4.690501e-01 4.743787e-01 4.725495e-01 5.187256e-01
<GCONST> 1.295254e+02
<STATE> 3
<MEAN> 39
 -2.794950e+01 -1.811282e+01 4.478005e+00 -8.179420e+00 1.033570e+01 -5.707996e+00 6.823502e+00 -1.042709e+01 -1.458156e+00 -4.610238e+00 -9.466171e-02 1.810592e+00 7.323478e+01 -2.475474e+00 -1.736152e+00 1.619869e+00 -3.720963e+00 2.790641e+00 -1.620916e+00 6.698704e-01 -1.065963e+00 1.120703e-01 -7.691970e-01 8.992747e-01 -1.462596e-01 3.801129e+00 6.984872e-01 1.027526e+00 -3.252612e-01 6.287737e-01 -8.754830e-01 1.100314e+00 -7.584450e-01 9.620090e-01 -1.422319e-01 2.074572e-01 -6.078441e-02 -3.052292e-01 -1.103068e+00
<VARIANCE> 39
 2.096052e+01 2.839816e+01 5.214716e+01 5.822525e+01 4.829660e+01 3.992565e+01 3.490208e+01 3.515352e+01 3.188288e+01 2.655378e+01 3.297509e+01 2.240503e+01 3.402322e+01 3.293570e+00 7.021126e+00 4.662867e+00 4.850153e+00 6.839930e+00 7.918697e+00 5.183659e+00 7.037879e+00 2.411604e+00 2.527342e+00 2.057416e+00 2.005443e+00 6.301206e+00 4.073220e-01 9.599546e-01 8.610584e-01 1.073021e+00 9.660107e-01 8.407012e-01 7.419216e-01 1.058071e+00 5.295408e-01 5.137550e-01 5.092835e-01 4.865208e-01 4.801746e-01
<GCONST> 1.316495e+02
<STATE> 4
<MEAN> 39
 -2.833186e+01 -1.788430e+01 1.024907e+01 -1.267989e+01 9.447295e+00 1.323211e+00 3.001148e+00 -7.286421e+00 -2.399968e+00 -5.024351e+00 1.035641e-01 1.092143e+00 7.344807e+01 1.112597e+00 8.549035e-01 1.908401e-01 8.397712e-01 -1.168623e+00 1.445839e+00 -7.641987e-01 1.080073e+00 -4.978907e-01 2.942056e-01 -5.885043e-01 -5.394237e-02 -1.666900e+00 2.322919e-01 2.680508e-01 -2.085445e-01 3.375627e-01 -2.736664e-01 1.067247e-01 -1.156629e-01 1.623645e-01 -3.107837e-02 1.180533e-01 -5.687179e-02 -3.774056e-02 -3.674856e-01
<VARIANCE> 39
 2.425314e+01 2.096406e+01 3.000616e+01 2.557252e+01 3.988359e+01 5.430251e+01 2.947219e+01 3.621672e+01 2.871245e+01 2.061259e+01 2.746914e+01 1.469943e+01 4.810371e+01 1.837657e+00 2.528097e+00 1.756674e+00 2.168440e+00 2.503515e+00 2.158522e+00 2.230155e+00 2.913055e+00 2.119984e+00 1.838090e+00 1.635097e+00 1.102986e+00 2.818440e+00 2.364816e-01 3.036066e-01 2.639424e-01 2.678588e-01 3.409784e-01 3.723657e-01 3.916774e-01 4.525701e-01 4.328311e-01 3.476397e-01 3.647670e-01 2.359570e-01 2.694217e-01
<GCONST> 1.101450e+02
<TRANSP> 5
 0.000000e+00 1.000000e+00 0.000000e+00 0.000000e+00 0.000000e+00
 0.000000e+00 7.453821e-01 2.546179e-01 0.000000e+00 0.000000e+00
 0.000000e+00 0.000000e+00 7.712374e-01 2.287626e-01 0.000000e+00
 0.000000e+00 0.000000e+00 0.000000e+00 9.011791e-01 9.882093e-02
 0.000000e+00 0.000000e+00 0.000000e+00 0.000000e+00 0.000000e+00
<ENDHMM>
~h "sil"
<BEGINHMM>
<NUMSTATES> 5
<STATE> 2
<MEAN> 39
 -1.541218e+01 -5.720566e-01 -3.161522e+00 5.295269e+00 -4.608553e+00 1.218955e+01 -6.356726e+00 3.146138e+00 -4.934997e+00 9.530968e-01 -2.875333e+00 -3.143912e+00 4.995846e+01 2.815543e-02 9.707330e-01 -6.564077e-01 5.365386e-01 -3.626343e-01 2.247812e-01 -7.022886e-02 7.441229e-01 4.776477e-01 2.427516e-01 3.317603e-01 -9.648506e-02 -9.796533e-01 -6.595342e-02 -1.757570e-01 4.232268e-02 -1.015080e-01 1.223882e-01 -2.270278e-01 1.023421e-01 -8.990633e-02 7.136750e-02 -7.382341e-02 1.057988e-02 8.119582e-02 2.122781e-01
<VARIANCE> 39
 6.978834e+01 5.489492e+01 5.676464e+01 3.869855e+01 2.312279e+01 2.649373e+01 3.509352e+01 2.764509e+01 2.657946e+01 2.486053e+01 1.731742e+01 1.711146e+01 8.400183e+01 1.119636e+00 1.579683e+00 1.729459e+00 2.011576e+00 2.469259e+00 2.243580e+00 1.887591e+00 2.049458e+00 2.282699e+00 1.688738e+00 1.420719e+00 1.312752e+00 7.568197e-01 1.050973e-01 1.935253e-01 1.966740e-01 2.420098e-01 3.582266e-01 3.592221e-01 3.522399e-01 3.882197e-01 4.378470e-01 3.209482e-01 2.971348e-01 2.365430e-01 7.768596e-02
<GCONST> 1.059567e+02
<STATE> 3
~s "silst"
<STATE> 4
<MEAN> 39
 -1.328341e+01 3.399705e+00 -7.106181e+00 7.487359e+00 -6.563010e+00 1.003203e+01 -5.894519e+00 6.080615e+00 -3.500072e+00 3.924309e-01 -1.985896e+00 -2.885701e+00 4.775670e+01 -8.051176e-02 9.502556e-02 -9.520018e-02 -2.057233e-02 -7.416779e-02 -3.332667e-02 1.392168e-02 1.079062e-01 7.532483e-02 -9.644682e-03 2.519705e-02 4.148813e-02 -1.455581e-01 5.740138e-03 -8.184436e-02 3.509590e-02 4.438247e-03 -1.655396e-04 -1.888546e-02 1.796547e-02 -6.505601e-02 -5.208506e-02 -9.920184e-03 3.715640e-03 -3.531954e-03 6.545378e-02
<VARIANCE> 39
 1.440120e+01 7.719272e+00 1.474670e+01 9.887082e+00 1.097972e+01 1.407589e+01 1.829339e+01 1.535349e+01 1.366761e+01 1.133589e+01 1.058379e+01 9.526148e+00 9.049200e+00 9.893475e-02 3.097311e-01 3.617392e-01 4.495375e-01 5.877231e-01 6.700772e-01 7.917283e-01 8.591028e-01 8.701904e-01 8.861341e-01 8.159539e-01 7.383276e-01 9.232665e-02 2.434180e-02 8.578761e-02 8.059028e-02 1.043777e-01 1.317373e-01 1.634653e-01 1.751603e-01 1.959098e-01 1.864033e-01 1.841352e-01 1.724145e-01 1.545123e-01 3.671668e-02
<GCONST> 6.567822e+01
<TRANSP> 5
 0.000000e+00 1.000000e+00 0.000000e+00 0.000000e+00 0.000000e+00
 0.000000e+00 7.363911e-01 5.173832e-02 2.118706e-01 0.000000e+00
 0.000000e+00 0.000000e+00 8.560220e-01 1.439781e-01 0.000000e+00
 0.000000e+00 4.758950e-03 0.000000e+00 8.951053e-01 1.001358e-01
 0.000000e+00 0.000000e+00 0.000000e+00 0.000000e+00 0.000000e+00
<ENDHMM>
