~o
 <STREAMINFO> 1 39
 <VECSIZE> 39<NULLD><MFCC_D_A_0><DIAGC>
 ~h "k"
 <BEGINHMM>
 <NUMSTATES> 5
 <STATE> 2
 <MEAN> 39
  -1.458726e+01 -3.325419e+00 -2.507121e+00 3.794187e+00 -2.296823e+00 7.200375e+00 -3.933237e+00 5.917912e-01 -3.966250e+00 -1.051863e+00 -2.484199e+00 -2.628714e+00 5.647741e+01 3.566097e-02 -1.854089e-02 7.931158e-03 1.423385e-02 -4.891686e-03 -4.035102e-03 1.645482e-02 2.845185e-03 -8.351898e-03 -3.820079e-04 1.868839e-03 -7.881415e-04 3.628748e-02 -2.482354e-04 1.194390e-05 -1.824038e-04 1.508847e-04 9.292205e-06 -2.048640e-04 -2.804494e-04 2.866183e-04 4.772736e-04 8.697728e-05 -2.123629e-04 -2.704210e-04 -3.921270e-04
 <VARIANCE> 39
  7.149455e+01 1.196288e+02 5.742240e+01 7.663301e+01 5.885408e+01 6.296805e+01 4.382628e+01 8.174570e+01 2.686992e+01 2.744434e+01 2.232103e+01 1.934550e+01 1.748994e+02 2.129516e+00 5.269697e+00 2.147465e+00 3.667007e+00 3.715539e+00 4.714362e+00 2.502816e+00 5.217442e+00 2.131735e+00 2.078578e+00 1.605602e+00 1.331829e+00 9.236430e+00 2.574784e-01 7.862495e-01 3.457016e-01 5.378243e-01 6.179910e-01 8.149800e-01 4.544820e-01 8.874859e-01 4.167475e-01 4.032685e-01 3.159490e-01 2.661299e-01 1.392896e+00
 <GCONST> 1.289420e+02
 <STATE> 3
 <MEAN> 39
  -1.458726e+01 -3.325419e+00 -2.507121e+00 3.794187e+00 -2.296823e+00 7.200375e+00 -3.933237e+00 5.917912e-01 -3.966250e+00 -1.051863e+00 -2.484199e+00 -2.628714e+00 5.647741e+01 3.566097e-02 -1.854089e-02 7.931158e-03 1.423385e-02 -4.891686e-03 -4.035102e-03 1.645482e-02 2.845185e-03 -8.351898e-03 -3.820079e-04 1.868839e-03 -7.881415e-04 3.628748e-02 -2.482354e-04 1.194390e-05 -1.824038e-04 1.508847e-04 9.292205e-06 -2.048640e-04 -2.804494e-04 2.866183e-04 4.772736e-04 8.697728e-05 -2.123629e-04 -2.704210e-04 -3.921270e-04
 <VARIANCE> 39
  7.149455e+01 1.196288e+02 5.742240e+01 7.663301e+01 5.885408e+01 6.296805e+01 4.382628e+01 8.174570e+01 2.686992e+01 2.744434e+01 2.232103e+01 1.934550e+01 1.748994e+02 2.129516e+00 5.269697e+00 2.147465e+00 3.667007e+00 3.715539e+00 4.714362e+00 2.502816e+00 5.217442e+00 2.131735e+00 2.078578e+00 1.605602e+00 1.331829e+00 9.236430e+00 2.574784e-01 7.862495e-01 3.457016e-01 5.378243e-01 6.179910e-01 8.149800e-01 4.544820e-01 8.874859e-01 4.167475e-01 4.032685e-01 3.159490e-01 2.661299e-01 1.392896e+00
 <GCONST> 1.289420e+02
 <STATE> 4
 <MEAN> 39
  -1.458726e+01 -3.325419e+00 -2.507121e+00 3.794187e+00 -2.296823e+00 7.200375e+00 -3.933237e+00 5.917912e-01 -3.966250e+00 -1.051863e+00 -2.484199e+00 -2.628714e+00 5.647741e+01 3.566097e-02 -1.854089e-02 7.931158e-03 1.423385e-02 -4.891686e-03 -4.035102e-03 1.645482e-02 2.845185e-03 -8.351898e-03 -3.820079e-04 1.868839e-03 -7.881415e-04 3.628748e-02 -2.482354e-04 1.194390e-05 -1.824038e-04 1.508847e-04 9.292205e-06 -2.048640e-04 -2.804494e-04 2.866183e-04 4.772736e-04 8.697728e-05 -2.123629e-04 -2.704210e-04 -3.921270e-04
 <VARIANCE> 39
  7.149455e+01 1.196288e+02 5.742240e+01 7.663301e+01 5.885408e+01 6.296805e+01 4.382628e+01 8.174570e+01 2.686992e+01 2.744434e+01 2.232103e+01 1.934550e+01 1.748994e+02 2.129516e+00 5.269697e+00 2.147465e+00 3.667007e+00 3.715539e+00 4.714362e+00 2.502816e+00 5.217442e+00 2.131735e+00 2.078578e+00 1.605602e+00 1.331829e+00 9.236430e+00 2.574784e-01 7.862495e-01 3.457016e-01 5.378243e-01 6.179910e-01 8.149800e-01 4.544820e-01 8.874859e-01 4.167475e-01 4.032685e-01 3.159490e-01 2.661299e-01 1.392896e+00
 <GCONST> 1.289420e+02
 <TRANSP> 5
  0.000000e+00 1.000000e+00 0.000000e+00 0.000000e+00 0.000000e+00
  0.000000e+00 6.000000e-01 4.000000e-01 0.000000e+00 0.000000e+00
  0.000000e+00 0.000000e+00 6.000000e-01 4.000000e-01 0.000000e+00
  0.000000e+00 0.000000e+00 0.000000e+00 7.000000e-01 3.000000e-01
  0.000000e+00 0.000000e+00 0.000000e+00 0.000000e+00 0.000000e+00
 <ENDHMM>

~o
 <STREAMINFO> 1 39
 <VECSIZE> 39<NULLD><MFCC_D_A_0><DIAGC>
 ~h "sil"
 <BEGINHMM>
 <NUMSTATES> 5
 <STATE> 2
 <MEAN> 39
  -1.458726e+01 -3.325419e+00 -2.507121e+00 3.794187e+00 -2.296823e+00 7.200375e+00 -3.933237e+00 5.917912e-01 -3.966250e+00 -1.051863e+00 -2.484199e+00 -2.628714e+00 5.647741e+01 3.566097e-02 -1.854089e-02 7.931158e-03 1.423385e-02 -4.891686e-03 -4.035102e-03 1.645482e-02 2.845185e-03 -8.351898e-03 -3.820079e-04 1.868839e-03 -7.881415e-04 3.628748e-02 -2.482354e-04 1.194390e-05 -1.824038e-04 1.508847e-04 9.292205e-06 -2.048640e-04 -2.804494e-04 2.866183e-04 4.772736e-04 8.697728e-05 -2.123629e-04 -2.704210e-04 -3.921270e-04
 <VARIANCE> 39
  7.149455e+01 1.196288e+02 5.742240e+01 7.663301e+01 5.885408e+01 6.296805e+01 4.382628e+01 8.174570e+01 2.686992e+01 2.744434e+01 2.232103e+01 1.934550e+01 1.748994e+02 2.129516e+00 5.269697e+00 2.147465e+00 3.667007e+00 3.715539e+00 4.714362e+00 2.502816e+00 5.217442e+00 2.131735e+00 2.078578e+00 1.605602e+00 1.331829e+00 9.236430e+00 2.574784e-01 7.862495e-01 3.457016e-01 5.378243e-01 6.179910e-01 8.149800e-01 4.544820e-01 8.874859e-01 4.167475e-01 4.032685e-01 3.159490e-01 2.661299e-01 1.392896e+00
 <GCONST> 1.289420e+02
 <STATE> 3
 <MEAN> 39
  -1.458726e+01 -3.325419e+00 -2.507121e+00 3.794187e+00 -2.296823e+00 7.200375e+00 -3.933237e+00 5.917912e-01 -3.966250e+00 -1.051863e+00 -2.484199e+00 -2.628714e+00 5.647741e+01 3.566097e-02 -1.854089e-02 7.931158e-03 1.423385e-02 -4.891686e-03 -4.035102e-03 1.645482e-02 2.845185e-03 -8.351898e-03 -3.820079e-04 1.868839e-03 -7.881415e-04 3.628748e-02 -2.482354e-04 1.194390e-05 -1.824038e-04 1.508847e-04 9.292205e-06 -2.048640e-04 -2.804494e-04 2.866183e-04 4.772736e-04 8.697728e-05 -2.123629e-04 -2.704210e-04 -3.921270e-04
 <VARIANCE> 39
  7.149455e+01 1.196288e+02 5.742240e+01 7.663301e+01 5.885408e+01 6.296805e+01 4.382628e+01 8.174570e+01 2.686992e+01 2.744434e+01 2.232103e+01 1.934550e+01 1.748994e+02 2.129516e+00 5.269697e+00 2.147465e+00 3.667007e+00 3.715539e+00 4.714362e+00 2.502816e+00 5.217442e+00 2.131735e+00 2.078578e+00 1.605602e+00 1.331829e+00 9.236430e+00 2.574784e-01 7.862495e-01 3.457016e-01 5.378243e-01 6.179910e-01 8.149800e-01 4.544820e-01 8.874859e-01 4.167475e-01 4.032685e-01 3.159490e-01 2.661299e-01 1.392896e+00
 <GCONST> 1.289420e+02
 <STATE> 4
 <MEAN> 39
  -1.458726e+01 -3.325419e+00 -2.507121e+00 3.794187e+00 -2.296823e+00 7.200375e+00 -3.933237e+00 5.917912e-01 -3.966250e+00 -1.051863e+00 -2.484199e+00 -2.628714e+00 5.647741e+01 3.566097e-02 -1.854089e-02 7.931158e-03 1.423385e-02 -4.891686e-03 -4.035102e-03 1.645482e-02 2.845185e-03 -8.351898e-03 -3.820079e-04 1.868839e-03 -7.881415e-04 3.628748e-02 -2.482354e-04 1.194390e-05 -1.824038e-04 1.508847e-04 9.292205e-06 -2.048640e-04 -2.804494e-04 2.866183e-04 4.772736e-04 8.697728e-05 -2.123629e-04 -2.704210e-04 -3.921270e-04
 <VARIANCE> 39
  7.149455e+01 1.196288e+02 5.742240e+01 7.663301e+01 5.885408e+01 6.296805e+01 4.382628e+01 8.174570e+01 2.686992e+01 2.744434e+01 2.232103e+01 1.934550e+01 1.748994e+02 2.129516e+00 5.269697e+00 2.147465e+00 3.667007e+00 3.715539e+00 4.714362e+00 2.502816e+00 5.217442e+00 2.131735e+00 2.078578e+00 1.605602e+00 1.331829e+00 9.236430e+00 2.574784e-01 7.862495e-01 3.457016e-01 5.378243e-01 6.179910e-01 8.149800e-01 4.544820e-01 8.874859e-01 4.167475e-01 4.032685e-01 3.159490e-01 2.661299e-01 1.392896e+00
 <GCONST> 1.289420e+02
 <TRANSP> 5
  0.000000e+00 1.000000e+00 0.000000e+00 0.000000e+00 0.000000e+00
  0.000000e+00 6.000000e-01 4.000000e-01 0.000000e+00 0.000000e+00
  0.000000e+00 0.000000e+00 6.000000e-01 4.000000e-01 0.000000e+00
  0.000000e+00 0.000000e+00 0.000000e+00 7.000000e-01 3.000000e-01
  0.000000e+00 0.000000e+00 0.000000e+00 0.000000e+00 0.000000e+00
 <ENDHMM>

~o
 <STREAMINFO> 1 39
 <VECSIZE> 39<NULLD><MFCC_D_A_0><DIAGC>
 ~h "p"
 <BEGINHMM>
 <NUMSTATES> 5
 <STATE> 2
 <MEAN> 39
  -1.458726e+01 -3.325419e+00 -2.507121e+00 3.794187e+00 -2.296823e+00 7.200375e+00 -3.933237e+00 5.917912e-01 -3.966250e+00 -1.051863e+00 -2.484199e+00 -2.628714e+00 5.647741e+01 3.566097e-02 -1.854089e-02 7.931158e-03 1.423385e-02 -4.891686e-03 -4.035102e-03 1.645482e-02 2.845185e-03 -8.351898e-03 -3.820079e-04 1.868839e-03 -7.881415e-04 3.628748e-02 -2.482354e-04 1.194390e-05 -1.824038e-04 1.508847e-04 9.292205e-06 -2.048640e-04 -2.804494e-04 2.866183e-04 4.772736e-04 8.697728e-05 -2.123629e-04 -2.704210e-04 -3.921270e-04
 <VARIANCE> 39
  7.149455e+01 1.196288e+02 5.742240e+01 7.663301e+01 5.885408e+01 6.296805e+01 4.382628e+01 8.174570e+01 2.686992e+01 2.744434e+01 2.232103e+01 1.934550e+01 1.748994e+02 2.129516e+00 5.269697e+00 2.147465e+00 3.667007e+00 3.715539e+00 4.714362e+00 2.502816e+00 5.217442e+00 2.131735e+00 2.078578e+00 1.605602e+00 1.331829e+00 9.236430e+00 2.574784e-01 7.862495e-01 3.457016e-01 5.378243e-01 6.179910e-01 8.149800e-01 4.544820e-01 8.874859e-01 4.167475e-01 4.032685e-01 3.159490e-01 2.661299e-01 1.392896e+00
 <GCONST> 1.289420e+02
 <STATE> 3
 <MEAN> 39
  -1.458726e+01 -3.325419e+00 -2.507121e+00 3.794187e+00 -2.296823e+00 7.200375e+00 -3.933237e+00 5.917912e-01 -3.966250e+00 -1.051863e+00 -2.484199e+00 -2.628714e+00 5.647741e+01 3.566097e-02 -1.854089e-02 7.931158e-03 1.423385e-02 -4.891686e-03 -4.035102e-03 1.645482e-02 2.845185e-03 -8.351898e-03 -3.820079e-04 1.868839e-03 -7.881415e-04 3.628748e-02 -2.482354e-04 1.194390e-05 -1.824038e-04 1.508847e-04 9.292205e-06 -2.048640e-04 -2.804494e-04 2.866183e-04 4.772736e-04 8.697728e-05 -2.123629e-04 -2.704210e-04 -3.921270e-04
 <VARIANCE> 39
  7.149455e+01 1.196288e+02 5.742240e+01 7.663301e+01 5.885408e+01 6.296805e+01 4.382628e+01 8.174570e+01 2.686992e+01 2.744434e+01 2.232103e+01 1.934550e+01 1.748994e+02 2.129516e+00 5.269697e+00 2.147465e+00 3.667007e+00 3.715539e+00 4.714362e+00 2.502816e+00 5.217442e+00 2.131735e+00 2.078578e+00 1.605602e+00 1.331829e+00 9.236430e+00 2.574784e-01 7.862495e-01 3.457016e-01 5.378243e-01 6.179910e-01 8.149800e-01 4.544820e-01 8.874859e-01 4.167475e-01 4.032685e-01 3.159490e-01 2.661299e-01 1.392896e+00
 <GCONST> 1.289420e+02
 <STATE> 4
 <MEAN> 39
  -1.458726e+01 -3.325419e+00 -2.507121e+00 3.794187e+00 -2.296823e+00 7.200375e+00 -3.933237e+00 5.917912e-01 -3.966250e+00 -1.051863e+00 -2.484199e+00 -2.628714e+00 5.647741e+01 3.566097e-02 -1.854089e-02 7.931158e-03 1.423385e-02 -4.891686e-03 -4.035102e-03 1.645482e-02 2.845185e-03 -8.351898e-03 -3.820079e-04 1.868839e-03 -7.881415e-04 3.628748e-02 -2.482354e-04 1.194390e-05 -1.824038e-04 1.508847e-04 9.292205e-06 -2.048640e-04 -2.804494e-04 2.866183e-04 4.772736e-04 8.697728e-05 -2.123629e-04 -2.704210e-04 -3.921270e-04
 <VARIANCE> 39
  7.149455e+01 1.196288e+02 5.742240e+01 7.663301e+01 5.885408e+01 6.296805e+01 4.382628e+01 8.174570e+01 2.686992e+01 2.744434e+01 2.232103e+01 1.934550e+01 1.748994e+02 2.129516e+00 5.269697e+00 2.147465e+00 3.667007e+00 3.715539e+00 4.714362e+00 2.502816e+00 5.217442e+00 2.131735e+00 2.078578e+00 1.605602e+00 1.331829e+00 9.236430e+00 2.574784e-01 7.862495e-01 3.457016e-01 5.378243e-01 6.179910e-01 8.149800e-01 4.544820e-01 8.874859e-01 4.167475e-01 4.032685e-01 3.159490e-01 2.661299e-01 1.392896e+00
 <GCONST> 1.289420e+02
 <TRANSP> 5
  0.000000e+00 1.000000e+00 0.000000e+00 0.000000e+00 0.000000e+00
  0.000000e+00 6.000000e-01 4.000000e-01 0.000000e+00 0.000000e+00
  0.000000e+00 0.000000e+00 6.000000e-01 4.000000e-01 0.000000e+00
  0.000000e+00 0.000000e+00 0.000000e+00 7.000000e-01 3.000000e-01
  0.000000e+00 0.000000e+00 0.000000e+00 0.000000e+00 0.000000e+00
 <ENDHMM>

~o
 <STREAMINFO> 1 39
 <VECSIZE> 39<NULLD><MFCC_D_A_0><DIAGC>
 ~h "s"
 <BEGINHMM>
 <NUMSTATES> 5
 <STATE> 2
 <MEAN> 39
  -1.458726e+01 -3.325419e+00 -2.507121e+00 3.794187e+00 -2.296823e+00 7.200375e+00 -3.933237e+00 5.917912e-01 -3.966250e+00 -1.051863e+00 -2.484199e+00 -2.628714e+00 5.647741e+01 3.566097e-02 -1.854089e-02 7.931158e-03 1.423385e-02 -4.891686e-03 -4.035102e-03 1.645482e-02 2.845185e-03 -8.351898e-03 -3.820079e-04 1.868839e-03 -7.881415e-04 3.628748e-02 -2.482354e-04 1.194390e-05 -1.824038e-04 1.508847e-04 9.292205e-06 -2.048640e-04 -2.804494e-04 2.866183e-04 4.772736e-04 8.697728e-05 -2.123629e-04 -2.704210e-04 -3.921270e-04
 <VARIANCE> 39
  7.149455e+01 1.196288e+02 5.742240e+01 7.663301e+01 5.885408e+01 6.296805e+01 4.382628e+01 8.174570e+01 2.686992e+01 2.744434e+01 2.232103e+01 1.934550e+01 1.748994e+02 2.129516e+00 5.269697e+00 2.147465e+00 3.667007e+00 3.715539e+00 4.714362e+00 2.502816e+00 5.217442e+00 2.131735e+00 2.078578e+00 1.605602e+00 1.331829e+00 9.236430e+00 2.574784e-01 7.862495e-01 3.457016e-01 5.378243e-01 6.179910e-01 8.149800e-01 4.544820e-01 8.874859e-01 4.167475e-01 4.032685e-01 3.159490e-01 2.661299e-01 1.392896e+00
 <GCONST> 1.289420e+02
 <STATE> 3
 <MEAN> 39
  -1.458726e+01 -3.325419e+00 -2.507121e+00 3.794187e+00 -2.296823e+00 7.200375e+00 -3.933237e+00 5.917912e-01 -3.966250e+00 -1.051863e+00 -2.484199e+00 -2.628714e+00 5.647741e+01 3.566097e-02 -1.854089e-02 7.931158e-03 1.423385e-02 -4.891686e-03 -4.035102e-03 1.645482e-02 2.845185e-03 -8.351898e-03 -3.820079e-04 1.868839e-03 -7.881415e-04 3.628748e-02 -2.482354e-04 1.194390e-05 -1.824038e-04 1.508847e-04 9.292205e-06 -2.048640e-04 -2.804494e-04 2.866183e-04 4.772736e-04 8.697728e-05 -2.123629e-04 -2.704210e-04 -3.921270e-04
 <VARIANCE> 39
  7.149455e+01 1.196288e+02 5.742240e+01 7.663301e+01 5.885408e+01 6.296805e+01 4.382628e+01 8.174570e+01 2.686992e+01 2.744434e+01 2.232103e+01 1.934550e+01 1.748994e+02 2.129516e+00 5.269697e+00 2.147465e+00 3.667007e+00 3.715539e+00 4.714362e+00 2.502816e+00 5.217442e+00 2.131735e+00 2.078578e+00 1.605602e+00 1.331829e+00 9.236430e+00 2.574784e-01 7.862495e-01 3.457016e-01 5.378243e-01 6.179910e-01 8.149800e-01 4.544820e-01 8.874859e-01 4.167475e-01 4.032685e-01 3.159490e-01 2.661299e-01 1.392896e+00
 <GCONST> 1.289420e+02
 <STATE> 4
 <MEAN> 39
  -1.458726e+01 -3.325419e+00 -2.507121e+00 3.794187e+00 -2.296823e+00 7.200375e+00 -3.933237e+00 5.917912e-01 -3.966250e+00 -1.051863e+00 -2.484199e+00 -2.628714e+00 5.647741e+01 3.566097e-02 -1.854089e-02 7.931158e-03 1.423385e-02 -4.891686e-03 -4.035102e-03 1.645482e-02 2.845185e-03 -8.351898e-03 -3.820079e-04 1.868839e-03 -7.881415e-04 3.628748e-02 -2.482354e-04 1.194390e-05 -1.824038e-04 1.508847e-04 9.292205e-06 -2.048640e-04 -2.804494e-04 2.866183e-04 4.772736e-04 8.697728e-05 -2.123629e-04 -2.704210e-04 -3.921270e-04
 <VARIANCE> 39
  7.149455e+01 1.196288e+02 5.742240e+01 7.663301e+01 5.885408e+01 6.296805e+01 4.382628e+01 8.174570e+01 2.686992e+01 2.744434e+01 2.232103e+01 1.934550e+01 1.748994e+02 2.129516e+00 5.269697e+00 2.147465e+00 3.667007e+00 3.715539e+00 4.714362e+00 2.502816e+00 5.217442e+00 2.131735e+00 2.078578e+00 1.605602e+00 1.331829e+00 9.236430e+00 2.574784e-01 7.862495e-01 3.457016e-01 5.378243e-01 6.179910e-01 8.149800e-01 4.544820e-01 8.874859e-01 4.167475e-01 4.032685e-01 3.159490e-01 2.661299e-01 1.392896e+00
 <GCONST> 1.289420e+02
 <TRANSP> 5
  0.000000e+00 1.000000e+00 0.000000e+00 0.000000e+00 0.000000e+00
  0.000000e+00 6.000000e-01 4.000000e-01 0.000000e+00 0.000000e+00
  0.000000e+00 0.000000e+00 6.000000e-01 4.000000e-01 0.000000e+00
  0.000000e+00 0.000000e+00 0.000000e+00 7.000000e-01 3.000000e-01
  0.000000e+00 0.000000e+00 0.000000e+00 0.000000e+00 0.000000e+00
 <ENDHMM>

