~o
 <STREAMINFO> 1 39
 <VECSIZE> 39<NULLD><MFCC_D_A_0><DIAGC>
 ~h "k"
 <BEGINHMM>
 <NUMSTATES> 5
 <STATE> 2
 <MEAN> 39
  -1.486236e+01 -3.482780e+00 -2.920000e+00 3.712650e+00 -2.524025e+00 7.245508e+00 -4.050620e+00 7.663074e-01 -3.860234e+00 -8.989671e-01 -2.382149e+00 -2.626121e+00 5.608528e+01 3.297227e-02 -1.698172e-02 7.045545e-03 1.307495e-02 -4.579192e-03 -3.776106e-03 1.491289e-02 2.546913e-03 -7.835979e-03 -6.115390e-04 1.736506e-03 -6.142430e-04 3.335786e-02 -2.450991e-04 -3.205676e-05 -2.684284e-04 1.361491e-04 1.953853e-04 -4.142813e-05 -3.127670e-04 1.749988e-04 3.958000e-04 1.535555e-04 -5.677780e-05 -1.960175e-04 -3.795738e-04
 <VARIANCE> 39
  6.976801e+01 1.170587e+02 5.746553e+01 7.520273e+01 5.795890e+01 6.092111e+01 4.196301e+01 8.024960e+01 2.624630e+01 2.716212e+01 2.157945e+01 1.880875e+01 1.763276e+02 2.079463e+00 5.146081e+00 2.128283e+00 3.613163e+00 3.653900e+00 4.596725e+00 2.442518e+00 5.193614e+00 2.132948e+00 2.060330e+00 1.579817e+00 1.342354e+00 9.232665e+00 2.523404e-01 7.678452e-01 3.414398e-01 5.288763e-01 6.088242e-01 7.956098e-01 4.452554e-01 8.903643e-01 4.188589e-01 4.004099e-01 3.111446e-01 2.697225e-01 1.390271e+00
 <GCONST> 1.283854e+02
 <STATE> 3
 <MEAN> 39
  -1.486236e+01 -3.482780e+00 -2.920000e+00 3.712650e+00 -2.524025e+00 7.245508e+00 -4.050620e+00 7.663074e-01 -3.860234e+00 -8.989671e-01 -2.382149e+00 -2.626121e+00 5.608528e+01 3.297227e-02 -1.698172e-02 7.045545e-03 1.307495e-02 -4.579192e-03 -3.776106e-03 1.491289e-02 2.546913e-03 -7.835979e-03 -6.115390e-04 1.736506e-03 -6.142430e-04 3.335786e-02 -2.450991e-04 -3.205676e-05 -2.684284e-04 1.361491e-04 1.953853e-04 -4.142813e-05 -3.127670e-04 1.749988e-04 3.958000e-04 1.535555e-04 -5.677780e-05 -1.960175e-04 -3.795738e-04
 <VARIANCE> 39
  6.976801e+01 1.170587e+02 5.746553e+01 7.520273e+01 5.795890e+01 6.092111e+01 4.196301e+01 8.024960e+01 2.624630e+01 2.716212e+01 2.157945e+01 1.880875e+01 1.763276e+02 2.079463e+00 5.146081e+00 2.128283e+00 3.613163e+00 3.653900e+00 4.596725e+00 2.442518e+00 5.193614e+00 2.132948e+00 2.060330e+00 1.579817e+00 1.342354e+00 9.232665e+00 2.523404e-01 7.678452e-01 3.414398e-01 5.288763e-01 6.088242e-01 7.956098e-01 4.452554e-01 8.903643e-01 4.188589e-01 4.004099e-01 3.111446e-01 2.697225e-01 1.390271e+00
 <GCONST> 1.283854e+02
 <STATE> 4
 <MEAN> 39
  -1.486236e+01 -3.482780e+00 -2.920000e+00 3.712650e+00 -2.524025e+00 7.245508e+00 -4.050620e+00 7.663074e-01 -3.860234e+00 -8.989671e-01 -2.382149e+00 -2.626121e+00 5.608528e+01 3.297227e-02 -1.698172e-02 7.045545e-03 1.307495e-02 -4.579192e-03 -3.776106e-03 1.491289e-02 2.546913e-03 -7.835979e-03 -6.115390e-04 1.736506e-03 -6.142430e-04 3.335786e-02 -2.450991e-04 -3.205676e-05 -2.684284e-04 1.361491e-04 1.953853e-04 -4.142813e-05 -3.127670e-04 1.749988e-04 3.958000e-04 1.535555e-04 -5.677780e-05 -1.960175e-04 -3.795738e-04
 <VARIANCE> 39
  6.976801e+01 1.170587e+02 5.746553e+01 7.520273e+01 5.795890e+01 6.092111e+01 4.196301e+01 8.024960e+01 2.624630e+01 2.716212e+01 2.157945e+01 1.880875e+01 1.763276e+02 2.079463e+00 5.146081e+00 2.128283e+00 3.613163e+00 3.653900e+00 4.596725e+00 2.442518e+00 5.193614e+00 2.132948e+00 2.060330e+00 1.579817e+00 1.342354e+00 9.232665e+00 2.523404e-01 7.678452e-01 3.414398e-01 5.288763e-01 6.088242e-01 7.956098e-01 4.452554e-01 8.903643e-01 4.188589e-01 4.004099e-01 3.111446e-01 2.697225e-01 1.390271e+00
 <GCONST> 1.283854e+02
 <TRANSP> 5
  0.000000e+00 1.000000e+00 0.000000e+00 0.000000e+00 0.000000e+00
  0.000000e+00 6.000000e-01 4.000000e-01 0.000000e+00 0.000000e+00
  0.000000e+00 0.000000e+00 6.000000e-01 4.000000e-01 0.000000e+00
  0.000000e+00 0.000000e+00 0.000000e+00 7.000000e-01 3.000000e-01
  0.000000e+00 0.000000e+00 0.000000e+00 0.000000e+00 0.000000e+00
 <ENDHMM>

~o
 <STREAMINFO> 1 39
 <VECSIZE> 39<NULLD><MFCC_D_A_0><DIAGC>
 ~h "sil"
 <BEGINHMM>
 <NUMSTATES> 5
 <STATE> 2
 <MEAN> 39
  -1.486236e+01 -3.482780e+00 -2.920000e+00 3.712650e+00 -2.524025e+00 7.245508e+00 -4.050620e+00 7.663074e-01 -3.860234e+00 -8.989671e-01 -2.382149e+00 -2.626121e+00 5.608528e+01 3.297227e-02 -1.698172e-02 7.045545e-03 1.307495e-02 -4.579192e-03 -3.776106e-03 1.491289e-02 2.546913e-03 -7.835979e-03 -6.115390e-04 1.736506e-03 -6.142430e-04 3.335786e-02 -2.450991e-04 -3.205676e-05 -2.684284e-04 1.361491e-04 1.953853e-04 -4.142813e-05 -3.127670e-04 1.749988e-04 3.958000e-04 1.535555e-04 -5.677780e-05 -1.960175e-04 -3.795738e-04
 <VARIANCE> 39
  6.976801e+01 1.170587e+02 5.746553e+01 7.520273e+01 5.795890e+01 6.092111e+01 4.196301e+01 8.024960e+01 2.624630e+01 2.716212e+01 2.157945e+01 1.880875e+01 1.763276e+02 2.079463e+00 5.146081e+00 2.128283e+00 3.613163e+00 3.653900e+00 4.596725e+00 2.442518e+00 5.193614e+00 2.132948e+00 2.060330e+00 1.579817e+00 1.342354e+00 9.232665e+00 2.523404e-01 7.678452e-01 3.414398e-01 5.288763e-01 6.088242e-01 7.956098e-01 4.452554e-01 8.903643e-01 4.188589e-01 4.004099e-01 3.111446e-01 2.697225e-01 1.390271e+00
 <GCONST> 1.283854e+02
 <STATE> 3
 <MEAN> 39
  -1.486236e+01 -3.482780e+00 -2.920000e+00 3.712650e+00 -2.524025e+00 7.245508e+00 -4.050620e+00 7.663074e-01 -3.860234e+00 -8.989671e-01 -2.382149e+00 -2.626121e+00 5.608528e+01 3.297227e-02 -1.698172e-02 7.045545e-03 1.307495e-02 -4.579192e-03 -3.776106e-03 1.491289e-02 2.546913e-03 -7.835979e-03 -6.115390e-04 1.736506e-03 -6.142430e-04 3.335786e-02 -2.450991e-04 -3.205676e-05 -2.684284e-04 1.361491e-04 1.953853e-04 -4.142813e-05 -3.127670e-04 1.749988e-04 3.958000e-04 1.535555e-04 -5.677780e-05 -1.960175e-04 -3.795738e-04
 <VARIANCE> 39
  6.976801e+01 1.170587e+02 5.746553e+01 7.520273e+01 5.795890e+01 6.092111e+01 4.196301e+01 8.024960e+01 2.624630e+01 2.716212e+01 2.157945e+01 1.880875e+01 1.763276e+02 2.079463e+00 5.146081e+00 2.128283e+00 3.613163e+00 3.653900e+00 4.596725e+00 2.442518e+00 5.193614e+00 2.132948e+00 2.060330e+00 1.579817e+00 1.342354e+00 9.232665e+00 2.523404e-01 7.678452e-01 3.414398e-01 5.288763e-01 6.088242e-01 7.956098e-01 4.452554e-01 8.903643e-01 4.188589e-01 4.004099e-01 3.111446e-01 2.697225e-01 1.390271e+00
 <GCONST> 1.283854e+02
 <STATE> 4
 <MEAN> 39
  -1.486236e+01 -3.482780e+00 -2.920000e+00 3.712650e+00 -2.524025e+00 7.245508e+00 -4.050620e+00 7.663074e-01 -3.860234e+00 -8.989671e-01 -2.382149e+00 -2.626121e+00 5.608528e+01 3.297227e-02 -1.698172e-02 7.045545e-03 1.307495e-02 -4.579192e-03 -3.776106e-03 1.491289e-02 2.546913e-03 -7.835979e-03 -6.115390e-04 1.736506e-03 -6.142430e-04 3.335786e-02 -2.450991e-04 -3.205676e-05 -2.684284e-04 1.361491e-04 1.953853e-04 -4.142813e-05 -3.127670e-04 1.749988e-04 3.958000e-04 1.535555e-04 -5.677780e-05 -1.960175e-04 -3.795738e-04
 <VARIANCE> 39
  6.976801e+01 1.170587e+02 5.746553e+01 7.520273e+01 5.795890e+01 6.092111e+01 4.196301e+01 8.024960e+01 2.624630e+01 2.716212e+01 2.157945e+01 1.880875e+01 1.763276e+02 2.079463e+00 5.146081e+00 2.128283e+00 3.613163e+00 3.653900e+00 4.596725e+00 2.442518e+00 5.193614e+00 2.132948e+00 2.060330e+00 1.579817e+00 1.342354e+00 9.232665e+00 2.523404e-01 7.678452e-01 3.414398e-01 5.288763e-01 6.088242e-01 7.956098e-01 4.452554e-01 8.903643e-01 4.188589e-01 4.004099e-01 3.111446e-01 2.697225e-01 1.390271e+00
 <GCONST> 1.283854e+02
 <TRANSP> 5
  0.000000e+00 1.000000e+00 0.000000e+00 0.000000e+00 0.000000e+00
  0.000000e+00 6.000000e-01 4.000000e-01 0.000000e+00 0.000000e+00
  0.000000e+00 0.000000e+00 6.000000e-01 4.000000e-01 0.000000e+00
  0.000000e+00 0.000000e+00 0.000000e+00 7.000000e-01 3.000000e-01
  0.000000e+00 0.000000e+00 0.000000e+00 0.000000e+00 0.000000e+00
 <ENDHMM>

~o
 <STREAMINFO> 1 39
 <VECSIZE> 39<NULLD><MFCC_D_A_0><DIAGC>
 ~h "p"
 <BEGINHMM>
 <NUMSTATES> 5
 <STATE> 2
 <MEAN> 39
  -1.486236e+01 -3.482780e+00 -2.920000e+00 3.712650e+00 -2.524025e+00 7.245508e+00 -4.050620e+00 7.663074e-01 -3.860234e+00 -8.989671e-01 -2.382149e+00 -2.626121e+00 5.608528e+01 3.297227e-02 -1.698172e-02 7.045545e-03 1.307495e-02 -4.579192e-03 -3.776106e-03 1.491289e-02 2.546913e-03 -7.835979e-03 -6.115390e-04 1.736506e-03 -6.142430e-04 3.335786e-02 -2.450991e-04 -3.205676e-05 -2.684284e-04 1.361491e-04 1.953853e-04 -4.142813e-05 -3.127670e-04 1.749988e-04 3.958000e-04 1.535555e-04 -5.677780e-05 -1.960175e-04 -3.795738e-04
 <VARIANCE> 39
  6.976801e+01 1.170587e+02 5.746553e+01 7.520273e+01 5.795890e+01 6.092111e+01 4.196301e+01 8.024960e+01 2.624630e+01 2.716212e+01 2.157945e+01 1.880875e+01 1.763276e+02 2.079463e+00 5.146081e+00 2.128283e+00 3.613163e+00 3.653900e+00 4.596725e+00 2.442518e+00 5.193614e+00 2.132948e+00 2.060330e+00 1.579817e+00 1.342354e+00 9.232665e+00 2.523404e-01 7.678452e-01 3.414398e-01 5.288763e-01 6.088242e-01 7.956098e-01 4.452554e-01 8.903643e-01 4.188589e-01 4.004099e-01 3.111446e-01 2.697225e-01 1.390271e+00
 <GCONST> 1.283854e+02
 <STATE> 3
 <MEAN> 39
  -1.486236e+01 -3.482780e+00 -2.920000e+00 3.712650e+00 -2.524025e+00 7.245508e+00 -4.050620e+00 7.663074e-01 -3.860234e+00 -8.989671e-01 -2.382149e+00 -2.626121e+00 5.608528e+01 3.297227e-02 -1.698172e-02 7.045545e-03 1.307495e-02 -4.579192e-03 -3.776106e-03 1.491289e-02 2.546913e-03 -7.835979e-03 -6.115390e-04 1.736506e-03 -6.142430e-04 3.335786e-02 -2.450991e-04 -3.205676e-05 -2.684284e-04 1.361491e-04 1.953853e-04 -4.142813e-05 -3.127670e-04 1.749988e-04 3.958000e-04 1.535555e-04 -5.677780e-05 -1.960175e-04 -3.795738e-04
 <VARIANCE> 39
  6.976801e+01 1.170587e+02 5.746553e+01 7.520273e+01 5.795890e+01 6.092111e+01 4.196301e+01 8.024960e+01 2.624630e+01 2.716212e+01 2.157945e+01 1.880875e+01 1.763276e+02 2.079463e+00 5.146081e+00 2.128283e+00 3.613163e+00 3.653900e+00 4.596725e+00 2.442518e+00 5.193614e+00 2.132948e+00 2.060330e+00 1.579817e+00 1.342354e+00 9.232665e+00 2.523404e-01 7.678452e-01 3.414398e-01 5.288763e-01 6.088242e-01 7.956098e-01 4.452554e-01 8.903643e-01 4.188589e-01 4.004099e-01 3.111446e-01 2.697225e-01 1.390271e+00
 <GCONST> 1.283854e+02
 <STATE> 4
 <MEAN> 39
  -1.486236e+01 -3.482780e+00 -2.920000e+00 3.712650e+00 -2.524025e+00 7.245508e+00 -4.050620e+00 7.663074e-01 -3.860234e+00 -8.989671e-01 -2.382149e+00 -2.626121e+00 5.608528e+01 3.297227e-02 -1.698172e-02 7.045545e-03 1.307495e-02 -4.579192e-03 -3.776106e-03 1.491289e-02 2.546913e-03 -7.835979e-03 -6.115390e-04 1.736506e-03 -6.142430e-04 3.335786e-02 -2.450991e-04 -3.205676e-05 -2.684284e-04 1.361491e-04 1.953853e-04 -4.142813e-05 -3.127670e-04 1.749988e-04 3.958000e-04 1.535555e-04 -5.677780e-05 -1.960175e-04 -3.795738e-04
 <VARIANCE> 39
  6.976801e+01 1.170587e+02 5.746553e+01 7.520273e+01 5.795890e+01 6.092111e+01 4.196301e+01 8.024960e+01 2.624630e+01 2.716212e+01 2.157945e+01 1.880875e+01 1.763276e+02 2.079463e+00 5.146081e+00 2.128283e+00 3.613163e+00 3.653900e+00 4.596725e+00 2.442518e+00 5.193614e+00 2.132948e+00 2.060330e+00 1.579817e+00 1.342354e+00 9.232665e+00 2.523404e-01 7.678452e-01 3.414398e-01 5.288763e-01 6.088242e-01 7.956098e-01 4.452554e-01 8.903643e-01 4.188589e-01 4.004099e-01 3.111446e-01 2.697225e-01 1.390271e+00
 <GCONST> 1.283854e+02
 <TRANSP> 5
  0.000000e+00 1.000000e+00 0.000000e+00 0.000000e+00 0.000000e+00
  0.000000e+00 6.000000e-01 4.000000e-01 0.000000e+00 0.000000e+00
  0.000000e+00 0.000000e+00 6.000000e-01 4.000000e-01 0.000000e+00
  0.000000e+00 0.000000e+00 0.000000e+00 7.000000e-01 3.000000e-01
  0.000000e+00 0.000000e+00 0.000000e+00 0.000000e+00 0.000000e+00
 <ENDHMM>

~o
 <STREAMINFO> 1 39
 <VECSIZE> 39<NULLD><MFCC_D_A_0><DIAGC>
 ~h "s"
 <BEGINHMM>
 <NUMSTATES> 5
 <STATE> 2
 <MEAN> 39
  -1.486236e+01 -3.482780e+00 -2.920000e+00 3.712650e+00 -2.524025e+00 7.245508e+00 -4.050620e+00 7.663074e-01 -3.860234e+00 -8.989671e-01 -2.382149e+00 -2.626121e+00 5.608528e+01 3.297227e-02 -1.698172e-02 7.045545e-03 1.307495e-02 -4.579192e-03 -3.776106e-03 1.491289e-02 2.546913e-03 -7.835979e-03 -6.115390e-04 1.736506e-03 -6.142430e-04 3.335786e-02 -2.450991e-04 -3.205676e-05 -2.684284e-04 1.361491e-04 1.953853e-04 -4.142813e-05 -3.127670e-04 1.749988e-04 3.958000e-04 1.535555e-04 -5.677780e-05 -1.960175e-04 -3.795738e-04
 <VARIANCE> 39
  6.976801e+01 1.170587e+02 5.746553e+01 7.520273e+01 5.795890e+01 6.092111e+01 4.196301e+01 8.024960e+01 2.624630e+01 2.716212e+01 2.157945e+01 1.880875e+01 1.763276e+02 2.079463e+00 5.146081e+00 2.128283e+00 3.613163e+00 3.653900e+00 4.596725e+00 2.442518e+00 5.193614e+00 2.132948e+00 2.060330e+00 1.579817e+00 1.342354e+00 9.232665e+00 2.523404e-01 7.678452e-01 3.414398e-01 5.288763e-01 6.088242e-01 7.956098e-01 4.452554e-01 8.903643e-01 4.188589e-01 4.004099e-01 3.111446e-01 2.697225e-01 1.390271e+00
 <GCONST> 1.283854e+02
 <STATE> 3
 <MEAN> 39
  -1.486236e+01 -3.482780e+00 -2.920000e+00 3.712650e+00 -2.524025e+00 7.245508e+00 -4.050620e+00 7.663074e-01 -3.860234e+00 -8.989671e-01 -2.382149e+00 -2.626121e+00 5.608528e+01 3.297227e-02 -1.698172e-02 7.045545e-03 1.307495e-02 -4.579192e-03 -3.776106e-03 1.491289e-02 2.546913e-03 -7.835979e-03 -6.115390e-04 1.736506e-03 -6.142430e-04 3.335786e-02 -2.450991e-04 -3.205676e-05 -2.684284e-04 1.361491e-04 1.953853e-04 -4.142813e-05 -3.127670e-04 1.749988e-04 3.958000e-04 1.535555e-04 -5.677780e-05 -1.960175e-04 -3.795738e-04
 <VARIANCE> 39
  6.976801e+01 1.170587e+02 5.746553e+01 7.520273e+01 5.795890e+01 6.092111e+01 4.196301e+01 8.024960e+01 2.624630e+01 2.716212e+01 2.157945e+01 1.880875e+01 1.763276e+02 2.079463e+00 5.146081e+00 2.128283e+00 3.613163e+00 3.653900e+00 4.596725e+00 2.442518e+00 5.193614e+00 2.132948e+00 2.060330e+00 1.579817e+00 1.342354e+00 9.232665e+00 2.523404e-01 7.678452e-01 3.414398e-01 5.288763e-01 6.088242e-01 7.956098e-01 4.452554e-01 8.903643e-01 4.188589e-01 4.004099e-01 3.111446e-01 2.697225e-01 1.390271e+00
 <GCONST> 1.283854e+02
 <STATE> 4
 <MEAN> 39
  -1.486236e+01 -3.482780e+00 -2.920000e+00 3.712650e+00 -2.524025e+00 7.245508e+00 -4.050620e+00 7.663074e-01 -3.860234e+00 -8.989671e-01 -2.382149e+00 -2.626121e+00 5.608528e+01 3.297227e-02 -1.698172e-02 7.045545e-03 1.307495e-02 -4.579192e-03 -3.776106e-03 1.491289e-02 2.546913e-03 -7.835979e-03 -6.115390e-04 1.736506e-03 -6.142430e-04 3.335786e-02 -2.450991e-04 -3.205676e-05 -2.684284e-04 1.361491e-04 1.953853e-04 -4.142813e-05 -3.127670e-04 1.749988e-04 3.958000e-04 1.535555e-04 -5.677780e-05 -1.960175e-04 -3.795738e-04
 <VARIANCE> 39
  6.976801e+01 1.170587e+02 5.746553e+01 7.520273e+01 5.795890e+01 6.092111e+01 4.196301e+01 8.024960e+01 2.624630e+01 2.716212e+01 2.157945e+01 1.880875e+01 1.763276e+02 2.079463e+00 5.146081e+00 2.128283e+00 3.613163e+00 3.653900e+00 4.596725e+00 2.442518e+00 5.193614e+00 2.132948e+00 2.060330e+00 1.579817e+00 1.342354e+00 9.232665e+00 2.523404e-01 7.678452e-01 3.414398e-01 5.288763e-01 6.088242e-01 7.956098e-01 4.452554e-01 8.903643e-01 4.188589e-01 4.004099e-01 3.111446e-01 2.697225e-01 1.390271e+00
 <GCONST> 1.283854e+02
 <TRANSP> 5
  0.000000e+00 1.000000e+00 0.000000e+00 0.000000e+00 0.000000e+00
  0.000000e+00 6.000000e-01 4.000000e-01 0.000000e+00 0.000000e+00
  0.000000e+00 0.000000e+00 6.000000e-01 4.000000e-01 0.000000e+00
  0.000000e+00 0.000000e+00 0.000000e+00 7.000000e-01 3.000000e-01
  0.000000e+00 0.000000e+00 0.000000e+00 0.000000e+00 0.000000e+00
 <ENDHMM>

