~o
 <STREAMINFO> 1 39
 <VECSIZE> 39<NULLD><MFCC_D_A_0><DIAGC>
 ~h "k"
 <BEGINHMM>
 <NUMSTATES> 5
 <STATE> 2
 <MEAN> 39
  -1.580666e+01 -4.193466e+00 -8.518526e-01 4.118319e+00 -1.162740e+00 8.015840e+00 -2.708407e+00 2.518438e-01 -4.345482e+00 -1.371441e+00 -2.870318e+00 -2.586629e+00 5.689100e+01 4.722724e-02 -2.559234e-02 1.125011e-02 1.923606e-02 -5.967408e-03 -4.413370e-03 2.318910e-02 3.919681e-03 -1.104888e-02 -4.097891e-04 1.965719e-03 -1.069465e-03 4.869307e-02 -2.056110e-04 4.129851e-05 -5.083027e-04 8.248675e-05 3.907219e-05 -1.690340e-04 -4.210776e-04 2.910530e-04 7.644233e-04 8.170104e-05 -2.678462e-04 -4.513619e-04 -5.000994e-04
 <VARIANCE> 39
  6.871271e+01 1.277664e+02 4.896864e+01 8.996841e+01 5.362401e+01 6.815257e+01 4.357068e+01 8.854459e+01 2.863259e+01 2.807313e+01 2.402813e+01 2.094026e+01 1.874287e+02 1.927863e+00 5.392412e+00 1.903137e+00 4.099472e+00 3.375083e+00 4.967104e+00 2.597207e+00 5.410985e+00 2.217870e+00 2.007304e+00 1.607911e+00 1.332739e+00 9.558169e+00 2.277763e-01 7.888622e-01 3.066100e-01 5.815858e-01 5.570214e-01 8.366016e-01 4.688723e-01 9.075248e-01 4.272888e-01 3.820036e-01 3.104396e-01 2.644151e-01 1.396893e+00
 <GCONST> 1.290870e+02
 <STATE> 3
 <MEAN> 39
  -1.580666e+01 -4.193466e+00 -8.518526e-01 4.118319e+00 -1.162740e+00 8.015840e+00 -2.708407e+00 2.518438e-01 -4.345482e+00 -1.371441e+00 -2.870318e+00 -2.586629e+00 5.689100e+01 4.722724e-02 -2.559234e-02 1.125011e-02 1.923606e-02 -5.967408e-03 -4.413370e-03 2.318910e-02 3.919681e-03 -1.104888e-02 -4.097891e-04 1.965719e-03 -1.069465e-03 4.869307e-02 -2.056110e-04 4.129851e-05 -5.083027e-04 8.248675e-05 3.907219e-05 -1.690340e-04 -4.210776e-04 2.910530e-04 7.644233e-04 8.170104e-05 -2.678462e-04 -4.513619e-04 -5.000994e-04
 <VARIANCE> 39
  6.871271e+01 1.277664e+02 4.896864e+01 8.996841e+01 5.362401e+01 6.815257e+01 4.357068e+01 8.854459e+01 2.863259e+01 2.807313e+01 2.402813e+01 2.094026e+01 1.874287e+02 1.927863e+00 5.392412e+00 1.903137e+00 4.099472e+00 3.375083e+00 4.967104e+00 2.597207e+00 5.410985e+00 2.217870e+00 2.007304e+00 1.607911e+00 1.332739e+00 9.558169e+00 2.277763e-01 7.888622e-01 3.066100e-01 5.815858e-01 5.570214e-01 8.366016e-01 4.688723e-01 9.075248e-01 4.272888e-01 3.820036e-01 3.104396e-01 2.644151e-01 1.396893e+00
 <GCONST> 1.290870e+02
 <STATE> 4
 <MEAN> 39
  -1.580666e+01 -4.193466e+00 -8.518526e-01 4.118319e+00 -1.162740e+00 8.015840e+00 -2.708407e+00 2.518438e-01 -4.345482e+00 -1.371441e+00 -2.870318e+00 -2.586629e+00 5.689100e+01 4.722724e-02 -2.559234e-02 1.125011e-02 1.923606e-02 -5.967408e-03 -4.413370e-03 2.318910e-02 3.919681e-03 -1.104888e-02 -4.097891e-04 1.965719e-03 -1.069465e-03 4.869307e-02 -2.056110e-04 4.129851e-05 -5.083027e-04 8.248675e-05 3.907219e-05 -1.690340e-04 -4.210776e-04 2.910530e-04 7.644233e-04 8.170104e-05 -2.678462e-04 -4.513619e-04 -5.000994e-04
 <VARIANCE> 39
  6.871271e+01 1.277664e+02 4.896864e+01 8.996841e+01 5.362401e+01 6.815257e+01 4.357068e+01 8.854459e+01 2.863259e+01 2.807313e+01 2.402813e+01 2.094026e+01 1.874287e+02 1.927863e+00 5.392412e+00 1.903137e+00 4.099472e+00 3.375083e+00 4.967104e+00 2.597207e+00 5.410985e+00 2.217870e+00 2.007304e+00 1.607911e+00 1.332739e+00 9.558169e+00 2.277763e-01 7.888622e-01 3.066100e-01 5.815858e-01 5.570214e-01 8.366016e-01 4.688723e-01 9.075248e-01 4.272888e-01 3.820036e-01 3.104396e-01 2.644151e-01 1.396893e+00
 <GCONST> 1.290870e+02
 <TRANSP> 5
  0.000000e+00 1.000000e+00 0.000000e+00 0.000000e+00 0.000000e+00
  0.000000e+00 6.000000e-01 4.000000e-01 0.000000e+00 0.000000e+00
  0.000000e+00 0.000000e+00 6.000000e-01 4.000000e-01 0.000000e+00
  0.000000e+00 0.000000e+00 0.000000e+00 7.000000e-01 3.000000e-01
  0.000000e+00 0.000000e+00 0.000000e+00 0.000000e+00 0.000000e+00
 <ENDHMM>

~o
 <STREAMINFO> 1 39
 <VECSIZE> 39<NULLD><MFCC_D_A_0><DIAGC>
 ~h "sil"
 <BEGINHMM>
 <NUMSTATES> 5
 <STATE> 2
 <MEAN> 39
  -1.580666e+01 -4.193466e+00 -8.518526e-01 4.118319e+00 -1.162740e+00 8.015840e+00 -2.708407e+00 2.518438e-01 -4.345482e+00 -1.371441e+00 -2.870318e+00 -2.586629e+00 5.689100e+01 4.722724e-02 -2.559234e-02 1.125011e-02 1.923606e-02 -5.967408e-03 -4.413370e-03 2.318910e-02 3.919681e-03 -1.104888e-02 -4.097891e-04 1.965719e-03 -1.069465e-03 4.869307e-02 -2.056110e-04 4.129851e-05 -5.083027e-04 8.248675e-05 3.907219e-05 -1.690340e-04 -4.210776e-04 2.910530e-04 7.644233e-04 8.170104e-05 -2.678462e-04 -4.513619e-04 -5.000994e-04
 <VARIANCE> 39
  6.871271e+01 1.277664e+02 4.896864e+01 8.996841e+01 5.362401e+01 6.815257e+01 4.357068e+01 8.854459e+01 2.863259e+01 2.807313e+01 2.402813e+01 2.094026e+01 1.874287e+02 1.927863e+00 5.392412e+00 1.903137e+00 4.099472e+00 3.375083e+00 4.967104e+00 2.597207e+00 5.410985e+00 2.217870e+00 2.007304e+00 1.607911e+00 1.332739e+00 9.558169e+00 2.277763e-01 7.888622e-01 3.066100e-01 5.815858e-01 5.570214e-01 8.366016e-01 4.688723e-01 9.075248e-01 4.272888e-01 3.820036e-01 3.104396e-01 2.644151e-01 1.396893e+00
 <GCONST> 1.290870e+02
 <STATE> 3
 <MEAN> 39
  -1.580666e+01 -4.193466e+00 -8.518526e-01 4.118319e+00 -1.162740e+00 8.015840e+00 -2.708407e+00 2.518438e-01 -4.345482e+00 -1.371441e+00 -2.870318e+00 -2.586629e+00 5.689100e+01 4.722724e-02 -2.559234e-02 1.125011e-02 1.923606e-02 -5.967408e-03 -4.413370e-03 2.318910e-02 3.919681e-03 -1.104888e-02 -4.097891e-04 1.965719e-03 -1.069465e-03 4.869307e-02 -2.056110e-04 4.129851e-05 -5.083027e-04 8.248675e-05 3.907219e-05 -1.690340e-04 -4.210776e-04 2.910530e-04 7.644233e-04 8.170104e-05 -2.678462e-04 -4.513619e-04 -5.000994e-04
 <VARIANCE> 39
  6.871271e+01 1.277664e+02 4.896864e+01 8.996841e+01 5.362401e+01 6.815257e+01 4.357068e+01 8.854459e+01 2.863259e+01 2.807313e+01 2.402813e+01 2.094026e+01 1.874287e+02 1.927863e+00 5.392412e+00 1.903137e+00 4.099472e+00 3.375083e+00 4.967104e+00 2.597207e+00 5.410985e+00 2.217870e+00 2.007304e+00 1.607911e+00 1.332739e+00 9.558169e+00 2.277763e-01 7.888622e-01 3.066100e-01 5.815858e-01 5.570214e-01 8.366016e-01 4.688723e-01 9.075248e-01 4.272888e-01 3.820036e-01 3.104396e-01 2.644151e-01 1.396893e+00
 <GCONST> 1.290870e+02
 <STATE> 4
 <MEAN> 39
  -1.580666e+01 -4.193466e+00 -8.518526e-01 4.118319e+00 -1.162740e+00 8.015840e+00 -2.708407e+00 2.518438e-01 -4.345482e+00 -1.371441e+00 -2.870318e+00 -2.586629e+00 5.689100e+01 4.722724e-02 -2.559234e-02 1.125011e-02 1.923606e-02 -5.967408e-03 -4.413370e-03 2.318910e-02 3.919681e-03 -1.104888e-02 -4.097891e-04 1.965719e-03 -1.069465e-03 4.869307e-02 -2.056110e-04 4.129851e-05 -5.083027e-04 8.248675e-05 3.907219e-05 -1.690340e-04 -4.210776e-04 2.910530e-04 7.644233e-04 8.170104e-05 -2.678462e-04 -4.513619e-04 -5.000994e-04
 <VARIANCE> 39
  6.871271e+01 1.277664e+02 4.896864e+01 8.996841e+01 5.362401e+01 6.815257e+01 4.357068e+01 8.854459e+01 2.863259e+01 2.807313e+01 2.402813e+01 2.094026e+01 1.874287e+02 1.927863e+00 5.392412e+00 1.903137e+00 4.099472e+00 3.375083e+00 4.967104e+00 2.597207e+00 5.410985e+00 2.217870e+00 2.007304e+00 1.607911e+00 1.332739e+00 9.558169e+00 2.277763e-01 7.888622e-01 3.066100e-01 5.815858e-01 5.570214e-01 8.366016e-01 4.688723e-01 9.075248e-01 4.272888e-01 3.820036e-01 3.104396e-01 2.644151e-01 1.396893e+00
 <GCONST> 1.290870e+02
 <TRANSP> 5
  0.000000e+00 1.000000e+00 0.000000e+00 0.000000e+00 0.000000e+00
  0.000000e+00 6.000000e-01 4.000000e-01 0.000000e+00 0.000000e+00
  0.000000e+00 0.000000e+00 6.000000e-01 4.000000e-01 0.000000e+00
  0.000000e+00 0.000000e+00 0.000000e+00 7.000000e-01 3.000000e-01
  0.000000e+00 0.000000e+00 0.000000e+00 0.000000e+00 0.000000e+00
 <ENDHMM>

~o
 <STREAMINFO> 1 39
 <VECSIZE> 39<NULLD><MFCC_D_A_0><DIAGC>
 ~h "p"
 <BEGINHMM>
 <NUMSTATES> 5
 <STATE> 2
 <MEAN> 39
  -1.580666e+01 -4.193466e+00 -8.518526e-01 4.118319e+00 -1.162740e+00 8.015840e+00 -2.708407e+00 2.518438e-01 -4.345482e+00 -1.371441e+00 -2.870318e+00 -2.586629e+00 5.689100e+01 4.722724e-02 -2.559234e-02 1.125011e-02 1.923606e-02 -5.967408e-03 -4.413370e-03 2.318910e-02 3.919681e-03 -1.104888e-02 -4.097891e-04 1.965719e-03 -1.069465e-03 4.869307e-02 -2.056110e-04 4.129851e-05 -5.083027e-04 8.248675e-05 3.907219e-05 -1.690340e-04 -4.210776e-04 2.910530e-04 7.644233e-04 8.170104e-05 -2.678462e-04 -4.513619e-04 -5.000994e-04
 <VARIANCE> 39
  6.871271e+01 1.277664e+02 4.896864e+01 8.996841e+01 5.362401e+01 6.815257e+01 4.357068e+01 8.854459e+01 2.863259e+01 2.807313e+01 2.402813e+01 2.094026e+01 1.874287e+02 1.927863e+00 5.392412e+00 1.903137e+00 4.099472e+00 3.375083e+00 4.967104e+00 2.597207e+00 5.410985e+00 2.217870e+00 2.007304e+00 1.607911e+00 1.332739e+00 9.558169e+00 2.277763e-01 7.888622e-01 3.066100e-01 5.815858e-01 5.570214e-01 8.366016e-01 4.688723e-01 9.075248e-01 4.272888e-01 3.820036e-01 3.104396e-01 2.644151e-01 1.396893e+00
 <GCONST> 1.290870e+02
 <STATE> 3
 <MEAN> 39
  -1.580666e+01 -4.193466e+00 -8.518526e-01 4.118319e+00 -1.162740e+00 8.015840e+00 -2.708407e+00 2.518438e-01 -4.345482e+00 -1.371441e+00 -2.870318e+00 -2.586629e+00 5.689100e+01 4.722724e-02 -2.559234e-02 1.125011e-02 1.923606e-02 -5.967408e-03 -4.413370e-03 2.318910e-02 3.919681e-03 -1.104888e-02 -4.097891e-04 1.965719e-03 -1.069465e-03 4.869307e-02 -2.056110e-04 4.129851e-05 -5.083027e-04 8.248675e-05 3.907219e-05 -1.690340e-04 -4.210776e-04 2.910530e-04 7.644233e-04 8.170104e-05 -2.678462e-04 -4.513619e-04 -5.000994e-04
 <VARIANCE> 39
  6.871271e+01 1.277664e+02 4.896864e+01 8.996841e+01 5.362401e+01 6.815257e+01 4.357068e+01 8.854459e+01 2.863259e+01 2.807313e+01 2.402813e+01 2.094026e+01 1.874287e+02 1.927863e+00 5.392412e+00 1.903137e+00 4.099472e+00 3.375083e+00 4.967104e+00 2.597207e+00 5.410985e+00 2.217870e+00 2.007304e+00 1.607911e+00 1.332739e+00 9.558169e+00 2.277763e-01 7.888622e-01 3.066100e-01 5.815858e-01 5.570214e-01 8.366016e-01 4.688723e-01 9.075248e-01 4.272888e-01 3.820036e-01 3.104396e-01 2.644151e-01 1.396893e+00
 <GCONST> 1.290870e+02
 <STATE> 4
 <MEAN> 39
  -1.580666e+01 -4.193466e+00 -8.518526e-01 4.118319e+00 -1.162740e+00 8.015840e+00 -2.708407e+00 2.518438e-01 -4.345482e+00 -1.371441e+00 -2.870318e+00 -2.586629e+00 5.689100e+01 4.722724e-02 -2.559234e-02 1.125011e-02 1.923606e-02 -5.967408e-03 -4.413370e-03 2.318910e-02 3.919681e-03 -1.104888e-02 -4.097891e-04 1.965719e-03 -1.069465e-03 4.869307e-02 -2.056110e-04 4.129851e-05 -5.083027e-04 8.248675e-05 3.907219e-05 -1.690340e-04 -4.210776e-04 2.910530e-04 7.644233e-04 8.170104e-05 -2.678462e-04 -4.513619e-04 -5.000994e-04
 <VARIANCE> 39
  6.871271e+01 1.277664e+02 4.896864e+01 8.996841e+01 5.362401e+01 6.815257e+01 4.357068e+01 8.854459e+01 2.863259e+01 2.807313e+01 2.402813e+01 2.094026e+01 1.874287e+02 1.927863e+00 5.392412e+00 1.903137e+00 4.099472e+00 3.375083e+00 4.967104e+00 2.597207e+00 5.410985e+00 2.217870e+00 2.007304e+00 1.607911e+00 1.332739e+00 9.558169e+00 2.277763e-01 7.888622e-01 3.066100e-01 5.815858e-01 5.570214e-01 8.366016e-01 4.688723e-01 9.075248e-01 4.272888e-01 3.820036e-01 3.104396e-01 2.644151e-01 1.396893e+00
 <GCONST> 1.290870e+02
 <TRANSP> 5
  0.000000e+00 1.000000e+00 0.000000e+00 0.000000e+00 0.000000e+00
  0.000000e+00 6.000000e-01 4.000000e-01 0.000000e+00 0.000000e+00
  0.000000e+00 0.000000e+00 6.000000e-01 4.000000e-01 0.000000e+00
  0.000000e+00 0.000000e+00 0.000000e+00 7.000000e-01 3.000000e-01
  0.000000e+00 0.000000e+00 0.000000e+00 0.000000e+00 0.000000e+00
 <ENDHMM>

~o
 <STREAMINFO> 1 39
 <VECSIZE> 39<NULLD><MFCC_D_A_0><DIAGC>
 ~h "s"
 <BEGINHMM>
 <NUMSTATES> 5
 <STATE> 2
 <MEAN> 39
  -1.580666e+01 -4.193466e+00 -8.518526e-01 4.118319e+00 -1.162740e+00 8.015840e+00 -2.708407e+00 2.518438e-01 -4.345482e+00 -1.371441e+00 -2.870318e+00 -2.586629e+00 5.689100e+01 4.722724e-02 -2.559234e-02 1.125011e-02 1.923606e-02 -5.967408e-03 -4.413370e-03 2.318910e-02 3.919681e-03 -1.104888e-02 -4.097891e-04 1.965719e-03 -1.069465e-03 4.869307e-02 -2.056110e-04 4.129851e-05 -5.083027e-04 8.248675e-05 3.907219e-05 -1.690340e-04 -4.210776e-04 2.910530e-04 7.644233e-04 8.170104e-05 -2.678462e-04 -4.513619e-04 -5.000994e-04
 <VARIANCE> 39
  6.871271e+01 1.277664e+02 4.896864e+01 8.996841e+01 5.362401e+01 6.815257e+01 4.357068e+01 8.854459e+01 2.863259e+01 2.807313e+01 2.402813e+01 2.094026e+01 1.874287e+02 1.927863e+00 5.392412e+00 1.903137e+00 4.099472e+00 3.375083e+00 4.967104e+00 2.597207e+00 5.410985e+00 2.217870e+00 2.007304e+00 1.607911e+00 1.332739e+00 9.558169e+00 2.277763e-01 7.888622e-01 3.066100e-01 5.815858e-01 5.570214e-01 8.366016e-01 4.688723e-01 9.075248e-01 4.272888e-01 3.820036e-01 3.104396e-01 2.644151e-01 1.396893e+00
 <GCONST> 1.290870e+02
 <STATE> 3
 <MEAN> 39
  -1.580666e+01 -4.193466e+00 -8.518526e-01 4.118319e+00 -1.162740e+00 8.015840e+00 -2.708407e+00 2.518438e-01 -4.345482e+00 -1.371441e+00 -2.870318e+00 -2.586629e+00 5.689100e+01 4.722724e-02 -2.559234e-02 1.125011e-02 1.923606e-02 -5.967408e-03 -4.413370e-03 2.318910e-02 3.919681e-03 -1.104888e-02 -4.097891e-04 1.965719e-03 -1.069465e-03 4.869307e-02 -2.056110e-04 4.129851e-05 -5.083027e-04 8.248675e-05 3.907219e-05 -1.690340e-04 -4.210776e-04 2.910530e-04 7.644233e-04 8.170104e-05 -2.678462e-04 -4.513619e-04 -5.000994e-04
 <VARIANCE> 39
  6.871271e+01 1.277664e+02 4.896864e+01 8.996841e+01 5.362401e+01 6.815257e+01 4.357068e+01 8.854459e+01 2.863259e+01 2.807313e+01 2.402813e+01 2.094026e+01 1.874287e+02 1.927863e+00 5.392412e+00 1.903137e+00 4.099472e+00 3.375083e+00 4.967104e+00 2.597207e+00 5.410985e+00 2.217870e+00 2.007304e+00 1.607911e+00 1.332739e+00 9.558169e+00 2.277763e-01 7.888622e-01 3.066100e-01 5.815858e-01 5.570214e-01 8.366016e-01 4.688723e-01 9.075248e-01 4.272888e-01 3.820036e-01 3.104396e-01 2.644151e-01 1.396893e+00
 <GCONST> 1.290870e+02
 <STATE> 4
 <MEAN> 39
  -1.580666e+01 -4.193466e+00 -8.518526e-01 4.118319e+00 -1.162740e+00 8.015840e+00 -2.708407e+00 2.518438e-01 -4.345482e+00 -1.371441e+00 -2.870318e+00 -2.586629e+00 5.689100e+01 4.722724e-02 -2.559234e-02 1.125011e-02 1.923606e-02 -5.967408e-03 -4.413370e-03 2.318910e-02 3.919681e-03 -1.104888e-02 -4.097891e-04 1.965719e-03 -1.069465e-03 4.869307e-02 -2.056110e-04 4.129851e-05 -5.083027e-04 8.248675e-05 3.907219e-05 -1.690340e-04 -4.210776e-04 2.910530e-04 7.644233e-04 8.170104e-05 -2.678462e-04 -4.513619e-04 -5.000994e-04
 <VARIANCE> 39
  6.871271e+01 1.277664e+02 4.896864e+01 8.996841e+01 5.362401e+01 6.815257e+01 4.357068e+01 8.854459e+01 2.863259e+01 2.807313e+01 2.402813e+01 2.094026e+01 1.874287e+02 1.927863e+00 5.392412e+00 1.903137e+00 4.099472e+00 3.375083e+00 4.967104e+00 2.597207e+00 5.410985e+00 2.217870e+00 2.007304e+00 1.607911e+00 1.332739e+00 9.558169e+00 2.277763e-01 7.888622e-01 3.066100e-01 5.815858e-01 5.570214e-01 8.366016e-01 4.688723e-01 9.075248e-01 4.272888e-01 3.820036e-01 3.104396e-01 2.644151e-01 1.396893e+00
 <GCONST> 1.290870e+02
 <TRANSP> 5
  0.000000e+00 1.000000e+00 0.000000e+00 0.000000e+00 0.000000e+00
  0.000000e+00 6.000000e-01 4.000000e-01 0.000000e+00 0.000000e+00
  0.000000e+00 0.000000e+00 6.000000e-01 4.000000e-01 0.000000e+00
  0.000000e+00 0.000000e+00 0.000000e+00 7.000000e-01 3.000000e-01
  0.000000e+00 0.000000e+00 0.000000e+00 0.000000e+00 0.000000e+00
 <ENDHMM>

