~o
<STREAMINFO> 1 39
<VECSIZE> 39<NULLD><MFCC_D_A_0><DIAGC>
~h "proto"
<BEGINHMM>
<NUMSTATES> 5
<STATE> 2
<MEAN> 39
 -1.285537e+01 2.390203e+00 4.516416e+00 2.801371e+00 5.131558e+00 2.642925e+00 2.119123e+00 3.718074e+00 4.095019e+00 1.310359e+00 5.011320e+00 2.014511e+00 7.184190e+01 -1.164059e-02 -4.356506e-03 1.633710e-02 -1.110184e-02 -1.724402e-03 9.288619e-03 -6.662383e-03 1.283118e-03 9.389915e-03 -6.869989e-03 -1.596943e-03 1.216504e-02 6.010590e-03 -2.161705e-03 -1.430796e-03 3.396085e-03 -2.198128e-03 -2.391849e-04 9.837997e-04 -1.703258e-03 -5.279510e-04 1.306695e-03 -1.703449e-03 -1.230848e-04 3.422906e-03 1.821269e-03
<VARIANCE> 39
 7.451627e+01 3.943031e+01 3.629963e+01 5.094139e+01 4.237342e+01 4.579613e+01 5.468601e+01 2.848468e+01 3.695689e+01 3.230145e+01 1.943793e+01 2.317075e+01 5.166943e+01 1.632763e+00 1.494583e+00 1.491045e+00 1.652745e+00 1.569608e+00 1.881741e+00 2.171568e+00 1.696784e+00 1.792002e+00 1.465783e+00 1.256488e+00 1.284569e+00 1.216866e+00 2.099288e-01 2.369692e-01 2.376875e-01 2.423018e-01 2.464802e-01 3.139749e-01 3.426010e-01 2.923098e-01 3.093465e-01 2.543711e-01 2.258093e-01 2.260755e-01 1.750820e-01
<GCONST> 1.070938e+02
<STATE> 3
<MEAN> 39
 -1.285537e+01 2.390203e+00 4.516416e+00 2.801371e+00 5.131558e+00 2.642925e+00 2.119123e+00 3.718074e+00 4.095019e+00 1.310359e+00 5.011320e+00 2.014511e+00 7.184190e+01 -1.164059e-02 -4.356506e-03 1.633710e-02 -1.110184e-02 -1.724402e-03 9.288619e-03 -6.662383e-03 1.283118e-03 9.389915e-03 -6.869989e-03 -1.596943e-03 1.216504e-02 6.010590e-03 -2.161705e-03 -1.430796e-03 3.396085e-03 -2.198128e-03 -2.391849e-04 9.837997e-04 -1.703258e-03 -5.279510e-04 1.306695e-03 -1.703449e-03 -1.230848e-04 3.422906e-03 1.821269e-03
<VARIANCE> 39
 7.451627e+01 3.943031e+01 3.629963e+01 5.094139e+01 4.237342e+01 4.579613e+01 5.468601e+01 2.848468e+01 3.695689e+01 3.230145e+01 1.943793e+01 2.317075e+01 5.166943e+01 1.632763e+00 1.494583e+00 1.491045e+00 1.652745e+00 1.569608e+00 1.881741e+00 2.171568e+00 1.696784e+00 1.792002e+00 1.465783e+00 1.256488e+00 1.284569e+00 1.216866e+00 2.099288e-01 2.369692e-01 2.376875e-01 2.423018e-01 2.464802e-01 3.139749e-01 3.426010e-01 2.923098e-01 3.093465e-01 2.543711e-01 2.258093e-01 2.260755e-01 1.750820e-01
<GCONST> 1.070938e+02
<STATE> 4
<MEAN> 39
 -1.285537e+01 2.390203e+00 4.516416e+00 2.801371e+00 5.131558e+00 2.642925e+00 2.119123e+00 3.718074e+00 4.095019e+00 1.310359e+00 5.011320e+00 2.014511e+00 7.184190e+01 -1.164059e-02 -4.356506e-03 1.633710e-02 -1.110184e-02 -1.724402e-03 9.288619e-03 -6.662383e-03 1.283118e-03 9.389915e-03 -6.869989e-03 -1.596943e-03 1.216504e-02 6.010590e-03 -2.161705e-03 -1.430796e-03 3.396085e-03 -2.198128e-03 -2.391849e-04 9.837997e-04 -1.703258e-03 -5.279510e-04 1.306695e-03 -1.703449e-03 -1.230848e-04 3.422906e-03 1.821269e-03
<VARIANCE> 39
 7.451627e+01 3.943031e+01 3.629963e+01 5.094139e+01 4.237342e+01 4.579613e+01 5.468601e+01 2.848468e+01 3.695689e+01 3.230145e+01 1.943793e+01 2.317075e+01 5.166943e+01 1.632763e+00 1.494583e+00 1.491045e+00 1.652745e+00 1.569608e+00 1.881741e+00 2.171568e+00 1.696784e+00 1.792002e+00 1.465783e+00 1.256488e+00 1.284569e+00 1.216866e+00 2.099288e-01 2.369692e-01 2.376875e-01 2.423018e-01 2.464802e-01 3.139749e-01 3.426010e-01 2.923098e-01 3.093465e-01 2.543711e-01 2.258093e-01 2.260755e-01 1.750820e-01
<GCONST> 1.070938e+02
<TRANSP> 5
 0.000000e+00 1.000000e+00 0.000000e+00 0.000000e+00 0.000000e+00
 0.000000e+00 6.000000e-01 4.000000e-01 0.000000e+00 0.000000e+00
 0.000000e+00 0.000000e+00 6.000000e-01 4.000000e-01 0.000000e+00
 0.000000e+00 0.000000e+00 0.000000e+00 7.000000e-01 3.000000e-01
 0.000000e+00 0.000000e+00 0.000000e+00 0.000000e+00 0.000000e+00
<ENDHMM>
