~o
<STREAMINFO> 1 39
<VECSIZE> 39<NULLD><MFCC_D_A_0><DIAGC>
~h "proto"
<BEGINHMM>
<NUMSTATES> 5
<STATE> 2
<MEAN> 39
 -2.184554e+01 6.989769e+00 -7.576453e+00 6.796597e+00 -5.243855e+00 1.184951e+01 -6.901997e+00 6.621257e+00 -2.500854e+00 2.945918e-01 -1.300940e+00 -1.834265e+00 3.939620e+01 5.006077e-01 -2.500916e-01 9.643805e-02 2.532407e-01 -9.404388e-02 -3.920990e-02 2.637714e-01 6.710631e-02 -1.180432e-01 1.410644e-02 2.844032e-02 -4.978463e-02 4.784157e-01 8.938176e-04 -3.169487e-02 1.398717e-02 5.403549e-03 1.631698e-03 -2.005906e-02 1.317918e-02 -9.308891e-03 -2.528929e-03 1.724050e-03 6.546745e-03 -5.450151e-03 2.760860e-02
<VARIANCE> 39
 8.510509e+01 2.290619e+01 5.877045e+00 2.443136e+01 1.051824e+01 1.416735e+01 3.138429e+01 1.463984e+01 1.707507e+01 1.040245e+01 9.880475e+00 1.070821e+01 7.383858e+01 2.392911e+00 1.059221e+00 4.399538e-01 1.000301e+00 6.942846e-01 8.672370e-01 1.201831e+00 7.831509e-01 9.366897e-01 9.243522e-01 8.408376e-01 7.239960e-01 2.105862e+00 3.825594e-01 2.085097e-01 9.476616e-02 1.874180e-01 1.454882e-01 1.878593e-01 2.266771e-01 1.661778e-01 1.832112e-01 1.938341e-01 1.717191e-01 1.455940e-01 3.629466e-01
<GCONST> 8.766409e+01
<STATE> 3
<MEAN> 39
 -1.643888e+01 -7.968277e+00 2.104400e-01 1.875597e+00 8.633980e-01 7.480773e+00 -4.059472e-01 -9.187126e-01 -3.539549e+00 -1.191612e+00 -2.236572e+00 -1.318802e+00 6.088881e+01 2.478286e-02 -6.637730e-02 5.076374e-02 -3.372306e-02 2.003602e-02 -8.460470e-03 9.619075e-03 -2.840564e-02 -4.761575e-03 -1.148683e-02 -1.346457e-02 6.057353e-03 8.792916e-02 4.244833e-03 1.497048e-02 -8.334361e-03 8.670752e-03 -8.630317e-03 1.122275e-02 -8.376205e-03 9.023208e-03 1.466198e-03 2.327347e-03 -2.364062e-03 -2.489035e-03 -1.747533e-02
<VARIANCE> 39
 6.845257e+01 1.231461e+02 5.259561e+01 1.071084e+02 5.876024e+01 9.359879e+01 4.041789e+01 1.171812e+02 3.227922e+01 3.477865e+01 2.767994e+01 2.284337e+01 1.853532e+02 2.324132e+00 7.100829e+00 2.415380e+00 5.719667e+00 4.257898e+00 7.318233e+00 3.021116e+00 8.052036e+00 2.809913e+00 2.580916e+00 1.888331e+00 1.633306e+00 1.303748e+01 2.783721e-01 1.044631e+00 3.950911e-01 8.154183e-01 6.941681e-01 1.220359e+00 5.451923e-01 1.329987e+00 5.451481e-01 4.825506e-01 3.677711e-01 3.279803e-01 1.897876e+00
<GCONST> 1.371943e+02
<STATE> 4
<MEAN> 39
 -1.381081e+01 -1.829365e+00 -7.937329e-01 6.324881e+00 -2.820225e+00 7.896273e+00 -4.681768e+00 3.982189e-01 -5.706073e+00 -1.928686e+00 -3.964233e+00 -4.292313e+00 5.553019e+01 -1.695006e-02 6.978048e-02 -5.439434e-02 3.681107e-02 -2.002062e-02 7.582090e-03 -8.831426e-03 3.075265e-02 2.882594e-03 1.022820e-02 1.551984e-02 4.848301e-05 -8.628111e-02 -5.881310e-03 -1.183483e-02 6.150264e-03 -1.151721e-02 1.034013e-02 -1.010603e-02 6.576639e-03 -8.467742e-03 5.704691e-04 -3.002114e-03 9.227626e-04 3.056336e-03 1.461669e-02
<VARIANCE> 39
 5.387066e+01 1.062953e+02 4.270806e+01 6.973531e+01 4.490092e+01 4.455228e+01 3.595211e+01 5.849517e+01 2.316623e+01 2.251867e+01 2.022760e+01 1.568403e+01 1.295734e+02 1.301964e+00 4.153913e+00 1.563659e+00 2.726039e+00 2.832854e+00 2.914762e+00 2.346991e+00 3.107777e+00 1.748890e+00 1.523112e+00 1.418802e+00 1.086989e+00 6.744405e+00 1.344232e-01 5.922001e-01 2.408665e-01 3.745272e-01 4.719914e-01 4.972148e-01 4.241607e-01 5.395819e-01 3.322215e-01 2.968305e-01 2.682244e-01 2.105305e-01 9.913554e-01
<GCONST> 1.179602e+02
<TRANSP> 5
 0.000000e+00 1.000000e+00 0.000000e+00 0.000000e+00 0.000000e+00
 0.000000e+00 9.698795e-01 3.012048e-02 0.000000e+00 0.000000e+00
 0.000000e+00 0.000000e+00 9.950294e-01 4.970592e-03 0.000000e+00
 0.000000e+00 0.000000e+00 0.000000e+00 9.939092e-01 6.090753e-03
 0.000000e+00 0.000000e+00 0.000000e+00 0.000000e+00 0.000000e+00
<ENDHMM>
