~o
<STREAMINFO> 1 39
<VECSIZE> 39<NULLD><MFCC_D_A_0><DIAGC>
~s "silst"
<MEAN> 39
 -2.493439e+01 8.114717e+00 -8.528272e+00 5.005250e+00 -4.765309e+00 1.194031e+01 -8.257617e+00 6.480294e+00 -1.342853e+00 9.295501e-01 -9.947503e-01 -1.319710e+00 3.660720e+01 1.955793e+00 -1.576829e+00 4.822734e-01 8.666032e-01 -2.371392e-01 -6.856204e-01 1.125072e+00 -2.372940e-01 -6.866009e-01 -1.940014e-01 3.065947e-01 6.415100e-02 2.517032e+00 2.174497e-01 -3.499389e-01 2.317559e-01 2.004706e-02 8.920074e-02 -1.588104e-01 2.365059e-01 -2.095107e-01 -1.261857e-01 -1.097450e-01 9.075878e-03 -1.320243e-02 5.726280e-01
<VARIANCE> 39
 9.948487e+01 2.807123e+01 8.189926e+00 2.465814e+01 1.015750e+01 1.343776e+01 3.501231e+01 1.270076e+01 1.329415e+01 8.907871e+00 9.796650e+00 6.314058e+00 8.941992e+01 6.938165e+00 3.961276e+00 1.351692e+00 3.630514e+00 2.312976e+00 3.418304e+00 2.932566e+00 4.100824e+00 2.253718e+00 1.616643e+00 1.599380e+00 9.832611e-01 9.544580e+00 1.368959e+00 7.654441e-01 2.083938e-01 5.510745e-01 3.670670e-01 5.047367e-01 5.095170e-01 5.237214e-01 3.473674e-01 2.574537e-01 2.795177e-01 1.598231e-01 1.885090e+00
<GCONST> 1.127736e+02
~h "k"
<BEGINHMM>
<NUMSTATES> 5
<STATE> 2
<MEAN> 39
 -1.482377e+01 9.016637e-01 -4.374708e+00 9.368207e+00 -3.941113e+00 1.253288e+01 -2.381966e+00 7.627825e+00 -3.299312e+00 8.234819e-01 -1.709979e+00 -2.325052e+00 4.861644e+01 -1.687864e-01 -3.587278e+00 8.862729e-02 -1.680153e+00 1.404298e+00 -2.554890e+00 3.174661e-01 -2.932568e+00 3.357152e-02 9.475024e-02 9.556796e-02 9.549886e-02 3.985548e+00 -8.108231e-02 -1.723312e+00 7.876687e-02 -1.065874e+00 6.398112e-01 -1.211867e+00 1.643673e-01 -1.551898e+00 7.558252e-02 -1.662240e-01 -2.174514e-02 -1.397904e-03 2.165948e+00
<VARIANCE> 39
 7.340137e+00 4.429788e+01 1.157872e+01 1.648960e+01 1.641354e+01 2.406333e+01 2.949682e+01 2.607142e+01 2.366885e+01 1.897517e+01 1.680959e+01 1.531476e+01 2.042089e+01 7.845671e-01 1.828905e+01 1.550902e+00 7.088405e+00 4.233946e+00 1.047854e+01 3.163289e+00 1.439403e+01 3.192452e+00 2.645572e+00 2.145581e+00 1.587139e+00 2.308374e+01 1.083173e-01 1.800413e+00 2.203342e-01 6.079034e-01 4.756756e-01 9.644431e-01 5.335435e-01 1.256159e+00 5.626785e-01 4.400378e-01 3.781797e-01 2.859440e-01 1.747855e+00
<GCONST> 1.212956e+02
<STATE> 3
<MEAN> 39
 -1.626203e+01 -2.693681e+01 -1.692226e+00 -7.257869e+00 5.480335e+00 -5.552705e+00 -1.051370e+00 -1.900922e+01 -1.569373e+00 -1.694673e-01 -3.610254e+00 -3.738238e+00 8.143526e+01 3.307953e-01 -9.659747e-01 3.613581e-02 -2.560458e-01 -2.476764e-01 2.005094e-01 -5.242993e-01 -8.345504e-01 -1.647692e-02 2.994571e-01 -5.120541e-01 -2.337451e-01 3.583831e-01 2.171246e-01 1.159045e+00 -1.863927e-01 8.512517e-01 -5.306033e-01 9.721829e-01 -2.986425e-01 1.115686e+00 -7.012588e-02 1.578737e-01 -3.732940e-02 4.503402e-02 -1.556943e+00
<VARIANCE> 39
 8.964325e+00 1.679179e+01 1.493484e+01 2.266240e+01 2.091237e+01 4.723972e+01 2.593056e+01 3.744635e+01 3.246973e+01 2.314994e+01 2.654355e+01 2.424096e+01 4.467929e+01 1.191081e+00 1.547533e+01 1.697437e+00 8.588089e+00 4.111434e+00 1.241716e+01 3.197654e+00 1.613010e+01 2.596409e+00 2.536756e+00 1.656655e+00 1.716492e+00 3.111806e+01 1.316887e-01 1.210631e+00 3.545898e-01 5.121456e-01 4.612631e-01 1.094715e+00 4.756720e-01 1.041030e+00 5.280171e-01 4.906980e-01 3.570029e-01 3.808802e-01 1.970925e+00
<GCONST> 1.254202e+02
<STATE> 4
<MEAN> 39
 -1.212175e+01 -5.563354e+00 -5.982926e+00 9.110146e+00 -3.344022e+00 1.110587e+01 -6.712004e+00 -1.105079e+00 -5.489635e+00 3.085278e+00 -3.457154e+00 -3.884557e+00 5.359294e+01 -9.135757e-02 1.128399e+00 -1.051043e-01 5.112470e-01 -1.924190e-01 4.166695e-01 1.082294e-01 9.388108e-01 2.010215e-02 -8.687639e-02 1.971981e-01 7.026414e-02 -1.003950e+00 -9.272941e-02 -1.462001e-01 8.803034e-02 -1.620580e-01 8.680031e-02 -1.663399e-01 1.309624e-01 -1.642622e-01 4.700138e-03 -6.093383e-02 1.844303e-02 5.925970e-03 2.248470e-01
<VARIANCE> 39
 9.908912e+00 6.760878e+01 1.035919e+01 1.875502e+01 1.421528e+01 2.630081e+01 3.412030e+01 6.878953e+01 3.405337e+01 2.107924e+01 2.429700e+01 2.055794e+01 3.872562e+01 7.475943e-01 1.247343e+00 9.793850e-01 2.319704e+00 1.591285e+00 2.065873e+00 2.264307e+00 2.827174e+00 3.448350e+00 1.667579e+00 1.540283e+00 1.353478e+00 1.109429e+00 1.161286e-01 2.146704e-01 1.637724e-01 2.812149e-01 3.125477e-01 3.388615e-01 4.479875e-01 6.001535e-01 6.814427e-01 3.403901e-01 3.216563e-01 2.769954e-01 1.641171e-01
<GCONST> 1.039553e+02
<TRANSP> 5
 0.000000e+00 1.000000e+00 0.000000e+00 0.000000e+00 0.000000e+00
 0.000000e+00 7.600744e-01 2.399256e-01 0.000000e+00 0.000000e+00
 0.000000e+00 0.000000e+00 8.792612e-01 1.207388e-01 0.000000e+00
 0.000000e+00 0.000000e+00 0.000000e+00 9.484445e-01 5.155552e-02
 0.000000e+00 0.000000e+00 0.000000e+00 0.000000e+00 0.000000e+00
<ENDHMM>
~h "p"
<BEGINHMM>
<NUMSTATES> 5
<STATE> 2
<MEAN> 39
 -1.495629e+01 3.147467e+00 -4.072114e+00 8.966456e+00 -5.512778e+00 1.169786e+01 -3.499057e+00 7.305478e+00 -3.518020e+00 3.812578e-01 -2.086323e+00 -2.962267e+00 4.731230e+01 9.885756e-01 -2.064795e+00 1.112947e+00 -1.614513e+00 1.350518e+00 -2.332567e+00 6.237154e-01 -2.229899e+00 -2.916417e-01 -1.365727e+00 2.229492e-02 7.856026e-02 4.281951e+00 6.491834e-01 -9.866164e-01 7.792195e-01 -6.980510e-01 8.195343e-01 -9.551593e-01 3.561145e-01 -1.084835e+00 -5.475367e-02 -7.327504e-01 -6.279001e-02 -1.498956e-02 2.318902e+00
<VARIANCE> 39
 4.588243e+00 8.241650e+00 8.651857e+00 6.189450e+00 9.641388e+00 1.478549e+01 2.256970e+01 1.868678e+01 1.605039e+01 1.215828e+01 1.091795e+01 9.487240e+00 6.483425e+00 1.529220e+00 5.131428e+00 3.296255e+00 3.577226e+00 3.740024e+00 6.662657e+00 3.039790e+00 7.353459e+00 2.583175e+00 3.923605e+00 1.591273e+00 1.523661e+00 2.016914e+01 1.192286e-01 2.816116e-01 2.221556e-01 3.225833e-01 3.797948e-01 5.285416e-01 4.309567e-01 5.426596e-01 3.878030e-01 3.359465e-01 2.502039e-01 2.484234e-01 7.734218e-01
<GCONST> 1.049723e+02
<STATE> 3
<MEAN> 39
 -4.092339e+00 -7.871143e+00 4.512819e+00 3.052798e+00 2.087156e+00 2.270193e+00 -4.672592e-02 -3.553835e+00 -4.680974e+00 -8.663104e+00 -5.160287e+00 -3.886742e+00 7.333795e+01 1.395326e+00 3.607118e-01 -3.089096e-02 1.076890e+00 -5.765955e-01 9.441853e-01 -2.132192e-01 5.841655e-01 -1.070359e-01 -8.676611e-02 -7.576260e-01 -3.478799e-01 -1.128894e-01 -3.230470e-01 7.758611e-01 -5.331241e-01 5.793682e-01 -5.948864e-01 6.229712e-01 -2.960226e-01 6.664416e-01 -8.132769e-02 5.238645e-01 1.633645e-02 -4.764184e-02 -1.540499e+00
<VARIANCE> 39
 1.446342e+01 2.706953e+01 1.924357e+01 4.691413e+01 4.139077e+01 7.022462e+01 3.040810e+01 5.452131e+01 2.974556e+01 2.680593e+01 3.098116e+01 2.311672e+01 8.482106e+01 1.571877e+00 6.482233e+00 4.383879e+00 6.029171e+00 8.032845e+00 1.031080e+01 4.107941e+00 9.707616e+00 2.450051e+00 4.517784e+00 2.097191e+00 1.579013e+00 3.223889e+01 1.495813e-01 7.458308e-01 5.108690e-01 1.047796e+00 1.199430e+00 2.302056e+00 7.499712e-01 1.886733e+00 5.291657e-01 6.058360e-01 5.171237e-01 3.530198e-01 4.046580e+00
<GCONST> 1.354139e+02
<STATE> 4
<MEAN> 39
 -9.371867e+00 5.169900e+00 -1.567953e+00 1.167155e+01 -4.085182e+00 1.141276e+01 -3.926609e+00 5.133370e+00 -6.474734e+00 -2.431583e+00 -5.220746e+00 -5.127465e+00 5.117580e+01 -5.787095e-01 3.061354e-01 -1.749468e-01 -3.818948e-02 2.908174e-02 7.111803e-02 -1.025666e-02 1.724715e-01 6.108136e-02 2.242194e-01 2.093943e-01 5.681194e-02 -6.686073e-01 -2.421654e-02 -1.356840e-01 6.527144e-02 -8.562588e-02 7.355363e-02 -5.595792e-02 5.002548e-02 -5.895750e-02 3.862850e-02 -4.918503e-02 8.186669e-03 3.393936e-02 1.445846e-01
<VARIANCE> 39
 3.353378e+01 1.403707e+01 1.696640e+01 1.274641e+01 1.169913e+01 1.504777e+01 1.967150e+01 2.176338e+01 2.331566e+01 1.758577e+01 1.819358e+01 1.473964e+01 2.461040e+01 3.803017e-01 1.082101e+00 8.110127e-01 8.865215e-01 1.014079e+00 1.056025e+00 1.136905e+00 1.132282e+00 1.558491e+00 1.200485e+00 1.010091e+00 9.419979e-01 4.774563e-01 5.853508e-02 1.418595e-01 1.620870e-01 2.134677e-01 2.556263e-01 2.582386e-01 2.574981e-01 2.664536e-01 2.887065e-01 2.452874e-01 2.109951e-01 1.893327e-01 6.210919e-02
<GCONST> 8.599090e+01
<TRANSP> 5
 0.000000e+00 1.000000e+00 0.000000e+00 0.000000e+00 0.000000e+00
 0.000000e+00 6.880820e-01 3.119180e-01 0.000000e+00 0.000000e+00
 0.000000e+00 0.000000e+00 8.500038e-01 1.499962e-01 0.000000e+00
 0.000000e+00 0.000000e+00 0.000000e+00 9.468900e-01 5.311001e-02
 0.000000e+00 0.000000e+00 0.000000e+00 0.000000e+00 0.000000e+00
<ENDHMM>
~h "s"
<BEGINHMM>
<NUMSTATES> 5
<STATE> 2
<MEAN> 39
 -1.847303e+01 -8.010765e+00 -5.805309e-01 4.454276e+00 2.987605e-02 4.886058e+00 1.741238e+00 -1.984056e+00 -3.654269e+00 -1.737909e+00 -2.789994e+00 3.677950e-01 5.814067e+01 -2.602480e+00 -3.979362e+00 1.530965e+00 -3.223512e+00 2.849501e+00 -3.174787e+00 2.279015e+00 -3.168353e+00 3.928758e-01 -9.565210e-01 4.984257e-01 1.083857e+00 4.572512e+00 -4.174235e-01 -6.027011e-02 2.566918e-01 -7.866497e-01 5.378262e-01 -2.473354e-01 -2.272402e-02 -4.079550e-02 2.256215e-02 -1.303624e-01 1.937516e-01 -1.937635e-01 6.222889e-01
<VARIANCE> 39
 3.999967e+01 1.248816e+02 4.365112e+01 7.242542e+01 6.508667e+01 9.582632e+01 6.385660e+01 1.006818e+02 3.578750e+01 3.086971e+01 3.478318e+01 3.356040e+01 1.079806e+02 3.017316e+00 7.936157e+00 4.764780e+00 8.427903e+00 6.774288e+00 7.733811e+00 5.078393e+00 7.478755e+00 3.195158e+00 2.758146e+00 2.834370e+00 2.753196e+00 7.805229e+00 5.891133e-01 2.858713e+00 8.848602e-01 1.254166e+00 1.356068e+00 2.124900e+00 1.354458e+00 2.327934e+00 5.706171e-01 6.030549e-01 5.423829e-01 6.897343e-01 2.018577e+00
<GCONST> 1.467453e+02
<STATE> 3
<MEAN> 39
 -2.974111e+01 -1.887393e+01 9.394556e+00 -1.336821e+01 1.104233e+01 -9.082447e-01 4.799558e+00 -9.115304e+00 -1.828764e+00 -5.297407e+00 8.960673e-01 1.375808e+00 7.562571e+01 3.499436e-01 3.439993e-01 5.465164e-01 -2.456167e-02 -3.894874e-01 1.032701e+00 -4.572310e-01 6.691163e-01 -3.116605e-01 6.304139e-02 -2.535028e-01 -1.060757e-01 -6.161412e-01 4.241267e-01 3.692968e-01 -1.916734e-01 5.535366e-01 -4.471708e-01 3.490027e-01 -2.358913e-01 3.266324e-01 -1.261519e-01 1.404518e-01 -1.783764e-01 -8.069444e-03 -6.319233e-01
<VARIANCE> 39
 1.362650e+01 1.378928e+01 3.811736e+01 2.258297e+01 3.332888e+01 5.394450e+01 2.850521e+01 2.624801e+01 2.358715e+01 1.926590e+01 2.429054e+01 1.579408e+01 2.799034e+01 2.350344e+00 1.895550e+00 1.757098e+00 3.933759e+00 3.097682e+00 2.799280e+00 1.989286e+00 2.479087e+00 1.988474e+00 1.868616e+00 1.938307e+00 1.168053e+00 4.236737e+00 2.497884e-01 3.912924e-01 3.366630e-01 4.315211e-01 5.054913e-01 5.980066e-01 4.661386e-01 5.117799e-01 3.347261e-01 3.434455e-01 2.799487e-01 2.360760e-01 3.327953e-01
<GCONST> 1.110760e+02
<STATE> 4
<MEAN> 39
 -1.584000e+01 -2.304950e+00 2.255177e+00 3.421087e+00 -4.153783e+00 1.221262e+01 -4.268572e+00 4.096335e+00 -5.891485e+00 -1.189146e+00 -3.600178e+00 -1.914012e+00 5.303107e+01 6.404696e-01 1.170519e+00 -9.770076e-01 1.129311e+00 -7.928391e-01 3.649199e-01 -4.749533e-01 6.650912e-01 1.541037e-01 2.988056e-01 7.480887e-02 -2.453834e-01 -1.178355e+00 -1.700471e-01 -2.253448e-01 1.369853e-02 -1.561890e-01 1.848439e-01 -1.995696e-01 1.744030e-01 -2.289194e-01 1.162571e-01 -5.834296e-02 8.670305e-02 3.902375e-02 2.764202e-01
<VARIANCE> 39
 1.085068e+01 3.723663e+01 4.750100e+01 3.686095e+01 3.376988e+01 3.473234e+01 2.988243e+01 2.491047e+01 2.441847e+01 1.956091e+01 1.773164e+01 1.496198e+01 2.575631e+01 8.872796e-01 1.808741e+00 1.299606e+00 1.737157e+00 2.631413e+00 3.032563e+00 2.094042e+00 2.363851e+00 2.040576e+00 1.631338e+00 1.444269e+00 1.128728e+00 1.445819e+00 9.568517e-02 2.419746e-01 2.137740e-01 1.975126e-01 3.546502e-01 4.911605e-01 3.330972e-01 4.257098e-01 4.324226e-01 3.320959e-01 3.251454e-01 2.274149e-01 1.380090e-01
<GCONST> 1.036916e+02
<TRANSP> 5
 0.000000e+00 1.000000e+00 0.000000e+00 0.000000e+00 0.000000e+00
 0.000000e+00 7.979305e-01 2.020695e-01 0.000000e+00 0.000000e+00
 0.000000e+00 0.000000e+00 9.126572e-01 8.734275e-02 0.000000e+00
 0.000000e+00 0.000000e+00 0.000000e+00 9.204210e-01 7.957901e-02
 0.000000e+00 0.000000e+00 0.000000e+00 0.000000e+00 0.000000e+00
<ENDHMM>
~h "sp"
<BEGINHMM>
<NUMSTATES> 3
<STATE> 2
~s "silst"
<TRANSP> 3
 0.000000e+00 7.000000e-01 3.000000e-01
 0.000000e+00 6.000000e-01 4.000000e-01
 0.000000e+00 0.000000e+00 0.000000e+00
<ENDHMM>
~h "sil"
<BEGINHMM>
<NUMSTATES> 5
<STATE> 2
<MEAN> 39
 -1.727691e+01 4.904192e+00 -5.887794e+00 8.438538e+00 -5.422327e+00 1.158691e+01 -5.307500e+00 6.558514e+00 -3.511844e+00 1.260425e-02 -1.943442e+00 -2.727860e+00 4.417055e+01 -4.017816e-02 4.267723e-02 -4.495794e-02 -1.300867e-03 -5.086051e-02 -2.628270e-02 1.283281e-02 2.829868e-02 1.231551e-02 9.761735e-03 1.093984e-02 -6.677964e-03 -7.129393e-02 7.562425e-04 -3.340296e-02 1.171751e-02 1.650376e-02 -1.346868e-02 -1.179948e-02 5.253620e-03 -1.059749e-02 -2.177371e-02 -2.497495e-03 9.563680e-03 -6.279492e-03 1.584911e-02
<VARIANCE> 39
 4.271374e+01 1.304012e+01 5.738315e+00 1.242641e+01 9.168551e+00 1.337587e+01 2.527023e+01 1.774605e+01 1.684191e+01 1.080116e+01 9.760406e+00 9.671770e+00 4.011132e+01 8.395378e-02 2.221248e-01 2.732348e-01 3.613310e-01 4.961707e-01 5.776390e-01 7.018814e-01 7.690573e-01 7.765880e-01 7.752348e-01 7.101827e-01 6.745093e-01 9.558169e-02 1.754486e-02 4.826407e-02 5.714925e-02 7.832063e-02 1.034201e-01 1.244940e-01 1.521097e-01 1.637243e-01 1.624549e-01 1.610672e-01 1.468479e-01 1.379193e-01 1.396893e-02
<GCONST> 6.252776e+01
<STATE> 3
~s "silst"
<STATE> 4
<MEAN> 39
 -1.410105e+01 -5.261653e+00 -1.232522e+00 6.569509e+00 -2.128739e+00 7.606532e+00 -9.657376e-01 -2.873210e-01 -5.079042e+00 -9.765385e-01 -2.341794e+00 -3.006086e+00 5.807156e+01 7.188549e-02 2.167812e-01 -1.304019e-02 1.338559e-01 3.124309e-02 3.054323e-01 -4.246206e-02 1.908673e-01 1.558524e-02 7.780510e-02 -7.459529e-02 -7.938404e-02 -2.292178e-01 -1.314240e-01 2.136516e-01 -1.052180e-01 -1.088304e-01 3.599031e-02 8.825298e-02 -1.474342e-01 8.830455e-02 1.633897e-01 6.266138e-02 -5.459062e-02 2.811971e-02 -2.665899e-01
<VARIANCE> 39
 7.216015e+01 1.101075e+02 5.187699e+01 9.242522e+01 6.846695e+01 8.618371e+01 5.110979e+01 1.083722e+02 3.854431e+01 3.555703e+01 3.147025e+01 2.268533e+01 1.834560e+02 1.923563e+00 5.346268e+00 2.252683e+00 4.130148e+00 3.890769e+00 6.110747e+00 3.271678e+00 6.253136e+00 3.368346e+00 2.673606e+00 2.283807e+00 1.508065e+00 9.710022e+00 2.854171e-01 1.048379e+00 4.241196e-01 7.979565e-01 7.701156e-01 1.249735e+00 6.676334e-01 1.292556e+00 7.223968e-01 5.452425e-01 4.902430e-01 3.408032e-01 1.730259e+00
<GCONST> 1.372482e+02
<TRANSP> 5
 0.000000e+00 1.000000e+00 0.000000e+00 0.000000e+00 0.000000e+00
 0.000000e+00 9.367836e-01 3.248954e-02 3.072685e-02 0.000000e+00
 0.000000e+00 0.000000e+00 7.789323e-01 2.210677e-01 0.000000e+00
 0.000000e+00 1.137580e-01 0.000000e+00 7.637314e-01 1.225105e-01
 0.000000e+00 0.000000e+00 0.000000e+00 0.000000e+00 0.000000e+00
<ENDHMM>
