~o
<STREAMINFO> 1 39
<VECSIZE> 39<NULLD><MFCC_D_A_0><DIAGC>
~s "silst"
<MEAN> 39
 -1.486451e+01 -2.098343e+00 -1.340810e+00 7.914300e+00 -6.344814e+00 1.236136e+01 -2.199858e+00 4.002553e+00 -7.604422e+00 -7.291098e-01 -1.959782e+00 -2.136582e+00 5.110320e+01 6.145343e-01 4.610420e-01 -3.627913e-01 9.015107e-01 -2.213490e-01 7.703613e-02 3.196188e-01 5.052263e-01 1.855535e-01 1.859450e-01 1.650825e-01 -1.562418e-01 -1.698672e-01 -2.881288e-01 1.430512e-01 -5.574162e-02 -2.850299e-01 3.331141e-01 -4.116309e-02 -1.235475e-01 1.514864e-02 3.381431e-01 5.385944e-02 -8.212525e-02 5.760053e-02 -1.269033e-01
<VARIANCE> 39
 2.896021e+01 5.181633e+01 5.861752e+01 5.036338e+01 3.290685e+01 6.216496e+01 4.368892e+01 5.092762e+01 4.967255e+01 3.869187e+01 3.979381e+01 2.965883e+01 5.421619e+01 3.923117e+00 6.055041e+00 2.740535e+00 4.069684e+00 3.533787e+00 5.271678e+00 4.257361e+00 4.367193e+00 5.637510e+00 3.347787e+00 2.926760e+00 2.164954e+00 5.654006e+00 4.585857e-01 9.508314e-01 3.797115e-01 6.014302e-01 5.955848e-01 1.036746e+00 7.909784e-01 8.633614e-01 9.958529e-01 6.469235e-01 6.576609e-01 4.222698e-01 6.461472e-01
<GCONST> 1.335551e+02
~h "k"
<BEGINHMM>
<NUMSTATES> 5
<STATE> 2
<MEAN> 39
 -1.479815e+01 7.617041e-01 -4.302148e+00 9.251685e+00 -3.675436e+00 1.236303e+01 -2.812982e+00 6.881800e+00 -3.309501e+00 1.236829e+00 -1.739149e+00 -2.518140e+00 4.884241e+01 -2.000906e-01 -4.268277e+00 1.296128e-01 -2.085911e+00 1.704986e+00 -3.070534e+00 3.497832e-01 -3.524389e+00 9.199625e-02 6.531724e-02 7.267375e-02 1.280390e-01 4.817530e+00 -1.036486e-01 -1.958979e+00 8.519883e-02 -1.230167e+00 7.208876e-01 -1.388746e+00 1.766254e-01 -1.749531e+00 9.892179e-02 -2.097549e-01 -3.066782e-02 -1.836425e-02 2.475312e+00
<VARIANCE> 39
 7.750007e+00 4.616278e+01 1.160307e+01 1.723161e+01 1.783547e+01 2.945922e+01 2.896378e+01 2.972893e+01 2.215516e+01 2.104423e+01 1.670635e+01 1.384496e+01 2.322063e+01 7.908753e-01 1.777784e+01 1.632326e+00 7.324806e+00 4.251869e+00 1.155814e+01 3.230021e+00 1.439153e+01 2.968860e+00 2.731140e+00 2.078527e+00 1.635486e+00 2.334262e+01 1.073143e-01 1.432037e+00 2.494783e-01 4.593229e-01 4.711324e-01 9.182248e-01 5.313329e-01 9.785788e-01 5.078478e-01 4.243447e-01 3.732855e-01 2.832719e-01 1.259092e+00
<GCONST> 1.208538e+02
<STATE> 3
<MEAN> 39
 -1.676661e+01 -2.763802e+01 -1.753836e+00 -8.054795e+00 6.239592e+00 -6.837782e+00 -4.304744e-01 -1.993232e+01 -1.107626e+00 -7.388830e-01 -3.128050e+00 -3.827226e+00 8.328304e+01 1.561371e-01 -1.401259e+00 2.777574e-01 -6.932700e-01 -3.711991e-02 -1.947613e-01 -2.896478e-01 -1.421963e+00 -1.877841e-02 1.631629e-01 -4.547040e-01 -3.356635e-01 1.026076e+00 2.466786e-01 1.292976e+00 -1.577597e-01 9.330162e-01 -6.081085e-01 1.134526e+00 -3.430527e-01 1.286356e+00 -1.309581e-01 2.435493e-01 -8.735416e-02 5.788162e-02 -1.844873e+00
<VARIANCE> 39
 7.754888e+00 1.154800e+01 1.519569e+01 1.826979e+01 1.737794e+01 4.160645e+01 2.294607e+01 3.215192e+01 3.204428e+01 2.198829e+01 2.675482e+01 2.464092e+01 2.492270e+01 1.024474e+00 1.560576e+01 1.411774e+00 7.988514e+00 4.153234e+00 1.266840e+01 2.963269e+00 1.473474e+01 2.578965e+00 2.647034e+00 1.693763e+00 1.675748e+00 3.140708e+01 1.291112e-01 1.218235e+00 3.819306e-01 5.103532e-01 4.509692e-01 1.099741e+00 4.743481e-01 9.004163e-01 5.017784e-01 4.751465e-01 3.559127e-01 3.949050e-01 1.657031e+00
<GCONST> 1.226674e+02
<STATE> 4
<MEAN> 39
 -1.026223e+01 -1.428024e+01 -6.113370e+00 7.324009e+00 -2.500506e+00 9.165461e+00 -8.856036e+00 -8.499160e+00 -6.311085e+00 4.326786e+00 -5.670347e+00 -4.416355e+00 6.046133e+01 2.683361e-01 1.845645e+00 -6.091847e-01 1.500329e+00 -3.649366e-01 1.280349e+00 -2.512182e-01 1.436374e+00 -2.956348e-01 2.842433e-01 2.253037e-01 -3.656586e-03 -2.063069e+00 -2.079529e-01 -2.553622e-02 1.228456e-01 -2.537011e-01 1.888834e-01 -2.337671e-01 2.707235e-01 -7.637651e-02 1.373225e-01 -1.364324e-01 1.349809e-01 -3.009629e-02 2.964500e-01
<VARIANCE> 39
 8.589860e+00 3.765178e+01 1.584046e+01 4.439645e+01 1.605430e+01 3.374501e+01 2.946239e+01 3.710395e+01 4.255627e+01 2.009288e+01 2.568990e+01 2.661854e+01 3.232098e+01 1.448635e+00 9.133023e-01 1.301586e+00 3.046864e+00 2.402593e+00 2.814002e+00 3.527007e+00 4.315046e+00 4.934052e+00 2.019771e+00 1.917629e+00 1.733414e+00 1.812352e+00 1.595831e-01 1.912992e-01 2.138987e-01 3.783972e-01 3.596146e-01 3.839482e-01 5.165507e-01 8.247473e-01 9.968894e-01 4.165791e-01 3.587153e-01 3.456019e-01 1.997377e-01
<GCONST> 1.110308e+02
<TRANSP> 5
 0.000000e+00 1.000000e+00 0.000000e+00 0.000000e+00 0.000000e+00
 0.000000e+00 7.287220e-01 2.712781e-01 0.000000e+00 0.000000e+00
 0.000000e+00 0.000000e+00 8.655131e-01 1.344869e-01 0.000000e+00
 0.000000e+00 0.000000e+00 0.000000e+00 9.000058e-01 9.999419e-02
 0.000000e+00 0.000000e+00 0.000000e+00 0.000000e+00 0.000000e+00
<ENDHMM>
~h "p"
<BEGINHMM>
<NUMSTATES> 5
<STATE> 2
<MEAN> 39
 -1.506530e+01 3.216521e+00 -4.162107e+00 8.965697e+00 -5.694220e+00 1.154854e+01 -3.619871e+00 7.246664e+00 -3.519787e+00 2.877710e-01 -2.123247e+00 -3.009441e+00 4.714081e+01 1.114746e+00 -2.416811e+00 1.286821e+00 -1.757834e+00 1.487840e+00 -2.573192e+00 7.680758e-01 -2.551028e+00 -3.263072e-01 -1.466264e+00 7.163069e-02 7.770622e-02 4.866476e+00 7.031355e-01 -1.022723e+00 8.375102e-01 -7.441270e-01 9.018205e-01 -9.938207e-01 4.144840e-01 -1.159552e+00 -3.547531e-02 -7.719129e-01 -4.962218e-02 -3.111816e-02 2.499847e+00
<VARIANCE> 39
 6.843487e+00 9.492469e+00 9.173234e+00 7.016789e+00 1.146095e+01 1.568095e+01 2.437893e+01 1.944557e+01 1.731892e+01 1.304028e+01 1.158171e+01 9.737866e+00 8.867661e+00 1.547162e+00 4.968410e+00 3.297311e+00 3.663123e+00 4.001009e+00 6.484770e+00 3.262534e+00 7.501954e+00 2.665938e+00 3.976861e+00 1.660664e+00 1.563531e+00 1.991994e+01 9.895409e-02 2.900933e-01 1.935824e-01 3.355507e-01 3.684758e-01 5.408683e-01 4.575029e-01 5.646292e-01 4.112673e-01 3.251082e-01 2.560716e-01 2.536754e-01 5.845418e-01
<GCONST> 1.064533e+02
<STATE> 3
<MEAN> 39
 -5.510477e+00 -1.039580e+01 5.673393e+00 -2.452222e-01 5.011565e+00 -1.275810e+00 1.731051e+00 -6.782017e+00 -4.047391e+00 -9.554766e+00 -3.529560e+00 -3.133937e+00 7.813364e+01 1.818456e+00 -3.890293e-01 5.687951e-01 5.626847e-01 1.932962e-01 6.428639e-01 2.118102e-01 1.922515e-01 7.646488e-02 -6.640077e-01 -1.009935e+00 -3.384848e-01 1.266570e+00 -3.067816e-01 1.168464e+00 -8.000588e-01 1.070065e+00 -1.110737e+00 1.324928e+00 -5.742737e-01 1.301591e+00 -4.772015e-02 7.755194e-01 -1.480526e-01 -5.060170e-02 -2.549562e+00
<VARIANCE> 39
 1.722832e+01 1.447146e+01 1.636224e+01 3.054669e+01 2.550728e+01 4.885916e+01 2.788441e+01 4.228453e+01 2.735841e+01 2.375187e+01 2.911142e+01 2.324433e+01 5.079857e+01 1.409119e+00 6.808126e+00 4.884313e+00 7.068530e+00 8.649303e+00 1.277380e+01 4.440573e+00 1.299510e+01 2.361671e+00 4.365021e+00 2.024178e+00 1.451782e+00 4.061827e+01 1.899706e-01 4.845707e-01 4.246986e-01 5.880833e-01 6.958106e-01 1.374912e+00 7.181533e-01 1.434868e+00 5.707289e-01 4.862549e-01 5.082795e-01 3.527825e-01 2.702313e+00
<GCONST> 1.304172e+02
<STATE> 4
<MEAN> 39
 -3.397288e+00 4.122677e+00 1.050089e+00 1.278314e+01 -3.645519e+00 1.053932e+01 -4.171804e+00 2.904019e+00 -8.014240e+00 -4.717079e+00 -7.626123e+00 -6.296334e+00 5.725912e+01 -5.862495e-01 1.075521e+00 -3.941245e-01 4.846841e-01 -3.589948e-01 4.378009e-01 -2.733243e-01 4.151379e-01 -3.208984e-01 4.127960e-01 1.028706e-01 -1.152646e-01 -1.582028e+00 -1.806736e-01 -2.002710e-01 9.024651e-02 -2.832201e-01 2.324913e-01 -2.437365e-01 1.349433e-01 -1.832809e-01 6.996610e-02 -7.417012e-02 1.160281e-01 5.109408e-02 2.913218e-01
<VARIANCE> 39
 1.529250e+01 3.444740e+01 1.776651e+01 1.872968e+01 1.759061e+01 1.744621e+01 1.926699e+01 1.710623e+01 2.246729e+01 1.806701e+01 1.522443e+01 1.629142e+01 2.712852e+01 7.666862e-01 1.572713e+00 1.379264e+00 2.156760e+00 2.607925e+00 2.175332e+00 1.715510e+00 1.771116e+00 1.810508e+00 1.711537e+00 1.226807e+00 1.222091e+00 1.358342e+00 7.227590e-02 1.305179e-01 2.247192e-01 3.003039e-01 4.151450e-01 5.276104e-01 3.238431e-01 3.947267e-01 3.483217e-01 3.068669e-01 2.649000e-01 2.390088e-01 1.116073e-01
<GCONST> 9.793926e+01
<TRANSP> 5
 0.000000e+00 1.000000e+00 0.000000e+00 0.000000e+00 0.000000e+00
 0.000000e+00 6.828480e-01 3.171520e-01 0.000000e+00 0.000000e+00
 0.000000e+00 0.000000e+00 7.980602e-01 2.019399e-01 0.000000e+00
 0.000000e+00 0.000000e+00 0.000000e+00 9.065902e-01 9.340978e-02
 0.000000e+00 0.000000e+00 0.000000e+00 0.000000e+00 0.000000e+00
<ENDHMM>
~h "s"
<BEGINHMM>
<NUMSTATES> 5
<STATE> 2
<MEAN> 39
 -1.509141e+01 -1.473173e+00 -2.580927e+00 9.017055e+00 -4.306983e+00 1.002429e+01 -1.964103e+00 3.212350e+00 -4.301451e+00 -1.103945e-01 -3.421147e+00 -1.577254e+00 5.102961e+01 -1.761131e+00 -3.720053e+00 1.077118e+00 -1.734599e+00 1.747880e+00 -2.488653e+00 2.100826e+00 -2.928829e+00 3.694608e-01 -6.239203e-01 1.564643e-01 1.361608e+00 3.343273e+00 -8.073388e-01 -1.043691e+00 5.090967e-01 -1.205658e+00 1.060386e+00 -9.776328e-01 5.562218e-01 -8.742670e-01 1.156655e-01 -3.326887e-01 1.991567e-01 1.696017e-01 1.476715e+00
<VARIANCE> 39
 1.431934e+01 6.649701e+01 2.692944e+01 2.162256e+01 2.233363e+01 4.598864e+01 4.540371e+01 5.811896e+01 2.836451e+01 2.306719e+01 2.591243e+01 2.578048e+01 3.076410e+01 2.815758e+00 9.353146e+00 4.052742e+00 6.485287e+00 6.281197e+00 8.312748e+00 5.224179e+00 8.387949e+00 3.222534e+00 2.760550e+00 2.629848e+00 2.440967e+00 8.323962e+00 2.087393e-01 1.424767e+00 6.452194e-01 6.753634e-01 6.282675e-01 9.934607e-01 8.259413e-01 1.283329e+00 4.861652e-01 4.295191e-01 4.639082e-01 5.432588e-01 5.900418e-01
<GCONST> 1.306406e+02
<STATE> 3
<MEAN> 39
 -2.787527e+01 -1.852966e+01 4.446729e+00 -8.812367e+00 1.079390e+01 -5.417407e+00 7.635946e+00 -1.058170e+01 -2.219512e+00 -4.778580e+00 -2.226732e-01 1.975688e+00 7.359789e+01 -2.355240e+00 -1.555673e+00 1.420751e+00 -3.807832e+00 2.550864e+00 -1.697083e+00 6.347518e-01 -1.034959e+00 1.974701e-01 -7.242275e-01 9.004726e-01 -2.594897e-01 3.765158e+00 6.873465e-01 1.107168e+00 -2.765239e-01 8.087462e-01 -8.751798e-01 1.155381e+00 -7.696408e-01 9.999791e-01 -1.353700e-01 2.332693e-01 -1.117399e-01 -3.215825e-01 -1.184504e+00
<VARIANCE> 39
 1.920251e+01 2.738012e+01 5.304526e+01 5.319898e+01 4.457200e+01 4.363210e+01 3.342588e+01 3.585793e+01 3.213384e+01 2.515788e+01 3.569920e+01 2.334990e+01 3.422754e+01 3.244585e+00 7.203052e+00 4.390658e+00 5.457249e+00 6.423084e+00 8.039996e+00 5.027141e+00 6.823750e+00 2.316120e+00 2.663114e+00 2.184656e+00 2.014518e+00 6.803661e+00 3.779856e-01 1.020832e+00 8.329083e-01 9.340321e-01 8.515071e-01 8.473325e-01 7.201434e-01 9.988620e-01 4.953136e-01 5.323806e-01 5.045241e-01 5.172309e-01 4.988361e-01
<GCONST> 1.312980e+02
<STATE> 4
<MEAN> 39
 -2.942553e+01 -1.870372e+01 1.037408e+01 -1.321773e+01 1.034419e+01 8.279008e-01 4.088615e+00 -8.568170e+00 -1.966758e+00 -5.173784e+00 5.628889e-01 1.322646e+00 7.483674e+01 8.465191e-01 5.630051e-01 3.977652e-01 6.922182e-01 -8.605305e-01 1.331673e+00 -5.426750e-01 8.609081e-01 -4.269136e-01 1.810646e-01 -5.338455e-01 -2.320162e-04 -1.391571e+00 2.736143e-01 2.705365e-01 -1.598445e-01 3.506244e-01 -2.670231e-01 1.359994e-01 -1.458283e-01 2.162193e-01 -1.030608e-01 1.056149e-01 -1.243100e-01 -1.790049e-02 -4.189904e-01
<VARIANCE> 39
 1.637062e+01 1.486625e+01 3.190708e+01 2.200804e+01 3.439373e+01 5.298256e+01 2.612148e+01 2.825065e+01 2.410750e+01 1.960325e+01 2.529030e+01 1.494320e+01 3.617657e+01 1.523923e+00 1.936502e+00 1.361566e+00 2.032385e+00 2.155174e+00 2.136417e+00 1.992690e+00 2.690023e+00 1.922634e+00 1.661019e+00 1.536783e+00 9.605097e-01 2.675263e+00 1.706847e-01 2.667364e-01 2.259955e-01 2.587114e-01 3.180566e-01 3.652556e-01 3.783003e-01 4.037685e-01 3.440376e-01 3.197828e-01 2.819383e-01 2.152663e-01 1.833911e-01
<GCONST> 1.046941e+02
<TRANSP> 5
 0.000000e+00 1.000000e+00 0.000000e+00 0.000000e+00 0.000000e+00
 0.000000e+00 7.306205e-01 2.693796e-01 0.000000e+00 0.000000e+00
 0.000000e+00 0.000000e+00 7.573597e-01 2.426403e-01 0.000000e+00
 0.000000e+00 0.000000e+00 0.000000e+00 8.978542e-01 1.021458e-01
 0.000000e+00 0.000000e+00 0.000000e+00 0.000000e+00 0.000000e+00
<ENDHMM>
~h "sil"
<BEGINHMM>
<NUMSTATES> 5
<STATE> 2
<MEAN> 39
 -2.017027e+01 1.970242e-01 8.469269e-02 2.479964e+00 -2.532121e+00 1.294846e+01 -6.077349e+00 3.960343e+00 -4.486566e+00 -3.338365e-01 -3.355235e+00 -1.986785e+00 4.816552e+01 5.288395e-01 9.861122e-01 -7.021990e-01 9.508069e-01 -8.668059e-01 4.967873e-01 -3.321680e-01 7.983772e-01 1.820124e-01 2.682035e-01 2.390576e-01 -1.611145e-01 -1.042549e+00 4.069673e-03 -2.370694e-01 -3.341312e-02 1.326991e-03 6.242239e-02 -2.618169e-01 2.076329e-01 -2.155244e-01 5.330181e-02 -7.323585e-02 1.008422e-01 2.907419e-02 3.340109e-01
<VARIANCE> 39
 8.606738e+01 8.360401e+01 7.159935e+01 4.188165e+01 2.788677e+01 2.766026e+01 4.155285e+01 2.205821e+01 2.627753e+01 1.981853e+01 1.578927e+01 1.377693e+01 1.569938e+02 1.886140e+00 2.259064e+00 1.505896e+00 2.043264e+00 2.531399e+00 2.670570e+00 2.299429e+00 2.254471e+00 2.006470e+00 1.506610e+00 1.450621e+00 1.097555e+00 2.237407e+00 2.439455e-01 1.664495e-01 1.627059e-01 2.145201e-01 3.202575e-01 3.384976e-01 2.945689e-01 3.387490e-01 3.575566e-01 2.796530e-01 2.778671e-01 1.857125e-01 1.581663e-01
<GCONST> 1.090371e+02
<STATE> 3
~s "silst"
<STATE> 4
<MEAN> 39
 -1.462974e+01 3.449127e+00 -4.631902e+00 9.180621e+00 -5.107281e+00 1.147490e+01 -4.472085e+00 6.338974e+00 -4.089718e+00 8.572297e-03 -2.380335e+00 -3.114802e+00 4.726197e+01 -9.105127e-02 1.240023e-01 -1.232670e-01 1.567733e-03 -8.155279e-02 -7.179558e-02 1.336803e-02 1.544201e-01 1.050454e-01 -2.223556e-03 4.561749e-02 5.456336e-02 -1.791296e-01 8.240321e-03 -1.104217e-01 4.501771e-02 -2.277488e-02 4.056008e-03 -3.227872e-02 2.067462e-02 -9.968749e-02 -5.796087e-02 -1.863025e-02 -9.988055e-03 1.941754e-03 1.016645e-01
<VARIANCE> 39
 5.297541e+00 6.861155e+00 6.500496e+00 5.805675e+00 9.439215e+00 1.471664e+01 2.107661e+01 2.077289e+01 1.647785e+01 1.268436e+01 1.142431e+01 1.066278e+01 6.661121e+00 1.095475e-01 3.380846e-01 4.152822e-01 4.507386e-01 6.027666e-01 6.917570e-01 8.174430e-01 9.447219e-01 9.189817e-01 9.075426e-01 8.093570e-01 7.261026e-01 9.558169e-02 2.680512e-02 1.173495e-01 8.681340e-02 1.116061e-01 1.393191e-01 1.860369e-01 1.852419e-01 2.271169e-01 1.986170e-01 1.860072e-01 1.733727e-01 1.513919e-01 7.486700e-02
<GCONST> 6.604202e+01
<TRANSP> 5
 0.000000e+00 1.000000e+00 0.000000e+00 0.000000e+00 0.000000e+00
 0.000000e+00 6.423360e-01 1.012549e-01 2.564092e-01 0.000000e+00
 0.000000e+00 0.000000e+00 8.040942e-01 1.959058e-01 0.000000e+00
 0.000000e+00 3.377588e-03 0.000000e+00 8.893692e-01 1.072533e-01
 0.000000e+00 0.000000e+00 0.000000e+00 0.000000e+00 0.000000e+00
<ENDHMM>
