~o
<STREAMINFO> 1 39
<VECSIZE> 39<NULLD><MFCC_D_A_0><DIAGC>
~h "k"
<BEGINHMM>
<NUMSTATES> 5
<STATE> 2
<MEAN> 39
 -1.511371e+01 3.726758e+00 -4.996390e+00 9.267426e+00 -4.746550e+00 1.231837e+01 -3.564220e+00 7.257032e+00 -3.317519e+00 5.717002e-01 -1.616220e+00 -2.456085e+00 4.661741e+01 -8.894237e-02 5.441608e-02 -7.830932e-02 2.996784e-02 -4.719833e-02 -5.279367e-02 5.020458e-03 1.156908e-01 9.098739e-02 1.332888e-02 4.162058e-02 1.654031e-02 -1.292632e-01 1.301528e-02 -1.428669e-01 1.334051e-02 -3.934903e-02 3.457524e-02 -4.293326e-02 1.135375e-04 -1.241441e-01 -4.537423e-02 6.009075e-03 -4.102625e-03 -6.972762e-03 1.299184e-01
<VARIANCE> 39
 4.485558e+00 4.569789e+00 5.127603e+00 4.373676e+00 8.677164e+00 1.561266e+01 2.084659e+01 2.141586e+01 1.601143e+01 1.170693e+01 1.169462e+01 1.211043e+01 4.959358e+00 8.589616e-02 2.998236e-01 3.265804e-01 3.521519e-01 5.223274e-01 6.347199e-01 7.465240e-01 8.226584e-01 8.181887e-01 8.674929e-01 7.815523e-01 7.088424e-01 9.558169e-02 1.951155e-02 1.766613e-01 6.853417e-02 1.058355e-01 1.370219e-01 1.919431e-01 1.674866e-01 2.306420e-01 1.860818e-01 1.829014e-01 1.679422e-01 1.451846e-01 1.321687e-01
<GCONST> 6.330471e+01
<STATE> 3
<MEAN> 39
 -1.589894e+01 -1.878427e+01 -2.488749e+00 -2.412745e+00 2.761616e+00 -3.410745e-01 -1.277554e+00 -1.128830e+01 -2.091251e+00 2.334219e-01 -2.933820e+00 -3.439445e+00 7.190344e+01 1.688192e-01 -1.964476e+00 1.010655e-01 -8.138921e-01 3.582856e-01 -7.346501e-01 -2.431950e-01 -1.608220e+00 -1.890115e-02 2.102804e-01 -3.209687e-01 -1.150204e-01 1.701238e+00 1.256980e-01 2.662153e-01 -1.012417e-01 2.458884e-01 -1.710359e-01 2.798612e-01 -1.690088e-01 2.626153e-01 -2.761387e-02 4.064481e-02 -4.189408e-02 2.686673e-02 -3.841212e-01
<VARIANCE> 39
 1.022120e+01 1.806578e+02 1.594998e+01 8.018784e+01 3.913717e+01 1.102290e+02 3.001161e+01 1.761583e+02 3.180152e+01 2.474696e+01 2.525640e+01 2.132340e+01 2.592358e+02 1.216548e+00 1.814437e+01 1.796164e+00 9.155175e+00 5.125437e+00 1.451049e+01 3.544758e+00 1.699025e+01 2.955211e+00 2.738405e+00 2.027064e+00 1.745577e+00 3.299538e+01 1.598212e-01 3.204742e+00 3.706913e-01 1.434424e+00 8.083277e-01 2.236183e+00 5.579795e-01 2.741603e+00 5.656487e-01 5.239137e-01 3.888738e-01 3.579949e-01 5.139133e+00
<GCONST> 1.411274e+02
<STATE> 4
<MEAN> 39
 -1.014818e+01 -1.265799e+01 -6.613418e+00 8.768420e+00 -2.901112e+00 1.050657e+01 -8.714558e+00 -7.303105e+00 -6.459779e+00 4.526450e+00 -5.272659e+00 -4.442234e+00 5.871636e+01 5.319148e-02 1.772485e+00 -4.465270e-01 1.224941e+00 -1.578669e-01 1.030000e+00 4.492617e-02 1.261312e+00 -2.261147e-01 1.628965e-01 3.749840e-01 -4.133742e-02 -1.727257e+00 -2.161430e-01 -7.475214e-02 1.739973e-01 -3.191478e-01 1.920865e-01 -2.735044e-01 2.581027e-01 -8.511827e-02 1.111008e-01 -1.113380e-01 1.108093e-01 -1.217706e-02 2.940141e-01
<VARIANCE> 39
 8.078719e+00 3.568890e+01 1.363456e+01 3.113951e+01 1.539551e+01 3.062389e+01 3.412571e+01 3.952039e+01 4.352086e+01 2.141847e+01 2.908271e+01 2.590300e+01 2.476645e+01 1.308231e+00 9.975528e-01 1.259482e+00 2.977374e+00 2.312361e+00 2.410565e+00 3.247673e+00 3.706944e+00 4.980700e+00 2.059962e+00 1.841458e+00 1.656899e+00 1.140951e+00 1.565190e-01 1.948895e-01 1.851544e-01 3.186614e-01 3.762522e-01 3.718391e-01 5.469032e-01 7.853805e-01 9.743084e-01 4.271937e-01 3.675323e-01 3.313520e-01 1.953286e-01
<GCONST> 1.090494e+02
<TRANSP> 5
 0.000000e+00 1.000000e+00 0.000000e+00 0.000000e+00 0.000000e+00
 0.000000e+00 9.064563e-01 9.354377e-02 0.000000e+00 0.000000e+00
 0.000000e+00 0.000000e+00 9.149985e-01 8.500148e-02 0.000000e+00
 0.000000e+00 0.000000e+00 0.000000e+00 8.887330e-01 1.112670e-01
 0.000000e+00 0.000000e+00 0.000000e+00 0.000000e+00 0.000000e+00
<ENDHMM>
~h "p"
<BEGINHMM>
<NUMSTATES> 5
<STATE> 2
<MEAN> 39
 -1.475803e+01 4.116215e+00 -4.653969e+00 9.564928e+00 -5.203769e+00 1.152029e+01 -4.149562e+00 6.984877e+00 -3.745843e+00 -1.529716e-01 -2.514365e+00 -3.272809e+00 4.673171e+01 -1.112642e-01 3.068000e-02 -1.245622e-01 -4.587334e-02 -9.064105e-02 -4.995492e-02 -8.566597e-03 9.458049e-02 8.259697e-02 4.673079e-02 7.945467e-02 5.406468e-02 -1.445822e-01 3.949106e-02 -7.582010e-02 4.545083e-02 -2.916981e-02 1.012017e-02 -6.029984e-02 1.086473e-02 -8.986403e-02 -5.469839e-02 -3.998158e-02 -4.383057e-03 -6.464330e-03 1.209685e-01
<VARIANCE> 39
 5.752727e+00 4.195990e+00 4.949024e+00 4.721922e+00 8.048553e+00 1.345246e+01 1.928125e+01 2.008965e+01 1.630927e+01 1.142944e+01 9.970475e+00 9.428238e+00 5.663863e+00 8.334317e-02 2.582299e-01 3.134317e-01 4.291304e-01 5.198394e-01 5.827768e-01 7.209529e-01 8.117350e-01 8.082744e-01 7.968971e-01 7.204082e-01 6.807576e-01 9.558169e-02 2.213412e-02 1.011572e-01 7.616305e-02 1.120377e-01 1.313702e-01 1.596331e-01 1.694044e-01 2.133090e-01 1.769689e-01 1.771024e-01 1.522918e-01 1.372114e-01 1.317290e-01
<GCONST> 6.167823e+01
<STATE> 3
<MEAN> 39
 -9.119463e+00 -5.249686e+00 1.908907e+00 3.500652e+00 9.452060e-01 3.660912e+00 -2.768497e-01 -1.426482e+00 -3.967562e+00 -5.824975e+00 -3.073124e+00 -3.155145e+00 6.621289e+01 1.532176e+00 -1.210106e+00 9.144372e-01 -3.373563e-01 7.014132e-01 -5.601549e-01 4.335591e-01 -8.976959e-01 -1.056648e-01 -9.978724e-01 -6.121027e-01 -1.631317e-01 2.683677e+00 7.753082e-02 3.505438e-01 -1.954168e-01 3.857304e-01 -3.455313e-01 4.486028e-01 -2.030709e-01 3.712726e-01 -3.499082e-02 1.891671e-01 -1.087229e-01 -5.030774e-02 -6.449407e-01
<VARIANCE> 39
 3.422374e+01 5.873415e+01 3.745252e+01 4.098891e+01 4.705663e+01 7.250443e+01 3.290606e+01 8.191414e+01 2.348704e+01 4.292456e+01 2.329298e+01 1.724916e+01 2.577194e+02 1.665373e+00 7.455678e+00 4.456575e+00 7.123662e+00 7.359407e+00 1.283122e+01 4.202299e+00 1.294603e+01 2.529043e+00 4.532759e+00 2.232023e+00 1.495359e+00 3.629247e+01 4.060561e-01 1.580416e+00 9.920387e-01 1.252398e+00 1.529121e+00 2.311019e+00 8.752694e-01 2.534696e+00 5.105349e-01 1.006762e+00 4.320733e-01 3.065144e-01 7.879363e+00
<GCONST> 1.440845e+02
<STATE> 4
<MEAN> 39
 -2.736822e+00 3.877196e+00 1.280860e+00 1.295998e+01 -3.563451e+00 1.053809e+01 -4.245069e+00 2.765248e+00 -7.900909e+00 -4.869164e+00 -7.934328e+00 -6.474335e+00 5.795829e+01 -4.894483e-01 1.261893e+00 -4.195439e-01 6.234251e-01 -4.180427e-01 4.546691e-01 -3.500948e-01 4.591362e-01 -3.728652e-01 4.842813e-01 1.135638e-01 -1.481937e-01 -1.687402e+00 -2.062603e-01 -2.059597e-01 1.044829e-01 -3.312272e-01 2.651500e-01 -3.055550e-01 1.481947e-01 -2.489424e-01 2.717018e-02 -1.052188e-01 1.422509e-01 7.271136e-02 3.303370e-01
<VARIANCE> 39
 1.480448e+01 3.615442e+01 1.762308e+01 1.864626e+01 1.840454e+01 1.792089e+01 1.849006e+01 1.686459e+01 2.309573e+01 1.878359e+01 1.449777e+01 1.599977e+01 2.718833e+01 7.871250e-01 1.431155e+00 1.470207e+00 2.155708e+00 2.906804e+00 2.393350e+00 1.716263e+00 1.764913e+00 1.756803e+00 1.705038e+00 1.200686e+00 1.235403e+00 1.451774e+00 7.500242e-02 1.279051e-01 2.347714e-01 2.907579e-01 4.474340e-01 5.523100e-01 3.160184e-01 3.742812e-01 3.249043e-01 3.005970e-01 2.552700e-01 2.280845e-01 1.190948e-01
<GCONST> 9.814139e+01
<TRANSP> 5
 0.000000e+00 1.000000e+00 0.000000e+00 0.000000e+00 0.000000e+00
 0.000000e+00 9.182338e-01 8.176619e-02 0.000000e+00 0.000000e+00
 0.000000e+00 0.000000e+00 8.636588e-01 1.363412e-01 0.000000e+00
 0.000000e+00 0.000000e+00 0.000000e+00 8.817641e-01 1.182359e-01
 0.000000e+00 0.000000e+00 0.000000e+00 0.000000e+00 0.000000e+00
<ENDHMM>
~h "s"
<BEGINHMM>
<NUMSTATES> 5
<STATE> 2
<MEAN> 39
 -1.432803e+01 3.370633e+00 -4.771533e+00 8.933386e+00 -5.439341e+00 1.074208e+01 -5.245288e+00 5.649219e+00 -4.650217e+00 -3.932204e-01 -2.751208e+00 -3.322407e+00 4.754290e+01 -9.461071e-02 8.989049e-02 -5.504794e-02 -6.637885e-03 -1.240141e-01 -4.397860e-02 6.588696e-02 1.274827e-01 1.039316e-01 -1.123939e-02 1.287193e-02 4.761207e-02 -1.451647e-01 -7.650597e-02 -2.840988e-01 8.307292e-02 -6.526010e-02 8.056334e-02 -1.201207e-01 1.191264e-01 -2.561396e-01 -3.597785e-02 -2.612821e-02 -6.919000e-03 6.974824e-02 2.250614e-01
<VARIANCE> 39
 5.009137e+00 6.716619e+00 6.637233e+00 6.014598e+00 9.406696e+00 1.415147e+01 2.064136e+01 1.945269e+01 1.560135e+01 1.261863e+01 1.166682e+01 1.062816e+01 6.937899e+00 1.263780e-01 3.801761e-01 4.560054e-01 4.695291e-01 6.069147e-01 7.448713e-01 8.950768e-01 1.007327e+00 9.743794e-01 9.615153e-01 8.616637e-01 7.476398e-01 1.017426e-01 7.333462e-02 3.616310e-01 1.460103e-01 1.880053e-01 2.086285e-01 3.038909e-01 2.874699e-01 4.015929e-01 2.248042e-01 2.191748e-01 1.980164e-01 1.948637e-01 2.419411e-01
<GCONST> 7.371493e+01
<STATE> 3
<MEAN> 39
 -2.653176e+01 -1.570979e+01 6.744119e+00 -8.101465e+00 7.752475e+00 9.520752e-01 3.875990e+00 -7.140702e+00 -2.313671e+00 -4.205657e+00 -3.454776e-01 1.060018e+00 7.040678e+01 -4.354852e-01 -8.198780e-01 7.947035e-01 -8.709856e-01 4.745575e-01 -1.486066e-01 2.633290e-01 -3.793090e-01 -1.199451e-01 -1.964264e-01 -5.882021e-02 2.176917e-01 8.014929e-01 1.602376e-01 2.583295e-01 -7.303086e-02 1.573415e-01 -1.545654e-01 1.751769e-01 -1.745678e-01 2.227355e-01 -6.691824e-02 5.937281e-02 -4.502524e-02 -7.362321e-02 -2.617823e-01
<VARIANCE> 39
 4.515358e+01 6.758950e+01 5.873842e+01 9.853448e+01 6.700352e+01 7.540323e+01 3.991109e+01 5.772425e+01 2.719497e+01 2.593040e+01 3.031823e+01 2.062071e+01 1.120270e+02 4.430618e+00 7.945239e+00 2.749837e+00 7.406297e+00 6.455013e+00 7.922243e+00 4.529686e+00 7.546011e+00 2.439636e+00 2.337897e+00 2.270703e+00 1.919345e+00 1.122624e+01 4.711531e-01 1.084199e+00 4.969536e-01 9.716873e-01 9.035900e-01 1.062758e+00 7.012392e-01 1.067723e+00 4.126504e-01 4.278829e-01 3.796040e-01 3.687056e-01 1.061491e+00
<GCONST> 1.366516e+02
<STATE> 4
<MEAN> 39
 -1.767820e+01 -6.374855e+00 7.713122e+00 -7.286056e-01 -3.057020e+00 1.347479e+01 -4.177374e+00 2.907785e+00 -7.163708e+00 -2.012851e+00 -4.541494e+00 -1.370299e+00 5.648309e+01 1.177736e+00 1.937416e+00 -1.482725e+00 1.964018e+00 -1.697665e+00 9.853479e-01 -9.608264e-01 1.018046e+00 2.686891e-01 5.210947e-01 1.805786e-01 -5.630023e-01 -1.968732e+00 -2.639513e-01 -2.467504e-01 -1.762556e-01 -1.482222e-01 3.154120e-01 -4.069715e-01 3.199779e-01 -3.703612e-01 2.713016e-01 -6.096021e-02 2.000300e-01 5.698800e-02 3.548037e-01
<VARIANCE> 39
 1.321037e+01 2.615692e+01 3.167995e+01 3.057167e+01 4.893306e+01 4.280907e+01 3.328273e+01 2.387960e+01 2.965269e+01 2.353352e+01 2.199479e+01 1.748812e+01 1.789386e+01 8.567141e-01 1.546708e+00 1.355677e+00 1.355478e+00 2.738983e+00 3.818799e+00 2.513710e+00 2.623234e+00 2.735862e+00 2.169298e+00 1.826486e+00 1.314351e+00 9.945785e-01 1.047333e-01 2.256355e-01 2.115812e-01 2.217939e-01 4.476238e-01 5.143284e-01 3.643086e-01 4.693199e-01 5.464538e-01 4.336269e-01 4.171502e-01 2.756747e-01 8.501612e-02
<GCONST> 1.057760e+02
<TRANSP> 5
 0.000000e+00 1.000000e+00 0.000000e+00 0.000000e+00 0.000000e+00
 0.000000e+00 8.704118e-01 1.295882e-01 0.000000e+00 0.000000e+00
 0.000000e+00 0.000000e+00 9.393873e-01 6.061268e-02 0.000000e+00
 0.000000e+00 0.000000e+00 0.000000e+00 7.948363e-01 2.051636e-01
 0.000000e+00 0.000000e+00 0.000000e+00 0.000000e+00 0.000000e+00
<ENDHMM>
~h "sil"
<BEGINHMM>
<NUMSTATES> 5
<STATE> 2
<MEAN> 39
 -1.761569e+01 4.268223e+00 -4.704481e+00 7.334206e+00 -4.377561e+00 1.199036e+01 -6.121479e+00 5.334910e+00 -3.811515e+00 1.116415e-01 -2.663123e+00 -2.950373e+00 4.498123e+01 -1.196025e-01 2.352726e-01 -2.142338e-01 8.207828e-02 -9.079467e-02 -1.018791e-01 4.959470e-02 1.526322e-01 1.450052e-03 3.753992e-03 1.322323e-01 7.673980e-02 -3.097270e-01 3.390702e-02 -1.389944e-01 6.511820e-02 -1.661160e-02 -1.305189e-02 -6.605655e-02 3.994470e-02 -6.357409e-02 -8.022346e-02 -5.260241e-02 -1.537669e-02 2.518830e-03 1.427924e-01
<VARIANCE> 39
 8.441066e+01 3.424405e+01 1.729192e+01 2.224430e+01 1.193254e+01 1.520190e+01 3.200569e+01 1.823584e+01 1.859439e+01 1.306980e+01 1.116213e+01 1.017621e+01 8.787952e+01 4.549318e-01 6.862431e-01 7.564725e-01 8.225796e-01 9.148578e-01 1.110194e+00 9.853384e-01 1.260435e+00 1.266428e+00 1.045056e+00 9.267119e-01 8.034254e-01 4.285869e-01 8.684558e-02 1.064808e-01 9.985361e-02 1.504754e-01 1.808534e-01 2.157254e-01 2.042886e-01 2.285251e-01 2.382465e-01 1.841320e-01 1.773281e-01 1.546705e-01 8.854625e-02
<GCONST> 8.526561e+01
<STATE> 3
<MEAN> 39
 -1.592952e+01 -2.339247e+00 -2.513920e+00 5.212584e+00 -2.747202e+00 9.151679e+00 -3.511439e+00 1.928809e+00 -5.607601e+00 -1.021682e+00 -2.295661e+00 -2.199015e+00 5.312760e+01 6.580672e-01 -3.113441e-01 2.579927e-02 4.201876e-01 -1.732571e-01 -3.094648e-01 4.099783e-01 1.327213e-01 -2.548328e-01 -1.711497e-01 9.758512e-02 1.016068e-02 6.171515e-01 -1.170792e-02 9.458547e-02 4.274104e-02 -1.335842e-02 3.691591e-02 1.155512e-01 -2.837402e-02 9.000771e-02 1.213237e-01 2.077913e-02 -1.082778e-01 -3.418709e-02 -6.857511e-02
<VARIANCE> 39
 7.340611e+01 1.116953e+02 4.918431e+01 7.374129e+01 5.169646e+01 7.339468e+01 5.241275e+01 7.163979e+01 4.277063e+01 3.122325e+01 3.119782e+01 2.624819e+01 1.957554e+02 4.786760e+00 6.512008e+00 2.473147e+00 4.898720e+00 3.648842e+00 6.006386e+00 3.628205e+00 5.357698e+00 3.637506e+00 2.462603e+00 2.281880e+00 1.770559e+00 1.088270e+01 6.236500e-01 1.112046e+00 4.254355e-01 8.229052e-01 7.090161e-01 1.148355e+00 6.782126e-01 9.960249e-01 7.863955e-01 5.181703e-01 4.723477e-01 3.596160e-01 1.762893e+00
<GCONST> 1.383865e+02
<STATE> 4
<MEAN> 39
 -1.231265e+01 1.633886e+00 -2.725080e+00 9.908637e+00 -4.492906e+00 1.168401e+01 -3.753233e+00 4.362980e+00 -6.361868e+00 -6.206346e-01 -3.343131e+00 -3.937937e+00 5.057684e+01 -3.811669e-01 6.418868e-01 -2.925608e-01 6.398273e-02 1.675052e-01 2.100946e-01 8.030266e-02 7.187195e-01 6.771960e-01 2.348348e-01 6.671729e-02 6.467399e-02 -7.472073e-01 -5.002543e-02 -1.348553e-01 3.300418e-02 -1.156247e-01 6.864426e-02 -6.301181e-02 7.643335e-03 -2.150915e-02 1.012236e-01 3.195463e-02 7.151660e-03 6.260157e-02 1.152804e-01
<VARIANCE> 39
 2.390042e+01 2.899234e+01 2.157297e+01 1.997800e+01 1.787736e+01 2.192394e+01 2.952507e+01 2.758484e+01 2.537900e+01 2.488693e+01 2.117268e+01 1.834877e+01 2.470992e+01 6.486908e-01 1.518107e+00 1.194801e+00 1.665197e+00 1.698905e+00 2.073013e+00 2.103132e+00 2.249464e+00 2.451384e+00 1.737378e+00 1.653140e+00 1.232555e+00 6.888559e-01 1.110253e-01 2.255536e-01 1.915135e-01 2.809229e-01 3.061174e-01 3.872244e-01 3.890356e-01 3.866468e-01 4.233727e-01 3.145761e-01 3.234026e-01 2.443626e-01 1.538090e-01
<GCONST> 1.007868e+02
<TRANSP> 5
 0.000000e+00 1.000000e+00 0.000000e+00 0.000000e+00 0.000000e+00
 0.000000e+00 6.825462e-01 3.174538e-01 0.000000e+00 0.000000e+00
 0.000000e+00 0.000000e+00 5.356568e-01 4.643432e-01 0.000000e+00
 0.000000e+00 0.000000e+00 0.000000e+00 4.490123e-01 5.509877e-01
 0.000000e+00 0.000000e+00 0.000000e+00 0.000000e+00 0.000000e+00
<ENDHMM>
