~o
<STREAMINFO> 1 39
<VECSIZE> 39<NULLD><MFCC_D_A_0><DIAGC>
~h "k"
<BEGINHMM>
<NUMSTATES> 5
<STATE> 2
<MEAN> 39
 -1.477796e+01 -2.001801e-01 -4.380157e+00 9.230263e+00 -3.667352e+00 1.201087e+01 -2.381503e+00 6.586241e+00 -3.524957e+00 1.252578e+00 -1.686837e+00 -2.380461e+00 4.946892e+01 -2.303035e-01 -4.838943e+00 1.624420e-01 -2.430908e+00 1.953276e+00 -3.380807e+00 4.490806e-01 -3.966392e+00 5.348502e-02 4.459736e-02 6.142161e-02 1.434707e-01 5.463737e+00 -1.193116e-01 -1.836338e+00 8.622912e-02 -1.233333e+00 6.992412e-01 -1.348900e+00 1.498765e-01 -1.711118e+00 1.341757e-01 -2.440479e-01 -3.370734e-02 -1.515802e-02 2.404876e+00
<VARIANCE> 39
 7.999730e+00 6.067700e+01 1.207253e+01 2.020985e+01 1.965806e+01 3.351363e+01 3.199899e+01 3.898954e+01 2.671023e+01 2.464644e+01 1.851774e+01 1.589620e+01 3.562739e+01 9.287925e-01 1.816579e+01 1.793040e+00 7.410042e+00 4.284999e+00 1.170595e+01 3.549358e+00 1.475969e+01 3.735082e+00 3.354844e+00 2.366159e+00 1.717690e+00 2.321227e+01 1.204091e-01 2.006676e+00 2.616348e-01 5.454039e-01 5.428908e-01 1.084871e+00 5.571576e-01 1.297869e+00 5.763145e-01 5.128905e-01 4.066353e-01 2.965955e-01 1.797452e+00
<GCONST> 1.261192e+02
<STATE> 3
<MEAN> 39
 -1.705854e+01 -2.795315e+01 -2.290649e+00 -8.465940e+00 7.075468e+00 -7.801900e+00 4.421282e-02 -1.968782e+01 -1.015647e+00 -1.136377e+00 -2.635240e+00 -3.431159e+00 8.439565e+01 -9.698393e-02 -2.092239e+00 4.496571e-01 -1.346466e+00 3.139393e-01 -9.107676e-01 -8.846238e-03 -2.351763e+00 2.346634e-01 -1.828889e-01 -4.161849e-01 -4.896080e-01 2.326570e+00 2.271723e-01 1.531471e+00 -1.865259e-02 1.022028e+00 -7.266537e-01 1.335582e+00 -3.207842e-01 1.411116e+00 -1.919053e-01 2.861522e-01 -1.022364e-01 -1.659792e-02 -2.180571e+00
<VARIANCE> 39
 8.408369e+00 1.461507e+01 1.589481e+01 1.921501e+01 1.701778e+01 4.721249e+01 2.491497e+01 3.805874e+01 3.880071e+01 2.466376e+01 2.685407e+01 2.507960e+01 2.541871e+01 8.560389e-01 1.612830e+01 1.429099e+00 7.544582e+00 4.439467e+00 1.316127e+01 2.879562e+00 1.330759e+01 2.904149e+00 2.686511e+00 1.855995e+00 1.763672e+00 3.010954e+01 1.398237e-01 1.272126e+00 3.582570e-01 5.848992e-01 4.740044e-01 1.205506e+00 5.376341e-01 1.003472e+00 5.880385e-01 5.389079e-01 3.912462e-01 4.102995e-01 1.627051e+00
<GCONST> 1.247693e+02
<STATE> 4
<MEAN> 39
 -1.107082e+01 -1.696111e+01 -4.646008e+00 4.588016e+00 -1.642457e+00 6.839515e+00 -7.795264e+00 -1.104243e+01 -5.803593e+00 3.576287e+00 -5.700021e+00 -4.465539e+00 6.424767e+01 5.239734e-01 1.779056e+00 -6.107231e-01 1.722551e+00 -6.632848e-01 1.559640e+00 -5.391070e-01 1.486478e+00 -5.342237e-01 4.771093e-01 5.219802e-02 2.416379e-02 -2.420152e+00 -1.438932e-01 5.122004e-02 -2.344556e-02 -1.105390e-01 1.620460e-01 -1.503169e-01 1.837006e-01 5.699267e-02 1.588776e-01 -8.577225e-02 1.242018e-01 1.062457e-02 1.618425e-01
<VARIANCE> 39
 1.310833e+01 4.478577e+01 2.039267e+01 6.543779e+01 2.131302e+01 5.044600e+01 3.523518e+01 4.895063e+01 4.693773e+01 2.151776e+01 2.697349e+01 2.725276e+01 6.694595e+01 1.364078e+00 1.021774e+00 1.381245e+00 2.612758e+00 2.214541e+00 2.799341e+00 3.601357e+00 4.504368e+00 4.709560e+00 2.121965e+00 1.963870e+00 1.782835e+00 2.330049e+00 2.005189e-01 2.250579e-01 3.045875e-01 4.639130e-01 3.596674e-01 4.326810e-01 6.003256e-01 9.542207e-01 9.901878e-01 4.339289e-01 3.713316e-01 3.745196e-01 3.224071e-01
<GCONST> 1.166084e+02
<TRANSP> 5
 0.000000e+00 1.000000e+00 0.000000e+00 0.000000e+00 0.000000e+00
 0.000000e+00 7.061647e-01 2.938353e-01 0.000000e+00 0.000000e+00
 0.000000e+00 0.000000e+00 8.283148e-01 1.716852e-01 0.000000e+00
 0.000000e+00 0.000000e+00 0.000000e+00 9.043385e-01 9.566151e-02
 0.000000e+00 0.000000e+00 0.000000e+00 0.000000e+00 0.000000e+00
<ENDHMM>
~h "p"
<BEGINHMM>
<NUMSTATES> 5
<STATE> 2
<MEAN> 39
 -1.479107e+01 1.954793e+00 -3.509351e+00 8.192470e+00 -5.287280e+00 1.058745e+01 -3.580771e+00 6.244237e+00 -3.853599e+00 -9.272361e-02 -2.140142e+00 -2.794183e+00 4.883526e+01 1.439326e+00 -2.902946e+00 1.667773e+00 -2.110659e+00 1.886930e+00 -3.052849e+00 9.497153e-01 -3.131511e+00 -3.421503e-01 -1.823149e+00 5.152221e-02 4.563867e-02 6.060450e+00 7.165382e-01 -8.404807e-01 7.771018e-01 -6.155028e-01 8.677436e-01 -8.475531e-01 4.129953e-01 -9.975371e-01 1.936127e-02 -7.382462e-01 -7.929800e-02 -5.724545e-02 2.295175e+00
<VARIANCE> 39
 9.883198e+00 2.719949e+01 1.607051e+01 1.619123e+01 1.586631e+01 2.831885e+01 2.616031e+01 3.339142e+01 1.935254e+01 1.657981e+01 1.319601e+01 1.164939e+01 4.312904e+01 1.679094e+00 4.522132e+00 3.535878e+00 3.622126e+00 4.288563e+00 6.345722e+00 3.526659e+00 7.476428e+00 2.895617e+00 3.925858e+00 1.822047e+00 1.698264e+00 1.933499e+01 1.063039e-01 5.985098e-01 2.918443e-01 5.525002e-01 4.524010e-01 8.817168e-01 4.914401e-01 9.361624e-01 4.377722e-01 3.981322e-01 2.746041e-01 2.679312e-01 1.468933e+00
<GCONST> 1.177117e+02
<STATE> 3
<MEAN> 39
 -4.195591e+00 -8.833195e+00 5.140060e+00 1.822415e+00 3.490940e+00 9.219961e-01 1.053189e+00 -4.945790e+00 -4.233379e+00 -9.203714e+00 -4.761809e+00 -3.708125e+00 7.578931e+01 1.533451e+00 3.048052e-01 6.254524e-02 1.121643e+00 -5.422304e-01 1.145380e+00 -1.777157e-01 7.571459e-01 -6.766518e-02 -1.637487e-01 -9.504896e-01 -3.560260e-01 -1.402578e-01 -3.458714e-01 9.325833e-01 -6.627749e-01 7.737643e-01 -8.470707e-01 8.897691e-01 -4.495832e-01 9.124378e-01 -9.354207e-02 6.524438e-01 -2.533237e-02 -4.073102e-02 -1.983963e+00
<VARIANCE> 39
 1.186430e+01 2.208556e+01 1.740282e+01 4.022014e+01 3.563490e+01 6.262125e+01 2.892390e+01 5.229224e+01 3.018060e+01 2.453535e+01 3.200051e+01 2.351954e+01 6.888631e+01 1.470260e+00 6.013058e+00 4.366563e+00 6.005113e+00 8.216824e+00 1.034778e+01 4.433607e+00 1.023732e+01 2.521154e+00 4.449543e+00 1.981509e+00 1.586606e+00 3.295858e+01 1.468804e-01 6.553735e-01 4.919389e-01 9.319923e-01 1.007106e+00 2.113812e+00 7.346072e-01 1.917916e+00 5.503129e-01 5.637784e-01 5.393065e-01 3.620675e-01 3.813044e+00
<GCONST> 1.335669e+02
<STATE> 4
<MEAN> 39
 -4.058302e+00 5.261710e+00 9.680212e-01 1.327036e+01 -3.756640e+00 1.064846e+01 -4.528859e+00 2.912917e+00 -8.594870e+00 -4.510433e+00 -7.591995e+00 -6.652139e+00 5.590424e+01 -7.101389e-01 8.500620e-01 -2.965149e-01 1.971866e-01 -8.913514e-02 2.174521e-01 -1.320945e-01 2.372813e-01 -2.547469e-01 2.943137e-01 1.837731e-01 -6.308313e-02 -1.258186e+00 -1.424059e-01 -2.039337e-01 9.149715e-02 -2.436396e-01 2.057832e-01 -1.454612e-01 1.237030e-01 -9.833828e-02 1.113518e-01 -6.857990e-02 8.734436e-02 7.082073e-02 2.401220e-01
<VARIANCE> 39
 1.702225e+01 2.691327e+01 1.710136e+01 1.584139e+01 1.645071e+01 1.577186e+01 1.770774e+01 1.560636e+01 1.962701e+01 1.604935e+01 1.430908e+01 1.438866e+01 2.095126e+01 5.443857e-01 1.582291e+00 1.287217e+00 1.672387e+00 1.899496e+00 1.634070e+00 1.492240e+00 1.435483e+00 1.795207e+00 1.547692e+00 1.178554e+00 1.155521e+00 8.179184e-01 7.391581e-02 1.407966e-01 2.247675e-01 2.977318e-01 4.022436e-01 4.432595e-01 3.192038e-01 3.690374e-01 3.464827e-01 2.999607e-01 2.491045e-01 2.221579e-01 9.782076e-02
<GCONST> 9.373471e+01
<TRANSP> 5
 0.000000e+00 1.000000e+00 0.000000e+00 0.000000e+00 0.000000e+00
 0.000000e+00 6.656611e-01 3.343390e-01 0.000000e+00 0.000000e+00
 0.000000e+00 0.000000e+00 8.309502e-01 1.690498e-01 0.000000e+00
 0.000000e+00 0.000000e+00 0.000000e+00 9.017384e-01 9.826156e-02
 0.000000e+00 0.000000e+00 0.000000e+00 0.000000e+00 0.000000e+00
<ENDHMM>
~h "s"
<BEGINHMM>
<NUMSTATES> 5
<STATE> 2
<MEAN> 39
 -1.667457e+01 -5.240231e+00 -1.815077e+00 7.384880e+00 -2.717839e+00 7.491093e+00 1.449287e-01 2.073419e-01 -4.066061e+00 -6.543374e-01 -3.302701e+00 -1.347751e-01 5.424282e+01 -2.368483e+00 -4.552218e+00 1.480957e+00 -2.705370e+00 2.563069e+00 -3.252072e+00 2.578230e+00 -3.620475e+00 4.160338e-01 -9.056205e-01 3.107826e-01 1.478580e+00 4.559325e+00 -6.881919e-01 -4.626424e-01 4.229122e-01 -1.126377e+00 9.241698e-01 -6.308068e-01 2.181512e-01 -3.674604e-01 8.905847e-02 -2.462955e-01 2.463475e-01 -9.579884e-02 1.080644e+00
<VARIANCE> 39
 2.599140e+01 1.072381e+02 3.565517e+01 4.473621e+01 4.262418e+01 7.800887e+01 6.038951e+01 9.230752e+01 3.398286e+01 3.146298e+01 3.324773e+01 3.553032e+01 7.166264e+01 3.329461e+00 7.766768e+00 4.610219e+00 8.008326e+00 7.004439e+00 8.704672e+00 5.061883e+00 7.742700e+00 3.478160e+00 3.084776e+00 2.916635e+00 2.387761e+00 7.829610e+00 3.349460e-01 2.358297e+00 7.884106e-01 8.593674e-01 8.627170e-01 1.610546e+00 1.137532e+00 2.027197e+00 5.604866e-01 5.694225e-01 5.270508e-01 6.962938e-01 1.280373e+00
<GCONST> 1.416948e+02
<STATE> 3
<MEAN> 39
 -2.901921e+01 -1.856462e+01 5.098896e+00 -1.092446e+01 1.187259e+01 -5.944515e+00 7.420072e+00 -1.036819e+01 -2.109330e+00 -5.093286e+00 4.502059e-01 1.439791e+00 7.534195e+01 -1.713407e+00 -6.907887e-01 1.154517e+00 -2.981851e+00 1.784482e+00 -7.737819e-01 3.598028e-02 -2.883081e-01 6.307256e-02 -5.346814e-01 7.598708e-01 -4.495702e-01 2.684830e+00 7.828087e-01 9.179382e-01 -2.885690e-01 1.008117e+00 -9.561512e-01 1.121491e+00 -6.469592e-01 8.054588e-01 -1.270025e-01 2.241148e-01 -2.156762e-01 -1.666288e-01 -1.251103e+00
<VARIANCE> 39
 1.606767e+01 2.173386e+01 5.104367e+01 4.091099e+01 3.813082e+01 4.076196e+01 3.107922e+01 3.005593e+01 2.985816e+01 2.202454e+01 3.167658e+01 1.919195e+01 2.650728e+01 3.618727e+00 4.464737e+00 3.896421e+00 6.288698e+00 6.261424e+00 6.390243e+00 3.621919e+00 4.322425e+00 2.323085e+00 2.532758e+00 2.360498e+00 1.722770e+00 5.581665e+00 3.094701e-01 1.021141e+00 7.624545e-01 6.105506e-01 7.338884e-01 7.868573e-01 7.186760e-01 9.571142e-01 4.662221e-01 4.959461e-01 4.320203e-01 4.328370e-01 3.850444e-01
<GCONST> 1.259217e+02
<STATE> 4
<MEAN> 39
 -2.784960e+01 -1.740886e+01 1.066424e+01 -1.188425e+01 8.789804e+00 2.804472e+00 2.993880e+00 -7.001106e+00 -3.018561e+00 -4.885937e+00 -5.427046e-01 1.235491e+00 7.243367e+01 1.024676e+00 8.889048e-01 1.627783e-01 9.765968e-01 -1.119101e+00 1.450724e+00 -7.336285e-01 1.048916e+00 -4.694065e-01 2.619544e-01 -5.302020e-01 -9.226936e-02 -1.677041e+00 1.568811e-01 2.076014e-01 -1.860346e-01 2.652582e-01 -2.204742e-01 6.996762e-02 -8.454042e-02 1.144667e-01 1.073190e-02 9.507798e-02 5.942920e-03 -4.173657e-02 -2.760417e-01
<VARIANCE> 39
 2.743384e+01 2.523957e+01 2.900738e+01 2.972207e+01 4.659862e+01 6.589619e+01 3.068222e+01 4.001403e+01 3.044967e+01 2.142901e+01 3.010927e+01 1.526364e+01 5.695410e+01 1.462725e+00 2.475666e+00 1.543464e+00 2.098917e+00 2.315837e+00 2.355155e+00 2.326342e+00 2.920581e+00 2.076862e+00 1.760493e+00 1.572413e+00 1.102266e+00 2.491351e+00 2.098202e-01 2.983209e-01 2.078017e-01 2.527206e-01 3.165414e-01 4.059075e-01 4.023783e-01 4.734630e-01 4.341466e-01 3.433340e-01 3.601337e-01 2.235540e-01 2.291149e-01
<GCONST> 1.102827e+02
<TRANSP> 5
 0.000000e+00 1.000000e+00 0.000000e+00 0.000000e+00 0.000000e+00
 0.000000e+00 7.389563e-01 2.610438e-01 0.000000e+00 0.000000e+00
 0.000000e+00 0.000000e+00 7.539380e-01 2.460620e-01 0.000000e+00
 0.000000e+00 0.000000e+00 0.000000e+00 9.088957e-01 9.110427e-02
 0.000000e+00 0.000000e+00 0.000000e+00 0.000000e+00 0.000000e+00
<ENDHMM>
~h "sil"
<BEGINHMM>
<NUMSTATES> 5
<STATE> 2
<MEAN> 39
 -2.101909e+01 2.337575e+00 -2.218843e+00 3.488760e+00 -3.154481e+00 1.296143e+01 -7.520163e+00 3.680076e+00 -4.330774e+00 -8.450007e-02 -3.336459e+00 -2.455223e+00 4.510571e+01 1.864375e-01 7.753422e-01 -5.629547e-01 6.708894e-01 -6.810992e-01 4.874973e-01 -1.372609e-01 6.706127e-01 4.000848e-01 3.111857e-01 4.440181e-01 -1.095218e-01 -9.001229e-01 3.651167e-02 -2.200247e-01 -3.685419e-02 1.171338e-02 8.122264e-02 -2.385891e-01 2.057576e-01 -1.444322e-01 7.980044e-02 -3.561276e-02 7.599212e-02 4.984032e-02 2.893907e-01
<VARIANCE> 39
 1.181913e+02 8.538438e+01 6.595560e+01 3.846116e+01 1.938140e+01 2.154586e+01 4.090218e+01 2.268521e+01 2.835185e+01 1.903624e+01 1.390489e+01 1.265304e+01 1.769181e+02 1.356803e+00 1.874421e+00 1.216969e+00 2.021069e+00 2.472939e+00 2.453817e+00 1.899239e+00 1.951806e+00 1.933360e+00 1.419520e+00 1.226517e+00 1.052552e+00 1.567085e+00 2.497921e-01 1.566889e-01 1.362680e-01 2.035865e-01 2.751646e-01 3.048948e-01 3.039589e-01 3.423252e-01 3.445533e-01 2.604223e-01 2.346688e-01 1.728172e-01 1.717605e-01
<GCONST> 1.059563e+02
<STATE> 3
<MEAN> 39
 -1.527086e+01 -6.557077e-01 -2.354085e+00 7.715356e+00 -5.495064e+00 1.285580e+01 -4.020069e+00 4.451781e+00 -5.627804e+00 1.449009e-01 -1.991716e+00 -2.650069e+00 4.968247e+01 5.059284e-01 4.636274e-01 -5.413499e-01 8.595980e-01 -2.173018e-01 -4.686501e-02 4.165465e-01 6.303118e-01 3.787151e-01 2.592794e-01 2.923672e-01 -5.132138e-02 -2.550980e-01 -1.298862e-01 -1.183800e-02 5.220823e-02 -2.210870e-01 2.699172e-01 -1.735063e-01 -3.997259e-03 -9.359977e-02 5.117736e-02 -7.090056e-02 -1.596745e-01 5.631552e-02 8.983308e-02
<VARIANCE> 39
 3.466792e+01 4.496082e+01 4.534020e+01 3.362276e+01 2.695042e+01 4.024869e+01 4.142333e+01 3.502237e+01 3.277859e+01 2.662449e+01 2.649708e+01 1.951247e+01 5.074725e+01 3.651829e+00 3.984300e+00 2.289302e+00 2.874267e+00 2.381407e+00 3.270299e+00 2.866508e+00 2.821606e+00 3.438955e+00 2.035251e+00 2.116817e+00 1.442491e+00 4.647256e+00 3.912841e-01 5.965869e-01 2.644171e-01 4.384705e-01 4.685299e-01 6.982595e-01 5.657746e-01 5.302628e-01 6.294397e-01 3.909618e-01 3.941338e-01 2.898814e-01 5.197200e-01
<GCONST> 1.207199e+02
<STATE> 4
<MEAN> 39
 -1.470953e+01 3.170542e+00 -4.672782e+00 9.116888e+00 -5.084312e+00 1.163119e+01 -4.358113e+00 6.349956e+00 -3.998072e+00 2.027969e-01 -2.246981e+00 -3.013777e+00 4.732659e+01 -8.425953e-02 1.680059e-01 -1.202756e-01 2.597114e-02 -6.102623e-02 -8.887572e-02 2.003032e-02 1.595794e-01 9.707808e-02 -2.296832e-02 3.254297e-02 4.558903e-02 -1.925109e-01 -6.617460e-03 -1.703941e-01 6.046107e-02 -5.815948e-02 2.701310e-02 -7.244866e-02 3.710472e-02 -1.413287e-01 -5.559947e-02 -3.161391e-02 -1.109382e-02 1.738971e-02 1.616873e-01
<VARIANCE> 39
 5.068995e+00 7.813857e+00 6.896507e+00 5.987933e+00 1.005242e+01 1.551296e+01 2.189456e+01 2.148413e+01 1.654335e+01 1.300726e+01 1.136430e+01 1.087588e+01 6.937778e+00 1.243475e-01 4.354326e-01 4.893618e-01 5.086533e-01 6.551882e-01 7.588516e-01 8.612013e-01 1.027247e+00 9.911404e-01 9.424497e-01 8.446988e-01 7.494152e-01 1.079934e-01 4.421961e-02 2.063490e-01 1.043745e-01 1.422200e-01 1.733755e-01 2.341073e-01 2.175145e-01 2.923130e-01 2.158149e-01 2.018175e-01 1.827383e-01 1.657382e-01 1.757213e-01
<GCONST> 7.129018e+01
<TRANSP> 5
 0.000000e+00 1.000000e+00 0.000000e+00 0.000000e+00 0.000000e+00
 0.000000e+00 4.446200e-01 5.553800e-01 0.000000e+00 0.000000e+00
 0.000000e+00 0.000000e+00 4.778525e-01 5.221475e-01 0.000000e+00
 0.000000e+00 0.000000e+00 0.000000e+00 8.982251e-01 1.017749e-01
 0.000000e+00 0.000000e+00 0.000000e+00 0.000000e+00 0.000000e+00
<ENDHMM>
