~o
<STREAMINFO> 1 39
<VECSIZE> 39<NULLD><MFCC_D_A_0><DIAGC>
~h "k"
<BEGINHMM>
<NUMSTATES> 5
<STATE> 2
<MEAN> 39
 -1.491133e+01 -1.036243e+00 -4.357947e+00 8.890688e+00 -3.091959e+00 1.194408e+01 -2.029001e+00 6.130660e+00 -3.598180e+00 1.725410e+00 -1.583194e+00 -2.407868e+00 5.013409e+01 -2.381864e-01 -4.781301e+00 1.622671e-01 -2.378999e+00 1.931233e+00 -3.340951e+00 4.146539e-01 -3.947207e+00 1.246406e-01 1.166217e-02 4.726319e-02 1.494617e-01 5.421046e+00 -1.088498e-01 -1.647416e+00 6.329681e-02 -1.118951e+00 6.071756e-01 -1.239223e+00 1.222964e-01 -1.562137e+00 1.465480e-01 -2.597757e-01 -3.805185e-02 -2.579796e-02 2.187309e+00
<VARIANCE> 39
 9.024647e+00 7.374314e+01 1.410077e+01 2.928633e+01 2.936126e+01 4.191037e+01 3.494468e+01 4.895227e+01 3.021337e+01 2.811918e+01 2.055515e+01 1.681750e+01 5.311644e+01 9.366038e-01 1.872144e+01 1.896275e+00 7.783462e+00 4.667408e+00 1.213287e+01 3.759049e+00 1.501047e+01 4.174459e+00 3.505168e+00 2.438474e+00 1.759839e+00 2.389535e+01 1.214068e-01 2.315711e+00 2.994837e-01 7.003298e-01 6.899889e-01 1.246853e+00 5.965489e-01 1.512379e+00 6.566387e-01 5.493132e-01 4.418260e-01 3.061030e-01 2.229202e+00
<GCONST> 1.309598e+02
<STATE> 3
<MEAN> 39
 -1.711569e+01 -2.825092e+01 -2.171096e+00 -8.518737e+00 6.896584e+00 -8.090395e+00 -9.188497e-02 -2.021237e+01 -7.894814e-01 -1.336651e+00 -2.718157e+00 -3.564619e+00 8.476637e+01 -4.380956e-02 -1.839693e+00 4.463274e-01 -1.185443e+00 1.842216e-01 -6.819973e-01 -5.612406e-02 -2.125471e+00 1.521287e-01 -1.146317e-01 -4.325858e-01 -5.034744e-01 1.951340e+00 2.403288e-01 1.526949e+00 -3.663861e-02 1.031384e+00 -7.075394e-01 1.351118e+00 -3.349566e-01 1.436615e+00 -2.046745e-01 3.158632e-01 -1.008818e-01 5.960120e-03 -2.197982e+00
<VARIANCE> 39
 7.729110e+00 1.020650e+01 1.505770e+01 1.745157e+01 1.631634e+01 3.666669e+01 2.292673e+01 2.988367e+01 3.485714e+01 2.095860e+01 2.602169e+01 2.491530e+01 1.702966e+01 8.383724e-01 1.535988e+01 1.349116e+00 7.283537e+00 4.144102e+00 1.241319e+01 2.759930e+00 1.296182e+01 2.648036e+00 2.547554e+00 1.746869e+00 1.701433e+00 2.938297e+01 1.342686e-01 1.249079e+00 3.495660e-01 5.378467e-01 4.654645e-01 1.065582e+00 5.160600e-01 9.163296e-01 5.301761e-01 4.728829e-01 3.677492e-01 4.085214e-01 1.476411e+00
<GCONST> 1.213840e+02
<STATE> 4
<MEAN> 39
 -1.095825e+01 -1.671949e+01 -4.821685e+00 4.916180e+00 -1.796648e+00 7.174787e+00 -7.905771e+00 -1.071131e+01 -5.873201e+00 3.719995e+00 -5.684602e+00 -4.440700e+00 6.378716e+01 4.976602e-01 1.779548e+00 -6.271776e-01 1.713392e+00 -6.262248e-01 1.542435e+00 -5.048890e-01 1.482891e+00 -5.293475e-01 4.566903e-01 7.105855e-02 2.757438e-02 -2.387685e+00 -1.538201e-01 4.591279e-02 -5.543048e-03 -1.328105e-01 1.692830e-01 -1.632036e-01 1.972276e-01 3.333171e-02 1.579939e-01 -9.765236e-02 1.254356e-01 5.951161e-03 1.841447e-01
<VARIANCE> 39
 1.213485e+01 4.275584e+01 2.005836e+01 6.329852e+01 2.043940e+01 4.852330e+01 3.451104e+01 4.831884e+01 4.672855e+01 2.124808e+01 2.691115e+01 2.690606e+01 6.226271e+01 1.383822e+00 1.006527e+00 1.349437e+00 2.671616e+00 2.248314e+00 2.786095e+00 3.642238e+00 4.494722e+00 4.744705e+00 2.124221e+00 1.958267e+00 1.762507e+00 2.312793e+00 1.917692e-01 2.191055e-01 2.943015e-01 4.595026e-01 3.544695e-01 4.235579e-01 5.921376e-01 9.430555e-01 1.004464e+00 4.313197e-01 3.677903e-01 3.674806e-01 3.048679e-01
<GCONST> 1.159676e+02
<TRANSP> 5
 0.000000e+00 1.000000e+00 0.000000e+00 0.000000e+00 0.000000e+00
 0.000000e+00 7.270113e-01 2.729887e-01 0.000000e+00 0.000000e+00
 0.000000e+00 0.000000e+00 8.286675e-01 1.713325e-01 0.000000e+00
 0.000000e+00 0.000000e+00 0.000000e+00 9.032387e-01 9.676129e-02
 0.000000e+00 0.000000e+00 0.000000e+00 0.000000e+00 0.000000e+00
<ENDHMM>
~h "p"
<BEGINHMM>
<NUMSTATES> 5
<STATE> 2
<MEAN> 39
 -1.503066e+01 2.966184e+00 -3.965210e+00 8.930817e+00 -5.722071e+00 1.145407e+01 -3.608493e+00 7.140139e+00 -3.732652e+00 1.614888e-01 -2.142182e+00 -3.061375e+00 4.739011e+01 1.255243e+00 -2.665098e+00 1.444649e+00 -1.928080e+00 1.668653e+00 -2.793430e+00 8.622639e-01 -2.818326e+00 -3.411922e-01 -1.641536e+00 4.752979e-02 5.992924e-02 5.406628e+00 7.357259e-01 -9.911386e-01 8.450824e-01 -7.411867e-01 9.299024e-01 -9.942122e-01 4.229450e-01 -1.152020e+00 -6.312557e-03 -7.833863e-01 -5.820019e-02 -3.335395e-02 2.529047e+00
<VARIANCE> 39
 6.887331e+00 1.221315e+01 1.148437e+01 8.078614e+00 1.211881e+01 1.682903e+01 2.438355e+01 1.967909e+01 1.855388e+01 1.396842e+01 1.259267e+01 9.928329e+00 1.170684e+01 1.565667e+00 4.866771e+00 3.433980e+00 3.656360e+00 4.068638e+00 6.562465e+00 3.512509e+00 7.489802e+00 2.909350e+00 4.001796e+00 1.746119e+00 1.645412e+00 1.938966e+01 9.471834e-02 3.431757e-01 2.105598e-01 3.719259e-01 3.764129e-01 6.083528e-01 4.782812e-01 6.143448e-01 4.309700e-01 3.432617e-01 2.669268e-01 2.626325e-01 6.986079e-01
<GCONST> 1.089677e+02
<STATE> 3
<MEAN> 39
 -4.617914e+00 -9.201253e+00 5.188159e+00 1.374260e+00 3.685272e+00 4.575152e-01 1.142015e+00 -5.334937e+00 -4.262566e+00 -9.114495e+00 -4.478948e+00 -3.532385e+00 7.605254e+01 1.631745e+00 2.892333e-02 2.679811e-01 8.720468e-01 -2.634492e-01 8.857217e-01 -2.755438e-02 4.789736e-01 -2.524237e-02 -3.350129e-01 -9.408290e-01 -3.508079e-01 4.664657e-01 -3.227203e-01 9.868429e-01 -6.817490e-01 8.393030e-01 -8.859516e-01 9.851401e-01 -4.675358e-01 9.977320e-01 -7.570373e-02 6.574262e-01 -5.849661e-02 -4.783154e-02 -2.082675e+00
<VARIANCE> 39
 1.256341e+01 2.017804e+01 1.760953e+01 3.805301e+01 3.503454e+01 6.071655e+01 2.929971e+01 5.066930e+01 3.033665e+01 2.612528e+01 3.196703e+01 2.391261e+01 6.736600e+01 1.487968e+00 6.638884e+00 4.787827e+00 6.710741e+00 8.754249e+00 1.163734e+01 4.548347e+00 1.175556e+01 2.524254e+00 4.716207e+00 2.058063e+00 1.584964e+00 3.739013e+01 1.657815e-01 6.175108e-01 4.886347e-01 8.675243e-01 9.603740e-01 1.955974e+00 7.420264e-01 1.808368e+00 5.616664e-01 5.802929e-01 5.380331e-01 3.657292e-01 3.571077e+00
<GCONST> 1.341669e+02
<STATE> 4
<MEAN> 39
 -3.701160e+00 4.848517e+00 9.841781e-01 1.314715e+01 -3.752017e+00 1.060576e+01 -4.382293e+00 2.989873e+00 -8.402047e+00 -4.578057e+00 -7.638557e+00 -6.542423e+00 5.645345e+01 -6.631832e-01 9.446747e-01 -3.133518e-01 3.025658e-01 -1.578934e-01 2.770420e-01 -1.788751e-01 2.606637e-01 -3.102869e-01 3.081833e-01 1.552635e-01 -8.371353e-02 -1.353217e+00 -1.576716e-01 -2.039089e-01 1.008097e-01 -2.622446e-01 2.203185e-01 -1.803356e-01 1.230993e-01 -1.393590e-01 8.895119e-02 -7.981123e-02 9.498477e-02 6.216686e-02 2.618186e-01
<VARIANCE> 39
 1.668232e+01 2.939820e+01 1.788462e+01 1.712345e+01 1.702666e+01 1.646263e+01 1.836622e+01 1.690162e+01 2.114415e+01 1.730064e+01 1.473791e+01 1.502098e+01 2.277549e+01 6.029613e-01 1.562554e+00 1.315242e+00 1.807985e+00 2.114855e+00 1.772369e+00 1.549834e+00 1.506547e+00 1.773057e+00 1.612480e+00 1.178099e+00 1.172934e+00 9.601319e-01 7.328014e-02 1.383006e-01 2.269464e-01 3.031521e-01 4.122595e-01 4.687275e-01 3.196098e-01 3.751706e-01 3.475051e-01 3.036779e-01 2.546899e-01 2.279257e-01 1.052384e-01
<GCONST> 9.532751e+01
<TRANSP> 5
 0.000000e+00 1.000000e+00 0.000000e+00 0.000000e+00 0.000000e+00
 0.000000e+00 6.530060e-01 3.469940e-01 0.000000e+00 0.000000e+00
 0.000000e+00 0.000000e+00 8.279127e-01 1.720873e-01 0.000000e+00
 0.000000e+00 0.000000e+00 0.000000e+00 8.999834e-01 1.000165e-01
 0.000000e+00 0.000000e+00 0.000000e+00 0.000000e+00 0.000000e+00
<ENDHMM>
~h "s"
<BEGINHMM>
<NUMSTATES> 5
<STATE> 2
<MEAN> 39
 -1.615410e+01 -4.289320e+00 -2.064003e+00 8.119875e+00 -3.442657e+00 8.341090e+00 -4.347070e-01 1.052949e+00 -4.134248e+00 -3.938457e-01 -3.372099e+00 -5.080689e-01 5.319295e+01 -2.250545e+00 -4.567255e+00 1.407431e+00 -2.508877e+00 2.420807e+00 -3.178387e+00 2.583880e+00 -3.618695e+00 4.149431e-01 -8.612858e-01 2.754278e-01 1.535028e+00 4.427648e+00 -7.507873e-01 -6.015322e-01 4.572803e-01 -1.204398e+00 1.012347e+00 -7.508198e-01 3.110314e-01 -4.955079e-01 1.004918e-01 -2.814388e-01 2.449953e-01 -3.294287e-02 1.212187e+00
<VARIANCE> 39
 2.265103e+01 9.752730e+01 3.382679e+01 3.779350e+01 3.518226e+01 6.932355e+01 5.682589e+01 8.380145e+01 3.260484e+01 3.017345e+01 3.220136e+01 3.404234e+01 5.911266e+01 3.246317e+00 7.995179e+00 4.556663e+00 7.729321e+00 6.880621e+00 8.844560e+00 5.131820e+00 7.925238e+00 3.583974e+00 3.174902e+00 2.975200e+00 2.437901e+00 7.709370e+00 2.899357e-01 2.146523e+00 7.665697e-01 8.056496e-01 7.616627e-01 1.446480e+00 1.038536e+00 1.830286e+00 5.382773e-01 5.386888e-01 5.155973e-01 6.546356e-01 1.098127e+00
<GCONST> 1.394093e+02
<STATE> 3
<MEAN> 39
 -2.842917e+01 -1.858550e+01 4.882364e+00 -9.844389e+00 1.144646e+01 -5.773129e+00 7.623495e+00 -1.048590e+01 -2.312773e+00 -5.034527e+00 6.177551e-02 1.674331e+00 7.440102e+01 -2.122715e+00 -1.099067e+00 1.312783e+00 -3.533738e+00 2.278141e+00 -1.300250e+00 3.388403e-01 -6.372844e-01 1.097206e-01 -6.492800e-01 8.658269e-01 -4.020469e-01 3.327914e+00 7.730979e-01 1.090745e+00 -3.149114e-01 9.442245e-01 -9.726952e-01 1.204805e+00 -7.695220e-01 9.713620e-01 -1.363418e-01 2.606526e-01 -1.620800e-01 -2.622907e-01 -1.280412e+00
<VARIANCE> 39
 1.664941e+01 2.401847e+01 5.259352e+01 4.475016e+01 3.971285e+01 4.235384e+01 3.170527e+01 3.279901e+01 3.216776e+01 2.354590e+01 3.388558e+01 2.132697e+01 2.713944e+01 3.557404e+00 5.704183e+00 4.343338e+00 6.026040e+00 6.502378e+00 7.381679e+00 4.258333e+00 5.494135e+00 2.382636e+00 2.659099e+00 2.398096e+00 1.851932e+00 5.992281e+00 3.316936e-01 1.018697e+00 8.104764e-01 7.636346e-01 7.655536e-01 8.326879e-01 7.048788e-01 9.657258e-01 4.978028e-01 5.174741e-01 4.799387e-01 4.841482e-01 4.275054e-01
<GCONST> 1.286815e+02
<STATE> 4
<MEAN> 39
 -2.838640e+01 -1.789549e+01 1.040188e+01 -1.238595e+01 9.345622e+00 1.957970e+00 3.443376e+00 -7.573400e+00 -2.679709e+00 -4.930581e+00 -1.334567e-01 1.342707e+00 7.333319e+01 9.434629e-01 7.741626e-01 2.462750e-01 8.381239e-01 -1.003667e+00 1.403650e+00 -6.901633e-01 9.886551e-01 -4.588050e-01 2.258774e-01 -5.272531e-01 -6.391941e-02 -1.527909e+00 2.041089e-01 2.271252e-01 -1.716305e-01 3.130822e-01 -2.484384e-01 1.052635e-01 -1.074312e-01 1.417620e-01 -2.325706e-02 8.783603e-02 -4.137467e-02 -3.740043e-02 -3.338333e-01
<VARIANCE> 39
 2.375649e+01 2.101812e+01 3.153517e+01 2.686435e+01 4.340017e+01 6.540918e+01 2.970480e+01 3.607723e+01 2.838496e+01 2.071653e+01 2.895167e+01 1.532061e+01 5.054210e+01 1.549909e+00 2.359159e+00 1.520203e+00 2.212246e+00 2.304065e+00 2.336114e+00 2.258217e+00 2.902461e+00 2.024521e+00 1.711803e+00 1.586774e+00 1.067576e+00 2.719700e+00 2.041366e-01 2.824818e-01 2.223830e-01 2.699131e-01 3.268740e-01 4.101296e-01 3.915980e-01 4.455540e-01 4.008385e-01 3.336907e-01 3.461401e-01 2.259756e-01 2.249310e-01
<GCONST> 1.093245e+02
<TRANSP> 5
 0.000000e+00 1.000000e+00 0.000000e+00 0.000000e+00 0.000000e+00
 0.000000e+00 7.184031e-01 2.815969e-01 0.000000e+00 0.000000e+00
 0.000000e+00 0.000000e+00 7.340894e-01 2.659105e-01 0.000000e+00
 0.000000e+00 0.000000e+00 0.000000e+00 9.100330e-01 8.996700e-02
 0.000000e+00 0.000000e+00 0.000000e+00 0.000000e+00 0.000000e+00
<ENDHMM>
~h "sil"
<BEGINHMM>
<NUMSTATES> 5
<STATE> 2
<MEAN> 39
 -2.123278e+01 1.647987e+00 -1.073665e+00 2.645350e+00 -2.523065e+00 1.285196e+01 -7.434965e+00 3.456692e+00 -4.660053e+00 -3.287376e-01 -3.660967e+00 -2.318529e+00 4.600941e+01 2.507345e-01 1.000160e+00 -5.914209e-01 7.579834e-01 -8.413821e-01 6.530888e-01 -3.226029e-01 7.344975e-01 3.424909e-01 2.923481e-01 3.874400e-01 -1.784491e-01 -1.115978e+00 -2.009333e-02 -2.245617e-01 -7.281506e-02 -6.991580e-03 7.052720e-02 -2.413199e-01 2.096761e-01 -1.952528e-01 1.438801e-01 -4.484061e-02 1.141429e-01 4.288927e-02 2.840793e-01
<VARIANCE> 39
 1.172697e+02 9.346895e+01 7.472705e+01 4.086959e+01 2.091172e+01 2.385106e+01 4.139849e+01 2.165515e+01 2.970583e+01 1.983894e+01 1.516996e+01 1.332540e+01 1.892154e+02 1.265585e+00 1.934574e+00 1.229235e+00 2.163358e+00 2.705184e+00 2.517733e+00 1.995472e+00 2.106480e+00 1.953086e+00 1.439770e+00 1.230302e+00 1.103785e+00 1.444181e+00 1.982640e-01 1.592374e-01 1.407863e-01 1.887351e-01 2.666171e-01 3.246182e-01 2.900325e-01 3.803326e-01 3.559272e-01 2.717161e-01 2.651322e-01 1.747593e-01 1.343578e-01
<GCONST> 1.067303e+02
<STATE> 3
<MEAN> 39
 -1.571174e+01 -4.216472e-01 -1.872216e+00 7.031305e+00 -5.394981e+00 1.292967e+01 -4.568108e+00 3.925904e+00 -5.889367e+00 -3.114592e-01 -2.385445e+00 -2.634630e+00 4.954172e+01 6.761894e-01 4.522608e-01 -6.234769e-01 1.010880e+00 -3.818421e-01 -3.922828e-03 4.169162e-01 6.589402e-01 3.910193e-01 2.838883e-01 3.513151e-01 -7.368530e-02 -2.306417e-01 -1.286076e-01 -6.232784e-02 3.189393e-02 -1.929876e-01 2.964377e-01 -2.005123e-01 6.297015e-02 -7.091093e-02 9.290828e-02 -3.220165e-02 -1.313926e-01 6.584596e-02 1.281261e-01
<VARIANCE> 39
 4.962240e+01 5.441475e+01 5.329736e+01 3.704682e+01 2.779654e+01 4.192893e+01 4.286717e+01 3.434421e+01 3.657782e+01 2.835218e+01 2.815421e+01 1.993057e+01 7.095937e+01 4.325309e+00 4.534262e+00 2.343226e+00 2.955411e+00 2.577101e+00 3.519215e+00 3.102490e+00 2.919885e+00 3.683867e+00 2.155208e+00 2.181566e+00 1.460901e+00 5.534124e+00 5.294977e-01 6.659121e-01 2.734452e-01 4.566559e-01 4.932315e-01 7.475989e-01 6.227582e-01 5.746165e-01 6.984447e-01 4.338508e-01 4.263714e-01 2.933566e-01 6.390293e-01
<GCONST> 1.244510e+02
<STATE> 4
<MEAN> 39
 -1.464760e+01 3.119550e+00 -4.603144e+00 9.143398e+00 -5.105198e+00 1.163446e+01 -4.337929e+00 6.300498e+00 -4.084660e+00 1.719555e-01 -2.272954e+00 -3.043512e+00 4.741183e+01 -9.167400e-02 1.705753e-01 -1.319989e-01 3.364637e-02 -5.714242e-02 -9.372477e-02 2.885368e-02 1.806792e-01 1.154677e-01 -4.551688e-03 4.641867e-02 4.661614e-02 -2.036002e-01 -6.966166e-03 -1.633577e-01 6.009327e-02 -5.890355e-02 2.975934e-02 -6.990901e-02 3.594928e-02 -1.358864e-01 -5.303805e-02 -2.982297e-02 -1.273569e-02 1.889282e-02 1.564512e-01
<VARIANCE> 39
 4.815841e+00 7.964069e+00 7.346876e+00 6.260887e+00 1.033467e+01 1.592806e+01 2.217195e+01 2.178175e+01 1.685512e+01 1.331346e+01 1.157158e+01 1.113087e+01 6.641829e+00 1.418863e-01 4.772476e-01 5.339180e-01 5.623690e-01 6.820627e-01 8.264068e-01 8.959893e-01 1.081157e+00 1.041201e+00 9.785066e-01 8.780203e-01 7.804276e-01 1.309525e-01 4.441602e-02 2.065285e-01 1.062315e-01 1.483910e-01 1.772426e-01 2.388902e-01 2.219752e-01 2.947359e-01 2.216072e-01 2.042773e-01 1.856422e-01 1.690279e-01 1.655180e-01
<GCONST> 7.262251e+01
<TRANSP> 5
 0.000000e+00 1.000000e+00 0.000000e+00 0.000000e+00 0.000000e+00
 0.000000e+00 4.925406e-01 5.074595e-01 0.000000e+00 0.000000e+00
 0.000000e+00 0.000000e+00 4.938933e-01 5.061067e-01 0.000000e+00
 0.000000e+00 0.000000e+00 0.000000e+00 9.165377e-01 8.346227e-02
 0.000000e+00 0.000000e+00 0.000000e+00 0.000000e+00 0.000000e+00
<ENDHMM>
