~o
<STREAMINFO> 1 39
<VECSIZE> 39<NULLD><MFCC_D_A_0><DIAGC>
~s "silst"
<MEAN> 39
 -1.596314e+01 -1.154097e+00 -1.579628e+00 7.156013e+00 -6.306867e+00 1.313930e+01 -3.312877e+00 4.183379e+00 -6.480600e+00 -4.473674e-01 -1.941349e+00 -2.133921e+00 4.965439e+01 7.710543e-01 4.765586e-01 -5.721651e-01 1.054853e+00 -2.970330e-01 -8.010688e-02 4.421414e-01 6.055461e-01 2.756051e-01 2.186097e-01 2.519122e-01 -1.200705e-01 -1.368040e-01 -1.574843e-01 2.206764e-02 -1.091772e-02 -2.318497e-01 3.396307e-01 -1.497762e-01 -2.452911e-02 -3.048204e-03 1.916802e-01 1.107999e-02 -1.055677e-01 6.847318e-02 4.989301e-02
<VARIANCE> 39
 4.745023e+01 5.358645e+01 5.631675e+01 4.064891e+01 3.026579e+01 5.349665e+01 4.633073e+01 4.201374e+01 4.544578e+01 3.288112e+01 3.547793e+01 2.486325e+01 7.331757e+01 4.096439e+00 5.216805e+00 2.760487e+00 3.381959e+00 3.033027e+00 4.513923e+00 3.649791e+00 3.686429e+00 4.802239e+00 2.842566e+00 2.608299e+00 1.829499e+00 5.609469e+00 5.556997e-01 8.137991e-01 3.402098e-01 5.628166e-01 5.453827e-01 9.419346e-01 7.350063e-01 7.362621e-01 8.840578e-01 5.545860e-01 5.477465e-01 3.781219e-01 6.873494e-01
<GCONST> 1.306282e+02
~h "k"
<BEGINHMM>
<NUMSTATES> 5
<STATE> 2
<MEAN> 39
 -1.474682e+01 -2.945308e-01 -4.310287e+00 8.799325e+00 -3.145271e+00 1.208354e+01 -2.511664e+00 6.281341e+00 -3.397630e+00 1.715305e+00 -1.866512e+00 -2.530000e+00 4.977225e+01 -2.255954e-01 -4.868679e+00 1.547372e-01 -2.413619e+00 1.943188e+00 -3.461319e+00 3.629618e-01 -4.058237e+00 1.051154e-01 3.318582e-02 2.958804e-02 1.560346e-01 5.503341e+00 -1.097950e-01 -1.893011e+00 7.776248e-02 -1.227163e+00 6.774374e-01 -1.386018e+00 1.650216e-01 -1.722952e+00 1.261060e-01 -2.767033e-01 -2.309229e-02 -1.702962e-02 2.450217e+00
<VARIANCE> 39
 8.200477e+00 6.157412e+01 1.360321e+01 2.444376e+01 2.374704e+01 3.801688e+01 3.160994e+01 4.060762e+01 2.725932e+01 2.481697e+01 1.815632e+01 1.593664e+01 3.965034e+01 8.877196e-01 1.759658e+01 1.801612e+00 7.639784e+00 4.360982e+00 1.185259e+01 3.531970e+00 1.487790e+01 3.631387e+00 3.128321e+00 2.279053e+00 1.752249e+00 2.340140e+01 1.166688e-01 1.775172e+00 2.857853e-01 5.480489e-01 5.956382e-01 1.044281e+00 5.676239e-01 1.201070e+00 5.886059e-01 4.778640e-01 4.029911e-01 3.002892e-01 1.562588e+00
<GCONST> 1.265609e+02
<STATE> 3
<MEAN> 39
 -1.701074e+01 -2.808820e+01 -1.964731e+00 -8.411620e+00 6.652384e+00 -7.682607e+00 -2.972760e-01 -2.021865e+01 -8.378157e-01 -1.220841e+00 -2.942938e+00 -3.810027e+00 8.433820e+01 2.148115e-02 -1.605883e+00 4.201277e-01 -9.468417e-01 7.549887e-02 -4.328604e-01 -1.371585e-01 -1.776588e+00 5.362858e-02 2.034903e-02 -4.164660e-01 -4.574476e-01 1.465873e+00 2.484377e-01 1.403552e+00 -9.527259e-02 9.875743e-01 -6.574157e-01 1.249384e+00 -3.385250e-01 1.373872e+00 -1.835587e-01 3.050900e-01 -9.762365e-02 4.501677e-02 -2.043008e+00
<VARIANCE> 39
 7.382242e+00 9.186500e+00 1.522167e+01 1.663235e+01 1.675982e+01 3.730545e+01 2.274833e+01 2.998943e+01 3.289978e+01 2.021936e+01 2.687208e+01 2.467694e+01 1.676908e+01 8.687278e-01 1.513623e+01 1.334670e+00 7.359046e+00 4.116639e+00 1.223210e+01 2.793524e+00 1.300317e+01 2.628441e+00 2.571714e+00 1.706953e+00 1.642581e+00 2.975739e+01 1.265703e-01 1.255821e+00 3.680105e-01 5.142220e-01 4.609386e-01 1.074780e+00 4.888366e-01 8.871940e-01 4.939493e-01 4.507506e-01 3.610656e-01 4.046147e-01 1.510128e+00
<GCONST> 1.208606e+02
<STATE> 4
<MEAN> 39
 -1.056102e+01 -1.567208e+01 -5.426836e+00 6.172709e+00 -2.166117e+00 8.113469e+00 -8.402020e+00 -9.698747e+00 -6.114096e+00 4.113298e+00 -5.747925e+00 -4.408723e+00 6.214371e+01 4.189256e-01 1.848905e+00 -6.724827e-01 1.673216e+00 -5.193302e-01 1.448566e+00 -4.163815e-01 1.515313e+00 -4.197794e-01 4.013960e-01 1.227552e-01 2.549479e-02 -2.290949e+00 -1.852654e-01 1.978912e-02 5.397853e-02 -1.994310e-01 1.868181e-01 -2.014932e-01 2.320747e-01 -2.505966e-02 1.568871e-01 -1.323657e-01 1.347944e-01 -2.093668e-02 2.538251e-01
<VARIANCE> 39
 1.036682e+01 3.862201e+01 1.852014e+01 5.528373e+01 1.829149e+01 4.044070e+01 3.261540e+01 4.124701e+01 4.361568e+01 2.036392e+01 2.526260e+01 2.696726e+01 4.387010e+01 1.459780e+00 9.258618e-01 1.260072e+00 2.816452e+00 2.338888e+00 2.858971e+00 3.588782e+00 4.422161e+00 4.682885e+00 2.048661e+00 1.922676e+00 1.754033e+00 2.166106e+00 1.788720e-01 2.009487e-01 2.638044e-01 4.238965e-01 3.606984e-01 4.008306e-01 5.477231e-01 8.737929e-01 9.872034e-01 4.191197e-01 3.560421e-01 3.537792e-01 2.324362e-01
<GCONST> 1.133873e+02
<TRANSP> 5
 0.000000e+00 1.000000e+00 0.000000e+00 0.000000e+00 0.000000e+00
 0.000000e+00 7.151347e-01 2.848653e-01 0.000000e+00 0.000000e+00
 0.000000e+00 0.000000e+00 8.489201e-01 1.510799e-01 0.000000e+00
 0.000000e+00 0.000000e+00 0.000000e+00 9.019545e-01 9.804546e-02
 0.000000e+00 0.000000e+00 0.000000e+00 0.000000e+00 0.000000e+00
<ENDHMM>
~h "p"
<BEGINHMM>
<NUMSTATES> 5
<STATE> 2
<MEAN> 39
 -1.508667e+01 3.239795e+00 -4.221830e+00 9.014255e+00 -5.664712e+00 1.150966e+01 -3.558740e+00 7.280643e+00 -3.521654e+00 3.428235e-01 -2.096623e+00 -3.027704e+00 4.709901e+01 1.175601e+00 -2.580387e+00 1.377480e+00 -1.866660e+00 1.597235e+00 -2.708402e+00 8.098608e-01 -2.713610e+00 -3.469553e-01 -1.565907e+00 6.422056e-02 8.619124e-02 5.170779e+00 7.255148e-01 -1.032412e+00 8.588300e-01 -7.530037e-01 9.174261e-01 -1.003449e+00 4.167913e-01 -1.176747e+00 -2.557134e-02 -7.867637e-01 -5.247943e-02 -2.255934e-02 2.547423e+00
<VARIANCE> 39
 6.649942e+00 8.796572e+00 8.248633e+00 7.009180e+00 1.102068e+01 1.542422e+01 2.422053e+01 1.911091e+01 1.717135e+01 1.269502e+01 1.155097e+01 9.740834e+00 8.346450e+00 1.558097e+00 4.739521e+00 3.291979e+00 3.618481e+00 3.924761e+00 6.472427e+00 3.360381e+00 7.391188e+00 2.754368e+00 3.982213e+00 1.708827e+00 1.614904e+00 1.937461e+01 9.337474e-02 2.876304e-01 1.853805e-01 3.403335e-01 3.583744e-01 5.501450e-01 4.613412e-01 5.754560e-01 4.079280e-01 3.260384e-01 2.603685e-01 2.569572e-01 5.686168e-01
<GCONST> 1.059874e+02
<STATE> 3
<MEAN> 39
 -5.163850e+00 -9.971706e+00 5.410164e+00 3.696810e-01 4.505711e+00 -4.617061e-01 1.508357e+00 -6.038192e+00 -4.034617e+00 -9.397902e+00 -3.885808e+00 -3.195711e+00 7.722391e+01 1.737188e+00 -1.557060e-01 3.915707e-01 7.618219e-01 -9.074658e-02 8.553340e-01 4.659756e-02 4.002133e-01 5.709470e-02 -4.894991e-01 -9.752124e-01 -3.287637e-01 7.839510e-01 -3.096931e-01 1.075659e+00 -7.423020e-01 9.594843e-01 -1.009276e+00 1.138121e+00 -5.217878e-01 1.131594e+00 -6.812020e-02 7.200451e-01 -9.562840e-02 -5.209935e-02 -2.298006e+00
<VARIANCE> 39
 1.714744e+01 1.587682e+01 1.674072e+01 3.310025e+01 2.725786e+01 5.405559e+01 2.741118e+01 4.681520e+01 2.723906e+01 2.348447e+01 2.924766e+01 2.292026e+01 5.578557e+01 1.410070e+00 6.834149e+00 4.862566e+00 6.951808e+00 8.902293e+00 1.229433e+01 4.514364e+00 1.249630e+01 2.335016e+00 4.435258e+00 1.979470e+00 1.445621e+00 3.966241e+01 1.792040e-01 5.436514e-01 4.369397e-01 6.908309e-01 7.659273e-01 1.670191e+00 7.073653e-01 1.652910e+00 5.473442e-01 4.996938e-01 5.147775e-01 3.450378e-01 3.166605e+00
<GCONST> 1.316320e+02
<STATE> 4
<MEAN> 39
 -3.623714e+00 4.649943e+00 9.952365e-01 1.308278e+01 -3.744036e+00 1.060803e+01 -4.334310e+00 2.971246e+00 -8.230146e+00 -4.601496e+00 -7.595764e+00 -6.414996e+00 5.664607e+01 -6.524599e-01 9.807275e-01 -3.450399e-01 3.486462e-01 -2.286372e-01 3.074335e-01 -2.076447e-01 3.018462e-01 -3.194901e-01 3.557940e-01 1.385730e-01 -9.874060e-02 -1.424289e+00 -1.663482e-01 -2.056047e-01 9.835945e-02 -2.776770e-01 2.304287e-01 -2.028176e-01 1.329649e-01 -1.562095e-01 8.301915e-02 -7.565148e-02 9.704820e-02 5.413241e-02 2.769965e-01
<VARIANCE> 39
 1.599647e+01 3.071450e+01 1.767201e+01 1.733585e+01 1.713687e+01 1.672797e+01 1.871025e+01 1.669411e+01 2.129641e+01 1.747133e+01 1.516212e+01 1.552545e+01 2.345639e+01 6.588680e-01 1.592233e+00 1.328495e+00 1.960703e+00 2.260733e+00 1.859254e+00 1.605084e+00 1.542644e+00 1.796092e+00 1.684664e+00 1.213005e+00 1.203619e+00 1.043383e+00 7.168207e-02 1.334685e-01 2.233146e-01 3.070060e-01 4.177964e-01 5.091711e-01 3.258892e-01 3.840823e-01 3.465440e-01 3.072167e-01 2.619618e-01 2.362129e-01 1.080681e-01
<GCONST> 9.621009e+01
<TRANSP> 5
 0.000000e+00 1.000000e+00 0.000000e+00 0.000000e+00 0.000000e+00
 0.000000e+00 6.646801e-01 3.353198e-01 0.000000e+00 0.000000e+00
 0.000000e+00 0.000000e+00 8.151336e-01 1.848664e-01 0.000000e+00
 0.000000e+00 0.000000e+00 0.000000e+00 9.057308e-01 9.426922e-02
 0.000000e+00 0.000000e+00 0.000000e+00 0.000000e+00 0.000000e+00
<ENDHMM>
~h "s"
<BEGINHMM>
<NUMSTATES> 5
<STATE> 2
<MEAN> 39
 -1.575025e+01 -2.916851e+00 -2.312766e+00 8.558547e+00 -3.917367e+00 9.206255e+00 -1.182146e+00 2.017810e+00 -4.217196e+00 -2.372040e-01 -3.361171e+00 -1.035003e+00 5.201523e+01 -2.001838e+00 -4.178003e+00 1.265269e+00 -2.115431e+00 2.073454e+00 -2.810405e+00 2.388642e+00 -3.263427e+00 3.840645e-01 -7.389901e-01 2.018892e-01 1.456601e+00 3.905027e+00 -7.852573e-01 -8.278170e-01 4.931366e-01 -1.220346e+00 1.043855e+00 -8.618239e-01 4.490631e-01 -6.833897e-01 1.076722e-01 -3.047394e-01 2.229469e-01 6.898328e-02 1.360140e+00
<VARIANCE> 39
 1.801787e+01 8.421613e+01 3.139945e+01 2.908705e+01 2.809133e+01 5.736935e+01 5.180344e+01 7.014101e+01 3.112014e+01 2.754577e+01 2.880127e+01 3.026124e+01 4.548734e+01 3.194835e+00 8.675707e+00 4.318113e+00 7.258694e+00 6.811075e+00 8.498946e+00 5.075317e+00 8.200177e+00 3.428399e+00 2.968165e+00 2.727718e+00 2.409064e+00 8.159689e+00 2.522108e-01 1.822048e+00 7.088177e-01 6.986051e-01 6.880900e-01 1.188479e+00 9.418700e-01 1.539904e+00 5.229713e-01 4.913415e-01 4.787142e-01 6.067211e-01 8.182955e-01
<GCONST> 1.354941e+02
<STATE> 3
<MEAN> 39
 -2.837408e+01 -1.858439e+01 4.716122e+00 -9.534432e+00 1.133804e+01 -5.613553e+00 7.733068e+00 -1.057247e+01 -2.241383e+00 -4.874748e+00 -4.588507e-02 1.809083e+00 7.414769e+01 -2.240616e+00 -1.275693e+00 1.361572e+00 -3.664256e+00 2.396427e+00 -1.465317e+00 4.534162e-01 -7.924685e-01 1.570458e-01 -6.659130e-01 9.244758e-01 -3.404043e-01 3.512318e+00 7.469355e-01 1.089577e+00 -3.010125e-01 8.990592e-01 -9.477603e-01 1.177627e+00 -7.747305e-01 9.774860e-01 -1.306175e-01 2.391563e-01 -1.376679e-01 -2.846580e-01 -1.242844e+00
<VARIANCE> 39
 1.664342e+01 2.458894e+01 5.190151e+01 4.666549e+01 4.131996e+01 4.212743e+01 3.226556e+01 3.443160e+01 3.090017e+01 2.368205e+01 3.397366e+01 2.196005e+01 2.892785e+01 3.229802e+00 6.128603e+00 4.262026e+00 5.540190e+00 6.319640e+00 7.600403e+00 4.575071e+00 5.991191e+00 2.281109e+00 2.643037e+00 2.186750e+00 1.888232e+00 6.142486e+00 3.342608e-01 1.034542e+00 8.021486e-01 8.035066e-01 7.722676e-01 8.268545e-01 7.060420e-01 1.005230e+00 4.831994e-01 5.094345e-01 4.883313e-01 5.016991e-01 4.254893e-01
<GCONST> 1.289384e+02
<STATE> 4
<MEAN> 39
 -2.900097e+01 -1.840098e+01 1.041112e+01 -1.288870e+01 9.944836e+00 1.282247e+00 3.877787e+00 -8.111057e+00 -2.248617e+00 -5.082752e+00 2.831779e-01 1.355991e+00 7.422179e+01 9.158454e-01 6.767399e-01 3.284892e-01 7.755167e-01 -9.297090e-01 1.375621e+00 -6.244390e-01 9.490094e-01 -4.579618e-01 2.068375e-01 -5.576289e-01 -1.988840e-02 -1.487314e+00 2.382069e-01 2.618773e-01 -1.620362e-01 3.296983e-01 -2.545376e-01 1.218117e-01 -1.357429e-01 1.861458e-01 -7.201280e-02 9.759384e-02 -8.695586e-02 -2.922813e-02 -3.813301e-01
<VARIANCE> 39
 1.897780e+01 1.677125e+01 3.144481e+01 2.415068e+01 3.656532e+01 5.550375e+01 2.688591e+01 3.215038e+01 2.581543e+01 2.006672e+01 2.664614e+01 1.472824e+01 4.130320e+01 1.565107e+00 2.163638e+00 1.426438e+00 2.095757e+00 2.216043e+00 2.208472e+00 2.140603e+00 2.863872e+00 1.984635e+00 1.707562e+00 1.574219e+00 9.854175e-01 2.718998e+00 1.864324e-01 2.661744e-01 2.233339e-01 2.625215e-01 3.143370e-01 3.730969e-01 3.780167e-01 4.179798e-01 3.690791e-01 3.309282e-01 3.091196e-01 2.170655e-01 2.007680e-01
<GCONST> 1.065317e+02
<TRANSP> 5
 0.000000e+00 1.000000e+00 0.000000e+00 0.000000e+00 0.000000e+00
 0.000000e+00 7.281486e-01 2.718515e-01 0.000000e+00 0.000000e+00
 0.000000e+00 0.000000e+00 7.461440e-01 2.538560e-01 0.000000e+00
 0.000000e+00 0.000000e+00 0.000000e+00 9.026629e-01 9.733711e-02
 0.000000e+00 0.000000e+00 0.000000e+00 0.000000e+00 0.000000e+00
<ENDHMM>
~h "sil"
<BEGINHMM>
<NUMSTATES> 5
<STATE> 2
<MEAN> 39
 -2.032457e+01 4.667410e-01 -8.678025e-02 2.427346e+00 -2.261263e+00 1.282065e+01 -6.797158e+00 3.643084e+00 -4.868948e+00 -3.689227e-01 -3.693911e+00 -2.200858e+00 4.777597e+01 3.416705e-01 1.068471e+00 -6.293799e-01 8.393778e-01 -9.065252e-01 6.806129e-01 -4.014774e-01 7.656792e-01 2.614469e-01 2.667039e-01 3.097068e-01 -2.049191e-01 -1.181991e+00 -3.945372e-02 -2.424292e-01 -6.395876e-02 -1.049456e-02 5.032298e-02 -2.545586e-01 2.246919e-01 -2.290282e-01 1.278484e-01 -6.475894e-02 1.192892e-01 4.058084e-02 3.025092e-01
<VARIANCE> 39
 9.443405e+01 8.407298e+01 7.594391e+01 4.195401e+01 2.381652e+01 2.502602e+01 3.903947e+01 2.038601e+01 2.793322e+01 2.073556e+01 1.535000e+01 1.388067e+01 1.629427e+02 1.367401e+00 1.949140e+00 1.334555e+00 2.153814e+00 2.705578e+00 2.506468e+00 2.156063e+00 2.176749e+00 1.982172e+00 1.469239e+00 1.337398e+00 1.119950e+00 1.360348e+00 1.733658e-01 1.483712e-01 1.500953e-01 1.853809e-01 2.893031e-01 3.232440e-01 2.862425e-01 3.544417e-01 3.463618e-01 2.768141e-01 2.815314e-01 1.745544e-01 1.148529e-01
<GCONST> 1.064651e+02
<STATE> 3
~s "silst"
<STATE> 4
<MEAN> 39
 -1.465257e+01 3.349865e+00 -4.659276e+00 9.157708e+00 -5.089374e+00 1.155238e+01 -4.409757e+00 6.370781e+00 -4.040313e+00 9.863371e-02 -2.316692e+00 -3.076713e+00 4.728355e+01 -9.254330e-02 1.392576e-01 -1.224615e-01 7.644016e-03 -7.103519e-02 -8.280125e-02 1.561914e-02 1.661280e-01 1.108461e-01 -3.434344e-03 4.564351e-02 5.469354e-02 -1.850890e-01 3.742828e-03 -1.383523e-01 5.265814e-02 -3.379141e-02 1.207675e-02 -4.964370e-02 2.746907e-02 -1.236476e-01 -6.200196e-02 -2.415783e-02 -1.144490e-02 6.857444e-03 1.286869e-01
<VARIANCE> 39
 4.920706e+00 6.819067e+00 6.397439e+00 5.685800e+00 9.662312e+00 1.494250e+01 2.137976e+01 2.093194e+01 1.640253e+01 1.272237e+01 1.133334e+01 1.075996e+01 6.292136e+00 1.154004e-01 3.645490e-01 4.452816e-01 4.675400e-01 6.202593e-01 7.175994e-01 8.346446e-01 9.784828e-01 9.448987e-01 9.289767e-01 8.333764e-01 7.439865e-01 9.558169e-02 3.359701e-02 1.554234e-01 9.326758e-02 1.223835e-01 1.538471e-01 2.065539e-01 1.973850e-01 2.540126e-01 2.061201e-01 1.917310e-01 1.774556e-01 1.575492e-01 1.130753e-01
<GCONST> 6.798078e+01
<TRANSP> 5
 0.000000e+00 1.000000e+00 0.000000e+00 0.000000e+00 0.000000e+00
 0.000000e+00 5.819289e-01 2.006967e-01 2.173744e-01 0.000000e+00
 0.000000e+00 0.000000e+00 7.467915e-01 2.532085e-01 0.000000e+00
 0.000000e+00 6.426024e-03 0.000000e+00 9.052206e-01 8.835336e-02
 0.000000e+00 0.000000e+00 0.000000e+00 0.000000e+00 0.000000e+00
<ENDHMM>
