~o
<STREAMINFO> 1 39
<VECSIZE> 39<NULLD><MFCC_D_A_0><DIAGC>
~s "silst"
<MEAN> 39
 -1.530584e+01 -1.710335e+00 -1.775417e+00 7.463063e+00 -6.144298e+00 1.338334e+01 -2.883483e+00 4.237045e+00 -6.274416e+00 1.506263e-01 -1.615035e+00 -2.093609e+00 5.034291e+01 5.734086e-01 5.804190e-01 -5.624233e-01 9.287301e-01 -1.761008e-01 -8.431718e-02 3.835294e-01 5.859567e-01 3.572843e-01 2.046695e-01 2.346150e-01 -9.780629e-02 -2.620564e-01 -1.836240e-01 4.071898e-02 1.533893e-02 -2.586040e-01 3.260414e-01 -1.696058e-01 -6.204132e-02 -2.202702e-02 1.569146e-01 -2.914072e-02 -1.457149e-01 7.011560e-02 2.257623e-02
<VARIANCE> 39
 3.097301e+01 4.387286e+01 5.196535e+01 3.732378e+01 3.108875e+01 5.321221e+01 4.287721e+01 4.144423e+01 4.094694e+01 3.376367e+01 3.182994e+01 2.411555e+01 4.993979e+01 3.715950e+00 4.744342e+00 2.706167e+00 3.339422e+00 3.040250e+00 4.291776e+00 3.477315e+00 3.675812e+00 4.679636e+00 2.783107e+00 2.550178e+00 1.728811e+00 4.982011e+00 4.073929e-01 7.180144e-01 3.223621e-01 4.853054e-01 5.529450e-01 8.779527e-01 6.718687e-01 6.976804e-01 8.496611e-01 5.397450e-01 5.019944e-01 3.561782e-01 5.522759e-01
<GCONST> 1.273258e+02
~h "k"
<BEGINHMM>
<NUMSTATES> 5
<STATE> 2
<MEAN> 39
 -1.480945e+01 4.130536e-01 -4.376382e+00 9.230144e+00 -3.573575e+00 1.223924e+01 -2.700670e+00 6.820554e+00 -3.264930e+00 1.428700e+00 -1.692597e+00 -2.493750e+00 4.904093e+01 -2.016689e-01 -4.759900e+00 1.567166e-01 -2.335986e+00 1.879857e+00 -3.422841e+00 3.798933e-01 -3.933298e+00 8.834012e-02 3.145171e-02 4.597200e-02 1.468735e-01 5.384151e+00 -1.122047e-01 -2.002840e+00 8.454833e-02 -1.290986e+00 7.400620e-01 -1.441207e+00 1.713435e-01 -1.815264e+00 1.075245e-01 -2.530773e-01 -3.230684e-02 -1.639690e-02 2.568152e+00
<VARIANCE> 39
 7.696716e+00 5.029105e+01 1.178249e+01 1.835851e+01 1.878772e+01 3.178793e+01 2.983585e+01 3.282062e+01 2.273300e+01 2.163281e+01 1.730210e+01 1.425852e+01 2.678183e+01 8.513889e-01 1.734955e+01 1.756711e+00 7.396085e+00 4.256718e+00 1.165774e+01 3.441467e+00 1.443945e+01 3.184266e+00 2.937073e+00 2.204427e+00 1.710907e+00 2.279675e+01 1.144110e-01 1.549366e+00 2.582209e-01 4.490376e-01 4.963757e-01 9.632021e-01 5.525753e-01 1.022484e+00 5.261349e-01 4.399312e-01 3.892271e-01 2.919445e-01 1.295684e+00
<GCONST> 1.224701e+02
<STATE> 3
<MEAN> 39
 -1.698040e+01 -2.800063e+01 -1.986243e+00 -8.314327e+00 6.692545e+00 -7.611198e+00 -2.419162e-01 -2.004622e+01 -8.449109e-01 -1.139722e+00 -2.944326e+00 -3.692846e+00 8.421129e+01 -2.815768e-03 -1.782306e+00 4.272197e-01 -1.066770e+00 1.510405e-01 -5.781625e-01 -9.831259e-02 -1.955789e+00 7.060374e-02 -1.970699e-02 -4.109379e-01 -4.558003e-01 1.715537e+00 2.404935e-01 1.412437e+00 -8.709386e-02 9.794537e-01 -6.643328e-01 1.246317e+00 -3.354266e-01 1.365857e+00 -1.811089e-01 2.934398e-01 -9.318902e-02 3.475137e-02 -2.041848e+00
<VARIANCE> 39
 7.651242e+00 1.023163e+01 1.534611e+01 1.804871e+01 1.671944e+01 3.938398e+01 2.332620e+01 3.208384e+01 3.309717e+01 2.134628e+01 2.687940e+01 2.496283e+01 1.929457e+01 8.658810e-01 1.607040e+01 1.323501e+00 7.618298e+00 4.283751e+00 1.270201e+01 2.822985e+00 1.360185e+01 2.674301e+00 2.583974e+00 1.728942e+00 1.675041e+00 3.086333e+01 1.302005e-01 1.245334e+00 3.665307e-01 5.305136e-01 4.616553e-01 1.097764e+00 4.970582e-01 9.022487e-01 4.989539e-01 4.713475e-01 3.609517e-01 4.070663e-01 1.517908e+00
<GCONST> 1.219263e+02
<STATE> 4
<MEAN> 39
 -1.058670e+01 -1.598048e+01 -5.297213e+00 5.906823e+00 -2.073922e+00 7.797354e+00 -8.495291e+00 -9.999701e+00 -6.055927e+00 3.969155e+00 -5.850009e+00 -4.420575e+00 6.254513e+01 4.586214e-01 1.847984e+00 -6.850504e-01 1.719900e+00 -5.633910e-01 1.473839e+00 -4.740348e-01 1.522416e+00 -4.529659e-01 4.092360e-01 1.001931e-01 2.989972e-02 -2.332745e+00 -1.839072e-01 2.311545e-02 4.041281e-02 -1.855925e-01 1.844655e-01 -1.925358e-01 2.397036e-01 -1.518438e-02 1.578258e-01 -1.252274e-01 1.368076e-01 -2.462406e-02 2.462577e-01
<VARIANCE> 39
 1.078075e+01 3.849143e+01 1.880485e+01 5.693593e+01 1.845370e+01 4.030374e+01 3.190386e+01 4.135366e+01 4.384204e+01 1.992752e+01 2.508469e+01 2.704364e+01 4.547855e+01 1.435710e+00 9.320248e-01 1.261332e+00 2.751586e+00 2.292617e+00 2.874060e+00 3.538105e+00 4.447325e+00 4.634145e+00 2.050369e+00 1.924283e+00 1.753607e+00 2.212391e+00 1.830567e-01 2.032708e-01 2.720282e-01 4.305854e-01 3.590217e-01 4.054422e-01 5.438977e-01 8.902702e-01 9.898214e-01 4.192144e-01 3.575483e-01 3.539190e-01 2.421059e-01
<GCONST> 1.135732e+02
<TRANSP> 5
 0.000000e+00 1.000000e+00 0.000000e+00 0.000000e+00 0.000000e+00
 0.000000e+00 7.026178e-01 2.973822e-01 0.000000e+00 0.000000e+00
 0.000000e+00 0.000000e+00 8.487908e-01 1.512092e-01 0.000000e+00
 0.000000e+00 0.000000e+00 0.000000e+00 9.004966e-01 9.950338e-02
 0.000000e+00 0.000000e+00 0.000000e+00 0.000000e+00 0.000000e+00
<ENDHMM>
~h "p"
<BEGINHMM>
<NUMSTATES> 5
<STATE> 2
<MEAN> 39
 -1.501716e+01 2.925198e+00 -4.060753e+00 8.831614e+00 -5.636298e+00 1.137550e+01 -3.549981e+00 7.166103e+00 -3.620950e+00 2.871891e-01 -2.114738e+00 -2.970274e+00 4.745468e+01 1.208308e+00 -2.633372e+00 1.418553e+00 -1.899701e+00 1.630517e+00 -2.763675e+00 8.324385e-01 -2.794373e+00 -3.427769e-01 -1.595218e+00 8.080083e-02 7.185224e-02 5.308105e+00 7.210242e-01 -9.970912e-01 8.418869e-01 -7.308931e-01 9.191040e-01 -9.854113e-01 4.173963e-01 -1.150701e+00 -9.745577e-03 -7.769807e-01 -5.300846e-02 -3.182429e-02 2.507321e+00
<VARIANCE> 39
 6.755478e+00 1.309574e+01 1.047177e+01 8.928998e+00 1.170810e+01 1.710814e+01 2.460330e+01 1.993499e+01 1.802989e+01 1.365875e+01 1.193382e+01 1.017607e+01 1.295463e+01 1.577600e+00 4.844710e+00 3.366534e+00 3.592069e+00 4.123789e+00 6.475896e+00 3.363350e+00 7.465327e+00 2.798585e+00 3.958857e+00 1.714208e+00 1.648536e+00 1.962061e+01 1.019716e-01 3.474057e-01 2.044035e-01 3.917395e-01 3.706020e-01 5.970888e-01 4.637299e-01 6.088860e-01 4.212047e-01 3.388149e-01 2.592472e-01 2.601697e-01 6.896731e-01
<GCONST> 1.088624e+02
<STATE> 3
<MEAN> 39
 -4.837861e+00 -9.501768e+00 5.335456e+00 9.138908e-01 4.122737e+00 1.546698e-01 1.213900e+00 -5.590118e+00 -4.206958e+00 -9.344951e+00 -4.269614e+00 -3.423150e+00 7.654593e+01 1.661123e+00 5.381319e-02 2.606808e-01 9.209403e-01 -3.057524e-01 9.945967e-01 -8.053962e-02 5.519242e-01 5.071424e-03 -3.463820e-01 -9.429129e-01 -3.209482e-01 3.900308e-01 -3.165029e-01 9.984559e-01 -7.020884e-01 8.671428e-01 -9.292359e-01 9.996752e-01 -4.738179e-01 1.011137e+00 -7.470843e-02 6.878843e-01 -5.893515e-02 -5.152884e-02 -2.113870e+00
<VARIANCE> 39
 1.700681e+01 1.870746e+01 1.680113e+01 3.668052e+01 2.895769e+01 5.815886e+01 2.804642e+01 4.861559e+01 2.993749e+01 2.256844e+01 3.048422e+01 2.403915e+01 5.994811e+01 1.437299e+00 6.581446e+00 4.751475e+00 6.793731e+00 8.789060e+00 1.152352e+01 4.513006e+00 1.164117e+01 2.370002e+00 4.497537e+00 1.974389e+00 1.550917e+00 3.745791e+01 1.671487e-01 6.050650e-01 4.589992e-01 8.097848e-01 8.439685e-01 1.883479e+00 7.163640e-01 1.794162e+00 5.406021e-01 5.086160e-01 5.223590e-01 3.574744e-01 3.504289e+00
<GCONST> 1.328441e+02
<STATE> 4
<MEAN> 39
 -3.824783e+00 5.008123e+00 9.887214e-01 1.324289e+01 -3.800215e+00 1.066618e+01 -4.412659e+00 2.979341e+00 -8.413955e+00 -4.531170e+00 -7.592813e+00 -6.518626e+00 5.622560e+01 -7.043689e-01 9.055870e-01 -3.187112e-01 2.439677e-01 -1.340023e-01 2.367260e-01 -1.567001e-01 2.531173e-01 -2.840774e-01 3.196865e-01 1.604084e-01 -8.477360e-02 -1.324770e+00 -1.554592e-01 -2.074552e-01 9.711353e-02 -2.635364e-01 2.236013e-01 -1.705308e-01 1.286863e-01 -1.244568e-01 9.839617e-02 -7.513368e-02 8.524355e-02 6.025244e-02 2.573317e-01
<VARIANCE> 39
 1.658552e+01 2.836307e+01 1.723051e+01 1.632278e+01 1.690361e+01 1.631622e+01 1.862204e+01 1.630432e+01 2.056107e+01 1.703923e+01 1.524830e+01 1.531790e+01 2.128070e+01 5.676770e-01 1.582037e+00 1.318334e+00 1.789529e+00 2.012453e+00 1.690156e+00 1.530087e+00 1.446483e+00 1.809047e+00 1.651343e+00 1.201823e+00 1.195568e+00 8.592547e-01 7.238784e-02 1.356357e-01 2.261238e-01 3.071632e-01 4.186324e-01 4.825658e-01 3.258932e-01 3.764845e-01 3.406908e-01 3.102512e-01 2.591896e-01 2.364257e-01 1.018103e-01
<GCONST> 9.493823e+01
<TRANSP> 5
 0.000000e+00 1.000000e+00 0.000000e+00 0.000000e+00 0.000000e+00
 0.000000e+00 6.685510e-01 3.314490e-01 0.000000e+00 0.000000e+00
 0.000000e+00 0.000000e+00 8.263238e-01 1.736762e-01 0.000000e+00
 0.000000e+00 0.000000e+00 0.000000e+00 9.044549e-01 9.554514e-02
 0.000000e+00 0.000000e+00 0.000000e+00 0.000000e+00 0.000000e+00
<ENDHMM>
~h "s"
<BEGINHMM>
<NUMSTATES> 5
<STATE> 2
<MEAN> 39
 -1.627997e+01 -4.024827e+00 -1.993315e+00 7.975868e+00 -3.304234e+00 8.427036e+00 -5.214159e-01 1.064913e+00 -4.013022e+00 -3.910331e-01 -3.350465e+00 -6.349938e-01 5.305849e+01 -2.163590e+00 -4.292941e+00 1.349722e+00 -2.387938e+00 2.278218e+00 -2.971425e+00 2.475187e+00 -3.372207e+00 3.946403e-01 -8.127006e-01 2.565656e-01 1.445757e+00 4.162444e+00 -7.322035e-01 -6.704432e-01 4.499259e-01 -1.172014e+00 9.835220e-01 -7.581083e-01 3.555503e-01 -5.348028e-01 8.672128e-02 -2.790911e-01 2.357221e-01 3.494769e-04 1.240486e+00
<VARIANCE> 39
 2.172143e+01 9.719115e+01 3.394268e+01 3.492503e+01 3.438337e+01 6.586733e+01 5.717998e+01 8.062909e+01 3.368013e+01 2.800677e+01 3.026161e+01 3.241592e+01 5.806077e+01 3.296544e+00 8.271535e+00 4.457532e+00 7.632951e+00 7.003821e+00 8.493582e+00 5.013671e+00 8.062078e+00 3.427089e+00 2.941049e+00 2.735358e+00 2.337841e+00 8.249559e+00 2.909326e-01 2.076324e+00 7.559580e-01 7.462791e-01 7.449504e-01 1.324316e+00 1.042062e+00 1.788230e+00 5.510361e-01 5.041946e-01 4.899361e-01 6.554273e-01 9.939112e-01
<GCONST> 1.383743e+02
<STATE> 3
<MEAN> 39
 -2.899542e+01 -1.859305e+01 4.853769e+00 -1.079845e+01 1.184945e+01 -5.894092e+00 7.551445e+00 -1.043986e+01 -2.208605e+00 -4.970693e+00 4.979554e-01 1.545059e+00 7.519640e+01 -1.851307e+00 -8.931872e-01 1.215887e+00 -3.134943e+00 1.914537e+00 -9.554457e-01 1.568402e-01 -4.392540e-01 1.162907e-01 -5.534060e-01 8.236058e-01 -3.873133e-01 2.904918e+00 7.588888e-01 9.258327e-01 -2.616669e-01 9.737552e-01 -9.403405e-01 1.118100e+00 -6.636715e-01 8.166348e-01 -1.133443e-01 2.065381e-01 -2.040865e-01 -1.953961e-01 -1.232494e+00
<VARIANCE> 39
 1.533341e+01 2.243469e+01 5.089676e+01 4.156377e+01 3.849501e+01 3.999750e+01 3.152158e+01 3.241627e+01 2.868891e+01 2.245779e+01 3.141900e+01 1.973709e+01 2.843640e+01 3.319317e+00 4.851841e+00 3.846357e+00 5.957084e+00 6.240089e+00 6.809068e+00 3.882314e+00 4.768014e+00 2.150778e+00 2.477253e+00 2.099093e+00 1.703187e+00 5.794787e+00 3.023883e-01 1.063443e+00 7.614584e-01 6.355104e-01 7.112865e-01 7.827873e-01 7.258187e-01 1.007638e+00 4.480727e-01 5.003003e-01 4.378119e-01 4.556019e-01 3.820640e-01
<GCONST> 1.261433e+02
<STATE> 4
<MEAN> 39
 -2.835761e+01 -1.784976e+01 1.068167e+01 -1.232263e+01 9.441729e+00 2.204165e+00 3.397744e+00 -7.416013e+00 -2.682248e+00 -5.009883e+00 -2.369247e-01 1.257625e+00 7.314684e+01 1.034133e+00 8.387814e-01 2.412270e-01 9.467504e-01 -1.056294e+00 1.445641e+00 -7.069619e-01 1.057090e+00 -5.031208e-01 2.542560e-01 -6.036795e-01 -4.719748e-02 -1.691902e+00 1.861691e-01 2.454461e-01 -1.790987e-01 2.756618e-01 -2.375707e-01 8.924676e-02 -1.209081e-01 1.553504e-01 -3.424746e-02 9.920298e-02 -2.775633e-02 -4.581642e-02 -3.115474e-01
<VARIANCE> 39
 2.341784e+01 2.117697e+01 2.923627e+01 2.668167e+01 3.822131e+01 5.624491e+01 2.799290e+01 3.677632e+01 2.817531e+01 2.092762e+01 2.862283e+01 1.469354e+01 4.886362e+01 1.512737e+00 2.365501e+00 1.455753e+00 2.024691e+00 2.231981e+00 2.259842e+00 2.278671e+00 2.957376e+00 2.041256e+00 1.739093e+00 1.572808e+00 1.027721e+00 2.511628e+00 1.978303e-01 2.770616e-01 2.067215e-01 2.454309e-01 2.999864e-01 3.763232e-01 3.876345e-01 4.458100e-01 3.982537e-01 3.319660e-01 3.402882e-01 2.156651e-01 2.165975e-01
<GCONST> 1.080261e+02
<TRANSP> 5
 0.000000e+00 1.000000e+00 0.000000e+00 0.000000e+00 0.000000e+00
 0.000000e+00 7.404478e-01 2.595522e-01 0.000000e+00 0.000000e+00
 0.000000e+00 0.000000e+00 7.661873e-01 2.338127e-01 0.000000e+00
 0.000000e+00 0.000000e+00 0.000000e+00 9.018798e-01 9.812015e-02
 0.000000e+00 0.000000e+00 0.000000e+00 0.000000e+00 0.000000e+00
<ENDHMM>
~h "sil"
<BEGINHMM>
<NUMSTATES> 5
<STATE> 2
<MEAN> 39
 -2.061941e+01 1.467172e+00 -1.318731e+00 3.071170e+00 -2.746806e+00 1.282084e+01 -7.158866e+00 3.762746e+00 -4.421034e+00 -2.133344e-01 -3.425069e+00 -2.324841e+00 4.644993e+01 2.736135e-01 8.059995e-01 -5.623335e-01 7.069715e-01 -7.641314e-01 5.391754e-01 -1.968692e-01 6.585250e-01 3.038127e-01 2.685740e-01 3.838801e-01 -1.495825e-01 -9.106564e-01 2.885190e-02 -2.521973e-01 -3.912798e-02 2.462232e-02 4.955354e-02 -2.400157e-01 2.317905e-01 -1.868416e-01 7.891421e-02 -4.670591e-02 1.023920e-01 5.545364e-02 3.135159e-01
<VARIANCE> 39
 1.027505e+02 8.472549e+01 7.032371e+01 4.145142e+01 2.034720e+01 2.176521e+01 3.875694e+01 2.279604e+01 2.760280e+01 1.884178e+01 1.407205e+01 1.323465e+01 1.700130e+02 1.413700e+00 1.940150e+00 1.263673e+00 1.968877e+00 2.542759e+00 2.382163e+00 1.987452e+00 1.946311e+00 1.840976e+00 1.379654e+00 1.239166e+00 1.084376e+00 1.525550e+00 2.413445e-01 1.606372e-01 1.402273e-01 2.008967e-01 2.667575e-01 3.082151e-01 2.866184e-01 3.414634e-01 3.353176e-01 2.605375e-01 2.460338e-01 1.647115e-01 1.691795e-01
<GCONST> 1.058826e+02
<STATE> 3
~s "silst"
<STATE> 4
<MEAN> 39
 -1.467774e+01 3.381263e+00 -4.679017e+00 9.151383e+00 -5.096079e+00 1.152612e+01 -4.434692e+00 6.389322e+00 -4.010633e+00 9.811962e-02 -2.323516e+00 -3.076560e+00 4.724481e+01 -8.718228e-02 1.342590e-01 -1.156860e-01 1.023604e-02 -7.659478e-02 -8.114795e-02 1.515775e-02 1.544622e-01 9.871023e-02 -1.062839e-02 3.964497e-02 5.108309e-02 -1.780864e-01 1.485734e-03 -1.428173e-01 5.203413e-02 -3.653435e-02 1.300044e-02 -5.200432e-02 2.972703e-02 -1.281513e-01 -6.123361e-02 -2.586277e-02 -1.024509e-02 8.086903e-03 1.322522e-01
<VARIANCE> 39
 5.018363e+00 6.719731e+00 6.242233e+00 5.630036e+00 9.542329e+00 1.482477e+01 2.115279e+01 2.085872e+01 1.630896e+01 1.260750e+01 1.122608e+01 1.061786e+01 6.488769e+00 1.090750e-01 3.466392e-01 4.258648e-01 4.533194e-01 6.000351e-01 6.866466e-01 8.124016e-01 9.472494e-01 9.203737e-01 9.142603e-01 8.167908e-01 7.316632e-01 9.558169e-02 3.425101e-02 1.618636e-01 9.346745e-02 1.224515e-01 1.521954e-01 2.092218e-01 1.990179e-01 2.583805e-01 2.041669e-01 1.913186e-01 1.768264e-01 1.576421e-01 1.200132e-01
<GCONST> 6.764677e+01
<TRANSP> 5
 0.000000e+00 1.000000e+00 0.000000e+00 0.000000e+00 0.000000e+00
 0.000000e+00 5.213321e-01 2.327311e-01 2.459368e-01 0.000000e+00
 0.000000e+00 0.000000e+00 7.331460e-01 2.668540e-01 0.000000e+00
 0.000000e+00 5.095161e-03 0.000000e+00 8.896496e-01 1.052553e-01
 0.000000e+00 0.000000e+00 0.000000e+00 0.000000e+00 0.000000e+00
<ENDHMM>
