~o
<STREAMINFO> 1 39
<VECSIZE> 39<NULLD><MFCC_D_A_0><DIAGC>
~s "silst"
<MEAN> 39
 -1.694031e+01 1.129457e+00 -7.294804e+00 7.085143e+00 -7.344261e+00 9.175339e+00 -5.832151e+00 5.324734e+00 -5.045337e+00 8.577373e-01 -3.501254e-02 -1.893480e+00 4.605968e+01 4.670618e-01 4.703204e-02 -1.125945e-01 4.110932e-01 -7.056466e-02 -8.929174e-02 2.966742e-01 2.613242e-01 -2.103952e-02 2.758907e-02 1.210100e-01 1.481693e-02 2.096618e-01 -3.551710e-02 1.690998e-01 5.812615e-03 -1.846236e-01 1.419738e-01 1.014080e-01 -1.108716e-01 -6.329194e-03 1.932702e-01 -1.475650e-02 -1.613833e-01 1.212439e-02 -4.882907e-02
<VARIANCE> 39
 9.455995e+01 7.289464e+01 3.516923e+01 4.349717e+01 3.350154e+01 4.951612e+01 4.939716e+01 3.750686e+01 4.339685e+01 2.495367e+01 2.741203e+01 1.970019e+01 1.100575e+02 7.923721e+00 6.148813e+00 2.077929e+00 4.242232e+00 3.185967e+00 4.159043e+00 3.884761e+00 3.631136e+00 4.698743e+00 2.474136e+00 2.810880e+00 1.835304e+00 7.715125e+00 1.092928e+00 9.996260e-01 3.626727e-01 7.439779e-01 6.030182e-01 7.871820e-01 7.057748e-01 6.902996e-01 8.512011e-01 4.972933e-01 5.513582e-01 3.762752e-01 1.076397e+00
<GCONST> 1.331524e+02
~h "k"
<BEGINHMM>
<NUMSTATES> 5
<STATE> 2
<MEAN> 39
 -1.324215e+01 1.066230e+00 -6.364520e+00 7.738032e+00 -5.055177e+00 1.077742e+01 -4.281536e+00 6.260790e+00 -3.280167e+00 1.618804e+00 -1.634960e+00 -2.795798e+00 4.943677e+01 -4.872410e-01 -4.340529e+00 5.098832e-01 -1.882933e+00 2.175660e+00 -2.989671e+00 5.278680e-01 -3.487260e+00 1.602939e-01 -8.661600e-02 8.111522e-02 -1.950927e-02 4.892935e+00 -2.070413e-01 -1.978477e+00 2.546034e-01 -1.094285e+00 9.113122e-01 -1.383831e+00 1.832497e-01 -1.759814e+00 1.182382e-01 -3.084602e-01 -4.547917e-02 -1.373904e-01 2.512473e+00
<VARIANCE> 39
 1.444504e+01 3.861296e+01 1.878546e+01 2.035625e+01 2.372566e+01 3.170255e+01 3.299953e+01 2.537429e+01 2.237845e+01 1.890371e+01 1.521091e+01 1.368596e+01 2.126534e+01 1.253093e+00 1.684146e+01 2.171160e+00 6.221145e+00 6.087705e+00 1.062882e+01 3.367889e+00 1.320056e+01 3.160337e+00 2.914433e+00 2.079118e+00 1.933254e+00 2.237344e+01 1.462431e-01 1.281849e+00 3.084284e-01 4.747916e-01 6.288014e-01 8.437423e-01 5.445470e-01 8.616785e-01 5.427446e-01 4.454622e-01 3.759937e-01 3.422163e-01 1.150026e+00
<GCONST> 1.237639e+02
<STATE> 3
<MEAN> 39
 -1.678812e+01 -2.744266e+01 -2.228177e+00 -7.687115e+00 8.197014e+00 -9.055156e+00 -1.184674e+00 -1.951881e+01 -6.300483e-01 -1.714679e+00 -2.337266e+00 -4.628856e+00 8.477460e+01 -2.689956e-01 -2.574962e+00 7.639588e-01 -1.565887e+00 6.880192e-01 -1.315956e+00 1.201839e-01 -2.898723e+00 3.255879e-01 -2.395926e-01 -3.177293e-01 -5.898835e-01 3.075694e+00 3.162329e-01 1.789974e+00 -1.104240e-01 1.024601e+00 -1.027739e+00 1.511442e+00 -3.532841e-01 1.581367e+00 -1.936897e-01 4.329062e-01 -1.044659e-01 9.460866e-02 -2.531439e+00
<VARIANCE> 39
 7.443449e+00 1.486361e+01 1.493608e+01 2.132725e+01 1.924229e+01 3.981898e+01 2.710594e+01 3.749236e+01 3.222142e+01 2.801839e+01 2.425237e+01 3.024283e+01 2.424757e+01 1.080885e+00 1.797383e+01 1.607515e+00 6.888292e+00 6.815103e+00 1.344088e+01 2.615486e+00 1.360656e+01 2.420810e+00 3.491545e+00 1.756231e+00 2.028896e+00 3.298083e+01 1.867993e-01 1.094306e+00 3.624964e-01 5.721354e-01 6.469684e-01 1.034536e+00 4.927815e-01 1.015231e+00 5.082271e-01 6.552489e-01 3.614537e-01 4.790887e-01 1.598717e+00
<GCONST> 1.260272e+02
<STATE> 4
<MEAN> 39
 -1.133788e+01 -1.772536e+01 -4.336052e+00 2.712544e+00 -1.317751e+00 4.580823e+00 -8.013302e+00 -1.164943e+01 -4.348838e+00 3.273993e+00 -5.355067e+00 -4.445962e+00 6.598787e+01 7.446228e-01 1.813135e+00 -8.524963e-01 1.846442e+00 -1.092324e+00 1.817738e+00 -6.671915e-01 1.735706e+00 -5.113558e-01 5.627919e-01 -1.094943e-01 1.828042e-01 -2.764000e+00 -1.185702e-01 3.860542e-02 -8.909450e-02 -4.511524e-02 1.740404e-01 -1.388766e-01 1.805860e-01 6.197584e-02 1.047129e-01 -1.068817e-01 1.244959e-01 -3.014104e-02 1.790933e-01
<VARIANCE> 39
 1.537972e+01 4.345093e+01 2.280485e+01 6.104200e+01 2.625834e+01 5.452184e+01 3.567308e+01 5.329189e+01 4.479185e+01 2.119917e+01 2.432376e+01 2.575853e+01 7.131010e+01 1.224288e+00 1.170198e+00 1.536548e+00 2.077621e+00 2.202902e+00 2.661261e+00 3.223724e+00 4.735640e+00 4.017004e+00 2.184719e+00 1.899197e+00 1.885029e+00 2.611556e+00 2.113790e-01 2.582481e-01 3.693010e-01 4.490336e-01 3.394201e-01 4.595892e-01 5.695074e-01 1.064537e+00 9.074995e-01 4.855938e-01 3.688521e-01 3.915718e-01 4.157059e-01
<GCONST> 1.175270e+02
<TRANSP> 5
 0.000000e+00 1.000000e+00 0.000000e+00 0.000000e+00 0.000000e+00
 0.000000e+00 7.156720e-01 2.843279e-01 0.000000e+00 0.000000e+00
 0.000000e+00 0.000000e+00 8.007922e-01 1.992077e-01 0.000000e+00
 0.000000e+00 0.000000e+00 0.000000e+00 8.888354e-01 1.111645e-01
 0.000000e+00 0.000000e+00 0.000000e+00 0.000000e+00 0.000000e+00
<ENDHMM>
~h "p"
<BEGINHMM>
<NUMSTATES> 5
<STATE> 2
<MEAN> 39
 -1.355693e+01 2.738631e+00 -6.018990e+00 7.351556e+00 -6.535470e+00 1.013432e+01 -4.935903e+00 6.558825e+00 -3.419988e+00 4.809197e-01 -2.077926e+00 -2.892659e+00 4.830511e+01 9.881669e-01 -2.515228e+00 1.654315e+00 -1.567099e+00 1.806522e+00 -2.617193e+00 8.258998e-01 -2.676929e+00 -3.898526e-01 -1.628292e+00 2.028448e-01 9.155575e-02 5.008923e+00 6.256400e-01 -1.002861e+00 9.263700e-01 -5.698813e-01 9.507351e-01 -9.272454e-01 4.381928e-01 -1.119252e+00 -6.211522e-02 -8.048214e-01 -1.806251e-02 -8.122277e-02 2.387249e+00
<VARIANCE> 39
 1.427333e+01 1.294348e+01 1.813158e+01 1.286408e+01 1.315552e+01 1.926604e+01 2.348003e+01 1.752826e+01 1.567425e+01 1.202644e+01 1.115958e+01 9.576152e+00 1.488636e+01 1.546387e+00 4.840880e+00 3.934556e+00 3.259611e+00 4.332509e+00 6.131359e+00 2.924853e+00 7.078618e+00 2.599394e+00 4.041424e+00 1.708660e+00 1.609139e+00 1.889303e+01 1.289347e-01 3.453763e-01 2.296825e-01 4.227041e-01 3.757458e-01 6.062627e-01 4.068044e-01 5.545131e-01 3.978705e-01 3.252373e-01 2.668650e-01 2.611829e-01 7.075866e-01
<GCONST> 1.102246e+02
<STATE> 3
<MEAN> 39
 -5.161443e+00 -1.037893e+01 5.095198e+00 2.478927e-01 4.878410e+00 -1.648348e+00 6.392975e-01 -7.253105e+00 -4.556340e+00 -9.827350e+00 -2.932038e+00 -3.412105e+00 7.774506e+01 1.650615e+00 -2.667416e-01 5.640122e-01 7.726848e-01 5.815238e-02 8.924874e-01 2.249333e-01 3.374389e-01 6.453627e-02 -5.654129e-01 -9.260074e-01 -2.769132e-01 8.971239e-01 -2.887891e-01 1.183782e+00 -9.762070e-01 9.552334e-01 -1.241528e+00 1.300086e+00 -5.986422e-01 1.351894e+00 3.535666e-02 8.794503e-01 -1.711591e-01 -1.228976e-03 -2.590052e+00
<VARIANCE> 39
 1.335673e+01 1.450748e+01 1.521334e+01 2.943463e+01 2.502207e+01 4.856776e+01 2.944587e+01 4.145277e+01 2.746083e+01 2.234872e+01 2.787078e+01 2.166974e+01 4.651087e+01 1.301079e+00 6.843832e+00 6.131810e+00 5.976077e+00 9.978941e+00 1.221274e+01 4.145331e+00 1.309386e+01 2.259679e+00 5.219262e+00 2.033372e+00 1.534123e+00 3.952761e+01 1.811014e-01 4.976161e-01 5.213517e-01 5.865613e-01 7.673792e-01 1.473648e+00 6.132792e-01 1.428895e+00 5.489997e-01 5.368232e-01 5.021167e-01 3.656139e-01 2.601311e+00
<GCONST> 1.302266e+02
<STATE> 4
<MEAN> 39
 -3.421770e+00 3.193261e+00 -8.115157e-01 1.190711e+01 -4.565313e+00 9.787587e+00 -4.898192e+00 2.708208e+00 -7.992769e+00 -4.479850e+00 -6.805227e+00 -5.853298e+00 5.714775e+01 -5.844936e-01 1.126197e+00 -5.530425e-01 3.537055e-01 -4.406581e-01 3.809064e-01 -3.559403e-01 3.804873e-01 -3.834447e-01 4.384947e-01 8.783020e-02 -1.273478e-01 -1.642918e+00 -1.883832e-01 -2.089758e-01 1.405478e-01 -3.101280e-01 2.803448e-01 -2.540921e-01 1.460083e-01 -1.983599e-01 9.285599e-02 -8.932390e-02 1.195845e-01 4.159658e-02 3.365177e-01
<VARIANCE> 39
 1.294929e+01 3.412769e+01 2.735577e+01 1.948794e+01 1.834641e+01 1.927916e+01 2.138265e+01 1.751217e+01 2.394823e+01 1.739687e+01 1.754891e+01 1.645534e+01 2.274413e+01 7.217972e-01 1.414942e+00 1.663175e+00 2.342402e+00 2.693990e+00 2.212796e+00 1.719540e+00 2.108407e+00 2.069367e+00 1.848853e+00 1.344031e+00 1.324621e+00 1.438626e+00 6.946635e-02 1.435665e-01 2.490136e-01 3.356102e-01 4.549951e-01 5.829822e-01 3.179416e-01 5.004644e-01 4.396276e-01 3.518458e-01 3.046099e-01 2.744947e-01 1.507661e-01
<GCONST> 1.009046e+02
<TRANSP> 5
 0.000000e+00 1.000000e+00 0.000000e+00 0.000000e+00 0.000000e+00
 0.000000e+00 6.784434e-01 3.215566e-01 0.000000e+00 0.000000e+00
 0.000000e+00 0.000000e+00 7.921816e-01 2.078184e-01 0.000000e+00
 0.000000e+00 0.000000e+00 0.000000e+00 8.973743e-01 1.026257e-01
 0.000000e+00 0.000000e+00 0.000000e+00 0.000000e+00 0.000000e+00
<ENDHMM>
~h "s"
<BEGINHMM>
<NUMSTATES> 5
<STATE> 2
<MEAN> 39
 -1.511777e+01 -2.697769e+00 -3.315597e+00 7.600339e+00 -4.867444e+00 8.287403e+00 -2.049859e+00 2.211951e+00 -3.570469e+00 -9.801568e-02 -2.926926e+00 -1.287560e+00 5.229525e+01 -2.074729e+00 -3.865027e+00 1.503146e+00 -1.740859e+00 2.041212e+00 -2.692665e+00 2.313208e+00 -3.133136e+00 4.163587e-01 -7.787014e-01 1.828314e-01 1.230299e+00 3.660924e+00 -7.832628e-01 -8.138059e-01 5.088974e-01 -1.088216e+00 1.047720e+00 -8.002239e-01 4.401608e-01 -6.922758e-01 9.930874e-02 -2.935934e-01 1.847715e-01 9.230521e-02 1.297225e+00
<VARIANCE> 39
 2.226857e+01 7.706242e+01 3.775246e+01 3.203456e+01 3.163894e+01 5.536505e+01 5.096155e+01 6.806276e+01 3.175815e+01 2.823479e+01 2.819627e+01 2.792799e+01 4.303724e+01 3.423264e+00 8.754246e+00 4.923826e+00 6.874512e+00 7.043496e+00 7.792952e+00 5.047538e+00 8.432222e+00 3.309531e+00 3.214098e+00 2.750553e+00 2.441213e+00 8.168706e+00 2.762589e-01 1.699820e+00 7.974288e-01 7.731767e-01 7.244890e-01 1.150720e+00 9.339209e-01 1.575738e+00 5.447782e-01 5.486810e-01 4.975071e-01 5.607981e-01 7.677718e-01
<GCONST> 1.363361e+02
<STATE> 3
<MEAN> 39
 -2.895494e+01 -1.841623e+01 4.949111e+00 -9.933313e+00 1.151375e+01 -6.046983e+00 6.835700e+00 -1.045600e+01 -1.535169e+00 -4.793959e+00 4.215239e-01 1.549698e+00 7.465964e+01 -2.056907e+00 -1.222009e+00 1.417184e+00 -3.311047e+00 2.272294e+00 -1.055187e+00 2.859088e-01 -6.079977e-01 3.450299e-02 -6.492028e-01 8.569359e-01 -2.620864e-01 3.182873e+00 7.828180e-01 9.398311e-01 -3.228607e-01 8.020081e-01 -9.841252e-01 1.086787e+00 -6.932339e-01 8.658464e-01 -1.174703e-01 2.029192e-01 -1.347049e-01 -2.301784e-01 -1.187126e+00
<VARIANCE> 39
 1.622420e+01 2.404352e+01 4.950971e+01 4.474242e+01 3.932959e+01 3.655068e+01 3.329086e+01 3.163069e+01 2.913098e+01 2.379232e+01 3.020150e+01 1.961250e+01 2.668866e+01 3.458120e+00 5.231937e+00 4.253157e+00 5.304632e+00 7.048137e+00 7.219133e+00 4.309932e+00 5.532313e+00 2.305665e+00 2.423013e+00 2.016697e+00 1.739709e+00 5.893942e+00 3.239700e-01 9.809209e-01 8.053299e-01 7.774696e-01 7.710316e-01 8.070458e-01 7.500647e-01 1.077098e+00 4.883333e-01 4.753421e-01 4.753950e-01 4.520540e-01 3.688976e-01
<GCONST> 1.273509e+02
<STATE> 4
<MEAN> 39
 -2.745638e+01 -1.721220e+01 1.035230e+01 -1.198075e+01 8.474238e+00 2.428390e+00 2.431975e+00 -6.489552e+00 -2.886422e+00 -4.796222e+00 -3.859627e-01 1.031744e+00 7.218670e+01 1.203222e+00 1.011238e+00 6.494822e-02 1.007764e+00 -1.303386e+00 1.492720e+00 -8.199559e-01 1.148873e+00 -4.968832e-01 3.453207e-01 -5.813062e-01 -1.056537e-01 -1.820830e+00 1.650237e-01 2.333505e-01 -2.193554e-01 2.854705e-01 -2.237699e-01 6.234645e-02 -8.447714e-02 1.157357e-01 1.438452e-02 1.101102e-01 2.579655e-03 -4.970737e-02 -2.892448e-01
<VARIANCE> 39
 2.972167e+01 2.602373e+01 2.916282e+01 2.979024e+01 4.805331e+01 6.203363e+01 3.177825e+01 4.172754e+01 3.158926e+01 2.171777e+01 2.921079e+01 1.519415e+01 5.781866e+01 1.729070e+00 2.633898e+00 1.865884e+00 2.080448e+00 2.546168e+00 2.238805e+00 2.311349e+00 2.896270e+00 2.169095e+00 1.859503e+00 1.634859e+00 1.185707e+00 2.520273e+00 2.433499e-01 3.246477e-01 2.517829e-01 2.582556e-01 3.383369e-01 3.977879e-01 4.085561e-01 4.939349e-01 4.726878e-01 3.598446e-01 3.876311e-01 2.439995e-01 2.839074e-01
<GCONST> 1.121978e+02
<TRANSP> 5
 0.000000e+00 1.000000e+00 0.000000e+00 0.000000e+00 0.000000e+00
 0.000000e+00 7.472154e-01 2.527846e-01 0.000000e+00 0.000000e+00
 0.000000e+00 0.000000e+00 7.752968e-01 2.247032e-01 0.000000e+00
 0.000000e+00 0.000000e+00 0.000000e+00 9.038828e-01 9.611714e-02
 0.000000e+00 0.000000e+00 0.000000e+00 0.000000e+00 0.000000e+00
<ENDHMM>
~h "sil"
<BEGINHMM>
<NUMSTATES> 5
<STATE> 2
<MEAN> 39
 -1.640474e+01 -2.119092e-01 -3.611257e+00 4.683252e+00 -4.688687e+00 1.235099e+01 -7.338710e+00 3.022010e+00 -4.148192e+00 1.152276e+00 -2.927852e+00 -3.102449e+00 4.892076e+01 9.176992e-02 9.551676e-01 -7.583544e-01 6.326399e-01 -3.725783e-01 2.195244e-01 -3.654379e-02 6.985566e-01 4.799959e-01 2.994235e-01 3.924117e-01 -1.255520e-01 -9.628783e-01 -6.319725e-02 -1.928527e-01 4.430189e-02 -1.059882e-01 1.626542e-01 -2.958021e-01 1.411772e-01 -1.087625e-01 1.267087e-03 -8.189101e-02 1.444621e-02 9.595106e-02 2.397585e-01
<VARIANCE> 39
 8.552941e+01 6.180211e+01 5.493837e+01 3.501035e+01 2.138245e+01 2.501413e+01 3.261796e+01 2.552133e+01 2.296773e+01 2.197620e+01 1.476892e+01 1.439062e+01 1.067849e+02 9.548285e-01 1.432634e+00 1.682179e+00 1.918013e+00 2.394269e+00 2.177105e+00 1.686100e+00 1.889206e+00 2.139300e+00 1.560560e+00 1.346605e+00 1.172802e+00 7.132654e-01 1.071770e-01 1.521136e-01 1.636993e-01 2.203748e-01 3.514791e-01 3.307343e-01 3.118363e-01 3.271326e-01 3.572193e-01 2.810842e-01 2.473638e-01 2.023357e-01 8.098058e-02
<GCONST> 1.030111e+02
<STATE> 3
~s "silst"
<STATE> 4
<MEAN> 39
 -1.332785e+01 3.285743e+00 -7.100582e+00 7.492085e+00 -6.515841e+00 1.010483e+01 -5.819810e+00 6.114727e+00 -3.445078e+00 4.935650e-01 -1.929389e+00 -2.858913e+00 4.778080e+01 -7.818908e-02 1.143586e-01 -9.266242e-02 -2.008172e-02 -7.218630e-02 -4.575938e-02 1.705573e-02 1.231342e-01 8.071074e-02 -1.852547e-02 2.168426e-02 4.344535e-02 -1.498076e-01 2.427870e-03 -1.146527e-01 4.774566e-02 -8.989959e-03 1.033219e-02 -3.840475e-02 2.574740e-02 -9.420729e-02 -5.761949e-02 -1.814333e-02 2.711959e-03 1.941168e-03 1.005915e-01
<VARIANCE> 39
 1.410764e+01 7.762772e+00 1.444852e+01 9.710630e+00 1.111352e+01 1.438943e+01 1.880628e+01 1.560305e+01 1.369584e+01 1.145630e+01 1.057918e+01 9.632481e+00 8.898648e+00 9.918388e-02 3.265996e-01 3.803107e-01 4.536240e-01 5.935256e-01 6.808192e-01 8.083576e-01 8.861892e-01 8.774725e-01 8.974479e-01 8.276188e-01 7.478846e-01 9.232665e-02 3.058183e-02 1.229013e-01 9.021420e-02 1.154103e-01 1.470763e-01 1.858569e-01 1.881446e-01 2.256604e-01 1.964911e-01 1.904495e-01 1.789967e-01 1.598924e-01 7.877092e-02
<GCONST> 6.812337e+01
<TRANSP> 5
 0.000000e+00 1.000000e+00 0.000000e+00 0.000000e+00 0.000000e+00
 0.000000e+00 6.413378e-01 1.061169e-01 2.525454e-01 0.000000e+00
 0.000000e+00 0.000000e+00 8.090077e-01 1.909923e-01 0.000000e+00
 0.000000e+00 6.815537e-03 0.000000e+00 8.975389e-01 9.564561e-02
 0.000000e+00 0.000000e+00 0.000000e+00 0.000000e+00 0.000000e+00
<ENDHMM>
