~o
<STREAMINFO> 1 39
<VECSIZE> 39<NULLD><MFCC_D_A_0><DIAGC>
~s "silst"
<MEAN> 39
 -1.637421e+01 1.329181e+00 -6.974019e+00 7.165345e+00 -7.236534e+00 9.224121e+00 -5.700421e+00 5.421277e+00 -5.089290e+00 7.129673e-01 -8.823371e-02 -1.809520e+00 4.650797e+01 5.200348e-01 2.871306e-02 -9.909803e-02 4.640535e-01 -7.928081e-02 -1.018608e-01 3.102174e-01 2.724695e-01 -3.853548e-02 4.150017e-02 1.365133e-01 -1.024228e-02 2.499823e-01 -3.869888e-02 1.656459e-01 8.435391e-03 -1.810118e-01 1.418224e-01 9.299103e-02 -1.148154e-01 -1.804156e-02 1.916266e-01 -1.329046e-02 -1.702500e-01 7.093454e-03 -4.661621e-02
<VARIANCE> 39
 9.414894e+01 6.928529e+01 3.714642e+01 4.352002e+01 3.357304e+01 5.355378e+01 5.080624e+01 3.651042e+01 4.329124e+01 2.585946e+01 2.878651e+01 1.956297e+01 1.082421e+02 8.117970e+00 6.038158e+00 2.156453e+00 4.158032e+00 3.216234e+00 4.352674e+00 3.961949e+00 3.506452e+00 4.638031e+00 2.538942e+00 2.951956e+00 1.779355e+00 7.721367e+00 1.120933e+00 9.943105e-01 3.732093e-01 7.304555e-01 6.109434e-01 8.248630e-01 7.266821e-01 6.596133e-01 8.359438e-01 5.085336e-01 5.761628e-01 3.659380e-01 1.077351e+00
<GCONST> 1.334823e+02
~h "k"
<BEGINHMM>
<NUMSTATES> 5
<STATE> 2
<MEAN> 39
 -1.296345e+01 1.108406e+00 -6.123491e+00 7.761103e+00 -4.838017e+00 1.084427e+01 -4.186500e+00 6.224785e+00 -3.321598e+00 1.590578e+00 -1.734463e+00 -2.773506e+00 4.976197e+01 -5.405612e-01 -4.454498e+00 4.777455e-01 -1.936753e+00 2.191564e+00 -3.086875e+00 5.576612e-01 -3.553398e+00 1.399049e-01 -9.285416e-02 9.399160e-02 5.360224e-03 4.964374e+00 -2.311467e-01 -1.979717e+00 2.434106e-01 -1.097760e+00 8.946836e-01 -1.399199e+00 1.927043e-01 -1.774617e+00 1.053089e-01 -3.181040e-01 -2.481173e-02 -1.176134e-01 2.498574e+00
<VARIANCE> 39
 1.429123e+01 4.120378e+01 1.910111e+01 2.131877e+01 2.482803e+01 3.399305e+01 3.465721e+01 2.746882e+01 2.323444e+01 1.951735e+01 1.534715e+01 1.408818e+01 2.298846e+01 1.300553e+00 1.696028e+01 2.199525e+00 6.304273e+00 5.999254e+00 1.098215e+01 3.537419e+00 1.345807e+01 3.239630e+00 2.935351e+00 2.040957e+00 1.873536e+00 2.207391e+01 1.458294e-01 1.316090e+00 3.221605e-01 4.844656e-01 6.452937e-01 8.744417e-01 5.638561e-01 8.788918e-01 5.512667e-01 4.504073e-01 3.696751e-01 3.207675e-01 1.146636e+00
<GCONST> 1.245807e+02
<STATE> 3
<MEAN> 39
 -1.691447e+01 -2.738396e+01 -2.026681e+00 -7.671130e+00 8.030411e+00 -8.987380e+00 -1.041046e+00 -1.973852e+01 -7.729639e-01 -1.796354e+00 -2.294271e+00 -4.522009e+00 8.467865e+01 -2.550615e-01 -2.328645e+00 7.460034e-01 -1.363848e+00 5.643415e-01 -1.087661e+00 6.394673e-02 -2.648010e+00 2.551682e-01 -1.714758e-01 -3.045156e-01 -5.562276e-01 2.633796e+00 3.419396e-01 1.708591e+00 -1.247100e-01 1.005406e+00 -9.597864e-01 1.459410e+00 -3.612255e-01 1.541478e+00 -1.822058e-01 4.267124e-01 -1.162840e-01 9.230286e-02 -2.416257e+00
<VARIANCE> 39
 7.348333e+00 1.296720e+01 1.518723e+01 2.064647e+01 1.891246e+01 3.938866e+01 2.721547e+01 3.566784e+01 3.214522e+01 2.623758e+01 2.439733e+01 2.897861e+01 2.148531e+01 1.100302e+00 1.745934e+01 1.578339e+00 7.016348e+00 6.475124e+00 1.339163e+01 2.667495e+00 1.364708e+01 2.451245e+00 3.468001e+00 1.723630e+00 1.928472e+00 3.247317e+01 1.801998e-01 1.143922e+00 3.793309e-01 5.667827e-01 6.416858e-01 1.061372e+00 5.014728e-01 1.003682e+00 5.040498e-01 6.247336e-01 3.517364e-01 4.609153e-01 1.590519e+00
<GCONST> 1.253805e+02
<STATE> 4
<MEAN> 39
 -1.098190e+01 -1.692476e+01 -4.433901e+00 3.600598e+00 -1.387229e+00 5.243887e+00 -8.088887e+00 -1.120589e+01 -4.673573e+00 3.392019e+00 -5.468271e+00 -4.412601e+00 6.512958e+01 7.396333e-01 1.854909e+00 -8.706711e-01 1.818125e+00 -1.019020e+00 1.768311e+00 -6.360571e-01 1.758995e+00 -4.677311e-01 5.341759e-01 -9.707584e-02 1.645124e-01 -2.688718e+00 -1.374415e-01 2.196491e-02 -6.189894e-02 -8.337678e-02 1.777423e-01 -1.700442e-01 1.893787e-01 3.259684e-02 1.163904e-01 -1.202928e-01 1.365130e-01 -3.495539e-02 2.190184e-01
<VARIANCE> 39
 1.458266e+01 4.139680e+01 2.258370e+01 5.878872e+01 2.400623e+01 5.229693e+01 3.434306e+01 5.083954e+01 4.495222e+01 2.066252e+01 2.470734e+01 2.575933e+01 6.299864e+01 1.300364e+00 1.141866e+00 1.533709e+00 2.170022e+00 2.289107e+00 2.723523e+00 3.271106e+00 4.736851e+00 4.063524e+00 2.159766e+00 1.940213e+00 1.890501e+00 2.665925e+00 2.030243e-01 2.548708e-01 3.682505e-01 4.390911e-01 3.445607e-01 4.369213e-01 5.619597e-01 1.027999e+00 8.980625e-01 4.748941e-01 3.733186e-01 3.901073e-01 3.793218e-01
<GCONST> 1.169514e+02
<TRANSP> 5
 0.000000e+00 1.000000e+00 0.000000e+00 0.000000e+00 0.000000e+00
 0.000000e+00 7.139801e-01 2.860199e-01 0.000000e+00 0.000000e+00
 0.000000e+00 0.000000e+00 8.137224e-01 1.862776e-01 0.000000e+00
 0.000000e+00 0.000000e+00 0.000000e+00 8.888000e-01 1.112000e-01
 0.000000e+00 0.000000e+00 0.000000e+00 0.000000e+00 0.000000e+00
<ENDHMM>
~h "p"
<BEGINHMM>
<NUMSTATES> 5
<STATE> 2
<MEAN> 39
 -1.321900e+01 3.099304e+00 -5.719811e+00 7.554461e+00 -6.494477e+00 1.026171e+01 -4.904614e+00 6.594139e+00 -3.455625e+00 3.868909e-01 -2.249541e+00 -3.016303e+00 4.843447e+01 9.277434e-01 -2.545809e+00 1.597178e+00 -1.594426e+00 1.781935e+00 -2.655204e+00 8.178049e-01 -2.639795e+00 -4.372452e-01 -1.618372e+00 2.073220e-01 1.260462e-01 4.950650e+00 6.011240e-01 -1.010498e+00 9.269403e-01 -5.825420e-01 9.751763e-01 -9.448715e-01 4.434227e-01 -1.109532e+00 -7.829989e-02 -8.046734e-01 -8.168772e-03 -5.562272e-02 2.381525e+00
<VARIANCE> 39
 1.410079e+01 1.220862e+01 1.784877e+01 1.270197e+01 1.303061e+01 1.930190e+01 2.488501e+01 1.803489e+01 1.619576e+01 1.234706e+01 1.116873e+01 9.504676e+00 1.377061e+01 1.442957e+00 4.922014e+00 3.926875e+00 3.351158e+00 4.452808e+00 6.272467e+00 2.999053e+00 7.032584e+00 2.676615e+00 4.018092e+00 1.737095e+00 1.576329e+00 1.854542e+01 1.259943e-01 3.437679e-01 2.284610e-01 4.269780e-01 3.699617e-01 6.079046e-01 4.148340e-01 5.533710e-01 4.095600e-01 3.267315e-01 2.655764e-01 2.494316e-01 6.737108e-01
<GCONST> 1.101369e+02
<STATE> 3
<MEAN> 39
 -5.106581e+00 -9.892448e+00 5.237436e+00 5.604489e-01 4.932568e+00 -1.527398e+00 6.167237e-01 -6.717055e+00 -4.934796e+00 -9.804359e+00 -3.159420e+00 -3.282079e+00 7.727711e+01 1.596041e+00 -1.646677e-01 5.136002e-01 8.455895e-01 3.886154e-02 8.782315e-01 1.834011e-01 3.579305e-01 2.731888e-02 -5.500030e-01 -9.492386e-01 -2.969640e-01 7.515854e-01 -2.556908e-01 1.166372e+00 -9.422937e-01 9.252871e-01 -1.206170e+00 1.243495e+00 -5.852610e-01 1.251603e+00 3.782429e-02 8.438438e-01 -1.720807e-01 -4.579327e-02 -2.475636e+00
<VARIANCE> 39
 1.425142e+01 1.608487e+01 1.604951e+01 3.231094e+01 2.642052e+01 5.206322e+01 3.024224e+01 4.389500e+01 3.029831e+01 2.271531e+01 2.907652e+01 2.265859e+01 5.149343e+01 1.276328e+00 7.053504e+00 6.187905e+00 6.236264e+00 1.025788e+01 1.229313e+01 4.240922e+00 1.237432e+01 2.398244e+00 5.189482e+00 2.101358e+00 1.483329e+00 3.883677e+01 1.774210e-01 5.512899e-01 5.574084e-01 6.781624e-01 8.377238e-01 1.603362e+00 6.298634e-01 1.486344e+00 5.704566e-01 5.554608e-01 5.250874e-01 3.518766e-01 2.789928e+00
<GCONST> 1.318319e+02
<STATE> 4
<MEAN> 39
 -3.281708e+00 3.883779e+00 -4.673349e-01 1.223828e+01 -4.321957e+00 9.809199e+00 -4.939596e+00 2.679592e+00 -8.146480e+00 -4.572194e+00 -7.002830e+00 -6.000103e+00 5.698403e+01 -5.709488e-01 1.087799e+00 -4.920940e-01 3.323610e-01 -3.926892e-01 3.824196e-01 -3.185980e-01 3.768385e-01 -3.314776e-01 4.257790e-01 1.185892e-01 -1.103399e-01 -1.555518e+00 -1.816181e-01 -2.205634e-01 1.397861e-01 -3.046800e-01 2.730589e-01 -2.412238e-01 1.492942e-01 -1.760682e-01 9.275339e-02 -8.860778e-02 1.184495e-01 5.285560e-02 3.327300e-01
<VARIANCE> 39
 1.316772e+01 3.012597e+01 2.551035e+01 1.848159e+01 1.744859e+01 1.952946e+01 2.162778e+01 1.664741e+01 2.201256e+01 1.731531e+01 1.728466e+01 1.556837e+01 2.178962e+01 6.948420e-01 1.458824e+00 1.627524e+00 2.119668e+00 2.613288e+00 2.097695e+00 1.741783e+00 1.831894e+00 1.968787e+00 1.822019e+00 1.328706e+00 1.212767e+00 1.307694e+00 6.809904e-02 1.401201e-01 2.490079e-01 3.098708e-01 4.560912e-01 5.583921e-01 3.240966e-01 4.386314e-01 4.096351e-01 3.457025e-01 3.052436e-01 2.420138e-01 1.522312e-01
<GCONST> 9.931474e+01
<TRANSP> 5
 0.000000e+00 1.000000e+00 0.000000e+00 0.000000e+00 0.000000e+00
 0.000000e+00 6.759784e-01 3.240216e-01 0.000000e+00 0.000000e+00
 0.000000e+00 0.000000e+00 7.988375e-01 2.011625e-01 0.000000e+00
 0.000000e+00 0.000000e+00 0.000000e+00 8.977470e-01 1.022529e-01
 0.000000e+00 0.000000e+00 0.000000e+00 0.000000e+00 0.000000e+00
<ENDHMM>
~h "s"
<BEGINHMM>
<NUMSTATES> 5
<STATE> 2
<MEAN> 39
 -1.489989e+01 -2.651882e+00 -2.977200e+00 7.766946e+00 -4.719086e+00 8.215814e+00 -1.837009e+00 2.025281e+00 -3.703660e+00 -2.448979e-01 -3.004500e+00 -1.282926e+00 5.261492e+01 -2.152793e+00 -3.883581e+00 1.498151e+00 -1.788564e+00 2.084994e+00 -2.712912e+00 2.390804e+00 -3.094159e+00 4.253909e-01 -7.927126e-01 2.436621e-01 1.271751e+00 3.652747e+00 -7.924865e-01 -7.858440e-01 5.048566e-01 -1.096563e+00 1.048413e+00 -7.748512e-01 4.270598e-01 -6.591491e-01 9.854352e-02 -2.955807e-01 2.011679e-01 8.837666e-02 1.266388e+00
<VARIANCE> 39
 2.263015e+01 7.994354e+01 3.697823e+01 3.205628e+01 3.341487e+01 5.775179e+01 5.300574e+01 6.948761e+01 3.285128e+01 2.865973e+01 2.940073e+01 2.933470e+01 4.434430e+01 3.572548e+00 8.786085e+00 4.945807e+00 7.119694e+00 7.350015e+00 7.907971e+00 5.053758e+00 8.332089e+00 3.427845e+00 3.188320e+00 2.810866e+00 2.471262e+00 8.001473e+00 2.887918e-01 1.755925e+00 8.017568e-01 7.824253e-01 7.572585e-01 1.195599e+00 9.665743e-01 1.585701e+00 5.625568e-01 5.449362e-01 5.041063e-01 5.785086e-01 7.916093e-01
<GCONST> 1.371855e+02
<STATE> 3
<MEAN> 39
 -2.898896e+01 -1.815033e+01 5.244903e+00 -9.838818e+00 1.170255e+01 -5.930455e+00 7.187467e+00 -1.036168e+01 -1.613380e+00 -5.047646e+00 5.821078e-01 1.612921e+00 7.462771e+01 -2.084094e+00 -1.207713e+00 1.407518e+00 -3.272703e+00 2.255145e+00 -9.788270e-01 2.950881e-01 -6.346625e-01 4.674482e-02 -6.500906e-01 8.398188e-01 -2.574522e-01 3.111629e+00 8.103914e-01 9.420133e-01 -3.247921e-01 8.277860e-01 -9.960329e-01 1.088619e+00 -7.086291e-01 8.500445e-01 -1.249054e-01 2.208260e-01 -1.600133e-01 -2.250188e-01 -1.183426e+00
<VARIANCE> 39
 1.595877e+01 2.356494e+01 4.927342e+01 4.320208e+01 3.875433e+01 3.775217e+01 3.180003e+01 3.211243e+01 2.972329e+01 2.312691e+01 3.064270e+01 1.990322e+01 2.641777e+01 3.535679e+00 5.181320e+00 4.200771e+00 5.409343e+00 6.999746e+00 7.252949e+00 4.260737e+00 5.394675e+00 2.271881e+00 2.426483e+00 2.025536e+00 1.737385e+00 5.828124e+00 3.245310e-01 9.703489e-01 7.916387e-01 7.672500e-01 7.688046e-01 8.204663e-01 7.300084e-01 1.048536e+00 4.790924e-01 4.733723e-01 4.607766e-01 4.551763e-01 3.616502e-01
<GCONST> 1.270841e+02
<STATE> 4
<MEAN> 39
 -2.765465e+01 -1.716711e+01 1.066019e+01 -1.190744e+01 8.716884e+00 2.383160e+00 2.815963e+00 -6.792718e+00 -2.757712e+00 -4.905771e+00 -2.728097e-01 1.198002e+00 7.245789e+01 1.202605e+00 9.931051e-01 8.285643e-02 9.688137e-01 -1.282024e+00 1.449090e+00 -8.009905e-01 1.136685e+00 -4.805956e-01 3.413915e-01 -5.863658e-01 -8.983473e-02 -1.767061e+00 1.729507e-01 2.397790e-01 -2.202956e-01 2.803430e-01 -2.236774e-01 6.230894e-02 -9.074251e-02 1.282139e-01 5.536046e-03 1.061398e-01 -5.580903e-03 -5.009097e-02 -2.953349e-01
<VARIANCE> 39
 2.921827e+01 2.508801e+01 2.923134e+01 2.816886e+01 4.736535e+01 6.139475e+01 3.068175e+01 4.088353e+01 3.102053e+01 2.162685e+01 2.922862e+01 1.497721e+01 5.510018e+01 1.785447e+00 2.639364e+00 1.899698e+00 2.080587e+00 2.577112e+00 2.251941e+00 2.315028e+00 2.934196e+00 2.086021e+00 1.861387e+00 1.590254e+00 1.109858e+00 2.537533e+00 2.412345e-01 3.192567e-01 2.560814e-01 2.589791e-01 3.375315e-01 4.003394e-01 4.034865e-01 4.871931e-01 4.443735e-01 3.596168e-01 3.693722e-01 2.274318e-01 2.625040e-01
<GCONST> 1.115982e+02
<TRANSP> 5
 0.000000e+00 1.000000e+00 0.000000e+00 0.000000e+00 0.000000e+00
 0.000000e+00 7.474309e-01 2.525692e-01 0.000000e+00 0.000000e+00
 0.000000e+00 0.000000e+00 7.724244e-01 2.275756e-01 0.000000e+00
 0.000000e+00 0.000000e+00 0.000000e+00 9.034664e-01 9.653359e-02
 0.000000e+00 0.000000e+00 0.000000e+00 0.000000e+00 0.000000e+00
<ENDHMM>
~h "sil"
<BEGINHMM>
<NUMSTATES> 5
<STATE> 2
<MEAN> 39
 -1.645430e+01 8.075809e-02 -3.014154e+00 4.480213e+00 -4.547907e+00 1.239281e+01 -7.191915e+00 3.170271e+00 -4.169945e+00 9.018899e-01 -2.998471e+00 -2.909188e+00 4.902910e+01 1.568511e-01 9.711121e-01 -7.836059e-01 6.600916e-01 -4.400971e-01 2.478978e-01 -9.505078e-02 6.823230e-01 4.425995e-01 3.002746e-01 3.831179e-01 -1.508694e-01 -9.678192e-01 -7.407469e-02 -2.004938e-01 4.140502e-02 -1.036790e-01 1.702238e-01 -2.954052e-01 1.479708e-01 -1.281539e-01 9.644753e-03 -8.185821e-02 2.221878e-02 8.764765e-02 2.468449e-01
<VARIANCE> 39
 8.891553e+01 6.096091e+01 5.784303e+01 3.605639e+01 2.256301e+01 2.676913e+01 3.409797e+01 2.441144e+01 2.352025e+01 2.156048e+01 1.487738e+01 1.441938e+01 1.121886e+02 9.304187e-01 1.442313e+00 1.655126e+00 1.889177e+00 2.429820e+00 2.267460e+00 1.728612e+00 1.878211e+00 2.077255e+00 1.549735e+00 1.341000e+00 1.146428e+00 7.327597e-01 1.091883e-01 1.539507e-01 1.592794e-01 2.123740e-01 3.455940e-01 3.368687e-01 3.057258e-01 3.320500e-01 3.461064e-01 2.804114e-01 2.494437e-01 2.003980e-01 8.375713e-02
<GCONST> 1.032509e+02
<STATE> 3
~s "silst"
<STATE> 4
<MEAN> 39
 -1.275075e+01 3.703907e+00 -6.667987e+00 7.678764e+00 -6.391916e+00 1.013024e+01 -5.846617e+00 6.015181e+00 -3.598538e+00 3.435453e-01 -2.084986e+00 -2.963549e+00 4.814722e+01 -8.058506e-02 1.220828e-01 -1.004370e-01 -2.528908e-02 -7.676399e-02 -4.796315e-02 1.748200e-02 1.313657e-01 8.794574e-02 -1.630357e-02 2.198417e-02 4.344109e-02 -1.570452e-01 -1.414763e-04 -1.219635e-01 4.930731e-02 -1.108756e-02 1.166638e-02 -4.219194e-02 3.080843e-02 -9.586050e-02 -5.751342e-02 -1.942538e-02 2.632612e-03 5.501205e-03 1.054549e-01
<VARIANCE> 39
 1.288078e+01 6.754659e+00 1.440793e+01 1.015305e+01 1.189489e+01 1.565929e+01 2.051439e+01 1.680957e+01 1.442331e+01 1.185381e+01 1.094627e+01 1.010778e+01 8.408814e+00 1.004587e-01 3.395615e-01 3.916891e-01 4.574434e-01 6.020072e-01 6.957451e-01 8.198887e-01 8.949115e-01 8.940931e-01 9.136910e-01 8.432887e-01 7.627062e-01 9.236430e-02 3.131017e-02 1.300293e-01 9.106803e-02 1.163642e-01 1.503033e-01 1.933561e-01 1.932352e-01 2.291742e-01 1.997755e-01 1.937572e-01 1.837092e-01 1.628247e-01 8.296774e-02
<GCONST> 6.891618e+01
<TRANSP> 5
 0.000000e+00 1.000000e+00 0.000000e+00 0.000000e+00 0.000000e+00
 0.000000e+00 6.315886e-01 1.084862e-01 2.599251e-01 0.000000e+00
 0.000000e+00 0.000000e+00 8.057930e-01 1.942070e-01 0.000000e+00
 0.000000e+00 6.376884e-03 0.000000e+00 8.952289e-01 9.839422e-02
 0.000000e+00 0.000000e+00 0.000000e+00 0.000000e+00 0.000000e+00
<ENDHMM>
