~o
<STREAMINFO> 1 39
<VECSIZE> 39<NULLD><MFCC_D_A_0><DIAGC>
~s "silst"
<MEAN> 39
 -1.759453e+01 -2.447703e+00 -2.966573e+00 5.204616e+00 -3.933903e+00 8.470519e+00 -3.840448e+00 1.615292e+00 -5.304013e+00 -9.441293e-01 -1.845475e+00 -2.048442e+00 5.195172e+01 1.227196e+00 -6.863108e-01 2.451350e-01 7.644036e-01 -3.080381e-01 -1.983241e-01 6.742074e-01 6.815156e-02 -5.730175e-01 -1.850338e-01 1.351461e-01 -6.868587e-02 1.178688e+00 -2.099625e-02 2.129561e-01 -8.748226e-03 -2.521889e-02 1.047047e-01 1.299359e-01 -6.369822e-02 7.613738e-02 1.731070e-01 3.830262e-02 -1.043316e-01 -3.656183e-02 -1.335260e-01
<VARIANCE> 39
 1.037363e+02 1.365959e+02 6.340125e+01 8.249498e+01 4.736652e+01 8.353008e+01 6.228979e+01 9.152524e+01 5.625302e+01 3.218744e+01 3.569240e+01 2.786504e+01 2.734630e+02 5.986588e+00 8.566320e+00 2.175690e+00 5.904520e+00 3.813195e+00 6.808711e+00 4.868255e+00 6.468029e+00 5.105577e+00 2.729734e+00 2.709656e+00 2.103884e+00 1.379068e+01 9.440793e-01 1.510937e+00 4.063742e-01 1.058959e+00 7.872883e-01 1.292366e+00 9.339982e-01 1.198318e+00 1.124311e+00 5.820500e-01 5.578355e-01 4.255906e-01 2.281318e+00
<GCONST> 1.455453e+02
~h "k"
<BEGINHMM>
<NUMSTATES> 5
<STATE> 2
<MEAN> 39
 -1.497652e+01 3.595529e+00 -4.774792e+00 9.217785e+00 -4.795735e+00 1.210993e+01 -3.698991e+00 7.127690e+00 -3.528204e+00 4.681948e-01 -1.777640e+00 -2.692157e+00 4.687285e+01 -9.467911e-02 6.428497e-02 -8.558125e-02 4.102296e-02 -5.038679e-02 -6.216349e-02 1.155717e-02 1.278750e-01 7.510613e-02 2.518727e-03 4.137506e-02 1.835851e-02 -1.428018e-01 1.141985e-02 -1.550069e-01 1.933507e-02 -4.529134e-02 4.151705e-02 -3.989326e-02 -1.075287e-03 -1.409696e-01 -4.394624e-02 5.773853e-03 -1.532144e-02 -1.018670e-02 1.419839e-01
<VARIANCE> 39
 4.187072e+00 4.734485e+00 5.053323e+00 4.855938e+00 9.232680e+00 1.495051e+01 2.021311e+01 2.098635e+01 1.650188e+01 1.215627e+01 1.130097e+01 1.161436e+01 4.646244e+00 8.911026e-02 3.017395e-01 3.344158e-01 3.750243e-01 5.196237e-01 6.459743e-01 7.427075e-01 8.101430e-01 8.044949e-01 8.847781e-01 7.579135e-01 6.975687e-01 9.558169e-02 1.862029e-02 1.887956e-01 7.162257e-02 1.100288e-01 1.366390e-01 2.007699e-01 1.672943e-01 2.371849e-01 1.850927e-01 1.859732e-01 1.624794e-01 1.435654e-01 1.433101e-01
<GCONST> 6.355278e+01
<STATE> 3
<MEAN> 39
 -1.603927e+01 -1.890110e+01 -2.511487e+00 -2.589219e+00 3.063678e+00 -5.301412e-01 -1.214352e+00 -1.143986e+01 -2.016259e+00 8.679993e-02 -2.821589e+00 -3.465514e+00 7.222191e+01 1.171782e-01 -2.133569e+00 1.531757e-01 -9.512646e-01 4.321132e-01 -8.829935e-01 -1.998933e-01 -1.795345e+00 1.618677e-02 1.993335e-01 -3.194043e-01 -1.317478e-01 1.916069e+00 1.369437e-01 2.757593e-01 -9.713551e-02 2.538111e-01 -1.892120e-01 3.024923e-01 -1.779588e-01 2.955731e-01 -3.586857e-02 5.976730e-02 -5.261338e-02 3.491460e-02 -4.241083e-01
<VARIANCE> 39
 9.273933e+00 1.838419e+02 1.643202e+01 8.039431e+01 3.919051e+01 1.130320e+02 2.806836e+01 1.783780e+02 3.207496e+01 2.456167e+01 2.542579e+01 2.173458e+01 2.638419e+02 1.133101e+00 1.819345e+01 1.731410e+00 8.891704e+00 5.140510e+00 1.469788e+01 3.370242e+00 1.673157e+01 2.826205e+00 2.817337e+00 2.020539e+00 1.731321e+00 3.288617e+01 1.555562e-01 3.343022e+00 3.773167e-01 1.474477e+00 8.241298e-01 2.341962e+00 5.497018e-01 2.810459e+00 5.359622e-01 5.384091e-01 3.912492e-01 3.584938e-01 5.296873e+00
<GCONST> 1.410282e+02
<STATE> 4
<MEAN> 39
 -1.011806e+01 -1.327080e+01 -6.420534e+00 8.290323e+00 -2.779981e+00 1.007494e+01 -8.793097e+00 -7.750690e+00 -6.407339e+00 4.432704e+00 -5.471957e+00 -4.343910e+00 5.936433e+01 1.416550e-01 1.817289e+00 -5.220026e-01 1.333284e+00 -2.381603e-01 1.124812e+00 -6.490003e-02 1.326831e+00 -2.428012e-01 2.188637e-01 3.310048e-01 -3.256280e-02 -1.849956e+00 -2.195575e-01 -5.541275e-02 1.590697e-01 -2.991033e-01 2.010047e-01 -2.605464e-01 2.587667e-01 -9.542160e-02 1.218958e-01 -1.268417e-01 1.188076e-01 -2.600553e-02 3.007698e-01
<VARIANCE> 39
 8.431189e+00 3.541201e+01 1.505359e+01 3.493929e+01 1.607391e+01 3.154622e+01 3.208664e+01 3.875101e+01 4.190642e+01 2.106444e+01 2.799430e+01 2.656123e+01 2.655113e+01 1.426178e+00 9.807960e-01 1.266256e+00 2.956642e+00 2.404888e+00 2.570849e+00 3.317429e+00 3.926826e+00 4.861339e+00 2.027003e+00 1.873536e+00 1.657981e+00 1.344780e+00 1.563692e-01 1.928576e-01 1.909709e-01 3.219377e-01 3.751025e-01 3.865189e-01 5.167227e-01 8.105262e-01 9.501999e-01 4.205693e-01 3.666282e-01 3.301534e-01 1.993897e-01
<GCONST> 1.096981e+02
<TRANSP> 5
 0.000000e+00 1.000000e+00 0.000000e+00 0.000000e+00 0.000000e+00
 0.000000e+00 9.018945e-01 9.810546e-02 0.000000e+00 0.000000e+00
 0.000000e+00 0.000000e+00 9.120194e-01 8.798061e-02 0.000000e+00
 0.000000e+00 0.000000e+00 0.000000e+00 8.928950e-01 1.071050e-01
 0.000000e+00 0.000000e+00 0.000000e+00 0.000000e+00 0.000000e+00
<ENDHMM>
~h "p"
<BEGINHMM>
<NUMSTATES> 5
<STATE> 2
<MEAN> 39
 -1.478751e+01 4.116917e+00 -4.774938e+00 9.527438e+00 -5.279753e+00 1.153059e+01 -4.235688e+00 6.890419e+00 -3.754460e+00 -1.125708e-01 -2.397709e+00 -3.182114e+00 4.666040e+01 -9.423483e-02 3.996895e-02 -1.210200e-01 -2.968706e-02 -8.392446e-02 -5.020808e-02 -1.613263e-03 8.827271e-02 6.729154e-02 3.359410e-02 6.896928e-02 4.377224e-02 -1.369339e-01 3.607851e-02 -7.109804e-02 4.336155e-02 -2.740930e-02 9.418204e-03 -5.539724e-02 1.142060e-02 -8.496819e-02 -5.102832e-02 -3.800194e-02 -5.026357e-03 -7.787016e-03 1.127595e-01
<VARIANCE> 39
 5.395851e+00 4.402007e+00 5.320832e+00 4.651099e+00 8.006790e+00 1.367673e+01 1.932772e+01 2.010225e+01 1.628994e+01 1.143964e+01 1.014426e+01 9.777735e+00 5.597450e+00 7.564600e-02 2.452074e-01 3.126798e-01 4.253389e-01 5.175574e-01 5.673577e-01 7.045357e-01 8.071424e-01 8.009266e-01 7.997299e-01 7.302338e-01 6.833936e-01 9.558169e-02 2.099330e-02 9.177911e-02 7.188782e-02 1.070760e-01 1.278300e-01 1.562319e-01 1.625513e-01 2.080876e-01 1.763247e-01 1.768109e-01 1.530728e-01 1.374692e-01 1.191906e-01
<GCONST> 6.110086e+01
<STATE> 3
<MEAN> 39
 -9.282391e+00 -5.255329e+00 1.854912e+00 3.341446e+00 9.189205e-01 3.548979e+00 -1.792745e-01 -1.440941e+00 -3.956046e+00 -5.814205e+00 -2.870111e+00 -3.046052e+00 6.623196e+01 1.554886e+00 -1.257350e+00 9.456928e-01 -4.073461e-01 7.616100e-01 -6.594412e-01 4.645838e-01 -9.586075e-01 -1.130775e-01 -1.051797e+00 -6.044826e-01 -1.666217e-01 2.818429e+00 8.021839e-02 3.448982e-01 -1.881428e-01 3.864214e-01 -3.440117e-01 4.713554e-01 -2.026996e-01 3.936532e-01 -2.326445e-02 1.902555e-01 -1.198839e-01 -4.087199e-02 -6.535712e-01
<VARIANCE> 39
 3.539083e+01 5.771576e+01 3.765663e+01 4.407642e+01 4.772523e+01 7.349380e+01 3.281568e+01 8.166238e+01 2.390623e+01 4.342070e+01 2.345086e+01 1.798910e+01 2.626024e+02 1.685500e+00 7.097109e+00 4.385184e+00 7.089886e+00 7.069609e+00 1.280626e+01 4.119587e+00 1.298049e+01 2.559009e+00 4.456421e+00 2.247658e+00 1.527927e+00 3.572762e+01 4.122505e-01 1.559342e+00 1.004155e+00 1.280494e+00 1.536129e+00 2.317868e+00 8.776910e-01 2.583590e+00 5.205556e-01 1.012345e+00 4.275063e-01 3.171266e-01 7.989885e+00
<GCONST> 1.443149e+02
<STATE> 4
<MEAN> 39
 -2.570560e+00 3.673218e+00 1.429175e+00 1.287687e+01 -3.555285e+00 1.040553e+01 -4.171991e+00 2.650269e+00 -7.900414e+00 -5.008602e+00 -8.062880e+00 -6.471382e+00 5.831000e+01 -4.613123e-01 1.286279e+00 -4.496326e-01 6.847131e-01 -4.748923e-01 5.169659e-01 -3.738891e-01 5.047734e-01 -3.595433e-01 5.147033e-01 8.810705e-02 -1.546923e-01 -1.753016e+00 -2.152407e-01 -1.938653e-01 9.017134e-02 -3.431454e-01 2.652649e-01 -3.165262e-01 1.406877e-01 -2.546008e-01 2.232997e-02 -1.022519e-01 1.557817e-01 7.086188e-02 3.248439e-01
<VARIANCE> 39
 1.330988e+01 3.823193e+01 1.693093e+01 1.958212e+01 1.877659e+01 1.855102e+01 1.919930e+01 1.671952e+01 2.349491e+01 1.886051e+01 1.472888e+01 1.633663e+01 2.749946e+01 7.875972e-01 1.398257e+00 1.487292e+00 2.176615e+00 3.019126e+00 2.463964e+00 1.775214e+00 1.891213e+00 1.791645e+00 1.729109e+00 1.233618e+00 1.265782e+00 1.556869e+00 6.879963e-02 1.260689e-01 2.345382e-01 2.828355e-01 4.473938e-01 5.482718e-01 3.232965e-01 3.816773e-01 3.329172e-01 3.096562e-01 2.601152e-01 2.368167e-01 1.183050e-01
<GCONST> 9.858517e+01
<TRANSP> 5
 0.000000e+00 1.000000e+00 0.000000e+00 0.000000e+00 0.000000e+00
 0.000000e+00 9.218844e-01 7.811570e-02 0.000000e+00 0.000000e+00
 0.000000e+00 0.000000e+00 8.654557e-01 1.345443e-01 0.000000e+00
 0.000000e+00 0.000000e+00 0.000000e+00 8.845143e-01 1.154857e-01
 0.000000e+00 0.000000e+00 0.000000e+00 0.000000e+00 0.000000e+00
<ENDHMM>
~h "s"
<BEGINHMM>
<NUMSTATES> 5
<STATE> 2
<MEAN> 39
 -1.432376e+01 3.334282e+00 -4.754286e+00 8.895760e+00 -5.348134e+00 1.080975e+01 -5.295511e+00 5.667141e+00 -4.605629e+00 -3.334123e-01 -2.769523e+00 -3.317270e+00 4.757549e+01 -9.328339e-02 8.373757e-02 -4.900160e-02 1.395731e-02 -1.298285e-01 -7.824637e-02 8.538344e-02 9.682895e-02 7.375423e-02 -2.862310e-02 2.024658e-03 5.386148e-02 -1.362258e-01 -8.980228e-02 -3.230131e-01 1.060253e-01 -8.895662e-02 1.033471e-01 -1.347211e-01 1.408300e-01 -2.837410e-01 -2.755904e-02 -2.825357e-02 -1.463534e-02 8.230574e-02 2.654566e-01
<VARIANCE> 39
 5.191916e+00 6.608703e+00 6.524270e+00 5.716951e+00 9.250552e+00 1.421893e+01 2.123426e+01 1.980382e+01 1.599682e+01 1.277549e+01 1.143712e+01 1.053932e+01 6.075331e+00 1.326855e-01 4.086042e-01 4.683326e-01 4.957797e-01 6.044240e-01 7.538001e-01 9.135957e-01 1.014607e+00 9.571106e-01 9.708100e-01 8.657121e-01 7.478280e-01 1.048234e-01 8.343620e-02 4.083168e-01 1.581804e-01 2.012995e-01 2.355143e-01 3.374893e-01 3.092499e-01 4.310901e-01 2.323548e-01 2.247146e-01 2.090210e-01 2.008103e-01 2.805579e-01
<GCONST> 7.490015e+01
<STATE> 3
<MEAN> 39
 -2.661905e+01 -1.591823e+01 6.526142e+00 -8.251355e+00 7.979799e+00 6.506185e-01 4.004993e+00 -7.300585e+00 -2.265211e+00 -4.189569e+00 -2.134289e-01 1.101574e+00 7.069212e+01 -5.142060e-01 -9.434376e-01 8.428223e-01 -9.708794e-01 5.820464e-01 -2.307012e-01 3.509329e-01 -4.783815e-01 -7.976992e-02 -2.403426e-01 -2.823180e-02 2.358899e-01 9.513053e-01 1.800711e-01 2.746977e-01 -6.686189e-02 1.664750e-01 -1.648120e-01 1.943850e-01 -1.880056e-01 2.464873e-01 -8.364248e-02 6.262645e-02 -6.233671e-02 -7.356244e-02 -2.900528e-01
<VARIANCE> 39
 4.601025e+01 6.663992e+01 6.009682e+01 9.851059e+01 6.712907e+01 7.320847e+01 4.013158e+01 5.642115e+01 2.712238e+01 2.639670e+01 3.038881e+01 2.086253e+01 1.108737e+02 4.459591e+00 7.821714e+00 2.882521e+00 7.411986e+00 6.494432e+00 8.121193e+00 4.493609e+00 7.322295e+00 2.410475e+00 2.369617e+00 2.324353e+00 1.946651e+00 1.120467e+01 4.888452e-01 1.101175e+00 5.298971e-01 1.015959e+00 9.422937e-01 1.091560e+00 7.063441e-01 1.053713e+00 4.042212e-01 4.309980e-01 3.852537e-01 3.727585e-01 1.112483e+00
<GCONST> 1.370043e+02
<STATE> 4
<MEAN> 39
 -1.816201e+01 -7.185178e+00 8.077280e+00 -1.453355e+00 -2.096777e+00 1.293017e+01 -3.493946e+00 2.516554e+00 -7.211981e+00 -2.128377e+00 -4.527189e+00 -1.057056e+00 5.727933e+01 1.311714e+00 2.074628e+00 -1.408823e+00 2.048037e+00 -1.815063e+00 1.155462e+00 -1.110056e+00 1.210046e+00 1.293521e-01 5.854435e-01 6.662195e-02 -5.530929e-01 -2.154012e+00 -2.663138e-01 -2.076994e-01 -2.136005e-01 -1.166192e-01 2.881277e-01 -3.814674e-01 2.952250e-01 -3.470405e-01 2.998511e-01 -6.444699e-02 2.332114e-01 3.101233e-02 3.450066e-01
<VARIANCE> 39
 1.317385e+01 2.941647e+01 3.185281e+01 3.194933e+01 5.270109e+01 4.998158e+01 3.519741e+01 2.706128e+01 2.955282e+01 2.552810e+01 2.253440e+01 1.802971e+01 2.010017e+01 9.865326e-01 1.664758e+00 1.405397e+00 1.311295e+00 2.727778e+00 3.873298e+00 2.643232e+00 3.038300e+00 3.001693e+00 2.110737e+00 1.983639e+00 1.344226e+00 1.221147e+00 1.136831e-01 2.556321e-01 2.126392e-01 2.367003e-01 4.679861e-01 5.658880e-01 4.017172e-01 5.010136e-01 5.431149e-01 4.556439e-01 4.387505e-01 2.937147e-01 1.003645e-01
<GCONST> 1.083028e+02
<TRANSP> 5
 0.000000e+00 1.000000e+00 0.000000e+00 0.000000e+00 0.000000e+00
 0.000000e+00 8.686190e-01 1.313809e-01 0.000000e+00 0.000000e+00
 0.000000e+00 0.000000e+00 9.384502e-01 6.154986e-02 0.000000e+00
 0.000000e+00 0.000000e+00 0.000000e+00 8.155963e-01 1.844037e-01
 0.000000e+00 0.000000e+00 0.000000e+00 0.000000e+00 0.000000e+00
<ENDHMM>
~h "sil"
<BEGINHMM>
<NUMSTATES> 5
<STATE> 2
<MEAN> 39
 -1.719576e+01 4.211807e+00 -4.549673e+00 7.525317e+00 -4.334960e+00 1.206585e+01 -6.051401e+00 5.339838e+00 -3.722833e+00 7.467180e-02 -2.721271e+00 -2.912469e+00 4.533961e+01 -1.379805e-01 2.515751e-01 -2.449053e-01 5.205782e-02 -8.403870e-02 -1.152492e-01 2.696555e-02 1.565554e-01 1.494296e-02 -6.046982e-03 1.340717e-01 8.252576e-02 -3.292801e-01 2.276735e-02 -1.311942e-01 7.013184e-02 -2.160643e-02 -2.666808e-02 -6.097902e-02 3.826567e-02 -5.457156e-02 -8.894074e-02 -5.727217e-02 -1.868759e-02 -6.802159e-03 1.259968e-01
<VARIANCE> 39
 7.963487e+01 3.231926e+01 1.768844e+01 2.150212e+01 1.209796e+01 1.546004e+01 3.110009e+01 1.830842e+01 1.776801e+01 1.314860e+01 1.107039e+01 1.018985e+01 8.242518e+01 3.638209e-01 6.932701e-01 7.750593e-01 7.837286e-01 8.970060e-01 1.063570e+00 9.130129e-01 1.202926e+00 1.192831e+00 9.737050e-01 9.033716e-01 7.790153e-01 3.357208e-01 6.510695e-02 9.383970e-02 9.721476e-02 1.368265e-01 1.664062e-01 2.021580e-01 1.924204e-01 2.134285e-01 2.189894e-01 1.782204e-01 1.637222e-01 1.463496e-01 6.419883e-02
<GCONST> 8.279322e+01
<STATE> 3
~s "silst"
<STATE> 4
<MEAN> 39
 -1.272883e+01 1.785323e+00 -2.967195e+00 9.812264e+00 -4.435479e+00 1.221348e+01 -3.392825e+00 4.672397e+00 -6.361869e+00 -4.197903e-01 -3.053710e+00 -3.845329e+00 5.004979e+01 -4.441440e-01 5.424639e-01 -2.668386e-01 -4.379079e-02 1.541817e-01 7.726531e-02 1.130201e-01 7.191831e-01 6.550490e-01 1.774649e-01 1.169644e-01 1.115552e-01 -6.737754e-01 -1.346160e-02 -1.514760e-01 6.061065e-02 -7.463990e-02 3.614741e-02 -5.695738e-02 8.297288e-03 -6.645662e-03 9.217457e-02 3.814248e-02 -2.182641e-02 5.571481e-02 1.290695e-01
<VARIANCE> 39
 1.668674e+01 2.267734e+01 1.826635e+01 1.609463e+01 1.664110e+01 2.113389e+01 3.019310e+01 2.727293e+01 2.509998e+01 2.415728e+01 2.035824e+01 1.785230e+01 1.446760e+01 5.742543e-01 1.312479e+00 1.231335e+00 1.425805e+00 1.489051e+00 1.867354e+00 1.905298e+00 2.135155e+00 2.305871e+00 1.732342e+00 1.556781e+00 1.198247e+00 3.876100e-01 1.012862e-01 2.344858e-01 1.934339e-01 2.641928e-01 2.919486e-01 3.810652e-01 3.717230e-01 3.870301e-01 4.389842e-01 3.104091e-01 3.052301e-01 2.351628e-01 1.284847e-01
<GCONST> 9.708640e+01
<TRANSP> 5
 0.000000e+00 1.000000e+00 0.000000e+00 0.000000e+00 0.000000e+00
 0.000000e+00 6.726255e-01 5.562915e-02 2.717453e-01 0.000000e+00
 0.000000e+00 0.000000e+00 8.458222e-01 1.541778e-01 0.000000e+00
 0.000000e+00 5.935540e-02 0.000000e+00 4.922184e-01 4.484262e-01
 0.000000e+00 0.000000e+00 0.000000e+00 0.000000e+00 0.000000e+00
<ENDHMM>
