~o
<STREAMINFO> 1 39
<VECSIZE> 39<NULLD><MFCC_D_A_0><DIAGC>
~s "silst"
<MEAN> 39
 -2.325232e+01 7.238075e+00 -8.398209e+00 5.500202e+00 -5.283662e+00 1.111358e+01 -8.530942e+00 5.527210e+00 -2.493338e+00 3.951648e-01 -1.215485e+00 -1.818441e+00 3.827234e+01 1.989180e+00 -1.906896e+00 6.601174e-01 7.927181e-01 -1.247376e-01 -8.097553e-01 1.392169e+00 -2.388730e-01 -4.736064e-01 -2.063051e-01 4.285237e-01 1.822736e-01 2.946714e+00 2.935214e-02 -4.022842e-01 2.637439e-01 -1.385728e-01 2.382815e-01 -2.195476e-01 2.513421e-01 -2.167135e-01 3.598805e-02 -1.238461e-01 2.204532e-02 6.131278e-03 6.190919e-01
<VARIANCE> 39
 1.007878e+02 3.632100e+01 1.006206e+01 2.599939e+01 1.119422e+01 1.881136e+01 2.804909e+01 1.083133e+01 1.875672e+01 1.014176e+01 1.354790e+01 9.958918e+00 9.455263e+01 8.654749e+00 6.448608e+00 1.437620e+00 4.516284e+00 2.586539e+00 3.762357e+00 3.167442e+00 2.994419e+00 2.750229e+00 1.648116e+00 1.672954e+00 1.188935e+00 1.112851e+01 1.698334e+00 1.417082e+00 2.198573e-01 7.612709e-01 4.673728e-01 6.989099e-01 6.233343e-01 4.195619e-01 4.865364e-01 2.770913e-01 3.344721e-01 2.021018e-01 2.570880e+00
<GCONST> 1.191208e+02
~h "k"
<BEGINHMM>
<NUMSTATES> 5
<STATE> 2
<MEAN> 39
 -1.488737e+01 -6.808581e-01 -4.028531e+00 8.783666e+00 -3.342650e+00 1.249154e+01 -1.940935e+00 6.784174e+00 -3.211992e+00 1.280590e+00 -1.783989e+00 -1.962054e+00 4.989600e+01 -1.652199e-01 -3.844379e+00 -1.065297e-02 -1.871222e+00 1.539181e+00 -2.813956e+00 2.773760e-01 -3.227463e+00 7.185800e-02 7.605451e-02 2.542643e-02 1.216123e-01 4.314978e+00 -8.353310e-02 -1.581997e+00 6.178215e-02 -1.044932e+00 5.756854e-01 -1.167619e+00 1.350718e-01 -1.488057e+00 7.485230e-02 -2.148745e-01 -3.086885e-02 -3.564470e-04 2.046589e+00
<VARIANCE> 39
 8.014360e+00 6.489705e+01 1.490901e+01 2.368274e+01 2.179273e+01 3.985280e+01 3.177360e+01 4.253717e+01 2.618954e+01 2.605096e+01 1.796783e+01 1.701298e+01 4.128053e+01 8.412825e-01 1.964618e+01 1.843620e+00 7.828191e+00 4.273853e+00 1.167408e+01 3.368928e+00 1.624319e+01 3.202957e+00 3.170219e+00 2.155786e+00 1.641028e+00 2.471622e+01 1.192667e-01 2.108912e+00 2.796587e-01 6.291567e-01 5.584499e-01 1.229475e+00 5.514433e-01 1.446998e+00 5.450537e-01 5.249773e-01 3.889628e-01 2.956251e-01 2.009404e+00
<GCONST> 1.274817e+02
<STATE> 3
<MEAN> 39
 -1.631780e+01 -2.700359e+01 -1.941478e+00 -7.629146e+00 5.472366e+00 -5.643822e+00 -1.074088e+00 -1.935396e+01 -1.551197e+00 -3.602450e-01 -3.542497e+00 -3.577247e+00 8.166008e+01 3.252301e-01 -7.986178e-01 6.426725e-02 -1.946198e-01 -3.235675e-01 3.131647e-01 -5.249362e-01 -7.033228e-01 -1.981528e-02 2.978104e-01 -4.808552e-01 -2.253653e-01 1.678094e-01 2.272811e-01 1.177895e+00 -1.679689e-01 8.910217e-01 -5.369214e-01 1.015006e+00 -2.925753e-01 1.166599e+00 -7.769495e-02 1.953182e-01 -3.545813e-02 5.747854e-02 -1.612129e+00
<VARIANCE> 39
 8.200101e+00 2.033887e+01 1.429012e+01 2.128739e+01 2.099625e+01 4.594519e+01 2.465235e+01 3.712585e+01 3.226455e+01 2.123595e+01 2.616488e+01 2.213520e+01 4.561601e+01 1.111450e+00 1.380916e+01 1.662936e+00 8.087216e+00 3.794114e+00 1.175325e+01 2.994868e+00 1.516677e+01 2.444393e+00 2.531994e+00 1.613184e+00 1.713395e+00 2.883890e+01 1.229988e-01 1.211965e+00 3.621628e-01 4.964239e-01 4.559840e-01 1.108148e+00 4.654540e-01 1.038369e+00 5.124000e-01 4.622932e-01 3.512219e-01 3.852413e-01 1.922068e+00
<GCONST> 1.242427e+02
<STATE> 4
<MEAN> 39
 -1.219448e+01 -5.632699e+00 -5.906952e+00 8.939000e+00 -3.203500e+00 1.144232e+01 -6.255226e+00 -8.410023e-01 -5.304847e+00 3.147360e+00 -3.238788e+00 -3.429212e+00 5.366063e+01 -7.839409e-02 1.141180e+00 -1.156639e-01 5.482925e-01 -1.966102e-01 4.430214e-01 9.976980e-02 9.671075e-01 2.182940e-02 -6.563593e-02 1.959538e-01 6.251210e-02 -1.033847e+00 -9.661791e-02 -1.619160e-01 9.076221e-02 -1.708638e-01 9.381383e-02 -1.813351e-01 1.341792e-01 -1.832144e-01 4.308732e-03 -6.460282e-02 1.653395e-02 5.697798e-03 2.474640e-01
<VARIANCE> 39
 1.035312e+01 6.786739e+01 1.070133e+01 1.906354e+01 1.412845e+01 2.664271e+01 3.477666e+01 7.403760e+01 3.485739e+01 2.084079e+01 2.451127e+01 1.910041e+01 3.978377e+01 7.932783e-01 1.329141e+00 9.882600e-01 2.326334e+00 1.622252e+00 2.139102e+00 2.335057e+00 2.915717e+00 3.533558e+00 1.666322e+00 1.524955e+00 1.353164e+00 1.202304e+00 1.200208e-01 2.492743e-01 1.603501e-01 2.745141e-01 3.199389e-01 3.520720e-01 4.588164e-01 6.238921e-01 6.944624e-01 3.417573e-01 3.165223e-01 2.789459e-01 1.853624e-01
<GCONST> 1.048666e+02
<TRANSP> 5
 0.000000e+00 1.000000e+00 0.000000e+00 0.000000e+00 0.000000e+00
 0.000000e+00 7.553092e-01 2.446908e-01 0.000000e+00 0.000000e+00
 0.000000e+00 0.000000e+00 8.689042e-01 1.310958e-01 0.000000e+00
 0.000000e+00 0.000000e+00 0.000000e+00 9.457920e-01 5.420804e-02
 0.000000e+00 0.000000e+00 0.000000e+00 0.000000e+00 0.000000e+00
<ENDHMM>
~h "p"
<BEGINHMM>
<NUMSTATES> 5
<STATE> 2
<MEAN> 39
 -1.470959e+01 2.334869e+00 -3.222919e+00 8.576885e+00 -5.425723e+00 1.217396e+01 -3.446806e+00 7.026258e+00 -3.468448e+00 3.832296e-01 -2.085995e+00 -2.603942e+00 4.824650e+01 6.959203e-01 -1.307018e+00 4.843880e-01 -9.686812e-01 9.775819e-01 -1.746660e+00 4.924498e-01 -1.465299e+00 -1.934254e-01 -8.731869e-01 7.443982e-02 5.338802e-02 2.800486e+00 4.261581e-01 -7.272317e-01 5.849595e-01 -5.392714e-01 5.638324e-01 -6.613767e-01 2.344571e-01 -7.910551e-01 -1.059815e-01 -5.395532e-01 -7.651699e-02 -2.936230e-02 1.629738e+00
<VARIANCE> 39
 5.785258e+00 1.213742e+01 1.235875e+01 6.982474e+00 1.051601e+01 1.527641e+01 2.320212e+01 1.866221e+01 1.673921e+01 1.346607e+01 1.168853e+01 9.401149e+00 9.265512e+00 1.439761e+00 5.570564e+00 3.541627e+00 3.585339e+00 3.233518e+00 5.809359e+00 2.589845e+00 7.069525e+00 2.395179e+00 3.651544e+00 1.487297e+00 1.345725e+00 1.863079e+01 2.138077e-01 4.136804e-01 2.558647e-01 3.436063e-01 4.877686e-01 6.647852e-01 3.989844e-01 6.572855e-01 3.805766e-01 3.772482e-01 2.441929e-01 2.316124e-01 1.555354e+00
<GCONST> 1.084383e+02
<STATE> 3
<MEAN> 39
 -5.426732e+00 -9.188604e+00 4.728254e+00 1.678776e+00 2.725623e+00 1.865289e+00 6.113177e-01 -4.486821e+00 -4.754657e+00 -8.494232e+00 -4.767760e+00 -3.481993e+00 7.411732e+01 1.466352e+00 2.130106e-01 4.650667e-02 9.713235e-01 -4.842139e-01 9.415873e-01 -1.407878e-01 5.658939e-01 -6.164310e-02 -1.877930e-01 -8.174596e-01 -3.499226e-01 9.789553e-02 -3.150078e-01 8.608438e-01 -5.764762e-01 6.865076e-01 -6.947258e-01 7.569544e-01 -3.586081e-01 7.961785e-01 -3.642742e-02 5.754885e-01 -4.350338e-04 -4.376965e-02 -1.720517e+00
<VARIANCE> 39
 3.813928e+01 2.441567e+01 2.115558e+01 4.529904e+01 4.396100e+01 6.838283e+01 3.279500e+01 5.286366e+01 2.809188e+01 2.998102e+01 3.321108e+01 2.338842e+01 8.046119e+01 1.656843e+00 6.471498e+00 4.318550e+00 6.472917e+00 8.294789e+00 1.073166e+01 4.228639e+00 1.057795e+01 2.395153e+00 4.430830e+00 2.035855e+00 1.511457e+00 3.329314e+01 1.683299e-01 6.966966e-01 4.901412e-01 9.427512e-01 1.101220e+00 2.170978e+00 7.365263e-01 1.881156e+00 5.574219e-01 5.828843e-01 5.183505e-01 3.544389e-01 3.769423e+00
<GCONST> 1.363988e+02
<STATE> 4
<MEAN> 39
 -9.612766e+00 4.559656e+00 -1.894286e+00 1.138156e+01 -4.249361e+00 1.152024e+01 -3.748101e+00 5.331306e+00 -6.214042e+00 -2.279212e+00 -4.929606e+00 -4.841269e+00 5.120914e+01 -5.384010e-01 3.667553e-01 -2.045303e-01 2.498429e-02 -1.815518e-02 8.983727e-02 -3.014251e-02 1.863642e-01 4.397977e-02 2.439902e-01 2.005990e-01 4.937450e-02 -7.163036e-01 -3.381631e-02 -1.538703e-01 6.895687e-02 -1.109249e-01 1.008472e-01 -9.017038e-02 6.003213e-02 -9.106517e-02 3.166318e-02 -5.208397e-02 1.443985e-02 3.434855e-02 1.793839e-01
<VARIANCE> 39
 3.419031e+01 1.546228e+01 1.592941e+01 1.289758e+01 1.208915e+01 1.590085e+01 2.072314e+01 2.287120e+01 2.413160e+01 1.808137e+01 1.876386e+01 1.429095e+01 2.727230e+01 4.200065e-01 1.192773e+00 8.329782e-01 1.014588e+00 1.159031e+00 1.163376e+00 1.189453e+00 1.266563e+00 1.666443e+00 1.265441e+00 1.031173e+00 9.473668e-01 6.306168e-01 6.446496e-02 1.693214e-01 1.632546e-01 2.334707e-01 2.778817e-01 3.086015e-01 2.721048e-01 3.178477e-01 3.170927e-01 2.537981e-01 2.153017e-01 1.906754e-01 9.962303e-02
<GCONST> 8.907155e+01
<TRANSP> 5
 0.000000e+00 1.000000e+00 0.000000e+00 0.000000e+00 0.000000e+00
 0.000000e+00 7.793886e-01 2.206114e-01 0.000000e+00 0.000000e+00
 0.000000e+00 0.000000e+00 8.324219e-01 1.675781e-01 0.000000e+00
 0.000000e+00 0.000000e+00 0.000000e+00 9.475507e-01 5.244933e-02
 0.000000e+00 0.000000e+00 0.000000e+00 0.000000e+00 0.000000e+00
<ENDHMM>
~h "s"
<BEGINHMM>
<NUMSTATES> 5
<STATE> 2
<MEAN> 39
 -1.760440e+01 -6.974381e+00 -1.031087e+00 5.642007e+00 -9.074793e-01 6.045663e+00 1.073071e+00 -9.028277e-01 -3.843611e+00 -1.165246e+00 -2.861061e+00 1.926187e-01 5.675503e+01 -2.360217e+00 -4.065441e+00 1.409999e+00 -2.897315e+00 2.644653e+00 -3.203919e+00 2.293207e+00 -3.322276e+00 3.436389e-01 -9.325652e-01 3.524869e-01 1.227491e+00 4.459382e+00 -5.300907e-01 -2.123960e-01 3.363271e-01 -9.208544e-01 6.846088e-01 -4.084409e-01 8.447853e-02 -1.863711e-01 4.878461e-02 -1.946900e-01 1.939719e-01 -1.447413e-01 7.959998e-01
<VARIANCE> 39
 3.579516e+01 1.216321e+02 4.152296e+01 6.364825e+01 5.333950e+01 8.912397e+01 6.020254e+01 1.025930e+02 3.861520e+01 3.147767e+01 3.502146e+01 3.625720e+01 9.985693e+01 3.603941e+00 8.225240e+00 4.721927e+00 9.032960e+00 7.041142e+00 8.385468e+00 5.012825e+00 8.052295e+00 3.356459e+00 2.867344e+00 2.753682e+00 2.491261e+00 8.966427e+00 4.630172e-01 2.761694e+00 8.308558e-01 1.124402e+00 1.122272e+00 1.919940e+00 1.229046e+00 2.347173e+00 5.678138e-01 5.855528e-01 5.357209e-01 7.089623e-01 1.821312e+00
<GCONST> 1.458214e+02
<STATE> 3
<MEAN> 39
 -3.003436e+01 -1.899672e+01 8.582836e+00 -1.351385e+01 1.158155e+01 -2.184497e+00 5.123651e+00 -9.739715e+00 -1.566873e+00 -5.410054e+00 1.154375e+00 1.451443e+00 7.646790e+01 1.047680e-02 9.467562e-02 6.994607e-01 -4.655552e-01 -3.861120e-02 7.901219e-01 -3.045468e-01 4.228628e-01 -1.447630e-01 -1.093124e-01 -6.372918e-02 -1.700926e-01 -1.092336e-01 4.866343e-01 4.129071e-01 -1.881325e-01 6.265308e-01 -4.976323e-01 4.555765e-01 -2.506687e-01 3.948496e-01 -1.446426e-01 1.734345e-01 -2.088380e-01 -1.388378e-02 -7.476689e-01
<VARIANCE> 39
 1.299992e+01 1.399986e+01 3.986518e+01 2.377262e+01 3.200347e+01 4.632300e+01 2.940596e+01 2.402828e+01 2.386940e+01 1.958904e+01 2.431928e+01 1.572668e+01 2.114820e+01 2.774660e+00 1.852125e+00 2.074966e+00 4.829590e+00 3.658099e+00 3.274567e+00 2.015634e+00 2.338794e+00 1.911014e+00 1.873721e+00 2.030025e+00 1.242288e+00 4.681801e+00 2.645552e-01 4.773707e-01 3.882812e-01 4.458673e-01 5.545693e-01 6.856449e-01 5.312504e-01 6.009519e-01 3.487561e-01 3.521381e-01 2.854178e-01 2.562778e-01 3.471034e-01
<GCONST> 1.127602e+02
<STATE> 4
<MEAN> 39
 -1.761549e+01 -5.270078e+00 4.748290e+00 6.586876e-01 -2.003203e+00 1.180625e+01 -2.834722e+00 2.473050e+00 -5.792295e+00 -1.811755e+00 -3.508089e+00 -1.054814e+00 5.598662e+01 9.044301e-01 1.418343e+00 -9.529808e-01 1.397516e+00 -1.127969e+00 7.322729e-01 -6.875525e-01 9.882282e-01 -1.761173e-02 4.249973e-01 -6.205793e-02 -2.706290e-01 -1.597694e+00 -1.638467e-01 -1.452633e-01 -6.845103e-02 -1.149076e-01 1.455451e-01 -2.080525e-01 1.340971e-01 -1.926875e-01 1.430176e-01 -4.640315e-02 1.192734e-01 1.748096e-02 2.450898e-01
<VARIANCE> 39
 2.318853e+01 5.788952e+01 5.612561e+01 5.486724e+01 5.054676e+01 4.406571e+01 3.682470e+01 4.009718e+01 2.641171e+01 2.306299e+01 2.047560e+01 1.714460e+01 4.978385e+01 1.068451e+00 1.856794e+00 1.399442e+00 1.753109e+00 2.741895e+00 3.508709e+00 2.268246e+00 2.821584e+00 2.416790e+00 1.748748e+00 1.733796e+00 1.193333e+00 1.803848e+00 1.127288e-01 2.881074e-01 2.346794e-01 2.135196e-01 3.937294e-01 5.197022e-01 3.895881e-01 4.636673e-01 4.467536e-01 3.491721e-01 3.517709e-01 2.400313e-01 1.308952e-01
<GCONST> 1.104780e+02
<TRANSP> 5
 0.000000e+00 1.000000e+00 0.000000e+00 0.000000e+00 0.000000e+00
 0.000000e+00 7.766016e-01 2.233984e-01 0.000000e+00 0.000000e+00
 0.000000e+00 0.000000e+00 8.994490e-01 1.005510e-01 0.000000e+00
 0.000000e+00 0.000000e+00 0.000000e+00 9.061064e-01 9.389354e-02
 0.000000e+00 0.000000e+00 0.000000e+00 0.000000e+00 0.000000e+00
<ENDHMM>
~h "sp"
<BEGINHMM>
<NUMSTATES> 3
<STATE> 2
~s "silst"
<TRANSP> 3
 0.000000e+00 7.000000e-01 3.000000e-01
 0.000000e+00 6.000000e-01 4.000000e-01
 0.000000e+00 0.000000e+00 0.000000e+00
<ENDHMM>
~h "sil"
<BEGINHMM>
<NUMSTATES> 5
<STATE> 2
<MEAN> 39
 -1.714099e+01 5.028659e+00 -5.731796e+00 8.336256e+00 -5.437581e+00 1.131107e+01 -5.726506e+00 6.225818e+00 -3.662783e+00 -1.227278e-01 -2.212756e+00 -2.983557e+00 4.430507e+01 -4.606818e-02 4.872091e-02 -6.331729e-02 -1.576751e-03 -5.465617e-02 -2.336633e-02 2.093242e-02 2.965149e-02 9.222714e-03 -5.493569e-03 1.044551e-02 7.473933e-03 -8.626186e-02 6.163297e-03 -4.068885e-02 1.518731e-02 1.138465e-02 -1.646955e-02 -1.237411e-02 6.241744e-03 -1.200278e-02 -2.491313e-02 -5.896643e-03 8.225989e-03 -5.200694e-03 2.622417e-02
<VARIANCE> 39
 4.600838e+01 1.332052e+01 6.313723e+00 1.267844e+01 8.438782e+00 1.271096e+01 2.420757e+01 1.694286e+01 1.600006e+01 1.018611e+01 9.407171e+00 9.521471e+00 4.326293e+01 8.860317e-02 2.035960e-01 2.645061e-01 3.464460e-01 4.706672e-01 5.488434e-01 6.729850e-01 7.279694e-01 7.386345e-01 7.393441e-01 6.793443e-01 6.640883e-01 9.558169e-02 2.339563e-02 4.760236e-02 5.660813e-02 7.773493e-02 9.753241e-02 1.160945e-01 1.450448e-01 1.566221e-01 1.572101e-01 1.519927e-01 1.417499e-01 1.357809e-01 1.598650e-02
<GCONST> 6.199263e+01
<STATE> 3
~s "silst"
<STATE> 4
<MEAN> 39
 -1.385972e+01 -4.656852e+00 3.838899e-01 5.809738e+00 -1.814644e+00 6.507318e+00 -2.874793e+00 -6.986089e-01 -5.312268e+00 -1.888669e+00 -3.496427e+00 -4.376759e+00 5.888469e+01 9.114947e-02 1.768410e-01 -1.682315e-02 1.284598e-01 1.310336e-03 1.740744e-01 -9.660115e-02 1.036366e-01 -3.101635e-02 8.752005e-02 -7.539400e-02 -1.015434e-01 -1.637170e-01 -2.390546e-02 1.338808e-01 -7.315877e-02 -2.987057e-03 -1.566937e-02 7.107946e-02 -6.934407e-02 5.589209e-02 4.150335e-02 4.983250e-02 -1.932847e-02 9.762933e-03 -1.681799e-01
<VARIANCE> 39
 7.625145e+01 1.288865e+02 5.358900e+01 9.750356e+01 6.348299e+01 7.307454e+01 5.072656e+01 8.196504e+01 3.383286e+01 3.144921e+01 2.972716e+01 2.575320e+01 1.785690e+02 1.547789e+00 4.831440e+00 2.229761e+00 3.913028e+00 3.964690e+00 4.755783e+00 3.147920e+00 4.721670e+00 2.729412e+00 2.331333e+00 2.134832e+00 1.449299e+00 9.640471e+00 1.793212e-01 7.426516e-01 3.695300e-01 5.983940e-01 6.719852e-01 8.590298e-01 5.880619e-01 8.685797e-01 5.275538e-01 4.712772e-01 4.189353e-01 2.998958e-01 1.466183e+00
<GCONST> 1.322317e+02
<TRANSP> 5
 0.000000e+00 1.000000e+00 0.000000e+00 0.000000e+00 0.000000e+00
 0.000000e+00 9.268138e-01 2.513126e-02 4.805493e-02 0.000000e+00
 0.000000e+00 0.000000e+00 7.935764e-01 2.064236e-01 0.000000e+00
 0.000000e+00 9.406942e-02 0.000000e+00 8.401279e-01 6.580268e-02
 0.000000e+00 0.000000e+00 0.000000e+00 0.000000e+00 0.000000e+00
<ENDHMM>
