~o
<STREAMINFO> 1 39
<VECSIZE> 39<NULLD><MFCC_D_A_0><DIAGC>
~s "silst"
<MEAN> 39
 -2.329917e+01 7.401619e+00 -8.128799e+00 5.465052e+00 -5.226648e+00 1.139844e+01 -8.173229e+00 6.006734e+00 -2.078268e+00 5.878330e-01 -1.381441e+00 -1.923884e+00 3.821952e+01 1.786057e+00 -1.801129e+00 6.071548e-01 6.061549e-01 -2.854186e-02 -9.069040e-01 1.212339e+00 -4.293830e-01 -4.966488e-01 -2.496530e-01 3.460600e-01 1.120835e-01 2.839832e+00 1.504901e-01 -4.586837e-01 2.967099e-01 -8.016540e-02 2.083441e-01 -2.899286e-01 2.783871e-01 -3.100720e-01 -5.458326e-02 -1.567957e-01 4.021667e-02 7.156041e-03 7.604139e-01
<VARIANCE> 39
 1.000071e+02 3.064481e+01 9.193334e+00 2.355416e+01 1.108024e+01 1.554978e+01 3.095982e+01 1.179278e+01 1.625108e+01 9.542619e+00 1.200967e+01 8.955994e+00 9.213084e+01 7.058221e+00 5.532830e+00 1.545352e+00 4.214963e+00 2.984090e+00 4.319417e+00 2.941665e+00 4.622114e+00 2.625620e+00 1.729496e+00 1.610553e+00 1.066028e+00 1.176511e+01 1.378266e+00 1.088985e+00 2.270519e-01 6.398447e-01 4.800481e-01 6.178972e-01 5.231272e-01 6.002592e-01 3.936996e-01 2.999228e-01 2.999026e-01 1.683044e-01 2.335665e+00
<GCONST> 1.174300e+02
~h "k"
<BEGINHMM>
<NUMSTATES> 5
<STATE> 2
<MEAN> 39
 -1.483058e+01 1.831333e-01 -4.217907e+00 9.185349e+00 -3.653991e+00 1.259079e+01 -2.207635e+00 7.352013e+00 -3.258751e+00 1.101934e+00 -1.728084e+00 -2.151702e+00 4.915205e+01 -1.448889e-01 -3.730608e+00 4.971737e-02 -1.763682e+00 1.437778e+00 -2.669257e+00 3.025427e-01 -3.115327e+00 1.215031e-02 1.022719e-01 4.886945e-02 1.166983e-01 4.150470e+00 -8.461726e-02 -1.705345e+00 6.651799e-02 -1.087313e+00 6.312860e-01 -1.227257e+00 1.589268e-01 -1.576270e+00 6.264652e-02 -1.992574e-01 -3.406082e-02 -3.660507e-03 2.165249e+00
<VARIANCE> 39
 8.087989e+00 5.235591e+01 1.318446e+01 1.997453e+01 1.726939e+01 2.887336e+01 3.017790e+01 3.279227e+01 2.520925e+01 2.505217e+01 1.741127e+01 1.544368e+01 2.723181e+01 8.363724e-01 1.845662e+01 1.695845e+00 7.437954e+00 4.292333e+00 1.115575e+01 3.339430e+00 1.481276e+01 3.204274e+00 3.064626e+00 2.148823e+00 1.616509e+00 2.327824e+01 1.186922e-01 1.883531e+00 2.563700e-01 5.933604e-01 5.045299e-01 1.058147e+00 5.405791e-01 1.265102e+00 5.513650e-01 5.065461e-01 3.859812e-01 2.909405e-01 1.766561e+00
<GCONST> 1.241921e+02
<STATE> 3
<MEAN> 39
 -1.624439e+01 -2.690933e+01 -1.866824e+00 -7.435961e+00 5.480918e+00 -5.499625e+00 -1.024444e+00 -1.915757e+01 -1.633803e+00 -2.515253e-01 -3.603899e+00 -3.599914e+00 8.144626e+01 3.204177e-01 -9.310883e-01 5.300782e-02 -2.559809e-01 -2.665733e-01 2.220114e-01 -5.126332e-01 -8.126822e-01 -1.931132e-02 2.884145e-01 -4.846062e-01 -2.346113e-01 3.254140e-01 2.196862e-01 1.169559e+00 -1.741249e-01 8.706642e-01 -5.353742e-01 9.939415e-01 -2.968362e-01 1.138326e+00 -6.820875e-02 1.759616e-01 -3.146363e-02 5.042306e-02 -1.580528e+00
<VARIANCE> 39
 8.526915e+00 1.983537e+01 1.470360e+01 2.291801e+01 2.138200e+01 4.694978e+01 2.547427e+01 3.806901e+01 3.248084e+01 2.267790e+01 2.654325e+01 2.339780e+01 4.601846e+01 1.161590e+00 1.505784e+01 1.685473e+00 8.519126e+00 4.043746e+00 1.234457e+01 3.102115e+00 1.600873e+01 2.482957e+00 2.581850e+00 1.638939e+00 1.732789e+00 3.052580e+01 1.306963e-01 1.202381e+00 3.659370e-01 5.094457e-01 4.623514e-01 1.115659e+00 4.740548e-01 1.040588e+00 5.182775e-01 4.857368e-01 3.553606e-01 3.887469e-01 1.932944e+00
<GCONST> 1.253424e+02
<STATE> 4
<MEAN> 39
 -1.217339e+01 -5.625299e+00 -5.947159e+00 8.991041e+00 -3.210728e+00 1.138274e+01 -6.398788e+00 -1.008599e+00 -5.465817e+00 3.128471e+00 -3.294770e+00 -3.604800e+00 5.364106e+01 -8.728985e-02 1.141647e+00 -1.070060e-01 5.356234e-01 -1.913798e-01 4.308156e-01 1.000984e-01 9.640040e-01 2.776935e-02 -8.128683e-02 1.928871e-01 6.180151e-02 -1.024967e+00 -9.386863e-02 -1.506266e-01 8.641183e-02 -1.654071e-01 8.902315e-02 -1.686414e-01 1.304155e-01 -1.687364e-01 8.448360e-03 -6.180982e-02 1.604197e-02 4.507705e-03 2.314007e-01
<VARIANCE> 39
 1.035379e+01 6.727402e+01 1.061892e+01 1.902345e+01 1.421960e+01 2.650711e+01 3.451595e+01 7.203848e+01 3.529747e+01 2.110697e+01 2.461578e+01 2.011171e+01 3.954196e+01 7.832102e-01 1.296841e+00 9.994060e-01 2.340224e+00 1.622674e+00 2.096628e+00 2.316056e+00 2.870791e+00 3.541896e+00 1.697847e+00 1.520990e+00 1.351836e+00 1.159459e+00 1.189453e-01 2.282244e-01 1.655110e-01 2.801881e-01 3.185270e-01 3.442656e-01 4.524741e-01 6.102141e-01 6.946394e-01 3.483610e-01 3.138235e-01 2.783661e-01 1.714418e-01
<GCONST> 1.046296e+02
<TRANSP> 5
 0.000000e+00 1.000000e+00 0.000000e+00 0.000000e+00 0.000000e+00
 0.000000e+00 7.496067e-01 2.503934e-01 0.000000e+00 0.000000e+00
 0.000000e+00 0.000000e+00 8.734291e-01 1.265709e-01 0.000000e+00
 0.000000e+00 0.000000e+00 0.000000e+00 9.461880e-01 5.381206e-02
 0.000000e+00 0.000000e+00 0.000000e+00 0.000000e+00 0.000000e+00
<ENDHMM>
~h "p"
<BEGINHMM>
<NUMSTATES> 5
<STATE> 2
<MEAN> 39
 -1.489169e+01 2.833776e+00 -3.812988e+00 8.809385e+00 -5.288793e+00 1.214092e+01 -3.242501e+00 7.412932e+00 -3.229486e+00 5.881401e-01 -1.970666e+00 -2.644007e+00 4.765099e+01 7.489030e-01 -1.510426e+00 7.197553e-01 -1.153960e+00 1.047145e+00 -1.817677e+00 4.639912e-01 -1.674994e+00 -2.339148e-01 -1.037917e+00 2.357345e-02 3.820236e-02 3.156908e+00 4.982740e-01 -8.041354e-01 6.261135e-01 -5.763186e-01 6.104462e-01 -7.355439e-01 2.626221e-01 -8.790892e-01 -9.648376e-02 -5.884768e-01 -7.089470e-02 -3.028745e-02 1.813441e+00
<VARIANCE> 39
 4.869067e+00 8.732971e+00 9.547652e+00 6.234039e+00 9.451262e+00 1.416368e+01 2.162108e+01 1.768086e+01 1.530800e+01 1.241312e+01 1.007733e+01 8.862459e+00 6.655178e+00 1.401202e+00 5.287587e+00 3.234472e+00 3.536609e+00 3.197856e+00 6.047468e+00 2.597229e+00 7.058343e+00 2.194787e+00 3.455117e+00 1.422065e+00 1.328870e+00 1.894373e+01 1.732390e-01 3.668090e-01 2.622871e-01 3.423811e-01 4.703767e-01 6.044737e-01 4.046747e-01 6.192822e-01 3.508171e-01 3.597284e-01 2.242285e-01 2.227516e-01 1.409572e+00
<GCONST> 1.053745e+02
<STATE> 3
<MEAN> 39
 -4.300514e+00 -8.352027e+00 4.530999e+00 2.442816e+00 2.371319e+00 2.047831e+00 1.669581e-01 -3.957677e+00 -4.784261e+00 -8.774684e+00 -5.067632e+00 -3.858249e+00 7.383778e+01 1.456901e+00 3.028572e-01 7.130757e-03 1.055614e+00 -5.500393e-01 9.565446e-01 -1.771016e-01 5.949507e-01 -8.087019e-02 -1.589495e-01 -8.037221e-01 -3.522951e-01 -1.388593e-02 -3.270997e-01 8.322907e-01 -5.664172e-01 6.538840e-01 -6.628083e-01 7.001522e-01 -3.260333e-01 7.443241e-01 -6.493552e-02 5.709944e-01 1.639183e-02 -3.541114e-02 -1.663248e+00
<VARIANCE> 39
 1.495927e+01 2.411572e+01 1.904682e+01 4.302302e+01 3.982593e+01 6.613549e+01 3.107445e+01 5.434064e+01 2.995552e+01 2.727609e+01 3.159997e+01 2.428003e+01 8.119673e+01 1.553750e+00 6.419256e+00 4.434748e+00 6.301980e+00 8.163847e+00 1.053623e+01 4.223548e+00 1.031498e+01 2.447623e+00 4.538903e+00 2.029114e+00 1.589901e+00 3.340033e+01 1.541470e-01 7.095040e-01 5.026668e-01 1.003425e+00 1.110172e+00 2.234516e+00 7.542450e-01 1.917775e+00 5.333276e-01 5.806020e-01 5.124366e-01 3.631094e-01 3.929783e+00
<GCONST> 1.351689e+02
<STATE> 4
<MEAN> 39
 -9.397184e+00 4.823880e+00 -1.694323e+00 1.157743e+01 -4.130568e+00 1.154933e+01 -3.736458e+00 5.290109e+00 -6.313169e+00 -2.371448e+00 -5.093708e+00 -4.968540e+00 5.128441e+01 -5.734314e-01 3.493150e-01 -1.946405e-01 -4.584143e-03 1.341660e-02 7.617056e-02 -2.138597e-02 1.879457e-01 5.683328e-02 2.526207e-01 2.123738e-01 5.854317e-02 -7.112554e-01 -3.077758e-02 -1.478078e-01 6.920020e-02 -1.021372e-01 9.319110e-02 -7.439156e-02 5.780225e-02 -7.363959e-02 3.639339e-02 -5.408034e-02 1.164466e-02 3.448061e-02 1.659845e-01
<VARIANCE> 39
 3.420547e+01 1.483390e+01 1.625023e+01 1.295941e+01 1.175144e+01 1.560983e+01 2.039007e+01 2.293477e+01 2.428984e+01 1.828286e+01 1.877402e+01 1.460966e+01 2.599103e+01 4.015818e-01 1.168018e+00 8.281665e-01 9.769964e-01 1.062913e+00 1.137380e+00 1.196624e+00 1.214002e+00 1.613328e+00 1.266757e+00 1.034149e+00 9.605334e-01 5.547832e-01 6.241336e-02 1.583388e-01 1.636732e-01 2.306537e-01 2.694705e-01 2.921402e-01 2.735539e-01 2.943577e-01 3.049092e-01 2.557594e-01 2.175232e-01 1.933433e-01 7.599977e-02
<GCONST> 8.804539e+01
<TRANSP> 5
 0.000000e+00 1.000000e+00 0.000000e+00 0.000000e+00 0.000000e+00
 0.000000e+00 7.528293e-01 2.471707e-01 0.000000e+00 0.000000e+00
 0.000000e+00 0.000000e+00 8.336428e-01 1.663571e-01 0.000000e+00
 0.000000e+00 0.000000e+00 0.000000e+00 9.441384e-01 5.586158e-02
 0.000000e+00 0.000000e+00 0.000000e+00 0.000000e+00 0.000000e+00
<ENDHMM>
~h "s"
<BEGINHMM>
<NUMSTATES> 5
<STATE> 2
<MEAN> 39
 -1.794723e+01 -7.409737e+00 -9.420307e-01 5.137299e+00 -6.009412e-01 5.550134e+00 1.266774e+00 -1.330370e+00 -3.691707e+00 -1.527003e+00 -2.822244e+00 3.309360e-01 5.728263e+01 -2.490061e+00 -4.026097e+00 1.450923e+00 -3.069153e+00 2.737373e+00 -3.176675e+00 2.323234e+00 -3.254323e+00 3.741781e-01 -9.355168e-01 4.044745e-01 1.176129e+00 4.495337e+00 -4.947351e-01 -1.581358e-01 3.153836e-01 -8.758093e-01 6.326113e-01 -3.468886e-01 4.670989e-02 -1.388458e-01 3.935983e-02 -1.569567e-01 1.944206e-01 -1.621409e-01 7.359781e-01
<VARIANCE> 39
 3.670741e+01 1.237196e+02 4.215074e+01 6.628697e+01 5.712689e+01 9.259731e+01 6.255401e+01 1.012810e+02 3.593972e+01 3.043905e+01 3.504349e+01 3.411824e+01 1.020974e+02 3.246845e+00 7.943429e+00 4.768420e+00 8.777176e+00 6.784332e+00 8.205185e+00 5.045735e+00 7.532681e+00 3.211219e+00 2.763123e+00 2.791692e+00 2.533273e+00 8.490228e+00 5.019842e-01 2.793764e+00 8.438275e-01 1.149040e+00 1.182036e+00 2.028249e+00 1.306892e+00 2.308814e+00 5.707698e-01 5.950235e-01 5.491090e-01 7.102656e-01 1.852934e+00
<GCONST> 1.458717e+02
<STATE> 3
<MEAN> 39
 -2.998328e+01 -1.897977e+01 9.067701e+00 -1.350701e+01 1.137540e+01 -1.511320e+00 4.952208e+00 -9.568898e+00 -1.578689e+00 -5.360790e+00 1.008549e+00 1.452951e+00 7.610041e+01 1.529679e-01 1.892629e-01 6.450089e-01 -2.582359e-01 -1.832861e-01 9.086642e-01 -3.599723e-01 5.187861e-01 -2.176100e-01 -1.033767e-02 -1.406790e-01 -1.260270e-01 -3.460507e-01 4.595923e-01 3.905844e-01 -1.892330e-01 5.845586e-01 -4.756645e-01 4.002156e-01 -2.447865e-01 3.651507e-01 -1.462901e-01 1.542445e-01 -1.996951e-01 -7.118498e-03 -6.900316e-01
<VARIANCE> 39
 1.248760e+01 1.357034e+01 3.858032e+01 2.255563e+01 3.157547e+01 4.862184e+01 2.924069e+01 2.455524e+01 2.270243e+01 1.939205e+01 2.382966e+01 1.569852e+01 2.337259e+01 2.510843e+00 1.749073e+00 1.862374e+00 4.261118e+00 3.343050e+00 2.950135e+00 1.924968e+00 2.271778e+00 1.925390e+00 1.870124e+00 1.964580e+00 1.204605e+00 4.333048e+00 2.541848e-01 4.271402e-01 3.605570e-01 4.444598e-01 5.254005e-01 6.348926e-01 4.951703e-01 5.524327e-01 3.363816e-01 3.429802e-01 2.754402e-01 2.397883e-01 3.378124e-01
<GCONST> 1.111713e+02
<STATE> 4
<MEAN> 39
 -1.658128e+01 -3.793667e+00 3.536765e+00 2.084135e+00 -3.313940e+00 1.221648e+01 -3.636772e+00 3.394891e+00 -6.001522e+00 -1.468761e+00 -3.685218e+00 -1.452805e+00 5.436803e+01 8.031070e-01 1.341993e+00 -1.013388e+00 1.294576e+00 -9.875004e-01 5.386217e-01 -6.007610e-01 8.632901e-01 6.993601e-02 3.672135e-01 5.476508e-03 -2.732883e-01 -1.412562e+00 -1.749446e-01 -1.874575e-01 -2.909171e-02 -1.361106e-01 1.731765e-01 -2.058667e-01 1.572602e-01 -2.137292e-01 1.425269e-01 -5.491642e-02 1.107469e-01 2.555395e-02 2.654207e-01
<VARIANCE> 39
 1.535297e+01 4.686581e+01 5.248863e+01 4.435792e+01 4.177520e+01 3.947472e+01 3.398612e+01 2.906865e+01 2.536008e+01 2.126169e+01 1.932938e+01 1.603846e+01 3.383083e+01 1.043302e+00 1.919139e+00 1.343672e+00 1.756975e+00 2.775987e+00 3.397443e+00 2.279846e+00 2.713525e+00 2.341689e+00 1.752691e+00 1.656970e+00 1.179361e+00 1.708199e+00 1.036672e-01 2.731205e-01 2.284599e-01 2.029230e-01 3.756256e-01 5.189334e-01 3.702782e-01 4.436268e-01 4.495326e-01 3.532872e-01 3.438537e-01 2.381559e-01 1.288064e-01
<GCONST> 1.076284e+02
<TRANSP> 5
 0.000000e+00 1.000000e+00 0.000000e+00 0.000000e+00 0.000000e+00
 0.000000e+00 7.859944e-01 2.140056e-01 0.000000e+00 0.000000e+00
 0.000000e+00 0.000000e+00 9.067398e-01 9.326022e-02 0.000000e+00
 0.000000e+00 0.000000e+00 0.000000e+00 9.123833e-01 8.761676e-02
 0.000000e+00 0.000000e+00 0.000000e+00 0.000000e+00 0.000000e+00
<ENDHMM>
~h "sp"
<BEGINHMM>
<NUMSTATES> 3
<STATE> 2
~s "silst"
<TRANSP> 3
 0.000000e+00 7.000000e-01 3.000000e-01
 0.000000e+00 6.000000e-01 4.000000e-01
 0.000000e+00 0.000000e+00 0.000000e+00
<ENDHMM>
~h "sil"
<BEGINHMM>
<NUMSTATES> 5
<STATE> 2
<MEAN> 39
 -1.687384e+01 4.943664e+00 -5.654825e+00 8.490979e+00 -5.471920e+00 1.129823e+01 -5.616736e+00 6.204122e+00 -3.799911e+00 -1.894864e-01 -2.254524e+00 -3.032043e+00 4.454242e+01 -4.881123e-02 4.861799e-02 -6.438825e-02 -1.234232e-02 -6.217238e-02 -2.929568e-02 1.761270e-02 3.056350e-02 1.256944e-02 3.057473e-03 1.564812e-02 -9.855069e-05 -8.531264e-02 2.569731e-03 -3.356126e-02 1.607629e-02 1.792337e-02 -1.123496e-02 -9.863567e-03 4.577755e-03 -1.214885e-02 -2.352034e-02 -1.135761e-03 8.489799e-03 -7.143491e-03 1.850209e-02
<VARIANCE> 39
 4.220598e+01 1.284721e+01 6.765316e+00 1.223894e+01 8.901425e+00 1.318116e+01 2.399404e+01 1.747060e+01 1.648701e+01 1.067057e+01 1.018015e+01 1.009741e+01 3.951734e+01 8.532369e-02 2.264145e-01 2.815547e-01 3.693324e-01 4.925051e-01 5.774664e-01 6.962557e-01 7.594334e-01 7.892122e-01 7.703378e-01 7.029072e-01 6.780195e-01 9.558169e-02 1.813193e-02 4.798556e-02 5.842444e-02 7.978324e-02 1.024508e-01 1.244592e-01 1.483550e-01 1.618762e-01 1.648094e-01 1.586812e-01 1.483202e-01 1.384815e-01 1.396893e-02
<GCONST> 6.267414e+01
<STATE> 3
~s "silst"
<STATE> 4
<MEAN> 39
 -1.365652e+01 -5.803254e+00 4.150214e-01 5.946677e+00 -1.167425e+00 5.961761e+00 -1.791914e+00 -1.131872e+00 -5.120832e+00 -1.670603e+00 -2.974563e+00 -4.019635e+00 6.031275e+01 8.240478e-02 2.780413e-01 -2.760983e-02 1.924188e-01 -7.545482e-03 3.276741e-01 -1.316522e-01 2.016346e-01 -4.206565e-02 9.078331e-02 -9.328917e-02 -8.842684e-02 -3.266678e-01 -7.099690e-02 2.156464e-01 -1.242402e-01 -3.245068e-02 -3.787647e-02 1.198811e-01 -1.250341e-01 1.237958e-01 9.045811e-02 6.785201e-02 -4.270452e-02 1.244512e-02 -2.986010e-01
<VARIANCE> 39
 8.504628e+01 1.290230e+02 5.406726e+01 1.030245e+02 6.934358e+01 8.503281e+01 5.281938e+01 9.353126e+01 3.602430e+01 3.370897e+01 3.210165e+01 2.463792e+01 1.874535e+02 1.859283e+00 5.167521e+00 2.242651e+00 4.214097e+00 4.368530e+00 5.343636e+00 3.086869e+00 5.368485e+00 2.965431e+00 2.351047e+00 2.286118e+00 1.489876e+00 1.008546e+01 2.195821e-01 8.611593e-01 3.752532e-01 6.851174e-01 7.820271e-01 1.040980e+00 6.004263e-01 1.047400e+00 6.187549e-01 4.557429e-01 4.565308e-01 3.180508e-01 1.589012e+00
<GCONST> 1.353211e+02
<TRANSP> 5
 0.000000e+00 1.000000e+00 0.000000e+00 0.000000e+00 0.000000e+00
 0.000000e+00 9.353496e-01 3.118643e-02 3.346384e-02 0.000000e+00
 0.000000e+00 0.000000e+00 7.851686e-01 2.148314e-01 0.000000e+00
 0.000000e+00 9.789625e-02 0.000000e+00 8.199472e-01 8.215655e-02
 0.000000e+00 0.000000e+00 0.000000e+00 0.000000e+00 0.000000e+00
<ENDHMM>
