~o
<STREAMINFO> 1 39
<VECSIZE> 39<NULLD><MFCC_D_A_0><DIAGC>
~s "silst"
<MEAN> 39
 -1.747358e+01 1.288006e+00 -7.452336e+00 6.666891e+00 -7.349855e+00 8.959503e+00 -5.862084e+00 5.250067e+00 -5.167191e+00 6.526473e-01 3.782057e-02 -1.737674e+00 4.574904e+01 5.097429e-01 -5.867359e-02 -4.612253e-02 4.088725e-01 -9.178677e-02 -6.072326e-02 2.911231e-01 1.650688e-01 -8.956726e-02 3.013116e-02 1.045628e-01 -6.200871e-03 3.095667e-01 -3.239588e-02 1.882995e-01 -1.432564e-02 -1.641033e-01 1.422223e-01 1.101121e-01 -1.133696e-01 3.521937e-03 2.224796e-01 5.371069e-03 -1.458839e-01 7.507493e-03 -6.772836e-02
<VARIANCE> 39
 1.021803e+02 8.214444e+01 3.728024e+01 5.093566e+01 3.663891e+01 5.635768e+01 5.269242e+01 4.041719e+01 4.808243e+01 2.600702e+01 2.801284e+01 2.173813e+01 1.261344e+02 8.425698e+00 6.719979e+00 2.065402e+00 4.615207e+00 3.425049e+00 4.545150e+00 4.053869e+00 3.879622e+00 4.932692e+00 2.650469e+00 2.888423e+00 1.908033e+00 8.310888e+00 1.178294e+00 1.108603e+00 3.686787e-01 8.069288e-01 6.350195e-01 8.663139e-01 7.407170e-01 7.508740e-01 9.033157e-01 5.224005e-01 5.688419e-01 3.874738e-01 1.180807e+00
<GCONST> 1.358985e+02
~h "k"
<BEGINHMM>
<NUMSTATES> 5
<STATE> 2
<MEAN> 39
 -1.331144e+01 1.144587e+00 -6.242023e+00 7.830928e+00 -5.133596e+00 1.069785e+01 -4.365985e+00 6.259542e+00 -3.154778e+00 1.512406e+00 -1.642774e+00 -2.721989e+00 4.936515e+01 -4.639287e-01 -4.206014e+00 4.853487e-01 -1.807021e+00 2.085081e+00 -2.915389e+00 5.318927e-01 -3.369384e+00 1.599305e-01 -9.514001e-02 8.208542e-02 -2.867547e-02 4.746558e+00 -2.034631e-01 -1.959458e+00 2.443647e-01 -1.082894e+00 9.073260e-01 -1.363258e+00 1.885688e-01 -1.737111e+00 1.070886e-01 -2.926036e-01 -3.946730e-02 -1.375103e-01 2.479277e+00
<VARIANCE> 39
 1.411571e+01 3.815026e+01 1.845949e+01 1.853932e+01 2.150757e+01 3.035979e+01 3.165602e+01 2.541213e+01 1.969739e+01 1.781676e+01 1.486818e+01 1.315292e+01 2.132969e+01 1.212466e+00 1.701195e+01 2.075645e+00 6.146871e+00 6.019809e+00 1.052583e+01 3.252422e+00 1.331718e+01 2.826866e+00 2.746296e+00 1.977413e+00 1.888783e+00 2.252532e+01 1.438831e-01 1.248015e+00 2.972836e-01 4.474282e-01 5.819429e-01 8.363408e-01 5.300422e-01 8.459271e-01 4.951978e-01 4.299989e-01 3.577038e-01 3.342258e-01 1.136353e+00
<GCONST> 1.223420e+02
<STATE> 3
<MEAN> 39
 -1.680256e+01 -2.737099e+01 -1.962266e+00 -7.738530e+00 7.855752e+00 -8.689620e+00 -1.253156e+00 -1.979495e+01 -6.358010e-01 -1.591051e+00 -2.484193e+00 -4.804564e+00 8.457211e+01 -1.718254e-01 -2.159299e+00 7.360165e-01 -1.254767e+00 4.660727e-01 -9.223096e-01 3.246650e-03 -2.452643e+00 2.001568e-01 -6.580922e-02 -3.228577e-01 -5.463147e-01 2.359070e+00 3.243678e-01 1.634318e+00 -1.666199e-01 9.790384e-01 -9.415718e-01 1.395470e+00 -3.609737e-01 1.519561e+00 -1.855837e-01 4.210463e-01 -9.952172e-02 1.321435e-01 -2.362106e+00
<VARIANCE> 39
 7.267743e+00 1.391188e+01 1.506591e+01 2.032844e+01 1.929330e+01 3.914324e+01 2.668218e+01 3.595890e+01 3.134824e+01 2.666047e+01 2.459200e+01 2.906867e+01 2.220215e+01 1.085984e+00 1.726198e+01 1.523543e+00 6.993128e+00 6.523867e+00 1.319965e+01 2.562682e+00 1.378336e+01 2.417254e+00 3.530097e+00 1.709618e+00 1.975371e+00 3.332591e+01 1.754144e-01 1.190051e+00 3.754136e-01 5.468849e-01 6.557651e-01 1.063490e+00 4.736962e-01 9.826822e-01 4.834434e-01 6.166242e-01 3.546208e-01 4.647593e-01 1.668181e+00
<GCONST> 1.253198e+02
<STATE> 4
<MEAN> 39
 -1.094842e+01 -1.734555e+01 -4.568550e+00 3.168851e+00 -1.721461e+00 5.142425e+00 -8.518361e+00 -1.105606e+01 -4.496144e+00 3.464513e+00 -5.502183e+00 -4.211689e+00 6.508858e+01 8.045743e-01 1.878260e+00 -9.888533e-01 1.960622e+00 -1.141476e+00 1.855398e+00 -6.909527e-01 1.802347e+00 -5.222189e-01 5.156717e-01 -1.147804e-01 2.293018e-01 -2.783081e+00 -1.608800e-01 1.255359e-02 -5.470834e-02 -7.853176e-02 2.100930e-01 -1.841403e-01 2.452627e-01 -1.630877e-02 1.130894e-01 -1.336929e-01 1.392536e-01 -7.621827e-02 2.690521e-01
<VARIANCE> 39
 1.389441e+01 3.834911e+01 2.185530e+01 5.354686e+01 2.425197e+01 4.804626e+01 3.341823e+01 4.740907e+01 4.531546e+01 2.008887e+01 2.400896e+01 2.560859e+01 5.224432e+01 1.236844e+00 1.155450e+00 1.413236e+00 2.011475e+00 2.215650e+00 2.667068e+00 3.341448e+00 4.908989e+00 4.147671e+00 2.186210e+00 1.927334e+00 1.896177e+00 2.668264e+00 2.056581e-01 2.609887e-01 3.579053e-01 4.324012e-01 3.370589e-01 4.485179e-01 5.536941e-01 1.054325e+00 9.581349e-01 4.874189e-01 3.729480e-01 3.830057e-01 3.468417e-01
<GCONST> 1.161135e+02
<TRANSP> 5
 0.000000e+00 1.000000e+00 0.000000e+00 0.000000e+00 0.000000e+00
 0.000000e+00 7.259601e-01 2.740398e-01 0.000000e+00 0.000000e+00
 0.000000e+00 0.000000e+00 8.224285e-01 1.775716e-01 0.000000e+00
 0.000000e+00 0.000000e+00 0.000000e+00 8.764138e-01 1.235861e-01
 0.000000e+00 0.000000e+00 0.000000e+00 0.000000e+00 0.000000e+00
<ENDHMM>
~h "p"
<BEGINHMM>
<NUMSTATES> 5
<STATE> 2
<MEAN> 39
 -1.364158e+01 3.005697e+00 -6.080588e+00 7.503495e+00 -6.622581e+00 1.039083e+01 -4.996161e+00 6.655756e+00 -3.334620e+00 4.607991e-01 -2.108674e+00 -2.966768e+00 4.797018e+01 9.197790e-01 -2.335661e+00 1.526699e+00 -1.463642e+00 1.668640e+00 -2.441673e+00 7.672859e-01 -2.482484e+00 -3.767076e-01 -1.522824e+00 1.807976e-01 8.420824e-02 4.642665e+00 6.180504e-01 -1.025647e+00 9.248776e-01 -5.865475e-01 9.501001e-01 -9.587015e-01 4.380505e-01 -1.128761e+00 -8.207175e-02 -7.997293e-01 -1.112673e-02 -7.301610e-02 2.399076e+00
<VARIANCE> 39
 1.424887e+01 9.909476e+00 1.737382e+01 1.098197e+01 1.219801e+01 1.570415e+01 2.277509e+01 1.686452e+01 1.487099e+01 1.184339e+01 1.063323e+01 9.069218e+00 1.067188e+01 1.487919e+00 4.962610e+00 3.917721e+00 3.297881e+00 4.264970e+00 6.092852e+00 2.863487e+00 7.017799e+00 2.509791e+00 4.057021e+00 1.656760e+00 1.528201e+00 1.896003e+01 1.221476e-01 2.762644e-01 2.170967e-01 3.697240e-01 3.579873e-01 5.148803e-01 3.927970e-01 5.061221e-01 3.894304e-01 3.188990e-01 2.577924e-01 2.569109e-01 5.840549e-01
<GCONST> 1.076442e+02
<STATE> 3
<MEAN> 39
 -5.214391e+00 -1.050537e+01 5.127657e+00 1.112133e-01 5.018989e+00 -2.039568e+00 6.199182e-01 -7.518794e+00 -4.706715e+00 -9.811496e+00 -2.777379e+00 -3.437441e+00 7.799481e+01 1.711969e+00 -4.438863e-01 7.193166e-01 6.372166e-01 2.857405e-01 6.940989e-01 3.503640e-01 1.307774e-01 5.449464e-02 -6.987019e-01 -9.062552e-01 -2.897959e-01 1.306924e+00 -2.855940e-01 1.231465e+00 -1.004769e+00 1.002090e+00 -1.288003e+00 1.400875e+00 -6.098130e-01 1.437603e+00 6.179906e-02 8.997194e-01 -2.022515e-01 -4.768632e-04 -2.706189e+00
<VARIANCE> 39
 1.047622e+01 1.332819e+01 1.572771e+01 2.740718e+01 2.483997e+01 4.510386e+01 3.106466e+01 4.018217e+01 2.785070e+01 2.414511e+01 2.721063e+01 2.150253e+01 4.620273e+01 1.263113e+00 6.994439e+00 6.139555e+00 6.005589e+00 9.827415e+00 1.272035e+01 4.066315e+00 1.356721e+01 2.335750e+00 5.209000e+00 2.100377e+00 1.559956e+00 4.054343e+01 1.894456e-01 4.569656e-01 5.150089e-01 5.539474e-01 7.395800e-01 1.291255e+00 6.341293e-01 1.284035e+00 5.558492e-01 5.450591e-01 4.941914e-01 3.706459e-01 2.348505e+00
<GCONST> 1.295716e+02
<STATE> 4
<MEAN> 39
 -3.213990e+00 2.883055e+00 -7.261954e-01 1.183943e+01 -4.472130e+00 9.726942e+00 -4.827002e+00 2.621089e+00 -7.826056e+00 -4.579833e+00 -6.849245e+00 -5.784606e+00 5.757297e+01 -5.315844e-01 1.191025e+00 -6.035686e-01 4.404269e-01 -5.347342e-01 4.584956e-01 -4.021183e-01 4.453927e-01 -4.062032e-01 4.755718e-01 5.803473e-02 -1.454290e-01 -1.748587e+00 -2.002858e-01 -2.010528e-01 1.383405e-01 -3.212391e-01 2.840402e-01 -2.793905e-01 1.404823e-01 -2.231434e-01 7.243779e-02 -9.264599e-02 1.332172e-01 3.662836e-02 3.430755e-01
<VARIANCE> 39
 1.190548e+01 3.607613e+01 2.670053e+01 1.983623e+01 1.867716e+01 1.917825e+01 2.141007e+01 1.753957e+01 2.380275e+01 1.741813e+01 1.761346e+01 1.622094e+01 2.424099e+01 7.570630e-01 1.388919e+00 1.667950e+00 2.410597e+00 2.915158e+00 2.413784e+00 1.772846e+00 2.278554e+00 2.020156e+00 1.846997e+00 1.374311e+00 1.289980e+00 1.678141e+00 6.764031e-02 1.434506e-01 2.458327e-01 3.179016e-01 4.547711e-01 5.879475e-01 3.194346e-01 4.963399e-01 4.419540e-01 3.476268e-01 3.082175e-01 2.693531e-01 1.542517e-01
<GCONST> 1.013114e+02
<TRANSP> 5
 0.000000e+00 1.000000e+00 0.000000e+00 0.000000e+00 0.000000e+00
 0.000000e+00 6.866906e-01 3.133093e-01 0.000000e+00 0.000000e+00
 0.000000e+00 0.000000e+00 7.838106e-01 2.161894e-01 0.000000e+00
 0.000000e+00 0.000000e+00 0.000000e+00 8.959009e-01 1.040991e-01
 0.000000e+00 0.000000e+00 0.000000e+00 0.000000e+00 0.000000e+00
<ENDHMM>
~h "s"
<BEGINHMM>
<NUMSTATES> 5
<STATE> 2
<MEAN> 39
 -1.473739e+01 -1.997779e+00 -3.540658e+00 7.695438e+00 -5.046735e+00 8.610661e+00 -2.478785e+00 2.739454e+00 -3.649367e+00 -4.259638e-02 -2.978700e+00 -1.472265e+00 5.186104e+01 -1.943875e+00 -3.632635e+00 1.394543e+00 -1.586971e+00 1.861033e+00 -2.535395e+00 2.170212e+00 -2.942529e+00 4.091856e-01 -7.153245e-01 1.592034e-01 1.175219e+00 3.388083e+00 -7.945443e-01 -9.071891e-01 5.277185e-01 -1.058484e+00 1.041624e+00 -8.488820e-01 4.940827e-01 -7.745328e-01 1.121702e-01 -3.009695e-01 1.730629e-01 1.259566e-01 1.339494e+00
<VARIANCE> 39
 2.038672e+01 6.891099e+01 3.558938e+01 2.888223e+01 2.851103e+01 5.010704e+01 4.755430e+01 6.274673e+01 2.907628e+01 2.510964e+01 2.684098e+01 2.648686e+01 3.643261e+01 3.277468e+00 8.994009e+00 4.798281e+00 6.467152e+00 6.767433e+00 7.663335e+00 5.048981e+00 8.605859e+00 3.163878e+00 3.069938e+00 2.673028e+00 2.464849e+00 8.389160e+00 2.467236e-01 1.495950e+00 7.477137e-01 7.712598e-01 6.982290e-01 1.030788e+00 8.685088e-01 1.439308e+00 5.056142e-01 5.056992e-01 4.865853e-01 5.387159e-01 6.594402e-01
<GCONST> 1.339335e+02
<STATE> 3
<MEAN> 39
 -2.880087e+01 -1.837826e+01 4.868048e+00 -9.652826e+00 1.129843e+01 -5.991984e+00 6.816222e+00 -1.043371e+01 -1.492468e+00 -4.768769e+00 3.611311e-01 1.579135e+00 7.445940e+01 -2.108788e+00 -1.304062e+00 1.439324e+00 -3.352318e+00 2.333867e+00 -1.139732e+00 3.497848e-01 -6.885364e-01 4.770070e-02 -6.693821e-01 8.594005e-01 -2.402969e-01 3.263246e+00 7.632322e-01 9.392846e-01 -3.183272e-01 7.647619e-01 -9.533559e-01 1.082229e+00 -6.901659e-01 8.674052e-01 -1.257749e-01 1.994612e-01 -1.244056e-01 -2.371318e-01 -1.160421e+00
<VARIANCE> 39
 1.728101e+01 2.466784e+01 4.980991e+01 4.831411e+01 4.118027e+01 3.677918e+01 3.346700e+01 3.230777e+01 3.011875e+01 2.443245e+01 3.084831e+01 2.003780e+01 2.847740e+01 3.470962e+00 5.465113e+00 4.319310e+00 5.274353e+00 7.075649e+00 7.375138e+00 4.516022e+00 5.765631e+00 2.328588e+00 2.439123e+00 2.004969e+00 1.759702e+00 6.014448e+00 3.354160e-01 9.782970e-01 8.177975e-01 8.368544e-01 8.083322e-01 8.165712e-01 7.536177e-01 1.081031e+00 5.012657e-01 4.866343e-01 4.824392e-01 4.591460e-01 3.894537e-01
<GCONST> 1.283037e+02
<STATE> 4
<MEAN> 39
 -2.770819e+01 -1.742072e+01 1.041046e+01 -1.221262e+01 8.787310e+00 2.101910e+00 2.567884e+00 -6.701816e+00 -2.719157e+00 -4.885315e+00 -2.656510e-01 1.034311e+00 7.256253e+01 1.200171e+00 9.827352e-01 1.005459e-01 9.787920e-01 -1.274991e+00 1.489722e+00 -8.108016e-01 1.153575e+00 -5.091168e-01 3.336424e-01 -6.092095e-01 -8.568326e-02 -1.814769e+00 1.796112e-01 2.469005e-01 -2.203259e-01 2.942199e-01 -2.359931e-01 7.491576e-02 -9.611311e-02 1.329862e-01 -3.323424e-03 1.147124e-01 -8.787787e-03 -4.759065e-02 -3.081874e-01
<VARIANCE> 39
 2.802504e+01 2.455496e+01 2.882845e+01 2.811220e+01 4.397582e+01 5.670531e+01 3.082549e+01 4.035630e+01 3.055609e+01 2.139303e+01 2.887868e+01 1.491268e+01 5.403081e+01 1.753201e+00 2.601197e+00 1.833629e+00 2.064238e+00 2.519804e+00 2.172287e+00 2.277948e+00 2.889271e+00 2.145015e+00 1.861601e+00 1.612312e+00 1.149198e+00 2.552083e+00 2.417910e-01 3.161884e-01 2.514630e-01 2.568823e-01 3.302222e-01 3.765480e-01 4.019881e-01 4.777948e-01 4.607225e-01 3.575149e-01 3.828120e-01 2.405910e-01 2.781447e-01
<GCONST> 1.112515e+02
<TRANSP> 5
 0.000000e+00 1.000000e+00 0.000000e+00 0.000000e+00 0.000000e+00
 0.000000e+00 7.528006e-01 2.471995e-01 0.000000e+00 0.000000e+00
 0.000000e+00 0.000000e+00 7.801903e-01 2.198097e-01 0.000000e+00
 0.000000e+00 0.000000e+00 0.000000e+00 9.012142e-01 9.878577e-02
 0.000000e+00 0.000000e+00 0.000000e+00 0.000000e+00 0.000000e+00
<ENDHMM>
~h "sil"
<BEGINHMM>
<NUMSTATES> 5
<STATE> 2
<MEAN> 39
 -1.586600e+01 -5.514200e-01 -3.569145e+00 5.094026e+00 -4.679906e+00 1.230022e+01 -6.909948e+00 3.034703e+00 -4.348356e+00 1.290485e+00 -2.861470e+00 -3.170168e+00 4.944754e+01 6.209185e-02 9.751468e-01 -7.047443e-01 5.891408e-01 -3.373160e-01 1.998995e-01 -2.585893e-02 7.371983e-01 4.819764e-01 2.657521e-01 3.694482e-01 -1.000737e-01 -9.590703e-01 -6.283773e-02 -1.855203e-01 5.408868e-02 -1.134648e-01 1.396942e-01 -2.634445e-01 1.184126e-01 -1.057619e-01 1.250519e-02 -8.902251e-02 6.841409e-03 9.302890e-02 2.289540e-01
<VARIANCE> 39
 7.633150e+01 5.744925e+01 5.452147e+01 3.569845e+01 2.221855e+01 2.555099e+01 3.389120e+01 2.699052e+01 2.377986e+01 2.308813e+01 1.581382e+01 1.548818e+01 9.352599e+01 9.848971e-01 1.432461e+00 1.726529e+00 1.931529e+00 2.417441e+00 2.194633e+00 1.767076e+00 1.941099e+00 2.186791e+00 1.600445e+00 1.383036e+00 1.242366e+00 6.999756e-01 1.017950e-01 1.640433e-01 1.811116e-01 2.325531e-01 3.587200e-01 3.388381e-01 3.263433e-01 3.466562e-01 3.840139e-01 2.932601e-01 2.659659e-01 2.157509e-01 7.402856e-02
<GCONST> 1.038402e+02
<STATE> 3
~s "silst"
<STATE> 4
<MEAN> 39
 -1.332068e+01 3.348691e+00 -7.110137e+00 7.487925e+00 -6.546113e+00 1.006603e+01 -5.844122e+00 6.116891e+00 -3.464965e+00 4.392978e-01 -1.948123e+00 -2.857797e+00 4.775240e+01 -7.787583e-02 1.013451e-01 -9.381813e-02 -2.095138e-02 -7.441629e-02 -3.964464e-02 1.365905e-02 1.105388e-01 7.465206e-02 -1.464928e-02 2.307167e-02 4.313958e-02 -1.452105e-01 5.179686e-03 -9.926730e-02 4.115411e-02 -3.083670e-03 6.997882e-03 -2.971420e-02 2.061829e-02 -8.133869e-02 -5.473624e-02 -1.322010e-02 3.291533e-03 -1.420334e-03 8.522563e-02
<VARIANCE> 39
 1.423088e+01 7.697327e+00 1.450221e+01 9.782399e+00 1.102576e+01 1.422634e+01 1.850656e+01 1.543542e+01 1.369785e+01 1.131600e+01 1.055934e+01 9.557202e+00 8.957384e+00 9.866472e-02 3.134397e-01 3.661561e-01 4.493432e-01 5.874246e-01 6.731791e-01 8.013656e-01 8.686208e-01 8.688495e-01 8.872409e-01 8.203948e-01 7.409747e-01 9.232665e-02 2.701105e-02 1.050360e-01 8.497897e-02 1.103622e-01 1.389857e-01 1.752360e-01 1.807166e-01 2.109293e-01 1.908700e-01 1.871669e-01 1.762366e-01 1.573514e-01 5.936047e-02
<GCONST> 6.691985e+01
<TRANSP> 5
 0.000000e+00 1.000000e+00 0.000000e+00 0.000000e+00 0.000000e+00
 0.000000e+00 6.978950e-01 6.887845e-02 2.332265e-01 0.000000e+00
 0.000000e+00 0.000000e+00 8.462551e-01 1.537449e-01 0.000000e+00
 0.000000e+00 4.567355e-03 0.000000e+00 8.973795e-01 9.805316e-02
 0.000000e+00 0.000000e+00 0.000000e+00 0.000000e+00 0.000000e+00
<ENDHMM>
