~o
<STREAMINFO> 1 39
<VECSIZE> 39<NULLD><MFCC_D_A_0><DIAGC>
~s "silst"
<MEAN> 39
 -1.515752e+01 -1.877743e+00 -1.379580e+00 7.558265e+00 -6.338015e+00 1.315209e+01 -2.411900e+00 4.142239e+00 -6.905612e+00 -2.527368e-01 -1.787218e+00 -2.147049e+00 5.069194e+01 6.060197e-01 5.326977e-01 -5.086631e-01 9.259326e-01 -2.009562e-01 -1.001583e-02 3.431574e-01 5.377219e-01 2.717186e-01 1.972864e-01 1.964186e-01 -1.162140e-01 -2.278679e-01 -2.277053e-01 7.880520e-02 -1.722575e-02 -2.620970e-01 3.331829e-01 -1.209419e-01 -8.306120e-02 -6.604625e-03 2.356576e-01 1.206842e-02 -1.062153e-01 6.760085e-02 -3.692682e-02
<VARIANCE> 39
 3.145758e+01 4.760075e+01 5.592851e+01 4.253703e+01 3.179241e+01 5.766090e+01 4.285706e+01 4.528474e+01 4.672488e+01 3.695583e+01 3.640868e+01 2.691302e+01 5.281234e+01 3.766903e+00 5.432064e+00 2.779788e+00 3.677500e+00 3.345486e+00 4.776155e+00 3.806457e+00 4.030321e+00 5.113025e+00 3.094823e+00 2.717464e+00 1.958578e+00 5.263431e+00 4.262773e-01 8.429354e-01 3.566010e-01 5.440937e-01 5.752805e-01 9.607845e-01 7.279990e-01 7.816375e-01 9.341245e-01 5.951488e-01 5.775568e-01 3.902032e-01 5.865974e-01
<GCONST> 1.306646e+02
~h "k"
<BEGINHMM>
<NUMSTATES> 5
<STATE> 2
<MEAN> 39
 -1.482453e+01 5.154973e-01 -4.361994e+00 9.238525e+00 -3.618981e+00 1.228949e+01 -2.696109e+00 6.871847e+00 -3.242502e+00 1.399275e+00 -1.678575e+00 -2.481486e+00 4.896342e+01 -2.001790e-01 -4.589811e+00 1.449459e-01 -2.237337e+00 1.816894e+00 -3.306913e+00 3.729856e-01 -3.797937e+00 7.917672e-02 4.290228e-02 5.597700e-02 1.448745e-01 5.183016e+00 -1.088032e-01 -1.989218e+00 8.675703e-02 -1.267983e+00 7.333055e-01 -1.422711e+00 1.697828e-01 -1.791333e+00 1.027209e-01 -2.416139e-01 -3.329202e-02 -1.643622e-02 2.534856e+00
<VARIANCE> 39
 7.695889e+00 4.882558e+01 1.163316e+01 1.787497e+01 1.841149e+01 3.134394e+01 2.944382e+01 3.201104e+01 2.242151e+01 2.126386e+01 1.688584e+01 1.397834e+01 2.597385e+01 8.269938e-01 1.753196e+01 1.715283e+00 7.407772e+00 4.250961e+00 1.163448e+01 3.350254e+00 1.440294e+01 3.100579e+00 2.868295e+00 2.166381e+00 1.680699e+00 2.304971e+01 1.120975e-01 1.503245e+00 2.565790e-01 4.558318e-01 4.854853e-01 9.508412e-01 5.452061e-01 1.010058e+00 5.188639e-01 4.330744e-01 3.836984e-01 2.906964e-01 1.281449e+00
<GCONST> 1.219124e+02
<STATE> 3
<MEAN> 39
 -1.690001e+01 -2.783530e+01 -1.790335e+00 -8.163345e+00 6.458922e+00 -7.242752e+00 -3.454316e-01 -2.003122e+01 -9.742895e-01 -9.696941e-01 -3.041847e+00 -3.831432e+00 8.376088e+01 8.204843e-02 -1.562000e+00 3.504277e-01 -8.544040e-01 4.351914e-02 -3.536310e-01 -2.091434e-01 -1.652241e+00 8.738656e-03 8.968408e-02 -4.359574e-01 -3.958477e-01 1.307546e+00 2.479383e-01 1.341981e+00 -1.328243e-01 9.506422e-01 -6.344001e-01 1.182817e+00 -3.433243e-01 1.325540e+00 -1.547954e-01 2.725819e-01 -9.129719e-02 5.347776e-02 -1.933064e+00
<VARIANCE> 39
 7.562640e+00 1.035844e+01 1.548192e+01 1.812276e+01 1.693585e+01 4.018925e+01 2.300288e+01 3.133430e+01 3.237814e+01 2.139939e+01 2.687655e+01 2.518888e+01 2.106552e+01 9.398990e-01 1.570631e+01 1.356814e+00 7.774487e+00 4.206601e+00 1.264077e+01 2.879730e+00 1.410336e+01 2.615612e+00 2.620914e+00 1.692518e+00 1.672618e+00 3.112799e+01 1.286399e-01 1.235280e+00 3.817098e-01 5.163103e-01 4.541003e-01 1.094433e+00 4.809210e-01 8.910837e-01 4.962559e-01 4.680281e-01 3.592768e-01 4.051098e-01 1.578486e+00
<GCONST> 1.220732e+02
<STATE> 4
<MEAN> 39
 -1.035466e+01 -1.512997e+01 -5.726095e+00 6.693810e+00 -2.317547e+00 8.479172e+00 -8.776440e+00 -9.235885e+00 -6.197947e+00 4.169960e+00 -5.821774e+00 -4.390885e+00 6.145034e+01 3.672110e-01 1.865833e+00 -6.618025e-01 1.631323e+00 -4.683890e-01 1.378346e+00 -3.664335e-01 1.492683e+00 -3.669414e-01 3.473774e-01 1.586396e-01 7.288111e-03 -2.207349e+00 -2.028028e-01 -4.271602e-03 8.898638e-02 -2.246685e-01 1.931902e-01 -2.161089e-01 2.666001e-01 -5.374987e-02 1.462931e-01 -1.363452e-01 1.418303e-01 -3.278477e-02 2.824325e-01
<VARIANCE> 39
 9.382387e+00 3.739808e+01 1.721132e+01 5.063198e+01 1.719662e+01 3.601045e+01 2.997728e+01 3.825234e+01 4.315227e+01 1.967773e+01 2.494555e+01 2.672421e+01 3.684705e+01 1.482589e+00 9.100738e-01 1.284845e+00 2.914916e+00 2.372890e+00 2.867500e+00 3.581255e+00 4.460328e+00 4.827365e+00 2.041013e+00 1.923819e+00 1.758037e+00 2.030673e+00 1.695001e-01 1.947138e-01 2.386472e-01 4.074893e-01 3.608512e-01 3.943502e-01 5.259047e-01 8.585796e-01 9.986794e-01 4.153338e-01 3.543037e-01 3.485101e-01 2.156985e-01
<GCONST> 1.121653e+02
<TRANSP> 5
 0.000000e+00 1.000000e+00 0.000000e+00 0.000000e+00 0.000000e+00
 0.000000e+00 7.130035e-01 2.869966e-01 0.000000e+00 0.000000e+00
 0.000000e+00 0.000000e+00 8.591672e-01 1.408328e-01 0.000000e+00
 0.000000e+00 0.000000e+00 0.000000e+00 8.992136e-01 1.007864e-01
 0.000000e+00 0.000000e+00 0.000000e+00 0.000000e+00 0.000000e+00
<ENDHMM>
~h "p"
<BEGINHMM>
<NUMSTATES> 5
<STATE> 2
<MEAN> 39
 -1.507510e+01 3.190036e+00 -4.157408e+00 8.975962e+00 -5.686689e+00 1.154366e+01 -3.579766e+00 7.244165e+00 -3.538440e+00 3.106610e-01 -2.111768e+00 -3.020177e+00 4.715294e+01 1.156669e+00 -2.514462e+00 1.341244e+00 -1.823295e+00 1.554291e+00 -2.660498e+00 7.947710e-01 -2.649501e+00 -3.417150e-01 -1.530579e+00 6.777527e-02 8.421960e-02 5.056808e+00 7.171428e-01 -1.029324e+00 8.511546e-01 -7.543619e-01 9.139498e-01 -1.002779e+00 4.154994e-01 -1.168842e+00 -2.735239e-02 -7.806025e-01 -5.575140e-02 -2.838630e-02 2.531658e+00
<VARIANCE> 39
 6.434128e+00 9.429958e+00 9.078540e+00 7.127875e+00 1.133778e+01 1.564136e+01 2.419594e+01 1.940652e+01 1.712908e+01 1.287343e+01 1.159978e+01 9.735184e+00 8.719702e+00 1.549598e+00 4.871660e+00 3.312799e+00 3.646932e+00 4.003303e+00 6.475008e+00 3.325144e+00 7.468957e+00 2.715240e+00 3.986043e+00 1.690815e+00 1.597563e+00 1.965607e+01 9.618807e-02 2.840252e-01 1.912664e-01 3.402621e-01 3.617334e-01 5.502768e-01 4.635222e-01 5.739825e-01 4.115978e-01 3.264014e-01 2.570628e-01 2.568002e-01 5.760165e-01
<GCONST> 1.063576e+02
<STATE> 3
<MEAN> 39
 -5.137863e+00 -9.931966e+00 5.402087e+00 4.018319e-01 4.459774e+00 -3.802832e-01 1.457407e+00 -5.974409e+00 -4.039489e+00 -9.394897e+00 -3.917213e+00 -3.199598e+00 7.714297e+01 1.732091e+00 -1.333674e-01 3.724274e-01 7.803678e-01 -1.227281e-01 8.759565e-01 2.881829e-02 4.121472e-01 5.519967e-02 -4.672549e-01 -9.688188e-01 -3.263388e-01 7.379535e-01 -3.096496e-01 1.062964e+00 -7.374041e-01 9.469949e-01 -9.972064e-01 1.117380e+00 -5.129773e-01 1.112752e+00 -6.638574e-02 7.165547e-01 -9.003444e-02 -5.166428e-02 -2.268450e+00
<VARIANCE> 39
 1.739316e+01 1.604939e+01 1.676328e+01 3.311657e+01 2.738213e+01 5.432660e+01 2.762433e+01 4.689154e+01 2.705906e+01 2.333819e+01 2.924201e+01 2.280345e+01 5.597654e+01 1.396482e+00 6.833934e+00 4.839718e+00 6.918564e+00 8.898005e+00 1.223565e+01 4.517175e+00 1.241373e+01 2.330384e+00 4.426987e+00 1.975360e+00 1.443079e+00 3.949184e+01 1.773678e-01 5.560207e-01 4.349606e-01 6.983940e-01 7.757033e-01 1.699911e+00 7.096733e-01 1.675159e+00 5.457243e-01 4.969898e-01 5.153913e-01 3.426080e-01 3.229837e+00
<GCONST> 1.316916e+02
<STATE> 4
<MEAN> 39
 -3.653699e+00 4.698885e+00 9.752299e-01 1.308133e+01 -3.761853e+00 1.064212e+01 -4.350410e+00 2.967870e+00 -8.236708e+00 -4.570754e+00 -7.593019e+00 -6.423850e+00 5.657815e+01 -6.631573e-01 9.718558e-01 -3.431574e-01 3.359274e-01 -2.129810e-01 2.982830e-01 -1.974511e-01 3.038062e-01 -3.070791e-01 3.560456e-01 1.411298e-01 -9.763210e-02 -1.413994e+00 -1.654163e-01 -2.073723e-01 9.754433e-02 -2.748829e-01 2.323792e-01 -1.992624e-01 1.351824e-01 -1.507621e-01 8.675773e-02 -7.664290e-02 9.485401e-02 5.380651e-02 2.756838e-01
<VARIANCE> 39
 1.619469e+01 3.035062e+01 1.743276e+01 1.686120e+01 1.707518e+01 1.661325e+01 1.866948e+01 1.655558e+01 2.114152e+01 1.734570e+01 1.518948e+01 1.558593e+01 2.309236e+01 6.483387e-01 1.583068e+00 1.329938e+00 1.921268e+00 2.225937e+00 1.805750e+00 1.587168e+00 1.517711e+00 1.804898e+00 1.670344e+00 1.200764e+00 1.204147e+00 1.008448e+00 7.226691e-02 1.299822e-01 2.227401e-01 3.022470e-01 4.183151e-01 5.050004e-01 3.249813e-01 3.814626e-01 3.426954e-01 3.060012e-01 2.600670e-01 2.360290e-01 1.069811e-01
<GCONST> 9.587646e+01
<TRANSP> 5
 0.000000e+00 1.000000e+00 0.000000e+00 0.000000e+00 0.000000e+00
 0.000000e+00 6.714118e-01 3.285882e-01 0.000000e+00 0.000000e+00
 0.000000e+00 0.000000e+00 8.169111e-01 1.830889e-01 0.000000e+00
 0.000000e+00 0.000000e+00 0.000000e+00 9.049726e-01 9.502739e-02
 0.000000e+00 0.000000e+00 0.000000e+00 0.000000e+00 0.000000e+00
<ENDHMM>
~h "s"
<BEGINHMM>
<NUMSTATES> 5
<STATE> 2
<MEAN> 39
 -1.572259e+01 -2.983608e+00 -2.191648e+00 8.411058e+00 -3.724947e+00 9.016468e+00 -1.193583e+00 1.911831e+00 -4.123501e+00 -3.614241e-01 -3.410884e+00 -1.002922e+00 5.227007e+01 -2.012374e+00 -4.052828e+00 1.248677e+00 -2.135890e+00 2.089703e+00 -2.784766e+00 2.322180e+00 -3.178778e+00 4.132380e-01 -7.435058e-01 1.942517e-01 1.410657e+00 3.828533e+00 -7.720757e-01 -8.345456e-01 4.790536e-01 -1.199331e+00 1.017729e+00 -8.498732e-01 4.456501e-01 -6.853793e-01 9.533302e-02 -3.055123e-01 2.201913e-01 7.014381e-02 1.350334e+00
<VARIANCE> 39
 1.806294e+01 8.501612e+01 3.197810e+01 2.872920e+01 2.831167e+01 5.720038e+01 5.254492e+01 7.122867e+01 3.163711e+01 2.561342e+01 2.876238e+01 3.041432e+01 4.589478e+01 3.132508e+00 8.703115e+00 4.353731e+00 7.224219e+00 6.701408e+00 8.256935e+00 5.164454e+00 8.249973e+00 3.280501e+00 2.793776e+00 2.673262e+00 2.406147e+00 8.448516e+00 2.516144e-01 1.757470e+00 7.259417e-01 6.893126e-01 6.873511e-01 1.188983e+00 9.581398e-01 1.552573e+00 5.248924e-01 4.734110e-01 4.829032e-01 6.218783e-01 7.884288e-01
<GCONST> 1.353362e+02
<STATE> 3
<MEAN> 39
 -2.869871e+01 -1.859757e+01 4.690501e+00 -1.026779e+01 1.154325e+01 -5.808904e+00 7.595985e+00 -1.053683e+01 -2.169303e+00 -4.868051e+00 2.741228e-01 1.708989e+00 7.477425e+01 -2.009612e+00 -1.105946e+00 1.276632e+00 -3.344177e+00 2.098758e+00 -1.197867e+00 2.978389e-01 -6.371706e-01 1.348341e-01 -6.021149e-01 8.612932e-01 -3.411398e-01 3.175400e+00 7.339426e-01 9.716349e-01 -2.603826e-01 9.273564e-01 -9.131809e-01 1.129864e+00 -6.900060e-01 8.693258e-01 -1.202494e-01 2.085558e-01 -1.719647e-01 -2.336199e-01 -1.214378e+00
<VARIANCE> 39
 1.624796e+01 2.378001e+01 5.127201e+01 4.495874e+01 4.027092e+01 4.001905e+01 3.212196e+01 3.395433e+01 2.913981e+01 2.277828e+01 3.268814e+01 2.085071e+01 3.002284e+01 3.317755e+00 5.595498e+00 3.980265e+00 5.855007e+00 6.363987e+00 7.411386e+00 4.300307e+00 5.509563e+00 2.185093e+00 2.523349e+00 2.083228e+00 1.783094e+00 6.285406e+00 3.173093e-01 1.067841e+00 7.749529e-01 7.115609e-01 7.460753e-01 7.778501e-01 7.318867e-01 1.035444e+00 4.524346e-01 5.027552e-01 4.609326e-01 4.830956e-01 4.022862e-01
<GCONST> 1.277349e+02
<STATE> 4
<MEAN> 39
 -2.884082e+01 -1.826763e+01 1.063279e+01 -1.270317e+01 9.846744e+00 1.702269e+00 3.734924e+00 -7.862860e+00 -2.351336e+00 -5.092000e+00 1.198105e-01 1.316241e+00 7.384200e+01 9.797947e-01 7.361435e-01 3.052724e-01 8.692936e-01 -9.834139e-01 1.414283e+00 -6.418107e-01 1.007971e+00 -4.826305e-01 2.378233e-01 -5.981916e-01 -1.301464e-02 -1.614302e+00 2.213216e-01 2.690101e-01 -1.724162e-01 2.983398e-01 -2.464924e-01 9.925491e-02 -1.405742e-01 1.869494e-01 -6.948575e-02 1.043607e-01 -6.751782e-02 -3.929568e-02 -3.526665e-01
<VARIANCE> 39
 1.991007e+01 1.773469e+01 2.959044e+01 2.467412e+01 3.620980e+01 5.340712e+01 2.651901e+01 3.340244e+01 2.609167e+01 2.033688e+01 2.687480e+01 1.467699e+01 4.293177e+01 1.509801e+00 2.205894e+00 1.411843e+00 1.998107e+00 2.184599e+00 2.190570e+00 2.184274e+00 2.913635e+00 1.968687e+00 1.718087e+00 1.557564e+00 9.806207e-01 2.574979e+00 1.837965e-01 2.641976e-01 2.096141e-01 2.466055e-01 3.019384e-01 3.636715e-01 3.758733e-01 4.220558e-01 3.728645e-01 3.267257e-01 3.131067e-01 2.144461e-01 2.009458e-01
<GCONST> 1.062981e+02
<TRANSP> 5
 0.000000e+00 1.000000e+00 0.000000e+00 0.000000e+00 0.000000e+00
 0.000000e+00 7.373586e-01 2.626414e-01 0.000000e+00 0.000000e+00
 0.000000e+00 0.000000e+00 7.681429e-01 2.318571e-01 0.000000e+00
 0.000000e+00 0.000000e+00 0.000000e+00 8.984255e-01 1.015746e-01
 0.000000e+00 0.000000e+00 0.000000e+00 0.000000e+00 0.000000e+00
<ENDHMM>
~h "sil"
<BEGINHMM>
<NUMSTATES> 5
<STATE> 2
<MEAN> 39
 -2.026876e+01 9.327064e-01 -7.408881e-01 2.895244e+00 -2.558277e+00 1.284991e+01 -6.768713e+00 3.864711e+00 -4.471345e+00 -2.109730e-01 -3.430120e+00 -2.232767e+00 4.727456e+01 3.719654e-01 8.892799e-01 -6.050521e-01 7.983665e-01 -8.044716e-01 5.040095e-01 -2.489272e-01 6.995919e-01 2.403749e-01 2.355729e-01 3.264841e-01 -1.571114e-01 -9.548894e-01 2.180164e-02 -2.548285e-01 -3.267399e-02 1.280286e-02 4.230660e-02 -2.494679e-01 2.238839e-01 -2.055706e-01 6.083415e-02 -6.507844e-02 9.687335e-02 4.294024e-02 3.282673e-01
<VARIANCE> 39
 9.414883e+01 8.175523e+01 7.078738e+01 4.224589e+01 2.259185e+01 2.365926e+01 3.871268e+01 2.214865e+01 2.650954e+01 1.942734e+01 1.459811e+01 1.342174e+01 1.608349e+02 1.592731e+00 2.011930e+00 1.374890e+00 2.004394e+00 2.502147e+00 2.435526e+00 2.081632e+00 1.963191e+00 1.887721e+00 1.413523e+00 1.318042e+00 1.089110e+00 1.709153e+00 2.375925e-01 1.615170e-01 1.489916e-01 2.062678e-01 2.890186e-01 3.144125e-01 2.851043e-01 3.354015e-01 3.339174e-01 2.648857e-01 2.562295e-01 1.708667e-01 1.622544e-01
<GCONST> 1.066780e+02
<STATE> 3
~s "silst"
<STATE> 4
<MEAN> 39
 -1.466130e+01 3.427430e+00 -4.666335e+00 9.165255e+00 -5.109371e+00 1.149730e+01 -4.456109e+00 6.375825e+00 -4.041472e+00 5.004568e-02 -2.349235e+00 -3.089136e+00 4.723749e+01 -8.804362e-02 1.256833e-01 -1.179078e-01 5.592435e-03 -8.215727e-02 -7.613878e-02 1.490021e-02 1.521407e-01 1.013487e-01 -4.228413e-03 4.387445e-02 5.157576e-02 -1.760861e-01 4.888579e-03 -1.273755e-01 4.748094e-02 -3.026710e-02 1.059478e-02 -4.403760e-02 2.530701e-02 -1.148503e-01 -5.857551e-02 -2.181712e-02 -1.028417e-02 5.146478e-03 1.183051e-01
<VARIANCE> 39
 5.104461e+00 6.695339e+00 6.277556e+00 5.694983e+00 9.458360e+00 1.477190e+01 2.111626e+01 2.076178e+01 1.638994e+01 1.264384e+01 1.131734e+01 1.061194e+01 6.482948e+00 1.074296e-01 3.364954e-01 4.151414e-01 4.480334e-01 5.957841e-01 6.826505e-01 8.123112e-01 9.413601e-01 9.148802e-01 9.084630e-01 8.081555e-01 7.251927e-01 9.558169e-02 2.995566e-02 1.408230e-01 8.896112e-02 1.167044e-01 1.463464e-01 1.983420e-01 1.910104e-01 2.428118e-01 2.010970e-01 1.886600e-01 1.747640e-01 1.541788e-01 9.905479e-02
<GCONST> 6.671811e+01
<TRANSP> 5
 0.000000e+00 1.000000e+00 0.000000e+00 0.000000e+00 0.000000e+00
 0.000000e+00 5.891733e-01 1.488845e-01 2.619422e-01 0.000000e+00
 0.000000e+00 0.000000e+00 7.895471e-01 2.104530e-01 0.000000e+00
 0.000000e+00 3.582656e-03 0.000000e+00 8.896755e-01 1.067419e-01
 0.000000e+00 0.000000e+00 0.000000e+00 0.000000e+00 0.000000e+00
<ENDHMM>
