~o
<STREAMINFO> 1 39
<VECSIZE> 39<NULLD><MFCC_D_A_0><DIAGC>
~s "silst"
<MEAN> 39
 -1.684886e+01 1.638827e+00 -7.226336e+00 6.948381e+00 -7.239581e+00 8.930840e+00 -5.815679e+00 5.415713e+00 -5.335283e+00 5.133017e-01 -3.933799e-02 -1.779943e+00 4.602784e+01 5.706847e-01 -8.530847e-02 -3.062890e-02 4.662233e-01 -1.087538e-01 -6.942202e-02 3.148581e-01 1.768206e-01 -1.165335e-01 3.240321e-02 1.155194e-01 -1.839624e-02 3.574433e-01 -3.505851e-02 1.891777e-01 -1.378831e-02 -1.637521e-01 1.364966e-01 1.061010e-01 -1.215872e-01 -7.857255e-03 2.285318e-01 1.441996e-02 -1.536129e-01 2.015548e-03 -6.938130e-02
<VARIANCE> 39
 1.038645e+02 7.674574e+01 3.764471e+01 4.961005e+01 3.641145e+01 5.946926e+01 5.394215e+01 3.898637e+01 4.824637e+01 2.688935e+01 2.913239e+01 2.142769e+01 1.221217e+02 8.669974e+00 6.599576e+00 2.098641e+00 4.513962e+00 3.465838e+00 4.719710e+00 4.162949e+00 3.712425e+00 4.914361e+00 2.718651e+00 3.017675e+00 1.852216e+00 8.306684e+00 1.217577e+00 1.107528e+00 3.803639e-01 7.952920e-01 6.522499e-01 8.976083e-01 7.588115e-01 7.159217e-01 8.854498e-01 5.331416e-01 5.942100e-01 3.783502e-01 1.187661e+00
<GCONST> 1.360791e+02
~h "k"
<BEGINHMM>
<NUMSTATES> 5
<STATE> 2
<MEAN> 39
 -1.304289e+01 1.215625e+00 -5.994170e+00 7.884200e+00 -4.920243e+00 1.074101e+01 -4.292907e+00 6.176577e+00 -3.216211e+00 1.468515e+00 -1.737596e+00 -2.717562e+00 4.966756e+01 -5.137721e-01 -4.286464e+00 4.457550e-01 -1.853547e+00 2.089415e+00 -2.990572e+00 5.655829e-01 -3.407835e+00 1.379134e-01 -9.204974e-02 9.798905e-02 -1.228224e-02 4.786304e+00 -2.256145e-01 -1.955393e+00 2.331895e-01 -1.086324e+00 8.872485e-01 -1.371081e+00 1.978353e-01 -1.742016e+00 9.182581e-02 -3.009283e-01 -2.000250e-02 -1.198591e-01 2.458976e+00
<VARIANCE> 39
 1.400465e+01 4.067075e+01 1.853600e+01 1.929530e+01 2.267268e+01 3.254457e+01 3.324201e+01 2.802327e+01 2.056143e+01 1.850300e+01 1.501170e+01 1.378270e+01 2.258131e+01 1.262810e+00 1.713509e+01 2.094123e+00 6.227992e+00 5.965418e+00 1.087223e+01 3.400586e+00 1.357499e+01 2.857352e+00 2.747949e+00 1.945983e+00 1.829569e+00 2.227269e+01 1.453958e-01 1.282160e+00 3.073969e-01 4.530721e-01 5.985228e-01 8.684344e-01 5.498481e-01 8.710747e-01 5.016618e-01 4.335913e-01 3.511721e-01 3.129859e-01 1.133437e+00
<GCONST> 1.231642e+02
<STATE> 3
<MEAN> 39
 -1.687744e+01 -2.724795e+01 -1.772948e+00 -7.697856e+00 7.663605e+00 -8.546550e+00 -1.141395e+00 -1.997024e+01 -8.176993e-01 -1.654802e+00 -2.460510e+00 -4.704593e+00 8.437217e+01 -1.412038e-01 -1.945280e+00 7.009420e-01 -1.061480e+00 3.522896e-01 -7.174573e-01 -6.324231e-02 -2.213745e+00 1.357620e-01 -1.229927e-03 -3.249569e-01 -4.922474e-01 1.961950e+00 3.481833e-01 1.574330e+00 -1.839525e-01 9.705732e-01 -8.830876e-01 1.354586e+00 -3.682860e-01 1.492765e+00 -1.650903e-01 4.096602e-01 -1.143168e-01 1.268423e-01 -2.261425e+00
<VARIANCE> 39
 7.185736e+00 1.289441e+01 1.541531e+01 1.955202e+01 1.947708e+01 3.955194e+01 2.698936e+01 3.536420e+01 3.093541e+01 2.507205e+01 2.490535e+01 2.758143e+01 2.098968e+01 1.153472e+00 1.679857e+01 1.534008e+00 7.126821e+00 6.196506e+00 1.309048e+01 2.667684e+00 1.396069e+01 2.466762e+00 3.513481e+00 1.686174e+00 1.894563e+00 3.282229e+01 1.697157e-01 1.198505e+00 3.923052e-01 5.355974e-01 6.489491e-01 1.082631e+00 4.803226e-01 9.681124e-01 4.837835e-01 5.923370e-01 3.490202e-01 4.459265e-01 1.657641e+00
<GCONST> 1.249576e+02
<STATE> 4
<MEAN> 39
 -1.057403e+01 -1.640590e+01 -4.771762e+00 4.188112e+00 -1.840269e+00 5.932383e+00 -8.560168e+00 -1.051834e+01 -4.871864e+00 3.631144e+00 -5.584751e+00 -4.188415e+00 6.409150e+01 7.664929e-01 1.905483e+00 -9.839771e-01 1.891728e+00 -1.035182e+00 1.770388e+00 -6.212034e-01 1.791635e+00 -4.549992e-01 4.741444e-01 -8.255922e-02 1.906744e-01 -2.653358e+00 -1.818427e-01 -7.349370e-03 -1.771483e-02 -1.285466e-01 2.161811e-01 -2.156324e-01 2.478832e-01 -4.930737e-02 1.214320e-01 -1.440931e-01 1.537144e-01 -8.022311e-02 3.040106e-01
<VARIANCE> 39
 1.277922e+01 3.641285e+01 2.115378e+01 5.108728e+01 2.185476e+01 4.508337e+01 3.204742e+01 4.393106e+01 4.600146e+01 1.963475e+01 2.458662e+01 2.614984e+01 4.475310e+01 1.318460e+00 1.141613e+00 1.447325e+00 2.166748e+00 2.320363e+00 2.762753e+00 3.378286e+00 4.904116e+00 4.235427e+00 2.149842e+00 1.973535e+00 1.922231e+00 2.680376e+00 1.912543e-01 2.535457e-01 3.509840e-01 4.126202e-01 3.352475e-01 4.213582e-01 5.475004e-01 9.938615e-01 9.530259e-01 4.794925e-01 3.748256e-01 3.806649e-01 3.107729e-01
<GCONST> 1.153434e+02
<TRANSP> 5
 0.000000e+00 1.000000e+00 0.000000e+00 0.000000e+00 0.000000e+00
 0.000000e+00 7.250081e-01 2.749919e-01 0.000000e+00 0.000000e+00
 0.000000e+00 0.000000e+00 8.318747e-01 1.681252e-01 0.000000e+00
 0.000000e+00 0.000000e+00 0.000000e+00 8.772795e-01 1.227206e-01
 0.000000e+00 0.000000e+00 0.000000e+00 0.000000e+00 0.000000e+00
<ENDHMM>
~h "p"
<BEGINHMM>
<NUMSTATES> 5
<STATE> 2
<MEAN> 39
 -1.327508e+01 3.349066e+00 -5.728800e+00 7.675313e+00 -6.545082e+00 1.048190e+01 -4.951459e+00 6.662869e+00 -3.384170e+00 3.554567e-01 -2.275331e+00 -3.067442e+00 4.817341e+01 8.696946e-01 -2.393149e+00 1.481476e+00 -1.505798e+00 1.659431e+00 -2.511400e+00 7.668982e-01 -2.474170e+00 -4.197675e-01 -1.522596e+00 1.903254e-01 1.195024e-01 4.635957e+00 5.927455e-01 -1.032751e+00 9.214634e-01 -5.963160e-01 9.710951e-01 -9.715343e-01 4.408119e-01 -1.117724e+00 -9.613758e-02 -7.989364e-01 -3.534138e-03 -5.067727e-02 2.389006e+00
<VARIANCE> 39
 1.409524e+01 9.148357e+00 1.727266e+01 1.130074e+01 1.238600e+01 1.661116e+01 2.443459e+01 1.760211e+01 1.552825e+01 1.224356e+01 1.081489e+01 9.158800e+00 1.056143e+01 1.391426e+00 5.006737e+00 3.916568e+00 3.379350e+00 4.408678e+00 6.243958e+00 2.940218e+00 6.998583e+00 2.597141e+00 4.042720e+00 1.692736e+00 1.528395e+00 1.858569e+01 1.205259e-01 2.798797e-01 2.219339e-01 3.821025e-01 3.608355e-01 5.381097e-01 4.055380e-01 5.184255e-01 4.012477e-01 3.233948e-01 2.612956e-01 2.448812e-01 5.758725e-01
<GCONST> 1.080912e+02
<STATE> 3
<MEAN> 39
 -5.288912e+00 -1.021620e+01 5.255235e+00 2.267286e-01 5.171639e+00 -2.010308e+00 6.665187e-01 -7.115984e+00 -4.887583e+00 -9.812856e+00 -2.887500e+00 -3.165183e+00 7.773534e+01 1.658914e+00 -3.453551e-01 6.688645e-01 7.119562e-01 2.609317e-01 7.165031e-01 3.142613e-01 1.708664e-01 2.625075e-02 -6.814145e-01 -9.463574e-01 -3.012176e-01 1.145519e+00 -2.516951e-01 1.230352e+00 -9.745222e-01 9.859455e-01 -1.261840e+00 1.359460e+00 -6.050293e-01 1.350380e+00 5.729327e-02 8.707970e-01 -2.078238e-01 -4.877417e-02 -2.618795e+00
<VARIANCE> 39
 1.361639e+01 1.397665e+01 1.642375e+01 3.001444e+01 2.571750e+01 4.878086e+01 3.137669e+01 4.091201e+01 2.834848e+01 2.416536e+01 2.840625e+01 2.173980e+01 4.881871e+01 1.236151e+00 7.241574e+00 6.153606e+00 6.276901e+00 1.009998e+01 1.286193e+01 4.174739e+00 1.291046e+01 2.401092e+00 5.130460e+00 2.160815e+00 1.424134e+00 4.009456e+01 1.844232e-01 4.903550e-01 5.427120e-01 6.032054e-01 7.919016e-01 1.392383e+00 6.481591e-01 1.329713e+00 5.761115e-01 5.528618e-01 5.119835e-01 3.429236e-01 2.476002e+00
<GCONST> 1.307397e+02
<STATE> 4
<MEAN> 39
 -3.072086e+00 3.584700e+00 -3.620482e-01 1.213961e+01 -4.240490e+00 9.722633e+00 -4.861125e+00 2.599188e+00 -8.021365e+00 -4.669149e+00 -7.061769e+00 -5.951996e+00 5.741892e+01 -5.184430e-01 1.151898e+00 -5.360003e-01 4.205064e-01 -4.857520e-01 4.509981e-01 -3.709511e-01 4.366168e-01 -3.572982e-01 4.616801e-01 9.269878e-02 -1.291099e-01 -1.656991e+00 -1.927178e-01 -2.161763e-01 1.362848e-01 -3.153577e-01 2.763463e-01 -2.677994e-01 1.463564e-01 -2.004872e-01 7.497916e-02 -9.176577e-02 1.334071e-01 4.942555e-02 3.426454e-01
<VARIANCE> 39
 1.224964e+01 3.177021e+01 2.544114e+01 1.902486e+01 1.784546e+01 1.954281e+01 2.164183e+01 1.691010e+01 2.263602e+01 1.749260e+01 1.732489e+01 1.584492e+01 2.332822e+01 7.450582e-01 1.439356e+00 1.681527e+00 2.242766e+00 2.871694e+00 2.285163e+00 1.805971e+00 1.977029e+00 1.941556e+00 1.848492e+00 1.357646e+00 1.219265e+00 1.542466e+00 6.798574e-02 1.380587e-01 2.523636e-01 3.060688e-01 4.605992e-01 5.716538e-01 3.248717e-01 4.414636e-01 4.123879e-01 3.443826e-01 3.095754e-01 2.435665e-01 1.548415e-01
<GCONST> 1.001849e+02
<TRANSP> 5
 0.000000e+00 1.000000e+00 0.000000e+00 0.000000e+00 0.000000e+00
 0.000000e+00 6.839482e-01 3.160518e-01 0.000000e+00 0.000000e+00
 0.000000e+00 0.000000e+00 7.890853e-01 2.109147e-01 0.000000e+00
 0.000000e+00 0.000000e+00 0.000000e+00 8.967524e-01 1.032477e-01
 0.000000e+00 0.000000e+00 0.000000e+00 0.000000e+00 0.000000e+00
<ENDHMM>
~h "s"
<BEGINHMM>
<NUMSTATES> 5
<STATE> 2
<MEAN> 39
 -1.449651e+01 -1.945950e+00 -3.214432e+00 7.908407e+00 -4.910833e+00 8.550141e+00 -2.306044e+00 2.601566e+00 -3.768394e+00 -1.732556e-01 -3.038200e+00 -1.485934e+00 5.216211e+01 -2.001497e+00 -3.658530e+00 1.386305e+00 -1.613428e+00 1.890060e+00 -2.562803e+00 2.224555e+00 -2.908530e+00 4.203294e-01 -7.280206e-01 2.136755e-01 1.214660e+00 3.382594e+00 -8.046266e-01 -8.865039e-01 5.238919e-01 -1.070111e+00 1.044587e+00 -8.297236e-01 4.842842e-01 -7.503273e-01 1.129759e-01 -3.056376e-01 1.862676e-01 1.275095e-01 1.314416e+00
<VARIANCE> 39
 2.024586e+01 7.203634e+01 3.458432e+01 2.897046e+01 2.995811e+01 5.281632e+01 4.924982e+01 6.367063e+01 2.985115e+01 2.569776e+01 2.783285e+01 2.780076e+01 3.743203e+01 3.418472e+00 9.060650e+00 4.773451e+00 6.690850e+00 7.015234e+00 7.818786e+00 5.092443e+00 8.513683e+00 3.252844e+00 3.031487e+00 2.731192e+00 2.488891e+00 8.303349e+00 2.559490e-01 1.544955e+00 7.444280e-01 7.719962e-01 7.236020e-01 1.087869e+00 8.922325e-01 1.447111e+00 5.173959e-01 5.067647e-01 4.937272e-01 5.493885e-01 6.815132e-01
<GCONST> 1.347063e+02
<STATE> 3
<MEAN> 39
 -2.880010e+01 -1.816288e+01 5.154225e+00 -9.510786e+00 1.148261e+01 -5.895393e+00 7.169701e+00 -1.038570e+01 -1.558019e+00 -5.006350e+00 4.949838e-01 1.661297e+00 7.443050e+01 -2.155777e+00 -1.302809e+00 1.435392e+00 -3.339332e+00 2.349182e+00 -1.084736e+00 3.725185e-01 -7.284606e-01 6.083103e-02 -6.721492e-01 8.461827e-01 -2.386996e-01 3.219824e+00 7.909554e-01 9.533117e-01 -3.237238e-01 7.918860e-01 -9.686372e-01 1.088948e+00 -7.096421e-01 8.627245e-01 -1.339262e-01 2.172969e-01 -1.462528e-01 -2.386623e-01 -1.162066e+00
<VARIANCE> 39
 1.707977e+01 2.438981e+01 4.947762e+01 4.673273e+01 4.050153e+01 3.770737e+01 3.225657e+01 3.285626e+01 3.109008e+01 2.385524e+01 3.140827e+01 2.042261e+01 2.781989e+01 3.550273e+00 5.451077e+00 4.306695e+00 5.369864e+00 7.029381e+00 7.430410e+00 4.507807e+00 5.677565e+00 2.303522e+00 2.464243e+00 2.015429e+00 1.755249e+00 5.936899e+00 3.351793e-01 9.736243e-01 8.081941e-01 8.271288e-01 8.064077e-01 8.260363e-01 7.380028e-01 1.058223e+00 4.967660e-01 4.828949e-01 4.685647e-01 4.670787e-01 3.845255e-01
<GCONST> 1.281547e+02
<STATE> 4
<MEAN> 39
 -2.793501e+01 -1.744888e+01 1.068407e+01 -1.214668e+01 9.063250e+00 1.977456e+00 2.963566e+00 -7.089904e+00 -2.584807e+00 -5.016174e+00 -1.313126e-01 1.187924e+00 7.292628e+01 1.193048e+00 9.561571e-01 1.284486e-01 9.346736e-01 -1.252412e+00 1.438835e+00 -7.896388e-01 1.131049e+00 -4.911285e-01 3.272098e-01 -6.112018e-01 -7.221993e-02 -1.750231e+00 1.917913e-01 2.566740e-01 -2.199075e-01 2.921557e-01 -2.372933e-01 7.842972e-02 -1.031664e-01 1.491951e-01 -1.182690e-02 1.110565e-01 -2.101734e-02 -4.517761e-02 -3.203053e-01
<VARIANCE> 39
 2.735184e+01 2.321377e+01 2.911551e+01 2.659676e+01 4.315562e+01 5.661547e+01 2.977752e+01 3.898492e+01 3.012102e+01 2.109825e+01 2.884201e+01 1.491102e+01 5.084148e+01 1.813141e+00 2.597997e+00 1.849971e+00 2.071359e+00 2.550401e+00 2.181221e+00 2.284525e+00 2.945621e+00 2.065805e+00 1.859349e+00 1.575318e+00 1.081006e+00 2.592096e+00 2.385566e-01 3.078946e-01 2.558963e-01 2.577568e-01 3.302158e-01 3.779810e-01 3.973470e-01 4.707772e-01 4.321360e-01 3.560996e-01 3.628199e-01 2.246433e-01 2.557895e-01
<GCONST> 1.106051e+02
<TRANSP> 5
 0.000000e+00 1.000000e+00 0.000000e+00 0.000000e+00 0.000000e+00
 0.000000e+00 7.539884e-01 2.460115e-01 0.000000e+00 0.000000e+00
 0.000000e+00 0.000000e+00 7.764468e-01 2.235532e-01 0.000000e+00
 0.000000e+00 0.000000e+00 0.000000e+00 9.009090e-01 9.909098e-02
 0.000000e+00 0.000000e+00 0.000000e+00 0.000000e+00 0.000000e+00
<ENDHMM>
~h "sil"
<BEGINHMM>
<NUMSTATES> 5
<STATE> 2
<MEAN> 39
 -1.590425e+01 -3.345876e-01 -2.920395e+00 4.826245e+00 -4.502699e+00 1.238449e+01 -6.714641e+00 3.194127e+00 -4.317998e+00 1.065182e+00 -2.915375e+00 -2.935768e+00 4.964240e+01 1.315928e-01 1.007276e+00 -7.367766e-01 6.170579e-01 -3.971308e-01 2.319275e-01 -9.100681e-02 7.331963e-01 4.441601e-01 2.665925e-01 3.543943e-01 -1.336724e-01 -9.749554e-01 -7.488970e-02 -1.948153e-01 5.196948e-02 -1.102435e-01 1.436530e-01 -2.673122e-01 1.274841e-01 -1.271632e-01 1.380268e-02 -9.282845e-02 1.395263e-02 8.449267e-02 2.376351e-01
<VARIANCE> 39
 7.884370e+01 5.660334e+01 5.813117e+01 3.698653e+01 2.366328e+01 2.739473e+01 3.568708e+01 2.583051e+01 2.406274e+01 2.279364e+01 1.611165e+01 1.547138e+01 9.817001e+01 9.763322e-01 1.448733e+00 1.727879e+00 1.918567e+00 2.473475e+00 2.297406e+00 1.798652e+00 1.935206e+00 2.113627e+00 1.600337e+00 1.389448e+00 1.211027e+00 7.249705e-01 1.034082e-01 1.670783e-01 1.787304e-01 2.267074e-01 3.581818e-01 3.469013e-01 3.226555e-01 3.487962e-01 3.743120e-01 2.942728e-01 2.722220e-01 2.153296e-01 7.704414e-02
<GCONST> 1.042740e+02
<STATE> 3
~s "silst"
<STATE> 4
<MEAN> 39
 -1.273432e+01 3.781876e+00 -6.670681e+00 7.676743e+00 -6.424149e+00 1.008537e+01 -5.875050e+00 6.016938e+00 -3.624497e+00 2.739677e-01 -2.116712e+00 -2.968450e+00 4.812092e+01 -8.127776e-02 1.070239e-01 -1.016796e-01 -2.624963e-02 -7.971108e-02 -4.038476e-02 1.554076e-02 1.187658e-01 8.284283e-02 -1.118591e-02 2.436664e-02 4.428501e-02 -1.523038e-01 3.268803e-03 -1.057151e-01 4.243384e-02 -4.515135e-03 8.443140e-03 -3.265402e-02 2.523286e-02 -8.248020e-02 -5.426368e-02 -1.361861e-02 3.782682e-03 2.111984e-03 8.953698e-02
<VARIANCE> 39
 1.295584e+01 6.570993e+00 1.448116e+01 1.023452e+01 1.179387e+01 1.546467e+01 2.017970e+01 1.658417e+01 1.441985e+01 1.169968e+01 1.093661e+01 1.000554e+01 8.422183e+00 9.988244e-02 3.249658e-01 3.762434e-01 4.513658e-01 5.954565e-01 6.871240e-01 8.125503e-01 8.748689e-01 8.878920e-01 9.046642e-01 8.352553e-01 7.551468e-01 9.236430e-02 2.761550e-02 1.107806e-01 8.590732e-02 1.107848e-01 1.410991e-01 1.814908e-01 1.850840e-01 2.134666e-01 1.937713e-01 1.902745e-01 1.807168e-01 1.598615e-01 6.311532e-02
<GCONST> 6.764819e+01
<TRANSP> 5
 0.000000e+00 1.000000e+00 0.000000e+00 0.000000e+00 0.000000e+00
 0.000000e+00 6.901611e-01 6.899169e-02 2.408472e-01 0.000000e+00
 0.000000e+00 0.000000e+00 8.453320e-01 1.546679e-01 0.000000e+00
 0.000000e+00 4.231289e-03 0.000000e+00 8.948586e-01 1.009101e-01
 0.000000e+00 0.000000e+00 0.000000e+00 0.000000e+00 0.000000e+00
<ENDHMM>
