~o
<STREAMINFO> 1 39
<VECSIZE> 39<NULLD><MFCC_D_A_0><DIAGC>
~s "silst"
<MEAN> 39
 -1.619709e+01 -8.151529e-01 -2.000273e+00 7.355629e+00 -6.293480e+00 1.275142e+01 -2.971350e+00 4.436052e+00 -6.761652e+00 -6.360916e-01 -1.899124e+00 -2.042448e+00 4.920572e+01 8.316854e-01 3.137185e-01 -4.341155e-01 1.003121e+00 -2.693877e-01 -4.313434e-02 4.401504e-01 5.195025e-01 1.355175e-01 2.074908e-01 2.102787e-01 -1.233938e-01 3.588951e-02 -1.684811e-01 6.290787e-02 -2.207688e-02 -2.211312e-01 3.158102e-01 -7.020375e-02 -5.350723e-02 8.072834e-03 2.545987e-01 3.762316e-02 -8.080588e-02 5.382568e-02 5.263090e-05
<VARIANCE> 39
 5.389700e+01 5.976183e+01 5.754726e+01 4.692875e+01 3.073189e+01 5.633139e+01 4.927457e+01 4.470734e+01 5.035150e+01 3.505150e+01 3.735810e+01 2.596220e+01 8.341568e+01 4.456635e+00 5.990964e+00 2.658010e+00 3.756654e+00 3.326911e+00 4.918901e+00 4.048365e+00 4.036994e+00 5.338440e+00 3.138681e+00 2.780363e+00 1.941864e+00 6.129832e+00 6.214133e-01 9.501576e-01 3.607016e-01 6.311294e-01 5.767805e-01 9.976193e-01 7.936634e-01 8.149758e-01 9.753848e-01 5.944785e-01 6.049054e-01 3.900871e-01 7.693712e-01
<GCONST> 1.338333e+02
~h "k"
<BEGINHMM>
<NUMSTATES> 5
<STATE> 2
<MEAN> 39
 -1.481828e+01 2.328562e-01 -4.270251e+00 9.123075e+00 -3.466148e+00 1.221603e+01 -2.669119e+00 6.667822e+00 -3.234764e+00 1.530302e+00 -1.757035e+00 -2.508195e+00 4.924005e+01 -2.077392e-01 -4.633488e+00 1.361412e-01 -2.256408e+00 1.822050e+00 -3.324180e+00 3.841247e-01 -3.842280e+00 7.835812e-02 3.493202e-02 4.329827e-02 1.393827e-01 5.231430e+00 -1.065354e-01 -1.940196e+00 7.853573e-02 -1.243180e+00 7.043330e-01 -1.401507e+00 1.682180e-01 -1.753094e+00 1.033165e-01 -2.581384e-01 -2.928985e-02 -1.520103e-02 2.484829e+00
<VARIANCE> 39
 7.993456e+00 5.378285e+01 1.218525e+01 1.972448e+01 1.992012e+01 3.359567e+01 2.996607e+01 3.464075e+01 2.265359e+01 2.255746e+01 1.734025e+01 1.419321e+01 3.120476e+01 8.411723e-01 1.765758e+01 1.699563e+00 7.473472e+00 4.245781e+00 1.159795e+01 3.379019e+00 1.454456e+01 3.154916e+00 2.896832e+00 2.170168e+00 1.678587e+00 2.330018e+01 1.154799e-01 1.605745e+00 2.668048e-01 4.865791e-01 5.270767e-01 9.826390e-01 5.575104e-01 1.073754e+00 5.185629e-01 4.500125e-01 3.829988e-01 2.922035e-01 1.385295e+00
<GCONST> 1.233251e+02
<STATE> 3
<MEAN> 39
 -1.690726e+01 -2.786865e+01 -1.796870e+00 -8.197145e+00 6.426900e+00 -7.282203e+00 -3.703621e-01 -2.011110e+01 -9.721587e-01 -1.010356e+00 -3.026433e+00 -3.844340e+00 8.379780e+01 9.875735e-02 -1.481933e+00 3.462778e-01 -8.016962e-01 9.796239e-03 -2.899864e-01 -2.343821e-01 -1.572407e+00 3.024124e-03 1.095252e-01 -4.359094e-01 -3.909149e-01 1.196013e+00 2.504736e-01 1.338280e+00 -1.339749e-01 9.541454e-01 -6.286810e-01 1.185381e+00 -3.430478e-01 1.329665e+00 -1.545557e-01 2.790817e-01 -9.271584e-02 5.586386e-02 -1.932080e+00
<VARIANCE> 39
 7.380901e+00 9.880159e+00 1.536289e+01 1.759419e+01 1.699259e+01 3.862818e+01 2.275027e+01 3.027631e+01 3.229273e+01 2.066219e+01 2.679430e+01 2.511182e+01 2.012631e+01 9.428782e-01 1.533065e+01 1.361265e+00 7.700713e+00 4.152616e+00 1.247948e+01 2.871947e+00 1.390765e+01 2.576535e+00 2.618371e+00 1.685475e+00 1.673811e+00 3.066030e+01 1.260521e-01 1.237751e+00 3.787561e-01 5.089588e-01 4.537100e-01 1.073825e+00 4.768192e-01 8.834820e-01 4.968761e-01 4.531685e-01 3.588658e-01 4.045226e-01 1.577300e+00
<GCONST> 1.215771e+02
<STATE> 4
<MEAN> 39
 -1.037036e+01 -1.487006e+01 -5.797748e+00 6.901404e+00 -2.382320e+00 8.723116e+00 -8.628696e+00 -8.994547e+00 -6.292405e+00 4.266556e+00 -5.688261e+00 -4.418602e+00 6.114507e+01 3.325799e-01 1.852153e+00 -6.374522e-01 1.573280e+00 -4.333700e-01 1.350891e+00 -3.164851e-01 1.478446e+00 -3.463403e-01 3.345531e-01 1.831774e-01 6.189460e-03 -2.160279e+00 -1.995680e-01 -2.364786e-03 9.392863e-02 -2.312786e-01 1.917662e-01 -2.186119e-01 2.529081e-01 -5.452052e-02 1.518886e-01 -1.384722e-01 1.358020e-01 -2.635055e-02 2.797997e-01
<VARIANCE> 39
 9.184962e+00 3.783574e+01 1.712067e+01 4.929285e+01 1.708285e+01 3.652652e+01 3.116174e+01 3.827646e+01 4.331067e+01 2.015172e+01 2.543220e+01 2.678103e+01 3.653605e+01 1.477817e+00 9.298227e-01 1.288228e+00 2.972991e+00 2.388391e+00 2.841084e+00 3.587001e+00 4.397307e+00 4.851573e+00 2.042889e+00 1.938186e+00 1.758720e+00 2.007082e+00 1.672166e-01 1.972252e-01 2.346539e-01 4.006270e-01 3.603530e-01 3.916090e-01 5.313110e-01 8.417155e-01 9.945722e-01 4.159919e-01 3.586764e-01 3.494017e-01 2.130557e-01
<GCONST> 1.121856e+02
<TRANSP> 5
 0.000000e+00 1.000000e+00 0.000000e+00 0.000000e+00 0.000000e+00
 0.000000e+00 7.187699e-01 2.812301e-01 0.000000e+00 0.000000e+00
 0.000000e+00 0.000000e+00 8.593069e-01 1.406931e-01 0.000000e+00
 0.000000e+00 0.000000e+00 0.000000e+00 9.016705e-01 9.832954e-02
 0.000000e+00 0.000000e+00 0.000000e+00 0.000000e+00 0.000000e+00
<ENDHMM>
~h "p"
<BEGINHMM>
<NUMSTATES> 5
<STATE> 2
<MEAN> 39
 -1.509444e+01 3.243711e+00 -4.225592e+00 8.999469e+00 -5.661013e+00 1.153491e+01 -3.557480e+00 7.278210e+00 -3.513349e+00 3.620766e-01 -2.093150e+00 -3.012695e+00 4.708965e+01 1.149483e+00 -2.522049e+00 1.340651e+00 -1.824548e+00 1.564027e+00 -2.656288e+00 7.942725e-01 -2.645671e+00 -3.343421e-01 -1.523221e+00 6.833637e-02 8.194667e-02 5.054878e+00 7.165577e-01 -1.027309e+00 8.548226e-01 -7.520262e-01 9.079482e-01 -9.990358e-01 4.141060e-01 -1.169668e+00 -3.141297e-02 -7.830353e-01 -5.376093e-02 -2.547782e-02 2.527588e+00
<VARIANCE> 39
 6.673205e+00 8.689214e+00 8.300936e+00 6.978755e+00 1.120898e+01 1.543242e+01 2.413518e+01 1.936766e+01 1.717547e+01 1.263236e+01 1.152314e+01 9.721624e+00 8.352818e+00 1.559395e+00 4.802560e+00 3.297829e+00 3.637044e+00 3.904825e+00 6.474515e+00 3.320439e+00 7.463292e+00 2.721900e+00 3.991397e+00 1.695163e+00 1.598665e+00 1.956192e+01 9.603186e-02 2.845200e-01 1.849407e-01 3.369966e-01 3.595682e-01 5.438366e-01 4.614882e-01 5.733801e-01 4.066979e-01 3.240040e-01 2.577349e-01 2.549783e-01 5.756781e-01
<GCONST> 1.059740e+02
<STATE> 3
<MEAN> 39
 -5.372343e+00 -1.022401e+01 5.568612e+00 -1.970980e-02 4.820633e+00 -9.653053e-01 1.663805e+00 -6.474618e+00 -4.025750e+00 -9.486794e+00 -3.675485e+00 -3.161700e+00 7.777811e+01 1.786118e+00 -2.913914e-01 4.940630e-01 6.499907e-01 6.767432e-02 7.367539e-01 1.414915e-01 2.857769e-01 7.287744e-02 -5.857678e-01 -9.977973e-01 -3.336835e-01 1.056851e+00 -3.069451e-01 1.131576e+00 -7.771174e-01 1.027552e+00 -1.072680e+00 1.248537e+00 -5.566111e-01 1.229690e+00 -5.620588e-02 7.532950e-01 -1.242655e-01 -5.119245e-02 -2.446782e+00
<VARIANCE> 39
 1.721443e+01 1.499679e+01 1.652271e+01 3.132488e+01 2.613844e+01 5.074816e+01 2.758336e+01 4.424245e+01 2.711811e+01 2.355398e+01 2.924192e+01 2.295780e+01 5.252411e+01 1.406214e+00 6.828124e+00 4.880260e+00 7.035763e+00 8.829082e+00 1.260116e+01 4.487932e+00 1.282310e+01 2.335098e+00 4.418379e+00 2.010263e+00 1.441219e+00 4.035698e+01 1.847683e-01 5.062710e-01 4.280729e-01 6.225024e-01 7.171572e-01 1.500426e+00 7.087222e-01 1.536095e+00 5.591813e-01 4.899661e-01 5.141181e-01 3.480036e-01 2.897238e+00
<GCONST> 1.308798e+02
<STATE> 4
<MEAN> 39
 -3.511912e+00 4.326015e+00 9.914911e-01 1.288657e+01 -3.700099e+00 1.058777e+01 -4.238302e+00 2.937546e+00 -8.086666e+00 -4.655051e+00 -7.601592e+00 -6.326797e+00 5.698115e+01 -6.168802e-01 1.033830e+00 -3.713923e-01 4.264400e-01 -3.008993e-01 3.864303e-01 -2.422619e-01 3.653156e-01 -3.231284e-01 3.859224e-01 1.205239e-01 -1.051362e-01 -1.514179e+00 -1.741247e-01 -2.018668e-01 9.479184e-02 -2.805012e-01 2.325484e-01 -2.256252e-01 1.357551e-01 -1.693878e-01 7.533445e-02 -7.458819e-02 1.066890e-01 5.161287e-02 2.854439e-01
<VARIANCE> 39
 1.582192e+01 3.298646e+01 1.771645e+01 1.788382e+01 1.731347e+01 1.700343e+01 1.897994e+01 1.692518e+01 2.195814e+01 1.787120e+01 1.516437e+01 1.603400e+01 2.573505e+01 7.232098e-01 1.585031e+00 1.356468e+00 2.063122e+00 2.448557e+00 2.038393e+00 1.666686e+00 1.657796e+00 1.802161e+00 1.692678e+00 1.210894e+00 1.214551e+00 1.219628e+00 7.266513e-02 1.307792e-01 2.235618e-01 3.022186e-01 4.142262e-01 5.195028e-01 3.244058e-01 3.887795e-01 3.472531e-01 3.063673e-01 2.613163e-01 2.375927e-01 1.102297e-01
<GCONST> 9.717061e+01
<TRANSP> 5
 0.000000e+00 1.000000e+00 0.000000e+00 0.000000e+00 0.000000e+00
 0.000000e+00 6.717687e-01 3.282313e-01 0.000000e+00 0.000000e+00
 0.000000e+00 0.000000e+00 8.051564e-01 1.948437e-01 0.000000e+00
 0.000000e+00 0.000000e+00 0.000000e+00 9.067712e-01 9.322879e-02
 0.000000e+00 0.000000e+00 0.000000e+00 0.000000e+00 0.000000e+00
<ENDHMM>
~h "s"
<BEGINHMM>
<NUMSTATES> 5
<STATE> 2
<MEAN> 39
 -1.533407e+01 -2.073948e+00 -2.497506e+00 8.855269e+00 -4.189952e+00 9.651332e+00 -1.747174e+00 2.682737e+00 -4.238589e+00 -1.451584e-01 -3.424695e+00 -1.327567e+00 5.142181e+01 -1.863964e+00 -3.910676e+00 1.159235e+00 -1.889138e+00 1.891200e+00 -2.645139e+00 2.215330e+00 -3.059538e+00 3.832476e-01 -6.683288e-01 1.695571e-01 1.418645e+00 3.574344e+00 -8.060871e-01 -9.568979e-01 5.131284e-01 -1.220630e+00 1.058323e+00 -9.363385e-01 5.128340e-01 -7.976075e-01 1.111462e-01 -3.267459e-01 2.114154e-01 1.237089e-01 1.435134e+00
<VARIANCE> 39
 1.532234e+01 7.398843e+01 2.851499e+01 2.445728e+01 2.432299e+01 4.999251e+01 4.794067e+01 6.328117e+01 2.872372e+01 2.382916e+01 2.672810e+01 2.846963e+01 3.610511e+01 2.987465e+00 8.945712e+00 4.128552e+00 6.816941e+00 6.507261e+00 8.328308e+00 5.182807e+00 8.352697e+00 3.269723e+00 2.801534e+00 2.681174e+00 2.439943e+00 8.188384e+00 2.223280e-01 1.555556e+00 6.661014e-01 6.677509e-01 6.439335e-01 1.045409e+00 8.748732e-01 1.388822e+00 4.908444e-01 4.422091e-01 4.712241e-01 5.795817e-01 6.634604e-01
<GCONST> 1.323988e+02
<STATE> 3
<MEAN> 39
 -2.803269e+01 -1.850905e+01 4.588703e+00 -8.972529e+00 1.097230e+01 -5.464935e+00 7.715827e+00 -1.052239e+01 -2.259904e+00 -4.827915e+00 -2.062256e-01 1.911417e+00 7.368305e+01 -2.357923e+00 -1.477356e+00 1.425508e+00 -3.821082e+00 2.536559e+00 -1.648594e+00 5.882864e-01 -9.619923e-01 1.863197e-01 -7.127421e-01 9.266874e-01 -3.039938e-01 3.731677e+00 7.163641e-01 1.116687e+00 -2.997200e-01 8.386170e-01 -9.143459e-01 1.177240e+00 -7.869554e-01 1.002907e+00 -1.358793e-01 2.414945e-01 -1.142050e-01 -3.127747e-01 -1.209449e+00
<VARIANCE> 39
 1.815243e+01 2.615593e+01 5.281209e+01 5.061234e+01 4.364490e+01 4.271442e+01 3.272982e+01 3.601823e+01 3.182195e+01 2.496417e+01 3.536253e+01 2.305656e+01 3.110756e+01 3.204512e+00 6.796100e+00 4.424303e+00 5.355724e+00 6.325139e+00 7.823182e+00 4.930050e+00 6.535326e+00 2.318755e+00 2.661967e+00 2.200780e+00 1.968690e+00 6.468389e+00 3.631154e-01 1.010716e+00 8.241107e-01 8.966767e-01 8.207257e-01 8.473977e-01 7.071605e-01 1.001015e+00 4.966509e-01 5.263923e-01 5.040559e-01 5.124359e-01 4.715913e-01
<GCONST> 1.304658e+02
<STATE> 4
<MEAN> 39
 -2.933972e+01 -1.866546e+01 1.036319e+01 -1.318736e+01 1.023239e+01 8.970112e-01 4.063877e+00 -8.508922e+00 -2.016267e+00 -5.163843e+00 5.391134e-01 1.365270e+00 7.476958e+01 8.517615e-01 5.805990e-01 3.860174e-01 6.958616e-01 -8.596820e-01 1.334621e+00 -5.564822e-01 8.689707e-01 -4.274048e-01 1.806218e-01 -5.364268e-01 -4.106840e-03 -1.389784e+00 2.642666e-01 2.683779e-01 -1.569731e-01 3.494832e-01 -2.628902e-01 1.365958e-01 -1.436223e-01 2.085387e-01 -9.675857e-02 1.034593e-01 -1.194633e-01 -2.033757e-02 -4.158427e-01
<VARIANCE> 39
 1.683849e+01 1.494846e+01 3.191475e+01 2.245579e+01 3.507701e+01 5.334362e+01 2.610487e+01 2.880359e+01 2.452467e+01 1.964333e+01 2.548034e+01 1.482864e+01 3.615395e+01 1.549565e+00 1.992958e+00 1.375155e+00 2.064011e+00 2.171335e+00 2.155339e+00 2.025735e+00 2.733612e+00 1.947934e+00 1.678985e+00 1.562732e+00 9.609336e-01 2.713905e+00 1.789769e-01 2.670816e-01 2.287701e-01 2.639685e-01 3.195941e-01 3.681920e-01 3.767126e-01 4.073378e-01 3.516326e-01 3.254683e-01 2.876596e-01 2.156669e-01 1.861651e-01
<GCONST> 1.051616e+02
<TRANSP> 5
 0.000000e+00 1.000000e+00 0.000000e+00 0.000000e+00 0.000000e+00
 0.000000e+00 7.282628e-01 2.717372e-01 0.000000e+00 0.000000e+00
 0.000000e+00 0.000000e+00 7.479579e-01 2.520421e-01 0.000000e+00
 0.000000e+00 0.000000e+00 0.000000e+00 8.999844e-01 1.000156e-01
 0.000000e+00 0.000000e+00 0.000000e+00 0.000000e+00 0.000000e+00
<ENDHMM>
~h "sil"
<BEGINHMM>
<NUMSTATES> 5
<STATE> 2
<MEAN> 39
 -1.976882e+01 -2.050798e-01 4.912085e-01 2.465335e+00 -2.366921e+00 1.299277e+01 -6.146648e+00 3.730475e+00 -4.895116e+00 -3.515933e-01 -3.581914e+00 -2.103916e+00 4.873944e+01 4.092003e-01 1.159011e+00 -7.242827e-01 9.320865e-01 -8.960026e-01 6.153139e-01 -4.236487e-01 8.447998e-01 2.553513e-01 2.658744e-01 2.499236e-01 -1.921023e-01 -1.252713e+00 -5.250433e-02 -2.333864e-01 -5.457881e-02 -2.928448e-02 6.685138e-02 -2.793913e-01 1.999280e-01 -2.321310e-01 9.477705e-02 -7.378330e-02 1.063009e-01 3.662244e-02 3.050067e-01
<VARIANCE> 39
 8.324281e+01 7.907252e+01 7.277431e+01 4.168769e+01 2.787772e+01 2.766355e+01 4.005749e+01 2.050208e+01 2.672372e+01 2.133562e+01 1.605692e+01 1.418101e+01 1.465293e+02 1.389544e+00 1.893900e+00 1.492037e+00 2.113010e+00 2.683445e+00 2.648218e+00 2.204209e+00 2.287192e+00 2.012033e+00 1.541291e+00 1.425155e+00 1.121172e+00 1.371131e+00 1.612418e-01 1.552532e-01 1.600050e-01 1.936688e-01 3.210913e-01 3.387564e-01 2.900117e-01 3.420870e-01 3.568996e-01 2.901242e-01 2.915265e-01 1.876214e-01 1.069344e-01
<GCONST> 1.071175e+02
<STATE> 3
~s "silst"
<STATE> 4
<MEAN> 39
 -1.464095e+01 3.418921e+00 -4.655899e+00 9.174545e+00 -5.105267e+00 1.150581e+01 -4.440119e+00 6.365498e+00 -4.065779e+00 4.201658e-02 -2.348481e+00 -3.095347e+00 4.725854e+01 -9.165862e-02 1.253219e-01 -1.201413e-01 1.404230e-03 -7.956161e-02 -7.555411e-02 1.352988e-02 1.568016e-01 1.084857e-01 -5.132852e-04 4.651449e-02 5.500368e-02 -1.782113e-01 7.151227e-03 -1.234594e-01 4.763665e-02 -2.705021e-02 9.113618e-03 -4.100676e-02 2.487526e-02 -1.113044e-01 -5.886380e-02 -2.033362e-02 -1.024489e-02 3.758475e-03 1.153971e-01
<VARIANCE> 39
 4.936200e+00 6.685137e+00 6.341621e+00 5.674411e+00 9.557956e+00 1.481193e+01 2.120822e+01 2.079626e+01 1.647961e+01 1.269234e+01 1.136358e+01 1.070501e+01 6.209909e+00 1.105280e-01 3.429437e-01 4.236133e-01 4.514315e-01 6.067507e-01 6.994949e-01 8.223429e-01 9.577326e-01 9.297268e-01 9.134717e-01 8.178605e-01 7.365893e-01 9.558169e-02 2.915868e-02 1.361322e-01 8.901486e-02 1.162135e-01 1.461790e-01 1.950108e-01 1.901202e-01 2.390523e-01 2.014793e-01 1.889228e-01 1.745818e-01 1.539323e-01 9.493138e-02
<GCONST> 6.673961e+01
<TRANSP> 5
 0.000000e+00 1.000000e+00 0.000000e+00 0.000000e+00 0.000000e+00
 0.000000e+00 6.505257e-01 1.213469e-01 2.281274e-01 0.000000e+00
 0.000000e+00 0.000000e+00 8.007197e-01 1.992804e-01 0.000000e+00
 0.000000e+00 5.143386e-03 0.000000e+00 9.043572e-01 9.049942e-02
 0.000000e+00 0.000000e+00 0.000000e+00 0.000000e+00 0.000000e+00
<ENDHMM>
