~o
<STREAMINFO> 1 39
<VECSIZE> 39<NULLD><MFCC_D_A_0><DIAGC>
~s "silst"
<NUMMIXES> 4
<MIXTURE> 1 1.255969e-01
<MEAN> 39
 -2.186847e+01 5.343966e+00 -8.628202e+00 5.816761e+00 -5.782861e+00 1.158629e+01 -6.743913e+00 5.729701e+00 -3.173099e+00 9.815950e-01 -2.041107e-02 -6.704246e-01 4.005902e+01 3.178518e+00 -2.043230e+00 3.022634e-01 2.221576e+00 -3.508360e-01 -8.752918e-02 2.490775e+00 1.378392e+00 -1.638528e-01 4.790735e-01 9.201030e-01 3.453033e-01 3.049735e+00 -1.085173e-01 5.061263e-02 3.108320e-01 2.918463e-02 2.346087e-01 1.756477e-01 1.325707e-01 1.267984e-01 1.256448e-01 -4.381843e-02 -1.074200e-01 -2.585825e-02 1.842111e-02
<VARIANCE> 39
 8.030055e+01 3.872060e+01 3.066466e+01 2.119238e+01 1.505723e+01 2.065760e+01 3.438879e+01 1.719162e+01 2.373230e+01 1.631266e+01 1.755676e+01 1.110853e+01 8.949165e+01 1.079770e+01 7.114877e+00 1.531455e+00 2.824660e+00 2.808532e+00 4.881303e+00 2.634626e+00 3.595948e+00 5.593320e+00 2.360502e+00 1.739766e+00 1.396108e+00 1.145261e+01 8.291660e-01 5.380857e-01 2.102452e-01 3.808184e-01 2.838888e-01 4.184573e-01 4.783161e-01 3.223788e-01 4.300953e-01 3.396943e-01 3.529219e-01 1.957015e-01 7.684869e-01
<GCONST> 1.184318e+02
<MIXTURE> 2 3.793223e-01
<MEAN> 39
 -1.813038e+01 1.015401e+00 -4.393696e+00 8.030231e+00 -5.682222e+00 1.244042e+01 -3.256822e+00 5.449416e+00 -6.078636e+00 -2.605765e-01 -1.266204e+00 -1.833186e+00 4.598058e+01 7.080318e-01 -1.011903e-01 -4.290218e-02 6.773131e-01 -6.746306e-02 -7.449494e-02 4.751776e-01 3.209733e-01 -1.047097e-01 7.067840e-02 1.825904e-01 -1.566795e-02 4.247750e-01 -2.141642e-02 1.128426e-01 -3.413402e-02 -1.549896e-01 1.420888e-01 -2.655839e-02 -1.481631e-01 -1.072193e-02 2.325166e-01 3.581069e-02 -8.458876e-02 1.832543e-02 -3.234249e-03
<VARIANCE> 39
 9.325285e+01 8.150483e+01 4.219837e+01 5.735652e+01 3.020280e+01 6.443752e+01 6.384927e+01 4.466861e+01 5.217923e+01 3.563432e+01 3.726850e+01 2.796148e+01 1.219382e+02 4.478751e+00 6.276300e+00 2.136050e+00 3.936784e+00 2.974345e+00 5.206454e+00 3.853571e+00 3.971834e+00 5.081746e+00 3.018692e+00 2.878570e+00 1.722330e+00 5.692199e+00 9.706044e-01 1.322268e+00 3.593354e-01 8.532950e-01 6.012771e-01 1.110142e+00 8.369833e-01 8.676971e-01 1.000534e+00 6.405912e-01 6.171919e-01 4.017233e-01 1.129501e+00
<GCONST> 1.368446e+02
<MIXTURE> 3 3.793225e-01
<MEAN> 39
 -1.813038e+01 1.015403e+00 -4.393698e+00 8.030229e+00 -5.682220e+00 1.244042e+01 -3.256824e+00 5.449415e+00 -6.078633e+00 -2.605761e-01 -1.266205e+00 -1.833186e+00 4.598057e+01 7.080323e-01 -1.011905e-01 -4.290205e-02 6.773130e-01 -6.746329e-02 -7.449545e-02 4.751777e-01 3.209736e-01 -1.047098e-01 7.067829e-02 1.825907e-01 -1.566784e-02 4.247756e-01 -2.141605e-02 1.128424e-01 -3.413393e-02 -1.549892e-01 1.420885e-01 -2.655841e-02 -1.481629e-01 -1.072174e-02 2.325164e-01 3.581062e-02 -8.458864e-02 1.832544e-02 -3.233977e-03
<VARIANCE> 39
 9.325289e+01 8.150485e+01 4.219834e+01 5.735651e+01 3.020277e+01 6.443750e+01 6.384927e+01 4.466859e+01 5.217924e+01 3.563430e+01 3.726848e+01 2.796148e+01 1.219382e+02 4.478751e+00 6.276297e+00 2.136049e+00 3.936782e+00 2.974344e+00 5.206450e+00 3.853569e+00 3.971830e+00 5.081742e+00 3.018690e+00 2.878569e+00 1.722329e+00 5.692198e+00 9.706044e-01 1.322268e+00 3.593352e-01 8.532951e-01 6.012769e-01 1.110141e+00 8.369831e-01 8.676969e-01 1.000534e+00 6.405910e-01 6.171916e-01 4.017232e-01 1.129501e+00
<GCONST> 1.368446e+02
<MIXTURE> 4 1.157575e-01
<MEAN> 39
 -1.268995e+01 -2.612465e+00 -8.521702e-01 9.211096e+00 -7.787388e+00 8.037552e+00 -3.454473e+00 1.275077e+00 -1.114591e+01 -3.025596e+00 -2.270952e+00 -2.668374e+00 5.335438e+01 5.961079e-01 1.029715e+00 1.338280e-02 -1.235978e-01 -4.587574e-01 8.101052e-02 -7.856759e-01 -7.537376e-01 -7.725683e-01 -5.486194e-01 -8.741688e-01 -8.534620e-01 -2.020773e-01 -4.845991e-01 4.928769e-01 -2.395257e-01 -4.047597e-01 4.338973e-01 4.398780e-01 -2.330179e-01 3.105972e-01 7.231236e-01 2.625133e-01 -2.080655e-01 -6.924372e-03 -5.948831e-01
<VARIANCE> 39
 2.647603e+01 6.654494e+01 5.116422e+01 5.978483e+01 4.153036e+01 5.356085e+01 3.528792e+01 7.378197e+01 7.236436e+01 3.929537e+01 4.792624e+01 3.198707e+01 6.332774e+01 2.408597e+00 4.568286e+00 2.726678e+00 5.084010e+00 3.193437e+00 5.107882e+00 3.519983e+00 4.739514e+00 7.352627e+00 4.486079e+00 2.626447e+00 3.008300e+00 3.718747e+00 5.579082e-01 8.803254e-01 4.179452e-01 8.763645e-01 7.202253e-01 1.025417e+00 9.904830e-01 1.320936e+00 1.361459e+00 6.863151e-01 7.293962e-01 5.191086e-01 8.477532e-01
<GCONST> 1.367413e+02
~h "k"
<BEGINHMM>
<NUMSTATES> 5
<STATE> 2
<NUMMIXES> 4
<MIXTURE> 1 2.097636e-01
<MEAN> 39
 -1.561376e+01 -1.586077e+00 -5.135456e+00 1.055070e+01 -2.928424e+00 1.438032e+01 -1.272044e+00 8.373885e+00 -1.469537e+00 2.957855e+00 -3.933553e-01 -1.272158e+00 4.861634e+01 -7.621977e-02 -5.014603e-01 -1.677073e-01 3.916622e-01 2.205712e-01 -1.584589e-03 1.581951e-01 -6.059539e-02 5.212253e-02 3.284084e-01 1.304157e-01 -6.667268e-02 8.544624e-02 2.005437e-02 -1.080455e+00 2.119362e-01 -7.686713e-01 3.657428e-01 -9.308782e-01 5.287246e-02 -1.139434e+00 -2.169546e-01 -1.404891e-01 -4.029720e-02 1.626771e-02 1.438373e+00
<VARIANCE> 39
 5.073177e+00 9.469553e+01 1.960180e+01 1.379812e+01 1.602026e+01 2.444050e+01 2.307455e+01 3.612571e+01 2.240177e+01 3.269112e+01 1.510154e+01 1.638097e+01 2.137592e+01 4.220193e-01 9.974516e+00 1.916459e+00 1.347082e+00 2.025527e+00 2.226969e+00 2.619259e+00 3.391190e+00 1.563952e+00 2.729894e+00 1.769561e+00 1.180326e+00 2.484528e+00 1.103111e-01 3.116820e+00 4.305840e-01 5.736026e-01 6.221159e-01 1.297505e+00 5.981982e-01 1.436740e+00 4.442095e-01 7.015303e-01 4.338769e-01 3.071460e-01 1.893167e+00
<GCONST> 1.151168e+02
<MIXTURE> 2 2.896032e-01
<MEAN> 39
 -1.461286e+01 2.401053e+00 -4.081293e+00 9.209798e+00 -4.248030e+00 1.226910e+01 -3.570073e+00 6.918272e+00 -3.845013e+00 3.093929e-01 -2.304961e+00 -3.095272e+00 4.805186e+01 -1.636102e-01 -3.732479e+00 1.833147e-01 -1.700465e+00 1.494468e+00 -2.588096e+00 3.508489e-01 -2.929743e+00 2.348613e-01 2.984657e-01 7.775070e-02 2.746175e-01 4.010250e+00 -1.235070e-01 -2.409043e+00 9.641578e-02 -1.380669e+00 9.185781e-01 -1.639215e+00 2.370627e-01 -2.012402e+00 1.674745e-01 -1.401923e-01 8.183084e-03 3.770688e-02 2.903962e+00
<VARIANCE> 39
 6.834298e+00 1.667712e+01 7.568015e+00 1.281768e+01 1.275854e+01 2.038142e+01 2.747692e+01 2.342102e+01 1.908214e+01 1.528527e+01 1.435393e+01 1.224147e+01 8.688780e+00 6.845310e-01 1.324509e+01 1.151549e+00 4.985601e+00 3.384480e+00 8.152710e+00 2.615261e+00 9.962246e+00 2.454154e+00 1.903981e+00 1.729872e+00 1.437054e+00 1.646441e+01 8.805694e-02 4.639548e-01 1.618985e-01 3.609547e-01 3.207500e-01 6.170506e-01 5.161298e-01 7.264366e-01 5.173309e-01 3.537321e-01 3.493904e-01 2.717076e-01 5.620161e-01
<GCONST> 1.085383e+02
<MIXTURE> 3 2.896031e-01
<MEAN> 39
 -1.461286e+01 2.401053e+00 -4.081293e+00 9.209796e+00 -4.248030e+00 1.226910e+01 -3.570071e+00 6.918274e+00 -3.845012e+00 3.093933e-01 -2.304960e+00 -3.095271e+00 4.805186e+01 -1.636100e-01 -3.732480e+00 1.833146e-01 -1.700465e+00 1.494469e+00 -2.588097e+00 3.508489e-01 -2.929743e+00 2.348613e-01 2.984658e-01 7.775033e-02 2.746177e-01 4.010250e+00 -1.235070e-01 -2.409043e+00 9.641565e-02 -1.380669e+00 9.185782e-01 -1.639216e+00 2.370625e-01 -2.012402e+00 1.674743e-01 -1.401923e-01 8.183004e-03 3.770690e-02 2.903963e+00
<VARIANCE> 39
 6.834300e+00 1.667712e+01 7.568016e+00 1.281768e+01 1.275854e+01 2.038143e+01 2.747691e+01 2.342103e+01 1.908214e+01 1.528527e+01 1.435392e+01 1.224147e+01 8.688782e+00 6.845311e-01 1.324510e+01 1.151549e+00 4.985603e+00 3.384480e+00 8.152713e+00 2.615262e+00 9.962247e+00 2.454155e+00 1.903983e+00 1.729872e+00 1.437055e+00 1.646441e+01 8.805698e-02 4.639549e-01 1.618987e-01 3.609545e-01 3.207500e-01 6.170508e-01 5.161297e-01 7.264364e-01 5.173311e-01 3.537323e-01 3.493903e-01 2.717075e-01 5.620158e-01
<GCONST> 1.085383e+02
<MIXTURE> 4 2.110292e-01
<MEAN> 39
 -1.473478e+01 -1.319634e+00 -3.907827e+00 8.214094e+00 -2.858091e+00 1.098951e+01 -2.069621e+00 5.849793e+00 -3.142884e+00 2.479190e+00 -1.376071e+00 -2.164695e+00 5.097707e+01 -4.134961e-01 -8.654841e+00 2.580760e-01 -5.075031e+00 3.470819e+00 -6.818976e+00 4.300872e-01 -7.863344e+00 -2.032446e-01 -8.347293e-01 -5.750874e-02 -1.638418e-01 1.071955e+01 -1.337410e-01 -1.409155e+00 -6.636958e-02 -1.107200e+00 4.649678e-01 -1.023438e+00 1.418971e-01 -1.464943e+00 1.679235e-01 -4.572048e-01 -1.134123e-01 -1.668032e-01 2.057545e+00
<VARIANCE> 39
 1.141975e+01 5.377013e+01 1.187992e+01 2.894011e+01 3.060945e+01 5.034620e+01 3.285598e+01 3.813297e+01 2.644768e+01 1.820860e+01 2.133658e+01 1.354487e+01 5.462233e+01 1.247097e+00 3.965815e+00 2.318990e+00 4.072490e+00 3.088498e+00 6.042456e+00 5.208367e+00 6.025625e+00 5.290368e+00 3.868034e+00 3.087046e+00 2.254992e+00 4.210937e+00 1.329748e-01 7.589741e-01 2.353647e-01 4.144813e-01 4.446842e-01 8.638033e-01 4.660470e-01 6.772120e-01 4.337272e-01 2.755618e-01 3.474469e-01 2.473148e-01 9.507412e-01
<GCONST> 1.195083e+02
<STATE> 3
<NUMMIXES> 4
<MIXTURE> 1 1.767237e-01
<MEAN> 39
 -1.620384e+01 -2.675123e+01 -1.792985e+00 -8.747675e+00 4.812483e+00 -4.571747e+00 -4.122210e-01 -2.065743e+01 -1.762704e+00 -6.567885e-01 -3.671803e+00 -4.821670e+00 8.242448e+01 4.459070e-01 8.941788e-01 3.020612e-01 1.008378e+00 -1.060721e+00 2.035335e+00 -3.972126e-01 1.178768e+00 9.995463e-02 1.211683e+00 -2.152635e-01 7.452284e-02 -2.594530e+00 3.017782e-01 9.149264e-01 -2.783973e-01 9.708502e-01 -3.908911e-01 8.867873e-01 -3.870848e-01 1.256198e+00 -8.672335e-02 4.021747e-01 4.851744e-02 3.185561e-01 -1.576452e+00
<VARIANCE> 39
 7.277883e+00 8.403271e+00 1.207668e+01 1.265289e+01 1.339750e+01 3.218775e+01 1.776610e+01 2.471826e+01 2.393470e+01 1.344018e+01 2.136625e+01 1.725920e+01 2.140723e+01 6.571515e-01 8.910453e-01 1.464726e+00 1.854414e+00 1.073513e+00 1.973668e+00 2.039573e+00 3.787952e+00 1.685462e+00 1.687849e+00 1.543108e+00 1.665371e+00 3.439367e+00 1.212051e-01 7.493607e-01 3.391637e-01 3.251833e-01 2.563813e-01 7.566618e-01 3.313422e-01 7.323698e-01 3.739299e-01 2.977354e-01 2.626543e-01 2.552312e-01 1.520183e+00
<GCONST> 1.020645e+02
<MIXTURE> 2 3.084333e-01
<MEAN> 39
 -1.700223e+01 -2.776296e+01 -1.233635e+00 -7.979004e+00 5.889676e+00 -6.577846e+00 -4.101431e-01 -2.025004e+01 -4.774889e-01 -1.060953e+00 -3.491479e+00 -4.326343e+00 8.340904e+01 3.099068e-01 6.030464e-02 3.474167e-01 2.540869e-01 -6.565109e-01 1.016166e+00 -5.761158e-01 -1.964854e-01 -2.911476e-01 3.595868e-01 -5.672314e-01 -4.315659e-01 -9.581299e-01 2.999421e-01 1.111256e+00 -2.179984e-01 8.891659e-01 -5.187491e-01 9.629104e-01 -4.194779e-01 1.173236e+00 -2.106976e-01 3.111319e-01 -8.182464e-02 1.057646e-01 -1.700446e+00
<VARIANCE> 39
 7.355808e+00 9.043023e+00 1.429059e+01 1.609926e+01 1.604289e+01 3.599426e+01 2.117329e+01 2.596823e+01 2.924403e+01 1.839821e+01 2.453657e+01 2.281142e+01 2.138306e+01 9.913257e-01 6.651670e+00 1.393912e+00 4.279703e+00 2.436000e+00 5.390013e+00 2.654877e+00 7.474684e+00 2.338766e+00 2.129536e+00 1.414901e+00 1.572141e+00 1.477191e+01 1.088026e-01 1.166887e+00 3.580456e-01 4.584795e-01 4.346853e-01 9.439628e-01 3.895065e-01 8.550833e-01 4.439540e-01 3.721211e-01 3.261465e-01 3.556578e-01 1.662102e+00
<GCONST> 1.146843e+02
<MIXTURE> 3 3.084329e-01
<MEAN> 39
 -1.700223e+01 -2.776296e+01 -1.233635e+00 -7.979006e+00 5.889674e+00 -6.577845e+00 -4.101430e-01 -2.025004e+01 -4.774890e-01 -1.060953e+00 -3.491478e+00 -4.326343e+00 8.340904e+01 3.099074e-01 6.030810e-02 3.474168e-01 2.540890e-01 -6.565130e-01 1.016168e+00 -5.761170e-01 -1.964831e-01 -2.911486e-01 3.595873e-01 -5.672317e-01 -4.315658e-01 -9.581349e-01 2.999422e-01 1.111256e+00 -2.179984e-01 8.891658e-01 -5.187485e-01 9.629102e-01 -4.194779e-01 1.173236e+00 -2.106975e-01 3.111320e-01 -8.182481e-02 1.057648e-01 -1.700445e+00
<VARIANCE> 39
 7.355808e+00 9.043020e+00 1.429059e+01 1.609926e+01 1.604289e+01 3.599425e+01 2.117328e+01 2.596823e+01 2.924404e+01 1.839820e+01 2.453657e+01 2.281141e+01 2.138306e+01 9.913260e-01 6.651649e+00 1.393912e+00 4.279696e+00 2.435995e+00 5.390005e+00 2.654877e+00 7.474679e+00 2.338764e+00 2.129537e+00 1.414901e+00 1.572141e+00 1.477188e+01 1.088026e-01 1.166887e+00 3.580454e-01 4.584793e-01 4.346852e-01 9.439625e-01 3.895063e-01 8.550833e-01 4.439542e-01 3.721211e-01 3.261462e-01 3.556579e-01 1.662101e+00
<GCONST> 1.146843e+02
<MIXTURE> 4 2.064058e-01
<MEAN> 39
 -1.637620e+01 -2.788582e+01 -3.033870e+00 -7.224905e+00 8.246784e+00 -9.238885e+00 -8.603361e-01 -1.797872e+01 -2.476945e+00 3.300195e-01 -1.791908e+00 -1.513853e+00 8.286149e+01 -4.300297e-01 -7.416683e+00 -9.638333e-02 -4.689561e+00 2.551462e+00 -5.451963e+00 5.225589e-01 -6.850931e+00 6.353045e-01 -1.201246e+00 -3.593498e-01 -3.520806e-01 9.555457e+00 3.623298e-02 2.078867e+00 9.269866e-02 9.847122e-01 -1.024066e+00 1.771197e+00 -6.555569e-02 1.543228e+00 9.912504e-02 -1.275111e-01 -1.949100e-01 -3.048421e-01 -2.326076e+00
<VARIANCE> 39
 8.778468e+00 1.791441e+01 1.810458e+01 2.929416e+01 1.956119e+01 5.809669e+01 3.249844e+01 4.863312e+01 4.348709e+01 3.871238e+01 3.465116e+01 2.924180e+01 4.017160e+01 1.025041e+00 7.756199e+00 1.449690e+00 3.420905e+00 3.262188e+00 7.461557e+00 3.737659e+00 7.328639e+00 3.289297e+00 2.066442e+00 2.484247e+00 1.853282e+00 9.535004e+00 1.358085e-01 9.294132e-01 3.941663e-01 7.970066e-01 4.219495e-01 1.298644e+00 7.311419e-01 1.155389e+00 7.069082e-01 7.654291e-01 4.910251e-01 4.227185e-01 1.547064e+00
<GCONST> 1.255799e+02
<STATE> 4
<NUMMIXES> 4
<MIXTURE> 1 1.696196e-01
<MEAN> 39
 -1.097244e+01 -7.981917e+00 -7.366439e+00 1.078049e+01 -2.863364e+00 1.368455e+01 -5.154622e+00 -4.261786e+00 -8.600328e+00 5.923703e+00 -2.504192e+00 -3.996819e+00 5.459143e+01 -1.063483e+00 1.884563e+00 -2.187222e-01 1.591851e-01 1.031528e+00 1.392683e+00 1.563964e+00 2.550308e+00 1.519959e+00 6.599693e-01 9.101894e-01 -8.494487e-02 -1.815554e+00 -9.152937e-02 -1.022833e-02 1.548106e-01 -3.332014e-01 8.591291e-02 -1.169003e-01 -8.684909e-02 2.145217e-01 4.794219e-01 -1.340411e-01 6.830212e-02 2.249731e-01 1.198910e-01
<VARIANCE> 39
 4.753647e+00 1.745935e+01 1.283815e+01 1.363869e+01 1.693786e+01 2.436159e+01 3.239664e+01 2.614346e+01 3.664254e+01 2.316858e+01 2.201252e+01 1.774327e+01 7.862037e+00 4.681170e-01 6.824467e-01 7.814208e-01 1.626278e+00 1.750686e+00 1.864825e+00 2.258773e+00 2.383292e+00 3.625416e+00 1.699673e+00 1.687358e+00 1.551299e+00 4.566181e-01 1.098563e-01 1.772537e-01 1.515075e-01 2.571270e-01 3.779972e-01 3.880094e-01 4.805650e-01 4.853784e-01 8.054243e-01 4.370391e-01 3.378453e-01 2.792831e-01 9.459318e-02
<GCONST> 9.643874e+01
<MIXTURE> 2 3.601970e-01
<MEAN> 39
 -1.015903e+01 -1.470960e+01 -6.109048e+00 7.256028e+00 -2.646818e+00 8.864297e+00 -9.189837e+00 -8.560476e+00 -6.213274e+00 4.207207e+00 -5.780843e+00 -4.606623e+00 6.073020e+01 3.664445e-01 1.790037e+00 -6.136175e-01 1.632854e+00 -5.425510e-01 1.217543e+00 -3.320354e-01 1.293523e+00 -4.310811e-01 2.472250e-01 2.687390e-01 5.618457e-02 -2.009781e+00 -2.173771e-01 -2.295098e-02 1.250280e-01 -2.497857e-01 2.100277e-01 -2.599162e-01 3.069509e-01 -1.357816e-01 8.884061e-02 -1.240392e-01 1.329333e-01 -5.266842e-02 3.152426e-01
<VARIANCE> 39
 8.519076e+00 3.427707e+01 1.524454e+01 4.618335e+01 1.589605e+01 3.016604e+01 2.786931e+01 3.366465e+01 4.385230e+01 1.970657e+01 2.504880e+01 2.806337e+01 2.744712e+01 1.116401e+00 9.542511e-01 1.290009e+00 2.991508e+00 2.069765e+00 2.986952e+00 2.818506e+00 3.942552e+00 3.911784e+00 2.062710e+00 1.714849e+00 1.747513e+00 1.869289e+00 1.626995e-01 1.939439e-01 2.151243e-01 3.817842e-01 3.678719e-01 3.923420e-01 5.027343e-01 8.847055e-01 1.037252e+00 4.282560e-01 3.840586e-01 3.480411e-01 2.213814e-01
<GCONST> 1.099784e+02
<MIXTURE> 3 3.601970e-01
<MEAN> 39
 -1.015903e+01 -1.470960e+01 -6.109048e+00 7.256028e+00 -2.646818e+00 8.864297e+00 -9.189837e+00 -8.560476e+00 -6.213274e+00 4.207207e+00 -5.780843e+00 -4.606623e+00 6.073020e+01 3.664445e-01 1.790037e+00 -6.136175e-01 1.632854e+00 -5.425510e-01 1.217543e+00 -3.320354e-01 1.293523e+00 -4.310811e-01 2.472250e-01 2.687390e-01 5.618457e-02 -2.009781e+00 -2.173771e-01 -2.295098e-02 1.250280e-01 -2.497857e-01 2.100277e-01 -2.599162e-01 3.069509e-01 -1.357816e-01 8.884061e-02 -1.240392e-01 1.329333e-01 -5.266842e-02 3.152426e-01
<VARIANCE> 39
 8.519076e+00 3.427707e+01 1.524454e+01 4.618335e+01 1.589605e+01 3.016604e+01 2.786931e+01 3.366465e+01 4.385230e+01 1.970657e+01 2.504880e+01 2.806337e+01 2.744712e+01 1.116401e+00 9.542511e-01 1.290009e+00 2.991508e+00 2.069765e+00 2.986952e+00 2.818506e+00 3.942552e+00 3.911784e+00 2.062710e+00 1.714849e+00 1.747513e+00 1.869289e+00 1.626995e-01 1.939439e-01 2.151243e-01 3.817842e-01 3.678719e-01 3.923420e-01 5.027343e-01 8.847055e-01 1.037252e+00 4.282560e-01 3.840586e-01 3.480411e-01 2.213814e-01
<GCONST> 1.099784e+02
<MIXTURE> 4 1.099819e-01
<MEAN> 39
 -9.759483e+00 -1.709413e+01 -4.038607e+00 5.692227e+00 -2.066087e+00 6.265584e+00 -1.073818e+01 -1.191144e+01 -5.882326e+00 3.114699e+00 -8.054374e+00 -4.411988e+00 6.402531e+01 1.234137e+00 1.953676e+00 -7.964099e-01 1.875745e+00 -1.040566e+00 1.025170e+00 -1.801477e+00 3.152599e-01 -2.069747e+00 -4.325856e-01 -7.756985e-01 -2.754515e-01 -2.046730e+00 -2.967354e-01 -8.515085e-02 5.657879e-02 -2.238477e-01 2.312782e-01 -2.541803e-01 4.235964e-01 -7.248902e-02 5.940338e-02 -2.211866e-01 1.129445e-01 -2.114535e-01 3.703682e-01
<VARIANCE> 39
 1.185567e+01 2.786872e+01 1.785469e+01 4.110507e+01 1.620823e+01 3.018555e+01 2.539721e+01 3.507767e+01 4.172433e+01 1.727121e+01 2.219094e+01 3.204250e+01 2.531670e+01 1.425570e+00 1.372849e+00 1.915298e+00 3.350996e+00 2.275901e+00 2.432140e+00 3.123954e+00 5.202617e+00 5.554401e+00 2.003355e+00 2.173023e+00 2.202907e+00 2.776809e+00 1.808717e-01 2.256091e-01 2.650066e-01 4.217066e-01 3.347696e-01 2.685429e-01 5.504788e-01 7.094863e-01 7.912794e-01 4.014420e-01 3.433531e-01 3.755799e-01 2.149625e-01
<GCONST> 1.119940e+02
<TRANSP> 5
 0.000000e+00 1.000000e+00 0.000000e+00 0.000000e+00 0.000000e+00
 0.000000e+00 7.417063e-01 2.582937e-01 0.000000e+00 0.000000e+00
 0.000000e+00 0.000000e+00 8.689433e-01 1.310567e-01 0.000000e+00
 0.000000e+00 0.000000e+00 0.000000e+00 9.031562e-01 9.684380e-02
 0.000000e+00 0.000000e+00 0.000000e+00 0.000000e+00 0.000000e+00
<ENDHMM>
~h "p"
<BEGINHMM>
<NUMSTATES> 5
<STATE> 2
<NUMMIXES> 4
<MIXTURE> 1 1.638099e-01
<MEAN> 39
 -1.547924e+01 3.598128e+00 -4.948448e+00 9.529891e+00 -5.426674e+00 1.151086e+01 -3.023719e+00 7.869318e+00 -3.357280e+00 8.221802e-01 -1.638460e+00 -2.966384e+00 4.633757e+01 2.348023e+00 -4.354829e+00 3.240098e+00 -3.564354e+00 3.452605e+00 -4.999259e+00 1.391247e+00 -5.289594e+00 -2.121649e-01 -3.186205e+00 3.108864e-01 4.889633e-01 1.028125e+01 7.690715e-01 -5.936853e-01 7.903817e-01 -3.975977e-01 7.924272e-01 -5.781921e-01 4.308722e-01 -7.728368e-01 1.346709e-01 -6.269423e-01 -1.100145e-01 -7.751112e-02 2.016794e+00
<VARIANCE> 39
 3.916565e+00 5.577597e+00 2.860638e+00 4.835667e+00 9.471744e+00 1.412005e+01 2.221477e+01 1.842122e+01 1.352640e+01 8.620764e+00 1.060523e+01 7.637780e+00 3.945904e+00 9.994590e-01 1.629664e+00 1.555524e+00 2.503194e+00 2.641898e+00 4.501446e+00 5.167382e+00 4.985725e+00 4.331726e+00 3.010786e+00 2.280806e+00 1.785456e+00 4.358639e+00 4.722148e-02 1.740066e-01 1.367763e-01 2.287225e-01 2.868047e-01 3.125173e-01 2.963583e-01 3.550860e-01 2.538460e-01 1.997081e-01 1.867747e-01 1.676428e-01 3.980005e-01
<GCONST> 9.154409e+01
<MIXTURE> 2 3.302770e-01
<MEAN> 39
 -1.530598e+01 3.258350e+00 -4.384049e+00 9.222665e+00 -5.291039e+00 1.198470e+01 -2.768650e+00 7.995195e+00 -2.909449e+00 9.200438e-01 -1.640179e+00 -2.697232e+00 4.685999e+01 9.211352e-01 -2.189282e+00 1.067655e+00 -1.495981e+00 1.240335e+00 -2.210935e+00 6.582130e-01 -2.152528e+00 -4.064533e-01 -1.226648e+00 2.185528e-02 5.918874e-02 4.086511e+00 7.194245e-01 -1.077633e+00 8.544827e-01 -8.121166e-01 8.719708e-01 -1.105398e+00 3.279832e-01 -1.304297e+00 -1.102792e-01 -8.401334e-01 -5.400588e-02 -8.318670e-03 2.582627e+00
<VARIANCE> 39
 3.779450e+00 6.348772e+00 5.055077e+00 6.019235e+00 9.636547e+00 1.412942e+01 2.119816e+01 1.737208e+01 1.600727e+01 1.084710e+01 1.019753e+01 1.002461e+01 4.782656e+00 1.301553e+00 4.346327e+00 2.465572e+00 3.160917e+00 3.152263e+00 5.546388e+00 2.873921e+00 6.313621e+00 2.290952e+00 3.486623e+00 1.578883e+00 1.450495e+00 1.588668e+01 1.070058e-01 2.367606e-01 1.873527e-01 3.351457e-01 3.357601e-01 5.209855e-01 4.219096e-01 5.482872e-01 4.109657e-01 3.289467e-01 2.740007e-01 2.546175e-01 6.041442e-01
<GCONST> 1.008414e+02
<MIXTURE> 3 3.302754e-01
<MEAN> 39
 -1.530598e+01 3.258355e+00 -4.384053e+00 9.222666e+00 -5.291032e+00 1.198471e+01 -2.768647e+00 7.995203e+00 -2.909441e+00 9.200472e-01 -1.640177e+00 -2.697229e+00 4.685998e+01 9.211337e-01 -2.189281e+00 1.067655e+00 -1.495980e+00 1.240333e+00 -2.210933e+00 6.582109e-01 -2.152527e+00 -4.064531e-01 -1.226647e+00 2.185518e-02 5.918931e-02 4.086507e+00 7.194250e-01 -1.077634e+00 8.544833e-01 -8.121172e-01 8.719707e-01 -1.105399e+00 3.279831e-01 -1.304300e+00 -1.102802e-01 -8.401344e-01 -5.400570e-02 -8.318760e-03 2.582629e+00
<VARIANCE> 39
 3.779453e+00 6.348738e+00 5.055056e+00 6.019219e+00 9.636511e+00 1.412939e+01 2.119810e+01 1.737207e+01 1.600724e+01 1.084708e+01 1.019751e+01 1.002459e+01 4.782645e+00 1.301551e+00 4.346325e+00 2.465569e+00 3.160914e+00 3.152257e+00 5.546387e+00 2.873912e+00 6.313616e+00 2.290947e+00 3.486617e+00 1.578881e+00 1.450494e+00 1.588664e+01 1.070056e-01 2.367600e-01 1.873526e-01 3.351449e-01 3.357595e-01 5.209840e-01 4.219082e-01 5.482865e-01 4.109650e-01 3.289460e-01 2.740009e-01 2.546174e-01 6.041431e-01
<GCONST> 1.008414e+02
<MIXTURE> 4 1.756375e-01
<MEAN> 39
 -1.350044e+01 2.689214e+00 -1.893415e+00 7.360639e+00 -7.610541e+00 9.926908e+00 -7.624563e+00 3.638493e+00 -6.593923e+00 -3.361534e+00 -4.692543e+00 -4.206078e+00 4.940533e+01 2.444661e-01 -4.806380e-01 -3.865012e-01 -3.337016e-01 -1.562577e-02 -6.941718e-01 3.690746e-01 -4.416521e-01 1.743049e-01 -1.438709e-01 -3.677371e-02 -4.073619e-01 7.840126e-01 4.292983e-01 -1.127911e+00 6.148865e-01 -7.463248e-01 9.802461e-01 -8.571596e-01 6.649743e-01 -8.056847e-01 1.136228e-01 -4.711085e-01 3.473327e-02 -5.235722e-02 2.221088e+00
<VARIANCE> 39
 1.936883e+01 2.777581e+01 3.250140e+01 1.085575e+01 1.692690e+01 2.008564e+01 1.692760e+01 1.127426e+01 1.856659e+01 1.393977e+01 1.188144e+01 8.384707e+00 2.688483e+01 6.579725e-01 3.876980e+00 1.734472e+00 1.728682e+00 2.068434e+00 2.728906e+00 1.563749e+00 2.866567e+00 1.858646e+00 1.742577e+00 1.018824e+00 1.240827e+00 5.965710e+00 7.032355e-02 3.960250e-01 2.903627e-01 2.467790e-01 5.676067e-01 6.121698e-01 5.661791e-01 4.321173e-01 4.618820e-01 3.310499e-01 2.531693e-01 3.093990e-01 6.262465e-01
<GCONST> 1.032470e+02
<STATE> 3
<NUMMIXES> 4
<MIXTURE> 1 1.422422e-01
<MEAN> 39
 -5.388000e+00 -1.011915e+01 7.630307e+00 -2.730314e+00 7.630318e+00 -5.308029e+00 3.601753e+00 -1.016774e+01 -2.719084e+00 -1.009171e+01 -3.838402e-01 -2.674227e+00 8.478449e+01 2.104857e+00 -7.956361e-01 1.271436e+00 1.376618e-01 1.277013e+00 1.393679e-01 1.082925e+00 -2.773750e-01 7.831620e-01 -1.016883e+00 -6.187263e-01 -1.006628e-01 2.868201e+00 -5.471987e-01 1.490574e+00 -1.300627e+00 1.708309e+00 -1.621909e+00 2.393113e+00 -7.208304e-01 2.413420e+00 -2.589795e-02 1.146266e+00 -5.336038e-01 -8.690315e-02 -4.303023e+00
<VARIANCE> 39
 4.809012e+00 6.669518e+00 8.906447e+00 1.622255e+01 1.263801e+01 3.223660e+01 1.873922e+01 2.448935e+01 1.916919e+01 1.637674e+01 1.801488e+01 1.600349e+01 1.431651e+01 8.879951e-01 3.199392e+00 3.434580e+00 3.597292e+00 4.515115e+00 7.407075e+00 2.517370e+00 7.704717e+00 1.969815e+00 2.892821e+00 1.891326e+00 1.465113e+00 2.029366e+01 1.242511e-01 2.619582e-01 2.006410e-01 2.924474e-01 3.113576e-01 6.801693e-01 5.235140e-01 7.395474e-01 4.945498e-01 3.421074e-01 4.027998e-01 2.915373e-01 4.548104e-01
<GCONST> 1.086661e+02
<MIXTURE> 2 3.625358e-01
<MEAN> 39
 -4.911515e+00 -1.047274e+01 6.073856e+00 -7.625720e-02 5.583599e+00 -1.429906e+00 2.261908e+00 -7.029833e+00 -3.992654e+00 -1.014943e+01 -3.958201e+00 -3.735625e+00 7.904678e+01 1.732758e+00 -4.731360e-02 3.173165e-01 9.605678e-01 -8.979982e-02 1.146157e+00 6.853847e-02 6.953897e-01 1.043548e-02 -4.386702e-01 -1.241794e+00 -4.116019e-01 3.349637e-01 -3.356341e-01 1.221701e+00 -8.669422e-01 1.087152e+00 -1.259082e+00 1.353320e+00 -7.129227e-01 1.324415e+00 -9.417102e-02 8.373956e-01 -1.249416e-01 -4.629329e-03 -2.708071e+00
<VARIANCE> 39
 8.099399e+00 9.834152e+00 1.210045e+01 2.620337e+01 1.990725e+01 4.156800e+01 2.351425e+01 3.667574e+01 2.516403e+01 1.981133e+01 2.721853e+01 2.100904e+01 2.985700e+01 1.147428e+00 6.001266e+00 4.532554e+00 6.156311e+00 8.103736e+00 1.170245e+01 4.457375e+00 1.167725e+01 2.208053e+00 3.975253e+00 1.912883e+00 1.319670e+00 3.825864e+01 1.661796e-01 4.108467e-01 3.503852e-01 4.968948e-01 5.265009e-01 1.123182e+00 6.756269e-01 1.174891e+00 5.628704e-01 3.991062e-01 4.816173e-01 3.519292e-01 2.068265e+00
<GCONST> 1.240241e+02
<MIXTURE> 3 3.625358e-01
<MEAN> 39
 -4.911515e+00 -1.047274e+01 6.073856e+00 -7.625666e-02 5.583599e+00 -1.429906e+00 2.261908e+00 -7.029833e+00 -3.992654e+00 -1.014943e+01 -3.958201e+00 -3.735625e+00 7.904678e+01 1.732758e+00 -4.731342e-02 3.173164e-01 9.605681e-01 -8.979985e-02 1.146157e+00 6.853837e-02 6.953899e-01 1.043553e-02 -4.386702e-01 -1.241794e+00 -4.116018e-01 3.349637e-01 -3.356340e-01 1.221701e+00 -8.669422e-01 1.087152e+00 -1.259082e+00 1.353320e+00 -7.129227e-01 1.324415e+00 -9.417102e-02 8.373955e-01 -1.249416e-01 -4.629292e-03 -2.708071e+00
<VARIANCE> 39
 8.099401e+00 9.834153e+00 1.210045e+01 2.620337e+01 1.990725e+01 4.156800e+01 2.351425e+01 3.667575e+01 2.516404e+01 1.981133e+01 2.721853e+01 2.100904e+01 2.985700e+01 1.147428e+00 6.001266e+00 4.532554e+00 6.156311e+00 8.103736e+00 1.170245e+01 4.457375e+00 1.167725e+01 2.208053e+00 3.975254e+00 1.912883e+00 1.319670e+00 3.825864e+01 1.661795e-01 4.108467e-01 3.503852e-01 4.968948e-01 5.265009e-01 1.123182e+00 6.756269e-01 1.174891e+00 5.628704e-01 3.991063e-01 4.816172e-01 3.519292e-01 2.068265e+00
<GCONST> 1.240241e+02
<MIXTURE> 4 1.326860e-01
<MEAN> 39
 -1.025753e+01 -1.209586e+01 2.211882e+00 -1.172881e+00 1.074929e+00 -3.237843e-01 -2.578975e+00 -5.913004e+00 -5.629765e+00 -6.465004e+00 -2.667341e+00 -7.625484e-02 7.053851e+01 2.377770e+00 -3.075356e+00 2.298988e+00 -2.262094e+00 2.361194e+00 -2.962480e+00 9.648809e-01 -3.413380e+00 -2.875275e-01 -2.471299e+00 -2.237654e-01 -2.718777e-01 7.529847e+00 7.372835e-02 1.007484e+00 -2.416449e-01 8.322824e-01 -2.619452e-01 1.002617e+00 1.167976e-01 9.704550e-01 2.315682e-01 2.841932e-01 -1.828528e-01 -2.456279e-01 -1.220440e+00
<VARIANCE> 39
 5.577796e+01 4.040020e+01 3.034367e+01 5.641080e+01 4.156305e+01 6.705424e+01 4.196984e+01 5.640681e+01 4.597753e+01 4.631672e+01 3.894760e+01 3.518250e+01 7.515081e+01 3.171033e+00 6.774551e+00 4.310629e+00 7.228318e+00 7.153925e+00 1.104063e+01 4.540854e+00 1.241733e+01 3.169277e+00 4.427579e+00 2.026088e+00 2.067116e+00 3.122448e+01 2.422039e-01 6.984063e-01 3.750327e-01 5.683417e-01 5.996214e-01 8.542272e-01 7.067667e-01 8.703045e-01 6.728395e-01 6.861781e-01 5.203725e-01 4.298784e-01 6.945074e-01
<GCONST> 1.370609e+02
<STATE> 4
<NUMMIXES> 4
<MIXTURE> 1 1.180380e-01
<MEAN> 39
 -2.175164e+00 -1.764265e+00 1.223298e+00 8.625484e+00 -1.856748e+00 9.830311e+00 -1.170199e+00 3.607177e+00 -5.017358e+00 -5.865488e+00 -6.848706e+00 -4.301063e+00 6.335204e+01 1.257349e-01 1.905588e+00 -9.442966e-01 2.032310e+00 -1.686027e+00 2.312012e+00 -5.752405e-01 2.012365e+00 1.547608e-01 1.173522e+00 5.650124e-02 7.119289e-02 -3.234290e+00 -2.853919e-01 -3.143676e-02 8.395036e-02 -2.039967e-01 1.820034e-01 -6.755828e-01 2.461623e-02 -5.808944e-01 -6.045789e-02 6.451263e-02 3.817419e-01 9.792842e-03 4.202436e-01
<VARIANCE> 39
 1.009111e+01 3.789688e+01 1.784576e+01 2.611540e+01 1.859354e+01 2.497076e+01 2.133429e+01 1.917589e+01 2.400079e+01 1.721453e+01 1.299901e+01 1.675982e+01 3.672907e+01 1.162132e+00 7.897820e-01 1.583654e+00 2.160985e+00 4.815422e+00 2.626241e+00 2.415958e+00 2.465823e+00 1.619226e+00 1.613955e+00 1.352596e+00 1.155807e+00 2.174337e+00 4.714381e-02 1.344381e-01 1.647300e-01 2.772709e-01 3.383322e-01 5.238538e-01 2.387467e-01 3.883017e-01 3.601143e-01 2.785156e-01 2.792292e-01 2.492923e-01 1.258637e-01
<GCONST> 9.929150e+01
<MIXTURE> 2 3.941105e-01
<MEAN> 39
 -3.324886e+00 4.438233e+00 1.255950e+00 1.310924e+01 -3.583681e+00 1.068629e+01 -4.245666e+00 2.793059e+00 -8.294291e+00 -4.757081e+00 -7.750340e+00 -6.548445e+00 5.712941e+01 -6.006811e-01 1.044572e+00 -3.651767e-01 4.529714e-01 -2.666969e-01 3.911542e-01 -2.325316e-01 3.771157e-01 -3.406159e-01 3.887009e-01 1.245809e-01 -1.091035e-01 -1.513245e+00 -1.728326e-01 -2.033364e-01 7.819211e-02 -2.854709e-01 2.275904e-01 -2.421723e-01 1.212393e-01 -1.557139e-01 9.082811e-02 -7.463582e-02 1.112972e-01 7.375598e-02 2.785620e-01
<VARIANCE> 39
 1.391816e+01 3.352099e+01 1.771729e+01 1.733591e+01 1.722279e+01 1.569911e+01 1.811094e+01 1.685033e+01 2.159000e+01 1.810106e+01 1.486443e+01 1.520328e+01 2.442766e+01 7.523876e-01 1.562841e+00 1.362065e+00 1.957218e+00 2.417504e+00 1.878743e+00 1.683902e+00 1.518515e+00 1.721747e+00 1.563603e+00 1.210974e+00 1.133977e+00 1.204748e+00 7.303711e-02 1.309679e-01 2.314950e-01 3.016690e-01 4.152348e-01 4.882088e-01 3.186345e-01 3.808792e-01 3.541099e-01 2.968587e-01 2.576512e-01 2.297405e-01 1.147998e-01
<GCONST> 9.628321e+01
<MIXTURE> 3 3.941106e-01
<MEAN> 39
 -3.324886e+00 4.438233e+00 1.255950e+00 1.310924e+01 -3.583681e+00 1.068629e+01 -4.245666e+00 2.793059e+00 -8.294291e+00 -4.757081e+00 -7.750340e+00 -6.548445e+00 5.712941e+01 -6.006811e-01 1.044572e+00 -3.651766e-01 4.529714e-01 -2.666970e-01 3.911542e-01 -2.325316e-01 3.771157e-01 -3.406158e-01 3.887010e-01 1.245809e-01 -1.091035e-01 -1.513245e+00 -1.728326e-01 -2.033363e-01 7.819211e-02 -2.854709e-01 2.275904e-01 -2.421722e-01 1.212393e-01 -1.557139e-01 9.082811e-02 -7.463580e-02 1.112972e-01 7.375601e-02 2.785620e-01
<VARIANCE> 39
 1.391816e+01 3.352099e+01 1.771729e+01 1.733591e+01 1.722279e+01 1.569911e+01 1.811094e+01 1.685033e+01 2.159000e+01 1.810106e+01 1.486443e+01 1.520328e+01 2.442765e+01 7.523875e-01 1.562841e+00 1.362065e+00 1.957218e+00 2.417504e+00 1.878743e+00 1.683902e+00 1.518515e+00 1.721747e+00 1.563603e+00 1.210974e+00 1.133977e+00 1.204748e+00 7.303712e-02 1.309679e-01 2.314949e-01 3.016689e-01 4.152348e-01 4.882088e-01 3.186344e-01 3.808793e-01 3.541099e-01 2.968587e-01 2.576512e-01 2.297405e-01 1.147997e-01
<GCONST> 9.628321e+01
<MIXTURE> 4 9.373536e-02
<MEAN> 39
 -4.061643e+00 4.847946e+00 -1.624833e-01 1.264907e+01 -5.587215e+00 8.743619e+00 -5.827940e+00 1.984473e+00 -8.246896e+00 -3.911046e+00 -7.791813e+00 -5.835719e+00 5.570483e+01 -8.404658e-01 9.388252e-01 -2.004637e-01 -2.496542e-01 -4.345597e-01 -4.925956e-01 -6.554359e-01 -5.343784e-01 -9.980914e-01 -8.714558e-02 -3.832336e-01 -5.149288e-01 -1.225379e+00 -1.946382e-01 -3.012700e-01 1.472749e-01 -3.017467e-01 3.014865e-01 1.549047e-01 3.589301e-01 -2.030842e-02 3.295293e-02 -1.798716e-01 -9.518890e-03 -9.582705e-02 2.536335e-01
<VARIANCE> 39
 2.486740e+01 2.410811e+01 2.035735e+01 1.679819e+01 2.345319e+01 2.881981e+01 2.018531e+01 1.899718e+01 2.631524e+01 2.443854e+01 1.992663e+01 2.137945e+01 2.589908e+01 4.833788e-01 1.451406e+00 1.183809e+00 1.627095e+00 1.948928e+00 1.886843e+00 1.714750e+00 1.542302e+00 2.049861e+00 2.412654e+00 1.532165e+00 1.884133e+00 5.873687e-01 8.314265e-02 1.471332e-01 2.668464e-01 3.308841e-01 5.673339e-01 5.488978e-01 4.446329e-01 4.408370e-01 4.124855e-01 5.363663e-01 2.846974e-01 2.959803e-01 8.708339e-02
<GCONST> 1.008006e+02
<TRANSP> 5
 0.000000e+00 1.000000e+00 0.000000e+00 0.000000e+00 0.000000e+00
 0.000000e+00 7.048131e-01 2.951870e-01 0.000000e+00 0.000000e+00
 0.000000e+00 0.000000e+00 7.843707e-01 2.156293e-01 0.000000e+00
 0.000000e+00 0.000000e+00 0.000000e+00 9.074717e-01 9.252836e-02
 0.000000e+00 0.000000e+00 0.000000e+00 0.000000e+00 0.000000e+00
<ENDHMM>
~h "s"
<BEGINHMM>
<NUMSTATES> 5
<STATE> 2
<NUMMIXES> 4
<MIXTURE> 1 1.613971e-01
<MEAN> 39
 -1.531686e+01 6.822248e-01 -1.534677e+00 1.010906e+01 -4.346793e+00 1.272822e+01 -8.615732e-01 7.308742e+00 -4.127584e+00 8.682381e-01 -2.354202e+00 -2.697458e+00 4.904506e+01 -3.021588e-01 -6.818104e-01 2.690383e-01 2.071260e-01 -3.585442e-01 -3.142731e-01 6.127715e-01 -1.745909e-01 5.248958e-02 2.335291e-01 2.128225e-01 2.681144e-01 2.174411e-01 -3.528753e-01 -1.148004e+00 1.219386e-01 -5.724940e-01 5.565841e-01 -8.927260e-01 4.768270e-01 -1.204037e+00 6.920382e-02 -2.062455e-01 3.863379e-03 4.939826e-01 1.127030e+00
<VARIANCE> 39
 1.565592e+01 3.625139e+01 3.105525e+01 1.625767e+01 2.124891e+01 2.874628e+01 3.772643e+01 3.737016e+01 3.486827e+01 2.411267e+01 2.813484e+01 1.442139e+01 1.469556e+01 5.411291e-01 3.531258e+00 2.576266e+00 1.801873e+00 1.813942e+00 3.245155e+00 2.750923e+00 3.560251e+00 2.682855e+00 1.519547e+00 1.961577e+00 1.544205e+00 1.039666e+00 2.160150e-01 1.093809e+00 7.716321e-01 6.239231e-01 6.661903e-01 1.161687e+00 8.839017e-01 1.131571e+00 6.366586e-01 4.635253e-01 6.049192e-01 3.972037e-01 6.023828e-01
<GCONST> 1.165430e+02
<MIXTURE> 2 3.761625e-01
<MEAN> 39
 -1.433102e+01 6.762329e-02 -3.119668e+00 9.344766e+00 -4.925678e+00 1.028590e+01 -3.114706e+00 4.008855e+00 -4.582356e+00 -8.821845e-03 -3.666905e+00 -2.429784e+00 5.010379e+01 -1.656729e+00 -3.639176e+00 1.023537e+00 -1.462757e+00 1.612715e+00 -2.437405e+00 2.071277e+00 -2.888743e+00 3.843239e-01 -5.411766e-01 9.817789e-02 1.461731e+00 3.121831e+00 -9.131651e-01 -1.280776e+00 5.979318e-01 -1.285195e+00 1.182240e+00 -1.095369e+00 6.973972e-01 -1.029538e+00 1.446893e-01 -3.765253e-01 2.030313e-01 2.655695e-01 1.650257e+00
<VARIANCE> 39
 1.021772e+01 4.393195e+01 2.175733e+01 1.744328e+01 1.765043e+01 3.054083e+01 3.780511e+01 4.160040e+01 2.509735e+01 1.729152e+01 2.293172e+01 1.847204e+01 1.721896e+01 2.496479e+00 8.500493e+00 3.844793e+00 5.205569e+00 5.560525e+00 7.437005e+00 4.940230e+00 7.562879e+00 3.225453e+00 2.491076e+00 2.671446e+00 2.472192e+00 6.754851e+00 1.486825e-01 9.535866e-01 5.540799e-01 6.118545e-01 5.545424e-01 8.053619e-01 6.870779e-01 9.481640e-01 4.327813e-01 3.581164e-01 4.168063e-01 4.160587e-01 3.662147e-01
<GCONST> 1.227263e+02
<MIXTURE> 3 3.761625e-01
<MEAN> 39
 -1.433102e+01 6.762329e-02 -3.119668e+00 9.344766e+00 -4.925678e+00 1.028590e+01 -3.114706e+00 4.008855e+00 -4.582356e+00 -8.821845e-03 -3.666905e+00 -2.429784e+00 5.010379e+01 -1.656729e+00 -3.639176e+00 1.023537e+00 -1.462757e+00 1.612715e+00 -2.437405e+00 2.071277e+00 -2.888743e+00 3.843239e-01 -5.411766e-01 9.817789e-02 1.461731e+00 3.121831e+00 -9.131651e-01 -1.280776e+00 5.979318e-01 -1.285195e+00 1.182240e+00 -1.095369e+00 6.973972e-01 -1.029538e+00 1.446893e-01 -3.765253e-01 2.030313e-01 2.655695e-01 1.650257e+00
<VARIANCE> 39
 1.021772e+01 4.393195e+01 2.175733e+01 1.744328e+01 1.765043e+01 3.054083e+01 3.780511e+01 4.160040e+01 2.509735e+01 1.729152e+01 2.293172e+01 1.847204e+01 1.721896e+01 2.496479e+00 8.500493e+00 3.844793e+00 5.205569e+00 5.560525e+00 7.437005e+00 4.940230e+00 7.562879e+00 3.225453e+00 2.491076e+00 2.671446e+00 2.472192e+00 6.754851e+00 1.486825e-01 9.535866e-01 5.540799e-01 6.118545e-01 5.545424e-01 8.053619e-01 6.870779e-01 9.481640e-01 4.327813e-01 3.581164e-01 4.168063e-01 4.160587e-01 3.662147e-01
<GCONST> 1.227263e+02
<MIXTURE> 4 8.627743e-02
<MEAN> 39
 -1.609130e+01 -3.060627e+00 -3.916250e+00 8.396364e+00 -4.480530e+00 9.274718e+00 -2.211594e+00 1.264318e+00 -3.519707e+00 -3.961688e-02 -2.988702e+00 3.431339e-01 5.106511e+01 -2.617034e+00 -6.128779e+00 1.202773e+00 -3.835273e+00 3.223830e+00 -4.151922e+00 3.305659e+00 -5.159529e+00 1.074189e-01 -1.832927e+00 4.684389e-02 1.647759e+00 6.412802e+00 -9.195266e-01 -6.201470e-01 5.866394e-01 -1.447144e+00 1.064312e+00 -8.622957e-01 4.726212e-01 -4.753518e-01 4.104836e-02 -3.693795e-01 2.477548e-01 -2.141996e-01 1.505254e+00
<VARIANCE> 39
 2.457763e+01 8.580619e+01 1.679746e+01 2.217581e+01 1.689049e+01 2.802336e+01 4.451193e+01 5.817455e+01 2.148450e+01 1.720064e+01 2.497149e+01 3.119489e+01 5.678294e+01 2.237373e+00 5.349276e+00 3.793105e+00 4.801209e+00 4.853933e+00 7.309829e+00 5.468276e+00 6.053700e+00 2.668726e+00 2.860346e+00 3.281030e+00 2.172772e+00 5.295843e+00 1.266701e-01 1.349948e+00 5.153476e-01 3.690976e-01 4.225270e-01 5.513726e-01 6.027035e-01 9.321813e-01 3.484859e-01 2.596692e-01 3.992825e-01 4.642725e-01 6.469734e-01
<GCONST> 1.240140e+02
<STATE> 3
<NUMMIXES> 4
<MIXTURE> 1 7.541996e-02
<MEAN> 39
 -2.799318e+01 -1.412643e+01 7.074727e+00 -9.638943e+00 1.173012e+01 -5.058857e+00 6.051522e+00 -6.576146e+00 -3.430837e+00 -2.947864e+00 -1.721578e+00 8.650234e-01 7.042528e+01 -2.575896e+00 -7.799616e-01 2.536133e+00 -3.332455e+00 2.317237e+00 -3.644776e-01 6.072617e-02 3.816497e-01 6.468339e-01 -2.074459e-01 1.132518e+00 -4.429133e-01 2.366312e+00 7.975613e-01 4.019296e-01 -5.250486e-01 1.126940e+00 -1.073018e+00 1.334937e+00 -6.052474e-01 4.699161e-01 5.796689e-02 -3.797653e-02 1.865879e-02 -1.165257e-01 -9.223112e-01
<VARIANCE> 39
 2.922718e+01 4.787086e+01 7.175130e+01 5.657044e+01 5.098622e+01 6.013345e+01 4.287871e+01 5.138184e+01 3.201161e+01 2.917676e+01 3.354525e+01 2.605690e+01 8.737590e+01 3.021868e+00 4.484879e+00 6.445730e+00 5.360350e+00 4.881197e+00 4.638316e+00 3.747834e+00 3.288655e+00 2.035991e+00 2.640175e+00 2.012372e+00 2.161762e+00 2.851060e+00 3.601788e-01 7.191104e-01 9.614952e-01 7.760053e-01 7.216282e-01 7.519227e-01 6.630437e-01 8.772073e-01 4.939406e-01 4.745561e-01 4.446223e-01 4.961571e-01 6.824222e-01
<GCONST> 1.308770e+02
<MIXTURE> 2 3.955975e-01
<MEAN> 39
 -2.733794e+01 -1.817184e+01 4.557131e+00 -7.570466e+00 1.025395e+01 -5.282162e+00 7.581116e+00 -1.021453e+01 -2.283652e+00 -4.752163e+00 -1.008695e+00 2.137234e+00 7.239325e+01 -2.723734e+00 -1.742113e+00 1.645509e+00 -4.139801e+00 3.042883e+00 -1.957164e+00 8.655145e-01 -1.094347e+00 3.093302e-01 -7.260243e-01 9.873710e-01 -2.680980e-01 4.037913e+00 6.699952e-01 1.203626e+00 -2.977636e-01 7.094074e-01 -8.670177e-01 1.209245e+00 -8.656048e-01 1.066108e+00 -1.404596e-01 2.569019e-01 -3.091465e-02 -4.070189e-01 -1.148104e+00
<VARIANCE> 39
 2.064773e+01 2.809039e+01 5.321693e+01 6.044804e+01 4.886028e+01 4.595139e+01 3.657803e+01 3.622080e+01 3.377739e+01 2.771747e+01 3.885389e+01 2.429757e+01 3.480447e+01 2.943143e+00 7.719885e+00 4.897523e+00 4.548073e+00 6.396372e+00 7.038229e+00 5.356767e+00 5.680745e+00 2.501000e+00 2.622503e+00 2.225961e+00 2.332971e+00 5.092057e+00 4.470828e-01 8.987247e-01 8.934426e-01 1.144647e+00 9.960341e-01 9.320026e-01 7.331045e-01 8.988193e-01 5.441459e-01 5.382633e-01 5.466954e-01 5.066277e-01 6.228814e-01
<GCONST> 1.325028e+02
<MIXTURE> 3 3.955971e-01
<MEAN> 39
 -2.733794e+01 -1.817184e+01 4.557127e+00 -7.570450e+00 1.025394e+01 -5.282156e+00 7.581119e+00 -1.021453e+01 -2.283649e+00 -4.752164e+00 -1.008700e+00 2.137239e+00 7.239324e+01 -2.723738e+00 -1.742119e+00 1.645510e+00 -4.139802e+00 3.042887e+00 -1.957168e+00 8.655194e-01 -1.094351e+00 3.093309e-01 -7.260255e-01 9.873707e-01 -2.680962e-01 4.037918e+00 6.699945e-01 1.203627e+00 -2.977632e-01 7.094052e-01 -8.670166e-01 1.209244e+00 -8.656055e-01 1.066109e+00 -1.404598e-01 2.569020e-01 -3.091398e-02 -4.070199e-01 -1.148103e+00
<VARIANCE> 39
 2.064776e+01 2.809044e+01 5.321696e+01 6.044815e+01 4.886031e+01 4.595146e+01 3.657804e+01 3.622084e+01 3.377740e+01 2.771748e+01 3.885394e+01 2.429761e+01 3.480451e+01 2.943142e+00 7.719898e+00 4.897528e+00 4.548073e+00 6.396372e+00 7.038234e+00 5.356773e+00 5.680753e+00 2.501003e+00 2.622502e+00 2.225962e+00 2.332974e+00 5.092064e+00 4.470834e-01 8.987247e-01 8.934433e-01 1.144650e+00 9.960352e-01 9.320042e-01 7.331051e-01 8.988198e-01 5.441468e-01 5.382638e-01 5.466959e-01 5.066284e-01 6.228824e-01
<GCONST> 1.325028e+02
<MIXTURE> 4 1.333849e-01
<MEAN> 39
 -2.363784e+01 -2.120401e+01 -4.388978e-01 -1.726678e+00 4.109333e+00 -1.790776e+00 8.475822e+00 -1.380026e+01 -1.563854e+00 -4.970092e+00 6.032016e-01 5.466610e+00 7.023423e+01 -3.230011e+00 -4.959416e+00 1.081570e+00 -5.672853e+00 3.616257e+00 -5.139405e+00 2.574263e+00 -5.182766e+00 -1.308340e-01 -2.015793e+00 7.338561e-01 8.002962e-01 7.478536e+00 7.417905e-02 1.860150e+00 5.346432e-02 -2.592601e-01 -6.918907e-03 6.319430e-01 -8.327048e-01 1.654663e+00 -1.766893e-01 3.991973e-01 -3.879558e-02 -8.153017e-01 -8.654460e-01
<VARIANCE> 39
 1.517040e+01 2.261007e+01 2.990575e+01 5.058588e+01 4.104648e+01 5.220216e+01 2.740063e+01 3.637738e+01 3.351405e+01 3.492295e+01 3.981812e+01 3.303770e+01 3.076916e+01 1.218915e+00 5.744802e+00 2.298623e+00 2.391756e+00 3.648670e+00 4.798052e+00 4.751706e+00 6.142749e+00 2.225210e+00 1.888437e+00 1.847224e+00 2.029020e+00 2.710229e+00 3.506244e-01 6.542330e-01 6.211132e-01 9.570135e-01 9.337242e-01 1.109166e+00 5.884613e-01 9.425096e-01 4.818025e-01 6.567577e-01 6.540222e-01 4.597754e-01 7.253261e-01
<GCONST> 1.255051e+02
<STATE> 4
<NUMMIXES> 4
<MIXTURE> 1 1.671398e-01
<MEAN> 39
 -2.458759e+01 -1.602982e+01 9.906393e+00 -1.005519e+01 7.925090e+00 4.720528e+00 4.763562e+00 -5.414241e+00 -4.560658e+00 -5.010869e+00 -2.146484e+00 1.974061e+00 6.844786e+01 2.169296e+00 2.281064e+00 -3.710463e-01 2.211879e+00 -1.832202e+00 2.360742e+00 -1.221233e+00 2.965042e+00 -1.025273e+00 1.030319e+00 -1.249605e+00 -7.113844e-02 -3.481245e+00 8.319330e-02 5.246240e-01 -2.857859e-01 3.614739e-01 -3.409587e-01 2.282524e-01 -5.186692e-01 5.028301e-01 5.727397e-02 2.402058e-01 1.782474e-01 -2.031450e-01 -3.410608e-01
<VARIANCE> 39
 1.554289e+01 2.881670e+01 3.219578e+01 2.881214e+01 4.309995e+01 6.966112e+01 2.638956e+01 3.776999e+01 3.022590e+01 2.537986e+01 2.828503e+01 1.683292e+01 3.253693e+01 1.157638e+00 1.391658e+00 1.382166e+00 1.436735e+00 2.252675e+00 2.657788e+00 2.549044e+00 2.452870e+00 1.999300e+00 1.858140e+00 1.736150e+00 1.168827e+00 9.453140e-01 2.329369e-01 3.033133e-01 2.688099e-01 3.235330e-01 4.197086e-01 6.532776e-01 4.008008e-01 5.738295e-01 4.793873e-01 4.865770e-01 3.637243e-01 2.763638e-01 3.448742e-01
<GCONST> 1.098926e+02
<MIXTURE> 2 3.803833e-01
<MEAN> 39
 -3.063679e+01 -1.932122e+01 1.023354e+01 -1.411054e+01 1.113324e+01 -5.256984e-01 4.219819e+00 -9.494106e+00 -1.223018e+00 -5.240029e+00 1.374347e+00 1.208804e+00 7.660252e+01 4.241481e-01 1.112296e-01 6.178933e-01 2.392887e-01 -5.178460e-01 1.113323e+00 -3.009293e-01 4.229058e-01 -1.808782e-01 5.055492e-02 -2.741876e-01 5.335473e-02 -7.987520e-01 3.332325e-01 2.007646e-01 -1.231815e-01 4.028916e-01 -2.800983e-01 1.682281e-01 -6.991713e-02 1.718386e-01 -1.444626e-01 9.207717e-02 -1.977060e-01 4.728211e-02 -4.861018e-01
<VARIANCE> 39
 8.975085e+00 9.592162e+00 3.293713e+01 1.723144e+01 2.965740e+01 4.361679e+01 2.574914e+01 2.208994e+01 2.064060e+01 1.834804e+01 2.219131e+01 1.438000e+01 2.147294e+01 1.143559e+00 1.077769e+00 1.214329e+00 1.674577e+00 1.946737e+00 1.839941e+00 1.580599e+00 1.502822e+00 1.694998e+00 1.371556e+00 1.350281e+00 9.011527e-01 1.983918e+00 1.594916e-01 2.432882e-01 2.336294e-01 2.856273e-01 3.314454e-01 3.157119e-01 3.362604e-01 3.498458e-01 3.003301e-01 2.931463e-01 2.304905e-01 1.970150e-01 1.619928e-01
<GCONST> 9.784062e+01
<MIXTURE> 3 3.803827e-01
<MEAN> 39
 -3.063679e+01 -1.932122e+01 1.023354e+01 -1.411054e+01 1.113324e+01 -5.256987e-01 4.219819e+00 -9.494107e+00 -1.223017e+00 -5.240027e+00 1.374348e+00 1.208805e+00 7.660252e+01 4.241479e-01 1.112297e-01 6.178936e-01 2.392885e-01 -5.178457e-01 1.113323e+00 -3.009293e-01 4.229055e-01 -1.808780e-01 5.055505e-02 -2.741874e-01 5.335472e-02 -7.987518e-01 3.332324e-01 2.007645e-01 -1.231813e-01 4.028914e-01 -2.800981e-01 1.682281e-01 -6.991702e-02 1.718385e-01 -1.444625e-01 9.207697e-02 -1.977059e-01 4.728215e-02 -4.861017e-01
<VARIANCE> 39
 8.975081e+00 9.592165e+00 3.293710e+01 1.723144e+01 2.965740e+01 4.361678e+01 2.574915e+01 2.208994e+01 2.064060e+01 1.834804e+01 2.219132e+01 1.438000e+01 2.147295e+01 1.143557e+00 1.077768e+00 1.214329e+00 1.674576e+00 1.946736e+00 1.839941e+00 1.580599e+00 1.502823e+00 1.694998e+00 1.371556e+00 1.350281e+00 9.011524e-01 1.983917e+00 1.594916e-01 2.432883e-01 2.336294e-01 2.856272e-01 3.314455e-01 3.157119e-01 3.362604e-01 3.498457e-01 3.003299e-01 2.931464e-01 2.304905e-01 1.970149e-01 1.619928e-01
<GCONST> 9.784061e+01
<MIXTURE> 4 7.208209e-02
<MEAN> 39
 -3.077174e+01 -1.951612e+01 8.262592e+00 -1.401183e+01 1.183185e+01 -1.507571e+00 4.851674e+00 -9.683558e+00 -2.241146e+00 -5.592339e+00 1.295010e+00 1.228689e+00 7.732832e+01 7.575611e-01 1.415127e-01 3.200123e-01 -1.256747e-01 -9.179258e-01 6.651960e-01 -9.483564e-01 -2.259008e-01 -8.760139e-01 -8.808799e-01 -6.272174e-01 -3.421727e-01 -2.278690e-01 4.970259e-01 3.100291e-01 -9.668153e-02 4.936927e-01 -3.874838e-01 9.512050e-02 -1.204891e-01 7.681050e-02 -1.718599e-01 -1.923930e-02 -3.935317e-01 -3.348812e-02 -5.740414e-01
<VARIANCE> 39
 1.029804e+01 8.364253e+00 3.634338e+01 1.404996e+01 3.404089e+01 4.686170e+01 2.791870e+01 2.161076e+01 2.040451e+01 1.519292e+01 1.639413e+01 1.397582e+01 2.254108e+01 1.750631e+00 1.710949e+00 1.232097e+00 2.480384e+00 1.994378e+00 2.166079e+00 2.104113e+00 1.883788e+00 2.359588e+00 1.648322e+00 2.198798e+00 9.948641e-01 2.622320e+00 2.090121e-01 3.374346e-01 3.312729e-01 2.631418e-01 3.744125e-01 4.511788e-01 4.456443e-01 4.152269e-01 3.652458e-01 2.876533e-01 2.732982e-01 2.101876e-01 1.810257e-01
<GCONST> 1.032155e+02
<TRANSP> 5
 0.000000e+00 1.000000e+00 0.000000e+00 0.000000e+00 0.000000e+00
 0.000000e+00 7.202628e-01 2.797372e-01 0.000000e+00 0.000000e+00
 0.000000e+00 0.000000e+00 7.379200e-01 2.620799e-01 0.000000e+00
 0.000000e+00 0.000000e+00 0.000000e+00 9.020667e-01 9.793328e-02
 0.000000e+00 0.000000e+00 0.000000e+00 0.000000e+00 0.000000e+00
<ENDHMM>
~h "sil"
<BEGINHMM>
<NUMSTATES> 5
<STATE> 2
<NUMMIXES> 4
<MIXTURE> 1 2.328482e-01
<MEAN> 39
 -1.512434e+01 -2.120036e+00 -1.954622e+00 6.429198e+00 -2.158726e+00 1.651650e+01 -4.619133e-01 6.040445e+00 -4.081152e+00 1.897544e+00 -1.150609e+00 -1.475241e+00 5.132338e+01 -2.887095e-01 1.254081e+00 -5.773121e-01 1.000658e+00 -1.909323e-01 5.678562e-01 3.260117e-01 1.654144e+00 1.409446e+00 7.826201e-01 6.924189e-01 1.327960e-01 -1.484830e+00 3.771643e-02 -2.635375e-01 7.380795e-02 -7.028580e-02 1.648550e-02 -5.183727e-01 -3.745680e-02 -2.916862e-01 -1.105068e-01 -1.262621e-01 -5.172481e-02 9.050407e-02 3.709489e-01
<VARIANCE> 39
 9.612032e+00 2.141259e+01 3.751957e+01 2.928547e+01 2.273759e+01 2.893142e+01 2.132695e+01 2.177103e+01 1.983692e+01 2.369992e+01 1.424447e+01 1.482068e+01 1.062333e+01 1.155158e+00 1.487072e+00 2.111136e+00 2.580219e+00 2.640546e+00 3.407666e+00 2.000128e+00 2.233597e+00 2.189289e+00 2.005967e+00 1.655571e+00 1.263055e+00 8.505720e-01 8.613006e-02 1.511733e-01 1.733695e-01 2.806004e-01 4.614488e-01 4.085711e-01 3.551081e-01 4.470594e-01 4.658395e-01 3.293359e-01 3.243334e-01 2.354733e-01 5.345374e-02
<GCONST> 1.002407e+02
<MIXTURE> 2 3.195724e-01
<MEAN> 39
 -2.064755e+01 5.175924e-02 1.268385e+00 1.752334e+00 -3.330808e+00 1.269620e+01 -6.844615e+00 3.496399e+00 -4.756855e+00 -8.100343e-01 -3.750765e+00 -2.029415e+00 4.820530e+01 5.727764e-01 1.088145e+00 -9.087529e-01 9.953806e-01 -9.213257e-01 3.870753e-01 -5.177451e-01 5.949795e-01 1.116322e-01 2.452471e-01 1.478617e-01 -1.997000e-01 -1.141051e+00 -9.319392e-02 -1.658845e-01 -5.279119e-02 -5.482196e-02 1.736712e-01 -2.283472e-01 2.018178e-01 -1.828082e-01 7.966142e-02 -8.104110e-02 7.574449e-02 1.248867e-02 2.506120e-01
<VARIANCE> 39
 8.933627e+01 8.991746e+01 7.046172e+01 4.043823e+01 3.297569e+01 2.665776e+01 4.040779e+01 1.938500e+01 2.789362e+01 1.629569e+01 1.493104e+01 1.551182e+01 1.638804e+02 1.030100e+00 1.894310e+00 1.523735e+00 1.981091e+00 2.523160e+00 2.782644e+00 1.911387e+00 2.085163e+00 1.694995e+00 1.450584e+00 1.266490e+00 1.074584e+00 1.356921e+00 9.433912e-02 1.532533e-01 1.728408e-01 1.850648e-01 3.283944e-01 3.644062e-01 2.872032e-01 3.407081e-01 3.560457e-01 2.873271e-01 2.725861e-01 1.909120e-01 8.318608e-02
<GCONST> 1.054987e+02
<MIXTURE> 3 3.195731e-01
<MEAN> 39
 -2.064755e+01 5.175734e-02 1.268387e+00 1.752332e+00 -3.330806e+00 1.269620e+01 -6.844612e+00 3.496398e+00 -4.756855e+00 -8.100347e-01 -3.750765e+00 -2.029415e+00 4.820531e+01 5.727768e-01 1.088146e+00 -9.087527e-01 9.953810e-01 -9.213263e-01 3.870758e-01 -5.177456e-01 5.949798e-01 1.116318e-01 2.452471e-01 1.478614e-01 -1.997001e-01 -1.141051e+00 -9.319388e-02 -1.658843e-01 -5.279128e-02 -5.482188e-02 1.736711e-01 -2.283472e-01 2.018177e-01 -1.828082e-01 7.966155e-02 -8.104109e-02 7.574463e-02 1.248862e-02 2.506120e-01
<VARIANCE> 39
 8.933626e+01 8.991753e+01 7.046171e+01 4.043824e+01 3.297568e+01 2.665779e+01 4.040779e+01 1.938501e+01 2.789361e+01 1.629569e+01 1.493103e+01 1.551181e+01 1.638805e+02 1.030100e+00 1.894309e+00 1.523736e+00 1.981091e+00 2.523159e+00 2.782645e+00 1.911388e+00 2.085164e+00 1.694995e+00 1.450584e+00 1.266490e+00 1.074584e+00 1.356920e+00 9.433910e-02 1.532533e-01 1.728408e-01 1.850648e-01 3.283943e-01 3.644061e-01 2.872032e-01 3.407082e-01 3.560456e-01 2.873272e-01 2.725861e-01 1.909119e-01 8.318608e-02
<GCONST> 1.054986e+02
<MIXTURE> 4 1.279991e-01
<MEAN> 39
 -1.704268e+01 -6.471676e+00 9.722828e+00 -8.974996e-01 -1.711985e+00 1.038798e+01 -5.259027e+00 5.967431e-01 -9.690878e+00 -4.447327e+00 -7.370775e+00 -2.646596e+00 5.856476e+01 1.521843e+00 2.234328e+00 -1.135363e+00 1.705585e+00 -2.057236e+00 1.154663e+00 -1.652529e+00 1.042046e+00 -6.810803e-01 -5.403039e-02 -4.932641e-01 -8.602173e-01 -2.137035e+00 -4.485931e-01 -3.244752e-01 -3.025656e-01 -2.078979e-01 1.454933e-01 -1.332726e-01 4.263808e-01 -2.933222e-01 5.787384e-01 1.128918e-01 5.002688e-01 6.972925e-02 2.663144e-01
<VARIANCE> 39
 2.382512e+01 4.606419e+01 4.442166e+01 3.904681e+01 4.521270e+01 3.609469e+01 2.593532e+01 2.287770e+01 2.234797e+01 2.355486e+01 2.008525e+01 1.669205e+01 3.098159e+01 1.526929e+00 2.368450e+00 1.459804e+00 1.600511e+00 2.170883e+00 3.077990e+00 2.794025e+00 3.020482e+00 2.762887e+00 1.791731e+00 2.276231e+00 1.294899e+00 1.313800e+00 1.904647e-01 4.096542e-01 2.341046e-01 2.180642e-01 3.650160e-01 5.095493e-01 4.333890e-01 4.509049e-01 4.873186e-01 4.246139e-01 4.636438e-01 2.842790e-01 1.138050e-01
<GCONST> 1.099384e+02
<STATE> 3
~s "silst"
<STATE> 4
<NUMMIXES> 4
<MIXTURE> 1 2.051426e-01
<MEAN> 39
 -1.637519e+01 2.871578e+00 -4.812538e+00 9.972558e+00 -2.959341e+00 1.501922e+01 -3.167713e-02 1.062004e+01 -5.866210e-01 2.619385e+00 -2.169131e-01 -1.129773e+00 4.609444e+01 -1.621989e-01 1.099955e-01 -1.863703e-02 9.851941e-02 8.415250e-02 1.020095e-01 2.225805e-01 4.874158e-01 4.342147e-01 2.459247e-01 2.292531e-01 1.670285e-01 -2.041704e-01 4.491519e-02 -1.003195e-01 2.428835e-02 -8.999832e-03 -4.339271e-02 -3.852389e-02 -2.595445e-02 -1.467079e-01 -1.324316e-01 -5.082650e-02 -1.503841e-02 -9.070229e-03 9.428724e-02
<VARIANCE> 39
 2.201915e+00 3.907716e+00 3.866736e+00 3.453061e+00 5.531083e+00 7.468817e+00 8.603987e+00 1.071667e+01 9.537951e+00 7.871271e+00 7.920350e+00 7.177425e+00 4.129536e+00 1.343440e-01 3.580160e-01 4.071666e-01 4.303992e-01 6.528198e-01 8.299109e-01 8.842844e-01 1.082344e+00 1.039227e+00 9.036421e-01 8.248464e-01 7.500437e-01 9.558169e-02 2.491182e-02 9.670530e-02 7.497766e-02 8.851790e-02 1.164229e-01 1.578195e-01 1.652226e-01 1.908719e-01 1.818492e-01 1.638617e-01 1.764605e-01 1.410195e-01 3.493919e-02
<GCONST> 5.706168e+01
<MIXTURE> 2 2.763233e-01
<MEAN> 39
 -1.451264e+01 3.437403e+00 -4.621871e+00 9.224410e+00 -5.165265e+00 1.132915e+01 -4.677672e+00 6.065559e+00 -4.354607e+00 -8.525757e-02 -2.385092e+00 -3.147612e+00 4.734326e+01 -4.950334e-02 1.557592e-01 -6.873594e-02 6.944227e-02 -1.751751e-02 1.467615e-02 1.062606e-01 2.376083e-01 1.816987e-01 8.252025e-02 1.200481e-01 1.278687e-01 -1.563482e-01 1.181282e-02 -8.725707e-02 3.781442e-02 -2.101309e-02 -5.502942e-03 -2.757817e-02 1.599365e-02 -7.428760e-02 -4.068362e-02 -1.589149e-02 -1.729152e-02 -6.961958e-03 8.413931e-02
<VARIANCE> 39
 4.118059e+00 6.473511e+00 6.710262e+00 5.836047e+00 9.129865e+00 1.353359e+01 1.948218e+01 1.938453e+01 1.570992e+01 1.218723e+01 1.097849e+01 1.082612e+01 5.577864e+00 1.028299e-01 3.438946e-01 4.128624e-01 4.352714e-01 5.751312e-01 6.509895e-01 7.402029e-01 8.311518e-01 8.195311e-01 8.762397e-01 7.909181e-01 7.103412e-01 9.558169e-02 2.219835e-02 1.000021e-01 8.540182e-02 1.041052e-01 1.321777e-01 1.816091e-01 1.858211e-01 2.338192e-01 2.025498e-01 1.938926e-01 1.726094e-01 1.487243e-01 5.742190e-02
<GCONST> 6.389223e+01
<MIXTURE> 3 2.763236e-01
<MEAN> 39
 -1.451264e+01 3.437401e+00 -4.621871e+00 9.224409e+00 -5.165264e+00 1.132915e+01 -4.677672e+00 6.065559e+00 -4.354607e+00 -8.525741e-02 -2.385092e+00 -3.147613e+00 4.734326e+01 -4.950327e-02 1.557594e-01 -6.873600e-02 6.944256e-02 -1.751761e-02 1.467630e-02 1.062607e-01 2.376085e-01 1.816987e-01 8.252029e-02 1.200482e-01 1.278686e-01 -1.563484e-01 1.181284e-02 -8.725717e-02 3.781440e-02 -2.101317e-02 -5.502827e-03 -2.757832e-02 1.599368e-02 -7.428777e-02 -4.068365e-02 -1.589153e-02 -1.729150e-02 -6.961954e-03 8.413952e-02
<VARIANCE> 39
 4.118062e+00 6.473527e+00 6.710274e+00 5.836065e+00 9.129880e+00 1.353360e+01 1.948219e+01 1.938454e+01 1.570993e+01 1.218724e+01 1.097850e+01 1.082613e+01 5.577874e+00 1.028300e-01 3.438951e-01 4.128629e-01 4.352725e-01 5.751315e-01 6.509899e-01 7.402036e-01 8.311526e-01 8.195317e-01 8.762403e-01 7.909188e-01 7.103416e-01 9.558169e-02 2.219838e-02 1.000022e-01 8.540191e-02 1.041053e-01 1.321780e-01 1.816095e-01 1.858214e-01 2.338197e-01 2.025499e-01 1.938928e-01 1.726096e-01 1.487245e-01 5.742217e-02
<GCONST> 6.389228e+01
<MIXTURE> 4 2.421868e-01
<MEAN> 39
 -1.328353e+01 4.075631e+00 -4.450396e+00 8.502975e+00 -6.743068e+00 8.765486e+00 -7.809133e+00 3.289939e+00 -6.578261e+00 -2.115650e+00 -4.295183e+00 -4.813799e+00 4.811713e+01 -1.501425e-01 1.314356e-02 -3.451654e-01 -2.533891e-01 -3.887324e-01 -3.985917e-01 -3.832411e-01 -3.357355e-01 -3.528650e-01 -3.859535e-01 -2.570707e-01 -1.988383e-01 -2.098567e-01 -2.279959e-02 -1.067797e-01 5.861728e-02 -3.597982e-03 4.541521e-02 -2.619334e-03 6.493889e-02 -6.612109e-02 -2.794569e-02 1.740063e-02 1.375407e-02 2.162397e-02 8.226430e-02
<VARIANCE> 39
 5.598890e+00 9.213277e+00 8.577425e+00 6.711438e+00 6.967647e+00 5.586155e+00 7.294687e+00 7.350554e+00 7.131875e+00 7.536939e+00 7.673651e+00 7.184829e+00 8.309141e+00 1.069297e-01 3.030979e-01 3.651576e-01 4.623737e-01 5.313894e-01 5.925654e-01 7.479772e-01 7.498195e-01 7.937361e-01 7.948102e-01 7.214645e-01 6.854179e-01 9.558169e-02 2.812174e-02 1.129489e-01 9.084179e-02 1.280210e-01 1.498186e-01 1.780531e-01 1.818496e-01 1.996180e-01 1.820387e-01 1.787451e-01 1.621999e-01 1.596905e-01 6.549890e-02
<GCONST> 6.002313e+01
<TRANSP> 5
 0.000000e+00 1.000000e+00 0.000000e+00 0.000000e+00 0.000000e+00
 0.000000e+00 7.050548e-01 6.052767e-02 2.344176e-01 0.000000e+00
 0.000000e+00 0.000000e+00 8.377616e-01 1.622385e-01 0.000000e+00
 0.000000e+00 4.671036e-03 0.000000e+00 9.030550e-01 9.227401e-02
 0.000000e+00 0.000000e+00 0.000000e+00 0.000000e+00 0.000000e+00
<ENDHMM>
