~o
<STREAMINFO> 1 39
<VECSIZE> 39<NULLD><MFCC_D_A_0><DIAGC>
~s "silst"
<MEAN> 39
 -1.752310e+01 2.059096e+00 -7.526675e+00 6.577447e+00 -7.174411e+00 8.505707e+00 -6.268802e+00 5.384779e+00 -4.906514e+00 3.977758e-01 -4.705421e-02 -1.592880e+00 4.544080e+01 6.507167e-01 -1.937296e-01 3.816000e-03 4.615941e-01 -1.220649e-01 -5.910397e-02 3.285880e-01 1.295348e-01 -2.045022e-01 4.352634e-04 1.061620e-01 -8.288825e-03 4.781770e-01 -2.989756e-02 1.890045e-01 -1.594805e-02 -1.463409e-01 1.203758e-01 1.270398e-01 -1.022197e-01 -1.848908e-02 2.092601e-01 2.705387e-02 -1.317868e-01 -1.225034e-03 -7.405147e-02
<VARIANCE> 39
 1.129166e+02 8.371516e+01 3.737698e+01 5.481235e+01 3.870329e+01 6.153601e+01 5.357754e+01 4.155581e+01 4.780351e+01 2.575549e+01 2.962086e+01 2.102481e+01 1.377646e+02 9.458796e+00 6.918115e+00 2.101951e+00 4.747753e+00 3.547716e+00 5.013426e+00 4.272292e+00 3.807321e+00 4.828819e+00 2.642355e+00 3.090411e+00 1.834640e+00 9.076927e+00 1.340381e+00 1.170193e+00 3.792471e-01 8.444652e-01 6.547153e-01 9.279919e-01 7.642215e-01 7.334265e-01 8.843022e-01 5.244658e-01 6.047362e-01 3.723237e-01 1.312708e+00
<GCONST> 1.372988e+02
~h "k"
<BEGINHMM>
<NUMSTATES> 5
<STATE> 2
<MEAN> 39
 -1.302684e+01 1.394544e+00 -5.980626e+00 7.860455e+00 -4.997660e+00 1.086380e+01 -4.317557e+00 6.326227e+00 -3.176348e+00 1.412221e+00 -1.727601e+00 -2.754368e+00 4.954646e+01 -4.797264e-01 -3.903880e+00 3.929532e-01 -1.696284e+00 1.913057e+00 -2.742294e+00 5.131702e-01 -3.114604e+00 1.177366e-01 -7.580749e-02 1.084508e-01 -1.644462e-02 4.354019e+00 -2.158288e-01 -1.900655e+00 2.312807e-01 -1.042446e+00 8.690086e-01 -1.325234e+00 1.971669e-01 -1.686204e+00 8.140570e-02 -2.719406e-01 -2.063630e-02 -9.897958e-02 2.368155e+00
<VARIANCE> 39
 1.389075e+01 3.686140e+01 1.829294e+01 1.852800e+01 2.117394e+01 3.103447e+01 3.294503e+01 2.600258e+01 1.998565e+01 1.779252e+01 1.467448e+01 1.330248e+01 1.974229e+01 1.184286e+00 1.721266e+01 2.001368e+00 6.140957e+00 5.847400e+00 1.064259e+01 3.250565e+00 1.329614e+01 2.748457e+00 2.600410e+00 1.913232e+00 1.737134e+00 2.225679e+01 1.380734e-01 1.214275e+00 2.951948e-01 4.597531e-01 5.728142e-01 8.519556e-01 5.293574e-01 8.571134e-01 4.869720e-01 4.251355e-01 3.409442e-01 3.054806e-01 1.144101e+00
<GCONST> 1.218112e+02
<STATE> 3
<MEAN> 39
 -1.676221e+01 -2.688241e+01 -1.399352e+00 -7.412940e+00 7.201895e+00 -7.810707e+00 -1.224927e+00 -1.979738e+01 -1.060508e+00 -1.235933e+00 -2.551514e+00 -4.798390e+00 8.337777e+01 5.088950e-02 -1.488224e+00 5.114740e-01 -6.638339e-01 9.976771e-02 -2.794026e-01 -2.819654e-01 -1.581680e+00 3.179344e-02 2.191163e-01 -3.897409e-01 -3.505002e-01 1.155045e+00 3.513349e-01 1.420163e+00 -2.693862e-01 9.045061e-01 -7.970312e-01 1.210207e+00 -3.739389e-01 1.399166e+00 -1.175099e-01 3.312067e-01 -1.160134e-01 1.388887e-01 -2.012217e+00
<VARIANCE> 39
 7.254786e+00 1.386649e+01 1.582253e+01 2.034844e+01 2.013246e+01 4.135672e+01 2.691858e+01 3.601326e+01 3.078404e+01 2.547204e+01 2.499021e+01 2.691770e+01 2.580801e+01 1.343610e+00 1.641590e+01 1.691780e+00 7.473199e+00 6.073841e+00 1.321431e+01 2.850333e+00 1.538804e+01 2.383726e+00 3.567281e+00 1.665837e+00 1.908308e+00 3.367303e+01 1.616890e-01 1.215276e+00 4.186971e-01 5.397394e-01 6.350324e-01 1.137036e+00 4.576745e-01 9.655010e-01 4.796421e-01 6.145450e-01 3.489390e-01 4.309115e-01 1.879029e+00
<GCONST> 1.259590e+02
<STATE> 4
<MEAN> 39
 -9.835580e+00 -1.524840e+01 -5.663045e+00 5.429696e+00 -2.692175e+00 7.062845e+00 -9.385501e+00 -9.193146e+00 -4.951989e+00 3.876515e+00 -5.849681e+00 -3.969586e+00 6.238240e+01 6.759499e-01 1.888706e+00 -1.011943e+00 1.863270e+00 -9.207735e-01 1.603135e+00 -4.467474e-01 1.625546e+00 -4.727650e-01 3.312275e-01 2.221666e-02 1.292907e-01 -2.387530e+00 -2.515089e-01 -6.410936e-02 9.301036e-02 -2.133915e-01 2.855550e-01 -2.803345e-01 3.233690e-01 -1.589527e-01 9.523484e-02 -1.324453e-01 1.881565e-01 -1.250170e-01 3.900319e-01
<VARIANCE> 39
 9.629976e+00 2.946280e+01 1.762774e+01 4.200302e+01 1.879452e+01 3.625298e+01 2.691825e+01 3.602782e+01 4.678171e+01 1.915083e+01 2.339617e+01 2.519283e+01 2.565739e+01 1.337507e+00 1.152987e+00 1.458494e+00 2.220818e+00 2.425508e+00 2.720720e+00 3.401511e+00 4.959163e+00 4.418736e+00 2.039811e+00 1.964303e+00 1.965589e+00 2.322754e+00 1.557458e-01 2.363788e-01 2.663047e-01 3.771257e-01 3.298044e-01 4.033000e-01 5.062549e-01 9.403282e-01 1.005278e+00 4.853036e-01 3.615416e-01 3.622876e-01 2.596904e-01
<GCONST> 1.120103e+02
<TRANSP> 5
 0.000000e+00 1.000000e+00 0.000000e+00 0.000000e+00 0.000000e+00
 0.000000e+00 7.462687e-01 2.537314e-01 0.000000e+00 0.000000e+00
 0.000000e+00 0.000000e+00 8.544213e-01 1.455788e-01 0.000000e+00
 0.000000e+00 0.000000e+00 0.000000e+00 8.675994e-01 1.324006e-01
 0.000000e+00 0.000000e+00 0.000000e+00 0.000000e+00 0.000000e+00
<ENDHMM>
~h "p"
<BEGINHMM>
<NUMSTATES> 5
<STATE> 2
<MEAN> 39
 -1.330853e+01 3.398660e+00 -5.660051e+00 7.746009e+00 -6.517800e+00 1.053581e+01 -4.935869e+00 6.709258e+00 -3.369600e+00 3.333209e-01 -2.284862e+00 -3.082083e+00 4.812961e+01 7.767308e-01 -2.124460e+00 1.301395e+00 -1.371510e+00 1.472241e+00 -2.261972e+00 6.918775e-01 -2.209422e+00 -3.796843e-01 -1.377833e+00 1.639232e-01 1.026867e-01 4.135649e+00 5.569993e-01 -1.005315e+00 8.694510e-01 -5.805088e-01 9.156926e-01 -9.435680e-01 4.147426e-01 -1.077018e+00 -1.073527e-01 -7.549434e-01 1.383880e-03 -3.921130e-02 2.273518e+00
<VARIANCE> 39
 1.370705e+01 8.699097e+00 1.707938e+01 1.105373e+01 1.238088e+01 1.637158e+01 2.385681e+01 1.706486e+01 1.545428e+01 1.214890e+01 1.089199e+01 9.215941e+00 1.004874e+01 1.338439e+00 5.132336e+00 3.844283e+00 3.254984e+00 4.322618e+00 6.217098e+00 2.772367e+00 6.960480e+00 2.426087e+00 3.889939e+00 1.601591e+00 1.441296e+00 1.887134e+01 1.213620e-01 2.648490e-01 2.323327e-01 3.565393e-01 3.743549e-01 5.131669e-01 3.949102e-01 4.976489e-01 3.853924e-01 3.264981e-01 2.638675e-01 2.390389e-01 6.383321e-01
<GCONST> 1.074048e+02
<STATE> 3
<MEAN> 39
 -5.360144e+00 -1.040128e+01 5.390483e+00 -7.089596e-02 5.436002e+00 -2.531793e+00 7.761948e-01 -7.588945e+00 -4.935947e+00 -9.994326e+00 -2.655331e+00 -3.208902e+00 7.832861e+01 1.726991e+00 -5.422123e-01 8.428684e-01 5.709226e-01 5.311826e-01 5.120584e-01 4.607508e-01 -4.287104e-02 2.620859e-02 -8.400601e-01 -9.347699e-01 -3.094913e-01 1.594008e+00 -2.526764e-01 1.304260e+00 -1.032078e+00 1.062866e+00 -1.341756e+00 1.502942e+00 -6.318597e-01 1.488381e+00 7.183328e-02 9.170209e-01 -2.580554e-01 -4.681963e-02 -2.821836e+00
<VARIANCE> 39
 1.099573e+01 1.301471e+01 1.621833e+01 2.728632e+01 2.506372e+01 4.543109e+01 3.193371e+01 3.881733e+01 2.862635e+01 2.451441e+01 2.767220e+01 2.173179e+01 4.662931e+01 1.196677e+00 7.182742e+00 6.107467e+00 6.252567e+00 9.680400e+00 1.305391e+01 4.068062e+00 1.304613e+01 2.467538e+00 5.100686e+00 2.204873e+00 1.430389e+00 4.022873e+01 1.895645e-01 4.393415e-01 5.222762e-01 5.457293e-01 7.438005e-01 1.178507e+00 6.628171e-01 1.136401e+00 5.904764e-01 5.441105e-01 4.941877e-01 3.480086e-01 2.080138e+00
<GCONST> 1.293497e+02
<STATE> 4
<MEAN> 39
 -2.417002e+00 2.897600e+00 -9.126610e-02 1.201692e+01 -4.056791e+00 9.430488e+00 -4.818305e+00 2.385237e+00 -7.706431e+00 -4.883588e+00 -7.289224e+00 -5.919215e+00 5.854287e+01 -3.863433e-01 1.345488e+00 -6.249499e-01 6.173100e-01 -6.613438e-01 5.855266e-01 -4.730910e-01 5.522304e-01 -4.384727e-01 5.562326e-01 4.331162e-02 -1.717961e-01 -1.878135e+00 -2.245446e-01 -2.041968e-01 1.378183e-01 -3.539614e-01 2.970586e-01 -3.178914e-01 1.457213e-01 -2.651649e-01 2.347166e-02 -1.113815e-01 1.687689e-01 5.118594e-02 3.634236e-01
<VARIANCE> 39
 9.293425e+00 3.547543e+01 2.508430e+01 2.023245e+01 1.964980e+01 2.038267e+01 2.177476e+01 1.681024e+01 2.342946e+01 1.775975e+01 1.724270e+01 1.586255e+01 2.508819e+01 7.832523e-01 1.284376e+00 1.786211e+00 2.396609e+00 3.304807e+00 2.683700e+00 1.862715e+00 2.244569e+00 1.828917e+00 1.868015e+00 1.437318e+00 1.213442e+00 1.931607e+00 6.300130e-02 1.402645e-01 2.632342e-01 2.946472e-01 4.847561e-01 5.884740e-01 3.281801e-01 4.140661e-01 3.935883e-01 3.423223e-01 3.130498e-01 2.451768e-01 1.685406e-01
<GCONST> 1.010935e+02
<TRANSP> 5
 0.000000e+00 1.000000e+00 0.000000e+00 0.000000e+00 0.000000e+00
 0.000000e+00 7.155650e-01 2.844351e-01 0.000000e+00 0.000000e+00
 0.000000e+00 0.000000e+00 7.725530e-01 2.274470e-01 0.000000e+00
 0.000000e+00 0.000000e+00 0.000000e+00 8.870794e-01 1.129206e-01
 0.000000e+00 0.000000e+00 0.000000e+00 0.000000e+00 0.000000e+00
<ENDHMM>
~h "s"
<BEGINHMM>
<NUMSTATES> 5
<STATE> 2
<MEAN> 39
 -1.376080e+01 -2.152915e-01 -3.754261e+00 8.314180e+00 -5.532512e+00 9.685314e+00 -3.237621e+00 4.106218e+00 -3.970977e+00 1.877133e-01 -3.035626e+00 -2.146397e+00 5.079389e+01 -1.667117e+00 -3.179306e+00 1.146450e+00 -1.185157e+00 1.455254e+00 -2.175312e+00 1.969243e+00 -2.554633e+00 3.596302e-01 -5.941929e-01 1.403711e-01 1.131904e+00 2.781971e+00 -8.373880e-01 -1.109589e+00 5.602222e-01 -1.026262e+00 1.066023e+00 -9.502806e-01 6.047688e-01 -9.410870e-01 1.312196e-01 -3.311126e-01 1.633986e-01 2.280681e-01 1.430495e+00
<VARIANCE> 39
 1.660818e+01 4.885266e+01 2.972196e+01 2.414915e+01 2.419753e+01 3.928544e+01 4.069706e+01 4.593154e+01 2.721671e+01 2.222993e+01 2.499561e+01 2.167939e+01 2.211955e+01 2.905780e+00 9.331740e+00 4.393430e+00 5.602546e+00 6.235408e+00 7.555956e+00 5.045952e+00 8.605399e+00 3.208977e+00 2.973657e+00 2.653749e+00 2.509096e+00 7.686793e+00 2.312339e-01 1.137416e+00 6.876534e-01 8.007134e-01 7.002937e-01 8.916369e-01 7.305775e-01 1.105451e+00 4.945445e-01 4.641570e-01 4.762777e-01 4.649768e-01 5.068114e-01
<GCONST> 1.291817e+02
<STATE> 3
<MEAN> 39
 -2.751842e+01 -1.784802e+01 4.583785e+00 -7.332561e+00 1.003888e+01 -5.444882e+00 7.155810e+00 -1.038308e+01 -1.575376e+00 -4.813458e+00 -1.966077e-01 2.013918e+00 7.265409e+01 -2.717371e+00 -1.936297e+00 1.700398e+00 -3.916144e+00 3.040875e+00 -1.802913e+00 8.623883e-01 -1.269787e+00 1.468753e-01 -8.359887e-01 9.170480e-01 -1.156340e-01 4.016649e+00 6.978171e-01 1.104230e+00 -3.338436e-01 5.863336e-01 -8.590565e-01 1.125782e+00 -8.181850e-01 1.018953e+00 -1.572388e-01 2.389909e-01 -5.300748e-02 -3.487940e-01 -1.088474e+00
<VARIANCE> 39
 2.215227e+01 2.990717e+01 5.232990e+01 5.946244e+01 4.995966e+01 4.348112e+01 3.484882e+01 3.711881e+01 3.351892e+01 2.654129e+01 3.505386e+01 2.405369e+01 3.402417e+01 3.182981e+00 7.527108e+00 4.840149e+00 4.650228e+00 6.589095e+00 8.058210e+00 5.394972e+00 7.248501e+00 2.450938e+00 2.575929e+00 2.069205e+00 2.134181e+00 6.046666e+00 4.404965e-01 9.361894e-01 8.653964e-01 1.169750e+00 1.036074e+00 8.919098e-01 7.220643e-01 1.009229e+00 5.402942e-01 5.108182e-01 5.133010e-01 4.983408e-01 5.199162e-01
<GCONST> 1.326021e+02
<STATE> 4
<MEAN> 39
 -2.893438e+01 -1.819491e+01 1.045921e+01 -1.284449e+01 1.004689e+01 7.999259e-01 3.652672e+00 -7.995926e+00 -2.043293e+00 -5.196788e+00 4.926350e-01 1.261168e+00 7.430600e+01 1.023215e+00 7.197851e-01 2.857302e-01 6.926849e-01 -1.070121e+00 1.359145e+00 -6.862483e-01 9.853671e-01 -4.512535e-01 2.648881e-01 -5.545514e-01 -2.622997e-02 -1.473598e+00 2.843736e-01 2.917891e-01 -2.060392e-01 3.684345e-01 -2.990451e-01 1.265453e-01 -1.344871e-01 1.980339e-01 -6.386710e-02 1.173018e-01 -1.024085e-01 -2.561968e-02 -4.221222e-01
<VARIANCE> 39
 2.036961e+01 1.660886e+01 3.125426e+01 2.282892e+01 3.817123e+01 5.334155e+01 2.774468e+01 3.228909e+01 2.664305e+01 1.992657e+01 2.614982e+01 1.475777e+01 4.028624e+01 1.934945e+00 2.348289e+00 1.697113e+00 2.200315e+00 2.567962e+00 2.144270e+00 2.147912e+00 2.891219e+00 1.995969e+00 1.798928e+00 1.634078e+00 1.018987e+00 2.932720e+00 2.225030e-01 2.868310e-01 2.802314e-01 2.805357e-01 3.577937e-01 3.711556e-01 3.812052e-01 4.288238e-01 3.774571e-01 3.412470e-01 3.217714e-01 2.233095e-01 2.339166e-01
<GCONST> 1.083814e+02
<TRANSP> 5
 0.000000e+00 1.000000e+00 0.000000e+00 0.000000e+00 0.000000e+00
 0.000000e+00 7.432657e-01 2.567343e-01 0.000000e+00 0.000000e+00
 0.000000e+00 0.000000e+00 7.559699e-01 2.440301e-01 0.000000e+00
 0.000000e+00 0.000000e+00 0.000000e+00 9.006485e-01 9.935153e-02
 0.000000e+00 0.000000e+00 0.000000e+00 0.000000e+00 0.000000e+00
<ENDHMM>
~h "sil"
<BEGINHMM>
<NUMSTATES> 5
<STATE> 2
<MEAN> 39
 -1.558928e+01 -4.592920e-01 -2.194638e+00 4.819749e+00 -4.259392e+00 1.224638e+01 -5.985059e+00 3.332925e+00 -5.040792e+00 6.267315e-01 -2.931303e+00 -2.840368e+00 5.031271e+01 1.437448e-01 1.043691e+00 -6.973368e-01 6.115399e-01 -4.604525e-01 2.888021e-01 -1.812459e-01 7.801276e-01 4.269138e-01 2.443896e-01 2.889013e-01 -1.343347e-01 -1.038309e+00 -8.615887e-02 -1.857275e-01 2.915993e-02 -9.915339e-02 1.198045e-01 -2.265935e-01 1.096930e-01 -1.205400e-01 9.153955e-02 -7.771164e-02 2.626980e-02 6.845471e-02 2.237189e-01
<VARIANCE> 39
 7.126385e+01 5.486362e+01 6.145804e+01 4.258989e+01 2.563575e+01 2.915627e+01 3.714423e+01 2.615465e+01 2.782277e+01 2.522442e+01 1.796086e+01 1.732611e+01 8.930851e+01 1.223519e+00 1.733899e+00 1.781122e+00 2.080291e+00 2.590885e+00 2.445545e+00 2.044549e+00 2.129538e+00 2.288910e+00 1.720253e+00 1.462312e+00 1.292222e+00 9.044920e-01 1.130101e-01 2.019712e-01 1.992699e-01 2.352903e-01 3.602316e-01 3.757066e-01 3.591099e-01 3.945487e-01 4.440889e-01 3.278074e-01 3.188156e-01 2.354688e-01 8.142752e-02
<GCONST> 1.075674e+02
<STATE> 3
~s "silst"
<STATE> 4
<MEAN> 39
 -1.267683e+01 3.842311e+00 -6.648354e+00 7.686413e+00 -6.432622e+00 1.004374e+01 -5.934294e+00 5.962377e+00 -3.676873e+00 2.160086e-01 -2.171216e+00 -3.012358e+00 4.814190e+01 -8.632805e-02 9.996061e-02 -1.050600e-01 -2.740927e-02 -8.045570e-02 -3.367276e-02 1.610821e-02 1.187228e-01 8.619131e-02 -3.940556e-03 2.846912e-02 4.336211e-02 -1.550161e-01 4.805879e-03 -8.440527e-02 3.579131e-02 4.504984e-03 -4.911846e-04 -1.914098e-02 2.149897e-02 -6.328455e-02 -5.162007e-02 -9.931034e-03 4.182481e-03 -8.674951e-04 6.640176e-02
<VARIANCE> 39
 1.309560e+01 6.649959e+00 1.487276e+01 1.042734e+01 1.179556e+01 1.528396e+01 1.994555e+01 1.650760e+01 1.441171e+01 1.175963e+01 1.100569e+01 1.000577e+01 8.562366e+00 1.030954e-01 3.265758e-01 3.742800e-01 4.566935e-01 5.978832e-01 6.883851e-01 8.061317e-01 8.691093e-01 8.921763e-01 9.080613e-01 8.309433e-01 7.547717e-01 9.236430e-02 2.456358e-02 8.684129e-02 8.098999e-02 1.036324e-01 1.325973e-01 1.670188e-01 1.784184e-01 1.955963e-01 1.885896e-01 1.864911e-01 1.763663e-01 1.563982e-01 3.627283e-02
<GCONST> 6.635004e+01
<TRANSP> 5
 0.000000e+00 1.000000e+00 0.000000e+00 0.000000e+00 0.000000e+00
 0.000000e+00 7.326312e-01 5.001657e-02 2.173522e-01 0.000000e+00
 0.000000e+00 0.000000e+00 8.569823e-01 1.430177e-01 0.000000e+00
 0.000000e+00 4.322565e-03 0.000000e+00 8.929181e-01 1.027593e-01
 0.000000e+00 0.000000e+00 0.000000e+00 0.000000e+00 0.000000e+00
<ENDHMM>
