~o
<STREAMINFO> 1 39
<VECSIZE> 39<NULLD><MFCC_D_A_0><DIAGC>
~s "silst"
<NUMMIXES> 4
<MIXTURE> 1 1.200158e-01
<MEAN> 39
 -1.598316e+01 1.299606e+00 -5.064102e+00 7.991147e+00 -6.400885e+00 1.269299e+01 -3.138127e+00 5.197682e+00 -5.555734e+00 4.758963e-02 -9.725848e-01 -1.435902e+00 4.714989e+01 1.140973e+00 -5.297753e-01 -2.225159e-01 1.641155e+00 2.661706e-01 2.398864e-01 1.838400e+00 1.828639e+00 1.139361e+00 9.857514e-01 7.356267e-01 2.689271e-01 7.379429e-01 -3.323040e-01 4.939310e-02 1.912791e-01 -2.229479e-01 3.259282e-01 3.533574e-02 -3.705807e-03 1.189216e-01 1.971101e-01 4.340219e-02 -2.500232e-02 8.436102e-02 -9.059615e-02
<VARIANCE> 39
 1.816065e+01 2.037399e+01 5.164906e+01 1.393775e+01 1.702369e+01 2.907184e+01 2.777947e+01 2.468269e+01 2.623537e+01 2.289524e+01 2.366392e+01 1.712405e+01 3.366387e+01 9.844170e+00 8.122606e+00 2.726322e+00 3.552031e+00 3.053228e+00 5.436532e+00 3.627361e+00 4.021891e+00 7.025403e+00 2.993094e+00 2.044580e+00 1.800653e+00 1.174091e+01 2.499689e-01 4.562573e-01 2.751401e-01 2.896446e-01 3.542970e-01 5.574353e-01 4.470710e-01 4.496506e-01 6.173707e-01 4.626618e-01 4.181111e-01 2.689064e-01 3.239619e-01
<GCONST> 1.192847e+02
<MIXTURE> 2 3.932753e-01
<MEAN> 39
 -1.428279e+01 -2.725757e+00 -1.380132e+00 8.752518e+00 -6.493370e+00 1.244287e+01 -1.219760e+00 4.438278e+00 -8.188764e+00 -9.234158e-01 -1.741376e+00 -2.189368e+00 5.160193e+01 4.266308e-01 4.567164e-01 -2.619773e-01 7.193384e-01 -1.099058e-01 1.109513e-01 2.028534e-01 3.381818e-01 1.165064e-01 1.429049e-01 9.664325e-02 -1.607753e-01 -2.110787e-01 -2.936700e-01 2.361946e-01 -9.709525e-02 -3.358178e-01 3.193891e-01 6.776254e-03 -2.223397e-01 6.601587e-04 4.057631e-01 7.730485e-02 -1.106415e-01 4.551508e-02 -1.977297e-01
<VARIANCE> 39
 2.392420e+01 5.152557e+01 5.325767e+01 5.801342e+01 3.617144e+01 7.625996e+01 4.568789e+01 5.732916e+01 5.346927e+01 4.280630e+01 4.411215e+01 3.427817e+01 4.056673e+01 2.831611e+00 6.324532e+00 2.856345e+00 4.499904e+00 3.632846e+00 5.870477e+00 4.210443e+00 4.574939e+00 5.728289e+00 3.472321e+00 3.063661e+00 2.186817e+00 4.545836e+00 4.445732e-01 1.163125e+00 4.316855e-01 7.352179e-01 6.560949e-01 1.232585e+00 8.801569e-01 1.020193e+00 1.119791e+00 7.473646e-01 7.113130e-01 4.803828e-01 6.488751e-01
<GCONST> 1.354350e+02
<MIXTURE> 3 3.932751e-01
<MEAN> 39
 -1.428279e+01 -2.725757e+00 -1.380132e+00 8.752518e+00 -6.493370e+00 1.244287e+01 -1.219760e+00 4.438277e+00 -8.188763e+00 -9.234160e-01 -1.741377e+00 -2.189367e+00 5.160193e+01 4.266311e-01 4.567162e-01 -2.619774e-01 7.193383e-01 -1.099058e-01 1.109512e-01 2.028536e-01 3.381819e-01 1.165065e-01 1.429049e-01 9.664319e-02 -1.607753e-01 -2.110783e-01 -2.936700e-01 2.361948e-01 -9.709528e-02 -3.358179e-01 3.193891e-01 6.776401e-03 -2.223398e-01 6.603170e-04 4.057629e-01 7.730485e-02 -1.106414e-01 4.551502e-02 -1.977298e-01
<VARIANCE> 39
 2.392420e+01 5.152560e+01 5.325767e+01 5.801346e+01 3.617145e+01 7.625999e+01 4.568790e+01 5.732920e+01 5.346928e+01 4.280630e+01 4.411215e+01 3.427817e+01 4.056674e+01 2.831611e+00 6.324532e+00 2.856345e+00 4.499904e+00 3.632847e+00 5.870476e+00 4.210443e+00 4.574937e+00 5.728288e+00 3.472321e+00 3.063661e+00 2.186818e+00 4.545836e+00 4.445733e-01 1.163126e+00 4.316855e-01 7.352180e-01 6.560951e-01 1.232585e+00 8.801572e-01 1.020193e+00 1.119792e+00 7.473643e-01 7.113131e-01 4.803828e-01 6.488754e-01
<GCONST> 1.354350e+02
<MIXTURE> 4 9.343415e-02
<MEAN> 39
 -1.505607e+01 -3.254056e+00 -1.396917e-01 5.454802e+00 -6.422818e+00 8.625601e+00 -4.557228e+00 1.613152e-02 -8.977443e+00 -2.728228e+00 -2.564385e+00 -1.848840e+00 5.388446e+01 1.173215e+00 5.274413e-01 2.858320e-01 4.723881e-01 -8.884808e-01 -1.463795e-02 -3.986037e-01 -6.992049e-01 -1.199058e+00 -8.933579e-01 -8.468055e-01 -8.631302e-01 3.751098e-01 -6.212689e-01 4.398113e-01 -2.574903e-01 -2.263767e-01 3.054517e-01 2.799088e-01 -1.142080e-01 3.124839e-01 5.781338e-01 2.035735e-01 -7.899605e-02 5.110724e-02 -7.124941e-01
<VARIANCE> 39
 3.831327e+01 9.325370e+01 7.303991e+01 7.245896e+01 4.166795e+01 4.867652e+01 2.737726e+01 5.967299e+01 5.732317e+01 3.056917e+01 3.016516e+01 2.830021e+01 1.101226e+02 3.318401e+00 4.847744e+00 2.413172e+00 3.977468e+00 2.919049e+00 3.760623e+00 3.192136e+00 3.608447e+00 5.118600e+00 3.412676e+00 2.066077e+00 2.059898e+00 5.228577e+00 8.781186e-01 9.072695e-01 3.423187e-01 6.955563e-01 6.277135e-01 7.927254e-01 7.450205e-01 9.019812e-01 1.108954e+00 5.420213e-01 5.690697e-01 3.742162e-01 1.077411e+00
<GCONST> 1.334690e+02
~h "k"
<BEGINHMM>
<NUMSTATES> 5
<STATE> 2
<NUMMIXES> 4
<MIXTURE> 1 2.029016e-01
<MEAN> 39
 -1.558590e+01 -1.699152e+00 -5.231381e+00 1.050770e+01 -2.886553e+00 1.445494e+01 -1.248898e+00 8.337495e+00 -1.509890e+00 2.849569e+00 -3.837073e-01 -1.161684e+00 4.866763e+01 -6.615303e-02 -5.132966e-01 -1.745811e-01 4.093241e-01 2.068238e-01 -1.391286e-02 1.512520e-01 -8.343190e-02 4.032651e-02 3.479970e-01 1.546881e-01 -6.465110e-02 9.047997e-02 1.449671e-02 -1.100824e+00 2.251891e-01 -7.842950e-01 3.790310e-01 -9.572432e-01 4.235761e-02 -1.166877e+00 -2.116432e-01 -1.301363e-01 -5.012845e-02 2.733003e-03 1.468968e+00
<VARIANCE> 39
 5.276849e+00 9.757784e+01 2.006436e+01 1.412381e+01 1.592558e+01 2.390788e+01 2.321570e+01 3.525893e+01 2.296671e+01 3.287261e+01 1.467980e+01 1.603527e+01 2.216093e+01 4.360395e-01 1.039066e+01 1.935924e+00 1.339679e+00 2.000542e+00 2.262024e+00 2.630588e+00 3.455170e+00 1.555054e+00 2.772920e+00 1.789007e+00 1.193508e+00 2.612235e+00 1.128413e-01 3.212847e+00 4.365121e-01 5.784105e-01 6.266873e-01 1.310025e+00 6.015417e-01 1.458644e+00 4.458617e-01 7.013467e-01 4.334240e-01 3.039625e-01 1.945214e+00
<GCONST> 1.155217e+02
<MIXTURE> 2 2.931955e-01
<MEAN> 39
 -1.461555e+01 2.382792e+00 -4.065653e+00 9.208515e+00 -4.238991e+00 1.227380e+01 -3.588577e+00 6.879419e+00 -3.849662e+00 3.250848e-01 -2.335828e+00 -3.125717e+00 4.806599e+01 -1.671686e-01 -3.751602e+00 1.845261e-01 -1.710213e+00 1.499845e+00 -2.599576e+00 3.587169e-01 -2.939715e+00 2.392289e-01 2.990803e-01 7.708558e-02 2.749420e-01 4.030615e+00 -1.219112e-01 -2.402799e+00 9.453762e-02 -1.379269e+00 9.140598e-01 -1.635769e+00 2.406666e-01 -2.004385e+00 1.661706e-01 -1.449118e-01 1.177329e-02 4.027215e-02 2.898923e+00
<VARIANCE> 39
 6.855463e+00 1.704100e+01 7.652631e+00 1.284955e+01 1.294539e+01 2.068846e+01 2.753654e+01 2.383389e+01 1.914591e+01 1.571571e+01 1.443632e+01 1.237560e+01 8.843646e+00 6.903296e-01 1.327912e+01 1.169680e+00 5.010612e+00 3.425365e+00 8.155266e+00 2.639394e+00 9.984450e+00 2.476298e+00 1.907784e+00 1.740943e+00 1.442400e+00 1.651317e+01 8.916055e-02 4.778426e-01 1.638155e-01 3.613206e-01 3.242003e-01 6.188014e-01 5.177853e-01 7.430826e-01 5.194162e-01 3.618290e-01 3.514211e-01 2.735117e-01 5.667862e-01
<GCONST> 1.089121e+02
<MIXTURE> 3 2.931936e-01
<MEAN> 39
 -1.461555e+01 2.382802e+00 -4.065660e+00 9.208520e+00 -4.238992e+00 1.227380e+01 -3.588574e+00 6.879431e+00 -3.849655e+00 3.250835e-01 -2.335823e+00 -3.125711e+00 4.806598e+01 -1.671682e-01 -3.751605e+00 1.845270e-01 -1.710215e+00 1.499846e+00 -2.599577e+00 3.587170e-01 -2.939718e+00 2.392290e-01 2.990797e-01 7.708477e-02 2.749423e-01 4.030619e+00 -1.219113e-01 -2.402800e+00 9.453834e-02 -1.379270e+00 9.140598e-01 -1.635768e+00 2.406663e-01 -2.004387e+00 1.661703e-01 -1.449115e-01 1.177271e-02 4.027184e-02 2.898924e+00
<VARIANCE> 39
 6.855429e+00 1.704081e+01 7.652586e+00 1.284946e+01 1.294534e+01 2.068834e+01 2.753651e+01 2.383378e+01 1.914587e+01 1.571557e+01 1.443629e+01 1.237556e+01 8.843588e+00 6.903278e-01 1.327913e+01 1.169673e+00 5.010616e+00 3.425358e+00 8.155258e+00 2.639392e+00 9.984479e+00 2.476298e+00 1.907779e+00 1.740942e+00 1.442399e+00 1.651319e+01 8.916041e-02 4.778389e-01 1.638142e-01 3.613203e-01 3.241995e-01 6.187990e-01 5.177854e-01 7.430802e-01 5.194154e-01 3.618268e-01 3.514206e-01 2.735113e-01 5.667843e-01
<GCONST> 1.089121e+02
<MIXTURE> 4 2.107098e-01
<MEAN> 39
 -1.475792e+01 -1.311029e+00 -3.915390e+00 8.225344e+00 -2.851289e+00 1.102372e+01 -2.036982e+00 5.888561e+00 -3.099192e+00 2.506711e+00 -1.361559e+00 -2.162127e+00 5.094845e+01 -4.080829e-01 -8.650584e+00 2.623418e-01 -5.080093e+00 3.465897e+00 -6.828219e+00 4.155751e-01 -7.876655e+00 -2.189786e-01 -8.529571e-01 -6.599897e-02 -1.700634e-01 1.072545e+01 -1.316484e-01 -1.409767e+00 -6.708104e-02 -1.107536e+00 4.638798e-01 -1.026632e+00 1.390233e-01 -1.469627e+00 1.638462e-01 -4.575958e-01 -1.137011e-01 -1.666287e-01 2.060166e+00
<VARIANCE> 39
 1.136416e+01 5.340815e+01 1.182888e+01 2.884355e+01 3.054005e+01 5.047150e+01 3.273036e+01 3.818555e+01 2.640248e+01 1.824027e+01 2.135476e+01 1.353059e+01 5.444952e+01 1.238704e+00 3.967309e+00 2.317533e+00 4.069346e+00 3.089843e+00 6.047428e+00 5.194443e+00 6.030116e+00 5.265120e+00 3.877772e+00 3.077947e+00 2.246554e+00 4.212185e+00 1.327606e-01 7.563978e-01 2.369430e-01 4.150689e-01 4.444447e-01 8.666237e-01 4.649000e-01 6.779790e-01 4.342041e-01 2.734011e-01 3.500277e-01 2.474072e-01 9.502128e-01
<GCONST> 1.194713e+02
<STATE> 3
<NUMMIXES> 4
<MIXTURE> 1 1.556956e-01
<MEAN> 39
 -1.606067e+01 -2.645863e+01 -1.711603e+00 -8.374115e+00 4.506954e+00 -3.979767e+00 -4.844959e-01 -2.001933e+01 -2.092153e+00 -3.210613e-01 -3.645886e+00 -4.802627e+00 8.138922e+01 5.335976e-01 9.870168e-01 1.096998e-01 1.200740e+00 -1.089665e+00 2.223061e+00 -5.050793e-01 1.507471e+00 1.054613e-01 1.345478e+00 -2.133104e-01 2.289301e-01 -2.881206e+00 3.076633e-01 8.443201e-01 -3.236796e-01 9.260578e-01 -3.679000e-01 8.035936e-01 -3.886060e-01 1.133872e+00 -4.660655e-02 3.397731e-01 5.616843e-02 3.185803e-01 -1.388906e+00
<VARIANCE> 39
 7.355204e+00 1.111599e+01 1.177033e+01 1.463320e+01 1.364978e+01 3.294556e+01 1.724807e+01 3.134389e+01 2.470206e+01 1.430071e+01 2.096784e+01 1.696483e+01 2.690520e+01 6.652418e-01 9.192282e-01 1.528565e+00 1.973001e+00 1.060905e+00 2.101503e+00 2.034003e+00 4.003962e+00 1.636630e+00 1.577148e+00 1.561358e+00 1.573529e+00 3.372596e+00 1.203789e-01 7.186713e-01 3.310335e-01 3.115073e-01 2.416542e-01 7.226081e-01 3.144689e-01 7.978460e-01 3.840310e-01 3.223010e-01 2.606491e-01 2.376769e-01 1.515791e+00
<GCONST> 1.029368e+02
<MIXTURE> 2 3.184683e-01
<MEAN> 39
 -1.700793e+01 -2.778014e+01 -1.268013e+00 -8.079776e+00 5.913757e+00 -6.625370e+00 -3.887935e-01 -2.038250e+01 -4.563191e-01 -1.109084e+00 -3.511513e+00 -4.355581e+00 8.357723e+01 2.988772e-01 9.004641e-02 3.872790e-01 2.543374e-01 -6.741915e-01 1.029775e+00 -5.522407e-01 -1.996399e-01 -2.790391e-01 3.639052e-01 -5.579270e-01 -4.479507e-01 -9.809589e-01 2.993915e-01 1.116685e+00 -2.099875e-01 9.005438e-01 -5.185159e-01 9.766663e-01 -4.186558e-01 1.198659e+00 -2.155312e-01 3.267469e-01 -7.774063e-02 1.138539e-01 -1.732734e+00
<VARIANCE> 39
 7.294108e+00 8.392509e+00 1.430888e+01 1.563652e+01 1.572745e+01 3.524181e+01 2.117712e+01 2.472447e+01 2.874169e+01 1.799110e+01 2.447286e+01 2.262899e+01 1.984546e+01 9.700746e-01 6.292636e+00 1.372587e+00 4.073905e+00 2.361493e+00 5.118260e+00 2.633152e+00 7.067850e+00 2.328420e+00 2.111161e+00 1.413936e+00 1.567684e+00 1.401135e+01 1.091071e-01 1.151166e+00 3.570805e-01 4.574391e-01 4.293047e-01 9.401067e-01 3.902214e-01 8.410618e-01 4.367886e-01 3.669353e-01 3.249454e-01 3.566155e-01 1.643209e+00
<GCONST> 1.139104e+02
<MIXTURE> 3 3.184681e-01
<MEAN> 39
 -1.700793e+01 -2.778014e+01 -1.268010e+00 -8.079775e+00 5.913754e+00 -6.625367e+00 -3.887962e-01 -2.038250e+01 -4.563206e-01 -1.109083e+00 -3.511517e+00 -4.355583e+00 8.357723e+01 2.988780e-01 9.004903e-02 3.872786e-01 2.543399e-01 -6.741927e-01 1.029778e+00 -5.522417e-01 -1.996366e-01 -2.790402e-01 3.639061e-01 -5.579275e-01 -4.479508e-01 -9.809639e-01 2.993915e-01 1.116684e+00 -2.099879e-01 9.005432e-01 -5.185151e-01 9.766656e-01 -4.186556e-01 1.198659e+00 -2.155309e-01 3.267467e-01 -7.774053e-02 1.138543e-01 -1.732732e+00
<VARIANCE> 39
 7.294111e+00 8.392509e+00 1.430889e+01 1.563654e+01 1.572744e+01 3.524182e+01 2.117712e+01 2.472447e+01 2.874167e+01 1.799109e+01 2.447286e+01 2.262900e+01 1.984547e+01 9.700746e-01 6.292627e+00 1.372587e+00 4.073901e+00 2.361491e+00 5.118251e+00 2.633150e+00 7.067845e+00 2.328420e+00 2.111163e+00 1.413935e+00 1.567685e+00 1.401132e+01 1.091072e-01 1.151165e+00 3.570806e-01 4.574393e-01 4.293049e-01 9.401072e-01 3.902209e-01 8.410621e-01 4.367884e-01 3.669354e-01 3.249453e-01 3.566154e-01 1.643209e+00
<GCONST> 1.139104e+02
<MIXTURE> 4 2.073647e-01
<MEAN> 39
 -1.637272e+01 -2.787417e+01 -3.024524e+00 -7.218979e+00 8.248390e+00 -9.232066e+00 -8.636781e-01 -1.798143e+01 -2.478522e+00 3.189214e-01 -1.791182e+00 -1.514462e+00 8.286273e+01 -4.314657e-01 -7.422192e+00 -9.612067e-02 -4.691722e+00 2.555372e+00 -5.452044e+00 5.270561e-01 -6.854131e+00 6.404850e-01 -1.196658e+00 -3.547948e-01 -3.488724e-01 9.561315e+00 3.591600e-02 2.078846e+00 9.118070e-02 9.847498e-01 -1.025016e+00 1.770578e+00 -6.482801e-02 1.544907e+00 9.994435e-02 -1.257579e-01 -1.940164e-01 -3.044832e-01 -2.327505e+00
<VARIANCE> 39
 8.801022e+00 1.796621e+01 1.808952e+01 2.937986e+01 1.955499e+01 5.801342e+01 3.247184e+01 4.858826e+01 4.348177e+01 3.867955e+01 3.460241e+01 2.931384e+01 4.023737e+01 1.024600e+00 7.709854e+00 1.447418e+00 3.397417e+00 3.254549e+00 7.431540e+00 3.735408e+00 7.297818e+00 3.292149e+00 2.066193e+00 2.482219e+00 1.853022e+00 9.451885e+00 1.359032e-01 9.297805e-01 3.936521e-01 7.989847e-01 4.225438e-01 1.295673e+00 7.299916e-01 1.154031e+00 7.056749e-01 7.647988e-01 4.908308e-01 4.232991e-01 1.548964e+00
<GCONST> 1.255489e+02
<STATE> 4
<NUMMIXES> 4
<MIXTURE> 1 1.941394e-01
<MEAN> 39
 -1.121501e+01 -7.534550e+00 -7.424532e+00 1.076480e+01 -2.564091e+00 1.420180e+01 -4.712749e+00 -3.588459e+00 -8.042686e+00 6.099726e+00 -2.367481e+00 -3.878179e+00 5.417194e+01 -1.073150e+00 1.887491e+00 -1.595022e-01 8.850247e-02 1.058921e+00 1.334103e+00 1.467183e+00 2.532722e+00 1.556255e+00 6.206384e-01 9.016412e-01 -3.676066e-02 -1.775357e+00 -6.085116e-02 -4.080185e-02 1.675990e-01 -3.175175e-01 2.625909e-02 -1.766182e-01 -1.350647e-01 1.593190e-01 3.951816e-01 -1.658969e-01 6.243840e-02 2.239164e-01 1.508250e-01
<VARIANCE> 39
 5.046710e+00 1.771414e+01 1.247483e+01 1.278559e+01 1.638567e+01 2.458036e+01 3.247039e+01 2.854275e+01 3.570871e+01 2.254998e+01 2.065113e+01 1.747788e+01 8.061246e+00 4.390585e-01 6.808416e-01 7.697680e-01 1.552135e+00 1.642677e+00 1.828333e+00 2.274523e+00 2.269198e+00 3.413858e+00 1.620697e+00 1.644414e+00 1.483835e+00 4.210680e-01 1.077167e-01 1.712702e-01 1.462442e-01 2.546834e-01 3.785784e-01 3.830230e-01 4.684997e-01 4.862397e-01 7.829586e-01 4.157113e-01 3.167460e-01 2.662313e-01 8.925667e-02
<GCONST> 9.548348e+01
<MIXTURE> 2 3.492970e-01
<MEAN> 39
 -1.012751e+01 -1.483814e+01 -6.167486e+00 7.148952e+00 -2.606039e+00 8.838055e+00 -9.321219e+00 -8.608919e+00 -6.101591e+00 4.187119e+00 -5.845788e+00 -4.570348e+00 6.082650e+01 3.853891e-01 1.805329e+00 -6.313577e-01 1.675005e+00 -5.503204e-01 1.230268e+00 -3.682434e-01 1.295822e+00 -4.209303e-01 2.676351e-01 2.697010e-01 6.840444e-02 -2.032442e+00 -2.220423e-01 -2.616301e-02 1.321359e-01 -2.495718e-01 2.119415e-01 -2.675940e-01 3.207362e-01 -1.465573e-01 7.913283e-02 -1.237506e-01 1.357423e-01 -5.780835e-02 3.248493e-01
<VARIANCE> 39
 8.448171e+00 3.342054e+01 1.493526e+01 4.592736e+01 1.568028e+01 3.016945e+01 2.658223e+01 3.343273e+01 4.354493e+01 1.934215e+01 2.499790e+01 2.798078e+01 2.707020e+01 1.109350e+00 9.302863e-01 1.281306e+00 2.932215e+00 2.049801e+00 2.996091e+00 2.774270e+00 3.962978e+00 3.910825e+00 1.991360e+00 1.692914e+00 1.692369e+00 1.855261e+00 1.602719e-01 1.917194e-01 2.122272e-01 3.824602e-01 3.666241e-01 3.933651e-01 4.925409e-01 8.915964e-01 1.040468e+00 4.207682e-01 3.807510e-01 3.438649e-01 2.225673e-01
<GCONST> 1.095609e+02
<MIXTURE> 3 3.492969e-01
<MEAN> 39
 -1.012751e+01 -1.483814e+01 -6.167488e+00 7.148954e+00 -2.606038e+00 8.838057e+00 -9.321217e+00 -8.608914e+00 -6.101589e+00 4.187120e+00 -5.845787e+00 -4.570348e+00 6.082650e+01 3.853891e-01 1.805329e+00 -6.313576e-01 1.675005e+00 -5.503204e-01 1.230267e+00 -3.682437e-01 1.295821e+00 -4.209305e-01 2.676349e-01 2.697012e-01 6.840487e-02 -2.032442e+00 -2.220421e-01 -2.616289e-02 1.321360e-01 -2.495721e-01 2.119413e-01 -2.675944e-01 3.207357e-01 -1.465580e-01 7.913225e-02 -1.237508e-01 1.357421e-01 -5.780826e-02 3.248495e-01
<VARIANCE> 39
 8.448164e+00 3.342053e+01 1.493526e+01 4.592736e+01 1.568026e+01 3.016946e+01 2.658223e+01 3.343274e+01 4.354494e+01 1.934214e+01 2.499789e+01 2.798077e+01 2.707021e+01 1.109351e+00 9.302856e-01 1.281305e+00 2.932218e+00 2.049801e+00 2.996089e+00 2.774270e+00 3.962976e+00 3.910823e+00 1.991359e+00 1.692914e+00 1.692369e+00 1.855260e+00 1.602718e-01 1.917193e-01 2.122271e-01 3.824602e-01 3.666237e-01 3.933651e-01 4.925407e-01 8.915961e-01 1.040468e+00 4.207681e-01 3.807509e-01 3.438648e-01 2.225673e-01
<GCONST> 1.095609e+02
<MIXTURE> 4 1.072651e-01
<MEAN> 39
 -9.676277e+00 -1.707838e+01 -4.049479e+00 5.759234e+00 -2.086464e+00 6.251740e+00 -1.086407e+01 -1.203628e+01 -5.953510e+00 3.104221e+00 -8.090028e+00 -4.346481e+00 6.404655e+01 1.226465e+00 1.945460e+00 -7.852077e-01 1.866274e+00 -1.020614e+00 1.005848e+00 -1.795822e+00 2.921602e-01 -2.099725e+00 -4.362933e-01 -7.819245e-01 -2.924346e-01 -2.026252e+00 -3.054959e-01 -8.597882e-02 5.699316e-02 -2.301601e-01 2.328029e-01 -2.492007e-01 4.317927e-01 -5.142028e-02 7.206745e-02 -2.180001e-01 1.093234e-01 -2.215202e-01 3.612963e-01
<VARIANCE> 39
 1.199713e+01 2.750702e+01 1.783920e+01 4.122068e+01 1.630920e+01 3.031732e+01 2.520509e+01 3.495937e+01 4.177898e+01 1.697351e+01 2.255696e+01 3.201823e+01 2.479951e+01 1.438439e+00 1.398200e+00 1.921847e+00 3.339267e+00 2.306728e+00 2.429178e+00 3.092029e+00 5.222928e+00 5.607835e+00 2.003379e+00 2.216797e+00 2.223604e+00 2.781254e+00 1.822561e-01 2.298494e-01 2.644286e-01 4.267966e-01 3.364338e-01 2.693418e-01 5.571099e-01 7.136653e-01 7.907133e-01 3.961234e-01 3.490760e-01 3.717726e-01 2.170488e-01
<GCONST> 1.121105e+02
<TRANSP> 5
 0.000000e+00 1.000000e+00 0.000000e+00 0.000000e+00 0.000000e+00
 0.000000e+00 7.395037e-01 2.604962e-01 0.000000e+00 0.000000e+00
 0.000000e+00 0.000000e+00 8.692940e-01 1.307060e-01 0.000000e+00
 0.000000e+00 0.000000e+00 0.000000e+00 9.040444e-01 9.595563e-02
 0.000000e+00 0.000000e+00 0.000000e+00 0.000000e+00 0.000000e+00
<ENDHMM>
~h "p"
<BEGINHMM>
<NUMSTATES> 5
<STATE> 2
<NUMMIXES> 4
<MIXTURE> 1 1.599651e-01
<MEAN> 39
 -1.545497e+01 3.590940e+00 -4.939160e+00 9.530356e+00 -5.474526e+00 1.143987e+01 -3.065716e+00 7.809896e+00 -3.430212e+00 7.989420e-01 -1.654667e+00 -3.013915e+00 4.636256e+01 2.348797e+00 -4.363467e+00 3.259011e+00 -3.576403e+00 3.485241e+00 -5.014829e+00 1.417097e+00 -5.289421e+00 -1.759591e-01 -3.194088e+00 3.189795e-01 5.031197e-01 1.033167e+01 7.664802e-01 -5.850287e-01 7.890793e-01 -3.920293e-01 7.945113e-01 -5.689422e-01 4.307352e-01 -7.600280e-01 1.433525e-01 -6.219223e-01 -1.110206e-01 -7.274739e-02 2.004183e+00
<VARIANCE> 39
 3.939500e+00 5.767608e+00 2.882501e+00 4.935554e+00 9.601119e+00 1.414439e+01 2.246239e+01 1.853502e+01 1.355700e+01 8.721817e+00 1.076816e+01 7.659691e+00 4.026743e+00 9.855586e-01 1.599387e+00 1.539155e+00 2.495211e+00 2.623420e+00 4.487080e+00 5.188572e+00 4.968759e+00 4.363831e+00 2.997622e+00 2.282420e+00 1.782901e+00 4.187055e+00 4.689151e-02 1.751296e-01 1.366154e-01 2.282680e-01 2.878699e-01 3.084421e-01 2.989034e-01 3.491933e-01 2.540900e-01 1.977624e-01 1.869432e-01 1.681186e-01 3.906635e-01
<GCONST> 9.155733e+01
<MIXTURE> 2 3.340287e-01
<MEAN> 39
 -1.530367e+01 3.264851e+00 -4.389521e+00 9.227541e+00 -5.295008e+00 1.197637e+01 -2.780367e+00 7.991867e+00 -2.921531e+00 9.089801e-01 -1.644562e+00 -2.711057e+00 4.685493e+01 9.504730e-01 -2.244202e+00 1.103507e+00 -1.535497e+00 1.277995e+00 -2.269318e+00 6.662189e-01 -2.220724e+00 -4.183979e-01 -1.263016e+00 2.089071e-02 5.948109e-02 4.202792e+00 7.272688e-01 -1.080294e+00 8.628197e-01 -8.143045e-01 8.801692e-01 -1.109186e+00 3.307468e-01 -1.311354e+00 -1.063278e-01 -8.467180e-01 -5.508367e-02 -7.340640e-03 2.601186e+00
<VARIANCE> 39
 3.785451e+00 6.345206e+00 5.008379e+00 5.953047e+00 9.611288e+00 1.420520e+01 2.112292e+01 1.739632e+01 1.604080e+01 1.079630e+01 1.022611e+01 9.992801e+00 4.743166e+00 1.327879e+00 4.345307e+00 2.503445e+00 3.197873e+00 3.171407e+00 5.616536e+00 2.905722e+00 6.405176e+00 2.327052e+00 3.531899e+00 1.595613e+00 1.463389e+00 1.603570e+01 1.054370e-01 2.370254e-01 1.836350e-01 3.353427e-01 3.307577e-01 5.234780e-01 4.201034e-01 5.488354e-01 4.112261e-01 3.251588e-01 2.756476e-01 2.560052e-01 5.839496e-01
<GCONST> 1.008792e+02
<MIXTURE> 3 3.340287e-01
<MEAN> 39
 -1.530367e+01 3.264851e+00 -4.389521e+00 9.227541e+00 -5.295008e+00 1.197637e+01 -2.780367e+00 7.991867e+00 -2.921531e+00 9.089801e-01 -1.644562e+00 -2.711057e+00 4.685493e+01 9.504730e-01 -2.244202e+00 1.103507e+00 -1.535497e+00 1.277995e+00 -2.269318e+00 6.662189e-01 -2.220724e+00 -4.183979e-01 -1.263016e+00 2.089071e-02 5.948109e-02 4.202792e+00 7.272688e-01 -1.080294e+00 8.628197e-01 -8.143045e-01 8.801692e-01 -1.109186e+00 3.307468e-01 -1.311354e+00 -1.063278e-01 -8.467180e-01 -5.508367e-02 -7.340640e-03 2.601186e+00
<VARIANCE> 39
 3.785451e+00 6.345206e+00 5.008379e+00 5.953047e+00 9.611288e+00 1.420520e+01 2.112292e+01 1.739632e+01 1.604080e+01 1.079630e+01 1.022611e+01 9.992801e+00 4.743166e+00 1.327879e+00 4.345307e+00 2.503445e+00 3.197873e+00 3.171407e+00 5.616536e+00 2.905722e+00 6.405176e+00 2.327052e+00 3.531899e+00 1.595613e+00 1.463389e+00 1.603570e+01 1.054370e-01 2.370254e-01 1.836350e-01 3.353427e-01 3.307577e-01 5.234780e-01 4.201034e-01 5.488354e-01 4.112261e-01 3.251588e-01 2.756476e-01 2.560052e-01 5.839496e-01
<GCONST> 1.008792e+02
<MIXTURE> 4 1.719773e-01
<MEAN> 39
 -1.347318e+01 2.586874e+00 -1.812775e+00 7.209489e+00 -7.597217e+00 9.998442e+00 -7.726128e+00 3.548191e+00 -6.514059e+00 -3.381337e+00 -4.728739e+00 -4.107477e+00 4.951598e+01 2.787970e-01 -5.269059e-01 -3.619192e-01 -3.577459e-01 -4.003376e-02 -7.438207e-01 4.201626e-01 -4.877172e-01 1.174627e-01 -1.629846e-01 -6.556004e-03 -4.140840e-01 8.761307e-01 4.382050e-01 -1.144650e+00 6.305958e-01 -7.472388e-01 9.974373e-01 -8.819113e-01 6.895281e-01 -8.168885e-01 8.825006e-02 -4.743796e-01 4.231348e-02 -8.232079e-02 2.266304e+00
<VARIANCE> 39
 1.956234e+01 2.846452e+01 3.358441e+01 1.101129e+01 1.720918e+01 1.989435e+01 1.767651e+01 1.111103e+01 1.895606e+01 1.470526e+01 1.100212e+01 8.630692e+00 2.744973e+01 6.804721e-01 4.070179e+00 1.826956e+00 1.798121e+00 2.191825e+00 2.794162e+00 1.620469e+00 2.985538e+00 1.907507e+00 1.795732e+00 1.037909e+00 1.263138e+00 6.329508e+00 7.052483e-02 4.050151e-01 2.949267e-01 2.601773e-01 5.923598e-01 6.020836e-01 5.818793e-01 4.341457e-01 4.842087e-01 3.526694e-01 2.344912e-01 3.055169e-01 6.132975e-01
<GCONST> 1.040463e+02
<STATE> 3
<NUMMIXES> 4
<MIXTURE> 1 1.349687e-01
<MEAN> 39
 -5.360001e+00 -1.008224e+01 7.618095e+00 -2.670361e+00 7.622976e+00 -5.203156e+00 3.656316e+00 -1.005253e+01 -2.711376e+00 -1.003402e+01 -4.401262e-01 -2.662136e+00 8.467878e+01 2.073885e+00 -7.385925e-01 1.217456e+00 1.984867e-01 1.210470e+00 2.352834e-01 1.046959e+00 -1.730388e-01 7.982036e-01 -9.603730e-01 -6.231088e-01 -7.232255e-02 2.688384e+00 -5.475781e-01 1.477050e+00 -1.294052e+00 1.695124e+00 -1.616709e+00 2.370670e+00 -7.216938e-01 2.391434e+00 -2.598504e-02 1.138717e+00 -5.230417e-01 -8.378831e-02 -4.272831e+00
<VARIANCE> 39
 4.845887e+00 6.586183e+00 8.958080e+00 1.640239e+01 1.272571e+01 3.250922e+01 1.862470e+01 2.494268e+01 1.890758e+01 1.644379e+01 1.812351e+01 1.600467e+01 1.511929e+01 8.936972e-01 3.234668e+00 3.512040e+00 3.612664e+00 4.623432e+00 7.489889e+00 2.551468e+00 7.797080e+00 1.962638e+00 2.928473e+00 1.910236e+00 1.458527e+00 2.076657e+01 1.254726e-01 2.656890e-01 2.052603e-01 3.036990e-01 3.130775e-01 7.054101e-01 5.122373e-01 7.649318e-01 4.873077e-01 3.471780e-01 4.080890e-01 2.892589e-01 5.295347e-01
<GCONST> 1.091934e+02
<MIXTURE> 2 3.676681e-01
<MEAN> 39
 -4.897732e+00 -1.043746e+01 6.062429e+00 -4.167593e-02 5.546587e+00 -1.400521e+00 2.234345e+00 -6.981789e+00 -3.986044e+00 -1.010633e+01 -3.971576e+00 -3.728281e+00 7.898752e+01 1.731021e+00 -3.883266e-02 3.144291e-01 9.651465e-01 -1.009326e-01 1.149837e+00 5.899785e-02 6.931989e-01 1.445981e-02 -4.334234e-01 -1.230789e+00 -4.057198e-01 3.282925e-01 -3.346033e-01 1.213584e+00 -8.617167e-01 1.080461e+00 -1.249959e+00 1.339723e+00 -7.065845e-01 1.311761e+00 -9.305738e-02 8.312755e-01 -1.211748e-01 -6.339666e-03 -2.686476e+00
<VARIANCE> 39
 8.136326e+00 9.924305e+00 1.218453e+01 2.630069e+01 2.000184e+01 4.190091e+01 2.340333e+01 3.711717e+01 2.503197e+01 1.994317e+01 2.730960e+01 2.095423e+01 3.070314e+01 1.149862e+00 5.986617e+00 4.531793e+00 6.131894e+00 8.144133e+00 1.165015e+01 4.464380e+00 1.160843e+01 2.203427e+00 3.968529e+00 1.907872e+00 1.324848e+00 3.813711e+01 1.657117e-01 4.179029e-01 3.550252e-01 5.070245e-01 5.318853e-01 1.166602e+00 6.723033e-01 1.214390e+00 5.594110e-01 4.043850e-01 4.858827e-01 3.514079e-01 2.154906e+00
<GCONST> 1.242636e+02
<MIXTURE> 3 3.676693e-01
<MEAN> 39
 -4.897735e+00 -1.043746e+01 6.062428e+00 -4.167789e-02 5.546586e+00 -1.400525e+00 2.234344e+00 -6.981792e+00 -3.986043e+00 -1.010633e+01 -3.971575e+00 -3.728280e+00 7.898752e+01 1.731022e+00 -3.883547e-02 3.144313e-01 9.651432e-01 -1.009299e-01 1.149832e+00 5.899948e-02 6.931946e-01 1.445974e-02 -4.334253e-01 -1.230788e+00 -4.057197e-01 3.283004e-01 -3.346031e-01 1.213584e+00 -8.617166e-01 1.080461e+00 -1.249958e+00 1.339723e+00 -7.065842e-01 1.311761e+00 -9.305738e-02 8.312755e-01 -1.211746e-01 -6.339751e-03 -2.686476e+00
<VARIANCE> 39
 8.136339e+00 9.924307e+00 1.218455e+01 2.630070e+01 2.000186e+01 4.190095e+01 2.340335e+01 3.711721e+01 2.503198e+01 1.994317e+01 2.730961e+01 2.095424e+01 3.070316e+01 1.149864e+00 5.986621e+00 4.531796e+00 6.131904e+00 8.144142e+00 1.165015e+01 4.464383e+00 1.160845e+01 2.203429e+00 3.968533e+00 1.907875e+00 1.324849e+00 3.813716e+01 1.657117e-01 4.179029e-01 3.550255e-01 5.070246e-01 5.318854e-01 1.166602e+00 6.723039e-01 1.214390e+00 5.594112e-01 4.043850e-01 4.858829e-01 3.514080e-01 2.154906e+00
<GCONST> 1.242636e+02
<MIXTURE> 4 1.296944e-01
<MEAN> 39
 -1.034868e+01 -1.214243e+01 2.245665e+00 -1.305681e+00 1.054350e+00 -3.668170e-01 -2.618365e+00 -5.913542e+00 -5.639580e+00 -6.551411e+00 -2.557549e+00 -8.322477e-03 7.056151e+01 2.403242e+00 -3.105438e+00 2.332089e+00 -2.299749e+00 2.364667e+00 -3.007374e+00 9.730881e-01 -3.458545e+00 -3.310820e-01 -2.492670e+00 -2.069303e-01 -2.895094e-01 7.607777e+00 7.443722e-02 1.006579e+00 -2.437816e-01 8.394847e-01 -2.537636e-01 1.008830e+00 1.209651e-01 9.756250e-01 2.383012e-01 3.003536e-01 -1.941221e-01 -2.491269e-01 -1.224075e+00
<VARIANCE> 39
 5.645210e+01 4.111741e+01 3.017495e+01 5.642540e+01 4.219865e+01 6.688838e+01 4.257670e+01 5.733545e+01 4.675844e+01 4.559241e+01 3.880269e+01 3.516566e+01 7.668939e+01 3.118334e+00 6.676327e+00 4.140132e+00 7.105141e+00 7.063274e+00 1.087513e+01 4.543948e+00 1.225508e+01 3.107724e+00 4.400955e+00 2.029534e+00 2.060107e+00 3.038030e+01 2.382093e-01 7.108136e-01 3.733980e-01 5.677535e-01 6.036855e-01 8.612326e-01 7.100857e-01 8.809111e-01 6.747193e-01 6.882077e-01 5.149744e-01 4.339595e-01 7.075696e-01
<GCONST> 1.370124e+02
<STATE> 4
<NUMMIXES> 4
<MIXTURE> 1 1.216011e-01
<MEAN> 39
 -2.158126e+00 -1.427871e+00 1.048494e+00 8.920399e+00 -2.010996e+00 1.013896e+01 -1.270762e+00 3.745314e+00 -5.082239e+00 -5.707394e+00 -6.801943e+00 -4.318651e+00 6.291502e+01 6.664649e-02 1.900409e+00 -8.984512e-01 1.964437e+00 -1.563593e+00 2.232563e+00 -5.045440e-01 1.943759e+00 1.519387e-01 1.148710e+00 1.073990e-01 6.578357e-02 -3.138173e+00 -2.873444e-01 -4.610156e-02 9.978262e-02 -2.137554e-01 1.993260e-01 -6.769519e-01 3.234498e-02 -5.704881e-01 -5.749863e-02 4.715503e-02 3.668659e-01 8.902721e-03 4.259965e-01
<VARIANCE> 39
 1.028745e+01 3.809923e+01 1.783788e+01 2.604274e+01 1.815025e+01 2.466211e+01 2.156710e+01 1.872971e+01 2.425495e+01 1.746688e+01 1.317661e+01 1.684163e+01 3.577146e+01 1.176982e+00 7.799272e-01 1.669459e+00 2.233488e+00 4.935372e+00 2.625994e+00 2.382938e+00 2.438778e+00 1.628048e+00 1.675311e+00 1.330963e+00 1.154075e+00 2.168456e+00 4.732781e-02 1.338352e-01 1.631178e-01 2.858194e-01 3.391736e-01 5.383549e-01 2.373135e-01 3.922264e-01 3.633419e-01 2.776096e-01 2.817877e-01 2.460521e-01 1.242744e-01
<GCONST> 9.943149e+01
<MIXTURE> 2 3.931143e-01
<MEAN> 39
 -3.304682e+00 4.457666e+00 1.274714e+00 1.313535e+01 -3.566606e+00 1.070403e+01 -4.238862e+00 2.812757e+00 -8.284497e+00 -4.762302e+00 -7.759770e+00 -6.552954e+00 5.713651e+01 -6.041934e-01 1.050490e+00 -3.675773e-01 4.465263e-01 -2.619564e-01 3.832057e-01 -2.394079e-01 3.817545e-01 -3.278045e-01 3.921889e-01 1.251350e-01 -1.044320e-01 -1.515347e+00 -1.732083e-01 -2.058219e-01 7.807983e-02 -2.885167e-01 2.253755e-01 -2.445035e-01 1.202290e-01 -1.593552e-01 8.510003e-02 -7.710782e-02 1.115385e-01 7.336456e-02 2.796455e-01
<VARIANCE> 39
 1.375601e+01 3.361057e+01 1.776159e+01 1.732673e+01 1.715476e+01 1.567225e+01 1.816424e+01 1.686696e+01 2.136521e+01 1.804727e+01 1.495665e+01 1.520796e+01 2.415557e+01 7.512181e-01 1.555558e+00 1.357350e+00 1.955507e+00 2.419863e+00 1.869890e+00 1.674142e+00 1.503358e+00 1.729990e+00 1.561883e+00 1.208142e+00 1.136359e+00 1.192799e+00 7.214153e-02 1.290374e-01 2.330342e-01 3.010581e-01 4.156945e-01 4.860663e-01 3.170864e-01 3.726565e-01 3.454362e-01 2.922172e-01 2.573628e-01 2.290850e-01 1.134850e-01
<GCONST> 9.611089e+01
<MIXTURE> 3 3.931129e-01
<MEAN> 39
 -3.304682e+00 4.457666e+00 1.274717e+00 1.313535e+01 -3.566605e+00 1.070403e+01 -4.238862e+00 2.812754e+00 -8.284500e+00 -4.762302e+00 -7.759773e+00 -6.552957e+00 5.713651e+01 -6.041929e-01 1.050490e+00 -3.675775e-01 4.465265e-01 -2.619571e-01 3.832062e-01 -2.394081e-01 3.817548e-01 -3.278045e-01 3.921891e-01 1.251350e-01 -1.044320e-01 -1.515347e+00 -1.732082e-01 -2.058218e-01 7.807942e-02 -2.885168e-01 2.253753e-01 -2.445036e-01 1.202288e-01 -1.593550e-01 8.510023e-02 -7.710782e-02 1.115386e-01 7.336482e-02 2.796455e-01
<VARIANCE> 39
 1.375601e+01 3.361058e+01 1.776160e+01 1.732673e+01 1.715478e+01 1.567225e+01 1.816424e+01 1.686698e+01 2.136525e+01 1.804729e+01 1.495669e+01 1.520797e+01 2.415558e+01 7.512186e-01 1.555560e+00 1.357350e+00 1.955509e+00 2.419866e+00 1.869892e+00 1.674144e+00 1.503359e+00 1.729989e+00 1.561884e+00 1.208144e+00 1.136360e+00 1.192802e+00 7.214154e-02 1.290375e-01 2.330342e-01 3.010581e-01 4.156945e-01 4.860667e-01 3.170868e-01 3.726566e-01 3.454366e-01 2.922176e-01 2.573631e-01 2.290851e-01 1.134851e-01
<GCONST> 9.611092e+01
<MIXTURE> 4 9.216412e-02
<MEAN> 39
 -3.885287e+00 4.806317e+00 -1.584280e-01 1.264844e+01 -5.702176e+00 8.607193e+00 -5.898666e+00 1.971220e+00 -8.236501e+00 -3.947340e+00 -7.831036e+00 -5.794747e+00 5.586369e+01 -8.429732e-01 9.757515e-01 -2.085592e-01 -2.437967e-01 -4.385781e-01 -4.998309e-01 -6.548425e-01 -5.074170e-01 -9.934095e-01 -5.477699e-02 -3.955100e-01 -5.451006e-01 -1.249856e+00 -2.082981e-01 -3.124948e-01 1.500731e-01 -3.077344e-01 3.231964e-01 1.616890e-01 3.698179e-01 -3.251407e-02 3.117425e-02 -1.802854e-01 -1.001294e-02 -9.760326e-02 2.566016e-01
<VARIANCE> 39
 2.336021e+01 2.485744e+01 2.024290e+01 1.712309e+01 2.378942e+01 2.893332e+01 2.029586e+01 1.879410e+01 2.577134e+01 2.423791e+01 1.996112e+01 2.189093e+01 2.518336e+01 4.759980e-01 1.423436e+00 1.193006e+00 1.639873e+00 1.971350e+00 1.879359e+00 1.653244e+00 1.452561e+00 2.034733e+00 2.400486e+00 1.525395e+00 1.863890e+00 5.780948e-01 7.720216e-02 1.447208e-01 2.695535e-01 3.358160e-01 5.737749e-01 5.569143e-01 4.469579e-01 4.244695e-01 3.994634e-01 5.346571e-01 2.875642e-01 2.991969e-01 8.853605e-02
<GCONST> 1.005409e+02
<TRANSP> 5
 0.000000e+00 1.000000e+00 0.000000e+00 0.000000e+00 0.000000e+00
 0.000000e+00 6.991789e-01 3.008210e-01 0.000000e+00 0.000000e+00
 0.000000e+00 0.000000e+00 7.864209e-01 2.135790e-01 0.000000e+00
 0.000000e+00 0.000000e+00 0.000000e+00 9.065566e-01 9.344338e-02
 0.000000e+00 0.000000e+00 0.000000e+00 0.000000e+00 0.000000e+00
<ENDHMM>
~h "s"
<BEGINHMM>
<NUMSTATES> 5
<STATE> 2
<NUMMIXES> 4
<MIXTURE> 1 1.434135e-01
<MEAN> 39
 -1.527981e+01 8.325033e-01 -1.934911e+00 1.002921e+01 -4.148795e+00 1.256223e+01 -1.004302e+00 7.481205e+00 -4.098394e+00 8.554447e-01 -2.082769e+00 -2.679411e+00 4.894028e+01 -3.260392e-01 -7.978547e-01 3.158533e-01 2.273962e-01 -3.355995e-01 -3.573818e-01 6.817486e-01 -1.951985e-01 8.540326e-02 2.204685e-01 2.435364e-01 3.676499e-01 2.949429e-01 -4.028947e-01 -1.240836e+00 1.949586e-01 -6.000307e-01 5.770869e-01 -9.204903e-01 5.281640e-01 -1.268730e+00 7.511508e-02 -2.394250e-01 -2.602573e-02 5.038944e-01 1.204309e+00
<VARIANCE> 39
 1.542737e+01 3.457338e+01 2.852427e+01 1.643316e+01 1.773555e+01 2.917858e+01 3.795800e+01 3.417086e+01 3.588243e+01 2.366138e+01 2.729863e+01 1.417394e+01 1.593878e+01 5.837971e-01 3.722623e+00 2.471512e+00 1.976647e+00 1.827315e+00 3.410381e+00 2.794134e+00 3.707288e+00 2.894092e+00 1.521043e+00 1.962318e+00 1.627577e+00 1.204484e+00 2.064784e-01 9.582750e-01 6.914938e-01 6.313978e-01 6.639022e-01 1.194911e+00 8.462315e-01 9.721928e-01 6.756611e-01 4.571038e-01 6.135240e-01 4.107361e-01 5.586160e-01
<GCONST> 1.163426e+02
<MIXTURE> 2 3.828959e-01
<MEAN> 39
 -1.447734e+01 5.387247e-03 -3.000634e+00 9.268942e+00 -4.898897e+00 1.020817e+01 -3.012920e+00 3.906926e+00 -4.534860e+00 -3.980548e-02 -3.682365e+00 -2.363086e+00 5.013754e+01 -1.693814e+00 -3.662254e+00 1.063039e+00 -1.515243e+00 1.668252e+00 -2.414005e+00 2.092138e+00 -2.894083e+00 3.950684e-01 -5.476942e-01 1.025778e-01 1.447848e+00 3.153062e+00 -8.964936e-01 -1.267462e+00 5.771341e-01 -1.277380e+00 1.178135e+00 -1.077761e+00 6.838094e-01 -1.016216e+00 1.402593e-01 -3.705552e-01 2.084033e-01 2.528819e-01 1.642475e+00
<VARIANCE> 39
 1.227416e+01 4.598664e+01 2.309672e+01 1.797199e+01 1.795560e+01 3.171717e+01 3.992979e+01 4.307214e+01 2.592764e+01 1.965866e+01 2.266957e+01 1.887845e+01 1.960930e+01 2.582464e+00 8.545098e+00 4.023321e+00 5.328028e+00 5.634956e+00 7.379733e+00 4.953634e+00 7.503621e+00 3.241636e+00 2.532878e+00 2.632631e+00 2.458920e+00 6.822325e+00 1.654398e-01 9.802743e-01 5.872570e-01 6.081975e-01 5.564277e-01 8.366984e-01 7.263620e-01 9.828008e-01 4.417220e-01 3.914989e-01 4.126799e-01 4.284560e-01 3.922076e-01
<GCONST> 1.241273e+02
<MIXTURE> 3 3.828955e-01
<MEAN> 39
 -1.447734e+01 5.386531e-03 -3.000635e+00 9.268943e+00 -4.898897e+00 1.020817e+01 -3.012921e+00 3.906925e+00 -4.534860e+00 -3.980559e-02 -3.682365e+00 -2.363086e+00 5.013754e+01 -1.693815e+00 -3.662255e+00 1.063039e+00 -1.515244e+00 1.668252e+00 -2.414006e+00 2.092139e+00 -2.894084e+00 3.950685e-01 -5.476942e-01 1.025782e-01 1.447848e+00 3.153063e+00 -8.964936e-01 -1.267462e+00 5.771341e-01 -1.277380e+00 1.178135e+00 -1.077761e+00 6.838094e-01 -1.016216e+00 1.402594e-01 -3.705553e-01 2.084034e-01 2.528819e-01 1.642475e+00
<VARIANCE> 39
 1.227416e+01 4.598669e+01 2.309673e+01 1.797200e+01 1.795559e+01 3.171721e+01 3.992982e+01 4.307215e+01 2.592766e+01 1.965866e+01 2.266961e+01 1.887846e+01 1.960933e+01 2.582465e+00 8.545100e+00 4.023322e+00 5.328031e+00 5.634961e+00 7.379740e+00 4.953635e+00 7.503623e+00 3.241640e+00 2.532879e+00 2.632632e+00 2.458921e+00 6.822329e+00 1.654399e-01 9.802752e-01 5.872576e-01 6.081980e-01 5.564280e-01 8.366988e-01 7.263626e-01 9.828017e-01 4.417225e-01 3.914991e-01 4.126802e-01 4.284562e-01 3.922077e-01
<GCONST> 1.241273e+02
<MIXTURE> 4 9.079524e-02
<MEAN> 39
 -1.633257e+01 -6.604255e+00 -3.427463e+00 8.447869e+00 -3.318193e+00 8.114109e+00 3.612516e-01 -1.346269e+00 -3.012201e+00 -4.198231e-01 -3.319437e+00 2.276294e+00 5.387341e+01 -2.800930e+00 -6.144798e+00 1.115756e+00 -4.200818e+00 3.460591e+00 -4.581493e+00 3.384953e+00 -5.441471e+00 1.338307e-01 -1.955823e+00 1.143376e-01 1.714826e+00 6.639644e+00 -8.829527e-01 -2.253194e-01 6.046586e-01 -1.478049e+00 1.019381e+00 -7.375042e-01 2.084483e-01 -1.264775e-01 -1.011665e-02 -3.004439e-01 2.939650e-01 -4.291561e-01 1.233928e+00
<VARIANCE> 39
 1.394576e+01 9.077885e+01 2.260068e+01 2.658609e+01 2.921122e+01 4.012788e+01 5.034344e+01 8.149094e+01 2.458640e+01 2.285632e+01 3.737266e+01 4.121143e+01 4.609557e+01 1.807713e+00 5.139575e+00 3.789341e+00 4.237715e+00 4.631972e+00 7.135127e+00 4.940329e+00 5.592983e+00 2.683510e+00 2.455233e+00 3.346359e+00 2.267792e+00 3.959969e+00 1.070211e-01 1.390330e+00 5.011114e-01 3.736152e-01 4.621046e-01 6.555478e-01 6.652448e-01 1.280503e+00 3.597219e-01 3.296527e-01 4.945082e-01 5.656370e-01 6.267837e-01
<GCONST> 1.264089e+02
<STATE> 3
<NUMMIXES> 4
<MIXTURE> 1 8.101249e-02
<MEAN> 39
 -2.866586e+01 -1.452104e+01 7.502521e+00 -1.055556e+01 1.248012e+01 -5.152529e+00 6.327421e+00 -6.886159e+00 -3.167575e+00 -3.043284e+00 -1.427464e+00 7.231330e-01 7.130819e+01 -2.422905e+00 -6.266446e-01 2.415022e+00 -3.120263e+00 2.095408e+00 -1.677287e-01 -8.239675e-02 4.692594e-01 6.622556e-01 -2.020230e-01 1.121733e+00 -4.866138e-01 2.213932e+00 8.627619e-01 3.714575e-01 -5.752177e-01 1.229041e+00 -1.127053e+00 1.277596e+00 -5.787222e-01 4.526853e-01 3.651597e-02 -4.283810e-02 -1.763486e-02 -7.056649e-02 -9.491810e-01
<VARIANCE> 39
 2.385122e+01 4.168507e+01 6.627843e+01 4.697437e+01 4.402668e+01 5.788495e+01 4.087039e+01 4.753865e+01 2.885331e+01 2.541508e+01 3.361029e+01 2.271852e+01 8.123302e+01 2.832348e+00 3.817120e+00 5.949726e+00 5.038208e+00 4.441287e+00 4.131785e+00 3.298232e+00 2.871760e+00 1.908542e+00 2.581905e+00 1.980800e+00 1.913510e+00 2.596929e+00 2.938403e-01 6.578135e-01 8.624448e-01 5.874484e-01 6.483601e-01 7.495778e-01 6.545575e-01 8.005631e-01 4.591750e-01 4.430561e-01 4.500219e-01 4.743673e-01 5.791235e-01
<GCONST> 1.271173e+02
<MIXTURE> 2 3.864743e-01
<MEAN> 39
 -2.769879e+01 -1.821122e+01 4.759340e+00 -8.272086e+00 1.072962e+01 -5.494549e+00 7.524670e+00 -1.018474e+01 -2.308362e+00 -4.791691e+00 -8.091744e-01 1.854688e+00 7.298679e+01 -2.553544e+00 -1.513762e+00 1.562229e+00 -3.950281e+00 2.825334e+00 -1.724658e+00 6.943383e-01 -8.679120e-01 2.754548e-01 -6.630519e-01 9.704765e-01 -3.076711e-01 3.780653e+00 7.052761e-01 1.148986e+00 -2.991923e-01 7.897545e-01 -9.163357e-01 1.216336e+00 -8.327162e-01 1.013776e+00 -1.388929e-01 2.458726e-01 -6.544925e-02 -3.467609e-01 -1.182980e+00
<VARIANCE> 39
 1.990491e+01 2.625356e+01 5.272514e+01 5.798169e+01 4.492446e+01 4.440554e+01 3.631347e+01 3.492871e+01 3.289470e+01 2.542537e+01 3.782803e+01 2.305262e+01 3.346695e+01 3.180345e+00 7.212869e+00 4.798454e+00 4.789807e+00 6.674477e+00 6.833368e+00 5.165489e+00 5.167928e+00 2.454514e+00 2.592806e+00 2.208273e+00 2.195276e+00 5.103652e+00 4.158691e-01 8.906525e-01 8.830894e-01 1.049715e+00 8.925685e-01 8.767722e-01 7.469934e-01 8.851427e-01 5.304452e-01 5.120766e-01 5.276153e-01 5.063476e-01 5.566035e-01
<GCONST> 1.312099e+02
<MIXTURE> 3 3.864748e-01
<MEAN> 39
 -2.769879e+01 -1.821122e+01 4.759344e+00 -8.272083e+00 1.072962e+01 -5.494549e+00 7.524666e+00 -1.018474e+01 -2.308360e+00 -4.791690e+00 -8.091762e-01 1.854690e+00 7.298679e+01 -2.553545e+00 -1.513763e+00 1.562230e+00 -3.950282e+00 2.825335e+00 -1.724659e+00 6.943398e-01 -8.679133e-01 2.754554e-01 -6.630525e-01 9.704768e-01 -3.076705e-01 3.780654e+00 7.052760e-01 1.148985e+00 -2.991927e-01 7.897540e-01 -9.163354e-01 1.216336e+00 -8.327159e-01 1.013775e+00 -1.388932e-01 2.458722e-01 -6.544904e-02 -3.467610e-01 -1.182980e+00
<VARIANCE> 39
 1.990491e+01 2.625356e+01 5.272514e+01 5.798169e+01 4.492447e+01 4.440554e+01 3.631346e+01 3.492869e+01 3.289468e+01 2.542536e+01 3.782803e+01 2.305262e+01 3.346696e+01 3.180344e+00 7.212868e+00 4.798453e+00 4.789807e+00 6.674476e+00 6.833370e+00 5.165490e+00 5.167926e+00 2.454514e+00 2.592804e+00 2.208271e+00 2.195277e+00 5.103652e+00 4.158694e-01 8.906519e-01 8.830897e-01 1.049715e+00 8.925688e-01 8.767720e-01 7.469929e-01 8.851426e-01 5.304450e-01 5.120760e-01 5.276155e-01 5.063474e-01 5.566038e-01
<GCONST> 1.312099e+02
<MIXTURE> 4 1.460391e-01
<MEAN> 39
 -2.404237e+01 -2.153540e+01 -2.980254e-01 -2.409978e+00 4.722672e+00 -2.346524e+00 8.527358e+00 -1.386273e+01 -1.657422e+00 -5.172214e+00 7.546903e-01 5.118054e+00 7.090092e+01 -3.277512e+00 -4.801145e+00 1.097538e+00 -5.696671e+00 3.695961e+00 -5.033703e+00 2.544328e+00 -4.919960e+00 -1.094541e-01 -1.934202e+00 7.926769e-01 7.038732e-01 7.402204e+00 1.446635e-01 1.931136e+00 9.325176e-03 -1.652857e-01 -1.167173e-01 7.164278e-01 -8.720379e-01 1.686937e+00 -1.839469e-01 4.277976e-01 -4.886451e-02 -7.952173e-01 -9.635026e-01
<VARIANCE> 39
 1.425758e+01 2.016071e+01 2.865783e+01 4.576263e+01 3.862195e+01 5.015018e+01 2.706030e+01 3.539132e+01 3.401305e+01 3.389263e+01 3.684792e+01 3.072631e+01 2.642793e+01 1.270227e+00 5.755300e+00 2.252921e+00 2.361919e+00 3.673723e+00 4.796243e+00 4.866736e+00 6.192888e+00 2.217131e+00 1.920889e+00 1.812352e+00 1.922854e+00 2.825935e+00 3.261981e-01 6.017177e-01 6.018357e-01 9.014451e-01 8.853362e-01 1.080726e+00 6.099494e-01 9.398220e-01 5.078114e-01 6.481963e-01 6.345398e-01 4.494830e-01 6.595520e-01
<GCONST> 1.243567e+02
<STATE> 4
<NUMMIXES> 4
<MIXTURE> 1 1.683379e-01
<MEAN> 39
 -2.420625e+01 -1.553791e+01 9.678301e+00 -9.682949e+00 7.711800e+00 5.066699e+00 4.635788e+00 -4.749481e+00 -4.644655e+00 -4.763469e+00 -2.411304e+00 1.951244e+00 6.779687e+01 2.149001e+00 2.343544e+00 -4.370843e-01 2.273626e+00 -1.860364e+00 2.410752e+00 -1.287413e+00 3.109898e+00 -9.754052e-01 1.086342e+00 -1.175548e+00 -8.954200e-02 -3.547682e+00 4.193063e-02 4.747702e-01 -2.789452e-01 3.352895e-01 -3.286296e-01 2.064354e-01 -4.942161e-01 4.202244e-01 9.808461e-02 2.204984e-01 2.315356e-01 -2.017498e-01 -2.774228e-01
<VARIANCE> 39
 1.593116e+01 3.004609e+01 3.210224e+01 2.935934e+01 4.321959e+01 7.131820e+01 2.720955e+01 4.040358e+01 2.954785e+01 2.564832e+01 2.819159e+01 1.648181e+01 3.433585e+01 1.071759e+00 1.375151e+00 1.348352e+00 1.348632e+00 2.203544e+00 2.618407e+00 2.446828e+00 2.372860e+00 1.854092e+00 1.797782e+00 1.700714e+00 1.135659e+00 9.225594e-01 2.407735e-01 3.098107e-01 2.585180e-01 3.206461e-01 4.080281e-01 6.673527e-01 3.945470e-01 6.259703e-01 4.722122e-01 4.857986e-01 3.755877e-01 2.812357e-01 3.567623e-01
<GCONST> 1.097836e+02
<MIXTURE> 2 3.789283e-01
<MEAN> 39
 -3.059697e+01 -1.928440e+01 1.037447e+01 -1.406985e+01 1.109980e+01 -3.405367e-01 4.207589e+00 -9.388559e+00 -1.241082e+00 -5.222015e+00 1.316987e+00 1.220253e+00 7.641911e+01 4.963461e-01 1.564599e-01 6.067106e-01 3.199741e-01 -5.730367e-01 1.145422e+00 -3.217846e-01 4.527070e-01 -2.200783e-01 6.517096e-02 -3.200605e-01 5.960348e-02 -8.960711e-01 3.299566e-01 2.156973e-01 -1.305060e-01 3.915062e-01 -2.722308e-01 1.532140e-01 -7.816739e-02 1.795577e-01 -1.504572e-01 9.256405e-02 -1.967771e-01 3.556697e-02 -4.741362e-01
<VARIANCE> 39
 9.020286e+00 9.622120e+00 3.260965e+01 1.731474e+01 2.931856e+01 4.283260e+01 2.536749e+01 2.225049e+01 2.064508e+01 1.840137e+01 2.261127e+01 1.442840e+01 2.230422e+01 1.184817e+00 1.144910e+00 1.208029e+00 1.646681e+00 1.964491e+00 1.830411e+00 1.635051e+00 1.562640e+00 1.750155e+00 1.378918e+00 1.383112e+00 8.997594e-01 1.994817e+00 1.528387e-01 2.485196e-01 2.273043e-01 2.708498e-01 3.180880e-01 3.052541e-01 3.413328e-01 3.543921e-01 3.002331e-01 2.907565e-01 2.334175e-01 1.966168e-01 1.559007e-01
<GCONST> 9.790035e+01
<MIXTURE> 3 3.789266e-01
<MEAN> 39
 -3.059698e+01 -1.928440e+01 1.037447e+01 -1.406985e+01 1.109980e+01 -3.405330e-01 4.207588e+00 -9.388559e+00 -1.241081e+00 -5.222017e+00 1.316987e+00 1.220252e+00 7.641911e+01 4.963459e-01 1.564595e-01 6.067107e-01 3.199739e-01 -5.730362e-01 1.145421e+00 -3.217841e-01 4.527061e-01 -2.200778e-01 6.517086e-02 -3.200608e-01 5.960369e-02 -8.960711e-01 3.299566e-01 2.156973e-01 -1.305059e-01 3.915059e-01 -2.722308e-01 1.532137e-01 -7.816731e-02 1.795575e-01 -1.504572e-01 9.256437e-02 -1.967770e-01 3.556711e-02 -4.741359e-01
<VARIANCE> 39
 9.020279e+00 9.622120e+00 3.260960e+01 1.731474e+01 2.931854e+01 4.283260e+01 2.536749e+01 2.225050e+01 2.064509e+01 1.840138e+01 2.261127e+01 1.442841e+01 2.230421e+01 1.184816e+00 1.144910e+00 1.208029e+00 1.646680e+00 1.964490e+00 1.830410e+00 1.635051e+00 1.562638e+00 1.750154e+00 1.378917e+00 1.383110e+00 8.997597e-01 1.994814e+00 1.528387e-01 2.485195e-01 2.273041e-01 2.708498e-01 3.180877e-01 3.052538e-01 3.413329e-01 3.543918e-01 3.002329e-01 2.907564e-01 2.334174e-01 1.966168e-01 1.559007e-01
<GCONST> 9.790033e+01
<MIXTURE> 4 7.379720e-02
<MEAN> 39
 -3.090773e+01 -1.950017e+01 8.154376e+00 -1.409351e+01 1.202985e+01 -1.679320e+00 4.938977e+00 -9.800901e+00 -2.248567e+00 -5.715562e+00 1.199024e+00 9.388770e-01 7.769337e+01 6.839008e-01 1.451354e-01 3.599801e-01 -1.103488e-01 -8.227670e-01 7.287871e-01 -8.490818e-01 -1.066128e-01 -7.769343e-01 -8.112884e-01 -6.566997e-01 -3.615201e-01 -3.276150e-01 4.571655e-01 2.612550e-01 -7.580654e-02 4.487730e-01 -3.688915e-01 1.018374e-01 -1.099756e-01 7.168318e-02 -1.387307e-01 -1.495690e-02 -3.472282e-01 -2.019754e-02 -5.612460e-01
<VARIANCE> 39
 1.052606e+01 9.073970e+00 3.570847e+01 1.386248e+01 3.348624e+01 4.694690e+01 2.732464e+01 2.215150e+01 2.079472e+01 1.518001e+01 1.616086e+01 1.390353e+01 2.228285e+01 1.632748e+00 1.548082e+00 1.222043e+00 2.141294e+00 1.824989e+00 2.045105e+00 2.031920e+00 1.668611e+00 2.210064e+00 1.484713e+00 1.935796e+00 1.014401e+00 2.303596e+00 1.806154e-01 3.275146e-01 3.067640e-01 2.513714e-01 3.458577e-01 4.201043e-01 4.189616e-01 3.824077e-01 3.460168e-01 2.779600e-01 2.448353e-01 2.036748e-01 1.711943e-01
<GCONST> 1.013496e+02
<TRANSP> 5
 0.000000e+00 1.000000e+00 0.000000e+00 0.000000e+00 0.000000e+00
 0.000000e+00 7.223608e-01 2.776392e-01 0.000000e+00 0.000000e+00
 0.000000e+00 0.000000e+00 7.437419e-01 2.562581e-01 0.000000e+00
 0.000000e+00 0.000000e+00 0.000000e+00 9.006188e-01 9.938119e-02
 0.000000e+00 0.000000e+00 0.000000e+00 0.000000e+00 0.000000e+00
<ENDHMM>
~h "sil"
<BEGINHMM>
<NUMSTATES> 5
<STATE> 2
<NUMMIXES> 4
<MIXTURE> 1 1.287564e-01
<MEAN> 39
 -2.510484e+01 6.641285e+00 -7.223440e+00 3.675830e+00 -2.261605e+00 1.447236e+01 -6.686028e+00 6.142233e+00 -1.390496e+00 1.402445e+00 -1.525811e+00 -1.453842e+00 3.823035e+01 1.028740e+00 -5.134499e-01 -6.450728e-02 9.938188e-01 -4.662468e-01 -9.125805e-02 9.726530e-01 1.043612e+00 1.737216e-01 4.314991e-01 8.663910e-01 3.433007e-01 6.938632e-01 7.204100e-01 -5.287739e-01 1.712387e-01 4.175690e-01 -2.161674e-01 -3.249159e-01 2.866686e-01 -1.013471e-01 -2.829234e-01 -6.640452e-02 9.117099e-02 4.523212e-02 8.236731e-01
<VARIANCE> 39
 1.223140e+02 6.048629e+01 2.025728e+01 2.914635e+01 1.078811e+01 1.855592e+01 5.659465e+01 1.225397e+01 1.670572e+01 1.183476e+01 7.715887e+00 7.006919e+00 1.509917e+02 7.675683e+00 3.558959e+00 9.760435e-01 2.239969e+00 1.717626e+00 2.711637e+00 2.448739e+00 2.315179e+00 2.717944e+00 1.546606e+00 1.329951e+00 8.838486e-01 7.635931e+00 6.259349e-01 2.378480e-01 1.121186e-01 2.791930e-01 2.549388e-01 3.552391e-01 4.198802e-01 3.664880e-01 3.305101e-01 2.078635e-01 2.496341e-01 1.633766e-01 4.296890e-01
<GCONST> 1.077319e+02
<MIXTURE> 2 3.456621e-01
<MEAN> 39
 -2.022784e+01 5.466387e-01 -1.083460e-01 2.712083e+00 -3.008242e+00 1.321194e+01 -6.119675e+00 4.191108e+00 -4.091829e+00 -1.680449e-01 -2.977791e+00 -1.806618e+00 4.769656e+01 3.604985e-01 9.736686e-01 -7.724998e-01 9.016717e-01 -7.265117e-01 3.621037e-01 -3.008042e-01 6.445338e-01 2.927106e-01 2.944539e-01 2.399560e-01 -1.185286e-01 -1.060800e+00 -5.186936e-02 -1.758575e-01 -2.325862e-02 -4.338239e-02 1.307040e-01 -2.611688e-01 1.672014e-01 -1.901903e-01 2.144700e-02 -8.632557e-02 3.225607e-02 1.326465e-02 2.565013e-01
<VARIANCE> 39
 8.660219e+01 8.214207e+01 6.261907e+01 4.144319e+01 2.782927e+01 2.696729e+01 4.185973e+01 2.149211e+01 2.402202e+01 1.730703e+01 1.480623e+01 1.451134e+01 1.511575e+02 9.832757e-01 1.658318e+00 1.539748e+00 2.051545e+00 2.313436e+00 2.608131e+00 1.618830e+00 1.931957e+00 1.652804e+00 1.433617e+00 1.219122e+00 1.005883e+00 1.217802e+00 9.125835e-02 1.247274e-01 1.450379e-01 1.769826e-01 3.207088e-01 3.510268e-01 2.477979e-01 3.209543e-01 3.137479e-01 2.760313e-01 2.544676e-01 1.740041e-01 8.181374e-02
<GCONST> 1.031691e+02
<MIXTURE> 3 3.456621e-01
<MEAN> 39
 -2.022784e+01 5.466374e-01 -1.083451e-01 2.712083e+00 -3.008242e+00 1.321194e+01 -6.119673e+00 4.191108e+00 -4.091829e+00 -1.680452e-01 -2.977791e+00 -1.806617e+00 4.769656e+01 3.604986e-01 9.736688e-01 -7.724997e-01 9.016718e-01 -7.265117e-01 3.621038e-01 -3.008043e-01 6.445338e-01 2.927106e-01 2.944539e-01 2.399560e-01 -1.185287e-01 -1.060800e+00 -5.186938e-02 -1.758574e-01 -2.325858e-02 -4.338240e-02 1.307040e-01 -2.611688e-01 1.672014e-01 -1.901903e-01 2.144704e-02 -8.632557e-02 3.225607e-02 1.326462e-02 2.565013e-01
<VARIANCE> 39
 8.660218e+01 8.214213e+01 6.261911e+01 4.144320e+01 2.782928e+01 2.696730e+01 4.185975e+01 2.149212e+01 2.402203e+01 1.730704e+01 1.480625e+01 1.451135e+01 1.511575e+02 9.832761e-01 1.658321e+00 1.539749e+00 2.051546e+00 2.313437e+00 2.608132e+00 1.618831e+00 1.931959e+00 1.652804e+00 1.433617e+00 1.219123e+00 1.005883e+00 1.217803e+00 9.125834e-02 1.247274e-01 1.450379e-01 1.769826e-01 3.207089e-01 3.510270e-01 2.477980e-01 3.209545e-01 3.137481e-01 2.760314e-01 2.544678e-01 1.740042e-01 8.181375e-02
<GCONST> 1.031691e+02
<MIXTURE> 4 1.799138e-01
<MEAN> 39
 -1.704542e+01 -6.446280e+00 9.024615e+00 -4.029516e-01 -2.188135e+00 1.099176e+01 -5.466469e+00 1.322502e+00 -8.944679e+00 -3.546852e+00 -6.540329e+00 -2.590129e+00 5.789470e+01 1.384172e+00 2.091969e+00 -1.204115e+00 1.574643e+00 -2.007784e+00 1.026939e+00 -1.589490e+00 8.997735e-01 -4.976411e-01 -2.212460e-02 -3.533273e-01 -7.917227e-01 -2.009152e+00 -3.508409e-01 -2.651538e-01 -2.641346e-01 -1.942314e-01 1.935976e-01 -2.343479e-01 3.752235e-01 -3.540332e-01 4.396993e-01 -4.757278e-03 3.533221e-01 4.424772e-02 3.009749e-01
<VARIANCE> 39
 2.001085e+01 4.224711e+01 4.296159e+01 3.980304e+01 4.475011e+01 3.531802e+01 2.617380e+01 2.130579e+01 1.874309e+01 2.161010e+01 1.996965e+01 1.731018e+01 2.195715e+01 1.465239e+00 2.236005e+00 1.523349e+00 1.584014e+00 2.259815e+00 3.096360e+00 2.732843e+00 2.849470e+00 2.610490e+00 1.844292e+00 2.280706e+00 1.311331e+00 1.188570e+00 1.410071e-01 3.184261e-01 2.107172e-01 2.013970e-01 3.671127e-01 4.404946e-01 3.655025e-01 4.020503e-01 3.991598e-01 3.730570e-01 4.314069e-01 2.802002e-01 1.054008e-01
<GCONST> 1.071246e+02
<STATE> 3
~s "silst"
<STATE> 4
<NUMMIXES> 4
<MIXTURE> 1 2.119344e-01
<MEAN> 39
 -1.638735e+01 2.860371e+00 -4.832556e+00 9.977659e+00 -2.936253e+00 1.504939e+01 -2.522922e-02 1.062365e+01 -5.606732e-01 2.656475e+00 -1.925030e-01 -1.138326e+00 4.608308e+01 -1.626024e-01 1.200656e-01 -1.500938e-02 9.995125e-02 7.974160e-02 8.778355e-02 2.170029e-01 4.915572e-01 4.308395e-01 2.376518e-01 2.231841e-01 1.559739e-01 -2.076579e-01 4.448434e-02 -1.046050e-01 2.594455e-02 -1.091290e-02 -4.672766e-02 -4.162997e-02 -2.325452e-02 -1.472630e-01 -1.337663e-01 -5.233730e-02 -1.616421e-02 -4.245952e-03 9.738669e-02
<VARIANCE> 39
 2.151293e+00 3.964944e+00 3.875852e+00 3.423096e+00 5.586669e+00 7.388024e+00 8.363488e+00 1.067945e+01 9.419133e+00 7.917778e+00 7.918088e+00 7.150829e+00 4.120957e+00 1.333364e-01 3.538082e-01 4.006194e-01 4.244961e-01 6.318280e-01 8.256433e-01 8.638033e-01 1.095127e+00 1.039469e+00 9.006692e-01 8.215747e-01 7.364653e-01 9.558169e-02 2.501602e-02 1.002766e-01 7.626878e-02 9.140802e-02 1.186964e-01 1.615723e-01 1.683806e-01 1.950155e-01 1.853179e-01 1.650192e-01 1.769818e-01 1.427045e-01 3.764193e-02
<GCONST> 5.716515e+01
<MIXTURE> 2 2.782500e-01
<MEAN> 39
 -1.445856e+01 3.443324e+00 -4.612434e+00 9.194678e+00 -5.235138e+00 1.123767e+01 -4.786218e+00 5.952154e+00 -4.433270e+00 -1.412403e-01 -2.443524e+00 -3.201110e+00 4.738657e+01 -4.991581e-02 1.631028e-01 -7.730465e-02 6.665124e-02 -1.357805e-02 1.053488e-02 1.050368e-01 2.417254e-01 1.860339e-01 7.977116e-02 1.196309e-01 1.305513e-01 -1.608713e-01 9.740211e-03 -9.434943e-02 4.269823e-02 -2.401244e-02 -4.944777e-03 -2.871061e-02 1.515790e-02 -7.841170e-02 -4.179354e-02 -1.647536e-02 -1.778166e-02 -5.906611e-03 8.888100e-02
<VARIANCE> 39
 3.944066e+00 6.340988e+00 6.607772e+00 5.598619e+00 8.988294e+00 1.343410e+01 1.916251e+01 1.907057e+01 1.541686e+01 1.205042e+01 1.099193e+01 1.077069e+01 5.317448e+00 1.036756e-01 3.447909e-01 4.196320e-01 4.303611e-01 5.761166e-01 6.448521e-01 7.410265e-01 8.306198e-01 8.289867e-01 8.772177e-01 7.947615e-01 7.119319e-01 9.558169e-02 2.320257e-02 1.039989e-01 8.655102e-02 1.056678e-01 1.340619e-01 1.828490e-01 1.869782e-01 2.348733e-01 2.043061e-01 1.924689e-01 1.728660e-01 1.482505e-01 6.068135e-02
<GCONST> 6.385994e+01
<MIXTURE> 3 2.782500e-01
<MEAN> 39
 -1.445856e+01 3.443324e+00 -4.612434e+00 9.194678e+00 -5.235138e+00 1.123767e+01 -4.786218e+00 5.952154e+00 -4.433270e+00 -1.412403e-01 -2.443524e+00 -3.201110e+00 4.738657e+01 -4.991581e-02 1.631028e-01 -7.730465e-02 6.665124e-02 -1.357805e-02 1.053488e-02 1.050368e-01 2.417254e-01 1.860339e-01 7.977116e-02 1.196309e-01 1.305513e-01 -1.608713e-01 9.740211e-03 -9.434943e-02 4.269823e-02 -2.401244e-02 -4.944777e-03 -2.871061e-02 1.515790e-02 -7.841170e-02 -4.179354e-02 -1.647536e-02 -1.778166e-02 -5.906611e-03 8.888100e-02
<VARIANCE> 39
 3.944066e+00 6.340988e+00 6.607772e+00 5.598619e+00 8.988294e+00 1.343410e+01 1.916251e+01 1.907057e+01 1.541686e+01 1.205042e+01 1.099193e+01 1.077069e+01 5.317448e+00 1.036756e-01 3.447909e-01 4.196320e-01 4.303611e-01 5.761166e-01 6.448521e-01 7.410265e-01 8.306198e-01 8.289867e-01 8.772177e-01 7.947615e-01 7.119319e-01 9.558169e-02 2.320257e-02 1.039989e-01 8.655102e-02 1.056678e-01 1.340619e-01 1.828490e-01 1.869782e-01 2.348733e-01 2.043061e-01 1.924689e-01 1.728660e-01 1.482505e-01 6.068135e-02
<GCONST> 6.385994e+01
<MIXTURE> 4 2.315466e-01
<MEAN> 39
 -1.330757e+01 4.091159e+00 -4.385919e+00 8.473967e+00 -6.674593e+00 8.798501e+00 -7.816504e+00 3.267594e+00 -6.594738e+00 -2.136760e+00 -4.338383e+00 -4.814373e+00 4.813115e+01 -1.550384e-01 7.655933e-03 -3.618796e-01 -2.615885e-01 -3.994624e-01 -4.032781e-01 -3.977770e-01 -3.462557e-01 -3.593491e-01 -3.964749e-01 -2.709984e-01 -2.074539e-01 -2.173212e-01 -2.362418e-02 -1.095565e-01 6.085853e-02 -6.083995e-03 4.921769e-02 -8.400306e-03 6.747246e-02 -6.889351e-02 -2.737172e-02 1.392000e-02 1.515617e-02 2.053123e-02 8.905144e-02
<VARIANCE> 39
 7.491722e+00 1.040499e+01 9.367938e+00 7.689986e+00 7.475844e+00 5.799667e+00 7.677277e+00 7.612469e+00 7.401442e+00 7.623422e+00 7.729001e+00 7.280138e+00 1.068794e+01 1.123571e-01 3.059721e-01 3.732432e-01 4.816600e-01 5.356593e-01 6.085492e-01 7.562253e-01 7.486989e-01 7.993150e-01 8.003309e-01 7.147071e-01 6.753944e-01 1.057738e-01 3.098002e-02 1.189079e-01 9.431912e-02 1.312731e-01 1.533023e-01 1.870814e-01 1.833223e-01 2.061870e-01 1.829806e-01 1.802765e-01 1.626894e-01 1.595857e-01 7.861988e-02
<GCONST> 6.195426e+01
<TRANSP> 5
 0.000000e+00 1.000000e+00 0.000000e+00 0.000000e+00 0.000000e+00
 0.000000e+00 6.577730e-01 8.088456e-02 2.613424e-01 0.000000e+00
 0.000000e+00 0.000000e+00 8.014022e-01 1.985977e-01 0.000000e+00
 0.000000e+00 3.347888e-03 0.000000e+00 8.896627e-01 1.069894e-01
 0.000000e+00 0.000000e+00 0.000000e+00 0.000000e+00 0.000000e+00
<ENDHMM>
