~o
<STREAMINFO> 1 39
<VECSIZE> 39<NULLD><MFCC_D_A_0><DIAGC>
~s "silst"
<NUMMIXES> 16
<MIXTURE> 1 1.294735e-03
<MEAN> 39
 -1.320720e+01 3.094733e+00 -2.945135e+00 9.292750e+00 -6.591158e+00 1.274600e+01 -1.918231e+00 4.323952e+00 -1.026944e+01 -3.965742e+00 -3.975272e+00 -3.241448e+00 4.874675e+01 -1.864602e+00 8.741051e-01 -4.801742e-01 1.281780e+00 2.412917e+00 1.542415e+00 2.778903e+00 4.045042e+00 4.179354e+00 1.501962e+00 3.197647e-01 8.361320e-01 -2.043969e+00 -2.462520e-01 -1.170986e-01 -1.424826e-01 -1.002027e-01 4.695453e-01 3.122529e-01 1.123083e-01 4.570212e-01 9.543321e-01 8.163406e-01 6.179645e-01 3.341615e-01 -6.344178e-02
<VARIANCE> 39
 2.894722e+00 1.279757e+01 1.797694e+01 4.287446e+00 9.349934e+00 1.534953e+01 1.639438e+01 1.581778e+01 1.197894e+01 8.703328e+00 4.004757e+00 8.714149e+00 8.895187e+00 1.027699e+00 3.399542e+00 1.870963e+00 1.622582e+00 3.621569e+00 1.469435e+00 1.501818e+00 1.847255e+00 2.032786e+00 2.193684e+00 1.071415e+00 3.229434e+00 8.686295e-01 8.699464e-02 1.391484e-01 1.578642e-01 1.460953e-01 2.586602e-01 2.367952e-01 2.863877e-01 2.826819e-01 3.772366e-01 2.066312e-01 1.400676e-01 1.185038e-01 7.116359e-02
<GCONST> 8.540926e+01
<MIXTURE> 2 3.259173e-02
<MEAN> 39
 -1.594091e+01 1.011586e+00 -4.995654e+00 7.979381e+00 -6.478066e+00 1.286589e+01 -3.004346e+00 5.234359e+00 -5.495845e+00 1.205846e-01 -8.730397e-01 -1.322884e+00 4.731349e+01 1.230033e+00 -4.540594e-01 -2.191160e-01 1.686742e+00 1.729161e-01 9.911597e-02 1.807862e+00 1.714648e+00 9.410632e-01 9.188603e-01 7.152463e-01 2.542351e-01 7.620465e-01 -3.584648e-01 6.249402e-02 1.931643e-01 -2.390888e-01 3.330337e-01 2.709381e-03 -4.059515e-02 8.609303e-02 1.688274e-01 1.733977e-02 -4.676649e-02 7.068667e-02 -1.078714e-01
<VARIANCE> 39
 1.576755e+01 2.016466e+01 5.297826e+01 1.449331e+01 1.792404e+01 3.034625e+01 2.847585e+01 2.614350e+01 2.706528e+01 2.371713e+01 2.451572e+01 1.774495e+01 3.205460e+01 9.518749e+00 7.801209e+00 2.867719e+00 3.623839e+00 3.040340e+00 5.593978e+00 3.768127e+00 4.179390e+00 6.934943e+00 3.101030e+00 2.155383e+00 1.791676e+00 1.127179e+01 2.500658e-01 4.807026e-01 2.853363e-01 3.046007e-01 3.716837e-01 5.577621e-01 4.482624e-01 4.627404e-01 6.178991e-01 4.731030e-01 4.285889e-01 2.786734e-01 3.371179e-01
<GCONST> 1.199321e+02
<MIXTURE> 3 3.259178e-02
<MEAN> 39
 -1.594091e+01 1.011587e+00 -4.995656e+00 7.979381e+00 -6.478066e+00 1.286589e+01 -3.004348e+00 5.234361e+00 -5.495843e+00 1.205852e-01 -8.730384e-01 -1.322883e+00 4.731349e+01 1.230035e+00 -4.540604e-01 -2.191163e-01 1.686743e+00 1.729155e-01 9.911537e-02 1.807863e+00 1.714647e+00 9.410622e-01 9.188598e-01 7.152467e-01 2.542356e-01 7.620482e-01 -3.584649e-01 6.249422e-02 1.931645e-01 -2.390888e-01 3.330338e-01 2.709566e-03 -4.059508e-02 8.609269e-02 1.688272e-01 1.733974e-02 -4.676671e-02 7.068653e-02 -1.078715e-01
<VARIANCE> 39
 1.576756e+01 2.016466e+01 5.297823e+01 1.449331e+01 1.792404e+01 3.034624e+01 2.847585e+01 2.614349e+01 2.706527e+01 2.371711e+01 2.451571e+01 1.774495e+01 3.205461e+01 9.518751e+00 7.801207e+00 2.867722e+00 3.623839e+00 3.040340e+00 5.593979e+00 3.768127e+00 4.179389e+00 6.934945e+00 3.101030e+00 2.155383e+00 1.791675e+00 1.127180e+01 2.500659e-01 4.807027e-01 2.853363e-01 3.046004e-01 3.716837e-01 5.577621e-01 4.482626e-01 4.627403e-01 6.178992e-01 4.731030e-01 4.285889e-01 2.786734e-01 3.371180e-01
<GCONST> 1.199321e+02
<MIXTURE> 4 1.262037e-01
<MEAN> 39
 -1.416280e+01 -2.869599e+00 -1.308188e+00 8.854619e+00 -6.566012e+00 1.246879e+01 -1.109233e+00 4.432812e+00 -8.279258e+00 -9.480761e-01 -1.738191e+00 -2.196836e+00 5.175768e+01 3.938291e-01 4.715374e-01 -2.653398e-01 6.999727e-01 -9.915940e-02 9.197687e-02 1.976350e-01 3.093587e-01 1.045138e-01 1.292332e-01 9.447487e-02 -1.486223e-01 -2.280950e-01 -2.972978e-01 2.566897e-01 -9.845690e-02 -3.376701e-01 3.252150e-01 7.410885e-03 -2.330188e-01 3.735453e-03 4.130307e-01 7.921357e-02 -1.177608e-01 4.339807e-02 -2.127134e-01
<VARIANCE> 39
 2.202045e+01 5.069475e+01 5.282222e+01 5.849232e+01 3.588910e+01 7.757704e+01 4.562977e+01 5.816671e+01 5.406384e+01 4.343452e+01 4.467631e+01 3.486280e+01 3.762775e+01 2.685505e+00 6.197679e+00 2.877971e+00 4.498329e+00 3.590974e+00 5.895333e+00 4.135053e+00 4.576914e+00 5.743128e+00 3.468328e+00 3.051848e+00 2.180602e+00 4.297161e+00 4.270416e-01 1.134682e+00 4.352181e-01 7.437854e-01 6.579884e-01 1.249972e+00 8.788761e-01 1.020931e+00 1.125369e+00 7.561818e-01 7.164474e-01 4.870741e-01 6.062015e-01
<GCONST> 1.351264e+02
<MIXTURE> 5 3.259178e-02
<MEAN> 39
 -1.594091e+01 1.011587e+00 -4.995656e+00 7.979381e+00 -6.478066e+00 1.286589e+01 -3.004348e+00 5.234361e+00 -5.495843e+00 1.205852e-01 -8.730384e-01 -1.322883e+00 4.731349e+01 1.230035e+00 -4.540604e-01 -2.191163e-01 1.686743e+00 1.729155e-01 9.911537e-02 1.807863e+00 1.714647e+00 9.410622e-01 9.188598e-01 7.152467e-01 2.542356e-01 7.620482e-01 -3.584649e-01 6.249422e-02 1.931645e-01 -2.390888e-01 3.330338e-01 2.709566e-03 -4.059508e-02 8.609269e-02 1.688272e-01 1.733974e-02 -4.676671e-02 7.068653e-02 -1.078715e-01
<VARIANCE> 39
 1.576756e+01 2.016466e+01 5.297823e+01 1.449331e+01 1.792404e+01 3.034624e+01 2.847585e+01 2.614349e+01 2.706527e+01 2.371711e+01 2.451571e+01 1.774495e+01 3.205461e+01 9.518751e+00 7.801207e+00 2.867722e+00 3.623839e+00 3.040340e+00 5.593979e+00 3.768127e+00 4.179389e+00 6.934945e+00 3.101030e+00 2.155383e+00 1.791675e+00 1.127180e+01 2.500659e-01 4.807027e-01 2.853363e-01 3.046004e-01 3.716837e-01 5.577621e-01 4.482626e-01 4.627403e-01 6.178992e-01 4.731030e-01 4.285889e-01 2.786734e-01 3.371180e-01
<GCONST> 1.199321e+02
<MIXTURE> 6 1.262036e-01
<MEAN> 39
 -1.416280e+01 -2.869599e+00 -1.308189e+00 8.854618e+00 -6.566012e+00 1.246879e+01 -1.109234e+00 4.432812e+00 -8.279259e+00 -9.480764e-01 -1.738192e+00 -2.196836e+00 5.175768e+01 3.938291e-01 4.715374e-01 -2.653397e-01 6.999727e-01 -9.915933e-02 9.197693e-02 1.976351e-01 3.093588e-01 1.045137e-01 1.292333e-01 9.447486e-02 -1.486224e-01 -2.280950e-01 -2.972979e-01 2.566898e-01 -9.845691e-02 -3.376700e-01 3.252150e-01 7.410830e-03 -2.330188e-01 3.735501e-03 4.130307e-01 7.921357e-02 -1.177609e-01 4.339805e-02 -2.127135e-01
<VARIANCE> 39
 2.202044e+01 5.069475e+01 5.282224e+01 5.849232e+01 3.588911e+01 7.757705e+01 4.562976e+01 5.816671e+01 5.406384e+01 4.343452e+01 4.467632e+01 3.486281e+01 3.762774e+01 2.685505e+00 6.197679e+00 2.877972e+00 4.498330e+00 3.590974e+00 5.895332e+00 4.135053e+00 4.576913e+00 5.743129e+00 3.468328e+00 3.051848e+00 2.180602e+00 4.297161e+00 4.270416e-01 1.134682e+00 4.352181e-01 7.437853e-01 6.579883e-01 1.249973e+00 8.788762e-01 1.020931e+00 1.125369e+00 7.561818e-01 7.164474e-01 4.870742e-01 6.062013e-01
<GCONST> 1.351264e+02
<MIXTURE> 7 1.262036e-01
<MEAN> 39
 -1.416280e+01 -2.869598e+00 -1.308189e+00 8.854620e+00 -6.566013e+00 1.246878e+01 -1.109234e+00 4.432812e+00 -8.279260e+00 -9.480768e-01 -1.738192e+00 -2.196838e+00 5.175768e+01 3.938290e-01 4.715379e-01 -2.653399e-01 6.999729e-01 -9.915951e-02 9.197709e-02 1.976352e-01 3.093591e-01 1.045138e-01 1.292331e-01 9.447447e-02 -1.486224e-01 -2.280956e-01 -2.972980e-01 2.566897e-01 -9.845692e-02 -3.376702e-01 3.252150e-01 7.410824e-03 -2.330189e-01 3.735432e-03 4.130308e-01 7.921363e-02 -1.177608e-01 4.339822e-02 -2.127135e-01
<VARIANCE> 39
 2.202044e+01 5.069475e+01 5.282223e+01 5.849229e+01 3.588910e+01 7.757701e+01 4.562978e+01 5.816671e+01 5.406387e+01 4.343452e+01 4.467635e+01 3.486280e+01 3.762774e+01 2.685504e+00 6.197680e+00 2.877971e+00 4.498328e+00 3.590973e+00 5.895330e+00 4.135053e+00 4.576912e+00 5.743128e+00 3.468329e+00 3.051848e+00 2.180602e+00 4.297158e+00 4.270416e-01 1.134682e+00 4.352181e-01 7.437850e-01 6.579883e-01 1.249972e+00 8.788765e-01 1.020931e+00 1.125369e+00 7.561820e-01 7.164478e-01 4.870741e-01 6.062011e-01
<GCONST> 1.351264e+02
<MIXTURE> 8 2.764281e-02
<MEAN> 39
 -1.507612e+01 -3.706581e+00 2.394527e-01 5.250763e+00 -6.429758e+00 8.607733e+00 -4.388496e+00 -1.748813e-01 -9.131485e+00 -2.841785e+00 -2.588062e+00 -1.787448e+00 5.440047e+01 1.114016e+00 5.101621e-01 2.062333e-01 4.815505e-01 -8.913829e-01 1.537302e-02 -3.836195e-01 -6.522230e-01 -1.108998e+00 -7.901560e-01 -7.553775e-01 -8.181539e-01 3.095576e-01 -5.891746e-01 4.323730e-01 -2.515944e-01 -2.144764e-01 3.156760e-01 2.852077e-01 -9.521990e-02 3.132503e-01 5.876923e-01 2.122440e-01 -7.275042e-02 4.476424e-02 -6.790904e-01
<VARIANCE> 39
 3.796439e+01 9.355608e+01 7.347085e+01 7.925278e+01 4.211444e+01 5.136790e+01 2.811125e+01 6.317781e+01 6.072578e+01 3.202357e+01 3.163266e+01 2.909898e+01 1.102465e+02 3.257092e+00 4.942471e+00 2.510091e+00 4.039205e+00 2.919951e+00 3.860567e+00 3.258421e+00 3.655182e+00 5.389440e+00 3.513259e+00 2.112479e+00 2.113674e+00 5.044348e+00 8.305368e-01 9.032192e-01 3.494799e-01 6.993949e-01 6.333027e-01 8.393346e-01 7.687851e-01 9.017859e-01 1.150921e+00 5.686965e-01 5.868679e-01 3.858703e-01 1.005044e+00
<GCONST> 1.342357e+02
<MIXTURE> 9 3.259175e-02
<MEAN> 39
 -1.594091e+01 1.011586e+00 -4.995654e+00 7.979381e+00 -6.478066e+00 1.286589e+01 -3.004346e+00 5.234360e+00 -5.495844e+00 1.205851e-01 -8.730392e-01 -1.322883e+00 4.731349e+01 1.230034e+00 -4.540602e-01 -2.191161e-01 1.686743e+00 1.729153e-01 9.911430e-02 1.807862e+00 1.714647e+00 9.410616e-01 9.188591e-01 7.152469e-01 2.542357e-01 7.620474e-01 -3.584648e-01 6.249403e-02 1.931643e-01 -2.390888e-01 3.330337e-01 2.709465e-03 -4.059501e-02 8.609262e-02 1.688272e-01 1.733972e-02 -4.676662e-02 7.068653e-02 -1.078714e-01
<VARIANCE> 39
 1.576756e+01 2.016467e+01 5.297828e+01 1.449331e+01 1.792405e+01 3.034624e+01 2.847586e+01 2.614349e+01 2.706528e+01 2.371712e+01 2.451572e+01 1.774496e+01 3.205462e+01 9.518755e+00 7.801222e+00 2.867722e+00 3.623846e+00 3.040346e+00 5.593994e+00 3.768129e+00 4.179392e+00 6.934958e+00 3.101030e+00 2.155386e+00 1.791676e+00 1.127181e+01 2.500660e-01 4.807025e-01 2.853363e-01 3.046006e-01 3.716837e-01 5.577623e-01 4.482627e-01 4.627405e-01 6.178990e-01 4.731030e-01 4.285889e-01 2.786736e-01 3.371179e-01
<GCONST> 1.199321e+02
<MIXTURE> 10 1.262036e-01
<MEAN> 39
 -1.416280e+01 -2.869598e+00 -1.308189e+00 8.854620e+00 -6.566013e+00 1.246878e+01 -1.109234e+00 4.432812e+00 -8.279260e+00 -9.480768e-01 -1.738192e+00 -2.196838e+00 5.175768e+01 3.938290e-01 4.715379e-01 -2.653399e-01 6.999729e-01 -9.915951e-02 9.197709e-02 1.976352e-01 3.093591e-01 1.045138e-01 1.292331e-01 9.447447e-02 -1.486224e-01 -2.280956e-01 -2.972980e-01 2.566897e-01 -9.845692e-02 -3.376702e-01 3.252150e-01 7.410824e-03 -2.330189e-01 3.735432e-03 4.130308e-01 7.921363e-02 -1.177608e-01 4.339822e-02 -2.127135e-01
<VARIANCE> 39
 2.202044e+01 5.069475e+01 5.282223e+01 5.849229e+01 3.588910e+01 7.757701e+01 4.562978e+01 5.816671e+01 5.406387e+01 4.343452e+01 4.467635e+01 3.486280e+01 3.762774e+01 2.685504e+00 6.197680e+00 2.877971e+00 4.498328e+00 3.590973e+00 5.895330e+00 4.135053e+00 4.576912e+00 5.743128e+00 3.468329e+00 3.051848e+00 2.180602e+00 4.297158e+00 4.270416e-01 1.134682e+00 4.352181e-01 7.437850e-01 6.579883e-01 1.249972e+00 8.788765e-01 1.020931e+00 1.125369e+00 7.561820e-01 7.164478e-01 4.870741e-01 6.062011e-01
<GCONST> 1.351264e+02
<MIXTURE> 11 1.262036e-01
<MEAN> 39
 -1.416280e+01 -2.869598e+00 -1.308189e+00 8.854620e+00 -6.566013e+00 1.246878e+01 -1.109234e+00 4.432812e+00 -8.279260e+00 -9.480767e-01 -1.738192e+00 -2.196838e+00 5.175768e+01 3.938290e-01 4.715379e-01 -2.653399e-01 6.999729e-01 -9.915951e-02 9.197709e-02 1.976352e-01 3.093591e-01 1.045138e-01 1.292331e-01 9.447447e-02 -1.486224e-01 -2.280956e-01 -2.972980e-01 2.566897e-01 -9.845692e-02 -3.376702e-01 3.252150e-01 7.410824e-03 -2.330189e-01 3.735432e-03 4.130308e-01 7.921363e-02 -1.177608e-01 4.339822e-02 -2.127135e-01
<VARIANCE> 39
 2.202044e+01 5.069475e+01 5.282223e+01 5.849229e+01 3.588910e+01 7.757701e+01 4.562978e+01 5.816671e+01 5.406387e+01 4.343452e+01 4.467635e+01 3.486280e+01 3.762774e+01 2.685504e+00 6.197680e+00 2.877971e+00 4.498328e+00 3.590973e+00 5.895330e+00 4.135053e+00 4.576912e+00 5.743128e+00 3.468329e+00 3.051848e+00 2.180602e+00 4.297158e+00 4.270416e-01 1.134682e+00 4.352181e-01 7.437850e-01 6.579883e-01 1.249972e+00 8.788765e-01 1.020931e+00 1.125369e+00 7.561820e-01 7.164478e-01 4.870741e-01 6.062011e-01
<GCONST> 1.351264e+02
<MIXTURE> 12 2.764280e-02
<MEAN> 39
 -1.507613e+01 -3.706581e+00 2.394574e-01 5.250762e+00 -6.429753e+00 8.607732e+00 -4.388498e+00 -1.748739e-01 -9.131482e+00 -2.841786e+00 -2.588062e+00 -1.787446e+00 5.440047e+01 1.114016e+00 5.101621e-01 2.062326e-01 4.815510e-01 -8.913823e-01 1.537487e-02 -3.836198e-01 -6.522223e-01 -1.108997e+00 -7.901555e-01 -7.553766e-01 -8.181540e-01 3.095574e-01 -5.891742e-01 4.323725e-01 -2.515946e-01 -2.144767e-01 3.156757e-01 2.852075e-01 -9.521966e-02 3.132490e-01 5.876918e-01 2.122439e-01 -7.275043e-02 4.476424e-02 -6.790895e-01
<VARIANCE> 39
 3.796439e+01 9.355604e+01 7.347091e+01 7.925286e+01 4.211449e+01 5.136792e+01 2.811123e+01 6.317773e+01 6.072570e+01 3.202357e+01 3.163266e+01 2.909896e+01 1.102463e+02 3.257090e+00 4.942470e+00 2.510089e+00 4.039207e+00 2.919950e+00 3.860564e+00 3.258424e+00 3.655176e+00 5.389435e+00 3.513261e+00 2.112482e+00 2.113674e+00 5.044341e+00 8.305378e-01 9.032184e-01 3.494801e-01 6.993951e-01 6.333033e-01 8.393345e-01 7.687846e-01 9.017850e-01 1.150920e+00 5.686964e-01 5.868683e-01 3.858703e-01 1.005042e+00
<GCONST> 1.342357e+02
<MIXTURE> 13 1.262037e-01
<MEAN> 39
 -1.416280e+01 -2.869598e+00 -1.308188e+00 8.854617e+00 -6.566012e+00 1.246879e+01 -1.109235e+00 4.432811e+00 -8.279260e+00 -9.480765e-01 -1.738193e+00 -2.196839e+00 5.175768e+01 3.938291e-01 4.715372e-01 -2.653400e-01 6.999728e-01 -9.915979e-02 9.197667e-02 1.976350e-01 3.093587e-01 1.045135e-01 1.292333e-01 9.447470e-02 -1.486224e-01 -2.280951e-01 -2.972978e-01 2.566895e-01 -9.845692e-02 -3.376698e-01 3.252149e-01 7.410671e-03 -2.330187e-01 3.735473e-03 4.130307e-01 7.921352e-02 -1.177606e-01 4.339831e-02 -2.127133e-01
<VARIANCE> 39
 2.202047e+01 5.069479e+01 5.282225e+01 5.849234e+01 3.588912e+01 7.757704e+01 4.562978e+01 5.816673e+01 5.406388e+01 4.343452e+01 4.467635e+01 3.486281e+01 3.762778e+01 2.685506e+00 6.197684e+00 2.877972e+00 4.498331e+00 3.590976e+00 5.895334e+00 4.135055e+00 4.576915e+00 5.743131e+00 3.468328e+00 3.051849e+00 2.180603e+00 4.297161e+00 4.270419e-01 1.134683e+00 4.352184e-01 7.437857e-01 6.579885e-01 1.249972e+00 8.788767e-01 1.020932e+00 1.125370e+00 7.561820e-01 7.164478e-01 4.870741e-01 6.062015e-01
<GCONST> 1.351264e+02
<MIXTURE> 14 2.764280e-02
<MEAN> 39
 -1.507613e+01 -3.706581e+00 2.394574e-01 5.250762e+00 -6.429753e+00 8.607732e+00 -4.388498e+00 -1.748739e-01 -9.131482e+00 -2.841786e+00 -2.588062e+00 -1.787446e+00 5.440047e+01 1.114016e+00 5.101621e-01 2.062326e-01 4.815510e-01 -8.913823e-01 1.537487e-02 -3.836198e-01 -6.522223e-01 -1.108997e+00 -7.901555e-01 -7.553766e-01 -8.181540e-01 3.095574e-01 -5.891742e-01 4.323725e-01 -2.515946e-01 -2.144767e-01 3.156757e-01 2.852075e-01 -9.521966e-02 3.132490e-01 5.876918e-01 2.122439e-01 -7.275043e-02 4.476424e-02 -6.790895e-01
<VARIANCE> 39
 3.796439e+01 9.355604e+01 7.347091e+01 7.925286e+01 4.211449e+01 5.136792e+01 2.811123e+01 6.317773e+01 6.072570e+01 3.202357e+01 3.163266e+01 2.909896e+01 1.102463e+02 3.257090e+00 4.942470e+00 2.510089e+00 4.039207e+00 2.919950e+00 3.860564e+00 3.258424e+00 3.655176e+00 5.389435e+00 3.513261e+00 2.112482e+00 2.113674e+00 5.044341e+00 8.305378e-01 9.032184e-01 3.494801e-01 6.993951e-01 6.333033e-01 8.393345e-01 7.687846e-01 9.017850e-01 1.150920e+00 5.686964e-01 5.868683e-01 3.858703e-01 1.005042e+00
<GCONST> 1.342357e+02
<MIXTURE> 15 2.764283e-02
<MEAN> 39
 -1.507613e+01 -3.706596e+00 2.394697e-01 5.250751e+00 -6.429753e+00 8.607740e+00 -4.388492e+00 -1.748878e-01 -9.131484e+00 -2.841786e+00 -2.588068e+00 -1.787443e+00 5.440049e+01 1.114017e+00 5.101650e-01 2.062314e-01 4.815535e-01 -8.913849e-01 1.537415e-02 -3.836203e-01 -6.522224e-01 -1.108999e+00 -7.901558e-01 -7.553778e-01 -8.181549e-01 3.095545e-01 -5.891742e-01 4.323728e-01 -2.515946e-01 -2.144758e-01 3.156762e-01 2.852068e-01 -9.521914e-02 3.132504e-01 5.876923e-01 2.122438e-01 -7.274966e-02 4.476445e-02 -6.790895e-01
<VARIANCE> 39
 3.796438e+01 9.355618e+01 7.347100e+01 7.925288e+01 4.211452e+01 5.136797e+01 2.811123e+01 6.317784e+01 6.072579e+01 3.202366e+01 3.163275e+01 2.909904e+01 1.102464e+02 3.257084e+00 4.942476e+00 2.510093e+00 4.039202e+00 2.919953e+00 3.860568e+00 3.258427e+00 3.655179e+00 5.389441e+00 3.513264e+00 2.112482e+00 2.113675e+00 5.044336e+00 8.305373e-01 9.032201e-01 3.494799e-01 6.993950e-01 6.333039e-01 8.393358e-01 7.687854e-01 9.017864e-01 1.150923e+00 5.686975e-01 5.868690e-01 3.858709e-01 1.005044e+00
<GCONST> 1.342357e+02
<MIXTURE> 16 5.448741e-04
<MEAN> 39
 -1.502210e+01 4.799935e+00 -6.265569e+00 8.564883e+00 -8.330207e+00 9.002213e+00 -7.421435e+00 3.576003e+00 -6.220111e+00 -1.764493e+00 -2.852680e+00 -3.124058e+00 4.553447e+01 1.238938e+00 4.308784e-02 1.279489e+00 3.632896e-01 -1.547054e-01 -7.743031e-03 1.951944e-01 -7.863895e-01 -1.548268e+00 -1.923789e+00 -1.556889e+00 -1.071016e+00 1.236085e+00 -1.595295e+00 5.997885e-01 -2.434676e-01 -6.801406e-01 3.682536e-01 2.842442e-01 -4.665867e-01 1.695531e-01 3.999858e-01 1.804301e-02 -7.225897e-02 9.999008e-02 -1.401907e+00
<VARIANCE> 39
 2.647367e+00 1.077483e+01 5.109356e+00 3.700185e+00 4.298018e+00 5.147312e+00 5.492852e+00 7.649163e+00 5.272077e+00 6.312845e+00 8.587321e+00 5.429140e+00 5.336010e+00 2.627472e+00 2.656801e+00 8.527757e-01 1.354076e+00 1.536003e+00 1.530557e+00 9.359465e-01 1.230540e+00 1.593244e+00 2.184620e+00 7.148552e-01 1.236764e+00 2.296688e+00 2.966437e-01 1.764939e-01 1.781085e-01 1.406640e-01 1.055046e-01 1.397655e-01 1.913790e-01 1.597864e-01 1.558398e-01 1.879443e-01 1.242101e-01 2.069431e-01 2.649699e-01
<GCONST> 7.600181e+01
~h "k"
<BEGINHMM>
<NUMSTATES> 5
<STATE> 2
<NUMMIXES> 16
<MIXTURE> 1 1.605542e-03
<MEAN> 39
 -1.556631e+01 2.377437e+00 -3.696076e+00 1.012475e+01 -1.522149e+00 1.386628e+01 -1.989026e+00 1.027202e+01 -1.006544e+00 2.345901e+00 -2.965276e-01 -1.028677e+00 4.745113e+01 5.301604e-01 -3.675104e+00 -1.893791e+00 1.333054e+00 1.567285e+00 -1.915456e+00 -1.773048e+00 4.577746e-01 2.415451e-01 9.126803e-01 1.700370e+00 1.332634e+00 1.646158e+00 -1.315852e-02 -1.509308e+00 -5.860654e-02 9.731972e-02 1.086988e-01 -3.405761e-01 9.959355e-02 -4.777690e-01 -3.892943e-03 5.072302e-01 5.011549e-02 -4.844398e-02 8.469121e-01
<VARIANCE> 39
 8.906316e-01 7.832685e+00 4.229363e+00 5.368575e+00 6.482119e+00 6.676134e+00 6.662264e+00 8.587322e+00 1.352863e+01 3.612828e+00 2.446849e+00 5.359649e+00 2.674860e+00 5.983391e-01 7.633348e+00 1.833433e+00 6.838200e-01 1.083672e+00 3.796921e+00 4.817958e+00 1.694403e+00 1.675271e+00 1.462755e+00 1.265010e+00 2.180221e+00 1.971409e+00 4.693711e-02 8.180636e-01 1.427670e-01 4.139009e-01 1.248527e-01 3.766308e-01 2.823642e-01 5.033401e-01 2.033572e-01 2.928486e-01 1.218511e-01 1.695406e-01 3.648994e-01
<GCONST> 8.104714e+01
<MIXTURE> 2 5.349807e-02
<MEAN> 39
 -1.559457e+01 -1.552547e+00 -5.209392e+00 1.047828e+01 -2.902854e+00 1.444494e+01 -1.282857e+00 8.338387e+00 -1.512734e+00 2.827032e+00 -4.149905e-01 -1.233638e+00 4.860013e+01 -6.750514e-02 -4.802316e-01 -1.355206e-01 3.810796e-01 1.697593e-01 -1.200992e-02 1.384767e-01 -1.286376e-01 2.795765e-02 3.157962e-01 1.228583e-01 -7.945150e-02 8.945811e-02 1.357172e-02 -1.149653e+00 2.203122e-01 -8.188702e-01 3.981438e-01 -1.007203e+00 4.388989e-02 -1.215528e+00 -2.119305e-01 -1.388169e-01 -4.938422e-02 4.961248e-03 1.535181e+00
<VARIANCE> 39
 5.248278e+00 9.529237e+01 1.968081e+01 1.384946e+01 1.577008e+01 2.400826e+01 2.305899e+01 3.551698e+01 2.270140e+01 3.282262e+01 1.460721e+01 1.586128e+01 2.172871e+01 4.250824e-01 9.954603e+00 1.863961e+00 1.344831e+00 1.943658e+00 2.200749e+00 2.400056e+00 3.225588e+00 1.503762e+00 2.674290e+00 1.745477e+00 1.163946e+00 2.544203e+00 1.130385e-01 3.152118e+00 4.333369e-01 5.730796e-01 6.239467e-01 1.311522e+00 5.942158e-01 1.471966e+00 4.517194e-01 7.005689e-01 4.360056e-01 3.042525e-01 1.947681e+00
<GCONST> 1.149147e+02
<MIXTURE> 3 5.349929e-02
<MEAN> 39
 -1.559455e+01 -1.552874e+00 -5.209472e+00 1.047834e+01 -2.902822e+00 1.444494e+01 -1.282882e+00 8.338264e+00 -1.512767e+00 2.827118e+00 -4.149536e-01 -1.233625e+00 4.860027e+01 -6.750815e-02 -4.802530e-01 -1.355137e-01 3.810816e-01 1.697565e-01 -1.199210e-02 1.384849e-01 -1.286571e-01 2.794796e-02 3.158046e-01 1.228473e-01 -7.945502e-02 8.946574e-02 1.356746e-02 -1.149598e+00 2.203180e-01 -8.188682e-01 3.981340e-01 -1.007191e+00 4.389217e-02 -1.215501e+00 -2.119253e-01 -1.388281e-01 -4.938889e-02 4.957661e-03 1.535144e+00
<VARIANCE> 39
 5.248455e+00 9.529907e+01 1.968205e+01 1.384996e+01 1.577104e+01 2.400943e+01 2.305993e+01 3.551899e+01 2.270210e+01 3.282479e+01 1.460781e+01 1.586182e+01 2.173009e+01 4.250972e-01 9.954969e+00 1.864054e+00 1.344881e+00 1.943713e+00 2.200840e+00 2.400102e+00 3.225792e+00 1.503782e+00 2.674438e+00 1.745519e+00 1.163965e+00 2.544285e+00 1.130428e-01 3.152324e+00 4.333654e-01 5.730867e-01 6.239722e-01 1.311572e+00 5.942327e-01 1.472016e+00 4.517198e-01 7.005967e-01 4.360174e-01 3.042582e-01 1.947775e+00
<GCONST> 1.149163e+02
<MIXTURE> 4 9.283917e-02
<MEAN> 39
 -1.459914e+01 2.466770e+00 -4.094948e+00 9.260713e+00 -4.283640e+00 1.218953e+01 -3.665401e+00 6.866276e+00 -3.871207e+00 2.610264e-01 -2.356292e+00 -3.156247e+00 4.801637e+01 -1.625132e-01 -3.785913e+00 1.934292e-01 -1.713823e+00 1.503443e+00 -2.606748e+00 3.674368e-01 -2.946311e+00 2.440393e-01 3.158489e-01 6.766278e-02 2.811530e-01 4.047760e+00 -1.277267e-01 -2.432629e+00 9.626032e-02 -1.394656e+00 9.255588e-01 -1.646337e+00 2.449321e-01 -2.023382e+00 1.748314e-01 -1.372101e-01 1.433350e-02 4.430247e-02 2.928029e+00
<VARIANCE> 39
 6.485310e+00 1.597170e+01 7.371622e+00 1.202133e+01 1.234512e+01 2.019027e+01 2.748787e+01 2.329127e+01 1.902910e+01 1.513147e+01 1.428927e+01 1.229209e+01 8.393995e+00 6.856953e-01 1.280338e+01 1.138317e+00 4.836595e+00 3.353229e+00 7.893452e+00 2.621218e+00 9.645299e+00 2.465426e+00 1.876151e+00 1.716350e+00 1.449498e+00 1.588619e+01 8.811864e-02 4.583432e-01 1.558923e-01 3.532419e-01 3.199521e-01 5.957962e-01 5.251467e-01 7.274051e-01 5.206641e-01 3.556127e-01 3.517015e-01 2.733052e-01 5.482453e-01
<GCONST> 1.079756e+02
<MIXTURE> 5 5.349929e-02
<MEAN> 39
 -1.559455e+01 -1.552874e+00 -5.209472e+00 1.047834e+01 -2.902822e+00 1.444494e+01 -1.282882e+00 8.338264e+00 -1.512767e+00 2.827118e+00 -4.149536e-01 -1.233625e+00 4.860027e+01 -6.750815e-02 -4.802530e-01 -1.355137e-01 3.810816e-01 1.697565e-01 -1.199210e-02 1.384849e-01 -1.286571e-01 2.794796e-02 3.158046e-01 1.228473e-01 -7.945502e-02 8.946574e-02 1.356746e-02 -1.149598e+00 2.203180e-01 -8.188682e-01 3.981340e-01 -1.007191e+00 4.389217e-02 -1.215501e+00 -2.119253e-01 -1.388281e-01 -4.938889e-02 4.957661e-03 1.535144e+00
<VARIANCE> 39
 5.248455e+00 9.529907e+01 1.968205e+01 1.384996e+01 1.577104e+01 2.400943e+01 2.305993e+01 3.551899e+01 2.270210e+01 3.282479e+01 1.460781e+01 1.586182e+01 2.173009e+01 4.250972e-01 9.954969e+00 1.864054e+00 1.344881e+00 1.943713e+00 2.200840e+00 2.400102e+00 3.225792e+00 1.503782e+00 2.674438e+00 1.745519e+00 1.163965e+00 2.544285e+00 1.130428e-01 3.152324e+00 4.333654e-01 5.730867e-01 6.239722e-01 1.311572e+00 5.942327e-01 1.472016e+00 4.517198e-01 7.005967e-01 4.360174e-01 3.042582e-01 1.947775e+00
<GCONST> 1.149163e+02
<MIXTURE> 6 9.283457e-02
<MEAN> 39
 -1.459914e+01 2.466774e+00 -4.094948e+00 9.260712e+00 -4.283641e+00 1.218953e+01 -3.665399e+00 6.866278e+00 -3.871206e+00 2.610277e-01 -2.356291e+00 -3.156246e+00 4.801637e+01 -1.625132e-01 -3.785912e+00 1.934293e-01 -1.713822e+00 1.503443e+00 -2.606747e+00 3.674366e-01 -2.946311e+00 2.440389e-01 3.158482e-01 6.766286e-02 2.811528e-01 4.047759e+00 -1.277266e-01 -2.432629e+00 9.626032e-02 -1.394656e+00 9.255586e-01 -1.646337e+00 2.449318e-01 -2.023382e+00 1.748312e-01 -1.372103e-01 1.433337e-02 4.430236e-02 2.928029e+00
<VARIANCE> 39
 6.485306e+00 1.597165e+01 7.371614e+00 1.202131e+01 1.234512e+01 2.019024e+01 2.748790e+01 2.329127e+01 1.902910e+01 1.513147e+01 1.428927e+01 1.229207e+01 8.393988e+00 6.856945e-01 1.280338e+01 1.138317e+00 4.836594e+00 3.353228e+00 7.893445e+00 2.621216e+00 9.645300e+00 2.465426e+00 1.876150e+00 1.716348e+00 1.449497e+00 1.588618e+01 8.811867e-02 4.583427e-01 1.558923e-01 3.532415e-01 3.199517e-01 5.957960e-01 5.251464e-01 7.274053e-01 5.206638e-01 3.556122e-01 3.517014e-01 2.733050e-01 5.482449e-01
<GCONST> 1.079756e+02
<MIXTURE> 7 9.283847e-02
<MEAN> 39
 -1.459915e+01 2.466785e+00 -4.094954e+00 9.260716e+00 -4.283644e+00 1.218953e+01 -3.665394e+00 6.866290e+00 -3.871197e+00 2.610282e-01 -2.356287e+00 -3.156243e+00 4.801635e+01 -1.625131e-01 -3.785914e+00 1.934302e-01 -1.713825e+00 1.503444e+00 -2.606748e+00 3.674365e-01 -2.946312e+00 2.440387e-01 3.158464e-01 6.766243e-02 2.811527e-01 4.047763e+00 -1.277265e-01 -2.432629e+00 9.626099e-02 -1.394656e+00 9.255589e-01 -1.646337e+00 2.449309e-01 -2.023383e+00 1.748307e-01 -1.372103e-01 1.433327e-02 4.430214e-02 2.928029e+00
<VARIANCE> 39
 6.485260e+00 1.597146e+01 7.371555e+00 1.202120e+01 1.234503e+01 2.019015e+01 2.748780e+01 2.329118e+01 1.902904e+01 1.513132e+01 1.428920e+01 1.229204e+01 8.393914e+00 6.856922e-01 1.280339e+01 1.138311e+00 4.836591e+00 3.353226e+00 7.893452e+00 2.621213e+00 9.645315e+00 2.465427e+00 1.876146e+00 1.716346e+00 1.449497e+00 1.588621e+01 8.811837e-02 4.583401e-01 1.558910e-01 3.532407e-01 3.199506e-01 5.957932e-01 5.251451e-01 7.274035e-01 5.206630e-01 3.556098e-01 3.517008e-01 2.733048e-01 5.482438e-01
<GCONST> 1.079755e+02
<MIXTURE> 8 5.363079e-02
<MEAN> 39
 -1.508062e+01 -5.937194e-01 -4.014878e+00 8.733102e+00 -3.012565e+00 1.157723e+01 -2.000679e+00 6.364119e+00 -3.222889e+00 2.568771e+00 -1.297054e+00 -2.339767e+00 4.992694e+01 -3.785957e-01 -8.572750e+00 2.718958e-01 -5.000708e+00 3.422315e+00 -6.740883e+00 4.004840e-01 -7.764910e+00 -1.650908e-01 -7.858680e-01 -5.995989e-02 -9.773979e-02 1.057661e+01 -1.050173e-01 -1.516658e+00 -5.920254e-02 -1.183216e+00 4.952205e-01 -1.109650e+00 1.222355e-01 -1.550803e+00 1.792061e-01 -4.684004e-01 -1.062756e-01 -1.427267e-01 2.205511e+00
<VARIANCE> 39
 8.470542e+00 4.769168e+01 1.113943e+01 2.295232e+01 2.811731e+01 4.612079e+01 3.251109e+01 3.511037e+01 2.553253e+01 1.863966e+01 2.110034e+01 1.340582e+01 4.024810e+01 1.216302e+00 4.146350e+00 2.340573e+00 4.117225e+00 3.114017e+00 6.114639e+00 5.100636e+00 6.024845e+00 5.284385e+00 3.955837e+00 3.176557e+00 2.231883e+00 4.494490e+00 1.134064e-01 6.796052e-01 2.460136e-01 3.295596e-01 4.283319e-01 8.078856e-01 4.479815e-01 6.302668e-01 4.249699e-01 2.783521e-01 3.583182e-01 2.417749e-01 7.582628e-01
<GCONST> 1.174338e+02
<MIXTURE> 9 5.349927e-02
<MEAN> 39
 -1.559455e+01 -1.552870e+00 -5.209474e+00 1.047834e+01 -2.902822e+00 1.444494e+01 -1.282881e+00 8.338267e+00 -1.512768e+00 2.827116e+00 -4.149518e-01 -1.233624e+00 4.860027e+01 -6.750834e-02 -4.802520e-01 -1.355137e-01 3.810822e-01 1.697574e-01 -1.199186e-02 1.384841e-01 -1.286573e-01 2.794808e-02 3.158053e-01 1.228473e-01 -7.945517e-02 8.946478e-02 1.356738e-02 -1.149599e+00 2.203184e-01 -8.188683e-01 3.981338e-01 -1.007191e+00 4.389238e-02 -1.215501e+00 -2.119253e-01 -1.388277e-01 -4.938893e-02 4.957695e-03 1.535145e+00
<VARIANCE> 39
 5.248451e+00 9.529899e+01 1.968204e+01 1.384997e+01 1.577104e+01 2.400940e+01 2.305991e+01 3.551889e+01 2.270209e+01 3.282475e+01 1.460781e+01 1.586182e+01 2.173006e+01 4.250972e-01 9.954969e+00 1.864054e+00 1.344880e+00 1.943714e+00 2.200841e+00 2.400099e+00 3.225792e+00 1.503782e+00 2.674436e+00 1.745519e+00 1.163965e+00 2.544284e+00 1.130427e-01 3.152321e+00 4.333639e-01 5.730868e-01 6.239719e-01 1.311569e+00 5.942323e-01 1.472015e+00 4.517200e-01 7.005959e-01 4.360173e-01 3.042582e-01 1.947774e+00
<GCONST> 1.149162e+02
<MIXTURE> 10 9.283906e-02
<MEAN> 39
 -1.459914e+01 2.466772e+00 -4.094948e+00 9.260713e+00 -4.283638e+00 1.218953e+01 -3.665394e+00 6.866282e+00 -3.871203e+00 2.610285e-01 -2.356290e+00 -3.156245e+00 4.801637e+01 -1.625130e-01 -3.785913e+00 1.934296e-01 -1.713824e+00 1.503444e+00 -2.606748e+00 3.674361e-01 -2.946312e+00 2.440384e-01 3.158481e-01 6.766313e-02 2.811528e-01 4.047762e+00 -1.277264e-01 -2.432629e+00 9.626032e-02 -1.394656e+00 9.255586e-01 -1.646338e+00 2.449315e-01 -2.023383e+00 1.748309e-01 -1.372104e-01 1.433340e-02 4.430234e-02 2.928030e+00
<VARIANCE> 39
 6.485303e+00 1.597167e+01 7.371611e+00 1.202133e+01 1.234511e+01 2.019026e+01 2.748786e+01 2.329125e+01 1.902908e+01 1.513145e+01 1.428925e+01 1.229207e+01 8.393975e+00 6.856952e-01 1.280338e+01 1.138318e+00 4.836599e+00 3.353229e+00 7.893458e+00 2.621216e+00 9.645303e+00 2.465426e+00 1.876152e+00 1.716350e+00 1.449499e+00 1.588619e+01 8.811860e-02 4.583424e-01 1.558923e-01 3.532418e-01 3.199520e-01 5.957961e-01 5.251466e-01 7.274052e-01 5.206636e-01 3.556121e-01 3.517014e-01 2.733051e-01 5.482445e-01
<GCONST> 1.079756e+02
<MIXTURE> 11 9.283847e-02
<MEAN> 39
 -1.459915e+01 2.466785e+00 -4.094954e+00 9.260716e+00 -4.283644e+00 1.218953e+01 -3.665394e+00 6.866290e+00 -3.871197e+00 2.610282e-01 -2.356287e+00 -3.156243e+00 4.801635e+01 -1.625131e-01 -3.785914e+00 1.934302e-01 -1.713825e+00 1.503444e+00 -2.606748e+00 3.674365e-01 -2.946312e+00 2.440387e-01 3.158464e-01 6.766243e-02 2.811527e-01 4.047763e+00 -1.277265e-01 -2.432629e+00 9.626099e-02 -1.394656e+00 9.255589e-01 -1.646337e+00 2.449309e-01 -2.023383e+00 1.748307e-01 -1.372103e-01 1.433327e-02 4.430214e-02 2.928029e+00
<VARIANCE> 39
 6.485260e+00 1.597146e+01 7.371555e+00 1.202120e+01 1.234503e+01 2.019015e+01 2.748780e+01 2.329118e+01 1.902904e+01 1.513132e+01 1.428920e+01 1.229204e+01 8.393914e+00 6.856922e-01 1.280339e+01 1.138311e+00 4.836591e+00 3.353226e+00 7.893452e+00 2.621213e+00 9.645315e+00 2.465427e+00 1.876146e+00 1.716346e+00 1.449497e+00 1.588621e+01 8.811837e-02 4.583401e-01 1.558910e-01 3.532407e-01 3.199506e-01 5.957932e-01 5.251451e-01 7.274035e-01 5.206630e-01 3.556098e-01 3.517008e-01 2.733048e-01 5.482438e-01
<GCONST> 1.079755e+02
<MIXTURE> 12 5.363073e-02
<MEAN> 39
 -1.508062e+01 -5.937172e-01 -4.014880e+00 8.733105e+00 -3.012565e+00 1.157723e+01 -2.000674e+00 6.364126e+00 -3.222889e+00 2.568770e+00 -1.297050e+00 -2.339765e+00 4.992694e+01 -3.785950e-01 -8.572750e+00 2.718962e-01 -5.000708e+00 3.422315e+00 -6.740882e+00 4.004824e-01 -7.764912e+00 -1.650925e-01 -7.858674e-01 -5.996078e-02 -9.773953e-02 1.057661e+01 -1.050173e-01 -1.516658e+00 -5.920222e-02 -1.183217e+00 4.952204e-01 -1.109651e+00 1.222352e-01 -1.550804e+00 1.792060e-01 -4.684003e-01 -1.062761e-01 -1.427265e-01 2.205511e+00
<VARIANCE> 39
 8.470537e+00 4.769165e+01 1.113942e+01 2.295231e+01 2.811731e+01 4.612074e+01 3.251109e+01 3.511033e+01 2.553252e+01 1.863960e+01 2.110033e+01 1.340582e+01 4.024807e+01 1.216301e+00 4.146343e+00 2.340572e+00 4.117228e+00 3.114017e+00 6.114642e+00 5.100637e+00 6.024837e+00 5.284382e+00 3.955832e+00 3.176558e+00 2.231881e+00 4.494483e+00 1.134064e-01 6.796054e-01 2.460126e-01 3.295595e-01 4.283313e-01 8.078846e-01 4.479814e-01 6.302672e-01 4.249699e-01 2.783520e-01 3.583179e-01 2.417748e-01 7.582626e-01
<GCONST> 1.174337e+02
<MIXTURE> 13 9.283852e-02
<MEAN> 39
 -1.459914e+01 2.466784e+00 -4.094954e+00 9.260717e+00 -4.283644e+00 1.218953e+01 -3.665395e+00 6.866288e+00 -3.871198e+00 2.610278e-01 -2.356287e+00 -3.156244e+00 4.801635e+01 -1.625136e-01 -3.785916e+00 1.934307e-01 -1.713825e+00 1.503444e+00 -2.606749e+00 3.674370e-01 -2.946312e+00 2.440391e-01 3.158466e-01 6.766284e-02 2.811530e-01 4.047764e+00 -1.277266e-01 -2.432629e+00 9.626102e-02 -1.394656e+00 9.255589e-01 -1.646336e+00 2.449311e-01 -2.023383e+00 1.748310e-01 -1.372103e-01 1.433329e-02 4.430220e-02 2.928029e+00
<VARIANCE> 39
 6.485262e+00 1.597149e+01 7.371560e+00 1.202120e+01 1.234504e+01 2.019015e+01 2.748780e+01 2.329120e+01 1.902906e+01 1.513132e+01 1.428920e+01 1.229204e+01 8.393932e+00 6.856926e-01 1.280339e+01 1.138312e+00 4.836593e+00 3.353229e+00 7.893452e+00 2.621215e+00 9.645318e+00 2.465428e+00 1.876145e+00 1.716347e+00 1.449497e+00 1.588622e+01 8.811836e-02 4.583405e-01 1.558911e-01 3.532408e-01 3.199506e-01 5.957934e-01 5.251453e-01 7.274034e-01 5.206630e-01 3.556097e-01 3.517007e-01 2.733047e-01 5.482439e-01
<GCONST> 1.079755e+02
<MIXTURE> 14 5.363073e-02
<MEAN> 39
 -1.508062e+01 -5.937172e-01 -4.014880e+00 8.733105e+00 -3.012565e+00 1.157723e+01 -2.000674e+00 6.364126e+00 -3.222889e+00 2.568770e+00 -1.297050e+00 -2.339765e+00 4.992694e+01 -3.785950e-01 -8.572750e+00 2.718962e-01 -5.000708e+00 3.422315e+00 -6.740882e+00 4.004824e-01 -7.764912e+00 -1.650925e-01 -7.858674e-01 -5.996078e-02 -9.773953e-02 1.057661e+01 -1.050173e-01 -1.516658e+00 -5.920222e-02 -1.183217e+00 4.952204e-01 -1.109651e+00 1.222352e-01 -1.550804e+00 1.792060e-01 -4.684003e-01 -1.062761e-01 -1.427265e-01 2.205511e+00
<VARIANCE> 39
 8.470537e+00 4.769165e+01 1.113942e+01 2.295231e+01 2.811731e+01 4.612074e+01 3.251109e+01 3.511033e+01 2.553252e+01 1.863960e+01 2.110033e+01 1.340582e+01 4.024807e+01 1.216301e+00 4.146343e+00 2.340572e+00 4.117228e+00 3.114017e+00 6.114642e+00 5.100637e+00 6.024837e+00 5.284382e+00 3.955832e+00 3.176558e+00 2.231881e+00 4.494483e+00 1.134064e-01 6.796054e-01 2.460126e-01 3.295595e-01 4.283313e-01 8.078846e-01 4.479814e-01 6.302672e-01 4.249699e-01 2.783520e-01 3.583179e-01 2.417748e-01 7.582626e-01
<GCONST> 1.174337e+02
<MIXTURE> 15 5.363101e-02
<MEAN> 39
 -1.508056e+01 -5.937852e-01 -4.014895e+00 8.733092e+00 -3.012549e+00 1.157709e+01 -2.000680e+00 6.364095e+00 -3.222945e+00 2.568734e+00 -1.297046e+00 -2.339755e+00 4.992704e+01 -3.786054e-01 -8.572768e+00 2.718971e-01 -5.000712e+00 3.422321e+00 -6.740874e+00 4.004924e-01 -7.764913e+00 -1.650771e-01 -7.858519e-01 -5.995482e-02 -9.773925e-02 1.057662e+01 -1.050222e-01 -1.516646e+00 -5.919777e-02 -1.183214e+00 4.952160e-01 -1.109633e+00 1.222355e-01 -1.550796e+00 1.792114e-01 -4.683989e-01 -1.062787e-01 -1.427271e-01 2.205496e+00
<VARIANCE> 39
 8.470610e+00 4.769265e+01 1.113933e+01 2.295238e+01 2.811762e+01 4.612072e+01 3.251120e+01 3.510989e+01 2.553258e+01 1.863887e+01 2.110020e+01 1.340585e+01 4.024931e+01 1.216302e+00 4.146277e+00 2.340528e+00 4.117258e+00 3.114017e+00 6.114572e+00 5.100671e+00 6.024762e+00 5.284407e+00 3.955758e+00 3.176555e+00 2.231889e+00 4.494456e+00 1.134071e-01 6.796197e-01 2.460016e-01 3.295580e-01 4.283272e-01 8.078770e-01 4.479833e-01 6.302700e-01 4.249727e-01 2.783493e-01 3.583097e-01 2.417749e-01 7.582823e-01
<GCONST> 1.174337e+02
<MIXTURE> 16 1.284658e-02
<MEAN> 39
 -9.162194e+00 -1.162227e+01 -2.426243e+00 -3.479404e-01 -2.726493e-01 3.380536e+00 -3.370509e+00 -2.630539e+00 -1.393795e+00 1.708514e+00 -3.091923e+00 5.469122e-01 6.684987e+01 -7.307491e-01 -9.272245e+00 5.374551e-02 -5.626087e+00 3.820776e+00 -7.401742e+00 8.038188e-01 -8.960747e+00 -7.854468e-01 -1.260056e+00 -2.019520e-01 -9.627531e-01 1.189245e+01 -6.062225e-01 -9.636283e-02 -1.380985e-01 1.870906e-02 7.794341e-02 -4.469156e-02 4.691020e-01 -2.666306e-01 -8.963436e-03 -3.575664e-01 -1.537600e-01 -4.783555e-01 6.209111e-02
<VARIANCE> 39
 2.902037e+01 2.017641e+01 1.683300e+01 4.341006e+01 5.637880e+01 4.127103e+01 3.321967e+01 3.917510e+01 3.206266e+01 2.018896e+01 1.919862e+01 6.963088e+00 1.673112e+01 1.363377e+00 1.785319e+00 1.638245e+00 3.011790e+00 1.823604e+00 5.533752e+00 5.397955e+00 6.364242e+00 4.213566e+00 2.220226e+00 1.839088e+00 1.539581e+00 1.472992e+00 2.660555e-01 2.042317e-01 1.209052e-01 5.411687e-01 6.812344e-01 8.447524e-01 6.050159e-01 5.690697e-01 6.409616e-01 2.500839e-01 2.534260e-01 2.133870e-01 1.829338e-01
<GCONST> 1.120460e+02
<STATE> 3
<NUMMIXES> 16
<MIXTURE> 1 3.055103e-04
<MEAN> 39
 -1.786130e+01 -1.718065e+01 -3.157065e+00 -5.078496e+00 6.255469e+00 -2.881062e+00 4.588747e+00 -7.341324e+00 -7.430621e+00 5.470263e+00 -1.649231e+00 -6.484381e+00 7.009090e+01 1.008084e+00 1.352670e+00 -6.734091e-01 2.304882e+00 -8.742462e-01 3.994427e+00 -1.303255e+00 3.839003e+00 2.007136e+00 2.915033e+00 -7.115858e-01 1.678821e+00 -3.817660e+00 3.628963e-01 6.644750e-02 -1.323906e-01 9.520231e-01 -8.775449e-01 1.458764e+00 -1.947388e-01 1.835691e-01 3.151538e-01 -4.823001e-01 4.312095e-01 3.294263e-01 -4.108965e-01
<VARIANCE> 39
 3.290822e+00 1.868169e+01 9.619579e-01 6.271816e+00 2.604913e+00 4.138038e+00 6.535802e+00 6.317631e+01 4.739010e+00 6.475571e+00 4.173466e+00 3.049418e+00 4.039360e+01 2.798769e-01 7.035365e-01 1.534074e-01 2.185844e+00 7.341986e-01 3.067260e+00 9.123478e-01 1.781751e+00 3.638883e-01 1.874758e-01 1.141575e+00 3.422015e-01 2.458232e+00 1.016308e-01 8.037509e-01 5.882082e-02 1.241146e-01 5.429552e-02 1.451446e-01 1.302837e-01 1.635853e+00 6.047893e-02 3.191790e-01 8.590698e-02 1.549129e-02 1.943877e+00
<GCONST> 6.779606e+01
<MIXTURE> 2 4.599279e-02
<MEAN> 39
 -1.611517e+01 -2.654243e+01 -1.608177e+00 -8.354812e+00 4.551763e+00 -4.112672e+00 -5.164520e-01 -2.015907e+01 -1.946103e+00 -3.767043e-01 -3.718387e+00 -4.811891e+00 8.153762e+01 5.323153e-01 9.824392e-01 1.442039e-01 1.183001e+00 -1.089231e+00 2.184086e+00 -5.283538e-01 1.445625e+00 4.759943e-02 1.298898e+00 -2.381905e-01 1.757290e-01 -2.852182e+00 3.086907e-01 8.398339e-01 -3.274176e-01 9.163371e-01 -3.651670e-01 7.981739e-01 -3.933976e-01 1.134636e+00 -5.825242e-02 3.418530e-01 4.853115e-02 3.139697e-01 -1.391063e+00
<VARIANCE> 39
 7.319392e+00 1.046291e+01 1.197681e+01 1.449357e+01 1.377521e+01 3.302843e+01 1.738998e+01 2.971621e+01 2.464456e+01 1.431299e+01 2.120853e+01 1.729765e+01 2.565973e+01 6.808638e-01 9.209818e-01 1.523333e+00 1.930350e+00 1.057667e+00 2.064089e+00 2.029512e+00 3.974300e+00 1.637177e+00 1.590655e+00 1.533057e+00 1.579152e+00 3.375455e+00 1.186175e-01 7.081640e-01 3.311113e-01 3.133756e-01 2.462934e-01 7.180350e-01 3.152565e-01 7.750609e-01 3.835755e-01 3.210352e-01 2.624690e-01 2.440257e-01 1.478150e+00
<GCONST> 1.027578e+02
<MIXTURE> 3 4.599275e-02
<MEAN> 39
 -1.611517e+01 -2.654243e+01 -1.608178e+00 -8.354813e+00 4.551763e+00 -4.112672e+00 -5.164515e-01 -2.015907e+01 -1.946101e+00 -3.767050e-01 -3.718387e+00 -4.811892e+00 8.153763e+01 5.323150e-01 9.824394e-01 1.442042e-01 1.183000e+00 -1.089231e+00 2.184086e+00 -5.283529e-01 1.445625e+00 4.759967e-02 1.298898e+00 -2.381898e-01 1.757288e-01 -2.852181e+00 3.086908e-01 8.398340e-01 -3.274174e-01 9.163370e-01 -3.651669e-01 7.981740e-01 -3.933977e-01 1.134636e+00 -5.825251e-02 3.418533e-01 4.853126e-02 3.139698e-01 -1.391064e+00
<VARIANCE> 39
 7.319389e+00 1.046291e+01 1.197681e+01 1.449355e+01 1.377520e+01 3.302842e+01 1.738997e+01 2.971619e+01 2.464456e+01 1.431298e+01 2.120853e+01 1.729765e+01 2.565971e+01 6.808631e-01 9.209796e-01 1.523334e+00 1.930349e+00 1.057666e+00 2.064089e+00 2.029512e+00 3.974298e+00 1.637175e+00 1.590654e+00 1.533056e+00 1.579152e+00 3.375456e+00 1.186175e-01 7.081636e-01 3.311113e-01 3.133756e-01 2.462935e-01 7.180353e-01 3.152563e-01 7.750605e-01 3.835755e-01 3.210351e-01 2.624691e-01 2.440256e-01 1.478150e+00
<GCONST> 1.027578e+02
<MIXTURE> 4 9.991395e-02
<MEAN> 39
 -1.703663e+01 -2.780889e+01 -1.256055e+00 -8.077374e+00 5.932360e+00 -6.667924e+00 -3.762760e-01 -2.038385e+01 -4.127256e-01 -1.126502e+00 -3.504983e+00 -4.357467e+00 8.361497e+01 3.019508e-01 1.376381e-01 3.931310e-01 2.741137e-01 -6.949607e-01 1.054176e+00 -5.679022e-01 -1.856204e-01 -3.019222e-01 3.505832e-01 -5.728709e-01 -4.659595e-01 -1.028038e+00 3.007416e-01 1.112760e+00 -2.077339e-01 8.977582e-01 -5.175141e-01 9.736263e-01 -4.211203e-01 1.193817e+00 -2.209685e-01 3.289968e-01 -8.063821e-02 1.109451e-01 -1.732099e+00
<VARIANCE> 39
 7.285670e+00 8.260568e+00 1.435559e+01 1.559758e+01 1.566657e+01 3.505182e+01 2.118393e+01 2.463462e+01 2.879992e+01 1.802319e+01 2.449504e+01 2.262272e+01 1.962498e+01 9.649881e-01 5.899590e+00 1.368623e+00 3.921320e+00 2.280461e+00 4.878870e+00 2.613333e+00 6.758591e+00 2.317103e+00 2.091014e+00 1.402021e+00 1.559432e+00 1.327574e+01 1.085305e-01 1.151154e+00 3.571129e-01 4.588747e-01 4.296643e-01 9.390920e-01 3.890479e-01 8.416421e-01 4.358301e-01 3.665726e-01 3.252512e-01 3.562010e-01 1.641042e+00
<GCONST> 1.135374e+02
<MIXTURE> 5 4.599275e-02
<MEAN> 39
 -1.611517e+01 -2.654243e+01 -1.608178e+00 -8.354813e+00 4.551763e+00 -4.112672e+00 -5.164515e-01 -2.015907e+01 -1.946101e+00 -3.767050e-01 -3.718387e+00 -4.811892e+00 8.153763e+01 5.323150e-01 9.824394e-01 1.442042e-01 1.183000e+00 -1.089231e+00 2.184086e+00 -5.283529e-01 1.445625e+00 4.759967e-02 1.298898e+00 -2.381898e-01 1.757288e-01 -2.852181e+00 3.086908e-01 8.398340e-01 -3.274174e-01 9.163370e-01 -3.651669e-01 7.981740e-01 -3.933977e-01 1.134636e+00 -5.825251e-02 3.418533e-01 4.853126e-02 3.139698e-01 -1.391064e+00
<VARIANCE> 39
 7.319389e+00 1.046291e+01 1.197681e+01 1.449355e+01 1.377520e+01 3.302842e+01 1.738997e+01 2.971619e+01 2.464456e+01 1.431298e+01 2.120853e+01 1.729765e+01 2.565971e+01 6.808631e-01 9.209796e-01 1.523334e+00 1.930349e+00 1.057666e+00 2.064089e+00 2.029512e+00 3.974298e+00 1.637175e+00 1.590654e+00 1.533056e+00 1.579152e+00 3.375456e+00 1.186175e-01 7.081636e-01 3.311113e-01 3.133756e-01 2.462935e-01 7.180353e-01 3.152563e-01 7.750605e-01 3.835755e-01 3.210351e-01 2.624691e-01 2.440256e-01 1.478150e+00
<GCONST> 1.027578e+02
<MIXTURE> 6 9.991395e-02
<MEAN> 39
 -1.703663e+01 -2.780889e+01 -1.256055e+00 -8.077373e+00 5.932361e+00 -6.667925e+00 -3.762765e-01 -2.038385e+01 -4.127247e-01 -1.126502e+00 -3.504983e+00 -4.357467e+00 8.361497e+01 3.019509e-01 1.376382e-01 3.931307e-01 2.741139e-01 -6.949606e-01 1.054176e+00 -5.679023e-01 -1.856205e-01 -3.019222e-01 3.505833e-01 -5.728709e-01 -4.659595e-01 -1.028037e+00 3.007417e-01 1.112760e+00 -2.077340e-01 8.977582e-01 -5.175142e-01 9.736263e-01 -4.211203e-01 1.193817e+00 -2.209686e-01 3.289967e-01 -8.063824e-02 1.109451e-01 -1.732099e+00
<VARIANCE> 39
 7.285669e+00 8.260571e+00 1.435560e+01 1.559758e+01 1.566657e+01 3.505182e+01 2.118394e+01 2.463463e+01 2.879993e+01 1.802319e+01 2.449503e+01 2.262273e+01 1.962498e+01 9.649884e-01 5.899592e+00 1.368623e+00 3.921321e+00 2.280462e+00 4.878871e+00 2.613335e+00 6.758591e+00 2.317103e+00 2.091014e+00 1.402021e+00 1.559432e+00 1.327575e+01 1.085305e-01 1.151154e+00 3.571130e-01 4.588746e-01 4.296644e-01 9.390924e-01 3.890480e-01 8.416423e-01 4.358301e-01 3.665726e-01 3.252511e-01 3.562011e-01 1.641042e+00
<GCONST> 1.135374e+02
<MIXTURE> 7 9.991381e-02
<MEAN> 39
 -1.703663e+01 -2.780889e+01 -1.256052e+00 -8.077372e+00 5.932357e+00 -6.667922e+00 -3.762790e-01 -2.038385e+01 -4.127244e-01 -1.126501e+00 -3.504984e+00 -4.357468e+00 8.361497e+01 3.019519e-01 1.376411e-01 3.931305e-01 2.741160e-01 -6.949621e-01 1.054179e+00 -5.679039e-01 -1.856172e-01 -3.019237e-01 3.505845e-01 -5.728710e-01 -4.659595e-01 -1.028043e+00 3.007417e-01 1.112759e+00 -2.077343e-01 8.977576e-01 -5.175136e-01 9.736254e-01 -4.211201e-01 1.193817e+00 -2.209685e-01 3.289968e-01 -8.063809e-02 1.109453e-01 -1.732097e+00
<VARIANCE> 39
 7.285669e+00 8.260565e+00 1.435560e+01 1.559758e+01 1.566657e+01 3.505181e+01 2.118393e+01 2.463462e+01 2.879992e+01 1.802318e+01 2.449500e+01 2.262274e+01 1.962498e+01 9.649882e-01 5.899573e+00 1.368623e+00 3.921317e+00 2.280457e+00 4.878862e+00 2.613331e+00 6.758576e+00 2.317101e+00 2.091014e+00 1.402019e+00 1.559433e+00 1.327571e+01 1.085304e-01 1.151152e+00 3.571129e-01 4.588741e-01 4.296637e-01 9.390917e-01 3.890476e-01 8.416422e-01 4.358298e-01 3.665726e-01 3.252509e-01 3.562010e-01 1.641041e+00
<GCONST> 1.135374e+02
<MIXTURE> 8 5.323699e-02
<MEAN> 39
 -1.640341e+01 -2.786853e+01 -2.957955e+00 -7.238700e+00 8.294230e+00 -9.218458e+00 -8.678774e-01 -1.798618e+01 -2.438698e+00 1.804702e-01 -1.751689e+00 -1.549319e+00 8.295373e+01 -4.404920e-01 -7.353071e+00 -6.782760e-02 -4.646210e+00 2.537602e+00 -5.376592e+00 5.345262e-01 -6.782649e+00 6.782725e-01 -1.169747e+00 -3.325787e-01 -3.456030e-01 9.476575e+00 4.229680e-02 2.078631e+00 8.452754e-02 9.928650e-01 -1.028565e+00 1.768101e+00 -6.481618e-02 1.547503e+00 9.785508e-02 -9.851286e-02 -1.917985e-01 -3.000896e-01 -2.340109e+00
<VARIANCE> 39
 8.512041e+00 1.716486e+01 1.801958e+01 2.930092e+01 1.928099e+01 5.719452e+01 3.245744e+01 4.800279e+01 4.347677e+01 3.793996e+01 3.414111e+01 2.977033e+01 3.990266e+01 1.023676e+00 8.167671e+00 1.440568e+00 3.551040e+00 3.344989e+00 7.670430e+00 3.774712e+00 7.513802e+00 3.324240e+00 2.062351e+00 2.457377e+00 1.868284e+00 1.012103e+01 1.331249e-01 9.107947e-01 3.923569e-01 8.012837e-01 4.300624e-01 1.285388e+00 7.273458e-01 1.150906e+00 6.927895e-01 7.364641e-01 4.916902e-01 4.273335e-01 1.554284e+00
<GCONST> 1.255861e+02
<MIXTURE> 9 4.599274e-02
<MEAN> 39
 -1.611517e+01 -2.654243e+01 -1.608177e+00 -8.354812e+00 4.551763e+00 -4.112672e+00 -5.164515e-01 -2.015907e+01 -1.946102e+00 -3.767048e-01 -3.718387e+00 -4.811891e+00 8.153763e+01 5.323150e-01 9.824392e-01 1.442041e-01 1.183000e+00 -1.089231e+00 2.184086e+00 -5.283529e-01 1.445625e+00 4.759961e-02 1.298898e+00 -2.381898e-01 1.757289e-01 -2.852181e+00 3.086908e-01 8.398340e-01 -3.274174e-01 9.163370e-01 -3.651670e-01 7.981741e-01 -3.933977e-01 1.134636e+00 -5.825250e-02 3.418533e-01 4.853123e-02 3.139697e-01 -1.391064e+00
<VARIANCE> 39
 7.319389e+00 1.046291e+01 1.197681e+01 1.449356e+01 1.377520e+01 3.302840e+01 1.738998e+01 2.971619e+01 2.464456e+01 1.431298e+01 2.120854e+01 1.729764e+01 2.565971e+01 6.808630e-01 9.209797e-01 1.523333e+00 1.930349e+00 1.057666e+00 2.064088e+00 2.029511e+00 3.974297e+00 1.637175e+00 1.590655e+00 1.533056e+00 1.579152e+00 3.375454e+00 1.186175e-01 7.081635e-01 3.311112e-01 3.133755e-01 2.462934e-01 7.180353e-01 3.152562e-01 7.750605e-01 3.835755e-01 3.210351e-01 2.624690e-01 2.440255e-01 1.478150e+00
<GCONST> 1.027578e+02
<MIXTURE> 10 9.991395e-02
<MEAN> 39
 -1.703663e+01 -2.780889e+01 -1.256055e+00 -8.077373e+00 5.932361e+00 -6.667925e+00 -3.762765e-01 -2.038385e+01 -4.127247e-01 -1.126502e+00 -3.504983e+00 -4.357467e+00 8.361497e+01 3.019509e-01 1.376382e-01 3.931307e-01 2.741139e-01 -6.949606e-01 1.054176e+00 -5.679023e-01 -1.856205e-01 -3.019222e-01 3.505833e-01 -5.728709e-01 -4.659595e-01 -1.028037e+00 3.007417e-01 1.112760e+00 -2.077340e-01 8.977582e-01 -5.175142e-01 9.736263e-01 -4.211203e-01 1.193817e+00 -2.209686e-01 3.289967e-01 -8.063824e-02 1.109451e-01 -1.732099e+00
<VARIANCE> 39
 7.285669e+00 8.260571e+00 1.435560e+01 1.559758e+01 1.566657e+01 3.505182e+01 2.118394e+01 2.463463e+01 2.879993e+01 1.802319e+01 2.449503e+01 2.262273e+01 1.962498e+01 9.649884e-01 5.899592e+00 1.368623e+00 3.921321e+00 2.280462e+00 4.878871e+00 2.613335e+00 6.758591e+00 2.317103e+00 2.091014e+00 1.402021e+00 1.559432e+00 1.327575e+01 1.085305e-01 1.151154e+00 3.571130e-01 4.588746e-01 4.296644e-01 9.390924e-01 3.890480e-01 8.416423e-01 4.358301e-01 3.665726e-01 3.252511e-01 3.562011e-01 1.641042e+00
<GCONST> 1.135374e+02
<MIXTURE> 11 9.991384e-02
<MEAN> 39
 -1.703663e+01 -2.780889e+01 -1.256052e+00 -8.077372e+00 5.932357e+00 -6.667923e+00 -3.762791e-01 -2.038385e+01 -4.127243e-01 -1.126501e+00 -3.504984e+00 -4.357468e+00 8.361497e+01 3.019517e-01 1.376410e-01 3.931306e-01 2.741155e-01 -6.949620e-01 1.054179e+00 -5.679039e-01 -1.856174e-01 -3.019236e-01 3.505843e-01 -5.728709e-01 -4.659597e-01 -1.028042e+00 3.007417e-01 1.112759e+00 -2.077343e-01 8.977577e-01 -5.175136e-01 9.736256e-01 -4.211201e-01 1.193817e+00 -2.209685e-01 3.289969e-01 -8.063806e-02 1.109453e-01 -1.732098e+00
<VARIANCE> 39
 7.285670e+00 8.260566e+00 1.435560e+01 1.559757e+01 1.566657e+01 3.505180e+01 2.118394e+01 2.463463e+01 2.879993e+01 1.802318e+01 2.449500e+01 2.262274e+01 1.962498e+01 9.649881e-01 5.899570e+00 1.368622e+00 3.921317e+00 2.280457e+00 4.878862e+00 2.613331e+00 6.758577e+00 2.317101e+00 2.091014e+00 1.402019e+00 1.559433e+00 1.327571e+01 1.085304e-01 1.151153e+00 3.571129e-01 4.588742e-01 4.296637e-01 9.390923e-01 3.890476e-01 8.416424e-01 4.358298e-01 3.665725e-01 3.252509e-01 3.562011e-01 1.641041e+00
<GCONST> 1.135374e+02
<MIXTURE> 12 5.323692e-02
<MEAN> 39
 -1.640341e+01 -2.786853e+01 -2.957957e+00 -7.238698e+00 8.294233e+00 -9.218463e+00 -8.678752e-01 -1.798618e+01 -2.438700e+00 1.804666e-01 -1.751690e+00 -1.549325e+00 8.295373e+01 -4.404912e-01 -7.353070e+00 -6.782791e-02 -4.646208e+00 2.537601e+00 -5.376592e+00 5.345268e-01 -6.782647e+00 6.782718e-01 -1.169747e+00 -3.325781e-01 -3.456035e-01 9.476572e+00 4.229720e-02 2.078633e+00 8.452798e-02 9.928646e-01 -1.028565e+00 1.768102e+00 -6.481698e-02 1.547503e+00 9.785508e-02 -9.851258e-02 -1.917986e-01 -3.000887e-01 -2.340110e+00
<VARIANCE> 39
 8.512024e+00 1.716486e+01 1.801958e+01 2.930088e+01 1.928099e+01 5.719460e+01 3.245744e+01 4.800270e+01 4.347681e+01 3.794001e+01 3.414112e+01 2.977033e+01 3.990263e+01 1.023677e+00 8.167679e+00 1.440569e+00 3.551039e+00 3.344990e+00 7.670434e+00 3.774711e+00 7.513808e+00 3.324236e+00 2.062353e+00 2.457376e+00 1.868285e+00 1.012104e+01 1.331247e-01 9.107944e-01 3.923571e-01 8.012822e-01 4.300623e-01 1.285390e+00 7.273453e-01 1.150905e+00 6.927896e-01 7.364654e-01 4.916905e-01 4.273334e-01 1.554284e+00
<GCONST> 1.255861e+02
<MIXTURE> 13 9.991384e-02
<MEAN> 39
 -1.703663e+01 -2.780889e+01 -1.256052e+00 -8.077373e+00 5.932356e+00 -6.667923e+00 -3.762787e-01 -2.038385e+01 -4.127239e-01 -1.126502e+00 -3.504985e+00 -4.357469e+00 8.361497e+01 3.019518e-01 1.376414e-01 3.931308e-01 2.741166e-01 -6.949621e-01 1.054179e+00 -5.679036e-01 -1.856173e-01 -3.019238e-01 3.505845e-01 -5.728709e-01 -4.659595e-01 -1.028042e+00 3.007417e-01 1.112759e+00 -2.077344e-01 8.977578e-01 -5.175135e-01 9.736254e-01 -4.211202e-01 1.193817e+00 -2.209684e-01 3.289970e-01 -8.063795e-02 1.109454e-01 -1.732098e+00
<VARIANCE> 39
 7.285673e+00 8.260567e+00 1.435560e+01 1.559758e+01 1.566658e+01 3.505182e+01 2.118393e+01 2.463463e+01 2.879993e+01 1.802318e+01 2.449502e+01 2.262274e+01 1.962497e+01 9.649884e-01 5.899571e+00 1.368622e+00 3.921317e+00 2.280457e+00 4.878863e+00 2.613332e+00 6.758580e+00 2.317101e+00 2.091014e+00 1.402019e+00 1.559433e+00 1.327572e+01 1.085305e-01 1.151153e+00 3.571129e-01 4.588743e-01 4.296640e-01 9.390917e-01 3.890477e-01 8.416420e-01 4.358300e-01 3.665725e-01 3.252511e-01 3.562009e-01 1.641041e+00
<GCONST> 1.135374e+02
<MIXTURE> 14 5.323692e-02
<MEAN> 39
 -1.640341e+01 -2.786853e+01 -2.957957e+00 -7.238698e+00 8.294233e+00 -9.218463e+00 -8.678752e-01 -1.798618e+01 -2.438700e+00 1.804666e-01 -1.751690e+00 -1.549325e+00 8.295373e+01 -4.404912e-01 -7.353070e+00 -6.782791e-02 -4.646208e+00 2.537601e+00 -5.376592e+00 5.345268e-01 -6.782647e+00 6.782718e-01 -1.169747e+00 -3.325781e-01 -3.456035e-01 9.476572e+00 4.229720e-02 2.078633e+00 8.452798e-02 9.928646e-01 -1.028565e+00 1.768102e+00 -6.481698e-02 1.547503e+00 9.785508e-02 -9.851258e-02 -1.917986e-01 -3.000887e-01 -2.340110e+00
<VARIANCE> 39
 8.512024e+00 1.716486e+01 1.801958e+01 2.930088e+01 1.928099e+01 5.719460e+01 3.245744e+01 4.800270e+01 4.347681e+01 3.794001e+01 3.414112e+01 2.977033e+01 3.990263e+01 1.023677e+00 8.167679e+00 1.440569e+00 3.551039e+00 3.344990e+00 7.670434e+00 3.774711e+00 7.513808e+00 3.324236e+00 2.062353e+00 2.457376e+00 1.868285e+00 1.012104e+01 1.331247e-01 9.107944e-01 3.923571e-01 8.012822e-01 4.300623e-01 1.285390e+00 7.273453e-01 1.150905e+00 6.927896e-01 7.364654e-01 4.916905e-01 4.273334e-01 1.554284e+00
<GCONST> 1.255861e+02
<MIXTURE> 15 5.323700e-02
<MEAN> 39
 -1.640340e+01 -2.786853e+01 -2.957954e+00 -7.238697e+00 8.294228e+00 -9.218454e+00 -8.678746e-01 -1.798618e+01 -2.438693e+00 1.804703e-01 -1.751694e+00 -1.549316e+00 8.295373e+01 -4.404919e-01 -7.353074e+00 -6.782816e-02 -4.646210e+00 2.537602e+00 -5.376594e+00 5.345265e-01 -6.782649e+00 6.782744e-01 -1.169747e+00 -3.325771e-01 -3.456016e-01 9.476575e+00 4.229714e-02 2.078632e+00 8.452778e-02 9.928647e-01 -1.028564e+00 1.768101e+00 -6.481686e-02 1.547502e+00 9.785458e-02 -9.851305e-02 -1.917980e-01 -3.000897e-01 -2.340109e+00
<VARIANCE> 39
 8.512033e+00 1.716489e+01 1.801957e+01 2.930090e+01 1.928103e+01 5.719449e+01 3.245744e+01 4.800282e+01 4.347677e+01 3.793999e+01 3.414112e+01 2.977040e+01 3.990270e+01 1.023677e+00 8.167669e+00 1.440570e+00 3.551039e+00 3.344997e+00 7.670430e+00 3.774714e+00 7.513821e+00 3.324239e+00 2.062355e+00 2.457381e+00 1.868288e+00 1.012104e+01 1.331248e-01 9.107960e-01 3.923568e-01 8.012832e-01 4.300628e-01 1.285388e+00 7.273453e-01 1.150907e+00 6.927904e-01 7.364647e-01 4.916909e-01 4.273339e-01 1.554285e+00
<GCONST> 1.255861e+02
<MIXTURE> 16 3.291772e-03
<MEAN> 39
 -1.774960e+01 -3.268604e+01 -6.058287e+00 -8.687710e+00 5.034300e+00 -1.251394e+01 8.924065e-01 -2.119534e+01 2.517686e-01 2.496276e+00 -5.122514e+00 -2.554735e+00 8.524795e+01 -5.415282e-01 -6.296990e+00 -9.839138e-01 -4.062465e+00 1.828068e+00 -4.067524e+00 8.284856e-01 -5.470243e+00 -5.379087e-02 -2.111484e+00 -6.468484e-01 -3.917715e-01 7.793135e+00 1.779554e-01 3.116741e+00 4.066532e-01 1.174691e+00 -9.850614e-01 2.228520e+00 -7.095857e-01 1.852296e+00 -6.816164e-01 -9.948870e-01 -2.407007e-01 -4.226242e-01 -3.095778e+00
<VARIANCE> 39
 2.698322e+00 8.057507e+00 5.649999e+00 1.460110e+01 2.009368e+01 2.557165e+01 2.696414e+01 4.852631e+01 2.560150e+01 3.860349e+01 3.777503e+01 7.507073e+00 1.708850e+01 7.951856e-01 3.813895e+00 1.061421e+00 1.149453e+00 2.087925e+00 4.776361e+00 2.768647e+00 3.803925e+00 1.126931e+00 1.670845e+00 2.244665e+00 1.162079e+00 4.218156e+00 9.584749e-02 5.122241e-01 2.185166e-01 4.573742e-01 2.032097e-01 6.227389e-01 4.630893e-01 1.346340e+00 8.251801e-01 1.088426e+00 3.874879e-01 2.054489e-01 5.950509e-01
<GCONST> 1.059493e+02
<STATE> 4
<NUMMIXES> 16
<MIXTURE> 1 4.871652e-03
<MEAN> 39
 -1.189425e+01 -5.939105e+00 -7.517516e+00 1.047270e+01 -2.188274e+00 1.600110e+01 -2.514163e+00 -2.440347e+00 -7.745256e+00 7.131732e+00 -1.653748e+00 -3.508642e+00 5.283756e+01 -1.416758e+00 1.991389e+00 -2.530946e-02 -2.652588e-01 1.491136e+00 1.911779e+00 2.253589e+00 3.517850e+00 2.424096e+00 1.208381e+00 1.423491e+00 1.003251e-01 -1.898475e+00 4.327500e-02 -2.616005e-02 1.716124e-01 -2.780196e-01 -8.488582e-02 -1.504795e-01 -2.836478e-01 1.048368e-01 4.495384e-01 -3.536847e-01 9.797072e-02 3.619772e-01 1.802247e-01
<VARIANCE> 39
 2.502877e+00 9.640064e+00 7.845248e+00 7.070846e+00 1.415965e+01 1.970274e+01 2.811506e+01 1.950487e+01 2.248703e+01 1.620493e+01 1.348695e+01 8.672963e+00 3.187060e+00 2.027288e-01 3.463849e-01 4.401389e-01 8.502426e-01 1.296590e+00 1.207903e+00 1.492646e+00 2.048644e+00 1.857048e+00 1.133357e+00 1.218915e+00 8.284420e-01 1.632586e-01 5.707765e-02 1.011467e-01 1.270977e-01 1.315724e-01 2.486167e-01 3.782104e-01 4.116467e-01 2.717868e-01 4.054431e-01 2.320220e-01 1.986659e-01 1.109873e-01 4.456763e-02
<GCONST> 7.641383e+01
<MIXTURE> 2 4.985234e-02
<MEAN> 39
 -1.114047e+01 -7.743258e+00 -7.405242e+00 1.074710e+01 -2.599617e+00 1.400123e+01 -4.958825e+00 -3.772967e+00 -8.066397e+00 6.012992e+00 -2.473326e+00 -3.945587e+00 5.435307e+01 -1.033271e+00 1.876712e+00 -1.696397e-01 1.317965e-01 1.006055e+00 1.295772e+00 1.417476e+00 2.473862e+00 1.484537e+00 5.982226e-01 8.781916e-01 -4.436427e-02 -1.766003e+00 -6.880960e-02 -3.654662e-02 1.626263e-01 -3.172436e-01 3.594092e-02 -1.740576e-01 -1.167384e-01 1.610399e-01 3.951504e-01 -1.562843e-01 6.023808e-02 2.137888e-01 1.469826e-01
<VARIANCE> 39
 5.170877e+00 1.859158e+01 1.265169e+01 1.358440e+01 1.653778e+01 2.491101e+01 3.288069e+01 2.878911e+01 3.672545e+01 2.290935e+01 2.121952e+01 1.811132e+01 8.736130e+00 4.608594e-01 6.956423e-01 7.927587e-01 1.627924e+00 1.693023e+00 1.872508e+00 2.303002e+00 2.286493e+00 3.488718e+00 1.643413e+00 1.655759e+00 1.517118e+00 4.523939e-01 1.106146e-01 1.740346e-01 1.491149e-01 2.611847e-01 3.832062e-01 3.831348e-01 4.760527e-01 5.032568e-01 8.029649e-01 4.214528e-01 3.238616e-01 2.727802e-01 9.273902e-02
<GCONST> 9.649294e+01
<MIXTURE> 3 4.985239e-02
<MEAN> 39
 -1.114047e+01 -7.743259e+00 -7.405243e+00 1.074710e+01 -2.599617e+00 1.400123e+01 -4.958821e+00 -3.772967e+00 -8.066398e+00 6.012994e+00 -2.473325e+00 -3.945586e+00 5.435307e+01 -1.033271e+00 1.876712e+00 -1.696398e-01 1.317965e-01 1.006056e+00 1.295772e+00 1.417476e+00 2.473862e+00 1.484537e+00 5.982232e-01 8.781912e-01 -4.436424e-02 -1.766003e+00 -6.880961e-02 -3.654661e-02 1.626263e-01 -3.172438e-01 3.594112e-02 -1.740578e-01 -1.167387e-01 1.610399e-01 3.951501e-01 -1.562845e-01 6.023817e-02 2.137887e-01 1.469827e-01
<VARIANCE> 39
 5.170875e+00 1.859156e+01 1.265169e+01 1.358441e+01 1.653777e+01 2.491100e+01 3.288070e+01 2.878913e+01 3.672544e+01 2.290933e+01 2.121951e+01 1.811130e+01 8.736124e+00 4.608592e-01 6.956428e-01 7.927588e-01 1.627922e+00 1.693021e+00 1.872507e+00 2.303003e+00 2.286493e+00 3.488718e+00 1.643414e+00 1.655758e+00 1.517118e+00 4.523936e-01 1.106145e-01 1.740344e-01 1.491149e-01 2.611847e-01 3.832059e-01 3.831345e-01 4.760529e-01 5.032566e-01 8.029646e-01 4.214525e-01 3.238614e-01 2.727803e-01 9.273892e-02
<GCONST> 9.649294e+01
<MIXTURE> 4 1.121697e-01
<MEAN> 39
 -1.013056e+01 -1.486338e+01 -6.184978e+00 7.128624e+00 -2.609741e+00 8.846164e+00 -9.317524e+00 -8.599962e+00 -6.081318e+00 4.195916e+00 -5.834522e+00 -4.564214e+00 6.083424e+01 3.856708e-01 1.803104e+00 -6.306176e-01 1.678783e+00 -5.523808e-01 1.233112e+00 -3.641985e-01 1.297752e+00 -4.161790e-01 2.754071e-01 2.779585e-01 7.681097e-02 -2.032345e+00 -2.215865e-01 -2.493596e-02 1.333103e-01 -2.484055e-01 2.118763e-01 -2.690818e-01 3.217793e-01 -1.510589e-01 7.593402e-02 -1.232579e-01 1.351769e-01 -5.832355e-02 3.257235e-01
<VARIANCE> 39
 8.436333e+00 3.322104e+01 1.488224e+01 4.596861e+01 1.566198e+01 3.006247e+01 2.653858e+01 3.330862e+01 4.370862e+01 1.930577e+01 2.493514e+01 2.794210e+01 2.689461e+01 1.089618e+00 9.247954e-01 1.280148e+00 2.912490e+00 2.038746e+00 3.009796e+00 2.731617e+00 3.957510e+00 3.869360e+00 1.985865e+00 1.673777e+00 1.682753e+00 1.857464e+00 1.603036e-01 1.909636e-01 2.121940e-01 3.836108e-01 3.670937e-01 3.958815e-01 4.917414e-01 8.971279e-01 1.047220e+00 4.211833e-01 3.802155e-01 3.435460e-01 2.235565e-01
<GCONST> 1.094745e+02
<MIXTURE> 5 4.985239e-02
<MEAN> 39
 -1.114047e+01 -7.743259e+00 -7.405243e+00 1.074710e+01 -2.599617e+00 1.400123e+01 -4.958821e+00 -3.772967e+00 -8.066398e+00 6.012994e+00 -2.473325e+00 -3.945586e+00 5.435307e+01 -1.033271e+00 1.876712e+00 -1.696398e-01 1.317965e-01 1.006056e+00 1.295772e+00 1.417476e+00 2.473862e+00 1.484537e+00 5.982232e-01 8.781912e-01 -4.436424e-02 -1.766003e+00 -6.880961e-02 -3.654661e-02 1.626263e-01 -3.172438e-01 3.594112e-02 -1.740578e-01 -1.167387e-01 1.610399e-01 3.951501e-01 -1.562845e-01 6.023817e-02 2.137887e-01 1.469827e-01
<VARIANCE> 39
 5.170875e+00 1.859156e+01 1.265169e+01 1.358441e+01 1.653777e+01 2.491100e+01 3.288070e+01 2.878913e+01 3.672544e+01 2.290933e+01 2.121951e+01 1.811130e+01 8.736124e+00 4.608592e-01 6.956428e-01 7.927588e-01 1.627922e+00 1.693021e+00 1.872507e+00 2.303003e+00 2.286493e+00 3.488718e+00 1.643414e+00 1.655758e+00 1.517118e+00 4.523936e-01 1.106145e-01 1.740344e-01 1.491149e-01 2.611847e-01 3.832059e-01 3.831345e-01 4.760529e-01 5.032566e-01 8.029646e-01 4.214525e-01 3.238614e-01 2.727803e-01 9.273892e-02
<GCONST> 9.649294e+01
<MIXTURE> 6 1.121699e-01
<MEAN> 39
 -1.013057e+01 -1.486339e+01 -6.184974e+00 7.128612e+00 -2.609736e+00 8.846161e+00 -9.317514e+00 -8.599959e+00 -6.081305e+00 4.195920e+00 -5.834523e+00 -4.564215e+00 6.083424e+01 3.856723e-01 1.803104e+00 -6.306191e-01 1.678785e+00 -5.523828e-01 1.233115e+00 -3.642006e-01 1.297754e+00 -4.161777e-01 2.754078e-01 2.779582e-01 7.681194e-02 -2.032348e+00 -2.215855e-01 -2.493566e-02 1.333102e-01 -2.484048e-01 2.118759e-01 -2.690826e-01 3.217787e-01 -1.510607e-01 7.593223e-02 -1.232589e-01 1.351773e-01 -5.832310e-02 3.257245e-01
<VARIANCE> 39
 8.436316e+00 3.322105e+01 1.488223e+01 4.596861e+01 1.566195e+01 3.006250e+01 2.653858e+01 3.330862e+01 4.370856e+01 1.930576e+01 2.493510e+01 2.794206e+01 2.689463e+01 1.089618e+00 9.247946e-01 1.280147e+00 2.912486e+00 2.038746e+00 3.009795e+00 2.731618e+00 3.957509e+00 3.869358e+00 1.985865e+00 1.673778e+00 1.682750e+00 1.857466e+00 1.603033e-01 1.909634e-01 2.121940e-01 3.836103e-01 3.670934e-01 3.958813e-01 4.917406e-01 8.971266e-01 1.047219e+00 4.211829e-01 3.802151e-01 3.435451e-01 2.235563e-01
<GCONST> 1.094745e+02
<MIXTURE> 7 1.121699e-01
<MEAN> 39
 -1.013057e+01 -1.486339e+01 -6.184974e+00 7.128612e+00 -2.609736e+00 8.846161e+00 -9.317514e+00 -8.599959e+00 -6.081305e+00 4.195920e+00 -5.834523e+00 -4.564215e+00 6.083424e+01 3.856723e-01 1.803104e+00 -6.306191e-01 1.678785e+00 -5.523828e-01 1.233115e+00 -3.642006e-01 1.297754e+00 -4.161777e-01 2.754078e-01 2.779582e-01 7.681194e-02 -2.032348e+00 -2.215855e-01 -2.493566e-02 1.333102e-01 -2.484048e-01 2.118759e-01 -2.690826e-01 3.217787e-01 -1.510607e-01 7.593223e-02 -1.232589e-01 1.351773e-01 -5.832310e-02 3.257245e-01
<VARIANCE> 39
 8.436316e+00 3.322105e+01 1.488223e+01 4.596861e+01 1.566195e+01 3.006250e+01 2.653858e+01 3.330862e+01 4.370856e+01 1.930576e+01 2.493510e+01 2.794206e+01 2.689463e+01 1.089618e+00 9.247946e-01 1.280147e+00 2.912486e+00 2.038746e+00 3.009795e+00 2.731618e+00 3.957509e+00 3.869358e+00 1.985865e+00 1.673778e+00 1.682750e+00 1.857466e+00 1.603033e-01 1.909634e-01 2.121940e-01 3.836103e-01 3.670934e-01 3.958813e-01 4.917406e-01 8.971266e-01 1.047219e+00 4.211829e-01 3.802151e-01 3.435451e-01 2.235563e-01
<GCONST> 1.094745e+02
<MIXTURE> 8 3.057147e-02
<MEAN> 39
 -9.708891e+00 -1.705795e+01 -4.146967e+00 5.803720e+00 -2.092499e+00 6.306217e+00 -1.085656e+01 -1.188347e+01 -5.904344e+00 3.099659e+00 -8.036875e+00 -4.419133e+00 6.394703e+01 1.201836e+00 1.947124e+00 -7.847440e-01 1.903039e+00 -1.002852e+00 1.036721e+00 -1.756806e+00 3.378786e-01 -2.021585e+00 -4.047573e-01 -7.308983e-01 -2.643842e-01 -2.047076e+00 -3.041927e-01 -8.986881e-02 6.670275e-02 -2.314923e-01 2.370988e-01 -2.490543e-01 4.374086e-01 -6.756262e-02 6.615304e-02 -2.073961e-01 1.165244e-01 -2.091894e-01 3.706349e-01
<VARIANCE> 39
 1.182991e+01 2.758205e+01 1.763372e+01 4.142163e+01 1.607167e+01 3.002708e+01 2.504266e+01 3.465733e+01 4.079432e+01 1.714831e+01 2.273028e+01 3.162205e+01 2.494755e+01 1.437482e+00 1.380738e+00 1.865272e+00 3.133281e+00 2.264157e+00 2.453361e+00 3.057278e+00 5.137501e+00 5.432222e+00 2.000628e+00 2.193944e+00 2.167697e+00 2.704399e+00 1.819045e-01 2.265414e-01 2.591148e-01 4.208605e-01 3.317646e-01 2.729060e-01 5.477658e-01 7.163681e-01 7.848650e-01 4.009221e-01 3.517902e-01 3.683842e-01 2.123541e-01
<GCONST> 1.117169e+02
<MIXTURE> 9 4.985237e-02
<MEAN> 39
 -1.114047e+01 -7.743258e+00 -7.405242e+00 1.074710e+01 -2.599616e+00 1.400123e+01 -4.958822e+00 -3.772967e+00 -8.066398e+00 6.012994e+00 -2.473324e+00 -3.945587e+00 5.435307e+01 -1.033271e+00 1.876712e+00 -1.696397e-01 1.317967e-01 1.006056e+00 1.295772e+00 1.417476e+00 2.473862e+00 1.484537e+00 5.982229e-01 8.781915e-01 -4.436415e-02 -1.766003e+00 -6.880953e-02 -3.654656e-02 1.626263e-01 -3.172438e-01 3.594097e-02 -1.740578e-01 -1.167388e-01 1.610399e-01 3.951502e-01 -1.562846e-01 6.023820e-02 2.137888e-01 1.469827e-01
<VARIANCE> 39
 5.170877e+00 1.859156e+01 1.265170e+01 1.358441e+01 1.653778e+01 2.491102e+01 3.288071e+01 2.878913e+01 3.672546e+01 2.290934e+01 2.121954e+01 1.811131e+01 8.736125e+00 4.608591e-01 6.956428e-01 7.927588e-01 1.627923e+00 1.693021e+00 1.872508e+00 2.303003e+00 2.286493e+00 3.488718e+00 1.643414e+00 1.655758e+00 1.517119e+00 4.523936e-01 1.106145e-01 1.740345e-01 1.491149e-01 2.611847e-01 3.832060e-01 3.831348e-01 4.760531e-01 5.032569e-01 8.029649e-01 4.214525e-01 3.238616e-01 2.727804e-01 9.273896e-02
<GCONST> 9.649294e+01
<MIXTURE> 10 1.121699e-01
<MEAN> 39
 -1.013057e+01 -1.486339e+01 -6.184974e+00 7.128612e+00 -2.609736e+00 8.846161e+00 -9.317514e+00 -8.599959e+00 -6.081305e+00 4.195920e+00 -5.834523e+00 -4.564215e+00 6.083424e+01 3.856723e-01 1.803104e+00 -6.306191e-01 1.678785e+00 -5.523828e-01 1.233115e+00 -3.642006e-01 1.297754e+00 -4.161777e-01 2.754078e-01 2.779582e-01 7.681194e-02 -2.032348e+00 -2.215855e-01 -2.493566e-02 1.333102e-01 -2.484048e-01 2.118759e-01 -2.690826e-01 3.217787e-01 -1.510607e-01 7.593223e-02 -1.232589e-01 1.351773e-01 -5.832310e-02 3.257245e-01
<VARIANCE> 39
 8.436316e+00 3.322105e+01 1.488223e+01 4.596861e+01 1.566195e+01 3.006250e+01 2.653858e+01 3.330862e+01 4.370856e+01 1.930576e+01 2.493510e+01 2.794206e+01 2.689463e+01 1.089618e+00 9.247946e-01 1.280147e+00 2.912486e+00 2.038746e+00 3.009795e+00 2.731618e+00 3.957509e+00 3.869358e+00 1.985865e+00 1.673778e+00 1.682750e+00 1.857466e+00 1.603033e-01 1.909634e-01 2.121940e-01 3.836103e-01 3.670934e-01 3.958813e-01 4.917406e-01 8.971266e-01 1.047219e+00 4.211829e-01 3.802151e-01 3.435451e-01 2.235563e-01
<GCONST> 1.094745e+02
<MIXTURE> 11 1.121699e-01
<MEAN> 39
 -1.013057e+01 -1.486339e+01 -6.184975e+00 7.128611e+00 -2.609737e+00 8.846161e+00 -9.317514e+00 -8.599957e+00 -6.081304e+00 4.195921e+00 -5.834522e+00 -4.564215e+00 6.083424e+01 3.856726e-01 1.803104e+00 -6.306190e-01 1.678785e+00 -5.523832e-01 1.233115e+00 -3.642008e-01 1.297754e+00 -4.161780e-01 2.754076e-01 2.779584e-01 7.681246e-02 -2.032348e+00 -2.215854e-01 -2.493565e-02 1.333104e-01 -2.484048e-01 2.118760e-01 -2.690827e-01 3.217787e-01 -1.510610e-01 7.593197e-02 -1.232590e-01 1.351773e-01 -5.832308e-02 3.257246e-01
<VARIANCE> 39
 8.436316e+00 3.322105e+01 1.488224e+01 4.596862e+01 1.566195e+01 3.006250e+01 2.653859e+01 3.330863e+01 4.370861e+01 1.930575e+01 2.493511e+01 2.794206e+01 2.689463e+01 1.089618e+00 9.247947e-01 1.280148e+00 2.912488e+00 2.038747e+00 3.009796e+00 2.731618e+00 3.957510e+00 3.869360e+00 1.985865e+00 1.673777e+00 1.682750e+00 1.857467e+00 1.603034e-01 1.909634e-01 2.121939e-01 3.836104e-01 3.670935e-01 3.958815e-01 4.917407e-01 8.971276e-01 1.047220e+00 4.211829e-01 3.802152e-01 3.435454e-01 2.235564e-01
<GCONST> 1.094745e+02
<MIXTURE> 12 3.057147e-02
<MEAN> 39
 -9.708891e+00 -1.705795e+01 -4.146967e+00 5.803720e+00 -2.092499e+00 6.306217e+00 -1.085656e+01 -1.188347e+01 -5.904344e+00 3.099659e+00 -8.036875e+00 -4.419133e+00 6.394703e+01 1.201836e+00 1.947124e+00 -7.847440e-01 1.903039e+00 -1.002852e+00 1.036721e+00 -1.756806e+00 3.378786e-01 -2.021585e+00 -4.047573e-01 -7.308983e-01 -2.643842e-01 -2.047076e+00 -3.041927e-01 -8.986881e-02 6.670275e-02 -2.314923e-01 2.370988e-01 -2.490543e-01 4.374086e-01 -6.756262e-02 6.615304e-02 -2.073961e-01 1.165244e-01 -2.091894e-01 3.706349e-01
<VARIANCE> 39
 1.182991e+01 2.758205e+01 1.763372e+01 4.142163e+01 1.607167e+01 3.002708e+01 2.504266e+01 3.465733e+01 4.079432e+01 1.714831e+01 2.273028e+01 3.162205e+01 2.494755e+01 1.437482e+00 1.380738e+00 1.865272e+00 3.133281e+00 2.264157e+00 2.453361e+00 3.057278e+00 5.137501e+00 5.432222e+00 2.000628e+00 2.193944e+00 2.167697e+00 2.704399e+00 1.819045e-01 2.265414e-01 2.591148e-01 4.208605e-01 3.317646e-01 2.729060e-01 5.477658e-01 7.163681e-01 7.848650e-01 4.009221e-01 3.517902e-01 3.683842e-01 2.123541e-01
<GCONST> 1.117169e+02
<MIXTURE> 13 1.121699e-01
<MEAN> 39
 -1.013057e+01 -1.486339e+01 -6.184975e+00 7.128611e+00 -2.609736e+00 8.846162e+00 -9.317514e+00 -8.599957e+00 -6.081305e+00 4.195921e+00 -5.834522e+00 -4.564215e+00 6.083424e+01 3.856725e-01 1.803104e+00 -6.306189e-01 1.678785e+00 -5.523831e-01 1.233115e+00 -3.642006e-01 1.297754e+00 -4.161780e-01 2.754076e-01 2.779584e-01 7.681227e-02 -2.032347e+00 -2.215855e-01 -2.493566e-02 1.333103e-01 -2.484048e-01 2.118759e-01 -2.690827e-01 3.217787e-01 -1.510608e-01 7.593214e-02 -1.232589e-01 1.351772e-01 -5.832306e-02 3.257245e-01
<VARIANCE> 39
 8.436314e+00 3.322105e+01 1.488223e+01 4.596860e+01 1.566195e+01 3.006249e+01 2.653856e+01 3.330862e+01 4.370860e+01 1.930575e+01 2.493510e+01 2.794206e+01 2.689462e+01 1.089618e+00 9.247945e-01 1.280147e+00 2.912488e+00 2.038746e+00 3.009795e+00 2.731619e+00 3.957510e+00 3.869359e+00 1.985865e+00 1.673778e+00 1.682750e+00 1.857466e+00 1.603033e-01 1.909634e-01 2.121939e-01 3.836104e-01 3.670935e-01 3.958815e-01 4.917406e-01 8.971272e-01 1.047220e+00 4.211828e-01 3.802150e-01 3.435454e-01 2.235563e-01
<GCONST> 1.094745e+02
<MIXTURE> 14 3.057147e-02
<MEAN> 39
 -9.708891e+00 -1.705795e+01 -4.146967e+00 5.803720e+00 -2.092499e+00 6.306217e+00 -1.085656e+01 -1.188347e+01 -5.904344e+00 3.099659e+00 -8.036875e+00 -4.419133e+00 6.394703e+01 1.201836e+00 1.947124e+00 -7.847440e-01 1.903039e+00 -1.002852e+00 1.036721e+00 -1.756806e+00 3.378786e-01 -2.021585e+00 -4.047573e-01 -7.308983e-01 -2.643842e-01 -2.047076e+00 -3.041927e-01 -8.986881e-02 6.670275e-02 -2.314923e-01 2.370988e-01 -2.490543e-01 4.374086e-01 -6.756262e-02 6.615304e-02 -2.073961e-01 1.165244e-01 -2.091894e-01 3.706349e-01
<VARIANCE> 39
 1.182991e+01 2.758205e+01 1.763372e+01 4.142163e+01 1.607167e+01 3.002708e+01 2.504266e+01 3.465733e+01 4.079432e+01 1.714831e+01 2.273028e+01 3.162205e+01 2.494755e+01 1.437482e+00 1.380738e+00 1.865272e+00 3.133281e+00 2.264157e+00 2.453361e+00 3.057278e+00 5.137501e+00 5.432222e+00 2.000628e+00 2.193944e+00 2.167697e+00 2.704399e+00 1.819045e-01 2.265414e-01 2.591148e-01 4.208605e-01 3.317646e-01 2.729060e-01 5.477658e-01 7.163681e-01 7.848650e-01 4.009221e-01 3.517902e-01 3.683842e-01 2.123541e-01
<GCONST> 1.117169e+02
<MIXTURE> 15 3.057148e-02
<MEAN> 39
 -9.708892e+00 -1.705795e+01 -4.146966e+00 5.803718e+00 -2.092499e+00 6.306216e+00 -1.085656e+01 -1.188347e+01 -5.904345e+00 3.099658e+00 -8.036876e+00 -4.419133e+00 6.394703e+01 1.201837e+00 1.947126e+00 -7.847440e-01 1.903041e+00 -1.002853e+00 1.036721e+00 -1.756807e+00 3.378788e-01 -2.021586e+00 -4.047580e-01 -7.308984e-01 -2.643840e-01 -2.047076e+00 -3.041926e-01 -8.986880e-02 6.670286e-02 -2.314922e-01 2.370990e-01 -2.490542e-01 4.374089e-01 -6.756279e-02 6.615306e-02 -2.073961e-01 1.165244e-01 -2.091894e-01 3.706351e-01
<VARIANCE> 39
 1.182991e+01 2.758206e+01 1.763371e+01 4.142161e+01 1.607166e+01 3.002707e+01 2.504266e+01 3.465733e+01 4.079432e+01 1.714831e+01 2.273028e+01 3.162206e+01 2.494755e+01 1.437482e+00 1.380738e+00 1.865273e+00 3.133282e+00 2.264157e+00 2.453361e+00 3.057278e+00 5.137501e+00 5.432222e+00 2.000628e+00 2.193944e+00 2.167698e+00 2.704398e+00 1.819046e-01 2.265415e-01 2.591147e-01 4.208603e-01 3.317642e-01 2.729060e-01 5.477657e-01 7.163679e-01 7.848650e-01 4.009221e-01 3.517902e-01 3.683842e-01 2.123541e-01
<GCONST> 1.117169e+02
<MIXTURE> 16 4.135276e-04
<MEAN> 39
 -5.826800e+00 -1.307885e+01 -7.606578e+00 2.483511e-01 -5.279220e+00 1.566624e+01 -3.704739e+00 -1.665887e+01 -1.401770e+01 6.425298e+00 -9.437614e+00 1.123358e+00 6.305463e+01 1.176118e+00 1.736312e+00 -2.057626e+00 -4.412422e+00 -2.495491e+00 -7.066637e-02 3.977476e-01 9.413717e-01 -1.570413e+00 -8.174066e-01 -1.839975e+00 -1.753819e+00 -8.486605e-02 -2.198509e-01 6.170027e-01 -6.711650e-01 2.354142e-01 -7.806492e-02 -8.304591e-01 -6.705757e-01 1.037493e+00 9.315601e-01 -5.039382e-01 2.089598e-01 -7.949610e-01 -6.563736e-01
<VARIANCE> 39
 6.321198e+00 7.367629e+00 1.420341e+01 3.904662e+01 4.660683e+00 1.783902e+01 1.358556e+01 2.470065e+01 2.365343e+01 2.998224e+00 4.058760e+00 1.162314e+01 8.361407e+00 7.372379e-01 4.242184e-01 2.872850e+00 5.417519e+00 2.127142e+00 4.344881e-01 2.322090e+00 2.139140e+00 6.453676e+00 4.836451e-01 1.026485e+00 1.382380e+00 9.704783e-01 4.279456e-02 7.656378e-02 3.175993e-01 5.193555e-01 7.908148e-02 1.492361e-01 2.669768e-01 4.882776e-01 4.203613e-01 3.897398e-02 9.354994e-02 1.387074e-01 2.099630e-01
<GCONST> 8.285969e+01
<TRANSP> 5
 0.000000e+00 1.000000e+00 0.000000e+00 0.000000e+00 0.000000e+00
 0.000000e+00 7.376838e-01 2.623161e-01 0.000000e+00 0.000000e+00
 0.000000e+00 0.000000e+00 8.692477e-01 1.307522e-01 0.000000e+00
 0.000000e+00 0.000000e+00 0.000000e+00 9.039168e-01 9.608316e-02
 0.000000e+00 0.000000e+00 0.000000e+00 0.000000e+00 0.000000e+00
<ENDHMM>
~h "p"
<BEGINHMM>
<NUMSTATES> 5
<STATE> 2
<NUMMIXES> 16
<MIXTURE> 1 8.778708e-03
<MEAN> 39
 -1.423194e+01 4.065377e+00 -4.918787e+00 8.323771e+00 -8.368223e+00 7.944934e+00 -7.737680e+00 3.095576e+00 -4.844327e+00 1.472700e+00 -3.354049e+00 -4.145974e+00 4.713823e+01 1.885738e+00 -4.212312e+00 4.307075e+00 -3.061419e+00 4.318748e+00 -4.810484e+00 2.383924e+00 -3.644951e+00 1.730362e+00 -3.384209e+00 2.112937e+00 1.262826e+00 1.110530e+01 7.177523e-01 -4.019292e-01 1.035050e+00 -5.002037e-02 1.140251e+00 -4.875482e-01 7.972680e-01 -2.610790e-01 1.759256e-01 -7.146298e-01 7.627040e-03 -2.192882e-01 1.949553e+00
<VARIANCE> 39
 1.513606e+00 5.116450e+00 2.732893e+00 2.260034e+00 6.510065e+00 5.171594e+00 6.715278e+00 4.534272e+00 7.071747e+00 9.720120e+00 7.332582e+00 2.614379e+00 2.368363e+00 3.241654e-01 5.576023e-01 1.404571e+00 1.567389e+00 1.065506e+00 3.837389e+00 2.976597e+00 1.395841e+00 1.484911e+00 1.422425e+00 3.642456e+00 8.636657e-01 9.836593e-01 2.453275e-02 9.291670e-02 5.218428e-02 5.591746e-02 2.618878e-01 1.238204e-01 2.191436e-01 1.117351e-01 1.720475e-01 8.881789e-02 1.428826e-01 8.627697e-02 1.020637e-01
<GCONST> 6.439342e+01
<MIXTURE> 2 4.161392e-02
<MEAN> 39
 -1.552915e+01 3.555354e+00 -4.921254e+00 9.584431e+00 -5.282803e+00 1.167913e+01 -2.787719e+00 8.085925e+00 -3.297774e+00 7.761989e-01 -1.574241e+00 -2.927646e+00 4.632929e+01 2.350641e+00 -4.344377e+00 3.150835e+00 -3.561709e+00 3.372804e+00 -4.966628e+00 1.332027e+00 -5.328060e+00 -3.256407e-01 -3.147729e+00 2.190766e-01 4.370322e-01 1.015045e+01 7.724816e-01 -6.115944e-01 7.787315e-01 -4.243556e-01 7.785981e-01 -5.919751e-01 4.115086e-01 -8.084703e-01 1.324981e-01 -6.269256e-01 -1.132777e-01 -6.601176e-02 2.033877e+00
<VARIANCE> 39
 3.967278e+00 5.620908e+00 2.916317e+00 5.022297e+00 9.218209e+00 1.397165e+01 2.188894e+01 1.794469e+01 1.390493e+01 8.684864e+00 1.066184e+01 7.925023e+00 4.079590e+00 1.041240e+00 1.725755e+00 1.538910e+00 2.559608e+00 2.704528e+00 4.572134e+00 5.173562e+00 5.059693e+00 4.238177e+00 3.116337e+00 2.039536e+00 1.803010e+00 4.865292e+00 4.917144e-02 1.811792e-01 1.399885e-01 2.387047e-01 2.836099e-01 3.368493e-01 2.959887e-01 3.685729e-01 2.617943e-01 2.095278e-01 1.906927e-01 1.721652e-01 4.346140e-01
<GCONST> 9.229984e+01
<MIXTURE> 3 4.161391e-02
<MEAN> 39
 -1.552914e+01 3.555355e+00 -4.921255e+00 9.584432e+00 -5.282807e+00 1.167913e+01 -2.787724e+00 8.085919e+00 -3.297780e+00 7.761958e-01 -1.574243e+00 -2.927650e+00 4.632930e+01 2.350639e+00 -4.344378e+00 3.150836e+00 -3.561709e+00 3.372806e+00 -4.966627e+00 1.332029e+00 -5.328059e+00 -3.256381e-01 -3.147728e+00 2.190760e-01 4.370326e-01 1.015045e+01 7.724814e-01 -6.115941e-01 7.787317e-01 -4.243557e-01 7.785987e-01 -5.919749e-01 4.115087e-01 -8.084698e-01 1.324988e-01 -6.269256e-01 -1.132776e-01 -6.601141e-02 2.033877e+00
<VARIANCE> 39
 3.967277e+00 5.620938e+00 2.916318e+00 5.022300e+00 9.218219e+00 1.397165e+01 2.188897e+01 1.794470e+01 1.390493e+01 8.684873e+00 1.066184e+01 7.925020e+00 4.079590e+00 1.041239e+00 1.725755e+00 1.538909e+00 2.559606e+00 2.704529e+00 4.572134e+00 5.173564e+00 5.059695e+00 4.238181e+00 3.116336e+00 2.039538e+00 1.803012e+00 4.865289e+00 4.917146e-02 1.811798e-01 1.399884e-01 2.387049e-01 2.836099e-01 3.368490e-01 2.959893e-01 3.685730e-01 2.617946e-01 2.095281e-01 1.906929e-01 1.721651e-01 4.346142e-01
<GCONST> 9.229986e+01
<MIXTURE> 4 1.062723e-01
<MEAN> 39
 -1.533871e+01 3.251123e+00 -4.392354e+00 9.250483e+00 -5.232924e+00 1.206324e+01 -2.673399e+00 8.086310e+00 -2.843496e+00 9.795386e-01 -1.596102e+00 -2.663964e+00 4.683377e+01 9.359852e-01 -2.229727e+00 1.086117e+00 -1.514785e+00 1.260420e+00 -2.249874e+00 6.553309e-01 -2.193136e+00 -4.205936e-01 -1.248779e+00 1.906499e-02 6.627153e-02 4.149161e+00 7.289011e-01 -1.086145e+00 8.612677e-01 -8.205458e-01 8.750870e-01 -1.123853e+00 3.188480e-01 -1.326986e+00 -1.130495e-01 -8.526059e-01 -5.377056e-02 -4.435729e-03 2.608130e+00
<VARIANCE> 39
 3.758921e+00 6.280360e+00 4.853393e+00 5.926429e+00 9.415806e+00 1.391376e+01 2.087856e+01 1.715977e+01 1.587326e+01 1.060923e+01 1.011632e+01 1.001274e+01 4.669539e+00 1.301718e+00 4.315482e+00 2.458301e+00 3.162291e+00 3.127871e+00 5.548792e+00 2.880367e+00 6.298553e+00 2.308318e+00 3.478697e+00 1.580311e+00 1.450344e+00 1.575395e+01 1.072325e-01 2.365501e-01 1.863740e-01 3.369165e-01 3.313845e-01 5.207505e-01 4.186855e-01 5.476448e-01 4.121768e-01 3.267864e-01 2.776332e-01 2.554030e-01 5.830382e-01
<GCONST> 1.005757e+02
<MIXTURE> 5 4.161391e-02
<MEAN> 39
 -1.552914e+01 3.555355e+00 -4.921255e+00 9.584432e+00 -5.282807e+00 1.167913e+01 -2.787724e+00 8.085919e+00 -3.297780e+00 7.761958e-01 -1.574243e+00 -2.927650e+00 4.632930e+01 2.350639e+00 -4.344378e+00 3.150836e+00 -3.561709e+00 3.372806e+00 -4.966627e+00 1.332029e+00 -5.328059e+00 -3.256381e-01 -3.147728e+00 2.190760e-01 4.370326e-01 1.015045e+01 7.724814e-01 -6.115941e-01 7.787317e-01 -4.243557e-01 7.785987e-01 -5.919749e-01 4.115087e-01 -8.084698e-01 1.324988e-01 -6.269256e-01 -1.132776e-01 -6.601141e-02 2.033877e+00
<VARIANCE> 39
 3.967277e+00 5.620938e+00 2.916318e+00 5.022300e+00 9.218219e+00 1.397165e+01 2.188897e+01 1.794470e+01 1.390493e+01 8.684873e+00 1.066184e+01 7.925020e+00 4.079590e+00 1.041239e+00 1.725755e+00 1.538909e+00 2.559606e+00 2.704529e+00 4.572134e+00 5.173564e+00 5.059695e+00 4.238181e+00 3.116336e+00 2.039538e+00 1.803012e+00 4.865289e+00 4.917146e-02 1.811798e-01 1.399884e-01 2.387049e-01 2.836099e-01 3.368490e-01 2.959893e-01 3.685730e-01 2.617946e-01 2.095281e-01 1.906929e-01 1.721651e-01 4.346142e-01
<GCONST> 9.229986e+01
<MIXTURE> 6 1.062723e-01
<MEAN> 39
 -1.533871e+01 3.251123e+00 -4.392354e+00 9.250483e+00 -5.232924e+00 1.206324e+01 -2.673399e+00 8.086310e+00 -2.843496e+00 9.795386e-01 -1.596102e+00 -2.663964e+00 4.683377e+01 9.359852e-01 -2.229727e+00 1.086117e+00 -1.514785e+00 1.260420e+00 -2.249874e+00 6.553309e-01 -2.193136e+00 -4.205936e-01 -1.248779e+00 1.906499e-02 6.627153e-02 4.149161e+00 7.289011e-01 -1.086145e+00 8.612677e-01 -8.205458e-01 8.750870e-01 -1.123853e+00 3.188480e-01 -1.326986e+00 -1.130495e-01 -8.526059e-01 -5.377056e-02 -4.435729e-03 2.608130e+00
<VARIANCE> 39
 3.758921e+00 6.280360e+00 4.853393e+00 5.926429e+00 9.415806e+00 1.391376e+01 2.087856e+01 1.715977e+01 1.587326e+01 1.060923e+01 1.011632e+01 1.001274e+01 4.669539e+00 1.301718e+00 4.315482e+00 2.458301e+00 3.162291e+00 3.127871e+00 5.548792e+00 2.880367e+00 6.298553e+00 2.308318e+00 3.478697e+00 1.580311e+00 1.450344e+00 1.575395e+01 1.072325e-01 2.365501e-01 1.863740e-01 3.369165e-01 3.313845e-01 5.207505e-01 4.186855e-01 5.476448e-01 4.121768e-01 3.267864e-01 2.776332e-01 2.554030e-01 5.830382e-01
<GCONST> 1.005757e+02
<MIXTURE> 7 1.062724e-01
<MEAN> 39
 -1.533871e+01 3.251122e+00 -4.392354e+00 9.250484e+00 -5.232919e+00 1.206325e+01 -2.673393e+00 8.086316e+00 -2.843491e+00 9.795407e-01 -1.596101e+00 -2.663961e+00 4.683376e+01 9.359853e-01 -2.229726e+00 1.086116e+00 -1.514785e+00 1.260419e+00 -2.249874e+00 6.553296e-01 -2.193136e+00 -4.205942e-01 -1.248779e+00 1.906487e-02 6.627168e-02 4.149160e+00 7.289014e-01 -1.086145e+00 8.612677e-01 -8.205460e-01 8.750864e-01 -1.123854e+00 3.188474e-01 -1.326987e+00 -1.130501e-01 -8.526059e-01 -5.377040e-02 -4.435647e-03 2.608131e+00
<VARIANCE> 39
 3.758918e+00 6.280354e+00 4.853388e+00 5.926422e+00 9.415787e+00 1.391373e+01 2.087854e+01 1.715975e+01 1.587324e+01 1.060922e+01 1.011631e+01 1.001272e+01 4.669536e+00 1.301718e+00 4.315481e+00 2.458298e+00 3.162291e+00 3.127867e+00 5.548790e+00 2.880365e+00 6.298551e+00 2.308318e+00 3.478695e+00 1.580310e+00 1.450343e+00 1.575394e+01 1.072325e-01 2.365498e-01 1.863738e-01 3.369164e-01 3.313842e-01 5.207501e-01 4.186850e-01 5.476444e-01 4.121764e-01 3.267862e-01 2.776330e-01 2.554029e-01 5.830378e-01
<GCONST> 1.005757e+02
<MIXTURE> 8 4.515047e-02
<MEAN> 39
 -1.323859e+01 2.520307e+00 -1.998385e+00 7.406804e+00 -7.749131e+00 9.787440e+00 -7.509953e+00 3.605139e+00 -6.597025e+00 -3.213778e+00 -4.583005e+00 -4.180690e+00 4.964050e+01 3.025008e-01 -6.248965e-01 -3.076806e-01 -4.584062e-01 2.998316e-02 -8.121755e-01 4.283215e-01 -5.724345e-01 1.015190e-01 -2.092870e-01 -5.942440e-02 -4.188150e-01 1.033591e+00 4.594958e-01 -1.160398e+00 6.681784e-01 -7.647216e-01 1.042796e+00 -9.048581e-01 7.017168e-01 -8.627647e-01 9.964059e-02 -5.083917e-01 3.081646e-02 -7.062626e-02 2.344037e+00
<VARIANCE> 39
 7.572849e+00 2.486470e+01 3.125315e+01 9.500575e+00 1.653481e+01 1.890821e+01 1.680639e+01 1.146585e+01 1.715277e+01 1.443521e+01 1.082095e+01 8.705894e+00 1.614761e+01 7.001040e-01 4.033551e+00 1.861840e+00 1.690703e+00 2.271648e+00 2.860357e+00 1.709554e+00 3.073981e+00 1.958021e+00 1.865168e+00 1.040255e+00 1.301619e+00 6.715349e+00 6.977957e-02 3.268340e-01 2.950247e-01 2.581747e-01 5.334879e-01 5.326679e-01 5.831062e-01 4.257314e-01 4.794742e-01 3.519923e-01 2.452196e-01 3.217243e-01 5.468014e-01
<GCONST> 1.017426e+02
<MIXTURE> 9 4.161379e-02
<MEAN> 39
 -1.552914e+01 3.555355e+00 -4.921254e+00 9.584431e+00 -5.282806e+00 1.167913e+01 -2.787723e+00 8.085921e+00 -3.297779e+00 7.761968e-01 -1.574244e+00 -2.927652e+00 4.632930e+01 2.350639e+00 -4.344378e+00 3.150836e+00 -3.561710e+00 3.372805e+00 -4.966628e+00 1.332029e+00 -5.328058e+00 -3.256395e-01 -3.147727e+00 2.190772e-01 4.370326e-01 1.015045e+01 7.724815e-01 -6.115944e-01 7.787316e-01 -4.243556e-01 7.785987e-01 -5.919751e-01 4.115086e-01 -8.084700e-01 1.324985e-01 -6.269258e-01 -1.132775e-01 -6.601121e-02 2.033878e+00
<VARIANCE> 39
 3.967278e+00 5.620918e+00 2.916317e+00 5.022300e+00 9.218218e+00 1.397165e+01 2.188895e+01 1.794470e+01 1.390493e+01 8.684871e+00 1.066184e+01 7.925019e+00 4.079589e+00 1.041238e+00 1.725755e+00 1.538910e+00 2.559608e+00 2.704528e+00 4.572129e+00 5.173561e+00 5.059694e+00 4.238175e+00 3.116337e+00 2.039538e+00 1.803011e+00 4.865295e+00 4.917147e-02 1.811794e-01 1.399886e-01 2.387047e-01 2.836100e-01 3.368491e-01 2.959890e-01 3.685730e-01 2.617945e-01 2.095279e-01 1.906928e-01 1.721652e-01 4.346143e-01
<GCONST> 9.229985e+01
<MIXTURE> 10 1.062723e-01
<MEAN> 39
 -1.533871e+01 3.251123e+00 -4.392354e+00 9.250483e+00 -5.232924e+00 1.206324e+01 -2.673399e+00 8.086310e+00 -2.843496e+00 9.795386e-01 -1.596102e+00 -2.663964e+00 4.683377e+01 9.359852e-01 -2.229727e+00 1.086117e+00 -1.514785e+00 1.260420e+00 -2.249874e+00 6.553309e-01 -2.193136e+00 -4.205936e-01 -1.248779e+00 1.906499e-02 6.627153e-02 4.149161e+00 7.289011e-01 -1.086145e+00 8.612677e-01 -8.205458e-01 8.750870e-01 -1.123853e+00 3.188480e-01 -1.326986e+00 -1.130495e-01 -8.526059e-01 -5.377056e-02 -4.435729e-03 2.608130e+00
<VARIANCE> 39
 3.758921e+00 6.280360e+00 4.853393e+00 5.926429e+00 9.415806e+00 1.391376e+01 2.087856e+01 1.715977e+01 1.587326e+01 1.060923e+01 1.011632e+01 1.001274e+01 4.669539e+00 1.301718e+00 4.315482e+00 2.458301e+00 3.162291e+00 3.127871e+00 5.548792e+00 2.880367e+00 6.298553e+00 2.308318e+00 3.478697e+00 1.580311e+00 1.450344e+00 1.575395e+01 1.072325e-01 2.365501e-01 1.863740e-01 3.369165e-01 3.313845e-01 5.207505e-01 4.186855e-01 5.476448e-01 4.121768e-01 3.267864e-01 2.776332e-01 2.554030e-01 5.830382e-01
<GCONST> 1.005757e+02
<MIXTURE> 11 1.062723e-01
<MEAN> 39
 -1.533871e+01 3.251123e+00 -4.392354e+00 9.250483e+00 -5.232924e+00 1.206324e+01 -2.673399e+00 8.086310e+00 -2.843496e+00 9.795386e-01 -1.596102e+00 -2.663964e+00 4.683377e+01 9.359852e-01 -2.229727e+00 1.086117e+00 -1.514785e+00 1.260420e+00 -2.249874e+00 6.553309e-01 -2.193136e+00 -4.205936e-01 -1.248779e+00 1.906499e-02 6.627153e-02 4.149161e+00 7.289011e-01 -1.086145e+00 8.612677e-01 -8.205458e-01 8.750870e-01 -1.123853e+00 3.188480e-01 -1.326986e+00 -1.130495e-01 -8.526059e-01 -5.377056e-02 -4.435727e-03 2.608130e+00
<VARIANCE> 39
 3.758921e+00 6.280360e+00 4.853393e+00 5.926429e+00 9.415806e+00 1.391376e+01 2.087856e+01 1.715977e+01 1.587326e+01 1.060923e+01 1.011632e+01 1.001274e+01 4.669539e+00 1.301718e+00 4.315482e+00 2.458301e+00 3.162291e+00 3.127871e+00 5.548792e+00 2.880367e+00 6.298553e+00 2.308318e+00 3.478697e+00 1.580311e+00 1.450344e+00 1.575395e+01 1.072325e-01 2.365501e-01 1.863740e-01 3.369165e-01 3.313845e-01 5.207505e-01 4.186855e-01 5.476448e-01 4.121768e-01 3.267864e-01 2.776332e-01 2.554030e-01 5.830382e-01
<GCONST> 1.005757e+02
<MIXTURE> 12 4.515054e-02
<MEAN> 39
 -1.323859e+01 2.520311e+00 -1.998386e+00 7.406804e+00 -7.749129e+00 9.787440e+00 -7.509954e+00 3.605138e+00 -6.597030e+00 -3.213781e+00 -4.583006e+00 -4.180692e+00 4.964050e+01 3.025002e-01 -6.248969e-01 -3.076806e-01 -4.584056e-01 2.998245e-02 -8.121752e-01 4.283209e-01 -5.724336e-01 1.015192e-01 -2.092869e-01 -5.942518e-02 -4.188142e-01 1.033590e+00 4.594955e-01 -1.160398e+00 6.681786e-01 -7.647213e-01 1.042796e+00 -9.048584e-01 7.017164e-01 -8.627647e-01 9.964129e-02 -5.083911e-01 3.081647e-02 -7.062577e-02 2.344037e+00
<VARIANCE> 39
 7.572865e+00 2.486470e+01 3.125312e+01 9.500570e+00 1.653477e+01 1.890823e+01 1.680639e+01 1.146584e+01 1.715274e+01 1.443520e+01 1.082094e+01 8.705894e+00 1.614761e+01 7.001030e-01 4.033555e+00 1.861841e+00 1.690701e+00 2.271643e+00 2.860356e+00 1.709553e+00 3.073977e+00 1.958023e+00 1.865167e+00 1.040256e+00 1.301619e+00 6.715345e+00 6.977958e-02 3.268345e-01 2.950250e-01 2.581749e-01 5.334868e-01 5.326687e-01 5.831057e-01 4.257314e-01 4.794736e-01 3.519924e-01 2.452192e-01 3.217243e-01 5.468017e-01
<GCONST> 1.017426e+02
<MIXTURE> 13 1.062723e-01
<MEAN> 39
 -1.533871e+01 3.251123e+00 -4.392354e+00 9.250483e+00 -5.232924e+00 1.206324e+01 -2.673399e+00 8.086310e+00 -2.843496e+00 9.795384e-01 -1.596103e+00 -2.663964e+00 4.683377e+01 9.359853e-01 -2.229727e+00 1.086117e+00 -1.514785e+00 1.260420e+00 -2.249874e+00 6.553308e-01 -2.193136e+00 -4.205937e-01 -1.248779e+00 1.906493e-02 6.627150e-02 4.149162e+00 7.289011e-01 -1.086145e+00 8.612677e-01 -8.205457e-01 8.750870e-01 -1.123853e+00 3.188480e-01 -1.326986e+00 -1.130496e-01 -8.526058e-01 -5.377057e-02 -4.435707e-03 2.608130e+00
<VARIANCE> 39
 3.758920e+00 6.280360e+00 4.853393e+00 5.926428e+00 9.415807e+00 1.391376e+01 2.087856e+01 1.715977e+01 1.587326e+01 1.060923e+01 1.011632e+01 1.001274e+01 4.669539e+00 1.301718e+00 4.315482e+00 2.458301e+00 3.162291e+00 3.127871e+00 5.548793e+00 2.880367e+00 6.298554e+00 2.308319e+00 3.478698e+00 1.580311e+00 1.450344e+00 1.575395e+01 1.072325e-01 2.365502e-01 1.863739e-01 3.369165e-01 3.313845e-01 5.207505e-01 4.186855e-01 5.476450e-01 4.121769e-01 3.267864e-01 2.776331e-01 2.554030e-01 5.830383e-01
<GCONST> 1.005757e+02
<MIXTURE> 14 4.515054e-02
<MEAN> 39
 -1.323859e+01 2.520311e+00 -1.998386e+00 7.406804e+00 -7.749129e+00 9.787440e+00 -7.509954e+00 3.605138e+00 -6.597030e+00 -3.213781e+00 -4.583006e+00 -4.180692e+00 4.964050e+01 3.025002e-01 -6.248969e-01 -3.076806e-01 -4.584056e-01 2.998245e-02 -8.121752e-01 4.283209e-01 -5.724336e-01 1.015192e-01 -2.092869e-01 -5.942518e-02 -4.188142e-01 1.033590e+00 4.594955e-01 -1.160398e+00 6.681786e-01 -7.647213e-01 1.042796e+00 -9.048584e-01 7.017164e-01 -8.627647e-01 9.964129e-02 -5.083911e-01 3.081647e-02 -7.062577e-02 2.344037e+00
<VARIANCE> 39
 7.572865e+00 2.486470e+01 3.125312e+01 9.500570e+00 1.653477e+01 1.890823e+01 1.680639e+01 1.146584e+01 1.715274e+01 1.443520e+01 1.082094e+01 8.705894e+00 1.614761e+01 7.001030e-01 4.033555e+00 1.861841e+00 1.690701e+00 2.271643e+00 2.860356e+00 1.709553e+00 3.073977e+00 1.958023e+00 1.865167e+00 1.040256e+00 1.301619e+00 6.715345e+00 6.977958e-02 3.268345e-01 2.950250e-01 2.581749e-01 5.334868e-01 5.326687e-01 5.831057e-01 4.257314e-01 4.794736e-01 3.519924e-01 2.452192e-01 3.217243e-01 5.468017e-01
<GCONST> 1.017426e+02
<MIXTURE> 15 4.515054e-02
<MEAN> 39
 -1.323859e+01 2.520303e+00 -1.998381e+00 7.406802e+00 -7.749130e+00 9.787444e+00 -7.509953e+00 3.605139e+00 -6.597027e+00 -3.213780e+00 -4.583005e+00 -4.180689e+00 4.964051e+01 3.025011e-01 -6.248964e-01 -3.076812e-01 -4.584060e-01 2.998275e-02 -8.121769e-01 4.283216e-01 -5.724338e-01 1.015198e-01 -2.092872e-01 -5.942509e-02 -4.188148e-01 1.033591e+00 4.594959e-01 -1.160398e+00 6.681786e-01 -7.647218e-01 1.042797e+00 -9.048589e-01 7.017163e-01 -8.627648e-01 9.964100e-02 -5.083917e-01 3.081646e-02 -7.062633e-02 2.344038e+00
<VARIANCE> 39
 7.572838e+00 2.486472e+01 3.125315e+01 9.500567e+00 1.653479e+01 1.890824e+01 1.680639e+01 1.146585e+01 1.715274e+01 1.443519e+01 1.082094e+01 8.705896e+00 1.614761e+01 7.001037e-01 4.033553e+00 1.861843e+00 1.690701e+00 2.271646e+00 2.860361e+00 1.709554e+00 3.073977e+00 1.958024e+00 1.865167e+00 1.040256e+00 1.301619e+00 6.715346e+00 6.977960e-02 3.268336e-01 2.950251e-01 2.581748e-01 5.334871e-01 5.326688e-01 5.831057e-01 4.257320e-01 4.794740e-01 3.519922e-01 2.452194e-01 3.217244e-01 5.468016e-01
<GCONST> 1.017426e+02
<MIXTURE> 16 6.529260e-03
<MEAN> 39
 -3.688116e+01 1.343604e+01 -9.924081e+00 -3.791850e-01 -1.773677e+00 1.372391e+01 -1.404674e+01 5.447876e+00 2.745090e+00 -6.684728e-01 -2.538288e+00 -3.778257e-01 2.563046e+01 2.043111e-01 1.351551e-01 3.245973e-02 -2.872145e-01 -5.149856e-01 -9.362978e-02 -1.830797e-01 -1.508588e-01 -2.160395e-01 -3.461748e-01 5.257432e-01 2.908579e-01 1.207729e-01 1.632437e-01 4.877186e-02 9.573303e-02 -8.383453e-02 -2.633747e-01 -6.220129e-02 4.831743e-02 -6.249914e-02 -4.466441e-01 2.607073e-01 6.122028e-02 -2.101233e-01 1.184799e-01
<VARIANCE> 39
 1.151845e+01 1.738025e+00 8.702636e-01 2.962257e+00 2.194742e+00 8.317137e-01 1.677382e+00 1.851063e+00 2.258163e+00 2.833671e+00 2.362271e+00 3.518600e+00 9.026855e+00 1.763045e-01 5.392412e-02 4.813156e-02 1.963699e-01 2.751019e-01 2.016379e-01 9.116072e-02 1.696322e-01 3.341240e-01 4.051940e-01 6.397292e-02 1.866405e-01 9.558169e-02 7.341452e-03 3.122435e-02 1.638711e-02 4.146964e-02 6.457955e-02 1.756493e-02 5.585249e-02 6.513518e-02 2.595768e-02 1.583705e-01 7.025063e-02 4.128937e-02 5.089518e-02
<GCONST> 1.598821e+01
<STATE> 3
<NUMMIXES> 16
<MIXTURE> 1 1.920706e-03
<MEAN> 39
 -5.644505e+00 -1.061991e+01 6.786690e+00 2.608482e+00 1.100885e+01 -7.269212e-01 1.014168e+01 -8.803368e+00 -8.842916e+00 -9.917633e+00 -3.600125e+00 -2.694737e+00 8.236277e+01 1.857771e+00 1.796750e+00 5.537068e-01 9.493904e-01 3.362703e-02 2.701069e+00 1.368069e-01 2.657939e+00 2.568691e+00 1.830471e+00 1.593076e+00 1.657653e+00 -1.528076e+00 -3.749519e-01 1.569849e+00 -1.127475e+00 9.228910e-01 -1.743777e+00 1.729802e+00 -1.466028e+00 2.013427e+00 7.397484e-01 1.266995e+00 -5.039379e-03 1.411249e-01 -3.753349e+00
<VARIANCE> 39
 7.396318e-01 3.232869e+00 8.870594e+00 3.804594e+01 1.385433e+01 7.300735e+00 1.139790e+01 1.223712e+01 1.179344e+01 4.576814e+00 3.674041e+01 5.402170e+00 4.538691e+01 8.102470e-01 1.097949e+00 2.941074e+00 9.418290e-01 1.771141e+00 2.052702e+00 2.049504e+00 9.454497e-01 1.294683e+00 2.204985e+00 1.241886e+00 7.829326e-01 1.866838e+00 1.380380e-01 1.596670e-01 7.100926e-02 5.666922e-01 8.216010e-02 3.690283e-01 2.635799e-01 4.984707e-01 8.451664e-02 1.566770e-01 7.356589e-01 1.096664e-01 1.750814e-01
<GCONST> 8.438120e+01
<MIXTURE> 2 3.757180e-02
<MEAN> 39
 -5.376512e+00 -1.012095e+01 7.585783e+00 -2.679367e+00 7.544363e+00 -5.250507e+00 3.495497e+00 -1.003292e+01 -2.649295e+00 -1.008951e+01 -4.444267e-01 -2.691931e+00 8.462110e+01 2.083229e+00 -7.967096e-01 1.244739e+00 1.585238e-01 1.247254e+00 1.485931e-01 1.061981e+00 -2.545044e-01 7.500457e-01 -1.017698e+00 -6.631138e-01 -1.166657e-01 2.809366e+00 -5.410987e-01 1.477453e+00 -1.284969e+00 1.690268e+00 -1.608749e+00 2.360983e+00 -7.108961e-01 2.371535e+00 -4.236408e-02 1.133000e+00 -5.280685e-01 -9.001794e-02 -4.248917e+00
<VARIANCE> 39
 4.997326e+00 6.782717e+00 9.082673e+00 1.637379e+01 1.282440e+01 3.298523e+01 1.852518e+01 2.537592e+01 1.881369e+01 1.657928e+01 1.829635e+01 1.618837e+01 1.513036e+01 9.062909e-01 3.254521e+00 3.530298e+00 3.719141e+00 4.741570e+00 7.619409e+00 2.585646e+00 7.885784e+00 1.938468e+00 2.902574e+00 1.881396e+00 1.435898e+00 2.129967e+01 1.280809e-01 2.722036e-01 2.148741e-01 3.017461e-01 3.233329e-01 7.115175e-01 5.210380e-01 7.846071e-01 4.938259e-01 3.516279e-01 4.039474e-01 2.954646e-01 5.663781e-01
<GCONST> 1.096909e+02
<MIXTURE> 3 3.757182e-02
<MEAN> 39
 -5.376510e+00 -1.012094e+01 7.585782e+00 -2.679364e+00 7.544363e+00 -5.250500e+00 3.495497e+00 -1.003292e+01 -2.649295e+00 -1.008951e+01 -4.444277e-01 -2.691932e+00 8.462110e+01 2.083228e+00 -7.967076e-01 1.244738e+00 1.585256e-01 1.247252e+00 1.485962e-01 1.061981e+00 -2.545014e-01 7.500464e-01 -1.017697e+00 -6.631142e-01 -1.166658e-01 2.809361e+00 -5.410987e-01 1.477453e+00 -1.284969e+00 1.690267e+00 -1.608750e+00 2.360982e+00 -7.108964e-01 2.371535e+00 -4.236398e-02 1.133000e+00 -5.280683e-01 -9.001778e-02 -4.248916e+00
<VARIANCE> 39
 4.997323e+00 6.782709e+00 9.082668e+00 1.637379e+01 1.282440e+01 3.298525e+01 1.852518e+01 2.537591e+01 1.881369e+01 1.657926e+01 1.829635e+01 1.618837e+01 1.513038e+01 9.062901e-01 3.254521e+00 3.530299e+00 3.719139e+00 4.741570e+00 7.619405e+00 2.585647e+00 7.885779e+00 1.938467e+00 2.902575e+00 1.881395e+00 1.435899e+00 2.129966e+01 1.280808e-01 2.722034e-01 2.148740e-01 3.017460e-01 3.233324e-01 7.115183e-01 5.210376e-01 7.846067e-01 4.938259e-01 3.516276e-01 4.039473e-01 2.954644e-01 5.663778e-01
<GCONST> 1.096909e+02
<MIXTURE> 4 1.179288e-01
<MEAN> 39
 -4.859037e+00 -1.042198e+01 6.062440e+00 -1.604259e-04 5.551346e+00 -1.334345e+00 2.248434e+00 -6.927701e+00 -3.979325e+00 -1.011683e+01 -4.031114e+00 -3.768126e+00 7.894513e+01 1.714792e+00 4.562914e-03 2.752040e-01 1.013186e+00 -1.523334e-01 1.217355e+00 2.661154e-02 7.590457e-01 4.005719e-03 -4.023795e-01 -1.256384e+00 -4.118041e-01 1.988672e-01 -3.349983e-01 1.210587e+00 -8.604132e-01 1.073801e+00 -1.253631e+00 1.327196e+00 -7.130262e-01 1.298582e+00 -9.672087e-02 8.298741e-01 -1.143306e-01 -2.068475e-03 -2.673941e+00
<VARIANCE> 39
 8.033110e+00 9.835205e+00 1.208447e+01 2.613906e+01 1.976313e+01 4.139301e+01 2.326784e+01 3.687746e+01 2.485653e+01 1.983645e+01 2.705817e+01 2.080683e+01 3.006417e+01 1.135437e+00 5.925825e+00 4.472270e+00 6.052287e+00 8.072634e+00 1.151933e+01 4.442977e+00 1.146046e+01 2.187428e+00 3.922897e+00 1.883957e+00 1.310768e+00 3.771473e+01 1.646834e-01 4.170092e-01 3.522114e-01 5.035789e-01 5.273576e-01 1.151499e+00 6.725514e-01 1.202218e+00 5.580101e-01 4.015166e-01 4.817240e-01 3.502810e-01 2.138705e+00
<GCONST> 1.239176e+02
<MIXTURE> 5 3.757182e-02
<MEAN> 39
 -5.376510e+00 -1.012094e+01 7.585782e+00 -2.679364e+00 7.544363e+00 -5.250500e+00 3.495497e+00 -1.003292e+01 -2.649295e+00 -1.008951e+01 -4.444277e-01 -2.691932e+00 8.462110e+01 2.083228e+00 -7.967076e-01 1.244738e+00 1.585256e-01 1.247252e+00 1.485962e-01 1.061981e+00 -2.545014e-01 7.500464e-01 -1.017697e+00 -6.631142e-01 -1.166658e-01 2.809361e+00 -5.410987e-01 1.477453e+00 -1.284969e+00 1.690267e+00 -1.608750e+00 2.360982e+00 -7.108964e-01 2.371535e+00 -4.236398e-02 1.133000e+00 -5.280683e-01 -9.001778e-02 -4.248916e+00
<VARIANCE> 39
 4.997323e+00 6.782709e+00 9.082668e+00 1.637379e+01 1.282440e+01 3.298525e+01 1.852518e+01 2.537591e+01 1.881369e+01 1.657926e+01 1.829635e+01 1.618837e+01 1.513038e+01 9.062901e-01 3.254521e+00 3.530299e+00 3.719139e+00 4.741570e+00 7.619405e+00 2.585647e+00 7.885779e+00 1.938467e+00 2.902575e+00 1.881395e+00 1.435899e+00 2.129966e+01 1.280808e-01 2.722034e-01 2.148740e-01 3.017460e-01 3.233324e-01 7.115183e-01 5.210376e-01 7.846067e-01 4.938259e-01 3.516276e-01 4.039473e-01 2.954644e-01 5.663778e-01
<GCONST> 1.096909e+02
<MIXTURE> 6 1.179287e-01
<MEAN> 39
 -4.859037e+00 -1.042198e+01 6.062441e+00 -1.593530e-04 5.551347e+00 -1.334344e+00 2.248435e+00 -6.927699e+00 -3.979325e+00 -1.011683e+01 -4.031113e+00 -3.768127e+00 7.894513e+01 1.714792e+00 4.563898e-03 2.752033e-01 1.013187e+00 -1.523345e-01 1.217356e+00 2.661107e-02 7.590470e-01 4.005533e-03 -4.023787e-01 -1.256384e+00 -4.118042e-01 1.988641e-01 -3.349984e-01 1.210587e+00 -8.604133e-01 1.073801e+00 -1.253632e+00 1.327196e+00 -7.130264e-01 1.298582e+00 -9.672090e-02 8.298742e-01 -1.143306e-01 -2.068531e-03 -2.673941e+00
<VARIANCE> 39
 8.033104e+00 9.835197e+00 1.208447e+01 2.613906e+01 1.976312e+01 4.139299e+01 2.326782e+01 3.687743e+01 2.485652e+01 1.983644e+01 2.705817e+01 2.080681e+01 3.006417e+01 1.135435e+00 5.925825e+00 4.472270e+00 6.052286e+00 8.072630e+00 1.151933e+01 4.442977e+00 1.146044e+01 2.187427e+00 3.922895e+00 1.883956e+00 1.310768e+00 3.771471e+01 1.646834e-01 4.170094e-01 3.522112e-01 5.035788e-01 5.273574e-01 1.151499e+00 6.725515e-01 1.202219e+00 5.580098e-01 4.015167e-01 4.817241e-01 3.502807e-01 2.138706e+00
<GCONST> 1.239176e+02
<MIXTURE> 7 1.179287e-01
<MEAN> 39
 -4.859038e+00 -1.042198e+01 6.062441e+00 -1.633465e-04 5.551348e+00 -1.334348e+00 2.248435e+00 -6.927705e+00 -3.979328e+00 -1.011683e+01 -4.031111e+00 -3.768126e+00 7.894514e+01 1.714793e+00 4.560828e-03 2.752052e-01 1.013185e+00 -1.523314e-01 1.217354e+00 2.661271e-02 7.590441e-01 4.006043e-03 -4.023806e-01 -1.256384e+00 -4.118041e-01 1.988701e-01 -3.349984e-01 1.210588e+00 -8.604137e-01 1.073802e+00 -1.253632e+00 1.327197e+00 -7.130268e-01 1.298583e+00 -9.672071e-02 8.298743e-01 -1.143310e-01 -2.068676e-03 -2.673943e+00
<VARIANCE> 39
 8.033110e+00 9.835206e+00 1.208447e+01 2.613904e+01 1.976311e+01 4.139296e+01 2.326783e+01 3.687740e+01 2.485652e+01 1.983645e+01 2.705817e+01 2.080682e+01 3.006414e+01 1.135436e+00 5.925827e+00 4.472269e+00 6.052284e+00 8.072631e+00 1.151933e+01 4.442979e+00 1.146045e+01 2.187426e+00 3.922897e+00 1.883956e+00 1.310767e+00 3.771471e+01 1.646834e-01 4.170095e-01 3.522111e-01 5.035788e-01 5.273573e-01 1.151498e+00 6.725518e-01 1.202218e+00 5.580097e-01 4.015167e-01 4.817241e-01 3.502809e-01 2.138706e+00
<GCONST> 1.239176e+02
<MIXTURE> 8 3.243211e-02
<MEAN> 39
 -9.464385e+00 -1.229494e+01 2.997961e+00 -1.279136e+00 1.493947e+00 -5.711086e-01 -2.104677e+00 -6.289543e+00 -6.093300e+00 -7.160667e+00 -3.014047e+00 -4.947054e-01 7.188262e+01 2.529988e+00 -2.943452e+00 2.272538e+00 -2.116849e+00 2.280414e+00 -2.845897e+00 9.890003e-01 -3.343848e+00 -3.611614e-01 -2.448225e+00 -2.805452e-01 -3.224718e-01 7.437638e+00 7.114580e-02 1.006697e+00 -3.135595e-01 8.827252e-01 -3.223631e-01 1.025523e+00 6.861019e-02 9.911845e-01 2.547515e-01 3.434747e-01 -1.644488e-01 -2.063793e-01 -1.320814e+00
<VARIANCE> 39
 4.255177e+01 2.894264e+01 2.440556e+01 5.454531e+01 4.001759e+01 6.379802e+01 3.998735e+01 5.326856e+01 4.402092e+01 4.379190e+01 3.799250e+01 3.458061e+01 4.153223e+01 2.347235e+00 6.926629e+00 4.594789e+00 7.595500e+00 7.631334e+00 1.159688e+01 4.880709e+00 1.289559e+01 2.994546e+00 4.672826e+00 2.029386e+00 1.965871e+00 3.379231e+01 2.166421e-01 6.930209e-01 3.302598e-01 4.730577e-01 5.678929e-01 8.984450e-01 7.285984e-01 8.714566e-01 6.764345e-01 6.897322e-01 5.311015e-01 4.390997e-01 7.068639e-01
<GCONST> 1.350312e+02
<MIXTURE> 9 3.757182e-02
<MEAN> 39
 -5.376510e+00 -1.012094e+01 7.585782e+00 -2.679364e+00 7.544363e+00 -5.250500e+00 3.495497e+00 -1.003292e+01 -2.649295e+00 -1.008951e+01 -4.444277e-01 -2.691932e+00 8.462110e+01 2.083228e+00 -7.967076e-01 1.244738e+00 1.585256e-01 1.247252e+00 1.485962e-01 1.061981e+00 -2.545014e-01 7.500464e-01 -1.017697e+00 -6.631142e-01 -1.166658e-01 2.809361e+00 -5.410987e-01 1.477453e+00 -1.284969e+00 1.690267e+00 -1.608750e+00 2.360982e+00 -7.108964e-01 2.371535e+00 -4.236398e-02 1.133000e+00 -5.280683e-01 -9.001778e-02 -4.248916e+00
<VARIANCE> 39
 4.997323e+00 6.782709e+00 9.082668e+00 1.637379e+01 1.282440e+01 3.298525e+01 1.852518e+01 2.537591e+01 1.881369e+01 1.657926e+01 1.829635e+01 1.618837e+01 1.513038e+01 9.062901e-01 3.254521e+00 3.530299e+00 3.719139e+00 4.741570e+00 7.619405e+00 2.585647e+00 7.885779e+00 1.938467e+00 2.902575e+00 1.881395e+00 1.435899e+00 2.129966e+01 1.280808e-01 2.722034e-01 2.148740e-01 3.017460e-01 3.233324e-01 7.115183e-01 5.210376e-01 7.846067e-01 4.938259e-01 3.516276e-01 4.039473e-01 2.954644e-01 5.663778e-01
<GCONST> 1.096909e+02
<MIXTURE> 10 1.179287e-01
<MEAN> 39
 -4.859036e+00 -1.042198e+01 6.062440e+00 -1.593828e-04 5.551347e+00 -1.334345e+00 2.248435e+00 -6.927700e+00 -3.979325e+00 -1.011683e+01 -4.031113e+00 -3.768127e+00 7.894513e+01 1.714792e+00 4.564136e-03 2.752034e-01 1.013188e+00 -1.523346e-01 1.217356e+00 2.661094e-02 7.590473e-01 4.005369e-03 -4.023786e-01 -1.256384e+00 -4.118042e-01 1.988639e-01 -3.349985e-01 1.210587e+00 -8.604133e-01 1.073801e+00 -1.253632e+00 1.327196e+00 -7.130265e-01 1.298582e+00 -9.672097e-02 8.298742e-01 -1.143306e-01 -2.068456e-03 -2.673941e+00
<VARIANCE> 39
