~o
<STREAMINFO> 1 39
<VECSIZE> 39<NULLD><MFCC_D_A_0><DIAGC>
~s "silst"
<MEAN> 39
 -1.808074e+01 1.791823e+00 -7.785032e+00 6.386681e+00 -7.344066e+00 8.694407e+00 -6.352707e+00 5.277922e+00 -4.825692e+00 6.024241e-01 1.189203e-03 -1.655615e+00 4.502034e+01 5.842913e-01 -1.420998e-01 -2.464799e-02 4.192110e-01 -1.119577e-01 -5.064949e-02 3.124670e-01 1.322739e-01 -1.685035e-01 9.370741e-03 1.037521e-01 -4.943858e-03 4.052265e-01 -2.944231e-02 1.812662e-01 -1.476025e-02 -1.462996e-01 1.270312e-01 1.239565e-01 -9.261651e-02 -7.288901e-03 2.025189e-01 1.436887e-02 -1.285253e-01 5.870703e-03 -6.901077e-02
<VARIANCE> 39
 1.103712e+02 8.680593e+01 3.592307e+01 5.319710e+01 3.773264e+01 5.696896e+01 5.229287e+01 4.154867e+01 4.764434e+01 2.454893e+01 2.825996e+01 2.088838e+01 1.359399e+02 9.131866e+00 6.999671e+00 2.071849e+00 4.791024e+00 3.508042e+00 4.753222e+00 4.155788e+00 3.907459e+00 4.869161e+00 2.560200e+00 2.956007e+00 1.902085e+00 8.962781e+00 1.286527e+00 1.162114e+00 3.682033e-01 8.442001e-01 6.414455e-01 8.837647e-01 7.459470e-01 7.582107e-01 9.015175e-01 5.064453e-01 5.743562e-01 3.801440e-01 1.288430e+00
<GCONST> 1.366550e+02
~h "k"
<BEGINHMM>
<NUMSTATES> 5
<STATE> 2
<MEAN> 39
 -1.330136e+01 1.267686e+00 -6.243498e+00 7.785709e+00 -5.178882e+00 1.076966e+01 -4.368470e+00 6.369317e+00 -3.105481e+00 1.493950e+00 -1.626292e+00 -2.749949e+00 4.929085e+01 -4.347571e-01 -3.833361e+00 4.280032e-01 -1.653720e+00 1.910080e+00 -2.679018e+00 4.857360e-01 -3.085685e+00 1.293961e-01 -8.547182e-02 9.418809e-02 -2.759064e-02 4.321937e+00 -1.920865e-01 -1.893112e+00 2.406644e-01 -1.035666e+00 8.831046e-01 -1.308266e+00 1.833710e-01 -1.672384e+00 9.580121e-02 -2.681286e-01 -3.670729e-02 -1.149240e-01 2.375664e+00
<VARIANCE> 39
 1.415265e+01 3.538706e+01 1.826378e+01 1.802524e+01 2.059449e+01 2.947436e+01 3.133665e+01 2.453906e+01 1.944280e+01 1.717173e+01 1.451957e+01 1.295888e+01 1.948846e+01 1.140676e+00 1.707113e+01 1.985444e+00 6.038758e+00 5.913091e+00 1.034430e+01 3.109406e+00 1.305995e+01 2.713604e+00 2.605717e+00 1.940871e+00 1.788720e+00 2.252034e+01 1.389856e-01 1.195504e+00 2.847035e-01 4.564748e-01 5.608892e-01 8.328437e-01 5.116495e-01 8.461662e-01 4.789093e-01 4.200490e-01 3.467706e-01 3.262956e-01 1.164693e+00
<GCONST> 1.212834e+02
<STATE> 3
<MEAN> 39
 -1.671433e+01 -2.701358e+01 -1.490489e+00 -7.523088e+00 7.278216e+00 -7.883170e+00 -1.364235e+00 -1.975990e+01 -8.498004e-01 -1.179026e+00 -2.612661e+00 -4.994520e+00 8.357138e+01 4.358820e-02 -1.584038e+00 5.412064e-01 -7.637420e-01 1.330389e-01 -3.717777e-01 -2.618543e-01 -1.687538e+00 3.429075e-02 2.061412e-01 -3.925676e-01 -3.793383e-01 1.313062e+00 3.318371e-01 1.434846e+00 -2.706562e-01 9.077072e-01 -8.256385e-01 1.221179e+00 -3.750676e-01 1.417950e+00 -1.378855e-01 3.407858e-01 -1.038922e-01 1.544085e-01 -2.068089e+00
<VARIANCE> 39
 7.209806e+00 1.426697e+01 1.567332e+01 2.022609e+01 2.028183e+01 4.044414e+01 2.673752e+01 3.593134e+01 3.052361e+01 2.637691e+01 2.477745e+01 2.796037e+01 2.532639e+01 1.260173e+00 1.653024e+01 1.639860e+00 7.352431e+00 6.292159e+00 1.312853e+01 2.746521e+00 1.520055e+01 2.386992e+00 3.583597e+00 1.658341e+00 1.985877e+00 3.432577e+01 1.640733e-01 1.235239e+00 4.067895e-01 5.343192e-01 6.509456e-01 1.120801e+00 4.457231e-01 9.595619e-01 4.705753e-01 6.214398e-01 3.537911e-01 4.425375e-01 1.892897e+00
<GCONST> 1.259237e+02
<STATE> 4
<MEAN> 39
 -1.009264e+01 -1.604784e+01 -5.554194e+00 4.647014e+00 -2.737953e+00 6.529442e+00 -9.480914e+00 -9.488905e+00 -4.723518e+00 3.828825e+00 -5.763412e+00 -3.872901e+00 6.297216e+01 7.362301e-01 1.901763e+00 -1.063228e+00 1.982627e+00 -1.034032e+00 1.715228e+00 -5.097124e-01 1.668666e+00 -5.165231e-01 3.477458e-01 -1.387062e-02 1.771555e-01 -2.513284e+00 -2.447694e-01 -4.812043e-02 6.969371e-02 -1.838869e-01 2.928346e-01 -2.680793e-01 3.454332e-01 -1.614618e-01 9.606352e-02 -1.320538e-01 1.799772e-01 -1.368573e-01 3.915885e-01
<VARIANCE> 39
 1.031313e+01 3.112126e+01 1.813872e+01 4.330373e+01 2.034776e+01 3.796067e+01 2.755085e+01 3.707856e+01 4.669664e+01 1.920619e+01 2.304241e+01 2.466585e+01 2.754809e+01 1.276574e+00 1.166851e+00 1.401317e+00 2.069592e+00 2.357853e+00 2.686089e+00 3.454073e+00 5.114274e+00 4.435931e+00 2.074231e+00 1.943045e+00 1.947527e+00 2.414960e+00 1.679596e-01 2.452415e-01 2.731934e-01 3.954286e-01 3.297403e-01 4.274777e-01 5.015321e-01 9.835017e-01 1.040542e+00 4.960550e-01 3.603850e-01 3.595176e-01 2.632537e-01
<GCONST> 1.126430e+02
<TRANSP> 5
 0.000000e+00 1.000000e+00 0.000000e+00 0.000000e+00 0.000000e+00
 0.000000e+00 7.486238e-01 2.513762e-01 0.000000e+00 0.000000e+00
 0.000000e+00 0.000000e+00 8.510836e-01 1.489163e-01 0.000000e+00
 0.000000e+00 0.000000e+00 0.000000e+00 8.623305e-01 1.376695e-01
 0.000000e+00 0.000000e+00 0.000000e+00 0.000000e+00 0.000000e+00
<ENDHMM>
~h "p"
<BEGINHMM>
<NUMSTATES> 5
<STATE> 2
<MEAN> 39
 -1.367282e+01 3.067297e+00 -6.015187e+00 7.570650e+00 -6.600843e+00 1.046241e+01 -4.996065e+00 6.703373e+00 -3.309101e+00 4.408880e-01 -2.126885e+00 -2.991228e+00 4.791702e+01 8.150427e-01 -2.065197e+00 1.333514e+00 -1.323763e+00 1.465345e+00 -2.186424e+00 6.941001e-01 -2.206812e+00 -3.310052e-01 -1.371372e+00 1.568733e-01 7.731560e-02 4.118475e+00 5.768862e-01 -9.993971e-01 8.698321e-01 -5.710457e-01 8.962505e-01 -9.314495e-01 4.110653e-01 -1.085719e+00 -9.195366e-02 -7.534584e-01 -2.806722e-03 -5.551843e-02 2.277972e+00
<VARIANCE> 39
 1.384680e+01 9.199527e+00 1.744280e+01 1.070354e+01 1.194116e+01 1.539192e+01 2.228626e+01 1.601604e+01 1.473022e+01 1.199029e+01 1.078622e+01 9.094530e+00 9.931026e+00 1.425075e+00 5.080397e+00 3.854801e+00 3.156813e+00 4.211911e+00 6.068093e+00 2.685987e+00 6.990181e+00 2.343811e+00 3.885274e+00 1.562911e+00 1.436194e+00 1.918282e+01 1.262618e-01 2.579370e-01 2.298329e-01 3.449439e-01 3.660727e-01 4.907469e-01 3.836905e-01 4.880832e-01 3.734481e-01 3.240120e-01 2.596218e-01 2.473269e-01 6.487483e-01
<GCONST> 1.068831e+02
<STATE> 3
<MEAN> 39
 -5.399020e+00 -1.069075e+01 5.225744e+00 -2.165082e-01 5.247152e+00 -2.502674e+00 7.367429e-01 -7.939005e+00 -4.688368e+00 -9.962971e+00 -2.521554e+00 -3.416788e+00 7.849682e+01 1.769947e+00 -6.166442e-01 8.797356e-01 4.962030e-01 5.319547e-01 4.893520e-01 4.809748e-01 -8.920377e-02 5.234674e-02 -8.434444e-01 -8.931277e-01 -3.168325e-01 1.730203e+00 -2.827575e-01 1.293300e+00 -1.050910e+00 1.064082e+00 -1.349375e+00 1.524218e+00 -6.321723e-01 1.554110e+00 6.487161e-02 9.379460e-01 -2.458163e-01 1.362711e-05 -2.876375e+00
<VARIANCE> 39
 1.065031e+01 1.297347e+01 1.597350e+01 2.625690e+01 2.455309e+01 4.304380e+01 3.116433e+01 3.847990e+01 2.812546e+01 2.438181e+01 2.657025e+01 2.200450e+01 4.494885e+01 1.265013e+00 6.962828e+00 6.106337e+00 6.051947e+00 9.470408e+00 1.284822e+01 3.965384e+00 1.359953e+01 2.374106e+00 5.179191e+00 2.146124e+00 1.540937e+00 4.046327e+01 1.974647e-01 4.161093e-01 5.030496e-01 5.155567e-01 7.101808e-01 1.105568e+00 6.475918e-01 1.123799e+00 5.695228e-01 5.400746e-01 4.769597e-01 3.802234e-01 2.010900e+00
<GCONST> 1.287882e+02
<STATE> 4
<MEAN> 39
 -2.506253e+00 2.145811e+00 -3.607198e-01 1.176020e+01 -4.278052e+00 9.428424e+00 -4.748961e+00 2.452415e+00 -7.443123e+00 -4.800527e+00 -7.081597e+00 -5.736350e+00 5.879479e+01 -3.905041e-01 1.382783e+00 -6.975369e-01 6.600007e-01 -7.041613e-01 5.894173e-01 -5.088206e-01 5.708439e-01 -5.042917e-01 5.697484e-01 5.112004e-03 -1.808287e-01 -1.974925e+00 -2.348761e-01 -1.855090e-01 1.377161e-01 -3.701710e-01 3.078727e-01 -3.326108e-01 1.391459e-01 -3.014166e-01 1.387681e-02 -1.170550e-01 1.665850e-01 3.505415e-02 3.654241e-01
<VARIANCE> 39
 8.972580e+00 3.973047e+01 2.573101e+01 2.134733e+01 2.037235e+01 2.012926e+01 2.141049e+01 1.744845e+01 2.455334e+01 1.773872e+01 1.776806e+01 1.625008e+01 2.585671e+01 7.730290e-01 1.208483e+00 1.759719e+00 2.533346e+00 3.314958e+00 2.862687e+00 1.816685e+00 2.598112e+00 1.888456e+00 1.873655e+00 1.428095e+00 1.302816e+00 2.025559e+00 6.254239e-02 1.457713e-01 2.550063e-01 3.044409e-01 4.818631e-01 6.084839e-01 3.233947e-01 4.572294e-01 4.131687e-01 3.460043e-01 3.111725e-01 2.704480e-01 1.708262e-01
<GCONST> 1.020362e+02
<TRANSP> 5
 0.000000e+00 1.000000e+00 0.000000e+00 0.000000e+00 0.000000e+00
 0.000000e+00 7.194982e-01 2.805018e-01 0.000000e+00 0.000000e+00
 0.000000e+00 0.000000e+00 7.697244e-01 2.302756e-01 0.000000e+00
 0.000000e+00 0.000000e+00 0.000000e+00 8.838123e-01 1.161877e-01
 0.000000e+00 0.000000e+00 0.000000e+00 0.000000e+00 0.000000e+00
<ENDHMM>
~h "s"
<BEGINHMM>
<NUMSTATES> 5
<STATE> 2
<MEAN> 39
 -1.408660e+01 -4.522775e-01 -4.042203e+00 8.055220e+00 -5.579464e+00 9.668919e+00 -3.367317e+00 4.175389e+00 -3.826680e+00 3.280725e-01 -2.955142e+00 -2.096644e+00 5.059426e+01 -1.627848e+00 -3.171611e+00 1.169428e+00 -1.175541e+00 1.453114e+00 -2.160836e+00 1.919674e+00 -2.580601e+00 3.508959e-01 -5.863122e-01 9.783835e-02 1.095322e+00 2.808074e+00 -8.199190e-01 -1.108861e+00 5.577014e-01 -1.015071e+00 1.050971e+00 -9.603687e-01 6.038132e-01 -9.551185e-01 1.268996e-01 -3.279746e-01 1.456790e-01 2.200174e-01 1.442253e+00
<VARIANCE> 39
 1.712352e+01 4.818593e+01 3.107039e+01 2.475981e+01 2.360266e+01 3.744805e+01 3.904913e+01 4.471786e+01 2.635983e+01 2.169272e+01 2.414867e+01 2.092787e+01 2.219747e+01 2.817142e+00 9.224110e+00 4.445450e+00 5.478136e+00 6.067393e+00 7.407729e+00 5.015318e+00 8.743217e+00 3.103266e+00 3.014280e+00 2.594356e+00 2.477637e+00 7.816643e+00 2.268403e-01 1.111057e+00 6.907724e-01 7.832877e-01 6.889762e-01 8.548074e-01 7.122847e-01 1.102018e+00 4.793471e-01 4.620970e-01 4.695448e-01 4.563028e-01 5.003688e-01
<GCONST> 1.286467e+02
<STATE> 3
<MEAN> 39
 -2.767781e+01 -1.806976e+01 4.354075e+00 -7.674086e+00 1.001842e+01 -5.561862e+00 6.865667e+00 -1.045739e+01 -1.477481e+00 -4.587457e+00 -2.713690e-01 1.885824e+00 7.284124e+01 -2.593842e+00 -1.863279e+00 1.675571e+00 -3.849415e+00 2.939871e+00 -1.766648e+00 7.755160e-01 -1.175829e+00 1.220096e-01 -8.030427e-01 9.115134e-01 -1.228283e-01 3.969069e+00 6.815200e-01 1.068535e+00 -3.272137e-01 5.812988e-01 -8.544416e-01 1.106757e+00 -7.885709e-01 1.006170e+00 -1.476031e-01 2.175928e-01 -3.769852e-02 -3.294370e-01 -1.090545e+00
<VARIANCE> 39
 2.193615e+01 2.950656e+01 5.285421e+01 6.107766e+01 5.042829e+01 4.171912e+01 3.544718e+01 3.636111e+01 3.233159e+01 2.721061e+01 3.405431e+01 2.329182e+01 3.479707e+01 3.187802e+00 7.386647e+00 4.779938e+00 4.672022e+00 6.685703e+00 7.963663e+00 5.350753e+00 7.318049e+00 2.456083e+00 2.554720e+00 2.070439e+00 2.088458e+00 6.177264e+00 4.286436e-01 9.479229e-01 8.743876e-01 1.155989e+00 1.022564e+00 8.664479e-01 7.351109e-01 1.040167e+00 5.386559e-01 5.194782e-01 5.193655e-01 4.935072e-01 5.151052e-01
<GCONST> 1.324993e+02
<STATE> 4
<MEAN> 39
 -2.854231e+01 -1.804606e+01 1.019068e+01 -1.283336e+01 9.646528e+00 1.056059e+00 3.149263e+00 -7.486539e+00 -2.281397e+00 -5.052939e+00 2.389388e-01 1.108618e+00 7.375838e+01 1.069993e+00 8.034645e-01 2.271132e-01 7.831465e-01 -1.121449e+00 1.423065e+00 -7.406278e-01 1.050079e+00 -4.850132e-01 2.772339e-01 -5.737326e-01 -4.387315e-02 -1.599700e+00 2.522253e-01 2.745116e-01 -2.062932e-01 3.563313e-01 -2.864442e-01 1.186905e-01 -1.221744e-01 1.708492e-01 -4.199380e-02 1.172503e-01 -7.500828e-02 -3.401228e-02 -3.911273e-01
<VARIANCE> 39
 2.273844e+01 1.939104e+01 3.053009e+01 2.481180e+01 3.911632e+01 5.409442e+01 2.899892e+01 3.482848e+01 2.797628e+01 2.036466e+01 2.689118e+01 1.468839e+01 4.574467e+01 1.868965e+00 2.478143e+00 1.727203e+00 2.219273e+00 2.507253e+00 2.168144e+00 2.203284e+00 2.903473e+00 2.107964e+00 1.821592e+00 1.656018e+00 1.087344e+00 2.916659e+00 2.341176e-01 2.987065e-01 2.695338e-01 2.750403e-01 3.490175e-01 3.763595e-01 3.886430e-01 4.450059e-01 4.201869e-01 3.437350e-01 3.555016e-01 2.365062e-01 2.653673e-01
<GCONST> 1.097634e+02
<TRANSP> 5
 0.000000e+00 1.000000e+00 0.000000e+00 0.000000e+00 0.000000e+00
 0.000000e+00 7.438951e-01 2.561050e-01 0.000000e+00 0.000000e+00
 0.000000e+00 0.000000e+00 7.642589e-01 2.357411e-01 0.000000e+00
 0.000000e+00 0.000000e+00 0.000000e+00 9.014081e-01 9.859186e-02
 0.000000e+00 0.000000e+00 0.000000e+00 0.000000e+00 0.000000e+00
<ENDHMM>
~h "sil"
<BEGINHMM>
<NUMSTATES> 5
<STATE> 2
<MEAN> 39
 -1.539504e+01 -5.312296e-01 -2.977112e+00 5.230324e+00 -4.543213e+00 1.214845e+01 -6.270101e+00 3.183422e+00 -5.048533e+00 8.219358e-01 -2.913542e+00 -3.124112e+00 5.005643e+01 3.684484e-02 9.746684e-01 -6.608930e-01 5.343441e-01 -3.872828e-01 2.401975e-01 -9.603383e-02 7.438990e-01 4.705943e-01 2.427382e-01 3.220494e-01 -1.002116e-01 -9.933590e-01 -6.898499e-02 -1.768379e-01 3.717824e-02 -9.724801e-02 1.165735e-01 -2.201400e-01 1.042558e-01 -9.004540e-02 8.465400e-02 -6.936079e-02 1.689493e-02 7.939707e-02 2.108896e-01
<VARIANCE> 39
 6.935095e+01 5.492012e+01 5.776128e+01 3.990804e+01 2.366487e+01 2.678836e+01 3.512505e+01 2.722551e+01 2.706351e+01 2.522530e+01 1.753351e+01 1.728525e+01 8.354448e+01 1.171925e+00 1.633072e+00 1.733009e+00 2.041612e+00 2.499909e+00 2.267708e+00 1.924906e+00 2.064155e+00 2.289909e+00 1.700395e+00 1.423792e+00 1.315795e+00 7.924837e-01 1.069903e-01 1.982130e-01 1.999170e-01 2.409767e-01 3.576961e-01 3.622064e-01 3.554718e-01 3.932369e-01 4.471154e-01 3.251148e-01 3.041131e-01 2.383350e-01 7.864293e-02
<GCONST> 1.064341e+02
<STATE> 3
~s "silst"
<STATE> 4
<MEAN> 39
 -1.327650e+01 3.403296e+00 -7.098424e+00 7.489322e+00 -6.557849e+00 1.002996e+01 -5.897504e+00 6.070385e+00 -3.505790e+00 3.901713e-01 -1.989472e+00 -2.890355e+00 4.776359e+01 -8.121284e-02 9.520843e-02 -9.573594e-02 -2.064722e-02 -7.453685e-02 -3.275449e-02 1.357881e-02 1.096333e-01 7.695502e-02 -8.212843e-03 2.554475e-02 4.115073e-02 -1.468618e-01 5.955262e-03 -7.918200e-02 3.451405e-02 5.837258e-03 -1.623685e-03 -1.686443e-02 1.723729e-02 -6.256543e-02 -5.187896e-02 -9.851181e-03 3.140069e-03 -4.284154e-03 6.259713e-02
<VARIANCE> 39
 1.444495e+01 7.781540e+00 1.481450e+01 9.931043e+00 1.102206e+01 1.407399e+01 1.829474e+01 1.538818e+01 1.367725e+01 1.134922e+01 1.059318e+01 9.535618e+00 9.104803e+00 1.002229e-01 3.113169e-01 3.627323e-01 4.533487e-01 5.886753e-01 6.725864e-01 7.928205e-01 8.629860e-01 8.710634e-01 8.879121e-01 8.164675e-01 7.400119e-01 9.232665e-02 2.396962e-02 8.239581e-02 8.003039e-02 1.027781e-01 1.303725e-01 1.609412e-01 1.739840e-01 1.930014e-01 1.860986e-01 1.832497e-01 1.720666e-01 1.538415e-01 3.315108e-02
<GCONST> 6.551981e+01
<TRANSP> 5
 0.000000e+00 1.000000e+00 0.000000e+00 0.000000e+00 0.000000e+00
 0.000000e+00 7.398907e-01 5.017461e-02 2.099346e-01 0.000000e+00
 0.000000e+00 0.000000e+00 8.575162e-01 1.424837e-01 0.000000e+00
 0.000000e+00 4.906096e-03 0.000000e+00 8.948501e-01 1.002439e-01
 0.000000e+00 0.000000e+00 0.000000e+00 0.000000e+00 0.000000e+00
<ENDHMM>
