~o
<STREAMINFO> 1 39
<VECSIZE> 39<NULLD><MFCC_D_A_0><DIAGC>
~s "silst"
<MEAN> 39
 -1.779931e+01 1.502400e+00 -7.580316e+00 6.509091e+00 -7.384092e+00 8.763914e+00 -6.148483e+00 5.275699e+00 -5.002604e+00 5.899582e-01 1.194880e-02 -1.704480e+00 4.540039e+01 5.489274e-01 -1.022187e-01 -4.004501e-02 4.174266e-01 -1.096814e-01 -5.783125e-02 2.898140e-01 1.289104e-01 -1.347420e-01 2.839388e-02 9.594003e-02 -1.601257e-02 3.557533e-01 -3.018573e-02 1.901754e-01 -1.825637e-02 -1.584941e-01 1.393225e-01 1.200718e-01 -1.021606e-01 -2.025427e-03 2.137040e-01 1.074651e-02 -1.371101e-01 6.386283e-03 -6.964608e-02
<VARIANCE> 39
 1.063117e+02 8.506074e+01 3.696984e+01 5.221989e+01 3.739562e+01 5.657600e+01 5.254419e+01 4.107507e+01 4.797736e+01 2.532062e+01 2.813196e+01 2.119310e+01 1.317203e+02 8.775901e+00 6.867949e+00 2.076025e+00 4.707222e+00 3.482554e+00 4.638882e+00 4.131908e+00 3.906639e+00 4.898956e+00 2.618577e+00 2.919191e+00 1.896797e+00 8.642061e+00 1.233085e+00 1.134143e+00 3.701198e-01 8.269306e-01 6.370056e-01 8.751288e-01 7.449403e-01 7.610135e-01 9.007449e-01 5.174383e-01 5.688564e-01 3.818696e-01 1.236892e+00
<GCONST> 1.363441e+02
~h "k"
<BEGINHMM>
<NUMSTATES> 5
<STATE> 2
<MEAN> 39
 -1.330346e+01 1.175685e+00 -6.243058e+00 7.799940e+00 -5.155688e+00 1.072557e+01 -4.356625e+00 6.316612e+00 -3.088221e+00 1.537076e+00 -1.625740e+00 -2.704525e+00 4.935340e+01 -4.501729e-01 -4.063053e+00 4.632308e-01 -1.743127e+00 2.020328e+00 -2.820909e+00 5.140779e-01 -3.263608e+00 1.553813e-01 -9.024221e-02 7.798397e-02 -3.074408e-02 4.586337e+00 -2.008211e-01 -1.934895e+00 2.423006e-01 -1.064500e+00 8.998314e-01 -1.344618e+00 1.837133e-01 -1.717154e+00 1.002541e-01 -2.849414e-01 -3.921581e-02 -1.304078e-01 2.439987e+00
<VARIANCE> 39
 1.419106e+01 3.727579e+01 1.835477e+01 1.825590e+01 2.121804e+01 3.024049e+01 3.130718e+01 2.514507e+01 1.960354e+01 1.767525e+01 1.468725e+01 1.305244e+01 2.092552e+01 1.185646e+00 1.710444e+01 2.040403e+00 6.100204e+00 5.976724e+00 1.048368e+01 3.196632e+00 1.324738e+01 2.794952e+00 2.690988e+00 1.954246e+00 1.847506e+00 2.258199e+01 1.411233e-01 1.227347e+00 2.907930e-01 4.473075e-01 5.738353e-01 8.323657e-01 5.199382e-01 8.351036e-01 4.912743e-01 4.265559e-01 3.528679e-01 3.303514e-01 1.147302e+00
<GCONST> 1.219326e+02
<STATE> 3
<MEAN> 39
 -1.678614e+01 -2.726633e+01 -1.759138e+00 -7.680092e+00 7.614639e+00 -8.396333e+00 -1.300707e+00 -1.989392e+01 -6.794345e-01 -1.499153e+00 -2.580141e+00 -4.919395e+00 8.426970e+01 -8.726728e-02 -1.908507e+00 6.824045e-01 -1.047641e+00 3.210193e-01 -6.893464e-01 -9.923614e-02 -2.145226e+00 1.119938e-01 5.247774e-02 -3.433612e-01 -4.856206e-01 1.901356e+00 3.290284e-01 1.545927e+00 -2.097866e-01 9.521022e-01 -8.893677e-01 1.323885e+00 -3.680264e-01 1.484464e+00 -1.708611e-01 3.992831e-01 -1.014590e-01 1.471534e-01 -2.246288e+00
<VARIANCE> 39
 7.226494e+00 1.374262e+01 1.540616e+01 1.988338e+01 1.979187e+01 3.926387e+01 2.654044e+01 3.508386e+01 3.056895e+01 2.601273e+01 2.463722e+01 2.857166e+01 2.209329e+01 1.140433e+00 1.689489e+01 1.517147e+00 7.099806e+00 6.400808e+00 1.306480e+01 2.605529e+00 1.420041e+01 2.427679e+00 3.551546e+00 1.675907e+00 1.973676e+00 3.374603e+01 1.695131e-01 1.219907e+00 3.863866e-01 5.322004e-01 6.589164e-01 1.073769e+00 4.601209e-01 9.576565e-01 4.725652e-01 6.014321e-01 3.519350e-01 4.529158e-01 1.729479e+00
<GCONST> 1.251948e+02
<STATE> 4
<MEAN> 39
 -1.061635e+01 -1.694713e+01 -4.859792e+00 3.614645e+00 -2.089235e+00 5.610185e+00 -8.907732e+00 -1.050782e+01 -4.604062e+00 3.633896e+00 -5.579843e+00 -4.022686e+00 6.433985e+01 8.132788e-01 1.906053e+00 -1.056642e+00 2.013377e+00 -1.141974e+00 1.850172e+00 -6.611004e-01 1.800807e+00 -5.182721e-01 4.544023e-01 -9.636585e-02 2.294368e-01 -2.727016e+00 -1.957529e-01 -1.106466e-02 -1.470021e-02 -1.143483e-01 2.401358e-01 -2.190448e-01 2.944422e-01 -7.992899e-02 1.131948e-01 -1.432921e-01 1.552327e-01 -1.058058e-01 3.295160e-01
<VARIANCE> 39
 1.249306e+01 3.523823e+01 2.067298e+01 4.879147e+01 2.265795e+01 4.348974e+01 3.117956e+01 4.283471e+01 4.624629e+01 1.941690e+01 2.382407e+01 2.515405e+01 4.032887e+01 1.246930e+00 1.164348e+00 1.378725e+00 2.007691e+00 2.246559e+00 2.681930e+00 3.407289e+00 5.054049e+00 4.271284e+00 2.165369e+00 1.947955e+00 1.912897e+00 2.653707e+00 1.950280e-01 2.588949e-01 3.384721e-01 4.170449e-01 3.360249e-01 4.416820e-01 5.358025e-01 1.034898e+00 1.006248e+00 4.944830e-01 3.718089e-01 3.757764e-01 3.048770e-01
<GCONST> 1.149176e+02
<TRANSP> 5
 0.000000e+00 1.000000e+00 0.000000e+00 0.000000e+00 0.000000e+00
 0.000000e+00 7.348805e-01 2.651195e-01 0.000000e+00 0.000000e+00
 0.000000e+00 0.000000e+00 8.350766e-01 1.649234e-01 0.000000e+00
 0.000000e+00 0.000000e+00 0.000000e+00 8.681809e-01 1.318190e-01
 0.000000e+00 0.000000e+00 0.000000e+00 0.000000e+00 0.000000e+00
<ENDHMM>
~h "p"
<BEGINHMM>
<NUMSTATES> 5
<STATE> 2
<MEAN> 39
 -1.367352e+01 3.075765e+00 -6.055457e+00 7.552177e+00 -6.624187e+00 1.043659e+01 -4.969416e+00 6.688457e+00 -3.330789e+00 4.401820e-01 -2.124211e+00 -2.982561e+00 4.790279e+01 8.694445e-01 -2.221327e+00 1.442836e+00 -1.408733e+00 1.580240e+00 -2.334569e+00 7.343854e-01 -2.361481e+00 -3.504373e-01 -1.449233e+00 1.683419e-01 7.811772e-02 4.413534e+00 6.023957e-01 -1.017303e+00 9.040275e-01 -5.810387e-01 9.296136e-01 -9.482473e-01 4.287065e-01 -1.111478e+00 -8.258281e-02 -7.813801e-01 -6.363771e-03 -6.558908e-02 2.354751e+00
<VARIANCE> 39
 1.397168e+01 9.255120e+00 1.702062e+01 1.082905e+01 1.204520e+01 1.540447e+01 2.253952e+01 1.626338e+01 1.484379e+01 1.177839e+01 1.057087e+01 9.056550e+00 9.975815e+00 1.466052e+00 5.012492e+00 3.889195e+00 3.226678e+00 4.223243e+00 6.083565e+00 2.794587e+00 7.027466e+00 2.435787e+00 3.995716e+00 1.618969e+00 1.493249e+00 1.910350e+01 1.216503e-01 2.651951e-01 2.199595e-01 3.587222e-01 3.589764e-01 5.024676e-01 3.864528e-01 4.974408e-01 3.829828e-01 3.185755e-01 2.573061e-01 2.531734e-01 5.984845e-01
<GCONST> 1.070818e+02
<STATE> 3
<MEAN> 39
 -5.301538e+00 -1.058025e+01 5.170931e+00 -5.265547e-02 5.121956e+00 -2.258423e+00 6.848765e-01 -7.704561e+00 -4.684236e+00 -9.889022e+00 -2.683364e+00 -3.427124e+00 7.822169e+01 1.738951e+00 -5.245942e-01 7.938329e-01 5.748944e-01 4.024640e-01 6.076517e-01 4.066408e-01 3.045577e-02 5.323522e-02 -7.649871e-01 -9.009165e-01 -2.979054e-01 1.495966e+00 -2.830038e-01 1.258808e+00 -1.025713e+00 1.029789e+00 -1.316417e+00 1.457181e+00 -6.213077e-01 1.489930e+00 6.272829e-02 9.180354e-01 -2.188235e-01 1.979209e-03 -2.782141e+00
<VARIANCE> 39
 1.067527e+01 1.317316e+01 1.586190e+01 2.667979e+01 2.466245e+01 4.410242e+01 3.078048e+01 3.931154e+01 2.785721e+01 2.420321e+01 2.718898e+01 2.171278e+01 4.582163e+01 1.262730e+00 6.983141e+00 6.126898e+00 6.043905e+00 9.654250e+00 1.284532e+01 4.025650e+00 1.359586e+01 2.360136e+00 5.213375e+00 2.122072e+00 1.552739e+00 4.063106e+01 1.937021e-01 4.398427e-01 5.095057e-01 5.354768e-01 7.232016e-01 1.205072e+00 6.366088e-01 1.209440e+00 5.598845e-01 5.411540e-01 4.911496e-01 3.744097e-01 2.198564e+00
<GCONST> 1.292383e+02
<STATE> 4
<MEAN> 39
 -3.020068e+00 2.672884e+00 -5.692111e-01 1.181696e+01 -4.382311e+00 9.645623e+00 -4.783012e+00 2.557376e+00 -7.730327e+00 -4.664711e+00 -6.917178e+00 -5.778092e+00 5.794548e+01 -4.855988e-01 1.237889e+00 -6.385604e-01 5.024397e-01 -5.978912e-01 5.016229e-01 -4.382221e-01 4.882896e-01 -4.337809e-01 5.012866e-01 3.853497e-02 -1.528733e-01 -1.816559e+00 -2.094814e-01 -1.939620e-01 1.352417e-01 -3.335588e-01 2.863546e-01 -2.955877e-01 1.365590e-01 -2.458706e-01 5.516478e-02 -9.845696e-02 1.425492e-01 3.498172e-02 3.472190e-01
<VARIANCE> 39
 1.110016e+01 3.753934e+01 2.633115e+01 2.026055e+01 1.927651e+01 1.938448e+01 2.147870e+01 1.754990e+01 2.416220e+01 1.745557e+01 1.760343e+01 1.629554e+01 2.531180e+01 7.664831e-01 1.365418e+00 1.686206e+00 2.473038e+00 3.062041e+00 2.557718e+00 1.790257e+00 2.404843e+00 1.958182e+00 1.856291e+00 1.392261e+00 1.294942e+00 1.821811e+00 6.583773e-02 1.451772e-01 2.481050e-01 3.126078e-01 4.618137e-01 5.931638e-01 3.223351e-01 4.874936e-01 4.357907e-01 3.471550e-01 3.084211e-01 2.700464e-01 1.587965e-01
<GCONST> 1.016837e+02
<TRANSP> 5
 0.000000e+00 1.000000e+00 0.000000e+00 0.000000e+00 0.000000e+00
 0.000000e+00 7.004334e-01 2.995666e-01 0.000000e+00 0.000000e+00
 0.000000e+00 0.000000e+00 7.776475e-01 2.223525e-01 0.000000e+00
 0.000000e+00 0.000000e+00 0.000000e+00 8.933710e-01 1.066290e-01
 0.000000e+00 0.000000e+00 0.000000e+00 0.000000e+00 0.000000e+00
<ENDHMM>
~h "s"
<BEGINHMM>
<NUMSTATES> 5
<STATE> 2
<MEAN> 39
 -1.448298e+01 -1.428321e+00 -3.733779e+00 7.896004e+00 -5.277543e+00 9.025348e+00 -2.825684e+00 3.294177e+00 -3.687788e+00 6.553657e-02 -2.990329e+00 -1.710305e+00 5.135385e+01 -1.831299e+00 -3.460116e+00 1.319853e+00 -1.429245e+00 1.711544e+00 -2.397795e+00 2.077799e+00 -2.799818e+00 3.914933e-01 -6.564955e-01 1.433252e-01 1.140831e+00 3.163002e+00 -8.033642e-01 -9.802448e-01 5.419261e-01 -1.046810e+00 1.046851e+00 -8.892426e-01 5.351869e-01 -8.425926e-01 1.175689e-01 -3.048855e-01 1.630499e-01 1.601747e-01 1.378806e+00
<VARIANCE> 39
 1.900818e+01 6.178049e+01 3.392579e+01 2.659089e+01 2.624340e+01 4.542808e+01 4.418393e+01 5.611872e+01 2.842581e+01 2.376172e+01 2.580927e+01 2.466742e+01 3.071319e+01 3.196002e+00 9.092868e+00 4.712254e+00 6.089894e+00 6.519490e+00 7.565668e+00 5.038483e+00 8.627762e+00 3.154147e+00 3.043877e+00 2.635389e+00 2.471622e+00 8.097445e+00 2.377712e-01 1.362411e+00 7.200839e-01 7.731741e-01 6.879662e-01 9.526531e-01 8.078883e-01 1.309298e+00 4.984464e-01 4.833040e-01 4.792294e-01 5.099841e-01 5.875587e-01
<GCONST> 1.320268e+02
<STATE> 3
<MEAN> 39
 -2.852460e+01 -1.830915e+01 4.713043e+00 -9.218454e+00 1.097153e+01 -5.909444e+00 6.828046e+00 -1.046117e+01 -1.511068e+00 -4.694118e+00 2.283456e-01 1.675215e+00 7.410359e+01 -2.204757e+00 -1.458497e+00 1.485055e+00 -3.457129e+00 2.462171e+00 -1.293847e+00 4.584894e-01 -8.287045e-01 6.524826e-02 -7.078293e-01 8.626897e-01 -1.988539e-01 3.442211e+00 7.364450e-01 9.602150e-01 -3.139929e-01 7.196853e-01 -9.188234e-01 1.083819e+00 -7.055207e-01 8.921515e-01 -1.269455e-01 1.962336e-01 -1.055671e-01 -2.583930e-01 -1.137297e+00
<VARIANCE> 39
 1.860773e+01 2.551507e+01 5.058812e+01 5.217947e+01 4.377361e+01 3.770717e+01 3.382202e+01 3.299807e+01 3.045299e+01 2.543800e+01 3.176132e+01 2.084422e+01 3.035806e+01 3.462778e+00 6.089679e+00 4.393532e+00 5.220363e+00 7.081531e+00 7.657802e+00 4.790649e+00 6.297491e+00 2.340900e+00 2.471977e+00 2.022484e+00 1.844394e+00 6.334838e+00 3.610811e-01 9.704461e-01 8.327839e-01 9.149841e-01 8.608629e-01 8.238018e-01 7.536381e-01 1.077216e+00 5.060161e-01 5.010394e-01 4.942092e-01 4.698531e-01 4.178321e-01
<GCONST> 1.296276e+02
<STATE> 4
<MEAN> 39
 -2.791175e+01 -1.758265e+01 1.038373e+01 -1.237445e+01 9.025273e+00 1.862215e+00 2.706035e+00 -6.880173e+00 -2.622828e+00 -4.947429e+00 -1.488509e-01 1.045108e+00 7.285322e+01 1.183754e+00 9.515123e-01 1.294686e-01 9.441786e-01 -1.247812e+00 1.483153e+00 -8.008066e-01 1.139557e+00 -5.111848e-01 3.228055e-01 -6.121520e-01 -7.400405e-02 -1.785456e+00 1.942822e-01 2.558655e-01 -2.182227e-01 3.049662e-01 -2.471281e-01 8.367143e-02 -1.041078e-01 1.443204e-01 -1.242084e-02 1.159215e-01 -2.143217e-02 -4.443723e-02 -3.255784e-01
<VARIANCE> 39
 2.680339e+01 2.333892e+01 2.897303e+01 2.714289e+01 4.173183e+01 5.524438e+01 3.036888e+01 3.905224e+01 3.010812e+01 2.113363e+01 2.847484e+01 1.487711e+01 5.176254e+01 1.776351e+00 2.590487e+00 1.811200e+00 2.080176e+00 2.511928e+00 2.155651e+00 2.266841e+00 2.897755e+00 2.130236e+00 1.858148e+00 1.614070e+00 1.130653e+00 2.612380e+00 2.402935e-01 3.117878e-01 2.519457e-01 2.581154e-01 3.298408e-01 3.722946e-01 3.977115e-01 4.671258e-01 4.517415e-01 3.544188e-01 3.795730e-01 2.372799e-01 2.748305e-01
<GCONST> 1.107824e+02
<TRANSP> 5
 0.000000e+00 1.000000e+00 0.000000e+00 0.000000e+00 0.000000e+00
 0.000000e+00 7.512115e-01 2.487885e-01 0.000000e+00 0.000000e+00
 0.000000e+00 0.000000e+00 7.817012e-01 2.182988e-01 0.000000e+00
 0.000000e+00 0.000000e+00 0.000000e+00 9.004353e-01 9.956471e-02
 0.000000e+00 0.000000e+00 0.000000e+00 0.000000e+00 0.000000e+00
<ENDHMM>
~h "sil"
<BEGINHMM>
<NUMSTATES> 5
<STATE> 2
<MEAN> 39
 -1.560947e+01 -6.414652e-01 -3.475218e+00 5.251373e+00 -4.654844e+00 1.227151e+01 -6.641470e+00 3.036848e+00 -4.583134e+00 1.236161e+00 -2.834360e+00 -3.160410e+00 4.970964e+01 3.812786e-02 9.779848e-01 -6.726145e-01 5.623153e-01 -3.304615e-01 2.047274e-01 -2.961924e-02 7.507830e-01 4.877017e-01 2.537295e-01 3.556846e-01 -9.354024e-02 -9.650953e-01 -6.363212e-02 -1.802680e-01 5.228280e-02 -1.105293e-01 1.305867e-01 -2.478956e-01 1.065803e-01 -9.760636e-02 3.489114e-02 -8.499680e-02 3.616154e-03 8.621035e-02 2.203310e-01
<VARIANCE> 39
 7.260114e+01 5.606102e+01 5.511481e+01 3.676090e+01 2.252395e+01 2.587638e+01 3.472881e+01 2.782752e+01 2.487721e+01 2.373146e+01 1.654938e+01 1.638645e+01 8.832336e+01 1.020387e+00 1.468726e+00 1.727912e+00 1.955041e+00 2.426557e+00 2.215731e+00 1.809946e+00 1.979401e+00 2.249333e+00 1.641920e+00 1.404578e+00 1.284932e+00 7.105204e-01 1.018684e-01 1.770968e-01 1.888131e-01 2.381276e-01 3.605046e-01 3.471340e-01 3.393918e-01 3.620922e-01 4.083468e-01 3.049668e-01 2.788370e-01 2.279804e-01 7.519571e-02
<GCONST> 1.047255e+02
<STATE> 3
~s "silst"
<STATE> 4
<MEAN> 39
 -1.330675e+01 3.372869e+00 -7.118376e+00 7.484347e+00 -6.561399e+00 1.004601e+01 -5.868695e+00 6.105978e+00 -3.480770e+00 4.146078e-01 -1.961398e+00 -2.865501e+00 4.774808e+01 -7.851990e-02 9.677553e-02 -9.443102e-02 -2.071752e-02 -7.488654e-02 -3.630055e-02 1.337156e-02 1.066221e-01 7.306168e-02 -1.283781e-02 2.426603e-02 4.250744e-02 -1.441433e-01 5.581464e-03 -9.049506e-02 3.770020e-02 7.012470e-04 3.784867e-03 -2.460025e-02 1.925578e-02 -7.317276e-02 -5.326170e-02 -1.087099e-02 3.992298e-03 -2.274160e-03 7.523311e-02
<VARIANCE> 39
 1.429107e+01 7.668494e+00 1.455820e+01 9.827769e+00 1.099088e+01 1.415100e+01 1.839044e+01 1.537915e+01 1.369169e+01 1.128995e+01 1.055893e+01 9.521358e+00 8.964445e+00 9.792475e-02 3.106019e-01 3.618039e-01 4.475730e-01 5.862362e-01 6.698228e-01 7.957960e-01 8.613054e-01 8.664777e-01 8.854362e-01 8.172339e-01 7.386214e-01 9.232665e-02 2.564976e-02 9.547438e-02 8.252633e-02 1.077497e-01 1.352979e-01 1.699207e-01 1.782023e-01 2.032850e-01 1.889280e-01 1.860817e-01 1.746697e-01 1.559679e-01 4.797714e-02
<GCONST> 6.628208e+01
<TRANSP> 5
 0.000000e+00 1.000000e+00 0.000000e+00 0.000000e+00 0.000000e+00
 0.000000e+00 7.192957e-01 5.937586e-02 2.213285e-01 0.000000e+00
 0.000000e+00 0.000000e+00 8.508695e-01 1.491305e-01 0.000000e+00
 0.000000e+00 4.424113e-03 0.000000e+00 8.962849e-01 9.929096e-02
 0.000000e+00 0.000000e+00 0.000000e+00 0.000000e+00 0.000000e+00
<ENDHMM>
