~o
<STREAMINFO> 1 39
<VECSIZE> 39<NULLD><MFCC_D_A_0><DIAGC>
~s "silst"
<MEAN> 39
 -1.722565e+01 1.776129e+00 -7.264694e+00 6.703979e+00 -7.233201e+00 8.620646e+00 -6.024704e+00 5.389096e+00 -5.126490e+00 4.069141e-01 -1.723612e-02 -1.669649e+00 4.583596e+01 6.082226e-01 -1.515318e-01 -1.358632e-02 4.608123e-01 -1.193609e-01 -7.134870e-02 3.066790e-01 1.298365e-01 -1.660771e-01 2.416887e-02 1.034437e-01 -1.979104e-02 4.225239e-01 -2.979722e-02 1.934189e-01 -1.933995e-02 -1.578185e-01 1.350095e-01 1.193890e-01 -1.156365e-01 -1.569586e-02 2.203225e-01 1.976074e-02 -1.452956e-01 9.472022e-04 -7.153594e-02
<VARIANCE> 39
 1.081871e+02 8.184249e+01 3.876107e+01 5.389871e+01 3.824496e+01 6.095008e+01 5.391934e+01 4.083067e+01 4.838881e+01 2.644431e+01 2.936619e+01 2.138282e+01 1.327664e+02 9.039718e+00 6.764704e+00 2.099607e+00 4.650936e+00 3.530571e+00 4.887499e+00 4.256481e+00 3.796167e+00 4.878094e+00 2.701089e+00 3.059920e+00 1.827300e+00 8.692947e+00 1.276128e+00 1.137234e+00 3.798245e-01 8.234378e-01 6.531549e-01 9.173725e-01 7.641044e-01 7.374905e-01 8.869869e-01 5.312514e-01 5.990750e-01 3.711977e-01 1.253508e+00
<GCONST> 1.369261e+02
~h "k"
<BEGINHMM>
<NUMSTATES> 5
<STATE> 2
<MEAN> 39
 -1.304243e+01 1.257873e+00 -5.980669e+00 7.862879e+00 -4.946867e+00 1.079044e+01 -4.291949e+00 6.225754e+00 -3.162120e+00 1.475619e+00 -1.731651e+00 -2.706063e+00 4.964294e+01 -5.002627e-01 -4.150512e+00 4.232759e-01 -1.790350e+00 2.029505e+00 -2.895884e+00 5.483961e-01 -3.300673e+00 1.423940e-01 -8.402650e-02 9.507574e-02 -1.737922e-02 4.632247e+00 -2.227808e-01 -1.935138e+00 2.312512e-01 -1.070027e+00 8.804478e-01 -1.356078e+00 1.956166e-01 -1.722472e+00 8.687869e-02 -2.922028e-01 -2.034212e-02 -1.128436e-01 2.424949e+00
<VARIANCE> 39
 1.398995e+01 3.961039e+01 1.842916e+01 1.896694e+01 2.230598e+01 3.223554e+01 3.299858e+01 2.770781e+01 2.039575e+01 1.837157e+01 1.483270e+01 1.372201e+01 2.192142e+01 1.236253e+00 1.721975e+01 2.059957e+00 6.195600e+00 5.924316e+00 1.082915e+01 3.344007e+00 1.353199e+01 2.823362e+00 2.696614e+00 1.925825e+00 1.796048e+00 2.234203e+01 1.426352e-01 1.259994e+00 3.014367e-01 4.519689e-01 5.893738e-01 8.587288e-01 5.409238e-01 8.638712e-01 4.970769e-01 4.322982e-01 3.457883e-01 3.100589e-01 1.138454e+00
<GCONST> 1.227399e+02
<STATE> 3
<MEAN> 39
 -1.685522e+01 -2.715420e+01 -1.582048e+00 -7.592030e+00 7.450572e+00 -8.262024e+00 -1.168169e+00 -1.996506e+01 -8.824412e-01 -1.533983e+00 -2.540627e+00 -4.809635e+00 8.402686e+01 -6.516196e-02 -1.743566e+00 6.299220e-01 -8.844867e-01 2.411526e-01 -5.191233e-01 -1.548269e-01 -1.943414e+00 7.963043e-02 1.010528e-01 -3.456739e-01 -4.401864e-01 1.594544e+00 3.528065e-01 1.506773e+00 -2.243670e-01 9.440079e-01 -8.447726e-01 1.296559e+00 -3.746377e-01 1.458186e+00 -1.471889e-01 3.856954e-01 -1.134357e-01 1.375175e-01 -2.160815e+00
<VARIANCE> 39
 7.127476e+00 1.278512e+01 1.575965e+01 1.938317e+01 1.977835e+01 3.991717e+01 2.656503e+01 3.467249e+01 3.047450e+01 2.484558e+01 2.503800e+01 2.733818e+01 2.196459e+01 1.206696e+00 1.652016e+01 1.575824e+00 7.248788e+00 6.089928e+00 1.306597e+01 2.716872e+00 1.446399e+01 2.437574e+00 3.529598e+00 1.660372e+00 1.882790e+00 3.313179e+01 1.652229e-01 1.209358e+00 4.064586e-01 5.278690e-01 6.450827e-01 1.086508e+00 4.665055e-01 9.519536e-01 4.779346e-01 5.866129e-01 3.502711e-01 4.368343e-01 1.723923e+00
<GCONST> 1.250033e+02
<STATE> 4
<MEAN> 39
 -1.026019e+01 -1.602628e+01 -5.082822e+00 4.574926e+00 -2.148497e+00 6.333644e+00 -8.941095e+00 -1.005175e+01 -4.903473e+00 3.742194e+00 -5.690969e+00 -3.998828e+00 6.347926e+01 7.634612e-01 1.921166e+00 -1.022848e+00 1.914798e+00 -1.028729e+00 1.738865e+00 -5.797462e-01 1.757516e+00 -4.633661e-01 4.163126e-01 -5.861323e-02 1.855506e-01 -2.583566e+00 -2.147034e-01 -3.067153e-02 2.455571e-02 -1.576367e-01 2.451098e-01 -2.468509e-01 2.911611e-01 -1.026568e-01 1.130136e-01 -1.478347e-01 1.664446e-01 -1.067495e-01 3.491108e-01
<VARIANCE> 39
 1.136391e+01 3.282915e+01 1.972773e+01 4.690968e+01 2.066171e+01 4.120130e+01 2.982852e+01 4.079882e+01 4.652788e+01 1.907800e+01 2.418033e+01 2.550498e+01 3.527058e+01 1.330526e+00 1.152340e+00 1.449296e+00 2.174367e+00 2.359160e+00 2.767923e+00 3.418575e+00 5.016317e+00 4.335197e+00 2.132635e+00 1.995944e+00 1.953544e+00 2.615587e+00 1.776082e-01 2.498178e-01 3.230042e-01 3.992173e-01 3.320917e-01 4.161186e-01 5.283387e-01 9.805674e-01 9.883108e-01 4.862475e-01 3.703502e-01 3.739712e-01 2.857535e-01
<GCONST> 1.141334e+02
<TRANSP> 5
 0.000000e+00 1.000000e+00 0.000000e+00 0.000000e+00 0.000000e+00
 0.000000e+00 7.332205e-01 2.667795e-01 0.000000e+00 0.000000e+00
 0.000000e+00 0.000000e+00 8.418381e-01 1.581619e-01 0.000000e+00
 0.000000e+00 0.000000e+00 0.000000e+00 8.707780e-01 1.292220e-01
 0.000000e+00 0.000000e+00 0.000000e+00 0.000000e+00 0.000000e+00
<ENDHMM>
~h "p"
<BEGINHMM>
<NUMSTATES> 5
<STATE> 2
<MEAN> 39
 -1.331013e+01 3.402405e+00 -5.701205e+00 7.725904e+00 -6.541076e+00 1.050957e+01 -4.927559e+00 6.684766e+00 -3.400933e+00 3.248746e-01 -2.292279e+00 -3.091515e+00 4.811644e+01 8.287606e-01 -2.279522e+00 1.408490e+00 -1.455174e+00 1.581955e+00 -2.407314e+00 7.363135e-01 -2.355761e+00 -3.981587e-01 -1.452525e+00 1.760687e-01 1.092203e-01 4.425416e+00 5.813832e-01 -1.023190e+00 9.017521e-01 -5.905427e-01 9.514992e-01 -9.610865e-01 4.316571e-01 -1.101849e+00 -9.711859e-02 -7.822665e-01 -1.565468e-03 -4.565483e-02 2.348469e+00
<VARIANCE> 39
 1.375618e+01 8.906559e+00 1.696024e+01 1.116616e+01 1.229923e+01 1.636271e+01 2.409995e+01 1.728099e+01 1.548344e+01 1.211971e+01 1.067803e+01 9.049336e+00 1.009408e+01 1.376748e+00 5.057573e+00 3.874414e+00 3.330600e+00 4.355559e+00 6.248011e+00 2.875256e+00 7.009583e+00 2.536634e+00 3.986126e+00 1.650407e+00 1.494627e+00 1.876330e+01 1.173493e-01 2.713436e-01 2.249528e-01 3.698608e-01 3.626017e-01 5.241169e-01 3.990700e-01 5.072100e-01 3.950985e-01 3.232988e-01 2.607782e-01 2.435020e-01 5.907019e-01
<GCONST> 1.076044e+02
<STATE> 3
<MEAN> 39
 -5.253330e+00 -1.026859e+01 5.317258e+00 1.207738e-01 5.285617e+00 -2.261939e+00 7.208996e-01 -7.322654e+00 -4.946058e+00 -9.903227e+00 -2.806602e+00 -3.215501e+00 7.801089e+01 1.697558e+00 -4.377731e-01 7.503881e-01 6.499643e-01 3.897810e-01 6.302531e-01 3.784979e-01 7.351130e-02 3.154735e-02 -7.571412e-01 -9.422477e-01 -3.010149e-01 1.352131e+00 -2.528896e-01 1.266156e+00 -1.002661e+00 1.024633e+00 -1.305070e+00 1.427456e+00 -6.211220e-01 1.416280e+00 6.779456e-02 8.951491e-01 -2.311370e-01 -4.688732e-02 -2.717937e+00
<VARIANCE> 39
 1.099532e+01 1.332178e+01 1.625748e+01 2.784325e+01 2.536447e+01 4.662579e+01 3.164520e+01 3.992583e+01 2.828185e+01 2.443189e+01 2.802615e+01 2.145885e+01 4.786026e+01 1.190348e+00 7.235160e+00 6.139931e+00 6.214815e+00 9.909195e+00 1.298128e+01 4.143087e+00 1.300029e+01 2.436779e+00 5.148133e+00 2.191190e+00 1.426657e+00 4.032843e+01 1.852914e-01 4.661281e-01 5.329850e-01 5.692576e-01 7.583047e-01 1.296451e+00 6.511660e-01 1.237644e+00 5.788539e-01 5.464250e-01 5.060784e-01 3.446401e-01 2.290369e+00
<GCONST> 1.298632e+02
<STATE> 4
<MEAN> 39
 -2.887740e+00 3.362850e+00 -2.671246e-01 1.207613e+01 -4.160063e+00 9.657580e+00 -4.823690e+00 2.521620e+00 -7.927390e+00 -4.754638e+00 -7.135967e+00 -5.938464e+00 5.777288e+01 -4.743348e-01 1.209726e+00 -5.707485e-01 4.871684e-01 -5.550141e-01 5.001717e-01 -4.079240e-01 4.787153e-01 -3.833923e-01 4.888931e-01 7.095575e-02 -1.425425e-01 -1.734869e+00 -2.020817e-01 -2.113915e-01 1.340410e-01 -3.251168e-01 2.799651e-01 -2.844006e-01 1.445644e-01 -2.189513e-01 5.892280e-02 -9.616518e-02 1.452159e-01 4.809298e-02 3.477418e-01
<VARIANCE> 39
 1.135979e+01 3.316064e+01 2.515021e+01 1.920063e+01 1.849191e+01 1.967883e+01 2.176708e+01 1.690960e+01 2.302842e+01 1.753051e+01 1.719780e+01 1.587877e+01 2.435764e+01 7.669435e-01 1.408662e+00 1.715550e+00 2.323130e+00 3.050904e+00 2.425465e+00 1.824986e+00 2.100967e+00 1.898412e+00 1.856163e+00 1.377802e+00 1.223518e+00 1.713212e+00 6.663913e-02 1.387316e-01 2.561937e-01 3.012363e-01 4.662414e-01 5.751307e-01 3.264096e-01 4.377233e-01 4.119276e-01 3.440699e-01 3.091702e-01 2.441075e-01 1.586831e-01
<GCONST> 1.006364e+02
<TRANSP> 5
 0.000000e+00 1.000000e+00 0.000000e+00 0.000000e+00 0.000000e+00
 0.000000e+00 6.963881e-01 3.036119e-01 0.000000e+00 0.000000e+00
 0.000000e+00 0.000000e+00 7.810256e-01 2.189744e-01 0.000000e+00
 0.000000e+00 0.000000e+00 0.000000e+00 8.948313e-01 1.051687e-01
 0.000000e+00 0.000000e+00 0.000000e+00 0.000000e+00 0.000000e+00
<ENDHMM>
~h "s"
<BEGINHMM>
<NUMSTATES> 5
<STATE> 2
<MEAN> 39
 -1.421852e+01 -1.300017e+00 -3.396383e+00 8.080037e+00 -5.146428e+00 8.972652e+00 -2.668407e+00 3.165408e+00 -3.830873e+00 -8.120316e-02 -3.061111e+00 -1.722857e+00 5.164412e+01 -1.885796e+00 -3.487045e+00 1.307965e+00 -1.458439e+00 1.733887e+00 -2.426639e+00 2.127845e+00 -2.775038e+00 4.024304e-01 -6.689728e-01 1.962166e-01 1.179392e+00 3.158331e+00 -8.159639e-01 -9.665866e-01 5.395655e-01 -1.054265e+00 1.052809e+00 -8.735142e-01 5.304999e-01 -8.192734e-01 1.212011e-01 -3.076615e-01 1.791559e-01 1.614296e-01 1.356873e+00
<VARIANCE> 39
 1.900308e+01 6.401070e+01 3.315672e+01 2.679459e+01 2.758868e+01 4.823635e+01 4.571238e+01 5.719119e+01 2.909941e+01 2.446159e+01 2.691822e+01 2.579237e+01 3.173061e+01 3.324668e+00 9.199410e+00 4.684541e+00 6.292407e+00 6.757070e+00 7.762659e+00 5.066836e+00 8.534134e+00 3.245853e+00 3.007740e+00 2.697893e+00 2.502536e+00 8.045565e+00 2.454482e-01 1.409252e+00 7.230731e-01 7.842552e-01 7.072425e-01 9.954227e-01 8.281552e-01 1.318252e+00 5.088913e-01 4.872225e-01 4.871535e-01 5.205473e-01 6.067024e-01
<GCONST> 1.328465e+02
<STATE> 3
<MEAN> 39
 -2.848731e+01 -1.810537e+01 4.989856e+00 -9.012344e+00 1.114080e+01 -5.806478e+00 7.197290e+00 -1.042124e+01 -1.583920e+00 -4.942597e+00 3.343450e-01 1.761798e+00 7.403838e+01 -2.274373e+00 -1.468245e+00 1.487905e+00 -3.468428e+00 2.507720e+00 -1.257833e+00 4.992389e-01 -8.733520e-01 8.028885e-02 -7.160112e-01 8.532130e-01 -1.977085e-01 3.422960e+00 7.640216e-01 9.829102e-01 -3.216700e-01 7.425225e-01 -9.362083e-01 1.098260e+00 -7.312744e-01 8.955870e-01 -1.381407e-01 2.154120e-01 -1.254360e-01 -2.638556e-01 -1.141388e+00
<VARIANCE> 39
 1.846076e+01 2.525414e+01 5.007915e+01 5.055223e+01 4.298399e+01 3.883836e+01 3.259749e+01 3.350630e+01 3.157473e+01 2.459346e+01 3.233653e+01 2.132232e+01 2.932324e+01 3.534407e+00 6.090054e+00 4.409243e+00 5.299544e+00 7.021357e+00 7.717223e+00 4.826854e+00 6.193037e+00 2.326645e+00 2.505563e+00 2.041175e+00 1.843039e+00 6.235794e+00 3.630181e-01 9.625537e-01 8.196327e-01 9.162143e-01 8.617204e-01 8.406488e-01 7.374944e-01 1.052687e+00 5.028697e-01 4.955219e-01 4.806294e-01 4.778124e-01 4.134721e-01
<GCONST> 1.295152e+02
<STATE> 4
<MEAN> 39
 -2.819125e+01 -1.765390e+01 1.064031e+01 -1.234090e+01 9.347846e+00 1.675153e+00 3.147005e+00 -7.331188e+00 -2.455257e+00 -5.083879e+00 2.630140e-02 1.208875e+00 7.329198e+01 1.162250e+00 9.053485e-01 1.699169e-01 8.860964e-01 -1.212137e+00 1.426772e+00 -7.661457e-01 1.105268e+00 -4.907496e-01 3.178882e-01 -6.086710e-01 -5.874422e-02 -1.703110e+00 2.118057e-01 2.678328e-01 -2.166526e-01 3.061829e-01 -2.526696e-01 8.967032e-02 -1.140765e-01 1.640186e-01 -2.351501e-02 1.142223e-01 -3.929105e-02 -4.182534e-02 -3.436829e-01
<VARIANCE> 39
 2.572278e+01 2.152376e+01 2.948014e+01 2.545956e+01 4.084087e+01 5.484544e+01 2.910171e+01 3.702910e+01 2.941901e+01 2.078779e+01 2.824537e+01 1.486415e+01 4.784623e+01 1.835613e+00 2.554113e+00 1.803074e+00 2.088552e+00 2.539251e+00 2.167752e+00 2.259272e+00 2.952176e+00 2.051279e+00 1.843322e+00 1.579075e+00 1.062248e+00 2.665391e+00 2.354938e-01 3.021772e-01 2.586085e-01 2.600586e-01 3.305133e-01 3.705447e-01 3.909253e-01 4.574668e-01 4.210660e-01 3.532604e-01 3.553774e-01 2.219771e-01 2.496980e-01
<GCONST> 1.099409e+02
<TRANSP> 5
 0.000000e+00 1.000000e+00 0.000000e+00 0.000000e+00 0.000000e+00
 0.000000e+00 7.523510e-01 2.476490e-01 0.000000e+00 0.000000e+00
 0.000000e+00 0.000000e+00 7.762360e-01 2.237640e-01 0.000000e+00
 0.000000e+00 0.000000e+00 0.000000e+00 9.000640e-01 9.993600e-02
 0.000000e+00 0.000000e+00 0.000000e+00 0.000000e+00 0.000000e+00
<ENDHMM>
~h "sil"
<BEGINHMM>
<NUMSTATES> 5
<STATE> 2
<MEAN> 39
 -1.568457e+01 -4.569729e-01 -2.795458e+00 4.974247e+00 -4.448193e+00 1.237753e+01 -6.423798e+00 3.218645e+00 -4.560842e+00 1.036517e+00 -2.863338e+00 -2.938730e+00 4.990723e+01 1.193806e-01 1.020358e+00 -7.067964e-01 6.007227e-01 -3.972935e-01 2.378133e-01 -9.930208e-02 7.587848e-01 4.527723e-01 2.491105e-01 3.361241e-01 -1.280493e-01 -9.849582e-01 -7.661649e-02 -1.884389e-01 4.844977e-02 -1.089625e-01 1.327678e-01 -2.524693e-01 1.154983e-01 -1.209877e-01 3.602612e-02 -9.078798e-02 1.139124e-02 7.955659e-02 2.287416e-01
<VARIANCE> 39
 7.488682e+01 5.506183e+01 5.894851e+01 3.863439e+01 2.392457e+01 2.785940e+01 3.649070e+01 2.655909e+01 2.540941e+01 2.357411e+01 1.690614e+01 1.642814e+01 9.276006e+01 1.034112e+00 1.507791e+00 1.753295e+00 1.966499e+00 2.500651e+00 2.327131e+00 1.865627e+00 1.970878e+00 2.174132e+00 1.644499e+00 1.417737e+00 1.255453e+00 7.518997e-01 1.039440e-01 1.812651e-01 1.875820e-01 2.320699e-01 3.620423e-01 3.559043e-01 3.392214e-01 3.620658e-01 3.987703e-01 3.048464e-01 2.888426e-01 2.277326e-01 7.757762e-02
<GCONST> 1.053363e+02
<STATE> 3
~s "silst"
<STATE> 4
<MEAN> 39
 -1.271548e+01 3.813724e+00 -6.672940e+00 7.676816e+00 -6.439346e+00 1.005797e+01 -5.904778e+00 6.003256e+00 -3.643972e+00 2.434069e-01 -2.135393e+00 -2.980173e+00 4.811843e+01 -8.217677e-02 1.014734e-01 -1.020439e-01 -2.609224e-02 -8.043582e-02 -3.653643e-02 1.492094e-02 1.141842e-01 8.082259e-02 -8.930090e-03 2.612545e-02 4.373526e-02 -1.511038e-01 4.057157e-03 -9.645446e-02 3.877677e-02 -8.247381e-04 5.309699e-03 -2.713181e-02 2.368974e-02 -7.436338e-02 -5.294364e-02 -1.103855e-02 4.950961e-03 1.085854e-03 7.950193e-02
<VARIANCE> 39
 1.300916e+01 6.540734e+00 1.457554e+01 1.030496e+01 1.175063e+01 1.536167e+01 2.002318e+01 1.650982e+01 1.441237e+01 1.168267e+01 1.092891e+01 9.968374e+00 8.467328e+00 9.999570e-02 3.225999e-01 3.712696e-01 4.505555e-01 5.939968e-01 6.842399e-01 8.078510e-01 8.667302e-01 8.831939e-01 9.036123e-01 8.312423e-01 7.527603e-01 9.236430e-02 2.610917e-02 9.993911e-02 8.330669e-02 1.082452e-01 1.372462e-01 1.756838e-01 1.821372e-01 2.058806e-01 1.913771e-01 1.890761e-01 1.788216e-01 1.584687e-01 5.151714e-02
<GCONST> 6.701323e+01
<TRANSP> 5
 0.000000e+00 1.000000e+00 0.000000e+00 0.000000e+00 0.000000e+00
 0.000000e+00 7.126372e-01 5.894784e-02 2.284149e-01 0.000000e+00
 0.000000e+00 0.000000e+00 8.510337e-01 1.489663e-01 0.000000e+00
 0.000000e+00 4.041909e-03 0.000000e+00 8.938256e-01 1.021325e-01
 0.000000e+00 0.000000e+00 0.000000e+00 0.000000e+00 0.000000e+00
<ENDHMM>
