~o
<STREAMINFO> 1 39
<VECSIZE> 39<NULLD><MFCC_D_A_0><DIAGC>
~s "silst"
<MEAN> 39
 -1.502198e+01 -2.058410e+00 -1.277781e+00 7.721401e+00 -6.355456e+00 1.272605e+01 -2.297736e+00 4.021445e+00 -7.308051e+00 -4.984913e-01 -1.885199e+00 -2.129822e+00 5.095475e+01 6.230283e-01 4.999793e-01 -4.375255e-01 9.212984e-01 -2.193806e-01 3.548794e-02 3.267411e-01 5.239344e-01 2.201203e-01 1.948671e-01 1.737897e-01 -1.443626e-01 -1.981241e-01 -2.616514e-01 1.139696e-01 -4.002974e-02 -2.746706e-01 3.357681e-01 -7.398640e-02 -1.020676e-01 3.938170e-03 2.942989e-01 3.327495e-02 -8.638749e-02 6.321821e-02 -8.481120e-02
<VARIANCE> 39
 3.057797e+01 5.083096e+01 5.787332e+01 4.752312e+01 3.276841e+01 6.073119e+01 4.334332e+01 4.897583e+01 4.869773e+01 3.824454e+01 3.832398e+01 2.838131e+01 5.469580e+01 3.876428e+00 5.792286e+00 2.759160e+00 3.900096e+00 3.486699e+00 5.070528e+00 4.075922e+00 4.240975e+00 5.401395e+00 3.231326e+00 2.845701e+00 2.087429e+00 5.516133e+00 4.450960e-01 9.010021e-01 3.683235e-01 5.732996e-01 5.882138e-01 9.998779e-01 7.684851e-01 8.332548e-01 9.701826e-01 6.209421e-01 6.296466e-01 4.079860e-01 6.231974e-01
<GCONST> 1.324995e+02
~h "k"
<BEGINHMM>
<NUMSTATES> 5
<STATE> 2
<MEAN> 39
 -1.480128e+01 6.590459e-01 -4.324953e+00 9.247254e+00 -3.662003e+00 1.230541e+01 -2.760757e+00 6.863548e+00 -3.275317e+00 1.320297e+00 -1.712077e+00 -2.495726e+00 4.890437e+01 -1.985537e-01 -4.404965e+00 1.330252e-01 -2.153339e+00 1.751931e+00 -3.174998e+00 3.617425e-01 -3.645682e+00 8.284362e-02 6.075414e-02 6.538767e-02 1.328092e-01 4.976980e+00 -1.069435e-01 -1.969338e+00 8.527518e-02 -1.246625e+00 7.252624e-01 -1.397429e+00 1.738125e-01 -1.762733e+00 9.930308e-02 -2.252229e-01 -3.318536e-02 -1.795849e-02 2.496941e+00
<VARIANCE> 39
 7.731082e+00 4.758059e+01 1.163240e+01 1.739126e+01 1.803143e+01 3.051369e+01 2.912287e+01 3.080889e+01 2.226051e+01 2.116158e+01 1.677297e+01 1.386498e+01 2.468500e+01 8.075637e-01 1.767697e+01 1.668676e+00 7.362574e+00 4.258505e+00 1.158935e+01 3.282020e+00 1.440202e+01 3.023984e+00 2.779113e+00 2.113542e+00 1.653556e+00 2.324208e+01 1.097951e-01 1.467730e+00 2.531117e-01 4.580528e-01 4.773972e-01 9.366663e-01 5.380133e-01 9.974916e-01 5.124488e-01 4.297297e-01 3.780263e-01 2.863601e-01 1.277765e+00
<GCONST> 1.213637e+02
<STATE> 3
<MEAN> 39
 -1.681827e+01 -2.770895e+01 -1.768347e+00 -8.112371e+00 6.312872e+00 -6.954695e+00 -3.930460e-01 -1.998858e+01 -1.065751e+00 -8.110107e-01 -3.089662e+00 -3.824443e+00 8.345333e+01 1.322611e-01 -1.449314e+00 3.056235e-01 -7.432407e-01 -1.277174e-02 -2.399969e-01 -2.644711e-01 -1.495592e+00 -8.748934e-03 1.424111e-01 -4.457686e-01 -3.509601e-01 1.111752e+00 2.480251e-01 1.310184e+00 -1.503866e-01 9.402814e-01 -6.171780e-01 1.150259e+00 -3.436976e-01 1.303161e+00 -1.388644e-01 2.533340e-01 -9.009653e-02 5.658493e-02 -1.877447e+00
<VARIANCE> 39
 7.655478e+00 1.123552e+01 1.528405e+01 1.815032e+01 1.719436e+01 4.116151e+01 2.296856e+01 3.208877e+01 3.211185e+01 2.172888e+01 2.679055e+01 2.476310e+01 2.366921e+01 1.003237e+00 1.562371e+01 1.381407e+00 7.926401e+00 4.159689e+00 1.261597e+01 2.945487e+00 1.447522e+01 2.591069e+00 2.648891e+00 1.688169e+00 1.678168e+00 3.128950e+01 1.280524e-01 1.220828e+00 3.825678e-01 5.104470e-01 4.518901e-01 1.099782e+00 4.764937e-01 8.922939e-01 5.001126e-01 4.710448e-01 3.565877e-01 3.987484e-01 1.626712e+00
<GCONST> 1.224473e+02
<STATE> 4
<MEAN> 39
 -1.027622e+01 -1.459260e+01 -6.008655e+00 7.087800e+00 -2.454793e+00 8.918028e+00 -8.884577e+00 -8.756173e+00 -6.250188e+00 4.253474e+00 -5.765398e+00 -4.408425e+00 6.080779e+01 3.051620e-01 1.853184e+00 -6.341059e-01 1.554563e+00 -4.049314e-01 1.316737e+00 -2.935366e-01 1.458145e+00 -3.232683e-01 3.066059e-01 2.003391e-01 -2.455916e-03 -2.117745e+00 -2.078354e-01 -1.939315e-02 1.130526e-01 -2.437040e-01 1.930521e-01 -2.274069e-01 2.736502e-01 -7.329991e-02 1.395874e-01 -1.347755e-01 1.399853e-01 -3.233536e-02 2.949788e-01
<VARIANCE> 39
 8.774280e+00 3.733826e+01 1.616666e+01 4.644417e+01 1.631383e+01 3.397652e+01 2.910635e+01 3.732573e+01 4.273444e+01 1.981120e+01 2.530636e+01 2.669939e+01 3.351656e+01 1.456913e+00 9.050260e-01 1.299501e+00 2.996117e+00 2.387515e+00 2.841228e+00 3.541743e+00 4.383159e+00 4.901492e+00 2.025489e+00 1.932238e+00 1.733759e+00 1.894302e+00 1.627488e-01 1.917450e-01 2.216537e-01 3.902002e-01 3.573882e-01 3.888406e-01 5.172994e-01 8.340363e-01 1.001334e+00 4.160164e-01 3.571382e-01 3.447056e-01 2.021977e-01
<GCONST> 1.113055e+02
<TRANSP> 5
 0.000000e+00 1.000000e+00 0.000000e+00 0.000000e+00 0.000000e+00
 0.000000e+00 7.217615e-01 2.782385e-01 0.000000e+00 0.000000e+00
 0.000000e+00 0.000000e+00 8.630626e-01 1.369374e-01 0.000000e+00
 0.000000e+00 0.000000e+00 0.000000e+00 8.990400e-01 1.009600e-01
 0.000000e+00 0.000000e+00 0.000000e+00 0.000000e+00 0.000000e+00
<ENDHMM>
~h "p"
<BEGINHMM>
<NUMSTATES> 5
<STATE> 2
<MEAN> 39
 -1.508706e+01 3.204734e+00 -4.179377e+00 8.974577e+00 -5.684564e+00 1.155029e+01 -3.597011e+00 7.253582e+00 -3.511100e+00 3.207826e-01 -2.110623e+00 -3.014912e+00 4.712387e+01 1.135936e+00 -2.467859e+00 1.316545e+00 -1.792127e+00 1.519048e+00 -2.619689e+00 7.793011e-01 -2.602351e+00 -3.362211e-01 -1.497569e+00 7.268918e-02 8.291604e-02 4.963354e+00 7.111809e-01 -1.023251e+00 8.463741e-01 -7.500741e-01 9.070778e-01 -9.986736e-01 4.159713e-01 -1.163720e+00 -3.391864e-02 -7.778356e-01 -5.275180e-02 -3.057723e-02 2.516240e+00
<VARIANCE> 39
 6.580475e+00 9.265759e+00 8.986084e+00 7.040835e+00 1.138945e+01 1.569309e+01 2.437032e+01 1.946634e+01 1.717709e+01 1.287679e+01 1.155134e+01 9.756871e+00 8.706491e+00 1.548521e+00 4.908047e+00 3.288213e+00 3.655588e+00 3.998684e+00 6.468951e+00 3.295089e+00 7.478213e+00 2.685128e+00 3.984156e+00 1.678825e+00 1.578954e+00 1.977526e+01 9.658936e-02 2.829284e-01 1.903153e-01 3.365354e-01 3.635622e-01 5.453866e-01 4.602291e-01 5.689897e-01 4.109024e-01 3.246647e-01 2.557622e-01 2.548724e-01 5.782104e-01
<GCONST> 1.062737e+02
<STATE> 3
<MEAN> 39
 -5.342988e+00 -1.017092e+01 5.546557e+00 4.908538e-02 4.753098e+00 -8.539323e-01 1.635306e+00 -6.365069e+00 -4.032240e+00 -9.477537e+00 -3.715361e+00 -3.159412e+00 7.765363e+01 1.775643e+00 -2.657466e-01 4.690875e-01 6.722004e-01 3.164733e-02 7.579213e-01 1.217766e-01 3.089865e-01 7.387081e-02 -5.615067e-01 -9.935507e-01 -3.353136e-01 1.000401e+00 -3.067941e-01 1.118258e+00 -7.705246e-01 1.012818e+00 -1.056898e+00 1.222993e+00 -5.491279e-01 1.205530e+00 -5.702670e-02 7.477688e-01 -1.183851e-01 -5.202470e-02 -2.412047e+00
<VARIANCE> 39
 1.733213e+01 1.521108e+01 1.662056e+01 3.155983e+01 2.643367e+01 5.152839e+01 2.751188e+01 4.506980e+01 2.723660e+01 2.338360e+01 2.921318e+01 2.289427e+01 5.338269e+01 1.403781e+00 6.830144e+00 4.886651e+00 7.020856e+00 8.847425e+00 1.253919e+01 4.489922e+00 1.276826e+01 2.335836e+00 4.427603e+00 2.003320e+00 1.441283e+00 4.021383e+01 1.836892e-01 5.179148e-01 4.282022e-01 6.365848e-01 7.344257e-01 1.544582e+00 7.082156e-01 1.573156e+00 5.577780e-01 4.896279e-01 5.143525e-01 3.476080e-01 2.973038e+00
<GCONST> 1.310900e+02
<STATE> 4
<MEAN> 39
 -3.507548e+00 4.384529e+00 1.004684e+00 1.292662e+01 -3.707084e+00 1.059903e+01 -4.272715e+00 2.920387e+00 -8.115376e+00 -4.641399e+00 -7.615359e+00 -6.356887e+00 5.694176e+01 -6.217608e-01 1.029836e+00 -3.691410e-01 4.141682e-01 -2.889485e-01 3.719851e-01 -2.373511e-01 3.598819e-01 -3.201942e-01 3.823047e-01 1.235123e-01 -1.050352e-01 -1.501432e+00 -1.739833e-01 -2.040634e-01 9.476801e-02 -2.815065e-01 2.339863e-01 -2.232059e-01 1.375214e-01 -1.666432e-01 7.731726e-02 -7.659900e-02 1.052818e-01 5.262430e-02 2.851565e-01
<VARIANCE> 39
 1.575243e+01 3.264161e+01 1.759699e+01 1.769564e+01 1.728254e+01 1.691958e+01 1.889853e+01 1.681854e+01 2.179468e+01 1.779480e+01 1.515142e+01 1.604423e+01 2.524746e+01 7.141638e-01 1.579266e+00 1.355504e+00 2.044713e+00 2.416247e+00 1.997629e+00 1.653973e+00 1.629417e+00 1.803668e+00 1.683653e+00 1.199978e+00 1.217551e+00 1.183764e+00 7.258473e-02 1.291737e-01 2.240163e-01 3.011687e-01 4.154408e-01 5.172903e-01 3.243733e-01 3.864141e-01 3.450570e-01 3.059319e-01 2.602504e-01 2.374912e-01 1.099742e-01
<GCONST> 9.692760e+01
<TRANSP> 5
 0.000000e+00 1.000000e+00 0.000000e+00 0.000000e+00 0.000000e+00
 0.000000e+00 6.768907e-01 3.231093e-01 0.000000e+00 0.000000e+00
 0.000000e+00 0.000000e+00 8.074038e-01 1.925962e-01 0.000000e+00
 0.000000e+00 0.000000e+00 0.000000e+00 9.058131e-01 9.418695e-02
 0.000000e+00 0.000000e+00 0.000000e+00 0.000000e+00 0.000000e+00
<ENDHMM>
~h "s"
<BEGINHMM>
<NUMSTATES> 5
<STATE> 2
<MEAN> 39
 -1.538957e+01 -2.267811e+00 -2.427817e+00 8.706654e+00 -4.012121e+00 9.490457e+00 -1.560873e+00 2.494085e+00 -4.217023e+00 -2.195671e-01 -3.417003e+00 -1.235855e+00 5.168410e+01 -1.890138e+00 -3.905123e+00 1.160126e+00 -1.944747e+00 1.924185e+00 -2.651109e+00 2.204181e+00 -3.075241e+00 4.002337e-01 -6.910377e-01 1.774923e-01 1.390254e+00 3.604691e+00 -7.957891e-01 -9.392214e-01 5.004971e-01 -1.205535e+00 1.042680e+00 -9.169171e-01 4.971135e-01 -7.790587e-01 1.102392e-01 -3.215996e-01 2.114420e-01 1.174310e-01 1.413645e+00
<VARIANCE> 39
 1.542691e+01 7.628980e+01 2.860309e+01 2.512173e+01 2.506077e+01 5.193483e+01 4.883178e+01 6.668217e+01 2.888820e+01 2.388944e+01 2.701854e+01 2.859274e+01 3.829165e+01 2.935326e+00 9.182512e+00 4.120496e+00 6.915254e+00 6.544644e+00 8.415343e+00 5.206704e+00 8.402713e+00 3.217655e+00 2.787241e+00 2.632420e+00 2.429999e+00 8.620235e+00 2.161594e-01 1.602755e+00 6.661080e-01 6.698155e-01 6.491032e-01 1.085766e+00 8.945651e-01 1.451463e+00 4.926610e-01 4.442427e-01 4.694615e-01 5.881581e-01 6.929205e-01
<GCONST> 1.329223e+02
<STATE> 3
<MEAN> 39
 -2.832913e+01 -1.859595e+01 4.630213e+00 -9.585522e+00 1.123203e+01 -5.651651e+00 7.615365e+00 -1.055371e+01 -2.176191e+00 -4.842108e+00 2.695166e-02 1.787606e+00 7.424664e+01 -2.176828e+00 -1.297278e+00 1.347218e+00 -3.564957e+00 2.317388e+00 -1.427090e+00 4.489664e-01 -8.118256e-01 1.589571e-01 -6.528131e-01 8.807033e-01 -3.171455e-01 3.443857e+00 7.199740e-01 1.039823e+00 -2.774733e-01 8.780973e-01 -9.042705e-01 1.149649e+00 -7.258383e-01 9.334018e-01 -1.313262e-01 2.220851e-01 -1.439229e-01 -2.725438e-01 -1.206303e+00
<VARIANCE> 39
 1.760676e+01 2.609302e+01 5.203478e+01 4.937164e+01 4.200929e+01 4.191093e+01 3.288156e+01 3.483598e+01 3.167875e+01 2.423360e+01 3.442879e+01 2.207339e+01 3.262828e+01 3.297181e+00 6.263321e+00 4.261745e+00 5.687420e+00 6.409432e+00 7.676437e+00 4.672473e+00 6.059187e+00 2.272663e+00 2.597190e+00 2.139761e+00 1.855118e+00 6.517107e+00 3.367961e-01 1.056982e+00 8.096686e-01 8.158069e-01 7.870753e-01 8.141733e-01 7.317928e-01 1.020245e+00 4.810648e-01 5.221218e-01 4.851337e-01 5.038830e-01 4.484134e-01
<GCONST> 1.296435e+02
<STATE> 4
<MEAN> 39
 -2.916916e+01 -1.854102e+01 1.052024e+01 -1.297688e+01 1.011816e+01 1.204704e+00 3.934345e+00 -8.273717e+00 -2.110344e+00 -5.140650e+00 3.782286e-01 1.322119e+00 7.442114e+01 9.109447e-01 6.403216e-01 3.547755e-01 7.759464e-01 -9.179838e-01 1.373370e+00 -5.852337e-01 9.307308e-01 -4.539578e-01 2.115082e-01 -5.686354e-01 -2.503372e-03 -1.503018e+00 2.498656e-01 2.723125e-01 -1.673680e-01 3.241882e-01 -2.565950e-01 1.181218e-01 -1.477291e-01 2.059812e-01 -9.184183e-02 1.061820e-01 -9.925913e-02 -2.698100e-02 -3.898754e-01
<VARIANCE> 39
 1.804199e+01 1.609397e+01 3.078544e+01 2.333017e+01 3.509073e+01 5.319030e+01 2.631597e+01 3.028213e+01 2.477685e+01 1.983071e+01 2.589436e+01 1.489707e+01 3.917354e+01 1.513587e+00 2.062935e+00 1.385025e+00 2.004501e+00 2.147124e+00 2.158174e+00 2.072337e+00 2.810605e+00 1.943430e+00 1.688893e+00 1.547325e+00 9.665342e-01 2.644753e+00 1.771124e-01 2.653044e-01 2.169133e-01 2.515959e-01 3.074091e-01 3.631324e-01 3.747016e-01 4.103394e-01 3.545244e-01 3.229738e-01 2.936713e-01 2.155018e-01 1.890217e-01
<GCONST> 1.053527e+02
<TRANSP> 5
 0.000000e+00 1.000000e+00 0.000000e+00 0.000000e+00 0.000000e+00
 0.000000e+00 7.357256e-01 2.642744e-01 0.000000e+00 0.000000e+00
 0.000000e+00 0.000000e+00 7.628670e-01 2.371330e-01 0.000000e+00
 0.000000e+00 0.000000e+00 0.000000e+00 8.977710e-01 1.022290e-01
 0.000000e+00 0.000000e+00 0.000000e+00 0.000000e+00 0.000000e+00
<ENDHMM>
~h "sil"
<BEGINHMM>
<NUMSTATES> 5
<STATE> 2
<MEAN> 39
 -2.016405e+01 5.313647e-01 -3.002422e-01 2.684764e+00 -2.518910e+00 1.292931e+01 -6.357208e+00 3.953052e+00 -4.492376e+00 -2.766741e-01 -3.391055e+00 -2.115793e+00 4.779190e+01 4.566710e-01 9.444979e-01 -6.566303e-01 8.847587e-01 -8.365765e-01 4.983665e-01 -2.939027e-01 7.561839e-01 2.081906e-01 2.471700e-01 2.797219e-01 -1.588141e-01 -1.002828e+00 1.275630e-02 -2.463198e-01 -3.071911e-02 7.092765e-03 5.145848e-02 -2.617397e-01 2.147973e-01 -2.127395e-01 5.574068e-02 -6.957863e-02 9.602158e-02 3.361721e-02 3.337133e-01
<VARIANCE> 39
 8.908253e+01 8.196597e+01 7.049859e+01 4.204686e+01 2.538503e+01 2.569872e+01 4.023238e+01 2.199070e+01 2.629941e+01 1.976110e+01 1.523234e+01 1.354851e+01 1.572364e+02 1.760259e+00 2.143671e+00 1.456846e+00 2.031399e+00 2.515628e+00 2.546617e+00 2.212127e+00 2.101282e+00 1.958666e+00 1.461552e+00 1.381531e+00 1.093312e+00 1.981550e+00 2.389057e-01 1.631942e-01 1.568183e-01 2.096363e-01 3.081242e-01 3.268815e-01 2.878994e-01 3.344882e-01 3.484365e-01 2.744401e-01 2.671205e-01 1.789718e-01 1.587669e-01
<GCONST> 1.079054e+02
<STATE> 3
~s "silst"
<STATE> 4
<MEAN> 39
 -1.464402e+01 3.440004e+00 -4.648537e+00 9.173073e+00 -5.112081e+00 1.148211e+01 -4.465476e+00 6.354099e+00 -4.071835e+00 2.488634e-02 -2.364088e+00 -3.101368e+00 4.725008e+01 -8.921065e-02 1.243818e-01 -1.210533e-01 3.271712e-03 -8.188479e-02 -7.370114e-02 1.373047e-02 1.524916e-01 1.035109e-01 -3.209398e-03 4.371393e-02 5.341967e-02 -1.772080e-01 6.834898e-03 -1.181076e-01 4.620163e-02 -2.578846e-02 7.024646e-03 -3.724817e-02 2.272076e-02 -1.061488e-01 -5.785543e-02 -1.989746e-02 -1.026731e-02 3.197796e-03 1.090623e-01
<VARIANCE> 39
 5.185544e+00 6.779013e+00 6.389200e+00 5.753198e+00 9.452532e+00 1.474965e+01 2.108817e+01 2.075181e+01 1.644566e+01 1.266773e+01 1.137916e+01 1.063780e+01 6.551243e+00 1.084022e-01 3.372529e-01 4.140727e-01 4.480011e-01 5.989496e-01 6.878393e-01 8.141866e-01 9.428309e-01 9.150016e-01 9.078250e-01 8.084155e-01 7.248196e-01 9.558169e-02 2.783046e-02 1.283049e-01 8.767328e-02 1.136684e-01 1.420804e-01 1.909721e-01 1.879606e-01 2.333998e-01 1.996429e-01 1.872654e-01 1.740952e-01 1.525775e-01 8.567397e-02
<GCONST> 6.631358e+01
<TRANSP> 5
 0.000000e+00 1.000000e+00 0.000000e+00 0.000000e+00 0.000000e+00
 0.000000e+00 6.223650e-01 1.173926e-01 2.602424e-01 0.000000e+00
 0.000000e+00 0.000000e+00 8.023201e-01 1.976799e-01 0.000000e+00
 0.000000e+00 3.437545e-03 0.000000e+00 8.894356e-01 1.071269e-01
 0.000000e+00 0.000000e+00 0.000000e+00 0.000000e+00 0.000000e+00
<ENDHMM>
