~o
<STREAMINFO> 1 39
<VECSIZE> 39<NULLD><MFCC_D_A_0><DIAGC>
~s "silst"
<MEAN> 39
 -1.660468e+01 -3.083467e-01 -2.736639e+00 7.585325e+00 -6.176522e+00 1.222992e+01 -3.029562e+00 4.610071e+00 -6.785087e+00 -7.146954e-01 -1.831668e+00 -1.975498e+00 4.844695e+01 8.891779e-01 1.383300e-01 -2.626095e-01 9.483022e-01 -2.412107e-01 -6.303363e-03 4.919945e-01 4.836561e-01 3.251610e-02 1.674775e-01 1.929027e-01 -1.028014e-01 2.355535e-01 -1.624829e-01 1.098813e-01 -2.576108e-02 -2.055958e-01 2.736075e-01 6.735392e-03 -8.464529e-02 2.561717e-02 2.940738e-01 6.321249e-02 -6.661405e-02 4.184505e-02 -5.043061e-02
<VARIANCE> 39
 6.323066e+01 6.630800e+01 5.598823e+01 5.065981e+01 3.091830e+01 5.660003e+01 5.177753e+01 4.650578e+01 5.326649e+01 3.516078e+01 3.727024e+01 2.667339e+01 9.537173e+01 4.990282e+00 6.377347e+00 2.517021e+00 4.023905e+00 3.337730e+00 4.972123e+00 4.313685e+00 4.202147e+00 5.640103e+00 3.277022e+00 2.838055e+00 1.983198e+00 6.660224e+00 7.065938e-01 1.024856e+00 3.768589e-01 6.913755e-01 5.806570e-01 9.805983e-01 8.295346e-01 8.418780e-01 1.012164e+00 6.186886e-01 6.175687e-01 3.972383e-01 8.572091e-01
<GCONST> 1.356230e+02
~h "k"
<BEGINHMM>
<NUMSTATES> 5
<STATE> 2
<MEAN> 39
 -1.479995e+01 6.248523e-01 -4.299678e+00 9.255592e+00 -3.641356e+00 1.230854e+01 -2.750583e+00 6.844149e+00 -3.272916e+00 1.360505e+00 -1.725190e+00 -2.522155e+00 4.893712e+01 -1.972437e-01 -4.386152e+00 1.352200e-01 -2.128472e+00 1.734952e+00 -3.160502e+00 3.568526e-01 -3.636250e+00 8.524930e-02 5.466242e-02 5.590671e-02 1.306358e-01 4.945486e+00 -1.066642e-01 -1.958345e+00 8.391030e-02 -1.238621e+00 7.195589e-01 -1.392738e+00 1.726148e-01 -1.751756e+00 1.012134e-01 -2.289325e-01 -3.102974e-02 -1.406752e-02 2.480328e+00
<VARIANCE> 39
 7.854903e+00 4.782372e+01 1.156542e+01 1.747989e+01 1.813437e+01 3.062352e+01 2.905666e+01 3.174977e+01 2.249223e+01 2.169650e+01 1.692767e+01 1.394108e+01 2.546598e+01 7.995307e-01 1.768809e+01 1.657385e+00 7.353178e+00 4.248515e+00 1.160336e+01 3.271802e+00 1.441425e+01 3.004276e+00 2.785252e+00 2.101780e+00 1.643759e+00 2.324891e+01 1.099322e-01 1.470277e+00 2.509466e-01 4.598272e-01 4.811540e-01 9.372604e-01 5.379812e-01 1.016634e+00 5.135993e-01 4.370188e-01 3.770344e-01 2.858071e-01 1.290959e+00
<GCONST> 1.215163e+02
<STATE> 3
<MEAN> 39
 -1.683130e+01 -2.774582e+01 -1.738326e+00 -8.083747e+00 6.331357e+00 -7.018257e+00 -4.221485e-01 -1.999500e+01 -1.038154e+00 -8.454654e-01 -3.090012e+00 -3.823582e+00 8.346970e+01 1.376594e-01 -1.425770e+00 3.050640e-01 -7.298828e-01 -2.066140e-02 -2.309856e-01 -2.743714e-01 -1.472694e+00 -1.887982e-02 1.454287e-01 -4.482238e-01 -3.553272e-01 1.085775e+00 2.485121e-01 1.307627e+00 -1.519348e-01 9.389189e-01 -6.157982e-01 1.148911e+00 -3.413615e-01 1.301452e+00 -1.386046e-01 2.561324e-01 -8.878256e-02 5.665961e-02 -1.871775e+00
<VARIANCE> 39
 7.547251e+00 1.037255e+01 1.534401e+01 1.807831e+01 1.718260e+01 4.099094e+01 2.288408e+01 3.102067e+01 3.205145e+01 2.146672e+01 2.660607e+01 2.482818e+01 2.264270e+01 1.003017e+00 1.560071e+01 1.380164e+00 7.903727e+00 4.186157e+00 1.258224e+01 2.931841e+00 1.443723e+01 2.584651e+00 2.644336e+00 1.678205e+00 1.682675e+00 3.121094e+01 1.262381e-01 1.225289e+00 3.825798e-01 5.063547e-01 4.528125e-01 1.094302e+00 4.750319e-01 8.912300e-01 4.973794e-01 4.656525e-01 3.556204e-01 4.001388e-01 1.622994e+00
<GCONST> 1.221847e+02
<STATE> 4
<MEAN> 39
 -1.030615e+01 -1.438927e+01 -5.951959e+00 7.283005e+00 -2.506827e+00 9.055766e+00 -8.666805e+00 -8.610484e+00 -6.439101e+00 4.324440e+00 -5.579818e+00 -4.440354e+00 6.061294e+01 2.771949e-01 1.839684e+00 -6.103718e-01 1.499135e+00 -3.871017e-01 1.291749e+00 -2.501743e-01 1.447954e+00 -3.018248e-01 2.977016e-01 2.206660e-01 -5.060597e-03 -2.079552e+00 -2.024528e-01 -1.348495e-02 1.099366e-01 -2.459168e-01 1.914052e-01 -2.295124e-01 2.514109e-01 -6.636467e-02 1.494063e-01 -1.393524e-01 1.284758e-01 -2.720543e-02 2.868817e-01
<VARIANCE> 39
 8.734479e+00 3.772372e+01 1.649861e+01 4.589518e+01 1.647505e+01 3.507212e+01 3.119240e+01 3.689185e+01 4.323513e+01 2.036375e+01 2.619935e+01 2.689198e+01 3.356244e+01 1.462849e+00 9.347546e-01 1.302937e+00 3.046171e+00 2.404356e+00 2.826647e+00 3.580441e+00 4.325670e+00 4.920439e+00 2.031592e+00 1.950111e+00 1.760398e+00 1.890564e+00 1.634061e-01 1.966088e-01 2.218373e-01 3.847696e-01 3.635948e-01 3.872041e-01 5.337169e-01 8.255191e-01 9.934524e-01 4.187166e-01 3.661518e-01 3.502864e-01 2.072542e-01
<GCONST> 1.116998e+02
<TRANSP> 5
 0.000000e+00 1.000000e+00 0.000000e+00 0.000000e+00 0.000000e+00
 0.000000e+00 7.263753e-01 2.736247e-01 0.000000e+00 0.000000e+00
 0.000000e+00 0.000000e+00 8.642883e-01 1.357118e-01 0.000000e+00
 0.000000e+00 0.000000e+00 0.000000e+00 9.023510e-01 9.764902e-02
 0.000000e+00 0.000000e+00 0.000000e+00 0.000000e+00 0.000000e+00
<ENDHMM>
~h "p"
<BEGINHMM>
<NUMSTATES> 5
<STATE> 2
<MEAN> 39
 -1.507577e+01 3.220716e+00 -4.189321e+00 8.981791e+00 -5.686483e+00 1.154901e+01 -3.593051e+00 7.249201e+00 -3.537645e+00 3.167675e-01 -2.123318e+00 -3.026688e+00 4.712120e+01 1.127491e+00 -2.456751e+00 1.306679e+00 -1.784495e+00 1.517446e+00 -2.608502e+00 7.757159e-01 -2.591621e+00 -3.253162e-01 -1.489053e+00 6.834690e-02 8.088189e-02 4.939325e+00 7.080773e-01 -1.023491e+00 8.441043e-01 -7.478654e-01 9.056160e-01 -9.954936e-01 4.146652e-01 -1.160319e+00 -3.105786e-02 -7.774066e-01 -5.179786e-02 -2.892007e-02 2.510262e+00
<VARIANCE> 39
 6.801502e+00 9.291602e+00 8.896459e+00 6.951989e+00 1.131812e+01 1.571192e+01 2.426022e+01 1.947423e+01 1.737861e+01 1.291053e+01 1.156982e+01 9.759389e+00 8.700317e+00 1.552618e+00 4.914963e+00 3.294562e+00 3.656605e+00 3.954146e+00 6.462400e+00 3.289595e+00 7.467864e+00 2.692517e+00 3.983480e+00 1.675587e+00 1.580975e+00 1.977589e+01 9.803937e-02 2.873236e-01 1.901153e-01 3.356521e-01 3.638080e-01 5.449235e-01 4.595288e-01 5.712965e-01 4.104862e-01 3.233156e-01 2.561541e-01 2.541012e-01 5.825894e-01
<GCONST> 1.063158e+02
<STATE> 3
<MEAN> 39
 -5.523660e+00 -1.043270e+01 5.680950e+00 -2.807811e-01 5.053817e+00 -1.350024e+00 1.740592e+00 -6.858723e+00 -4.033588e+00 -9.559913e+00 -3.496956e+00 -3.129877e+00 7.821745e+01 1.825019e+00 -4.064105e-01 5.875481e-01 5.464768e-01 2.226463e-01 6.242230e-01 2.267924e-01 1.755121e-01 7.621238e-02 -6.823125e-01 -1.012211e+00 -3.354615e-01 1.308741e+00 -3.074937e-01 1.177751e+00 -8.052974e-01 1.079662e+00 -1.121486e+00 1.342747e+00 -5.780200e-01 1.319458e+00 -4.811764e-02 7.784013e-01 -1.522538e-01 -5.009323e-02 -2.574536e+00
<VARIANCE> 39
 1.705207e+01 1.426482e+01 1.629090e+01 3.045014e+01 2.532210e+01 4.841432e+01 2.795727e+01 4.169123e+01 2.725666e+01 2.394220e+01 2.911736e+01 2.330266e+01 5.021782e+01 1.413618e+00 6.807867e+00 4.873145e+00 7.074517e+00 8.608876e+00 1.279498e+01 4.429286e+00 1.303130e+01 2.363875e+00 4.357893e+00 2.027977e+00 1.452741e+00 4.069281e+01 1.908885e-01 4.758238e-01 4.234099e-01 5.800371e-01 6.844524e-01 1.345002e+00 7.205557e-01 1.404970e+00 5.714965e-01 4.873036e-01 5.070506e-01 3.534994e-01 2.644091e+00
<GCONST> 1.302500e+02
<STATE> 4
<MEAN> 39
 -3.433809e+00 4.093384e+00 1.033743e+00 1.273915e+01 -3.649550e+00 1.052130e+01 -4.147175e+00 2.914497e+00 -7.996103e+00 -4.714434e+00 -7.616383e+00 -6.276363e+00 5.725607e+01 -5.861740e-01 1.068761e+00 -3.931706e-01 4.888729e-01 -3.641916e-01 4.485788e-01 -2.725471e-01 4.165637e-01 -3.218872e-01 4.150943e-01 1.028944e-01 -1.157686e-01 -1.585053e+00 -1.788241e-01 -1.977078e-01 8.974893e-02 -2.792925e-01 2.311365e-01 -2.408082e-01 1.334770e-01 -1.819433e-01 7.032251e-02 -7.129093e-02 1.170347e-01 5.009848e-02 2.897415e-01
<VARIANCE> 39
 1.554374e+01 3.443204e+01 1.783508e+01 1.883391e+01 1.767035e+01 1.747468e+01 1.929649e+01 1.714376e+01 2.252470e+01 1.814039e+01 1.516062e+01 1.619234e+01 2.758583e+01 7.728532e-01 1.583786e+00 1.378025e+00 2.161672e+00 2.629917e+00 2.207103e+00 1.729013e+00 1.785618e+00 1.811599e+00 1.712100e+00 1.233042e+00 1.217630e+00 1.378898e+00 7.243954e-02 1.313465e-01 2.241558e-01 3.006446e-01 4.137943e-01 5.276013e-01 3.237808e-01 3.970131e-01 3.496432e-01 3.081961e-01 2.651004e-01 2.385573e-01 1.117036e-01
<GCONST> 9.807742e+01
<TRANSP> 5
 0.000000e+00 1.000000e+00 0.000000e+00 0.000000e+00 0.000000e+00
 0.000000e+00 6.787228e-01 3.212772e-01 0.000000e+00 0.000000e+00
 0.000000e+00 0.000000e+00 7.963862e-01 2.036138e-01 0.000000e+00
 0.000000e+00 0.000000e+00 0.000000e+00 9.076590e-01 9.234100e-02
 0.000000e+00 0.000000e+00 0.000000e+00 0.000000e+00 0.000000e+00
<ENDHMM>
~h "s"
<BEGINHMM>
<NUMSTATES> 5
<STATE> 2
<MEAN> 39
 -1.505310e+01 -1.361665e+00 -2.631303e+00 9.088742e+00 -4.431323e+00 1.016276e+01 -2.054559e+00 3.289017e+00 -4.322851e+00 -3.925946e-02 -3.430355e+00 -1.648591e+00 5.088127e+01 -1.739977e+00 -3.697021e+00 1.072898e+00 -1.695466e+00 1.705175e+00 -2.459256e+00 2.098747e+00 -2.912792e+00 3.484713e-01 -6.087776e-01 1.484283e-01 1.369613e+00 3.303018e+00 -8.144494e-01 -1.055350e+00 5.157716e-01 -1.209560e+00 1.067489e+00 -9.919376e-01 5.646854e-01 -8.824510e-01 1.160799e-01 -3.373456e-01 1.991655e-01 1.769994e-01 1.486176e+00
<VARIANCE> 39
 1.376245e+01 6.453992e+01 2.631131e+01 2.157722e+01 2.184933e+01 4.372446e+01 4.504123e+01 5.700786e+01 2.808468e+01 2.314413e+01 2.579958e+01 2.581280e+01 2.883155e+01 2.769488e+00 9.215660e+00 4.061394e+00 6.371776e+00 6.200893e+00 8.203472e+00 5.204402e+00 8.407015e+00 3.230249e+00 2.772700e+00 2.665908e+00 2.477052e+00 8.098022e+00 2.096312e-01 1.371835e+00 6.485429e-01 6.749955e-01 6.332673e-01 9.666427e-01 8.151479e-01 1.262733e+00 4.843367e-01 4.263106e-01 4.645780e-01 5.370812e-01 5.737805e-01
<GCONST> 1.301774e+02
<STATE> 3
<MEAN> 39
 -2.767736e+01 -1.845906e+01 4.433177e+00 -8.363662e+00 1.056666e+01 -5.311073e+00 7.664600e+00 -1.051180e+01 -2.289534e+00 -4.745687e+00 -3.860207e-01 2.074583e+00 7.317771e+01 -2.491035e+00 -1.687613e+00 1.480185e+00 -3.982307e+00 2.707116e+00 -1.857057e+00 7.248794e-01 -1.138032e+00 2.263028e-01 -7.649033e-01 9.331878e-01 -2.522808e-01 3.949470e+00 6.826290e-01 1.157975e+00 -2.923176e-01 7.709724e-01 -8.759428e-01 1.169645e+00 -8.058452e-01 1.039079e+00 -1.350215e-01 2.444287e-01 -8.848346e-02 -3.492717e-01 -1.178567e+00
<VARIANCE> 39
 1.948901e+01 2.775894e+01 5.352691e+01 5.447653e+01 4.543456e+01 4.397598e+01 3.391165e+01 3.674238e+01 3.229146e+01 2.574347e+01 3.623720e+01 2.412655e+01 3.408927e+01 3.125237e+00 7.480052e+00 4.489132e+00 5.172019e+00 6.371878e+00 8.136131e+00 5.185190e+00 6.992180e+00 2.365214e+00 2.675685e+00 2.199583e+00 2.104630e+00 6.655195e+00 3.946604e-01 9.843604e-01 8.398777e-01 9.990583e-01 8.759401e-01 8.739603e-01 7.114347e-01 9.834759e-01 5.086391e-01 5.351309e-01 5.174494e-01 5.260191e-01 5.213447e-01
<GCONST> 1.318108e+02
<STATE> 4
<MEAN> 39
 -2.957252e+01 -1.878501e+01 1.026051e+01 -1.337743e+01 1.045065e+01 5.703282e-01 4.183737e+00 -8.737834e+00 -1.875752e+00 -5.203240e+00 7.078508e-01 1.356403e+00 7.509963e+01 8.030204e-01 5.161357e-01 4.158753e-01 6.296518e-01 -8.147037e-01 1.305308e+00 -5.200406e-01 8.149847e-01 -4.039485e-01 1.589476e-01 -5.064930e-01 4.902685e-03 -1.306410e+00 2.853463e-01 2.666469e-01 -1.514821e-01 3.703485e-01 -2.731023e-01 1.502112e-01 -1.424825e-01 2.187535e-01 -1.091284e-01 1.051035e-01 -1.387493e-01 -1.224815e-02 -4.369301e-01
<VARIANCE> 39
 1.528259e+01 1.423036e+01 3.252542e+01 2.122333e+01 3.416385e+01 5.163537e+01 2.585379e+01 2.715125e+01 2.380545e+01 1.930472e+01 2.473589e+01 1.479847e+01 3.385633e+01 1.552745e+00 1.870885e+00 1.363438e+00 2.078992e+00 2.178623e+00 2.141691e+00 1.967879e+00 2.622247e+00 1.930225e+00 1.670794e+00 1.571863e+00 9.519429e-01 2.728782e+00 1.738289e-01 2.697268e-01 2.335686e-01 2.678622e-01 3.289255e-01 3.671813e-01 3.782147e-01 4.024782e-01 3.428225e-01 3.201297e-01 2.779512e-01 2.146362e-01 1.829398e-01
<GCONST> 1.044931e+02
<TRANSP> 5
 0.000000e+00 1.000000e+00 0.000000e+00 0.000000e+00 0.000000e+00
 0.000000e+00 7.267213e-01 2.732788e-01 0.000000e+00 0.000000e+00
 0.000000e+00 0.000000e+00 7.468566e-01 2.531435e-01 0.000000e+00
 0.000000e+00 0.000000e+00 0.000000e+00 8.990755e-01 1.009245e-01
 0.000000e+00 0.000000e+00 0.000000e+00 0.000000e+00 0.000000e+00
<ENDHMM>
~h "sil"
<BEGINHMM>
<NUMSTATES> 5
<STATE> 2
<MEAN> 39
 -1.944743e+01 -7.137189e-01 1.020472e+00 2.395587e+00 -2.522201e+00 1.317410e+01 -5.696365e+00 3.746130e+00 -4.946406e+00 -4.536916e-01 -3.542019e+00 -2.000467e+00 4.942952e+01 4.635763e-01 1.217733e+00 -7.952296e-01 1.006299e+00 -8.974333e-01 5.667904e-01 -4.497801e-01 8.796706e-01 2.537156e-01 2.903992e-01 2.063528e-01 -1.999070e-01 -1.302523e+00 -7.068270e-02 -2.258742e-01 -5.425606e-02 -4.859240e-02 9.394997e-02 -2.936552e-01 1.892591e-01 -2.315477e-01 8.346394e-02 -7.710987e-02 9.850346e-02 3.406407e-02 3.029913e-01
<VARIANCE> 39
 7.653110e+01 7.713156e+01 7.217918e+01 4.175039e+01 3.058567e+01 2.989080e+01 4.104914e+01 2.112048e+01 2.647776e+01 2.183899e+01 1.739973e+01 1.475544e+01 1.380747e+02 1.362994e+00 1.933244e+00 1.575867e+00 2.080127e+00 2.687471e+00 2.876751e+00 2.213374e+00 2.397860e+00 2.067575e+00 1.584955e+00 1.515497e+00 1.156033e+00 1.390238e+00 1.563664e-01 1.647291e-01 1.699752e-01 2.000099e-01 3.453995e-01 3.755061e-01 2.976704e-01 3.535207e-01 3.741909e-01 2.981447e-01 3.115145e-01 1.981766e-01 9.875498e-02
<GCONST> 1.081101e+02
<STATE> 3
~s "silst"
<STATE> 4
<MEAN> 39
 -1.462909e+01 3.444392e+00 -4.647556e+00 9.184979e+00 -5.109537e+00 1.148174e+01 -4.455412e+00 6.356031e+00 -4.084247e+00 1.389892e-02 -2.369130e+00 -3.107383e+00 4.725706e+01 -9.225444e-02 1.208059e-01 -1.207355e-01 -6.772429e-04 -8.123255e-02 -7.071704e-02 1.283458e-02 1.535887e-01 1.064475e-01 5.100371e-04 4.735770e-02 5.549712e-02 -1.772655e-01 8.790638e-03 -1.128177e-01 4.542611e-02 -2.264749e-02 5.631059e-03 -3.387855e-02 2.228704e-02 -1.024141e-01 -5.802689e-02 -1.825204e-02 -9.392739e-03 2.087599e-03 1.049063e-01
<VARIANCE> 39
 5.004310e+00 6.702401e+00 6.383476e+00 5.705944e+00 9.498388e+00 1.475182e+01 2.114285e+01 2.075562e+01 1.650120e+01 1.267168e+01 1.138026e+01 1.070579e+01 6.255052e+00 1.099231e-01 3.375449e-01 4.170798e-01 4.516309e-01 6.062829e-01 6.982083e-01 8.213223e-01 9.516792e-01 9.250171e-01 9.084960e-01 8.128189e-01 7.329344e-01 9.558169e-02 2.703230e-02 1.223876e-01 8.711927e-02 1.126517e-01 1.408274e-01 1.874136e-01 1.862163e-01 2.293725e-01 1.990421e-01 1.874392e-01 1.732101e-01 1.519482e-01 8.006819e-02
<GCONST> 6.610758e+01
<TRANSP> 5
 0.000000e+00 1.000000e+00 0.000000e+00 0.000000e+00 0.000000e+00
 0.000000e+00 6.812587e-01 8.916444e-02 2.295768e-01 0.000000e+00
 0.000000e+00 0.000000e+00 8.193548e-01 1.806453e-01 0.000000e+00
 0.000000e+00 4.913134e-03 0.000000e+00 9.036755e-01 9.141137e-02
 0.000000e+00 0.000000e+00 0.000000e+00 0.000000e+00 0.000000e+00
<ENDHMM>
