~o
<STREAMINFO> 1 39
<VECSIZE> 39<NULLD><MFCC_D_A_0><DIAGC>
~s "silst"
<MEAN> 39
 -2.424010e+01 7.785435e+00 -8.361097e+00 5.207068e+00 -4.954277e+00 1.173102e+01 -8.182969e+00 6.325423e+00 -1.643108e+00 8.233790e-01 -1.120906e+00 -1.552360e+00 3.729742e+01 1.869866e+00 -1.678684e+00 5.341518e-01 7.869966e-01 -1.631029e-01 -7.226506e-01 1.167396e+00 -3.604923e-01 -6.513734e-01 -2.183502e-01 2.964808e-01 6.392674e-02 2.611318e+00 1.882715e-01 -3.908162e-01 2.549609e-01 -1.424538e-02 1.190080e-01 -1.876416e-01 2.594316e-01 -2.599789e-01 -1.096207e-01 -1.198414e-01 1.340786e-02 -7.024575e-03 6.289689e-01
<VARIANCE> 39
 9.962917e+01 2.894429e+01 8.577231e+00 2.396341e+01 1.046753e+01 1.388080e+01 3.380238e+01 1.259356e+01 1.459957e+01 9.335165e+00 1.072583e+01 7.339937e+00 9.047227e+01 6.996769e+00 4.460455e+00 1.406830e+00 3.897704e+00 2.607131e+00 3.693528e+00 2.985034e+00 4.728975e+00 2.339205e+00 1.704537e+00 1.620149e+00 1.062741e+00 1.023109e+01 1.353553e+00 8.521355e-01 2.137075e-01 5.805921e-01 3.959360e-01 5.204515e-01 5.293706e-01 5.880156e-01 3.552415e-01 2.733094e-01 2.934275e-01 1.682528e-01 1.993497e+00
<GCONST> 1.147531e+02
~h "k"
<BEGINHMM>
<NUMSTATES> 5
<STATE> 2
<MEAN> 39
 -1.480530e+01 6.811725e-01 -4.318783e+00 9.299005e+00 -3.790082e+00 1.247967e+01 -2.304979e+00 7.625960e+00 -3.334991e+00 7.786464e-01 -1.691145e+00 -2.227538e+00 4.882834e+01 -1.621064e-01 -3.676794e+00 7.921521e-02 -1.729713e+00 1.430220e+00 -2.638536e+00 3.066064e-01 -3.004019e+00 3.931880e-02 9.673356e-02 1.023511e-01 1.258750e-01 4.088707e+00 -8.449242e-02 -1.746497e+00 7.360283e-02 -1.086314e+00 6.433233e-01 -1.233675e+00 1.595597e-01 -1.581656e+00 7.906479e-02 -1.655656e-01 -2.449979e-02 -2.505828e-03 2.194482e+00
<VARIANCE> 39
 7.443671e+00 4.675142e+01 1.166451e+01 1.782629e+01 1.587199e+01 2.456481e+01 2.993209e+01 2.574404e+01 2.421213e+01 1.917209e+01 1.660872e+01 1.537394e+01 2.296918e+01 8.065824e-01 1.842418e+01 1.480122e+00 7.278369e+00 4.232691e+00 1.048560e+01 3.253206e+00 1.430663e+01 3.254476e+00 2.672713e+00 2.121427e+00 1.615135e+00 2.326965e+01 1.103195e-01 1.786299e+00 2.043054e-01 5.934967e-01 4.753544e-01 9.448253e-01 5.374317e-01 1.178119e+00 5.652967e-01 4.369103e-01 3.705532e-01 2.855178e-01 1.712660e+00
<GCONST> 1.214493e+02
<STATE> 3
<MEAN> 39
 -1.621973e+01 -2.693541e+01 -1.766873e+00 -7.330561e+00 5.481969e+00 -5.589051e+00 -1.091705e+00 -1.901322e+01 -1.581670e+00 -2.002343e-01 -3.584499e+00 -3.621411e+00 8.144867e+01 3.316759e-01 -9.593431e-01 3.772077e-02 -2.580223e-01 -2.589679e-01 2.072546e-01 -5.211818e-01 -8.349336e-01 -1.883431e-02 2.967594e-01 -5.079809e-01 -2.338332e-01 3.483680e-01 2.191200e-01 1.168638e+00 -1.851407e-01 8.609682e-01 -5.361162e-01 9.845264e-01 -2.977516e-01 1.127024e+00 -7.050887e-02 1.618173e-01 -3.760093e-02 4.637912e-02 -1.572363e+00
<VARIANCE> 39
 8.652485e+00 1.773008e+01 1.456563e+01 2.254099e+01 2.110204e+01 4.748042e+01 2.571837e+01 3.773726e+01 3.274337e+01 2.310133e+01 2.674839e+01 2.357750e+01 4.524959e+01 1.180773e+00 1.542798e+01 1.701560e+00 8.574083e+00 4.088408e+00 1.244171e+01 3.175953e+00 1.618245e+01 2.571424e+00 2.542203e+00 1.662334e+00 1.715979e+00 3.103972e+01 1.319240e-01 1.216549e+00 3.577462e-01 5.147431e-01 4.600279e-01 1.099426e+00 4.800710e-01 1.036137e+00 5.303448e-01 4.925514e-01 3.614257e-01 3.851084e-01 1.963397e+00
<GCONST> 1.254506e+02
<STATE> 4
<MEAN> 39
 -1.213356e+01 -5.589948e+00 -5.987610e+00 9.064696e+00 -3.335658e+00 1.113628e+01 -6.641201e+00 -1.076877e+00 -5.475252e+00 3.082283e+00 -3.399829e+00 -3.782707e+00 5.361145e+01 -9.006423e-02 1.130528e+00 -1.064504e-01 5.218639e-01 -1.908594e-01 4.231973e-01 1.040222e-01 9.423338e-01 2.173409e-02 -8.252470e-02 1.917801e-01 6.132850e-02 -1.010176e+00 -9.253858e-02 -1.449457e-01 8.734640e-02 -1.626701e-01 8.788228e-02 -1.660412e-01 1.300072e-01 -1.630165e-01 6.329421e-03 -6.073767e-02 1.741432e-02 4.856946e-03 2.252594e-01
<VARIANCE> 39
 1.001368e+01 6.781168e+01 1.035527e+01 1.885154e+01 1.433261e+01 2.660398e+01 3.439249e+01 6.940047e+01 3.433801e+01 2.116617e+01 2.431460e+01 2.004125e+01 3.909991e+01 7.565371e-01 1.257434e+00 9.869994e-01 2.329192e+00 1.603155e+00 2.080132e+00 2.280955e+00 2.845865e+00 3.479350e+00 1.670742e+00 1.544790e+00 1.351008e+00 1.124985e+00 1.165867e-01 2.164296e-01 1.640742e-01 2.812749e-01 3.143101e-01 3.404445e-01 4.486923e-01 6.035082e-01 6.871567e-01 3.420181e-01 3.219579e-01 2.782873e-01 1.657706e-01
<GCONST> 1.041536e+02
<TRANSP> 5
 0.000000e+00 1.000000e+00 0.000000e+00 0.000000e+00 0.000000e+00
 0.000000e+00 7.535179e-01 2.464821e-01 0.000000e+00 0.000000e+00
 0.000000e+00 0.000000e+00 8.765811e-01 1.234189e-01 0.000000e+00
 0.000000e+00 0.000000e+00 0.000000e+00 9.477611e-01 5.223886e-02
 0.000000e+00 0.000000e+00 0.000000e+00 0.000000e+00 0.000000e+00
<ENDHMM>
~h "p"
<BEGINHMM>
<NUMSTATES> 5
<STATE> 2
<MEAN> 39
 -1.495316e+01 3.071430e+00 -4.001828e+00 8.977015e+00 -5.440173e+00 1.178646e+01 -3.390639e+00 7.371350e+00 -3.402714e+00 4.611905e-01 -2.069178e+00 -2.906268e+00 4.738567e+01 9.166014e-01 -1.910923e+00 1.016987e+00 -1.510592e+00 1.255323e+00 -2.212662e+00 5.670624e-01 -2.090313e+00 -2.786181e-01 -1.276221e+00 2.130053e-02 7.117407e-02 3.980088e+00 6.146837e-01 -9.489539e-01 7.461860e-01 -6.742507e-01 7.680315e-01 -9.128088e-01 3.272766e-01 -1.039745e+00 -7.392485e-02 -7.017961e-01 -5.928238e-02 -1.430060e-02 2.205335e+00
<VARIANCE> 39
 4.611374e+00 8.310706e+00 8.360640e+00 6.247175e+00 9.740942e+00 1.464498e+01 2.218113e+01 1.838002e+01 1.609054e+01 1.214026e+01 1.071348e+01 9.319839e+00 6.450393e+00 1.496592e+00 5.195831e+00 3.309968e+00 3.566314e+00 3.677890e+00 6.560839e+00 2.963548e+00 7.256524e+00 2.492911e+00 3.832973e+00 1.540610e+00 1.490711e+00 2.009535e+01 1.300842e-01 2.982115e-01 2.277628e-01 3.251217e-01 4.135933e-01 5.418845e-01 4.250160e-01 5.586781e-01 3.817573e-01 3.442383e-01 2.423501e-01 2.387334e-01 9.220533e-01
<GCONST> 1.051065e+02
<STATE> 3
<MEAN> 39
 -4.143833e+00 -8.114845e+00 4.603528e+00 2.733526e+00 2.311281e+00 1.993974e+00 6.219026e-02 -3.746958e+00 -4.644066e+00 -8.753168e+00 -5.122576e+00 -3.859685e+00 7.374566e+01 1.435954e+00 3.397622e-01 -3.205812e-03 1.075556e+00 -5.644957e-01 9.704382e-01 -2.088303e-01 5.809326e-01 -9.615821e-02 -1.165701e-01 -7.829210e-01 -3.513058e-01 -6.945395e-02 -3.226592e-01 8.001779e-01 -5.506461e-01 6.155933e-01 -6.332384e-01 6.606134e-01 -3.080722e-01 7.005692e-01 -8.079814e-02 5.458090e-01 1.584173e-02 -4.650275e-02 -1.598906e+00
<VARIANCE> 39
 1.447568e+01 2.509821e+01 1.922913e+01 4.427059e+01 4.041619e+01 6.896701e+01 3.049606e+01 5.348819e+01 2.942454e+01 2.689833e+01 3.119730e+01 2.350163e+01 8.100470e+01 1.533409e+00 6.510993e+00 4.442363e+00 6.090988e+00 8.168988e+00 1.046265e+01 4.141566e+00 9.912838e+00 2.427062e+00 4.557985e+00 2.049536e+00 1.583630e+00 3.297332e+01 1.506891e-01 7.258062e-01 5.064422e-01 1.013286e+00 1.155745e+00 2.283640e+00 7.498606e-01 1.886049e+00 5.256559e-01 5.980382e-01 5.141411e-01 3.573005e-01 4.021884e+00
<GCONST> 1.351307e+02
<STATE> 4
<MEAN> 39
 -9.289474e+00 5.084426e+00 -1.539253e+00 1.169927e+01 -4.063922e+00 1.142922e+01 -3.859469e+00 5.174747e+00 -6.464932e+00 -2.445419e+00 -5.204652e+00 -5.105819e+00 5.128907e+01 -5.796520e-01 3.184399e-01 -1.853652e-01 -2.567386e-02 2.142780e-02 7.407968e-02 -1.377471e-02 1.811260e-01 5.633473e-02 2.330402e-01 2.106834e-01 5.634196e-02 -6.865442e-01 -2.764815e-02 -1.379954e-01 6.678169e-02 -9.181718e-02 8.221020e-02 -6.302267e-02 5.317540e-02 -6.374425e-02 3.951483e-02 -5.153349e-02 8.864689e-03 3.400605e-02 1.511122e-01
<VARIANCE> 39
 3.381324e+01 1.451578e+01 1.690225e+01 1.297962e+01 1.183553e+01 1.553736e+01 1.976304e+01 2.215769e+01 2.376299e+01 1.788044e+01 1.839397e+01 1.462085e+01 2.514956e+01 3.870015e-01 1.125682e+00 8.129185e-01 9.431400e-01 1.046273e+00 1.117728e+00 1.158288e+00 1.169259e+00 1.596711e+00 1.229921e+00 1.032364e+00 9.432625e-01 5.053753e-01 6.069117e-02 1.500790e-01 1.629260e-01 2.249320e-01 2.641327e-01 2.800886e-01 2.637232e-01 2.763544e-01 2.977595e-01 2.492540e-01 2.162281e-01 1.897903e-01 6.659333e-02
<GCONST> 8.702974e+01
<TRANSP> 5
 0.000000e+00 1.000000e+00 0.000000e+00 0.000000e+00 0.000000e+00
 0.000000e+00 7.060314e-01 2.939686e-01 0.000000e+00 0.000000e+00
 0.000000e+00 0.000000e+00 8.441653e-01 1.558347e-01 0.000000e+00
 0.000000e+00 0.000000e+00 0.000000e+00 9.463285e-01 5.367158e-02
 0.000000e+00 0.000000e+00 0.000000e+00 0.000000e+00 0.000000e+00
<ENDHMM>
~h "s"
<BEGINHMM>
<NUMSTATES> 5
<STATE> 2
<MEAN> 39
 -1.826310e+01 -7.790960e+00 -7.183341e-01 4.722429e+00 -2.108704e-01 5.145771e+00 1.516690e+00 -1.698317e+00 -3.667378e+00 -1.641315e+00 -2.816277e+00 3.259829e-01 5.780849e+01 -2.569896e+00 -4.000079e+00 1.514390e+00 -3.169435e+00 2.810321e+00 -3.193225e+00 2.289496e+00 -3.200853e+00 3.830182e-01 -9.610211e-01 4.654288e-01 1.120357e+00 4.546850e+00 -4.491656e-01 -9.968409e-02 2.831738e-01 -8.204609e-01 5.794802e-01 -2.826128e-01 6.158169e-03 -8.193983e-02 2.721607e-02 -1.433265e-01 1.958362e-01 -1.788090e-01 6.680565e-01
<VARIANCE> 39
 3.866582e+01 1.249965e+02 4.338853e+01 6.997267e+01 6.122661e+01 9.513995e+01 6.327658e+01 1.002262e+02 3.601008e+01 3.067264e+01 3.511773e+01 3.364172e+01 1.056470e+02 3.117380e+00 8.000245e+00 4.790838e+00 8.576261e+00 6.733656e+00 7.830048e+00 5.095686e+00 7.471784e+00 3.226812e+00 2.722478e+00 2.825759e+00 2.639425e+00 8.097665e+00 5.544939e-01 2.851625e+00 8.722345e-01 1.218187e+00 1.261274e+00 2.095650e+00 1.339350e+00 2.316768e+00 5.736427e-01 5.908810e-01 5.507778e-01 6.939242e-01 1.968228e+00
<GCONST> 1.464128e+02
<STATE> 3
<MEAN> 39
 -2.988825e+01 -1.892204e+01 9.321178e+00 -1.339773e+01 1.118184e+01 -1.215778e+00 4.874361e+00 -9.320193e+00 -1.646584e+00 -5.332867e+00 9.587423e-01 1.419678e+00 7.584033e+01 2.743459e-01 2.762919e-01 5.886418e-01 -1.187530e-01 -3.155251e-01 9.853560e-01 -4.105889e-01 5.974462e-01 -2.738245e-01 3.196331e-02 -2.110637e-01 -1.086015e-01 -5.029634e-01 4.415227e-01 3.777968e-01 -1.907391e-01 5.655323e-01 -4.621619e-01 3.702643e-01 -2.394419e-01 3.437257e-01 -1.366721e-01 1.465165e-01 -1.905902e-01 -6.989083e-03 -6.568491e-01
<VARIANCE> 39
 1.280815e+01 1.385802e+01 3.836341e+01 2.265112e+01 3.250912e+01 5.074856e+01 2.858131e+01 2.556598e+01 2.295283e+01 1.919224e+01 2.389529e+01 1.568223e+01 2.586123e+01 2.398607e+00 1.824312e+00 1.769298e+00 4.017240e+00 3.175374e+00 2.831095e+00 1.947116e+00 2.361144e+00 1.966651e+00 1.849085e+00 1.945007e+00 1.185735e+00 4.233200e+00 2.509415e-01 4.068443e-01 3.437943e-01 4.338801e-01 5.152420e-01 6.030196e-01 4.770570e-01 5.250607e-01 3.349558e-01 3.413189e-01 2.752075e-01 2.377508e-01 3.308033e-01
<GCONST> 1.108817e+02
<STATE> 4
<MEAN> 39
 -1.608994e+01 -2.862714e+00 2.730899e+00 2.945760e+00 -3.883213e+00 1.228685e+01 -4.019057e+00 3.850579e+00 -5.897913e+00 -1.311847e+00 -3.630543e+00 -1.691369e+00 5.351641e+01 6.948494e-01 1.231319e+00 -9.915961e-01 1.184444e+00 -8.456860e-01 4.260974e-01 -5.152151e-01 7.463579e-01 1.219113e-01 3.267764e-01 5.009152e-02 -2.540779e-01 -1.262552e+00 -1.720758e-01 -2.088701e-01 -2.962070e-03 -1.472236e-01 1.791473e-01 -1.997378e-01 1.643233e-01 -2.214516e-01 1.254714e-01 -5.656943e-02 9.575869e-02 3.233637e-02 2.689800e-01
<VARIANCE> 39
 1.233078e+01 4.165108e+01 4.982750e+01 4.033727e+01 3.659565e+01 3.617154e+01 3.137165e+01 2.670085e+01 2.450448e+01 2.034573e+01 1.821101e+01 1.525131e+01 2.906099e+01 9.543844e-01 1.869281e+00 1.322006e+00 1.752007e+00 2.711731e+00 3.193686e+00 2.157978e+00 2.530989e+00 2.142921e+00 1.670257e+00 1.515895e+00 1.135449e+00 1.569973e+00 9.812167e-02 2.530276e-01 2.212032e-01 2.004155e-01 3.641423e-01 5.084882e-01 3.461180e-01 4.323488e-01 4.368995e-01 3.375339e-01 3.292289e-01 2.297878e-01 1.331227e-01
<GCONST> 1.052856e+02
<TRANSP> 5
 0.000000e+00 1.000000e+00 0.000000e+00 0.000000e+00 0.000000e+00
 0.000000e+00 7.926649e-01 2.073351e-01 0.000000e+00 0.000000e+00
 0.000000e+00 0.000000e+00 9.099231e-01 9.007695e-02 0.000000e+00
 0.000000e+00 0.000000e+00 0.000000e+00 9.184650e-01 8.153500e-02
 0.000000e+00 0.000000e+00 0.000000e+00 0.000000e+00 0.000000e+00
<ENDHMM>
~h "sp"
<BEGINHMM>
<NUMSTATES> 3
<STATE> 2
~s "silst"
<TRANSP> 3
 0.000000e+00 7.000000e-01 3.000000e-01
 0.000000e+00 6.000000e-01 4.000000e-01
 0.000000e+00 0.000000e+00 0.000000e+00
<ENDHMM>
~h "sil"
<BEGINHMM>
<NUMSTATES> 5
<STATE> 2
<MEAN> 39
 -1.712901e+01 4.895831e+00 -5.820409e+00 8.452411e+00 -5.450194e+00 1.148109e+01 -5.416905e+00 6.442927e+00 -3.619786e+00 -4.757920e-02 -2.038747e+00 -2.833785e+00 4.431065e+01 -4.213681e-02 4.725843e-02 -5.145555e-02 -4.744883e-03 -5.411652e-02 -2.876213e-02 1.462796e-02 3.013232e-02 1.551119e-02 8.120096e-03 1.205747e-02 -3.034504e-03 -7.653193e-02 6.624407e-04 -3.405107e-02 1.420263e-02 1.704405e-02 -1.230864e-02 -1.024775e-02 4.593146e-03 -1.285339e-02 -2.281922e-02 -1.241975e-03 9.485948e-03 -6.975400e-03 1.680469e-02
<VARIANCE> 39
 4.209903e+01 1.290624e+01 5.955380e+00 1.220618e+01 9.019924e+00 1.321497e+01 2.473891e+01 1.761899e+01 1.671378e+01 1.065879e+01 9.773990e+00 9.780520e+00 3.957559e+01 8.416436e-02 2.254559e-01 2.767719e-01 3.595504e-01 4.923736e-01 5.804839e-01 6.993331e-01 7.623816e-01 7.860479e-01 7.780988e-01 7.117333e-01 6.789438e-01 9.558169e-02 1.766260e-02 4.861542e-02 5.781374e-02 7.785223e-02 1.031443e-01 1.245333e-01 1.503173e-01 1.629371e-01 1.636168e-01 1.615796e-01 1.473335e-01 1.391288e-01 1.396893e-02
<GCONST> 6.250108e+01
<STATE> 3
~s "silst"
<STATE> 4
<MEAN> 39
 -1.446232e+01 -6.096909e+00 -6.500182e-01 5.673877e+00 -1.397911e+00 7.042042e+00 -9.928741e-01 -1.191065e+00 -5.200710e+00 -1.031637e+00 -2.553151e+00 -3.568762e+00 5.933909e+01 7.312461e-02 2.586690e-01 -2.683064e-02 1.416661e-01 1.444955e-02 3.130168e-01 -9.388967e-02 2.186017e-01 6.109253e-04 9.007887e-02 -7.519568e-02 -8.642144e-02 -2.793010e-01 -1.037916e-01 2.263028e-01 -1.208221e-01 -7.609314e-02 7.766124e-03 9.466910e-02 -1.442461e-01 1.200143e-01 1.385273e-01 6.017013e-02 -4.650353e-02 2.196111e-02 -2.862236e-01
<VARIANCE> 39
 7.805059e+01 1.184766e+02 5.050631e+01 1.050793e+02 7.326894e+01 8.621523e+01 5.300457e+01 1.091543e+02 3.738930e+01 3.574367e+01 3.279320e+01 2.612981e+01 1.902712e+02 1.914950e+00 5.268958e+00 2.283596e+00 4.309733e+00 4.169857e+00 5.714851e+00 3.289192e+00 6.061298e+00 3.107066e+00 2.632330e+00 2.272173e+00 1.556281e+00 9.788801e+00 2.638830e-01 9.707956e-01 4.161682e-01 7.645091e-01 7.986131e-01 1.163215e+00 6.423001e-01 1.234569e+00 6.609171e-01 5.328682e-01 4.663549e-01 3.411406e-01 1.635097e+00
<GCONST> 1.372043e+02
<TRANSP> 5
 0.000000e+00 1.000000e+00 0.000000e+00 0.000000e+00 0.000000e+00
 0.000000e+00 9.370834e-01 3.258028e-02 3.033631e-02 0.000000e+00
 0.000000e+00 0.000000e+00 7.793962e-01 2.206038e-01 0.000000e+00
 0.000000e+00 1.068074e-01 0.000000e+00 7.870431e-01 1.061495e-01
 0.000000e+00 0.000000e+00 0.000000e+00 0.000000e+00 0.000000e+00
<ENDHMM>
