~o
<STREAMINFO> 1 39
<VECSIZE> 39<NULLD><MFCC_D_A_0><DIAGC>
~s "silst"
<NUMMIXES> 4
<MIXTURE> 1 2.500000e-01
<MEAN> 39
 -1.368617e+01 3.630908e+00 -5.932975e-01 1.059908e+01 -3.778970e+00 1.527640e+01 -2.839856e-01 7.515410e+00 -3.653484e+00 1.750537e+00 8.142612e-01 1.901503e-01 5.167054e+01 1.849301e+00 9.920994e-01 4.985874e-01 1.696808e+00 5.123256e-01 9.112180e-01 1.383470e+00 1.250525e+00 9.068710e-01 8.726838e-01 8.605850e-01 4.828283e-01 1.481014e+00 2.230135e-01 5.501779e-01 2.259273e-01 1.682050e-01 5.360245e-01 4.359008e-01 2.751172e-01 4.197916e-01 7.078518e-01 3.826535e-01 2.372450e-01 2.814322e-01 3.251844e-01
<VARIANCE> 39
 7.315527e+01 7.173411e+01 5.261477e+01 5.294416e+01 3.038775e+01 5.996832e+01 5.440037e+01 4.713529e+01 5.478074e+01 3.546877e+01 3.674115e+01 2.648073e+01 1.062239e+02 5.370717e+00 6.656250e+00 2.366575e+00 4.195321e+00 3.224494e+00 5.195594e+00 4.384708e+00 4.346887e+00 5.724328e+00 3.306225e+00 2.868294e+00 1.938946e+00 6.883004e+00 8.016150e-01 1.112378e+00 3.806423e-01 7.555341e-01 5.880720e-01 1.020737e+00 8.484455e-01 8.625116e-01 1.031386e+00 6.323011e-01 6.122956e-01 3.923283e-01 9.541505e-01
<GCONST> 1.367895e+02
<MIXTURE> 2 2.500000e-01
<MEAN> 39
 -1.710740e+01 2.430683e-01 -3.494739e+00 7.688568e+00 -5.983974e+00 1.217883e+01 -3.234250e+00 4.769204e+00 -6.614045e+00 -6.316893e-01 -1.610318e+00 -1.868227e+00 4.754794e+01 9.223086e-01 -3.988898e-02 -1.167597e-01 8.775083e-01 -2.059495e-01 -5.357862e-04 5.458820e-01 4.165573e-01 -5.015174e-02 1.453626e-01 1.831434e-01 -7.415593e-02 4.315953e-01 -1.351183e-01 1.283006e-01 -2.085757e-02 -1.794809e-01 2.292811e-01 3.177464e-02 -9.332718e-02 4.830557e-02 3.016230e-01 6.458406e-02 -7.575232e-02 3.088773e-02 -6.553811e-02
<VARIANCE> 39
 7.315527e+01 7.173411e+01 5.261477e+01 5.294416e+01 3.038775e+01 5.996832e+01 5.440037e+01 4.713529e+01 5.478074e+01 3.546877e+01 3.674115e+01 2.648073e+01 1.062239e+02 5.370717e+00 6.656250e+00 2.366575e+00 4.195321e+00 3.224494e+00 5.195594e+00 4.384708e+00 4.346887e+00 5.724328e+00 3.306225e+00 2.868294e+00 1.938946e+00 6.883004e+00 8.016150e-01 1.112378e+00 3.806423e-01 7.555341e-01 5.880720e-01 1.020737e+00 8.484455e-01 8.625116e-01 1.031386e+00 6.323011e-01 6.122956e-01 3.923283e-01 9.541505e-01
<GCONST> 1.367895e+02
<MIXTURE> 3 2.500000e-01
<MEAN> 39
 -1.710740e+01 2.430683e-01 -3.494739e+00 7.688568e+00 -5.983974e+00 1.217883e+01 -3.234250e+00 4.769204e+00 -6.614045e+00 -6.316893e-01 -1.610318e+00 -1.868227e+00 4.754794e+01 9.223086e-01 -3.988898e-02 -1.167597e-01 8.775083e-01 -2.059495e-01 -5.357862e-04 5.458820e-01 4.165573e-01 -5.015171e-02 1.453626e-01 1.831434e-01 -7.415593e-02 4.315953e-01 -1.351183e-01 1.283006e-01 -2.085757e-02 -1.794809e-01 2.292811e-01 3.177464e-02 -9.332717e-02 4.830557e-02 3.016230e-01 6.458406e-02 -7.575231e-02 3.088774e-02 -6.553811e-02
<VARIANCE> 39
 7.315527e+01 7.173411e+01 5.261477e+01 5.294416e+01 3.038775e+01 5.996832e+01 5.440037e+01 4.713529e+01 5.478074e+01 3.546877e+01 3.674115e+01 2.648073e+01 1.062239e+02 5.370717e+00 6.656250e+00 2.366575e+00 4.195321e+00 3.224494e+00 5.195594e+00 4.384708e+00 4.346887e+00 5.724328e+00 3.306225e+00 2.868294e+00 1.938946e+00 6.883004e+00 8.016150e-01 1.112378e+00 3.806423e-01 7.555341e-01 5.880720e-01 1.020737e+00 8.484455e-01 8.625116e-01 1.031386e+00 6.323011e-01 6.122956e-01 3.923283e-01 9.541505e-01
<GCONST> 1.367895e+02
<MIXTURE> 4 2.500000e-01
<MEAN> 39
 -2.052864e+01 -3.144771e+00 -6.396181e+00 4.778059e+00 -8.188977e+00 9.081262e+00 -6.184514e+00 2.022998e+00 -9.574605e+00 -3.013916e+00 -4.034897e+00 -3.926604e+00 4.342534e+01 -4.683673e-03 -1.071877e+00 -7.321068e-01 5.820894e-02 -9.242246e-01 -9.122896e-01 -2.917058e-01 -4.174103e-01 -1.007174e+00 -5.819585e-01 -4.942981e-01 -6.311401e-01 -6.178238e-01 -4.932501e-01 -2.935767e-01 -2.676424e-01 -5.271667e-01 -7.746232e-02 -3.723515e-01 -4.617716e-01 -3.231804e-01 -1.046057e-01 -2.534854e-01 -3.887496e-01 -2.196567e-01 -4.562606e-01
<VARIANCE> 39
 7.315527e+01 7.173411e+01 5.261477e+01 5.294416e+01 3.038775e+01 5.996832e+01 5.440037e+01 4.713529e+01 5.478074e+01 3.546877e+01 3.674115e+01 2.648073e+01 1.062239e+02 5.370717e+00 6.656250e+00 2.366575e+00 4.195321e+00 3.224494e+00 5.195594e+00 4.384708e+00 4.346887e+00 5.724328e+00 3.306225e+00 2.868294e+00 1.938946e+00 6.883004e+00 8.016150e-01 1.112378e+00 3.806423e-01 7.555341e-01 5.880720e-01 1.020737e+00 8.484455e-01 8.625116e-01 1.031386e+00 6.323011e-01 6.122956e-01 3.923283e-01 9.541505e-01
<GCONST> 1.367895e+02
~h "k"
<BEGINHMM>
<NUMSTATES> 5
<STATE> 2
<NUMMIXES> 4
<MIXTURE> 1 2.500000e-01
<MEAN> 39
 -1.369743e+01 3.454582e+00 -2.933345e+00 1.092254e+01 -1.978951e+00 1.455348e+01 -6.448476e-01 9.089800e+00 -1.397586e+00 3.124357e+00 -1.035426e-01 -1.030678e+00 5.078918e+01 1.540120e-01 -2.564250e+00 6.394759e-01 -9.749934e-01 2.514937e+00 -1.696108e+00 1.060501e+00 -1.984835e+00 7.866919e-01 7.273707e-01 6.386437e-01 6.333257e-01 6.713541e+00 2.789456e-02 -1.472771e+00 2.836185e-01 -9.509483e-01 9.939365e-01 -1.001622e+00 4.699069e-01 -1.342000e+00 3.833197e-01 4.848187e-02 2.163069e-01 1.980942e-01 2.912789e+00
<VARIANCE> 39
 7.772665e+00 4.610264e+01 1.147700e+01 1.733812e+01 1.789274e+01 2.960751e+01 2.887486e+01 3.022007e+01 2.225151e+01 2.123901e+01 1.675280e+01 1.391429e+01 2.355795e+01 7.816836e-01 1.774079e+01 1.629477e+00 7.320822e+00 4.223193e+00 1.156621e+01 3.231763e+00 1.442659e+01 2.946964e+00 2.741708e+00 2.066065e+00 1.624017e+00 2.332110e+01 1.071136e-01 1.430681e+00 2.474888e-01 4.615360e-01 4.688426e-01 9.205797e-01 5.318135e-01 9.942122e-01 5.077267e-01 4.280635e-01 3.723876e-01 2.830109e-01 1.264497e+00
<GCONST> 1.208891e+02
<MIXTURE> 2 2.500000e-01
<MEAN> 39
 -1.481261e+01 7.386249e-01 -4.288454e+00 9.256980e+00 -3.670943e+00 1.237697e+01 -2.794261e+00 6.890888e+00 -3.284446e+00 1.280925e+00 -1.740750e+00 -2.522752e+00 4.884772e+01 -1.996395e-01 -4.249043e+00 1.288720e-01 -2.057274e+00 1.692921e+00 -3.056473e+00 3.414164e-01 -3.504129e+00 1.000230e-01 6.504655e-02 6.369124e-02 1.235780e-01 4.781864e+00 -1.030183e-01 -1.951215e+00 8.462551e-02 -1.222694e+00 7.200482e-01 -1.385409e+00 1.782047e-01 -1.740841e+00 9.829994e-02 -2.132244e-01 -2.778742e-02 -1.470089e-02 2.462989e+00
<VARIANCE> 39
 7.772665e+00 4.610264e+01 1.147700e+01 1.733812e+01 1.789274e+01 2.960751e+01 2.887486e+01 3.022007e+01 2.225151e+01 2.123901e+01 1.675280e+01 1.391429e+01 2.355795e+01 7.816836e-01 1.774079e+01 1.629477e+00 7.320822e+00 4.223193e+00 1.156621e+01 3.231763e+00 1.442659e+01 2.946964e+00 2.741708e+00 2.066065e+00 1.624017e+00 2.332110e+01 1.071136e-01 1.430681e+00 2.474888e-01 4.615360e-01 4.688426e-01 9.205797e-01 5.318135e-01 9.942122e-01 5.077267e-01 4.280635e-01 3.723876e-01 2.830109e-01 1.264497e+00
<GCONST> 1.208891e+02
<MIXTURE> 3 2.500000e-01
<MEAN> 39
 -1.481261e+01 7.386249e-01 -4.288454e+00 9.256980e+00 -3.670943e+00 1.237697e+01 -2.794261e+00 6.890888e+00 -3.284446e+00 1.280925e+00 -1.740750e+00 -2.522752e+00 4.884772e+01 -1.996395e-01 -4.249043e+00 1.288720e-01 -2.057274e+00 1.692921e+00 -3.056473e+00 3.414164e-01 -3.504129e+00 1.000230e-01 6.504655e-02 6.369123e-02 1.235780e-01 4.781864e+00 -1.030183e-01 -1.951215e+00 8.462550e-02 -1.222694e+00 7.200482e-01 -1.385409e+00 1.782047e-01 -1.740841e+00 9.829994e-02 -2.132244e-01 -2.778742e-02 -1.470089e-02 2.462989e+00
<VARIANCE> 39
 7.772665e+00 4.610264e+01 1.147700e+01 1.733812e+01 1.789274e+01 2.960751e+01 2.887486e+01 3.022007e+01 2.225151e+01 2.123901e+01 1.675280e+01 1.391429e+01 2.355795e+01 7.816836e-01 1.774079e+01 1.629477e+00 7.320822e+00 4.223193e+00 1.156621e+01 3.231763e+00 1.442659e+01 2.946964e+00 2.741708e+00 2.066065e+00 1.624017e+00 2.332110e+01 1.071136e-01 1.430681e+00 2.474888e-01 4.615360e-01 4.688426e-01 9.205797e-01 5.318135e-01 9.942122e-01 5.077267e-01 4.280635e-01 3.723876e-01 2.830109e-01 1.264497e+00
<GCONST> 1.208891e+02
<MIXTURE> 4 2.500000e-01
<MEAN> 39
 -1.592779e+01 -1.977332e+00 -5.643563e+00 7.591417e+00 -5.362936e+00 1.020046e+01 -4.943674e+00 4.691977e+00 -5.171306e+00 -5.625070e-01 -3.377957e+00 -4.014827e+00 4.690626e+01 -5.532910e-01 -5.933836e+00 -3.817319e-01 -3.139555e+00 8.709046e-01 -4.416838e+00 -3.776678e-01 -5.023423e+00 -5.866460e-01 -5.972776e-01 -5.112613e-01 -3.861697e-01 2.850187e+00 -2.339312e-01 -2.429659e+00 -1.143675e-01 -1.494440e+00 4.461598e-01 -1.769196e+00 -1.134975e-01 -2.139682e+00 -1.867198e-01 -4.749306e-01 -2.718817e-01 -2.274960e-01 2.013190e+00
<VARIANCE> 39
 7.772665e+00 4.610264e+01 1.147700e+01 1.733812e+01 1.789274e+01 2.960751e+01 2.887486e+01 3.022007e+01 2.225151e+01 2.123901e+01 1.675280e+01 1.391429e+01 2.355795e+01 7.816836e-01 1.774079e+01 1.629477e+00 7.320822e+00 4.223193e+00 1.156621e+01 3.231763e+00 1.442659e+01 2.946964e+00 2.741708e+00 2.066065e+00 1.624017e+00 2.332110e+01 1.071136e-01 1.430681e+00 2.474888e-01 4.615360e-01 4.688426e-01 9.205797e-01 5.318135e-01 9.942122e-01 5.077267e-01 4.280635e-01 3.723876e-01 2.830109e-01 1.264497e+00
<GCONST> 1.208891e+02
<STATE> 3
<NUMMIXES> 4
<MIXTURE> 1 2.500000e-01
<MEAN> 39
 -1.567075e+01 -2.636308e+01 -1.639063e-01 -6.317942e+00 7.928767e+00 -4.327834e+00 1.458050e+00 -1.770592e+01 1.186361e+00 1.098102e+00 -1.065964e+00 -1.835261e+00 8.526315e+01 5.630326e-01 1.918367e-01 7.538046e-01 4.402236e-01 7.775595e-01 1.228041e+00 3.916994e-01 1.213460e-01 6.137875e-01 8.136585e-01 6.168944e-02 1.768743e-01 3.256734e+00 3.896349e-01 1.734053e+00 8.876672e-02 1.216525e+00 -3.388009e-01 1.552554e+00 -6.571618e-02 1.664907e+00 1.513334e-01 5.209114e-01 1.521474e-01 3.093837e-01 -1.327647e+00
<VARIANCE> 39
 7.681566e+00 1.074836e+01 1.525640e+01 1.823873e+01 1.737375e+01 4.147598e+01 2.287957e+01 3.112914e+01 3.198603e+01 2.184545e+01 2.659913e+01 2.471241e+01 2.391986e+01 1.021512e+00 1.561555e+01 1.410653e+00 7.966019e+00 4.182087e+00 1.264941e+01 2.948865e+00 1.471271e+01 2.573588e+00 2.641772e+00 1.684762e+00 1.679957e+00 3.136629e+01 1.277551e-01 1.222813e+00 3.818434e-01 5.070313e-01 4.518639e-01 1.094794e+00 4.728736e-01 8.989130e-01 4.993095e-01 4.724345e-01 3.547899e-01 3.964744e-01 1.651000e+00
<GCONST> 1.224481e+02
<MIXTURE> 2 2.500000e-01
<MEAN> 39
 -1.677938e+01 -2.767447e+01 -1.726284e+00 -8.026215e+00 6.261493e+00 -6.903908e+00 -4.552539e-01 -1.993766e+01 -1.075887e+00 -7.714626e-01 -3.128938e+00 -3.823724e+00 8.330683e+01 1.587531e-01 -1.388824e+00 2.787209e-01 -6.887419e-01 -4.044664e-02 -1.945997e-01 -2.951910e-01 -1.412940e+00 -2.790880e-02 1.635173e-01 -4.575041e-01 -3.415783e-01 1.016509e+00 2.466635e-01 1.291730e+00 -1.584072e-01 9.317007e-01 -6.076843e-01 1.134024e+00 -3.407794e-01 1.285663e+00 -1.313139e-01 2.459759e-01 -8.610960e-02 5.751882e-02 -1.841612e+00
<VARIANCE> 39
 7.681566e+00 1.074836e+01 1.525640e+01 1.823873e+01 1.737375e+01 4.147598e+01 2.287957e+01 3.112914e+01 3.198603e+01 2.184545e+01 2.659913e+01 2.471241e+01 2.391986e+01 1.021512e+00 1.561555e+01 1.410653e+00 7.966019e+00 4.182087e+00 1.264941e+01 2.948865e+00 1.471271e+01 2.573588e+00 2.641772e+00 1.684762e+00 1.679957e+00 3.136629e+01 1.277551e-01 1.222813e+00 3.818434e-01 5.070313e-01 4.518639e-01 1.094794e+00 4.728736e-01 8.989130e-01 4.993095e-01 4.724345e-01 3.547899e-01 3.964744e-01 1.651000e+00
<GCONST> 1.224481e+02
<MIXTURE> 3 2.500000e-01
<MEAN> 39
 -1.677938e+01 -2.767447e+01 -1.726284e+00 -8.026215e+00 6.261493e+00 -6.903908e+00 -4.552539e-01 -1.993766e+01 -1.075887e+00 -7.714626e-01 -3.128938e+00 -3.823724e+00 8.330683e+01 1.587531e-01 -1.388824e+00 2.787209e-01 -6.887419e-01 -4.044664e-02 -1.945997e-01 -2.951910e-01 -1.412940e+00 -2.790880e-02 1.635173e-01 -4.575041e-01 -3.415783e-01 1.016509e+00 2.466635e-01 1.291730e+00 -1.584072e-01 9.317008e-01 -6.076842e-01 1.134024e+00 -3.407794e-01 1.285663e+00 -1.313139e-01 2.459759e-01 -8.610960e-02 5.751882e-02 -1.841612e+00
<VARIANCE> 39
 7.681566e+00 1.074836e+01 1.525640e+01 1.823873e+01 1.737375e+01 4.147598e+01 2.287957e+01 3.112914e+01 3.198603e+01 2.184545e+01 2.659913e+01 2.471241e+01 2.391986e+01 1.021512e+00 1.561555e+01 1.410653e+00 7.966019e+00 4.182087e+00 1.264941e+01 2.948865e+00 1.471271e+01 2.573588e+00 2.641772e+00 1.684762e+00 1.679957e+00 3.136629e+01 1.277551e-01 1.222813e+00 3.818434e-01 5.070313e-01 4.518639e-01 1.094794e+00 4.728736e-01 8.989130e-01 4.993095e-01 4.724345e-01 3.547899e-01 3.964744e-01 1.651000e+00
<GCONST> 1.224481e+02
<MIXTURE> 4 2.500000e-01
<MEAN> 39
 -1.788801e+01 -2.898586e+01 -3.288662e+00 -9.734488e+00 4.594220e+00 -9.479982e+00 -2.368558e+00 -2.216940e+01 -3.338135e+00 -2.641027e+00 -5.191912e+00 -5.812187e+00 8.135052e+01 -2.455264e-01 -2.969485e+00 -1.963628e-01 -1.817707e+00 -8.584527e-01 -1.617240e+00 -9.820814e-01 -2.947226e+00 -6.696051e-01 -4.866239e-01 -9.766976e-01 -8.600309e-01 -1.223716e+00 1.036921e-01 8.494066e-01 -4.055811e-01 6.468762e-01 -8.765675e-01 7.154944e-01 -6.158426e-01 9.064189e-01 -4.139612e-01 -2.895959e-02 -3.243666e-01 -1.943460e-01 -2.355577e+00
<VARIANCE> 39
 7.681566e+00 1.074836e+01 1.525640e+01 1.823873e+01 1.737375e+01 4.147598e+01 2.287957e+01 3.112914e+01 3.198603e+01 2.184545e+01 2.659913e+01 2.471241e+01 2.391986e+01 1.021512e+00 1.561555e+01 1.410653e+00 7.966019e+00 4.182087e+00 1.264941e+01 2.948865e+00 1.471271e+01 2.573588e+00 2.641772e+00 1.684762e+00 1.679957e+00 3.136629e+01 1.277551e-01 1.222813e+00 3.818434e-01 5.070313e-01 4.518639e-01 1.094794e+00 4.728736e-01 8.989130e-01 4.993095e-01 4.724345e-01 3.547899e-01 3.964744e-01 1.651000e+00
<GCONST> 1.224481e+02
<STATE> 4
<NUMMIXES> 4
<MIXTURE> 1 2.500000e-01
<MEAN> 39
 -9.120764e+00 -1.159816e+01 -4.384840e+00 1.015064e+01 -9.559896e-01 1.156757e+01 -6.418983e+00 -5.952916e+00 -3.891312e+00 6.176274e+00 -3.436820e+00 -2.401316e+00 6.258653e+01 7.295303e-01 2.219954e+00 -1.316816e-01 2.153170e+00 2.585360e-01 1.924156e+00 5.532950e-01 2.255938e+00 6.061147e-01 8.439315e-01 8.009827e-01 5.297576e-01 -1.487022e+00 -4.147224e-02 1.581250e-01 3.006276e-01 -8.370958e-03 4.336677e-01 1.450533e-02 5.410262e-01 2.929124e-01 5.487974e-01 1.209358e-01 3.646754e-01 2.145254e-01 4.681798e-01
<VARIANCE> 39
 8.577380e+00 3.840726e+01 1.623825e+01 4.408865e+01 1.639016e+01 3.422206e+01 3.121124e+01 3.676944e+01 4.336357e+01 2.051664e+01 2.662309e+01 2.688112e+01 3.244612e+01 1.452560e+00 9.554083e-01 1.302771e+00 3.101097e+00 2.418569e+00 2.794966e+00 3.590158e+00 4.264238e+00 4.952663e+00 2.073761e+00 1.954464e+00 1.772368e+00 1.824071e+00 1.614094e-01 1.972052e-01 2.159279e-01 3.747866e-01 3.668559e-01 3.819414e-01 5.324967e-01 8.180536e-01 9.935301e-01 4.250043e-01 3.732062e-01 3.537235e-01 2.057347e-01
<GCONST> 1.115770e+02
<MIXTURE> 2 2.500000e-01
<MEAN> 39
 -1.029225e+01 -1.407710e+01 -5.996709e+00 7.494667e+00 -2.575380e+00 9.227588e+00 -8.653665e+00 -8.378428e+00 -6.525353e+00 4.364463e+00 -5.500723e+00 -4.475196e+00 6.030807e+01 2.474415e-01 1.828974e+00 -5.882376e-01 1.448773e+00 -3.635339e-01 1.255430e+00 -2.046135e-01 1.429937e+00 -2.840684e-01 2.679091e-01 2.417741e-01 -2.763659e-03 -2.027255e+00 -2.021754e-01 -1.950618e-02 1.147555e-01 -2.532502e-01 1.913932e-01 -2.327003e-01 2.491367e-01 -6.887285e-02 1.500935e-01 -1.398336e-01 1.203130e-01 -2.337325e-02 2.867478e-01
<VARIANCE> 39
 8.577380e+00 3.840726e+01 1.623825e+01 4.408865e+01 1.639016e+01 3.422206e+01 3.121124e+01 3.676944e+01 4.336357e+01 2.051664e+01 2.662309e+01 2.688112e+01 3.244612e+01 1.452560e+00 9.554083e-01 1.302771e+00 3.101097e+00 2.418569e+00 2.794966e+00 3.590158e+00 4.264238e+00 4.952663e+00 2.073761e+00 1.954464e+00 1.772368e+00 1.824071e+00 1.614094e-01 1.972052e-01 2.159279e-01 3.747866e-01 3.668559e-01 3.819414e-01 5.324967e-01 8.180536e-01 9.935301e-01 4.250043e-01 3.732062e-01 3.537235e-01 2.057347e-01
<GCONST> 1.115770e+02
<MIXTURE> 3 2.500000e-01
<MEAN> 39
 -1.029225e+01 -1.407710e+01 -5.996709e+00 7.494667e+00 -2.575380e+00 9.227588e+00 -8.653665e+00 -8.378428e+00 -6.525353e+00 4.364463e+00 -5.500723e+00 -4.475196e+00 6.030807e+01 2.474415e-01 1.828974e+00 -5.882376e-01 1.448773e+00 -3.635339e-01 1.255430e+00 -2.046135e-01 1.429937e+00 -2.840684e-01 2.679091e-01 2.417741e-01 -2.763659e-03 -2.027255e+00 -2.021754e-01 -1.950618e-02 1.147555e-01 -2.532502e-01 1.913932e-01 -2.327003e-01 2.491367e-01 -6.887286e-02 1.500935e-01 -1.398336e-01 1.203130e-01 -2.337325e-02 2.867478e-01
<VARIANCE> 39
 8.577380e+00 3.840726e+01 1.623825e+01 4.408865e+01 1.639016e+01 3.422206e+01 3.121124e+01 3.676944e+01 4.336357e+01 2.051664e+01 2.662309e+01 2.688112e+01 3.244612e+01 1.452560e+00 9.554083e-01 1.302771e+00 3.101097e+00 2.418569e+00 2.794966e+00 3.590158e+00 4.264238e+00 4.952663e+00 2.073761e+00 1.954464e+00 1.772368e+00 1.824071e+00 1.614094e-01 1.972052e-01 2.159279e-01 3.747866e-01 3.668559e-01 3.819414e-01 5.324967e-01 8.180536e-01 9.935301e-01 4.250043e-01 3.732062e-01 3.537235e-01 2.057347e-01
<GCONST> 1.115770e+02
<MIXTURE> 4 2.500000e-01
<MEAN> 39
 -1.146374e+01 -1.655604e+01 -7.608578e+00 4.838696e+00 -4.194771e+00 6.887603e+00 -1.088834e+01 -1.080394e+01 -9.159393e+00 2.552651e+00 -7.564626e+00 -6.549076e+00 5.802961e+01 -2.346473e-01 1.437994e+00 -1.044794e+00 7.443756e-01 -9.856039e-01 5.867039e-01 -9.625220e-01 6.039357e-01 -1.174252e+00 -3.081133e-01 -3.174345e-01 -5.352849e-01 -2.567488e+00 -3.628786e-01 -1.971374e-01 -7.111667e-02 -4.981295e-01 -5.088133e-02 -4.799059e-01 -4.275279e-02 -4.306581e-01 -2.486104e-01 -4.006030e-01 -1.240494e-01 -2.612719e-01 1.053159e-01
<VARIANCE> 39
 8.577380e+00 3.840726e+01 1.623825e+01 4.408865e+01 1.639016e+01 3.422206e+01 3.121124e+01 3.676944e+01 4.336357e+01 2.051664e+01 2.662309e+01 2.688112e+01 3.244612e+01 1.452560e+00 9.554083e-01 1.302771e+00 3.101097e+00 2.418569e+00 2.794966e+00 3.590158e+00 4.264238e+00 4.952663e+00 2.073761e+00 1.954464e+00 1.772368e+00 1.824071e+00 1.614094e-01 1.972052e-01 2.159279e-01 3.747866e-01 3.668559e-01 3.819414e-01 5.324967e-01 8.180536e-01 9.935301e-01 4.250043e-01 3.732062e-01 3.537235e-01 2.057347e-01
<GCONST> 1.115770e+02
<TRANSP> 5
 0.000000e+00 1.000000e+00 0.000000e+00 0.000000e+00 0.000000e+00
 0.000000e+00 7.327950e-01 2.672050e-01 0.000000e+00 0.000000e+00
 0.000000e+00 0.000000e+00 8.665430e-01 1.334570e-01 0.000000e+00
 0.000000e+00 0.000000e+00 0.000000e+00 9.033003e-01 9.669968e-02
 0.000000e+00 0.000000e+00 0.000000e+00 0.000000e+00 0.000000e+00
<ENDHMM>
~h "p"
<BEGINHMM>
<NUMSTATES> 5
<STATE> 2
<NUMMIXES> 4
<MIXTURE> 1 2.500000e-01
<MEAN> 39
 -1.400320e+01 4.460154e+00 -2.851810e+00 1.002981e+01 -4.321626e+00 1.312831e+01 -1.653088e+00 8.999250e+00 -1.893124e+00 1.704999e+00 -7.729454e-01 -1.771029e+00 4.838694e+01 1.598593e+00 -1.498316e+00 1.989692e+00 -9.746293e-01 2.269126e+00 -1.527767e+00 1.475355e+00 -1.432377e+00 3.452621e-01 -6.528188e-01 5.767949e-01 5.705570e-01 6.598036e+00 8.250679e-01 -8.053232e-01 1.007177e+00 -5.117892e-01 1.142947e+00 -6.971842e-01 6.821516e-01 -8.536552e-01 2.286815e-01 -5.365810e-01 1.520685e-01 1.716963e-01 2.795989e+00
<VARIANCE> 39
 6.918502e+00 9.608516e+00 9.974015e+00 7.146537e+00 1.164406e+01 1.566983e+01 2.415580e+01 1.940798e+01 1.784333e+01 1.337316e+01 1.171865e+01 9.700368e+00 9.278673e+00 1.551074e+00 4.982111e+00 3.325752e+00 3.664341e+00 3.988390e+00 6.490873e+00 3.251648e+00 7.493144e+00 2.679744e+00 3.962728e+00 1.651845e+00 1.575699e+00 1.997229e+01 9.965050e-02 2.896478e-01 1.995556e-01 3.333211e-01 3.677963e-01 5.406073e-01 4.542291e-01 5.656422e-01 4.132650e-01 3.277326e-01 2.570652e-01 2.545612e-01 5.927145e-01
<GCONST> 1.067604e+02
<MIXTURE> 2 2.500000e-01
<MEAN> 39
 -1.505532e+01 3.220250e+00 -4.115077e+00 8.960487e+00 -5.686562e+00 1.154491e+01 -3.619030e+00 7.237070e+00 -3.582779e+00 2.422255e-01 -2.142246e+00 -3.016846e+00 4.716850e+01 1.100424e+00 -2.391142e+00 1.260226e+00 -1.740328e+00 1.470288e+00 -2.546855e+00 7.540622e-01 -2.527321e+00 -3.095349e-01 -1.449083e+00 6.269833e-02 6.844959e-02 4.810421e+00 6.987979e-01 -1.020599e+00 8.284901e-01 -7.427251e-01 9.003622e-01 -9.912882e-01 4.125655e-01 -1.154492e+00 -2.846126e-02 -7.655728e-01 -5.073795e-02 -3.011997e-02 2.488037e+00
<VARIANCE> 39
 6.918502e+00 9.608516e+00 9.974015e+00 7.146537e+00 1.164406e+01 1.566983e+01 2.415580e+01 1.940798e+01 1.784333e+01 1.337316e+01 1.171865e+01 9.700368e+00 9.278673e+00 1.551074e+00 4.982111e+00 3.325752e+00 3.664341e+00 3.988390e+00 6.490873e+00 3.251648e+00 7.493144e+00 2.679744e+00 3.962728e+00 1.651845e+00 1.575699e+00 1.997229e+01 9.965050e-02 2.896478e-01 1.995556e-01 3.333211e-01 3.677963e-01 5.406073e-01 4.542291e-01 5.656422e-01 4.132650e-01 3.277326e-01 2.570652e-01 2.545612e-01 5.927145e-01
<GCONST> 1.067604e+02
<MIXTURE> 3 2.500000e-01
<MEAN> 39
 -1.505532e+01 3.220250e+00 -4.115077e+00 8.960487e+00 -5.686562e+00 1.154491e+01 -3.619030e+00 7.237071e+00 -3.582779e+00 2.422255e-01 -2.142246e+00 -3.016846e+00 4.716850e+01 1.100424e+00 -2.391142e+00 1.260226e+00 -1.740328e+00 1.470288e+00 -2.546855e+00 7.540621e-01 -2.527321e+00 -3.095349e-01 -1.449083e+00 6.269833e-02 6.844959e-02 4.810421e+00 6.987981e-01 -1.020599e+00 8.284901e-01 -7.427250e-01 9.003622e-01 -9.912882e-01 4.125655e-01 -1.154492e+00 -2.846126e-02 -7.655728e-01 -5.073795e-02 -3.011997e-02 2.488037e+00
<VARIANCE> 39
 6.918502e+00 9.608516e+00 9.974015e+00 7.146537e+00 1.164406e+01 1.566983e+01 2.415580e+01 1.940798e+01 1.784333e+01 1.337316e+01 1.171865e+01 9.700368e+00 9.278673e+00 1.551074e+00 4.982111e+00 3.325752e+00 3.664341e+00 3.988390e+00 6.490873e+00 3.251648e+00 7.493144e+00 2.679744e+00 3.962728e+00 1.651845e+00 1.575699e+00 1.997229e+01 9.965050e-02 2.896478e-01 1.995556e-01 3.333211e-01 3.677963e-01 5.406073e-01 4.542291e-01 5.656422e-01 4.132650e-01 3.277326e-01 2.570652e-01 2.545612e-01 5.927145e-01
<GCONST> 1.067604e+02
<MIXTURE> 4 2.500000e-01
<MEAN> 39
 -1.610744e+01 1.980345e+00 -5.378344e+00 7.891167e+00 -7.051498e+00 9.961506e+00 -5.584972e+00 5.474891e+00 -5.272433e+00 -1.220548e+00 -3.511547e+00 -4.262662e+00 4.595006e+01 6.022556e-01 -3.283967e+00 5.307603e-01 -2.506027e+00 6.714499e-01 -3.565943e+00 3.276908e-02 -3.622266e+00 -9.643319e-01 -2.245347e+00 -4.513982e-01 -4.336578e-01 3.022806e+00 5.725281e-01 -1.235875e+00 6.498035e-01 -9.736609e-01 6.577774e-01 -1.285392e+00 1.429794e-01 -1.455329e+00 -2.856040e-01 -9.945645e-01 -2.535444e-01 -2.319362e-01 2.180085e+00
<VARIANCE> 39
 6.918502e+00 9.608516e+00 9.974015e+00 7.146537e+00 1.164406e+01 1.566983e+01 2.415580e+01 1.940798e+01 1.784333e+01 1.337316e+01 1.171865e+01 9.700368e+00 9.278673e+00 1.551074e+00 4.982111e+00 3.325752e+00 3.664341e+00 3.988390e+00 6.490873e+00 3.251648e+00 7.493144e+00 2.679744e+00 3.962728e+00 1.651845e+00 1.575699e+00 1.997229e+01 9.965050e-02 2.896478e-01 1.995556e-01 3.333211e-01 3.677963e-01 5.406073e-01 4.542291e-01 5.656422e-01 4.132650e-01 3.277326e-01 2.570652e-01 2.545612e-01 5.927145e-01
<GCONST> 1.067604e+02
<STATE> 3
<NUMMIXES> 4
<MIXTURE> 1 2.500000e-01
<MEAN> 39
 -3.948853e+00 -9.047658e+00 7.346077e+00 1.748565e+00 7.168232e+00 1.133931e+00 3.906446e+00 -4.528288e+00 -1.939360e+00 -7.628287e+00 -1.233134e+00 -1.174566e+00 8.126962e+01 2.323484e+00 5.648371e-01 1.529646e+00 1.550736e+00 1.480648e+00 1.983414e+00 1.110403e+00 1.553089e+00 7.006619e-01 1.033034e-01 -4.441655e-01 1.463941e-01 4.017085e+00 -1.323270e-01 1.474447e+00 -5.655808e-01 1.408593e+00 -8.252232e-01 1.845675e+00 -2.504519e-01 1.832892e+00 2.603647e-01 1.070247e+00 1.138359e-01 1.899291e-01 -2.017219e+00
<VARIANCE> 39
 1.702256e+01 1.392636e+01 1.619286e+01 2.990717e+01 2.503116e+01 4.675887e+01 2.815845e+01 4.050072e+01 2.738554e+01 2.420094e+01 2.903171e+01 2.349384e+01 4.873022e+01 1.422582e+00 6.771122e+00 4.844763e+00 7.084632e+00 8.456608e+00 1.285173e+01 4.399907e+00 1.309203e+01 2.373375e+00 4.355685e+00 2.045604e+00 1.452687e+00 4.078989e+01 1.941381e-01 4.606287e-01 4.172758e-01 5.576598e-01 6.620497e-01 1.274730e+00 7.270683e-01 1.338474e+00 5.743141e-01 4.846848e-01 5.023166e-01 3.575969e-01 2.496129e+00
<GCONST> 1.298664e+02
<MIXTURE> 2 2.500000e-01
<MEAN> 39
 -5.599189e+00 -1.054038e+01 5.736463e+00 -4.389327e-01 5.166986e+00 -1.601287e+00 1.783864e+00 -7.073895e+00 -4.032608e+00 -9.596065e+00 -3.388377e+00 -3.113384e+00 7.847733e+01 1.846396e+00 -4.760181e-01 6.492128e-01 4.860573e-01 3.174377e-01 5.494413e-01 2.713646e-01 1.057725e-01 8.443141e-02 -7.315078e-01 -1.016264e+00 -3.357158e-01 1.462406e+00 -3.085714e-01 1.202969e+00 -8.239684e-01 1.109886e+00 -1.150689e+00 1.394059e+00 -5.915251e-01 1.370122e+00 -4.276942e-02 7.917700e-01 -1.696613e-01 -4.926851e-02 -2.649185e+00
<VARIANCE> 39
 1.702256e+01 1.392636e+01 1.619286e+01 2.990717e+01 2.503116e+01 4.675887e+01 2.815845e+01 4.050072e+01 2.738554e+01 2.420094e+01 2.903171e+01 2.349384e+01 4.873022e+01 1.422582e+00 6.771122e+00 4.844763e+00 7.084632e+00 8.456608e+00 1.285173e+01 4.399907e+00 1.309203e+01 2.373375e+00 4.355685e+00 2.045604e+00 1.452687e+00 4.078989e+01 1.941381e-01 4.606287e-01 4.172758e-01 5.576598e-01 6.620497e-01 1.274730e+00 7.270683e-01 1.338474e+00 5.743141e-01 4.846848e-01 5.023166e-01 3.575969e-01 2.496129e+00
<GCONST> 1.298664e+02
<MIXTURE> 3 2.500000e-01
<MEAN> 39
 -5.599189e+00 -1.054038e+01 5.736463e+00 -4.389327e-01 5.166986e+00 -1.601287e+00 1.783864e+00 -7.073895e+00 -4.032608e+00 -9.596065e+00 -3.388377e+00 -3.113384e+00 7.847733e+01 1.846396e+00 -4.760181e-01 6.492128e-01 4.860573e-01 3.174377e-01 5.494413e-01 2.713646e-01 1.057725e-01 8.443141e-02 -7.315078e-01 -1.016264e+00 -3.357158e-01 1.462406e+00 -3.085714e-01 1.202969e+00 -8.239684e-01 1.109886e+00 -1.150689e+00 1.394059e+00 -5.915251e-01 1.370122e+00 -4.276941e-02 7.917700e-01 -1.696613e-01 -4.926850e-02 -2.649185e+00
<VARIANCE> 39
 1.702256e+01 1.392636e+01 1.619286e+01 2.990717e+01 2.503116e+01 4.675887e+01 2.815845e+01 4.050072e+01 2.738554e+01 2.420094e+01 2.903171e+01 2.349384e+01 4.873022e+01 1.422582e+00 6.771122e+00 4.844763e+00 7.084632e+00 8.456608e+00 1.285173e+01 4.399907e+00 1.309203e+01 2.373375e+00 4.355685e+00 2.045604e+00 1.452687e+00 4.078989e+01 1.941381e-01 4.606287e-01 4.172758e-01 5.576598e-01 6.620497e-01 1.274730e+00 7.270683e-01 1.338474e+00 5.743141e-01 4.846848e-01 5.023166e-01 3.575969e-01 2.496129e+00
<GCONST> 1.298664e+02
<MIXTURE> 4 2.500000e-01
<MEAN> 39
 -7.249525e+00 -1.203310e+01 4.126849e+00 -2.626431e+00 3.165740e+00 -4.336505e+00 -3.387175e-01 -9.619502e+00 -6.125856e+00 -1.156384e+01 -5.543620e+00 -5.052202e+00 7.568505e+01 1.369308e+00 -1.516873e+00 -2.312201e-01 -5.786216e-01 -8.457722e-01 -8.845312e-01 -5.676737e-01 -1.341544e+00 -5.317991e-01 -1.566319e+00 -1.588362e+00 -8.178257e-01 -1.092273e+00 -4.848158e-01 9.314905e-01 -1.082356e+00 8.111795e-01 -1.476155e+00 9.424431e-01 -9.325984e-01 9.073522e-01 -3.459035e-01 5.132928e-01 -4.531585e-01 -2.884661e-01 -3.281151e+00
<VARIANCE> 39
 1.702256e+01 1.392636e+01 1.619286e+01 2.990717e+01 2.503116e+01 4.675887e+01 2.815845e+01 4.050072e+01 2.738554e+01 2.420094e+01 2.903171e+01 2.349384e+01 4.873022e+01 1.422582e+00 6.771122e+00 4.844763e+00 7.084632e+00 8.456608e+00 1.285173e+01 4.399907e+00 1.309203e+01 2.373375e+00 4.355685e+00 2.045604e+00 1.452687e+00 4.078989e+01 1.941381e-01 4.606287e-01 4.172758e-01 5.576598e-01 6.620497e-01 1.274730e+00 7.270683e-01 1.338474e+00 5.743141e-01 4.846848e-01 5.023166e-01 3.575969e-01 2.496129e+00
<GCONST> 1.298664e+02
<STATE> 4
<NUMMIXES> 4
<MIXTURE> 1 2.500000e-01
<MEAN> 39
 -1.821944e+00 6.328166e+00 2.760302e+00 1.441394e+01 -1.916664e+00 1.216607e+01 -2.323966e+00 4.541136e+00 -6.025865e+00 -3.016559e+00 -6.070837e+00 -4.624421e+00 5.957631e+01 -2.089541e-01 1.594095e+00 6.608954e-02 1.120422e+00 2.610143e-01 1.098530e+00 2.456754e-01 9.963057e-01 2.129915e-01 9.532822e-01 5.361865e-01 3.191993e-01 -1.142303e+00 -7.460715e-02 -4.836929e-02 2.767044e-01 -5.795917e-02 4.890839e-01 4.560460e-02 3.599886e-01 6.723721e-02 3.053074e-01 1.540328e-01 3.318894e-01 2.451889e-01 4.247591e-01
<VARIANCE> 39
 1.531639e+01 3.545825e+01 1.792367e+01 1.942348e+01 1.816499e+01 1.783729e+01 1.956583e+01 1.723186e+01 2.287827e+01 1.854977e+01 1.516351e+01 1.634267e+01 2.876985e+01 8.047580e-01 1.578321e+00 1.392694e+00 2.218641e+00 2.738036e+00 2.326957e+00 1.764935e+00 1.878935e+00 1.813625e+00 1.723327e+00 1.255018e+00 1.220600e+00 1.477104e+00 7.228550e-02 1.335826e-01 2.248925e-01 3.006582e-01 4.162585e-01 5.305152e-01 3.231118e-01 3.993798e-01 3.531765e-01 3.134032e-01 2.684548e-01 2.390938e-01 1.137173e-01
<GCONST> 9.871204e+01
<MIXTURE> 2 2.500000e-01
<MEAN> 39
 -3.387390e+00 3.946293e+00 1.066848e+00 1.265106e+01 -3.621480e+00 1.047670e+01 -4.093297e+00 2.880685e+00 -7.939114e+00 -4.739337e+00 -7.628451e+00 -6.241463e+00 5.743081e+01 -5.677873e-01 1.091570e+00 -4.059603e-01 5.246177e-01 -4.008662e-01 4.883555e-01 -2.857280e-01 4.480087e-01 -3.256921e-01 4.281800e-01 8.807617e-02 -1.227238e-01 -1.628448e+00 -1.821510e-01 -1.945651e-01 8.701312e-02 -2.772884e-01 2.310115e-01 -2.457413e-01 1.326169e-01 -1.855488e-01 6.759278e-02 -6.989688e-02 1.246389e-01 4.960006e-02 2.898711e-01
<VARIANCE> 39
 1.531639e+01 3.545825e+01 1.792367e+01 1.942348e+01 1.816499e+01 1.783729e+01 1.956583e+01 1.723186e+01 2.287827e+01 1.854977e+01 1.516351e+01 1.634267e+01 2.876985e+01 8.047580e-01 1.578321e+00 1.392694e+00 2.218641e+00 2.738036e+00 2.326957e+00 1.764935e+00 1.878935e+00 1.813625e+00 1.723327e+00 1.255018e+00 1.220600e+00 1.477104e+00 7.228550e-02 1.335826e-01 2.248925e-01 3.006582e-01 4.162585e-01 5.305152e-01 3.231118e-01 3.993798e-01 3.531765e-01 3.134032e-01 2.684548e-01 2.390938e-01 1.137173e-01
<GCONST> 9.871204e+01
<MIXTURE> 3 2.500000e-01
<MEAN> 39
 -3.387390e+00 3.946293e+00 1.066848e+00 1.265106e+01 -3.621480e+00 1.047670e+01 -4.093297e+00 2.880685e+00 -7.939114e+00 -4.739337e+00 -7.628451e+00 -6.241463e+00 5.743081e+01 -5.677873e-01 1.091570e+00 -4.059603e-01 5.246177e-01 -4.008662e-01 4.883555e-01 -2.857280e-01 4.480087e-01 -3.256921e-01 4.281800e-01 8.807617e-02 -1.227238e-01 -1.628448e+00 -1.821510e-01 -1.945651e-01 8.701311e-02 -2.772884e-01 2.310115e-01 -2.457413e-01 1.326169e-01 -1.855488e-01 6.759278e-02 -6.989687e-02 1.246389e-01 4.960006e-02 2.898711e-01
<VARIANCE> 39
 1.531639e+01 3.545825e+01 1.792367e+01 1.942348e+01 1.816499e+01 1.783729e+01 1.956583e+01 1.723186e+01 2.287827e+01 1.854977e+01 1.516351e+01 1.634267e+01 2.876985e+01 8.047580e-01 1.578321e+00 1.392694e+00 2.218641e+00 2.738036e+00 2.326957e+00 1.764935e+00 1.878935e+00 1.813625e+00 1.723327e+00 1.255018e+00 1.220600e+00 1.477104e+00 7.228550e-02 1.335826e-01 2.248925e-01 3.006582e-01 4.162585e-01 5.305152e-01 3.231118e-01 3.993798e-01 3.531765e-01 3.134032e-01 2.684548e-01 2.390938e-01 1.137173e-01
<GCONST> 9.871204e+01
<MIXTURE> 4 2.500000e-01
<MEAN> 39
 -4.952836e+00 1.564420e+00 -6.266062e-01 1.088818e+01 -5.326296e+00 8.787331e+00 -5.862628e+00 1.220234e+00 -9.852364e+00 -6.462115e+00 -9.186065e+00 -7.858506e+00 5.528531e+01 -9.266205e-01 5.890450e-01 -8.780101e-01 -7.118648e-02 -1.062747e+00 -1.218192e-01 -8.171315e-01 -1.002883e-01 -8.643757e-01 -9.692219e-02 -3.600342e-01 -5.646468e-01 -2.114593e+00 -2.896948e-01 -3.407609e-01 -1.026782e-01 -4.966176e-01 -2.706091e-02 -5.370872e-01 -9.475479e-02 -4.383348e-01 -1.701218e-01 -2.938266e-01 -8.261159e-02 -1.459888e-01 1.549831e-01
<VARIANCE> 39
 1.531639e+01 3.545825e+01 1.792367e+01 1.942348e+01 1.816499e+01 1.783729e+01 1.956583e+01 1.723186e+01 2.287827e+01 1.854977e+01 1.516351e+01 1.634267e+01 2.876985e+01 8.047580e-01 1.578321e+00 1.392694e+00 2.218641e+00 2.738036e+00 2.326957e+00 1.764935e+00 1.878935e+00 1.813625e+00 1.723327e+00 1.255018e+00 1.220600e+00 1.477104e+00 7.228550e-02 1.335826e-01 2.248925e-01 3.006582e-01 4.162585e-01 5.305152e-01 3.231118e-01 3.993798e-01 3.531765e-01 3.134032e-01 2.684548e-01 2.390938e-01 1.137173e-01
<GCONST> 9.871204e+01
<TRANSP> 5
 0.000000e+00 1.000000e+00 0.000000e+00 0.000000e+00 0.000000e+00
 0.000000e+00 6.868973e-01 3.131027e-01 0.000000e+00 0.000000e+00
 0.000000e+00 0.000000e+00 7.908974e-01 2.091026e-01 0.000000e+00
 0.000000e+00 0.000000e+00 0.000000e+00 9.080036e-01 9.199637e-02
 0.000000e+00 0.000000e+00 0.000000e+00 0.000000e+00 0.000000e+00
<ENDHMM>
~h "s"
<BEGINHMM>
<NUMSTATES> 5
<STATE> 2
<NUMMIXES> 4
<MIXTURE> 1 2.500000e-01
<MEAN> 39
 -1.337470e+01 2.254440e+00 -8.208625e-01 1.099664e+01 -2.843301e+00 1.259321e+01 3.396850e-01 6.609465e+00 -2.245378e+00 1.864572e+00 -1.437296e+00 9.690809e-02 5.249122e+01 -9.973061e-01 -2.348146e+00 1.800734e+00 -6.004226e-01 2.571843e+00 -1.268735e+00 2.942191e+00 -1.656148e+00 1.033835e+00 7.394856e-02 7.744915e-01 1.969517e+00 4.285693e+00 -6.482837e-01 -6.923755e-01 8.417389e-01 -8.889093e-01 1.394671e+00 -6.358867e-01 9.537676e-01 -5.101303e-01 3.926376e-01 -8.758780e-02 4.607140e-01 4.942341e-01 1.808676e+00
<VARIANCE> 39
 1.341613e+01 5.662918e+01 2.472694e+01 1.917834e+01 2.008150e+01 3.449431e+01 4.332772e+01 5.274369e+01 2.741522e+01 2.155780e+01 2.542787e+01 2.378374e+01 2.496507e+01 2.647266e+00 9.200025e+00 3.958651e+00 5.986530e+00 5.989894e+00 7.824593e+00 5.114854e+00 8.382017e+00 3.188036e+00 2.678838e+00 2.634307e+00 2.502244e+00 8.019774e+00 1.967770e-01 1.193532e+00 6.248569e-01 6.423933e-01 6.114341e-01 8.964980e-01 7.810526e-01 1.157583e+00 4.683259e-01 4.053365e-01 4.619366e-01 5.091228e-01 5.010471e-01
<GCONST> 1.279635e+02
<MIXTURE> 2 2.500000e-01
<MEAN> 39
 -1.483982e+01 -7.556546e-01 -2.809910e+00 9.244919e+00 -4.635797e+00 1.024394e+01 -2.293267e+00 3.704471e+00 -4.339760e+00 7.356822e-03 -3.454338e+00 -1.853835e+00 5.049262e+01 -1.648123e+00 -3.561408e+00 1.004880e+00 -1.579118e+00 1.592873e+00 -2.387634e+00 2.037549e+00 -2.814217e+00 3.196321e-01 -5.807377e-01 1.252696e-01 1.336778e+00 3.152925e+00 -8.257220e-01 -1.129371e+00 5.255474e-01 -1.209507e+00 1.081894e+00 -1.014621e+00 6.002589e-01 -9.404944e-01 1.189002e-01 -3.422520e-01 1.888503e-01 2.088228e-01 1.525537e+00
<VARIANCE> 39
 1.341613e+01 5.662918e+01 2.472694e+01 1.917834e+01 2.008150e+01 3.449431e+01 4.332772e+01 5.274369e+01 2.741522e+01 2.155780e+01 2.542787e+01 2.378374e+01 2.496507e+01 2.647266e+00 9.200025e+00 3.958651e+00 5.986530e+00 5.989894e+00 7.824593e+00 5.114854e+00 8.382017e+00 3.188036e+00 2.678838e+00 2.634307e+00 2.502244e+00 8.019774e+00 1.967770e-01 1.193532e+00 6.248569e-01 6.423933e-01 6.114341e-01 8.964980e-01 7.810526e-01 1.157583e+00 4.683259e-01 4.053365e-01 4.619366e-01 5.091228e-01 5.010471e-01
<GCONST> 1.279635e+02
<MIXTURE> 3 2.500000e-01
<MEAN> 39
 -1.483982e+01 -7.556546e-01 -2.809910e+00 9.244919e+00 -4.635797e+00 1.024394e+01 -2.293267e+00 3.704471e+00 -4.339760e+00 7.356822e-03 -3.454338e+00 -1.853835e+00 5.049262e+01 -1.648123e+00 -3.561408e+00 1.004880e+00 -1.579118e+00 1.592873e+00 -2.387634e+00 2.037549e+00 -2.814217e+00 3.196321e-01 -5.807377e-01 1.252696e-01 1.336778e+00 3.152925e+00 -8.257220e-01 -1.129371e+00 5.255474e-01 -1.209507e+00 1.081894e+00 -1.014621e+00 6.002589e-01 -9.404944e-01 1.189002e-01 -3.422520e-01 1.888503e-01 2.088228e-01 1.525537e+00
<VARIANCE> 39
 1.341613e+01 5.662918e+01 2.472694e+01 1.917834e+01 2.008150e+01 3.449431e+01 4.332772e+01 5.274369e+01 2.741522e+01 2.155780e+01 2.542787e+01 2.378374e+01 2.496507e+01 2.647266e+00 9.200025e+00 3.958651e+00 5.986530e+00 5.989894e+00 7.824593e+00 5.114854e+00 8.382017e+00 3.188036e+00 2.678838e+00 2.634307e+00 2.502244e+00 8.019774e+00 1.967770e-01 1.193532e+00 6.248569e-01 6.423933e-01 6.114341e-01 8.964980e-01 7.810526e-01 1.157583e+00 4.683259e-01 4.053365e-01 4.619366e-01 5.091228e-01 5.010471e-01
<GCONST> 1.279635e+02
<MIXTURE> 4 2.500000e-01
<MEAN> 39
 -1.630494e+01 -3.765749e+00 -4.798958e+00 7.493195e+00 -6.428293e+00 7.894667e+00 -4.926219e+00 7.994771e-01 -6.434141e+00 -1.849858e+00 -5.471380e+00 -3.804578e+00 4.849401e+01 -2.298940e+00 -4.774670e+00 2.090256e-01 -2.557813e+00 6.139026e-01 -3.506533e+00 1.132907e+00 -3.972286e+00 -3.945708e-01 -1.235424e+00 -5.239524e-01 7.040387e-01 2.020157e+00 -1.003160e+00 -1.566367e+00 2.093558e-01 -1.530105e+00 7.691170e-01 -1.393355e+00 2.467502e-01 -1.370859e+00 -1.548372e-01 -5.969162e-01 -8.301337e-02 -7.658856e-02 1.242398e+00
<VARIANCE> 39
 1.341613e+01 5.662918e+01 2.472694e+01 1.917834e+01 2.008150e+01 3.449431e+01 4.332772e+01 5.274369e+01 2.741522e+01 2.155780e+01 2.542787e+01 2.378374e+01 2.496507e+01 2.647266e+00 9.200025e+00 3.958651e+00 5.986530e+00 5.989894e+00 7.824593e+00 5.114854e+00 8.382017e+00 3.188036e+00 2.678838e+00 2.634307e+00 2.502244e+00 8.019774e+00 1.967770e-01 1.193532e+00 6.248569e-01 6.423933e-01 6.114341e-01 8.964980e-01 7.810526e-01 1.157583e+00 4.683259e-01 4.053365e-01 4.619366e-01 5.091228e-01 5.010471e-01
<GCONST> 1.279635e+02
<STATE> 3
<NUMMIXES> 4
<MIXTURE> 1 2.500000e-01
<MEAN> 39
 -2.556484e+01 -1.627514e+01 7.267634e+00 -4.798157e+00 1.293191e+01 -2.436156e+00 9.968017e+00 -7.980343e+00 -1.372099e-02 -2.681005e+00 1.872864e+00 4.209338e+00 7.512138e+01 -1.910229e+00 -7.264928e-01 2.395557e+00 -3.204734e+00 3.852538e+00 -8.746881e-01 1.778451e+00 -2.093439e-01 8.694996e-01 -1.446710e-01 1.543036e+00 3.866943e-01 5.149189e+00 9.118947e-01 1.588230e+00 8.138502e-02 1.129476e+00 -4.547438e-01 1.543771e+00 -4.819949e-01 1.457687e+00 1.560832e-01 5.469645e-01 2.250695e-01 -8.966964e-02 -8.563210e-01
<VARIANCE> 39
 2.041058e+01 2.870431e+01 5.384058e+01 5.767086e+01 4.747268e+01 4.559897e+01 3.492609e+01 3.810894e+01 3.284737e+01 2.635382e+01 3.692120e+01 2.507719e+01 3.551947e+01 3.036710e+00 7.961625e+00 4.576625e+00 5.013036e+00 6.278348e+00 8.140107e+00 5.413973e+00 7.291122e+00 2.392969e+00 2.700294e+00 2.200540e+00 2.219304e+00 6.599989e+00 4.224772e-01 9.572562e-01 8.523532e-01 1.078460e+00 9.282954e-01 9.105481e-01 7.151324e-01 9.732953e-01 5.216539e-01 5.397305e-01 5.302266e-01 5.288818e-01 5.578334e-01
<GCONST> 1.327534e+02
<MIXTURE> 2 2.500000e-01
<MEAN> 39
 -2.737196e+01 -1.841820e+01 4.332589e+00 -7.835811e+00 1.017589e+01 -5.137236e+00 7.604085e+00 -1.044964e+01 -2.306226e+00 -4.734444e+00 -5.576493e-01 2.206253e+00 7.273745e+01 -2.607275e+00 -1.855147e+00 1.539835e+00 -4.100326e+00 2.850273e+00 -2.015923e+00 8.477333e-01 -1.289427e+00 2.507306e-01 -8.019738e-01 9.496672e-01 -2.091988e-01 4.121572e+00 6.519018e-01 1.196872e+00 -2.879069e-01 7.140802e-01 -8.401361e-01 1.162080e+00 -8.202568e-01 1.063064e+00 -1.328193e-01 2.530991e-01 -6.619716e-02 -3.805667e-01 -1.155074e+00
<VARIANCE> 39
 2.041058e+01 2.870431e+01 5.384058e+01 5.767086e+01 4.747268e+01 4.559897e+01 3.492609e+01 3.810894e+01 3.284737e+01 2.635382e+01 3.692120e+01 2.507719e+01 3.551947e+01 3.036710e+00 7.961625e+00 4.576625e+00 5.013036e+00 6.278348e+00 8.140107e+00 5.413973e+00 7.291122e+00 2.392969e+00 2.700294e+00 2.200540e+00 2.219304e+00 6.599989e+00 4.224772e-01 9.572562e-01 8.523532e-01 1.078460e+00 9.282954e-01 9.105481e-01 7.151324e-01 9.732953e-01 5.216539e-01 5.397305e-01 5.302266e-01 5.288818e-01 5.578334e-01
<GCONST> 1.327534e+02
<MIXTURE> 3 2.500000e-01
<MEAN> 39
 -2.737196e+01 -1.841820e+01 4.332589e+00 -7.835810e+00 1.017589e+01 -5.137236e+00 7.604085e+00 -1.044964e+01 -2.306226e+00 -4.734444e+00 -5.576492e-01 2.206253e+00 7.273745e+01 -2.607275e+00 -1.855147e+00 1.539835e+00 -4.100326e+00 2.850273e+00 -2.015923e+00 8.477333e-01 -1.289427e+00 2.507306e-01 -8.019738e-01 9.496672e-01 -2.091988e-01 4.121572e+00 6.519018e-01 1.196872e+00 -2.879069e-01 7.140802e-01 -8.401361e-01 1.162080e+00 -8.202569e-01 1.063064e+00 -1.328193e-01 2.530991e-01 -6.619716e-02 -3.805667e-01 -1.155074e+00
<VARIANCE> 39
 2.041058e+01 2.870431e+01 5.384058e+01 5.767086e+01 4.747268e+01 4.559897e+01 3.492609e+01 3.810894e+01 3.284737e+01 2.635382e+01 3.692120e+01 2.507719e+01 3.551947e+01 3.036710e+00 7.961625e+00 4.576625e+00 5.013036e+00 6.278348e+00 8.140107e+00 5.413973e+00 7.291122e+00 2.392969e+00 2.700294e+00 2.200540e+00 2.219304e+00 6.599989e+00 4.224772e-01 9.572562e-01 8.523532e-01 1.078460e+00 9.282954e-01 9.105481e-01 7.151324e-01 9.732953e-01 5.216539e-01 5.397305e-01 5.302266e-01 5.288818e-01 5.578334e-01
<GCONST> 1.327534e+02
<MIXTURE> 4 2.500000e-01
<MEAN> 39
 -2.917908e+01 -2.056125e+01 1.397543e+00 -1.087346e+01 7.419873e+00 -7.838316e+00 5.240153e+00 -1.291894e+01 -4.598731e+00 -6.787883e+00 -2.988162e+00 2.031677e-01 7.035352e+01 -3.304321e+00 -2.983801e+00 6.841130e-01 -4.995919e+00 1.848007e+00 -3.157158e+00 -8.298451e-02 -2.369510e+00 -3.680384e-01 -1.459277e+00 3.562985e-01 -8.050920e-01 3.093954e+00 3.919088e-01 8.055141e-01 -6.571988e-01 2.986845e-01 -1.225528e+00 7.803894e-01 -1.158519e+00 6.684411e-01 -4.217218e-01 -4.076630e-02 -3.574638e-01 -6.714637e-01 -1.453827e+00
<VARIANCE> 39
 2.041058e+01 2.870431e+01 5.384058e+01 5.767086e+01 4.747268e+01 4.559897e+01 3.492609e+01 3.810894e+01 3.284737e+01 2.635382e+01 3.692120e+01 2.507719e+01 3.551947e+01 3.036710e+00 7.961625e+00 4.576625e+00 5.013036e+00 6.278348e+00 8.140107e+00 5.413973e+00 7.291122e+00 2.392969e+00 2.700294e+00 2.200540e+00 2.219304e+00 6.599989e+00 4.224772e-01 9.572562e-01 8.523532e-01 1.078460e+00 9.282954e-01 9.105481e-01 7.151324e-01 9.732953e-01 5.216539e-01 5.397305e-01 5.302266e-01 5.288818e-01 5.578334e-01
<GCONST> 1.327534e+02
<STATE> 4
<NUMMIXES> 4
<MIXTURE> 1 2.500000e-01
<MEAN> 39
 -2.819629e+01 -1.736707e+01 1.246677e+01 -1.166485e+01 1.293112e+01 3.180330e+00 6.318033e+00 -6.820599e+00 1.329978e-01 -3.464998e+00 2.779732e+00 2.892715e+00 7.758174e+01 1.263241e+00 1.008922e+00 9.010072e-01 1.156898e+00 -1.866453e-01 1.869245e+00 5.606169e-02 1.414800e+00 1.684917e-01 6.569207e-01 1.982912e-02 3.995211e-01 -5.764097e-01 4.648976e-01 4.730233e-01 4.619543e-02 5.955258e-01 -5.178364e-02 4.031022e-01 1.029267e-01 4.757379e-01 1.173242e-01 3.327449e-01 5.827108e-02 1.795726e-01 -2.838995e-01
<VARIANCE> 39
 1.432514e+01 1.369624e+01 3.290875e+01 2.065101e+01 3.374015e+01 5.046879e+01 2.577810e+01 2.629307e+01 2.347351e+01 1.918742e+01 2.433982e+01 1.479717e+01 3.211107e+01 1.564036e+00 1.790484e+00 1.362369e+00 2.121591e+00 2.178128e+00 2.138497e+00 1.915493e+00 2.534019e+00 1.915626e+00 1.655386e+00 1.585470e+00 9.494005e-01 2.748494e+00 1.716267e-01 2.710345e-01 2.388324e-01 2.731586e-01 3.376672e-01 3.673143e-01 3.793340e-01 4.019231e-01 3.392769e-01 3.213910e-01 2.730396e-01 2.157341e-01 1.822966e-01
<GCONST> 1.041705e+02
<MIXTURE> 2 2.500000e-01
<MEAN> 39
 -2.971023e+01 -1.884741e+01 1.017212e+01 -1.348259e+01 1.060767e+01 3.386748e-01 4.287147e+00 -8.871670e+00 -1.804981e+00 -5.217136e+00 8.063155e-01 1.354031e+00 7.531508e+01 7.629955e-01 4.736863e-01 4.341250e-01 5.742708e-01 -7.769846e-01 1.284301e+00 -4.975437e-01 7.780560e-01 -3.851329e-01 1.422735e-01 -4.838327e-01 9.772360e-03 -1.239553e+00 2.991862e-01 2.647794e-01 -1.492865e-01 3.864675e-01 -2.842202e-01 1.606763e-01 -1.434337e-01 2.221483e-01 -1.156657e-01 1.059795e-01 -1.507417e-01 -6.216139e-03 -4.546843e-01
<VARIANCE> 39
 1.432514e+01 1.369624e+01 3.290875e+01 2.065101e+01 3.374015e+01 5.046879e+01 2.577810e+01 2.629307e+01 2.347351e+01 1.918742e+01 2.433982e+01 1.479717e+01 3.211107e+01 1.564036e+00 1.790484e+00 1.362369e+00 2.121591e+00 2.178128e+00 2.138497e+00 1.915493e+00 2.534019e+00 1.915626e+00 1.655386e+00 1.585470e+00 9.494005e-01 2.748494e+00 1.716267e-01 2.710345e-01 2.388324e-01 2.731586e-01 3.376672e-01 3.673143e-01 3.793340e-01 4.019231e-01 3.392769e-01 3.213910e-01 2.730396e-01 2.157341e-01 1.822966e-01
<GCONST> 1.041705e+02
<MIXTURE> 3 2.500000e-01
<MEAN> 39
 -2.971023e+01 -1.884741e+01 1.017212e+01 -1.348259e+01 1.060767e+01 3.386748e-01 4.287147e+00 -8.871670e+00 -1.804981e+00 -5.217136e+00 8.063155e-01 1.354031e+00 7.531508e+01 7.629954e-01 4.736863e-01 4.341250e-01 5.742708e-01 -7.769846e-01 1.284301e+00 -4.975437e-01 7.780560e-01 -3.851329e-01 1.422735e-01 -4.838327e-01 9.772360e-03 -1.239553e+00 2.991862e-01 2.647794e-01 -1.492865e-01 3.864675e-01 -2.842202e-01 1.606763e-01 -1.434337e-01 2.221483e-01 -1.156657e-01 1.059795e-01 -1.507417e-01 -6.216139e-03 -4.546843e-01
<VARIANCE> 39
 1.432514e+01 1.369624e+01 3.290875e+01 2.065101e+01 3.374015e+01 5.046879e+01 2.577810e+01 2.629307e+01 2.347351e+01 1.918742e+01 2.433982e+01 1.479717e+01 3.211107e+01 1.564036e+00 1.790484e+00 1.362369e+00 2.121591e+00 2.178128e+00 2.138497e+00 1.915493e+00 2.534019e+00 1.915626e+00 1.655386e+00 1.585470e+00 9.494005e-01 2.748494e+00 1.716267e-01 2.710345e-01 2.388324e-01 2.731586e-01 3.376672e-01 3.673143e-01 3.793340e-01 4.019231e-01 3.392769e-01 3.213910e-01 2.730396e-01 2.157341e-01 1.822966e-01
<GCONST> 1.041705e+02
<MIXTURE> 4 2.500000e-01
<MEAN> 39
 -3.122417e+01 -2.032775e+01 7.877474e+00 -1.530033e+01 8.284218e+00 -2.502981e+00 2.256261e+00 -1.092274e+01 -3.742960e+00 -6.969274e+00 -1.167101e+00 -1.846527e-01 7.304842e+01 2.627498e-01 -6.154957e-02 -3.275725e-02 -8.356512e-03 -1.367324e+00 6.993570e-01 -1.051149e+00 1.413119e-01 -9.387575e-01 -3.723738e-01 -9.874945e-01 -3.799764e-01 -1.902696e+00 1.334748e-01 5.653548e-02 -3.447684e-01 1.774092e-01 -5.166568e-01 -8.174954e-02 -3.897941e-01 -3.144133e-02 -3.486556e-01 -1.207859e-01 -3.597544e-01 -1.920049e-01 -6.254691e-01
<VARIANCE> 39
 1.432514e+01 1.369624e+01 3.290875e+01 2.065101e+01 3.374015e+01 5.046879e+01 2.577810e+01 2.629307e+01 2.347351e+01 1.918742e+01 2.433982e+01 1.479717e+01 3.211107e+01 1.564036e+00 1.790484e+00 1.362369e+00 2.121591e+00 2.178128e+00 2.138497e+00 1.915493e+00 2.534019e+00 1.915626e+00 1.655386e+00 1.585470e+00 9.494005e-01 2.748494e+00 1.716267e-01 2.710345e-01 2.388324e-01 2.731586e-01 3.376672e-01 3.673143e-01 3.793340e-01 4.019231e-01 3.392769e-01 3.213910e-01 2.730396e-01 2.157341e-01 1.822966e-01
<GCONST> 1.041705e+02
<TRANSP> 5
 0.000000e+00 1.000000e+00 0.000000e+00 0.000000e+00 0.000000e+00
 0.000000e+00 7.236996e-01 2.763005e-01 0.000000e+00 0.000000e+00
 0.000000e+00 0.000000e+00 7.433857e-01 2.566143e-01 0.000000e+00
 0.000000e+00 0.000000e+00 0.000000e+00 8.990641e-01 1.009359e-01
 0.000000e+00 0.000000e+00 0.000000e+00 0.000000e+00 0.000000e+00
<ENDHMM>
~h "sil"
<BEGINHMM>
<NUMSTATES> 5
<STATE> 2
<NUMMIXES> 4
<MIXTURE> 1 2.500000e-01
<MEAN> 39
 -1.583984e+01 2.388491e+00 4.790897e+00 4.956983e+00 -3.476779e-01 1.543477e+01 -2.815695e+00 5.579331e+00 -2.993093e+00 1.279160e+00 -1.874655e+00 -3.959118e-01 5.455249e+01 9.678829e-01 1.828773e+00 -3.302947e-01 1.638899e+00 -2.454961e-01 1.252735e+00 1.140515e-01 1.536578e+00 8.485054e-01 8.197616e-01 6.824834e-01 2.232492e-01 -8.736697e-01 6.425454e-02 -4.350793e-02 1.161615e-01 1.198224e-01 3.493849e-01 -3.614530e-02 4.003522e-01 1.174954e-02 3.355733e-01 1.482463e-01 3.305889e-01 2.138641e-01 4.139766e-01
<VARIANCE> 39
 7.209950e+01 7.674710e+01 7.169733e+01 4.262271e+01 3.258035e+01 3.177893e+01 4.150972e+01 2.209202e+01 2.690383e+01 2.202418e+01 1.803462e+01 1.521291e+01 1.324822e+02 1.368629e+00 1.977962e+00 1.620289e+00 2.110385e+00 2.745483e+00 2.999270e+00 2.253844e+00 2.487554e+00 2.161214e+00 1.632028e+00 1.555834e+00 1.190342e+00 1.419346e+00 1.456333e-01 1.800209e-01 1.820642e-01 2.094556e-01 3.557287e-01 3.980729e-01 3.131690e-01 3.654748e-01 3.924725e-01 3.036330e-01 3.211418e-01 2.056260e-01 9.229984e-02
<GCONST> 1.089964e+02
<MIXTURE> 2 2.500000e-01
<MEAN> 39
 -1.923630e+01 -1.115726e+00 1.403926e+00 2.345540e+00 -2.630846e+00 1.317986e+01 -5.392817e+00 3.699245e+00 -5.067849e+00 -5.980374e-01 -3.573343e+00 -1.956061e+00 4.994846e+01 4.999292e-01 1.266213e+00 -8.394570e-01 1.057812e+00 -9.082760e-01 5.599986e-01 -4.864608e-01 9.056992e-01 2.604626e-01 3.087582e-01 1.835511e-01 -2.131620e-01 -1.350215e+00 -8.839319e-02 -2.132234e-01 -5.451445e-02 -6.324292e-02 1.108129e-01 -2.885174e-01 1.765062e-01 -2.300685e-01 8.498283e-02 -7.216527e-02 1.039114e-01 3.248011e-02 2.924530e-01
<VARIANCE> 39
 7.209950e+01 7.674710e+01 7.169733e+01 4.262271e+01 3.258035e+01 3.177893e+01 4.150972e+01 2.209202e+01 2.690383e+01 2.202418e+01 1.803462e+01 1.521291e+01 1.324822e+02 1.368629e+00 1.977962e+00 1.620289e+00 2.110385e+00 2.745483e+00 2.999270e+00 2.253844e+00 2.487554e+00 2.161214e+00 1.632028e+00 1.555834e+00 1.190342e+00 1.419346e+00 1.456333e-01 1.800209e-01 1.820642e-01 2.094556e-01 3.557287e-01 3.980729e-01 3.131690e-01 3.654748e-01 3.924725e-01 3.036330e-01 3.211418e-01 2.056260e-01 9.229984e-02
<GCONST> 1.089964e+02
<MIXTURE> 3 2.500000e-01
<MEAN> 39
 -1.923630e+01 -1.115726e+00 1.403926e+00 2.345540e+00 -2.630846e+00 1.317986e+01 -5.392817e+00 3.699245e+00 -5.067849e+00 -5.980374e-01 -3.573343e+00 -1.956061e+00 4.994846e+01 4.999292e-01 1.266213e+00 -8.394570e-01 1.057812e+00 -9.082761e-01 5.599986e-01 -4.864608e-01 9.056992e-01 2.604626e-01 3.087582e-01 1.835511e-01 -2.131620e-01 -1.350215e+00 -8.839318e-02 -2.132234e-01 -5.451445e-02 -6.324293e-02 1.108129e-01 -2.885174e-01 1.765062e-01 -2.300685e-01 8.498283e-02 -7.216528e-02 1.039114e-01 3.248011e-02 2.924530e-01
<VARIANCE> 39
 7.209950e+01 7.674710e+01 7.169733e+01 4.262271e+01 3.258035e+01 3.177893e+01 4.150972e+01 2.209202e+01 2.690383e+01 2.202418e+01 1.803462e+01 1.521291e+01 1.324822e+02 1.368629e+00 1.977962e+00 1.620289e+00 2.110385e+00 2.745483e+00 2.999270e+00 2.253844e+00 2.487554e+00 2.161214e+00 1.632028e+00 1.555834e+00 1.190342e+00 1.419346e+00 1.456333e-01 1.800209e-01 1.820642e-01 2.094556e-01 3.557287e-01 3.980729e-01 3.131690e-01 3.654748e-01 3.924725e-01 3.036330e-01 3.211418e-01 2.056260e-01 9.229984e-02
<GCONST> 1.089964e+02
<MIXTURE> 4 2.500000e-01
<MEAN> 39
 -2.263276e+01 -4.619943e+00 -1.983045e+00 -2.659028e-01 -4.914014e+00 1.092495e+01 -7.969939e+00 1.819159e+00 -7.142606e+00 -2.475235e+00 -5.272030e+00 -3.516210e+00 4.534443e+01 3.197551e-02 7.036530e-01 -1.348619e+00 4.767254e-01 -1.571056e+00 -1.327375e-01 -1.086973e+00 2.748199e-01 -3.275801e-01 -2.022452e-01 -3.153812e-01 -6.495731e-01 -1.826760e+00 -2.410409e-01 -3.829389e-01 -2.251904e-01 -2.463082e-01 -1.277591e-01 -5.408895e-01 -4.733981e-02 -4.718866e-01 -1.656077e-01 -2.925769e-01 -1.227661e-01 -1.489039e-01 1.709294e-01
<VARIANCE> 39
 7.209950e+01 7.674710e+01 7.169733e+01 4.262271e+01 3.258035e+01 3.177893e+01 4.150972e+01 2.209202e+01 2.690383e+01 2.202418e+01 1.803462e+01 1.521291e+01 1.324822e+02 1.368629e+00 1.977962e+00 1.620289e+00 2.110385e+00 2.745483e+00 2.999270e+00 2.253844e+00 2.487554e+00 2.161214e+00 1.632028e+00 1.555834e+00 1.190342e+00 1.419346e+00 1.456333e-01 1.800209e-01 1.820642e-01 2.094556e-01 3.557287e-01 3.980729e-01 3.131690e-01 3.654748e-01 3.924725e-01 3.036330e-01 3.211418e-01 2.056260e-01 9.229984e-02
<GCONST> 1.089964e+02
<STATE> 3
~s "silst"
<STATE> 4
<NUMMIXES> 4
<MIXTURE> 1 2.500000e-01
<MEAN> 39
 -1.372144e+01 4.495304e+00 -3.626115e+00 1.015139e+01 -3.870893e+00 1.301470e+01 -2.621929e+00 8.173435e+00 -2.470941e+00 1.426464e+00 -1.029259e+00 -1.808424e+00 4.826471e+01 3.976948e-02 3.498968e-01 1.367638e-01 2.701232e-01 2.288091e-01 2.661349e-01 3.757835e-01 5.434752e-01 4.899639e-01 3.825005e-01 4.097465e-01 3.990737e-01 -5.350025e-02 7.420853e-02 2.910101e-02 1.605371e-01 1.136587e-01 1.510891e-01 1.410792e-01 1.914956e-01 9.333396e-02 1.202307e-01 1.553307e-01 1.566599e-01 1.565514e-01 2.021165e-01
<VARIANCE> 39
 5.063229e+00 6.748387e+00 6.442144e+00 5.741322e+00 9.474334e+00 1.480037e+01 2.110887e+01 2.077062e+01 1.647445e+01 1.266410e+01 1.138698e+01 1.071691e+01 6.319569e+00 1.101547e-01 3.359529e-01 4.138105e-01 4.569765e-01 6.081568e-01 7.010749e-01 8.193755e-01 9.503575e-01 9.261110e-01 9.087304e-01 8.122162e-01 7.337568e-01 9.558169e-02 2.574245e-02 1.122240e-01 8.616533e-02 1.105711e-01 1.378146e-01 1.823249e-01 1.832872e-01 2.243092e-01 1.972416e-01 1.860145e-01 1.724619e-01 1.510218e-01 6.888854e-02
<GCONST> 6.572742e+01
<MIXTURE> 2 2.500000e-01
<MEAN> 39
 -1.462150e+01 3.456198e+00 -4.641370e+00 9.192951e+00 -5.102109e+00 1.147585e+01 -4.459705e+00 6.350443e+00 -4.094490e+00 2.997637e-03 -2.379043e+00 -3.117892e+00 4.725916e+01 -9.298877e-02 1.180510e-01 -1.205486e-01 -2.769828e-04 -8.312848e-02 -6.878595e-02 1.370603e-02 1.535301e-01 1.050252e-01 1.191124e-03 4.925433e-02 5.643529e-02 -1.771654e-01 1.003071e-02 -1.048984e-01 4.312133e-02 -1.935025e-02 2.595536e-03 -2.971886e-02 2.024740e-02 -9.611121e-02 -5.741686e-02 -1.718689e-02 -9.454221e-03 1.105323e-03 9.712997e-02
<VARIANCE> 39
 5.063229e+00 6.748387e+00 6.442144e+00 5.741322e+00 9.474334e+00 1.480037e+01 2.110887e+01 2.077062e+01 1.647445e+01 1.266410e+01 1.138698e+01 1.071691e+01 6.319569e+00 1.101547e-01 3.359529e-01 4.138105e-01 4.569765e-01 6.081568e-01 7.010749e-01 8.193755e-01 9.503575e-01 9.261110e-01 9.087304e-01 8.122162e-01 7.337568e-01 9.558169e-02 2.574245e-02 1.122240e-01 8.616533e-02 1.105711e-01 1.378146e-01 1.823249e-01 1.832872e-01 2.243092e-01 1.972416e-01 1.860145e-01 1.724619e-01 1.510218e-01 6.888854e-02
<GCONST> 6.572742e+01
<MIXTURE> 3 2.500000e-01
<MEAN> 39
 -1.462150e+01 3.456198e+00 -4.641370e+00 9.192951e+00 -5.102109e+00 1.147585e+01 -4.459705e+00 6.350443e+00 -4.094490e+00 2.997637e-03 -2.379043e+00 -3.117892e+00 4.725916e+01 -9.298877e-02 1.180510e-01 -1.205486e-01 -2.769828e-04 -8.312848e-02 -6.878595e-02 1.370603e-02 1.535301e-01 1.050252e-01 1.191124e-03 4.925433e-02 5.643529e-02 -1.771654e-01 1.003071e-02 -1.048984e-01 4.312133e-02 -1.935025e-02 2.595536e-03 -2.971886e-02 2.024740e-02 -9.611121e-02 -5.741686e-02 -1.718689e-02 -9.454221e-03 1.105323e-03 9.712996e-02
<VARIANCE> 39
 5.063229e+00 6.748387e+00 6.442144e+00 5.741322e+00 9.474334e+00 1.480037e+01 2.110887e+01 2.077062e+01 1.647445e+01 1.266410e+01 1.138698e+01 1.071691e+01 6.319569e+00 1.101547e-01 3.359529e-01 4.138105e-01 4.569765e-01 6.081568e-01 7.010749e-01 8.193755e-01 9.503575e-01 9.261110e-01 9.087304e-01 8.122162e-01 7.337568e-01 9.558169e-02 2.574245e-02 1.122240e-01 8.616533e-02 1.105711e-01 1.378146e-01 1.823249e-01 1.832872e-01 2.243092e-01 1.972416e-01 1.860145e-01 1.724619e-01 1.510218e-01 6.888854e-02
<GCONST> 6.572742e+01
<MIXTURE> 4 2.500000e-01
<MEAN> 39
 -1.552156e+01 2.417092e+00 -5.656625e+00 8.234509e+00 -6.333325e+00 9.936999e+00 -6.297480e+00 4.527451e+00 -5.718040e+00 -1.420469e+00 -3.728827e+00 -4.427360e+00 4.625361e+01 -2.257470e-01 -1.137948e-01 -3.778610e-01 -2.706771e-01 -3.950661e-01 -4.037068e-01 -3.483714e-01 -2.364150e-01 -2.799135e-01 -3.801183e-01 -3.112378e-01 -2.862031e-01 -3.008305e-01 -5.414711e-02 -2.388978e-01 -7.429440e-02 -1.523592e-01 -1.458980e-01 -2.005169e-01 -1.510008e-01 -2.855564e-01 -2.350644e-01 -1.897045e-01 -1.755684e-01 -1.543408e-01 -7.856533e-03
<VARIANCE> 39
 5.063229e+00 6.748387e+00 6.442144e+00 5.741322e+00 9.474334e+00 1.480037e+01 2.110887e+01 2.077062e+01 1.647445e+01 1.266410e+01 1.138698e+01 1.071691e+01 6.319569e+00 1.101547e-01 3.359529e-01 4.138105e-01 4.569765e-01 6.081568e-01 7.010749e-01 8.193755e-01 9.503575e-01 9.261110e-01 9.087304e-01 8.122162e-01 7.337568e-01 9.558169e-02 2.574245e-02 1.122240e-01 8.616533e-02 1.105711e-01 1.378146e-01 1.823249e-01 1.832872e-01 2.243092e-01 1.972416e-01 1.860145e-01 1.724619e-01 1.510218e-01 6.888854e-02
<GCONST> 6.572742e+01
<TRANSP> 5
 0.000000e+00 1.000000e+00 0.000000e+00 0.000000e+00 0.000000e+00
 0.000000e+00 6.967646e-01 7.337563e-02 2.298598e-01 0.000000e+00
 0.000000e+00 0.000000e+00 8.293050e-01 1.706950e-01 0.000000e+00
 0.000000e+00 4.806145e-03 0.000000e+00 9.032826e-01 9.191119e-02
 0.000000e+00 0.000000e+00 0.000000e+00 0.000000e+00 0.000000e+00
<ENDHMM>
