~o
<STREAMINFO> 1 39
<VECSIZE> 39<NULLD><MFCC_D_A_0><DIAGC>
~s "silst"
<MEAN> 39
 -1.795212e+01 1.669765e+00 -7.662085e+00 6.449231e+00 -7.337918e+00 8.723896e+00 -6.276854e+00 5.297324e+00 -4.923937e+00 5.613247e-01 1.028205e-02 -1.681997e+00 4.519986e+01 5.736839e-01 -1.212253e-01 -2.815302e-02 4.244745e-01 -1.115409e-01 -5.197433e-02 2.971581e-01 1.226813e-01 -1.500944e-01 2.106689e-02 9.566223e-02 -1.285854e-02 3.849407e-01 -3.172547e-02 1.872191e-01 -1.559866e-02 -1.535895e-01 1.322117e-01 1.216228e-01 -9.681910e-02 -6.721274e-03 2.096397e-01 1.506987e-02 -1.340875e-01 3.881028e-03 -7.056163e-02
<VARIANCE> 39
 1.084364e+02 8.610352e+01 3.672945e+01 5.295629e+01 3.772138e+01 5.668980e+01 5.229249e+01 4.127108e+01 4.805834e+01 2.488749e+01 2.806186e+01 2.082279e+01 1.341010e+02 8.986102e+00 6.975589e+00 2.080434e+00 4.767601e+00 3.500911e+00 4.698304e+00 4.172390e+00 3.901496e+00 4.880836e+00 2.568386e+00 2.931561e+00 1.888985e+00 8.836611e+00 1.264481e+00 1.154820e+00 3.697373e-01 8.367487e-01 6.399950e-01 8.806151e-01 7.469919e-01 7.599627e-01 9.005091e-01 5.065637e-01 5.690145e-01 3.781120e-01 1.268798e+00
<GCONST> 1.365168e+02
~h "k"
<BEGINHMM>
<NUMSTATES> 5
<STATE> 2
<MEAN> 39
 -1.329825e+01 1.207285e+00 -6.234233e+00 7.794517e+00 -5.160121e+00 1.073768e+01 -4.377811e+00 6.332495e+00 -3.085228e+00 1.522480e+00 -1.625760e+00 -2.723890e+00 4.933715e+01 -4.403487e-01 -3.961437e+00 4.505443e-01 -1.697926e+00 1.971860e+00 -2.756230e+00 4.974557e-01 -3.190197e+00 1.478818e-01 -8.930491e-02 7.858298e-02 -2.748291e-02 4.472291e+00 -1.973979e-01 -1.917657e+00 2.413010e-01 -1.051058e+00 8.917015e-01 -1.328683e+00 1.837157e-01 -1.699930e+00 9.787206e-02 -2.772181e-01 -3.942476e-02 -1.237339e-01 2.411721e+00
<VARIANCE> 39
 1.415781e+01 3.659371e+01 1.828279e+01 1.815061e+01 2.102649e+01 2.999650e+01 3.112227e+01 2.486254e+01 1.954187e+01 1.754022e+01 1.453923e+01 1.297875e+01 2.049736e+01 1.165944e+00 1.713821e+01 2.014143e+00 6.057401e+00 5.951798e+00 1.041341e+01 3.155003e+00 1.317024e+01 2.763854e+00 2.655778e+00 1.937911e+00 1.822694e+00 2.258675e+01 1.396709e-01 1.212151e+00 2.867591e-01 4.482728e-01 5.714203e-01 8.322943e-01 5.147378e-01 8.351043e-01 4.889815e-01 4.249276e-01 3.509919e-01 3.286413e-01 1.156362e+00
<GCONST> 1.216496e+02
<STATE> 3
<MEAN> 39
 -1.676121e+01 -2.719866e+01 -1.620045e+00 -7.597452e+00 7.452827e+00 -8.194386e+00 -1.333876e+00 -1.989372e+01 -7.301391e-01 -1.386701e+00 -2.628034e+00 -4.989574e+00 8.401095e+01 -3.556069e-02 -1.765921e+00 6.249628e-01 -9.203860e-01 2.385487e-01 -5.461149e-01 -1.679464e-01 -1.948064e+00 7.259004e-02 1.228234e-01 -3.614312e-01 -4.441324e-01 1.635449e+00 3.319533e-01 1.497048e+00 -2.384621e-01 9.324234e-01 -8.612856e-01 1.282087e+00 -3.721223e-01 1.459961e+00 -1.570627e-01 3.780809e-01 -1.016256e-01 1.533541e-01 -2.172246e+00
<VARIANCE> 39
 7.207070e+00 1.369561e+01 1.561126e+01 1.986096e+01 2.003212e+01 3.949942e+01 2.621990e+01 3.437770e+01 3.031231e+01 2.595487e+01 2.467837e+01 2.844143e+01 2.283597e+01 1.176318e+00 1.670407e+01 1.557568e+00 7.198958e+00 6.332222e+00 1.306867e+01 2.652510e+00 1.459960e+01 2.412787e+00 3.557461e+00 1.655994e+00 1.967672e+00 3.400044e+01 1.668515e-01 1.229169e+00 3.961402e-01 5.275519e-01 6.568352e-01 1.078181e+00 4.499535e-01 9.453700e-01 4.716949e-01 6.025116e-01 3.530078e-01 4.468120e-01 1.781672e+00
<GCONST> 1.252815e+02
<STATE> 4
<MEAN> 39
 -1.038673e+01 -1.660397e+01 -5.135915e+00 3.978647e+00 -2.342898e+00 5.969837e+00 -9.180933e+00 -1.011100e+01 -4.640118e+00 3.733217e+00 -5.648501e+00 -3.913260e+00 6.380103e+01 7.993489e-01 1.914200e+00 -1.072595e+00 2.021523e+00 -1.119514e+00 1.811051e+00 -6.122078e-01 1.760536e+00 -5.187114e-01 4.084480e-01 -7.013451e-02 2.172882e-01 -2.656542e+00 -2.191231e-01 -2.725538e-02 2.010768e-02 -1.404978e-01 2.628160e-01 -2.423863e-01 3.225423e-01 -1.188138e-01 1.045392e-01 -1.430800e-01 1.660218e-01 -1.229646e-01 3.614717e-01
<VARIANCE> 39
 1.148649e+01 3.316282e+01 1.951198e+01 4.641482e+01 2.181502e+01 4.087446e+01 2.948947e+01 4.040715e+01 4.644160e+01 1.921439e+01 2.351598e+01 2.476849e+01 3.412840e+01 1.258229e+00 1.166734e+00 1.382190e+00 2.015782e+00 2.288581e+00 2.684013e+00 3.437082e+00 5.115088e+00 4.338808e+00 2.135128e+00 1.954704e+00 1.935559e+00 2.597436e+00 1.834719e-01 2.546300e-01 3.139824e-01 4.103605e-01 3.339741e-01 4.353834e-01 5.219886e-01 1.017086e+00 1.026185e+00 4.960960e-01 3.664758e-01 3.695033e-01 2.851686e-01
<GCONST> 1.139944e+02
<TRANSP> 5
 0.000000e+00 1.000000e+00 0.000000e+00 0.000000e+00 0.000000e+00
 0.000000e+00 7.408416e-01 2.591585e-01 0.000000e+00 0.000000e+00
 0.000000e+00 0.000000e+00 8.421003e-01 1.578997e-01 0.000000e+00
 0.000000e+00 0.000000e+00 0.000000e+00 8.643202e-01 1.356798e-01
 0.000000e+00 0.000000e+00 0.000000e+00 0.000000e+00 0.000000e+00
<ENDHMM>
~h "p"
<BEGINHMM>
<NUMSTATES> 5
<STATE> 2
<MEAN> 39
 -1.367543e+01 3.084635e+00 -6.045459e+00 7.569168e+00 -6.608802e+00 1.044781e+01 -4.969179e+00 6.701251e+00 -3.317267e+00 4.407884e-01 -2.122383e+00 -2.980832e+00 4.789779e+01 8.429481e-01 -2.154676e+00 1.392426e+00 -1.375404e+00 1.530066e+00 -2.273494e+00 7.125129e-01 -2.293909e+00 -3.437243e-01 -1.412397e+00 1.620691e-01 7.612653e-02 4.282322e+00 5.916033e-01 -1.009902e+00 8.903166e-01 -5.772125e-01 9.142615e-01 -9.398624e-01 4.216528e-01 -1.099392e+00 -8.595394e-02 -7.685708e-01 -4.071007e-03 -6.291217e-02 2.322737e+00
<VARIANCE> 39
 1.390387e+01 9.133665e+00 1.698548e+01 1.073701e+01 1.200918e+01 1.533038e+01 2.240754e+01 1.616271e+01 1.480202e+01 1.179139e+01 1.064821e+01 9.090285e+00 9.844740e+00 1.451350e+00 5.030265e+00 3.873095e+00 3.186637e+00 4.200979e+00 6.059682e+00 2.752408e+00 7.008906e+00 2.385548e+00 3.950131e+00 1.598402e+00 1.469114e+00 1.914917e+01 1.233104e-01 2.616755e-01 2.227379e-01 3.525427e-01 3.623770e-01 4.975921e-01 3.848166e-01 4.939357e-01 3.785185e-01 3.206636e-01 2.580382e-01 2.503011e-01 6.175530e-01
<GCONST> 1.069214e+02
<STATE> 3
<MEAN> 39
 -5.350619e+00 -1.063453e+01 5.199615e+00 -1.303190e-01 5.181060e+00 -2.375246e+00 7.095460e-01 -7.819635e+00 -4.676024e+00 -9.933791e+00 -2.618246e+00 -3.423292e+00 7.835453e+01 1.754447e+00 -5.710291e-01 8.355619e-01 5.376786e-01 4.685248e-01 5.506411e-01 4.443125e-01 -2.632512e-02 5.276877e-02 -8.038452e-01 -8.995114e-01 -3.078122e-01 1.610644e+00 -2.827524e-01 1.276295e+00 -1.038453e+00 1.045727e+00 -1.331770e+00 1.490442e+00 -6.263919e-01 1.522552e+00 6.415085e-02 9.278882e-01 -2.304562e-01 1.976212e-03 -2.828095e+00
<VARIANCE> 39
 1.066857e+01 1.306392e+01 1.592776e+01 2.648005e+01 2.467067e+01 4.359305e+01 3.101085e+01 3.886978e+01 2.796232e+01 2.424258e+01 2.709089e+01 2.187409e+01 4.543336e+01 1.262613e+00 6.971141e+00 6.122778e+00 6.055590e+00 9.550160e+00 1.285923e+01 3.989161e+00 1.361798e+01 2.372552e+00 5.204562e+00 2.130144e+00 1.543060e+00 4.056871e+01 1.956692e-01 4.268446e-01 5.059866e-01 5.266700e-01 7.185113e-01 1.153292e+00 6.423344e-01 1.162541e+00 5.652986e-01 5.402391e-01 4.862320e-01 3.767205e-01 2.106507e+00
<GCONST> 1.290301e+02
<STATE> 4
<MEAN> 39
 -2.815888e+00 2.472137e+00 -4.626051e-01 1.180347e+01 -4.325900e+00 9.553966e+00 -4.767119e+00 2.508172e+00 -7.625326e+00 -4.721641e+00 -6.989537e+00 -5.771943e+00 5.828897e+01 -4.476877e-01 1.290538e+00 -6.678510e-01 5.577924e-01 -6.442122e-01 5.387158e-01 -4.660237e-01 5.204017e-01 -4.614417e-01 5.298788e-01 2.711597e-02 -1.635702e-01 -1.879478e+00 -2.197041e-01 -1.907933e-01 1.349754e-01 -3.477964e-01 2.922740e-01 -3.096471e-01 1.361880e-01 -2.686897e-01 3.813336e-02 -1.052638e-01 1.524225e-01 3.572613e-02 3.530523e-01
<VARIANCE> 39
 1.021937e+01 3.868281e+01 2.608325e+01 2.072862e+01 1.975963e+01 1.963641e+01 2.136918e+01 1.752419e+01 2.428242e+01 1.752468e+01 1.757417e+01 1.629633e+01 2.574570e+01 7.691886e-01 1.322671e+00 1.706385e+00 2.508868e+00 3.172911e+00 2.684695e+00 1.802997e+00 2.475188e+00 1.911364e+00 1.855428e+00 1.405640e+00 1.297205e+00 1.919677e+00 6.421446e-02 1.452246e-01 2.510091e-01 3.079371e-01 4.701230e-01 5.991008e-01 3.219461e-01 4.722747e-01 4.249594e-01 3.453608e-01 3.088523e-01 2.708904e-01 1.634647e-01
<GCONST> 1.018267e+02
<TRANSP> 5
 0.000000e+00 1.000000e+00 0.000000e+00 0.000000e+00 0.000000e+00
 0.000000e+00 7.088196e-01 2.911804e-01 0.000000e+00 0.000000e+00
 0.000000e+00 0.000000e+00 7.738557e-01 2.261443e-01 0.000000e+00
 0.000000e+00 0.000000e+00 0.000000e+00 8.900439e-01 1.099561e-01
 0.000000e+00 0.000000e+00 0.000000e+00 0.000000e+00 0.000000e+00
<ENDHMM>
~h "s"
<BEGINHMM>
<NUMSTATES> 5
<STATE> 2
<MEAN> 39
 -1.428597e+01 -1.019204e+00 -3.879564e+00 8.004250e+00 -5.472878e+00 9.352769e+00 -3.023952e+00 3.640981e+00 -3.758171e+00 1.623089e-01 -2.987239e+00 -1.859025e+00 5.101685e+01 -1.753928e+00 -3.339969e+00 1.257377e+00 -1.326112e+00 1.599553e+00 -2.296130e+00 2.023693e+00 -2.716425e+00 3.710214e-01 -6.317394e-01 1.296440e-01 1.122708e+00 3.010940e+00 -8.127446e-01 -1.037693e+00 5.497815e-01 -1.036448e+00 1.053851e+00 -9.242675e-01 5.634364e-01 -8.896808e-01 1.219194e-01 -3.128916e-01 1.563309e-01 1.828028e-01 1.409621e+00
<VARIANCE> 39
 1.779836e+01 5.627852e+01 3.218319e+01 2.544044e+01 2.438943e+01 4.123188e+01 4.267324e+01 5.220852e+01 2.733454e+01 2.317434e+01 2.524700e+01 2.339194e+01 2.628491e+01 3.005067e+00 9.161911e+00 4.619124e+00 5.821404e+00 6.277115e+00 7.451914e+00 5.050015e+00 8.620349e+00 3.138534e+00 3.034740e+00 2.628646e+00 2.477983e+00 7.918904e+00 2.284536e-01 1.250158e+00 7.026281e-01 7.761972e-01 6.826857e-01 9.002262e-01 7.712625e-01 1.226274e+00 4.894768e-01 4.738015e-01 4.754507e-01 4.885320e-01 5.412869e-01
<GCONST> 1.305040e+02
<STATE> 3
<MEAN> 39
 -2.823713e+01 -1.821664e+01 4.584135e+00 -8.707645e+00 1.067866e+01 -5.842460e+00 6.801009e+00 -1.043853e+01 -1.488151e+00 -4.624432e+00 7.919268e-02 1.731073e+00 7.367966e+01 -2.334707e+00 -1.606556e+00 1.550652e+00 -3.587418e+00 2.627872e+00 -1.467676e+00 5.594215e-01 -9.554276e-01 9.049534e-02 -7.371142e-01 8.748956e-01 -1.674348e-01 3.627413e+00 7.165954e-01 9.923414e-01 -3.163824e-01 6.734072e-01 -8.967987e-01 1.093422e+00 -7.274289e-01 9.254787e-01 -1.340671e-01 1.969873e-01 -8.483784e-02 -2.797596e-01 -1.119323e+00
<VARIANCE> 39
 1.974836e+01 2.698351e+01 5.154348e+01 5.579365e+01 4.551737e+01 3.853075e+01 3.442881e+01 3.383097e+01 3.132930e+01 2.603497e+01 3.248318e+01 2.165661e+01 3.265508e+01 3.396701e+00 6.606524e+00 4.516293e+00 5.070731e+00 7.016633e+00 7.893723e+00 4.975816e+00 6.719441e+00 2.379226e+00 2.500633e+00 2.042922e+00 1.926919e+00 6.401977e+00 3.847747e-01 9.663160e-01 8.507347e-01 1.006680e+00 9.068779e-01 8.321533e-01 7.506686e-01 1.068233e+00 5.180376e-01 5.090873e-01 5.046366e-01 4.795332e-01 4.503424e-01
<GCONST> 1.307756e+02
<STATE> 4
<MEAN> 39
 -2.811863e+01 -1.773238e+01 1.031983e+01 -1.252687e+01 9.233965e+00 1.600611e+00 2.851053e+00 -7.075570e+00 -2.515261e+00 -4.989614e+00 -2.308069e-02 1.068314e+00 7.314290e+01 1.152634e+00 9.064385e-01 1.581564e-01 8.954527e-01 -1.211975e+00 1.468292e+00 -7.839682e-01 1.114529e+00 -5.066274e-01 3.093381e-01 -6.029302e-01 -6.334048e-02 -1.732976e+00 2.124880e-01 2.619334e-01 -2.136812e-01 3.198918e-01 -2.598537e-01 9.393018e-02 -1.102251e-01 1.532798e-01 -2.159608e-02 1.174938e-01 -3.837482e-02 -4.125308e-02 -3.450741e-01
<VARIANCE> 39
 2.559290e+01 2.219829e+01 2.943584e+01 2.631388e+01 4.069508e+01 5.459142e+01 3.004614e+01 3.763291e+01 2.949111e+01 2.087644e+01 2.802444e+01 1.480119e+01 5.019962e+01 1.802419e+00 2.568626e+00 1.783530e+00 2.118085e+00 2.506151e+00 2.156949e+00 2.249960e+00 2.903877e+00 2.124259e+00 1.848486e+00 1.623022e+00 1.117937e+00 2.710478e+00 2.382301e-01 3.076622e-01 2.567089e-01 2.621671e-01 3.340829e-01 3.711201e-01 3.941647e-01 4.591272e-01 4.432520e-01 3.520269e-01 3.733462e-01 2.361403e-01 2.735154e-01
<GCONST> 1.104701e+02
<TRANSP> 5
 0.000000e+00 1.000000e+00 0.000000e+00 0.000000e+00 0.000000e+00
 0.000000e+00 7.479079e-01 2.520920e-01 0.000000e+00 0.000000e+00
 0.000000e+00 0.000000e+00 7.782570e-01 2.217430e-01 0.000000e+00
 0.000000e+00 0.000000e+00 0.000000e+00 9.007043e-01 9.929568e-02
 0.000000e+00 0.000000e+00 0.000000e+00 0.000000e+00 0.000000e+00
<ENDHMM>
~h "sil"
<BEGINHMM>
<NUMSTATES> 5
<STATE> 2
<MEAN> 39
 -1.548095e+01 -6.206181e-01 -3.340961e+00 5.301565e+00 -4.646408e+00 1.222809e+01 -6.461750e+00 3.092167e+00 -4.776444e+00 1.109892e+00 -2.840911e+00 -3.149972e+00 4.984955e+01 2.766662e-02 9.702049e-01 -6.590625e-01 5.454616e-01 -3.424351e-01 2.122443e-01 -4.724560e-02 7.500084e-01 4.838859e-01 2.464605e-01 3.420472e-01 -9.370808e-02 -9.700720e-01 -6.361445e-02 -1.764531e-01 4.680364e-02 -1.059202e-01 1.270414e-01 -2.356146e-01 1.018981e-01 -9.217061e-02 5.511335e-02 -7.941731e-02 5.971525e-03 8.344542e-02 2.152905e-01
<VARIANCE> 39
 7.072608e+01 5.518984e+01 5.582571e+01 3.770098e+01 2.281952e+01 2.628821e+01 3.511637e+01 2.793467e+01 2.579325e+01 2.430026e+01 1.700380e+01 1.685931e+01 8.547445e+01 1.068826e+00 1.516993e+00 1.729395e+00 1.981514e+00 2.442338e+00 2.229457e+00 1.850305e+00 2.023536e+00 2.278701e+00 1.678938e+00 1.418715e+00 1.305784e+00 7.338789e-01 1.031632e-01 1.852462e-01 1.936759e-01 2.411858e-01 3.586840e-01 3.554124e-01 3.476320e-01 3.789108e-01 4.256099e-01 3.160988e-01 2.891728e-01 2.341085e-01 7.654756e-02
<GCONST> 1.054333e+02
<STATE> 3
~s "silst"
<STATE> 4
<MEAN> 39
 -1.329589e+01 3.387796e+00 -7.115781e+00 7.482037e+00 -6.565476e+00 1.003672e+01 -5.884881e+00 6.093117e+00 -3.491254e+00 4.011737e-01 -1.975137e+00 -2.876044e+00 4.775044e+01 -7.923261e-02 9.554515e-02 -9.469588e-02 -2.046666e-02 -7.445166e-02 -3.440316e-02 1.366469e-02 1.066360e-01 7.404046e-02 -1.099368e-02 2.513415e-02 4.203213e-02 -1.443987e-01 5.627258e-03 -8.547692e-02 3.612776e-02 2.985891e-03 1.703611e-03 -2.159664e-02 1.852801e-02 -6.843154e-02 -5.245401e-02 -1.025376e-02 4.154029e-03 -2.859029e-03 6.957448e-02
<VARIANCE> 39
 1.434850e+01 7.691539e+00 1.463136e+01 9.857065e+00 1.098693e+01 1.411034e+01 1.833437e+01 1.534889e+01 1.367862e+01 1.130763e+01 1.056536e+01 9.507825e+00 9.015226e+00 9.859443e-02 3.097912e-01 3.612611e-01 4.474413e-01 5.864190e-01 6.695502e-01 7.935303e-01 8.588610e-01 8.684531e-01 8.861220e-01 8.159419e-01 7.376706e-01 9.232665e-02 2.479475e-02 8.974140e-02 8.130049e-02 1.058342e-01 1.332839e-01 1.664804e-01 1.765422e-01 1.989041e-01 1.873105e-01 1.852782e-01 1.733743e-01 1.552107e-01 4.172503e-02
<GCONST> 6.593088e+01
<TRANSP> 5
 0.000000e+00 1.000000e+00 0.000000e+00 0.000000e+00 0.000000e+00
 0.000000e+00 7.302990e-01 5.461455e-02 2.150865e-01 0.000000e+00
 0.000000e+00 0.000000e+00 8.536640e-01 1.463360e-01 0.000000e+00
 0.000000e+00 4.518976e-03 0.000000e+00 8.956051e-01 9.987590e-02
 0.000000e+00 0.000000e+00 0.000000e+00 0.000000e+00 0.000000e+00
<ENDHMM>
