~o
<STREAMINFO> 1 39
<VECSIZE> 39<NULLD><MFCC_D_A_0><DIAGC>
~s "silst"
<NUMMIXES> 16
<MIXTURE> 1 6.250000e-02
<MEAN> 39
 -1.055933e+01 3.660342e+00 4.784157e+00 1.359167e+01 -1.755655e+00 1.866894e+01 3.087950e+00 9.711640e+00 -1.966122e+00 4.247114e+00 3.086805e+00 2.220212e+00 5.699373e+01 2.199083e+00 2.429601e+00 9.615736e-01 2.515387e+00 1.282521e+00 1.913847e+00 1.970289e+00 2.177053e+00 2.085029e+00 1.649702e+00 1.533705e+00 1.020861e+00 1.732385e+00 2.536229e-01 9.231358e-01 4.372243e-01 3.353856e-01 9.505072e-01 7.734028e-01 5.879483e-01 7.584866e-01 1.136482e+00 6.973119e-01 5.666451e-01 5.774589e-01 5.161630e-01
<VARIANCE> 39
 2.896021e+01 5.181633e+01 5.861752e+01 5.036338e+01 3.290685e+01 6.216496e+01 4.368892e+01 5.092762e+01 4.967255e+01 3.869187e+01 3.979381e+01 2.965883e+01 5.421619e+01 3.923117e+00 6.055041e+00 2.740535e+00 4.069684e+00 3.533787e+00 5.271678e+00 4.257361e+00 4.367193e+00 5.637510e+00 3.347787e+00 2.926760e+00 2.164954e+00 5.654006e+00 4.585857e-01 9.508314e-01 3.797115e-01 6.014302e-01 5.955848e-01 1.036746e+00 7.909784e-01 8.633614e-01 9.958529e-01 6.469235e-01 6.576609e-01 4.222698e-01 6.461472e-01
<GCONST> 1.335551e+02
<MIXTURE> 2 6.250000e-02
<MEAN> 39
 -1.271192e+01 7.809997e-01 1.721673e+00 1.075299e+01 -4.050234e+00 1.551515e+01 4.440458e-01 6.857097e+00 -4.785272e+00 1.759002e+00 5.635114e-01 4.181504e-02 5.404847e+01 1.406809e+00 1.445322e+00 2.993912e-01 1.708449e+00 5.305859e-01 9.954416e-01 1.144954e+00 1.341140e+00 1.135291e+00 9.178233e-01 8.493935e-01 4.323095e-01 7.812589e-01 -1.725295e-02 5.330935e-01 1.907413e-01 2.517784e-02 6.418107e-01 3.661198e-01 2.322004e-01 3.868176e-01 7.373128e-01 3.755857e-01 2.422599e-01 3.175297e-01 1.946298e-01
<VARIANCE> 39
 2.896021e+01 5.181633e+01 5.861752e+01 5.036338e+01 3.290685e+01 6.216496e+01 4.368892e+01 5.092762e+01 4.967255e+01 3.869187e+01 3.979381e+01 2.965883e+01 5.421619e+01 3.923117e+00 6.055041e+00 2.740535e+00 4.069684e+00 3.533787e+00 5.271678e+00 4.257361e+00 4.367193e+00 5.637510e+00 3.347787e+00 2.926760e+00 2.164954e+00 5.654006e+00 4.585857e-01 9.508314e-01 3.797115e-01 6.014302e-01 5.955848e-01 1.036746e+00 7.909784e-01 8.633614e-01 9.958529e-01 6.469235e-01 6.576609e-01 4.222698e-01 6.461472e-01
<GCONST> 1.335551e+02
<MIXTURE> 3 6.250000e-02
<MEAN> 39
 -1.271192e+01 7.809997e-01 1.721673e+00 1.075299e+01 -4.050234e+00 1.551515e+01 4.440458e-01 6.857097e+00 -4.785272e+00 1.759002e+00 5.635115e-01 4.181504e-02 5.404847e+01 1.406809e+00 1.445322e+00 2.993912e-01 1.708449e+00 5.305858e-01 9.954416e-01 1.144954e+00 1.341140e+00 1.135291e+00 9.178233e-01 8.493935e-01 4.323095e-01 7.812589e-01 -1.725295e-02 5.330935e-01 1.907413e-01 2.517784e-02 6.418107e-01 3.661198e-01 2.322004e-01 3.868176e-01 7.373128e-01 3.755857e-01 2.422599e-01 3.175297e-01 1.946298e-01
<VARIANCE> 39
 2.896021e+01 5.181633e+01 5.861752e+01 5.036338e+01 3.290685e+01 6.216496e+01 4.368892e+01 5.092762e+01 4.967255e+01 3.869187e+01 3.979381e+01 2.965883e+01 5.421619e+01 3.923117e+00 6.055041e+00 2.740535e+00 4.069684e+00 3.533787e+00 5.271678e+00 4.257361e+00 4.367193e+00 5.637510e+00 3.347787e+00 2.926760e+00 2.164954e+00 5.654006e+00 4.585857e-01 9.508314e-01 3.797115e-01 6.014302e-01 5.955848e-01 1.036746e+00 7.909784e-01 8.633614e-01 9.958529e-01 6.469235e-01 6.576609e-01 4.222698e-01 6.461472e-01
<GCONST> 1.335551e+02
<MIXTURE> 4 6.250000e-02
<MEAN> 39
 -1.486451e+01 -2.098343e+00 -1.340810e+00 7.914300e+00 -6.344814e+00 1.236136e+01 -2.199858e+00 4.002553e+00 -7.604422e+00 -7.291100e-01 -1.959782e+00 -2.136582e+00 5.110320e+01 6.145343e-01 4.610420e-01 -3.627913e-01 9.015107e-01 -2.213490e-01 7.703614e-02 3.196188e-01 5.052263e-01 1.855535e-01 1.859450e-01 1.650825e-01 -1.562418e-01 -1.698672e-01 -2.881288e-01 1.430512e-01 -5.574162e-02 -2.850299e-01 3.331141e-01 -4.116309e-02 -1.235475e-01 1.514864e-02 3.381431e-01 5.385944e-02 -8.212525e-02 5.760053e-02 -1.269033e-01
<VARIANCE> 39
 2.896021e+01 5.181633e+01 5.861752e+01 5.036338e+01 3.290685e+01 6.216496e+01 4.368892e+01 5.092762e+01 4.967255e+01 3.869187e+01 3.979381e+01 2.965883e+01 5.421619e+01 3.923117e+00 6.055041e+00 2.740535e+00 4.069684e+00 3.533787e+00 5.271678e+00 4.257361e+00 4.367193e+00 5.637510e+00 3.347787e+00 2.926760e+00 2.164954e+00 5.654006e+00 4.585857e-01 9.508314e-01 3.797115e-01 6.014302e-01 5.955848e-01 1.036746e+00 7.909784e-01 8.633614e-01 9.958529e-01 6.469235e-01 6.576609e-01 4.222698e-01 6.461472e-01
<GCONST> 1.335551e+02
<MIXTURE> 5 6.250000e-02
<MEAN> 39
 -1.271192e+01 7.809997e-01 1.721673e+00 1.075299e+01 -4.050234e+00 1.551515e+01 4.440458e-01 6.857097e+00 -4.785272e+00 1.759002e+00 5.635115e-01 4.181504e-02 5.404847e+01 1.406809e+00 1.445322e+00 2.993912e-01 1.708449e+00 5.305858e-01 9.954416e-01 1.144954e+00 1.341140e+00 1.135291e+00 9.178233e-01 8.493935e-01 4.323095e-01 7.812589e-01 -1.725295e-02 5.330935e-01 1.907413e-01 2.517784e-02 6.418107e-01 3.661198e-01 2.322004e-01 3.868176e-01 7.373128e-01 3.755857e-01 2.422599e-01 3.175297e-01 1.946298e-01
<VARIANCE> 39
 2.896021e+01 5.181633e+01 5.861752e+01 5.036338e+01 3.290685e+01 6.216496e+01 4.368892e+01 5.092762e+01 4.967255e+01 3.869187e+01 3.979381e+01 2.965883e+01 5.421619e+01 3.923117e+00 6.055041e+00 2.740535e+00 4.069684e+00 3.533787e+00 5.271678e+00 4.257361e+00 4.367193e+00 5.637510e+00 3.347787e+00 2.926760e+00 2.164954e+00 5.654006e+00 4.585857e-01 9.508314e-01 3.797115e-01 6.014302e-01 5.955848e-01 1.036746e+00 7.909784e-01 8.633614e-01 9.958529e-01 6.469235e-01 6.576609e-01 4.222698e-01 6.461472e-01
<GCONST> 1.335551e+02
<MIXTURE> 6 6.250000e-02
<MEAN> 39
 -1.486451e+01 -2.098343e+00 -1.340810e+00 7.914300e+00 -6.344814e+00 1.236136e+01 -2.199858e+00 4.002553e+00 -7.604422e+00 -7.291099e-01 -1.959782e+00 -2.136582e+00 5.110320e+01 6.145343e-01 4.610420e-01 -3.627913e-01 9.015107e-01 -2.213490e-01 7.703614e-02 3.196188e-01 5.052263e-01 1.855535e-01 1.859450e-01 1.650825e-01 -1.562418e-01 -1.698672e-01 -2.881288e-01 1.430512e-01 -5.574162e-02 -2.850299e-01 3.331141e-01 -4.116309e-02 -1.235475e-01 1.514864e-02 3.381431e-01 5.385944e-02 -8.212525e-02 5.760053e-02 -1.269033e-01
<VARIANCE> 39
 2.896021e+01 5.181633e+01 5.861752e+01 5.036338e+01 3.290685e+01 6.216496e+01 4.368892e+01 5.092762e+01 4.967255e+01 3.869187e+01 3.979381e+01 2.965883e+01 5.421619e+01 3.923117e+00 6.055041e+00 2.740535e+00 4.069684e+00 3.533787e+00 5.271678e+00 4.257361e+00 4.367193e+00 5.637510e+00 3.347787e+00 2.926760e+00 2.164954e+00 5.654006e+00 4.585857e-01 9.508314e-01 3.797115e-01 6.014302e-01 5.955848e-01 1.036746e+00 7.909784e-01 8.633614e-01 9.958529e-01 6.469235e-01 6.576609e-01 4.222698e-01 6.461472e-01
<GCONST> 1.335551e+02
<MIXTURE> 7 6.250000e-02
<MEAN> 39
 -1.486451e+01 -2.098343e+00 -1.340810e+00 7.914300e+00 -6.344814e+00 1.236136e+01 -2.199858e+00 4.002553e+00 -7.604422e+00 -7.291099e-01 -1.959782e+00 -2.136582e+00 5.110320e+01 6.145343e-01 4.610420e-01 -3.627913e-01 9.015107e-01 -2.213490e-01 7.703614e-02 3.196188e-01 5.052264e-01 1.855535e-01 1.859450e-01 1.650825e-01 -1.562418e-01 -1.698672e-01 -2.881288e-01 1.430512e-01 -5.574162e-02 -2.850299e-01 3.331141e-01 -4.116309e-02 -1.235475e-01 1.514864e-02 3.381431e-01 5.385944e-02 -8.212525e-02 5.760053e-02 -1.269033e-01
<VARIANCE> 39
 2.896021e+01 5.181633e+01 5.861752e+01 5.036338e+01 3.290685e+01 6.216496e+01 4.368892e+01 5.092762e+01 4.967255e+01 3.869187e+01 3.979381e+01 2.965883e+01 5.421619e+01 3.923117e+00 6.055041e+00 2.740535e+00 4.069684e+00 3.533787e+00 5.271678e+00 4.257361e+00 4.367193e+00 5.637510e+00 3.347787e+00 2.926760e+00 2.164954e+00 5.654006e+00 4.585857e-01 9.508314e-01 3.797115e-01 6.014302e-01 5.955848e-01 1.036746e+00 7.909784e-01 8.633614e-01 9.958529e-01 6.469235e-01 6.576609e-01 4.222698e-01 6.461472e-01
<GCONST> 1.335551e+02
<MIXTURE> 8 6.250000e-02
<MEAN> 39
 -1.701710e+01 -4.977685e+00 -4.403294e+00 5.075614e+00 -8.639394e+00 9.207569e+00 -4.843761e+00 1.148009e+00 -1.042357e+01 -3.217222e+00 -4.483076e+00 -4.314979e+00 4.815793e+01 -1.777401e-01 -5.232377e-01 -1.024974e+00 9.457237e-02 -9.732838e-01 -8.413692e-01 -5.057162e-01 -3.306869e-01 -7.641842e-01 -5.459334e-01 -5.192285e-01 -7.447931e-01 -1.120993e+00 -5.590046e-01 -2.469911e-01 -3.022246e-01 -5.952376e-01 2.441752e-02 -4.484460e-01 -4.792954e-01 -3.565203e-01 -6.102662e-02 -2.678668e-01 -4.065105e-01 -2.023286e-01 -4.484364e-01
<VARIANCE> 39
 2.896021e+01 5.181633e+01 5.861752e+01 5.036338e+01 3.290685e+01 6.216496e+01 4.368892e+01 5.092762e+01 4.967255e+01 3.869187e+01 3.979381e+01 2.965883e+01 5.421619e+01 3.923117e+00 6.055041e+00 2.740535e+00 4.069684e+00 3.533787e+00 5.271678e+00 4.257361e+00 4.367193e+00 5.637510e+00 3.347787e+00 2.926760e+00 2.164954e+00 5.654006e+00 4.585857e-01 9.508314e-01 3.797115e-01 6.014302e-01 5.955848e-01 1.036746e+00 7.909784e-01 8.633614e-01 9.958529e-01 6.469235e-01 6.576609e-01 4.222698e-01 6.461472e-01
<GCONST> 1.335551e+02
<MIXTURE> 9 6.250000e-02
<MEAN> 39
 -1.271192e+01 7.809997e-01 1.721673e+00 1.075299e+01 -4.050234e+00 1.551515e+01 4.440458e-01 6.857097e+00 -4.785272e+00 1.759002e+00 5.635115e-01 4.181504e-02 5.404847e+01 1.406809e+00 1.445322e+00 2.993912e-01 1.708449e+00 5.305859e-01 9.954415e-01 1.144954e+00 1.341140e+00 1.135291e+00 9.178233e-01 8.493935e-01 4.323095e-01 7.812589e-01 -1.725295e-02 5.330935e-01 1.907413e-01 2.517784e-02 6.418107e-01 3.661198e-01 2.322004e-01 3.868176e-01 7.373128e-01 3.755857e-01 2.422600e-01 3.175297e-01 1.946298e-01
<VARIANCE> 39
 2.896021e+01 5.181633e+01 5.861752e+01 5.036338e+01 3.290685e+01 6.216496e+01 4.368892e+01 5.092762e+01 4.967255e+01 3.869187e+01 3.979381e+01 2.965883e+01 5.421619e+01 3.923117e+00 6.055041e+00 2.740535e+00 4.069684e+00 3.533787e+00 5.271678e+00 4.257361e+00 4.367193e+00 5.637510e+00 3.347787e+00 2.926760e+00 2.164954e+00 5.654006e+00 4.585857e-01 9.508314e-01 3.797115e-01 6.014302e-01 5.955848e-01 1.036746e+00 7.909784e-01 8.633614e-01 9.958529e-01 6.469235e-01 6.576609e-01 4.222698e-01 6.461472e-01
<GCONST> 1.335551e+02
<MIXTURE> 10 6.250000e-02
<MEAN> 39
 -1.486451e+01 -2.098343e+00 -1.340810e+00 7.914300e+00 -6.344814e+00 1.236136e+01 -2.199858e+00 4.002553e+00 -7.604422e+00 -7.291099e-01 -1.959782e+00 -2.136582e+00 5.110320e+01 6.145343e-01 4.610420e-01 -3.627913e-01 9.015107e-01 -2.213490e-01 7.703614e-02 3.196188e-01 5.052264e-01 1.855535e-01 1.859450e-01 1.650825e-01 -1.562418e-01 -1.698672e-01 -2.881288e-01 1.430512e-01 -5.574162e-02 -2.850299e-01 3.331141e-01 -4.116309e-02 -1.235475e-01 1.514864e-02 3.381431e-01 5.385944e-02 -8.212525e-02 5.760053e-02 -1.269033e-01
<VARIANCE> 39
 2.896021e+01 5.181633e+01 5.861752e+01 5.036338e+01 3.290685e+01 6.216496e+01 4.368892e+01 5.092762e+01 4.967255e+01 3.869187e+01 3.979381e+01 2.965883e+01 5.421619e+01 3.923117e+00 6.055041e+00 2.740535e+00 4.069684e+00 3.533787e+00 5.271678e+00 4.257361e+00 4.367193e+00 5.637510e+00 3.347787e+00 2.926760e+00 2.164954e+00 5.654006e+00 4.585857e-01 9.508314e-01 3.797115e-01 6.014302e-01 5.955848e-01 1.036746e+00 7.909784e-01 8.633614e-01 9.958529e-01 6.469235e-01 6.576609e-01 4.222698e-01 6.461472e-01
<GCONST> 1.335551e+02
<MIXTURE> 11 6.250000e-02
<MEAN> 39
 -1.486451e+01 -2.098343e+00 -1.340810e+00 7.914300e+00 -6.344814e+00 1.236136e+01 -2.199858e+00 4.002553e+00 -7.604422e+00 -7.291098e-01 -1.959782e+00 -2.136582e+00 5.110320e+01 6.145343e-01 4.610420e-01 -3.627913e-01 9.015107e-01 -2.213490e-01 7.703614e-02 3.196188e-01 5.052264e-01 1.855535e-01 1.859450e-01 1.650825e-01 -1.562418e-01 -1.698672e-01 -2.881288e-01 1.430512e-01 -5.574162e-02 -2.850299e-01 3.331141e-01 -4.116309e-02 -1.235475e-01 1.514864e-02 3.381431e-01 5.385944e-02 -8.212525e-02 5.760053e-02 -1.269033e-01
<VARIANCE> 39
 2.896021e+01 5.181633e+01 5.861752e+01 5.036338e+01 3.290685e+01 6.216496e+01 4.368892e+01 5.092762e+01 4.967255e+01 3.869187e+01 3.979381e+01 2.965883e+01 5.421619e+01 3.923117e+00 6.055041e+00 2.740535e+00 4.069684e+00 3.533787e+00 5.271678e+00 4.257361e+00 4.367193e+00 5.637510e+00 3.347787e+00 2.926760e+00 2.164954e+00 5.654006e+00 4.585857e-01 9.508314e-01 3.797115e-01 6.014302e-01 5.955848e-01 1.036746e+00 7.909784e-01 8.633614e-01 9.958529e-01 6.469235e-01 6.576609e-01 4.222698e-01 6.461472e-01
<GCONST> 1.335551e+02
<MIXTURE> 12 6.250000e-02
<MEAN> 39
 -1.701710e+01 -4.977685e+00 -4.403294e+00 5.075614e+00 -8.639394e+00 9.207569e+00 -4.843761e+00 1.148009e+00 -1.042357e+01 -3.217222e+00 -4.483076e+00 -4.314979e+00 4.815793e+01 -1.777401e-01 -5.232377e-01 -1.024974e+00 9.457237e-02 -9.732838e-01 -8.413693e-01 -5.057162e-01 -3.306869e-01 -7.641842e-01 -5.459334e-01 -5.192285e-01 -7.447931e-01 -1.120993e+00 -5.590046e-01 -2.469911e-01 -3.022246e-01 -5.952376e-01 2.441752e-02 -4.484460e-01 -4.792954e-01 -3.565204e-01 -6.102660e-02 -2.678668e-01 -4.065104e-01 -2.023286e-01 -4.484364e-01
<VARIANCE> 39
 2.896021e+01 5.181633e+01 5.861752e+01 5.036338e+01 3.290685e+01 6.216496e+01 4.368892e+01 5.092762e+01 4.967255e+01 3.869187e+01 3.979381e+01 2.965883e+01 5.421619e+01 3.923117e+00 6.055041e+00 2.740535e+00 4.069684e+00 3.533787e+00 5.271678e+00 4.257361e+00 4.367193e+00 5.637510e+00 3.347787e+00 2.926760e+00 2.164954e+00 5.654006e+00 4.585857e-01 9.508314e-01 3.797115e-01 6.014302e-01 5.955848e-01 1.036746e+00 7.909784e-01 8.633614e-01 9.958529e-01 6.469235e-01 6.576609e-01 4.222698e-01 6.461472e-01
<GCONST> 1.335551e+02
<MIXTURE> 13 6.250000e-02
<MEAN> 39
 -1.486451e+01 -2.098343e+00 -1.340810e+00 7.914300e+00 -6.344814e+00 1.236136e+01 -2.199858e+00 4.002553e+00 -7.604422e+00 -7.291098e-01 -1.959782e+00 -2.136582e+00 5.110320e+01 6.145343e-01 4.610420e-01 -3.627913e-01 9.015107e-01 -2.213490e-01 7.703614e-02 3.196187e-01 5.052264e-01 1.855534e-01 1.859450e-01 1.650825e-01 -1.562418e-01 -1.698672e-01 -2.881288e-01 1.430512e-01 -5.574162e-02 -2.850299e-01 3.331141e-01 -4.116309e-02 -1.235475e-01 1.514864e-02 3.381431e-01 5.385944e-02 -8.212525e-02 5.760053e-02 -1.269033e-01
<VARIANCE> 39
 2.896021e+01 5.181633e+01 5.861752e+01 5.036338e+01 3.290685e+01 6.216496e+01 4.368892e+01 5.092762e+01 4.967255e+01 3.869187e+01 3.979381e+01 2.965883e+01 5.421619e+01 3.923117e+00 6.055041e+00 2.740535e+00 4.069684e+00 3.533787e+00 5.271678e+00 4.257361e+00 4.367193e+00 5.637510e+00 3.347787e+00 2.926760e+00 2.164954e+00 5.654006e+00 4.585857e-01 9.508314e-01 3.797115e-01 6.014302e-01 5.955848e-01 1.036746e+00 7.909784e-01 8.633614e-01 9.958529e-01 6.469235e-01 6.576609e-01 4.222698e-01 6.461472e-01
<GCONST> 1.335551e+02
<MIXTURE> 14 6.250000e-02
<MEAN> 39
 -1.701710e+01 -4.977685e+00 -4.403294e+00 5.075614e+00 -8.639394e+00 9.207569e+00 -4.843761e+00 1.148009e+00 -1.042357e+01 -3.217222e+00 -4.483076e+00 -4.314979e+00 4.815793e+01 -1.777401e-01 -5.232377e-01 -1.024974e+00 9.457237e-02 -9.732838e-01 -8.413693e-01 -5.057162e-01 -3.306869e-01 -7.641842e-01 -5.459334e-01 -5.192285e-01 -7.447931e-01 -1.120993e+00 -5.590046e-01 -2.469911e-01 -3.022246e-01 -5.952376e-01 2.441752e-02 -4.484460e-01 -4.792954e-01 -3.565204e-01 -6.102660e-02 -2.678668e-01 -4.065104e-01 -2.023286e-01 -4.484364e-01
<VARIANCE> 39
 2.896021e+01 5.181633e+01 5.861752e+01 5.036338e+01 3.290685e+01 6.216496e+01 4.368892e+01 5.092762e+01 4.967255e+01 3.869187e+01 3.979381e+01 2.965883e+01 5.421619e+01 3.923117e+00 6.055041e+00 2.740535e+00 4.069684e+00 3.533787e+00 5.271678e+00 4.257361e+00 4.367193e+00 5.637510e+00 3.347787e+00 2.926760e+00 2.164954e+00 5.654006e+00 4.585857e-01 9.508314e-01 3.797115e-01 6.014302e-01 5.955848e-01 1.036746e+00 7.909784e-01 8.633614e-01 9.958529e-01 6.469235e-01 6.576609e-01 4.222698e-01 6.461472e-01
<GCONST> 1.335551e+02
<MIXTURE> 15 6.250000e-02
<MEAN> 39
 -1.701710e+01 -4.977685e+00 -4.403294e+00 5.075614e+00 -8.639394e+00 9.207571e+00 -4.843761e+00 1.148009e+00 -1.042357e+01 -3.217222e+00 -4.483076e+00 -4.314979e+00 4.815793e+01 -1.777402e-01 -5.232377e-01 -1.024974e+00 9.457237e-02 -9.732838e-01 -8.413693e-01 -5.057162e-01 -3.306869e-01 -7.641842e-01 -5.459334e-01 -5.192285e-01 -7.447931e-01 -1.120993e+00 -5.590046e-01 -2.469911e-01 -3.022246e-01 -5.952376e-01 2.441752e-02 -4.484460e-01 -4.792954e-01 -3.565204e-01 -6.102660e-02 -2.678668e-01 -4.065104e-01 -2.023286e-01 -4.484364e-01
<VARIANCE> 39
 2.896021e+01 5.181633e+01 5.861752e+01 5.036338e+01 3.290685e+01 6.216496e+01 4.368892e+01 5.092762e+01 4.967255e+01 3.869187e+01 3.979381e+01 2.965883e+01 5.421619e+01 3.923117e+00 6.055041e+00 2.740535e+00 4.069684e+00 3.533787e+00 5.271678e+00 4.257361e+00 4.367193e+00 5.637510e+00 3.347787e+00 2.926760e+00 2.164954e+00 5.654006e+00 4.585857e-01 9.508314e-01 3.797115e-01 6.014302e-01 5.955848e-01 1.036746e+00 7.909784e-01 8.633614e-01 9.958529e-01 6.469235e-01 6.576609e-01 4.222698e-01 6.461472e-01
<GCONST> 1.335551e+02
<MIXTURE> 16 6.250000e-02
<MEAN> 39
 -1.916969e+01 -7.857028e+00 -7.465776e+00 2.236928e+00 -1.093397e+01 6.053779e+00 -7.487665e+00 -1.706534e+00 -1.324272e+01 -5.705333e+00 -7.006369e+00 -6.493376e+00 4.521267e+01 -9.700146e-01 -1.507517e+00 -1.687156e+00 -7.123660e-01 -1.725219e+00 -1.759775e+00 -1.331051e+00 -1.166600e+00 -1.713922e+00 -1.277812e+00 -1.203540e+00 -1.333344e+00 -2.072119e+00 -8.298804e-01 -6.370335e-01 -5.487075e-01 -9.054453e-01 -2.842790e-01 -8.557289e-01 -8.350433e-01 -7.281893e-01 -4.601963e-01 -5.895930e-01 -7.308956e-01 -4.622578e-01 -7.699696e-01
<VARIANCE> 39
 2.896021e+01 5.181633e+01 5.861752e+01 5.036338e+01 3.290685e+01 6.216496e+01 4.368892e+01 5.092762e+01 4.967255e+01 3.869187e+01 3.979381e+01 2.965883e+01 5.421619e+01 3.923117e+00 6.055041e+00 2.740535e+00 4.069684e+00 3.533787e+00 5.271678e+00 4.257361e+00 4.367193e+00 5.637510e+00 3.347787e+00 2.926760e+00 2.164954e+00 5.654006e+00 4.585857e-01 9.508314e-01 3.797115e-01 6.014302e-01 5.955848e-01 1.036746e+00 7.909784e-01 8.633614e-01 9.958529e-01 6.469235e-01 6.576609e-01 4.222698e-01 6.461472e-01
<GCONST> 1.335551e+02
~h "k"
<BEGINHMM>
<NUMSTATES> 5
<STATE> 2
<NUMMIXES> 16
<MIXTURE> 1 6.250000e-02
<MEAN> 39
 -1.257104e+01 6.197160e+00 -1.577085e+00 1.257256e+01 -2.968711e-01 1.670514e+01 1.492459e+00 1.124374e+01 4.560407e-01 4.906748e+00 1.530723e+00 4.585654e-01 5.269744e+01 5.113588e-01 -8.951750e-01 1.151713e+00 7.923949e-02 3.354591e+00 -3.507530e-01 1.787564e+00 -4.894951e-01 1.470427e+00 1.387410e+00 1.226042e+00 1.151128e+00 8.682666e+00 1.584223e-01 -1.001637e+00 4.847812e-01 -6.879801e-01 1.270000e+00 -6.221535e-01 7.597660e-01 -9.581459e-01 6.690293e-01 3.113791e-01 4.581090e-01 4.074221e-01 3.372987e+00
<VARIANCE> 39
 7.750007e+00 4.616278e+01 1.160307e+01 1.723161e+01 1.783547e+01 2.945922e+01 2.896378e+01 2.972893e+01 2.215516e+01 2.104423e+01 1.670635e+01 1.384496e+01 2.322063e+01 7.908753e-01 1.777784e+01 1.632326e+00 7.324806e+00 4.251869e+00 1.155814e+01 3.230021e+00 1.439153e+01 2.968860e+00 2.731140e+00 2.078527e+00 1.635486e+00 2.334262e+01 1.073143e-01 1.432037e+00 2.494783e-01 4.593229e-01 4.711324e-01 9.182248e-01 5.313329e-01 9.785788e-01 5.078478e-01 4.243447e-01 3.732855e-01 2.832719e-01 1.259092e+00
<GCONST> 1.208538e+02
<MIXTURE> 2 6.250000e-02
<MEAN> 39
 -1.368460e+01 3.479432e+00 -2.939617e+00 1.091212e+01 -1.986154e+00 1.453409e+01 -6.602616e-01 9.062769e+00 -1.426731e+00 3.071789e+00 -1.042129e-01 -1.029787e+00 5.076992e+01 1.556341e-01 -2.581726e+00 6.406628e-01 -1.003336e+00 2.529788e+00 -1.710644e+00 1.068674e+00 -2.006942e+00 7.812114e-01 7.263637e-01 6.493576e-01 6.395835e-01 6.750098e+00 2.738684e-02 -1.480308e+00 2.849900e-01 -9.590736e-01 9.954441e-01 -1.005450e+00 4.681957e-01 -1.353838e+00 3.839756e-01 5.081208e-02 2.137206e-01 1.945289e-01 2.924149e+00
<VARIANCE> 39
 7.750007e+00 4.616278e+01 1.160307e+01 1.723161e+01 1.783547e+01 2.945922e+01 2.896378e+01 2.972893e+01 2.215516e+01 2.104423e+01 1.670635e+01 1.384496e+01 2.322063e+01 7.908753e-01 1.777784e+01 1.632326e+00 7.324806e+00 4.251869e+00 1.155814e+01 3.230021e+00 1.439153e+01 2.968860e+00 2.731140e+00 2.078527e+00 1.635486e+00 2.334262e+01 1.073143e-01 1.432037e+00 2.494783e-01 4.593229e-01 4.711324e-01 9.182248e-01 5.313329e-01 9.785788e-01 5.078478e-01 4.243447e-01 3.732855e-01 2.832719e-01 1.259092e+00
<GCONST> 1.208538e+02
<MIXTURE> 3 6.250000e-02
<MEAN> 39
 -1.368460e+01 3.479432e+00 -2.939617e+00 1.091212e+01 -1.986154e+00 1.453408e+01 -6.602616e-01 9.062770e+00 -1.426730e+00 3.071789e+00 -1.042129e-01 -1.029787e+00 5.076992e+01 1.556341e-01 -2.581726e+00 6.406628e-01 -1.003336e+00 2.529788e+00 -1.710644e+00 1.068674e+00 -2.006942e+00 7.812114e-01 7.263637e-01 6.493576e-01 6.395835e-01 6.750098e+00 2.738684e-02 -1.480308e+00 2.849900e-01 -9.590736e-01 9.954439e-01 -1.005450e+00 4.681957e-01 -1.353838e+00 3.839756e-01 5.081208e-02 2.137206e-01 1.945289e-01 2.924149e+00
<VARIANCE> 39
 7.750007e+00 4.616278e+01 1.160307e+01 1.723161e+01 1.783547e+01 2.945922e+01 2.896378e+01 2.972893e+01 2.215516e+01 2.104423e+01 1.670635e+01 1.384496e+01 2.322063e+01 7.908753e-01 1.777784e+01 1.632326e+00 7.324806e+00 4.251869e+00 1.155814e+01 3.230021e+00 1.439153e+01 2.968860e+00 2.731140e+00 2.078527e+00 1.635486e+00 2.334262e+01 1.073143e-01 1.432037e+00 2.494783e-01 4.593229e-01 4.711324e-01 9.182248e-01 5.313329e-01 9.785788e-01 5.078478e-01 4.243447e-01 3.732855e-01 2.832719e-01 1.259092e+00
<GCONST> 1.208538e+02
<MIXTURE> 4 6.250000e-02
<MEAN> 39
 -1.479815e+01 7.617041e-01 -4.302148e+00 9.251685e+00 -3.675436e+00 1.236303e+01 -2.812982e+00 6.881800e+00 -3.309501e+00 1.236829e+00 -1.739149e+00 -2.518140e+00 4.884241e+01 -2.000906e-01 -4.268277e+00 1.296128e-01 -2.085911e+00 1.704986e+00 -3.070534e+00 3.497832e-01 -3.524389e+00 9.199625e-02 6.531721e-02 7.267374e-02 1.280390e-01 4.817530e+00 -1.036486e-01 -1.958979e+00 8.519883e-02 -1.230167e+00 7.208877e-01 -1.388746e+00 1.766254e-01 -1.749531e+00 9.892179e-02 -2.097549e-01 -3.066782e-02 -1.836425e-02 2.475312e+00
<VARIANCE> 39
 7.750007e+00 4.616278e+01 1.160307e+01 1.723161e+01 1.783547e+01 2.945922e+01 2.896378e+01 2.972893e+01 2.215516e+01 2.104423e+01 1.670635e+01 1.384496e+01 2.322063e+01 7.908753e-01 1.777784e+01 1.632326e+00 7.324806e+00 4.251869e+00 1.155814e+01 3.230021e+00 1.439153e+01 2.968860e+00 2.731140e+00 2.078527e+00 1.635486e+00 2.334262e+01 1.073143e-01 1.432037e+00 2.494783e-01 4.593229e-01 4.711324e-01 9.182248e-01 5.313329e-01 9.785788e-01 5.078478e-01 4.243447e-01 3.732855e-01 2.832719e-01 1.259092e+00
<GCONST> 1.208538e+02
<MIXTURE> 5 6.250000e-02
<MEAN> 39
 -1.368460e+01 3.479432e+00 -2.939617e+00 1.091212e+01 -1.986154e+00 1.453408e+01 -6.602616e-01 9.062770e+00 -1.426730e+00 3.071789e+00 -1.042129e-01 -1.029787e+00 5.076992e+01 1.556341e-01 -2.581726e+00 6.406628e-01 -1.003336e+00 2.529788e+00 -1.710644e+00 1.068674e+00 -2.006942e+00 7.812114e-01 7.263637e-01 6.493576e-01 6.395835e-01 6.750098e+00 2.738684e-02 -1.480308e+00 2.849900e-01 -9.590736e-01 9.954439e-01 -1.005450e+00 4.681957e-01 -1.353838e+00 3.839756e-01 5.081208e-02 2.137206e-01 1.945289e-01 2.924149e+00
<VARIANCE> 39
 7.750007e+00 4.616278e+01 1.160307e+01 1.723161e+01 1.783547e+01 2.945922e+01 2.896378e+01 2.972893e+01 2.215516e+01 2.104423e+01 1.670635e+01 1.384496e+01 2.322063e+01 7.908753e-01 1.777784e+01 1.632326e+00 7.324806e+00 4.251869e+00 1.155814e+01 3.230021e+00 1.439153e+01 2.968860e+00 2.731140e+00 2.078527e+00 1.635486e+00 2.334262e+01 1.073143e-01 1.432037e+00 2.494783e-01 4.593229e-01 4.711324e-01 9.182248e-01 5.313329e-01 9.785788e-01 5.078478e-01 4.243447e-01 3.732855e-01 2.832719e-01 1.259092e+00
<GCONST> 1.208538e+02
<MIXTURE> 6 6.250000e-02
<MEAN> 39
 -1.479815e+01 7.617041e-01 -4.302148e+00 9.251685e+00 -3.675436e+00 1.236303e+01 -2.812982e+00 6.881800e+00 -3.309501e+00 1.236829e+00 -1.739149e+00 -2.518140e+00 4.884241e+01 -2.000906e-01 -4.268277e+00 1.296128e-01 -2.085911e+00 1.704986e+00 -3.070534e+00 3.497832e-01 -3.524389e+00 9.199625e-02 6.531724e-02 7.267375e-02 1.280390e-01 4.817530e+00 -1.036486e-01 -1.958979e+00 8.519883e-02 -1.230167e+00 7.208877e-01 -1.388746e+00 1.766254e-01 -1.749531e+00 9.892179e-02 -2.097549e-01 -3.066782e-02 -1.836425e-02 2.475312e+00
<VARIANCE> 39
 7.750007e+00 4.616278e+01 1.160307e+01 1.723161e+01 1.783547e+01 2.945922e+01 2.896378e+01 2.972893e+01 2.215516e+01 2.104423e+01 1.670635e+01 1.384496e+01 2.322063e+01 7.908753e-01 1.777784e+01 1.632326e+00 7.324806e+00 4.251869e+00 1.155814e+01 3.230021e+00 1.439153e+01 2.968860e+00 2.731140e+00 2.078527e+00 1.635486e+00 2.334262e+01 1.073143e-01 1.432037e+00 2.494783e-01 4.593229e-01 4.711324e-01 9.182248e-01 5.313329e-01 9.785788e-01 5.078478e-01 4.243447e-01 3.732855e-01 2.832719e-01 1.259092e+00
<GCONST> 1.208538e+02
<MIXTURE> 7 6.250000e-02
<MEAN> 39
 -1.479815e+01 7.617041e-01 -4.302148e+00 9.251685e+00 -3.675436e+00 1.236303e+01 -2.812982e+00 6.881801e+00 -3.309501e+00 1.236829e+00 -1.739149e+00 -2.518140e+00 4.884241e+01 -2.000906e-01 -4.268277e+00 1.296128e-01 -2.085911e+00 1.704986e+00 -3.070534e+00 3.497832e-01 -3.524389e+00 9.199625e-02 6.531724e-02 7.267374e-02 1.280390e-01 4.817531e+00 -1.036486e-01 -1.958979e+00 8.519883e-02 -1.230167e+00 7.208875e-01 -1.388746e+00 1.766254e-01 -1.749531e+00 9.892179e-02 -2.097549e-01 -3.066782e-02 -1.836425e-02 2.475312e+00
<VARIANCE> 39
 7.750007e+00 4.616278e+01 1.160307e+01 1.723161e+01 1.783547e+01 2.945922e+01 2.896378e+01 2.972893e+01 2.215516e+01 2.104423e+01 1.670635e+01 1.384496e+01 2.322063e+01 7.908753e-01 1.777784e+01 1.632326e+00 7.324806e+00 4.251869e+00 1.155814e+01 3.230021e+00 1.439153e+01 2.968860e+00 2.731140e+00 2.078527e+00 1.635486e+00 2.334262e+01 1.073143e-01 1.432037e+00 2.494783e-01 4.593229e-01 4.711324e-01 9.182248e-01 5.313329e-01 9.785788e-01 5.078478e-01 4.243447e-01 3.732855e-01 2.832719e-01 1.259092e+00
<GCONST> 1.208538e+02
<MIXTURE> 8 6.250000e-02
<MEAN> 39
 -1.591170e+01 -1.956024e+00 -5.664680e+00 7.591247e+00 -5.364718e+00 1.019198e+01 -4.965703e+00 4.700830e+00 -5.192272e+00 -5.981306e-01 -3.374085e+00 -4.006493e+00 4.691490e+01 -5.558153e-01 -5.954828e+00 -3.814373e-01 -3.168486e+00 8.801836e-01 -4.430425e+00 -3.691072e-01 -5.041836e+00 -5.972189e-01 -5.957292e-01 -5.040101e-01 -3.835055e-01 2.884962e+00 -2.346841e-01 -2.437650e+00 -1.145924e-01 -1.501260e+00 4.463313e-01 -1.772042e+00 -1.149449e-01 -2.145224e+00 -1.861320e-01 -4.703219e-01 -2.750562e-01 -2.312574e-01 2.026475e+00
<VARIANCE> 39
 7.750007e+00 4.616278e+01 1.160307e+01 1.723161e+01 1.783547e+01 2.945922e+01 2.896378e+01 2.972893e+01 2.215516e+01 2.104423e+01 1.670635e+01 1.384496e+01 2.322063e+01 7.908753e-01 1.777784e+01 1.632326e+00 7.324806e+00 4.251869e+00 1.155814e+01 3.230021e+00 1.439153e+01 2.968860e+00 2.731140e+00 2.078527e+00 1.635486e+00 2.334262e+01 1.073143e-01 1.432037e+00 2.494783e-01 4.593229e-01 4.711324e-01 9.182248e-01 5.313329e-01 9.785788e-01 5.078478e-01 4.243447e-01 3.732855e-01 2.832719e-01 1.259092e+00
<GCONST> 1.208538e+02
<MIXTURE> 9 6.250000e-02
<MEAN> 39
 -1.368460e+01 3.479432e+00 -2.939617e+00 1.091212e+01 -1.986154e+00 1.453408e+01 -6.602616e-01 9.062770e+00 -1.426730e+00 3.071789e+00 -1.042129e-01 -1.029787e+00 5.076992e+01 1.556341e-01 -2.581726e+00 6.406629e-01 -1.003336e+00 2.529788e+00 -1.710644e+00 1.068674e+00 -2.006942e+00 7.812114e-01 7.263637e-01 6.493576e-01 6.395835e-01 6.750098e+00 2.738684e-02 -1.480308e+00 2.849900e-01 -9.590736e-01 9.954439e-01 -1.005450e+00 4.681957e-01 -1.353838e+00 3.839756e-01 5.081208e-02 2.137206e-01 1.945289e-01 2.924149e+00
<VARIANCE> 39
 7.750007e+00 4.616278e+01 1.160307e+01 1.723161e+01 1.783547e+01 2.945922e+01 2.896378e+01 2.972893e+01 2.215516e+01 2.104423e+01 1.670635e+01 1.384496e+01 2.322063e+01 7.908753e-01 1.777784e+01 1.632326e+00 7.324806e+00 4.251869e+00 1.155814e+01 3.230021e+00 1.439153e+01 2.968860e+00 2.731140e+00 2.078527e+00 1.635486e+00 2.334262e+01 1.073143e-01 1.432037e+00 2.494783e-01 4.593229e-01 4.711324e-01 9.182248e-01 5.313329e-01 9.785788e-01 5.078478e-01 4.243447e-01 3.732855e-01 2.832719e-01 1.259092e+00
<GCONST> 1.208538e+02
<MIXTURE> 10 6.250000e-02
<MEAN> 39
 -1.479815e+01 7.617041e-01 -4.302148e+00 9.251685e+00 -3.675436e+00 1.236303e+01 -2.812982e+00 6.881800e+00 -3.309501e+00 1.236829e+00 -1.739149e+00 -2.518140e+00 4.884241e+01 -2.000906e-01 -4.268277e+00 1.296128e-01 -2.085911e+00 1.704986e+00 -3.070534e+00 3.497832e-01 -3.524389e+00 9.199625e-02 6.531724e-02 7.267374e-02 1.280390e-01 4.817531e+00 -1.036486e-01 -1.958979e+00 8.519883e-02 -1.230167e+00 7.208877e-01 -1.388746e+00 1.766254e-01 -1.749531e+00 9.892179e-02 -2.097549e-01 -3.066782e-02 -1.836425e-02 2.475312e+00
<VARIANCE> 39
 7.750007e+00 4.616278e+01 1.160307e+01 1.723161e+01 1.783547e+01 2.945922e+01 2.896378e+01 2.972893e+01 2.215516e+01 2.104423e+01 1.670635e+01 1.384496e+01 2.322063e+01 7.908753e-01 1.777784e+01 1.632326e+00 7.324806e+00 4.251869e+00 1.155814e+01 3.230021e+00 1.439153e+01 2.968860e+00 2.731140e+00 2.078527e+00 1.635486e+00 2.334262e+01 1.073143e-01 1.432037e+00 2.494783e-01 4.593229e-01 4.711324e-01 9.182248e-01 5.313329e-01 9.785788e-01 5.078478e-01 4.243447e-01 3.732855e-01 2.832719e-01 1.259092e+00
<GCONST> 1.208538e+02
<MIXTURE> 11 6.250000e-02
<MEAN> 39
 -1.479815e+01 7.617041e-01 -4.302148e+00 9.251685e+00 -3.675436e+00 1.236303e+01 -2.812982e+00 6.881801e+00 -3.309501e+00 1.236829e+00 -1.739149e+00 -2.518140e+00 4.884241e+01 -2.000906e-01 -4.268277e+00 1.296128e-01 -2.085911e+00 1.704986e+00 -3.070534e+00 3.497832e-01 -3.524389e+00 9.199625e-02 6.531724e-02 7.267374e-02 1.280390e-01 4.817531e+00 -1.036486e-01 -1.958979e+00 8.519883e-02 -1.230167e+00 7.208875e-01 -1.388746e+00 1.766254e-01 -1.749531e+00 9.892179e-02 -2.097549e-01 -3.066782e-02 -1.836425e-02 2.475312e+00
<VARIANCE> 39
 7.750007e+00 4.616278e+01 1.160307e+01 1.723161e+01 1.783547e+01 2.945922e+01 2.896378e+01 2.972893e+01 2.215516e+01 2.104423e+01 1.670635e+01 1.384496e+01 2.322063e+01 7.908753e-01 1.777784e+01 1.632326e+00 7.324806e+00 4.251869e+00 1.155814e+01 3.230021e+00 1.439153e+01 2.968860e+00 2.731140e+00 2.078527e+00 1.635486e+00 2.334262e+01 1.073143e-01 1.432037e+00 2.494783e-01 4.593229e-01 4.711324e-01 9.182248e-01 5.313329e-01 9.785788e-01 5.078478e-01 4.243447e-01 3.732855e-01 2.832719e-01 1.259092e+00
<GCONST> 1.208538e+02
<MIXTURE> 12 6.250000e-02
<MEAN> 39
 -1.591170e+01 -1.956024e+00 -5.664680e+00 7.591247e+00 -5.364718e+00 1.019198e+01 -4.965703e+00 4.700830e+00 -5.192272e+00 -5.981306e-01 -3.374085e+00 -4.006493e+00 4.691490e+01 -5.558153e-01 -5.954828e+00 -3.814372e-01 -3.168486e+00 8.801836e-01 -4.430425e+00 -3.691072e-01 -5.041836e+00 -5.972189e-01 -5.957292e-01 -5.040101e-01 -3.835055e-01 2.884962e+00 -2.346841e-01 -2.437650e+00 -1.145924e-01 -1.501260e+00 4.463313e-01 -1.772042e+00 -1.149449e-01 -2.145224e+00 -1.861320e-01 -4.703219e-01 -2.750562e-01 -2.312574e-01 2.026475e+00
<VARIANCE> 39
 7.750007e+00 4.616278e+01 1.160307e+01 1.723161e+01 1.783547e+01 2.945922e+01 2.896378e+01 2.972893e+01 2.215516e+01 2.104423e+01 1.670635e+01 1.384496e+01 2.322063e+01 7.908753e-01 1.777784e+01 1.632326e+00 7.324806e+00 4.251869e+00 1.155814e+01 3.230021e+00 1.439153e+01 2.968860e+00 2.731140e+00 2.078527e+00 1.635486e+00 2.334262e+01 1.073143e-01 1.432037e+00 2.494783e-01 4.593229e-01 4.711324e-01 9.182248e-01 5.313329e-01 9.785788e-01 5.078478e-01 4.243447e-01 3.732855e-01 2.832719e-01 1.259092e+00
<GCONST> 1.208538e+02
<MIXTURE> 13 6.250000e-02
<MEAN> 39
 -1.479815e+01 7.617043e-01 -4.302148e+00 9.251685e+00 -3.675436e+00 1.236303e+01 -2.812982e+00 6.881801e+00 -3.309501e+00 1.236829e+00 -1.739149e+00 -2.518140e+00 4.884241e+01 -2.000906e-01 -4.268277e+00 1.296128e-01 -2.085911e+00 1.704986e+00 -3.070534e+00 3.497832e-01 -3.524389e+00 9.199625e-02 6.531721e-02 7.267374e-02 1.280390e-01 4.817531e+00 -1.036486e-01 -1.958979e+00 8.519884e-02 -1.230167e+00 7.208875e-01 -1.388746e+00 1.766254e-01 -1.749531e+00 9.892181e-02 -2.097549e-01 -3.066783e-02 -1.836425e-02 2.475312e+00
<VARIANCE> 39
 7.750007e+00 4.616278e+01 1.160307e+01 1.723161e+01 1.783547e+01 2.945922e+01 2.896378e+01 2.972893e+01 2.215516e+01 2.104423e+01 1.670635e+01 1.384496e+01 2.322063e+01 7.908753e-01 1.777784e+01 1.632326e+00 7.324806e+00 4.251869e+00 1.155814e+01 3.230021e+00 1.439153e+01 2.968860e+00 2.731140e+00 2.078527e+00 1.635486e+00 2.334262e+01 1.073143e-01 1.432037e+00 2.494783e-01 4.593229e-01 4.711324e-01 9.182248e-01 5.313329e-01 9.785788e-01 5.078478e-01 4.243447e-01 3.732855e-01 2.832719e-01 1.259092e+00
<GCONST> 1.208538e+02
<MIXTURE> 14 6.250000e-02
<MEAN> 39
 -1.591170e+01 -1.956024e+00 -5.664680e+00 7.591247e+00 -5.364718e+00 1.019198e+01 -4.965703e+00 4.700830e+00 -5.192272e+00 -5.981306e-01 -3.374085e+00 -4.006493e+00 4.691490e+01 -5.558153e-01 -5.954828e+00 -3.814372e-01 -3.168486e+00 8.801836e-01 -4.430425e+00 -3.691072e-01 -5.041836e+00 -5.972189e-01 -5.957292e-01 -5.040101e-01 -3.835055e-01 2.884962e+00 -2.346841e-01 -2.437650e+00 -1.145924e-01 -1.501260e+00 4.463313e-01 -1.772042e+00 -1.149449e-01 -2.145224e+00 -1.861320e-01 -4.703219e-01 -2.750562e-01 -2.312574e-01 2.026475e+00
<VARIANCE> 39
 7.750007e+00 4.616278e+01 1.160307e+01 1.723161e+01 1.783547e+01 2.945922e+01 2.896378e+01 2.972893e+01 2.215516e+01 2.104423e+01 1.670635e+01 1.384496e+01 2.322063e+01 7.908753e-01 1.777784e+01 1.632326e+00 7.324806e+00 4.251869e+00 1.155814e+01 3.230021e+00 1.439153e+01 2.968860e+00 2.731140e+00 2.078527e+00 1.635486e+00 2.334262e+01 1.073143e-01 1.432037e+00 2.494783e-01 4.593229e-01 4.711324e-01 9.182248e-01 5.313329e-01 9.785788e-01 5.078478e-01 4.243447e-01 3.732855e-01 2.832719e-01 1.259092e+00
<GCONST> 1.208538e+02
<MIXTURE> 15 6.250000e-02
<MEAN> 39
 -1.591170e+01 -1.956024e+00 -5.664680e+00 7.591247e+00 -5.364718e+00 1.019197e+01 -4.965703e+00 4.700831e+00 -5.192271e+00 -5.981306e-01 -3.374085e+00 -4.006493e+00 4.691490e+01 -5.558153e-01 -5.954828e+00 -3.814372e-01 -3.168486e+00 8.801837e-01 -4.430425e+00 -3.691072e-01 -5.041836e+00 -5.972189e-01 -5.957292e-01 -5.040101e-01 -3.835055e-01 2.884963e+00 -2.346841e-01 -2.437650e+00 -1.145924e-01 -1.501260e+00 4.463312e-01 -1.772042e+00 -1.149449e-01 -2.145224e+00 -1.861320e-01 -4.703219e-01 -2.750562e-01 -2.312574e-01 2.026475e+00
<VARIANCE> 39
 7.750007e+00 4.616278e+01 1.160307e+01 1.723161e+01 1.783547e+01 2.945922e+01 2.896378e+01 2.972893e+01 2.215516e+01 2.104423e+01 1.670635e+01 1.384496e+01 2.322063e+01 7.908753e-01 1.777784e+01 1.632326e+00 7.324806e+00 4.251869e+00 1.155814e+01 3.230021e+00 1.439153e+01 2.968860e+00 2.731140e+00 2.078527e+00 1.635486e+00 2.334262e+01 1.073143e-01 1.432037e+00 2.494783e-01 4.593229e-01 4.711324e-01 9.182248e-01 5.313329e-01 9.785788e-01 5.078478e-01 4.243447e-01 3.732855e-01 2.832719e-01 1.259092e+00
<GCONST> 1.208538e+02
<MIXTURE> 16 6.250000e-02
<MEAN> 39
 -1.702526e+01 -4.673752e+00 -7.027211e+00 5.930808e+00 -7.054001e+00 8.020922e+00 -7.118423e+00 2.519861e+00 -7.075042e+00 -2.433090e+00 -5.009021e+00 -5.494845e+00 4.498738e+01 -9.115400e-01 -7.641379e+00 -8.924873e-01 -4.251061e+00 5.538112e-02 -5.790316e+00 -1.087998e+00 -6.559282e+00 -1.286434e+00 -1.256776e+00 -1.080694e+00 -8.950499e-01 9.523940e-01 -3.657195e-01 -2.916321e+00 -3.143836e-01 -1.772354e+00 1.717750e-01 -2.155339e+00 -4.065152e-01 -2.540916e+00 -4.711857e-01 -7.308888e-01 -5.194446e-01 -4.441506e-01 1.577638e+00
<VARIANCE> 39
 7.750007e+00 4.616278e+01 1.160307e+01 1.723161e+01 1.783547e+01 2.945922e+01 2.896378e+01 2.972893e+01 2.215516e+01 2.104423e+01 1.670635e+01 1.384496e+01 2.322063e+01 7.908753e-01 1.777784e+01 1.632326e+00 7.324806e+00 4.251869e+00 1.155814e+01 3.230021e+00 1.439153e+01 2.968860e+00 2.731140e+00 2.078527e+00 1.635486e+00 2.334262e+01 1.073143e-01 1.432037e+00 2.494783e-01 4.593229e-01 4.711324e-01 9.182248e-01 5.313329e-01 9.785788e-01 5.078478e-01 4.243447e-01 3.732855e-01 2.832719e-01 1.259092e+00
<GCONST> 1.208538e+02
<STATE> 3
<NUMMIXES> 16
<MIXTURE> 1 6.250000e-02
<MEAN> 39
 -1.453880e+01 -2.491943e+01 1.364696e+00 -4.635341e+00 9.574541e+00 -1.677537e+00 3.401690e+00 -1.539611e+01 3.420988e+00 3.012451e+00 1.009955e+00 1.439437e-01 8.727685e+01 9.658676e-01 1.759071e+00 1.228302e+00 1.567847e+00 1.593239e+00 2.652654e+00 1.087484e+00 1.648906e+00 1.265954e+00 1.464740e+00 5.864533e-01 6.999421e-01 5.509438e+00 5.341350e-01 2.175966e+00 3.366446e-01 1.504528e+00 -7.087457e-02 1.973474e+00 2.079308e-01 2.045478e+00 4.357325e-01 7.949963e-01 3.899132e-01 5.606134e-01 -8.150673e-01
<VARIANCE> 39
 7.754888e+00 1.154800e+01 1.519569e+01 1.826979e+01 1.737794e+01 4.160645e+01 2.294607e+01 3.215192e+01 3.204428e+01 2.198829e+01 2.675482e+01 2.464092e+01 2.492270e+01 1.024474e+00 1.560576e+01 1.411774e+00 7.988514e+00 4.153234e+00 1.266840e+01 2.963269e+00 1.473474e+01 2.578965e+00 2.647034e+00 1.693763e+00 1.675748e+00 3.140708e+01 1.291112e-01 1.218235e+00 3.819306e-01 5.103532e-01 4.509692e-01 1.099741e+00 4.743481e-01 9.004163e-01 5.017784e-01 4.751465e-01 3.559127e-01 3.949050e-01 1.657031e+00
<GCONST> 1.226674e+02
<MIXTURE> 2 6.250000e-02
<MEAN> 39
 -1.565271e+01 -2.627872e+01 -1.945699e-01 -6.345068e+00 7.907067e+00 -4.257660e+00 1.485608e+00 -1.766422e+01 1.156681e+00 1.136784e+00 -1.059048e+00 -1.841641e+00 8.527995e+01 5.610023e-01 1.789061e-01 7.530298e-01 4.372883e-01 7.780595e-01 1.228946e+00 3.989182e-01 1.134714e-01 6.235878e-01 8.139512e-01 6.587464e-02 1.821392e-01 3.267757e+00 3.904068e-01 1.734471e+00 8.944245e-02 1.218772e+00 -3.394915e-01 1.554000e+00 -6.756094e-02 1.665917e+00 1.523872e-01 5.192728e-01 1.512795e-01 3.092475e-01 -1.329970e+00
<VARIANCE> 39
 7.754888e+00 1.154800e+01 1.519569e+01 1.826979e+01 1.737794e+01 4.160645e+01 2.294607e+01 3.215192e+01 3.204428e+01 2.198829e+01 2.675482e+01 2.464092e+01 2.492270e+01 1.024474e+00 1.560576e+01 1.411774e+00 7.988514e+00 4.153234e+00 1.266840e+01 2.963269e+00 1.473474e+01 2.578965e+00 2.647034e+00 1.693763e+00 1.675748e+00 3.140708e+01 1.291112e-01 1.218235e+00 3.819306e-01 5.103532e-01 4.509692e-01 1.099741e+00 4.743481e-01 9.004163e-01 5.017784e-01 4.751465e-01 3.559127e-01 3.949050e-01 1.657031e+00
<GCONST> 1.226674e+02
<MIXTURE> 3 6.250000e-02
<MEAN> 39
 -1.565271e+01 -2.627872e+01 -1.945701e-01 -6.345068e+00 7.907066e+00 -4.257660e+00 1.485608e+00 -1.766422e+01 1.156681e+00 1.136784e+00 -1.059048e+00 -1.841641e+00 8.527995e+01 5.610023e-01 1.789061e-01 7.530298e-01 4.372883e-01 7.780595e-01 1.228946e+00 3.989182e-01 1.134714e-01 6.235878e-01 8.139512e-01 6.587464e-02 1.821393e-01 3.267757e+00 3.904068e-01 1.734471e+00 8.944245e-02 1.218772e+00 -3.394915e-01 1.554000e+00 -6.756094e-02 1.665917e+00 1.523872e-01 5.192728e-01 1.512795e-01 3.092475e-01 -1.329970e+00
<VARIANCE> 39
 7.754888e+00 1.154800e+01 1.519569e+01 1.826979e+01 1.737794e+01 4.160645e+01 2.294607e+01 3.215192e+01 3.204428e+01 2.198829e+01 2.675482e+01 2.464092e+01 2.492270e+01 1.024474e+00 1.560576e+01 1.411774e+00 7.988514e+00 4.153234e+00 1.266840e+01 2.963269e+00 1.473474e+01 2.578965e+00 2.647034e+00 1.693763e+00 1.675748e+00 3.140708e+01 1.291112e-01 1.218235e+00 3.819306e-01 5.103532e-01 4.509692e-01 1.099741e+00 4.743481e-01 9.004163e-01 5.017784e-01 4.751465e-01 3.559127e-01 3.949050e-01 1.657031e+00
<GCONST> 1.226674e+02
<MIXTURE> 4 6.250000e-02
<MEAN> 39
 -1.676661e+01 -2.763802e+01 -1.753836e+00 -8.054795e+00 6.239593e+00 -6.837782e+00 -4.304743e-01 -1.993232e+01 -1.107626e+00 -7.388831e-01 -3.128050e+00 -3.827226e+00 8.328304e+01 1.561371e-01 -1.401259e+00 2.777574e-01 -6.932700e-01 -3.711993e-02 -1.947614e-01 -2.896478e-01 -1.421963e+00 -1.877838e-02 1.631629e-01 -4.547040e-01 -3.356635e-01 1.026076e+00 2.466786e-01 1.292976e+00 -1.577597e-01 9.330162e-01 -6.081085e-01 1.134526e+00 -3.430527e-01 1.286356e+00 -1.309581e-01 2.435493e-01 -8.735416e-02 5.788162e-02 -1.844873e+00
<VARIANCE> 39
 7.754888e+00 1.154800e+01 1.519569e+01 1.826979e+01 1.737794e+01 4.160645e+01 2.294607e+01 3.215192e+01 3.204428e+01 2.198829e+01 2.675482e+01 2.464092e+01 2.492270e+01 1.024474e+00 1.560576e+01 1.411774e+00 7.988514e+00 4.153234e+00 1.266840e+01 2.963269e+00 1.473474e+01 2.578965e+00 2.647034e+00 1.693763e+00 1.675748e+00 3.140708e+01 1.291112e-01 1.218235e+00 3.819306e-01 5.103532e-01 4.509692e-01 1.099741e+00 4.743481e-01 9.004163e-01 5.017784e-01 4.751465e-01 3.559127e-01 3.949050e-01 1.657031e+00
<GCONST> 1.226674e+02
<MIXTURE> 5 6.250000e-02
<MEAN> 39
 -1.565271e+01 -2.627872e+01 -1.945701e-01 -6.345068e+00 7.907066e+00 -4.257660e+00 1.485608e+00 -1.766422e+01 1.156681e+00 1.136784e+00 -1.059048e+00 -1.841641e+00 8.527995e+01 5.610023e-01 1.789061e-01 7.530298e-01 4.372883e-01 7.780595e-01 1.228946e+00 3.989182e-01 1.134714e-01 6.235878e-01 8.139512e-01 6.587464e-02 1.821393e-01 3.267757e+00 3.904068e-01 1.734471e+00 8.944245e-02 1.218772e+00 -3.394915e-01 1.554000e+00 -6.756094e-02 1.665917e+00 1.523872e-01 5.192728e-01 1.512795e-01 3.092475e-01 -1.329970e+00
<VARIANCE> 39
 7.754888e+00 1.154800e+01 1.519569e+01 1.826979e+01 1.737794e+01 4.160645e+01 2.294607e+01 3.215192e+01 3.204428e+01 2.198829e+01 2.675482e+01 2.464092e+01 2.492270e+01 1.024474e+00 1.560576e+01 1.411774e+00 7.988514e+00 4.153234e+00 1.266840e+01 2.963269e+00 1.473474e+01 2.578965e+00 2.647034e+00 1.693763e+00 1.675748e+00 3.140708e+01 1.291112e-01 1.218235e+00 3.819306e-01 5.103532e-01 4.509692e-01 1.099741e+00 4.743481e-01 9.004163e-01 5.017784e-01 4.751465e-01 3.559127e-01 3.949050e-01 1.657031e+00
<GCONST> 1.226674e+02
<MIXTURE> 6 6.250000e-02
<MEAN> 39
 -1.676661e+01 -2.763802e+01 -1.753836e+00 -8.054795e+00 6.239593e+00 -6.837782e+00 -4.304743e-01 -1.993232e+01 -1.107626e+00 -7.388831e-01 -3.128050e+00 -3.827226e+00 8.328304e+01 1.561371e-01 -1.401259e+00 2.777574e-01 -6.932700e-01 -3.711990e-02 -1.947613e-01 -2.896478e-01 -1.421963e+00 -1.877841e-02 1.631629e-01 -4.547040e-01 -3.356635e-01 1.026076e+00 2.466786e-01 1.292976e+00 -1.577597e-01 9.330162e-01 -6.081085e-01 1.134526e+00 -3.430527e-01 1.286356e+00 -1.309581e-01 2.435493e-01 -8.735416e-02 5.788162e-02 -1.844873e+00
<VARIANCE> 39
 7.754888e+00 1.154800e+01 1.519569e+01 1.826979e+01 1.737794e+01 4.160645e+01 2.294607e+01 3.215192e+01 3.204428e+01 2.198829e+01 2.675482e+01 2.464092e+01 2.492270e+01 1.024474e+00 1.560576e+01 1.411774e+00 7.988514e+00 4.153234e+00 1.266840e+01 2.963269e+00 1.473474e+01 2.578965e+00 2.647034e+00 1.693763e+00 1.675748e+00 3.140708e+01 1.291112e-01 1.218235e+00 3.819306e-01 5.103532e-01 4.509692e-01 1.099741e+00 4.743481e-01 9.004163e-01 5.017784e-01 4.751465e-01 3.559127e-01 3.949050e-01 1.657031e+00
<GCONST> 1.226674e+02
<MIXTURE> 7 6.250000e-02
<MEAN> 39
 -1.676661e+01 -2.763802e+01 -1.753836e+00 -8.054795e+00 6.239592e+00 -6.837782e+00 -4.304743e-01 -1.993232e+01 -1.107626e+00 -7.388831e-01 -3.128050e+00 -3.827226e+00 8.328304e+01 1.561371e-01 -1.401259e+00 2.777574e-01 -6.932700e-01 -3.711990e-02 -1.947613e-01 -2.896478e-01 -1.421963e+00 -1.877841e-02 1.631629e-01 -4.547040e-01 -3.356635e-01 1.026076e+00 2.466786e-01 1.292976e+00 -1.577597e-01 9.330162e-01 -6.081085e-01 1.134526e+00 -3.430527e-01 1.286356e+00 -1.309581e-01 2.435493e-01 -8.735416e-02 5.788162e-02 -1.844873e+00
<VARIANCE> 39
 7.754888e+00 1.154800e+01 1.519569e+01 1.826979e+01 1.737794e+01 4.160645e+01 2.294607e+01 3.215192e+01 3.204428e+01 2.198829e+01 2.675482e+01 2.464092e+01 2.492270e+01 1.024474e+00 1.560576e+01 1.411774e+00 7.988514e+00 4.153234e+00 1.266840e+01 2.963269e+00 1.473474e+01 2.578965e+00 2.647034e+00 1.693763e+00 1.675748e+00 3.140708e+01 1.291112e-01 1.218235e+00 3.819306e-01 5.103532e-01 4.509692e-01 1.099741e+00 4.743481e-01 9.004163e-01 5.017784e-01 4.751465e-01 3.559127e-01 3.949050e-01 1.657031e+00
<GCONST> 1.226674e+02
<MIXTURE> 8 6.250000e-02
<MEAN> 39
 -1.788051e+01 -2.899731e+01 -3.313102e+00 -9.764522e+00 4.572118e+00 -9.417904e+00 -2.346557e+00 -2.220042e+01 -3.371933e+00 -2.614550e+00 -5.197052e+00 -5.812811e+00 8.128614e+01 -2.487281e-01 -2.981424e+00 -1.975150e-01 -1.823828e+00 -8.522993e-01 -1.618469e+00 -9.782138e-01 -2.957397e+00 -6.611446e-01 -4.876254e-01 -9.752825e-01 -8.534663e-01 -1.215605e+00 1.029504e-01 8.514813e-01 -4.049618e-01 6.472601e-01 -8.767254e-01 7.150519e-01 -6.185444e-01 9.067948e-01 -4.143034e-01 -3.217418e-02 -3.259878e-01 -1.934843e-01 -2.359776e+00
<VARIANCE> 39
 7.754888e+00 1.154800e+01 1.519569e+01 1.826979e+01 1.737794e+01 4.160645e+01 2.294607e+01 3.215192e+01 3.204428e+01 2.198829e+01 2.675482e+01 2.464092e+01 2.492270e+01 1.024474e+00 1.560576e+01 1.411774e+00 7.988514e+00 4.153234e+00 1.266840e+01 2.963269e+00 1.473474e+01 2.578965e+00 2.647034e+00 1.693763e+00 1.675748e+00 3.140708e+01 1.291112e-01 1.218235e+00 3.819306e-01 5.103532e-01 4.509692e-01 1.099741e+00 4.743481e-01 9.004163e-01 5.017784e-01 4.751465e-01 3.559127e-01 3.949050e-01 1.657031e+00
<GCONST> 1.226674e+02
<MIXTURE> 9 6.250000e-02
<MEAN> 39
 -1.565271e+01 -2.627872e+01 -1.945701e-01 -6.345068e+00 7.907066e+00 -4.257660e+00 1.485608e+00 -1.766422e+01 1.156681e+00 1.136784e+00 -1.059048e+00 -1.841641e+00 8.527995e+01 5.610023e-01 1.789061e-01 7.530298e-01 4.372883e-01 7.780595e-01 1.228946e+00 3.989182e-01 1.134714e-01 6.235878e-01 8.139513e-01 6.587464e-02 1.821393e-01 3.267757e+00 3.904068e-01 1.734471e+00 8.944244e-02 1.218772e+00 -3.394915e-01 1.554000e+00 -6.756094e-02 1.665917e+00 1.523872e-01 5.192728e-01 1.512795e-01 3.092475e-01 -1.329970e+00
<VARIANCE> 39
 7.754888e+00 1.154800e+01 1.519569e+01 1.826979e+01 1.737794e+01 4.160645e+01 2.294607e+01 3.215192e+01 3.204428e+01 2.198829e+01 2.675482e+01 2.464092e+01 2.492270e+01 1.024474e+00 1.560576e+01 1.411774e+00 7.988514e+00 4.153234e+00 1.266840e+01 2.963269e+00 1.473474e+01 2.578965e+00 2.647034e+00 1.693763e+00 1.675748e+00 3.140708e+01 1.291112e-01 1.218235e+00 3.819306e-01 5.103532e-01 4.509692e-01 1.099741e+00 4.743481e-01 9.004163e-01 5.017784e-01 4.751465e-01 3.559127e-01 3.949050e-01 1.657031e+00
<GCONST> 1.226674e+02
<MIXTURE> 10 6.250000e-02
<MEAN> 39
 -1.676661e+01 -2.763802e+01 -1.753836e+00 -8.054795e+00 6.239593e+00 -6.837782e+00 -4.304743e-01 -1.993232e+01 -1.107626e+00 -7.388831e-01 -3.128050e+00 -3.827226e+00 8.328304e+01 1.561371e-01 -1.401259e+00 2.777574e-01 -6.932700e-01 -3.711990e-02 -1.947613e-01 -2.896478e-01 -1.421963e+00 -1.877841e-02 1.631629e-01 -4.547040e-01 -3.356635e-01 1.026076e+00 2.466786e-01 1.292976e+00 -1.577597e-01 9.330162e-01 -6.081085e-01 1.134526e+00 -3.430527e-01 1.286356e+00 -1.309581e-01 2.435493e-01 -8.735416e-02 5.788162e-02 -1.844873e+00
<VARIANCE> 39
 7.754888e+00 1.154800e+01 1.519569e+01 1.826979e+01 1.737794e+01 4.160645e+01 2.294607e+01 3.215192e+01 3.204428e+01 2.198829e+01 2.675482e+01 2.464092e+01 2.492270e+01 1.024474e+00 1.560576e+01 1.411774e+00 7.988514e+00 4.153234e+00 1.266840e+01 2.963269e+00 1.473474e+01 2.578965e+00 2.647034e+00 1.693763e+00 1.675748e+00 3.140708e+01 1.291112e-01 1.218235e+00 3.819306e-01 5.103532e-01 4.509692e-01 1.099741e+00 4.743481e-01 9.004163e-01 5.017784e-01 4.751465e-01 3.559127e-01 3.949050e-01 1.657031e+00
<GCONST> 1.226674e+02
<MIXTURE> 11 6.250000e-02
<MEAN> 39
 -1.676661e+01 -2.763802e+01 -1.753836e+00 -8.054795e+00 6.239592e+00 -6.837782e+00 -4.304744e-01 -1.993232e+01 -1.107626e+00 -7.388830e-01 -3.128050e+00 -3.827226e+00 8.328304e+01 1.561371e-01 -1.401259e+00 2.777574e-01 -6.932700e-01 -3.711990e-02 -1.947613e-01 -2.896478e-01 -1.421963e+00 -1.877841e-02 1.631629e-01 -4.547040e-01 -3.356635e-01 1.026076e+00 2.466786e-01 1.292976e+00 -1.577597e-01 9.330162e-01 -6.081085e-01 1.134526e+00 -3.430527e-01 1.286356e+00 -1.309581e-01 2.435493e-01 -8.735416e-02 5.788162e-02 -1.844873e+00
<VARIANCE> 39
 7.754888e+00 1.154800e+01 1.519569e+01 1.826979e+01 1.737794e+01 4.160645e+01 2.294607e+01 3.215192e+01 3.204428e+01 2.198829e+01 2.675482e+01 2.464092e+01 2.492270e+01 1.024474e+00 1.560576e+01 1.411774e+00 7.988514e+00 4.153234e+00 1.266840e+01 2.963269e+00 1.473474e+01 2.578965e+00 2.647034e+00 1.693763e+00 1.675748e+00 3.140708e+01 1.291112e-01 1.218235e+00 3.819306e-01 5.103532e-01 4.509692e-01 1.099741e+00 4.743481e-01 9.004163e-01 5.017784e-01 4.751465e-01 3.559127e-01 3.949050e-01 1.657031e+00
<GCONST> 1.226674e+02
<MIXTURE> 12 6.250000e-02
<MEAN> 39
 -1.788051e+01 -2.899731e+01 -3.313102e+00 -9.764522e+00 4.572118e+00 -9.417904e+00 -2.346557e+00 -2.220042e+01 -3.371933e+00 -2.614550e+00 -5.197052e+00 -5.812811e+00 8.128614e+01 -2.487281e-01 -2.981424e+00 -1.975150e-01 -1.823828e+00 -8.522993e-01 -1.618469e+00 -9.782138e-01 -2.957397e+00 -6.611446e-01 -4.876254e-01 -9.752826e-01 -8.534663e-01 -1.215605e+00 1.029504e-01 8.514813e-01 -4.049619e-01 6.472601e-01 -8.767254e-01 7.150519e-01 -6.185444e-01 9.067948e-01 -4.143034e-01 -3.217418e-02 -3.259878e-01 -1.934842e-01 -2.359776e+00
<VARIANCE> 39
 7.754888e+00 1.154800e+01 1.519569e+01 1.826979e+01 1.737794e+01 4.160645e+01 2.294607e+01 3.215192e+01 3.204428e+01 2.198829e+01 2.675482e+01 2.464092e+01 2.492270e+01 1.024474e+00 1.560576e+01 1.411774e+00 7.988514e+00 4.153234e+00 1.266840e+01 2.963269e+00 1.473474e+01 2.578965e+00 2.647034e+00 1.693763e+00 1.675748e+00 3.140708e+01 1.291112e-01 1.218235e+00 3.819306e-01 5.103532e-01 4.509692e-01 1.099741e+00 4.743481e-01 9.004163e-01 5.017784e-01 4.751465e-01 3.559127e-01 3.949050e-01 1.657031e+00
<GCONST> 1.226674e+02
<MIXTURE> 13 6.250000e-02
<MEAN> 39
 -1.676661e+01 -2.763802e+01 -1.753836e+00 -8.054795e+00 6.239592e+00 -6.837782e+00 -4.304744e-01 -1.993232e+01 -1.107626e+00 -7.388830e-01 -3.128050e+00 -3.827226e+00 8.328304e+01 1.561371e-01 -1.401259e+00 2.777574e-01 -6.932700e-01 -3.711993e-02 -1.947614e-01 -2.896478e-01 -1.421963e+00 -1.877838e-02 1.631629e-01 -4.547040e-01 -3.356635e-01 1.026076e+00 2.466786e-01 1.292976e+00 -1.577597e-01 9.330162e-01 -6.081085e-01 1.134526e+00 -3.430527e-01 1.286356e+00 -1.309581e-01 2.435493e-01 -8.735417e-02 5.788162e-02 -1.844873e+00
<VARIANCE> 39
 7.754888e+00 1.154800e+01 1.519569e+01 1.826979e+01 1.737794e+01 4.160645e+01 2.294607e+01 3.215192e+01 3.204428e+01 2.198829e+01 2.675482e+01 2.464092e+01 2.492270e+01 1.024474e+00 1.560576e+01 1.411774e+00 7.988514e+00 4.153234e+00 1.266840e+01 2.963269e+00 1.473474e+01 2.578965e+00 2.647034e+00 1.693763e+00 1.675748e+00 3.140708e+01 1.291112e-01 1.218235e+00 3.819306e-01 5.103532e-01 4.509692e-01 1.099741e+00 4.743481e-01 9.004163e-01 5.017784e-01 4.751465e-01 3.559127e-01 3.949050e-01 1.657031e+00
<GCONST> 1.226674e+02
<MIXTURE> 14 6.250000e-02
<MEAN> 39
 -1.788051e+01 -2.899731e+01 -3.313102e+00 -9.764522e+00 4.572118e+00 -9.417904e+00 -2.346557e+00 -2.220042e+01 -3.371933e+00 -2.614550e+00 -5.197052e+00 -5.812811e+00 8.128614e+01 -2.487281e-01 -2.981424e+00 -1.975150e-01 -1.823828e+00 -8.522993e-01 -1.618469e+00 -9.782138e-01 -2.957397e+00 -6.611446e-01 -4.876254e-01 -9.752826e-01 -8.534663e-01 -1.215605e+00 1.029504e-01 8.514813e-01 -4.049619e-01 6.472601e-01 -8.767254e-01 7.150519e-01 -6.185444e-01 9.067948e-01 -4.143034e-01 -3.217418e-02 -3.259878e-01 -1.934842e-01 -2.359776e+00
<VARIANCE> 39
 7.754888e+00 1.154800e+01 1.519569e+01 1.826979e+01 1.737794e+01 4.160645e+01 2.294607e+01 3.215192e+01 3.204428e+01 2.198829e+01 2.675482e+01 2.464092e+01 2.492270e+01 1.024474e+00 1.560576e+01 1.411774e+00 7.988514e+00 4.153234e+00 1.266840e+01 2.963269e+00 1.473474e+01 2.578965e+00 2.647034e+00 1.693763e+00 1.675748e+00 3.140708e+01 1.291112e-01 1.218235e+00 3.819306e-01 5.103532e-01 4.509692e-01 1.099741e+00 4.743481e-01 9.004163e-01 5.017784e-01 4.751465e-01 3.559127e-01 3.949050e-01 1.657031e+00
<GCONST> 1.226674e+02
<MIXTURE> 15 6.250000e-02
<MEAN> 39
 -1.788051e+01 -2.899731e+01 -3.313102e+00 -9.764522e+00 4.572117e+00 -9.417904e+00 -2.346557e+00 -2.220042e+01 -3.371933e+00 -2.614550e+00 -5.197052e+00 -5.812811e+00 8.128614e+01 -2.487281e-01 -2.981424e+00 -1.975150e-01 -1.823828e+00 -8.522993e-01 -1.618469e+00 -9.782138e-01 -2.957397e+00 -6.611446e-01 -4.876254e-01 -9.752826e-01 -8.534663e-01 -1.215605e+00 1.029504e-01 8.514813e-01 -4.049619e-01 6.472601e-01 -8.767254e-01 7.150519e-01 -6.185444e-01 9.067948e-01 -4.143034e-01 -3.217418e-02 -3.259878e-01 -1.934842e-01 -2.359776e+00
<VARIANCE> 39
 7.754888e+00 1.154800e+01 1.519569e+01 1.826979e+01 1.737794e+01 4.160645e+01 2.294607e+01 3.215192e+01 3.204428e+01 2.198829e+01 2.675482e+01 2.464092e+01 2.492270e+01 1.024474e+00 1.560576e+01 1.411774e+00 7.988514e+00 4.153234e+00 1.266840e+01 2.963269e+00 1.473474e+01 2.578965e+00 2.647034e+00 1.693763e+00 1.675748e+00 3.140708e+01 1.291112e-01 1.218235e+00 3.819306e-01 5.103532e-01 4.509692e-01 1.099741e+00 4.743481e-01 9.004163e-01 5.017784e-01 4.751465e-01 3.559127e-01 3.949050e-01 1.657031e+00
<GCONST> 1.226674e+02
<MIXTURE> 16 6.250000e-02
<MEAN> 39
 -1.899442e+01 -3.035661e+01 -4.872368e+00 -1.147425e+01 2.904644e+00 -1.199803e+01 -4.262639e+00 -2.446853e+01 -5.636240e+00 -4.490217e+00 -7.266055e+00 -7.798396e+00 7.928924e+01 -6.535934e-01 -4.561589e+00 -6.727874e-01 -2.954387e+00 -1.667479e+00 -3.042177e+00 -1.666780e+00 -4.492832e+00 -1.303511e+00 -1.138414e+00 -1.495861e+00 -1.371269e+00 -3.457286e+00 -4.077779e-02 4.099866e-01 -6.521640e-01 3.615040e-01 -1.145342e+00 2.955778e-01 -8.940361e-01 5.272338e-01 -6.976486e-01 -3.078977e-01 -5.646215e-01 -4.448501e-01 -2.874679e+00
<VARIANCE> 39
 7.754888e+00 1.154800e+01 1.519569e+01 1.826979e+01 1.737794e+01 4.160645e+01 2.294607e+01 3.215192e+01 3.204428e+01 2.198829e+01 2.675482e+01 2.464092e+01 2.492270e+01 1.024474e+00 1.560576e+01 1.411774e+00 7.988514e+00 4.153234e+00 1.266840e+01 2.963269e+00 1.473474e+01 2.578965e+00 2.647034e+00 1.693763e+00 1.675748e+00 3.140708e+01 1.291112e-01 1.218235e+00 3.819306e-01 5.103532e-01 4.509692e-01 1.099741e+00 4.743481e-01 9.004163e-01 5.017784e-01 4.751465e-01 3.559127e-01 3.949050e-01 1.657031e+00
<GCONST> 1.226674e+02
<STATE> 4
<NUMMIXES> 16
<MIXTURE> 1 6.250000e-02
<MEAN> 39
 -7.917553e+00 -9.371358e+00 -2.929364e+00 1.265446e+01 7.049195e-01 1.381270e+01 -4.513694e+00 -3.626119e+00 -1.092272e+00 7.912792e+00 -1.615531e+00 -2.889023e-01 6.500945e+01 1.231210e+00 2.610180e+00 3.035119e-01 2.896750e+00 8.750874e-01 2.622348e+00 1.251208e+00 3.098189e+00 1.481383e+00 1.421192e+00 1.333132e+00 1.049617e+00 -9.860800e-01 1.116300e-01 3.243659e-01 4.928391e-01 2.384109e-01 6.686264e-01 2.619413e-01 8.456952e-01 6.501483e-01 9.360772e-01 3.799111e-01 6.141237e-01 4.402070e-01 6.539862e-01
<VARIANCE> 39
 8.589860e+00 3.765178e+01 1.584046e+01 4.439645e+01 1.605430e+01 3.374501e+01 2.946239e+01 3.710395e+01 4.255627e+01 2.009288e+01 2.568990e+01 2.661854e+01 3.232098e+01 1.448635e+00 9.133023e-01 1.301586e+00 3.046864e+00 2.402593e+00 2.814002e+00 3.527007e+00 4.315046e+00 4.934052e+00 2.019771e+00 1.917629e+00 1.733414e+00 1.812352e+00 1.595831e-01 1.912992e-01 2.138987e-01 3.783972e-01 3.596146e-01 3.839482e-01 5.165507e-01 8.247473e-01 9.968894e-01 4.165791e-01 3.587153e-01 3.456019e-01 1.997377e-01
<GCONST> 1.110308e+02
<MIXTURE> 2 6.250000e-02
<MEAN> 39
 -9.089891e+00 -1.182580e+01 -4.521367e+00 9.989235e+00 -8.977932e-01 1.148908e+01 -6.684865e+00 -6.062640e+00 -3.701679e+00 6.119789e+00 -3.642939e+00 -2.352629e+00 6.273539e+01 7.497731e-01 2.227912e+00 -1.528364e-01 2.198540e+00 2.550754e-01 1.951349e+00 4.999950e-01 2.267282e+00 5.928742e-01 8.527179e-01 7.792177e-01 5.229801e-01 -1.524575e+00 -4.816150e-02 1.494148e-01 3.078423e-01 -7.645100e-03 4.287549e-01 1.408713e-02 5.582094e-01 2.868859e-01 5.366999e-01 1.217394e-01 3.745523e-01 2.050554e-01 4.752181e-01
<VARIANCE> 39
 8.589860e+00 3.765178e+01 1.584046e+01 4.439645e+01 1.605430e+01 3.374501e+01 2.946239e+01 3.710395e+01 4.255627e+01 2.009288e+01 2.568990e+01 2.661854e+01 3.232098e+01 1.448635e+00 9.133023e-01 1.301586e+00 3.046864e+00 2.402593e+00 2.814002e+00 3.527007e+00 4.315046e+00 4.934052e+00 2.019771e+00 1.917629e+00 1.733414e+00 1.812352e+00 1.595831e-01 1.912992e-01 2.138987e-01 3.783972e-01 3.596146e-01 3.839482e-01 5.165507e-01 8.247473e-01 9.968894e-01 4.165791e-01 3.587153e-01 3.456019e-01 1.997377e-01
<GCONST> 1.110308e+02
<MIXTURE> 3 6.250000e-02
<MEAN> 39
 -9.089891e+00 -1.182580e+01 -4.521367e+00 9.989235e+00 -8.977932e-01 1.148908e+01 -6.684865e+00 -6.062639e+00 -3.701679e+00 6.119789e+00 -3.642939e+00 -2.352629e+00 6.273539e+01 7.497731e-01 2.227912e+00 -1.528364e-01 2.198540e+00 2.550754e-01 1.951349e+00 4.999949e-01 2.267282e+00 5.928742e-01 8.527179e-01 7.792177e-01 5.229801e-01 -1.524575e+00 -4.816147e-02 1.494148e-01 3.078423e-01 -7.645100e-03 4.287549e-01 1.408711e-02 5.582094e-01 2.868859e-01 5.366999e-01 1.217394e-01 3.745523e-01 2.050554e-01 4.752181e-01
<VARIANCE> 39
 8.589860e+00 3.765178e+01 1.584046e+01 4.439645e+01 1.605430e+01 3.374501e+01 2.946239e+01 3.710395e+01 4.255627e+01 2.009288e+01 2.568990e+01 2.661854e+01 3.232098e+01 1.448635e+00 9.133023e-01 1.301586e+00 3.046864e+00 2.402593e+00 2.814002e+00 3.527007e+00 4.315046e+00 4.934052e+00 2.019771e+00 1.917629e+00 1.733414e+00 1.812352e+00 1.595831e-01 1.912992e-01 2.138987e-01 3.783972e-01 3.596146e-01 3.839482e-01 5.165507e-01 8.247473e-01 9.968894e-01 4.165791e-01 3.587153e-01 3.456019e-01 1.997377e-01
<GCONST> 1.110308e+02
<MIXTURE> 4 6.250000e-02
<MEAN> 39
 -1.026223e+01 -1.428024e+01 -6.113370e+00 7.324009e+00 -2.500506e+00 9.165461e+00 -8.856036e+00 -8.499161e+00 -6.311086e+00 4.326786e+00 -5.670347e+00 -4.416355e+00 6.046133e+01 2.683361e-01 1.845645e+00 -6.091846e-01 1.500329e+00 -3.649366e-01 1.280349e+00 -2.512182e-01 1.436374e+00 -2.956347e-01 2.842433e-01 2.253037e-01 -3.656626e-03 -2.063069e+00 -2.079529e-01 -2.553622e-02 1.228456e-01 -2.537011e-01 1.888834e-01 -2.337671e-01 2.707235e-01 -7.637650e-02 1.373225e-01 -1.364324e-01 1.349809e-01 -3.009629e-02 2.964500e-01
<VARIANCE> 39
 8.589860e+00 3.765178e+01 1.584046e+01 4.439645e+01 1.605430e+01 3.374501e+01 2.946239e+01 3.710395e+01 4.255627e+01 2.009288e+01 2.568990e+01 2.661854e+01 3.232098e+01 1.448635e+00 9.133023e-01 1.301586e+00 3.046864e+00 2.402593e+00 2.814002e+00 3.527007e+00 4.315046e+00 4.934052e+00 2.019771e+00 1.917629e+00 1.733414e+00 1.812352e+00 1.595831e-01 1.912992e-01 2.138987e-01 3.783972e-01 3.596146e-01 3.839482e-01 5.165507e-01 8.247473e-01 9.968894e-01 4.165791e-01 3.587153e-01 3.456019e-01 1.997377e-01
<GCONST> 1.110308e+02
<MIXTURE> 5 6.250000e-02
<MEAN> 39
 -9.089891e+00 -1.182580e+01 -4.521367e+00 9.989235e+00 -8.977932e-01 1.148908e+01 -6.684865e+00 -6.062639e+00 -3.701679e+00 6.119789e+00 -3.642939e+00 -2.352629e+00 6.273539e+01 7.497731e-01 2.227912e+00 -1.528364e-01 2.198540e+00 2.550754e-01 1.951349e+00 4.999949e-01 2.267282e+00 5.928742e-01 8.527179e-01 7.792177e-01 5.229801e-01 -1.524575e+00 -4.816147e-02 1.494148e-01 3.078423e-01 -7.645100e-03 4.287549e-01 1.408711e-02 5.582094e-01 2.868859e-01 5.366999e-01 1.217394e-01 3.745523e-01 2.050554e-01 4.752181e-01
<VARIANCE> 39
 8.589860e+00 3.765178e+01 1.584046e+01 4.439645e+01 1.605430e+01 3.374501e+01 2.946239e+01 3.710395e+01 4.255627e+01 2.009288e+01 2.568990e+01 2.661854e+01 3.232098e+01 1.448635e+00 9.133023e-01 1.301586e+00 3.046864e+00 2.402593e+00 2.814002e+00 3.527007e+00 4.315046e+00 4.934052e+00 2.019771e+00 1.917629e+00 1.733414e+00 1.812352e+00 1.595831e-01 1.912992e-01 2.138987e-01 3.783972e-01 3.596146e-01 3.839482e-01 5.165507e-01 8.247473e-01 9.968894e-01 4.165791e-01 3.587153e-01 3.456019e-01 1.997377e-01
<GCONST> 1.110308e+02
<MIXTURE> 6 6.250000e-02
<MEAN> 39
 -1.026223e+01 -1.428024e+01 -6.113370e+00 7.324009e+00 -2.500506e+00 9.165461e+00 -8.856036e+00 -8.499161e+00 -6.311085e+00 4.326786e+00 -5.670347e+00 -4.416355e+00 6.046133e+01 2.683361e-01 1.845645e+00 -6.091847e-01 1.500329e+00 -3.649366e-01 1.280349e+00 -2.512182e-01 1.436374e+00 -2.956348e-01 2.842433e-01 2.253037e-01 -3.656596e-03 -2.063069e+00 -2.079529e-01 -2.553622e-02 1.228456e-01 -2.537011e-01 1.888834e-01 -2.337671e-01 2.707235e-01 -7.637650e-02 1.373225e-01 -1.364324e-01 1.349809e-01 -3.009629e-02 2.964500e-01
<VARIANCE> 39
 8.589860e+00 3.765178e+01 1.584046e+01 4.439645e+01 1.605430e+01 3.374501e+01 2.946239e+01 3.710395e+01 4.255627e+01 2.009288e+01 2.568990e+01 2.661854e+01 3.232098e+01 1.448635e+00 9.133023e-01 1.301586e+00 3.046864e+00 2.402593e+00 2.814002e+00 3.527007e+00 4.315046e+00 4.934052e+00 2.019771e+00 1.917629e+00 1.733414e+00 1.812352e+00 1.595831e-01 1.912992e-01 2.138987e-01 3.783972e-01 3.596146e-01 3.839482e-01 5.165507e-01 8.247473e-01 9.968894e-01 4.165791e-01 3.587153e-01 3.456019e-01 1.997377e-01
<GCONST> 1.110308e+02
<MIXTURE> 7 6.250000e-02
<MEAN> 39
 -1.026223e+01 -1.428024e+01 -6.113370e+00 7.324009e+00 -2.500506e+00 9.165461e+00 -8.856036e+00 -8.499161e+00 -6.311085e+00 4.326786e+00 -5.670347e+00 -4.416355e+00 6.046133e+01 2.683361e-01 1.845645e+00 -6.091847e-01 1.500329e+00 -3.649366e-01 1.280349e+00 -2.512182e-01 1.436374e+00 -2.956348e-01 2.842433e-01 2.253037e-01 -3.656596e-03 -2.063069e+00 -2.079529e-01 -2.553622e-02 1.228456e-01 -2.537011e-01 1.888834e-01 -2.337671e-01 2.707235e-01 -7.637650e-02 1.373225e-01 -1.364324e-01 1.349809e-01 -3.009629e-02 2.964500e-01
<VARIANCE> 39
 8.589860e+00 3.765178e+01 1.584046e+01 4.439645e+01 1.605430e+01 3.374501e+01 2.946239e+01 3.710395e+01 4.255627e+01 2.009288e+01 2.568990e+01 2.661854e+01 3.232098e+01 1.448635e+00 9.133023e-01 1.301586e+00 3.046864e+00 2.402593e+00 2.814002e+00 3.527007e+00 4.315046e+00 4.934052e+00 2.019771e+00 1.917629e+00 1.733414e+00 1.812352e+00 1.595831e-01 1.912992e-01 2.138987e-01 3.783972e-01 3.596146e-01 3.839482e-01 5.165507e-01 8.247473e-01 9.968894e-01 4.165791e-01 3.587153e-01 3.456019e-01 1.997377e-01
<GCONST> 1.110308e+02
<MIXTURE> 8 6.250000e-02
<MEAN> 39
 -1.143457e+01 -1.673468e+01 -7.705373e+00 4.658783e+00 -4.103219e+00 6.841843e+00 -1.102721e+01 -1.093568e+01 -8.920492e+00 2.533783e+00 -7.697756e+00 -6.480082e+00 5.818727e+01 -2.131009e-01 1.463377e+00 -1.065533e+00 8.021183e-01 -9.849486e-01 6.093495e-01 -1.002431e+00 6.054664e-01 -1.184144e+00 -2.842313e-01 -3.286102e-01 -5.302933e-01 -2.601564e+00 -3.677443e-01 -2.004873e-01 -6.215114e-02 -4.997571e-01 -5.098811e-02 -4.816213e-01 -1.676238e-02 -4.396389e-01 -2.620549e-01 -3.946041e-01 -1.045905e-01 -2.652479e-01 1.176819e-01
<VARIANCE> 39
 8.589860e+00 3.765178e+01 1.584046e+01 4.439645e+01 1.605430e+01 3.374501e+01 2.946239e+01 3.710395e+01 4.255627e+01 2.009288e+01 2.568990e+01 2.661854e+01 3.232098e+01 1.448635e+00 9.133023e-01 1.301586e+00 3.046864e+00 2.402593e+00 2.814002e+00 3.527007e+00 4.315046e+00 4.934052e+00 2.019771e+00 1.917629e+00 1.733414e+00 1.812352e+00 1.595831e-01 1.912992e-01 2.138987e-01 3.783972e-01 3.596146e-01 3.839482e-01 5.165507e-01 8.247473e-01 9.968894e-01 4.165791e-01 3.587153e-01 3.456019e-01 1.997377e-01
<GCONST> 1.110308e+02
<MIXTURE> 9 6.250000e-02
<MEAN> 39
 -9.089891e+00 -1.182580e+01 -4.521367e+00 9.989235e+00 -8.977932e-01 1.148908e+01 -6.684865e+00 -6.062639e+00 -3.701679e+00 6.119789e+00 -3.642939e+00 -2.352629e+00 6.273539e+01 7.497731e-01 2.227912e+00 -1.528364e-01 2.198540e+00 2.550754e-01 1.951349e+00 4.999950e-01 2.267282e+00 5.928742e-01 8.527179e-01 7.792177e-01 5.229801e-01 -1.524575e+00 -4.816147e-02 1.494148e-01 3.078423e-01 -7.645100e-03 4.287549e-01 1.408712e-02 5.582094e-01 2.868859e-01 5.366999e-01 1.217394e-01 3.745523e-01 2.050554e-01 4.752181e-01
<VARIANCE> 39
 8.589860e+00 3.765178e+01 1.584046e+01 4.439645e+01 1.605430e+01 3.374501e+01 2.946239e+01 3.710395e+01 4.255627e+01 2.009288e+01 2.568990e+01 2.661854e+01 3.232098e+01 1.448635e+00 9.133023e-01 1.301586e+00 3.046864e+00 2.402593e+00 2.814002e+00 3.527007e+00 4.315046e+00 4.934052e+00 2.019771e+00 1.917629e+00 1.733414e+00 1.812352e+00 1.595831e-01 1.912992e-01 2.138987e-01 3.783972e-01 3.596146e-01 3.839482e-01 5.165507e-01 8.247473e-01 9.968894e-01 4.165791e-01 3.587153e-01 3.456019e-01 1.997377e-01
<GCONST> 1.110308e+02
<MIXTURE> 10 6.250000e-02
<MEAN> 39
 -1.026223e+01 -1.428024e+01 -6.113370e+00 7.324009e+00 -2.500506e+00 9.165461e+00 -8.856036e+00 -8.499161e+00 -6.311085e+00 4.326786e+00 -5.670347e+00 -4.416355e+00 6.046133e+01 2.683361e-01 1.845645e+00 -6.091847e-01 1.500329e+00 -3.649366e-01 1.280349e+00 -2.512182e-01 1.436374e+00 -2.956348e-01 2.842433e-01 2.253037e-01 -3.656596e-03 -2.063069e+00 -2.079529e-01 -2.553622e-02 1.228456e-01 -2.537011e-01 1.888834e-01 -2.337671e-01 2.707235e-01 -7.637650e-02 1.373225e-01 -1.364324e-01 1.349809e-01 -3.009629e-02 2.964500e-01
<VARIANCE> 39
 8.589860e+00 3.765178e+01 1.584046e+01 4.439645e+01 1.605430e+01 3.374501e+01 2.946239e+01 3.710395e+01 4.255627e+01 2.009288e+01 2.568990e+01 2.661854e+01 3.232098e+01 1.448635e+00 9.133023e-01 1.301586e+00 3.046864e+00 2.402593e+00 2.814002e+00 3.527007e+00 4.315046e+00 4.934052e+00 2.019771e+00 1.917629e+00 1.733414e+00 1.812352e+00 1.595831e-01 1.912992e-01 2.138987e-01 3.783972e-01 3.596146e-01 3.839482e-01 5.165507e-01 8.247473e-01 9.968894e-01 4.165791e-01 3.587153e-01 3.456019e-01 1.997377e-01
<GCONST> 1.110308e+02
<MIXTURE> 11 6.250000e-02
<MEAN> 39
 -1.026223e+01 -1.428024e+01 -6.113370e+00 7.324009e+00 -2.500506e+00 9.165461e+00 -8.856036e+00 -8.499160e+00 -6.311085e+00 4.326786e+00 -5.670347e+00 -4.416355e+00 6.046133e+01 2.683361e-01 1.845645e+00 -6.091847e-01 1.500329e+00 -3.649366e-01 1.280349e+00 -2.512182e-01 1.436374e+00 -2.956348e-01 2.842433e-01 2.253037e-01 -3.656596e-03 -2.063069e+00 -2.079529e-01 -2.553622e-02 1.228456e-01 -2.537011e-01 1.888834e-01 -2.337671e-01 2.707235e-01 -7.637651e-02 1.373225e-01 -1.364324e-01 1.349809e-01 -3.009629e-02 2.964500e-01
<VARIANCE> 39
 8.589860e+00 3.765178e+01 1.584046e+01 4.439645e+01 1.605430e+01 3.374501e+01 2.946239e+01 3.710395e+01 4.255627e+01 2.009288e+01 2.568990e+01 2.661854e+01 3.232098e+01 1.448635e+00 9.133023e-01 1.301586e+00 3.046864e+00 2.402593e+00 2.814002e+00 3.527007e+00 4.315046e+00 4.934052e+00 2.019771e+00 1.917629e+00 1.733414e+00 1.812352e+00 1.595831e-01 1.912992e-01 2.138987e-01 3.783972e-01 3.596146e-01 3.839482e-01 5.165507e-01 8.247473e-01 9.968894e-01 4.165791e-01 3.587153e-01 3.456019e-01 1.997377e-01
<GCONST> 1.110308e+02
<MIXTURE> 12 6.250000e-02
<MEAN> 39
 -1.143457e+01 -1.673468e+01 -7.705373e+00 4.658783e+00 -4.103219e+00 6.841843e+00 -1.102721e+01 -1.093568e+01 -8.920492e+00 2.533783e+00 -7.697756e+00 -6.480082e+00 5.818727e+01 -2.131009e-01 1.463377e+00 -1.065533e+00 8.021183e-01 -9.849486e-01 6.093495e-01 -1.002431e+00 6.054664e-01 -1.184144e+00 -2.842313e-01 -3.286102e-01 -5.302933e-01 -2.601564e+00 -3.677443e-01 -2.004873e-01 -6.215114e-02 -4.997571e-01 -5.098811e-02 -4.816213e-01 -1.676238e-02 -4.396389e-01 -2.620549e-01 -3.946041e-01 -1.045905e-01 -2.652479e-01 1.176819e-01
<VARIANCE> 39
 8.589860e+00 3.765178e+01 1.584046e+01 4.439645e+01 1.605430e+01 3.374501e+01 2.946239e+01 3.710395e+01 4.255627e+01 2.009288e+01 2.568990e+01 2.661854e+01 3.232098e+01 1.448635e+00 9.133023e-01 1.301586e+00 3.046864e+00 2.402593e+00 2.814002e+00 3.527007e+00 4.315046e+00 4.934052e+00 2.019771e+00 1.917629e+00 1.733414e+00 1.812352e+00 1.595831e-01 1.912992e-01 2.138987e-01 3.783972e-01 3.596146e-01 3.839482e-01 5.165507e-01 8.247473e-01 9.968894e-01 4.165791e-01 3.587153e-01 3.456019e-01 1.997377e-01
<GCONST> 1.110308e+02
<MIXTURE> 13 6.250000e-02
<MEAN> 39
 -1.026223e+01 -1.428024e+01 -6.113370e+00 7.324009e+00 -2.500506e+00 9.165461e+00 -8.856036e+00 -8.499160e+00 -6.311085e+00 4.326786e+00 -5.670347e+00 -4.416355e+00 6.046133e+01 2.683361e-01 1.845645e+00 -6.091847e-01 1.500329e+00 -3.649366e-01 1.280349e+00 -2.512182e-01 1.436374e+00 -2.956348e-01 2.842433e-01 2.253037e-01 -3.656626e-03 -2.063069e+00 -2.079529e-01 -2.553622e-02 1.228456e-01 -2.537011e-01 1.888834e-01 -2.337671e-01 2.707235e-01 -7.637650e-02 1.373225e-01 -1.364324e-01 1.349809e-01 -3.009629e-02 2.964500e-01
<VARIANCE> 39
 8.589860e+00 3.765178e+01 1.584046e+01 4.439645e+01 1.605430e+01 3.374501e+01 2.946239e+01 3.710395e+01 4.255627e+01 2.009288e+01 2.568990e+01 2.661854e+01 3.232098e+01 1.448635e+00 9.133023e-01 1.301586e+00 3.046864e+00 2.402593e+00 2.814002e+00 3.527007e+00 4.315046e+00 4.934052e+00 2.019771e+00 1.917629e+00 1.733414e+00 1.812352e+00 1.595831e-01 1.912992e-01 2.138987e-01 3.783972e-01 3.596146e-01 3.839482e-01 5.165507e-01 8.247473e-01 9.968894e-01 4.165791e-01 3.587153e-01 3.456019e-01 1.997377e-01
<GCONST> 1.110308e+02
<MIXTURE> 14 6.250000e-02
<MEAN> 39
 -1.143457e+01 -1.673468e+01 -7.705373e+00 4.658783e+00 -4.103219e+00 6.841843e+00 -1.102721e+01 -1.093568e+01 -8.920492e+00 2.533783e+00 -7.697756e+00 -6.480082e+00 5.818727e+01 -2.131009e-01 1.463377e+00 -1.065533e+00 8.021183e-01 -9.849486e-01 6.093495e-01 -1.002431e+00 6.054664e-01 -1.184144e+00 -2.842313e-01 -3.286102e-01 -5.302933e-01 -2.601564e+00 -3.677443e-01 -2.004873e-01 -6.215114e-02 -4.997571e-01 -5.098811e-02 -4.816213e-01 -1.676238e-02 -4.396389e-01 -2.620549e-01 -3.946041e-01 -1.045905e-01 -2.652479e-01 1.176819e-01
<VARIANCE> 39
 8.589860e+00 3.765178e+01 1.584046e+01 4.439645e+01 1.605430e+01 3.374501e+01 2.946239e+01 3.710395e+01 4.255627e+01 2.009288e+01 2.568990e+01 2.661854e+01 3.232098e+01 1.448635e+00 9.133023e-01 1.301586e+00 3.046864e+00 2.402593e+00 2.814002e+00 3.527007e+00 4.315046e+00 4.934052e+00 2.019771e+00 1.917629e+00 1.733414e+00 1.812352e+00 1.595831e-01 1.912992e-01 2.138987e-01 3.783972e-01 3.596146e-01 3.839482e-01 5.165507e-01 8.247473e-01 9.968894e-01 4.165791e-01 3.587153e-01 3.456019e-01 1.997377e-01
<GCONST> 1.110308e+02
<MIXTURE> 15 6.250000e-02
<MEAN> 39
 -1.143457e+01 -1.673468e+01 -7.705373e+00 4.658783e+00 -4.103219e+00 6.841843e+00 -1.102721e+01 -1.093568e+01 -8.920492e+00 2.533783e+00 -7.697756e+00 -6.480082e+00 5.818727e+01 -2.131009e-01 1.463377e+00 -1.065533e+00 8.021183e-01 -9.849486e-01 6.093495e-01 -1.002431e+00 6.054664e-01 -1.184144e+00 -2.842313e-01 -3.286102e-01 -5.302933e-01 -2.601564e+00 -3.677443e-01 -2.004873e-01 -6.215114e-02 -4.997571e-01 -5.098811e-02 -4.816213e-01 -1.676235e-02 -4.396389e-01 -2.620549e-01 -3.946041e-01 -1.045905e-01 -2.652479e-01 1.176819e-01
<VARIANCE> 39
 8.589860e+00 3.765178e+01 1.584046e+01 4.439645e+01 1.605430e+01 3.374501e+01 2.946239e+01 3.710395e+01 4.255627e+01 2.009288e+01 2.568990e+01 2.661854e+01 3.232098e+01 1.448635e+00 9.133023e-01 1.301586e+00 3.046864e+00 2.402593e+00 2.814002e+00 3.527007e+00 4.315046e+00 4.934052e+00 2.019771e+00 1.917629e+00 1.733414e+00 1.812352e+00 1.595831e-01 1.912992e-01 2.138987e-01 3.783972e-01 3.596146e-01 3.839482e-01 5.165507e-01 8.247473e-01 9.968894e-01 4.165791e-01 3.587153e-01 3.456019e-01 1.997377e-01
<GCONST> 1.110308e+02
<MIXTURE> 16 6.250000e-02
<MEAN> 39
 -1.260691e+01 -1.918912e+01 -9.297376e+00 1.993556e+00 -5.705931e+00 4.518225e+00 -1.319838e+01 -1.337220e+01 -1.152990e+01 7.407796e-01 -9.725164e+00 -8.543808e+00 5.591320e+01 -6.945380e-01 1.081110e+00 -1.521881e+00 1.039075e-01 -1.604961e+00 -6.165004e-02 -1.753644e+00 -2.254412e-01 -2.072653e+00 -8.527058e-01 -8.825242e-01 -1.056930e+00 -3.140058e+00 -5.275357e-01 -3.754384e-01 -2.471479e-01 -7.458130e-01 -2.908596e-01 -7.294756e-01 -3.042482e-01 -8.029013e-01 -6.614323e-01 -6.527759e-01 -3.441619e-01 -5.003996e-01 -6.108621e-02
<VARIANCE> 39
 8.589860e+00 3.765178e+01 1.584046e+01 4.439645e+01 1.605430e+01 3.374501e+01 2.946239e+01 3.710395e+01 4.255627e+01 2.009288e+01 2.568990e+01 2.661854e+01 3.232098e+01 1.448635e+00 9.133023e-01 1.301586e+00 3.046864e+00 2.402593e+00 2.814002e+00 3.527007e+00 4.315046e+00 4.934052e+00 2.019771e+00 1.917629e+00 1.733414e+00 1.812352e+00 1.595831e-01 1.912992e-01 2.138987e-01 3.783972e-01 3.596146e-01 3.839482e-01 5.165507e-01 8.247473e-01 9.968894e-01 4.165791e-01 3.587153e-01 3.456019e-01 1.997377e-01
<GCONST> 1.110308e+02
<TRANSP> 5
 0.000000e+00 1.000000e+00 0.000000e+00 0.000000e+00 0.000000e+00
 0.000000e+00 7.287219e-01 2.712781e-01 0.000000e+00 0.000000e+00
 0.000000e+00 0.000000e+00 8.655131e-01 1.344869e-01 0.000000e+00
 0.000000e+00 0.000000e+00 0.000000e+00 9.000058e-01 9.999418e-02
 0.000000e+00 0.000000e+00 0.000000e+00 0.000000e+00 0.000000e+00
<ENDHMM>
~h "p"
<BEGINHMM>
<NUMSTATES> 5
<STATE> 2
<NUMMIXES> 16
<MIXTURE> 1 6.250000e-02
<MEAN> 39
 -1.297250e+01 5.681309e+00 -1.739119e+00 1.108483e+01 -2.985898e+00 1.471647e+01 3.301309e-01 1.077444e+01 -1.905063e-01 3.176677e+00 5.993062e-01 -5.129963e-01 4.952310e+01 2.109826e+00 -6.336164e-01 2.739501e+00 -2.266909e-01 3.088042e+00 -5.359748e-01 2.213075e+00 -3.598524e-01 9.799088e-01 1.291015e-01 1.102565e+00 1.078036e+00 8.437017e+00 9.547913e-01 -5.918405e-01 1.189494e+00 -2.807130e-01 1.387438e+00 -4.054707e-01 9.555957e-01 -5.584175e-01 4.775657e-01 -3.157668e-01 3.552060e-01 3.718114e-01 3.111490e+00
<VARIANCE> 39
 6.843487e+00 9.492469e+00 9.173234e+00 7.016789e+00 1.146095e+01 1.568095e+01 2.437893e+01 1.944557e+01 1.731892e+01 1.304028e+01 1.158171e+01 9.737866e+00 8.867661e+00 1.547162e+00 4.968410e+00 3.297311e+00 3.663123e+00 4.001009e+00 6.484770e+00 3.262534e+00 7.501954e+00 2.665938e+00 3.976861e+00 1.660664e+00 1.563531e+00 1.991994e+01 9.895409e-02 2.900933e-01 1.935824e-01 3.355507e-01 3.684758e-01 5.408683e-01 4.575029e-01 5.646292e-01 4.112673e-01 3.251082e-01 2.560716e-01 2.536754e-01 5.845418e-01
<GCONST> 1.064533e+02
<MIXTURE> 2 6.250000e-02
<MEAN> 39
 -1.401890e+01 4.448915e+00 -2.950613e+00 1.002527e+01 -4.340059e+00 1.313251e+01 -1.644870e+00 9.010550e+00 -1.855146e+00 1.732224e+00 -7.619703e-01 -1.761219e+00 4.833195e+01 1.612286e+00 -1.525214e+00 2.013161e+00 -9.922624e-01 2.287941e+00 -1.554583e+00 1.490575e+00 -1.455440e+00 3.268008e-01 -6.685812e-01 5.870976e-01 5.778711e-01 6.651747e+00 8.289634e-01 -8.072817e-01 1.013502e+00 -5.124200e-01 1.144629e+00 -6.996457e-01 6.850398e-01 -8.589848e-01 2.210452e-01 -5.438399e-01 1.527919e-01 1.703466e-01 2.805668e+00
<VARIANCE> 39
 6.843487e+00 9.492469e+00 9.173234e+00 7.016789e+00 1.146095e+01 1.568095e+01 2.437893e+01 1.944557e+01 1.731892e+01 1.304028e+01 1.158171e+01 9.737866e+00 8.867661e+00 1.547162e+00 4.968410e+00 3.297311e+00 3.663123e+00 4.001009e+00 6.484770e+00 3.262534e+00 7.501954e+00 2.665938e+00 3.976861e+00 1.660664e+00 1.563531e+00 1.991994e+01 9.895409e-02 2.900933e-01 1.935824e-01 3.355507e-01 3.684758e-01 5.408683e-01 4.575029e-01 5.646292e-01 4.112673e-01 3.251082e-01 2.560716e-01 2.536754e-01 5.845418e-01
<GCONST> 1.064533e+02
<MIXTURE> 3 6.250000e-02
<MEAN> 39
 -1.401890e+01 4.448915e+00 -2.950613e+00 1.002527e+01 -4.340059e+00 1.313251e+01 -1.644870e+00 9.010550e+00 -1.855147e+00 1.732224e+00 -7.619703e-01 -1.761219e+00 4.833195e+01 1.612286e+00 -1.525214e+00 2.013161e+00 -9.922624e-01 2.287941e+00 -1.554583e+00 1.490575e+00 -1.455440e+00 3.268008e-01 -6.685812e-01 5.870976e-01 5.778711e-01 6.651747e+00 8.289634e-01 -8.072817e-01 1.013502e+00 -5.124200e-01 1.144629e+00 -6.996457e-01 6.850398e-01 -8.589848e-01 2.210452e-01 -5.438399e-01 1.527919e-01 1.703466e-01 2.805668e+00
<VARIANCE> 39
 6.843487e+00 9.492469e+00 9.173234e+00 7.016789e+00 1.146095e+01 1.568095e+01 2.437893e+01 1.944557e+01 1.731892e+01 1.304028e+01 1.158171e+01 9.737866e+00 8.867661e+00 1.547162e+00 4.968410e+00 3.297311e+00 3.663123e+00 4.001009e+00 6.484770e+00 3.262534e+00 7.501954e+00 2.665938e+00 3.976861e+00 1.660664e+00 1.563531e+00 1.991994e+01 9.895409e-02 2.900933e-01 1.935824e-01 3.355507e-01 3.684758e-01 5.408683e-01 4.575029e-01 5.646292e-01 4.112673e-01 3.251082e-01 2.560716e-01 2.536754e-01 5.845418e-01
<GCONST> 1.064533e+02
<MIXTURE> 4 6.250000e-02
<MEAN> 39
 -1.506530e+01 3.216521e+00 -4.162107e+00 8.965697e+00 -5.694220e+00 1.154854e+01 -3.619871e+00 7.246664e+00 -3.519787e+00 2.877710e-01 -2.123247e+00 -3.009441e+00 4.714081e+01 1.114746e+00 -2.416811e+00 1.286821e+00 -1.757834e+00 1.487840e+00 -2.573192e+00 7.680758e-01 -2.551028e+00 -3.263072e-01 -1.466264e+00 7.163069e-02 7.770622e-02 4.866476e+00 7.031355e-01 -1.022723e+00 8.375102e-01 -7.441270e-01 9.018205e-01 -9.938207e-01 4.144840e-01 -1.159552e+00 -3.547531e-02 -7.719129e-01 -4.962218e-02 -3.111815e-02 2.499847e+00
<VARIANCE> 39
 6.843487e+00 9.492469e+00 9.173234e+00 7.016789e+00 1.146095e+01 1.568095e+01 2.437893e+01 1.944557e+01 1.731892e+01 1.304028e+01 1.158171e+01 9.737866e+00 8.867661e+00 1.547162e+00 4.968410e+00 3.297311e+00 3.663123e+00 4.001009e+00 6.484770e+00 3.262534e+00 7.501954e+00 2.665938e+00 3.976861e+00 1.660664e+00 1.563531e+00 1.991994e+01 9.895409e-02 2.900933e-01 1.935824e-01 3.355507e-01 3.684758e-01 5.408683e-01 4.575029e-01 5.646292e-01 4.112673e-01 3.251082e-01 2.560716e-01 2.536754e-01 5.845418e-01
<GCONST> 1.064533e+02
<MIXTURE> 5 6.250000e-02
<MEAN> 39
 -1.401890e+01 4.448915e+00 -2.950613e+00 1.002527e+01 -4.340059e+00 1.313251e+01 -1.644870e+00 9.010550e+00 -1.855147e+00 1.732224e+00 -7.619703e-01 -1.761219e+00 4.833195e+01 1.612286e+00 -1.525214e+00 2.013161e+00 -9.922624e-01 2.287941e+00 -1.554583e+00 1.490575e+00 -1.455440e+00 3.268008e-01 -6.685812e-01 5.870976e-01 5.778711e-01 6.651747e+00 8.289634e-01 -8.072817e-01 1.013502e+00 -5.124200e-01 1.144629e+00 -6.996457e-01 6.850398e-01 -8.589848e-01 2.210452e-01 -5.438399e-01 1.527919e-01 1.703466e-01 2.805668e+00
<VARIANCE> 39
 6.843487e+00 9.492469e+00 9.173234e+00 7.016789e+00 1.146095e+01 1.568095e+01 2.437893e+01 1.944557e+01 1.731892e+01 1.304028e+01 1.158171e+01 9.737866e+00 8.867661e+00 1.547162e+00 4.968410e+00 3.297311e+00 3.663123e+00 4.001009e+00 6.484770e+00 3.262534e+00 7.501954e+00 2.665938e+00 3.976861e+00 1.660664e+00 1.563531e+00 1.991994e+01 9.895409e-02 2.900933e-01 1.935824e-01 3.355507e-01 3.684758e-01 5.408683e-01 4.575029e-01 5.646292e-01 4.112673e-01 3.251082e-01 2.560716e-01 2.536754e-01 5.845418e-01
<GCONST> 1.064533e+02
<MIXTURE> 6 6.250000e-02
<MEAN> 39
 -1.506530e+01 3.216521e+00 -4.162107e+00 8.965697e+00 -5.694220e+00 1.154854e+01 -3.619871e+00 7.246664e+00 -3.519787e+00 2.877710e-01 -2.123247e+00 -3.009441e+00 4.714081e+01 1.114746e+00 -2.416811e+00 1.286821e+00 -1.757834e+00 1.487840e+00 -2.573192e+00 7.680758e-01 -2.551028e+00 -3.263072e-01 -1.466264e+00 7.163069e-02 7.770622e-02 4.866476e+00 7.031355e-01 -1.022723e+00 8.375102e-01 -7.441270e-01 9.018205e-01 -9.938207e-01 4.144840e-01 -1.159552e+00 -3.547531e-02 -7.719129e-01 -4.962218e-02 -3.111815e-02 2.499847e+00
<VARIANCE> 39
 6.843487e+00 9.492469e+00 9.173234e+00 7.016789e+00 1.146095e+01 1.568095e+01 2.437893e+01 1.944557e+01 1.731892e+01 1.304028e+01 1.158171e+01 9.737866e+00 8.867661e+00 1.547162e+00 4.968410e+00 3.297311e+00 3.663123e+00 4.001009e+00 6.484770e+00 3.262534e+00 7.501954e+00 2.665938e+00 3.976861e+00 1.660664e+00 1.563531e+00 1.991994e+01 9.895409e-02 2.900933e-01 1.935824e-01 3.355507e-01 3.684758e-01 5.408683e-01 4.575029e-01 5.646292e-01 4.112673e-01 3.251082e-01 2.560716e-01 2.536754e-01 5.845418e-01
<GCONST> 1.064533e+02
<MIXTURE> 7 6.250000e-02
<MEAN> 39
 -1.506530e+01 3.216521e+00 -4.162107e+00 8.965697e+00 -5.694220e+00 1.154854e+01 -3.619871e+00 7.246664e+00 -3.519787e+00 2.877710e-01 -2.123247e+00 -3.009441e+00 4.714081e+01 1.114746e+00 -2.416811e+00 1.286821e+00 -1.757834e+00 1.487840e+00 -2.573192e+00 7.680758e-01 -2.551028e+00 -3.263072e-01 -1.466264e+00 7.163069e-02 7.770622e-02 4.866476e+00 7.031355e-01 -1.022723e+00 8.375102e-01 -7.441270e-01 9.018205e-01 -9.938207e-01 4.144840e-01 -1.159552e+00 -3.547531e-02 -7.719129e-01 -4.962218e-02 -3.111817e-02 2.499847e+00
<VARIANCE> 39
 6.843487e+00 9.492469e+00 9.173234e+00 7.016789e+00 1.146095e+01 1.568095e+01 2.437893e+01 1.944557e+01 1.731892e+01 1.304028e+01 1.158171e+01 9.737866e+00 8.867661e+00 1.547162e+00 4.968410e+00 3.297311e+00 3.663123e+00 4.001009e+00 6.484770e+00 3.262534e+00 7.501954e+00 2.665938e+00 3.976861e+00 1.660664e+00 1.563531e+00 1.991994e+01 9.895409e-02 2.900933e-01 1.935824e-01 3.355507e-01 3.684758e-01 5.408683e-01 4.575029e-01 5.646292e-01 4.112673e-01 3.251082e-01 2.560716e-01 2.536754e-01 5.845418e-01
<GCONST> 1.064533e+02
<MIXTURE> 8 6.250000e-02
<MEAN> 39
 -1.611170e+01 1.984127e+00 -5.373600e+00 7.906129e+00 -7.048381e+00 9.964573e+00 -5.594872e+00 5.482779e+00 -5.184427e+00 -1.156682e+00 -3.484523e+00 -4.257663e+00 4.594966e+01 6.172061e-01 -3.308408e+00 5.604810e-01 -2.523406e+00 6.877391e-01 -3.591800e+00 4.557639e-02 -3.646616e+00 -9.794152e-01 -2.263947e+00 -4.438363e-01 -4.224587e-01 3.081205e+00 5.773076e-01 -1.238164e+00 6.615182e-01 -9.758340e-01 6.590117e-01 -1.287996e+00 1.439281e-01 -1.460119e+00 -2.919958e-01 -9.999859e-01 -2.520363e-01 -2.325830e-01 2.194026e+00
<VARIANCE> 39
 6.843487e+00 9.492469e+00 9.173234e+00 7.016789e+00 1.146095e+01 1.568095e+01 2.437893e+01 1.944557e+01 1.731892e+01 1.304028e+01 1.158171e+01 9.737866e+00 8.867661e+00 1.547162e+00 4.968410e+00 3.297311e+00 3.663123e+00 4.001009e+00 6.484770e+00 3.262534e+00 7.501954e+00 2.665938e+00 3.976861e+00 1.660664e+00 1.563531e+00 1.991994e+01 9.895409e-02 2.900933e-01 1.935824e-01 3.355507e-01 3.684758e-01 5.408683e-01 4.575029e-01 5.646292e-01 4.112673e-01 3.251082e-01 2.560716e-01 2.536754e-01 5.845418e-01
<GCONST> 1.064533e+02
<MIXTURE> 9 6.250000e-02
<MEAN> 39
 -1.401890e+01 4.448915e+00 -2.950613e+00 1.002527e+01 -4.340059e+00 1.313251e+01 -1.644870e+00 9.010550e+00 -1.855147e+00 1.732224e+00 -7.619703e-01 -1.761219e+00 4.833195e+01 1.612286e+00 -1.525214e+00 2.013161e+00 -9.922624e-01 2.287941e+00 -1.554583e+00 1.490575e+00 -1.455440e+00 3.268008e-01 -6.685812e-01 5.870976e-01 5.778711e-01 6.651747e+00 8.289634e-01 -8.072817e-01 1.013502e+00 -5.124200e-01 1.144629e+00 -6.996457e-01 6.850398e-01 -8.589848e-01 2.210452e-01 -5.438399e-01 1.527919e-01 1.703467e-01 2.805668e+00
<VARIANCE> 39
 6.843487e+00 9.492469e+00 9.173234e+00 7.016789e+00 1.146095e+01 1.568095e+01 2.437893e+01 1.944557e+01 1.731892e+01 1.304028e+01 1.158171e+01 9.737866e+00 8.867661e+00 1.547162e+00 4.968410e+00 3.297311e+00 3.663123e+00 4.001009e+00 6.484770e+00 3.262534e+00 7.501954e+00 2.665938e+00 3.976861e+00 1.660664e+00 1.563531e+00 1.991994e+01 9.895409e-02 2.900933e-01 1.935824e-01 3.355507e-01 3.684758e-01 5.408683e-01 4.575029e-01 5.646292e-01 4.112673e-01 3.251082e-01 2.560716e-01 2.536754e-01 5.845418e-01
<GCONST> 1.064533e+02
<MIXTURE> 10 6.250000e-02
<MEAN> 39
 -1.506530e+01 3.216521e+00 -4.162107e+00 8.965697e+00 -5.694220e+00 1.154854e+01 -3.619871e+00 7.246664e+00 -3.519787e+00 2.877710e-01 -2.123247e+00 -3.009441e+00 4.714081e+01 1.114746e+00 -2.416811e+00 1.286821e+00 -1.757834e+00 1.487840e+00 -2.573192e+00 7.680758e-01 -2.551028e+00 -3.263072e-01 -1.466264e+00 7.163069e-02 7.770622e-02 4.866476e+00 7.031355e-01 -1.022723e+00 8.375102e-01 -7.441270e-01 9.018205e-01 -9.938207e-01 4.144840e-01 -1.159552e+00 -3.547531e-02 -7.719129e-01 -4.962218e-02 -3.111815e-02 2.499847e+00
<VARIANCE> 39
 6.843487e+00 9.492469e+00 9.173234e+00 7.016789e+00 1.146095e+01 1.568095e+01 2.437893e+01 1.944557e+01 1.731892e+01 1.304028e+01 1.158171e+01 9.737866e+00 8.867661e+00 1.547162e+00 4.968410e+00 3.297311e+00 3.663123e+00 4.001009e+00 6.484770e+00 3.262534e+00 7.501954e+00 2.665938e+00 3.976861e+00 1.660664e+00 1.563531e+00 1.991994e+01 9.895409e-02 2.900933e-01 1.935824e-01 3.355507e-01 3.684758e-01 5.408683e-01 4.575029e-01 5.646292e-01 4.112673e-01 3.251082e-01 2.560716e-01 2.536754e-01 5.845418e-01
<GCONST> 1.064533e+02
<MIXTURE> 11 6.250000e-02
<MEAN> 39
 -1.506530e+01 3.216521e+00 -4.162107e+00 8.965697e+00 -5.694220e+00 1.154854e+01 -3.619871e+00 7.246664e+00 -3.519787e+00 2.877710e-01 -2.123247e+00 -3.009441e+00 4.714081e+01 1.114746e+00 -2.416811e+00 1.286821e+00 -1.757834e+00 1.487840e+00 -2.573192e+00 7.680758e-01 -2.551028e+00 -3.263072e-01 -1.466264e+00 7.163069e-02 7.770622e-02 4.866476e+00 7.031355e-01 -1.022723e+00 8.375102e-01 -7.441270e-01 9.018205e-01 -9.938207e-01 4.144840e-01 -1.159552e+00 -3.547531e-02 -7.719129e-01 -4.962218e-02 -3.111816e-02 2.499847e+00
<VARIANCE> 39
 6.843487e+00 9.492469e+00 9.173234e+00 7.016789e+00 1.146095e+01 1.568095e+01 2.437893e+01 1.944557e+01 1.731892e+01 1.304028e+01 1.158171e+01 9.737866e+00 8.867661e+00 1.547162e+00 4.968410e+00 3.297311e+00 3.663123e+00 4.001009e+00 6.484770e+00 3.262534e+00 7.501954e+00 2.665938e+00 3.976861e+00 1.660664e+00 1.563531e+00 1.991994e+01 9.895409e-02 2.900933e-01 1.935824e-01 3.355507e-01 3.684758e-01 5.408683e-01 4.575029e-01 5.646292e-01 4.112673e-01 3.251082e-01 2.560716e-01 2.536754e-01 5.845418e-01
<GCONST> 1.064533e+02
<MIXTURE> 12 6.250000e-02
<MEAN> 39
 -1.611170e+01 1.984127e+00 -5.373600e+00 7.906129e+00 -7.048381e+00 9.964573e+00 -5.594872e+00 5.482779e+00 -5.184427e+00 -1.156682e+00 -3.484524e+00 -4.257663e+00 4.594966e+01 6.172061e-01 -3.308408e+00 5.604810e-01 -2.523406e+00 6.877391e-01 -3.591800e+00 4.557639e-02 -3.646616e+00 -9.794152e-01 -2.263947e+00 -4.438363e-01 -4.224587e-01 3.081205e+00 5.773076e-01 -1.238164e+00 6.615182e-01 -9.758340e-01 6.590117e-01 -1.287996e+00 1.439281e-01 -1.460119e+00 -2.919958e-01 -9.999859e-01 -2.520362e-01 -2.325830e-01 2.194026e+00
<VARIANCE> 39
 6.843487e+00 9.492469e+00 9.173234e+00 7.016789e+00 1.146095e+01 1.568095e+01 2.437893e+01 1.944557e+01 1.731892e+01 1.304028e+01 1.158171e+01 9.737866e+00 8.867661e+00 1.547162e+00 4.968410e+00 3.297311e+00 3.663123e+00 4.001009e+00 6.484770e+00 3.262534e+00 7.501954e+00 2.665938e+00 3.976861e+00 1.660664e+00 1.563531e+00 1.991994e+01 9.895409e-02 2.900933e-01 1.935824e-01 3.355507e-01 3.684758e-01 5.408683e-01 4.575029e-01 5.646292e-01 4.112673e-01 3.251082e-01 2.560716e-01 2.536754e-01 5.845418e-01
<GCONST> 1.064533e+02
<MIXTURE> 13 6.250000e-02
<MEAN> 39
 -1.506530e+01 3.216521e+00 -4.162107e+00 8.965697e+00 -5.694220e+00 1.154854e+01 -3.619871e+00 7.246664e+00 -3.519787e+00 2.877710e-01 -2.123247e+00 -3.009441e+00 4.714081e+01 1.114746e+00 -2.416811e+00 1.286821e+00 -1.757834e+00 1.487840e+00 -2.573192e+00 7.680758e-01 -2.551028e+00 -3.263072e-01 -1.466264e+00 7.163066e-02 7.770622e-02 4.866476e+00 7.031355e-01 -1.022723e+00 8.375102e-01 -7.441270e-01 9.018205e-01 -9.938207e-01 4.144840e-01 -1.159552e+00 -3.547531e-02 -7.719129e-01 -4.962218e-02 -3.111815e-02 2.499847e+00
<VARIANCE> 39
 6.843487e+00 9.492469e+00 9.173234e+00 7.016789e+00 1.146095e+01 1.568095e+01 2.437893e+01 1.944557e+01 1.731892e+01 1.304028e+01 1.158171e+01 9.737866e+00 8.867661e+00 1.547162e+00 4.968410e+00 3.297311e+00 3.663123e+00 4.001009e+00 6.484770e+00 3.262534e+00 7.501954e+00 2.665938e+00 3.976861e+00 1.660664e+00 1.563531e+00 1.991994e+01 9.895409e-02 2.900933e-01 1.935824e-01 3.355507e-01 3.684758e-01 5.408683e-01 4.575029e-01 5.646292e-01 4.112673e-01 3.251082e-01 2.560716e-01 2.536754e-01 5.845418e-01
<GCONST> 1.064533e+02
<MIXTURE> 14 6.250000e-02
<MEAN> 39
 -1.611170e+01 1.984127e+00 -5.373600e+00 7.906129e+00 -7.048381e+00 9.964573e+00 -5.594872e+00 5.482779e+00 -5.184427e+00 -1.156682e+00 -3.484524e+00 -4.257663e+00 4.594966e+01 6.172061e-01 -3.308408e+00 5.604810e-01 -2.523406e+00 6.877391e-01 -3.591800e+00 4.557639e-02 -3.646616e+00 -9.794152e-01 -2.263947e+00 -4.438363e-01 -4.224587e-01 3.081205e+00 5.773076e-01 -1.238164e+00 6.615182e-01 -9.758340e-01 6.590117e-01 -1.287996e+00 1.439281e-01 -1.460119e+00 -2.919958e-01 -9.999859e-01 -2.520362e-01 -2.325830e-01 2.194026e+00
<VARIANCE> 39
 6.843487e+00 9.492469e+00 9.173234e+00 7.016789e+00 1.146095e+01 1.568095e+01 2.437893e+01 1.944557e+01 1.731892e+01 1.304028e+01 1.158171e+01 9.737866e+00 8.867661e+00 1.547162e+00 4.968410e+00 3.297311e+00 3.663123e+00 4.001009e+00 6.484770e+00 3.262534e+00 7.501954e+00 2.665938e+00 3.976861e+00 1.660664e+00 1.563531e+00 1.991994e+01 9.895409e-02 2.900933e-01 1.935824e-01 3.355507e-01 3.684758e-01 5.408683e-01 4.575029e-01 5.646292e-01 4.112673e-01 3.251082e-01 2.560716e-01 2.536754e-01 5.845418e-01
<GCONST> 1.064533e+02
<MIXTURE> 15 6.250000e-02
<MEAN> 39
 -1.611170e+01 1.984127e+00 -5.373600e+00 7.906129e+00 -7.048381e+00 9.964573e+00 -5.594872e+00 5.482779e+00 -5.184427e+00 -1.156682e+00 -3.484524e+00 -4.257663e+00 4.594966e+01 6.172060e-01 -3.308408e+00 5.604810e-01 -2.523406e+00 6.877393e-01 -3.591800e+00 4.557639e-02 -3.646616e+00 -9.794152e-01 -2.263947e+00 -4.438363e-01 -4.224587e-01 3.081205e+00 5.773076e-01 -1.238164e+00 6.615182e-01 -9.758340e-01 6.590117e-01 -1.287996e+00 1.439281e-01 -1.460119e+00 -2.919958e-01 -9.999859e-01 -2.520362e-01 -2.325830e-01 2.194026e+00
<VARIANCE> 39
 6.843487e+00 9.492469e+00 9.173234e+00 7.016789e+00 1.146095e+01 1.568095e+01 2.437893e+01 1.944557e+01 1.731892e+01 1.304028e+01 1.158171e+01 9.737866e+00 8.867661e+00 1.547162e+00 4.968410e+00 3.297311e+00 3.663123e+00 4.001009e+00 6.484770e+00 3.262534e+00 7.501954e+00 2.665938e+00 3.976861e+00 1.660664e+00 1.563531e+00 1.991994e+01 9.895409e-02 2.900933e-01 1.935824e-01 3.355507e-01 3.684758e-01 5.408683e-01 4.575029e-01 5.646292e-01 4.112673e-01 3.251082e-01 2.560716e-01 2.536754e-01 5.845418e-01
<GCONST> 1.064533e+02
<MIXTURE> 16 6.250000e-02
<MEAN> 39
 -1.715810e+01 7.517332e-01 -6.585094e+00 6.846560e+00 -8.402542e+00 8.380606e+00 -7.569873e+00 3.718893e+00 -6.849068e+00 -2.601135e+00 -4.845800e+00 -5.505886e+00 4.475851e+01 1.196662e-01 -4.200006e+00 -1.658590e-01 -3.288977e+00 -1.123618e-01 -4.610409e+00 -6.769230e-01 -4.742204e+00 -1.632523e+00 -3.061630e+00 -9.593033e-01 -9.226236e-01 1.295935e+00 4.514797e-01 -1.453605e+00 4.855262e-01 -1.207541e+00 4.162028e-01 -1.582171e+00 -1.266277e-01 -1.760686e+00 -5.485163e-01 -1.228059e+00 -4.544503e-01 -4.340478e-01 1.888204e+00
<VARIANCE> 39
 6.843487e+00 9.492469e+00 9.173234e+00 7.016789e+00 1.146095e+01 1.568095e+01 2.437893e+01 1.944557e+01 1.731892e+01 1.304028e+01 1.158171e+01 9.737866e+00 8.867661e+00 1.547162e+00 4.968410e+00 3.297311e+00 3.663123e+00 4.001009e+00 6.484770e+00 3.262534e+00 7.501954e+00 2.665938e+00 3.976861e+00 1.660664e+00 1.563531e+00 1.991994e+01 9.895409e-02 2.900933e-01 1.935824e-01 3.355507e-01 3.684758e-01 5.408683e-01 4.575029e-01 5.646292e-01 4.112673e-01 3.251082e-01 2.560716e-01 2.536754e-01 5.845418e-01
<GCONST> 1.064533e+02
<STATE> 3
<NUMMIXES> 16
<MIXTURE> 1 6.250000e-02
<MEAN> 39
 -2.189917e+00 -7.352491e+00 8.909414e+00 4.176303e+00 9.051944e+00 4.316136e+00 5.955506e+00 -1.579893e+00 1.370306e-01 -5.655895e+00 7.868401e-01 7.230530e-01 8.383548e+01 2.768107e+00 1.698362e+00 2.336834e+00 2.689621e+00 2.546072e+00 3.502100e+00 1.897624e+00 3.076149e+00 1.305883e+00 1.007403e+00 1.282539e-01 6.254346e-01 6.365167e+00 4.190333e-02 1.725353e+00 -2.787076e-01 1.683558e+00 -4.434148e-01 2.262981e+00 1.036777e-01 2.259879e+00 5.566526e-01 1.333375e+00 4.222972e-01 4.245622e-01 -1.234465e+00
<VARIANCE> 39
 1.722832e+01 1.447146e+01 1.636224e+01 3.054669e+01 2.550728e+01 4.885916e+01 2.788441e+01 4.228453e+01 2.735841e+01 2.375187e+01 2.911142e+01 2.324433e+01 5.079857e+01 1.409119e+00 6.808126e+00 4.884313e+00 7.068530e+00 8.649303e+00 1.277380e+01 4.440573e+00 1.299510e+01 2.361671e+00 4.365021e+00 2.024178e+00 1.451782e+00 4.061827e+01 1.899706e-01 4.845707e-01 4.246986e-01 5.880833e-01 6.958106e-01 1.374912e+00 7.181533e-01 1.434868e+00 5.707289e-01 4.862549e-01 5.082795e-01 3.527825e-01 2.702313e+00
<GCONST> 1.304172e+02
<MIXTURE> 2 6.250000e-02
<MEAN> 39
 -3.850197e+00 -8.874146e+00 7.291403e+00 1.965540e+00 7.031754e+00 1.520163e+00 3.843278e+00 -4.180954e+00 -1.955180e+00 -7.605330e+00 -1.371360e+00 -1.205442e+00 8.098456e+01 2.293281e+00 6.546662e-01 1.452814e+00 1.626153e+00 1.369684e+00 2.072482e+00 1.054717e+00 1.634200e+00 6.911740e-01 1.716976e-01 -4.408406e-01 1.434749e-01 3.815868e+00 -1.324391e-01 1.446908e+00 -5.393831e-01 1.376812e+00 -7.770759e-01 1.793955e+00 -2.352980e-01 1.780735e+00 2.544662e-01 1.054447e+00 1.371223e-01 1.869803e-01 -1.892014e+00
<VARIANCE> 39
 1.722832e+01 1.447146e+01 1.636224e+01 3.054669e+01 2.550728e+01 4.885916e+01 2.788441e+01 4.228453e+01 2.735841e+01 2.375187e+01 2.911142e+01 2.324433e+01 5.079857e+01 1.409119e+00 6.808126e+00 4.884313e+00 7.068530e+00 8.649303e+00 1.277380e+01 4.440573e+00 1.299510e+01 2.361671e+00 4.365021e+00 2.024178e+00 1.451782e+00 4.061827e+01 1.899706e-01 4.845707e-01 4.246986e-01 5.880833e-01 6.958106e-01 1.374912e+00 7.181533e-01 1.434868e+00 5.707289e-01 4.862549e-01 5.082795e-01 3.527825e-01 2.702313e+00
<GCONST> 1.304172e+02
<MIXTURE> 3 6.250000e-02
<MEAN> 39
 -3.850197e+00 -8.874146e+00 7.291403e+00 1.965540e+00 7.031754e+00 1.520163e+00 3.843278e+00 -4.180955e+00 -1.955180e+00 -7.605330e+00 -1.371360e+00 -1.205442e+00 8.098456e+01 2.293281e+00 6.546662e-01 1.452814e+00 1.626153e+00 1.369684e+00 2.072482e+00 1.054717e+00 1.634200e+00 6.911740e-01 1.716976e-01 -4.408406e-01 1.434749e-01 3.815868e+00 -1.324391e-01 1.446908e+00 -5.393832e-01 1.376812e+00 -7.770759e-01 1.793955e+00 -2.352980e-01 1.780735e+00 2.544662e-01 1.054447e+00 1.371223e-01 1.869803e-01 -1.892014e+00
<VARIANCE> 39
 1.722832e+01 1.447146e+01 1.636224e+01 3.054669e+01 2.550728e+01 4.885916e+01 2.788441e+01 4.228453e+01 2.735841e+01 2.375187e+01 2.911142e+01 2.324433e+01 5.079857e+01 1.409119e+00 6.808126e+00 4.884313e+00 7.068530e+00 8.649303e+00 1.277380e+01 4.440573e+00 1.299510e+01 2.361671e+00 4.365021e+00 2.024178e+00 1.451782e+00 4.061827e+01 1.899706e-01 4.845707e-01 4.246986e-01 5.880833e-01 6.958106e-01 1.374912e+00 7.181533e-01 1.434868e+00 5.707289e-01 4.862549e-01 5.082795e-01 3.527825e-01 2.702313e+00
<GCONST> 1.304172e+02
<MIXTURE> 4 6.250000e-02
<MEAN> 39
 -5.510477e+00 -1.039580e+01 5.673393e+00 -2.452221e-01 5.011565e+00 -1.275810e+00 1.731051e+00 -6.782017e+00 -4.047391e+00 -9.554766e+00 -3.529560e+00 -3.133937e+00 7.813364e+01 1.818456e+00 -3.890293e-01 5.687951e-01 5.626847e-01 1.932962e-01 6.428639e-01 2.118102e-01 1.922514e-01 7.646489e-02 -6.640078e-01 -1.009935e+00 -3.384848e-01 1.266570e+00 -3.067816e-01 1.168464e+00 -8.000587e-01 1.070065e+00 -1.110737e+00 1.324928e+00 -5.742737e-01 1.301591e+00 -4.772016e-02 7.755194e-01 -1.480526e-01 -5.060171e-02 -2.549562e+00
<VARIANCE> 39
 1.722832e+01 1.447146e+01 1.636224e+01 3.054669e+01 2.550728e+01 4.885916e+01 2.788441e+01 4.228453e+01 2.735841e+01 2.375187e+01 2.911142e+01 2.324433e+01 5.079857e+01 1.409119e+00 6.808126e+00 4.884313e+00 7.068530e+00 8.649303e+00 1.277380e+01 4.440573e+00 1.299510e+01 2.361671e+00 4.365021e+00 2.024178e+00 1.451782e+00 4.061827e+01 1.899706e-01 4.845707e-01 4.246986e-01 5.880833e-01 6.958106e-01 1.374912e+00 7.181533e-01 1.434868e+00 5.707289e-01 4.862549e-01 5.082795e-01 3.527825e-01 2.702313e+00
<GCONST> 1.304172e+02
<MIXTURE> 5 6.250000e-02
<MEAN> 39
 -3.850197e+00 -8.874146e+00 7.291403e+00 1.965540e+00 7.031754e+00 1.520163e+00 3.843278e+00 -4.180955e+00 -1.955180e+00 -7.605330e+00 -1.371360e+00 -1.205442e+00 8.098456e+01 2.293281e+00 6.546662e-01 1.452814e+00 1.626153e+00 1.369684e+00 2.072482e+00 1.054717e+00 1.634200e+00 6.911740e-01 1.716976e-01 -4.408406e-01 1.434749e-01 3.815868e+00 -1.324391e-01 1.446908e+00 -5.393832e-01 1.376812e+00 -7.770759e-01 1.793955e+00 -2.352980e-01 1.780735e+00 2.544662e-01 1.054447e+00 1.371223e-01 1.869803e-01 -1.892014e+00
<VARIANCE> 39
 1.722832e+01 1.447146e+01 1.636224e+01 3.054669e+01 2.550728e+01 4.885916e+01 2.788441e+01 4.228453e+01 2.735841e+01 2.375187e+01 2.911142e+01 2.324433e+01 5.079857e+01 1.409119e+00 6.808126e+00 4.884313e+00 7.068530e+00 8.649303e+00 1.277380e+01 4.440573e+00 1.299510e+01 2.361671e+00 4.365021e+00 2.024178e+00 1.451782e+00 4.061827e+01 1.899706e-01 4.845707e-01 4.246986e-01 5.880833e-01 6.958106e-01 1.374912e+00 7.181533e-01 1.434868e+00 5.707289e-01 4.862549e-01 5.082795e-01 3.527825e-01 2.702313e+00
<GCONST> 1.304172e+02
<MIXTURE> 6 6.250000e-02
<MEAN> 39
 -5.510477e+00 -1.039580e+01 5.673393e+00 -2.452222e-01 5.011565e+00 -1.275810e+00 1.731051e+00 -6.782017e+00 -4.047391e+00 -9.554766e+00 -3.529560e+00 -3.133937e+00 7.813364e+01 1.818456e+00 -3.890293e-01 5.687951e-01 5.626847e-01 1.932962e-01 6.428639e-01 2.118102e-01 1.922515e-01 7.646488e-02 -6.640078e-01 -1.009935e+00 -3.384848e-01 1.266570e+00 -3.067816e-01 1.168464e+00 -8.000587e-01 1.070065e+00 -1.110737e+00 1.324928e+00 -5.742737e-01 1.301591e+00 -4.772015e-02 7.755194e-01 -1.480526e-01 -5.060170e-02 -2.549562e+00
<VARIANCE> 39
 1.722832e+01 1.447146e+01 1.636224e+01 3.054669e+01 2.550728e+01 4.885916e+01 2.788441e+01 4.228453e+01 2.735841e+01 2.375187e+01 2.911142e+01 2.324433e+01 5.079857e+01 1.409119e+00 6.808126e+00 4.884313e+00 7.068530e+00 8.649303e+00 1.277380e+01 4.440573e+00 1.299510e+01 2.361671e+00 4.365021e+00 2.024178e+00 1.451782e+00 4.061827e+01 1.899706e-01 4.845707e-01 4.246986e-01 5.880833e-01 6.958106e-01 1.374912e+00 7.181533e-01 1.434868e+00 5.707289e-01 4.862549e-01 5.082795e-01 3.527825e-01 2.702313e+00
<GCONST> 1.304172e+02
<MIXTURE> 7 6.250000e-02
<MEAN> 39
 -5.510477e+00 -1.039580e+01 5.673393e+00 -2.452222e-01 5.011565e+00 -1.275810e+00 1.731051e+00 -6.782018e+00 -4.047391e+00 -9.554766e+00 -3.529560e+00 -3.133937e+00 7.813364e+01 1.818456e+00 -3.890293e-01 5.687951e-01 5.626847e-01 1.932962e-01 6.428639e-01 2.118102e-01 1.922515e-01 7.646486e-02 -6.640078e-01 -1.009935e+00 -3.384848e-01 1.266570e+00 -3.067816e-01 1.168464e+00 -8.000588e-01 1.070065e+00 -1.110737e+00 1.324928e+00 -5.742737e-01 1.301591e+00 -4.772015e-02 7.755194e-01 -1.480526e-01 -5.060170e-02 -2.549562e+00
<VARIANCE> 39
 1.722832e+01 1.447146e+01 1.636224e+01 3.054669e+01 2.550728e+01 4.885916e+01 2.788441e+01 4.228453e+01 2.735841e+01 2.375187e+01 2.911142e+01 2.324433e+01 5.079857e+01 1.409119e+00 6.808126e+00 4.884313e+00 7.068530e+00 8.649303e+00 1.277380e+01 4.440573e+00 1.299510e+01 2.361671e+00 4.365021e+00 2.024178e+00 1.451782e+00 4.061827e+01 1.899706e-01 4.845707e-01 4.246986e-01 5.880833e-01 6.958106e-01 1.374912e+00 7.181533e-01 1.434868e+00 5.707289e-01 4.862549e-01 5.082795e-01 3.527825e-01 2.702313e+00
<GCONST> 1.304172e+02
<MIXTURE> 8 6.250000e-02
<MEAN> 39
 -7.170757e+00 -1.191745e+01 4.055382e+00 -2.455985e+00 2.991376e+00 -4.071783e+00 -3.811767e-01 -9.383080e+00 -6.139602e+00 -1.150420e+01 -5.687760e+00 -5.062432e+00 7.528271e+01 1.343631e+00 -1.432725e+00 -3.152242e-01 -5.007836e-01 -9.830918e-01 -7.867543e-01 -6.310965e-01 -1.249697e+00 -5.382444e-01 -1.499713e+00 -1.579029e+00 -8.204444e-01 -1.282729e+00 -4.811241e-01 8.900194e-01 -1.060734e+00 7.633187e-01 -1.444398e+00 8.559015e-01 -9.132494e-01 8.224472e-01 -3.499066e-01 4.965914e-01 -4.332275e-01 -2.881837e-01 -3.207110e+00
<VARIANCE> 39
 1.722832e+01 1.447146e+01 1.636224e+01 3.054669e+01 2.550728e+01 4.885916e+01 2.788441e+01 4.228453e+01 2.735841e+01 2.375187e+01 2.911142e+01 2.324433e+01 5.079857e+01 1.409119e+00 6.808126e+00 4.884313e+00 7.068530e+00 8.649303e+00 1.277380e+01 4.440573e+00 1.299510e+01 2.361671e+00 4.365021e+00 2.024178e+00 1.451782e+00 4.061827e+01 1.899706e-01 4.845707e-01 4.246986e-01 5.880833e-01 6.958106e-01 1.374912e+00 7.181533e-01 1.434868e+00 5.707289e-01 4.862549e-01 5.082795e-01 3.527825e-01 2.702313e+00
<GCONST> 1.304172e+02
<MIXTURE> 9 6.250000e-02
<MEAN> 39
 -3.850197e+00 -8.874146e+00 7.291403e+00 1.965540e+00 7.031754e+00 1.520163e+00 3.843278e+00 -4.180955e+00 -1.955180e+00 -7.605330e+00 -1.371360e+00 -1.205442e+00 8.098456e+01 2.293281e+00 6.546662e-01 1.452814e+00 1.626153e+00 1.369684e+00 2.072482e+00 1.054717e+00 1.634200e+00 6.911740e-01 1.716976e-01 -4.408406e-01 1.434749e-01 3.815868e+00 -1.324391e-01 1.446908e+00 -5.393832e-01 1.376812e+00 -7.770759e-01 1.793955e+00 -2.352980e-01 1.780735e+00 2.544662e-01 1.054447e+00 1.371223e-01 1.869803e-01 -1.892014e+00
<VARIANCE> 39
 1.722832e+01 1.447146e+01 1.636224e+01 3.054669e+01 2.550728e+01 4.885916e+01 2.788441e+01 4.228453e+01 2.735841e+01 2.375187e+01 2.911142e+01 2.324433e+01 5.079857e+01 1.409119e+00 6.808126e+00 4.884313e+00 7.068530e+00 8.649303e+00 1.277380e+01 4.440573e+00 1.299510e+01 2.361671e+00 4.365021e+00 2.024178e+00 1.451782e+00 4.061827e+01 1.899706e-01 4.845707e-01 4.246986e-01 5.880833e-01 6.958106e-01 1.374912e+00 7.181533e-01 1.434868e+00 5.707289e-01 4.862549e-01 5.082795e-01 3.527825e-01 2.702313e+00
<GCONST> 1.304172e+02
<MIXTURE> 10 6.250000e-02
<MEAN> 39
 -5.510477e+00 -1.039580e+01 5.673393e+00 -2.452222e-01 5.011565e+00 -1.275810e+00 1.731051e+00 -6.782017e+00 -4.047391e+00 -9.554766e+00 -3.529560e+00 -3.133937e+00 7.813364e+01 1.818456e+00 -3.890293e-01 5.687951e-01 5.626847e-01 1.932962e-01 6.428639e-01 2.118102e-01 1.922515e-01 7.646486e-02 -6.640078e-01 -1.009935e+00 -3.384848e-01 1.266570e+00 -3.067816e-01 1.168464e+00 -8.000587e-01 1.070065e+00 -1.110737e+00 1.324928e+00 -5.742737e-01 1.301591e+00 -4.772015e-02 7.755194e-01 -1.480526e-01 -5.060170e-02 -2.549562e+00
<VARIANCE> 39
