~o
<STREAMINFO> 1 39
<VECSIZE> 39<NULLD><MFCC_D_A_0><DIAGC>
~s "silst"
<MEAN> 39
 -1.738203e+01 1.910860e+00 -7.341980e+00 6.618789e+00 -7.171574e+00 8.566360e+00 -6.165497e+00 5.397039e+00 -5.046462e+00 3.333217e-01 -5.917162e-02 -1.618424e+00 4.566163e+01 6.376305e-01 -1.672790e-01 -8.162079e-03 4.690852e-01 -1.280640e-01 -6.300968e-02 3.069679e-01 1.195125e-01 -1.855240e-01 1.415092e-02 1.018941e-01 -1.693113e-02 4.482921e-01 -3.193691e-02 1.910462e-01 -1.655072e-02 -1.527487e-01 1.278027e-01 1.218860e-01 -1.071122e-01 -2.121381e-02 2.160824e-01 2.899512e-02 -1.363378e-01 -2.784470e-03 -7.212091e-02
<VARIANCE> 39
 1.104813e+02 8.306035e+01 3.870633e+01 5.488339e+01 3.864245e+01 6.125113e+01 5.359393e+01 4.111824e+01 4.849836e+01 2.633270e+01 2.949306e+01 2.099500e+01 1.357165e+02 9.262410e+00 6.873952e+00 2.111069e+00 4.721179e+00 3.544470e+00 4.969101e+00 4.292784e+00 3.800456e+00 4.858164e+00 2.684622e+00 3.063030e+00 1.822685e+00 8.908603e+00 1.310635e+00 1.158409e+00 3.791304e-01 8.353488e-01 6.536391e-01 9.249035e-01 7.644908e-01 7.378281e-01 8.864481e-01 5.286201e-01 5.986313e-01 3.684919e-01 1.287756e+00
<GCONST> 1.371853e+02
~h "k"
<BEGINHMM>
<NUMSTATES> 5
<STATE> 2
<MEAN> 39
 -1.301927e+01 1.296244e+00 -5.984752e+00 7.854121e+00 -4.963476e+00 1.080597e+01 -4.323313e+00 6.249663e+00 -3.141116e+00 1.466315e+00 -1.731515e+00 -2.726361e+00 4.963030e+01 -4.912866e-01 -4.049386e+00 4.140807e-01 -1.744994e+00 1.983380e+00 -2.827411e+00 5.332506e-01 -3.225147e+00 1.402899e-01 -7.980535e-02 9.432241e-02 -1.689123e-02 4.519338e+00 -2.204012e-01 -1.920150e+00 2.304443e-01 -1.057313e+00 8.747383e-01 -1.343228e+00 1.961852e-01 -1.708865e+00 8.282541e-02 -2.848879e-01 -2.094871e-02 -1.066486e-01 2.399941e+00
<VARIANCE> 39
 1.400881e+01 3.878601e+01 1.835250e+01 1.880442e+01 2.197128e+01 3.192405e+01 3.288194e+01 2.730605e+01 2.027011e+01 1.822661e+01 1.469317e+01 1.369417e+01 2.131064e+01 1.216082e+00 1.727310e+01 2.030005e+00 6.156341e+00 5.900889e+00 1.076804e+01 3.303778e+00 1.345495e+01 2.798035e+00 2.667305e+00 1.912684e+00 1.770234e+00 2.235763e+01 1.406501e-01 1.242722e+00 2.975550e-01 4.525406e-01 5.848069e-01 8.553343e-01 5.349314e-01 8.582745e-01 4.968361e-01 4.308247e-01 3.440651e-01 3.090521e-01 1.143369e+00
<GCONST> 1.224315e+02
<STATE> 3
<MEAN> 39
 -1.681307e+01 -2.705025e+01 -1.462299e+00 -7.496258e+00 7.321937e+00 -8.049356e+00 -1.225305e+00 -1.995085e+01 -9.270327e-01 -1.387632e+00 -2.558526e+00 -4.843355e+00 8.374886e+01 -6.471545e-03 -1.608314e+00 5.695522e-01 -7.683359e-01 1.635508e-01 -3.871557e-01 -2.172200e-01 -1.754552e+00 5.227902e-02 1.683916e-01 -3.674845e-01 -3.977071e-01 1.353270e+00 3.537573e-01 1.465394e+00 -2.503907e-01 9.238997e-01 -8.225486e-01 1.254118e+00 -3.766265e-01 1.432858e+00 -1.344160e-01 3.601146e-01 -1.165114e-01 1.417484e-01 -2.090939e+00
<VARIANCE> 39
 7.092784e+00 1.302440e+01 1.590594e+01 1.949077e+01 1.980680e+01 4.037244e+01 2.634232e+01 3.408618e+01 3.023495e+01 2.512725e+01 2.495244e+01 2.708236e+01 2.310179e+01 1.267003e+00 1.642146e+01 1.629383e+00 7.344718e+00 6.058152e+00 1.311548e+01 2.752222e+00 1.493070e+01 2.406934e+00 3.547437e+00 1.654317e+00 1.893840e+00 3.343188e+01 1.627771e-01 1.209749e+00 4.158446e-01 5.290235e-01 6.390247e-01 1.099442e+00 4.594732e-01 9.459230e-01 4.783863e-01 5.952648e-01 3.477945e-01 4.345825e-01 1.779597e+00
<GCONST> 1.252226e+02
<STATE> 4
<MEAN> 39
 -1.004426e+01 -1.571357e+01 -5.343605e+00 4.919187e+00 -2.401495e+00 6.651516e+00 -9.176896e+00 -9.674284e+00 -4.942110e+00 3.792682e+00 -5.784912e+00 -3.929279e+00 6.300082e+01 7.380261e-01 1.916045e+00 -1.027244e+00 1.912941e+00 -9.998498e-01 1.691059e+00 -5.288637e-01 1.702393e+00 -4.730860e-01 3.693729e-01 -2.689147e-02 1.672609e-01 -2.502558e+00 -2.366541e-01 -4.880567e-02 5.848910e-02 -1.810113e-01 2.674651e-01 -2.637984e-01 3.168095e-01 -1.352860e-01 1.054270e-01 -1.412670e-01 1.794985e-01 -1.209838e-01 3.745866e-01
<VARIANCE> 39
 1.045911e+01 3.095689e+01 1.850393e+01 4.436816e+01 1.976075e+01 3.872430e+01 2.844819e+01 3.828155e+01 4.675935e+01 1.903479e+01 2.379894e+01 2.530740e+01 2.975348e+01 1.332250e+00 1.157566e+00 1.461563e+00 2.186089e+00 2.386959e+00 2.734756e+00 3.436607e+00 5.041241e+00 4.396352e+00 2.087039e+00 1.987661e+00 1.964987e+00 2.492725e+00 1.664362e-01 2.447018e-01 2.947966e-01 3.898326e-01 3.293000e-01 4.120460e-01 5.139325e-01 9.669453e-01 1.004996e+00 4.881180e-01 3.661067e-01 3.662730e-01 2.729498e-01
<GCONST> 1.131203e+02
<TRANSP> 5
 0.000000e+00 1.000000e+00 0.000000e+00 0.000000e+00 0.000000e+00
 0.000000e+00 7.388036e-01 2.611965e-01 0.000000e+00 0.000000e+00
 0.000000e+00 0.000000e+00 8.480097e-01 1.519903e-01 0.000000e+00
 0.000000e+00 0.000000e+00 0.000000e+00 8.673004e-01 1.326996e-01
 0.000000e+00 0.000000e+00 0.000000e+00 0.000000e+00 0.000000e+00
<ENDHMM>
~h "p"
<BEGINHMM>
<NUMSTATES> 5
<STATE> 2
<MEAN> 39
 -1.331633e+01 3.409325e+00 -5.683392e+00 7.741255e+00 -6.526757e+00 1.052545e+01 -4.916778e+00 6.703710e+00 -3.384483e+00 3.179759e-01 -2.295248e+00 -3.079385e+00 4.811134e+01 8.026892e-01 -2.208944e+00 1.357752e+00 -1.416873e+00 1.531766e+00 -2.344914e+00 7.117918e-01 -2.289660e+00 -3.895837e-01 -1.414145e+00 1.685326e-01 1.037464e-01 4.290002e+00 5.707771e-01 -1.015617e+00 8.879715e-01 -5.860786e-01 9.350245e-01 -9.521594e-01 4.245669e-01 -1.089705e+00 -1.002868e-01 -7.688711e-01 1.313828e-03 -4.455441e-02 2.316010e+00
<VARIANCE> 39
 1.375404e+01 8.726384e+00 1.692211e+01 1.109302e+01 1.239732e+01 1.632691e+01 2.398785e+01 1.720132e+01 1.551459e+01 1.212172e+01 1.076203e+01 9.118558e+00 1.004169e+01 1.361851e+00 5.086240e+00 3.860227e+00 3.297564e+00 4.330785e+00 6.213673e+00 2.833107e+00 6.979552e+00 2.484228e+00 3.948350e+00 1.631242e+00 1.470611e+00 1.883316e+01 1.185715e-01 2.683960e-01 2.271224e-01 3.641939e-01 3.688605e-01 5.200962e-01 3.969131e-01 5.037075e-01 3.898852e-01 3.249994e-01 2.614463e-01 2.412567e-01 6.086958e-01
<GCONST> 1.074861e+02
<STATE> 3
<MEAN> 39
 -5.301414e+00 -1.032917e+01 5.353799e+00 2.646761e-02 5.365473e+00 -2.397303e+00 7.444737e-01 -7.458039e+00 -4.938917e+00 -9.951149e+00 -2.744979e+00 -3.213229e+00 7.816772e+01 1.711920e+00 -4.888644e-01 7.966529e-01 6.139613e-01 4.582529e-01 5.777080e-01 4.168555e-01 1.639890e-02 2.651712e-02 -7.985492e-01 -9.394385e-01 -3.037522e-01 1.465832e+00 -2.530300e-01 1.283340e+00 -1.016585e+00 1.042625e+00 -1.323478e+00 1.464124e+00 -6.256635e-01 1.451756e+00 7.051752e-02 9.063151e-01 -2.426675e-01 -4.589362e-02 -2.767217e+00
<VARIANCE> 39
 1.102588e+01 1.316262e+01 1.624697e+01 2.756180e+01 2.512883e+01 4.598082e+01 3.173202e+01 3.926823e+01 2.850535e+01 2.445954e+01 2.800273e+01 2.157896e+01 4.717983e+01 1.192176e+00 7.205785e+00 6.116505e+00 6.238225e+00 9.796111e+00 1.304270e+01 4.110490e+00 1.301734e+01 2.455981e+00 5.125929e+00 2.197041e+00 1.428326e+00 4.031218e+01 1.876637e-01 4.551160e-01 5.279879e-01 5.579975e-01 7.491944e-01 1.237786e+00 6.564148e-01 1.185376e+00 5.839382e-01 5.447534e-01 5.030214e-01 3.460357e-01 2.190129e+00
<GCONST> 1.296212e+02
<STATE> 4
<MEAN> 39
 -2.695426e+00 3.167746e+00 -1.807205e-01 1.205661e+01 -4.107465e+00 9.577093e+00 -4.804926e+00 2.468425e+00 -7.841647e+00 -4.809537e+00 -7.199795e+00 -5.931970e+00 5.809445e+01 -4.378189e-01 1.262796e+00 -5.988446e-01 5.356935e-01 -6.035839e-01 5.364355e-01 -4.335509e-01 5.107966e-01 -4.060252e-01 5.190220e-01 6.208818e-02 -1.538967e-01 -1.793908e+00 -2.112696e-01 -2.075443e-01 1.350383e-01 -3.366747e-01 2.859455e-01 -2.996696e-01 1.431159e-01 -2.387721e-01 4.304612e-02 -1.025250e-01 1.551604e-01 4.908332e-02 3.535011e-01
<VARIANCE> 39
 1.049446e+01 3.432410e+01 2.509372e+01 1.958045e+01 1.902410e+01 1.997564e+01 2.183301e+01 1.686022e+01 2.318207e+01 1.761116e+01 1.714011e+01 1.591842e+01 2.472278e+01 7.731702e-01 1.375257e+00 1.743132e+00 2.361585e+00 3.165270e+00 2.529536e+00 1.841427e+00 2.159278e+00 1.853810e+00 1.854957e+00 1.406685e+00 1.220587e+00 1.813169e+00 6.450311e-02 1.401836e-01 2.591242e-01 2.976148e-01 4.741633e-01 5.800053e-01 3.276577e-01 4.248763e-01 4.031373e-01 3.414499e-01 3.104806e-01 2.452152e-01 1.627163e-01
<GCONST> 1.008410e+02
<TRANSP> 5
 0.000000e+00 1.000000e+00 0.000000e+00 0.000000e+00 0.000000e+00
 0.000000e+00 7.052525e-01 2.947475e-01 0.000000e+00 0.000000e+00
 0.000000e+00 0.000000e+00 7.770699e-01 2.229301e-01 0.000000e+00
 0.000000e+00 0.000000e+00 0.000000e+00 8.919472e-01 1.080528e-01
 0.000000e+00 0.000000e+00 0.000000e+00 0.000000e+00 0.000000e+00
<ENDHMM>
~h "s"
<BEGINHMM>
<NUMSTATES> 5
<STATE> 2
<MEAN> 39
 -1.400699e+01 -8.480386e-01 -3.552956e+00 8.216568e+00 -5.371520e+00 9.325147e+00 -2.876530e+00 3.552073e+00 -3.889493e+00 1.361027e-02 -3.067140e+00 -1.880175e+00 5.126676e+01 -1.801282e+00 -3.357252e+00 1.243666e+00 -1.342821e+00 1.615134e+00 -2.314672e+00 2.072297e+00 -2.687569e+00 3.783066e-01 -6.387568e-01 1.760436e-01 1.159541e+00 2.995070e+00 -8.267967e-01 -1.028492e+00 5.487264e-01 -1.047502e+00 1.065125e+00 -9.097968e-01 5.616830e-01 -8.715558e-01 1.247265e-01 -3.161917e-01 1.735202e-01 1.872775e-01 1.392326e+00
<VARIANCE> 39
 1.769169e+01 5.780155e+01 3.130213e+01 2.517188e+01 2.547797e+01 4.356989e+01 4.419248e+01 5.310404e+01 2.828188e+01 2.377673e+01 2.612928e+01 2.436555e+01 2.690945e+01 3.136638e+00 9.272387e+00 4.588000e+00 5.983835e+00 6.500113e+00 7.622143e+00 5.067190e+00 8.524833e+00 3.231450e+00 2.997557e+00 2.690578e+00 2.506770e+00 7.829704e+00 2.356578e-01 1.294917e+00 7.039688e-01 7.873318e-01 6.963606e-01 9.399061e-01 7.897450e-01 1.234878e+00 5.032451e-01 4.769174e-01 4.810326e-01 4.985102e-01 5.544356e-01
<GCONST> 1.312272e+02
<STATE> 3
<MEAN> 39
 -2.814615e+01 -1.800286e+01 4.836365e+00 -8.445914e+00 1.080249e+01 -5.743091e+00 7.154573e+00 -1.040029e+01 -1.578448e+00 -4.859242e+00 1.725529e-01 1.831503e+00 7.356477e+01 -2.426677e+00 -1.640818e+00 1.561688e+00 -3.627902e+00 2.699596e+00 -1.462521e+00 6.210393e-01 -1.014792e+00 1.096994e-01 -7.578998e-01 8.739440e-01 -1.633775e-01 3.640748e+00 7.409204e-01 1.020590e+00 -3.252452e-01 6.926020e-01 -9.122902e-01 1.112089e+00 -7.577612e-01 9.347296e-01 -1.446283e-01 2.172017e-01 -1.027039e-01 -2.907099e-01 -1.122986e+00
<VARIANCE> 39
 1.978731e+01 2.692352e+01 5.113816e+01 5.399396e+01 4.478936e+01 3.987884e+01 3.342562e+01 3.433909e+01 3.238733e+01 2.536886e+01 3.331683e+01 2.222999e+01 3.152104e+01 3.446816e+00 6.692018e+00 4.545850e+00 5.121227e+00 6.937497e+00 8.018946e+00 5.037374e+00 6.656981e+00 2.373687e+00 2.534065e+00 2.057831e+00 1.943841e+00 6.318011e+00 3.917323e-01 9.571270e-01 8.395966e-01 1.012346e+00 9.096593e-01 8.503210e-01 7.323889e-01 1.040703e+00 5.149065e-01 5.030294e-01 4.959135e-01 4.870831e-01 4.493580e-01
<GCONST> 1.307794e+02
<STATE> 4
<MEAN> 39
 -2.846667e+01 -1.785411e+01 1.057663e+01 -1.254463e+01 9.614551e+00 1.355377e+00 3.336370e+00 -7.587193e+00 -2.307065e+00 -5.121234e+00 1.910356e-01 1.226565e+00 7.366708e+01 1.118003e+00 8.421419e-01 2.118788e-01 8.270424e-01 -1.163228e+00 1.405707e+00 -7.389919e-01 1.070937e+00 -4.782199e-01 3.027818e-01 -5.957547e-01 -4.685726e-02 -1.634041e+00 2.360791e-01 2.763212e-01 -2.120504e-01 3.259198e-01 -2.689879e-01 1.019494e-01 -1.218337e-01 1.776080e-01 -3.753041e-02 1.161296e-01 -6.030511e-02 -3.630130e-02 -3.698262e-01
<VARIANCE> 39
 2.381385e+01 1.979707e+01 3.006519e+01 2.428037e+01 3.949683e+01 5.398302e+01 2.856973e+01 3.511833e+01 2.838319e+01 2.037172e+01 2.754546e+01 1.479679e+01 4.527828e+01 1.863624e+00 2.491599e+00 1.757562e+00 2.129415e+00 2.533215e+00 2.165713e+00 2.227760e+00 2.956307e+00 2.035400e+00 1.814407e+00 1.587664e+00 1.043758e+00 2.766190e+00 2.310688e-01 2.955064e-01 2.661252e-01 2.643330e-01 3.363578e-01 3.699232e-01 3.886733e-01 4.462013e-01 4.060895e-01 3.469983e-01 3.455716e-01 2.224226e-01 2.449028e-01
<GCONST> 1.093497e+02
<TRANSP> 5
 0.000000e+00 1.000000e+00 0.000000e+00 0.000000e+00 0.000000e+00
 0.000000e+00 7.485602e-01 2.514398e-01 0.000000e+00 0.000000e+00
 0.000000e+00 0.000000e+00 7.714866e-01 2.285135e-01 0.000000e+00
 0.000000e+00 0.000000e+00 0.000000e+00 9.000633e-01 9.993668e-02
 0.000000e+00 0.000000e+00 0.000000e+00 0.000000e+00 0.000000e+00
<ENDHMM>
~h "sil"
<BEGINHMM>
<NUMSTATES> 5
<STATE> 2
<MEAN> 39
 -1.559263e+01 -4.822957e-01 -2.620526e+00 4.991942e+00 -4.410833e+00 1.232871e+01 -6.228013e+00 3.265710e+00 -4.760856e+00 9.211488e-01 -2.857476e+00 -2.915467e+00 5.007197e+01 1.188631e-01 1.023318e+00 -6.938416e-01 5.939932e-01 -4.133094e-01 2.517523e-01 -1.231867e-01 7.671709e-01 4.456691e-01 2.417914e-01 3.171656e-01 -1.287328e-01 -9.973659e-01 -7.780325e-02 -1.846885e-01 4.127434e-02 -1.061768e-01 1.284490e-01 -2.406414e-01 1.091488e-01 -1.182916e-01 5.920200e-02 -8.740821e-02 1.297068e-02 7.559338e-02 2.249411e-01
<VARIANCE> 39
 7.283016e+01 5.471945e+01 5.981094e+01 3.987156e+01 2.438900e+01 2.822427e+01 3.689064e+01 2.666316e+01 2.639587e+01 2.432268e+01 1.745771e+01 1.695637e+01 9.019687e+01 1.102754e+00 1.585790e+00 1.765542e+00 1.990402e+00 2.537935e+00 2.355603e+00 1.933128e+00 2.023033e+00 2.225954e+00 1.686307e+00 1.443178e+00 1.279782e+00 7.962999e-01 1.063894e-01 1.903373e-01 1.926519e-01 2.348145e-01 3.612145e-01 3.637483e-01 3.484888e-01 3.779131e-01 4.191230e-01 3.167410e-01 3.017131e-01 2.325695e-01 7.921249e-02
<GCONST> 1.062391e+02
<STATE> 3
~s "silst"
<STATE> 4
<MEAN> 39
 -1.269992e+01 3.831141e+00 -6.664592e+00 7.678443e+00 -6.441741e+00 1.004750e+01 -5.922104e+00 5.987123e+00 -3.660038e+00 2.256260e-01 -2.153125e+00 -2.994832e+00 4.812471e+01 -8.339512e-02 9.961185e-02 -1.035332e-01 -2.663865e-02 -8.003275e-02 -3.488187e-02 1.494155e-02 1.141057e-01 8.201689e-02 -6.749778e-03 2.764111e-02 4.366875e-02 -1.516998e-01 4.299537e-03 -9.099321e-02 3.711493e-02 1.592518e-03 3.025580e-03 -2.383031e-02 2.291666e-02 -6.920071e-02 -5.211401e-02 -1.018634e-02 5.014007e-03 4.730388e-04 7.344610e-02
<VARIANCE> 39
 1.303370e+01 6.567103e+00 1.468496e+01 1.035549e+01 1.175396e+01 1.531771e+01 1.996266e+01 1.647689e+01 1.440886e+01 1.169563e+01 1.095620e+01 9.968907e+00 8.500043e+00 1.012252e-01 3.230227e-01 3.710165e-01 4.509279e-01 5.938306e-01 6.841964e-01 8.058420e-01 8.646632e-01 8.859525e-01 9.047369e-01 8.292022e-01 7.527292e-01 9.236430e-02 2.529828e-02 9.401006e-02 8.203770e-02 1.063475e-01 1.350923e-01 1.722035e-01 1.806349e-01 2.011423e-01 1.898414e-01 1.881986e-01 1.775249e-01 1.575940e-01 4.487062e-02
<GCONST> 6.668468e+01
<TRANSP> 5
 0.000000e+00 1.000000e+00 0.000000e+00 0.000000e+00 0.000000e+00
 0.000000e+00 7.240937e-01 5.426670e-02 2.216395e-01 0.000000e+00
 0.000000e+00 0.000000e+00 8.535458e-01 1.464542e-01 0.000000e+00
 0.000000e+00 4.061313e-03 0.000000e+00 8.933313e-01 1.026074e-01
 0.000000e+00 0.000000e+00 0.000000e+00 0.000000e+00 0.000000e+00
<ENDHMM>
